0.0042939205543336256
-0.006299076538130528
-3.3501920160726483E-4
0.003209226293965375
0.004345094421820523
-4.2967364557638455E-4
0.003328912264334022
0.0030990083595126873
-0.003433117780473982
0.0021583637367713153
0.003587828568209763
0.001958733728709
-0.0018698471447869945
-0.0018512467551994834
0.0017897700109907602
-0.0039516490421736385
-0.0037935031551074886
0.0026403395082227154
0.0022325665308861055
-0.0024054971411591702
-0.0013431354956886614
0.002739326035334559
0.003946088056127455
0.002240022793367129
-0.0016164826866493804
0.0038739382217097096
0.003180556134024363
-0.004390911261023157
-0.003339839924093105
-0.0022215293657093516
-9.293425103742024E-4
5.528987078602873E-4
0.004283239722060881
-0.0023701168652940207
-0.002472290332077432
-0.003376341088027126
-0.0022684272931863484
4.934145524351431E-4
4.571973262708903E-5
-0.002976382893244054
0.0012128675498258787
0.0023268618293180417
0.0035353021399093863
0.0038777109189484927
-5.522942270237221E-4
-0.003652828620674186
0.0021185902211837953
-0.004090147120259991
0.001728123219416739
-0.0023975145666214307
-0.0018750781369814545
-0.005751621379855711
0.0021933737568563243
0.001474887723227551
0.002092573565578333
0.0012384680854641524
0.005793172823941617
-9.079996449096652E-4
0.0035562939735277323
0.003985690367173739
0.0015439207796513182
0.003948232817830582
-0.002683850413701053
-0.001384088845781639
