-0.0043042927543132025
0.0027249780412486302
0.0023351183766292124
-0.005828027470538522
-0.004508953223024698
0.003144348651087246
0.003996480174167764
-0.005144623774741479
-0.001363574204333999
5.216739749578286E-4
-0.003925929317945351
-0.004850084788242242
-0.0038271264376529145
-0.003533965367324127
-0.004167193061943715
-0.005166989346442032
-0.0013882165239112963
-0.0038425150061158026
2.6725351215230234E-5
-6.779590240737868E-4
0.00200069776842598
0.0050395127200480744
0.004023694216833846
-0.001255927325505621
0.004750871269941054
0.002681954561440974
-0.0013777129140632833
0.004799009161198814
0.004232150968348353
0.005417384142559767
-0.0025904872167185292
0.004537393888479307
-0.004163984364043804
0.0037648270265021825
3.910625820295294E-4
-0.004223521052681416
-0.0039453092541415135
0.0017730205829889804
0.004359910002593053
-0.0047908198453805
-0.004554569004772468
-9.087062554164941E-4
-0.003243811048044749
-0.0038667929341177883
-0.004072696634684906
-0.003257138231869926
-0.003808283104957275
-0.004000838635370726
-0.0014345135318104552
-0.0015036454313385132
0.005280903464909458
-0.002287524112354229
0.002866698780095802
0.005148344733339718
0.005444706503364218
-0.0016501535447529382
0.004971406082595935
0.004057882685606914
-0.0012936465552368457
0.0022703645412523285
0.005039611563943801
0.004934466224831915
0.0029303295606788586
0.004449819026229189
-0.004398705286595123
0.003303917839378006
0.001504198368714321
-0.006169716041375975
-0.004540452502632982
0.0036852389851722055
0.004024573587437892
-0.004643568864586904
-0.0035903939771377395
-9.389912471769701E-4
9.484687544762106E-4
-0.0038172220420385336
-0.004340790101380869
-0.0030475013969442277
-0.0035942365644456974
-0.003369877877889003
-0.0030569243166316154
-0.004723568068516732
-0.0023883434931631464
-0.00396004409898189
0.003115806074216337
0.005149045863701895
0.0055265927217803225
-0.0060780264186275626
0.003677290950405665
0.001236153179100381
1.2344990830180755E-4
0.004433693102021798
0.0023070139508693487
0.0044082384777384895
5.58682642231388E-4
0.004889866495986739
-0.00494921865867675
0.00166686326026481
0.0020169103925358964
-0.002335497398068325
-0.0038958505204138073
0.002630832361014747
0.003201960216573419
-0.004305311984510396
-0.0035564988450208024
-1.0543335196632278E-4
-0.0019500969473689052
-0.004336240041124745
-0.002541405366615772
-0.003164029785894421
-0.003120666565412363
-0.0034285148462505914
-0.0011780995057152541
-0.002868799949460553
-9.98431890147915E-4
-8.746843171497054E-4
0.004948683567816077
0.005055919826646118
0.004560531677043907
0.0013768410285128455
0.005749690407126949
-0.0041488189391361615
-0.002127660879155574
0.006181328100496392
0.005440241347256629
0.005548834868989304
0.004097553949927193
0.004915401306723318
