-0.0635539,-0.012698093,0.025507834,0.06581089,0.03729931,0.023734177,-0.012853804,-0.0188565,-0.017730918,-0.026938662,-0.08456664,-0.0068503404,0.03129715,-0.089607485,0.0124102095,0.03872378,-0.07604731,-0.02347788,-0.03295122,-0.09323636,-0.089868166,0.014906742,-0.0242021,0.043875545,0.0046026665,0.046272285,-0.024434367,-0.020381065,-0.08357669,-0.014958553,-0.033209004,0.037707396,-0.019553341,-0.016982568,0.025363002,-0.051803995,0.020836204,0.062245544,-0.04225837,-0.025052099,0.09121475,-0.0055385125,0.07228014,-0.16572206,0.049113266,0.037209287,-0.023559473,-7.937898E-4,0.041528773,-0.064512484,-0.021503342,0.09148267,0.08387473,0.034776326,0.030268256,0.0049515544,0.0473287,0.041207343,0.030696651,-0.026854048,0.010781474,0.09717806,-0.02452949,0.055338986,0.00616878,0.03869954,0.057614658,-0.011069985,0.0118940035,0.00765203,-0.087545045,-0.020117829,-0.06958885,-0.047280297,0.04424316,0.030475078,-0.071775235,0.06588698,-5.2576273E-4,0.028012322,0.030000202,-0.06254939,0.044076443,0.024800802,-0.046610396,-0.01649618,-0.015667172,0.034985837,0.14200717,-0.0348126,-0.064645685,0.051065624,-0.010563131,-0.041527767,-5.279604E-4,-0.039110206,0.03624988,-0.06948057,0.00944742,0.038492978,0.066278726,-0.033264257,0.010422218,0.084760755,0.1145972,-0.030749269,-0.046477832,-0.024929317,0.06648776,-0.06943493,0.077100806,0.008618412,0.12478212,-0.041509815,-0.020936728,0.089308746,0.09534396,-0.03624289,0.0361871,0.05081011,0.022261593,-0.038555652,0.006353988,0.13960142,0.085831404,0.0051870444,-0.0449051,0.06998939,