0.052361593,-0.011331011,-0.018011017,0.02399551,-0.062441755,-0.0033134497,0.03482198,0.022996949,-0.026320305,0.008639042,0.027704723,-0.025983697,-0.034163333,-0.023947656,0.05245666,9.9115474E-5,0.02247508,0.002045838,-0.0055028056,0.04100126,0.050388392,-0.011192238,-6.8408925E-5,0.01167944,0.028766751,0.0044551403,0.034499723,0.04133384,0.01762965,0.0066903345,0.022616567,0.026672265,0.035613917,0.007045809,-0.042409983,-0.013493431,0.025052693,0.02290458,0.027809683,-0.0038845271,-0.0029861166,0.11973737,0.03937315,0.013895866,0.059563752,0.038402926,0.031893525,0.045209087,0.04185686,0.026823634,-0.05088046,0.043634623,0.06149021,-0.0027512356,0.034734208,-0.0064627677,-0.019371226,0.054344393,-0.024246069,0.03056797,0.014005083,-0.036676485,0.0048693717,-0.008152893,-0.08361407,0.06487714,-0.03860329,0.013536544,-0.023109058,0.0017033627,0.05014446,-0.04004778,-0.032925587,0.04310674,0.0312762,-0.023409467,-0.03705872,0.0966601,-0.009581791,0.046717297,0.015371348,0.04759675,0.053347085,0.0074837767,-0.055120345,0.07529915,-0.052979864,0.04102722,0.034786243,-0.026864454,0.015106276,0.055006612,-0.0233429,0.01690131,0.068554915,0.023801494,0.062268525,0.0013172232,-0.030146407,0.027473846,-0.01357543,-0.019441087,-0.037343234,0.024883147,-0.046892915,0.009475663,-0.024939908,0.058511846,-0.0020916592,-0.05214477,0.027635034,0.039734494,0.034780446,0.040239405,0.062046587,0.0040613827,0.007473579,0.05013353,0.031470433,0.057862487,0.045278076,0.02759134,-0.02180674,0.058129724,0.06764966,0.016020784,-0.0013907277,0.044295378,