-0.07640171,-0.02840185,0.05390418,-0.06675549,-0.019910766,-0.009434791,-0.1250184,0.030191068,0.10323162,0.04171602,-0.063241184,6.757515E-5,0.057162337,0.023628803,-0.02853587,-0.023225198,0.024770845,0.0056489906,0.037618384,-0.024106588,-0.0014333255,-0.019162275,-0.0025101483,0.008219338,-0.005206478,0.08391621,-0.005275939,0.015429237,0.023054836,-0.0047624595,-0.023579638,0.05584006,0.041198384,0.0342084,0.010216313,-0.09380638,0.008111505,0.03398395,0.075638875,-0.056352343,0.034067515,-0.0035219977,0.022070836,0.0054307804,-0.03402169,-0.08176857,-0.03252095,-0.0072265817,-0.052596368,-0.04271388,-0.04293579,-0.037170064,0.032685302,0.01917021,-0.125472,0.0551924,0.0337434,0.03786725,-0.00867105,-0.060797658,0.03576965,-0.017507933,-0.025558272,0.047179822,-0.032639287,-0.11416771,6.2375155E-4,0.08943543,-0.04085173,0.026244393,-0.031289812,-0.05020541,-0.041090287,-0.007183378,0.029679408,0.009703864,0.0018257973,0.01235755,-0.042533573,-0.008490633,-0.032389127,-0.039112374,0.020371536,-0.025886375,-0.042923205,0.029421112,-0.046138894,-0.007860454,-0.07755831,-0.052141774,-0.03604186,-0.09104253,-0.024981359,-0.05304703,-0.017468866,-2.474297E-4,0.003848253,0.013680855,0.04045177,-0.03566892,0.04753517,0.014766054,-0.12047532,0.06187124,7.7345944E-4,0.017457573,0.0044976473,-0.07421992,-0.051644634,0.005548594,-0.032074668,-0.014028514,-0.006147724,0.017862858,-0.024959736,0.12576385,0.02374806,-0.04737334,-0.0077320454,0.035884414,0.07725043,-0.0044640778,-0.03386091,0.025403844,-0.028556261,0.05209701,1.5124926E-4,0.08159571,