0.046959136,0.050198745,0.14381513,0.015777616,0.056958217,-0.024084559,0.00149326,0.010926328,0.0031115972,0.019374793,-0.02442896,0.0010741225,-0.0069363746,-0.0988964,0.028026953,0.026163286,0.055708736,0.030665133,0.089910805,0.045900714,-0.05899074,0.02041794,0.13385251,0.02800604,-0.032411776,-0.0010891081,-0.01849631,0.06905256,0.020331312,-0.0149319265,-0.07649774,0.059924264,0.009859031,0.03520493,0.03199396,0.023358608,0.031044569,0.01572216,-0.039145976,-0.09502307,-0.06265376,0.005956456,-0.08346065,-0.009881308,-0.022531994,-0.0028706994,0.051921573,-0.08316607,-0.04156023,0.090464376,0.06394236,0.0074798805,0.05284884,-0.0456856,-0.016262624,0.07424899,-0.05940954,0.009531035,-0.021655466,-0.03391905,0.020683004,0.047559887,-0.007800038,-0.071015306,0.009317642,-0.043271698,-0.05691531,0.03764762,0.017787686,0.062750645,0.03366913,-0.021696934,0.010928605,0.010805837,-0.012552747,-0.022803014,-0.016242782,0.094040535,-0.0014516023,0.073271625,-0.015412311,-0.104722224,0.04872956,0.09491308,-0.02363695,0.005650065,0.04324396,-0.057932347,0.05930105,-0.017627697,-0.03393314,-0.021340396,0.025806302,-0.06815847,0.059673723,0.0057644043,0.060183093,0.08433007,0.037296515,0.039328076,-0.013990528,-0.01941226,0.040528204,0.033716712,-0.007259077,0.09979304,-0.015555433,-0.047175456,-0.058080446,0.011305491,0.107036844,0.0567113,0.076092266,-0.02831537,0.100957975,0.014680751,-0.015844604,0.02535885,0.007342166,-0.047233302,0.067379184,0.06622876,-0.06411121,-0.022758644,-0.053379163,-0.0010677096,0.08347027,0.08371177,0.034101523,-0.009327121,0.06322246,-0.06996032,0.03223449,0.08517267,0.050565258,-0.014048036,0.042293455,-0.009219648,-0.032182105,-0.011078466,-0.0149774905,-0.027494475,0.011941857,-0.05163373,0.032897387,-0.06531019,0.087304525,-0.030713435,0.0117098475,0.039140407,0.10021312,-0.009926402,0.04987972,-0.028678296,0.021223083,0.0128465565,-0.050535593,-0.0041593425,0.0067450297,-0.009101278,0.10085386,0.05726199,-0.03953629,-0.0124264965,0.07187355,-0.09259712,-0.03742884,-0.12083547,0.016257359,-0.0043437537,-0.0604415,-0.026546115,-0.0608989,0.024492271,0.0142431045,-0.0075353417,0.03009253,0.018605983,0.0054950356,0.0074666757,-0.03911557,-0.099577546,-0.031244954,-0.064405024,-0.11142009,0.022453586,0.054613996,0.008182725,-0.0063161054,0.022399554,-0.09385578,0.038573913,0.030055773,5.6590576E-4,0.110914126,0.07549982,-0.011745886,0.011835593,-0.020222139,-0.014833253,0.02708645,0.07327138,-0.086631246,-0.0042074583,-0.07445936,-0.033760082,0.05632728,-0.016623283,-0.055287648,0.039254032,0.034079075,-0.021384737,-0.019156229,0.05224067,-0.051441055,-0.046965465,-0.023022594,0.15736884,-0.10568923,-0.009907521,-0.05916674,-0.07044337,-0.0022439861,0.018940445,-0.05299555,-0.0798019,-0.06550708,0.0059120525,0.08946936,0.105456255,0.012483328,-0.03663094,-0.012131463,-0.014099472,0.0039990423,0.042890057,-0.07679073,-0.0067300503,-0.009003361,0.10201352,0.019651776,-0.046888724,0.045572665,-0.005468617,0.06043451,0.0575944,0.01785546,0.01017383,-0.021761673,0.011694796,-0.06499834,0.058630835,0.06322041,0.010634991,0.016369961,-0.041590497,