0.023858182,0.029602135,0.004380926,-0.004660521,-0.0056063863,0.02627461,-8.6364057E-4,-4.9155235E-4,0.024097001,0.023640381,0.017672757,0.0046592806,-0.023211934,0.015365938,-0.029164221,0.04492883,0.0025990182,-0.020889672,0.010368785,0.030586792,0.0048630126,-0.010706408,-0.0035994172,0.0074771936,-0.0011116245,0.023588117,-0.012882711,-0.007013681,0.0013776089,-0.003696993,0.013858981,-0.013075054,0.015814474,0.006895102,-0.019220598,0.038385477,0.009635091,-0.012382577,0.007509006,0.028371938,0.032955535,0.008408377,0.0031048274,-0.020936187,0.014796216,0.0048662485,-0.038193244,0.0014025873,-0.019711647,-0.016000824,0.04694624,0.03274967,0.035672408,0.042701144,0.02768689,0.0090028765,-0.039553344,0.02775305,0.042485874,0.010305971,0.003535829,0.0279895,0.036711793,0.05477263,0.04063206,0.02820462,0.034324057,-0.045478035,-7.0425496E-4,-0.024143668,0.030416114,0.014131687,0.02522124,-0.018060945,0.02739237,-0.013409448,0.015210634,-0.028560122,0.014967869,0.009391761,0.020020261,-0.0022625825,-5.585602E-4,-0.012827742,0.008531791,0.0044153407,-0.0014392948,-0.014878976,0.013136434,-0.01560261,0.0033414816,0.02746426,0.058957763,-0.011517969,-0.0122312205,0.029846825,-0.020148356,0.0061987066,0.02434577,0.032042935,0.013876018,-0.0023007835,-0.0020563507,-0.0048923977,0.023099082,-0.019950973,0.0099097565,0.012683559,0.030343689,0.020255174,-0.0057444135,-0.008812996,0.010806309,-0.010541323,-0.0014664789,0.053045888,0.022559503,0.043272775,-0.019952238,0.01616331,0.007274417,0.0445711,0.03225341,-0.0069148988,0.0089571355,0.026642922,0.049134158,-0.028512781,