-0.02128912,0.11378257,-0.019759575,-0.03658765,0.13573533,0.08101134,0.16919045,-0.0075775334,0.007691537,-0.038428232,-0.0058191107,0.24803582,-0.013738166,0.012341506,0.118552074,-0.00987092,-0.036348633,0.20247781,0.15399426,0.22103861,-0.032257967,-0.081944816,0.05804017,-0.0900082,-0.07871004,-0.0067115175,0.11469114,0.0968556,-0.062515825,0.1445279,0.14451335,0.1438318,0.07387318,0.13767926,0.10284027,-0.10112476,0.109153785,-0.029811358,-0.053109676,0.017400974,0.12135471,0.033395845,-0.0704959,-0.04969442,0.17541566,0.0035559004,0.14565562,0.10784807,0.17041148,-0.03894387,-0.022049315,-0.028538564,-0.029858625,-0.016367417,-0.019447675,0.12162157,0.044222526,0.14335103,-0.024714587,-0.13631336,-0.08027478,0.0040387786,-0.017814813,0.07199526,-0.07381139,-0.030511623,0.15087587,0.17020465,0.10512981,-0.04459166,-0.041925117,-0.059765905,0.15657088,0.017817158,0.13957743,-0.03266075,-0.103772916,-0.05388687,-0.12497566,0.14568536,-0.042432584,0.07108429,-0.04914004,0.16988538,-0.07057088,0.1277439,0.10408488,-0.04471183,0.11413962,-0.08863879,0.09527747,-0.012579264,0.21580122,-0.023197252,-0.0016095198,0.18963234,-0.018057505,0.17985252,0.15559871,0.108379394,0.2019877,-0.0359053,0.08148673,0.0108695915,-0.06683434,-0.042372216,0.24376525,0.014748929,0.0058671194,-0.028154977,-0.042022076,0.12166322,0.1481417,-0.07273256,0.1296526,0.28655273,0.14427315,0.17482348,-0.013474817,0.13279629,0.1450369,0.040323805,0.14307831,-0.0021404566,-0.057177227,-0.033797234,0.1398746,0.14686361,