0.23550707,0.29404017,0.25946224,-0.22556573,0.27002046,0.2515427,0.2762488,0.24304922,-0.2635663,0.27250057,0.26066595,-0.24456555,0.27182543,0.2648582,0.24880736,0.25753388,-0.25412238,-0.25280753,0.2551194,-0.207833,0.25288406,-0.23204009,-0.22705317,-0.24260587,-0.22660132,-0.22723696,-0.27802482,-0.283115,0.2675756,0.22387105,-0.23588887,0.21924402,-0.25407097,-0.2601417,-0.23635069,-0.22767967,0.23039934,-0.2296773,-0.23084058,0.2285573,0.26372656,0.24128482,-0.19467601,-0.22501396,0.22222064,0.24228685,0.22207958,0.2611465,0.25689006,-0.27694616,-0.25195894,-0.25672013,-0.24510448,0.28364795,0.25419948,-0.30688593,0.25134152,-0.25138068,-0.24734761,-0.27130783,-0.26293212,0.29098573,0.21695563,-0.2689075,0.26792133,0.22644162,-0.25941718,0.27133197,-0.24289149,0.22104822,-0.26773575,-0.26271588,-0.2594902,-0.22876059,0.281053,-0.24186333,0.2531702,0.27013078,0.19296947,0.24965733,-0.21092616,-0.23861703,0.27381888,-0.23129605,-0.26041886,-0.2620385,-0.21751204,0.25035012,-0.22868912,-0.29247487,-0.26116914,-0.22897343,-0.22805442,0.2777802,0.23187058,-0.2392824,-0.2806657,-0.259959,0.24564661,-0.22126488,-0.24320012,-0.2717362,0.26021287,-0.29310247,-0.25502482,-0.19756553,-0.28893712,0.3047815,-0.27741244,0.26526746,-0.20410563,-0.26064152,-0.25810343,-0.20422013,-0.26912722,0.2624287,0.24728478,0.29975817,-0.23434,-0.2784016,0.23082393,-0.2765306,0.26421058,-0.23180018,0.21333106,-0.273041,-0.25838852,0.25937057,