0.22444409,0.27955246,0.19442545,0.17135012,0.12279043,0.09631025,0.03934139,0.12357534,0.11014753,-0.053865753,-0.024476767,0.06811506,0.0017208558,-0.014106723,0.03525642,0.03111388,-0.020279057,-0.09803714,-0.029571822,0.06743238,0.06633767,0.029852532,-0.010813661,0.0020209216,0.09651972,0.105391994,0.1502164,0.07299477,0.022755876,-0.044667672,0.09764417,-0.051358484,-0.022331633,-0.011077606,-0.11833191,-0.045714844,0.12085127,-0.062018767,-0.05791117,0.051749174,0.036217388,-0.0034860335,0.059540506,0.07471392,0.017224912,-0.010261581,0.01723099,-0.016293872,-0.047451902,-0.02937745,-0.17446059,-0.047683574,0.053382754,0.02902265,0.017250713,0.09737323,0.029172216,-0.018334815,0.017398698,0.09055184,-0.09078057,-0.047873393,0.003492438,0.07731933,-0.15073821,-0.21774334,-0.1362131,-0.046127893,0.09158625,0.16211988,0.036023155,-0.0046328655,0.051063467,0.06514436,0.012524968,-0.055230994,0.04113906,0.094993554,-0.018956121,-0.039115865,0.081011765,-0.060899638,0.03941926,0.108432025,0.13248968,0.004467249,-0.0013010855,0.109261625,0.07003916,0.0493448,0.04241299,0.179667,0.04519619,0.05679324,0.027319254,0.10447427,-0.056628745,0.14918911,0.06656634,0.027143046,-0.04828641,0.00904453,-0.0025193526,-0.08582214,-0.025961708,-0.01178076,0.038322244,-1.8651469E-4,-0.08773939,0.015111488,-0.0073590064,-0.05357036,0.1042427,-0.07406088,-0.09731476,0.06119176,-0.02227195,-0.13221201,-0.09528335,0.018711608,0.09853541,0.035143603,-0.020219872,0.026660733,0.038498815,0.11594276,0.04693734,-0.012066302,0.093194015,0.11383321,0.091745146,0.18365878,-0.010022361,0.09152915,0.024272168,-0.0300691,0.09266435,0.16680545,0.06996693,0.11931445,0.037530966,-0.036126476,0.08476202,0.018824916,-0.046009224,-0.115030445,-0.07827187,0.009983673,0.0063958047,0.061381746,0.08448972,0.13506286,0.044550616,-0.034161318,0.011101547,0.06648341,0.16898917,0.018747019,0.136452,0.0126416795,0.10137627,0.035396025,0.009108797,0.09339892,0.086210325,0.14980762,0.18026136,0.05217924,0.012922939,0.04331457,-0.023004437,0.068861365,-0.021930825,0.07914742,0.04234655,0.07848853,0.062398467,0.031995915,0.053428914,0.14978312,-0.07673363,-0.22414476,-0.22220023,-0.17330532,0.06717243,-0.029197082,0.05327539,0.025836723,-0.004193691,0.031170413,-0.013702516,0.14857145,-0.051889718,-0.014978351,-0.051342934,-0.0874475,0.016368344,0.110260755,0.035301607,0.02439321,-0.006058246,0.07372639,0.08733378,0.021580435,-0.07076996,0.051526435,0.0438054,0.011365327,-0.053951755,-0.14305538,-0.15220967,-0.14520678,0.09771288,0.16593488,0.079262726,0.15009476,-0.027917976,0.059750654,-0.013048894,0.11979595,0.032365963,0.061900493,0.0020558313,0.10319932,-0.108510315,0.0074501126,-0.20857954,-0.14249961,0.13935062,0.11024077,-0.008544386,0.016663542,0.1238123,0.12842453,0.09023406,0.067587264,0.029301412,0.024738764,0.038646884,0.052872024,0.088926725,0.021833697,0.00720061,0.033793196,0.030699283,0.009841427,-0.007841501,0.04136473,-0.061938666,0.015875999,-0.06544928,0.025418738,-0.14325538,-0.02389013,-0.05551469,0.02987565,0.009705273,-0.08445905,-0.028718606,0.08995926,0.24414217,0.11168559,-0.10929901,0.14277995,0.07655028,0.019512206,-0.06968054,-0.051977325,0.023621349,-0.014583769,0.10648897,-0.06654558,0.0070360564,0.0959882,0.07359055,-0.03586644,-0.0048827194,-0.008966607,0.056426924,0.039742544,-0.10445237,-0.055803455,-0.0016068895,-0.060598847,0.13882713,0.065489955,0.097640485,0.1190472,-0.018986873,-0.11750618,-0.04322613,-0.062048648,-0.087025374,0.016276432,0.056968685,0.048050098,0.03276296,0.15962161,-0.028974269,0.08476836,0.0793396,0.01891289,0.068443775,0.05100325,0.022504907,-0.12095496,-0.12958966,0.11459104,0.12249096,0.069089256,-0.002775214,-0.035483558,0.18637513,-0.026507275,0.10559642,0.02085779,0.14151528,-0.038771737,0.14229555,0.050705068,0.17481828,0.083198845,0.11584296,0.24035054,0.09351458,0.14803037,0.076276615,0.08909018,-0.033393707,-0.058636565,-0.007830844,-0.022326494,-0.16499595,0.067629114,0.05454863,0.018347774,0.06190019,-0.029230535,-0.1185737,0.080737956,0.012393815,0.12255255,0.0629383,-0.017403116,0.03838134,-0.09532064,-0.03590927,-0.08000837,0.090525985,0.012138234,0.040548574,-0.07429086,-0.0752684,-0.12352985,-0.05756315,-0.0717485,0.07706499,-0.0034532421,-0.054988068,6.147101E-4,0.08077189,0.05108436,-0.02625193,0.08912106,0.08763739,-0.052090917,0.0085284235,0.12731138,-2.5747638E-4,-0.044345766,-0.0045966296,0.023546576,-0.026378363,-0.072972,0.06164196,0.004276554,0.07442811,0.066030696,0.072696015,0.0010809159,0.004371068,0.04461024,0.015887575,0.03650851,0.0054047415,0.15775073,0.20495522,0.12652425,-0.024886679,-0.06611415,0.050667226,0.044352397,0.01971561,-0.005387965,-0.03014105,0.02503914,0.040070165,0.024344007,0.09701923,0.10267889,-0.0019743359,-0.04248514,-0.088939495,0.027584378,0.15823519,0.06918859,0.053219885,0.12224337,0.14218216,0.14146593,0.083889924,0.03662475,-0.0067015626,0.056375567,-0.025138585,0.08720868,0.076418646,0.061364867,0.011676478,0.07754584,0.19816299,0.18417324,0.041959643,0.03446918,0.034220386,-0.04010992,-0.049568158,-0.012969053,-0.038316507,-0.049929086,-0.05605119,-0.13736913,0.056982942,-0.008186048,-0.033531807,0.041210968,0.13645977,0.052175015,0.02501683,0.09638524,0.11728503,-0.031056589,-0.10575855,-7.9109235E-4,-0.0035989103,-0.05873704,-0.041196678,-0.06849654,0.048069682,-0.049602915,-0.069280714,-0.027297152,0.14082853,0.17272392,0.1887793,0.18937561,0.014270465,-0.026741773,-0.04615957,0.03622509,-0.02552872,0.054157935,0.04136058,0.059785787,-0.06087425,-0.12456203,0.0039831595,0.11727378,-0.046131067,-0.07847674,-0.099659875,0.045171883,-0.062491387,0.023650924,-0.11365145,-0.029938988,-0.13211726,-0.042706534,-0.0017639551,-0.026707694,0.029843356,0.031262018,-0.10045767,-0.02308646,0.21803185,0.08927187,-0.008298051,0.11714314,0.00827559,-0.04934669,-0.16992508,0.02030672,0.028329898,0.030395221,-0.028250545,-0.012462821,0.03789315,0.06875589,0.13095859,0.15784955,0.0638204,0.08938364,0.13403301,0.018480401,-0.032770053,-0.030925559,-0.17439748,-0.0562338,0.026590554,-0.044703066,0.014264721,0.014025459,0.02232516,0.011224915,-0.1180267,-0.13191159,0.16520232,0.2285878,0.14430441,0.10572909,0.0315243,0.08863198,0.07342805,0.08884905,-0.0655304,-0.004495779,-0.034781937,-0.02359365,-0.055103235,-0.07102277,-0.12740968,-0.03479197,0.039400104,0.060747597,-0.0036875526,0.10946692,0.038764276,0.024484007,0.03614045,0.016345676,0.008823317,0.049474657,-0.03293532,0.009971454,0.1755293,0.10568352,0.070081376,0.14784598,0.076481916,0.12863995,0.06398939,0.09977002,0.0024984065,-0.01104075,-0.079789266,0.06993027,0.011525265,-0.0020096742,0.007121032,0.04185021,-0.042350598,-0.14251171,-0.03821216,-0.06262336,0.03776716,-0.007700412,-0.01961195,-0.043350875,0.117446594,0.10138375,0.01302415,0.08654163,0.055443697,0.027456654,0.058301628,0.10334891,0.087518014,0.054316066,0.011170143,0.08501001,0.121486954,0.085907616,0.0592296,0.13304788,0.01762254,0.011327416,-0.0011312932,-0.053711995,-0.0064142677,0.013376163,-0.034013286,-0.10511176,0.07378107,0.07244267,0.07159767,0.1904324,-0.07203932,-0.16219048,-0.17471646,0.059984487,0.080921166,0.09645582,0.03771326,0.029156178,-0.042726953,-0.049906764,0.08533886,0.021689523,0.09671683,0.06854107,-0.013654748,-0.04284359,-0.0864847,-0.013165534,-0.13301188,-0.099501655,-0.05575749,0.020980787,-0.023550192,0.012300136,-0.0012571305,0.024890829,-4.2616046E-4,0.022332417,0.076389946,-0.042879824,0.04166712,0.13637115,0.018934846,-0.108810455,-0.066082805,0.07026837,0.032354522,0.02966403,-0.020664262,0.09080551,-0.050805937,0.036712393,0.03568497,-0.022821268,-0.00323772,0.07888868,0.12995349,-0.02948566,0.06299109,0.16829832,0.16125825,3.93222E-4,0.048039887,0.05134959,0.070291445,0.10020288,0.089364976,0.0612006,0.1451302,0.078618295,0.04536447,-0.10708449,-9.099884E-4,-0.01296044,0.046057865,-0.04860091,-7.5584813E-4,0.07784886,0.074980415,0.061345298,0.090014555,0.030120393,0.024527702,0.026078226,0.009259785,-0.0074595264,0.087919965,0.2021968,0.14306287,0.17457388,0.09627861,-0.036498997,-0.12706883,-0.037328336,0.0037915737,0.024774363,-0.0015817989,-0.03477066,0.008561092,-0.02618871,0.049626276,-0.0074212602,-0.053272847,-0.06171988,-0.074490905,0.051523462,0.085255034,0.026677392,-0.05953961,0.15238202,0.01736748,-0.0148318475,-0.11749805,-0.046982624,0.009527843,-0.018748458,0.06806135,-0.04302965,0.19342332,0.13283823,0.12893157,0.114664435,0.014567342,-0.017009214,0.08252877,-0.04598572,-0.071995325,-0.013791416,0.04038634,0.02992104,-0.0706489,0.060170554,0.045094986,0.06233728,0.05425681,0.074902035,-0.063899204,0.026163876,0.153044,0.08363211,0.13426569,0.13219589,-0.05151834,0.017288482,0.059924025,0.06534189,-0.071547076,-0.043364827,-0.040849797,-0.0671207,0.038181406,0.005397999,-4.4017128E-4,-0.020371763,0.15355615,0.050859995,0.0687275,-0.0052759387,0.11230192,0.09198532,0.08788105,0.003275686,0.017767306,0.032190777,-0.060527895,-0.041052066,-0.09706578,-0.0914956,-0.062510885,-0.11730767,-0.053519793,0.060107607,0.06973418,0.093140215,-0.047498837,0.05151262,-0.0021706896,0.027614716,0.01831613,0.0015246803,0.12269991,0.07622108,0.07798811,-0.076295786,-0.0014827097,0.047272544,0.159833,0.00893056,0.086627364,0.23273896,0.07535706,-0.009339968,-0.062456068,0.05274614,0.022824906,0.056309175,-0.031823304,-0.005105396,0.076102376,-0.07094756,-0.032433808,0.0861126,0.110503234,0.08221726,0.08935543,0.09512386,0.01314379,0.015606679,-0.011632364,0.008392391,-0.010033614,0.03432579,0.0668348,0.024864748,0.07169034,0.007952067,0.027858188,0.029638123,0.04950193,0.21228503,0.25047407,0.070623554,-0.014187375,0.060010206,-0.017761596,-0.024742836,-0.005454815,0.033894103,-0.0868684,-0.048147757,-0.14146179,-0.115596734,-0.09034163,-0.05367688,0.015572176,-0.020766532,-0.0056785317,0.036503218,0.08841228,0.14136063,0.010910532,-0.020075211,0.0615643,0.08781249,0.06029111,0.10592391,0.18759684,0.26752114,0.15684934,0.21292767,0.027547598,0.07735323,0.025066024,-0.021653296,0.0144467475,-0.083135165,-0.06092554,-0.041931655,-0.047531623,0.029862687,-0.033428453,-0.018974364,0.016534608,0.028298369,-0.044300057,0.018179003,0.02335213,0.013337272,-0.05850417,-0.084933676,-0.03945643,0.15700854,0.11267679,-0.048346594,0.03868081,-0.003066196,0.10872466,0.032370828,0.024841873,-0.023246225,0.05197821,0.009485612,-0.038834125,-0.03216743,-0.024981765,-0.09439994,0.12847602,0.07451523,-0.0076271375,0.0141403405,0.14192343,0.1423116,0.08987755,0.14545608,0.05854482,-0.063363135,0.01055532,0.06702911,0.027035136,-0.17386878,-0.04801093,0.039570354,0.06972446,0.052691977,0.030411791,0.11276905,-0.051589906,0.019941822,0.009826761,0.15381612,0.096277066,0.035217423,0.037017595,-0.0014004149,0.054295376,0.12306403,0.107846,0.058934566,0.09291165,0.07601736,0.025237951,-0.061382644,-0.046222344,-0.041122146,0.037425373,-0.03590527,-0.16005,-0.12837228,-0.20194684,-0.16897315,0.044111058,0.16619469,0.1436703,-0.026221778,0.054199707,0.14872698,0.02330508,-0.021751039,-0.08120663,0.05719977,0.09732528,0.047059093,-0.011220329,-0.15089414,-0.08316248,-0.010526317,0.040304665,-0.0027387764,0.09329751,0.17006563,0.0283217,0.07846129,0.08416021,0.106355116,-0.093537696,0.007870653,-0.04481382,0.062539205,-0.00949242,-0.02707088,-0.044136457,0.032081265,-0.02510931,-0.039192915,0.1413131,0.10163118,-0.0024575316,0.006776513,0.08814828,0.094275855,0.02698901,-0.080707766,0.038882263,-0.008646683,-0.03004048,-0.07899715,-0.14127532,0.013296842,-0.021532897,0.013323407,-0.029997524,-0.04229519,0.097337164,-0.034545448,0.025403135,0.019758463,0.06299122,-0.033185728,0.06236637,0.021881655,0.103128344,-0.0053117564,0.00429985,0.103101954,-0.04104245,-0.0021062929,0.008560546,-0.016157107,0.040870465,0.050970633,0.08952587,-0.005059112,-0.14250462,0.018312415,0.042034093,-0.02944614,-0.23148918,-0.09515596,-0.16418909,-0.040368315,0.014176894,0.20942213,0.11231393,-0.03308308,0.026581485,0.21926267,0.14335436,0.0055895117,0.10200505,0.06492366,0.09893075,0.04848449,-0.055135366,-0.057011507,-0.008685335,-0.024671335,0.13448846,0.08013119,0.17442822,0.17458676,-0.022050748,-0.0125213945,-0.015400151,0.07318805,0.009618518,-0.05738018,0.027975747,0.017275723,-0.004230692,-0.18243285,0.008841623,0.12881947,0.036962725,-0.042172287,0.05126071,0.18272479,-0.018877696,0.07910061,0.013832122,0.10462338,-0.11497319,-0.00561962,-0.057236876,0.03290794,0.10126655,0.05512744,0.026275814,0.04438626,0.004767034,-0.037155982,-0.08579494,0.004585618,0.003478271,0.063619636,0.021692647,0.007925356,-0.0073220106,0.0027877565,0.011750032,-0.03507091,0.040831607,-0.016218059,-0.024244815,-0.09122228,0.14182869,0.18616037,0.17886966,0.11472566,0.011111837,0.0016313348,-0.058749977,0.104161374,-0.055917397,-0.015390077,-0.06840312,0.015573292,0.155387,0.05058798,0.1247066,0.077828184,0.06828935,0.04767416,0.08116877,0.02390785,-0.111570135,0.028757367,-0.04286493,-0.01262234,-0.028281212,0.004780589,-0.010732621,0.05352548,-0.0962661,-0.08155014,-0.099444695,-0.1522614,-0.033130895,0.054600034,0.09385448,-0.10702137,0.0562523,0.15681264,0.13924721,-0.03012285,0.010760557,0.09229001,0.06959277,0.20621233,-0.06608912,-0.09590982,-0.014434672,0.10120691,0.11435449,0.053675663,0.0028982898,0.021801738,0.029991483,0.028927382,-0.06390906,-0.011334021,-0.002381672,0.004334142,-0.018351823,0.053388465,0.009457293,0.007023834,-0.04792638,-0.050263137,0.03223917,0.0661981,0.09312093,0.041306447,-0.010029971,0.096881814,0.042318918,0.033487532,-0.106580205,-0.07699714,-0.02500639,-0.036600333,-0.050673798,-0.0052518058,-0.07974664,-0.008322564,-0.021555062,-0.049330622,-0.13003874,-0.032572538,0.026082674,0.041475743,0.019872267,-0.086000025,-0.047330488,0.05301621,-0.091137506,0.041588858,0.0949888,0.10940855,0.12582144,0.05605288,-0.0070953565,0.1411896,-0.005211295,-0.023504775,-0.031605586,-0.027165364,-0.039056275,-0.034337677,0.08138506,0.042472553,0.07745187,0.18316089,0.0015699016,-0.07671419,-0.12597287,0.02467533,-0.03076661,-0.045594953,0.033960573,0.056852467,0.030403426,0.15022297,0.14840586,0.10727112,-0.0030596107,0.046052292,0.07370502,0.08741324,0.09597954,0.059803855,0.037917174,0.15632178,0.055830877,0.0073799975,-0.0020808158,0.085658096,0.009123541,-0.0707976,-0.011097807,0.0052412,-0.0077390997,-0.15446672,-0.024615636,-0.032768313,-0.090090916,-0.05766623,-0.10385735,-0.03861251,0.023793284,0.05191827,0.13564289,0.060955748,-0.009493079,-0.012619521,0.11336372,0.0963043,0.0037350776,0.11148071,0.004041171,0.059358418,0.11342192,0.035870224,-0.023037644,0.13073778,-0.021042667,0.0072715576,0.08010494,-0.04088266,0.007215971,-0.061190177,0.058012888,-0.028854793,-0.030675868,-0.087123334,8.751509E-4,-0.053193875,-0.13117334,-0.10185277,-0.058409363,-0.010704747,0.13994978,0.173582,0.087896094,0.14748643,-0.028832626,0.07771064,0.026683835,0.027612548,-0.028511344,0.023252496,0.03269691,-0.110193305,0.06393385,0.14206022,-0.08265818,0.008926507,0.02934813,0.038772836,-0.18819283,-0.085529044,-0.012692787,0.12999329,0.023292132,-0.06805162,-0.080977224,-0.0018120698,0.029918218,-0.07972408,-0.0054202923,-0.09079241,-0.06055446,-0.045834765,0.073474854,0.11386064,0.050250508,-0.04768246,-0.0011226701,0.08650486,0.033711895,0.055532373,0.05271739,0.0071241683,0.004177308,0.0022208719,-0.072059065,-0.16538945,-0.18604045,-0.08938147,0.01044923,-0.050904017,-0.04470917,0.019505324,0.06613126,-0.006659735,-0.006979229,-0.047389027,-0.057823688,-0.08557857,-0.020037897,-0.005112924,-0.108245656,-0.11229138,-0.15974626,-0.008141859,-0.018993719,-0.020008022,-0.03389347,0.019553073,0.071848534,-0.055078715,-0.101705275,0.04830263,0.052121397,-0.0750846,0.030165134,-0.014926011,-0.014487162,-0.08088104,-0.114872284,0.06536384,-0.007426443,-0.19429404,-0.25548658,-0.077193774,0.093601316,0.007414004,-0.008921428,-0.01397352,0.021405812,-0.029891495,0.009095172,0.05042958,0.055906557,-0.012608685,-0.09436947,-0.019447552,0.10616247,0.10030557,0.047021165,0.08013102,0.058199722,-0.12971626,0.0239311,0.04247525,0.0806137,-0.0022871303,0.0049153687,-0.029520318,-0.004671852,-0.041322723,0.017251585,-0.012914659,0.082702674,0.04295271,0.04607873,-0.050684594,0.024171364,0.10027931,-0.010225326,-0.07063024,0.028041756,0.10571158,0.11570586,0.07594804,-0.089558475,-0.033483572,-0.038798746,0.04960816,0.1159386,0.1254799,0.11733438,0.070898496,-0.047780156,0.048593864,0.1417806,7.27191E-4,0.052866228,0.07419369,0.012687211,0.14077257,0.1308621,-0.03191743,0.017145881,0.18036795,0.046750013,0.09158983,0.027274871,0.081964865,-0.015382412,-0.009672733,-0.035688303,0.0022040454,0.08083743,0.04561533,0.026414188,-0.042136613,-0.09501165,-0.1197185,-0.081495345,-0.15244564,0.20043021,0.17146681,0.080794595,0.22450157,0.07499981,0.0037205438,0.026057772,0.06602329,-0.026849734,-0.015473885,-0.013609147,0.020612808,-0.09108979,-0.05620287,-0.033557158,-0.053740274,0.018738348,0.033200927,0.118252255,0.032825567,-4.1123843E-4,-0.02697617,-0.023267075,-0.012369962,-0.082118414,0.010318353,-0.05195818,0.10004492,0.1441441,0.02819103,-0.07431735,0.06404921,0.08966021,0.032418363,0.07272151,-0.04859358,-0.036457285,0.0706834,0.06967422,0.07551135,-0.025186075,-0.013239173,-0.004155657,-0.027255874,-0.101111405,-0.044177085,-0.053909548,-0.022415604,0.15328431,-0.07054552,-0.048394494,0.09433644,0.045338344,-0.07420532,0.010029878,-0.021221774,-0.016285347,0.00951591,0.036432173,0.027662778,0.028985066,0.09954031,0.10502408,-0.0102064395,-0.012885276,0.10305434,0.06256857,-0.058055256,0.0025360526,0.058696512,0.056503568,-0.004738144,0.065823905,0.026538786,0.051393084,0.009288449,-0.016429929,-0.027497707,0.08914826,-0.037444238,0.030460825,-0.19557571,-0.14079417,-0.05672348,0.10050689,7.686139E-4,-0.0038831627,0.0688309,0.06625429,0.04369679,0.025443876,0.023539545,0.023444893,-0.10519533,-0.0021492054,0.029757798,-0.0040249326,0.06776565,0.07798128,0.07322275,0.025173722,0.010812444,0.08740646,0.1287027,-0.030339206,0.12716551,-8.285075E-6,0.03481461,0.05747126,0.06607736,0.014147596,0.11866343,0.057935894,0.064960174,0.068366796,0.050984077,0.08012685,0.04751292,0.0063555776,0.013119797,-0.01566032,-0.028252319,0.06851808,-0.08685303,0.08318913,0.061474007,0.16455148,0.13741481,0.121795475,0.0937077,0.14857723,0.19087714,-0.007998145,0.034583602,0.040514976,-0.014370708,0.008411329,0.04816525,0.008333189,-0.017929833,0.008202725,-0.06467522,-0.062009282,-0.01974224,0.10038786,0.071942374,0.080639355,-0.014638326,0.13363008,0.02405638,0.100782625,-0.029307507,0.049833193,-0.005763709,0.04054961,-0.022741508,-0.014310214,0.022992086,-0.038583968,0.07699489,0.12973781,0.096059635,-0.025375655,-0.026994906,0.05289381,0.016428104,0.053243224,-0.03048378,-0.06688783,0.06528012,-0.06455829,-0.05390012,0.07377778,-0.027622385,0.09472174,0.105351046,-0.007387364,0.15826963,0.120147854,-0.05486407,0.05510434,0.07050615,-0.039578762,-0.0034744674,-0.10246397,0.003154355,0.00759226,-0.08911049,-0.09307301,-0.10088222,0.017946599,-0.0914808,0.0025583724,-0.03398641,-0.035020553,-0.024850484,0.08501084,0.1660904,0.023966825,0.050183713,-0.04537538,7.830863E-4,0.032296557,0.10342448,-0.08856097,-0.047959417,-0.032174803,-0.011378743,0.12063351,0.13786025,0.09459214,0.053153854,0.09284561,0.13416095,0.11396185,0.043933216,-0.045616206,0.1117627,0.0044071875,0.09854232,-0.017745087,0.004499755,-0.006773547,0.014170556,0.052988425,0.06336972,0.10575161,0.036459632,-0.03372967,-0.056163296,-0.015016734,-0.030159574,-0.08287868,0.005705256,-0.0128287,0.12855926,-0.108566776,-0.14691322,-0.02112567,-0.053307526,0.06738766,0.044601317,0.0918408,2.292934E-4,0.15309045,0.13949668,0.08437915,0.039079383,0.07423339,0.028474184,0.007921711,0.028518176,0.028233368,-0.008112929,-0.08384104,-0.095886625,0.121628314,0.12454969,0.05734553,0.06352623,-0.0060044024,-0.04495434,0.014425946,0.08214124,6.2606524E-4,0.069869496,0.018266477,0.11356856,-0.08515817,-0.103514664,0.047952406,-0.005240821,0.02633121,0.047518272,0.101379044,0.08374455,0.019410783,0.042533357,2.0935191E-4,0.063667014,-0.07766986,-0.0633758,-0.14138135,-0.020451363,-0.1450516,-0.09972598,-0.08354006,-0.0038776572,-0.046977516,0.038999327,0.04785151,0.0030453221,0.07326358,0.09704606,0.102121025,0.09247341,-0.030861046,0.0105876345,0.045433387,0.10168584,-0.09683676,-0.10746846,-0.022777868,0.053075016,0.05850049,-0.05957245,-0.04948425,0.066702746,0.07627191,-0.027003238,-0.0073903687,0.02883409,-0.017923396,0.0037709908,0.13069546,-0.008838191,0.099441715,-0.009125208,-0.021901311,0.11018415,-0.052483402,-0.24623364,-0.09126437,0.043788303,0.1001362,-0.007687509,0.0022885448,-0.021953244,-0.033196203,-0.043953005,0.04208042,-0.0825004,-0.0660523,-0.085474305,-0.13881893,-0.06636834,0.08248893,0.06340455,0.06251023,-0.015262073,0.07995358,0.040675275,0.08122428,0.13199353,-0.016177718,-0.011818266,0.009747504,0.057398245,-0.15669549,-0.07835992,-0.06993203,-0.016632922,-0.008600132,-0.039168566,0.051348448,0.0047212965,0.040312324,0.091908805,0.082044914,0.076205365,0.0804254,0.043216866,0.048413772,0.08661859,0.07760625,0.043156408,0.07109152,0.21417545,0.09856515,0.09424162,0.20867316,0.15610178,-0.027783066,-0.05000252,-0.078790575,-0.10346025,4.6379364E-4,-0.0027647158,-0.035876557,-0.12218971,-0.15602496,-0.0978887,-0.104966596,-0.19708191,0.10917662,0.12004442,0.13728155,-0.009356558,0.09028584,-0.009564144,-0.01747225,0.037749093,-0.013922451,0.02974166,0.04207102,0.15417732,-0.003834954,0.09257726,0.11405369,0.07798725,-0.008558552,0.11478349,0.09231257,0.06969058,-0.02350915,-0.057313245,-0.086329885,-0.07578285,-0.019356305,-0.054850135,0.010014753,-0.004749422,-0.094156794,-0.04928841,-0.090915345,0.023681168,0.038366508,-0.1219038,-0.0011912521,0.09406437,0.06501801,-0.0024767877,-0.020191392,0.022946957,-0.0029262502,-0.0844965,0.065817125,0.03849424,0.012360629,0.05080664,0.028377838,0.056395765,-0.10404935,-0.123025686,8.066543E-5,-0.050508805,-0.023551708,0.049289655,0.05253623,0.02289616,-0.1607119,-0.04817199,-0.08352046,-0.007011289,0.10041244,0.022117069,0.07597976,0.15623069,-0.03771665,0.044469163,0.08025623,0.07930393,0.07229071,-0.0038096753,-0.032757834,-0.020007236,0.046147443,-0.027730955,0.043610994,-0.033220757,0.14469814,-0.024193117,-0.05215563,0.22535813,0.058545526,-0.03512457,-0.055443816,0.10370144,0.09635575,0.107663885,0.048128683,0.023979193,-0.06757599,-0.03214987,-0.0016319904,-0.008213446,-0.09959126,-0.043814603,-0.19712715,-0.08645959,0.063188806,0.0090125995,0.06519406,0.012055512,0.09765333,0.004958538,0.043839503,0.03098597,0.034450468,-0.057673212,0.01866411,0.0056598643,-0.001053645,-0.05766438,-0.07565585,0.01164198,0.16418861,0.10205118,0.044929955,0.17481916,0.044717457,-0.07062839,0.013210316,0.0026240568,0.006977473,-0.035166487,-0.06333019,-0.105553634,-0.029114356,-0.05879592,0.03884155,0.017499791,0.099012904,0.065000735,-0.010305432,0.08092376,0.113110766,0.11896642,0.08242261,0.12078915,0.09778559,0.015452639,-0.010464019,0.15579738,-0.0510255,-0.033415865,-0.13088997,-0.07223389,0.022092497,0.021494048,-0.05353993,-0.07166265,0.01484797,0.046499304,0.022980593,7.31971E-4,-0.053248234,0.007358529,-0.0049453843,0.03046593,-0.11851941,-0.040837586,0.01578344,0.0015167256,-0.028521614,0.11324279,3.6344808E-4,0.037107907,0.063871324,0.054050002,0.046602525,-0.02372289,-0.0735657,0.01926174,0.041156188,0.0110755805,0.18051352,0.10941987,0.18311463,0.1294529,-0.019485444,0.02919163,-0.090089984,0.08963785,0.056212004,-0.036801543,-0.22574076,7.804014E-4,-0.024059998,-0.04479361,-0.07269878,-0.09457099,-0.038735185,-0.08681826,-0.13583979,-0.04060281,0.012589674,0.0214016,-0.008208181,0.045339093,0.020385692,0.04835282,-0.0023600033,0.06676085,-0.041744035,-0.022199105,0.018821543,0.01920087,0.086100906,-0.03231657,-0.13984476,0.081448995,0.08752292,-0.06653802,-0.09645987,0.021920303,0.099497154,0.04049918,0.017615609,0.055609077,-0.042245835,-0.010809887,0.03759556,0.07258019,-0.058484044,-0.12235689,-0.13628446,-0.14499657,-0.08215872,0.07810032,0.28114375,0.108339466,-0.0054155337,0.11280518,0.06275516,0.10237722,0.05246636,0.068750314,0.0763573,0.14057131,-0.06944313,-0.12925558,-0.124720044,-0.018114619,0.072159916,-0.035187807,-0.12174175,-0.07821404,0.11610765,0.033233028,-0.055010866,0.051143914,0.07011747,-0.15465939,-0.023538578,-0.020784762,-0.021911807,0.08530282,-0.045565482,-0.12388626,0.02585976,0.06805431,0.0149422465,-0.084021196,0.039565463,0.103521094,0.08348893,0.08374806,0.087907284,0.061019097,0.18892825,0.13723348,0.22384642,0.26331607,0.21020582,0.14195676,0.123105265,0.060469035,0.04572944,0.08989103,0.12150195,-0.084860004,-0.032248564,0.050399538,-0.0014034557,-0.015746908,0.030839529,0.03247566,-0.005643427,-0.09976417,-0.00860167,0.06644629,0.07726692,0.04044699,7.8040233E-4,0.0368433,0.06385978,0.09519201,0.15631759,0.05892621,0.010455789,-0.03097561,0.09905492,-0.034271717,0.017772483,-0.005837054,-0.06733919,0.0031673608,0.1674611,-0.0064265463,-0.0137792025,0.08371242,0.11028142,0.08199214,0.0810856,0.084059924,0.026415894,-0.028371068,0.04900159,-0.03682412,-0.033462286,-0.00911931,-0.11789535,-0.017587157,0.06304513,0.05945949,0.004825406,0.09443798,0.030211048,0.0048506055,0.010945187,0.103480965,-0.113117255,-0.09893617,-0.03152267,0.059892073,-0.17088391,-0.19802919,-0.10918141,-0.05645066,0.11737741,0.14034861,0.016783485,-0.03786669,0.08888601,0.07910844,0.08294325,-0.058419127,0.025828661,0.07161468,-0.022831578,-0.0080977585,0.06289199,-0.056803554,0.040639438,0.105597034,0.13284962,0.0177119,0.031730313,0.13482895,0.07656209,0.032168355,0.03571823,0.17344956,0.030291691,0.09095456,0.052567326,0.15024368,-0.03906296,0.14712241,0.09106079,4.5495387E-4,-0.07471169,0.007037335,0.0044449377,-0.092982806,-0.0018208621,9.0361736E-4,0.03983187,-9.6382597E-4,-0.049330894,0.05245141,0.066423826,-0.025766615,0.057141542,-0.107448,-0.10074334,-0.0012113164,-0.03396458,-0.1623225,-0.0938119,0.012465816,0.100938514,0.05912355,0.011186518,0.06919592,0.021614596,0.07936263,0.019279413,-0.008229515,0.08912596,0.04871943,0.07685874,0.12701592,-0.002161383,0.12313576,0.005869119,-0.0596418,0.09060049,0.1490215,0.04405079,0.068995744,0.07895336,-0.039031036,0.06015467,0.014290696,-0.028199498,-0.07628361,-0.029298913,0.018479414,0.036913633,0.07589468,0.09417218,0.16681512,0.032378342,-0.023112753,-0.047268227,0.08312632,0.14832659,-0.0060327626,0.16374129,-0.0033203352,0.09440801,0.05500254,-0.0035504086,0.0906694,0.02886891,0.15566146,0.20897096,0.09357085,-0.036804095,0.026138803,-0.0072116856,0.06809725,-0.053095143,0.019461965,0.0070988154,0.04848047,0.09021751,0.04977045,0.07841892,0.1455099,-0.0332161,-0.14678665,-0.19210625,-0.12703022,0.03807202,-0.020944105,0.1053202,0.044459347,0.031091953,0.09247688,-0.011655751,0.14870735,0.0030943353,0.05150586,-0.046434402,-0.08540575,0.015853414,0.13710554,0.053641554,0.05544087,0.012821299,0.10021507,0.07813246,0.02917991,-0.07492245,0.049862724,0.04588794,0.009237577,-0.037174236,-0.111545846,-0.11073426,-0.0848613,0.12525837,0.1746318,0.10633066,0.18944108,-0.007974154,0.048911843,-0.01874293,0.15187427,0.07216775,0.06151006,-0.017386355,0.10022525,-0.06806856,0.05196194,-0.17290477,-0.08673211,0.16354065,0.1377603,-0.0024746684,0.03665356,0.114953406,0.14632638,0.07624857,0.07821657,0.09786013,0.06692809,0.041908666,0.09184596,0.07747127,0.055626635,0.07137439,0.049705297,0.04840639,0.036826108,0.06214711,0.029612033,-0.024829693,0.04926432,-0.046247452,0.047907777,-0.08262044,0.0076274103,-0.010882036,0.080340035,0.021817345,-0.07383187,0.0150831165,0.15922926,0.28607774,0.15595685,-0.095113166,0.12736142,0.10487027,0.029006634,-0.0024625943,-0.03662874,0.07782231,0.0054088472,0.13096714,-0.037895408,-0.020099748,0.07429774,0.09577434,-0.047490418,-0.027749648,-0.06956345,0.024736937,0.021734057,-0.112256356,-0.057077646,-0.016820261,-0.047797803,0.09206848,0.04734522,0.044471208,0.062799506,-0.01248035,-0.10415803,-0.057773117,-0.07029995,-0.09243306,0.03518945,0.061929174,0.045264937,0.038126223,0.1616602,-0.036138967,0.036809977,0.04548563,-0.009243762,0.04085608,0.027857792,0.04621048,-0.10469053,-0.09289539,0.09735367,0.16387571,0.039696604,-0.05838847,-0.027051894,0.1866645,-0.049759466,0.08131544,0.029246071,0.14960465,-0.04872587,0.12699944,0.04293974,0.20929956,0.13940445,0.11481636,0.25543526,0.13217233,0.17869279,0.10037626,0.06546621,-0.023811597,0.002914168,0.024675785,-0.054103617,-0.10486559,0.058007315,0.032666344,0.009694536,0.079009935,-0.019653458,-0.12584409,0.121038914,0.06956951,0.14707369,0.06620982,0.0018417684,0.0795976,-0.043103307,-0.0013390636,-0.047627594,0.05332396,-0.015658922,0.026299752,-0.10586197,-0.058116566,-0.10215484,-0.08886011,-0.056471653,0.105319664,0.018978918,-0.069763444,0.016171958,0.06327675,0.05245379,-0.0033462767,0.050434988,0.065894544,-0.057760198,-0.0014985522,0.11140073,0.07098058,-0.02608037,0.012908413,0.057142213,-0.007338006,-0.08800876,0.09099172,0.020909125,0.11002651,0.06236039,0.07575551,0.012323276,0.020182274,0.046615656,0.028153542,0.019829812,-0.0073201945,0.14412403,0.17141095,0.10215317,0.0100487685,-0.09046577,0.012494012,0.044047173,0.045917477,0.011036643,-0.062246524,0.010518621,0.081051916,-0.0016096041,0.07135691,0.08160734,-0.015256369,-0.042835694,-0.06699413,0.037774645,0.14822164,0.077276506,0.054560076,0.09534372,0.09917164,0.11924743,0.09825915,0.021666678,3.2152532E-4,0.02278791,0.031649504,0.09651671,0.09118687,0.07571573,0.028897414,0.07798354,0.25275514,0.17729184,0.0724559,0.093546346,0.07844502,-0.011928221,-0.018334817,0.015676161,-0.0065411143,-0.015063775,-0.027882477,-0.1277805,0.11977755,0.030556431,-0.015752718,0.06226277,0.15659146,0.10133227,0.036641378,0.112190135,0.11650881,-0.034258205,-0.07521065,0.034209386,-0.02680983,-0.08158049,-0.003331929,-0.0592649,0.030499328,-0.08015423,-0.113645464,-0.08923117,0.12889205,0.12899192,0.124293484,0.14383242,0.013062908,-0.07857037,-0.06987308,-0.0052753333,-0.006955202,0.051915053,0.030075694,0.027464638,0.024730625,-0.08865076,0.027031332,0.14798546,-0.008831801,-0.05302799,-0.03502695,0.074473076,-0.030418882,0.044175167,-0.09527218,-0.04304462,-0.087902114,0.020980936,0.056246515,0.003920808,0.0789055,0.051630657,-0.06905384,0.06580233,0.2364139,0.11384359,0.014088352,0.12483855,0.077426545,-0.046298683,-0.16590133,0.050571967,0.05131447,0.05721908,0.011765167,-0.004021241,0.08319573,0.073925234,0.18205705,0.15044877,0.06330473,0.09407504,0.11178433,0.0038749415,-0.02580846,-0.060211677,-0.13778983,-0.0581895,0.045617383,-0.010380915,-0.007150625,0.0037391826,0.029461602,0.020127064,-0.084457584,-0.09868367,0.18821543,0.21961561,0.14237703,0.121247165,-0.0055463067,0.08542059,0.11228975,0.08441563,-0.063124634,-0.0037977435,-0.037713088,-0.027013218,-0.025942774,-0.048903815,-0.074659914,6.1308016E-4,0.039688114,0.10713769,0.03759395,0.11926325,0.013353674,0.05371838,0.059478205,0.062061235,8.932684E-4,0.052912194,-0.031842206,0.022888653,0.214196,0.08719064,0.024463441,0.10212211,0.10331303,0.111069806,0.07450229,0.08843422,-0.009561969,-0.032146424,-0.123883955,0.08633566,0.010882224,0.032847166,0.024134377,0.05286589,-0.08010013,-0.1275794,-0.031903185,-0.044071544,0.043268263,0.011490123,-0.03957301,-0.05336671,0.11541139,0.10602337,0.007069513,0.046971,0.02070917,0.060660765,0.058593858,0.11507622,0.071445055,0.006558235,-0.009752682,0.03096857,0.12653121,0.06584717,0.061796196,0.10824088,0.016034367,0.001591603,0.04005858,-0.049425177,-0.0021127677,0.019334016,-0.029201755,-0.10585265,0.12774158,0.13046758,0.108079605,0.26558462,-0.0057112267,-0.12973727,-0.1403719,0.085672684,0.10835375,0.09831465,0.03891557,0.037878767,-0.0024581142,-0.011536203,0.11301565,0.035526667,0.13140157,0.09016782,0.0377627,-0.010311297,-0.07028447,0.0057106405,-0.096133865,-0.055819046,0.026004255,0.07465775,0.008400732,0.043191142,0.0085886475,0.0977576,0.084426925,0.07053683,0.13259506,-0.013120766,0.101310216,0.1658371,0.03861587,-0.088128135,-0.017220153,0.08367112,0.011588336,0.04136089,-0.0048118695,0.11094717,-0.03815186,0.021530466,0.021256752,-0.05475545,-0.05710557,0.0830554,0.08294191,-0.046671636,0.05073049,0.116551265,0.09293261,-0.026476746,0.020747876,0.02523195,0.028579181,0.10764715,0.083901145,0.06413665,0.113871925,0.06394849,0.049551688,-0.12322306,0.0033579166,-0.018232156,0.061488792,-0.04922123,0.019990427,0.048064973,0.10954411,0.06786414,0.09117949,0.010874886,0.01753565,-0.008251699,0.02223555,-0.009464913,0.082784876,0.23464414,0.15572257,0.21457103,0.031337973,-0.011837802,-0.11852073,-0.05052896,0.027947783,0.04204389,-0.002505325,-0.030659089,0.0290359,0.02841236,0.10866218,0.021718508,-0.013701293,-0.018621959,-0.0072939005,0.1303479,0.16437843,0.06740673,-0.016046427,0.1899942,-0.018128201,-0.042951304,-0.11568465,-0.046281166,-0.005265138,-0.031903494,0.064911,-0.061611835,0.22858053,0.16838011,0.107912496,0.13448314,0.024894355,-5.734747E-4,0.12212476,-0.017227067,-0.07188794,-0.030832078,0.043334547,0.03626857,-0.025512183,0.07959019,0.091790065,0.087382294,0.09979895,0.0971313,-0.024858693,0.07061862,0.1956484,0.10402802,0.15128262,0.17577302,0.013375946,0.020355811,0.08989412,0.0797876,-0.06556231,-0.046890073,-0.037992004,-0.04366944,0.04753111,0.036232736,0.035749514,-0.027407007,0.12261212,0.067957275,0.07649171,0.017358916,0.11814335,0.08471266,0.061110646,0.021054162,7.8358396E-4,0.017958226,-0.03931264,-0.0326109,-0.07483097,-0.09267021,-0.06662745,-0.100795746,0.007725901,0.06294771,0.062064458,0.07701068,-0.0020677433,0.046256505,0.012091856,0.039415825,0.04565414,0.07422504,0.14337061,0.13716206,0.0863556,-0.052523,0.0682911,0.06217878,0.20530276,0.05438452,0.11408088,0.25135076,0.024714315,-0.01058125,-0.07027948,0.053198565,0.021104932,0.04289766,-0.019301396,-0.002534224,0.09788373,-0.062171914,0.009611751,0.11387551,0.17377047,0.11157691,0.0895274,0.09960724,0.020781307,0.026284557,0.008537109,0.0019896538,1.0694958E-4,0.040793233,0.059399474,-0.003431769,0.061944313,0.030307155,0.0032374684,0.020703753,0.049635142,0.23730703,0.24436739,0.02899012,0.024152968,0.09560016,0.0137684615,0.0032715644,0.010160467,0.09226336,-0.037583407,-0.023821183,-0.12928441,-0.13977875,-0.10404727,-0.07008129,4.9455196E-4,-0.0382557,0.017497422,-0.011691838,0.07566365,0.14467533,0.04130361,-0.050091952,0.043096773,0.09534764,0.06478639,0.09235545,0.19932371,0.2546248,0.17809965,0.22528513,0.03607451,0.10404618,0.043904476,-0.014664235,0.049003016,-0.06718152,-0.056761295,-0.010336323,-0.04941263,0.038469817,-0.031978305,0.029571658,0.01477172,0.043557964,-0.06473107,-0.026369218,0.012348964,0.008780365,-0.029552793,-0.11387442,-0.07870778,0.13843378,0.0807225,-0.08146987,0.053335853,-0.03473033,0.07523739,0.026499126,0.040839776,0.011515501,0.051105075,0.0020685324,-0.0384482,-0.07222649,-0.064524435,-0.10513934,0.09654725,0.070434004,-0.03587319,0.0082413,0.101015285,0.16771375,0.10328915,0.17316183,0.14089297,-0.03185718,0.0017994277,0.06573347,0.048214875,-0.09983807,-0.0084043825,0.014883179,0.1491311,0.05696418,0.029816004,0.122317985,-0.029286236,-0.05656277,0.028631806,0.11098549,0.102354735,0.041791715,0.0600508,0.01875287,0.10745228,0.17362149,0.1287043,0.08934424,0.094767235,0.06808881,0.06362153,0.008903229,-0.025164971,-0.020861538,0.022282083,-0.054208,-0.116895996,-0.12945004,-0.20059358,-0.14055969,0.044355646,0.18988581,0.12883529,-0.04350373,0.08033808,0.14112763,0.04834211,-0.054105308,-0.07160596,0.0342943,0.07721983,0.012313208,0.08510476,-0.1331913,-0.040294476,0.0109295705,0.090930566,0.036180787,0.10476471,0.16567482,0.05798307,0.098052956,0.11971938,0.13879901,-0.044931564,0.06606671,0.028923152,0.10840342,-0.020498766,-0.018299667,-0.009057879,0.063213505,-0.02510871,-0.004676364,0.16646816,0.11763667,9.5981266E-4,0.011503531,0.116854705,0.13647747,0.054993834,-0.059622876,0.0742925,0.013858259,-0.011610386,-0.06969599,-0.1616728,0.0013974766,-6.9518795E-4,-0.0142855225,-0.051757313,-0.083175264,0.06768757,-0.010446545,0.067814946,-0.004026966,0.04268246,-0.014346536,0.03645496,0.021339282,0.119040504,-0.015164638,0.010227793,0.08423707,-0.018560348,-0.0194846,0.040931173,-0.009267562,0.076003335,0.06250609,0.08352207,0.005754336,-0.121422045,-0.0051123565,0.0714718,-0.02152162,-0.21026091,-0.10529046,-0.21150409,-0.11055179,0.04998569,0.20499334,0.07965702,-0.042871177,-0.0010924113,0.18295208,0.13548867,-0.011363433,0.08362342,0.054459095,0.098325394,0.042115767,-0.05436459,-0.066415474,0.005309457,-0.0053603463,0.18315531,0.10380474,0.12749274,0.15689337,-0.011743254,0.014924566,9.55532E-4,0.07840953,0.030283187,-0.03892231,0.02945749,0.036698498,-0.012463189,-0.19256897,0.024222506,0.12177627,0.046321943,-0.08001993,0.0338102,0.16934061,-0.033644125,0.09289481,0.010980621,0.10299704,-0.12957373,-2.9347977E-4,-0.024602551,0.07191089,0.11421623,0.045035925,0.05480394,0.061619308,0.008754571,0.00671692,-0.06633431,0.048944414,0.033248436,0.09950111,0.07572753,0.0106828725,-0.0035277894,0.02549736,0.023942366,-0.027980136,0.10757779,0.023095304,-0.04305234,-0.067018814,0.15945053,0.18253048,0.17453727,0.0997939,-6.9464924E-4,-0.038622838,-0.09787042,0.07375608,-0.07793768,0.01746213,-0.071718335,-0.0074541843,0.13571072,-0.035187125,0.029827386,0.022831932,0.056587145,0.008418818,0.059808843,-0.029117828,-0.18874428,0.02504485,-0.052417036,-0.05087314,-0.07602188,-0.013130672,-0.02454155,0.050938454,-0.118929826,-0.0731755,-0.09820488,-0.20549312,-0.07739163,0.039681055,0.116169326,-0.11048752,0.023166189,0.17713852,0.1205379,3.3147086E-4,-0.008111913,0.091926545,0.0638108,0.19406687,-0.011748165,-0.03366456,0.016901055,0.112442136,0.15604387,0.06351023,0.02558618,0.021449983,0.05759266,0.07206052,-0.0192797,0.022975773,0.0033993693,-0.008860788,0.003873437,0.05262135,0.06994126,0.041357826,-0.0018280359,0.008198705,0.017572096,0.06223538,0.108759604,0.039017893,-0.0023224903,0.10899454,0.06298801,0.045887742,-0.092420906,-0.06249393,-0.029591894,-0.041809823,0.014333517,0.050863013,-0.074763045,0.011560558,0.0031374262,0.005503536,-0.10215755,-0.02577087,0.031044513,0.051857788,-0.002990487,-0.09369048,-0.017990902,0.053879056,-0.060046658,0.053077843,0.08377904,0.11574531,0.14947286,0.008080589,0.040568147,0.12229268,-0.040652413,0.0070329993,-0.0060004117,-0.0674624,-0.052652925,-0.015981069,0.1038725,0.102151364,0.12130422,0.21005705,0.0328759,-8.9072937E-4,-0.11864838,0.052929502,-0.009611719,0.0068982188,0.060551763,0.057059567,0.06457273,0.16897385,0.19779108,0.1505778,-0.012269787,0.02159777,0.054088652,0.056308243,0.118945986,0.041825864,0.014238978,0.13275102,0.07453848,-0.0074430173,0.009497976,0.075195834,0.007004233,-0.10285795,-0.047902156,-0.014674308,-0.0067862957,-0.136522,0.009520678,-0.03942159,-0.052455883,-0.019499132,-0.027629873,-0.04011223,0.030056184,0.06420934,0.15653904,0.056919932,-0.026758075,0.004792475,0.09666583,0.070941105,-0.016951213,0.11384672,0.064052776,0.07336951,0.15921862,0.08294797,0.0371567,0.14639762,0.0078141745,0.09256694,0.13175038,0.015647398,0.035974164,-0.038758498,0.052684657,-0.002888991,0.016092638,-0.079476,0.018518284,-0.05642725,-0.13187623,-0.1366838,-0.06499179,-0.06815194,0.13432962,0.1191348,0.06690923,0.103923544,-0.008238432,0.056075394,-0.008824326,0.026309086,0.014734518,0.010554771,0.048008665,-0.10269337,0.07495625,0.10774401,-0.13471583,-0.015564801,0.01935366,0.01147745,-0.17201114,-0.08717662,0.0035316611,0.10723319,-2.4082357E-5,-0.05755857,-0.06921372,0.01230331,0.048377782,-0.08145836,0.07697763,-0.06955607,-0.052668303,-0.031304065,0.08269888,0.117353536,0.07589474,-0.040617935,-0.028711807,0.08780402,0.030301519,0.041878097,0.02866799,-0.019345228,-0.016708396,0.0015607589,0.012019934,-0.0942477,-0.1224036,-0.058121808,0.06029304,-0.0022840067,5.4548297E-4,0.08962387,0.06294276,0.048851326,0.050503153,-0.032124862,-0.031635404,-0.064305775,-0.012369143,-0.016989157,-0.031603143,-0.08269549,-0.109060615,0.016633313,0.063740805,-0.0010443616,-0.057977118,0.037326444,0.11643521,-0.018901354,-0.059781384,0.042233538,0.043276574,-0.06915756,0.0108610345,0.009286605,0.01839083,-0.041992348,-0.05604216,0.105393134,0.011535817,-0.16110732,-0.16584152,-0.05585262,0.11847768,0.03503314,0.037748672,0.010995586,0.051350396,0.0029920733,0.06175962,0.087384485,0.0981843,-0.013418096,-0.074241884,-0.0043210164,0.09703429,0.09411343,0.022998711,0.111344166,0.057111185,-0.10769186,0.002323947,0.017229304,0.12093846,0.0049303984,0.04340775,0.011554448,-0.062058873,-0.07724294,-0.021554448,-0.051139023,0.048619155,0.049644705,0.047423862,-0.052725177,0.01400466,0.09112516,-0.018657163,-0.032457534,0.058733977,0.12550974,0.092229076,0.073830515,-0.08591471,-0.05212319,-0.026043266,0.04256754,0.14481434,0.17682041,0.14003867,0.0697715,-0.0077871443,0.06650117,0.182834,0.07118365,0.054326218,0.07939556,0.024349479,0.16599846,0.15974316,0.012558633,0.051466662,0.21917944,0.093654804,0.10780311,0.046207495,0.118313655,-0.021773495,-0.018965473,-0.055307854,0.030875133,0.067297496,0.04036171,-0.009460494,-0.024289042,-0.07983147,-0.08447103,-0.0554972,-0.13749175,0.18063515,0.11380675,0.08557371,0.22022721,0.03967573,-0.05140439,0.013973683,0.067762576,-0.03950619,-0.026499042,-0.050185062,-0.030235175,-0.041766368,-0.0068307472,-0.023305632,0.0052911164,0.036005083,0.051065378,0.13225015,0.07573184,0.003000132,-0.022572484,0.004248845,0.042547897,-0.077939585,-0.038931347,-0.068389446,0.11682511,0.21255492,0.043367743,-0.04219016,0.10504473,0.13273802,0.06743537,0.11271565,0.0071063675,0.019126752,0.118716195,0.11664707,0.10294033,-0.020561017,-0.041582476,-0.008447225,-0.0015155231,-0.0677546,-0.030287554,-0.042228635,-0.012562889,0.23587607,0.0057176845,0.032248996,0.12606636,0.1029807,-1.8595604E-4,0.07748718,0.03100784,0.026268067,0.018307973,0.04298562,0.056654572,0.0034474514,0.093529485,0.115065984,-0.04067673,-0.03444563,0.039207358,0.060382802,-0.057695832,-0.0011091563,0.00547657,-0.009750034,-0.032047503,0.041897204,-0.02815339,0.04158565,0.010499356,0.033298135,-0.0077896477,0.095727004,-0.033060912,0.05634682,-0.13926686,-0.08538976,0.009740486,0.14496182,0.07368082,0.049776506,0.12702292,0.16658479,0.13808776,0.08589469,0.091709524,0.08019052,-0.11838646,0.017664794,0.05838284,0.03910408,0.03903217,0.08461412,0.052324753,-0.006201129,-0.043866493,0.0284182,0.15240489,-0.040238053,0.123129845,-0.013458171,0.048676595,0.04802201,0.04694353,-0.004540416,0.09093715,0.08499418,0.07469579,0.045033418,0.017486539,0.07619007,0.028071266,-0.022424124,-1.05350875E-4,-3.4677912E-5,-0.024010748,0.062163543,-0.055937022,0.13249394,0.019484136,0.1636462,0.12170389,0.11901324,0.10670352,0.14260784,0.18259817,-0.034623545,-0.018000027,-0.008877001,-0.020725025,0.01679636,0.05403662,0.006009981,-0.053850546,0.036137618,-0.04178158,-0.101699546,0.02988709,0.07259883,0.06559182,0.08147074,-0.012698542,0.06892515,-0.004705756,0.08481524,-0.03820874,0.024361644,-0.032864098,0.022862894,0.0026370855,-0.009455787,0.056639317,-0.031749923,0.07232495,0.13188729,0.14092831,-9.5812324E-4,-0.028932879,0.06473859,0.07166894,0.07367783,-0.018091599,-0.048855435,0.070064865,-0.07288359,-0.053238846,0.06717875,-0.041221377,0.08846385,0.11105177,0.0064694583,0.1706575,0.11102949,-0.01134552,0.030300312,0.04430775,-0.049423434,0.03101629,-0.07648587,-0.0060366006,0.018223038,-0.07746859,-0.07089428,-0.08915544,-0.013407649,-0.11019976,0.022209048,-0.06683254,-0.016430726,-0.009008809,0.09846083,0.14579846,0.015902689,0.050621223,-0.028829765,0.0024817295,0.03298936,0.09313959,-0.09401245,-0.081300065,-0.06380134,-0.046923626,0.10064668,0.10252783,0.057076406,0.03391293,0.068431444,0.13460484,0.06376192,0.019439613,-0.048333332,0.12877361,-0.018042913,0.05140136,-0.0045478903,0.02908407,0.013175989,0.013469038,0.046329975,0.10807337,0.11619653,0.02220268,-0.04297453,-0.053603854,0.0069011706,-0.038599834,-0.08295106,-0.03607633,-0.013588462,0.06980592,-0.057116874,-0.13884336,-0.023393326,-0.07462616,0.09030758,0.05237192,0.09049908,-0.0023876121,0.14433365,0.15887721,0.06724436,0.07414752,0.054571804,0.04275175,0.031302884,0.059651297,0.05725861,0.037631404,-0.036570504,-0.09754337,0.11287826,0.12360267,0.072621934,0.06781213,0.0073720296,-0.05714559,0.015201686,0.04578831,-0.006979235,0.08230844,0.023709206,0.10979584,-0.07143916,-0.06685793,0.08733626,-0.011565002,0.05489661,0.08298805,0.12476558,0.12932543,0.023214558,0.037368782,-0.023234937,0.042286266,-0.09819816,-0.0773551,-0.13716868,-0.034409683,-0.1286186,-0.058875326,-0.054174136,0.05137823,-0.012085018,0.041703895,0.044014398,0.02497088,0.080907196,0.11904087,0.082433306,0.15113348,-0.033499196,-0.0055077304,0.020543318,0.0876553,-0.015694812,-0.07071121,5.3020666E-4,0.08876192,0.12126622,0.0023253518,0.031567343,0.15303878,0.13372034,9.373636E-4,0.06956367,0.06182419,0.053409845,0.030032834,0.15857649,0.034717996,0.118255354,-0.0235649,-0.021470224,0.098846175,-0.03171287,-0.22606228,-0.1337713,0.027416011,0.055070255,-0.023711538,0.012214328,-0.015822103,-0.054899994,-0.06148658,0.012444824,-0.09286201,0.015972119,-0.089306906,-0.08754653,-0.05386097,0.12149672,0.07727846,0.070639946,-0.0019924855,0.08461732,-0.008133415,0.056648605,0.11236662,-0.014749166,-0.036536906,0.0025844704,0.069238186,-0.0763187,-0.005868441,-0.03368075,0.06944988,0.062070284,-0.022710722,0.033682957,0.028135952,0.06542627,0.113732524,0.0842988,0.10250962,0.08654806,0.064144984,0.04545184,0.13187636,0.09675648,0.057015635,0.09741129,0.25649536,0.078619465,0.05985561,0.19763698,0.17747958,-0.043612283,-0.040268246,-0.06134323,-0.060271125,0.02818808,-0.020529944,-0.0014527342,-0.094229214,-0.16437636,-0.1343523,-0.14027555,-0.22090994,0.06986802,0.15918745,0.09157529,-0.016947253,0.0062982775,0.009199246,-0.04548259,0.05673556,-0.036415104,0.034453448,0.029374037,0.16010769,0.025515225,0.1300004,0.14322123,0.107196085,0.010045785,0.1399551,0.08725529,0.046877727,-0.03489981,-0.022848435,-0.07710117,-0.09704399,0.013016347,-0.024560424,0.02468932,0.023802461,-0.04261822,-0.035108227,-0.035842948,0.044235744,0.071545884,-0.07464381,0.019266244,0.13749917,0.08492236,0.04774595,-9.4464445E-4,0.08992008,0.030411366,-0.049123775,0.056775004,0.08227446,0.04453614,0.102581784,0.068916485,0.07357154,-0.09150048,-0.11716943,0.0017936466,-0.041264314,-0.02686886,0.040681772,0.023426771,0.035142273,-0.16595335,-0.061923023,-0.08151452,-0.023893015,0.11829452,0.02753763,0.05056258,0.15431769,0.007562306,0.053163327,0.06410107,0.07352108,0.073548734,0.005013727,-0.03476011,-0.0014118231,0.10311871,0.022626825,0.06459651,-0.027856588,0.17336741,0.007906596,0.030099656,0.247696,0.09713223,0.03698638,-0.016333727,0.10646067,0.09412636,0.16212107,0.065933645,0.05213637,-0.075214654,-0.00414614,0.031144261,-0.013999015,-0.07608084,-0.032692775,-0.15838574,-0.07740443,0.053783294,-0.0027409454,0.070480905,0.03793359,0.083604306,0.008234771,0.03311317,0.023506496,-0.016927551,-0.016225802,0.008829958,0.00361131,0.05462824,-0.016934488,-0.020247852,0.054636125,0.20966554,0.16665614,0.091162704,0.22346205,0.10826205,-0.018270064,0.06844857,0.038270473,-0.0015507928,0.018717943,-0.040852256,-0.1190748,-0.0038554752,-0.030399079,0.038258523,0.030680291,0.14811505,0.10316887,0.016795442,0.09512939,0.090707585,0.119740255,0.06223994,0.14365666,0.034649186,0.0024384875,-0.03741441,0.11128226,0.0087946495,-0.010337752,-0.07936864,-0.042063184,0.06886501,0.034905743,-0.019071888,-0.04511917,0.06251958,0.12037804,0.027800478,-0.009244587,-0.014109608,0.093487054,0.017137878,0.08001054,-0.067919746,-0.0010668499,0.012463045,0.012917534,0.007741333,0.10562574,0.025051512,0.01981125,0.054503705,0.07726256,0.07087568,-0.017769087,-0.0088006295,1.3876609E-4,0.07526628,0.057616007,0.14137605,0.10547493,0.16270947,0.1554071,0.007962018,0.033291988,-0.063971914,0.12329241,0.06268895,-0.03692157,-0.21103965,0.006614633,0.010800806,-0.002415301,-0.0090452,-0.024944229,0.03590893,-0.035676986,-0.1052468,-0.0094168065,0.06492715,0.04414881,0.043006476,0.09775782,0.0075651826,0.05643214,0.006447245,0.061561037,-0.036930606,-0.04106512,-0.0059976126,0.011877137,0.1301635,-0.029129863,-0.11058776,0.08529146,0.14561392,-0.017512461,-0.114841804,0.05179008,0.108656816,0.06267896,0.058254912,0.046183236,-0.035931833,-0.02810131,0.013700509,0.09175437,-0.045617335,-0.12483135,-0.10910729,-0.140601,-0.07469048,0.042092003,0.24002194,0.100185476,-0.044376254,0.108141325,0.020659475,0.044609033,0.07059088,0.024864804,0.07540708,0.112852715,-0.03156211,-0.11860475,-0.1226915,-0.0031785362,0.09006348,-0.035447817,-0.10419927,-0.052896716,0.14903246,0.048183102,-0.063352786,0.06926573,0.082041524,-0.10230775,0.0047780373,0.011364819,-0.01879884,0.09889486,-0.0025679697,-0.11526377,0.02197696,0.049551226,-0.019234406,-0.089560114,-0.0043896,0.08017212,0.06919016,0.042630162,0.08163253,0.049783405,0.14981143,0.12000211,-0.22315021,-0.28819722,-0.20898318,-0.101108946,-0.041220553,0.03759302,0.053670228,-0.023134092,-0.09225303,0.17553858,0.12254293,0.051488787,0.061853115,0.13586095,0.02093491,0.029319063,0.060609676,0.13978739,0.08327447,-0.024882639,-0.03042544,0.024478992,0.07543354,0.026155759,-0.031051848,-0.014738559,-0.10129972,0.015469139,-0.017464349,0.12086996,-0.037942912,0.1311331,0.06340913,0.0884451,0.1325881,0.13744497,-0.03898413,0.109408565,0.09353937,-0.02635416,-0.0046133627,0.054866847,0.0020231921,-0.0364044,-0.041353736,0.018602382,-0.029349435,0.008481866,0.06350168,0.06323252,0.17959207,0.08632854,0.01588604,0.049806565,0.08554652,-0.0027472158,0.016085148,0.067934975,0.10441805,-0.029885167,0.0680394,0.12341353,0.047854465,-0.051594175,0.17030576,0.20382912,0.15766881,0.046040773,-0.07469722,-0.11068803,0.012478594,0.08312795,-0.0013071919,0.02904966,0.0017110619,0.10440682,-0.0019079347,-0.053582743,0.028389372,-0.024195349,-0.0012839608,0.14764124,0.081676155,0.0076381466,-0.05218845,0.092203565,0.08430834,-0.039264772,0.048152734,0.058896698,0.07261376,-0.10168396,0.08975844,0.06360251,0.09120037,-0.010338832,0.065563306,-0.11526704,-0.038134865,0.03892256,0.108837865,0.0029139663,0.054454032,0.15233998,0.08316269,0.09861031,0.03637625,0.0067697368,0.075824626,-0.02233852,-0.028226512,-0.057991147,-0.053555444,0.12045272,0.14358222,0.02273031,0.09073939,0.20844871,0.15217924,0.017152146,-0.038139246,-0.056445494,0.0045671044,-0.032978248,0.04564615,-0.03286633,0.010919632,0.054464493,-0.036093354,-0.017300807,-0.0033163347,-0.13304755,0.048417293,-0.08812724,0.086980246,0.11757237,-0.02979997,-0.14614312,-0.0022620985,1.4185661E-4,-0.03427337,0.080630824,-0.02782195,0.05151285,0.041440047,0.14777903,0.11518004,0.027812164,0.053216096,0.04161572,-0.016927633,-0.086537786,-0.025692584,0.094269775,0.0947538,-0.024370743,-0.16563615,-0.0037827434,-0.17260285,0.012777014,-0.022436636,0.00398548,0.079004124,-0.044721905,-0.012577889,-0.12021258,-0.13912275,-0.039471146,0.009319284,-0.045728736,0.06260817,-0.080416575,0.09282605,0.02599064,0.040715605,-0.004084766,-0.02148084,0.013194887,-0.002249455,-0.07368701,0.083970025,0.22967656,0.27236235,0.22763838,0.020335294,0.09449054,-0.034494564,0.017081678,0.022154493,0.0036838306,0.044193186,-0.07920523,0.023715273,0.037128966,0.07895407,0.12129407,0.0070546474,-0.07754858,-0.04476391,-0.011353018,0.015241586,-0.06760244,-0.07775689,-0.0019574286,0.032341253,-0.09140485,-0.123075105,-0.09452457,0.06853861,0.09893735,0.14035477,0.095038354,-0.06730732,-0.12312109,-0.08654846,-0.19065174,0.09017229,0.011826198,0.020871293,-0.19629142,-0.12244759,-0.13428406,-0.076461725,-0.16849136,0.11514774,-0.022062523,0.21885964,0.13666967,-0.12666343,-0.08404458,0.08521742,0.055699334,-0.06485801,-0.075088285,-0.02403216,-0.070910566,-0.08197577,-0.0348802,-0.047755383,-0.1399797,-0.015422711,0.0101154735,-0.022046275,-0.0140704885,-0.009479697,0.03503778,0.0036088307,-0.05653452,0.08680925,-0.002016229,0.11753101,-0.082236275,0.13366854,-0.0035629496,0.038761117,-0.059401892,0.031312212,0.14324026,0.06378358,-0.09368523,-0.21040376,-0.102170885,0.15454699,-0.105103955,-0.07529254,0.052327678,0.13850607,0.13241857,-0.046438206,0.059185416,-0.06455101,0.10726996,0.118035175,0.020065233,0.050703816,0.121741965,0.11747479,0.14370683,0.033956043,0.057774983,0.12710543,0.13838403,0.056013018,0.13176471,-0.07346106,-0.015311002,-0.0050261896,0.004292236,0.08392537,0.20058015,0.16011277,0.15228556,0.18641204,0.08664464,0.06840071,0.047011025,0.07348329,-0.09695591,0.11843756,-0.0038545246,0.0425331,0.07462995,0.012523139,0.07654973,8.1598223E-4,0.1888296,0.17938083,-0.052831315,-0.0883529,0.00744128,0.1220926,0.112424776,-0.2068173,0.081299424,0.0013851614,0.071375385,-0.11648022,0.14301357,-0.009757602,0.04188054,-0.14465375,-0.078089304,-0.0376445,-0.2150606,-0.009880029,-0.06751154,0.016489211,0.022029672,0.068215355,0.092789575,0.08139739,0.09480167,0.20975655,0.016900841,0.069677375,0.07352788,-0.011839386,0.096052594,0.18260884,-0.05215235,0.066467196,-0.03356462,0.05323122,0.06267248,0.015353419,0.16089167,0.08772259,0.13876766,-0.008685176,0.06817939,0.049142063,0.13381998,0.08576051,0.08605705,0.07832589,0.0673501,-0.06548724,-0.007503165,0.08897908,-0.029038377,-0.070213094,-0.07350174,0.05056383,-0.081400536,-0.13369788,0.05338385,-0.066842385,-0.16588633,0.051460937,0.13869983,0.1134793,0.07275307,0.0799452,0.17896894,0.041577708,0.05346868,0.0029393325,0.023670213,0.020164056,0.098313645,0.05829261,0.046539478,0.06981714,0.06521282,0.093208924,-0.07426384,-0.1322789,-0.011434928,0.10026159,0.19193664,0.0683744,0.013470807,0.029861115,0.08261685,0.17780419,0.06749611,-0.02559044,0.056450482,-0.024372134,-0.015051953,0.049858686,0.092858806,0.14079283,0.05572721,-0.10795369,0.032920387,0.10460148,-0.009951348,-0.122685835,-0.020134559,0.025413945,0.05239746,0.049383625,0.006401342,0.00891081,-0.0735593,-0.05805403,-0.017189536,0.06262229,-0.026131263,-0.21241155,-0.15727653,0.02514662,-5.3963886E-5,-0.0026408513,0.08579465,0.16809002,0.049995594,-0.023205511,0.07185685,0.11906948,0.12739606,-0.031259544,0.0331291,0.08874511,0.010034443,-0.065472364,-0.007859375,0.025574427,-0.058145177,-0.05011166,0.12727228,0.16596822,0.0659665,0.036534168,0.14969508,0.10075396,0.09602554,0.017576864,0.10553543,0.14754482,0.12786505,-0.08505543,-0.0883722,-0.117707536,-0.16906624,0.023861123,0.12387326,0.12983346,-0.016119994,0.021567669,0.022816496,0.033829443,-0.004239969,0.030381622,0.12524761,0.0017289591,-0.12398988,0.01577988,0.1486083,0.14070871,-0.050895777,0.022590995,0.019156314,0.18139617,0.058583908,-0.0037928824,-0.026328487,-0.056074914,-0.042497687,-0.02950572,-0.019102173,0.07243517,0.006904035,-0.2115955,-0.047641553,0.073396534,-0.08952051,0.0020479881,0.07081531,0.18958606,-0.029340358,-0.0217388,-0.011034207,0.07810164,0.041824013,0.016856018,-0.009639564,-0.06863702,-0.11534811,-0.02296926,-0.03213812,-0.0040526874,0.09059021,0.08593376,0.08758441,0.23013261,0.07808608,-0.04063425,0.11293662,0.08207221,0.10091631,0.035420448,-0.009811978,0.16421504,0.16605803,-0.105915435,-0.20420617,-0.07908848,-0.050145753,0.07205634,-0.04747204,-0.0022288663,-0.055873055,0.09315677,0.040902447,0.047234565,0.013683349,0.1244165,0.08238512,0.15978791,0.08097351,-0.013365274,-0.030776924,0.08756227,-0.05635905,0.0113020325,0.055787005,0.0345549,-0.029028047,0.01875084,-0.0064164447,0.021114238,-0.04109458,-0.14530525,0.0023327824,0.016287556,-0.09385742,-0.008191026,-0.03155842,0.01755066,0.033470068,0.14378282,0.12992382,0.22490059,0.032515977,0.09105412,0.10754765,0.123063296,0.085885495,0.11479892,0.18767542,0.09919113,0.09935471,0.03605976,0.038371757,0.052513957,0.12578079,-0.07654674,-0.0863074,-0.009581151,-0.053325754,-0.0065406784,-0.004819901,-0.047623582,-0.09987585,-0.027943159,0.035983037,0.070518374,-0.029311318,-0.0015614864,0.05407673,0.014834423,-0.046670344,0.036290728,0.103071705,0.06130521,0.14595106,0.124082446,0.10909973,0.13974516,0.17507383,-0.06423865,-0.030249018,0.012577517,-0.15188983,0.090058655,0.19422816,0.22073966,-0.07198662,-0.027585477,-0.02104991,0.010766938,0.066477425,0.096730895,0.10277698,0.019734627,2.3214088E-4,-0.051166743,-0.021151567,0.0017675898,0.078085065,0.12876637,0.052351575,0.18661533,0.07900902,0.014034623,-0.021489264,0.06523796,-0.040666025,0.0039981958,-0.070305265,-0.04526962,-0.10106995,-0.107410334,0.12164153,0.0076700514,-0.13488208,-0.030643411,0.17643894,0.15754701,-0.015112181,0.019948678,0.033403657,0.09572891,-0.053438753,0.045049302,-0.0047533237,-0.027501047,0.02937908,0.09667253,-0.0036936065,-0.05547246,0.10225612,0.024101473,-0.08198085,-0.085655406,0.07115585,0.01675875,0.04783672,0.005176552,-0.02019777,-0.029268775,-0.0011019837,-0.012250121,0.002333785,0.044580117,0.15708661,0.018401455,0.030652784,0.0354346,0.15570542,0.07884051,-0.034299042,-0.05303745,0.02150622,-0.030460563,0.05269589,-0.009051069,-1.00412115E-4,-0.041134227,-0.055341024,-0.05452494,-0.21943827,-0.118327565,-0.18260458,9.1157487E-4,0.11999813,0.2639323,0.09180284,0.061008267,0.058875177,0.12016892,0.12097538,0.028212663,0.038733624,-0.01405599,0.04515059,0.05980755,0.062388312,0.08933774,-0.059974458,-0.064574465,0.026366433,0.115678534,-0.075257465,0.022240395,0.07973176,0.16793978,0.06941897,-0.08331392,0.050868507,-0.08380252,0.014703537,-0.17381135,-0.07729071,-0.02656097,-0.01274841,0.057886526,0.08167874,-0.022222564,0.108894035,0.12860367,0.10839161,0.036513712,0.04011816,0.10359242,-0.0325965,-0.02448416,-0.09430415,-0.06470056,-0.0591163,0.0767229,-0.056944687,-0.2121437,-0.029684206,-0.069766775,-0.12070099,0.04640478,0.051071938,-0.039680444,-0.059385333,0.09223596,0.07654267,0.05739229,0.09517352,-0.0017483877,0.054157913,0.0714352,0.06700262,-0.1191711,-0.0047513414,-0.025134562,0.084314756,-0.13113159,-0.030123021,-0.011148027,0.035514414,-0.02885101,0.0043506543,0.1156771,0.07404159,0.1248162,0.12448644,0.11521068,0.1479392,0.09736362,0.01932195,0.0044132047,-0.067241356,0.086217605,0.038810607,0.023024896,0.037235714,-0.02271518,-0.06276493,-0.15730572,-0.09119133,-0.10043238,0.06050688,-0.0094805,7.9791374E-5,-0.1596046,0.04915599,-0.06096559,-0.23104456,-3.0227163E-4,0.06906322,0.14485218,-0.05132299,0.01878532,0.020131366,0.049466085,0.04297182,-0.015486316,0.14800681,0.10744338,-0.02089208,-0.07871342,-0.052254975,-0.007973684,-0.037535734,0.0649685,0.024643876,0.048966967,0.050026894,0.05582418,0.030954232,0.009616254,0.04475456,-0.03221762,0.05090029,0.061014123,0.04462159,0.018245308,-0.13617803,-0.22644933,0.014870605,0.08755816,0.0108429985,0.072180755,-0.0098255975,0.019675367,-0.023735428,0.10308344,0.057434533,0.14602366,0.1802311,0.17966557,0.1270473,0.1038971,0.11309212,0.08149517,0.06367953,-0.04471449,-0.093847334,0.0079481965,0.036623657,-0.026813524,-0.06678406,-0.025735281,-0.02889768,-0.13563348,-0.24193686,-0.13294306,-0.18807991,0.062640525,-0.031339902,0.027282754,0.09414974,0.04265238,0.15062717,0.16260894,0.12307619,0.12078807,0.06194149,0.14380018,0.051578544,0.038783908,0.047541376,0.1461756,0.09156274,0.006963511,0.062264346,0.14014195,0.20311238,0.05969688,-0.096128546,-0.039391875,0.13083471,-0.07494988,0.033130772,-0.06859221,0.013979638,0.08451548,0.058363646,0.010031887,0.013060602,0.110882945,0.11518024,0.11727124,0.1097321,0.022720136,0.01625443,0.1258021,0.0766783,-0.033753842,-0.06329094,0.0089772595,-0.082380526,-0.054795057,0.12158166,0.04613913,-0.03800599,0.037283108,0.2620628,0.09746093,0.039437193,-0.06504401,-0.025306532,0.048924465,-0.082152784,0.10279146,0.09870839,0.07727364,-0.050964955,-0.025445925,0.03928785,0.02312782,0.06962799,0.006396601,-0.054615013,-0.059154086,-0.008238114,-0.08043295,-0.01689971,0.021542663,0.10642942,0.08051176,0.070734575,0.009267777,0.093347155,0.17266235,0.1606144,0.24592131,0.21833727,-0.022456365,-0.17916337,-0.104131125,0.09228742,-0.05602123,-0.1598237,0.011370487,0.102635406,0.06992443,-0.029845685,-0.110939935,-0.013485286,-0.0056172335,0.12896249,0.109394714,0.036137193,0.016444929,0.024464373,-0.037467875,-0.07995415,-0.0064436565,-0.04598771,-0.056848396,-0.085001774,0.056468647,-0.016972944,0.027521143,-0.06506016,0.07542017,0.11089798,0.099305905,0.023038384,0.100392394,0.07684064,-0.11942149,-0.037492517,0.06486407,0.041372105,-0.056551725,-0.06419588,-0.045222368,0.08966142,-0.06821021,0.03574308,0.04442846,0.13200311,0.146096,0.0087966975,0.06908927,0.024368346,0.029310483,0.12203624,-0.048168015,0.051141262,-0.030483553,0.040665478,-0.047952387,0.041404795,-0.041124504,-0.008047668,-0.021437177,0.082215056,0.05141908,-0.027177552,0.020028709,0.025056075,0.03312702,0.096216746,-0.026029881,-0.013647438,-0.016108159,0.03421702,0.13250677,0.019270921,-0.004745444,0.044667475,0.26805398,0.13310547,0.22763018,0.14631423,-0.012841404,-0.19709453,-0.06068871,0.07674551,0.029833026,-0.16964737,-0.14223877,0.026015561,-0.108970575,-0.02825226,-0.0792964,-0.04771038,0.08374201,0.12818564,0.061364673,0.061204534,-0.10296332,-0.069929615,-0.10998067,-0.13163021,0.0046584494,-0.0013121973,0.03410065,-0.083425775,-0.020489791,0.09150405,-0.033013973,-0.018165387,0.099400796,0.27739498,0.08712443,-0.066321276,0.0038702232,0.115443826,0.039805394,-0.12705132,0.04872119,0.0030218312,0.0617869,-0.045145363,0.14295347,0.019304646,0.06335759,-0.039324243,-0.03303279,0.031801548,0.044174228,-0.017710522,0.02918205,0.03357103,0.15280385,-0.009129111,0.023038467,-0.011904873,1.7161644E-4,0.03433273,0.081992835,0.018547738,-0.019730935,0.018641496,-0.035833858,0.019925887,0.059483767,0.10155378,-0.12255295,-0.1601922,-0.16334067,-0.14593445,0.02008988,0.07300642,0.10357349,-0.14639775,0.04880893,-0.0076244585,0.034229938,-0.061208606,-0.08033048,0.010328682,-0.103481375,-0.021189595,-0.014486461,0.016409338,-0.024015741,0.0885216,0.19528297,0.018767223,0.06416759,0.07042406,0.09402764,0.030104708,0.065461755,0.003304168,0.16841194,0.13814771,0.15265165,0.23752406,0.09597826,-0.0013461405,-0.09071144,0.13437656,0.0022726795,-0.08996941,-0.06495655,0.033063024,-0.049394324,-0.11007994,-0.06595306,-0.1899068,0.009607774,0.061129514,-0.013099328,-0.099123,-0.10409631,-0.03667809,0.024189211,-0.005599483,-0.019237105,0.0064154053,0.13413823,0.010665869,-0.02174905,0.024534278,0.02264346,-0.060312662,0.044086173,0.036540933,0.11213062,0.10254099,0.025232753,-0.010547342,-0.0104423845,0.037866525,0.058909185,-0.05088116,-0.023849132,0.0058333357,0.06216624,0.069361284,-0.045694098,-0.023152227,0.091110595,0.016181994,0.10584479,0.027433757,0.06774884,0.073952444,0.20184779,0.07971008,0.05817732,0.04348212,0.05595865,0.14397627,0.12196153,0.03882574,0.1268821,1.6360049E-5,-0.061463285,-0.05860955,-0.04877404,0.061375674,0.009120164,-0.12985381,0.076281704,0.109102,0.063918486,0.11593873,0.14949891,0.15480967,-0.0431764,-0.039340593,-0.07527673,-0.09685815,0.059523545,0.10764294,0.1652446,-0.015992133,0.101422824,0.11869444,0.05842281,0.010645881,0.04993953,-0.08757388,-0.12500662,-0.11250009,0.048769843,0.002701595,-0.04787907,-0.009520196,-0.04969678,0.03898548,0.098291814,-0.07835978,0.010064978,0.042311504,0.062117502,0.009283512,0.01881674,0.15768,0.116617724,0.050378524,0.07012205,0.1651903,0.030165695,0.02166812,0.12829733,0.10828485,0.09454904,0.089941874,-0.021955322,0.0082636075,-0.11021532,0.017039247,0.08657385,0.05629197,-0.034943096,-0.028586352,-0.019324774,-0.13143967,-0.03331161,-0.03725324,-0.10173665,-0.04829586,0.04491027,-0.077187024,0.106319085,0.03142568,-0.058998507,0.07930635,-0.042334303,0.08489483,0.010772979,0.10497345,0.01980536,0.13948993,0.0464352,0.06003753,0.18610966,0.15644556,0.12865971,0.08783108,-0.07465804,-0.09276811,-0.062775664,-0.08951404,0.05461998,-0.070171274,0.016235474,0.020593205,0.03406413,-9.946765E-4,-0.028437974,0.14119135,0.016927663,-0.06838598,0.18017572,0.10392569,0.012847659,0.08717096,0.3062636,0.18831019,0.018351264,-0.03823385,0.08059543,0.14939488,0.062863484,0.006500047,-0.044374198,0.11897727,0.09478376,0.18317267,0.15084365,0.16400617,0.027297625,0.00210395,0.025614828,0.11280676,0.08463839,0.010947469,0.05839322,0.04152974,-0.021068508,0.036990806,0.05755291,0.026484782,0.0589834,0.1550139,0.19690028,0.09462239,0.04368514,0.09084242,0.08539031,-0.030778617,-0.0504141,-0.00980988,-0.0139597375,0.0057088025,-0.006837175,0.031385,-0.018543592,-0.013984305,0.11311998,0.12863027,0.14680585,0.03403137,0.033654712,0.05099093,0.08522221,-0.02564654,-0.084058136,0.09748518,0.1305814,-0.060654443,-0.10031491,0.030655282,-0.045141757,-0.023128664,0.082494475,0.11027968,0.18770188,-0.01827518,0.068755366,0.23704392,0.26609793,0.12842676,-0.0705567,0.013904429,-0.0056938003,6.1396474E-4,-0.07657728,0.01610925,-0.07631538,-0.09206309,-0.02607303,0.05159017,0.105019696,0.04343854,-0.10276288,-0.05772795,0.017652143,-0.06448865,-0.021570101,0.19618124,0.052490186,-0.026688375,-0.08898555,0.0075969007,-0.020342067,-0.03775017,0.10908427,0.1305844,0.044348188,0.060092594,-0.03672384,0.08715044,0.060586944,0.12665711,0.033860154,-0.038512632,0.10146605,0.040512986,0.03939873,-0.08539634,-0.055332568,-0.008904532,0.09443885,0.10680351,0.090772234,-0.031288117,-0.0488236,-0.06766203,1.1899877E-4,-0.0090392865,0.051149543,-0.0147650195,-0.085981764,-0.0065770983,-0.05399869,-0.03792592,0.04476185,-0.076776385,-0.13166788,0.06619787,0.05224501,-0.15434559,-0.005822962,-0.029286264,0.053100318,-0.023655284,0.046585876,0.076197416,0.124739185,0.041253943,-0.084846385,-0.022450129,-0.014439797,0.021723,0.14648491,0.17031501,0.16986103,0.18556207,-0.13559791,-0.08801736,-0.047633942,-0.25580817,-0.015825007,0.093113646,0.039314866,-0.062140502,0.06705207,0.12079118,0.114765845,-0.004507424,0.083294675,0.030653829,0.02541013,0.034501273,0.028181037,-0.03794918,-0.09788709,-0.025389176,0.002486682,0.021610072,-0.07861963,-0.087128624,0.04961338,-0.026311576,0.0015112938,-0.1685982,-0.15644363,0.038508013,0.096031874,-0.017851627,-0.07155214,0.028881451,-0.025299862,0.10786106,0.012767059,-0.034097217,-0.004156366,-0.004538638,0.040254313,0.037304103,0.024025986,0.009044271,0.1625771,0.06547953,0.11767667,0.06359306,-0.14781131,0.077382766,0.026221544,-0.06028217,-0.051055603,0.12384651,0.016730428,0.039625194,-0.0100806365,0.041254934,0.0047042104,-0.039676376,0.046331316,-0.049848936,-0.045993023,0.094594546,0.02867098,-0.07981493,-0.054126646,0.10150656,0.044954393,-2.8084317E-4,0.057002317,0.070408665,-0.04357256,0.04686946,-0.006621944,0.013272049,0.046006914,0.06492559,-0.061733816,0.102423005,-0.0093521755,0.2048492,0.177698,0.06756756,-0.0679312,0.035010587,0.07114101,-0.023303825,-0.046706095,-0.04678754,-0.018076338,-0.024279276,0.025257342,0.19464077,0.074039824,0.006809034,0.054238882,0.05007098,0.014373522,0.028311184,0.03259628,0.11704233,0.053858753,-0.112958856,0.059832953,-0.046735805,0.078785315,-0.03221056,-0.0515148,-0.0034127727,0.06303477,-0.04942979,-0.0036831168,0.021634867,0.04684816,0.06535784,-0.037636124,0.06954159,0.10317618,0.044428147,0.065745145,0.0901689,-0.05221175,0.13662831,0.009716149,0.028799348,-0.07559747,-0.01233953,-0.0038741266,-0.018387415,-0.080306955,-0.11496331,0.10637216,0.033557326,0.025866613,0.0959052,0.0478032,0.00914946,0.06612795,0.08458417,0.055504095,0.09676587,0.11467513,0.072482295,0.03226327,-0.009781798,-0.0526439,0.113455,-0.11034621,0.034742877,-0.09811642,0.077891715,-0.046313815,0.051700406,-0.02131704,0.015103465,0.031192645,-0.021598073,0.07380881,-0.02625396,-0.0999199,-0.06985477,0.041073564,0.07412161,-0.048845388,0.05800345,0.045635104,0.10259117,0.03354568,-0.061086725,0.10878977,0.0028599612,-0.032292392,0.119508,0.02080294,-0.05497729,0.048976455,-0.105223425,-0.034108866,0.09669272,-0.023241369,0.023740565,0.1489924,0.039503057,0.04994333,0.040646397,-0.0027290182,0.089697786,0.13404953,0.1433423,0.070994966,0.18610774,0.07282796,0.13994779,0.101003796,0.05442187,-0.07075889,-0.105891004,0.03279598,0.028007247,0.029287972,-0.036742575,-0.06769729,-0.11000974,0.12599038,0.08080554,0.049177878,0.048931327,-0.09605517,-0.12659396,-0.08685992,-0.012873667,-0.030753763,-0.13357724,-0.062442094,-0.03933452,0.07216798,-0.07867433,0.056354675,-0.048248403,0.062361363,0.012515127,0.018302586,0.007637145,-0.007240637,-0.06182577,-0.02424079,-0.0021698107,0.07963893,0.13048714,0.08060248,0.017816829,0.09600053,0.07914075,0.05593658,-0.08914527,0.14711629,0.23575301,0.109665744,0.1069808,0.009571313,0.036784682,-0.045990776,0.051712133,-0.07902452,-0.050759986,0.01479715,-0.011833882,-0.03984999,-0.017488942,0.008462616,-0.0075013847,0.038646657,0.036344595,0.13636237,0.15266052,-0.07590757,-0.077659465,-0.028543657,-0.026379013,0.071493916,0.16825828,0.058523193,-0.01126126,0.023286669,-0.029585164,-0.0103379665,-0.16629472,0.15351303,0.12846342,0.023211602,0.038365,0.07445036,-0.0471899,-0.079527065,-0.029643374,0.035248324,0.01744762,0.049290713,-0.033354636,0.1292731,0.08791863,0.15137391,0.047259495,0.15348932,0.0797754,0.10661603,0.07122615,0.083572485,0.019315593,-0.010433651,0.04575295,0.012240473,-0.04261726,-0.077350356,-0.06418949,0.074833,0.08972286,0.025840636,-0.005633981,0.14894387,0.14053458,0.100516684,0.019724667,-0.0051922956,0.1391537,0.111953884,-0.034053102,-0.020117264,0.119287394,0.086549915,0.04184311,0.0056115235,0.02993724,-0.091393426,0.03733974,-0.03102246,0.12262833,0.07684125,-0.069326185,0.08243877,0.3026073,0.21655515,-0.015239984,-0.09154997,0.08277134,0.024182456,0.037390236,0.03707881,0.077530965,0.012224911,0.04732191,0.08093336,0.107294574,0.12739702,0.10359946,-0.060207058,-0.031206943,-0.0030739405,0.054310415,-0.052003972,0.043184977,-0.039701514,-0.1240862,0.041634064,0.037204508,0.034933474,-0.07270369,0.15748455,0.102042034,0.09459215,0.0063442867,0.071556546,0.096622735,-0.0048015057,0.044758882,-0.026813636,-0.057181776,-0.0391449,-0.07518702,-0.13394555,-0.11695122,-0.08864009,-0.12590502,0.011419782,0.008545912,-0.046438407,-0.20808785,-0.019163875,-0.0058606914,-0.13760039,-0.08039545,0.07196458,0.08827711,0.10768381,0.15060325,0.017984645,0.02771122,0.071277425,0.1645321,0.18809953,0.07359749,0.13098003,0.22917567,-0.04224475,-0.16579191,-0.13694026,0.0337505,0.004730434,0.071312346,0.07648247,-0.03174339,0.12645733,0.033942174,-0.0037067246,-0.0965261,0.04649445,-0.05775079,-0.0961086,-0.05299274,0.07774828,-0.031128421,-0.00957214,-0.012279717,0.081541106,0.09944575,0.13308969,0.096581586,-0.0074695386,0.062572345,-0.032896873,-0.034866285,0.10723953,0.071771525,0.12512282,0.016214428,0.033295114,0.1358732,0.03527689,-0.09663898,0.004912125,0.06913213,0.11419716,-0.018200185,-0.02702633,0.087035425,-0.05337587,-0.09311199,0.063653365,-0.058016956,-0.0047074202,-0.026449844,0.13098072,0.17320018,0.05269156,0.08789561,0.08428085,0.006601316,-0.012265064,-0.0090878345,0.22274363,0.114141814,0.113870606,0.026039215,-0.033714585,0.027763357,0.007169359,-0.07301073,0.08140242,-0.005740584,0.017319862,0.030556444,-0.043694206,0.08568254,0.121094,0.124765374,-0.052208856,0.08346987,-0.024316326,0.049610693,-0.084483236,0.14837313,0.10990323,-0.17364146,-0.029175222,0.10675477,0.11788253,-0.0058931313,-0.040282514,-0.06604345,0.003972261,0.00263921,0.1167075,0.043029122,0.05630407,0.06484769,0.14651617,0.121943936,0.18758154,0.1734105,-0.010635692,0.014557027,-0.10339023,0.008746617,-0.024099523,0.05573722,-0.026230512,0.03056565,-0.02619606,0.045072325,-0.0022175147,-0.043249033,8.2915125E-4,0.037371714,0.073125444,-0.003597412,-0.14850777,-0.10721317,-0.0010118298,-0.15692846,-0.04731418,0.07521028,0.00547112,8.0625043E-4,-0.010910507,0.032866385,0.084181815,0.11829157,0.08883146,0.1105744,0.06841098,0.07931106,-0.0023125375,0.041361004,0.07609979,-0.004190618,-0.026729142,-0.04140894,0.023054997,-0.05834931,0.029939359,0.12571584,0.18862005,-0.015053606,0.07191938,0.061830573,0.12876028,0.09573296,-0.042826753,0.014686201,0.09509744,0.118578486,-0.012995839,-0.023825027,0.01502547,0.021731604,-0.006608238,-0.05690614,-0.031800937,-0.0812136,0.18361653,0.07671444,0.04356612,0.03682206,0.095830515,-0.0328895,0.042955782,-0.005120158,-0.0015988394,0.003537475,-0.01591339,0.08193532,0.045312468,0.050920818,-0.010353403,-0.0068363966,-0.13679592,-0.10541361,-0.14597349,-0.15118252,0.06825616,0.09003506,0.1722418,-0.07928773,0.009823949,0.09617678,0.31918356,0.029290408,-0.021636946,0.037705746,0.055478696,0.023373751,0.058663275,0.115620784,0.1800011,0.094844736,0.019066092,0.019067468,0.037844174,-0.044095524,0.029140022,0.053160794,0.04010485,-0.051175863,-0.03193578,0.022445036,-0.036174193,-0.08969964,-0.08788083,0.095209405,0.18111345,-0.032498833,-0.085854255,0.13169757,0.17868641,0.028339982,-0.06385795,0.0027307319,0.0034103019,0.0037627276,0.10614762,0.08784948,0.013184055,-0.09486483,0.0666306,0.15803438,0.1574279,0.19963652,0.066801324,-0.039343223,-0.2897245,-0.077240065,0.09347816,-0.08235986,-0.048360866,-0.089747645,-0.08850267,-0.08954142,-0.12560385,-0.1405265,0.03853797,0.12929362,0.1118084,0.03814202,-0.026903383,0.036825858,0.11868088,0.083980165,-0.2062478,-0.05085394,0.07777946,-0.056210574,-0.096582994,0.1574828,0.03416929,-0.036025178,0.13501365,-4.7512012E-4,0.10451847,0.2045365,0.011177354,-0.009467241,0.041734964,0.124773346,0.034063812,-0.050711196,-0.05078485,-0.03714312,0.068428636,0.026695766,-0.07433151,-0.0065098144,-0.18227719,-0.25474012,-0.17250201,-0.13492735,-0.046215467,0.05627534,0.035231028,-0.044976674,-0.058741506,0.15415722,0.11167011,0.027585536,0.060755104,0.09312905,0.041434325,0.039432626,0.041830745,0.12179738,0.08632509,0.039656572,0.023557153,0.060563516,0.062131215,0.0776439,-0.041062254,-0.013997671,-0.0937164,0.021544013,0.033787448,0.085503615,-0.05554988,0.10085767,0.045013994,0.04025492,0.11664073,0.14416528,-0.10458519,0.026320942,0.061257415,-0.0018689507,-0.01625816,0.029656177,-0.027367359,-0.042287774,-0.034929752,0.032916322,-0.028918914,0.07809332,0.047678106,0.025201647,0.17091425,0.11267616,-0.0044506425,-0.024445524,0.084495254,-0.028323844,-0.020349436,0.04316284,0.088323,-0.059561614,0.061487872,0.092217475,0.038903587,-0.011091075,0.16543347,0.1994426,0.12371637,0.059146114,-0.06001473,-0.100140564,0.030979695,0.09458515,-0.019404167,-0.0030601881,0.013048116,0.08868944,-0.023027973,-0.071790546,0.016902728,-0.015952604,-0.05487631,0.12594539,0.02988,-0.091943055,-0.047234,0.09277074,0.10050166,-0.097065106,-0.0042108223,0.04369507,0.06807248,-0.10294727,0.011046639,0.023567453,0.07048958,-0.061493564,0.10329244,-0.060992416,-0.019364784,0.013375666,0.13613401,0.053741198,0.05925148,0.1593462,0.10831013,0.0815502,0.059315596,0.051948883,0.09712818,0.0011289865,0.04598477,0.025694186,-0.03746079,0.08854589,0.11020335,0.035404872,0.10165933,0.20034589,0.15717249,0.04436823,-0.0050742575,0.027749574,0.061104864,-0.010116639,0.06308516,-0.027649272,0.0315134,0.09547998,-0.047483444,-6.9825136E-4,0.004636092,-0.07703714,0.072802335,0.013101452,0.0943854,0.1930673,-0.025829464,-0.112358056,-0.013574841,0.021776255,-0.010408622,0.103166275,-0.0025230944,0.039818693,0.049898453,0.16158903,0.10916345,0.08239583,0.053674586,0.017389182,0.027792502,-0.023102937,-0.013286647,0.081767514,0.094533704,0.03008498,-0.081138365,-0.005065587,-0.1142146,0.01486895,-0.021695906,0.04862913,0.053937133,-0.009831876,0.0564514,-0.05379129,-0.10552618,-0.016183367,0.03270484,0.015660867,0.10933289,-0.017757209,0.10136344,0.025720352,0.038852748,-0.046565555,0.0054455125,0.061875023,0.018252067,-0.059286743,0.15446849,0.23131229,0.24970105,0.21221663,-0.012083054,0.07744961,-0.05605849,0.0069730836,0.024445875,0.016360808,0.032258395,-0.08052164,0.03464052,0.035074923,0.07183558,0.13785088,0.03509667,-0.106230415,-0.026702512,0.0033609641,0.03724272,-0.063963845,-0.056122266,0.02472126,0.045985557,-0.072427996,-0.07462099,-0.064189635,0.10143915,0.1229135,0.16376859,0.14780298,-0.038150236,-0.08278273,-4.8446364E-4,-0.09881181,0.06947762,0.0062254937,0.0405607,-0.10902515,-0.04513766,-0.05951119,-0.04557948,-0.12004112,0.13348812,0.06220427,0.22292101,0.15891793,-0.0559901,-0.04138478,0.09858891,0.09154239,-0.05342046,-0.0957745,0.0035603365,0.0019816875,-0.033298597,0.009244902,-0.008287929,-0.1123934,-0.030088684,0.004005745,-0.019533243,0.0033470418,-0.014084144,-6.156849E-4,0.0066514327,-0.0052471412,0.05929646,0.0015101595,0.11113864,-0.04369423,0.1178167,0.048620682,0.0657714,-0.035370696,0.03422626,0.14636715,0.080591574,-0.06229697,-0.18299975,-0.049509384,0.17670596,-0.05689282,-0.05606999,0.0536862,0.12623984,0.13042544,-0.014310555,0.123494126,-0.004450605,0.08791804,0.061177015,-0.02168898,0.01101722,0.16202617,0.05476255,0.098243795,0.04879066,0.03195142,0.121222354,0.124138094,0.05484451,0.12613395,-0.046691414,0.005120042,0.0018512581,-6.994834E-4,0.04084572,0.16433811,0.10623827,0.094460644,0.14715388,0.044119827,0.010743706,0.018522242,0.04328718,-0.101369195,0.10615318,-0.045574985,-0.023736525,0.05436151,-0.01982319,0.051335245,-0.014084648,0.1660236,0.22732061,-0.065050036,-0.081333935,0.042879637,0.13503046,0.13298376,-0.12326815,0.10115365,-0.006368044,0.06885493,-0.09799676,0.12984446,-0.049283274,0.04047306,-0.14661825,-0.106832504,-0.073993795,-0.19331275,-0.009216827,-0.07523439,-0.021908177,0.01691407,0.106991574,0.09208245,0.08861707,0.10097407,0.2092996,0.017443996,0.049434368,0.050232235,-0.016271058,0.064890616,0.18533501,-0.015036223,0.06336987,-0.0072732703,0.03606408,0.043442562,0.042837318,0.1574955,0.10413449,0.17271718,-0.0053560836,0.045585215,0.051160995,0.13890812,0.113272145,0.11377558,0.14119688,0.11683447,-0.033659577,0.0038781748,0.14499299,0.046194624,-0.0062034368,-0.01335102,0.08114058,-0.041722115,-0.06593837,0.08277645,-0.009704397,-0.13094743,0.023023775,0.12930408,0.10071579,0.04693459,0.09624197,0.16558798,0.032544777,0.024615621,-0.047298294,-0.011655176,0.008423749,0.0656789,0.04496646,0.040183216,0.04879125,0.052164998,0.11471635,-0.07186772,-0.08909794,-0.006783665,0.1471461,0.17058168,0.09689697,0.033026487,0.04161749,0.06816359,0.14148396,0.0829094,0.03958418,0.06309241,-0.014676911,0.0074993526,0.035898007,0.078227915,0.10633576,0.032568865,-0.036992345,0.024976179,0.016283505,-0.049636934,-0.06382873,-0.022548074,-0.036036726,0.043890513,0.04418695,-0.004993582,-0.010342662,-0.06809737,-0.02475971,-0.017373638,0.026470944,-0.006417995,-0.17118019,-0.16081378,0.0052313027,-0.0116706975,-0.00626463,0.07911384,0.12728874,0.08849451,0.024792846,0.09198081,0.10757782,0.14441974,-0.021413352,0.03800753,0.14354502,0.030632809,-0.04460312,-0.02922874,0.03153745,-0.0145754265,-0.053649362,0.12768826,0.17281325,0.07675638,0.05070299,0.12073803,0.102492906,0.11435105,0.047719967,0.118487485,0.15146887,0.123370096,-0.075780846,-0.062892884,-0.06876302,-0.12947318,0.051874116,0.13314645,0.17493664,0.03763805,0.05472624,0.029336335,0.05250475,0.0042837644,0.039429653,0.12280332,0.06500144,-0.06892493,0.03577541,0.1285872,0.15662348,0.0011874598,0.054427512,0.051579073,0.14009994,0.036593698,0.041195616,-0.019974273,-0.043691076,-0.029696023,0.02735398,0.028352637,0.1342187,0.08479093,-0.20198394,-0.01842245,0.082109906,-0.052126814,-0.008033943,0.14244622,0.1944284,-0.030489031,0.0184114,0.0031202708,0.08026002,0.046324942,-0.011570993,-0.0028267105,-0.108637385,-0.11212953,-0.026718363,-0.065741256,0.016051931,0.08503384,0.09145782,0.09243935,0.24990258,0.14738186,-0.023158746,0.11508134,0.065871455,0.07230056,-0.012238038,5.126562E-4,0.116025165,0.16357376,-0.082372725,-0.17266825,-0.10271072,-0.04819657,0.080625735,-0.042059977,-0.031497248,-0.041191798,0.08732611,0.047270607,0.041761685,0.015264683,0.12891352,0.10652354,0.16541658,0.10994411,0.068194844,-0.032460533,0.07009037,-0.040695373,0.056443267,0.072721384,0.029887723,-0.013204741,0.036661144,-0.007945448,0.043797027,-0.04113343,-0.11682876,-0.016034795,0.004514398,-0.077876545,-0.0154794995,-0.05352853,0.00515069,-0.012189323,0.073580794,0.11986223,0.18097238,0.008414979,0.09772461,0.07367149,0.09968975,0.058031783,0.088033,0.13317902,0.09087159,0.09261148,0.035885874,-0.004412391,0.03816449,0.109058216,-0.07698389,-0.0385913,0.038062617,-0.026003037,-0.029134791,-0.013347986,-0.04041281,-0.07098696,-0.052654643,0.010538629,0.040531527,-0.036051262,0.00995085,0.028262714,0.008865446,-0.095262505,0.021896396,0.08948739,0.0318813,0.12666444,0.09600017,0.06749493,0.09605825,0.1331586,-0.02995734,-0.027821796,0.006111937,-0.11477407,0.13119853,0.18876885,0.19184947,-7.138726E-4,-0.006251583,-0.019589115,0.06892872,0.04830192,0.046640053,0.05839821,-0.006755972,-0.007831743,-0.032750063,-0.015592113,0.03452672,0.07946238,0.09553937,0.064449996,0.15243027,0.09525637,0.020365618,-0.015548877,0.062901385,-0.04133043,0.016796086,-0.012977638,0.004281768,-0.054526187,-0.088671155,0.102313526,0.013103021,-0.13066113,-0.0073009324,0.13123444,0.119647,-0.012526349,0.020952292,0.038645566,0.078864485,-0.06181937,0.07291186,0.027286515,0.033337377,0.06726183,0.10880344,-0.042937532,-0.06158526,0.114593305,-0.028346892,-0.10294899,-0.08920107,0.06306455,0.04617035,0.021276392,0.03987501,-0.019652495,-0.009361235,-0.0061834133,-0.048589528,0.06044897,-0.0014886438,0.1234844,0.045812137,0.04867295,0.006888835,0.12276246,0.06486792,-0.028658422,0.009950953,-0.0069922013,-0.022128806,0.027720077,0.014003731,-0.016999753,-0.02081794,-0.005956476,-0.0019171636,-0.15491928,-0.06120392,-0.15307608,-0.01458485,0.113705866,0.21746756,0.11910453,0.044849053,0.05932607,0.08432082,0.108568266,0.070421785,0.07282169,-0.008619363,0.040975362,0.07082698,0.07422599,0.09306913,-0.02092115,-0.020059656,0.033710334,0.14337063,-0.07646489,0.05389385,0.06441854,0.18357037,0.088018246,-0.028454218,0.09706762,-0.03998581,0.080947235,-0.1779448,-0.076269306,-0.03808005,-0.029435433,0.06064645,0.08702505,-0.02080051,0.14341663,0.122155175,0.07612615,0.031213108,0.015237829,0.08185053,0.017122429,-0.013581816,-0.029559309,-0.05227695,-0.028482191,0.06793002,0.0030603425,-0.15540402,-0.023473436,-0.064861566,-0.105533,0.037384845,0.059439268,0.003719063,-0.015943717,0.11294487,0.098025665,0.11320993,0.08366822,-0.03067305,0.041649833,0.0482839,0.058683716,-0.11471402,-0.004094457,-0.031426053,0.063168466,-0.09301732,-0.041425426,-0.004572386,-0.0042196233,-0.016323091,0.0033056955,0.072450645,0.064499505,0.09540942,0.12767473,0.14291231,0.1600952,0.11299935,-6.266354E-4,0.012745049,-0.011465179,0.044093166,0.011759644,0.04821786,0.01863674,0.003782592,-0.057090696,-0.094069764,-0.061392434,-0.048073005,0.084373,0.009762448,0.0012099845,-0.069514185,0.051204402,-0.022051582,-0.16684288,0.03333288,0.099261716,0.16945447,-0.013376066,0.049132556,0.030557565,0.065532915,0.07185298,-0.038916755,0.13318977,0.0922172,-0.0040459945,-0.07646263,-0.044874813,0.0064750877,-0.020233693,0.087675765,0.02860956,0.088318154,0.07687637,0.080296345,0.05890142,-0.008510022,0.060969505,-0.01549389,0.05134395,0.04147794,0.056424394,0.009409527,-0.14710781,-0.18139881,0.018103112,0.027822485,-0.012315949,0.07015778,0.039679766,-0.015743848,-0.031980447,0.08112448,0.013640089,0.14442846,0.14929013,0.12507157,0.10635083,0.07782266,0.09891807,0.081047915,0.07335685,-0.0673277,-0.1365846,0.004224748,0.049715377,-0.006517857,-0.11213252,-0.037411585,-0.03578881,-0.15932542,-0.23750539,-0.13018775,-0.18158108,0.037096296,0.0019205592,0.036877327,0.073713504,0.053929247,0.14940579,0.1719609,0.13674644,0.108260475,0.042178713,0.10994337,0.08911314,0.09083088,0.04873322,0.117907315,0.099344775,0.060893808,0.063520566,0.13055341,0.20403862,0.099338375,-0.0898015,-0.038989842,0.106933534,-0.05254257,0.0145262685,-0.05507955,-0.0025925268,0.06989001,0.04684564,-0.004774953,0.03664147,0.067976914,0.10862469,0.060381554,0.13724877,0.016009886,0.01378179,0.12771426,0.10899594,-0.07189212,-0.08319556,-0.05118442,-0.14379007,-0.024685003,0.116012394,0.025851622,-0.018954834,0.020018464,0.21598692,0.06902929,0.046660777,-0.029712388,-0.03341039,-0.038162816,-0.10246614,0.07616429,0.061204035,0.063347675,-0.08676701,-0.03460112,-0.00687113,-0.018211612,0.033129252,0.006637743,-0.059695613,-0.06732334,0.043875806,-0.03713518,-0.03787344,0.019586353,0.1300535,0.084685795,0.06637621,0.007679129,0.062267147,0.18840349,0.15685786,0.2348628,0.22078896,3.0624663E-4,-0.16868189,-0.04532605,0.101997875,-0.05881324,-0.12175346,-0.0017934295,0.10728949,0.050656028,-0.05086036,-0.08310842,-0.020782173,-0.0066476353,0.17278582,0.12877566,0.094563335,0.00692318,0.06150177,0.0015843391,-0.0586146,0.06668271,0.013880488,0.011308276,-0.04813256,0.07614255,0.013293857,0.07239195,-0.039653894,0.08562806,0.09055494,0.09422739,0.034839272,0.115396805,0.059470065,-0.1319903,-0.069711715,0.021000281,-0.0052982923,-0.0459011,-0.076711476,0.018430412,0.072799586,-0.062482722,0.032358278,0.0960541,0.11810821,0.18884954,0.076296955,0.09904672,0.03497866,0.080241136,0.18258616,-0.021041982,0.05879396,-0.01328537,0.084666595,0.027294997,0.07861357,-0.008160346,0.023788648,-0.007898158,0.12625432,0.028431693,-0.004411863,0.05808988,0.07720441,0.047182895,0.06878095,-0.0066948566,0.035220746,-0.02396195,0.026437618,0.13448577,-0.0037220938,0.0043005887,0.039538536,0.23051798,0.078377575,0.1875072,0.108407915,-0.020292185,-0.1696712,-0.041663412,0.06767933,-0.031711202,-0.17909764,-0.12899242,0.042773403,-0.08661041,-0.010765696,-0.09723429,-0.074728176,0.029893205,0.0783377,0.06313588,0.085978895,-0.11180062,-0.0470131,-0.09153898,-0.11386227,0.0430673,0.022037243,0.06309693,-0.074185885,-0.010866645,0.07594322,-0.033698544,-0.050336685,0.09922494,0.24219862,0.036650397,-0.05594353,-0.001249588,0.10697289,0.031656656,-0.12392166,0.042909328,-0.006758162,0.04402665,-0.07425758,0.1122725,0.062218487,0.09587687,-0.026505211,-0.045091726,0.015484366,0.0070617516,0.00951496,0.013632357,0.022721155,0.08195546,-0.0035163404,0.011657215,-0.034852788,0.018639708,0.06365593,0.04620273,0.003375085,-0.025762707,0.060455877,-0.027314918,0.04092836,0.09012994,0.10364078,-0.1399967,-0.15655829,-0.14611214,-0.114152655,0.02711387,0.051036295,0.11016315,-0.12100782,0.056063697,-0.017513435,0.050335564,-0.048544403,-0.10063214,0.06402042,-0.087061204,0.009063822,0.0076977396,0.005502166,0.0055970345,0.056084663,0.18239789,0.013679656,0.10417398,0.055153735,0.12883915,0.068238474,0.039911583,0.02842899,0.15808158,0.12145333,0.14880909,0.2597628,0.11259499,-0.0010301772,-0.07946914,0.14027734,0.005560377,-0.08611724,-0.046337787,0.070614845,-0.0136413,-0.07302545,-0.076845095,-0.15119813,0.04839507,0.084686905,0.01892744,-0.04883242,-0.0319882,0.027328292,0.07198678,0.07696295,0.03780484,0.025359629,0.14782634,0.080401205,0.002694497,0.040403865,0.054348636,-0.024170466,0.04950333,0.015854195,0.10654109,0.09938049,0.010773144,-0.024815131,-0.03303458,0.047055975,0.047001053,-0.062002257,-0.017501116,0.02640037,0.04054169,0.076761626,-0.010184748,0.02753597,0.09807726,0.029735906,0.08793384,0.065738946,0.1046825,0.037297137,0.15418537,0.070041545,0.062015664,0.05326594,0.021819215,0.13150881,0.0814892,0.009498571,0.11367737,0.0075249295,-0.030766783,-0.051039822,-0.07853849,-0.0016995481,-0.0041193943,-0.13738258,0.048602413,0.04118787,0.057404622,0.08474596,0.111923866,0.07864469,-0.06282295,-0.020000985,-0.081304446,-0.13531993,0.07718739,0.09902939,0.13215438,0.017025927,0.04664076,0.08892406,0.05829707,0.03654843,0.009778455,-0.12607163,-0.14718567,-0.09329869,0.023827175,0.0107795885,-0.02269682,7.5611525E-4,-0.068336114,-2.7224355E-4,0.03787049,-0.09461676,-5.435741E-4,0.05839944,0.08278658,-0.010476171,0.039941844,0.15022443,0.09430031,0.05966973,0.041910432,0.174142,0.078214325,0.071625225,0.103530645,0.10548558,0.09174109,0.12246394,0.03035591,0.039996352,-0.07659385,0.022516862,0.07166001,0.060119737,-0.017687764,0.007698163,-0.0069276965,-0.07245606,-0.013305899,-0.038184144,-0.07003014,0.0034258524,0.022186903,-0.09927397,0.112752646,0.05685413,-0.07176992,0.060379617,0.0144989155,0.115872905,-0.0010710296,0.095530696,0.0020841702,0.1164289,0.035801414,0.10232556,0.15339728,0.13989392,0.12193583,0.08618647,-0.09394339,-0.11182192,-0.022125838,-0.08035693,0.03380068,-0.053191442,0.022343908,0.01545715,0.025786567,0.009951107,-0.040549148,0.09559128,-0.0063804956,-0.08514268,0.13138908,0.08512405,-9.013323E-4,0.032730155,0.23337807,0.17699921,0.005332869,-0.07862162,0.0681481,0.14591245,0.07372119,-0.0029683574,0.0022492358,0.15772276,0.053703062,0.14712286,0.1544835,0.14819169,0.023495734,-0.04962236,0.0034832787,0.09845574,0.104687184,-0.017337795,0.025735978,0.0076810415,0.033737507,0.07295465,0.007895591,4.4036453E-4,0.05456628,0.16694668,0.16806336,0.122293234,0.054115538,0.0807917,0.090815336,0.017604688,-0.03662217,0.017290076,0.020242842,0.07512768,0.037432127,0.06624984,0.0063419193,0.019449271,0.06746781,0.11195563,0.120918766,0.017438421,-0.0034265853,0.03554028,0.074414745,-0.009961166,-0.07241856,0.06209104,0.111183174,-0.04235189,-0.08145005,0.071235485,-0.037001364,-0.022457063,0.057969872,0.08009976,0.13065153,0.04058476,0.06621365,0.2014149,0.27380714,0.17543855,-0.056631427,0.027653977,0.0160748,0.06297191,0.018721014,0.033168063,0.006727324,-0.029072123,-0.006228596,0.05367422,0.12587082,0.10717235,-0.075517476,-0.076785296,-0.00869122,-0.03868002,-0.011371762,0.1647919,0.043493558,0.0066332575,-0.10636127,-0.026842797,-0.021417303,-0.0048734695,0.08522846,0.11055713,0.05287207,0.05704649,0.0016117855,0.071404114,0.043492556,0.1134363,0.056455027,-0.023358827,0.07291036,0.08793001,0.011998076,-0.08013234,-0.025930448,-0.02633539,0.11209909,0.08741895,0.111799575,9.3219E-4,-0.025038533,-0.07187687,-0.017337069,7.797093E-4,0.078708716,0.006669544,-0.10364742,0.024656462,-0.029755848,-0.027131928,0.027484031,-0.106643565,-0.107225314,0.0747511,0.009980889,-0.098953344,-0.0070150895,-0.009142858,-0.0065119686,-0.024945175,0.06715755,0.09919199,0.11379458,0.030387323,-0.10332852,-0.022729242,0.007521356,0.035906307,0.17374866,0.16939938,0.1708541,0.21473111,-0.08003807,-0.045764457,-0.009968157,-0.17242137,-0.032093123,0.07774265,0.045333516,-0.014441977,0.051478982,0.09745117,0.1217691,-0.0021481968,0.120081626,0.05643202,0.07759535,0.061890997,0.067614056,0.0065491553,-0.05510422,-0.024425112,0.030944617,0.060353473,-0.0076703224,-0.034704562,0.090100214,0.0022705083,0.0079503395,-0.12810381,-0.13641721,0.010289305,0.116447136,0.012840126,-0.042479906,0.0027465788,-0.032258756,0.12366301,0.043830253,-0.0025437023,-0.034096964,0.023285368,0.060636647,0.05953818,0.018630994,0.032581538,0.12270776,0.08303458,0.104693264,0.05264851,-0.14003429,0.07808811,0.04849599,-0.035368353,-0.0030503226,0.08894264,0.041457396,0.05474962,0.008266671,0.03123102,0.010834585,-0.018023202,0.038053505,-0.020319799,-0.032520756,0.1211446,0.020777166,-0.035944905,-0.013060369,0.13870622,0.0625326,0.016321996,0.037464026,0.06421863,-0.006481454,0.03638938,0.019238727,0.0037468346,0.05809846,0.065055065,-0.025152596,0.10243551,0.038311463,0.18772833,0.17866534,0.109091155,-0.043395106,0.061701637,0.09730595,0.009164352,-0.020526377,-0.009302254,-0.026027355,0.018886425,0.019938784,0.17160887,0.062348187,0.026064254,0.097857445,0.08264737,0.03695667,0.0054178787,0.04920348,0.11615085,0.042256016,-0.10627415,0.03971658,-0.06360741,0.07730509,-0.030509114,-0.017035391,0.028014194,0.056940716,-0.042418163,0.015911845,0.033278108,0.043045305,0.07629424,-0.05667597,0.051446695,0.10199538,0.061206095,0.03599394,0.06666859,-0.018154318,0.12578489,-0.043378584,-0.011316787,-0.09266771,-0.012535689,-0.051547013,-0.04359775,-0.10647629,-0.107384965,0.08514382,0.057175342,0.021463495,0.03072627,0.0823925,0.03560461,0.02481882,0.06544479,0.02033179,0.07620669,0.09903963,0.059972,0.01667682,0.01840145,-0.06547112,0.11463973,-0.0571457,0.029163426,-0.066418186,0.054683764,-0.0022707852,0.049155064,-0.031052604,0.0015900405,0.047686003,-0.024120374,0.0865766,-7.0356665E-4,-0.039742567,-0.06615691,0.069819614,0.11288937,0.075600535,0.034158856,0.0018531936,0.08122552,0.043748446,-0.035261087,0.0750223,0.02138099,-0.053750183,0.07403161,-0.01939353,-0.056985833,0.030552575,-0.10230918,-0.042886924,0.05621051,0.0049013817,-0.007621915,0.12757541,0.004273151,0.045765538,0.026470633,6.1499915E-5,0.040351056,0.10770774,0.13888071,0.08528166,0.17748812,0.038500834,0.08284136,0.07897851,0.05890616,-0.10384412,-0.13186482,0.009217825,-0.023108633,-0.004565149,-0.021628719,-0.06280661,-0.09220107,0.11223805,0.11111328,0.11936488,0.046757683,-0.056435987,-0.08056652,-0.025010217,0.00927257,-0.032126274,-0.12999845,0.013711806,0.024239587,0.09699698,-0.07060167,0.030768631,-0.045677166,0.0868306,0.019785028,0.019792683,0.049399134,-0.0069439677,-0.061294403,-0.013282006,0.01587308,0.08695469,0.09527698,0.0747717,0.047188286,0.08507776,0.045164526,0.045390084,-0.08223302,0.12421206,0.181679,0.112249784,0.10995308,-0.01975623,0.0030868987,-0.058807936,0.0024517365,-0.077387795,-0.07615202,-0.009968663,-0.0073409453,-0.03195975,0.003941797,0.0072654104,-0.02129308,0.10816525,0.10427948,0.16181222,0.17459717,-0.06854416,-0.07557986,-0.01814034,-0.005311065,0.080228865,0.16286138,0.10526912,0.0012229867,0.015560339,-0.04621947,0.02121656,-0.12401606,0.120072275,0.15008374,0.020495838,0.051190365,0.06411278,-0.026451187,-0.056996882,-0.001321174,0.055477753,0.026078355,0.07718225,-0.026454123,0.12227028,0.10482397,0.13686605,0.036412783,0.2052973,0.13586594,0.17626457,0.10209288,0.051077023,0.031860895,-0.006220552,0.08562824,-0.028633466,-0.038472865,-0.07130986,-0.05836673,0.08816893,0.08620011,0.061852355,0.0054591238,0.14678279,0.15122719,0.09529003,-0.020054044,-0.022526387,0.11711879,0.11567836,-0.028404385,-0.013512992,0.11586276,0.051834304,0.024733467,0.007046395,0.043493606,-0.03237644,0.05672659,-0.06826223,0.11391734,0.084647015,-0.007851913,0.056846015,0.31113803,0.19332255,-0.012369506,-0.08621164,0.07540377,0.06470449,0.0830709,0.040835436,0.08179853,0.048015073,0.098182485,0.06728762,0.10513011,0.15986232,0.122621976,-0.06451554,-0.021228438,0.0087293545,0.07448621,-0.020882074,0.043653704,-0.0023087307,-0.09639197,0.057068415,0.055365667,0.058801588,-0.010970171,0.19151841,0.11702834,0.13685241,0.065553285,0.031032434,0.09270201,0.042387288,0.070544474,-0.024348682,-0.10887419,-0.011931977,-0.022465125,-0.13714975,-0.09927595,-0.01996303,-0.118065946,-0.051113334,-9.522644E-4,-0.0716777,-0.19037868,-0.041438885,0.029509248,-0.12701559,-0.10942522,0.033339206,0.07363159,0.1389336,0.16073194,0.038069654,0.06587676,0.0722367,0.14853919,0.14808103,0.08712467,0.10833163,0.1904705,-0.072462924,-0.12031745,-0.10167268,7.425666E-5,-0.035311595,0.06004383,0.09886613,-0.059482433,0.058411065,-0.041379392,-0.011512618,-0.10403994,0.037477143,-0.03974696,-0.06529367,-0.04502718,0.07498864,-0.029629163,0.015120824,-0.008174501,0.07727323,0.0982859,0.14633016,0.087754354,0.019677516,0.0269572,0.013416747,-0.03144746,0.1545569,0.11026031,0.17261754,0.068892784,0.039272748,0.16810028,0.0753325,-0.014937672,-0.010457397,0.06507088,0.12605561,-0.005722131,0.015651617,0.12495617,-0.025638465,-0.03685929,-0.0016507762,-0.026419124,0.028131302,-0.04548779,0.1410249,0.14088255,0.07699597,0.06826918,0.0727182,0.0016880503,0.010683724,-0.010657096,0.18994476,0.0846889,0.12713063,0.054978594,-0.03294606,0.06865316,0.006560649,-0.083430536,0.08151678,0.01040851,-0.026409814,0.009035961,-0.019683374,0.058987394,0.054664977,0.048122883,-0.015554357,0.066665925,-0.018729096,0.060664397,-0.107000485,0.08110135,0.11236233,-0.21045677,-0.061155215,0.09492245,0.045411445,-0.053267565,-0.05620295,-0.10891613,0.004418507,-0.009169026,0.10624002,0.03634975,0.008710373,0.027953148,0.15016262,0.10855851,0.22276816,0.16477834,-0.04722636,-0.014004801,-0.022513002,0.02378464,-0.04927836,0.035858538,-0.050863728,0.0011996543,0.019207368,0.08813302,0.014795572,-0.005460167,0.039754678,0.033940323,0.07434009,0.04478007,-0.11761527,-0.10840306,-0.021929082,-0.13581759,0.009612587,0.09970189,0.034250427,0.0115996115,0.013321548,0.051255923,0.09613909,0.11268037,0.08450794,0.09392984,0.03347981,0.08573817,-0.01574436,0.032478407,0.052069884,-0.006305861,-0.028356755,-0.08004688,-0.03878404,-0.0741295,0.020552754,0.086864896,0.094493546,-0.12153589,0.100633815,0.09094979,0.12890938,0.10158789,-0.012416413,-0.012750593,0.112558015,0.09421565,0.0031189937,-0.033766262,0.0023751585,0.03939924,-0.002012286,-0.011466836,0.03379404,-0.012910391,0.10908369,0.06587228,0.064658634,0.06774558,0.054145686,-0.07479275,0.046972755,0.0021160997,-0.017285343,-0.049177185,-0.03909799,0.0025914812,-0.024609512,0.0015275028,-0.020614829,-0.055386353,-0.12705936,-0.06527719,-0.14785555,-0.17500867,0.056056067,0.029565098,0.119672306,-0.07924766,0.0139724305,0.10114744,0.26623854,0.0122268405,-0.03281017,0.055895746,0.0826877,0.06568798,0.048620645,0.1299693,0.19296405,0.10277091,0.027269496,0.0035035335,0.036768805,0.010122716,0.023138847,0.013264436,0.05547378,-0.02039072,0.03583935,0.037011344,0.015754659,-0.041884236,-0.047656763,0.08020932,0.19872352,0.021860281,-0.08625789,0.10209412,0.14018638,0.025597628,-0.039153766,-0.012976853,0.03172642,0.011704599,0.08163591,0.047447402,0.019840501,-0.06738888,0.09228265,0.16899289,0.1816671,0.22283305,0.17556022,-0.0028598278,-0.24196425,-0.053494133,0.103518575,-0.06447984,-0.01814863,-0.051099375,-0.027997345,-0.09085845,-0.13814479,-0.15943013,0.038430292,0.09288954,0.11435716,0.045441005,-0.017126417,0.009146384,0.09948321,0.099518515,-0.12536703,-0.030444747,0.058051884,-0.018889546,-0.06982211,0.115465775,0.022412209,0.0102974605,0.11579103,0.0101108905,0.055203315,0.1957461,0.066069484,-0.012370171,0.024611568,0.11905339,0.063970014,-0.06385194,-0.028909527,-0.06710619,0.001107101,-0.00658401,-0.0745216,4.149206E-5,-0.19248642,-0.2293301,-0.15601747,-0.137528,-0.048683494,0.04991534,0.035720427,-0.016597819,-0.054688163,0.1540595,0.114573374,0.027826257,0.03941535,0.10872441,0.05056016,0.03229893,0.022810241,0.108210705,0.03840373,-0.038245466,-0.007133553,0.02378353,0.06757494,0.042495135,-0.067713186,-0.047718734,-0.07161122,-0.024089016,-0.032205038,0.099039696,-0.057406563,0.077961884,0.06176412,0.05700395,0.10225918,0.07666008,-0.10106072,0.050422736,0.07769971,-0.012808457,-0.03620732,0.022537852,-0.01783943,-0.056426447,-0.03642578,-0.021104624,-0.03841222,0.0028220736,0.050680872,0.025504507,0.14957538,0.085875,0.009831187,0.0042075706,0.100665905,-0.008843476,-0.017721023,0.036342945,0.06727391,-0.025497891,0.05116433,0.10158838,0.05584387,-0.029683344,0.19738342,0.21426176,0.13720809,0.06681051,-0.055599257,-0.12195983,-0.017456165,0.06635175,-0.068181545,-0.04344803,-0.022401063,0.042821337,-0.050131414,-0.09482639,0.0014650152,-0.039120156,-0.03951428,0.14324693,0.071015246,-0.011570247,-0.025932383,0.086515956,0.09298614,-0.033351537,0.03417417,0.06024083,0.08663038,-0.0886309,0.06982564,0.016645228,0.03405438,-0.050104197,0.09065295,-0.08664416,-0.02212002,0.049370885,0.08953007,6.163904E-4,0.038814463,0.105061494,0.055879813,0.042095143,0.016147641,0.0061287144,0.07410268,-0.051887922,-0.038734127,-0.030725038,-0.034471076,0.11171621,0.097553074,0.0027670385,0.12598959,0.20243853,0.14673948,0.06607708,-0.043654256,-0.06766479,0.025146408,-0.011974399,0.04010571,-0.06483298,0.006496146,0.07018779,-0.024531819,0.01665856,0.018989213,-0.08626216,0.081978284,-0.028383046,0.05558636,0.14799099,-0.011451846,-0.106669575,-0.03779369,0.023173006,-0.024025492,0.082681805,-0.033423666,0.04702312,0.044499703,0.10834804,0.10611443,0.042757846,0.026723377,-0.028767172,-0.017128957,-0.07565356,-0.028568482,0.045517076,0.05662214,-0.051603016,-0.11076469,-0.018612549,-0.11912954,0.021037992,-0.006989491,0.016495496,0.07123687,-0.0057261004,-0.0011617137,-0.066572115,-0.117118835,1.1086138E-4,0.040508825,-0.012889628,0.038289856,-0.028113253,0.09638778,0.03997214,0.040407885,0.0059168213,0.00354403,0.05126871,0.042628348,-0.08840373,0.095964685,0.22166288,0.23429212,0.16882657,-0.020385657,0.049627613,-0.06010263,-0.00759276,-0.029594755,-0.04186427,-0.024663795,-0.115590766,0.05439616,0.0050896197,0.06962474,0.12624612,-0.00649917,-0.10045012,-0.035646383,-0.0205683,-0.042717677,-0.07371571,-0.106987946,-0.051520173,0.002596819,-0.11292604,-0.120579675,-0.08740203,0.063297585,0.11531994,0.12039982,0.12848887,-0.07452543,-0.093354076,-0.07162356,