-0.053284995,-0.049027648,-2.4920751E-4,-0.030844187,-0.0068078763,0.15405264,0.17602776,-0.005686442,-0.104871616,0.18081982,0.056917906,0.19104044,-0.0045732646,0.10220508,0.13185418,0.10619109,0.034982692,-0.029303756,-0.14191361,0.03776736,0.13721508,-0.024223043,0.14173411,0.23608464,0.022947812,-0.12443859,-0.13664144,0.120746896,-0.055944443,-0.123873,0.19427812,0.12548321,-0.053329073,-0.047988232,-0.15344328,-0.20801012,-0.05867321,-0.23431706,0.035105206,-0.15926631,-0.16529122,0.00930748,0.11943998,0.09398767,-0.19331992,0.11819855,0.089536816,0.061116956,0.101772495,-0.12627846,0.061338644,-0.01932228,0.09300082,-0.07921629,0.02739766,-0.06401836,-1.6940925E-4,0.15608194,0.05278175,0.06278473,0.04170511,0.24785423,-0.10692112,-0.13771099,-0.052948516,0.1629117,0.073934,0.077618115,-0.053030495,0.0070113065,-0.06743588,-0.027199637,-0.07344907,0.089606814,-0.06354561,-0.0011004678,-0.043232664,-0.02716489,-0.111336835,0.022707855,0.023878383,-0.077261604,0.07661571,-0.07812289,-0.08276013,0.06754529,-0.026321825,0.041347224,0.10289396,0.15316108,0.20777956,0.14174493,0.12317196,0.056816928,0.19518644,0.1207427,0.12662694,0.13045502,-0.054361753,0.09517767,-0.061905086,-0.065321684,-0.11809069,0.14449956,-0.19662145,0.12563394,0.18460864,0.035921548,-0.0025697679,-0.05815821,-0.13722561,0.024097443,-0.0036311683,-0.040127076,0.11858408,-0.0348815,0.20722091,0.004937719,-0.016232522,-0.059899855,0.11001969,0.12411215,-0.032563757,-0.17266923,0.11126895,0.14917101,0.10104934,-0.047213413,0.009456409,0.015690858,0.16366729,0.027396174,0.025894871,0.20380844,0.10333323,0.071688846,0.14380442,0.0877372,-0.0811207,0.12264053,0.042869195,-0.07042483,-0.058927577,-0.038307004,0.16009875,0.033981126,0.19959307,0.16667919,-0.07051649,-0.0826436,-0.057112154,0.025736477,-0.11586857,0.042333297,-0.022901827,0.016466001,-0.07634547,0.10349659,0.03978035,-0.0260122,-0.043123264,-0.08675757,0.033017565,-0.06971882,-0.10775902,0.11132903,-0.021724068,0.2586309,-0.03733,0.082390815,0.23872195,0.2495892,0.12389769,-0.025393503,-0.17626059,0.045535833,0.17860092,0.16037107,0.092589065,0.10352319,0.08605873,-0.15287438,0.054574393,-0.02032305,-0.07052908,-0.03246347,0.045862097,0.05106229,0.032551836,0.052630596,0.1424879,0.086292624,-0.14208731,-0.16665223,-0.28698176,-0.07142174,0.1204857,0.09607649,-0.010566191,-0.06224466,-0.04848496,-0.024682093,0.059443668,0.09107793,0.12524621,0.025681451,0.02744483,0.08128813,-0.018136904,-0.10048959,0.051775333,-0.12663282,0.07227269,-0.11797698,-0.039043788,0.2501484,0.12047694,0.058480922,-0.20084988,-0.0626131,0.054007273,-0.23584002,-0.021789787,0.01193654,0.028149456,0.03347467,-0.09511341,-0.010335493,-0.07065292,0.0075418693,0.082819596,-0.05510524,-0.01083105,0.012241278,0.068663195,-0.01985392,0.04685388,0.010953919,0.051924292,0.012118115,0.07718171,0.24018387,0.18642275,0.052174002,-0.023719661,-0.04589904,0.024441004,0.109082304,-0.043297593,-0.015358567,0.026389549,0.14369652,0.07889628,0.002709898,-0.01733099,0.010796313,0.09203324,0.15948404,0.12745959,0.11650475,0.015938785,0.006383623,-0.079468474,-0.035779946,0.16224967,0.080044545,-0.05341675,-0.1425143,0.1147146,0.07782009,0.13381305,-0.052743215,0.0741979,-0.05388746,-0.062016327,-0.1619245,0.007320453,0.075336665,0.037027843,0.061337277,9.72228E-6,0.05352101,0.037308928,0.1356106,-0.14807363,-0.09271443,0.13342097,0.051844656,0.07673187,0.077765666,0.21002634,0.039270893,0.3165373,0.187538,0.239703,0.05203053,-0.03729684,-0.086117275,0.091744,0.15135445,-0.10064178,-0.007184383,0.10450053,0.06408405,0.03248849,-0.032992236,0.06118295,-0.18770358,-0.06607649,-0.19215937,-0.08521623,-0.06554961,0.21904066,0.11499043,-0.05877398,0.096541174,0.33643237,0.12078433,0.07814074,-0.018028524,-0.03599322,-0.10592601,0.08525918,0.10066778,0.14407547,0.19889332,-0.027391555,0.061643843,0.021090718,0.18089826,0.25127837,-0.24159749,-0.104333535,-0.016348246,0.23895973,0.09031973,0.07405676,-0.1495101,-0.08829226,0.017535158,-0.0803602,0.13585968,0.15079156,0.18793695,0.17245355,0.2886105,0.020460317,-0.13740975,0.14243928,0.10756733,0.08888758,-0.1014089,-0.20059276,0.123756096,0.15739566,0.06302395,0.28293407,0.11131019,0.14640406,0.068726085,0.1642978,0.11194628,-0.09821777,0.051996846,-0.21837713,0.0546815,-0.27343762,-0.11683279,-0.013044412,-0.06565666,-0.0349539,-0.04590397,-0.09934417,-0.120761976,-0.10091663,-0.10007312,0.12799822,0.07586064,0.13090326,-0.08083969,0.19451939,0.16748774,0.1317933,0.013248734,-0.2575315,-0.053617727,-0.029194323,-0.028645456,0.082092546,0.19563021,0.27535847,0.10195884,-0.19143091,-0.05202949,0.07486531,0.04267291,-0.113199815,-0.13069253,0.12140671,0.022838369,0.015623073,0.104691185,0.06229841,0.22127806,0.078256845,0.24140719,0.052472025,0.07678204,-0.15535183,-0.111711666,0.016395379,-0.19842261,0.07276393,0.14812325,0.18012673,-0.04005877,0.051914524,-0.10058262,-0.07608781,-0.14890362,-0.03014882,0.07233601,-0.0074795424,-0.06699673,0.09940124,0.014558758,0.043224826,0.109832056,-0.108833805,-0.11120698,-0.08203293,0.038258173,0.03786054,-0.036922343,-0.009635909,0.06688909,-0.08521069,-0.0683825,0.190443,-0.05727092,0.03546838,-0.017833693,-0.088775404,-0.13556184,-0.097857215,0.14444394,0.019734109,0.095844395,0.17180248,-0.027060864,-0.013144491,-0.12771378,-0.005144609,0.20782441,0.119860046,0.08419013,-0.08022241,0.081558466,-0.034891456,-0.06284846,0.085557625,0.11573943,0.033706926,-0.03036191,0.091673985,-0.089830875,-0.08369135,0.09010145,0.1466607,0.023078669,0.059623074,0.26161954,0.09661983,0.16328779,0.14435823,0.10494025,-0.0854787,0.11410074,0.05724725,-0.023433588,0.06772278,0.02771723,0.0045746034,0.015463119,0.036858264,0.052786164,0.122074746,-0.15158695,-0.061894808,-0.047871448,-0.1756959,0.11054894,-0.12179827,0.105233856,0.08063278,-0.088054545,-0.03941247,-0.101618655,0.043230496,0.0039191684,-0.15264815,-0.15112834,-0.18733642,-0.20655951,0.027592566,0.08688132,0.041820925,0.0048429663,0.1526344,0.12219123,0.0035493297,0.107357986,0.06498441,-0.13218896,-0.020799339,-0.04698441,0.11033522,0.07326776,0.12839825,0.18437368,0.05037879,0.101860255,0.25007677,0.20385984,0.04039402,-0.059660655,0.048154015,0.04011621,0.17359059,-0.11099777,0.12530608,-0.020775596,0.21282634,-0.14551575,0.16362923,0.13467313,0.15526196,-0.15989394,-0.14054132,-0.28427854,0.12131655,0.23792894,0.16918787,0.22118136,-0.08013949,0.20587543,0.20910676,0.09695274,0.006551114,0.1007758,-0.044463642,-0.1182271,-0.08782787,-0.13971709,-0.036422588,-0.0063768486,0.17759416,-0.049123555,0.2074017,0.2030376,-0.0011804937,-0.047667768,-0.12656716,-0.10881541,-0.11201641,0.07714419,0.16198689,-0.12424539,0.018553698,0.0918511,0.09272765,-0.09368577,0.020813195,0.031061424,0.06224674,0.031710304,-0.10276436,-0.0661809,0.14913201,0.067672856,0.11279235,0.1528961,0.08898083,-0.07344769,-0.12871085,0.23178962,0.1558139,0.01824763,0.05955173,-0.010290178,0.018721879,0.14465047,0.084146395,-0.18179452,0.07936718,-0.042922977,-0.13377362,0.17888078,0.04520793,-0.048055198,-0.051343165,0.020875338,-0.17598201,-0.23451458,-0.18182802,0.044155806,0.024618337,-0.042003747,-0.040123824,0.1094086,0.12896581,0.09776664,-0.034167968,-0.083630964,0.010950508,0.27493876,-0.18738644,0.036451243,0.10714059,0.2704015,-0.09110055,0.057084594,0.052796964,0.036124043,0.12236547,0.05654482,-0.0013335244,0.018966382,0.02928177,0.13212875,0.034500018,-0.052903917,-0.031744707,-0.08793252,0.25200742,0.07871467,-0.00391951,0.040271524,0.011333854,-0.04401776,0.12879509,0.034067668,0.15457284,0.16541544,0.14975962,0.023395007,0.019980893,0.013533108,-0.06348349,-0.12915379,-0.024038378,0.11230758,-0.14690235,0.14192738,0.04878842,0.08531954,0.066410534,0.19385852,-0.07807957,0.03781539,0.0067363186,-0.020658463,0.04553943,-7.2319113E-4,0.114900306,0.07276531,0.12536031,-0.07776881,-0.06176572,-0.004070889,0.17376272,0.10549866,0.05695967,-0.11109025,-0.23841979,-0.10588608,0.05102949,0.18870623,-0.056997232,0.11328213,-0.071986474,0.20610099,0.071541,0.08372382,-0.049577463,0.12797835,0.06311385,0.19021295,0.08538002,-0.12132145,0.120967165,0.27535346,-0.015798274,0.018508853,0.112187155,0.048002742,0.06080723,0.054052435,0.1111175,0.1882167,0.040468507,0.034983303,0.27292526,0.05098744,0.4035553,0.118044935,0.016499389,0.2686552,-0.12694295,0.09541639,-0.072474964,0.14957157,-0.24801967,-0.16757901,-0.13019606,0.030992297,-0.058178563,0.108949475,-0.09022044,0.079168856,0.17718215,-0.012600174,0.035314746,-0.0666392,0.104225755,-0.01046707,0.024302218,-0.060976144,0.09136756,-0.004185855,-0.045909796,0.011900235,-0.025774471,0.048949,-0.0010937555,-0.1841081,0.114233546,0.108371645,-0.15243632,-0.011855752,0.009683176,0.12657659,-0.03670641,0.09133205,0.037557025,-0.024904875,0.03755151,0.22366348,-0.03624912,0.07468576,0.057725433,0.108059086,-0.03307292,-0.2102116,0.10912477,0.06380926,-0.109432645,-0.040539574,-0.11448531,0.0083663715,0.048853315,0.12703164,0.07847495,0.09629414,0.06435698,0.043941446,-0.028977128,0.17932464,-0.067987815,-0.13054699,-0.25186035,-0.13184856,0.039564904,0.014984863,0.06239081,-0.019379055,-0.11365843,-0.08520823,-0.05498808,0.1183379,-0.062336475,0.010860238,-0.017058395,0.13330412,0.22835296,-0.046080086,-0.005482853,0.011621406,-0.052587,-0.03469822,0.116949394,0.11722799,0.14936922,-0.013711858,-0.24574447,0.0098201465,0.058819894,0.1263384,-0.13646592,0.028748242,0.28754175,-0.049959008,-0.045759663,-0.0076883957,0.013098423,-0.005345387,-0.06365233,-0.12193705,0.05017137,-0.12083288,-0.2041411,-0.078703925,-0.082330756,0.06758075,-0.046470586,0.027000051,-0.15472232,-0.07862701,-0.013758538,-0.055275068,-0.04256667,0.07335121,0.22884227,0.12446374,0.21014135,0.2972199,0.23716071,0.3228019,-0.047648307,0.043413676,0.14374676,0.35127577,-0.037929285,-0.011461996,-0.06091523,-0.014373965,0.17523736,0.16106614,0.056862228,0.051342882,0.11005143,0.049339116,-0.007021467,-0.07487534,-0.0065090125,0.0024713387,0.0012258688,-0.089688286,0.022596627,-0.1778526,-0.19997206,-0.20496763,-0.16158395,-0.17560716,-0.049818218,0.036158085,0.0014628265,0.06961117,0.14628135,0.1347454,0.14529721,0.058057185,0.0594727,-0.01938899,0.053193163,0.014315064,0.011624942,0.11671487,0.0032882497,-0.06518341,0.05078002,-0.04013988,-0.02146683,-0.07934563,0.05785311,0.17094871,0.15449303,0.11235041,-0.083168186,-0.022327354,0.049690746,0.22363241,0.05771739,0.22492343,-0.1895745,0.0663316,0.14011382,0.24126245,0.051989783,0.09562608,0.06221176,0.049299564,0.07873531,0.007042179,-0.01667195,-0.068901576,-0.055971123,-0.17336817,-0.092704974,-0.046785623,0.11476722,0.02980565,0.21817626,0.20786592,0.2428705,0.22561438,0.31180847,-0.04755472,0.028216261,-0.006576607,0.05775238,0.13829184,0.013977814,-0.026391646,-0.044603698,0.046441235,-0.012724805,-0.008532363,0.17570361,0.17629564,-0.18846817,0.03968684,-0.07060726,-0.015611275,0.009104417,0.24902196,-0.019040938,-0.034990966,-0.2637134,-0.07080918,0.043479487,-0.17873427,-0.1645389,0.011636982,-0.0762209,0.09136891,-0.11257997,-0.28879637,-0.20854157,-0.17890641,-0.019107193,0.1545405,0.0026825864,-0.008252083,0.046871223,0.1787123,-0.007929836,-0.06577249,0.30208227,0.35405985,0.2842235,-0.04445815,0.3769487,-0.013636467,0.063208796,0.11825984,-0.045106277,0.01873113,-0.027055109,0.02622018,0.08607898,-0.096166946,-0.09282552,0.29499745,0.26849845,0.14224386,0.14507583,0.23001862,-0.21103705,-0.09400421,-0.0056145913,-0.022366172,-0.16356848,-0.08722267,-0.05350393,-0.042477284,0.04308062,0.15822849,0.05694942,0.16992217,0.09016614,0.033668295,-0.07859881,0.060290575,0.18799485,0.16461538,-0.06601347,0.092863284,-0.12856965,-0.24942522,0.013769131,-0.072752915,-0.06240396,0.10631714,0.2010356,0.1729432,-0.12737945,0.112738825,0.045861498,0.15206358,0.0953977,0.25681823,0.27082518,-0.06548393,0.022636501,0.13387446,0.096359625,-0.031077178,0.18802588,0.090588994,-0.056740705,0.013547394,-0.16256127,-0.115672015,-0.04739807,0.009813535,-0.0729196,-0.037186146,-0.05655292,-0.014511811,-0.121616565,-0.034700718,0.11777831,0.03555297,0.049061634,0.07683316,0.060277075,0.10085217,-8.5244456E-4,0.09184486,0.07025131,0.082828656,0.055102564,-0.013573367,-0.012379531,0.021743009,0.07054876,0.08751713,0.06327936,0.18969564,0.1108525,0.18121481,-0.066341065,-0.030975128,-0.036925856,0.02973688,0.033471562,0.026573762,-0.18427183,0.25158143,0.28123876,0.24575685,-0.102576375,0.16582726,0.010738698,-0.05772828,-0.016522733,0.1281251,0.23745878,0.025334189,-0.067352474,-0.03638088,-0.12720238,-0.21590573,0.07541319,-0.08142956,-0.026307965,-0.13596791,-0.10174084,0.0010017788,-0.105349004,0.13140008,-0.04757427,-0.14029233,-0.05814264,0.12150259,0.12419202,0.24426027,0.3992343,0.1119461,-0.033376537,-0.09838758,0.19551127,0.022836758,-0.0108939065,0.06663108,0.022322325,0.18974337,-0.060213815,-0.1317411,0.069305934,0.10367679,-0.18050489,-0.31440943,-0.16638643,-0.040820234,-0.1953991,0.034169845,0.105620414,0.13113227,0.08965191,0.10259648,-0.047522,-0.1489127,-0.1491484,-0.01292148,-0.03699944,0.0569887,0.10117394,0.034421217,-0.07286771,-0.17838684,0.036622547,0.0890814,0.013646242,0.07042902,0.0454099,0.07744644,-0.056370117,-0.03202662,0.08888489,0.04814569,0.08981352,0.20349847,-0.18379153,-0.01574903,-0.22286147,0.014974479,-0.027164495,-0.27584654,-0.28066906,3.2769426E-4,-0.19312729,0.14913206,-0.028025273,0.03573958,0.26309106,0.017548848,0.02497135,0.10534858,-0.08124269,0.021025542,0.0024713771,0.016646009,-0.07212066,0.0057224855,-0.0147227775,-0.028527267,-0.01776656,-0.16869785,0.07095872,-0.047792803,0.12737162,0.21835113,-0.14305337,0.15082718,0.34575754,0.26169056,-0.16972707,0.004790816,0.11061885,0.015969345,-0.07230837,0.040548425,-0.10203435,0.096977085,-0.055297263,0.15049718,-0.14194405,-0.21970777,-0.10104164,0.019664919,0.06262753,0.0809496,0.04094882,-0.20287049,0.095261715,-4.4710084E-4,-0.0054002497,0.021286704,0.015558822,0.0018425796,0.16231045,0.05142228,-0.11410014,-0.08039092,0.041578483,-0.08446749,-0.02147312,-0.16872808,-0.14278363,0.03908891,-0.07589813,-0.07461645,-0.08790663,-0.022605356,-0.1069733,-0.019429212,0.1273807,-0.007895267,0.103509985,0.11499243,-0.01999111,0.009745573,0.03660532,-0.004740573,-0.05136307,-0.06633715,0.057071432,-0.020549573,0.009757465,-0.099411905,-0.009095999,-0.007853941,0.14745998,0.036583714,0.046232734,-0.012497065,-0.12305684,-0.051710464,-0.31071115,-0.116746165,-0.07819407,0.03674515,-0.066135384,-0.07395262,-0.020112475,0.09626604,-0.0641788,-0.095622845,0.0088633895,-0.05608271,-0.05773308,0.059192777,-0.014044657,0.26138413,0.100088865,0.15722458,0.03855904,0.006622527,-0.06410113,0.32708856,0.011457805,-0.09868883,-0.19037586,-0.14075072,-0.048261527,-0.07972227,-0.013541315,0.09742681,0.053776026,0.08542612,0.08244309,0.11137128,-0.07897367,0.0055585117,0.035520595,-0.2135364,-0.28235435,0.036798947,0.026504543,-0.039293073,-0.06018006,0.09092398,0.015602332,0.008103292,-0.06988042,-7.6433213E-4,-0.17192538,-0.14842792,-0.1672585,-0.11956886,-0.13372941,0.1461152,0.23838025,0.045306534,-0.015110141,-0.024566581,0.007938068,-0.0325847,-0.064774364,-0.012141406,-0.052692186,0.0010619698,-0.11221166,-0.13669711,0.10159349,-0.14672717,0.06523034,0.1708612,0.08578384,0.06384738,0.084034644,-0.030640064,0.055199813,-0.06434344,0.19104804,-0.067571655,-0.053821616,0.120606385,0.07862186,0.17106049,-0.098282374,-0.104659155,0.016539548,0.19396278,-0.1000167,-0.036598265,-0.122123644,0.17313917,0.108687736,-0.10864856,0.10645143,-0.017122058,0.11083273,0.2013825,-9.561526E-4,0.04063952,0.036237884,-0.07552839,-0.13077858,-0.11672653,-0.12784912,-0.19667599,0.08543312,-0.115324594,0.06211898,-0.10917886,-0.14411564,-0.018941743,-0.11876962,-0.18701811,0.024853492,-0.046948373,-0.03745446,0.05014022,0.050907902,0.075222224,-0.21648009,-0.0072375946,0.030786999,-0.12412545,-0.14814432,0.21503195,-0.1410372,-0.034030803,0.050382446,0.13804185,-0.023137141,-0.095994346,-0.1557243,-0.16621599,-0.27428493,0.14869797,0.00997859,0.053792972,-0.024704395,-0.08893422,-0.0021080493,0.02283933,-0.011069205,-0.21321371,-0.26352605,0.04882986,0.06462655,-0.1880718,-0.20163001,-0.069840744,0.121176206,-0.12847595,-0.19509159,0.00863791,-0.08859176,-0.08272645,-0.029214062,0.025264688,-0.06474135,0.020728543,0.07885436,0.2580618,0.08248576,0.022401514,0.036549296,-0.112182856,0.12083808,-0.037176035,0.0055041024,-0.044419814,0.10460438,-0.046882827,0.034134362,0.013628299,0.16862465,0.29027122,-0.077744484,0.13712001,-0.21471843,-0.15434933,-0.17737116,0.109255984,-0.10138306,-0.16134445,-0.06280698,-0.12748437,-0.0015801676,-0.028744377,-0.017341081,-0.015753085,-0.084006734,-0.26009727,-0.18044183,0.035963845,-0.04784382,0.014563846,-0.016273944,-0.08559965,-0.08003412,0.090457514,0.03435316,0.05353481,-0.13723119,0.02464712,-0.06739185,0.01964497,-0.09765723,-0.060748372,-0.116122924,-0.0075181145,0.045234103,-0.064445704,-0.08574363,-0.060576804,0.25375354,-0.14372036,-0.15254411,0.1074309,0.16486426,0.021320464,-0.10831106,0.05679576,-0.020396367,-0.118514344,0.017538374,-0.025269486,-0.11773977,-0.09491776,-0.051852092,0.14084546,0.10678104,0.13787389,-0.054690707,-0.12562668,0.10894252,-0.035170566,-0.050484892,-0.013738764,0.031181425,0.17659563,-0.0018885841,0.10767466,-0.06739443,0.0045080073,0.06731398,0.18223296,0.038087174,0.03998252,-0.13257736,0.011352358,0.21603458,0.09603081,-0.034186937,0.016724765,0.004163005,0.06674337,0.03979543,-0.054063387,-0.073180705,0.015623023,0.03639919,0.26457876,-0.057840943,-0.09610383,0.041408975,-0.07307084,0.20054916,0.014192772,0.038354054,0.16355045,-0.08460771,-0.17956159,-0.09562253,0.12299292,-0.104615815,-0.3493315,-0.24274942,-0.10646414,0.21418063,-0.032977585,0.13446377,-0.057110164,0.17806277,0.016528223,-0.014593983,-0.122152545,0.1081989,-0.112496376,-0.01825069,-0.00833202,-0.095713295,-0.03687765,0.102768555,-0.14015675,-0.21444689,0.01963302,0.06168001,0.036631163,0.032554768,-0.047572203,-0.038710818,-0.0015318855,0.048882887,-0.015806595,-0.07073099,-0.23732658,-0.068204276,-0.041776985,0.10374158,-0.097267106,-0.01387892,-0.008763767,0.07474607,0.029619815,-0.07721377,0.10770065,0.030886322,0.15228255,0.20515509,0.014666788,0.061156422,-0.060515285,-0.08560225,-0.007492892,0.052848812,-0.005058591,0.023758564,0.11432544,0.041607633,-0.21279849,0.022457555,-0.03276132,0.30253044,0.06288331,0.008240425,0.00691762,0.02655902,0.10013352,0.086089864,-0.065505356,-0.027936451,0.038672753,0.14710954,0.26078603,0.23171863,0.20764084,0.26002288,0.14814545,0.1532224,0.06605668,-0.067383096,-0.009027083,-0.04425283,0.0017806571,-0.134196,0.102239735,7.427832E-4,-0.10433591,0.053870805,0.18219157,0.19827715,-0.041289188,-0.10578262,0.07611109,-0.04218432,-0.15872915,0.18332241,0.024334228,0.08016571,0.22725597,0.0881407,0.02961563,-0.09999136,0.16838865,-0.14404424,-0.037687384,-0.07572021,-0.01705564,-0.06353759,0.018407121,-0.0138027165,0.028207608,0.017097061,-0.03186539,-0.038026176,-0.12941806,-0.2204588,0.034160953,0.09624618,0.029141732,-0.13419159,0.062610075,0.11289415,-0.13768023,0.0383741,0.14018746,0.0041132164,-0.09322353,0.14434664,-0.048840486,0.023105437,0.056033872,0.094916485,0.039520353,0.110782176,0.25085735,-0.14004588,-0.038321875,-0.048158903,-0.0792555,-0.06521615,0.17761159,0.14697966,-0.12989175,0.0061240424,-0.07111069,0.011915295,0.077196315,0.00662407,0.05550889,0.036309104,-0.0040422813,-0.02292164,0.036528803,0.07603848,-0.0994821,-0.15028921,-0.11130233,-0.022447074,0.014368201,0.08205466,0.078752376,0.021185355,0.037426602,0.16092046,0.1670834,0.082916476,0.060432553,0.21191128,-0.22047856,-0.014036776,0.106286734,-0.096750885,-0.08698135,-0.10755133,0.04742681,-0.025216555,-0.06543117,0.06386439,-0.047594365,0.055380587,0.088760845,-0.23049104,-0.029508635,0.18815738,0.15497936,-0.026492666,-0.030229839,-0.025544962,-0.02711248,-0.025876947,0.16018325,-0.081169076,0.02931523,-1.447695E-4,-0.08341891,0.13151728,-0.03182162,-0.12618193,0.1023791,0.02569037,-0.22999051,-0.06269162,0.22036986,0.12340517,-0.1629295,0.050010167,0.050144486,0.027887953,-0.023740629,0.16868214,0.0021846083,0.022181794,0.2128628,-0.04494671,-0.10261809,0.13607727,0.18117696,-0.10458292,-0.07026396,0.18077785,0.037157122,0.26735738,-0.06963374,0.27938282,0.123021774,0.029926892,0.09178615,0.11389104,0.08090918,0.014820894,-0.026993921,0.13088192,0.006025274,0.0037425798,-0.05847642,-0.06645352,-0.094020806,0.12607212,-0.01775795,-0.10111821,0.0992699,-0.020601094,0.154319,0.07131149,-0.1631219,-0.17083472,-0.17566875,0.26137948,0.095299676,-0.047456156,-0.030197669,0.287315,0.085002296,0.30484757,0.04109598,0.17970598,0.047745995,0.1247482,0.060646176,0.0938245,0.052183837,0.3322331,0.25605583,-0.0770685,-0.14416029,-0.007978483,0.23245324,-0.04469826,-0.09335031,-0.14557423,-0.0222442,-0.10417254,0.2454844,0.001446526,0.11419155,-0.23924915,0.056131177,-0.21487235,-0.17975529,-0.035243098,0.021400752,-0.11296286,-0.03911281,0.018150259,0.13129328,0.07388757,-0.18077004,0.06688822,0.11991054,0.18582103,0.028781109,-0.17521197,0.07334758,-0.048253767,0.03138772,0.001301159,-0.05100349,-0.1043986,0.005265711,0.17915384,0.16110513,-0.031597972,-0.120172925,-0.029868152,-0.05398201,-0.0241382,0.21049699,-0.19709097,0.01962974,-0.0356198,0.042147037,0.18518609,0.2493703,0.27496782,-0.0432842,-0.090888366,0.038437057,0.17231499,-0.059460387,-0.029630868,-0.10229504,-0.027005568,-0.025370289,0.009293175,0.011055204,-0.16375689,0.033718396,-0.10248981,-0.08367551,-0.1640103,0.011652128,0.016909052,0.10931558,0.013385145,0.12624295,-0.14883386,-0.114692256,-0.016117418,0.003577678,0.08124039,0.054674953,0.021133458,0.12648036,0.07963663,0.05993608,0.15047416,0.061122928,0.14618167,0.17371231,0.087901354,-0.08801376,0.3427081,0.16887006,-0.19972922,-0.0024526448,-0.10088791,-0.06307936,-0.106534764,0.17665534,0.040234488,-0.027072871,-0.015782204,0.2268153,0.09197625,0.15520108,0.014392888,0.10824453,0.038429312,-0.0011275955,-0.09560356,0.16822968,0.02842987,-0.0075889444,0.004748268,-0.039339487,-0.14375989,0.12546065,0.036228213,0.107645474,-0.21280399,-0.049847346,0.10455414,-0.06973303,0.27398172,-0.011899459,0.11595782,-0.0010218219,0.027580785,-0.19437213,-0.071800515,-0.09609831,0.079792246,-0.0072813123,0.049466994,-0.14371684,-0.062109906,-0.13046248,-0.045014393,0.08848714,0.1289868,0.10037003,0.06297373,0.12647721,-0.0017536096,-0.016733292,-0.079214975,0.041263983,0.026614038,-0.1317567,-0.081279464,0.07338505,0.0064061303,0.087311275,-0.06871366,-0.04440543,0.1502569,-0.031058013,0.024380319,0.29485953,-0.28461847,-0.23454951,-0.12409315,0.033904187,-0.048776105,0.26840645,-0.047308248,-0.11599661,-0.056865018,0.11034245,0.16924796,0.16653274,0.13423078,0.037702627,-0.028007573,0.02597979,0.012475153,-0.13190763,0.0065070046,0.009288323,0.022966854,-0.023804875,-0.090729766,-0.19261646,-0.0016785417,0.12378883,0.03304263,-0.028553657,0.053733528,0.2354796,0.02554655,0.010659778,-0.004116635,-0.068212874,-0.13471688,-0.007307827,0.07324237,-0.24116898,-0.06826986,-0.09222905,0.012212914,9.323909E-5,-0.09916458,-0.038703855,-0.043756086,0.013462686,-0.11204287,0.02587799,0.076593935,0.063107006,-0.05842781,-0.21539545,0.06457197,-0.08846551,0.08393042,-0.15597674,-0.12015227,-0.026871856,0.058379326,0.16488785,-0.039767776,-0.13828774,0.0019096208,0.10923606,-0.012814385,0.0686326,-0.23753561,-0.06777733,-0.048020188,-0.050874352,-0.04985324,-0.03335937,0.050647322,0.084308386,0.08581751,0.16094232,0.22646153,-0.13909951,-0.037841212,0.14851041,-0.023398094,0.23730808,0.31736985,0.42542592,-0.011427683,-0.02477877,0.264477,0.12852892,-0.08306701,-0.038778447,-0.0069812704,0.052190103,0.11582096,0.12317968,0.119563915,0.14387503,-0.2773644,-0.050073307,-0.0035054793,-0.16136315,-0.30829746,-0.06817962,-0.13220996,0.13278675,-0.02599744,0.09366145,-0.050231032,0.1579819,-0.024771968,0.06069581,-0.181984,-0.08878928,0.120747216,-0.21732274,-0.15266357,0.056392636,0.14884835,0.13508637,0.12506633,0.09765609,-0.1508865,0.12559256,0.048905253,0.032174975,0.20761055,0.15325263,-0.18203695,0.095692575,0.003545109,0.038019355,-0.05333453,0.03739775,-0.05224582,0.019243576,0.1865785,0.09538341,-0.1395411,0.052653115,0.0815816,0.105451494,0.08771851,0.0772113,-0.009959433,0.10114393,-6.463162E-4,-0.30190948,-0.10529872,0.061124448,0.118842,-0.1762794,-0.034590047,-0.072414584,0.06921104,-0.02622481,-0.020830365,-0.016815439,-0.027162746,0.0721211,0.24341944,-0.0763947,-0.14772485,0.053644557,-0.14756994,-0.25162375,0.033246417,0.16513334,0.16725375,-0.07984755,0.110218585,0.0691955,-0.16786666,-0.15185873,0.040816292,-0.076857865,0.12162019,0.10672204,0.08827382,0.14016783,-0.018794626,0.13045646,0.14947586,0.17441644,-0.12334223,-0.1682178,0.28035083,-0.049603112,0.0067597646,-0.020869663,-0.13010293,0.021628374,-0.123703785,0.06256549,-0.013521784,0.10045226,0.06008777,0.08481295,0.12722206,0.0071862177,-0.02022251,0.023493482,0.113378145,-0.23040752,0.14015597,0.2424522,0.027410662,-0.22264087,-0.104588315,-0.08243898,0.20227255,0.041053988,0.1557819,0.061595377,0.14506777,-0.040695507,0.11160949,0.019391697,0.1591171,0.08822477,0.20145516,0.10235603,-0.03092481,0.04033728,-0.06192466,0.16213036,0.12119853,0.06565656,0.1074829,-0.030651433,-0.089003846,-0.031658933,-0.10547603,-0.06130899,-0.1179319,-0.02057682,-0.17549784,-0.108785994,-0.16217378,-0.12699142,-0.0027649545,-0.14017051,0.056507234,0.17095786,0.121439256,-0.14416565,0.2504481,-0.07853046,-0.18035874,-0.054792773,-0.049781945,-0.035164256,0.16742378,-0.14256564,0.027225513,0.027005749,-0.12622677,0.076805286,-0.18234523,-0.06256298,-0.055292346,-0.06860894,-0.27948496,-0.11026424,0.035543922,0.06382181,-0.10373476,-0.071241654,-0.021904528,0.09214618,-0.01954959,-0.09782823,-0.18472128,-0.069900766,0.022846268,-0.33941153,-0.12483172,-0.14589821,-0.15890908,-0.0024351599,0.11817579,0.0025625655,0.05927028,0.07572266,0.075725384,0.079054765,-0.15946323,0.03705409,-0.2500422,-0.10249301,-0.029982075,0.11093624,0.06279193,0.082983896,0.12906618,-0.0018806563,0.06697,0.12375184,0.068254165,-0.0835997,0.06749434,0.11181892,0.052394044,0.035251908,-0.05607308,0.059688088,0.15146534,-0.05884163,-0.0033264258,-0.23655196,0.050191373,-0.06764279,-0.20497842,-0.26956144,-0.04626566,-0.03744714,0.17665441,-0.06552232,-0.14950995,-0.08454277,-0.07159881,-0.053780474,-0.08619968,0.021411033,-0.105314516,0.09869969,0.08687131,5.6427135E-4,-0.101260945,-0.10635022,-0.053902593,-0.034756713,-0.20664705,-0.06035367,0.24203336,0.11376899,0.19692414,0.1552615,-0.0851597,-0.045342848,0.009440053,0.026460156,0.066628166,0.04508191,0.012328763,0.027373286,-0.016389333,-0.0060773003,0.0051044803,-0.03450647,-0.007384846,0.2046941,-0.012692212,0.042830184,-0.05813278,0.23992778,0.022590611,-0.095966786,-0.058764055,0.046147656,0.1484951,0.14126042,0.012073077,0.2451662,0.08398972,0.06723804,-0.06423036,-0.09205046,0.036922354,-0.08093163,0.1603758,-0.008640813,-0.11724625,0.045546323,0.037030276,0.016786296,0.046434306,-0.00496028,0.057531912,-0.02839619,-0.0584027,-0.12662147,-0.04299896,-0.2598741,-0.19864348,-0.08718081,0.031351026,-0.05904428,-0.0060538305,-0.09378572,0.12755685,0.046108212,0.012987829,-0.07951657,-0.14519455,0.12131245,0.12309066,0.08527759,-0.20890604,-0.22187737,-0.07192638,-0.10458109,-0.018010098,-0.06579227,0.13239048,0.028391656,-0.16538832,-0.028386965,0.16380161,0.16482049,-0.08402497,-0.057024505,-0.12922326,0.013259,-0.13738357,-0.081367575,0.060870048,0.07524967,-0.04374841,-0.113093615,0.06581918,-0.013186894,-0.058941953,0.03789679,0.005291887,-0.115793176,0.1593281,0.08863645,-0.11579977,-0.10829223,-0.11701105,-0.2246276,-0.25307766,-0.15807296,-0.36145255,-0.20932771,-0.24757773,-0.040181465,0.060989246,0.19987802,-0.032312915,0.0059029795,0.27842188,0.14781545,0.0017036995,0.046333738,-0.037832253,0.037618257,-0.016782928,0.16304605,0.09818673,0.2697294,0.19811416,0.10698563,-0.15355581,-0.034145355,0.115860894,-0.03226045,-0.3584394,-0.23289806,0.07510055,-0.019761104,-0.04491314,-0.043865524,-0.05087467,-0.14733994,-0.21043612,-0.30968887,0.10624708,0.03293991,-0.11077494,-0.08338424,-0.1962227,0.2950679,0.16932836,0.056613933,-0.13629542,0.04460267,-0.099583454,0.137956,0.090155795,-0.012864116,0.09189328,-0.28365007,-0.20832275,-0.21172561,-0.22909154,-0.30601758,-0.076211825,0.16653992,-0.07717472,-0.06014665,-0.016511187,0.09717135,0.2351305,-0.10599038,-0.025573738,-0.094664656,-0.25650263,-0.13452505,-0.0380666,-0.08261165,-0.20161553,-0.056162983,0.046313103,-0.07420853,0.1677891,0.0020421552,0.25900993,0.08990981,0.069922805,0.094559304,0.15090638,0.015980301,0.23895441,0.23513718,0.26514742,0.12340838,-0.13248767,-0.035624113,-0.01688782,0.117661245,-0.20671359,-0.09800566,-0.03748558,-0.015108434,0.1501514,-0.033648763,-0.05021883,-0.0868922,-0.07256359,-0.26235822,-0.225216,-0.13384752,0.2983801,0.05983676,-0.093541935,-0.022292504,0.22003095,0.16819212,-0.04150128,-0.02462934,0.07918197,-0.03856094,0.015202637,-0.040510245,-0.022630101,-0.30823442,-0.10614039,-0.16502218,0.2055334,0.04868991,-0.106025085,0.10867626,0.04645777,-0.184407,-0.18953612,0.12350245,-5.2879937E-4,0.17654729,0.13303386,0.118556544,0.044687927,-0.1038826,0.0146079715,0.010496116,0.016960027,0.012878829,-0.0061346036,-0.18448311,0.19529203,0.109213464,0.11246891,0.079192586,-0.022790615,0.030481756,-0.0833407,-0.051512934,-0.023688357,0.02162404,-0.21051851,0.04610846,0.010190055,0.11464836,0.112617366,0.15951926,0.118012056,-0.083033845,-0.024405861,-0.028946573,-0.25083512,-0.10509651,-0.11637985,0.059462007,-0.026749805,-0.09487417,0.009748117,-0.036023635,0.057277568,-0.011673316,0.007657223,0.13032132,0.045920495,-0.047227655,0.03861921,0.04326375,-0.28152442,0.006501598,0.14384595,-0.12736751,-0.21038423,-0.022627607,-0.12354579,-0.21628194,-0.090195514,-0.098059766,-0.32764807,-0.09316875,0.11386613,-0.056299653,-0.08170128,0.03822845,-0.01382178,-0.11991568,-0.03488733,-0.14736965,0.07414555,-0.060226895,-0.10399856,0.11765334,-0.02709356,0.17234285,0.118987314,-0.13736165,0.17400381,0.0056892578,-0.0058564413,0.10429486,0.09170925,0.06264887,0.009530562,0.09857172,0.12014434,0.07278632,0.18704799,0.1820849,0.051493235,0.075995825,-0.0469319,-0.019675279,-0.12129751,-0.072149366,-0.039754406,-0.094276264,-0.044814643,0.1347541,0.00697299,0.19568703,-0.116027854,-0.10415647,-0.040996835,-0.18130377,0.11769141,-0.045654245,-0.25718454,-0.20679936,0.058832493,0.07767736,0.0536207,-0.08848873,-0.12919448,0.07660762,-0.20022108,-0.08616681,-0.097267054,0.14687462,-0.008001592,0.041824892,-0.12530547,0.23582901,0.17467928,0.33843365,-0.044887293,-0.14942902,-0.0926781,-0.23530874,0.056502085,-0.13529877,-0.15201163,-0.0047739386,0.0559112,0.054872498,0.1329046,0.22431819,0.15460216,0.28809834,0.05915566,0.13865389,-0.0960413,0.08083285,-0.1895324,-0.1095125,-0.009312194,0.011766951,0.12447973,0.13654044,0.18155877,-0.055406645,-0.22218248,0.115544945,0.036799837,-0.1275581,-0.08574397,0.022667332,-0.10632297,-0.09802556,-0.14255187,-0.015889855,0.20518033,0.06695043,-0.076039836,-0.047020752,-0.018528365,-0.055978462,-0.1059201,0.114392534,0.23158355,-0.23235172,-0.10806966,-0.03304473,-0.042653557,0.059982747,-0.0037482153,-0.16542745,-0.14927669,0.05958739,-0.11749516,0.12091407,0.07969373,-0.18873368,0.092420444,0.010480989,0.08722613,-0.054843534,0.11328259,0.16510457,0.3707936,0.061350353,-0.0048720157,0.06756673,0.16831535,-0.24707568,-0.13561642,-0.14381383,0.16577443,-0.045829482,0.004367216,-0.17615692,0.30521417,-0.059461053,-0.09115964,-0.10048451,0.12832516,-0.0037065686,0.008537073,-0.049606565,-0.0731874,0.025501212,0.11446001,0.030544221,-0.029106366,0.019541346,-0.02595241,0.082233325,0.092234045,0.120164454,-0.09995351,0.05437364,0.028231237,0.059528634,-0.05108244,0.0102027375,-0.062524065,-0.1029965,-0.112442784,-0.20384783,-0.13599378,-0.016506432,-0.008810401,-0.008436408,0.102598615,0.14710963,0.1849801,-0.107511915,0.18638088,-0.1407179,-0.041595496,0.008322828,-0.120951235,-0.17820276,0.06884689,0.052476987,-0.048527904,-0.02768494,-0.10377888,-0.059040155,-0.112586915,-0.11178915,-0.02057463,0.083295025,0.034534186,0.0886176,-0.18268694,-0.03890384,-0.06267995,0.04613744,0.2462981,-0.0510229,0.07030014,-0.09754199,0.09941428,-0.07667,0.086182244,-0.2155754,-0.004040321,-0.08470177,0.11178431,0.0029068668,0.08672595,-0.06038957,-0.08930245,0.034003895,-0.11623114,-0.21596141,0.115135424,0.014003132,-0.20298989,-0.10591608,-0.028176155,-0.014170281,-0.21657524,-0.18558241,-0.032827124,-0.12845835,-0.3081622,-0.031726226,-0.39086515,-0.11230082,0.029091092,-0.2946581,0.20431404,-0.064994335,0.035253238,-0.12605365,0.23006672,0.29406244,0.23399216,-0.05996539,0.19231819,0.0032857014,0.15779476,-0.07161274,-0.202448,0.0016692788,-0.0143110715,0.013322035,0.0040619955,0.04015009,0.0068727797,-0.08835683,-0.03544376,0.12434937,-0.0086062495,0.08812026,0.05988272,-0.021355346,0.08971711,0.19634762,-0.07088826,-0.109664194,0.20606099,-0.13881373,-0.14658655,-0.083040714,-0.06466319,-0.2139571,-0.054712515,0.027953917,-0.0099330135,-0.19299015,0.14134051,-0.010249682,0.05619852,-0.06123315,-0.03279002,0.061036326,-0.2827492,-0.13938782,0.18689562,-0.026962722,-0.02819728,-0.016764186,-0.009794474,0.019714527,-0.04208369,0.032200243,-0.043049112,-0.011844095,-0.030096784,-0.10416138,-0.09483003,0.027095301,0.24586703,0.16790012,-0.06484025,0.056100365,-0.06254623,0.063380264,0.1767768,0.0501336,0.023224737,0.07479655,0.15216522,0.05266814,0.057546742,-0.120511234,-0.078075744,-0.013694407,-0.10353888,-0.11423138,0.012608256,0.045986082,-0.18742093,-0.12489953,-0.01155764,0.045199495,0.24304442,-0.0102476375,-0.033630755,-0.13313009,0.16942611,-0.10754083,-0.327049,0.013391215,-0.036036506,0.06385311,0.052444506,0.012234753,0.050424933,0.09858278,-0.02442939,0.10067093,0.17501959,0.1344566,0.12529473,-0.015210401,0.07277441,0.024634775,0.011290206,0.015838435,0.0167327,-9.307754E-4,0.037072197,-0.13533022,-0.22261558,-0.08224681,-0.19770637,-0.32860512,-0.2281589,-0.28043163,-0.08434177,-0.0067392397,-0.16340165,-0.30323258,-0.08622022,-0.10584029,0.08491765,0.037769217,-0.08565041,-0.13049416,0.013760757,0.045133237,-0.0061507127,0.033906043,0.03878523,0.009088127,0.05449405,-2.63198E-4,0.009002456,0.1153391,-0.043406677,0.20742898,0.12516482,0.2166052,0.14736146,0.16916193,0.029710393,0.06899209,0.1011383,-0.11540527,-0.07696906,-0.09090794,-0.14241756,4.979005E-4,0.0023744153,0.031194188,0.030711567,-0.049484335,0.0015333297,-0.09826002,0.0026198935,-0.03804616,-0.07148121,-0.029463897,0.09994714,0.09715146,-0.14319173,-0.104475774,-0.044515394,0.0108538335,0.10773638,0.13281111,-0.12950093,-0.2379601,-0.13955165,-0.2237231,0.12891233,-0.03462639,-0.056476608,-0.14633587,-0.08768057,-0.11858441,0.07792679,0.028475672,-0.040498257,0.007433845,0.059539933,-0.022783684,-0.0020441534,0.09269341,0.14806142,-0.03653458,-0.038899556,0.09367183,-0.20436685,-0.09729067,-0.19565517,-0.20019072,-0.23260653,0.008854883,-0.057574082,-0.086716615,0.021790331,-0.016988354,-0.061820544,0.022692269,-0.048434906,-0.035869386,-0.063544646,-0.09673086,-0.15426718,-0.23729621,0.11007881,0.1063604,-0.032886066,-0.05353369,-0.11644561,-0.2634437,-0.07685243,0.09784989,0.45128354,0.11278524,-0.054540206,0.28916684,0.16633703,-0.026670082,0.041668106,-0.041620634,0.21188425,0.2567646,0.26175365,0.2286965,0.02524967,-0.15798439,0.0014886418,0.059852578,-0.09003057,-0.2122244,-0.0011906951,0.14507972,-0.15517572,-0.31144142,-0.20424145,0.21220456,-0.2559744,0.0800587,0.025285417,-0.03758969,0.09583426,0.024206443,0.075612865,0.07677525,-0.17334032,-0.036104888,0.089394875,-0.20914808,-0.19753148,-0.12366207,-0.22514613,-0.24805965,0.13255502,0.06087767,0.039261896,0.06485879,0.24443877,0.102946624,0.020419674,0.13392732,-0.11401076,-0.23235734,-0.11695753,-0.10635871,-0.07260288,0.02553163,0.13585015,-0.02671322,-0.2533926,-0.117799275,0.01571436,-0.11168982,0.12122451,0.21345553,0.0147706615,0.13015956,-0.022544077,-0.10289805,-0.2480725,-0.16023208,0.1553551,-0.21892393,-0.03516712,-0.12631652,-0.037373032,-0.24406768,-0.27973166,0.038208514,0.009936321,-0.111763194,-0.07496684,0.08906351,-0.24417847,-0.103902064,-0.033165637,-0.022476558,0.171873,0.012624523,-0.035541046,-0.041647024,0.0990302,0.1639512,0.17439793,0.010751414,0.10105503,-0.0032725167,-0.11162811,-0.06012674,-0.036454722,0.03214793,-0.021527858,-0.15191862,-0.008621464,-0.09633659,0.018787354,-0.061083604,-0.12508225,0.030179951,0.019702096,-0.001946762,-0.09825083,-0.031867534,-0.060692683,-0.12876146,-0.17192253,-0.19056189,0.030851914,0.23109744,0.03198909,0.049211238,0.004157846,0.05851773,0.27256104,-0.20477521,-0.26966092,-0.21775928,0.15260242,-0.08851091,-0.024411025,0.12246015,-0.010878661,-0.16716933,-0.19194883,0.0019813331,-0.013732418,0.04634603,0.20439574,0.2516531,-9.25272E-5,0.13524532,0.12003312,0.16927777,0.13333069,0.09184335,0.14848228,-0.012371372,0.006590067,0.11666852,0.106536165,-0.13548066,-0.06656978,-0.24823299,-0.32542148,-0.09153632,0.06452775,0.031711057,-0.13356759,-0.014351132,-0.07451493,-0.070186876,-0.08637832,-0.20117076,-0.031486746,0.08538705,-0.066832945,-0.041970693,0.09352349,0.29885638,0.16436334,0.15985681,0.1695159,0.047446337,0.09340412,0.009463045,-0.07005213,-0.14683084,0.06588539,0.09000174,0.08318267,-0.07656013,0.036811456,-0.10117621,-0.0012072276,-0.07185916,0.14640929,0.16763724,0.023185981,0.0013153091,0.07347376,0.008645873,-0.09399262,-0.05626048,0.027819099,0.010882503,-0.081399485,0.06582887,-0.077418745,-0.2317499,0.15070842,0.035140768,0.32291335,0.046358466,0.1761626,0.3333249,0.29100275,0.06787971,0.27282545,0.033971433,0.16491994,0.010458876,-0.20875378,-0.017864292,0.021322558,-0.046446744,0.06779301,-0.07485374,-0.114071235,-0.03245056,0.034660406,-0.02196112,-0.03968756,0.020243892,-0.03982023,0.16830023,-0.14942922,0.062091477,-0.13522741,-0.15011306,0.051965263,-0.06631679,-0.43115675,-0.32071188,0.16561568,0.06469366,-0.07714809,-0.011962133,0.035248704,0.05779386,0.09421968,-0.09274325,0.06739611,-0.06911098,0.16270813,0.08909389,0.023723282,0.0071020443,-0.14697997,-0.074389964,-0.10609872,0.22573957,-0.070794076,-0.0062741037,-0.050469797,-0.01196442,-0.07257493,-0.0018736711,-0.28485143,-0.055325206,0.098295644,-0.002454829,0.038522195,0.109460115,-0.037816945,0.17673679,0.19364901,0.039535806,0.06451998,0.055018496,0.18883482,0.0092086755,0.11354419,0.10098256,-0.045437075,-0.010390747,-0.08043742,-0.14128311,-0.010343714,-0.015870608,-0.11867894,-0.119939655,-0.010453948,0.10161015,-0.12099761,-0.0731768,0.016794765,0.08721104,0.009265585,0.100208476,-0.1360439,0.0037256747,-0.028621785,-0.027004743,0.12866068,0.025237195,0.2632015,0.20184214,0.17664786,-0.010969554,0.051980242,0.15633667,0.052973658,-0.07462219,0.08632247,0.10329723,-0.076793075,0.0877276,-0.13958004,-0.11053571,-0.0930754,-0.22132695,-0.15592982,-0.23593098,-0.077946894,0.0062638163,0.08394053,-0.27858317,-0.056347825,0.19628517,0.20787105,0.1222518,0.087011896,0.08743995,0.07141173,-0.035289433,-0.005371394,-0.12984776,-0.069862194,0.03179915,0.21399793,0.01141762,0.0071389643,0.2271084,0.32664835,0.05813073,0.08424255,0.07539988,0.19750726,-0.07227257,0.008208903,0.1114902,0.11021242,0.08294066,0.18384127,0.19634892,0.16393225,0.1809728,0.10655919,-0.1562318,-0.208997,0.066781454,0.12946172,0.011414371,0.01650797,0.029436555,-0.0053041023,-0.014339296,0.021915331,0.04040532,0.13383277,0.09530671,-0.042758595,0.14084171,0.082980506,-0.041534115,-0.14264336,-0.069685906,-0.160584,0.02676548,-0.05829679,0.14898428,-0.19594108,0.02233999,0.029324932,-0.118441224,-0.1647269,-0.19742136,0.19859871,0.11196417,0.013857502,-0.039071146,0.15637425,0.100522116,0.03838,-0.1447111,-0.03726662,0.12825811,-0.18305667,-0.030591058,-0.14310148,-0.2276608,0.057021063,0.062322155,-0.014560897,0.06281232,0.019973798,0.04536798,0.05639816,0.18216884,-0.01786309,0.06596962,0.0073252455,0.10313969,0.08547055,-0.031359676,0.14693062,0.22858877,0.05581792,0.17431241,0.053372595,-0.049331803,-0.037368212,-0.112830654,0.19175994,0.028737074,-0.04649077,0.14763567,0.2552416,-0.198328,0.0011895152,-0.07172194,-0.1188688,-0.1537428,-0.024014842,0.15870173,0.03258415,0.12975967,0.23387282,-0.12592328,-0.09036441,0.13669656,0.004925042,0.026483031,-9.417338E-4,-0.033825155,0.06510662,0.2047249,0.25439236,-0.0028084219,0.06483918,0.24083975,0.22853273,0.023426997,0.011248426,0.11979875,0.17532791,0.019185325,0.005972463,0.08453369,-0.031040674,-0.031054107,0.12153072,3.6268012E-4,0.028368859,-0.26377293,-0.05169414,0.07762858,0.040258273,0.08812177,-0.17712133,-0.027867414,0.04932403,0.12684816,-0.03943619,0.14347218,0.03887619,0.1366091,-0.1821183,-0.25238714,0.06391556,-0.18516253,0.15160444,0.26074567,0.13249545,-0.069372684,0.1107344,0.19428964,0.13701816,0.07185103,0.036928985,0.06905287,0.11392015,-0.026017774,0.0371671,0.07527806,0.06538753,-0.03116833,-0.0010565805,-0.015614267,0.086086914,0.060932487,0.10759875,-0.0029727526,0.060528025,0.04156241,0.14095193,-0.07838355,0.055732276,-0.016034083,0.076564975,0.059891973,0.118233874,-0.0118282745,0.021897033,0.110046476,0.09295981,0.0059564128,-0.2007715,0.026246304,0.16015133,-0.060073987,-0.22109269,0.028073505,0.06829799,-0.12290727,-0.0032947888,0.015295048,-0.075611755,-0.036075298,0.0061639734,0.06502724,0.034911722,-0.040146917,-0.094007574,-0.08637844,0.027098319,0.080618165,-0.010869732,-0.02290394,0.032461233,-0.096008345,-0.13508855,-0.18296234,-0.015589331,-0.11540421,0.13478734,0.1906864,-0.048478503,-0.12932882,0.034215804,0.085831545,0.13496181,0.021069413,-0.17188591,-0.034296263,0.06731812,-0.009157336,-0.08514661,-0.1542702,-0.085049786,0.057399303,0.113458,-0.0012704923,-0.038087454,-0.112667024,0.16391023,0.13510352,-0.011261103,0.07214084,-0.19469374,0.02878604,-0.0033247862,-0.105479226,0.13480066,0.18913203,0.09438278,-0.05208029,0.27984965,0.40487278,0.31655693,0.021723425,-0.09930817,0.10134965,0.018896013,0.013876934,-0.25580323,-0.010404249,-0.031246543,0.023635695,0.045474876,0.008229921,0.08102883,-0.036868386,0.115778364,-0.011430117,-0.16933957,0.078171365,0.13384116,-0.0304153,-0.12608582,0.017272023,-0.028494444,0.12264094,0.15000762,-0.0056560226,-0.056183994,-0.01992491,0.021449586,0.23277147,0.03575783,0.113698155,0.059328984,0.24979869,0.08424967,0.063708685,-0.15396765,0.098453335,0.031460952,-0.09813117,0.022586947,-0.10684317,-0.25155717,-0.12366951,-0.1756186,0.042711157,0.084527075,0.11653545,-0.017471762,0.05382725,0.026605431,-0.15975554,0.08021251,0.2854372,-0.047755748,0.0135973245,-0.2819354,-0.009258484,-0.043765802,-0.048433572,-0.03860183,-0.08938074,-0.10115543,-0.02891509,0.15490654,0.016328054,-0.151638,-0.25141564,-0.11039173,-0.08814341,-0.19494498,-0.09563443,-0.033083234,0.05897136,0.069826014,-0.050748236,-0.08217165,0.032244425,-0.029698221,-0.12449774,-0.13151567,0.07100291,-0.19529806,-0.32718515,-0.24311237,-0.0020727748,0.060243588,-0.09190914,0.0047821207,0.11055758,-0.19253072,0.008399248,-0.060827535,-0.14757279,-0.09705514,-0.052526217,0.12974684,-0.15742452,0.2234135,0.10626872,0.14491563,0.08272781,0.10681111,0.017417526,-0.027244668,-0.009344907,-0.03398532,-0.0023563302,0.0111731915,0.1377702,0.2852424,-0.033242676,-0.0052215485,0.025429685,0.21319157,-0.022576466,-0.0037828172,0.16198573,0.0077833226,-0.10482397,0.04121653,-0.029423265,-0.117811926,-0.13080417,-0.02220038,-0.0051022246,0.0072384924,-0.08617679,-0.071213596,-0.14020753,0.104141206,0.07076217,-0.03224943,0.07589918,0.067315996,0.0018585891,-0.050479278,0.11100223,-0.052371923,0.12404451,0.08032869,-0.09201939,-0.035944324,-0.11648405,-0.03913298,0.01111156,-0.08727911,-0.09335304,-0.18400198,0.1513729,0.09078013,0.09912781,0.041301,0.02848778,-0.09351126,0.011160863,-0.038884003,-0.12211257,-0.2136427,-0.055800743,-0.024245014,-0.005566047,-0.14932196,0.159433,0.11163809,-0.026287166,0.09833154,0.13784505,0.19318216,0.012890501,0.20101173,0.14047705,0.10386749,0.106308565,0.06260398,0.004112202,0.21558188,0.15787877,-0.11567211,-0.085552424,0.04129161,0.09191361,0.104880676,0.042463917,-0.02709659,-0.035972584,0.034400348,-0.054777432,0.0759223,0.18686,-0.2098803,0.016010502,0.10727901,-0.03704906,-0.091322444,0.18504617,0.03923508,-0.16747685,-0.124136254,0.20618024,-0.024277315,0.03422636,-0.10252922,-0.05592444,-0.18272276,0.0039940015,-0.116938226,-0.25772792,0.022021031,0.19721048,-0.2540095,-0.29295307,-0.05039604,0.0096710995,-0.10619388,-0.050283458,-0.27460414,-0.025327701,-0.19755049,-0.04538126,-8.816234E-4,0.0021657958,0.044906758,-0.024640447,0.064352535,0.05139864,-0.077943325,-4.0891054E-4,0.090169065,0.06553696,0.10331426,0.08020677,-0.04537599,0.03831082,0.056104377,0.0077794814,-0.016044922,-0.06627042,0.02910034,0.1453053,0.09455507,0.2758814,-0.23180176,-0.04819532,0.038185913,0.12366842,-0.20937027,-0.15548119,-0.23587807,-0.024025543,-0.14873472,-0.10321986,-0.113812394,-0.08965995,-0.039094444,-0.10670137,-0.35220492,-0.2583332,0.2106837,0.3061093,0.0714741,-0.16014591,0.10115795,0.06888243,0.2193708,0.08769646,0.17750567,-0.15616372,0.04056732,-0.10851435,0.1380773,-0.12116551,0.25232047,0.24918313,0.13125353,0.03250456,0.17251328,0.10049617,-0.044137567,-0.078149475,-0.0667938,0.12905128,-0.09829306,-0.13674863,-0.19412349,-0.025550717,0.30630374,0.06441493,0.098138146,0.09256033,-0.0358349,0.06907364,0.17268631,0.0037882943,-0.17545326,-0.042915475,-0.010744906,0.13931847,-0.024534103,0.16727333,0.030650953,-0.20828451,0.19926307,0.06835623,0.10260257,-4.611932E-4,-0.07062613,-0.19826742,-0.2045914,0.09800241,0.07500106,0.05063657,-0.106152646,0.05948975,-0.1376868,-0.015081054,-0.03059176,-0.051600136,0.051881373,-0.110094264,0.15191999,-0.020199534,0.16785909,0.062279906,0.22185244,0.059428096,-0.047644548,-0.057251398,0.0022354191,-0.11919303,0.19356117,0.09463697,0.02246033,-0.00886018,-0.015937116,-0.034107044,3.1024733E-4,-0.023585323,-0.10787801,-0.07258331,-0.1353913,0.060634002,-0.12711845,-0.115945145,0.014532679,0.09307705,-0.39056283,-0.029624423,0.2685171,-0.035362016,0.19090867,0.13341042,0.14391302,-0.07068936,0.06368879,0.100868896,0.004373791,-0.15181306,-0.04201063,-0.118963405,-0.030970575,5.5595534E-4,-0.042216234,0.06399452,0.15959735,0.020987242,0.056435212,0.020526623,0.078010164,0.07737044,0.062887095,0.0022498604,0.035436027,-0.07703182,0.23547028,0.02201095,-0.11631725,0.11882183,-0.3257555,-0.10701487,-0.09097686,-0.03975242,0.004929101,0.20213296,0.06527275,0.022387791,-0.09180441,0.028750276,0.010650477,0.08959959,0.034992475,0.15702066,0.038300652,-0.020253867,-0.12904698,-0.004109669,-0.048950393,-0.15034837,0.004833918,0.0723321,0.09763844,-0.0430857,-0.016125323,0.12693818,0.106185265,-0.07721827,0.032949064,0.0030090406,0.10800488,0.014771086,-0.15636796,0.11929091,0.005214765,-0.2621049,0.3106573,0.3112865,0.18014815,-0.046350636,0.09593931,-0.15420899,0.16413422,0.11756246,-0.032557424,-0.09057173,-0.10984616,-0.08292154,-0.12479578,-0.06452307,0.067864954,-0.076875426,-0.071719564,0.08566915,0.09304678,-0.029132266,0.03379432,0.07200195,0.12824133,0.2654912,0.049683087,-0.12234243,0.019518344,0.10242793,-0.17955728,-0.27244535,-0.006871003,-0.09627272,0.004207704,0.16147417,0.09996837,0.0608415,0.055951152,0.1410113,0.15546648,0.12182256,0.086581275,0.09167869,0.18174791,0.14285307,0.13578142,-0.016464422,0.06668501,-0.0332128,-0.034556437,0.009084,0.06300647,0.2804967,-0.058258377,0.15110551,-0.024087166,0.16663449,0.11866444,0.06491975,-0.06183602,-0.14240448,-0.026418984,0.09304684,0.005738874,-0.11055784,0.047681093,-0.045987554,0.1857444,0.042975493,0.05767262,0.08006197,0.048296444,0.031098612,-0.053078827,-0.020568937,0.024487915,-0.07804531,-0.20011994,0.11835428,-0.008030248,-0.1477723,-0.014459078,-0.28700966,-0.2859453,-0.37761882,0.047725514,0.11970303,-0.19716197,-0.1111071,0.12145411,0.04803428,-0.02781697,-0.04541473,-0.08690715,-0.12365765,-0.118149154,-0.19412851,0.27540264,0.08862532,0.04159735,0.028558414,0.25613108,0.13565,0.17769587,-0.05668532,0.029950975,-0.0556876,0.15006714,-0.14842337,0.06377795,0.008304377,0.1810158,0.13850929,-0.056933858,0.15984233,0.12432642,0.06458147,-0.15117106,-0.09324368,-0.035594817,5.1622256E-4,0.16968605,-0.18751466,-0.13260497,-0.076627836,-0.24632768,-0.19218875,0.05333888,-0.12555094,-0.055907257,0.015446282,-0.020927396,-0.04050575,0.024185503,0.025335116,-0.21700978,-0.0732783,0.14783457,-0.09204017,-0.12629081,6.9626863E-4,-0.16895756,-0.14962639,-0.10292978,-0.093226306,-0.12800455,0.24464878,0.09023079,-0.10863881,-0.07246293,0.2077521,9.65816E-4,0.15730344,-0.016681336,0.08793884,0.10814485,-0.016029228,-0.01304003,-0.050392773,-0.15871775,0.0031638674,0.1335485,-0.082614705,0.11794353,0.3213834,0.12869002,-0.13354771,-0.13498642,0.15738088,-0.12886648,-0.0737902,0.11838482,0.11494019,-0.07331781,-0.05567621,-0.1229328,-0.17307603,-0.0867001,-0.14649665,1.6160368E-5,-0.19769605,-0.15273944,0.020677786,0.12977953,0.15728424,-0.11613781,0.15430625,0.04928876,0.02102533,0.067027256,-0.015694983,0.13647182,-0.12354214,0.09935055,-0.069153786,0.023917692,-0.16736452,6.903921E-4,0.20689087,0.009117371,0.096279874,0.015475922,0.14759555,-0.14672503,-0.18633156,-0.112612374,0.063499264,0.099672146,0.13427457,-0.18095486,-0.06291618,-0.20133063,0.006972382,-0.03601333,0.0881902,-0.05105108,0.015820008,-0.10197848,-0.058154177,-0.24396387,0.013414541,-0.048253745,-0.14885895,0.02876824,-0.07546418,-0.15676706,-0.06745127,-0.18119529,0.0037730683,0.009015694,0.13658857,0.12424625,0.12382715,0.034398206,0.0819007,0.18410036,0.13133319,0.10359889,-0.010571113,-0.0804804,0.13180313,-0.11848112,-0.19528396,-0.16911902,0.15204778,-0.11595166,0.19017863,0.12518628,0.12922364,0.009684593,-0.029289974,-0.16338207,0.03165207,0.029747998,-0.015848288,0.084474415,-0.027245233,0.32482308,0.1325595,-0.045769196,-0.038573552,0.19167262,0.14827211,-0.06352408,-0.1506425,0.07082566,0.08033619,-0.006704894,-0.06879131,0.0949706,0.08606563,0.1603517,0.11102538,0.010493701,0.24314778,0.13347082,0.15260307,0.20170346,0.030106008,-0.113237366,0.076888934,-4.4674376E-5,-0.07174201,-0.070034705,-0.023677075,0.11658236,-0.004571657,0.14205644,0.14139014,-0.08389592,-0.053970955,-0.08277814,-0.032936852,-0.115470275,0.006797559,-0.03582929,-0.014400959,-0.026632069,0.11558493,0.045818277,0.04101418,-0.060457096,-0.17906646,-0.05136347,-0.2219419,-0.10204468,0.054802813,-0.08953913,0.28300297,-0.048758753,0.12994844,0.23729724,0.24027386,0.13421392,-0.0023010634,-0.11725523,0.04067858,0.14978339,0.09272633,0.060548313,0.011312889,0.06670191,-0.08652046,0.14177157,0.030703643,0.0022153913,0.033634774,0.021963833,0.17246857,-0.0032241577,0.021547433,0.1745805,0.061166782,-0.11404126,-0.19127576,-0.31198955,-0.13686232,0.10689307,0.10260949,-0.026034417,-0.038806513,0.03915402,-0.05267208,0.11081982,0.07575234,0.06373135,0.06320841,0.06888932,0.089394346,-0.045109957,-0.15023255,0.018615434,-0.1598551,0.0037272891,-0.13000804,-0.0343961,0.2438108,0.017665094,0.08282109,-0.19357288,6.514686E-4,0.044918984,-0.1975089,-0.011523629,0.039358884,0.0024842296,0.041916404,-0.13294522,-0.031603046,-0.0111333355,-0.037149742,0.08763021,-0.023930546,-0.052931592,-0.0070654084,-0.014114389,0.005423989,0.043992937,0.058208473,0.13261625,0.09565263,0.068830244,0.3094026,0.1868057,0.045479096,-0.082912266,0.03055737,0.1018536,0.119940706,-0.101232,-0.006521586,0.059893277,0.101361655,0.09363627,-0.08543979,-0.041789327,-0.061773825,0.16782671,0.16849384,0.055417564,0.12452296,-0.027920453,0.03728024,-0.03750543,-0.026227523,0.17454834,0.06762725,-0.085875824,-0.10069917,0.11206467,0.08357265,0.14683665,-0.058187637,0.049181636,0.06736192,-0.10687326,-0.21346615,0.042901725,0.12947775,-0.09452825,0.011792593,-0.06672436,0.07517555,0.022854025,0.070370845,-0.119926326,-0.15055077,0.09556365,0.11713334,0.15478928,0.14521164,0.13375013,0.004271096,0.3426748,0.13002835,0.2626197,-0.040090717,-0.013615891,-0.077472255,0.11179949,0.14697869,-0.13552725,-0.053382345,0.083287135,0.013545789,0.033835515,-0.024976496,0.09492724,-0.22666775,-0.062713206,-0.2847227,-0.15616393,-0.014012888,0.18111032,0.11564013,-0.09219198,0.12528002,0.30811772,0.085362956,0.060220942,0.117554225,0.059545502,-0.13869141,-0.0035699322,-0.064573385,0.26275897,0.22527732,0.0051011727,-0.014432187,0.026488036,0.091944486,0.14694415,-0.15690506,-0.09384562,-0.04090859,0.32819158,0.10329258,0.042445336,-0.13246313,-0.06139769,0.06408793,-0.023755167,0.20185688,0.06826424,0.18979728,0.1141575,0.25459892,-0.015520605,-0.15041849,0.080780625,0.12042504,-0.001081737,-0.04318175,-0.074713215,0.11062576,0.108552486,0.0875176,0.2480531,0.028144514,0.079034105,0.1241233,0.14690158,0.12809812,-0.096771196,0.0018917259,-0.18706904,0.023251763,-0.26435003,-0.15305406,-0.030783016,-0.15899876,-0.025418963,0.022167122,-0.27319217,-0.091889404,-0.16065533,-0.030026397,0.23636793,0.052165512,0.052556027,-0.0110059995,0.25657675,0.12025225,0.11868975,0.04777104,-0.2501551,-0.20020536,-0.050312597,-0.036227625,0.097113706,0.09975355,0.19959086,0.11423816,-0.2562666,-0.0867932,0.07353858,0.029216502,-0.14154422,-0.13856602,0.09212068,0.05813867,-0.09214352,0.15086849,0.049606357,0.18654539,0.13901946,0.25651485,0.042206325,0.10228453,-0.19350612,-0.1034382,0.034578964,-0.14062172,0.04035813,0.17923127,0.17938386,-0.03995326,0.049702685,-0.07930732,-0.08370243,-0.13491765,-0.041612364,0.06013084,0.034100242,-0.06705528,0.032920904,0.06209608,-0.032636613,0.08437299,-0.0735976,-0.13529336,-0.045573957,0.043152932,-0.008352478,-0.08854371,0.040779535,0.07190198,-0.01592307,-0.08813213,0.15651216,-0.06706284,-0.0076531917,0.049777202,-0.07628015,-0.065531276,-0.07755179,0.10877749,-0.0045902813,0.1084463,0.048066385,-0.09392704,0.0697503,-0.16905387,0.06266916,0.16480535,0.1510938,0.09952844,-0.05080428,0.059999514,0.03037626,-0.053124636,0.02623047,0.14380848,-0.0174567,-0.0074423254,0.09293986,-0.05670399,-0.09202255,0.122091174,-0.03138281,-0.0015698462,0.023031978,0.19654539,0.059811793,0.09365487,0.27167797,0.09112517,-0.062410276,0.06327259,0.04174625,0.14953324,0.048653096,0.050424494,0.029590564,-0.001869859,0.020844406,-0.025759755,0.084076464,-0.15481591,-0.028780397,-0.12010497,-0.08856341,0.10502745,-0.10282974,0.06556239,0.12971894,-0.08970767,-0.0031757483,-0.14337087,0.03825722,-0.13148905,-0.08991053,-0.066445485,-0.06157968,-0.21957368,0.051180895,0.078214124,0.04608013,0.031533863,0.059657115,0.12785313,-0.06118086,0.07293529,0.020133436,-0.0890798,0.08754822,-0.08254889,0.10641879,0.17067865,0.14202647,0.22343951,-0.06727698,0.08515456,0.17640278,0.14427081,0.006181195,-0.14565952,-0.024774823,0.061121996,0.23568307,-0.0480385,0.14796606,-0.07895506,0.16293994,-0.13486534,0.061976522,0.052308057,0.16639502,-0.17007802,-0.12364424,-0.24008694,0.13565896,0.28389058,0.19530898,0.24136427,-0.13585784,0.22096607,0.08288861,0.038547285,0.010745635,-0.03463883,-0.005489287,-0.13190155,-0.06364742,-0.18040699,-0.018273432,0.040613983,0.083667204,-0.11086491,0.20511198,0.1944523,0.017849652,-0.0608534,-0.096671924,-0.13124883,-0.19819814,0.019404152,0.12076503,-0.1562799,-0.010161521,0.105315015,0.017017039,-0.014876036,0.07317307,0.1252514,0.04197604,0.00857696,-0.12936816,-0.013055669,0.03795429,0.031124098,0.12667948,0.17414814,0.10485489,-0.11326757,-0.06977798,0.31758296,0.20380582,0.040337708,0.12972476,-0.012828788,-0.0023308364,0.12620969,0.114778355,-0.123501435,0.06694859,-0.08473872,-0.09710872,0.17492503,-0.03620168,-0.12946352,-0.11917939,-0.06732252,-0.14936177,-0.18268698,-0.24583371,-0.01775514,0.016568497,-0.059228018,-0.013593645,0.0991234,0.077657424,0.16089977,-0.112213664,-0.09895078,-0.045678854,0.11999748,-0.33347064,-0.028378751,0.097499624,0.25023606,-0.11321411,0.057191905,0.10391979,0.011327462,0.10723238,0.09398434,-0.07844574,-0.06569042,0.012666417,0.12371996,0.041085266,-0.050418586,-0.0070597585,-0.017689439,0.19100878,0.13206333,0.0075605516,-0.011307609,3.3613664E-4,-0.04044413,0.18191865,0.08444302,0.23736124,0.10897986,0.1946936,0.05708549,0.0489618,0.09927526,-0.033902086,-0.18041983,0.030269878,0.16752538,-0.14783391,0.107103854,-0.013515216,0.12803102,0.07661232,0.2731853,0.0028408014,0.046256837,-0.027189942,0.017866803,0.08778026,0.0040938677,0.09181208,0.023647003,0.1102019,-0.048515122,-0.08021239,-0.0030976762,0.1597017,0.03811562,0.032389194,-0.13099764,-0.22592027,-0.046834286,-0.014606859,0.04685326,-0.10195051,0.14148499,-0.1359522,0.24387145,0.08364729,0.08441639,-0.06828981,0.08054053,0.08952162,0.056280263,0.11799283,-0.1646362,0.054413076,0.21848145,-0.044923365,-0.011782133,0.1038432,0.04361837,-0.016843712,0.029175894,0.09535142,0.21120721,0.064430594,0.07837535,0.29599315,0.091884896,0.32854268,0.14149222,0.052564118,0.24534625,-0.17819655,0.028573394,-0.07946067,0.06872252,-0.22865622,-0.24579616,-0.16418831,0.004994663,-0.10317221,0.0783831,-0.09575404,-0.018646417,0.13375682,0.05757196,0.01924049,-0.0914251,-0.058447327,-0.039102193,-0.0373355,-0.047430612,0.046601344,-0.08578293,-0.037733458,-0.027697373,-0.032231063,0.005747039,-0.006604526,-0.20565169,0.102883086,0.1302366,-0.057087556,0.049225766,0.060927913,0.09211469,0.056205917,0.13869867,0.07164308,0.017842595,0.006821837,0.20207028,-0.05206046,-0.06483687,-0.082194395,0.111452565,0.04188203,-0.1634039,0.16339247,0.17764859,-0.12190253,-0.1514675,-0.010963698,-7.5261394E-4,0.11473354,0.068457365,0.114966914,0.0893452,0.105720945,0.06279422,0.011931023,0.1963349,-0.046491444,-0.0045260475,-0.110740475,-0.1249596,0.18717271,0.04806147,0.120568566,0.033312365,-0.105605066,-0.010170847,-0.063861415,0.14479166,-0.05904457,-0.03192758,-0.060604334,0.17146666,0.12110306,0.020815788,0.013433617,0.024282865,-0.027174987,0.031946074,0.13789096,0.12750663,0.16016819,-0.057639457,-0.25276214,0.06978371,0.10123665,0.13833563,-0.09089675,0.093098514,0.31855738,-0.020644583,0.0062811063,-0.14298435,-0.02196379,-0.09361825,-0.055934526,-0.20471166,0.033288777,-0.14648652,-0.2560738,-0.18281552,-0.017668307,0.022598002,-0.010369376,0.013021992,-0.10974783,-0.047206625,-0.08116413,-0.03967779,-0.08052544,0.081721924,0.17891054,0.05118826,0.25904757,0.2809582,0.2808957,0.30389443,0.051670253,0.047893174,0.17583808,0.35038814,-0.020843694,0.095006905,-0.17387235,-0.0889262,0.19675672,0.22952688,-0.12391443,-0.09164552,0.021994686,0.00857571,0.096481554,-0.005510273,0.039990544,-0.012096325,-0.0058290036,-0.11885238,-5.593377E-4,-0.12501147,-0.06532219,-0.184031,-0.098159865,-0.11879611,0.035555117,0.03632227,-0.051437214,0.0123300785,0.0766916,0.15105458,0.2415248,0.062344566,0.030351263,0.034313142,0.11233779,0.07175887,0.028918868,0.080052525,0.048563186,-0.024359955,0.061742663,-0.14599328,-0.10133632,-0.19128706,0.036425058,0.12403474,0.08444234,0.060037855,-0.078872375,-0.09304825,0.0024233242,0.2543113,0.13726169,0.20324107,-0.095265426,0.12659952,0.1233599,0.20554797,0.066958085,0.08619732,0.004954879,0.054957118,0.068605594,-0.0077549913,-0.02887921,0.002846468,0.0018036533,-0.090880305,-0.14284168,-0.12230012,0.14264463,-0.017343158,0.20291317,0.18284947,0.27715263,0.09634842,0.22833663,-0.044855088,0.096489,0.019374883,0.022074444,0.063856974,0.033141308,-0.042669624,0.0652825,0.038648646,-0.0035643007,0.034420844,0.15193781,0.14544502,-0.2708358,-7.55731E-5,-0.008381623,0.108264595,-0.0018916754,0.26057574,0.034865662,-0.076452516,-0.24519135,-0.06369207,0.044473574,-0.2143339,-0.24806373,0.0317482,-0.047955617,-0.017790131,-0.24696009,-0.36970487,-0.2631634,-0.2809036,0.0665797,0.19240773,0.07603321,-0.022678092,0.0665937,0.14587669,-0.0026847192,-0.20237081,0.24192587,0.34527338,0.12014129,-0.15431143,0.28394645,-0.05973787,0.06925066,0.15835112,-0.025450457,-0.036908712,-0.0627299,0.06889419,0.086947225,-0.055875644,-0.07722631,0.23352179,0.21181342,0.07266562,0.19234943,0.20102072,-0.1713459,-0.20534559,-0.050702095,-0.05464114,-0.19476597,-0.01833715,-0.10069267,-0.089207344,0.18167737,0.28805742,0.10516539,0.14829554,0.10287514,0.0105595635,-0.058065422,-0.013817211,0.18051586,0.14434181,-0.046898752,0.13531286,-0.09892986,-0.26694912,0.007827867,-0.091189735,0.0316679,0.11523172,0.20912197,0.15767094,-0.046871692,0.068734035,0.074824564,0.10670488,0.119078726,0.22272605,0.23622483,-0.09920585,0.113075696,0.1439208,0.17309263,-0.038911615,0.20565611,0.107768126,0.048737682,0.07722891,-0.13597755,-0.07029073,-0.04851439,-0.10209237,-0.05224871,-0.05175466,-0.06368316,0.08433248,-0.0842519,-0.01888342,0.12678394,0.071049705,0.035460476,0.05561973,-0.007228251,0.11129771,0.031451207,-9.0471137E-4,0.07532235,0.030304462,0.089633286,-0.039431002,-0.059841204,-0.004231541,0.047641657,0.042026736,0.06227275,0.076632746,0.16552489,0.23726238,0.060082663,0.005470789,-5.3825625E-4,-0.033060595,0.051383536,-0.04089216,-0.24718286,0.19769719,0.27014592,0.28521827,-0.11458932,0.18933019,0.016685925,-0.0435178,0.027699877,0.014075881,0.24132918,0.02400524,-0.083285935,1.1350555E-4,-0.20237724,-0.26917994,0.02176786,-0.14721681,-0.06500895,-0.18825711,-0.12458315,-0.0949189,-0.11230689,0.047824126,-0.063084275,-0.16051523,-0.16585612,0.09066966,0.114043124,0.22655223,0.40438795,0.14140815,-0.004507484,-0.08937031,0.21605101,0.020099888,0.0048029465,0.04598392,0.05807398,0.18600695,-0.0076451898,-0.07608631,0.12137102,0.04430398,-0.22600968,-0.12572905,-0.124667786,-0.048655055,-0.10032301,0.0072042868,0.04042289,0.017875789,0.08967589,0.06604868,-0.06110846,-0.10637121,-0.16759288,0.07617174,-0.027803626,-0.005678923,0.11192633,-0.009877427,-0.053048503,-0.15400825,0.02319542,-0.038924154,0.00630839,0.053011443,0.098320164,0.084076524,-0.14039156,-0.074986614,0.0942853,-0.053930096,0.045838837,0.15809777,-0.20696343,-0.071845844,-0.33428732,0.025508601,-0.15637448,-0.38833705,-0.26931724,-0.008450787,-0.22582014,0.07346668,-0.1590769,0.0079915635,0.18742272,0.0126320245,-0.018825814,0.019145735,-0.17505273,-0.017351422,-0.032962296,-0.009667048,-0.11458655,-0.079135075,-0.0011520556,0.026156045,0.059140857,-0.11064827,0.11205576,-0.020687278,0.14771813,0.26565683,-0.03433622,0.06397735,0.3644963,0.4081732,-0.091993995,-0.07491879,0.022198893,-0.05800418,-0.108045265,-0.082210556,-0.13846688,0.061518736,-0.0718506,0.033477414,-0.14718731,-0.18997139,-0.04293747,-0.064507544,0.029180506,0.056923267,-6.028187E-4,-0.15222044,0.12370487,-0.039273154,0.038719893,0.11387042,0.048053753,-0.010964781,0.19576158,0.15644774,-0.16257371,-0.060004383,0.022778735,0.015525343,-0.033497203,-0.12979317,-0.10084211,-0.0076917144,-0.11986393,-0.020461906,-0.17186014,0.031940866,-0.10340223,-0.0631378,0.10581574,-0.089796856,0.15020408,0.14145897,-0.0075634536,0.005343425,0.07158743,0.027800275,0.0040243035,-0.16353686,0.13303465,0.0083788615,0.04432406,-0.10829446,-0.041332528,0.018649463,0.18393256,0.028388297,0.027388226,0.053234614,-0.108807094,-0.07870289,-0.32811308,-0.15023702,-0.08863026,0.039089736,-0.006315715,-0.011122344,-0.03711093,0.0083098905,-0.05080526,-0.11195871,0.041805353,-0.108251855,0.046849307,0.10179533,0.10469087,0.23125409,0.1525577,0.11754037,0.03149581,-0.02872135,-0.025916412,0.29234824,0.05284984,-0.12848826,-0.10450821,-0.18734142,-0.14935873,-0.008411126,-0.14141417,0.07344577,0.064078934,0.06449259,0.0022641965,0.07531838,-0.12424434,-0.108009145,-0.0563181,-0.28902796,-0.23901045,0.09971073,-0.062486336,-0.09926067,-0.18355317,0.089380875,0.061758447,0.032257196,-0.032407053,-0.09260878,-0.107356556,-0.09352771,-0.18818904,-0.17535987,-0.058879297,0.20324491,0.2195929,-0.09403547,-0.033050023,-0.08529559,-0.009183623,0.023746701,0.0019700548,-0.011495784,-0.048436943,-0.07550413,-0.11459222,-0.13569212,0.049535736,-0.20691381,3.528825E-4,0.091300845,-0.016080335,0.06358791,0.13127862,-0.053544253,-0.0151256025,-0.13729563,0.23142399,-0.026259856,-0.012358589,0.12772734,0.087669544,0.23418488,-0.1042145,-0.11965343,-0.032108396,0.082736365,-0.15065481,0.028185846,-0.12928772,0.0611378,0.004771646,-0.14133717,0.06684383,-0.056076355,0.090991616,0.12904945,-0.05954418,0.02251775,-0.015418142,-0.10352891,-0.086012654,-0.010576619,-0.09359686,-0.17239973,0.13570291,-0.06983625,-0.036903385,-0.103610575,-0.07586278,-0.03208536,-0.16143958,-0.12585291,0.051020827,-0.102928385,-0.014894984,0.060693674,0.002401803,0.18007232,-0.120957494,0.07302642,-9.145925E-4,-0.19374299,-0.1062184,0.070144236,-0.11359869,-0.09472897,-0.012492378,-0.015131307,-0.0572624,-0.122083254,-0.1575832,-0.25390667,-0.25655803,0.10634287,0.1139762,0.054202598,0.029312106,-0.029052993,-0.026240112,-0.014493938,-0.04284667,-0.20254642,-0.21866696,0.027620273,0.0407351,-0.18267111,-0.21316472,-0.093765914,0.075551525,-0.105077356,-0.22885159,0.043429263,0.032232393,-0.09238402,0.044854145,0.114565074,-0.052556258,-0.02022973,0.037581023,0.20690888,0.11329942,-0.008315076,0.026450574,-0.045526534,0.1870607,0.058064103,0.039523646,-0.062504254,0.06298753,-0.01684112,0.02139318,-0.0030492395,0.19873899,0.3349675,0.017500361,0.15319067,-0.20294191,-0.04165321,-0.1080341,0.025044149,-0.101328135,-0.19393136,-0.1360833,-0.09909459,-0.01409471,-0.0160259,-0.08757959,-0.007076906,0.032865886,-0.09990445,-0.122572035,-0.1265721,0.04271989,0.03383969,-0.051725812,-0.17200711,-0.18534388,-0.0053380965,0.062812716,0.09141258,-0.12933701,0.06328656,-0.060896587,0.012717461,-0.07495662,0.038895927,-0.049887296,0.074463636,0.025759889,-0.1396033,0.0014074629,0.01621861,0.1224551,-0.14896543,-0.15527368,0.11110814,0.3054347,-0.004561742,-0.06177138,0.15255238,-0.06533429,-0.08306967,0.005628562,0.005601814,-0.046878748,-0.0772684,-0.017145712,0.10524781,0.20349751,0.13015305,-0.025058666,-0.13471842,0.06877978,-0.027877707,0.0148706315,0.07187564,0.009953953,0.18441284,0.019500133,0.110765815,-0.0025690189,0.0028591498,0.07684067,0.12663387,0.036900483,0.048584834,-0.16814186,0.059998978,0.25163954,0.041627932,-0.032125913,0.07831582,0.008642918,0.06201907,0.024452712,-0.17217389,-0.041238043,0.031310398,0.1177249,0.22332363,-0.09760142,-0.08093441,-0.012483513,-0.028154286,0.23183815,0.007786879,0.03402513,0.21664734,-0.08846318,-0.1417617,-0.08348596,0.056039624,-0.12047727,-0.28962946,-0.2674543,-0.04510808,0.0759867,-0.07761731,0.07023774,-0.012876769,0.18968192,-0.035648458,0.045006122,-0.032806788,0.05180409,-0.054900736,-0.037195742,-0.101099774,-0.10463438,-0.12358633,0.10646529,-0.2145919,-0.21083367,0.0720013,0.03586505,0.041051444,0.005106879,-0.017685553,-0.03084828,0.006353031,-0.022920078,0.039739553,0.016929628,-0.29291448,-0.032765362,-0.094168,0.10934732,-0.12994662,-0.013172876,-0.014921541,0.1864872,-0.026450219,2.4933805E-5,0.14440724,0.035964113,0.046975467,0.20953588,0.02528176,0.038136072,-0.14731832,-0.023005182,-0.06025047,-0.035047717,-0.07784575,0.028128847,0.16213383,-0.047115467,-0.2311419,0.07886815,0.06419644,0.2813552,0.11273125,0.033939153,0.047461778,0.03641134,0.121647485,0.06271028,-0.003739748,-0.12067603,0.0120301405,0.13036285,0.21344668,0.15435022,0.19467689,0.2736967,0.19167191,0.15932326,0.10194081,-0.03086796,0.020731362,0.05980979,0.04085517,-0.18059106,0.047471013,0.11367835,-0.066880874,0.056185674,0.1324251,0.1682885,0.03070057,-0.035192452,0.107442096,0.061408438,-0.107592836,0.16410916,0.060235105,0.0638215,0.13701211,0.07413065,-0.024044232,-0.12941313,0.11950006,-0.17028579,-0.1358975,-0.13027765,-0.07144097,-0.0450869,0.06770045,-0.023814252,-0.010479786,0.0037602137,-0.0069661383,-0.16792245,-0.13012776,-0.25228253,0.13027488,0.012799318,-0.032675583,-0.20294273,0.085834175,0.10452658,-0.13110167,0.12114553,0.1503391,0.009631402,-0.02158644,0.11745754,-0.0023222049,0.04100166,-0.027574722,0.06699322,0.02755384,0.043604374,0.17780313,-0.14559096,-0.030016266,-0.11908936,-0.07829336,-0.11459607,0.21637203,0.023079576,-0.18348055,0.07176337,-0.044388063,-0.002529781,0.081991725,-0.00855493,0.115168124,0.06468238,0.042082597,-0.024218783,0.08408706,0.15007797,-0.108948044,-0.113779314,-0.035996966,-0.020515002,-0.05173371,0.06651462,0.109562606,0.07947112,-0.008707901,0.16081592,0.15281618,0.10019289,-0.0012558798,0.18087386,-0.19677517,-0.05673913,0.0781017,-0.15214258,-0.07123014,-0.115721405,0.10987609,-0.11888557,-0.21149477,-0.009151176,-0.15055794,0.043307085,-0.055703435,-0.32100606,-0.020544099,0.12592418,0.13413773,-0.002156723,0.02104873,-0.06679975,-0.02759143,-0.07198377,0.07148742,0.032485023,0.018018058,-0.07828821,-0.19344462,0.18853009,-0.003038951,-0.11720237,0.073827915,-0.040315628,-0.17503059,-0.10411812,0.19012333,0.16278711,-0.14750898,0.14155333,0.08114024,0.12028928,0.018597659,0.18476202,-0.03295842,0.123519115,0.2992353,0.011480362,-0.09538685,0.14096706,0.2543428,-0.033919062,-0.086071685,0.22102869,0.06710183,0.28757936,-0.017218636,0.24180003,0.11383531,0.08694221,0.05536382,0.07529922,0.027856508,0.0072986474,-0.06603261,0.033836987,6.73278E-4,0.043805577,-0.037364952,-0.1516409,-0.07986742,0.15895008,-0.042945463,-0.06356672,0.009384696,-0.11227027,0.020062638,0.018571943,-0.14490741,-0.17359573,-0.22285402,0.2636599,0.12171805,-0.12357483,5.732227E-4,0.22628313,0.20165847,0.32688212,0.092005454,0.24251896,0.09971182,0.13741529,0.14035685,0.09791665,0.06735744,0.32612872,0.22808076,-0.069224276,-0.22314543,-0.036496136,0.22871646,-0.002707259,-0.027837936,-0.104962006,0.02135373,-0.09393049,0.24642135,0.008159834,0.06726191,-0.24526042,0.119172014,-0.20990448,-0.21789055,-0.060518477,-0.057939753,-0.20672037,-0.12690917,0.04544403,0.11298915,0.04991766,-0.08443929,0.08224596,0.110494845,0.15484469,0.012967095,-0.0895821,-0.017697794,-0.044399597,0.034417283,-0.027758611,-0.010523181,-0.16673811,-0.103441164,0.16605803,0.07350692,-0.10206275,-0.198877,-0.106712915,-0.12267771,0.017226933,0.12884325,-0.1797789,0.03149124,-0.07389755,-0.022443179,0.13112539,0.25735006,0.16312695,-0.073480465,-0.05568343,-0.02287048,0.18812154,-0.06078516,0.01294076,-0.12391259,0.044323422,0.08486379,-0.07020611,-0.0037999414,-0.1454533,0.014192489,-0.037469063,0.020140305,-0.15848818,-0.022187954,0.03776161,0.17466846,0.1056065,0.16098596,-0.09933747,-0.1171098,-0.06940865,-0.058484375,0.13957556,0.1549271,-0.015938044,0.06345407,0.014435255,0.07601738,0.13788624,0.010417631,0.11489711,0.13269354,0.07404779,-0.022730578,0.41034877,0.101319104,-0.23720837,0.017445164,-0.17781869,-0.07797279,-0.10889864,0.19286442,0.044790555,-0.091318786,0.069851674,0.27996558,0.009178745,0.107738875,0.046729006,0.045903496,0.031021303,-0.0765489,-0.16217095,0.015249076,0.012648824,0.019098027,0.019517262,-0.13051412,-0.15590139,0.1404029,-0.025405455,0.018152233,-0.17187288,0.016371863,0.10975809,-0.13227342,0.34885105,0.043420658,0.1592054,0.08550175,-0.03996249,-0.22993577,-0.086619966,-0.17466989,0.011904422,-0.022566471,-0.09911754,-0.092283316,0.0011401466,-0.15394835,-0.007437417,0.093530945,0.23456691,0.057820033,0.063794866,0.09597422,0.02802979,-0.05583316,-0.018318938,0.04638463,-0.036630884,-0.12699617,-0.09754653,-0.020754866,-0.034517776,0.085350014,-0.12895958,-0.08100845,0.10297942,-0.08701322,0.016243657,0.3072297,-0.38086128,-0.21110523,-0.15916541,0.029348807,-0.047404785,0.2250879,-0.11948079,-0.15852137,0.024099926,0.11112206,0.16953982,0.11703315,0.124713615,0.051303,-0.020334419,0.025640056,-0.098745376,-0.078560665,-0.056773447,-0.04778181,0.030720338,-0.06583633,-0.09244184,-0.23129354,-0.047891747,0.18824944,-0.050650775,0.012486887,0.025316605,0.12326824,-0.063423716,0.005325656,-0.024175193,-0.0904714,-0.15099752,-0.12105255,-0.08943089,-0.19354124,-0.14010534,-0.119439505,-0.06927748,-0.012142022,-0.090136,-0.111999735,-0.0043577617,0.017891238,0.0072313296,0.03751797,0.041986104,0.052273814,-0.040801708,-0.2558009,0.055291854,-0.041477077,0.08760818,-0.10103526,-0.11508736,-0.030131565,0.12343432,0.16922672,0.014225556,-0.19413081,-0.105599254,0.088743754,-0.052041695,0.09349259,-0.18313378,-0.006887942,-0.11010036,-0.15310407,-0.16452761,-0.036824685,0.13686027,0.050155096,0.04060515,0.08974277,0.22174719,-0.17992581,-0.038296513,0.18285601,0.009254132,0.22464962,0.30211917,0.3932672,-0.053380292,0.0350618,0.19292666,0.13372833,-0.13794798,-0.056423113,0.04527698,0.05927097,0.19570331,0.08080388,0.10501427,0.24381486,-0.265979,-0.13307948,-0.09887647,-0.03980613,-0.29646263,-0.06465788,-0.10962217,0.17544153,0.012896475,0.1487896,-0.093587466,0.21246237,0.014706947,0.079593286,-0.11918331,-0.09518355,0.094590254,-0.16205609,-0.22502126,-0.020798579,0.23260824,0.09826771,0.17275038,0.040593017,-0.16161774,0.18576531,0.048268575,0.07837376,0.24375318,0.23728909,-0.03906907,0.08341504,0.04566077,0.07259365,-0.08881721,-0.007202981,0.05009359,0.023172984,0.19452256,0.092622295,-0.07192831,0.16846628,0.19426006,-0.03958993,-0.048964467,-0.026138525,-0.1498287,-0.13741986,-0.047302403,0.24734747,0.12821473,-0.016235946,-0.1922078,0.16206852,0.032201804,0.08038192,0.011386554,0.10546903,0.08720979,-0.025602546,0.018668424,-0.003839452,-0.22969796,-0.020876639,0.042685527,-0.032036923,-0.026282756,0.16530731,0.08631151,-0.114974596,-0.19398934,0.037625287,-0.147416,-0.07032941,0.060204864,0.08537672,-0.035804115,-0.06415455,-0.095865525,-0.14974786,-0.24803476,-0.09000882,-0.028947666,-0.2002295,-0.13268654,0.0041777985,0.09611332,0.13542539,-0.17403194,0.086665295,0.106913954,0.09157736,0.09363043,-0.002881744,0.116547465,-0.06424,0.09670348,0.021895396,0.11423577,-0.021332836,-0.0072661787,0.22550607,0.08826495,0.08346018,-0.044903085,0.116561495,-0.22538608,-0.22492674,-0.082274534,0.09872856,0.15964882,0.15526855,-0.04498633,-0.100171335,-0.22202899,-0.080998845,-0.084464066,0.06523255,-0.03385131,-0.1445278,-0.10899199,-0.08131276,-0.21436724,0.01204251,-0.13848896,-0.0918393,-0.05049251,-0.038709857,-0.10470096,0.05832971,-0.10698084,0.023351874,0.06547438,0.08498263,0.1024427,0.08103336,0.0522255,-0.029490514,0.07880479,0.10922875,-0.03761827,-0.04074871,-0.0818328,0.0014808854,-0.15367533,-0.30749166,-0.20068519,0.052270606,-0.21092862,0.18405287,0.10264315,0.05288697,-0.11787253,-0.14454493,-0.2305872,0.01825888,-0.07121598,-0.05664284,-0.039418105,0.011285773,0.23349588,-0.04984223,0.0094162645,0.017569907,0.18984544,0.0731648,-0.07504222,-0.20490658,0.033820543,0.052269537,-0.013644168,-0.0013558487,0.0722743,0.01974548,0.18445851,0.03979018,0.059479024,0.12152819,0.1250503,0.13901599,0.18539426,9.525151E-4,-0.047576282,0.17353642,-0.07414048,-0.13619855,0.0048831576,0.041816145,0.09736177,0.07728137,0.08329631,0.14199321,-0.13057446,-0.027233914,-0.08050211,0.001759764,-0.08295753,0.08452373,-0.012890004,-0.013681155,-0.005112461,0.10738283,-0.05608177,-0.0974443,-0.1513186,-0.20983613,0.039195832,-0.19531313,-0.13428794,0.072561346,-0.08582238,0.15318434,-0.08417701,0.06863497,0.18701464,0.19925335,-0.013843477,-0.010130201,-0.14477909,0.03106112,0.07883162,0.072589494,0.06739551,-0.040203914,-0.006279466,-0.11282761,0.040095475,0.0041453657,3.3331776E-4,-0.053454872,0.037015688,0.124363214,-0.006863131,0.042815007,0.18584865,0.019389885,-0.09009949,-0.23801957,-0.3913271,-0.05317603,0.051633418,0.11935881,0.037404425,-0.11984467,-0.015601024,-0.11027898,0.07791118,-0.10682065,0.108005844,0.056356993,0.04486503,0.15407825,-0.0641915,-0.15642206,-0.088915125,-0.1095014,-0.08967762,-0.13723496,-0.06955329,0.18135913,-0.07558348,0.05219587,-0.19721635,-0.041251246,-0.021674667,-0.28360027,-0.02445597,0.037737317,-0.04444739,-0.058997516,-0.15685058,-0.10886632,-0.12122185,-0.049220204,0.024822848,-0.05933279,-0.10315701,-0.18630908,-0.15479797,-0.0026881767,-0.005162039,0.0030919118,0.153998,0.0840387,0.01547425,0.11301884,0.14069505,0.055132415,-0.14192988,-0.06931579,-0.01767289,0.107807934,-0.11661024,0.06687322,-0.031107351,-0.008021267,0.11335189,-0.15235204,-0.11657134,-0.028963901,0.15346672,0.11581405,0.18676874,0.09065247,-0.038639195,0.06327699,-0.08068026,-0.06871264,0.06463428,-0.0137538025,-0.025262717,-0.12221697,-0.005153791,0.023732785,-0.11889441,-0.15085338,-0.015270609,-0.033348717,-0.109212704,-0.15047327,-0.07749135,0.065058835,-0.16254596,-0.07440007,-0.0931771,0.062484346,0.13298327,0.079026185,-0.06715262,-0.036868688,0.18024455,0.17392667,0.07413767,0.10566934,0.22843276,0.036375713,0.2506213,0.18460928,0.22244665,0.004831331,-0.14958642,-0.15430366,0.1362452,0.09092992,-0.12003663,0.04126072,0.13335581,0.060421012,-0.002786231,-0.07220354,0.0038533355,-0.19933176,-0.20674741,-0.3015992,-0.1201946,-0.23256713,0.14074235,0.12414287,-0.15344769,0.020538075,0.3085965,0.08371198,-0.018514004,0.035654474,0.0036050654,-0.10212732,-0.054491855,-0.0114660645,0.1492131,0.21439016,-0.0062045217,-0.007447004,0.03892766,0.19221006,0.24289031,-0.11258648,-0.06509446,0.009039338,0.1897705,0.06567738,-0.029654816,-0.14362638,-0.14497551,0.0012522758,-0.08199081,0.1177034,-0.025809098,0.22934598,0.054304898,0.18327367,-0.10235112,-0.20168473,0.07637158,0.073370785,0.0038090071,-0.106891386,-0.19685833,0.07544733,0.12177263,0.12332127,0.043033987,0.007541955,0.10174494,0.10550609,0.07370987,0.10013816,-0.04607447,-0.10465173,-0.098314404,-0.020434685,-0.19425581,-0.088747494,0.07195356,-0.017784059,0.017659714,0.06275454,-0.25551698,-0.18193862,-0.17998233,-0.09067425,0.16158399,0.016517375,0.1392329,-0.10226921,0.17864992,-0.026438834,0.025070658,-7.335462E-4,-0.21678971,-0.1111935,-0.14373237,-0.061463863,0.06932371,0.12547705,0.23726878,0.109674945,-0.24737145,0.068390764,0.045618407,0.13579576,-0.15794858,-0.09904006,0.115264684,-0.011293594,-0.14847577,0.040694397,-0.16576006,0.09003119,0.1711847,0.17036459,0.022451779,0.016570218,-0.14024569,-0.11095437,-0.05193107,-0.2727728,0.04050272,0.047615744,-0.02685845,-0.11711806,0.028081385,-0.110347986,-0.16557996,-0.09937152,-0.08899881,-0.019728065,-0.018830732,-0.06185406,0.1495511,0.11740513,-0.10480083,0.013497537,-0.073455475,-0.20986952,-0.1066989,0.08414305,-0.009407686,-0.04973118,0.04627503,0.06722722,-0.09720387,-0.09914103,0.12459494,-0.03392942,0.05248715,-0.026519952,-0.0058720363,-0.07782031,-0.12607504,0.15088946,-0.07687985,0.06167814,0.09345493,-0.08354662,-0.06282713,-0.026093237,0.05767626,0.14367594,0.2269665,0.09159408,-0.11988148,0.023483325,0.017759215,-0.08929759,-0.03264942,0.09026364,0.043687984,-0.04696482,0.10758248,-0.13696823,-0.15578099,0.060511604,0.04306891,0.018737864,0.013043092,0.14357816,0.06847466,0.0470985,0.08416797,-0.028558036,-0.096695386,-0.012872318,-0.06008538,0.16550417,0.017510973,0.08098134,-0.10748403,-0.06280819,-0.06496164,0.04019647,0.02554736,-0.2036122,-0.03866294,-0.13193446,-0.17784625,-0.00867156,-0.055841494,0.04811047,0.083710216,-0.06568613,-0.026184859,-0.05627313,-0.038238168,-0.03138457,-0.15651946,-0.19212388,-0.13471243,-0.25235188,-0.07805677,0.103543006,0.10057967,-0.12894456,0.049227383,0.10399216,0.013000464,0.13863175,0.090594545,-0.09545713,0.020251695,-0.015768921,0.1297636,0.09792742,0.10592095,0.103650324,-0.033667378,0.070271775,0.15008323,0.1471164,0.019523352,-0.11303044,-0.04843827,0.13593388,0.06179245,-0.15359999,0.03637168,-0.08100263,0.027723903,-0.14128716,-0.0071016382,-0.030281499,0.053703565,-0.20692754,-0.23481749,-0.17658898,0.031075064,0.2595336,0.15267165,0.10653433,-0.14251265,0.063599385,0.044743832,0.009357672,-0.072474964,-0.052970883,0.044086475,-0.17263159,-0.21835321,-0.23232214,-0.00768051,0.055843808,0.016663859,-0.13465402,0.11987168,0.15380397,0.031105947,-0.0427961,-0.14332151,-0.100808926,-0.08111065,-0.043918375,0.02005842,-0.06943827,0.003029704,0.05243015,0.018631142,-0.097028084,0.007126964,0.018559325,0.06169572,0.03651014,-0.18424128,-0.031465117,0.1786221,-0.017735347,-0.074411795,0.059073772,0.07563783,-0.07133631,0.036293544,0.30048105,0.15992099,0.08190641,0.09573089,0.08557468,0.049252,0.16739215,-0.018998222,-0.22112434,-0.040586278,-0.06861381,-0.065921225,0.1030071,-0.019713035,-0.20211464,-0.19981942,-0.21693896,-0.24663463,-0.15521154,-0.2967395,-0.073724225,-0.07470686,-0.054203004,0.084289774,0.084073074,0.043312598,0.17821103,-0.10014174,-0.17533913,-0.032721065,0.16333404,-0.3237599,-0.10735113,5.1774783E-4,0.123774394,-0.017190523,0.078301065,0.053848732,0.027310407,0.03290157,-0.10205848,0.0071039293,0.034943055,-0.045301963,0.069754414,0.117852904,-0.057110753,-0.025273724,-0.07005172,0.2254956,-0.014866546,0.010648999,-0.013475311,0.09342153,-0.039251693,0.11022573,0.1285412,0.23513412,0.17824359,0.008783681,-0.014223903,0.026440265,0.021596652,-0.059599854,-0.09179449,-0.13579455,0.20086259,-0.16211516,0.0660137,-0.017739145,0.031558778,0.010409759,0.13723123,0.07781033,0.07693241,-0.031937372,-0.07098641,-0.096268125,-0.0069055343,0.040813934,-0.22317208,-0.14265183,0.011665521,-0.058538977,0.08130963,0.15205829,0.079609364,-0.09255858,-0.049931526,-0.251381,-0.06950308,-0.01596832,0.09128669,-0.10390508,0.059481137,-0.06210566,0.08067943,0.020258967,0.13435328,-0.0023152325,0.047527734,-0.0681989,0.00995949,6.8736234E-4,-0.15660055,0.06069798,0.23870407,0.008049532,-0.05396075,0.03958472,0.0977355,0.03864596,-0.009212591,0.11094155,0.07584614,-0.0019752074,0.007160902,0.13643658,0.02194588,0.24941951,0.11161026,-0.050902434,0.1190212,-0.066734955,-0.11117616,-0.017866166,0.1630581,-0.24521787,-0.25104794,-0.018475018,0.015322381,-0.17336397,-0.0055944724,-0.08607498,-0.037727818,0.19914658,-0.03783732,-0.044992287,-0.1426933,-0.025509192,-0.0057636104,0.026573855,-0.12469109,0.027065223,-0.12354707,-0.22168316,-0.13911657,-0.046751652,-0.008244758,0.0382653,-0.07134565,0.16013083,0.15389901,-0.12720811,0.073036835,0.10530583,0.070625074,-0.038547877,0.1492768,-0.019293742,-0.003939336,0.05745153,0.21745984,0.018208833,0.0019231746,-0.14490609,0.09179778,-0.09362058,-0.21715212,0.12781675,0.08513158,-0.1291068,-0.17550084,-0.14905648,0.069285564,0.062494222,0.108252615,0.081541464,-0.05440217,0.052019246,0.06010689,0.025441404,0.30494082,-0.013203502,-0.039040186,-0.21572621,-0.022187147,0.058943834,-0.039784424,0.123224996,-5.650271E-4,-0.10176228,-0.07064768,-0.085485026,0.116660625,-0.042175524,0.005494994,-0.03247147,0.23125644,0.1453925,0.0018705511,0.0060605938,0.070342876,-0.12724853,-0.10638743,0.07652217,-0.00630422,0.10984182,-0.08392026,-0.16089976,0.10554189,0.03231652,0.10916504,-0.06469057,0.010552931,0.19064839,-0.028229477,-7.2057E-4,-0.063326776,-0.033725224,-0.11580049,-0.024146294,-0.08388457,0.050415076,0.001904838,-0.10955584,-0.06537879,-0.0583746,0.12157291,0.058136523,0.018981958,-0.07631961,-0.07936751,0.034231145,0.036905456,-0.0936974,0.07264739,0.070117295,0.027779114,0.110675246,0.11814324,0.23910405,0.29436654,-0.1130334,0.018997094,0.061836857,0.19007565,-0.15672766,-0.097312726,-0.1033055,-0.09787016,0.17036845,0.16063787,-0.027650923,-0.028076094,0.023685448,0.043130774,0.12765539,-0.007799422,-0.045079637,-0.027320424,0.0646862,-0.07366278,-0.05834905,-0.14006117,-0.091712855,-0.15328838,-0.22736828,-0.25144884,0.06523015,0.11299503,-0.050704442,0.020366777,-0.038332567,0.13883685,0.21155955,0.036776487,-0.02034526,-0.058278386,0.081518285,-0.038148668,-0.06987231,-0.010464361,-0.058199145,-0.08927491,0.04150843,-0.18536279,-0.0056159915,-0.07806231,0.12268844,0.10930429,0.03221152,0.0116695445,-0.035757218,-0.16198877,0.035332702,0.20844418,0.13768683,0.04596156,-0.12232162,0.19644032,0.21569595,0.096686006,0.21679103,0.10612941,0.0505299,0.054868024,0.0663849,0.0068511255,0.055755734,-0.017259218,-0.21080153,-0.13999487,-0.1219796,-0.107396394,0.059612524,0.017536635,0.2429604,0.07397915,0.23640187,0.2055507,0.16629289,-0.16070685,0.018045118,0.019628897,0.080853514,0.071661256,0.00356415,-0.12832427,-0.122108005,-0.07920104,0.005355499,-0.07421226,0.17954274,0.1479698,-0.26333827,-0.08618282,-0.118784964,-0.027346915,0.023677083,0.11541509,-0.015849583,-0.15788934,-0.18619189,-0.092438,0.019437779,-0.09105226,-0.18958412,0.038767673,0.014111706,-0.08658076,-0.29729402,-0.34855667,-0.265917,-0.3074539,0.07158396,0.12028546,0.04357002,-0.06857461,-0.03310113,0.11341066,0.04400644,-0.07757625,0.10220807,0.2414716,0.13982499,-0.18961175,0.36293685,-0.007719535,0.015893605,0.12849158,-0.059588253,-0.026897803,-0.0859716,0.018656773,0.1601629,-0.06826073,-0.17257483,0.17133798,0.22119898,0.0350765,0.15997723,0.20290412,-0.17071344,-0.27639678,-0.047720764,-0.04263048,-0.19054095,-0.031447988,-0.16122493,-0.07591711,0.09706373,0.08636675,0.009028858,0.15020816,0.1343184,-0.15296532,-0.07587448,0.05497714,0.20716636,0.17151113,-0.078887634,0.028851746,-0.14444084,-0.14945418,-0.024606613,0.018756814,-0.014268889,0.07856271,0.14900947,0.2589491,0.011360247,0.13127993,0.00523275,0.11408661,-0.023144886,0.131917,0.14836442,-0.052580085,-0.05591573,0.10580491,-0.019262256,-0.04815213,-0.022166818,0.08048272,0.029750025,-0.022274543,-0.2690638,-3.8638109E-4,0.011854205,-0.110940926,-0.0834335,0.037682094,-0.013630355,0.12480866,-0.15729612,-0.10037752,0.116208725,0.058805913,0.052278247,0.03300589,-0.028260183,0.09147585,-0.06456035,0.10023211,0.115775965,0.15584339,-0.005266065,0.06880281,0.031654246,0.025981138,0.04129665,-0.020943265,-0.0014039264,0.07070161,0.16640164,0.13556822,0.037528034,0.086840145,0.009169112,-0.09250287,0.09172938,-0.0060129254,-0.2217253,0.19414762,0.16885251,0.20466097,-0.18632615,0.14770333,0.15758683,-0.10108269,0.033124503,0.025253657,0.044767268,-0.0411328,0.018100362,-0.13511294,-0.122504056,-0.1612986,-0.015613948,-7.3770183E-4,-0.026959622,-0.18697354,-0.05681221,-0.18204144,-0.2366857,0.03196225,-0.081542924,-0.15576738,-0.11609957,0.05727594,0.04872465,0.2052728,0.31180146,0.13722055,0.031260107,-0.16923344,0.20154922,-0.034750342,-0.06433343,0.018237112,-0.008199254,-0.039454654,0.08965327,-0.12911376,0.06663219,0.07469641,-0.21081798,-0.030634241,-0.14079085,-0.1260032,-0.12242569,0.0036014777,0.004726788,-7.795E-4,0.002651359,0.054824527,-0.026737811,-0.13775435,-0.049568765,0.018886648,0.026420508,-0.0042616357,0.10629887,-0.0167597,-0.086771846,-0.14828221,0.06997239,-0.0064981477,0.040779114,0.09930483,0.097587295,0.10229397,0.035785727,-0.00819886,0.07250659,-0.07118007,0.0990502,0.111335285,-0.17699635,-0.09375326,-0.3815714,0.005001421,-0.09407871,-0.3080652,-0.2901364,-0.08038538,-0.11459887,0.10254011,-0.101857126,-0.024318386,0.15734379,-0.0056681023,-0.002929724,0.07377803,-0.12093938,-0.010557838,0.0060804426,-0.017018098,-0.11372307,-0.16800797,0.0042972444,0.034472626,-0.0070352615,-0.13923477,0.10260612,0.034567405,0.08748696,0.2221375,-0.09494222,0.08505845,0.3130327,0.157807,-0.05524643,0.0033888295,0.06745695,0.05055389,-0.059950944,0.058751892,-0.28539476,0.095459685,-0.11419819,-0.020038389,-0.11378373,-0.22957909,-0.16042201,0.015634878,0.09607044,0.06298397,0.0647693,-0.0931307,0.12747896,0.035434093,0.018581383,0.18706562,0.030512651,0.10233475,0.25360632,0.19029056,-0.12906754,-0.11215708,0.060149033,0.03734895,0.11571428,-0.21911444,-0.17031425,-0.020966329,-0.09442691,0.050830048,-0.10784091,-0.038029876,-0.14079489,-0.14500904,0.032173317,-0.17958833,0.08134284,0.031559985,-0.09100599,0.032442912,0.12830667,0.042276777,0.06273317,-0.14262831,0.018214364,-0.1064932,-0.038755324,-0.113688834,-0.012467959,0.048740596,0.24111077,-0.1024702,0.046601098,0.0075435815,-0.023153597,-0.028739246,-0.3388758,-0.22285785,-0.09454216,0.0235426,-0.052127216,-0.121609874,-0.049863007,-0.03506559,-0.1625831,-0.17928651,-0.06547746,-0.1469031,-0.030733665,0.010191151,-0.034209456,0.14806776,0.09749664,0.26467055,0.08602022,-0.0283698,-0.048395667,0.2516815,0.006513423,-0.09203596,-0.16571653,-0.13642806,-0.04981985,0.040412296,-0.025860628,-0.032969788,0.16225761,0.11978881,0.13948335,0.008663713,-0.20852491,-0.054403443,-0.060448285,-0.35305157,-0.33255777,0.028420476,-0.075192556,-0.098724864,-0.21345879,0.046473972,0.07990375,0.009754683,-0.023266114,-0.12135741,-0.13360663,-0.18128002,-0.22602391,-0.18214154,-0.010878772,0.19922204,0.2640916,-0.01633289,0.022562932,-0.19477567,-0.027270075,-0.061848365,-0.08447581,-0.06209191,-0.04103962,-0.14624174,-0.17705058,-0.18018486,0.029204331,-0.17358227,0.05424427,0.22750899,0.06967346,0.17865622,0.103264384,-0.107102774,0.055204883,-0.18962722,0.11330853,-0.050547127,-0.06948316,0.09851694,0.1262331,0.14873786,-0.06694625,-0.117020465,0.04053325,0.09789457,-0.1462443,0.0047589354,-0.21175468,0.14911883,0.052301582,-0.0504087,0.051719777,-0.07806841,0.06381773,0.1674283,0.03445586,0.032941956,-0.008524292,-0.012133853,-0.011230718,-0.12112073,-0.12259362,-0.23722553,0.007323163,-0.024066089,0.07137158,-0.09136747,-0.1456609,-0.24210279,-0.220789,-0.1477158,-1.5297357E-5,0.05015535,0.029474996,0.07555957,0.05687974,0.16325395,-0.07891505,0.10021701,-0.064991705,-0.11576327,-0.116278015,0.16207825,-0.09589912,-0.17216955,-0.036756188,0.1484362,-0.17599781,-0.16934626,-0.10856385,-0.225049,-0.21003577,0.14206697,0.17479959,0.015525846,-0.018502256,0.008387268,0.0194882,-0.017642546,-0.053073335,-0.1579279,-0.14802317,-0.06747895,-0.045326978,-0.19897532,-0.19260092,-0.085650764,-0.015367419,-0.21620096,-0.18644829,-0.047215797,-0.04921007,-0.07324646,-0.031754877,0.03240487,-0.117635615,-0.018776802,0.021715824,0.13244362,-0.027656956,-0.18989412,-0.024220416,-0.04375832,0.009821208,-0.033321217,0.11462129,-0.03039563,0.044313096,-0.016874524,0.043619365,0.007411793,0.10567193,0.2067123,0.016969427,0.08717351,-0.27655974,-0.025057131,-0.030186411,0.05829781,0.0054828175,-0.12371347,-0.09806573,-0.31956,-0.077762514,0.07049778,-0.0052947844,0.08235419,-0.06838214,-0.15882555,-0.13916513,-0.0114845745,-0.035295803,-0.015620128,-0.056335393,-0.23148876,-0.082808614,0.021883374,0.03678675,0.0043434934,-0.08874175,0.13412496,0.021012384,0.10206107,-0.06897424,-0.04194061,-0.11265816,-0.035721052,-0.05770827,-0.12733883,-0.19330102,-0.0034636683,0.1658802,-0.16413249,-0.18184453,0.03930612,0.30092284,0.075902306,-0.07088183,0.18953376,0.043193735,0.07938242,-0.020107983,-0.015436597,-0.101244904,-0.15734668,-0.03961724,-0.038873192,0.15002649,0.07818787,-0.16612522,-0.0763683,0.0785852,-0.06144356,-0.015001921,0.03701744,0.017396607,0.1306363,-0.06207892,-0.020434119,-0.1845098,0.052349932,0.0071546678,0.12629215,0.082392104,0.031146972,-0.21545896,-0.11154515,0.21274076,0.060107894,-0.016443904,0.016041717,-0.053977497,-0.03560254,0.027821664,-0.102760784,-0.15140629,-0.06869554,0.044621807,0.12836303,0.0020907565,-0.0103997355,0.12642197,0.060727052,0.29145864,0.04454537,0.021028168,0.20652029,-0.14714023,-0.26668176,-0.1093452,0.06236597,-0.16024947,-0.26747206,-0.1507945,-0.18965164,0.008195329,-0.11534785,0.02511619,-0.011912508,0.09339044,0.036386523,0.022891028,-0.16785671,0.002695075,-0.13855667,-0.03738731,0.028147846,-0.068645895,-0.12031752,-0.018698031,-0.32521003,-0.1150868,-0.051625114,0.09588933,0.014027245,0.081189096,-0.05135216,-0.029631311,0.03796317,-0.08791565,-0.07206746,-0.07126683,-0.27622685,-0.033602025,-0.06797133,0.17159727,0.011690801,0.012756857,-0.027094228,0.10302042,-0.025072161,-0.0024702842,0.15246369,0.08563835,0.079333976,0.083565556,-0.051489808,-0.034613565,-0.016403157,-0.21558884,-0.0234852,0.028683573,-0.16856597,-0.051202428,0.03485188,-0.093296364,-0.23794183,0.040453725,-0.017415127,0.21382824,0.022439474,-0.014767509,0.021789657,0.03061978,0.08687134,-0.04537451,-0.11668251,-0.16929959,-0.030510217,0.10866734,0.15863067,0.061644822,0.112026155,0.2448338,0.09882241,0.09662323,0.10632553,-0.08849052,-0.032681365,-0.04433448,-0.055046454,-0.18690212,0.017054815,0.105695516,-0.073034704,0.007447647,0.00874102,0.08233779,-0.037247244,-0.03241027,-0.034295853,0.0022669951,-0.12589777,0.10400483,-0.034844443,0.009566175,0.123128794,0.0679233,0.008929722,-0.09747964,0.23768696,-0.103152454,-0.0030494996,-0.043071162,-0.06092703,-0.11254964,0.10015936,-0.022771342,-0.07864055,-0.046986096,0.03248092,-0.07065069,-0.112560086,-0.29868376,0.07944497,-0.034811825,-0.061201777,-0.12931271,0.033243515,-0.053955756,-0.087679826,0.074102335,0.09297978,-6.256946E-4,-0.009447979,0.11117854,-0.040943418,0.0285606,0.045227382,0.039665442,-0.12635848,0.06371003,0.12589449,-0.20490411,-0.122601725,-0.108077675,-0.07703325,-0.104275286,0.09439685,-0.032752007,-0.13560203,-0.060156934,-0.16726448,0.0056827227,0.08296001,-0.11420409,0.08006362,0.03789911,-0.053253092,-0.061603926,0.11879409,0.143,-0.06739406,-0.14483063,-0.017839778,-0.054921035,-0.053361334,0.08724364,0.07845865,-0.013512688,0.09672137,0.10221798,0.10094122,0.0043143285,-0.026454074,0.16083086,-0.048477273,-0.07258741,0.10053321,-0.015706003,-0.0025668961,-0.08032913,0.115391,-0.0527274,-0.15092859,0.042364296,0.015618927,0.11198031,0.04659885,-0.26082182,-0.04416664,0.068369195,0.004310734,-0.006698699,-0.02957374,-0.039859727,-0.0627673,0.0031242997,0.13380279,-0.05416027,0.011669914,-0.05967,-0.14900658,0.091454215,-0.20436013,-0.14715254,0.027845317,0.013831646,-0.23153819,-0.06451941,0.14404199,0.087733425,-0.120825395,0.034817938,-0.09256979,0.068378285,-0.042232454,0.06360987,-0.021946529,0.054396752,0.25840962,-0.070443384,-0.044515103,0.21217193,0.19107686,0.040325504,-0.006066514,0.14763264,-0.08790837,0.1458176,0.04592915,0.2438936,0.007548302,-0.05498238,0.0050588613,-0.011144086,-0.053163566,-0.12838013,-0.10578093,0.102504864,0.05572017,0.06490823,-0.058382627,-0.14229268,-0.18666252,0.13477789,-0.065690026,0.008447591,-0.025123358,-0.11614928,0.035511136,0.059892956,-0.035817813,-0.1322325,-0.21607392,0.25963032,0.114580706,-0.07546295,-0.005640392,0.2160019,0.07972641,0.281495,0.053843237,0.09847419,0.09184026,0.072952725,0.038802076,0.061726533,0.049749605,0.2151906,0.16835691,-0.20710152,-0.2262119,-0.09592565,0.172765,-0.07506132,-0.0737049,-0.16286333,-0.060983606,0.020814499,0.1296559,0.10304482,0.06739784,-0.24454398,0.16683462,-0.15393908,-0.18229504,0.05826798,-0.046716344,-0.04212121,-0.06918506,0.023219958,0.07164249,0.0807921,-0.110902615,0.102916345,0.09287514,0.18319447,-0.014988957,-0.18472256,-0.06802021,-0.107639015,-0.04642168,-0.037872232,0.06958448,-0.06645883,-0.04736196,0.14161211,0.051423233,-0.15642987,-0.13027419,-0.012071058,-0.115218386,0.053999327,0.18006799,-0.21261097,-0.13708292,-0.11039995,0.004839607,0.040102772,0.19950777,0.17886338,-0.14414367,-0.0405136,-0.020628277,0.12921245,-0.034202904,-0.051381603,-0.103890195,-0.072256155,-0.050723575,0.051481772,0.052342996,-0.016862266,-0.05183951,-0.08586311,-0.008710057,-0.23657632,0.022245834,0.032770663,0.0150008965,-0.05557,0.056970015,-0.30718207,-0.15223837,-0.11819804,-0.096272774,0.21226326,0.18206307,0.08488827,0.005313933,-3.3016736E-4,-0.0031602234,-0.03575621,-0.026427828,0.08140508,0.082651414,-0.081189856,-0.008585792,0.37491924,-0.02628428,-0.36283964,-0.006484713,-0.3045068,-0.23042804,-0.093216166,0.21343742,0.034608178,-0.047200106,0.10503535,0.2835852,-0.0012561848,0.114347614,0.0056596263,0.019547153,-0.0054921866,-0.12659554,-0.09574563,0.015265227,-0.18586962,-0.10115887,-0.101189196,-0.031419788,-0.109983094,0.09355526,0.078126445,0.05717002,-0.17226721,-0.024051106,0.130075,-0.104571655,0.2756784,0.012075647,0.03495602,0.029062543,-0.037848756,-0.42688394,-0.1313426,-0.10617099,-0.03990978,-0.08896663,-0.15795016,-0.12791516,-0.08481161,-0.13155352,-0.144232,0.11443598,0.03695478,0.006470114,0.0036544488,0.05910506,-0.07689197,-0.050281055,-0.03877873,0.11246285,-0.019486895,-0.0734387,-0.0045790793,0.102988586,0.02006848,0.09994171,-0.09509081,-0.038835596,0.079799876,-0.08623134,-0.033676174,0.27707314,-0.3247296,-0.23794195,-0.14474337,-0.07396488,-0.030703288,0.25551847,-0.043117978,-0.18064879,-0.04834117,0.12816043,0.054635502,0.16202138,0.08698676,0.07020993,0.06835503,-0.015427054,-0.009332347,-0.0035439446,-0.13687824,-0.09189315,-0.017413244,-0.00613166,0.022966275,-0.16248046,-0.021689039,0.028483182,-0.16224074,0.026009254,0.04458067,0.08349057,0.065159395,0.093834795,-0.0067994185,-0.078532144,-0.047040526,-0.17317395,-0.054144196,-0.15256684,-0.14550337,-0.12604411,-0.032530975,-0.062508084,-0.20890266,-0.16909963,-0.08210093,-0.095832445,-0.045470167,0.08809395,-0.028964657,-0.11082525,-0.17275828,-0.19643861,0.015263049,-0.14714336,0.09821001,-0.14136842,-0.050604127,-0.061687943,0.110525645,0.10851788,-0.0956329,-0.24660075,-0.06270241,0.057066597,-0.116065525,0.07661016,-0.13220924,-0.07743314,0.024414314,0.019614302,0.02332313,-0.045134988,-0.015865786,-0.07139234,-0.12813465,0.08090921,0.100734174,-0.023744427,0.084119596,0.1411478,-0.14808825,0.09827803,0.31215227,0.38658294,-0.04964726,0.033004787,0.1721084,0.10752369,-0.09343704,-0.011012219,-0.0039126673,0.007997797,0.043286566,0.023924468,0.04917965,0.08350174,-0.3316671,-0.04977835,0.005030223,-0.03774497,-0.24165474,-0.11680099,-0.19007932,0.041110855,-0.042141814,-0.05753638,-0.1668706,0.046827037,-0.06219142,0.105017155,-0.13282202,-0.016357688,0.099183016,-0.2300356,-0.19261542,-0.026975658,0.14749816,0.040842608,0.2776968,0.18255702,-0.08144978,0.051727865,0.0014722652,0.09050187,0.2181544,0.10375259,-0.02834409,-0.0035679922,0.0266543,0.12085451,-0.08828144,-0.038987078,-0.097909555,0.051746428,0.17494899,0.08930749,-0.055412486,0.017011356,0.105154864,-0.1480252,0.024723187,-0.03797996,-0.025956774,-0.02376083,0.060621344,-0.2612806,-0.10185213,0.010012279,0.11739695,-0.20398805,-0.05736552,-0.14318657,0.10168642,0.008581017,-0.043245323,0.02667059,-0.15676127,-0.0073994966,0.13469304,-0.12192463,-0.1724216,-0.054798216,-0.11766023,-0.2843568,-0.018619476,0.17871349,0.16970101,-0.08926675,0.028443662,0.013719139,-0.17687783,-0.13036764,0.09421892,0.0046116626,0.19147943,0.19804674,0.12157824,0.17605217,-0.103803195,0.15851733,0.22013488,0.07249794,-0.10204388,-0.028709607,0.18005827,-0.11788017,-0.089503884,0.014859158,-0.045831744,0.058931697,-0.15277116,0.12562506,-0.08800686,0.14908876,0.050999686,0.13847525,0.054140702,-0.0999568,0.07005345,0.031323716,0.15658069,-0.14767142,0.22141083,0.25316477,0.036291488,-0.23945008,-0.12707403,-0.22675748,0.19034722,-0.018005535,0.16577284,0.013215949,0.20821589,-0.021814542,0.18600745,0.04904575,0.127385,0.14004622,0.23690324,0.12359326,-0.05249677,0.014058565,-0.10285819,0.14044353,0.1304023,-0.04362278,0.09897216,-0.026188796,-0.07379908,-0.039896816,-0.06495075,-0.07645272,-0.124432415,-0.053715847,-0.13281353,-0.09931523,-0.09659002,-0.1357829,-0.030653121,-0.029987218,0.08614528,0.14297634,0.086522676,-0.11071955,0.28934893,-0.070104964,-0.18937454,-0.02615022,-0.081136085,-0.069363244,0.1252844,-0.11675896,0.10058667,0.08350711,-0.18305972,0.11679435,-0.14008223,-0.042669524,-0.043177772,0.044398338,-0.20492314,-0.20382838,0.06407638,0.07765042,-0.043108802,-0.13642438,-0.044900242,0.064292945,-0.02639221,-0.10875048,-0.15734708,-0.023555782,-0.015499147,-0.21449901,-0.08941783,-0.12198034,-0.16887432,-0.05861412,0.1081655,-0.12307568,0.019062294,0.12283856,0.068722524,0.10189509,-0.20255128,-0.037190087,-0.32168278,-0.14167176,-0.00751913,0.10984165,0.13922778,0.04860633,0.1800831,0.1108864,0.16023675,0.10849108,0.06847461,-0.060424525,0.12538955,0.11332859,0.014204088,0.058442343,-0.05119164,0.07070608,0.122933395,-0.01509281,0.021203628,-0.1799532,1.6025297E-4,-0.15476166,-0.2629819,-0.17335114,-0.03917613,-0.029386213,0.11859781,-0.09229954,-0.10100291,-0.12036431,-0.02937127,-0.09072464,-0.114139795,0.05144768,-0.20540744,0.0591798,0.12011534,-0.0010812482,-0.010951759,-0.02637455,0.047521655,-0.09862317,-0.17389575,-0.074232504,0.2162298,0.16628104,0.34068364,0.10960013,-0.07172521,-0.029994855,0.07515564,-0.0047469395,0.09207349,0.13987948,0.028197335,0.014279823,-0.054838054,0.057367627,0.030683381,-0.02569547,-0.032751642,0.1666055,-0.05191096,0.00928423,-0.07026013,0.20776968,0.01626963,-0.119915344,-0.056798115,0.043270413,0.22447847,0.12089282,-0.0783524,0.33316875,0.074804775,0.03957504,0.04087933,0.037534896,0.08300162,0.02377703,0.11450977,0.026408207,-0.1282878,0.15185906,0.073761694,0.045523383,-0.056632474,0.06171513,0.010696363,-0.07296406,-9.7236E-4,-0.05156094,0.025406793,-0.26960164,-0.10934069,0.05592592,0.08905585,0.11723039,0.028432347,-0.036068697,0.08678928,0.020914555,0.03428758,-0.0798459,-0.086923316,0.04319218,-0.03914466,0.026484646,-0.07780398,-0.21412817,-0.16173804,-0.23453015,-0.09847877,-0.03219038,0.06233688,-0.06756544,-0.14017874,