-0.5508304,0.5282715,-0.54676807,-0.62596476,0.47170147,0.5466722,0.5804756,-0.5961356,-0.6662452,-0.6632623,-0.60951316,0.43276626,-0.4303017,-0.6919938,0.47401407,-0.41091594,-0.50749135,0.518565,0.6858931,0.6680558,-0.3862096,-0.31173235,0.47739813,-0.5493315,-0.58900833,-0.5949015,0.47057682,0.4811472,-0.37416372,0.45436534,0.48224667,0.6189735,-1.1332126,0.4017929,0.36663318,-0.42535987,0.38666907,-0.5066152,-0.66794056,-0.5016656,0.44294757,-0.65879554,-0.6200734,-0.45553952,0.58173907,-0.60165155,0.3618509,0.629786,0.72549534,-0.58150977,-0.56347513,-0.5679882,-0.66007054,-0.5169909,-0.46085304,0.45172268,-0.5532721,0.47754502,-0.47576445,-0.35218132,-0.4508251,-0.3953588,-0.8605716,0.44080502,-0.6181077,-0.4188446,0.5493692,0.48203024,0.62860733,-0.33975333,-0.5722466,-0.46079406,0.5156224,-0.7478127,0.40088457,-0.49623746,-0.6925281,-0.39234093,-0.43327686,0.64083135,-0.48201165,0.5801961,-1.1037946,0.5671263,-0.7113562,0.44603708,0.46287495,-0.5365637,0.46534973,-1.05189,0.5123947,-0.57331556,0.3445725,-0.63580024,-0.51794446,0.48717454,-0.5403377,0.50809604,0.35346204,0.44710037,0.5720054,-0.68795013,0.6376449,-0.55349237,-0.37668508,-0.5318659,0.5440226,-0.72254527,-0.48321542,-0.52194554,-0.61064065,0.4116,0.37888843,-0.50817037,0.4600222,0.65455407,0.34615275,0.42582783,-1.2034802,0.43138537,0.48405117,-0.56406254,0.63635975,-0.5697421,-0.5129627,-0.62972426,0.5848851,0.5537983,