0.32686335,-0.31128004,0.24492916,-0.36056235,0.24893394,-0.31690428,0.26882604,-0.37909034,0.33816615,0.30563027,0.29249465,-0.28963843,0.28778395,-0.28374493,-0.27936888,-0.33091456,-0.3408372,-0.30872712,-0.31467947,0.2950067,0.31053984,0.28915957,0.27618957,0.29586193,0.28466746,-0.31086335,0.2813315,0.2851053,0.3030981,0.26840597,0.25288078,-0.3132711,-0.33132142,-0.3717929,0.26512498,0.2750712,-0.37104365,0.299838,0.27588475,0.36552584,0.2511994,0.3166835,-0.29320475,-0.2865756,0.28612489,-0.2762034,0.29135516,-0.36208865,-0.3168895,0.28787443,0.34231657,-0.36781168,0.306568,0.30508053,-0.31777638,0.31949982,-0.31601164,-0.33470333,0.28389937,0.311401,-0.3407328,-0.3274211,0.31358126,0.2761235,-0.22223867,0.27438855,0.2832207,0.2663999,0.32653,-0.33378896,0.31509328,0.29554984,0.34096465,0.2691704,0.27273774,-0.32739496,0.29819405,0.28404257,0.2682339,0.34139425,-0.3329867,0.23826459,-0.31795555,0.27281684,0.30083603,-0.3143376,-0.26304722,-0.31782436,-0.3312359,-0.32271752,0.31528896,-0.32851073,-0.30619547,0.32830623,-0.2914469,-0.3143068,0.30207682,0.26901603,-0.3361254,-0.29732588,-0.288535,0.277697,0.25914335,-0.30613106,-0.28676,-0.3556891,0.26025948,-0.32002884,-0.3440267,-0.32889852,-0.30567464,0.3387317,-0.28633285,-0.36636752,-0.28958446,-0.3108224,-0.29337057,-0.27510226,-0.38681418,-0.29460266,0.3228381,0.30039945,-0.31399602,0.29838893,0.2538913,0.2609606,0.26289257,0.33460328,