-0.03569516,0.015375338,5.2720937E-4,0.03289599,0.037360847,0.084385626,0.026243342,-0.016662128,0.060570993,0.07450211,0.04806074,-0.013165288,-0.029052075,0.01125229,-0.0010705802,0.010857901,0.015237977,0.0048688273,0.0488631,0.04529551,0.0036772948,0.04304967,-0.017704668,-6.552377E-4,0.013876962,-0.007128208,-0.037841678,0.015807893,-0.013261003,-0.0065205907,0.06602834,0.025585312,0.08658309,-0.03358573,0.061357506,0.018006789,0.07918994,-0.06046263,-0.0067180563,-0.01791376,0.041526403,0.022770913,0.03771466,0.0044906144,0.0045100753,0.06631582,0.04236084,0.07388496,0.022899764,-0.017107993,0.074217826,0.023780499,0.05894114,0.06742118,-0.010120413,0.021953115,-0.050184716,0.08622305,0.018293193,0.023914937,-0.006034561,-0.022900708,0.041547883,-0.0019733761,0.0664872,0.040323943,-0.0136253005,0.02920032,-0.0020489134,0.06412992,0.013947114,0.041945074,0.07600449,0.04891654,0.06954075,0.017404046,0.03767697,0.06750803,0.026676962,0.010185713,0.04896351,0.040946502,0.07172354,-0.019049,-0.009768327,-0.008351144,-0.020901795,0.0669536,0.06160876,0.008169213,0.064674,0.029621977,0.076211676,0.06451011,0.055408034,0.035062574,-0.017709032,0.07855128,0.06744989,0.041523393,-0.029901456,0.030813707,0.047357865,0.060881015,0.026887603,-0.036625437,0.08056096,-0.01933258,0.05389321,0.026999466,0.03906813,0.043818094,0.018743403,0.0029117344,0.043662034,0.018830953,-0.033583976,0.059361957,0.027223935,0.014029456,0.057994172,0.020566387,0.06956748,0.031556856,0.062607154,0.0046924315,0.055464864,-0.018696908,