-0.33768204,-0.39464453,0.36057362,0.37930337,0.35734472,0.35243,-0.3874798,0.36846,-0.36738208,0.3460399,-0.3485465,0.33688638,-0.36488402,-0.41696274,0.41913742,-0.39685398,-0.42285824,-0.40981394,0.33824506,-0.31579557,0.43155232,-0.3868053,0.3986526,0.37038338,-0.28037143,0.34849173,0.35638162,0.39981997,-0.40347597,0.34014398,-0.32504186,0.36333323,-0.3404686,-0.38012952,0.3557676,-0.32467234,-0.37534913,-0.440018,-0.3350692,0.26161274,0.34711105,-0.33409646,0.34436023,-0.3677291,0.37271044,-0.43332314,0.3546625,-0.4048279,0.39302522,0.331935,0.44690484,-0.34645095,-0.40158346,0.39305875,0.40369055,-0.37842953,-0.32105693,0.45207524,0.29435214,0.30015045,0.43338993,0.30123496,0.43347478,-0.3580157,0.3297651,-0.33040494,0.37890965,0.4133049,0.4089541,-0.4044793,-0.38688847,-0.3213205,-0.38629186,-0.38845828,0.3290676,0.40636042,0.3843379,-0.40417954,0.3121379,-0.41717052,-0.41579348,-0.3475578,-0.341646,-0.3310317,0.3152936,0.33208182,-0.35471645,0.40665594,0.42453298,0.37667823,-0.43909693,-0.43238866,0.49841025,0.42681578,0.33663154,-0.3184606,0.34877875,0.41089576,0.3969508,-0.38424602,0.35492018,0.36615425,0.35836098,0.41062143,0.31114087,0.36581308,0.3700302,-0.3664902,0.4459985,-0.32443804,-0.39585158,0.29129565,-0.489211,-0.43460232,-0.33365697,-0.41727784,-0.3191008,-0.3764464,-0.384891,-0.35908443,0.4512229,-0.36005425,-0.39779192,0.319623,0.40558678,0.2876502,0.33423567,-0.3967075,