-0.37286958,0.30496597,-0.384453,0.3286081,0.3424298,-0.3524899,0.3195283,-0.32490528,0.3157339,0.33178687,0.3158501,-0.40964133,-0.39537525,0.33493322,-0.37444037,-0.35219863,-0.3662669,-0.3299143,0.32404625,0.3306688,-0.36319667,-0.3696021,-0.37755346,-0.33348557,-0.2908784,-0.41117024,-0.41132697,-0.38069582,-0.34561917,-0.38171807,0.30512643,-0.3732176,0.31051898,-0.39989424,0.3337008,-0.34048375,0.34190685,-0.2972082,-0.3693631,-0.42498568,-0.35324484,-0.2956397,0.3442501,-0.36715358,-0.39315796,0.32484016,0.325495,0.3318542,-0.37334007,-0.32231346,0.3245297,0.35237092,0.3245685,0.31414837,-0.3807305,0.34805676,-0.3366686,0.35741818,-0.34000826,0.3480459,-0.4128612,-0.33510405,0.31234387,-0.34627846,0.3564011,0.31913537,-0.39451578,0.34043378,-0.33398515,0.31224325,0.37236354,0.31291008,0.32831594,-0.31961045,0.3178924,0.3379168,-0.34717166,0.32838362,0.327707,0.35532498,0.2980135,0.33357963,0.3465799,-0.3925372,-0.372566,-0.3330721,0.30581743,0.30587482,0.32137287,-0.32407352,0.3515401,-0.39166692,0.31448317,0.28730133,-0.34824175,0.3154248,-0.43389297,0.37335688,0.36153293,0.3451667,-0.4006014,0.33887315,0.33217916,-0.37310594,-0.30908316,-0.3511632,-0.38228288,-0.3456202,0.35770378,-0.3129813,0.3596373,0.35123432,-0.33152664,-0.35418597,0.36301893,0.37343413,-0.32185948,0.36042002,0.34220916,0.31032735,0.32321408,-0.3820424,0.29470494,0.35457754,0.3226896,-0.40208295,0.3468883,-0.34559876,