3.436514164341185,-5.998049538564641,0.03611305792255775,-2.7831003933506158,3.134486471579467,2.0836161214381512,0.2693540029309995,-3.2915486680891517,6.604548699228288,-5.894597805561275,-2.7403057906809893,-2.4925599361809563,2.664179442843166,2.7072175336238202,2.4891131144692906,-0.2714384887459097,-1.192730218567474,-0.06633826517926152,-1.6631174749750615,2.8880611949366815,2.356727488720327,2.7181205976043334,-0.04495548018618227,0.0035266213786346303,-1.7571442597860965,2.1009052001844846,-3.201675403272133,-2.6178628269411965,-3.8889539468548247,-0.359989822610497,2.1758631700447317,3.6415279359688073,2.906633415658863,-1.6895257119194493,0.02627155919875144,-2.44479617406636,-1.738305010802224,2.336914312588073,-0.9337430110727472,-3.9163539329312838,-0.03696742567900313,2.541424772447644,-1.7697181166794302,2.473831406910665,-2.7829619377169665,0.9867371031975997,-5.367132740485897,-2.8420490119311053,4.011493484306077,-3.972933422838279,-2.4953767910515916,-6.069845320178207,-0.059595027758249826,2.763522489409788,-3.4569766789479672,0.09723375622168784,2.31363698666575,-0.5476198966892425,-1.7947351781440017,-1.8799888694123406,-0.1418016282079669,2.375715004235967,-2.911183051976921,2.384353246699097,-1.0790891465669332,2.7177461499583706,-0.005605538845314647,5.827904037821234,-3.011868002737537,-1.8241242974114398,-2.6025311162969698,3.0159062999616055,-0.4180082924189076,2.042098444934435,2.4953820341989608,-3.265615237626289,-2.728935655776833,-2.526089952941221,-2.8771892651429547,0.27445532558045843,-0.5479903959776204,-1.1406161486625164,4.225737142947284,-2.059880074520763,-0.7833535874964928,-1.8708731426198935,0.2239053289268261,0.22898692728280273,2.3151361321279955,-2.9418869912383263,4.630870017465358,-3.685666761211757,2.179365463886597,-0.7722637192436349,-3.070014110001271,-0.7817725914486662,-1.324757846484894,2.0919030656025277,-2.459529732290557,3.6554952328443666,-4.398783356684102,-2.9736055399574037,0.3017068253858875,-2.6959541521165375,0.035974422351075515,-3.2574948281859943,2.8461241806202064,-3.018710121881648,3.013268501789891,-2.244661875361345,2.55865225000026,1.8440788679797293,-2.660980941806032,-3.087864505667198,1.300125596162477,3.247623107209801,-0.06530581585815903,-4.3373496412975525,2.766236375725196,-0.009744671722667525,-3.4460351803732463,1.597097325206083,-3.6573560401330636,2.880374111476425,-0.16738230176172314,-1.2051349071739017,2.7964044938023287,-0.933121542818438,-0.6838235997898428,-4.014332697687715,-0.00876759040607701,4.855875985363653,2.22655429360386,-1.0273915129596742,-2.454127995441468,-2.03279755898804,-0.6811295270630323,1.7471138846547107,2.8319296361555915,0.8254809388162783,2.251272728868052,1.5993876087467138,2.324409978280657,0.24084523834931604,0.16579911960378127,3.0192555404733303,0.9166754508180505,1.433921365825898,0.7805154404422433,-1.5340521234819025,0.01126919237207183,-0.14897563406778389,-2.087818589722595,-1.1826212055897891,2.744946556711033,-1.5887620719940903,1.6235144677530047,-0.8679436710467572,1.8782832512873295,-2.0802352608595513,0.3387573392305749,2.4400231178449494,-0.22014087853735737,2.807009110536908,1.7548978838822733,1.5441832681254821,0.98600531683855,-2.6405521795149416,0.015819154847074312,-0.14255155883555068,3.015128851118636,2.592654822087943,-2.4185768154438487,-1.090256159255455,-4.313056151484528,2.230804498533567,3.54151728472923,-1.8244996559329383,-2.36108456737402,-3.164782149340387,0.011612075896097588,-2.09230163966757,3.1117336515721075,0.10245779649667165,1.7403750337747814,1.9892899627803482,0.2140205688621786,2.597130888984276,0.2305561698931655,1.7047242252827086,0.06539689847752339,1.7773588971954293,-3.483980913758532,1.9452512213868347,-0.03700341208314897,-1.0941531594617817,0.03833122839374839,2.7811368655350375,3.5435071376757477,-4.451504569011159,-1.7321958858395448,1.830912949442166,2.283233561913635,-1.8668216594657214,1.2580506523013002,-2.1404179254723164,2.437302303723608,-0.4904399737657954,0.8000880929835218,-0.4110629297427866,3.884698767448229,-1.7942154169237292,-0.46274358930588017,2.110686429028647,-1.6310105227074077,0.1004440812248229,-1.2461539011157605,-0.49931450253763254,-2.4728611472392434,-1.9596325753780637,1.6174556814581427,1.743729880967675,1.7122726676437094,-3.9175482229089162,-2.7177255991232028,2.0740454952179572,-2.9412888695300214,-3.2893052428332274,-1.9066978379403257,1.768618208270735,-0.13892022458427236,-2.00822432071357,0.030400305113383843,2.7142955679014578,2.289666988209568,2.2326664579267934,-3.974794641618023,2.0917600575079693,1.9546666589282649,2.2667276334068553,-1.1003071836980438,-2.50633723972297,2.669903021371091,-2.5844150936405725,0.0801117823802635,2.5322595052739896,2.60508217010688,-0.06265691872203025,0.2577802877404726,2.0452567621929654,-2.7529528165154264,2.144451515377366,-1.0048688884728236,-0.3136005858199454,-4.212189388757352,-3.048591766208471,1.774459039856432,2.5440025754899427,-0.07439314564921469,-1.4371265753017572,0.28107408871574147,-2.6519846169395533,-1.270788274656708,2.5746159089088496,0.028262227346513354,-1.843502248980797,-4.322241549665836,4.415798361343264,-3.6490191813793573,2.3605169386374234,-3.192887835696882,1.0130588581136823,1.9380760881698609,0.7389738150393157,-1.461449607594071,-2.4092720431040515,-0.10909159483352662,-2.6285692272227967,-0.04075077203656484,-0.03483410804362219,2.005367214218329,2.29971359717072,-0.6997962248365679,3.271585025165822,-3.1057360786543273,-0.4590587531934791,-4.075921656995096,2.6124569831823345,0.729849826719094,-3.2213889714144965,2.7935447230005495,3.6208831140552618,2.695032316202653,-3.8405589172891252,1.413647985801042,3.7987485004180184,-0.015589944323713155,-3.590336686512078,0.14444143372304677,-3.5354637840154655,2.47326935217568,1.0567581529326338,2.278211753501331,-4.237419123806598,-2.3034608071618354,3.0909279641590404,-3.246733706784141,2.326942958669608,-0.014868001543869688,-2.563317410841841,-1.929139246016245,-0.03322224001710677,-0.24943139965733852,-3.913353432289144,3.9389516663911257,-1.3805056441612635,-0.1889621724258821,-2.4221831719824674,2.939714776475641,2.203350154446858,2.614352481785296,2.0539710719608157,0.15984626775961694,-0.8084563426583695,-1.5976478714809246,3.5503306159934875,3.453297714443659,-0.26141684162933354,-2.7941212858999416,0.45266041248494626,-2.971248784745557,-2.311848369610082,1.8992969075374844,-2.1107834237901524,2.66830467040721,-0.22176252659278822,2.6168777449646003,-0.31316544197436263,3.8087457186920526,1.5388058176342003,-2.013186637684609,2.786540420720059,0.3963903478239782,0.0989576037105746,1.676225249839484,0.7961711553113379,-1.2325344970477046,3.184169806115747,-0.06447985657317741,0.08407923784883332,2.1036996438747417,2.620414247701977,-1.2053857905819507,-4.094963412290143,1.814373972593608,-0.9920819986664956,-3.1517905383111042,2.2588558744127476,-0.8595293043519168,2.990416239448391,-0.06831768105831211,2.158470402872012,-1.2744269302999713,2.845346280232643,0.42807862305789873,1.4755356255180552,1.7919797499815684,-1.6910865532790988,-0.6101119603139696,2.566662494548511,2.611224260462647,2.088893046289521,-0.05353238741323103,2.4968058742587185,-0.8674114943059708,0.013583693541008225,1.0186804744400109,-3.043493899156016,-0.6028585550387916,-3.3713611345151238,0.10733657999139197,2.2082523854251463,-3.144131733362677,1.0556440368805697,3.3895236470024015,-4.518622085409186,-0.06191475204977971,-1.4249727509672925,-2.68696068344264,-2.505810730743186,-1.2382257477844905,2.319984284999896,-0.6860902117083908,-3.8872773785301082,-3.908033757405905,0.10564368851528753,2.0320462923198965,-1.8165790482938027,2.572262662047213,-0.28045304076251615,-1.199779434321984,-0.21157932552916026,-1.976050538231287,2.8793945636046665,-1.02958651806203,-2.864319214791422,0.13804619843072197,0.12004502838227184,1.918164429115519,1.5477070690769184,5.12845849029239,-3.137554999772913,-3.4490001303551945,-0.5078238696463964,1.8700025956908302,3.29483529205806,-1.4263979210256288,-4.075399093919409,2.1299231534293277,3.6730615175034393,2.003898548292602,2.2984585831030406,1.5517068930318227,-0.39965819611492615,0.1474859121280592,-0.9438464204046669,-0.1433823979812419,2.528719229914387,2.5580052967668796,0.5830363316803455,-4.8201620212142195,-4.616104118709034,4.437942880061776,0.1571884629612192,-4.708492475132033,2.3694643395344115,0.08348839484301178,-3.410044358923134,-2.7588162395214804,-0.06650629152101835,1.8592443903609377,-4.748185224569236,0.3215707321546367,-2.021624234368942,0.26949171665501,2.6704192443136776,2.5109669026309986,2.249093569014095,2.615392937489998,1.1774137643233318,-0.05101763722568974,0.5313337426546936,2.2956618571208396,2.7522042821055397,-5.557264493032287,-1.5303512373055121,-0.23195336085378562,2.20988514268213,2.8063649100406467,4.297336501059568,-3.4034061797564052,2.007378482389663,-2.6284594384262134,0.5897811669870321,-0.26280100316915067,0.4438217611677492,-2.9238360193322235,-1.733130287266791,-0.5181746532645554,3.296238973614336,2.7693181374515774,-0.09170894968756674,-5.339879119711204,-5.822614051330586,-1.4606495762740832,3.390592869620924,2.1792340340226217,-1.1842226720171989,-4.157486222657518,2.799661064604373,2.693937288774039,2.3483550245112252,-4.772750208132555,-2.04694345770043,2.6076113225259285,-2.7546693146147065,1.770738867333231,-0.7658411348845053,-0.09012786429578926,-4.93819058684888,2.8615928214383493,-2.3506270705411536,-2.993228125539179,-6.462595043061934,1.7017752448950716,2.5918096796633705,-1.532619655666745,-0.10544670283216988,2.1185928096742077,-0.9987979373019626,0.07378685361180597,2.2460041511675333,3.297629081316411,-0.059041439410058835,-0.6525547793355657,2.7975590299259485,3.7667136177531733,2.547336140537277,2.1943318526367293,-2.4595435059780653,-1.492660100738153,-3.868316981861001,-4.939357781998456,1.856630477444978,0.03786225644296164,-1.5971453547164527,-2.59782786012763,-4.997493895075541,2.4947406569165858,2.2258085572337443,-1.5914700680259515,1.9799245835170265,1.7137285927672739,-3.536061561845961,1.613878087489104,-1.6391327623081569,-1.0618615606456998,-0.5351176678001646,-3.38585381117498,-1.5107365004134488,-2.922691203461607,2.2407452270817405,0.7864799896624197,-4.128012599787098,0.17301152679650558,0.15418889835669003,1.3099347221430353,1.8725122223233976,-1.2045620526336664,0.2391934427717175,1.7855241487638909,0.08022874781922698,1.7139900802098311,-4.599395975915839,-1.5219164157970184,2.186787390798662,2.170673905442676,-2.4408793182593436,0.07554190094364328,1.664126635057752,-3.82933124110546,2.7305403536979362,0.026098675369794266,2.580851065971146,-3.720753733516948,-2.151995550445968,1.869039122320249,1.596756202397638,1.8721035090080356,2.6495445686063195,-2.2570122958398455,3.072339171041978,1.9719986703197074,2.8683157480964425,0.03500282427470083,-0.9634581010638461,2.087565360002349,0.09270768528368002,1.4778959874368007,1.4768484306325484,-2.5649023231253825,2.373882551234968,0.037542440423037796,2.0031983758228353,1.781740250754914,2.048889923450392,-3.5998693319942063,2.0918661915782306,-0.06868505556451794,-2.210382895499352,1.872642507128195,1.4397741046281716,3.0843237255277662,1.6869135172595675,1.3283544352270922,1.3854193208976011,1.6517791206384365,3.9412661104104756,-2.055494412537751,1.4597570682541199,-2.6631407525462087,-0.5401948033002452,1.1823886665331216,-0.6396927945158446,-1.6640595282510549,-3.44016162075227,1.01862445242987,1.9446788139193392,-1.9061542486238223,-0.2625696164627253,1.2062140979586173,1.8106079634557315,-2.39959961075056,2.8028929448183595,1.0344371694523569,2.1928794187695777,-0.2967898253241832,-3.4846109400344316,1.7115201441109653,1.6016393168843883,1.7321039307547266,-2.373277475560772,2.0962718570129875,-2.4156103650982206,-0.15929548267207608,3.103405602426517,-0.042405845938767874,2.326519397983097,-4.174745188893726,-1.6282331366186094,1.6433282793348643,1.855740100095831,2.218922333023125,1.8406958895840593,-1.5295910132855282,2.5803862203929193,2.1683540363328553,-0.14024525147157535,-0.00825013116940679,3.421059058265498,-5.027356664527476,0.10283377356903084,-4.0496102366155124,2.120284862652134,3.0455203545726945,-4.035658242356095,-1.3874056705475737,-4.695978951878752,1.699045080354918,-3.6864773063877894,