-0.0033328574197345807,0.01945208421700795,-0.012504027936694176,0.00242393302674106,0.022863785372012144,-0.017203039738511925,-7.339031121209299E-4,-0.001607288996888908,0.023143893227809565,-0.013318341854546646,-0.015101213896287446,0.01992405690226967,-0.017919900480001187,-0.01600118022389649,-0.0037946219109364922,-0.005135295775964009,0.013196512980430817,0.013644202327520496,-0.007063148180962492,-0.006030703875704262,0.015597790411786654,0.007734157495722367,-0.017401412681006253,-0.02009098783490554,-0.020113875719586248,0.016907829249071218,0.019705050273192918,-0.003463073753352249,-0.007656265028184365,0.013909621469263951,0.018177683058870315,9.121035600474116E-4,-0.009573044754362312,-0.005926529374544642,0.022022176116453848,0.025133513887128034,0.05178149631435264,0.0976508355439573,0.02686688884715007,0.038582879037688055,0.10523330023212428,0.12088083441828845,0.19120123286510607,0.18391909967201575,0.3171248178996865,0.10095965377712414,-0.1426724899364915,-0.08742520211299419,0.013499313168886007,0.03374470530821856,0.05591238107457342,0.030445251355335677,0.0021343067179765774,0.00975471844048087,-0.006145957151538519,0.022281181134765345,0.0017252888844310795,-0.007390221400475866,0.001913748803797779,6.960111793606775E-4,-0.004961741558758149,0.019705463934015722,0.008032131988878914,-0.007180923315243767,0.09284680189889727,0.11766113791340331,0.2782136121244815,0.27720496064205846,0.20295306289857595,0.3731677599302927,0.24087785304064807,0.2641547745819093,0.8192286039173154,0.3063738362970113,-0.26555962132525945,-0.8018380387912137,-0.34493366950519044,-0.1588987731736441,-0.15704441835297986,-0.01753126530885563,0.03818108630814108,0.020767413821849132,-0.02156791859564706,0.005039330077888482,-4.38263267832503E-4,0.012956137619146265,-0.017568662044111973,0.002120459679620824,-0.019680219290260866,0.11004950054429052,0.09044358414597084,0.16250273168429155,0.39537550774055186,0.9570343286410115,1.3835606764674688,1.5137764114848489,1.9258186238177046,2.329526564578631,1.4797034742923256,0.52465654044179,1.7522403787108347,0.3887639474374516,-0.34950972756368864,-1.102331903631176,-0.6000756406508245,-0.2820506822106257,-0.5048410608255662,-0.28639375515729065,-0.14630168961908233,-0.020055970578743622,-0.009162672506148037,0.0055543049423297,-0.019016583494691548,-0.005017934441185024,0.0161462918405997,0.012713983301289112,-0.010988063439516332,-1.3740629384689313E-4,0.5027970235527559,0.972041572570654,1.7707646376956192,2.5699524038886725,3.546599462546597,2.5830405375012226,0.8809734883527922,-0.7502067155672014,-0.7512607737596421,-0.29967106749001626,0.5507277119161234,0.17004944288589496,0.8491616772650477,-0.1883838432262487,-0.11316807086272374,-0.9034621052647145,-0.4965297700618269,-1.3236234403046667,-0.6703659273594961,-0.02119417621928703,0.010693789165663567,0.014548505319664291,0.0219611306145044,0.008500236920998685,0.014096611596672104,0.10061014730438371,0.04364516420380275,-0.17036657856194726,0.2942928071239279,0.6168992109967861,0.5636992022554346,1.298803679368649,1.877535728226017,0.4284444114276886,-1.6561977937167578,-1.7028922661758614,-1.7968349554139906,-1.0918319405478785,-0.19553736525292262,0.6277220523587036,0.835563814623162,0.3283767802372204,0.21759696589319488,-0.7365071094908415,-0.8169551918120304,-1.540222544651237,-1.1425200396217714,-0.0565172008452989,0.0996872775219315,0.004360453509059625,0.00954128266926739,0.001686962229705898,0.04100931476337294,0.10606627211563054,0.2541678980572695,0.528119255324603,1.2231919297295966,1.6093788906791984,1.0536120469605939,1.2713828939938054,1.9477911248138637,0.7147989165423126,0.7432825442806784,1.9092054853589902,2.182214034531908,1.3550204057223183,-0.29247644770521986,-1.4135459938740802,-0.15254325651590211,-0.11963668019764408,-0.723057433034399,3.032340561394723E-4,0.08382457113402254,-0.811127298725286,-0.9934601591368981,0.012649031015454911,0.18112156817179367,0.02410954492096689,0.023528788703597987,-7.770158350902726E-4,0.032290375674851844,0.07822440348631116,1.124087274018474,0.9667066349088823,1.608760330456968,0.9969707940091248,0.943564257427133,1.667852606115004,3.0466539363852765,2.855413183870673,3.140708955305599,4.557138871112102,4.5114154035572405,2.778247026261982,-0.9207850983308413,-1.5550035720418636,-1.7719062453045211,-1.7053460435048344,-1.4891618045358834,-1.8250285010377065,1.4379695534994177,-0.04464151410586846,-0.9908537449380496,-0.40040893888932844,0.11056731187859797,0.01563225041478383,-0.0037754330554428945,-0.0014589719067565462,0.0030010354124845565,0.4744484459889687,1.488078289967469,0.1357416475718773,-0.4732194607642279,0.3531107331404821,1.312731271565289,2.5558908690307542,3.3993334577056755,4.392200166551604,4.69046849113102,3.904934387790932,2.6589488543556503,0.8464485337164768,-0.834124731036324,-0.19468188506314937,0.31313911133604777,0.5797708746350759,-0.6453501965755479,-0.4829419598936685,2.1658297294299382,-0.1398385742072586,-2.0485624880243423,-0.9447276780041658,-0.0458273450064194,0.01821062547773552,0.0019635953870484383,-8.954827755064227E-4,-0.04836956391772266,0.7084977500717872,0.8639244307324736,-0.8225610722543741,-1.5457069284554052,-0.436152915619957,1.0497857483040576,0.7603256435612371,1.2965813006296036,2.51247836261404,0.41717085653339797,-2.0357330166991576,-2.7024359494090886,-2.1653733346837636,-2.2019610867649844,-0.38890143625123735,-0.09600622113951832,-0.45827091683401733,-0.11646391235017979,1.3855545420316084,2.405536201910313,0.31796206634873464,-1.7815884274016855,-0.4499726912938862,0.018754692852013012,0.033237806039559906,-0.015977848014219673,-0.0037689878623010436,-0.12988409999940811,0.3487456187647312,-0.6032528250198066,-1.90186478932961,-2.8531630907998626,-3.1847400329650717,-2.2683152939352356,-4.717502672402432,-5.096839527312382,-6.021677960456127,-8.38628463139113,-10.087479244452277,-7.484479214114362,-5.216890532176225,-0.6823714117345383,-0.5919971436674233,-0.2866340989086678,-0.6622496914853993,0.36261365025256354,0.1736404086614114,0.8172664468294374,-0.17059824902620596,-1.055398735190598,-0.07170903141222669,0.04945147727236769,0.030735147172251717,-0.0010735126013158409,-0.0038717364294093572,-0.1739376651026619,-0.014826401419171976,-1.6599730468502112,-4.169699743321362,-5.272205551079432,-6.3793461487779295,-6.9785487980397845,-9.089356663021677,-12.482523720688208,-10.241480225008774,-9.358318610349695,-7.010063671769799,-4.364182956721545,-2.3508515504553955,0.49725731974395,0.3369898175034896,-0.550682549303495,-0.48386778376046224,-0.002480901866047972,-0.7361530221964372,0.35693283828639705,-0.4010897714643232,-0.3950060460516332,0.33328281917073005,-0.005483460095781725,0.015622426968894453,-0.019098980404301285,-0.014622875566313316,-0.11691925564067275,-1.036250397097065,-2.526269398114065,-5.13010159505232,-6.897452905133222,-7.290152050780647,-7.528037432142792,-7.48210032954072,-5.858360146753555,-4.157239351542635,-1.3744029269671456,0.836634347407282,1.9503299933923444,1.330456714885431,1.1300329208473177,-1.6311783482063507,-1.823976684320315,-0.34523740621830024,-0.418714281578804,-1.503795409132332,-1.967397912495785,-1.6247905079531937,-0.41114405385496394,0.5356323778417514,0.35063286967013935,0.03475852595778567,0.02467067965734077,0.025537327780228925,0.012028243619032514,-1.0829687131459171,-3.2794044398969286,-5.0313944076429635,-4.650985340050331,-4.274083042752458,-2.9071637217360835,-1.8553572459557077,-0.37746837254502674,2.7008269696835394,4.6295510946371365,5.210950271004369,3.4903792365606443,-0.6375650696977453,0.9813555367980512,-1.8507799630634072,-0.7228163253899992,0.3393104490419298,0.6074670506118087,-1.7400779690747104,-2.489055347152715,-2.256404602167407,-0.8561298460404325,0.7472873578191829,0.5017881407170575,-0.006866560404543997,-0.015710966865566334,-0.014204285396919042,0.012016343574923134,-0.7203204203781499,-1.9589997379494757,-2.923696192337606,-0.45733956748171023,2.083039540024138,1.9305228851186993,3.429213398790827,3.2866007941655258,4.370349605092039,4.329203158405813,6.793989268236723,3.8620535927191657,0.5821734627278209,1.0178923668993503,-0.12835038367626728,-1.1997538693234162,-1.275750864143761,-0.5897800238032554,-1.0908829366007828,-1.7258229760632215,-1.7090263219362085,-0.7879718375485089,0.31980506905004,0.3310208529031102,-0.005983913040342904,0.019302369231133605,-0.008850333040559115,0.022687167621747426,-0.031259907824610016,0.011385090114888915,1.0236267385022892,2.7991230115254635,2.379319414687846,2.834608088254931,1.931992607987644,1.4630922365225403,2.5325170229344525,1.6293810180023798,4.030635610408558,3.621968015358789,2.9605032000950797,1.2508262014316995,-0.2553198502043848,0.48144920657166407,-1.176445022020175,-2.575212674888389,-1.720374508231758,-1.2684002272152939,-0.3651565464979982,0.46013649317296534,1.1453912484578055,0.5969615757257896,0.12330475238256132,0.017077410501823827,0.012534799891157695,0.19947695336539778,1.048336365139787,2.2757300881290248,2.574475311904794,2.347856024832153,1.9287567760745072,0.3327207919451295,0.2807552343719979,1.1044537484039325,-0.35426971107867117,0.9540749006312224,2.9869472748529273,3.7027664201999597,0.580240897620126,1.4638948041385713,0.45940132106081427,-0.07662567338050628,0.8036119999678619,-1.4214488125696403,-0.47034387488836715,0.8110883905182925,1.688035090317776,2.3477183711215774,2.611942296319461,1.3811604448551764,0.34102098876706616,0.012161692235374333,0.019112665405446705,0.3344457928655342,1.4479209987820405,3.1032847256831544,2.234171321306705,1.980641729553086,0.9023259739650393,0.8891626640852242,0.047863565532082056,-0.6644306228924152,-0.9657185675744775,0.8746644205451523,2.1985863445708422,2.4433474111944973,1.3603896118767018,0.7609069200620149,-1.091501270319079,-1.297371265483799,-0.1948382049946389,-1.3160083263816218,-0.5755879489423151,1.3115821450339686,1.5470539763002544,1.3051777434759724,1.5093137434205612,0.7468125447752333,0.20550763463136135,-0.009087066293393996,0.008754376402868969,0.24397103130919823,1.6961829897400313,2.882126528548351,2.307806518542821,1.4237773909643214,0.7729124145360424,0.40145830164077545,-0.38676949339084116,-1.285111718956795,-1.8022323752655833,-0.6958120646839299,1.2256260120773852,1.2548740351982042,0.010970646919383584,1.0604134193382777,-0.23397541201472266,0.4875368302008805,0.6997465953481644,-0.45538070508351186,-0.4813739024171327,1.2253910861073256,0.5817023713905319,1.3339541048422585,1.354078781608269,0.3770269469509137,0.1146162357496858,0.005921010368029559,0.02384303661137328,0.03772354363623471,0.8717979492711406,2.4258213479636557,2.0733717575735353,1.4300185040381155,0.9392579912391185,0.5610323069470896,-0.0354620465300299,-1.1545842317584625,-1.445848428422539,-1.3353718279451672,-0.19520882912508192,-1.3899662278615466,0.669107327853034,1.314895791107304,0.08547675864700158,0.6566874839427642,0.6700111385339865,0.3109594706277741,1.1005375069498002,1.783738552381011,1.136754143584446,1.4841949423901055,1.5693107197497287,0.4680603361991486,0.007157236035849918,-0.005570549027525478,-0.014725490723184876,0.11475003272802803,1.2784971399605694,3.4248118086256674,1.5748217279497638,1.985948901281573,1.5461189579783394,0.9221979631092811,-0.5237849558833196,-1.6011778509228984,-0.6731438686071338,-1.4381561123960482,-1.5917690992383147,-0.2931023047377311,0.907225700130325,0.24291562788303242,-1.2124641226194766,1.0194870073098294,0.9828818717203909,0.7282678679446605,0.16474517547266,0.9114192006634839,0.9263687313952664,0.9628455171163691,0.9610390065680106,0.17885743616195954,0.0025660649585334235,-0.010459142528652855,-0.015444714945333103,0.24120965253024645,1.4503124624533137,1.5162434654266863,0.559507381416337,0.05403035845567227,0.661637785200699,0.5994810800998369,-1.549255641713576,-1.5092679760102796,-0.27482890793618064,-0.847706547480077,-0.932486034498861,0.4427444178354477,-0.630046938003318,0.15709573568989962,-0.8710027654093411,-0.05885839627624192,-0.1954264261122372,-0.4973498717390197,-0.872394920220635,0.5963752869712778,1.1963979479019604,0.6813669735280259,0.8723110302229917,0.09483844367572446,0.0017697975321600316,-0.013344406247622322,0.01999170040253904,0.17979924995687305,0.6648933240209999,0.4256290457519535,1.4964410999429028,0.7216763139081858,0.6280754668276449,0.7380177827605855,-0.8434868406298752,-0.5752874265306432,0.5001598296508979,-0.3886024001540499,-0.3483320811116241,-0.5571836461777493,-1.5350728923802424,-0.49934458805715703,0.7669981472894816,-0.3698821009526139,-1.451738077800809,-0.5566002581161117,-0.8129851910792688,0.10273627179207047,0.36707350128854527,0.38736066490119553,0.3397824094269354,-0.032668116411270494,0.003722288501833142,-0.018496771243103612,-7.179453875570387E-4,0.12082444019106002,0.2011456523620851,0.1354129661762233,0.8974117758895972,0.6438752887199769,0.9526501453585524,0.820217473782429,-0.13503994362591346,-2.0502620596735928,-1.0259774751792712,-0.9084580309182928,-0.2211284198873241,-1.094704788667257,-0.3242141411688144,-1.0463638430405175,-1.0176833312462616,-0.888867507629329,-1.6799052241196852,-1.7063470731621058,-0.2559213177209921,0.12091139088491126,0.22783565897365768,0.16929835790235118,0.20968871900793648,0.003800082887807475,0.02495838724884221,-0.006552931429115709,0.00845571922002567,0.034608918975232446,0.251591095825247,0.4214290367569757,0.10850317100037475,0.2168887584804382,0.35079351849868506,0.6767906017586491,0.8048444232155387,0.1261303690162755,1.1871540507644387,0.22474237957313364,-1.263780198863283,-0.7368004609339266,-0.92758549689404,-0.7789229177927066,0.009731469240943457,-0.4475303947400344,-1.5863793820610572,-1.1353495515222247,-0.43402990627030746,0.2506404418409531,0.15144673109192738,0.15943062693871393,0.07680662005763525,0.044170303999933005,-0.0015133123271215132,0.023816339142799813,0.00680350952396337,0.002154449943431264,-0.041611469724943444,0.007560747785526845,-0.04088993128451397,-0.03360600896015802,-0.49355786670701307,-0.03964297538008952,0.6344292000651869,1.3613918584682687,1.0043620035782082,0.4323560260788499,-0.5422677172446226,-1.3835124211393013,-0.8310711546845965,-0.7315993353447081,-0.13438938792205884,-0.49272145403666395,-0.5159493467666149,-0.6266317663934312,-0.35988778498509727,-0.1498396878502161,-0.14415972155646187,-0.049390434801944536,0.015748289526110314,0.05188096902202848,0.021726663376191085,0.0019927113682452003,-0.016666329655696924,8.303695812756179E-4,-0.01877825294167019,-0.011935834743194302,-0.25645159529209643,-0.2528727947082633,0.04158476404020558,-0.06982098825467113,0.35053427010714433,0.38488085855749676,-0.0026845160265984006,-0.40418013517658646,-1.0609385694247968,-0.9358444043888616,-0.5785871897354511,-0.32871223453704645,0.06189669210624721,-0.23441170184770363,-0.32811487926045857,-0.2762297500496853,-0.1337006441343491,0.009082985519880002,0.012684861723028604,0.010753267188608478,0.021844656639414088,-0.01682600839592572,0.014806614797090775,0.006264077621263888,0.017525727845133343,0.02348766654608109,-0.022322916667139033,0.012087618875971057,-0.024536500053006737,-0.0174707887083583,3.0128206008281583E-4,-0.020958843457722493,-0.004687808853765707,0.033120302691485345,-0.021702657729526467,-0.011672112247969992,0.004971821454111922,-0.015971369012960396,0.0031438341766769117,0.0015637984726209737,-0.04029635232867188,-0.07109412750679651,-0.032744329435068616,-0.014009032254682205,-0.02723868885926132,-0.057721932318210975,0.01822080756745604,-0.0106917091306264,0.017388655637306086,-0.01950940648192965,0.024684487965800563,0.00989836433020758,-0.011330452599376421,-0.015457661589219797,-0.023702621784229733,0.012865957916998275,-0.019389287146852875,0.006670853535855941,0.024240059763700823,0.014714832932222505,2.598158027534408E-4,0.016693900004942273,0.011954103835820412,-0.004551789612085575,0.02415416264523033,0.0031330041750081937,-0.024423042764244816,-0.0042559337079939715,0.01912539700351985,0.01778669876269334,-0.02085467129830442,-0.006350588751618445,0.011930140569855797,-0.02114976490687665,-0.006977203520967722,0.0021808032130681285,-0.0027185117183757134,-0.019414260272021727,0.023274534951460035,-1.3256483934293806E-4,0.02029658220172762,-0.019694752733316962,-0.013704695969522814,0.012037403176599378,0.01285619197682157,-0.003879611694741862,-0.02394819219462983,-0.03526836515343615,-0.02036520483944722,0.0033032468248887694,-0.047587942385207145,-0.03348790568463086,-0.034913017351978326,-0.025712940255405596,0.00944485110244839,-0.0063159238395580145,-0.0058174462301692235,-0.01722540863867108,0.0023042125338113,-0.014117957548468252,-0.00885564135185145,-0.021750110707755146,-0.019835216167517863,0.017504824852855583,0.007612348283288826,0.004141371578931907,0.016865153614082026,0.025196021423392584,-0.009776375309143655,-0.021659633347870334,0.008599808298896993,0.01064342822960025,0.02250543208532889,0.009078554602237873,-0.046916632745493965,-0.09759222599080564,-0.174943659270483,-0.20077164460247043,-0.13501483641626166,-0.11994890428129211,-0.26346765593191723,-0.2947220301431929,-0.11721180038723635,-0.16478293946047085,-0.2269617289883406,-0.18667826927286693,-0.077525778977296,0.002913900075820376,-0.039531296681827414,-0.03803725868541329,-0.01879190989720477,0.013802621745463248,9.064404294638928E-4,0.02410532950699355,0.007028758238623822,0.01648932703808437,-0.019180317010792633,-0.010034403997652975,0.019915851137837726,-0.006395348398456584,0.019574857747823245,-0.004582480538886588,0.0629395929744369,0.03939962319463318,-0.10370292779094248,0.010019219954241971,0.2160615956418612,0.708615481324363,0.7620357489250761,0.7009738532040376,0.44717651988470014,0.05427101278251412,-0.3374119632444546,-0.08428837778514157,-0.3104406917026377,-0.0755838638068666,-0.18903314710078534,-0.15022402938291649,-0.09201099578833168,-0.052998525131882496,0.0028283300887638214,-0.05477278527182122,-0.0216010075804868,0.008933137117498805,-0.003057152609027479,-0.015369245893988954,-2.8892845770477787E-4,0.016521165093853974,0.1385274735728201,0.22589560212484328,0.34123764707185605,0.4208961237283491,0.4231783461938312,0.5461377108580873,0.3394636580598005,0.6953969502677666,1.1475174223171216,1.0370325897668813,0.7168785105010506,0.34978671825464513,0.6375816453826956,0.8631044664153527,0.17685188612182023,0.14126191857055376,-0.04539022976867735,-0.284800663028871,-0.3771009266121339,-0.0563499886126961,-0.018374867066497297,0.07440328555162502,0.020245761280196773,0.001968096478321743,0.009651318182235632,0.015998190999419484,0.06925068010385166,0.15131758861123165,0.6516928521462859,0.7097734023912029,0.5036762108770033,0.10904420387648987,0.21362166880685748,-0.02733813300210054,0.1675239785515462,0.30386546995740055,0.6414246210003649,0.004455034417148151,0.27188443529026735,0.6489335345883477,0.12754412000733442,-0.11212046956594585,0.09341947971345971,0.1177518034784386,-0.12170738647271621,-0.3750908231091754,-0.16208367515040947,-0.004342356659581272,0.07369521276602287,0.09351046580072876,-0.008741201926226636,-0.015232095103462762,-0.022753323089160983,0.024979445903056945,0.12740775953903524,0.2557048474533869,0.49242167843518525,0.6317778147783139,0.21180953105224004,-0.1045780994330767,0.07229165956521118,-0.4502402582466495,-0.7051012679812143,-0.8938146070266134,-1.4111271205914073,-1.689235485350965,-0.8579403497955139,-0.009254045557588516,0.4021748369495907,-0.07956141464420798,-0.5122434255458941,-0.4883175226230946,-0.32675864310759123,-0.9037915327213383,-0.5519559499200766,0.2290232715699643,0.2520522773396972,0.16817065125119918,-0.0023615403568500344,-0.018854812190312212,0.024243105127459648,0.07943137980403661,0.32322607768406036,0.5226179978605052,0.1582530463379274,0.04632487301681477,-0.24939888191352494,-0.3806116098340655,-0.13999057319495256,-1.1806376957962663,-1.8460002225548138,-0.9381928434383454,-1.0798803387510698,-1.3674848488967042,-1.1787728247889313,-0.17905875461430565,-0.16335881427520801,-0.8027577593868978,-0.5185744354589137,-0.1051987927516335,-0.4798554008487592,-0.15640637292787576,-0.16711360526363983,0.2746837322694146,0.3027400978688257,0.2527828538836604,0.0364804273439717,-0.04320686626744577,0.029677901171709133,0.12521177717476303,0.3197902880510348,0.5951691020173964,0.12032398843004086,0.20466566002423559,0.22655699738479687,-0.21239163446266635,-0.14081630005630197,-0.5310936524049233,-0.8810314344879003,-0.21835381857327207,0.24658147164640304,-0.30424102902776556,-0.20337020158599262,-0.48656623036632607,-0.4448591265096129,-6.163212537199881E-4,0.35958024009505957,-0.23353529687801858,-0.2780483550236979,0.06850562263689683,0.07349310775712893,0.4995742827258917,0.43579931822784973,0.21431225273306018,0.013707852182954285,-0.01896725599055988,0.05096190736875011,0.0710135475009567,0.39781978957804925,0.7965977520605291,0.5852935168392163,0.7763502761001845,0.19714293851735426,0.1089884714232546,0.0812274598890221,0.23523194204772016,0.37406313827637216,0.6132294716591136,0.7743889057774351,0.3005913828637845,-0.02514066259381344,0.16534364907497529,0.832225430584165,0.44095703019462845,0.3944994818199467,0.5105066945098367,0.2553418842966025,0.46680109827736066,0.11554894262427745,0.610800699031506,0.5232035269973452,0.22270624748262297,0.0024669259674282417,0.01889564866708104,0.025532637118488282,0.17249707984960008,0.4394772518276035,0.868696103521852,0.6127874223224017,0.6679796028075955,0.14885462566324056,0.23128317375323848,1.1774512177215255,1.1674126430515388,1.3497253826336038,0.6892146195041191,0.44126619156826274,0.5209625024315708,-0.17306162668788744,0.5260214293871702,1.2495659120435834,1.0838023906376641,1.1130363277279143,0.6831295790228034,0.152016901476231,0.05524951316497609,-0.05971997180477142,0.19076090234507928,0.5936154911619858,0.24994640809173074,0.05246035989133131,0.024015367430162447,0.06326695414566177,0.23749391254085458,0.44394965606878406,0.618593186292878,0.3828556708911393,0.16503768203254116,-0.047300981757182,0.936941728251518,1.3779780824489454,1.8341368171812145,1.5040888681996158,0.44527145393750817,0.2614699956960644,0.5114967171238444,0.5930763068677072,0.1529899126560842,1.4084739395618346,1.3083646569691332,0.6284008217872531,0.19708454149643248,-0.28855363564976017,-0.39505121436070273,-0.3870131540840806,-0.10206424661406188,0.4241004735607074,0.1478073814371106,0.01634864142651391,0.005400202992130695,0.035600283295720715,0.1694912964557162,0.34183743219283125,0.3786247414344901,0.3476236723217367,-0.42744511233207316,-0.012349576140175473,0.45344945428287275,0.9926638359880676,1.152783712546923,0.6059422191300534,0.013607696600443487,-0.4976942472568212,0.9334784457765163,1.3755262403495718,0.9165493379641767,0.9340912611477941,0.3948152939633598,-0.5593912092127492,-0.6764458722614072,-1.221694632436147,-1.0385552218132033,-0.945851045584269,-0.54163184556377,0.11413145349446327,0.08537175279102431,0.025902757763426414,0.02517161820609536,0.007179522527751576,0.07583282771621629,0.018878656333360156,-0.02724757658995468,-0.33686707343973,-0.6589815590746273,-0.1948183288402733,0.32116268799096287,-0.26683491796633074,-0.6245156021750511,0.2010281564466591,0.25471825509098883,0.9126137168702592,1.820183182373381,1.9642931525357508,1.9596480278846289,0.44617444357296704,-0.4754023083781487,-1.2676603100984187,-1.0594831287583988,-1.256500523189987,-1.112585604838733,-1.038489443938063,-0.3330380578180362,0.18812928481705102,0.034101342828727746,-0.017594609822200114,0.011184145671893214,0.02286524987190123,0.07130987889838873,-0.09605223738566807,-0.43286505364969685,-0.951188100621458,-1.167593163214377,-1.12177193877409,-1.0846707654824348,-1.4592950409388175,-0.8918346899429639,-0.13679095220849702,-0.00822502287928034,1.1436507819041528,1.587096702459201,1.5874179924165501,1.4016189233636045,1.0534969157912888,-0.34755694343019267,-1.1961075641224397,-1.3229876009824968,-0.5468439601577013,-0.39545641811995064,-0.3609403710043462,0.0012061772652800214,0.18540979329606522,0.00256509694080039,0.01311002172523745,4.4199730875440644E-4,0.01713019326865259,-0.03354664853312411,-0.21821452844883665,-0.6440421643982166,-1.4571874339471234,-1.3930292410538438,-1.5952508144732644,-1.7924317433931816,-1.716269786059847,-0.6261032147648078,-0.40204085745273027,0.09134455768095921,0.7390578172182349,0.4909378638600078,0.7537799020142203,0.5322115021344217,0.48562504682633656,-0.031914034284814284,-0.464718464073744,-0.31357897572985716,0.0059319806157243984,0.3604894288797021,0.10028445201808173,0.07753319450626499,-0.016853280093199422,-0.04710637660989976,0.009497003986056443,-0.005593101655964644,0.021565596548902673,0.02031546079137851,-0.16383128812690576,-0.613807864378923,-1.170085637507277,-1.3564294346895476,-1.4142241090223713,-1.3833246104843977,-1.4210435721810635,-1.2090508872009524,-1.5406444566064783,-1.2215024955847078,-0.7699143015897492,-0.45474303518382103,-0.34059097340757183,-0.5998624054550479,-0.591797581666159,-0.28312177483235446,0.10872456694919502,-0.4878256572971218,0.3700178071225664,0.23859236051594984,0.32496829632534147,0.1537302350723978,-0.1499234564530252,-0.11490433990979437,-0.013861394008045608,2.0551433832098322E-4,0.016704627106561742,-0.003024488384652914,0.05361148413728747,-0.28918258625568355,-0.670576828446885,-0.6085572468546169,-0.9262591895793643,-0.8238020570343257,-1.3618156337495475,-1.5766510870242645,-1.866849206289412,-1.760609629270183,-0.8989639494062126,-0.7553228002326333,-0.8813667326617083,-1.0544231480972694,-0.4665900888396561,0.11655898792765695,0.08964082792295691,-0.022765853819152165,-0.08454876316861396,-4.719596441394925E-4,0.1371399666949241,-0.021968195653069126,-0.12950082015210954,-0.07888262943053483,0.0121390245368701,0.01638350957598476,0.0194722463501435,0.056061413949112085,0.36179007346672276,0.2428572789583413,0.006178882064122029,0.225157834413952,-0.2680070671669081,-0.28210877228320425,-1.0625890720035838,-1.4822815778747982,-1.212527997996203,-1.3511795799279578,-0.3991130629250984,-0.3055422719525137,-0.13630086044483833,-0.24053654838083668,0.20988787617677052,0.21188014474184105,0.46078338545802267,0.7102946802327237,0.1200243000135156,-0.20742692255700398,-0.5417067420246258,-0.2444224595865013,-0.12125990202159469,0.008237468240797456,-0.0013541717532684272,-0.006772480124185388,-0.010260250290566174,-0.043424591490197305,0.4344385658053742,0.5657253889179955,-0.031351493196314965,0.30147976545927324,0.717865132406951,0.38448853829136337,0.24232367438250757,0.021178358312179124,-0.33771340865973765,-0.35282576214316613,-0.060428993652693865,0.1205412313264686,0.6378485135548498,-0.04314223532983551,0.421533537186325,0.04822550475519592,0.2710732662266136,0.2588352257339022,-0.4415779773449432,-0.5952690674469314,-0.6654084751557118,-0.3890966733109117,-0.0814992173786363,0.0075830424672668675,0.004845525302198348,0.01633013937799192,0.01924090490867004,-0.10641940647868861,0.2552211984949464,0.32038884982164323,-0.3318068567955464,0.4050273139076966,1.0993538241917566,0.8340145617887026,0.5798779609880785,0.5926956441136698,0.8400444420509053,0.21830064782440553,0.16018472765016967,0.41427645904916316,-0.008481430322438458,-0.015076984813734448,0.5428317912697347,0.018721032132983137,-0.17596629655516952,-0.476763751251792,-0.9978690382748348,-0.682115361931541,-0.5247222552187039,-0.45734773335403117,-0.10223630963165524,-0.007330924599992788,0.0027080874725973047,-0.01582745855301414,0.02411546975743868,-0.07702738800035833,0.03298899340555353,-0.06891892881468087,-0.47053902981573725,0.24064396185395262,0.5263428340250261,0.7253885953306674,0.48684477091481404,0.1439200490978059,0.18384783532093205,0.49715159470241876,0.32064456789463464,0.15470918300959918,0.009036585221153534,0.29905436575431227,-0.03847517147393538,-0.4148896697355524,-0.6577176007743947,-0.881497179564099,-1.1590349794658956,-0.9135503297640943,-0.7115409624659378,-0.33765391190766997,-0.10759128617840279,-0.008248024860685637,-0.01499333536207854,0.02128334208319366,0.022180001008576297,-0.051307841767257514,-0.06620100969417185,-0.15616804390587774,-0.4101097016637714,-0.25320001081144927,-0.21696230318817522,-0.022466134474522077,0.0022601563344458414,0.15416838138716327,-0.11802350918736836,-0.18390386690382735,-0.11029906168868922,0.23114911567481233,0.44670478062010877,0.18472474364987898,0.2508713736147598,-0.22901805893265684,-1.0393424048782365,-1.1557811649560468,-1.108931135493879,-0.7301226338657236,-0.6062883151877225,-0.25285867718922617,-0.1010592788245519,0.003950513340527886,0.004018828469247974,0.008701640174916118,-0.01844099183089172,-0.021000882170112905,0.06627494101572085,0.04161286613152793,-0.003136715138584444,-0.5730727216672122,-0.48707427139559434,-0.9491127075694652,-0.6498546982167593,-0.1732584861013557,-0.20881556060126058,-0.0869165654172535,0.4275718901346396,0.29944579966353446,0.6068220664457631,0.4185935626663338,0.47160257171099484,-0.4757140152334953,-1.1602579040355816,-1.3857302784751744,-1.0957728039606631,-0.7340432170499095,-0.39006369228524657,-0.15066948861757615,-0.03445507841435085,-0.004871459501355514,0.017232363741436683,-0.02147769705884917,-0.017371938179436643,0.010321080071367702,0.04473967618599503,0.19797129891867346,0.349969979874227,-2.118193528043494E-4,0.03704210057091951,-0.12566261318370428,-0.33456455476262525,-0.14673272684837174,-0.022722704604496165,-0.683170847421889,0.16758185461394923,-0.10360805716280466,0.6083982555963668,0.5624557624342961,0.33337933618976856,-0.6443831340615612,-1.121228048687702,-1.0853160324183162,-0.8770251711311478,-0.42944443994318093,-0.16039617602264464,-0.07741902915121132,0.012024596660108224,-0.002611497836759062,0.009814000332442247,0.01334850420643446,0.022884270558692077,-0.008708272365348992,-0.007275825061092317,0.13438842146464364,0.1837320494635888,0.2531505023475374,0.44035709215004043,0.6509328484914338,0.4570658833547658,0.4044963119727889,0.6193255356169926,0.816972971267827,0.7445177456147339,0.9324906666042163,0.9199407761497034,1.3349876897532715,1.0316234037042833,0.3758590722336061,0.17649052623374212,-0.17097398419635362,-0.2703448278998338,-0.24052103628572982,-0.1035484547597438,-0.03422220511626398,0.013326055329401171,0.0037473867010099403,0.0027036731071650084,-0.0172662505789263,-0.0010112294680875442,-0.0034316036620392148,0.0187353666606056,-0.02261963494942373,-0.06603092950480119,0.06367309779604323,0.38956202029951675,0.5922988593109925,0.8963105952183572,0.9506182086783456,0.9643907755395502,0.9395406611887717,1.317108356868021,1.3230369451016248,1.2787847388536526,1.147729691585489,1.0527776825303405,0.7239158129495673,0.41568655594341003,0.09982717886083164,0.035987146198103094,0.04295786535197836,0.029350446088783146,-0.0031119499547631593,-0.01347108336602285,0.01694685010848777,-0.011985993460460864,-0.013425731632888623,-0.007844151033490947,0.01580992063615048,0.022020437759235907,0.024418561255393236,-0.008180225004854779,0.0016561055852960728,0.04715443926566098,0.025616681736714123,0.1013844424624524,0.15830852732139392,0.07643210234439207,0.1230271915724279,0.20690553291242963,0.2741057437416985,0.1990689516152778,0.2126582688012743,0.12355910620933806,0.12255699789022399,0.08371630762404528,0.01036984410520935,-0.009522782032162341,0.007995664026897876,-0.006062385737411019,0.00784233923989545,0.019247301253064113,0.012164427236601019,-0.004796833303404184,-0.00501700755630996,0.021078146797519227,-0.017626791536323565,0.022151994105332945,-0.014860482462541074,0.0031389546526621732,-0.008095946775728334,0.005318361810031892,0.013542320414737902,-0.006332541771247949,0.02265621182086471,0.00866202664190544,0.003964271903299042,-0.0011552853976370561,-0.0010182885205536135,-0.01970850934762643,0.007034672570104585,-0.020011402001155556,0.014585854947455653,-0.02234979375933627,0.003752112486646672,0.021226474398512545,0.004020907987240547,-0.015534547511138422,-0.008922226102260093,-0.007955869541199265,0.0022580049097338894,0.02302391047595812,0.020094435985819056,0.01780972123904303,0.006858108135646895,0.023194072955584694,-0.010661306355127463,-0.009884521580660891,-0.02114304555716479,-0.004760682166928685,-0.013794473392911493,-0.018534348982573702,-0.016959266537313496,0.018959880765220562,-0.03279779771337746,-0.032638063260903294,-6.930361306275478E-4,0.005672454774345593,-0.018277993074610987,-0.02684532049210995,-0.023000869308430212,-0.0013735183858411834,0.010380454186800017,0.006372530145539499,-0.01993438726257059,-0.009770322291704395,-0.0036051828323966197,-0.02351677504363639,0.017628516366793898,-0.007549353157241177,0.003796942432870493,-0.004976873931302489,-0.017551980712107562,-0.008949709680511102,0.0031811883569571172,-0.004912501854507326,-0.011676095008344212,-0.013241249173408609,-0.0025858781943430918,-0.03499219308537931,-0.05775674975233747,-0.05159316122530734,-0.024952919255045454,-0.06391215050163156,-0.05518376154175462,-0.02735726992528012,-0.05766457717017783,-0.10712685757888521,-0.06045926013799693,-0.055015240152035336,0.0075174792965764185,-0.006110641700641383,-0.03320447485060708,0.011462204816723498,0.025790928395694995,0.016183699320575378,-0.015776725594914526,0.007641248689684011,0.021863717285889536,-0.011456770371371872,-0.016766660177930933,-0.02453552069794752,0.006558700604008623,0.01575764543206431,-0.011421668237287878,0.027268099898571655,-0.0017826061119449786,-0.050427111555749485,-0.05502898668414382,0.02578279913726242,0.13874636360373824,0.14536657043019438,0.09566209602363188,0.05129753331865905,-0.03149097198761475,-0.1599416013624484,-0.10171385726157946,-0.21169815901661063,-0.16753328181488014,-0.14856341882192173,-0.07835683957116017,-0.06232730049552708,-0.05122331774690789,0.0033210295144833852,-0.03226636943113504,-0.0031684041391556697,0.018848572854961502,-0.019422117869735397,-0.01626391857656105,0.008764750448124138,0.02718080119565773,0.03450534456745873,0.058809537687087986,0.07381513806893916,0.07603954748991622,0.028180687088063178,0.031074008286478057,-0.08387614060269394,0.012036193716310694,0.07767678892613605,0.053715061088970735,-0.007389071876947743,-0.11219407613106361,0.057370841099893904,0.0887365976470709,-0.07443213878523505,-0.15944447622799915,-0.144671836940685,-0.13902766109980685,-0.09931545920922383,-0.032736249996492224,-0.00901094778572772,0.018098123071918635,-0.013371213161413483,0.022318940049155935,0.02181468049004814,0.023613872383742764,-0.009743093129669722,0.06491561986521822,0.19862861003338286,0.21601662508434966,0.10797902714510582,-0.01849367426633943,-0.05453225956138803,-0.22904237183566273,-0.1647277922149638,-0.052052849894388985,0.012232342672685886,-0.07296521088086083,0.011104998740915552,0.0882554904673429,0.025378337906999778,0.026518517820497103,0.09113032626790818,0.004700682811432275,-0.11625586415206973,-0.1466346553068938,-0.09469982338295749,-0.028278359289049648,-0.004921992650777329,0.025688385229070423,0.009383091102874915,0.002076437696621868,9.552011028077534E-4,0.00939135150235579,0.017063140341501498,0.0746399226496489,0.19476443651536632,0.2132232315382727,0.03694933226431545,-0.10608652337975541,-0.15235160242695495,-0.23183797263250003,-0.09519568202305545,-0.15835444301339519,-0.19913086424543175,-0.13569604669707117,0.004387294863176641,0.15037024806467755,0.24636122571574962,0.059767195254101776,-0.05077150453523847,-0.04582916436549524,-0.0660789326261281,-0.2699009729452391,-0.17486480467457166,0.0014203509264221331,0.01223198584204406,0.015575451899245293,-0.01514775253415179,0.01084464923549472,-0.008639677738083626,0.01566691673534148,0.06121653349564328,0.13968848677488915,0.07041429572730243,0.004601760641031472,-0.18841881760589996,-0.24046663089946188,-0.14129970167631123,-0.3191065021185554,-0.3041474557693225,-0.027174320758924068,0.025349719128045383,-0.03942903837481271,-0.03853182664070806,0.19342672747591813,0.09064940984410445,-0.06455579243618371,-0.10584972530600555,0.0417243703800829,-0.11529393440482125,-0.15308345062783307,-0.16515764374206177,-0.06145826696149069,5.396363993805145E-4,0.018563995419669115,0.02247189330964016,-0.0057646000128078615,0.013407350547705817,0.010807709392326819,0.02956456054358761,0.14187393783340624,-0.019791014590642225,0.016378685005528564,-0.0014679322722623454,-0.0786350884581631,-0.015634907010112543,-0.05092739236292242,-0.11269970679677532,-0.006297143595835884,0.05637921487472385,-0.045522213707942266,0.00828024019388472,-0.05130001034830322,-0.016984537175541898,0.014063295374478164,0.11300200211974733,-0.12145588047061134,-0.14182729363153776,-0.09224322919523086,-0.18988986209401817,-0.06314985361777815,0.010548383520051961,0.005467158393776883,-0.022639972036259694,0.011837636826866635,0.010067455925521022,-0.02018128392715529,0.04777753315924696,0.14593414664199986,0.01560371527311515,0.13071948546245132,0.08138137904757824,0.09049768186041024,0.03060324650709246,-0.021420125644280676,0.05455231419351251,-0.03881319523586755,-0.08025693541330549,-0.04958346842355593,-0.01915750418970904,0.0024535870860058957,0.12936293787610365,0.00785749057172135,0.0017577916509070157,4.171156210986677E-4,-0.042691385204360235,0.03330440326985604,-0.10905001529852246,-0.033031483183813236,0.007309008394300811,0.026924048751820855,0.020707630317252923,0.0012061553975328103,-0.0172553656902935,0.015153552182465224,0.07601081686220773,0.18064808569673763,0.012676456307755376,0.07720170069718597,0.013341413071679784,0.0274311481381061,0.1056104542624736,0.10999179271411297,0.14818569731920384,-0.1502552093978448,-0.17675165525470024,0.0658592270967368,0.02861170815653318,0.023528789110203632,0.20311911284892104,0.07973647024150847,0.15334536771512078,0.06661084418376759,0.07894738176322202,-0.037349793629210634,-0.1465990758573182,-0.05726887714963662,0.043248172790735354,0.03796694801413284,-0.002016340873852539,0.005487666131857938,-0.004632017149602601,0.01680226072491562,0.060981490268634884,0.12675830410733582,0.02664159988330865,-0.04571920491152693,-0.033101590202848793,0.1777855636037484,0.147095572280723,0.13514401251099278,0.04740867881015968,-0.2588279592363688,-0.2208364127326302,0.16799813258282362,0.23965754627985356,0.08547109305103136,0.32967109178567733,0.2649163745315544,0.13635531059402373,0.17013431528067957,0.04529655799464045,-0.0765593542135831,-0.1108804083513056,-0.0827120413308064,0.06905422944867791,0.031736629122407364,0.02426435225202707,-0.022498424197629062,0.0020404668415006095,0.017281493004955094,0.05536252758107704,0.05707246160657647,-0.03948033633214534,-0.1767572993623839,-0.012871296368834596,0.10532510371225383,0.17884897797497287,0.13839437240326571,-0.10993946220612502,-0.3212421656941811,-0.2096180545562106,0.2465527060356544,0.38033931984983915,0.2501793087787544,0.18652626625900384,0.09803265581344658,-0.07803472851156407,-0.07102365813802178,-0.16447654076403043,-0.2062619644035833,-0.21390802478547366,-0.12356584145699995,0.016041298122755895,0.01641381165137882,0.01924002659702751,0.013380860457369265,0.006821410822859293,0.0244119625491581,0.008996127885453158,-0.029539132963121228,-0.12294281262824591,-0.18179606684644137,0.005627563025984689,0.14903162367210035,0.0854712598404431,-0.07723475433053924,0.043212862143772846,0.023814296500156516,0.3038420512336239,0.5915903391804386,0.629451778352392,0.5567015310655282,0.0851983075857566,-0.1376821609452915,-0.33715783872118565,-0.21534879980748048,-0.21825504372671503,-0.13607738620827262,-0.19347165258506402,-0.054614805244327984,0.04251936569937872,0.0021368514547857468,-0.01587888021374801,-0.010947977780182994,0.019631524619271947,-0.011618948319364013,-0.02405547082456477,-0.1174708404548755,-0.26354329508540314,-0.2927561918440013,-0.2898940951514565,-0.09698602837686014,-0.004920992027220357,0.09012127250123471,0.11004857949843429,0.047002067912171236,0.4226572784052014,0.6015593258532336,0.5977139671224638,0.4215313001927239,0.1761797679956544,-0.21870974426531825,-0.415760557549927,-0.3473145795443759,-0.04035763103339751,0.03017204552626231,0.0010938261939343772,0.04884376077968317,0.052179619753482114,-0.003244487272391403,-0.01883747175642875,0.0010981915264459228,0.020085585830419774,0.010061573391105609,-0.03640800577716384,-0.1318596064793669,-0.3168957018766545,-0.41456409900570274,-0.4608685994719778,-0.3274655393584513,-0.09046184870187945,0.2033007995520423,0.11817182726084259,0.17980824771073983,0.39814734853201833,0.42655147228934587,0.363921130645745,0.17142054019632946,-0.05373526881248161,-0.2429915760059123,-0.3412211994910134,-0.20039279158976572,0.0039766385272194055,0.23235339054334037,0.1258763776163459,0.07672114201564156,0.0053121626135083115,-0.003004130756160105,0.019591001294195512,-0.006449236818634842,0.011005462425013246,3.8133932386183597E-4,-0.03232388230258301,-0.07062059464041053,-0.31063244126656986,-0.43024516555648484,-0.4164555863757144,-0.30391864138280794,-0.26968307069158615,-0.180549482856918,-0.2538832628465649,-0.20136006567308418,-0.061799081607809274,0.08468236870676789,0.0015567773232462738,-0.16862166876953955,-0.29473904424412983,-0.3169422879551204,-0.20956749694929666,-0.19109471996044566,0.06597327582742947,0.15833821307237148,0.13760498512888952,0.04570281838997572,-0.044820715020990554,-0.013117846304948302,-0.011050298125174988,-0.012061122407212221,-0.02379061475344577,-0.010704286961059966,0.01649980226073793,-0.06201250905758631,-0.22448898843544318,-0.38952760165953093,-0.4111725000898669,-0.44068146091750615,-0.5396431442597704,-0.6169267759036063,-0.6653211865772106,-0.6244649954541447,-0.3570898238732862,-0.29332672464195253,-0.2584024943733888,-0.25257729136929,-0.2106851464509827,-0.14239548933310214,-0.11414128878823934,-0.11957615246049794,0.07128949778457096,0.09362329633733658,0.07905801263678786,0.019510886703657637,-0.04892143022640084,-0.037806054423978934,-0.008655037902404213,0.024843133817464783,-0.0034952837221910106,0.03284962891951996,0.09631438605550173,0.013741839066025276,-0.10139892154695845,-0.1603367047509443,-0.30520920016632713,-0.38538501355489296,-0.6459326795260881,-0.7344143829644921,-0.7471957444292839,-0.7719260947080464,-0.4486240206409036,-0.23371893816682995,-0.10487241304206786,-0.070234211770297,0.09448971890551872,0.0022082147953323187,0.06109691139455534,0.06856720905937475,0.09716040337161698,0.009268219117686199,-0.08241469677011926,-0.062240767033421136,-0.023803045651575132,0.00475812104318717,-0.014630541699867486,-5.181739299568612E-4,0.020038346673519065,-0.0017501399401880654,0.15025222712767405,0.08459962964137599,-0.03269791222068077,-0.020507989902587113,-0.036760603936832725,-0.19215725680991588,-0.1949512405969808,-0.1947394068010972,-0.300419786876158,-0.29573419324303785,-0.1707331845956274,-0.03686292070528256,0.17626112704776067,0.07229318412426394,0.22698937350611226,0.0717677088218612,-0.004787293272709693,-0.005416360101697408,-0.05093035709820848,-0.08987678604496314,-0.11755669091846907,-0.06868071942182573,-0.014081923011468395,0.0281845081331688,0.0032738728683942295,0.016784077545993564,0.004978528278637444,-0.01471506799983601,0.12538480541800687,0.10667506605297937,-0.07587078955588096,0.09951394875182065,0.08299262595752709,-0.027426711972200313,0.07539333106140488,0.1778191685718864,0.21257322555016936,0.018147628239819674,-0.02118215583966082,0.09457225950285178,-0.052408474939641826,-0.027767336441809627,0.10895149549598462,0.019240368965733154,-0.04832372777478218,-0.1148310139191268,-0.1440357578780486,-0.10488984862978491,-0.10478485075076575,-0.04527238510439673,0.0023412003972230707,-0.0055221281113862625,0.009701002257906172,0.01751422831336818,-0.003479511073186934,0.010453859268556099,0.05912037777878004,0.1020154730365402,0.015634838055734287,0.0710352733893976,0.012713597301079571,0.081047952259647,0.07344563462310903,0.08946826536436463,0.10954161539625723,0.13104528360688852,0.12372525386697585,-0.011581389373787563,-0.0966683780438758,-0.0649891671864062,-0.11347841746555322,-0.1756927733653261,-0.2310340676385489,-0.11266790280737081,-0.23638425475583566,-0.24405198897816158,-0.1585121542775709,-0.07135310364685478,-0.016291748010731064,0.004823207881136137,-0.00992617070449695,0.025122436571945482,0.0018530792084096226,-0.0046653362967894775,-0.007484520896801115,0.06341420976120175,0.03243984438809051,0.0633990912142319,0.05172780119766108,0.033174998191395015,0.04977960584028782,0.10081668665697933,0.02535863086940866,-0.007846262039892492,0.0026372416048088027,0.06840661809889392,-0.00807846970901899,-0.07288930437339664,-0.04748200387094964,-0.0724969846346631,-0.16719838152079902,-0.22017037927398617,-0.2761648902288044,-0.17502651955839385,-0.1679906993080984,-0.06652404182433139,-0.018630930837955344,0.008616246528463736,-0.006638791167014737,-0.005669103166474226,0.01993695507932821,0.024422530893966794,0.01942397416608222,0.06246722534527118,0.08848996407121021,-0.011453665956244774,0.02755313478234972,-0.10935086833336215,-0.038589865169087405,0.17770146417014063,0.17630785788453196,0.09676100274273518,0.1370258706161973,0.06961252917480323,0.10226298816491651,0.036421939571932696,0.10619644446537638,-0.01349835708798686,-0.24041543070281596,-0.35229946660105665,-0.2832007637106927,-0.20238162314965577,-0.09717299488148108,-0.023842055483826476,-0.027555699266625714,0.010278442107027335,-0.009476101669336632,0.01642456888108553,0.006740118330918373,0.002012217752778876,-0.006767142651174255,0.060465105568342246,0.12177034020675567,0.0997548014554136,0.0625500682773137,0.0271701078813185,-0.028282612982621563,0.0821144789766659,0.12818646280097162,-0.190155091181406,-0.04550583932532406,-0.14344787596757433,0.0846544164163661,-0.0014740742486235498,-0.06656586105147637,-0.21733935417650066,-0.26362300516643605,-0.23565676115944195,-0.19604935254300793,-0.1334088360085636,-0.035599863241599854,-0.010222473995834936,0.002177890673161465,0.00280870228598514,-0.022785767981442856,0.01192703763742002,-0.018236192565051993,0.017423298242434507,-0.023740408249744677,0.03231821556537603,0.05075706898288,0.037984659788471736,0.08435275568676044,0.16238221462968455,0.09886302751830035,0.07988330345814834,0.047333184550251275,0.09275138308645726,0.06497898500889036,0.03787024490999423,-0.013321658132491757,0.10081066326710349,0.0675100380318783,0.00954379102134981,-0.02388513756036347,-0.028279952693849753,-0.058639941938980436,-0.06611500435998949,-0.041269307951888996,0.016466427278123356,0.007412619567288075,0.0012065727604367337,0.012028292602172573,0.012902125522710507,0.016507962535541272,-0.024472990546138405,-0.01648001387174836,-0.013552446378689386,7.502888896807646E-4,0.03510682800036468,0.06170929473422123,0.1414657469557245,0.2203698305843232,0.20629380350533455,0.21238593361606153,0.19072920317909142,0.24256782795289863,0.21811703066234658,0.2502575073814992,0.2418794674079544,0.20361394282305403,0.1663501719316239,0.09180296838600363,0.004477266431512833,0.005202509756464331,-0.012201721405672022,0.02930094011610916,0.0029598512778514856,0.021868625847421008,-0.009274514383075865,-0.010518772552060386,0.019982488051899384,-0.012854186804247936,-0.010861551436478876,0.02320811809493259,0.017199605678739367,-0.021190628148696457,0.014627471950300884,-0.0048981014480687516,0.015522794344244884,0.03136513453715061,0.04709608101705836,0.03121755748020116,0.003954481328224816,0.026113835887743554,0.07428443046546782,0.029487527251828044,0.044982702923917636,0.038734050769648594,0.002590793643932353,0.007177932711584122,-0.023005554836766914,-0.017823731313368556,0.013842143682935716,0.017568474962039213,0.01620277153627581,-0.025133377026973838,-0.018135528200979856,-0.003363874630780227,0.007981604519060022,-0.010603691985203799,-2.3996797419057E-4,-0.004409221540045434,0.01646856539042049,0.017022768534834996,0.003580088478131343,-0.003986755649288209,0.009753123502717826,0.021227286077560744,-0.006975565918668309,0.023556832858056872,-0.025666913734834342,-0.02329165561009008,0.008648804583658697,0.023014894122867793,-0.0015281490919749146,-0.012625647126023952,-0.0019338058307944805,-0.01845460689320749,-0.002865644165950432,-0.012904599874114027,-0.022207587320331148,0.012162085449642314,0.018324851780551085,-0.01098204717396095,-0.01920537902833701,0.016609450710092014,0.005977588221430802,-0.00890892129348114,-0.017207102080861545,0.016908447795777257,-0.005474811442404747,-0.0024979840323946455,-0.011233818155010395,-0.12444898484507153,-0.19145167365789154,-0.11592450896322519,-0.08956853556701577,-0.05403182764750848,-0.15292272352548877,-0.13636553811604232,-0.07328918649965273,-0.15351110688769637,-0.27756672510943525,-0.15705529936162616,-0.027851014437077007,-0.01874334169183061,-0.017667341442722764,-0.03117025766606029,-0.010605710943372482,-0.005808540812087849,0.010877511943984284,-0.003711443952274304,8.569659196447023E-4,0.013365767945186739,-0.011879677643885464,0.014705770728239559,0.008870118736020689,-0.010809426732706115,-0.026005693855369313,0.005380102910498972,-0.09455247832592437,-0.15573503772643307,-0.30521155025238705,-0.4238442347586308,-0.4492459983223745,-0.5078309757425908,-0.6840433453083061,-0.7042663917018331,-0.6228891921409344,-0.41708143352216165,-0.23871283851619854,-0.05368715305045273,-0.04538486251186106,0.1235293303284804,0.07431921491120466,-0.019248238987926755,-0.022722394498972013,-0.0338086544446359,0.01634491935719539,-0.024065467432600154,-0.002434878318288892,-0.019823780250539692,-0.019878438340691394,0.018612591331828302,-0.021406069181313565,0.0033784470129814147,0.006720193966419676,-0.04347897781417841,-0.3459118602756681,-0.45030115229908096,-0.6919641647198239,-0.9466702180461978,-0.8823221641605843,-0.8889076022485479,-1.069956335922848,-1.0782376698244123,-1.333920775540421,-1.3600478479426195,-1.1536723588576965,-0.8729870901775911,-0.1527528366325607,-0.42391334549711374,-0.4266781471749867,-0.06917031733937397,-0.2117348592530659,-0.28157904231627084,-0.27963224857738156,-0.03924486775088539,-0.0550845620271615,-0.01879944705997057,0.023884918444554575,0.01995441177463158,0.004407609409112707,-0.007450842003092361,0.06088533887495198,0.059862264651738925,-0.29764652246880763,-0.35178049728925703,-0.7203662526236168,-1.1078020353440858,-1.0338169223972695,-0.8129174811477102,-0.6518452440128357,-0.5043598347511276,-0.43084241348745655,0.08959596304061426,0.1280202467493255,0.19102257264251607,0.08303719987458719,-1.0818455276675782,-0.6277816623366049,0.004548726252182408,-0.21479521705058965,-0.12495459004705285,0.1571462277097036,0.09139424484898648,0.14985784180439274,-0.014410919886635174,0.001908445730425917,-0.01742036780336459,0.005220451079420448,-0.0011816735786023057,0.20266401620509927,0.4557878838921656,0.10844038758968158,-0.18443748104822716,-0.0958463902758518,-0.1106832821984963,-0.3962487667426907,0.6252981769940413,0.9882848839924238,0.19207076117504998,-0.3947383105437919,-0.024465745271310464,1.3148052881325998,0.4663235757020197,-0.5908508095018614,-0.8151244861361591,-0.44718200056722424,-0.6535640880731353,-0.508740519671294,0.037177363546326135,0.3865032280486919,0.48354826909225357,0.15723172148384623,-0.0013826194852236701,-0.004623023138082358,-0.0027648639823867572,0.01655337075674479,0.00885502269210109,0.1718944394147156,0.6401854778006336,0.5913921815492168,0.35266014503321397,0.9856821827550581,1.0430794389454685,1.1195874554224787,1.2954769914149196,1.4318110593857856,0.9125425249184135,-0.15688832312919612,0.12219850807351874,0.13681841387588237,-0.04383290030263255,-1.309196758398255,-0.07092157346381649,-0.862630420655043,-0.8086410053299333,-0.8996694439685963,0.44034553114687275,1.0554656911449867,0.8069525962437402,0.22207408111713592,0.03449543078241134,-0.015037304666229915,-0.017002549265106595,0.12234968494969911,0.25848209147862194,0.2843119150658998,0.47744471051927445,0.7062666210007889,0.5686458417747727,1.0715265870242523,1.7245655440130618,0.5188128539545036,-0.6328398483095257,0.2856240411761961,-0.6265841642482033,-2.1804905726293184,-1.853343702076504,-0.637286730874167,-1.0158085751082275,-1.3559296341665605,-0.48979633412767865,-0.24585113785627666,0.24615458768341938,0.24870417846012738,1.0100132905324704,1.5378768207248255,0.9485218601226995,0.41450747581812986,0.07265225802748887,-0.028979886913685235,0.04024521620007163,0.23427947903265517,0.37353472857003733,0.3671830645486071,0.7182581020692977,1.3725551457116538,1.3690066129301726,1.3657002020163118,1.5887699058260567,-0.040130508330006844,-0.5424464830268516,-0.26073111978433117,-0.8709481451182081,-1.2418455102019608,-1.0980487851071037,-0.9558619871645772,-1.0010796263890518,0.4646359092988047,0.9542782751108879,-0.3413420799169044,0.059540319497701416,1.0886805113843032,1.537515503157238,2.0570328818252626,1.1902038965709694,0.36620862530877135,0.04874113960675619,-0.014073214510351024,0.0762752782012455,0.19107099640524866,0.3551061459899521,0.7812136683897584,0.9829748503120009,1.7522570108466358,1.0771884643255263,1.3204448557785862,0.7729329069194398,-0.19310919045532648,-0.35555656317175854,-0.07342258717496081,-0.5398271441735828,0.18035479896803214,0.051203404230955714,0.3563915726732555,1.4308275087057734,0.862170229054681,1.259657293847714,0.5934638311455009,0.8193718186431435,1.836349670889488,1.5496476916129387,1.4543464675254796,1.0834787034240678,0.3344628504746615,0.01601108983885046,0.004902165955511717,0.03506906648854666,0.2342847009476515,0.16234940166166656,0.9224729869531973,0.6642132348479757,1.1512111162335392,0.7008973665872619,0.5328062349294482,0.5304477858871636,-0.025260441161446507,0.6805273466478419,0.0913356194398954,0.008740173659111932,0.3907899190031929,0.31136541525416944,0.5964311753381877,1.2785058634956508,0.593035080657914,0.6636540028768941,0.40098054770142366,0.2588650022095959,0.8969390596220628,1.2832015575001314,0.9754134944743131,1.2241170258253518,0.5181081298354843,0.05719201254311101,0.01973025130445652,0.024345298408275574,0.29615146519946695,0.16440380824401482,0.5322971535902378,0.9509758806595993,0.9542158492016307,0.9524468954725115,1.5601366938007697,0.9915878652277305,1.142834694544672,2.437409575153569,2.3022688948886705,0.6904601332131948,0.15634156842577646,0.5168753966431472,-0.038967245022468296,1.3282733024816782,-0.48607035852723335,-1.0090834254042405,-0.43492703459612714,0.08286089710060714,0.8736175674980469,1.2513589183668852,1.10031096685128,1.1264466132540536,0.38437562351494414,0.011473559963035219,-0.01952694835859065,0.034509361699101036,0.22724736346835245,0.12850534814147302,0.676784466733314,0.9911970254121384,0.7877705812384114,1.2892487130053585,0.7166397054949957,1.0534125464514112,1.9340982583936546,3.3015880971954887,2.5733722136701647,0.5364197162335338,-0.2894515289265752,0.2845042922890675,-0.4635138696693837,0.08811641222490489,0.2682752656610058,-1.051280796936904,-0.15189570514405723,0.2620199722601995,0.6883078891836981,0.7253492865179632,0.2879345459691902,0.37628865246797955,0.16014144182420226,-0.007011961091093649,0.020738737561722082,0.023850583105951072,0.11708170835328624,0.042223312843520794,0.7478439111549531,0.43688452413391254,0.1962528050824618,1.3704682703109352,0.8541089280804806,1.0598307573119923,2.1038107949438403,4.125972019994379,2.639695487131252,1.6660320779425903,0.07354731496799803,0.6284378485347969,0.17330653468944218,0.3943740619805621,-0.29966264995383807,-0.6748292263271896,1.1258318908303184,1.0141667712419868,0.11626448234614853,-0.2855438901066874,-0.36648538596516417,-0.07563728340601053,-0.20443444261925162,-0.07570826132187108,0.020737329502768877,-0.01939372371938472,0.012684040332106556,0.06325301645082256,0.18655633996243015,-0.4382148168044226,-0.3270449579075157,0.137704825360139,0.25971822791715216,0.8180024921236374,2.651769143984628,3.049982507916097,2.18879140435171,1.5639147330300578,1.0204252120701354,1.2802277545500949,0.5046759732433747,1.360014395839405,-0.329366536577487,-0.4817773680343185,-0.07455582975005219,1.1515193396771832,0.350157688346475,-0.0026872385471125217,-0.47162816787783146,-0.23998678913585297,-0.15180845613177643,0.015664677940434704,-0.011839285315883363,-0.023621116462224468,-0.062353507979207086,-0.13586369500933443,-0.28557348726837073,-0.9646077308625411,-1.0438447411438296,-0.47807631983283283,0.6138612750657161,1.3038932920723951,2.471279859735941,2.4373275473303133,2.783967221473448,2.2292961585200324,1.824864564544333,2.4304673352605755,2.025985019396153,2.335944987215654,-0.2875400680638908,-1.372590241191899,0.27480776430682835,1.4330487633210955,1.595871575546052,0.5386712203202018,-0.19865742817885315,-0.7128530679007369,-0.23784586017272652,-0.045683108577018045,0.00772738105955999,0.023767421957223818,-0.07094905090464244,-0.258156051208068,-0.8414904351804482,-1.0634860365992853,-0.7578882206111033,-0.7741009652169477,0.37829904584640434,0.5882014511695464,1.0347343682225363,1.6898363966804124,3.534427821766783,2.938245973554615,2.1754699856378514,2.3459741939403296,2.160890405176031,2.0489723493625984,0.14516385616522487,-1.788094674300927,-1.159672092122801,0.5666257024506203,0.5721123142404411,0.38885111138130485,-0.612126355700521,-1.3654964470598296,-0.6070606720112466,-0.05838241482449146,-0.003325236760130519,-6.355086168116251E-4,-0.0738047318966375,-0.3556402296677002,-1.1497090180591114,-1.2554214066889788,-1.421320127305579,-1.290095282930532,-0.6548159259544128,-0.5505228146767049,-0.854756945095181,-0.35416131978141685,0.9717252512176172,1.6018009502173631,0.8518605808676422,0.7287141036487426,0.5600739892950438,0.20539115383857195,-0.8966968644446613,-1.6928389174091025,-0.692611436121698,0.1804645011339863,0.522484363490751,0.08459314446230165,-0.5452892653325518,-0.8987394695688065,-0.33072725610326004,-0.059385803603259256,0.02675046530744167,-0.018661791046916856,-0.0030774494818890472,-0.4192787243557906,-1.0955338025457242,-0.9091663815270841,-1.2805751972612356,-1.916386833287333,-1.8643511938406852,-2.0994280195973727,-2.2225448783229047,-1.4385465018659442,-1.226853182404729,-0.4774739345080476,-1.2717260217982702,-1.2130146543295228,-1.3846900912342648,-1.2300635218042044,-1.7628008805841244,-0.6339139175428727,-0.3102705860791539,-0.36300359174414953,-0.20113775847098644,-0.8021416909095284,-1.1879233244546699,-0.48566952328317115,0.00407125047613169,-0.003667943453982111,-0.017794819201443,-0.060016294039519684,-0.058053713886458407,-0.1152324686532542,-0.6399308861099221,-0.6626913000958455,-0.8386102522041533,-1.549511770166501,-2.319245998436567,-2.3363423369616707,-1.9823284447966674,-2.657736074743145,-2.3098160378146666,-2.3710852912685954,-2.5137937621124147,-1.6276766470269457,-1.5901890256198636,-1.0228999968214911,-1.2857294219914428,-0.5377723832530567,-0.8331753997602885,-0.6847750738902157,-1.0230675328987933,-1.327240966276092,-1.1568437219180752,-0.4478536692361254,-0.08783991354380152,-0.019219508665861855,0.0074862292449470605,-0.031696146083831825,-0.044779477041690566,-0.21138276668892508,-0.7673303864088821,-0.9728008538155337,-0.7639977424700041,-0.8882459213514177,-1.0371441241360542,-1.294767196384112,-1.410240919914262,-1.6808948878696335,-2.1815432158174777,-1.6969474416593222,-1.575643326219626,-0.8855757411429265,-1.056352105119092,-1.2011160888622265,-1.445450882181268,-0.8884750314675884,-1.1230244420995419,-0.5535070537542108,-0.172548510793718,-0.5877040437283448,-0.8439700584071937,-0.3704128527128852,-0.07055062826639484,0.02077697984115686,0.007317935901221342,0.010311833920496933,-0.057560491754976906,-0.3958010854281997,-0.4241520955409368,-0.4111448944425839,0.07929849209161961,-0.09257388273456432,-0.20529066579975805,-0.7629678293336978,-1.4941284908294903,-0.5622760937122901,-0.5633379716601475,-1.6348699305766239,-0.9446336725289265,-0.19470720684655046,-0.4742318739534875,-0.8637253722054495,-1.2642671209372667,-1.065563429702871,-0.3195787894363226,-0.331494407772886,-0.531431044575009,-0.7726670691314629,-0.4166731942304004,-0.287009612062886,-0.12774733486144538,-0.008927801498567579,-0.010005481619329541,-1.4247323009692548E-4,-0.02918493746064313,-0.20135367895985695,-0.1174308951187069,-0.6001087885586863,0.07254790709706706,0.05900825317706915,0.3567466332793467,-0.6091956334903222,-0.4065415698073348,-0.17102568486878683,0.5753007560416059,-0.413608907886876,-0.40298058731690073,-0.27614116756226226,-0.5182150901468008,-0.2928385927201856,-0.3923022542298459,-0.7669520875741341,-1.1523552546038596,-0.7902497214762761,-0.12443828219388849,-0.6094723229240658,-0.2888933200064445,-0.19606493301273756,-0.031303948254480046,-0.005629311921642543,-0.010512482632215917,0.0010673971558823804,-0.04851588186755891,-0.025298735315674697,0.1046133843452842,-0.26080474337562604,-0.240522554610012,0.13742201002153806,-0.08945498471880947,-0.47657291124038464,0.899969229380434,0.8888709714232187,0.7620785881769372,0.6211417188247801,0.8476893241116169,0.5348576218014588,0.48036282440804445,0.27395791475712644,-0.05334048248374805,-1.2435547967707847,-1.613154413185246,-0.7820063949427051,-0.11341261825886843,-0.1699645874568189,-0.223113529164912,-0.11832125737608165,-0.026887283537716876,0.013076644224779853,-0.007041779812737747,-0.013983290995241322,-0.03472056954385975,0.05281513629924182,0.23421243369903472,0.4458727745682289,0.36387053082032733,0.8169728123914313,0.59384270668564,-0.0393591839899838,0.7584030585087332,1.03885802608662,-0.1851788613566488,0.5813268211603873,0.19977689606529045,0.3472776680148368,0.39478415370781345,-0.046186740646557575,-0.621359532403408,-0.6095547590354579,-0.2578868488411432,-0.29803095994564927,0.13139096539186343,0.12493016696412165,-0.22700955053437802,-0.09305687891229238,-0.01768161705635333,0.006060775448856115,-0.010869807286020548,-0.011022827772435247,-0.008938665000710083,0.008221101142027943,0.19123815177119113,0.3600907540218819,0.5535197321696429,1.0171965958956513,1.011705872377338,0.8963004220372935,1.1305247124373048,0.9959272296051351,1.0368102620113564,1.1901967721688824,1.5052658303052595,1.4391895016566065,1.7537428578292036,1.1495702528301648,1.133985572334414,0.9859656561487959,0.7079920884989801,0.4469243871126552,0.07229803333516334,0.02564290426858055,-0.02455114368573514,-0.003663129393327288,-0.046549001442919395,0.02344773899498218,-0.022076439772286946,-0.0025109620235982794,0.007727131940587994,-0.0045433061344833225,0.011521507319130025,0.03383841750143933,0.2267494485872034,0.46414035288754735,0.7153873977907071,0.9850082630451019,1.1018102478481635,1.226365445239262,1.3188732575446256,1.7944296732127378,1.9697173566587638,1.7323741423007832,1.3601356465467305,1.2471732170313354,1.0672918075288451,0.5338374707205907,0.33865067285641426,0.21430699340567713,0.13596023720522504,0.030934491551371117,0.013794374644288645,-0.023114689323390527,-0.004320617027789229,0.014485661588323064,-9.188313661369494E-4,0.022645458047499154,0.01588344882035073,-0.009679614615714866,-0.01405461956522605,-0.015606520947429873,0.0384988221743712,0.09788594115060756,0.09379031582273341,0.08012753032530734,0.12808178598352013,0.09203234617666667,0.12637839821048727,0.24996217166013476,0.33302060464474836,0.2646623490304848,0.20599186214329976,0.13251731327852162,0.14817746948188948,0.0946352291971036,0.052947226868485374,0.00409157956029041,0.031228666966769413,-0.012160453151577034,-0.018239174565118064,0.0020347327559726482,-0.012247235439798318,-0.01018867011628979,0.012046164499860757,0.020778134166034218,0.011811359189352312,-0.01440401380115278,0.022873283644229095,-0.01187790818010992,-0.0063026864181459094,0.024991798214258763,0.00391884570230577,-0.006153658980334644,-0.019649781260161415,-0.01929758859696527,-0.015447436953775663,0.026285339022870856,0.015500999866864948,0.019462596316361325,0.007900324612384955,0.007385853668894614,-0.023636988144002266,6.541882749614318E-4,-0.004866887827005816,0.024892312826075586,0.012774425378392146,0.020178669269168968,-0.022449740930198064,-0.006591996059501588,0.012250963525127728,0.007851379799293151,-0.004925919170360614,-0.004325423099739577,-0.0013473346182961326,0.015631319497410028,-0.012345046257803227,0.007746515116015888,0.03389624957895856,0.03565951783151465,0.11603111105606184,0.10608800673419105,0.06229344541324874,0.0762490959551939,0.11301960309258237,0.10255550128480388,-0.0031511456557899377,-0.027277892791634614,0.09558797243496442,0.08233899531832177,0.041590138462559545,0.002124194237370727,0.030755197800945745,0.028665863060718312,-0.0078337287074235,0.02803506565006587,-0.02522214671007668,-0.022015067552638892,0.0028189928195710054,0.0159267634605593,-0.010222749295291647,-0.0025460736831531394,-0.012562888349614984,-0.017872993561574905,0.01930327414032912,0.0016997431558534904,0.058374278210640604,0.0668834445512766,0.15564992938208339,0.31866108347571775,0.5146861338216941,0.509312880903972,0.42314209646558093,0.5113072820204396,0.2568430300301511,0.06828933661129694,0.3760907485130958,0.5175498605389008,0.43764780515045215,0.16845045512835438,0.18380441905757272,0.15877620579994675,0.0944370311892302,0.0385022811382653,-0.011027532276698572,0.025579848130085375,0.009640344243514351,0.010580073128383362,-0.013484488226497114,-5.576017434288808E-4,-0.0232229842204322,-7.099758532244123E-4,0.014297788192379418,-0.013884097752087758,0.053501198374801835,0.14889993894485326,0.5443755768730892,0.7267209575237561,0.8353411701982346,0.7310614754717065,0.8683319381230071,1.0582143455147823,0.5168958544036154,0.45439272154291527,0.5907579455792893,0.4170127120722198,0.5207404941155444,0.4449947704109303,0.5185833027585346,0.4363267944120085,0.3261046436398894,0.31223806582109076,0.16420067033403488,0.040330802898962764,0.0317681591341661,0.020210365875815314,-0.022278267906923527,-0.0128040736892524,-0.008126731344468249,-0.012901567492174974,0.03445183844585181,0.0680331662288005,0.14692995636418488,0.28077420299343336,0.7074941585754245,0.9988834079807871,1.0303418436868228,1.5092348678100596,1.6118414187891652,1.4185054043217367,0.7591108591854302,1.4395726217401417,1.5426134936503957,0.5730354370159028,0.30467423000284155,-0.3670842957947467,0.07315687897879478,-0.06787599486022455,-0.196597328039534,-0.21681207405091915,-0.1959169141540684,0.18281059322060134,0.07092431609318284,0.007719021180017477,-0.00964739600786308,-0.0014358959078069865,-0.017280749324952865,0.002399103533525198,-0.09374329047826258,-0.4478769924035687,-0.25497841265869725,0.341548030114042,0.6085267094275236,0.5303786831332534,0.9881360077822975,0.9356679189440938,1.2406521899727891,1.6278835454552611,0.9272834538380444,1.0575982421383476,1.9682313277272512,1.7897619872846706,1.305376430468524,0.8742973389207404,1.1424803652624809,0.4088293652584683,-0.5344869708857825,-0.9802335081928942,-0.4031756451878558,0.18913330824563718,0.05958293277993242,0.007918264536871524,-0.006197279127886976,0.009447789655793,-0.020974411176720546,0.07615609042497637,-0.032387141421723775,-0.16855198769060561,-0.23233500284060415,0.5504040146665486,0.5220335288207612,0.12802719709162455,0.3148273865129075,-0.3754968485284542,-0.12163918516225658,-0.02649729613675411,-0.6141051620582996,-0.2528302773779223,-0.15743467362209965,-0.15780356515444932,0.5813033645822188,1.154648838997931,1.2033949999320253,0.9404349325417475,0.19537867713171933,0.10219652754227017,0.09613330270918202,0.44287564120858997,0.2727093602251327,0.026713328270520212,0.007319629077196987,-0.0019083420210042861,-0.15382722691303427,-0.12481364507959009,0.22970122404324567,0.7670115284720342,0.3782600875512408,0.2598429885519622,0.7104490397875276,-0.5761156835406386,-0.5320948048012598,-0.8200000797825523,-1.1108423707114514,-0.285275642934858,-0.017593104103468156,0.14848727527615124,-0.9119826404039753,-0.2528163377755679,0.8579237338367487,1.1888814419888334,0.9633280034244931,1.366257935847593,1.1638811601141832,0.861071908499626,0.8187227883633088,0.63739513726502,0.08816260090427666,0.05371318386757362,2.770184656175549E-5,-0.010256622364178004,-0.18083912413265066,-0.018428404266205605,0.8546464899066084,0.9381353221743204,0.8809240061094296,0.8017358641739744,0.5907662079852863,0.012870272944511641,-0.6283089106618731,-1.0859979520318876,-0.5065610282940544,-0.2500457704784086,0.4541589466988073,-0.32087459244494,0.6390537847970047,0.31022313661983053,0.9948025881300285,1.7123687388523894,0.9726767780125135,0.9181831078715593,1.5663953236930452,1.5050728841812522,0.9351987920185761,0.7953379379950581,0.19691006269875663,0.020067135231806737,-0.01183025943192225,-0.018090724410786182,-0.04080287447028257,0.4600815229081424,0.598788638887847,0.9919131412754929,0.8975000496695675,0.9075672947742155,0.48463347351615055,0.22347908755444393,-0.7945065320053517,-0.6039632944682833,-1.0322587869666326,-0.5444281607002313,0.033529664342828516,0.28248998874751646,0.6476685333897014,0.313660294402789,0.4430067174058774,0.7554730995238684,0.2481803386192726,0.9998876051953283,1.7164232614139807,1.9792621039008087,1.6412981631207633,1.1859164842188703,0.1983146345287208,0.01127369810358221,-0.019100228953963214,-0.011272836190807285,-0.07171296918111213,0.5819049261342708,0.2265551267892999,0.6501063302299293,0.26385119480020824,-0.4098259819872233,-0.13317386088078664,0.17111699777896086,-0.024847179920996377,-0.20832622701149103,-0.586151945436925,-0.21533871111915578,-0.6653870265385723,-0.5158738627037606,0.4168242802137262,-0.06761690147374136,0.6485962725731818,-0.4169267512271163,0.29961238535707274,0.3609719550088084,0.6459963615717871,1.6158423380675981,1.626849112774631,0.5125228283555464,0.11330554887524051,0.04218531752413224,-0.0021879955286618334,-0.01006006869579092,-0.1868019390855824,0.29703865358204534,0.44532449443283756,0.2595674944108259,-0.018353833026969777,-0.32202276129462376,-0.33994784687590013,0.3255365286847363,0.7905555681113213,1.1064782976671794,0.2567329315541045,0.7480318345067565,0.16163300113747064,-1.0752834726201408,-0.9177853749466546,-0.7524925579819314,-0.7067717900737363,-0.5651203784741571,-1.1313297709735362,-0.8181111349948027,-0.6198637133481968,0.27237002781160563,1.0146224265285146,0.15232520001841554,0.04137531607976206,-0.020012609646314777,-0.01786726905982686,-6.967575479843835E-4,-0.12013127452978602,0.16066831069456688,0.14620267636946901,-0.17836303212929333,0.12325317480684532,0.4162049175475784,0.28771070303042073,0.9830916338598275,0.9510914438308291,1.133751112564934,1.1581881479547713,1.2111450467251372,0.6097456415933374,-0.9725034213558275,-0.5740985694506564,-0.08099198419741316,-0.7828312922107926,-0.5161999532092368,-0.8065134241258343,-1.2008274535364065,-1.4391698037352625,-0.09075503019362188,0.8527471170179399,0.13587436027097194,-0.02878776989421399,-0.009663030995130422,0.004268445526343422,-0.0035056802494596927,-0.04610663185194426,0.10782108070093244,-0.5573293787832668,-0.7132534871818987,-0.1504257181520581,-0.33847518716006864,-0.3596455369610443,0.20033702111643595,0.39690066657608725,0.5333053033777608,0.5072628946396802,0.5407367551731019,0.6949063762637149,-0.056652757950224994,-0.6223510205386451,-0.44597766033398484,0.33882060861857133,-1.1125890858342995,-1.3700202045784515,-1.443747317719111,-1.141463513990728,0.3088186768115136,0.6684788052302779,0.13049748080444135,0.024799969464120258,-0.010014834083057348,-0.020850202037950245,0.010106606345227512,-0.015843967497885622,-0.11741949778517906,-0.8748246599681514,-0.8831363972964118,-0.5241862283193989,-0.7338247323022837,-0.9311595966910183,-0.3418151562500984,-0.5662464391904862,0.21903267740430896,-0.7930661094992549,-0.02841386021436358,0.047896823155497405,-0.8013897886256417,-0.5191360351148777,-0.16627742660462422,-0.15307567091609076,-0.8973523193929673,-0.8841653440742693,-1.2933976056691814,-1.0914123923362922,-0.2530813537070346,0.23480359386836522,-0.17788283030271845,-0.021817389743068023,0.0030164045933466963,0.009620040548695438,-0.009903055667297794,-0.018408872462226843,-0.20287760669651814,-0.8649333791792346,-0.6658636798036416,-0.5781635973508384,-0.930893361230578,-0.9970033436267782,-0.3615667194536189,-0.63419648298347,-0.5847896795666164,-0.2683382723386612,-0.17403717305008642,-0.6610334675859993,-1.2262757828538065,-0.14604394011904492,0.38181576685479146,-0.31054579463966414,-0.3841128540419055,-0.7970703297435231,-0.9941223567250392,-0.974424282897234,-0.44953068611974006,0.02195793973543014,0.06258265877413342,0.027027418013199866,0.02876025168074673,0.007743578973692195,-0.016188866210812024,0.022416353587973267,-0.06590951268023434,-0.5012458774944013,-0.7148282461312683,-1.2170933707547962,-1.236139573819598,-0.6277567089718877,0.7375273919080324,0.3729758784076381,0.204894021274647,0.4586671889048565,0.1198286655914307,-1.3533429263342556,-1.2598537174721922,0.11603242457787444,-0.04252598725531431,-0.38871524815907366,-0.1299003492183791,-0.5119362944056347,-0.44631656398603203,-0.3038746667077251,-0.5357731455156204,-0.47127534268905746,0.12239873991163128,8.568699476474948E-4,0.01553456895791597,-0.021508134170070692,-0.02528165248368195,0.03719421180728562,-0.015106624609876681,0.09372168701805383,-0.3544022686069485,-0.9184244612271696,-1.3358118203598737,-0.6921140990966556,0.12353154623508301,-0.09461849406281508,-1.130551780132317,-0.5919363449166307,-1.298278767505762,-1.5851141201944199,-1.0674890017489285,-0.0282065700759913,-0.4476591481942313,-0.7800407541743074,0.3089725612783542,-0.10802488588952563,0.16088273398163266,0.34591556023289277,-0.25865140115368696,-0.8665408031459094,-0.2588249333713899,-0.03911324235338178,-0.004744290350477106,-7.30337321948271E-4,1.8269809175955126E-4,0.050398746489892426,-0.013885248861790567,0.20122427059516734,0.1904235789226114,0.0663666778968346,-0.4758243384187354,-0.3388589974614745,-0.9839932710307829,-1.425885333178954,-2.350300514202034,-1.8907857332664173,-2.257376788582978,-2.3295564754256533,-1.2191078319627944,-0.07759275508957657,-0.1495913946775796,-0.10109792732837239,0.0851285240310701,0.06309565893624518,0.18379615833660065,0.8655361212365426,0.37551108174187753,-0.46769620125382355,-0.17850686236202137,-0.0422495292085113,-0.023858056929057504,0.008721573841428078,-0.009192010183335176,0.0469319533136041,-0.0032089751015772655,0.5386126207744504,0.751308250120739,0.6808090050863973,0.41783430698880153,0.022032900629584184,-0.7868657783732291,-0.6972603087398552,-1.4997199915113386,-1.1268374998621917,-0.20397130292130783,-0.5268608204416618,-0.03344294782361759,0.4039892658961141,0.7012174801961342,0.24658012243624725,-0.048249537489891456,0.5098975590133715,1.2943642391434567,1.7944439958684004,0.6064711405342589,-0.0804343966516056,-0.11599183573786812,-0.011837148402274504,-0.01469087564464797,-0.006037756993191314,-0.020645440624572044,0.123194997805358,0.29768451764776044,1.1152863686435517,1.495903388263559,1.6123608538268814,1.5137665213343523,1.2703460899353967,0.9008738213120919,0.9520530138522155,0.5886075344487776,1.0599504754122577,2.1003666851766813,1.1140961032535772,1.7514967082934094,0.5286420009221858,0.30265323385698834,0.12312473688332042,0.762790061960017,1.1953499631691817,2.0164415867644006,2.0789044103178553,0.7771655980451209,-0.16481739362568992,-0.10920725163966646,-0.0025736192697798617,0.01732091211976268,-0.00973002371590226,0.005830057853153804,0.11369983089222296,0.6071101528179811,0.8561117035402039,1.2315417093477419,2.198701817421869,2.133141052393089,1.6547386491843155,1.6912566368462174,1.3565770161567294,2.455654509171297,2.6025330008591805,3.1963140808411956,3.1178536444617495,1.504237718800843,0.3482555845993107,0.7366371029125702,1.0410074262232645,1.2732776102228558,0.760305758591632,1.7266864758081912,2.1108418543538114,0.765132667004254,-0.35876164588159815,-0.08698690420552352,0.026614200057891106,-0.023410574031075115,8.90710926901141E-4,-0.012016864123686551,0.1578471200620031,0.46100771968239096,0.4549862965410924,1.131703820715921,1.3852115486233896,1.7906447948026765,1.7388411193960482,2.2779507431361887,2.2858366981664875,3.556941728296613,3.8222086025997912,3.489793024911758,2.1538844231481877,1.3191394219598918,0.9857693142427093,1.0308855203074927,0.6203760735368296,0.7269927666664184,1.4254841496097803,1.7170293671004544,1.2659846821022083,0.5578220653300182,-0.19518817147455855,-0.06697879033564702,-0.033568045270235054,-0.018227677449627385,-0.009226117807168423,0.023565428974826892,0.12069642105642338,0.3375979455793958,0.4082080401028565,0.3186199123982744,0.21639331044845145,0.594521557976243,1.7999803710096463,2.3469568221206516,1.5208196897989583,1.9468036245378333,2.0424855749934507,2.0455999571664947,1.3439953431647287,1.5816971444264194,1.1961905703125244,0.7115873415758085,0.566058515263913,0.4690178745935016,1.470891752527658,1.1620745512415378,1.129367373446742,0.5528260736355509,-0.05963271747701528,-0.04024398442658551,-0.07805389579652916,-0.018494140156650737,-0.0031930548290494886,0.007788712681475772,0.01745317977829107,0.2567672046488987,0.09681404847834374,-0.5676771781336936,-0.36323349351346873,0.030646636119458174,0.8443670346157025,1.2568713004859067,0.9550704473550093,1.3162134996903903,2.324563606065929,2.3254588863688017,2.6363021266516626,2.562935763302974,2.114939313350876,1.1831151957056858,1.7180867891024156,0.738709639107216,0.2575866062145692,0.15940120247918685,0.3887316635883543,0.174020038983527,0.13864901599077448,0.012989856147339761,-0.007774201941747202,0.0036037347580229542,-0.008446160233161377,-0.005015648675459163,0.024152041060902525,0.03537150679617476,-0.22048132735982112,-0.4291389523265483,0.04002652993113044,-0.03434299176322541,-0.10722742106399698,-0.0837246766029462,0.1332217224589593,0.36774605354979656,0.09478574303465366,0.40327224309819876,0.5398242440449137,0.9672167011143749,1.005161212356952,1.2010651772191459,0.7288797846190096,0.2546804076747253,-0.1388856349530733,-0.1957820797631708,-0.06656115541878016,-0.09203205798205825,0.005022796751795438,-0.005345969684664683,-0.018964684339595646,0.0050956777749762835,0.0045089622097259,0.006020265520290356,0.022676600781385982,0.024852237655554048,0.004292309244845403,-0.12282436781545682,-0.15019585357669016,-0.17059234720418023,-0.36120311068539024,-0.5237656320164235,-0.36414941245953125,-0.23198910885298946,-0.22298101576270424,-0.38780156717110176,-0.7391822431463123,-0.6553916088735526,-0.24903471146192852,-0.18928892894656368,-0.2918871713135887,-0.2519891304714752,-0.011193033895213068,0.10284113844020121,0.01287187534397918,-0.01924212941317872,0.013404456356001545,-8.695767438286169E-4,0.0054921160661587694,0.009131331292011486,-0.014272519015735768,0.023326327969967264,0.020765962620904035,-0.014009476864400065,-0.01450574778805382,-0.017299423226219513,0.005395735694630775,0.006977213014752691,-0.01843193786367028,0.00203255968488373,-0.07534015638903553,-2.022354147607472E-4,-0.0219509622398828,-0.1029189728659404,-0.07884863996215685,-0.06930733522922172,-0.07273301992021435,-0.0398901517320942,-0.012216928905466993,-0.03243356753771654,-0.029647855049856075,-0.019196303284477394,-0.018267554206031444,-0.0226074230093281,0.01506823111606529,-0.023237414146917962,-0.017938495811322192,0.00684553838195247,-0.017708435323963025,-0.0014202102990087601,0.008235882304784361,-6.321987998406018E-5,0.01221161813697288,0.007182504107476247,0.0025293459319370723,-0.016300692274926476,-0.016492262838344197,0.02214560565905142,-0.00369205804816463,-0.0011114201555716262,-0.02046448350604419,-0.003070995260176482,0.016834128019356794,0.011675935907875605,-0.011935721022565213,0.0024718612380821,0.014295969562755898,0.008794151015449904,-0.007946760919382059,-0.022959100888186847,0.006242742830065967,0.02207904856851133,-6.535159022651825E-4,-8.06228879188485E-4,0.009772969794342131,-0.003747998482374958,-0.016258103562883496,-0.01960664429118388,0.013527862373713246,-0.024552087238252834,-0.02239581429143686,0.009269400746418972,0.012380081331375472,-0.018361931020229243,0.038885656651674004,-0.0026242514167747035,0.01985232432765874,0.041029677455492325,0.04903831591932576,0.03460373296270584,0.006508359788929177,-0.015001746888768635,-0.004169610471651994,0.016653739211721905,0.021456842121650232,0.024380867203178357,-5.148278091357019E-4,-0.013195245605866969,0.008984910285541095,0.020931649375517815,0.012278549753250335,0.0019056736840244069,-6.273322321832638E-4,0.022694104083967263,0.01971806303676383,0.02481043718074107,-0.024625107254029027,-0.0016892589182234655,0.018564904045325306,0.018456273566478634,0.018166370961595537,0.026638829909394385,0.016945383038263068,-0.006440974392197,0.10243134044651978,0.1477713684149892,0.13371592446817676,0.15921560897051468,0.00837996242063096,-0.05498203383807418,0.07949279828325068,0.13245018746789844,0.07020585857717691,0.0360293821436649,-9.70084084786104E-5,0.028108640723127038,0.020974163781995892,0.016508345652518314,0.01447041721856312,0.024187221831085858,-0.009221599594977179,-0.010270171952400785,0.013935369093432789,0.017309213813928383,-0.010943547544290609,0.024834809006513758,0.022603744290641263,-0.010722560561175652,0.07230201077319288,0.0981562939013506,0.10313904317424243,0.026461782833265973,0.1533900605146734,0.18640114889581078,0.33540278876410606,0.3108415476223117,0.05549369394377642,-0.04509188661600506,-0.05702177997862906,-0.08629374050248659,-0.0031657825209324667,0.035192648316081925,0.06277737726429866,0.026220829292088892,0.0476722299021921,0.006625032138037188,-0.01882825756976058,0.006344490124307936,-0.018706965258311208,0.015941032929621204,-0.020550535029135925,-0.017092320378699535,0.001192679691406517,-0.00803543751792732,0.03372106064077854,0.07046120241244723,0.07227371764784442,0.12260670239502532,-0.15598974884242717,0.08128556550180589,0.41643916087985594,0.7437691703038803,0.6137842123437854,0.2450373849730556,0.1612993287488095,0.30818480823869443,0.5589135647802623,0.2718590402331618,-0.034419230800390284,-0.37869714323435655,-0.31627158621846757,-0.048640978582051984,0.09405743154544355,0.11096374676860309,0.12137408566055723,0.08155310297332431,0.023679455910673542,-0.02317711925941669,0.023694341751297674,-0.020917117137002943,0.010238409471463709,0.006548080185655419,0.016391698632038768,-0.1728945545579889,-0.021820787205904135,0.0648458362400834,-0.049761095559532,0.27277767321207846,0.35439635215097537,0.358248176299227,0.27622571745560376,-0.10913750987181915,0.08853709884718289,-0.013954199862941018,0.13406612524531897,0.2741299508189444,0.23808362571735953,-0.04525454631220937,0.07520671832322164,0.14604773022132614,0.17675322463170445,0.12449579051783759,0.16729406355928536,0.13946385730404603,0.018554933932159755,-0.014506915980149521,-0.022922190648657113,0.0037048702676839534,0.009741555249622221,0.17488485240008672,-0.002107167292694121,-0.0731100671124462,-0.10293149137998983,0.12897763455480427,0.29285211488505286,0.5132444163363028,0.8036675648167138,0.716547543160449,0.41366069306543507,0.2517190273603627,0.19859070048947258,-0.13756885815787606,-0.3870415107142646,-0.2116995533386296,0.5069776804677102,0.3450182553915963,0.0991020362586409,0.23172244811255588,0.3008423273235145,0.46150573654529087,0.5964000940324791,0.3164234604159066,0.0999676149937763,0.0064273360526606255,-7.024559155220085E-5,0.008064981133935705,-0.09136715739620238,0.012862309452306464,-0.008527136349526452,0.1540045224352095,0.1476064085601447,0.3883829297710227,1.058442250501789,0.8292601961498974,0.7254275196605255,0.47248589291805204,0.7174357640952145,1.115247648662608,0.7986369080917836,-0.07423359402572899,-0.4513447515769275,0.16053691582143176,0.7238069155456127,0.7516014830114669,0.6076821089845337,0.7477476836289811,0.4867810054465162,0.5149087148476972,0.8882596141522413,0.48253376808050574,0.08372834665418817,-0.0024801941161976915,0.017300059775581973,0.01574468708557398,-0.0898137082369263,-0.027133924846979386,0.1361157201160446,0.09745936532350297,0.24184123039419428,0.27303434064697923,0.7994950888269177,1.0680579553236524,0.28688663755264304,0.4537153212819441,0.7539668478547341,0.37429658565395985,0.3167598468947812,0.28089800184701985,0.665600681539622,0.267283004134811,0.22594638420127894,0.6968530922610995,0.8177055357771555,0.4871079543581976,0.6604753805491026,0.6300386381569262,0.7112655270532586,0.5116381499939436,0.17163726405004545,0.019495379447148808,0.01989529868575739,-0.016808951773842524,-0.036036890049503285,0.12351555441166488,0.15631862860185824,0.0971054299393823,0.20073186694055287,0.382550127232964,0.9228214395657124,1.0879364353437502,0.44778704496376737,0.85137158770346,0.49521411080970373,-0.4203109702423809,-0.057949564677940525,0.5169838808847925,0.11194671466976636,-0.3146016136068022,-0.6937971574837257,-0.4428533854843811,-0.35612259825803533,0.13722228135451808,0.18614832495832276,0.5281779533976038,0.6765657254877917,0.6079115520313586,0.10233816521443517,0.004934353398658509,0.0036217422747912187,-0.003562643468934111,-0.07961422320204713,0.3072024726629596,0.09676040091957591,0.0380242383305629,0.3355592470069781,0.20159991639337319,0.696546785093065,0.8290370044144962,0.6264496299293004,0.7947785725261332,-0.020745885139042044,-0.19644348498016573,-0.8641738147902579,-0.4298596085602535,-0.18264617495658353,-1.072978220743603,-1.137741590085734,-1.5213463618690777,-0.9098368369248245,-0.6993499990836449,-0.6704388993431566,0.0071485484909404986,0.47842769150578907,0.364402731711464,0.05084862508105516,0.022591624092184383,0.012309252060523664,-0.03190032132987503,-0.08307388031138285,0.17656498159174738,0.1505290363547965,0.05324398638554461,0.38701622910837163,-0.03258812900832481,0.06320133548164132,0.19495301678587254,0.578470089032668,1.299871541213302,0.3330606809476032,-0.48672413775754625,-0.8455015362562558,-0.868994289985906,-0.885348243192711,-0.8597680064447842,-1.2125091822536913,-0.8913112260609665,-1.1595734853835757,-1.1094833476614294,-1.0867055765761313,-0.4327560185236307,0.22102368164911118,0.1345830645013542,0.08745530589528644,-0.0013635916420173888,-0.005461730967246558,-0.038781069183306364,-0.07124402295581213,0.047447723512103746,-0.0319209461636514,0.08503903197691336,0.47117747995280534,0.062297770369650174,-0.11844513823276512,-0.003044082594780468,1.168194771155378,1.4975314434780913,0.18253473534930242,-0.1832958985060427,-0.7062795910784129,-1.0829242062975655,-0.8038552810125122,-0.44533641779243366,-0.32900444933199985,-0.27368094819649214,-0.8420818082561904,-1.224646851391575,-1.2320366384637622,-0.3354959942356577,0.13290449942009327,0.02164062490658152,0.03430589114809388,0.0027132333792878527,0.015265387817310492,0.011725544525676609,-0.017515194839295114,0.03444384614478878,-0.43856971654239263,-0.05355962778608387,0.3824254545920205,0.3783536349921361,-0.39040726728274044,0.08607571237186469,0.9595065552172989,0.9161719171274089,-0.032768609624209834,-0.4639616983284453,-0.6876879920891001,-0.8213404862453536,-0.363726474753525,-0.1897149834651813,-0.06330156241058867,-0.5465792682487108,-0.7654720631148482,-1.045732184581908,-0.921813551975415,-0.0912966758128609,0.28713624614831557,0.053800695554801665,0.050010542822398814,0.004938152633476727,0.014886317100087221,0.010691789526912297,-0.023933568717798937,-0.09678193914651767,-0.39837093938609014,-0.25167168429949405,0.3309911460620895,0.1826835044116632,0.05635352089792841,0.42868690094599404,0.4824880908835477,0.26707362877341034,-0.16427805718654886,-0.4456824919853313,-0.22996892497180696,-0.09790461505731053,0.210192506482028,0.0025304414335035326,-0.5988367989704236,-1.1221360130122258,-0.5958577011943602,-0.6871936614853208,-0.4594208346873627,0.12788532400627722,0.35768503634041593,0.09937368082907101,0.004761714567914334,0.02062312017353322,-0.005908770873797931,0.0031860015487373836,-0.015931074587500683,-0.17350403453177596,-0.30401650801049807,-0.163324278712124,0.06064921724252339,0.27903116078514933,0.10420941601651969,0.32989050687479776,0.23336203781587023,-0.2587537728315967,0.029869873493155515,-0.014668906407195368,0.0990958680490535,0.3713581113171976,0.35002323047689615,-0.47030599446224625,-0.6486966407646777,-0.8939792994945157,-0.6232320886371968,-0.17337444797701548,-0.21927148087384096,0.250542407408617,0.24676318085341287,-0.0010579911117285107,-0.04299445889160227,0.01281148917209121,-0.00526370904177771,0.00585892476735963,0.007613851424072677,-0.11975896127483163,-0.23365816204212111,-0.34783376297032403,-0.7737442445282064,-0.43707054947087204,-0.16005840382001713,0.4818637545090681,0.6490938941048152,0.711267814319284,1.2068951297633825,1.1012561500650564,0.35645771433887413,-0.23377066484463432,-0.644486821072371,-1.3705085788671365,-0.9874993223491264,-0.24203470976581248,-0.37562333703637246,0.14405470783956786,0.19325895436857518,0.42015605548549023,0.2238447692564079,0.07309392386612672,0.012167855449238471,0.0015997970059421906,-0.007517118985072114,-0.01839954728848106,0.0022046889543611433,0.004611221999121458,-0.053240593070607786,-0.33594953613273915,-0.8971390603973245,-0.8902663298164999,-0.5547977537242714,0.07039629932977365,0.8126386285313616,0.677560788018279,1.6613843043701624,1.27533123588253,0.1149924849773659,-0.5793718762672213,-1.203815750245534,-1.4699060121468268,-1.0350148169413682,0.25659528943339266,0.30888059135291357,0.6521374601618352,0.8068461774070812,0.7133407759569358,0.04306724794495309,-0.1665506451997459,-0.008526184715126487,-0.0026532346124008674,0.019749384737122958,0.011782400110628347,0.041490499417005,0.05207168695617735,0.0068169270029909855,-0.03911694250805679,-0.41050311419947305,-0.6771810935800422,-0.7575374328852053,-0.6994573019778118,-0.21319259304747046,-0.3367978144056849,0.3060567473583103,-0.1503050251464663,-1.1789218316260603,-1.652376356238459,-1.6736338507720359,-1.3841115194797569,-0.2627663812087845,0.8508090388762524,1.0383402471619563,1.1551784640428342,1.4655239708057672,1.049013299047663,0.15901023933874675,-0.10826529995250804,-0.05029632911200212,-0.013452232096817155,-2.6887293366240696E-4,0.011326842626328111,0.027955463246143637,0.051339431741355135,-0.016519732786340696,0.17860929988347093,-0.14076315192823363,-0.2649563911932472,-0.8137514398696725,-1.267165887934958,-0.67302484012323,-0.8631633778035174,-0.33386897307775654,-0.4390254274390391,-2.012560601851226,-1.7343741038084213,-0.8875192523840146,0.08057944218962203,0.9562922477768101,1.0599748979891346,1.3322637599913374,1.6615899344499954,1.93347463498619,1.0119632746457852,0.231373049170361,0.018095344762740932,-0.060081109448365796,-0.0027753284233709105,0.01614347104500498,0.017385539509785743,0.04053276596490585,0.12238499501130111,0.12236929937762545,0.15939021720173732,-0.07365749381359203,-0.32075853791549724,-0.4667390593385776,-0.4759242128080265,-0.8232011769057698,-0.7392174463202362,-0.6691356722261502,-0.3515701234888757,-1.5889242765270075,-0.8077845779252607,0.33497021827141826,0.8535135117916526,1.053544409565705,1.3745311369019815,1.4282040388845259,1.5863669924452037,1.8475560714548933,0.9128231285811502,-0.01229857606205643,0.00646421260157319,-0.007999519409002013,-0.02341991690716014,-0.011475397509636116,0.022512463892421855,0.018968330469431596,0.1847985069368299,0.21692375739957312,0.09081149285566172,0.0037332954308139494,-0.3409245972676703,-0.3598094278444446,-0.4699062081801035,-1.2207845003150675,-1.0883353345343643,-0.8991827972075054,-0.7895442215480968,-0.8012936568372522,0.12604725096138342,0.906825178905044,0.8991445594471518,1.1112416506231273,0.9591463609102019,1.0706454683977038,1.2018452427934985,1.3547101935498942,0.7460959264570662,-0.05662123415541689,-0.06353973858674025,0.01620822179761039,0.01739277413571789,0.004608651121444472,0.00825257259094492,0.018708812699044692,0.147452145559576,0.16361732952546454,-0.024134106998248795,-0.1494950584559291,-0.35641416245779434,-0.42977255463770736,-0.5580633569108585,-1.2058904540379467,-0.6252871316315486,-0.5027437246240554,-0.36072068325565615,0.3061894511705898,1.305442972069553,1.6474537790117827,1.177920509643906,0.7001834618519401,0.2614952252507081,0.7311518320523216,0.6409717866734513,0.7149661758243865,0.4273100375453273,0.00949625811482451,-0.004512635234043421,-0.033734633517127056,-0.024505864753381738,-0.017433574529255327,0.01036974565023452,0.037118444190849254,0.18722646115937183,0.18288002073871035,-0.04000637525197764,-0.16411951086280205,0.015647540645894357,0.5496707955876536,0.35139959078992855,0.2309223979710607,0.5037062136459048,0.7112084101375048,1.3510100990287461,1.600349905373001,1.7453137477271012,1.0611807106333588,0.3341054091508522,-0.08009211353066976,-0.02290303996248986,0.6165559996136171,0.3249778054509584,0.4444563778245636,0.3328635462486193,0.03695244478845062,-0.03476527593030572,0.0051948349725638755,0.016227881032087048,0.013008329785621464,-0.009899631286362117,-0.0011876893203618215,0.17123375993787338,0.12618402125443784,-0.10211938453456298,0.07626771777596515,0.4942631872904948,0.933742543687471,1.0298138050729593,1.0288325361412738,1.3447989618251328,1.893549999309753,1.981069226652838,1.9131623756596328,1.4979380436472958,1.0212033528780988,0.4921566675215687,0.8418753180516729,0.30325737160091965,0.12108613708528386,-0.017856878789014867,0.2317629244219629,0.22775981974629658,0.14416603604634068,-0.012658347212603243,-0.02060770764243273,0.002815144975595403,-0.023559269977083495,0.020835356613711976,0.016664773149239087,0.01764054450095159,-0.05277148850420708,-0.049123794546272206,0.16165683993467178,0.3371231230306292,0.6771171363934232,0.7749632942230102,1.2265007098628589,1.4948682431574314,1.4278897163875954,1.3915670507593743,0.7314269603350728,0.9445434880733664,1.0337358347187018,1.1371442130280425,0.6554454431895463,0.46657193277300935,0.18755355633397236,0.14463786024855002,0.22033041777807547,0.19254974572382208,0.108765612148461,0.02331031648884524,-0.01748292975961243,-0.01427736203701699,8.513859549851756E-4,-0.01036830564911758,0.024035395057406473,0.01760496219741797,0.01591092006999175,0.015393726736164591,-0.01811366310641088,0.01793791357363457,-0.10335080184907613,-0.12330004248599362,0.005875679851886207,0.246182702212908,0.4432550487795571,0.20711469655287168,-0.07321159212687307,0.01858674958248291,0.3419461464720108,0.352476654140493,-0.029552909205253653,-0.13675180215455449,0.01247205010967917,0.07728790537034685,-0.007108287862358468,-0.01721862329760167,0.003845222061911925,0.01146948840304441,0.0030097240286949263,0.01190722616848427,-0.0028586918690390014,0.025205787075341022,0.02248109689762039,-0.009968829081374158,0.01906415836327731,0.011870150492580714,-7.59711576173914E-4,-0.024057870109903907,0.0055230122595651375,0.0012806708892345435,-0.015524667397774925,-0.011504246830983004,-0.02721777169095903,-0.015502283262630527,-0.010598380694305116,-0.046597343064248516,0.0038273403933559882,-0.020007575997226988,-0.037358084489519036,-0.048725213554699665,-0.021335792045984386,0.00842583269523053,-0.01267840152669872,-0.00534788845440947,-0.005832117085139066,0.0022279176710605906,0.013382184022872575,-0.016872352919960937,-0.015639665790736265,0.022170572779521645,-0.021887747572976308,-0.004538187757665106,0.003416155308358124,-0.019991759081161006,-0.013215637986361327,0.009299279250551113,-7.578461631551368E-4,0.012173027629027134,-0.014205100558671191,0.021290084255729855,0.007732081751832578,0.016816101783404404,-0.025488475894037275,0.015447346302358724,0.007148713295792115,0.01111981091400269,0.0028355280908128945,-5.33257896898763E-4,0.01740955607847271,0.001246776902717264,0.0057108555934532864,0.017843403583836234,-0.016938718355465423,0.003478515001342526,-0.021597198346955285,0.0032501009075857866,-0.0165836878169207,-0.005175231426011166,-0.021539595026737676,-0.013781503090267084,-0.001778890199660286,-0.015555392443466357,0.0067067619098901046,-0.02416834467545137,0.014769339142092202,-6.0270468307755E-4,0.030503676863442554,0.0496615740794857,0.018056753507444925,0.02316970500644578,-0.0020080274942698606,-0.045645280305820456,-0.08490545894846532,-0.019966527833851208,0.04242289951844455,-0.009257472826803354,0.005707068513504075,0.017240849191261363,-0.0022868007203701232,0.01356173618442422,0.02365076924520841,0.014170230578298996,-6.191965645952752E-4,-0.02202157363179729,-0.007671048113854713,-0.008848200474476792,-0.008392200224571966,-0.017190390964167586,-0.017606501332050932,0.012188464628659973,0.006268123444288369,0.04448538230920595,0.10691678459368077,0.14731027211388098,0.17589995072787565,0.1550931571746895,0.31462955596740416,0.309250943715556,0.284657910788368,0.15966090530715357,-0.026800630956642767,0.021255104313079053,0.1514706574309995,0.3163599359905035,0.24604943677141947,0.16823740446262989,0.13487965297344318,0.05140340780465941,0.019801676903497635,0.01739643713271874,0.007389126441536052,-0.01305263788734908,0.020087921477302702,-0.006887247670956817,0.020291330115040335,0.0026371709926574873,-0.017413006430432476,-0.004509160274193479,0.026733438223488663,0.07675639950325366,0.14191036612001837,0.3381695111366744,0.43110130478392045,0.38998662548632085,0.24033220971432545,-0.21246597895168376,-0.2857551806673313,-0.6847229763638331,-0.7320104572869115,-0.26561644856138406,-0.020342287928626458,0.32493930018358225,0.4528156485764962,0.7155481624205187,0.7288436127691118,0.49331516385743324,0.28433270910739566,0.019268183740702195,0.004095864550724632,-0.024285519051131316,-0.024241690205235485,-0.011160883720310452,0.01275572875451323,-0.005375454440995755,0.03986337406296788,0.09808302184324118,-0.02883613995776878,-0.06766396215203203,0.19202348567383284,0.2834035539665357,0.20041432037500465,0.0976817992550366,-0.1849209998348458,-0.7184745523092045,-1.5958012603801992,-2.5064589080221777,-2.21044807318028,-1.801726746482146,-1.0838789612016981,-0.014517039085342407,0.44487220124448873,0.7734376662966195,0.7721098079515608,0.76104044483138,0.3730320305560248,0.06932693053950978,-1.6870711134097852E-4,7.907827497412889E-5,-0.008364121540560402,0.004902004367565913,-0.012222189051939773,-0.03536497062411486,0.15407551500581382,0.1869183734275482,0.4211322689185489,0.7267233471900549,0.956895598811626,1.365507154913305,0.9725012590882828,-0.3426916667216853,-0.7942752582808325,-2.5406695216057886,-3.4551178090229766,-3.502356867654648,-2.256158584451503,-1.1750842489326212,-0.19053220023609782,0.6857869239856919,1.1331647503236417,1.3381189194664018,0.9672674881982001,1.0854968366116227,0.6216100387388541,0.100436100433156,-0.018022629378714614,-0.01943607919512335,0.01478529621596944,0.022172165378310252,-0.007276231085969129,-0.006989071599895284,0.3154875642585579,0.6729646771937959,1.0559445005129786,1.2118906918255408,1.6724145822728385,1.646382915906921,0.1292068580423481,-1.1151689715633575,-1.427441920570124,-3.1532227970224618,-5.048442509610642,-6.034290266732249,-3.2761370589730943,-0.23085587034923724,1.5830660125056448,2.3295815736359518,2.15459891809418,1.614055491970991,1.6682080717593892,1.1899741499319254,0.35607988482699937,7.848422627230822E-4,-0.06014468956856105,-0.029151338396359444,-0.0070608517974705964,-0.0033323789282285426,0.006397232586337787,-3.9892346582107787E-4,0.1346567155903801,0.7180419204024096,0.8134305352817124,0.9932103893138886,0.8229151758539589,0.2708243384659751,0.4193547834157772,0.2512223900280091,-1.0541190221267063,-3.282733430093908,-6.380071809709771,-6.055575587110582,-2.663982094024595,1.0064389406249796,2.905143150779117,2.9751464567302968,1.7475663322050121,1.33129582194076,1.0619850177574333,0.7374099893989042,0.08736124763542923,-0.10133825613954754,-0.10008392261264946,-0.037973566504677134,0.00876079923362977,-0.04247376035138086,0.09441871699917147,-0.009064919584548439,0.07091880077324274,0.6755236592778614,0.22545044693399952,0.6148537758817915,-0.27229643801887343,-0.01219569416884144,0.927667383172887,0.4124181737895357,-0.3027749066276814,-3.212368915426887,-5.981399440353354,-5.319784347949822,