-0.013915884730215936,0.02882461296568601,0.010559494700414816,0.031535253826140974,-0.008631293265879098,-0.011918396607598853,-0.024310329806758235,-0.0022469054150490242,0.017706488770875512,0.002903834291761358,-0.009328512097735739,0.04690745210143065,-0.027965439508064786,-0.029465527389618933,0.004634470288220611,-0.03588758310119425,-0.0010924011353360956,0.010711322269454072,-0.01701474354281568,-0.025746942748347386,-0.0446279651861232,-0.004408170601685363,0.01888393933236911,0.002968454476044838,-0.026501407503051248,-0.01812560610497494,0.0013923048309512599,-0.006374818758348652,0.0029745007163512107,0.012689743462595762,-0.006800065577343032,-0.013442481200729738,0.0033176014946158477,0.016288760494633937,-0.014870001888328004,0.01703370606345778,0.0327651480289605,-0.060516019393567565,-0.00668249562146769,0.023438387201535713,-0.012513171020880707,-1.0401093516198938E-4,0.0014315867947126333,-0.018544518186348617,0.019200024180438237,0.01737804319693299,-9.867724605096058E-4,-0.021532709454374143,0.01481125995443876,0.005522908076391317,0.004732637154835055,0.011672448281464519,-0.048199938019004684,-0.017833527706625617,-0.010982908033584125,-0.020900765767111848,-0.010445242508295734,0.06993122117668099,6.789142933012602E-4,-6.724076337239909E-5,-0.06097641023552165,-0.01691404840635697,0.003949223908412274,-8.559033287546466E-4,0.00212776317264635,0.011694553993713282,0.014637941178989394,-0.015215130761807208,0.01013144058330744,0.01499403648505859,-0.017058112631113342,-0.03227295459032532,0.04229902280757257,-0.039393576427025956,0.011901903757440841,-0.017583671909773526,-0.013590781109462274,-0.01565837361709252,0.0022188832549295523,0.08070342564947378,0.016204323057151294,-0.010536307725556178,-0.027052123748299017,-0.010171049311429583,0.03599337098224794,-0.0033292277169703105,7.640371967584058E-5,-0.014867164797190458,0.029988824097603273,0.0035246077711511867,-0.01660140658892582,8.047441538504792E-4,-0.034761547458524264,9.858444318423161E-5,0.017158806405566027,-0.04545362778790375,0.01827759072043078,0.05246787558921264,-0.008512067521289255,-0.027803015310360786,-0.008289256419487004,0.05533622250986774,0.00878714438120892,-0.009666440664454521,-5.4560529447828445E-6,0.003086085497735629,0.036711984179501965,0.050933123651288215,-0.015071391979674303,-0.03199003307562135,-0.01956177629212027,7.011896866583683E-4,0.00961335947690762,-0.006894280576621472,0.07515534797806547,0.03153109226139654,0.10597737693150064,0.05570903089860966,-0.016695899444793594,0.06964308933223406,-0.00229912018620904,-0.0017453679385282812,-0.022817656382734287,0.013108014777425401,-0.039217094915112514,0.01646276637276474,-0.04306887548232428,-1.4044366163519569E-5,