-0.06720263620761377,0.03007614580887662,-4.713505255256082E-4,0.00666499674674244,-0.002075034365416189,-0.01960466511628707,0.008494233769884566,0.03237198858333381,1.702282264668779E-5,0.010173677066611238,0.05283848962248059,0.04661561186037731,-0.02285911478822122,-0.0020336710012818964,-0.037058104349663154,-0.0028973343242678427,-0.02153674059991599,-0.014958835816688288,-0.012596994093198676,-0.00927580737310535,-7.369340342384248E-4,-0.009915665112609863,-0.004367529163436418,-3.20189946329729E-4,0.03536567349767861,0.027493256415770755,0.010796438050398966,-0.014660401160062765,0.018139660145014065,0.007823845718018788,-0.041746964652092045,-0.02164549966749356,-0.007518474382531132,0.03454893005720911,0.04705530627624041,-0.014286933870448113,0.016249209808454092,-0.019735691829291493,-0.005467102598674677,-0.0014423257984653827,2.5761259470759773E-4,0.015416586975145703,-0.014824710715179072,-0.028976428265141616,0.020301240344118357,0.03876916330884495,0.00969043329404266,0.03283662463241936,-0.005585712063895332,0.009086047036530051,0.03253183317900159,0.003659281941016836,-6.31093243039479E-5,-0.014823471026980065,0.05270326379329991,2.0734660128778686E-4,-0.027963342272443282,0.044839743800721345,0.004001729250339042,0.04149761771231888,-0.006711227523233325,-0.016708206186847784,0.07190260786352638,-0.016978838445043835,