-6.909023641864923E-18,-5.080094765581776E-17,-3.947106709431019E-17,1.2238188166070297E-17,1.0906789447785914E-17,5.950267861202206E-17,-1.2660246400042362E-17,-3.0081161137400916E-17,2.357810054934291E-17,2.347660131112342E-17,3.7150442316985186E-17,-2.082001925772644E-17,2.743480489181027E-17,4.414000182011116E-19,-3.5217171448660986E-17,2.7136834216704935E-17,3.779184825687718E-17,-5.135288099978923E-18,-1.651260002086854E-17,2.5857645975477928E-17,1.6322229400310887E-17,-1.1257243544277613E-17,3.2929757059699634E-17,-2.10413650275076E-17,3.44272267710928E-18,5.338185556478112E-18,1.795313878529568E-17,7.260179933969199E-17,6.154927196864938E-17,4.008238931114351E-18,3.874819035329278E-17,-2.1659685245357862E-17,3.5456204952513205E-17,-4.180226710430801E-17,-6.910207260322177E-17,-1.3367222059638405E-17,-2.1572699691222782E-17,-9.731621730466049E-17,-2.6291515419062883E-17,-1.0426085556400848E-17,1.068922557775263E-17,1.999281742282524E-17,-2.0678671515191256E-17,2.889690733568065E-17,2.5629796166709058E-17,-3.6945116941393436E-17,-5.542857520350443E-17,-1.673099269225529E-17,-1.678771492667393E-17,6.2267194798099355E-18,7.900918856738261E-18,2.948130200993563E-17,2.8102007772617595E-17,-2.8916134096218898E-18,2.4207130524502583E-17,5.398630420830917E-17,-3.861842917547289E-18,3.8141523214756864E-17,2.0153512278768767E-17,-5.189325288208312E-17,-1.4381535950668283E-18,4.6297640760084734E-17,2.167640683652293E-18,1.0662018256134222E-17,