-1.7784846821699255E-16,-7.399423999726366E-17,-2.839267490536496E-18,6.532309337500492E-17,2.2237304336634066E-18,-4.4093555490059113E-16,-2.3113921052221753E-16,7.885456708694034E-16,4.0450785658975256E-16,4.898376406726295E-16,6.125739314643519E-16,-1.9173930759798351E-16,5.106903072867924E-19,4.3723457297208446E-16,-2.453716176372605E-16,2.534061287731055E-17,1.436902801158143E-16,1.190594993501306E-16,-1.3078372986332945E-16,-1.2688733503311268E-15,-1.0423938846725173E-15,6.03812999764219E-17,-5.763742335029359E-16,3.6992635948952603E-16,1.1326187166877002E-15,2.0828791752321245E-17,5.390476946962452E-16,1.4953215523300803E-16,-9.988212743782996E-16,-3.934634443959596E-17,-2.2546795569082716E-16,-7.23931020956132E-16,-1.183612772700401E-16,-4.67573465258504E-16,-4.258211860847486E-16,-4.449464921774159E-16,9.110701733347622E-17,-5.1116275356680584E-17,5.434670077367689E-16,1.2668013118270178E-16,-1.0455969707699922E-16,2.7792342219904174E-16,-1.483796517725818E-16,-2.253599954440288E-16,6.481319432460597E-16,5.614846046168928E-17,9.718497015777167E-16,-3.9626890316829903E-16,-7.046021188866477E-16,1.2730411470332853E-15,-1.4807526938710852E-16,-9.282352634165348E-16,1.7220970713803514E-16,-2.1884451558909662E-16,-8.276407782213928E-16,-1.180187713256263E-16,-1.3871087714174982E-16,-3.494621011502197E-17,6.733007073970713E-16,1.0138821506885552E-16,3.124174968084806E-16,6.346508447715678E-17,-3.7679170406639677E-16,1.0838943097502308E-15,5.693258085365169E-16,-1.0551987800169028E-15,3.1344972075934335E-16,1.299574200707127E-15,-2.278658244494966E-16,6.219060017719942E-16,-3.110297304098149E-16,-1.4627374004872387E-16,-1.4160086237186212E-15,-1.0099787687003427E-15,-2.0077962494236652E-15,-3.6175433372813496E-16,5.864561430054185E-17,1.1167897604402919E-15,-2.0644910234913397E-16,-8.877570728646269E-16,8.207355099015365E-16,-6.511289281357054E-16,-2.082078052039649E-16,-2.621923980661371E-16,-2.268494665732129E-15,-6.093422251740865E-16,-8.274621893295873E-16,-6.672273584431846E-16,6.701135131540329E-16,-2.979571608026659E-16,1.3118608846929888E-15,-4.678980986555125E-16,-4.982455962983251E-16,-2.3893404438770473E-16,5.683620353138269E-16,3.608349933145618E-16,-3.239508428423833E-16,1.6080918482236898E-16,1.237088528950949E-16,4.2494535529500324E-16,-7.057079201938123E-17,4.479470210906224E-17,-1.5227950386569098E-16,8.45526134027005E-16,2.5872507810348857E-16,-2.781303287462149E-16,-5.377007931272156E-16,-2.551575280556308E-16,7.472688326762157E-16,1.470703430502477E-16,-2.3229758787671982E-17,-5.747696230305592E-16,2.627116477871327E-16,-4.633685356133441E-16,3.2232572267408827E-16,7.330373134229112E-16,-8.595250802522845E-17,-1.3356596281773151E-15,3.766270660576839E-16,-2.9042617914051053E-17,3.063467185638405E-16,6.339211583984302E-16,-2.407516164873353E-16,6.083861647068339E-17,1.2346203024344217E-16,4.969450199519904E-16,5.822052154250609E-16,9.217907084823322E-16,