-1.3223932286970587E-15,-2.4776209825277723E-15,-1.1281964341464391E-14,-5.872460180879441E-15,-8.242957857690741E-15,2.2898538217880552E-14,8.55804981049718E-16,-1.0292018297815922E-14,3.1640084407275804E-15,1.1838544036883415E-15,9.7179376064986E-15,2.389260086409657E-15,-2.0933954827575967E-15,3.1806442206765003E-15,-3.1511511487954296E-15,-1.4571145217191797E-15,-1.311593968807447E-14,7.38116693394871E-15,4.487065884361615E-15,1.3901978640878005E-14,8.8500214505216E-15,-5.248768054445358E-15,1.1724558097631137E-14,1.1903967108040005E-15,-4.238567727237014E-14,-5.463045217934193E-15,5.279453113954942E-15,9.266175433327536E-16,1.1949507129657951E-14,-1.0282296503083461E-14,-1.9014311240819525E-15,1.5728844680428235E-15,1.7844914832364383E-14,6.301111561621129E-15,-1.2986238998442503E-15,-8.269274526903265E-15,1.641348753115058E-16,1.8309950044033018E-15,-9.056957650615586E-15,-6.370387292988925E-15,4.574204317232956E-15,8.8134795776752E-15,-7.810190917150173E-15,9.060879284783857E-15,1.497137681337516E-14,-8.983748594405014E-15,1.0006477389898956E-14,-8.52257943175316E-15,3.575334849607772E-15,-2.5334293991344448E-15,-3.299425557432538E-15,-2.2372671502943696E-15,4.7341677606270456E-15,7.33556620815612E-15,4.976061045184679E-15,-9.91840935564953E-15,-6.854121989256511E-15,-3.487239143029402E-15,1.0194489573831289E-14,2.0487553855130414E-14,-2.7013205575143856E-16,4.563896756736493E-15,1.845149939633521E-15,-1.994526144301824E-15,-1.4232447830699782E-14,6.700813665326572E-15,1.6604622282645117E-15,6.575133048699931E-15,1.0541375957429406E-15,-2.3917488201490755E-15,1.166050419651091E-14,-2.3714643913472398E-14,-9.741156877942415E-15,3.1530326032166925E-16,-6.742490118565293E-15,7.747669148310155E-16,7.954317042082603E-15,-2.4900690545758528E-15,-1.4307151472794877E-16,1.3005184543369486E-15,-3.918565319704525E-15,1.042272168867835E-14,-3.625034332928527E-15,1.0347695205534503E-14,5.258339332954864E-15,-7.546861729489642E-16,1.0626358749667896E-14,3.1299934201485117E-15,1.1224588375729138E-14,6.32504278474628E-15,-3.604188880288267E-15,2.7577418164871422E-15,-4.2575338105084166E-15,-3.626158430260541E-15,3.860588409671769E-16,1.8986482587092954E-16,-8.795324018206354E-17,2.600668394401528E-15,1.1022208972743852E-15,-2.2573999914706434E-15,-1.840778680962084E-15,-3.021982754123796E-15,4.052586359532879E-15,4.527028145791375E-15,-4.06152206464613E-15,-3.1652165520271024E-15,-1.854662640960931E-15,2.1855031355789296E-15,-3.611664281393292E-15,-3.6721798367301625E-15,3.171986736335605E-15,-2.482639068550647E-15,6.778256096162947E-16,-3.671695715095731E-15,-1.2443603697495961E-15,-7.548097829563744E-15,-5.588906504395358E-15,-7.765885797992105E-15,1.5556630130100893E-15,5.944981878122497E-15,-8.310982731052002E-15,-5.508617339716099E-16,-1.1479471178424018E-14,-4.6376857772157594E-15,3.549847910630765E-15,2.9050756248347994E-15,-1.801745344611935E-15,7.001552420744045E-16,