1.208751962694038E-15,1.1815270497940008E-15,-2.14746501540858E-15,-7.783205224075969E-16,4.5715485232292696E-17,1.952378785533147E-15,-1.2757349031538296E-15,-3.612936286158811E-16,-5.591272661777084E-15,2.321633271511632E-15,-1.5546297185225091E-15,1.8581599110196242E-15,-8.916272738451709E-16,1.4600719101988922E-16,-2.27733612173606E-16,-1.5378267428493346E-15,-1.2242425276556242E-15,-5.609561891876832E-16,-8.1531011652301895E-16,-6.988645117276182E-16,1.6175849340395733E-15,-1.0212968584332915E-15,-1.4341415717633995E-15,-1.066163631183156E-15,1.5660313549589099E-15,-9.043389447203284E-17,5.591477308595173E-17,3.136569060303963E-15,1.8687133095963286E-15,3.3275749536847926E-15,1.06898010080704E-15,-4.638077234223482E-15,2.470604009137023E-16,1.0319167463310142E-15,-2.7202154789101976E-16,2.829886583109883E-15,-6.439239080096646E-16,9.68619822926356E-16,-2.715862644206755E-16,-1.9759701223233445E-15,-1.6313196098920477E-15,1.4628600275125915E-15,5.4334737490650393E-17,-8.046276373885536E-16,1.6035763773502274E-15,-1.419538342643995E-15,2.522466526974544E-15,-2.2585791527011156E-15,3.898735197966224E-15,3.93463735151236E-16,-1.250010097026492E-15,5.818604228604606E-16,-1.2268141013921998E-15,1.9574096596938254E-15,-1.4221833098072657E-15,-2.037908382202391E-16,8.768871430142473E-16,-9.668173085049424E-16,-5.572783353187977E-15,1.0944337670006416E-15,3.480868686120861E-15,-1.397822149202517E-15,-1.5935276695350417E-15,1.707565725517523E-15,