9.821160510003694E-18,-5.5998467296536024E-18,-5.950601322524787E-18,1.2549250290569568E-17,-2.8703019200710063E-18,-1.9502621709188662E-18,-1.6759749658499423E-17,-9.340961683046382E-18,1.2266772035659177E-17,2.5575775310597662E-17,3.0684725093080924E-18,1.4654325551053565E-17,-6.431969752559437E-18,1.2636621490210673E-18,5.448607381707798E-19,-3.0309644748251188E-18,-8.573610131799748E-18,-7.369861466055761E-18,3.867704695154475E-18,-6.7319471730472235E-18,3.814705109321029E-18,3.269920331495485E-18,1.5966741807882052E-17,1.144662858182623E-18,1.3626200657524417E-17,1.2084101939078033E-17,-2.4191046821193273E-18,-1.4781853149409568E-17,-1.3462766097333067E-17,1.2002336084249815E-17,2.134198709032685E-18,2.555548316987359E-18,5.421789148723258E-18,6.845031609082015E-18,-2.1886595741569797E-20,-1.1053104371900975E-17,-1.1514561979224728E-17,-1.932270413041681E-17,1.4876156246506332E-17,6.044454985781901E-18,-4.2297990984691705E-18,1.22804171921203E-17,2.4417595327617448E-18,-2.774594850628999E-18,-5.963567451663069E-18,2.931351202963933E-19,-1.2882923984301388E-17,-3.032387310234516E-19,-9.283224187249541E-18,3.010217846937889E-18,1.0945587261594548E-17,5.634758025337176E-18,-3.700062548209116E-18,1.1195162235851478E-17,8.842920973401048E-18,-1.8136585700536414E-18,5.841595720715509E-18,-2.6686076442091102E-18,5.647183229381676E-18,9.166201644930676E-18,1.8241935125580075E-17,1.0231782279290611E-17,9.594667769203588E-18,-1.3407751860918603E-17,-6.5370413111439734E-18,6.940182663348436E-18,-1.0683639184715197E-17,-9.078326975003842E-18,1.5163391725284789E-18,-3.9336171148558665E-18,-2.7763705040819563E-17,7.255022701947341E-19,-2.477125754381331E-18,4.0705564457495443E-19,1.3262585507739364E-17,-1.030549653399937E-17,6.56441699661788E-18,4.803532241781202E-18,-1.7703170433087413E-17,2.677174181577874E-18,-2.5305348302318465E-18,-6.613224174843421E-18,6.110505668739617E-18,6.3056127035945386E-18,-1.8284711788773713E-18,-5.657157839704707E-18,-5.886824852349416E-18,2.1301543985921162E-18,4.23574539351174E-18,7.206505145341956E-18,-1.1882943427851472E-17,-1.725380469644805E-18,8.683061145959505E-18,7.532481463117209E-18,-3.1150750740470946E-19,1.7325729788950536E-17,-7.225512889994067E-20,-9.808868537667914E-18,1.1278646001867192E-17,3.997247700407407E-18,1.9516159405474217E-17,1.1595783268656065E-18,-9.364092501734672E-18,6.7012540844802276E-18,-1.0871529542192518E-17,1.5349632976288805E-17,-3.3378288355015476E-19,8.960054030232576E-18,7.114130785259472E-18,-4.0050045754523015E-18,1.7239907774610155E-18,9.376017547925471E-18,-2.5901271602488107E-18,-1.6542727500041072E-17,-1.0494367701042587E-17,-2.195378661502168E-18,-1.5277484959083213E-17,6.516762100929354E-18,-1.0214827845802857E-17,-1.0856043004280619E-17,1.7322881881772245E-18,1.4442192949108605E-17,4.614611191234115E-19,-2.9951510319570543E-18,-7.338536430420653E-18,-9.030114850223164E-18,-4.871127841179713E-18,-1.1651836036135815E-17,