-1.4874029411387145E-15,-1.0346757755770015E-15,2.89649604802203E-15,3.720852804864196E-16,3.198983904020621E-16,1.3176575129378561E-15,-2.511083672892322E-16,-9.311986930383925E-16,-1.8289566050567316E-15,-8.176764801572866E-16,-2.048242767327138E-15,-1.265905263490247E-15,3.910877456100049E-15,-4.737034198890559E-16,4.609507374135302E-16,1.4456800552936318E-15,2.3846497882852203E-17,1.5112002665144009E-15,1.8865373653347564E-15,-1.1276286550330044E-15,1.501753164189555E-16,-1.406480705731198E-15,-2.9838281152979904E-15,-4.542801797277055E-16,-2.6802341910511716E-15,4.669324527115854E-16,-7.952614148727091E-16,3.1025582608160545E-15,-2.334098164384113E-15,-1.6699529370514954E-15,4.469056708764748E-15,8.436436589835958E-16,-5.034716449212385E-16,-3.4726562462464746E-15,6.468202090163728E-16,-1.4462686072968307E-16,-1.7329015325179365E-15,2.521676824636044E-15,9.145821678887189E-16,-2.0005988827289953E-15,-9.983388836161652E-16,1.9617425850414492E-15,-4.0489690023624496E-16,1.8238085666097198E-15,8.939422300873598E-17,-1.4138969008896352E-15,1.4050916531165349E-15,-1.2410769194974355E-15,7.870017659994243E-16,-1.142725042781922E-15,9.782281219341787E-16,-8.517651275890584E-17,1.220175288278095E-16,-6.725333862025867E-16,2.3933898582498297E-15,-1.0908031547408065E-15,-3.551265905822764E-16,9.90774162454755E-16,1.6331105494359313E-16,-3.3927048812334684E-15,-2.0830751174692437E-16,-3.1853638602510505E-15,-1.2104184587232804E-15,2.1237564097858896E-16,