4.19321067555212E-17,1.4397321956365528E-16,5.919725164160093E-17,-3.7933917225742563E-16,-2.020417495509247E-16,4.3701458149928945E-16,-1.2576328504523405E-16,-5.055114255684982E-16,-1.9925471097736075E-16,-1.321214502050938E-16,-1.0987390537385287E-16,-1.5500784742756933E-16,-6.480968424462739E-17,-3.116072235247324E-17,1.5161001922091952E-16,4.9847689475400505E-17,-1.3707091501667255E-17,-1.3555590980312704E-16,-3.513069741694811E-18,-2.964721008241564E-17,-6.437223443608445E-17,-6.363147487679298E-18,-5.710181721769404E-17,-1.4970555263818736E-16,-4.27502649618997E-18,-8.087725416843551E-17,-6.585943561227292E-18,-2.515956409462464E-17,6.091961841948183E-17,1.7537922872725686E-17,-1.449077764650759E-16,-2.356554680017497E-16,1.2699272889289796E-16,-6.798099288333275E-17,-1.8215851198113347E-17,-8.90993799564974E-18,-1.054911665959055E-16,-1.665626486870637E-17,3.814872871377469E-18,3.218329817302921E-17,3.355286392648221E-17,1.0363281187645658E-16,3.210362469894078E-17,-7.410912479739223E-17,1.296772262150851E-16,-4.011854429751854E-17,1.5023655049924404E-16,8.41392707564533E-18,-5.862937650956925E-21,1.934555305808104E-17,-1.020046265799884E-16,8.264963733024821E-17,6.91176557395671E-17,-2.9031812735468165E-17,3.601247580957565E-17,4.1182119025371736E-17,-8.109881206487728E-17,-1.0047767980352324E-16,-3.206626009170132E-17,-7.367885591412734E-17,-2.8680588330352835E-17,-7.147332607179303E-17,-3.815879681772271E-17,1.0712515534837412E-17,1.0006723290251366E-16,-1.707962690953277E-16,1.7858156682373227E-16,1.1827622828258484E-16,-2.576792136414672E-17,-5.804863270545052E-17,-4.823631233446878E-16,2.2740460367954843E-16,-1.9233758011762333E-16,2.5310146883168264E-16,3.4798814955588255E-16,2.8450523707867562E-18,-2.30558256699797E-16,5.738978489600233E-17,1.1157391512956248E-16,1.2536201104870933E-16,1.4318632510218957E-17,-2.4407577102377015E-17,4.0524829505656914E-17,8.793162899781944E-17,1.4235169872225523E-17,1.8319979944064007E-17,-6.824712623167817E-17,-4.001542995062272E-17,-2.4766696272575064E-16,-4.0189849922132885E-17,1.551042397503262E-16,-1.0691362912054238E-17,1.505409640806309E-16,1.3033822201488684E-17,8.242579180439831E-17,3.1898653858842264E-17,-2.3025470865970515E-17,-3.4907038006381876E-17,1.7105890710640625E-17,-9.788557034141493E-17,-3.1821729285122756E-16,-1.0581496389038173E-17,6.655303692280936E-17,-8.57725407067123E-17,4.8290407892870793E-17,-3.486421111484001E-17,8.465402623901476E-17,-4.815944391704569E-18,-1.1963067363502262E-17,-9.40337517080632E-17,-3.237561697894318E-17,4.769265792094191E-17,-1.0628632125704832E-17,-2.628068876733401E-17,-1.3093438200478538E-16,-4.643269374155145E-17,2.1853759886642452E-17,1.4402090132359301E-16,-1.8532181379842472E-17,3.576283850847568E-17,3.0465304861915303E-17,-3.001512097633446E-17,-8.381296936765348E-17,-5.772075702443241E-17,3.9164724329285065E-17,-1.0773298898688516E-18,-4.8033316063916484E-17,2.4649755163334053E-17,