-4.189249688809611E-4,-3.1872999579652636E-4,1.0721450434112147E-6,9.80479332245478E-4,4.5660960678273844E-4,-5.7156696383838494E-6,5.02750266119516E-4,0.0016371932029682218,8.257879803910625E-7,0.0026364590155314605,0.0021075907571193727,4.727927720052636E-4,1.5686627117485105E-4,7.553889649919683E-4,-1.6458033801551182E-4,1.1497102433063907E-4,1.246993217418468E-4,-1.8954524992287916E-4,-3.1411199656328404E-4,5.038202712449755E-7,2.870599008235431E-5,1.9115083539992674E-4,5.818758527841566E-4,-7.398744628957688E-6,2.8175035391772346E-7,0.0013343610323185181,6.781785064302586E-4,0.001206354042857769,4.513726902803342E-6,8.375677947759302E-5,0.0017811781238584554,1.0699655183882885E-8,-4.3593138136206966E-4,1.4832203569106035E-5,0.001895282977914882,5.786744149640525E-4,-6.675450854419017E-4,5.333071539819237E-4,-3.7215832563738406E-7,1.3489647541137717E-4,0.0015383937642058176,1.8889865576968585E-6,9.656295580600838E-4,1.880596128452008E-4,-3.986627031294063E-8,-1.1044230049781352E-5,0.0021860341439911284,8.87558760902717E-5,-3.4347956362531536E-6,-3.075881625114173E-5,-4.1215210180155036E-4,3.1173341569090167E-6,3.137309579871013E-4,9.49379997465159E-7,3.0127366070743947E-5,-1.3629176574079477E-4,5.5483052414403496E-8,-4.103734084293444E-4,3.243775224528991E-4,-8.156103623937743E-5,1.034719696908258E-4,-1.1239145485704838E-5,-6.294886449106167E-6,2.5425877862714214E-4,0.002151731005819451,3.1544625052457135E-4,-4.8466522078041474E-4,-3.358832022633121E-6,4.485975415498127E-4,1.1390269895505375E-6,-3.4521664534158613E-4,2.5360299338261956E-5,0.002896518990743777,2.376080239548724E-5,3.2665283165054084E-4,6.943184022246687E-4,2.265329270307988E-5,-9.948038782006726E-4,5.571751517914459E-4,0.0010681013924975155,2.6815049168924438E-6,-5.857977586378482E-4,4.924615953468122E-4,5.028162604139484E-4,-2.6275079032992836E-4,9.566726339611456E-4,-5.187729347453185E-7,6.300451363413456E-4,6.725804482580464E-4,-1.4497223189459172E-6,-2.212264014664198E-4,0.0013446105393782487,-7.514240693990461E-4,0.002278675506158606,1.0933853743792373E-4,3.0066715948236383E-6,-2.969253923347963E-4,4.158234652180776E-5,9.896682662143346E-4,-1.734151832873195E-6,1.0203624475713136E-4,8.730130369465762E-4,6.783034061780967E-4,-3.0668623413014005E-6,0.001711858032636278,3.83849719165849E-6,0.0021574717648957633,4.110589078059694E-4,9.012256542254453E-4,-9.56161970562342E-4,-7.804129932593022E-4,2.4609815567886735E-4,7.422169114680901E-4,-9.040853500969466E-4,1.4401134231183845E-4,0.0021040724630211663,2.694803578577959E-4,-2.9473666110510393E-6,-3.52280133451592E-4,-2.042630091528054E-4,1.262545096468711E-7,9.03772907346269E-5,-1.0030393194304959E-4,0.0018597304369321972,0.0012630283021435222,2.9614140818437655E-5,3.5057417894131964E-5,3.0667294210807224E-4,