0.9392900227100085,0.20202756484385334,-0.04616320368302458,-0.7383941959787339,0.5786265855212807,0.017165038059034497,1.051921622054037,-1.2180511748638942,-0.06113774367910345,1.5225319122118532,-1.3034587740452297,-0.2800824851017,-0.2552864170099284,0.9405343903738047,0.09073332543110868,-0.1453075179914159,0.49955815131303477,1.086162159154295,0.4302752354928556,-0.03956199629728101,-0.0010438196472654592,-0.47767688396893737,-0.5080800980023056,0.050822285462109165,0.0693930940165975,-0.9730319068878419,-0.6298215480120317,-0.6372959829779894,-0.0491358423670601,1.5531340986434448,-0.8990532475290428,-0.022541076374572155,0.6444170424224087,-0.04796786194050961,-1.2645490524411347,-0.48406767037631226,0.9233526667425773,1.5056965560122226,0.0571922723387956,-0.07413446340551219,-0.5788302791901826,0.0028395455534128574,-1.3611879438140542,-0.6928667511000478,0.552746506635717,-0.05728447376182573,-0.9099287868540848,-0.07035110936699152,0.03435335368204896,0.2351795854426547,0.7628277799555945,-0.05869613324574507,-0.8083043806361535,-0.037139356892490975,-0.19039561867165494,0.7002110337534463,-0.012891334148578567,0.47515180434489646,-0.6834280271676794,0.23847539323063777,-0.7972802875912072,-0.022284747384001668,-0.03274401554932504,-0.46908385769477756,-0.9397816325859257,-0.5082672652968975,0.3883059252629826,0.03911905136740925,-0.9371155865491562,0.0058520200444769676,-0.5187558251606008,-0.006313981924233301,-1.242701364601063,-0.020402940291036786,0.7744678290247105,1.2592253778597888,-0.28925140496399504,1.0378501257138604,-0.622843496842338,1.3587477902851557,-0.05750742786573933,0.6944009383209621,-0.5658839868075044,-0.6695184063882047,0.8012498319113274,-0.821215636310163,0.05166310005412946,-0.38849046949547994,-0.4137781643010731,0.05257626738020433,0.24043231559665665,-0.9857583546838141,0.4534039562346479,-1.084164380147272,-0.18727395742528508,0.04218383372089045,0.23867157311927847,0.12019577079813172,-0.7423534959289642,-0.020109187021235216,-0.15964683339395666,-0.6745832332064791,1.4785420418217727,-0.04827122814230421,-0.8113679368312,0.013864558098386772,-0.9575790709469568,1.075160462954417,-0.7406910034208988,1.2029698029235654,1.3266533394256868,1.2088562640140026,-1.134213650869904,0.9203120397176747,0.9099827474574588,-1.2054611056113889,0.47483625790427847,0.01903158951559685,0.4765094259793553,0.419695413297945,0.03236072749652482,0.0024910755035367636,0.5737756027889547,-1.1892950109093612,1.349241483600205,0.23833094418397044,0.36433342551225184,-0.5186414152398258,-0.8995118242093171,-0.30724478050113807,-0.049964212443509876,0.8183744993667884,-0.5392497141792865,-0.013410726892523516,-1.0822557228316354,1.2020050037728855,0.01964908969511413,-1.4971368805167837,1.2857644690631775,0.27356480542381845,0.22212589805434452,-0.96969046155869,-0.12195324461861151,0.16220078293558063,-0.5094699043841298,-1.1061169283228702,-0.351287695373714,0.03627772180954132,0.04505899341629467,0.4785236633024466,0.4378617978651221,0.03499822311363568,5.142571413402612E-4,0.9137315084382309,0.5609698190665986,0.59315984267377,0.03298068742901141,-1.5525731395596456,0.9588460682894085,-0.021887400777467484,-0.5937799799816552,0.06014347232067361,1.2750549311101653,0.5296963484449883,-0.8860179597614094,-1.5364019838221838,0.008880023820603503,0.10311660747669009,0.5943568710191801,-0.05725145649628702,1.3683925826046406,0.6380816391153473,-0.6364967245196864,0.03430368797958824,0.8449345976156747,0.05066989577070784,-0.03808026070762527,-0.23091290234226516,-0.7630237872548242,0.04236627781337359,0.8080625779327314,0.03355988751574073,0.1622489687631302,-0.76790750144666,0.007750481981158206,-0.4395306311967927,0.7847849161764532,-0.17479248992733165,0.8029706411264861,-0.04414282412179062,-0.04471279385027648,0.5061689940990683,0.9610562509109254,0.5081984928505922,-0.4541892471224877,-0.03367958337423493,0.9316926008339991,0.008609500990358017,0.5800572757820712,0.015321481074484661,1.2892383698305194,0.03994011203967095,-0.8015562370446422,-1.2445835805425485,0.30138180283194355,-1.0407617721992508,0.5632497841752203,-1.389220564905249,0.015431713001468526,-0.744992633390677,0.5506099034461064,0.5858060739525672,-0.8129175082982156,0.8125875966416265,0.009192677335325953,0.4156222154116462,0.4546125273122245,-0.020010919661453904,-0.260905458236518,0.9690730563017698,-0.3796104847591528,1.0657487155835539,0.097512529392955,0.03542582083946158,-0.28948639298803835,-0.10386218406659693,0.7672297180949683,0.021819044438905845,0.19119465855995596,0.7581246231902672,-1.476945696564118,0.04579598168238619,0.8751374344042598,0.029038698780720296,0.9219450239968064,-1.0489745208756927,0.7306373582630323,-1.1966928830714632,-1.3420861694375021,-1.2426108508368954,1.0846921520672723,-0.9801382974863376,-0.8925661999518572,1.1734877983161451,-0.5500222354817519,-0.01860542703162308,-0.38891063538997545,-0.4553146427850456,0.03544746680398359,0.09886708869403178,-0.6482981048682174,1.1584970158864318,-1.2977073552745408,-0.35028540212355563,-0.4018124811692495,0.4526167972078816,