0.5188265711403971,-1.0332491340126695,0.04094200720300506,1.1291460240625197,-1.342001985544867,-0.15394356268940332,0.5114756757341893,-0.6783059922160246,-0.37872008944686286,0.8172226059125602,-0.5781333080791394,0.599472178174597,-0.03491268028583424,-1.6290218843457547,-0.003446830229694743,-0.5605659642046975,0.9370154372414478,0.04084324715794162,-1.812696381796775,-1.3775602335521466,1.021995318580867,-0.883453076121322,-0.4369755665726856,-0.5801662505111795,-0.007549609827490526,-0.31652044386105554,0.04010078837038547,0.9018159024162622,0.26800799000892017,0.9413210707308293,0.636178637912173,0.27361192431379555,-0.5572061416428912,0.574619738611354,1.2803046953637454,1.0798526516472038,-1.3147124678574236,-0.27362428492102214,-0.47572396092909347,0.6240953494630412,0.041293680975170215,-0.011530076169889804,1.2599664235408892,0.4995593065944145,1.1075117016481604,-0.6244151183149016,-0.4171091851847603,-0.29605021131050474,-0.05492603174598397,0.0597117535475464,0.8876752305781183,-0.7004944203635476,-0.023887719235986704,-0.05994986938966906,1.5391688809427753,0.6035172785410465,0.86509378384737,-1.080595401277574,0.05850324335586673,-0.05115392795767961,1.3572488408840413,-0.30983352942169573,-0.04049759709197325,0.052794572025750455,-0.03768262834772728,1.1831140849997224,-0.5895019635402395,0.19606714628795105,0.22758036043614951,0.4567182138348657,0.016249372838998712,0.011525071074001301,-0.04756217934063929,-1.245576048572186,1.3871293839212728,0.7615640547162816,-0.4250941113067835,0.03684002590601479,-0.19958046386333014,0.07846058350354541,0.6019127167547627,-0.08697178887806171,0.13079848087258153,0.6754621895190912,0.9531904040993887,0.03067325832291702,1.1913982889494696,0.019938178307853313,0.8210219094880726,0.26669683443394837,1.136332709268777,-0.036024048503643956,6.442631087967389E-4,0.08996308309650757,-0.781908041187887,1.143254951682143,-0.4542131985871794,-0.0624218812583136,0.02555809988162184,1.1438830004526614,0.4141886643710615,-0.039349316345331495,-0.023986019835627048,-0.16222400161962905,-0.5933737342188363,-0.5058465679311396,0.96500950907527,-1.5230945541920007,-0.03540887506290749,0.32624951270910646,-0.037773332089765806,-0.03525383942460085,1.942273495692337E-4,0.05491257389345918,-1.8214910610798423,0.012602064153884122,0.007825365383272994,0.03593227469663481,-0.051894660074739044,-0.3729111207504911,-1.5722562292606757,0.2229597737256362,1.0099525534909368,0.6096217702446961,0.34026209867167406,-0.7330839873880195,0.8820687982163337,0.02268446014778552,-0.531104965069972,1.0795811660670274,-0.15008082172374673,-1.175890251449074,1.3974032877661222,0.0364462051858352,-0.4653923712853189,0.6994946147878633,0.27086530391329816,-0.8233814152656868,0.5361897019847051,-0.5167664052797317,0.022476715297784125,1.6015473898092918,-0.041734456231546,0.5699150430444363,-0.9255170112973808,0.028013596408913186,1.8235798888349206,1.399704740389381,-1.0545656627926878,0.9608928872595848,0.5256069105586759,0.6292447424785083,0.046406541399654534,0.29613716807012436,-0.01733014138372889,-0.9175671006879608,-0.2447666817814343,-0.9903923633131123,-0.6851918533044098,-0.35899639943022615,0.6024414494888288,-0.5347342306542991,-1.247879093459479,-1.154408892602354,1.2980613601530913,0.17827269175400698,0.4802189988006868,-0.6005871808638444,0.06565294024386346,-0.031104664406057244,-1.2523474743575953,-0.5966387827323134,-1.0539841888375183,0.6112591141769173,0.4741493240752141,0.3930951073720596,0.03453421581790854,-7.010026346046361E-4,-0.9521302991670281,0.711875619928976,0.01609927350358863,0.04112078517140707,-1.5430993094396839,-0.6869910340220751,-0.9281362945482206,1.0660716868423987,-0.03495408894484819,-0.0014835500332352027,-1.3241903791563436,0.3490322635153598,-0.04841988148036069,-0.048316114256893944,-0.0071750069845508075,-1.2336935725513707,0.6710141523408228,-0.25957732190895005,-0.335824038893876,-0.38414452890744916,-0.05939333004052087,-0.014114412529062044,0.033211644739474314,1.2104719007304956,-1.4174513065849692,-0.8150512167297432,0.3065833622411904,0.05647659762742738,0.19702869967932987,-0.16424337873392977,-0.6043776116077652,0.10452089473519954,-0.19758158247729818,-0.7539872324113149,-0.9792156952631504,-0.02744037574034542,-1.1828808777123547,-0.05811146347989365,-0.7888993675219902,-0.18383709476580717,-1.0540223418948196,-0.00410848310463139,-0.04515750747850544,-0.19405240957545258,0.6849044514041635,-1.1860555528565961,0.4050429422379938,0.024564365667549083,-0.06150853499493778,-1.0967626815173308,-0.39940932370542004,0.03663381655497812,0.03164706574691423,0.16949818074367107,0.5876654404211639,0.47438733285883716,-0.9800755958322103,1.5383755615597172,-0.05226744248705417,-0.3930092585367486,0.018405135789208424,0.06122105046423,-0.04175281980124356,0.002824969252035036,1.826751409605402,0.0776310836732761,0.059948421477983946,0.03930616908570756,-0.05075752880405117,0.3527345232327343,1.5529696361972265,-0.162349654847732,-1.0207607064916082,-0.6603154995606219,-0.37518790990383627,0.635516197334714,-0.8370166247973332,0.043737908184281825,