-2.2014894931898554E-4,3.858342745855127E-4,-1.1726322131325272E-4,-3.449533496138436E-4,0.0026290536517658727,5.947117597147522E-5,3.09451464786244E-4,6.140538298798994E-4,4.1600283813326375E-4,-5.114217859595013E-4,0.0011898018251606478,-3.370644196098864E-4,3.747252937061913E-5,0.0030163580188729386,-1.3724195946207478E-7,4.8131177180236166E-4,-7.080014025080218E-4,-1.0721767227333509E-6,0.0020996710998677087,0.0018623353972639005,-0.002995069681049442,7.390111085688136E-4,5.572203012418409E-4,4.935829495573532E-4,3.139791759509436E-6,2.141491171823436E-4,-2.8555301140862826E-5,-0.0011122967053512783,-2.8233505303806514E-4,-0.0018019743051242247,-6.416168939422677E-4,-3.5811694386930103E-4,5.00204274566737E-4,6.714116401200351E-5,-0.002435577237176046,-0.0019789435795998984,0.0016906197824682217,3.178643194056026E-4,7.158711419474284E-4,-1.1020452192215831E-4,8.846940759394053E-6,-1.8598032383593502E-6,-0.0021457350891590475,-6.506727670405022E-4,-0.0023467599649995992,5.254222052375646E-4,5.826780568530839E-4,6.543284713605349E-4,1.3800041803782502E-6,-2.340413643261318E-5,-2.77423729575074E-4,8.689079756293503E-4,2.290507151438762E-6,5.483693071566907E-6,-0.0016819594285515148,3.1349775144816285E-4,-0.0016384529128151207,0.001540179293495546,-5.520539059994023E-6,2.5978878840641465E-6,-0.001025533151690131,6.187307171244991E-4,-3.1423409967878E-6,-3.779022723495626E-6,-8.661217872804805E-7,-0.002891381343349186,3.0442751333451543E-4,-3.8090046235368804E-4,6.690749812095024E-5,-1.3629060554407225E-4,-4.1680109402426385E-6,-5.059002250013819E-6,1.2127163976575466E-5,0.003802106593315674,-0.00319358205011975,-9.452146678887785E-4,2.6098538479628884E-4,1.962463584009523E-7,7.288996379587117E-5,-2.0914331421361726E-5,-4.5798387925757183E-4,7.649899164329616E-5,-9.52468797212851E-6,-9.729976475934968E-4,-7.490975733754556E-4,-7.76398684045301E-7,-0.0014513358566284878,-7.408630620375894E-6,-0.001280941799189253,1.0245622279515079E-4,-3.1023980785013045E-4,1.0584931196605259E-6,-2.4444622989496204E-6,-1.2219689022281369E-4,0.0013438337974845138,-0.0016314560515992785,4.3776851188043767E-4,-6.198894623059553E-6,-1.6425258029763058E-6,-5.085746533287536E-4,-4.2427018726229245E-4,-8.577663482502438E-7,4.001284815497383E-7,6.14169729523013E-5,0.0010505052762754428,3.1400288824286275E-4,-0.0012003334753726627,0.0024694790439323986,-2.4691600244904207E-7,-8.334652203031988E-4,5.10394865183691E-6,-1.1023560653595488E-7,-4.738754743387071E-8,-4.667886045397057E-6,8.763744415942174E-4,2.570341107487563E-5,2.2583234109822843E-6,2.8060260877736967E-7,-1.989569577390951E-7,6.2302051464554E-4,-7.68315306193164E-4,-2.3890652057405136E-4,-0.0016680492379330236,-6.43147175269331E-4,-4.932714472285996E-4,4.693614053946017E-4,-4.0590468224108406E-4,2.1852470267378012E-6,