1.1151361,-0.8515763,0.49250686,-2.429473,-1.3565359,1.7902209,0.20544451,0.7811698,-0.51587087,0.5652523,0.35176462,0.01792408,0.10784001,-0.4399496,-2.0033817,-2.8187335,-1.7153811,0.45533225,-1.7733918,1.5297834,-2.2519045,-1.1594003,0.012705045,-1.1274228,-2.9800124,0.66441965,-1.1658098,-0.32462856,-1.1845953,-2.0178363,-0.9222734,-0.8625662,0.23157297,-0.43396553,0.45871523,0.6954152,0.4819728,-1.2431593,-0.48167226,-1.4229354,0.13596329,-2.7845228,-2.7915227,0.9898016,-1.0168995,-0.5592047,-0.7998409,-0.15053461,0.73348075,1.0130296,0.30431536,0.770085,-0.1830994,0.47330526,-0.042107597,0.1553513,1.0051596,-0.16518138,-0.063234426,-0.062718235,1.0847023,0.4318762,-0.48947006,-1.9235837,0.83282495,-0.9771592,-2.282283,-0.58633864,1.0844955,-1.6688447,-2.7078183,0.0060383487,-1.3263948,-1.302292,0.21061221,-0.88964903,-1.9326359,1.0660325,-0.52375674,0.13977306,0.28927162,-1.3901935,0.32329315,-0.0284408,-0.065647975,0.6033448,0.2923939,0.31724173,0.39152682,0.9604888,-0.045860577,-1.072214,0.33209634,-0.1343476,-0.29733318,0.37800527,0.15037924,0.14718679,-1.8652977,-0.24085952,0.057144005,0.7461557,-1.5209475,0.7241996,-2.5228176,1.0406824,-5.9209547,1.2456187,-1.0060867,-1.437482,-0.5392519,-0.8268382,-1.3148643,-4.0229306,0.4834924,0.29270506,0.8403398,-1.3298137,-0.5391046,0.14921199,0.042525053,1.0996822,0.4692624,-1.9122449,0.18896492,0.1976809,-0.35265878,0.8222346,0.059336253,-1.7200488,-0.7525397,1.1766666,2.0776443,0.98072195,-0.017595682,1.1280177,1.2180619,0.13903914,0.5716138,-0.5941344,0.3638671,-1.0959052,4.586698,1.9632741,0.83660954,1.1917974,1.8742702,1.6160581,2.6672492,-1.5474803,0.68785703,0.7661817,0.3309463,-0.9839953,3.2396088,0.76673174,1.5603664,0.69980305,0.7152564,0.79132,-2.030192,-0.39969546,1.8530405,-1.2045888,0.5920134,3.0791357,0.7940324,-1.4125215,0.21353047,1.2716211,1.9259564,0.9370321,-0.49442992,1.9033256,2.1656706,0.22912899,0.7406958,0.0016885237,-1.8029094,1.0710945,0.10697202,1.8296038,0.15872483,0.6573248,0.8413472,1.3884852,-1.0383095,-0.43662474,-1.8559887,0.19164819,-1.2671623,1.5978055,1.3720208,-1.5746561,1.674451,-1.446383,-2.8727298,0.91809946,1.7444779,-1.7291585,-1.2650592,0.49622214,0.44396883,1.3845015,2.7985034,0.96927017,0.35152838,-0.9497456,-0.81467927,1.918117,0.2141577,0.4850788,1.3382978,0.75615484,1.1112273,0.4542375,-0.6115367,-0.3069561,-1.7571249,-0.7928768,-1.0227021,-1.7984494,1.893315,0.12524301,-0.64426416,0.5687439,-2.5166776,-1.892762,0.39988223,0.38430637,-1.6873507,1.0671359,1.9974699,0.6969662,1.9898422,-0.5406997,2.195109,-1.2307365,1.8675313,1.4317658,2.9946764,2.6527948,-1.345449,-0.13164796,-0.7933925,-0.17769074,1.8314447,0.01845913,-0.42059568,-0.8795781,0.437397,2.3555148,-0.13501884,0.6390232,0.6068222,-0.017606672,-1.512203,-0.57059616,-1.5331147,1.3599764,-3.9100852,-1.227101,0.17959507,-0.34003568,-2.3045025,-1.3855697,-2.401998,-0.2431174,-1.1902133,-1.3960233,0.7751497,1.2044238,0.7102184,-0.4174585,1.0973927,0.32610568,1.8145325,2.8349712,-0.06778485,0.9227334,3.858856,-1.994597,-1.8633766,-1.4663339,0.73968166,1.2678313,0.7850266,-2.8614852,-3.0684495,0.49364808,-0.52381176,-0.96408594,-1.3643628,-1.4860185,0.8352423,0.6853508,-0.7293787,1.7581488,1.1062682,-2.2759242,-0.28026748,-3.4029164,-1.8784395,-0.163732,0.24518406,-1.4680675,-0.45235077,-0.9461294,-0.007653037,0.7816199,0.70044965,-0.5643563,-1.8962575,-1.9604434,-1.2609358,0.5842069,1.622008,-1.2913055,-1.0024028,1.6512281,-1.265806,-0.15390271,0.5667762,0.6268153,-3.6363711,1.4744198,3.786765,-2.82231,2.2315955,0.51043504,-1.7743816,-0.35182464,-1.4514894,-1.4841863,0.23471773,-1.061696,-0.62481815,0.74602455,-1.6508126,-2.4068413,-0.28327274,-0.21862102,-2.481411,-1.1293284,-0.5998871,-2.7296486,-1.7318107,0.6817853,-2.2353692,0.4086114,-1.6232529,0.7367214,1.2894675,-2.0610647,3.5300894,-1.591976,-0.46240282,-1.9055974,1.1038874,-1.4339565,-3.4869416,-1.3685046,3.5562367,0.030885411,-0.14464448,0.79440075,-1.0758419,-0.19898157,-3.4595711,0.4603889,0.60209846,0.3365688,-0.38939273,2.031527,-1.9011796,-1.2188431,-0.60383457,-2.6245408,-1.5492266,1.4476985,-0.29328346,-0.26974678,-2.0450177,0.6028918,-0.67283094,1.012979,0.5904929,2.8784175,-1.6417621,-1.3546299,-0.6508422,-1.1397679,-0.3796812,-2.3426254,0.80697405,0.8500297,-0.24383143,0.5363907,1.7571219,1.8185161,2.469882,0.018338948,-1.7076286,3.0942903,3.7569768,2.4555387,-0.7971519,2.0552104,5.435579,0.51414734,-0.13149796,1.0361031,-2.3184195,1.9617549,-0.05564845,-0.037836995,0.28984898,0.8072342,-0.8067848,-0.3524968,1.7414944,2.2530363,0.7609379,2.3448415,-0.8882145,1.0654969,1.9859277,0.9786846,0.4647158,-0.6823428,-1.9350528,1.221145,-0.5236641,-1.6185035,1.1800443,-0.23799062,1.4466344,3.5285482,-0.081003696,-0.7296121,-2.4135518,0.66975564,0.7627098,-0.22644392,2.1533651,1.5247982,1.1194669,-3.690644,-1.4340714,1.1602235,0.8599725,2.1121683,-1.0413225,0.88906443,3.4659977,-0.71995753,2.6712043,2.3812156,-1.3845172,0.49440876,-0.64344466,-1.0360031,-1.6509973,1.0014415,-1.2162657,1.9244511,0.81939334,0.021162907,-0.9256779,-1.6996669,0.1973051,1.7056508,2.5494134,0.5258832,0.392607,1.8799244,0.6507606,1.861154,-3.2560103,0.37285608,-0.7085596,0.7175816,1.6114916,0.5801486,-0.5056866,-1.3538624,2.0730171,-0.76970375,-1.0476264,-2.1680825,4.1055245,-1.4566009,-1.4734474,2.7746172,2.1429002,0.096329436,-1.2332937,2.2042286,1.4985675,-0.590723,2.7199159,0.040727645,0.61932653,-0.58700436,-1.06307,-0.83911383,0.2084111,3.2374907,-0.8099561,-1.0578643,0.27321696,-0.28139377,-0.44267505,2.397561,0.84246624,-0.3820054,0.7098584,0.7416291,-0.2984858,-1.5048027,0.8885039,4.7167883,0.5824514,3.646124,0.09180263,2.9293964,-1.6475095,1.0068016,-1.6298125,-0.39299062,-1.6768432,-4.8375564,-0.009627041,3.4127018,-0.5575763,1.7061987,-3.045107,0.81692344,1.7360666,1.7350593,-0.16242512,1.403514,1.0874593,0.49256924,4.4246917,-2.4749954,-0.30564448,2.661234,-0.5752546,-1.7535553,2.9553325,2.8393555,0.22003666,-1.882388,0.95711535,-2.2936945,0.21633323,-0.8501754,-0.9649396,1.5611686,-1.3829697,-2.1373248,2.8131542,0.65114284,1.5901273,-1.744808,2.1248982,0.06784162,0.016625442,-1.2923232,2.0398471,-0.27664086,-3.2697427,-1.6439155,2.4820497,1.1431766,0.23290561,2.5021756,0.67417264,-3.5635483,2.5780423,1.1662169,0.90070313,0.8743991,0.44612393,0.23693751,0.8236157,1.9563805,-3.1607313,0.4728435,0.03947162,2.2035422,0.9018472,1.246064,0.15994008,-0.22603153,-0.3385502,-1.3148184,-0.030225936,-0.81451553,-1.6884123,0.9503702,2.2858422,-2.6257792,1.5583131,-3.8492415,-0.43059593,0.539252,0.20678413,0.3864706,1.7679145,2.5595846,0.086936265,-0.09665698,2.2580876,0.30920067,3.5048742,-0.92791164,-0.0033581806,-1.3291126,-0.2554042,-1.2066967,-1.6260623,1.8561767,-0.6077116,1.7185302,-3.3225875,-0.7101447,-2.5348094,2.084245,0.9546022,0.2727696,0.4434039,0.81094766,-0.10478957,-1.1363666,0.104313225,-0.61034256,0.345756,3.00705,0.44329306,0.14049298,0.77515125,-0.3903413,-0.86324483,1.2948276,0.24512447,1.0080007,-0.38617375,-1.0652475,0.7447109,-1.3104838,0.6240997,-0.013471599,-1.2653004,-0.28905317,-0.62393147,-0.093191706,-1.5063714,2.1298096,2.267181,0.50172234,0.64449614,1.6173438,1.0305531,1.5596116,-1.5060569,-0.29071543,-3.2166018,0.44015476,-0.5430226,0.07964407,0.39205545,2.276224,0.9776099,-1.4964502,1.5137062,2.086277,0.077611335,0.40518478,0.24544774,0.8547591,-0.16928776,2.051329,-0.24694301,0.9569393,-1.0124121,-0.47840428,0.84078646,1.4667069,0.31997606,0.4651347,0.5596764,3.5596125,-0.7551911,0.48789138,-1.3090761,0.0072908853,0.21456528,-0.041857373,1.953061,2.4143593,-0.2770352,-2.961328,-0.6866469,-0.28509498,0.19602029,3.959104,1.369138,-2.0762892,-1.3828379,1.6076245,1.2004019,-0.7976537,-0.40607122,-0.8273435,0.48779055,-0.31261212,-2.5600548,-0.094219655,-0.053656492,1.7623558,0.80617315,1.177926,0.8646744,0.5152743,0.23438373,1.7782838,3.455613,1.5335746,0.7555204,2.367371,0.84516305,3.7589586,-1.8224084,-0.18521225,-0.1996711,0.5916704,-0.22937308,0.5517184,0.27339303,-0.3444802,0.40025747,0.050504643,-1.9226964,-0.52794135,-3.0551324,0.8352625,-1.7338029,0.71561193,2.4033513,-1.5623404,-0.2690231,-1.3858802,5.2635527,0.30777985,4.2064877,-0.8043421,-0.24123847,0.67934287,0.1212095,1.6158845,0.59088755,1.6537864,0.14664845,0.72834295,0.506417,-0.69311255,-0.3148023,2.0182102,0.71423185,-0.93899345,0.8769863,-0.07592779,-1.0945565,-1.573839,0.87765664,4.8553786,0.6278634,3.482768,0.37749904,2.5136335,-2.052319,0.54857165,-2.065778,-0.57765764,-1.7899799,-5.4168587,-0.32328868,3.5453684,-0.97550595,2.0248857,-3.662259,0.3329395,1.2379434,1.6438395,-0.9551741,1.7250222,0.45148695,0.796476,3.9827201,-3.9562297,-0.25549516,1.7788886,-0.49440008,-2.3023355,2.9398074,2.4230037,0.09442839,-1.9400184,0.6147371,-2.5709374,0.14255454,-1.3999208,-1.5847743,1.4750504,-1.4193798,-2.504509,2.3303084,0.9450269,1.8715136,-1.8838605,1.614932,-0.0032572474,-0.003954555,-1.3191024,1.3176563,-1.2176534,-3.2893744,-1.764929,1.6283433,0.53588116,0.54411083,2.01682,0.541583,-4.865886,2.0144477,0.6218886,1.045768,0.45590898,0.025912922,0.2752366,0.36771578,1.9873476,-3.5880485,0.81721014,-0.03406695,2.0587876,0.31450552,0.8422014,0.23963517,-0.514726,-0.21311343,-1.7802584,0.17873523,-0.94405735,-1.5929242,0.70154536,1.3875763,-4.041602,1.1172067,-4.822407,-1.5159843,-0.056459628,-1.1173891,0.4394455,1.6262342,1.8766423,-0.04800567,-0.5184314,1.4574878,0.7431985,3.8416173,-0.98557085,-0.14105433,-1.643255,-1.0622541,-1.4423038,-1.8500131,1.0023487,-1.1521672,1.2190518,-4.8582397,-1.4712536,-2.65258,0.5270265,0.60012907,0.37638932,-0.034042962,0.44473207,0.15380202,-1.640005,-0.35025677,-0.89403397,0.5942285,2.5120876,-0.9492162,-0.47354746,-1.128402,-0.6331585,2.0252862,-1.6813236,0.62247074,-0.45739123,-4.578728,-0.9302286,-1.6802692,-0.44982457,-0.9886547,-0.8345047,3.476296,0.6517293,-1.4600905,0.11979186,3.6535547,-0.41181162,0.01876498,1.0388304,-0.19275916,0.484736,2.4982603,-1.0046651,-1.6010835,-1.3637747,5.1209784,1.6134577,1.1353179,-2.3858767,-2.9523296,1.5529959,-1.5549839,-1.5521483,-0.7555889,-2.703887,0.5256295,0.22230802,-0.18691817,4.5540066,-0.58507365,-1.3560989,0.011421636,-1.2166514,0.06126601,-0.76939434,0.17766757,-0.8332408,-0.5470602,-1.0860063,0.4055709,-1.3684666,0.46196458,-0.7583526,0.9223909,-2.4373276,-0.7036255,1.3015723,0.8749777,-1.1478364,-0.8388921,2.384338,-5.447299E-4,-0.22642238,-0.0015551704,1.2996876,-1.965127,2.3596792,1.87048,-1.2368038,1.0734755,1.1628783,-1.4433466,0.96516305,1.8972818,-0.3902006,3.384861,-0.69504654,0.3066241,-0.6594911,-0.98426074,-0.51446414,-0.99210715,0.3229236,-2.7497082,-1.1242076,-0.3454632,-2.6132774,-0.5135131,1.8563969,-1.4542594,1.4703734,0.27885628,0.3029742,1.7907224,-1.3612787,2.0185986,-0.47553894,-0.4078198,0.66749424,0.36716533,-0.6643909,-2.618079,0.8359829,1.2915844,1.9200116,2.3290503,1.9964215,-1.9751016,0.3278938,-0.953476,-1.5569075,0.11223553,1.1201086,-0.24772444,2.2124023,-1.1370431,-1.5881225,-0.2950465,-1.3570685,-1.1211487,0.15864402,0.1240258,-0.7556856,-2.036557,1.1034154,-0.030218318,-0.2488972,0.52052635,2.2335749,-2.1764588,-1.0201089,-2.0391347,-0.73214203,-2.6027699,-1.048343,-0.045290098,0.034461897,-1.8086019,0.36829963,-2.1609561,-0.84055334,7.508107,0.7604967,0.57798284,2.825456,0.2620213,-2.7393997,-2.559898,1.0680606,-0.7615852,0.62725466,-0.97473615,-0.0407586,3.327988,-0.9514601,-0.56238633,-2.3364952,0.70339686,-1.2989342,-0.5081267,-0.004969356,2.3506505,0.19914497,0.11359389,0.2949137,-2.3383255,-1.3144109,-0.3395427,1.3191785,-0.55779415,0.7718641,0.6990432,0.083502755,-0.16680722,-0.29545555,0.8611186,0.10222188,0.09993768,1.0766032,-1.2063144,-1.6970307,0.8591962,2.306519,0.5478939,-1.4482234,6.441583,2.389629,0.86725557,0.18995504,0.71062154,0.46692282,-2.4195476,-0.7578795,0.6469874,1.6459558,-4.354855,-0.8017581,1.4987988,3.1813998,0.25183678,0.61696285,-0.77840126,0.7347968,1.1719922,0.66314197,-1.9961892,-0.874355,-0.14503595,0.46336824,-0.69213724,-1.3779552,-2.237182,2.189493,1.5675697,0.40805465,0.6361107,-1.8859632,0.8381115,-1.3161288,-0.68000054,0.55421275,0.89954925,-0.18874182,1.9025186,0.630642,-1.8391243,1.2474444,0.97982985,0.33580694,-2.1912332,0.22099364,3.905592,0.045349833,0.9236103,0.59209406,0.78607845,-0.27499333,-0.1972892,-0.23042084,-1.4411424,-1.5567498,1.7808477,-2.1776917,-0.51090026,-1.8754218,-2.3056464,1.0168061,-0.65355784,0.21876046,-1.9500362,-2.7129836,-1.2188237,0.6091622,0.28847513,-1.0668182,0.50371426,2.098932,0.53656375,0.83103174,-0.4655119,0.36438066,0.929924,3.1892025,0.30782634,2.138403,0.23121694,1.3018576,-0.43521,1.8562704,2.2195318,1.2998701,0.28311697,-4.1278434,-1.6181321,-2.395869,-0.34810773,-1.2473776,-3.298922,0.29923442,1.9941585,1.8931842,2.7655885,-0.24886838,1.3717232,0.26745915,1.2077171,-2.6794882,0.2756634,2.835981,-0.8968408,0.3632109,1.1519642,-1.0412356,-0.102770194,-2.9387493,2.3903048,-0.3922439,-0.55268073,1.5094266,2.3659253,1.4170821,0.50927275,0.6288845,0.9609732,0.6994106,-0.3914056,-3.3516407,1.7839732,0.5210108,1.1148735,1.2805368,0.79040617,-0.84274787,-3.2596138,-0.7012538,0.87946886,4.6828732,1.3366787,0.27179882,0.2700099,-4.544595,-0.09341482,3.177485,-1.2494369,-0.30832845,-2.2677753,0.5548355,3.1205752,1.4085634,-1.9491874,0.9293117,1.6031268,1.1173146,-0.61494946,-0.37974218,0.23225439,0.53729624,0.61154026,-1.4472417,-0.5627152,-0.7841412,-2.8020134,-0.4556176,1.0313302,-5.033394,0.86713433,-5.7272344,3.3563788,-0.32292232,0.42694515,0.25152537,-1.3934287,1.1401713,0.47761562,1.2317655,-1.9542005,0.921089,1.60865,0.8615013,2.7607238,-0.6382285,2.2268662,-2.4164083,-0.6350432,2.439011,1.2859509,2.519883,-4.4110746,-0.9300709,-3.1843524,1.224746,0.930477,0.14814419,-0.75088716,-0.5290806,0.068958305,-0.77274054,-0.30793115,-0.18021184,0.4221282,1.2688397,-1.7784088,-0.43614185,-1.4111577,0.8666592,-3.2810504,-0.07361117,0.102533504,-1.1017382,-3.5074117,-0.656263,-2.1823933,0.055510983,-1.5654174,-1.0271817,0.81841815,1.2386581,-0.0023682753,-1.1346447,1.4677424,0.38238347,1.958774,2.9189978,-0.19132036,0.5764403,3.3187413,-1.9484401,-1.7588662,-1.185464,-0.7883012,1.2614077,0.75716454,-3.438292,-2.690574,0.7425154,-0.8189825,-0.85339844,-1.083901,-0.9120555,0.8100882,0.5243273,-0.8752061,1.9549904,0.9421167,-1.5688472,-1.0296468,-2.0942376,-0.9963398,-0.079573244,-0.35963,-1.0925758,-0.6075223,-1.010786,0.15387799,1.0531169,0.9301645,-0.34240103,-1.7352296,-1.4968315,-0.8363088,0.45316568,2.1258028,-0.66466093,-0.835962,2.0343442,-1.6475505,-0.40457377,0.36167178,1.3114833,-3.2285717,0.49431464,2.8639524,-2.7012477,2.0977328,-0.28720868,-1.3365396,-0.75612295,-0.356896,-1.5448707,-0.18859062,-1.1451279,-0.11747147,1.1197734,-1.633998,-1.5716934,-0.43614522,0.42316756,-3.0000901,-0.8500343,-0.10441198,-2.7417266,-1.6113126,1.0236241,-1.8427165,1.2990628,-0.9480449,0.902299,1.4268428,-1.8595766,2.9934604,-1.5915011,-0.14740491,-1.3288716,1.0803146,-1.4963131,-3.9395201,-1.8714304,2.4327292,0.05706699,0.55367047,-0.32494918,-0.86060894,-0.17635545,-2.6436212,0.45518792,1.2448288,0.27865744,0.09813382,2.0732155,-1.579754,-1.594392,-0.523552,-2.2269032,-1.7754596,1.4640474,-0.36741105,-0.33459485,-2.2549946,0.5669705,-0.008408511,2.5302067,0.86534995,0.059939504,-0.4404751,2.4072027,0.37986043,-0.4003107,0.711852,4.9055023,0.51142466,3.2626789,0.14150336,3.1242127,-3.8367918,0.8277575,-3.5060358,0.15811151,-2.8825727,-5.0732284,-0.028406302,3.7827547,0.040642496,1.0329635,-4.294206,1.5008804,-0.24159983,1.312545,-1.982678,-0.017854618,1.3960024,-0.13170941,4.342207,0.9659903,-0.47806677,2.7659492,-0.45517412,-1.1192514,2.0115538,2.670707,0.20088275,-3.0888188,1.4046483,-1.697245,-0.27730286,-0.52598894,-1.7781372,0.85498863,-0.34541097,-1.678629,2.6121387,0.98846954,0.21306771,-1.2291831,1.692268,0.4545828,-0.35534963,-0.43223962,2.2411091,0.78695554,-2.9745436,0.03345564,2.404075,0.6328938,0.027756324,2.597665,0.009245546,1.5843831,2.9793396,1.4849902,0.8142375,1.466585,0.028914733,-0.17032956,1.252351,1.4089649,-3.904032,0.48323357,-0.1815284,1.6048253,1.4974558,1.0381331,0.09249764,0.5561719,-0.020032547,-1.0960093,-0.73554033,0.13930897,0.018292677,1.6174195,2.784417,1.1953436,1.4916526,1.2371639,-1.0871723,0.2906893,-0.3614788,0.5614434,0.41977358,2.705589,0.5035803,-0.005959399,1.4824426,0.41799828,2.2811527,-0.6851663,-1.3015302,0.30463666,-1.0791692,-1.2782776,-1.1452672,0.43733492,-1.6916002,0.90006006,0.8394518,0.29572466,-0.19524986,2.4088087,-0.039095122,0.34095553,0.6515422,1.6902025,-0.096584626,-0.59042734,0.40812224,-0.12014997,0.3364758,2.255733,0.0040542805,0.42338753,0.20477858,-0.24495384,-0.22125137,1.2692559,0.2614402,-0.38438088,1.1042597,0.4622453,0.67313147,1.5911299,0.43160355,0.5921369,1.7609593,2.5905304,-3.4989758,-0.22296345,-2.231048,-1.9905498,3.0888412,3.2188354,0.029521825,0.8014075,3.0355675,-0.36820018,1.9602613,1.2954445,-3.7121203,2.3034415,0.37618232,0.15197341,-0.08375869,0.1927793,0.9794863,-0.06430399,-0.020163948,1.7435287,1.8248417,0.98555464,0.70077103,-0.83610374,1.8698791,-0.43090737,-1.8980849,-0.37608197,-0.35641974,0.7205515,-0.08388168,-1.7381124,0.034426548,1.287095,2.1590545,1.1013244,0.5817687,0.62375724,-0.8481,-1.636961,0.3940892,0.5055141,-5.8844767,-1.1626714,0.26684082,-2.5001972,0.100494534,-0.04072811,1.5751562,0.59909385,-2.027701,-1.3429314,4.6229367,-1.2442837,0.64891577,-0.7796815,-1.0385746,-0.22037423,-0.3763003,0.47943807,-1.7602819,0.2191687,-0.9489923,2.734361,0.43886647,0.01623443,0.2480356,-0.16736278,1.0489715,-0.48951665,-0.03742266,0.09787168,-0.94059414,0.5999205,-0.07346702,-0.21375914,-1.1907458,0.7391956,-1.094169,0.633361,-2.7872045,-1.0464259,0.8125724,-0.5981227,0.556139,0.7181146,0.09008969,-1.067799,-2.2004728,-1.0189383,-1.0760547,-1.4603693,1.4120843,0.4090077,0.079866104,1.8292205,0.050856274,0.040843796,-0.4633196,0.9949897,1.3205905,0.15378097,0.19304168,-1.0846006,0.31601506,2.7740297,0.8881656,0.036559097,0.31594715,0.9739827,-0.09800477,-0.11296158,0.6739631,-1.2371864,-0.5867166,-0.11732064,-0.1101897,0.8639195,-1.2421695,-1.7947987,0.95432174,-1.6688744,0.12044993,-0.597762,-0.01744488,-0.6726116,0.44868755,0.30712947,-0.91737735,3.723009,2.8720353,-0.2986517,0.103236295,2.3325927,1.8652731,1.3055589,-0.46068522,-0.03040728,-0.51876837,1.0988401,-0.57093304,-0.078721024,0.34151083,2.0212016,0.61247104,-2.223644,2.1887524,1.0192367,0.16682956,0.42226774,-0.07115365,1.5687712,-1.6589785,2.595359,0.108556546,0.14525278,-2.2595327,-0.11086831,1.1457431,0.499012,0.4106562,-0.049834866,0.97043794,4.335974,-1.2092448,-0.09359491,-0.3372894,-0.3285479,-0.06407822,-0.10219471,3.9574919,1.7660255,-0.4437462,-2.418375,0.37474087,-0.19668935,-0.016446698,4.018049,0.59792274,-1.3516232,-2.1070142,0.5470519,1.2703581,0.043729417,-1.0814748,-0.8453971,-0.021646073,0.12404801,-1.0137285,0.11020248,-0.18208528,1.313904,0.69573426,0.62802947,0.3787423,-0.5740128,0.19852129,1.6627238,3.6865015,1.2981437,0.9150885,3.1725578,0.9630099,4.437376,-2.994467,-0.14221348,0.2291325,0.37134987,0.607342,0.64497715,-0.36755434,-0.19765586,0.2180196,0.19631948,-3.5393934,0.26805735,-2.1010494,1.8679774,-1.9790564,1.5466187,2.0867822,-1.2302046,-1.2245922,-2.3390365,3.7446172,0.18665443,4.366117,-1.9524114,0.42387187,0.10827541,-0.22186194,1.2771716,0.41477218,1.7855579,-0.2275647,-0.04281213,0.18330899,0.43164554,0.9390348,-0.48044142,0.9996981,-0.29646814,-1.5012884,0.51392597,-0.26792428,1.216986,-0.60673654,-2.0242074,0.9847944,-2.160172,0.49846277,-0.5917133,-1.1134602,-2.953559,0.9785179,0.49913886,-1.5844178,4.722861,-0.025498617,-1.9497635,0.1801037,-0.2117677,1.1808473,1.4229859,-0.60399646,-0.4379956,-1.3279254,-1.2909987,-1.4720784,0.33840466,-0.28194007,0.77398205,0.8655549,-1.7367895,2.2386208,1.4328704,-1.9827192,-0.34197235,-0.19023326,0.3856176,-1.4519846,3.0337815,-1.093717,1.1775115,-0.28129774,-0.81544644,1.2142534,2.714435,-0.13904516,0.17092596,-0.19282387,4.3182125,-1.3931576,-0.01816144,-0.5158459,1.1568409,0.019374229,-0.48242003,4.539567,3.1373267,-0.32746693,-2.8997452,-0.25937966,-0.9572343,-1.8433124,1.063181,1.8370277,-2.1291215,-3.1653478,1.6033543,1.0201343,0.51521176,-0.17393516,-0.7081704,0.7160827,0.14712517,-1.9973543,-0.19788566,-0.9060713,-0.71680444,1.0799125,1.3092015,0.5485195,0.64071465,0.9959905,2.5006826,3.8744981,2.011055,0.3944685,0.09688992,1.1108602,0.88752747,-0.9703768,0.19317141,-0.01828391,0.75552654,-1.2130369,0.23130707,-0.41590288,-0.09227673,-0.12104488,0.21429674,-3.3627157,0.201804,-2.5571463,0.9682619,-1.2228577,0.31244248,2.012453,-1.1271001,0.13965479,-3.1062849,2.3878527,-0.21654473,4.818493,-2.461477,0.55281097,0.50061685,-0.47232613,2.00693,0.8857688,-0.04375623,-0.3159176,0.2638415,0.5240835,-1.8786228,0.024767468,-1.6856501,0.32139608,2.7910016,-0.47565642,-0.13986163,-1.149244,0.48784897,-0.42837062,-0.7024361,-0.17895311,-0.69292456,-0.20813926,-0.713284,-1.2788823,-0.17482218,6.85501,0.96362257,-0.42280826,4.680246,0.1788895,-3.8970742,-0.61407775,1.3828821,-0.6624601,-0.0998236,-0.8845193,-0.51762664,2.2937894,-0.071828686,-0.023706082,-0.15207182,-0.5532564,-1.7859842,0.30329075,-0.7827568,1.2928517,1.0973763,0.42652786,-1.1370049,-0.9884393,-1.4112681,0.011895233,1.423772,0.24845566,1.0513723,0.8389828,0.11835926,0.72118807,1.6274806,-0.04597175,0.078044415,-0.423887,1.5698267,0.12731199,-0.23122756,0.6166967,2.8038766,-0.31965902,-1.3344518,5.0097885,1.8612654,-0.25258574,0.6637544,0.40562776,-0.5270796,0.09049479,-1.8467062,0.4074589,0.9748157,-4.8626337,0.80219907,0.032861646,2.4629006,1.0432684,0.77809787,-0.98894346,0.29162884,0.63659245,0.17635107,-2.323881,-0.46854427,0.030286347,0.30184245,0.715592,-1.108782,-0.6958377,1.4691663,0.96583927,0.07161212,0.07688638,-3.0961397,0.45561072,-2.2745948,1.0352805,0.094979614,0.3508792,-0.0513814,0.8327124,0.59617054,-0.5924221,0.6368905,-0.7037732,0.17461497,-0.13066262,0.51423913,3.0119052,0.106163725,0.12894748,0.36033833,1.1433569,-0.56167567,0.5336655,0.64779913,-1.0419505,-1.0340288,1.38073,-1.6601089,-0.6484867,0.12730022,-1.4073919,0.40599045,-0.08305594,-0.020427285,-1.1635902,-0.5100718,0.12633653,0.4108266,1.8610407,-2.2887037,0.68395925,0.62512743,-1.8290372,0.4380272,-0.19933416,0.44382966,-0.23510535,-1.0654644,0.027336413,-1.8675011,0.30166894,-1.5355453,-1.8002151,-1.4873908,3.449205,0.67859316,-1.3161597,3.158771,-2.0155826,-3.9584155,-0.28616363,-1.077564,-2.396314,0.37183645,-0.969154,-0.9708414,1.4409938,-1.4337792,-0.098846644,-0.16875373,-0.51684475,-0.93895274,0.29145432,0.19062476,-0.13289645,-0.57936275,-0.7859453,-2.4662902,-0.22418208,-3.8569274,-0.7936828,0.059594195,-1.7657223,0.88452744,1.2547019,-0.20923905,0.41387764,3.171424,0.2454613,0.5122159,-0.58252203,0.27074248,0.83280635,0.055545453,0.42196232,1.0530849,-0.78481,-0.29421583,3.660024,0.6956304,-1.072101,0.10316967,-0.13608085,-1.6148171,-1.5031046,-2.1625712,1.6612368,0.1376157,-3.635299,0.61113656,-1.5220841,0.44697133,2.245489,0.070039414,-1.7358162,0.44384795,-0.13359252,0.1466113,-1.9729849,-1.6975741,0.17449538,1.1464108,0.040686734,-0.94010234,0.3163254,0.20652391,-0.5211837,0.65470463,0.07783843,-2.9294415,0.47107157,-2.6656196,1.5512388,-0.6756973,0.25229675,0.4676633,0.7929045,0.09082017,-0.021118168,0.8544439,-2.266925,0.2532225,-1.7449509,0.4745156,-0.69522357,-0.004602053,0.3047521,-1.9357753,-0.6090943,-0.5762465,0.17230447,-0.8931641,-0.32027897,-0.30993843,-0.037701212,-0.45424256,-0.3942805,0.40725273,-0.8065685,0.99108034,0.713142,-1.5223504,-0.103085406,-0.24807893,0.26974106,-0.6053208,-0.46188128,0.60561234,0.44038218,-1.2707269,-0.22867346,1.193795,-0.30851653,-0.63211983,0.7376641,0.12661049,1.176873,1.4050529,0.5230558,0.9496049,1.1117153,1.1486443,-1.5552304,-0.7802028,-2.652666,0.60771483,2.7766156,2.7399576,-0.22041292,0.66461605,0.9571106,0.012712548,2.511398,0.7946105,-4.732922,1.9239037,-0.26806864,0.8503502,0.8731568,-0.5376407,0.99668723,-0.17140764,0.7077743,1.8901185,0.9744866,1.1229416,0.46332067,-1.9178301,0.5358234,0.42981693,-0.7945996,0.441173,0.02164225,0.8073393,-0.41920325,-0.56017435,0.49445966,1.1631671,2.04803,2.1985133,0.07299021,0.5732889,-1.5489032,-0.7094005,0.88314205,-0.67061496,-4.3254185,-0.010502277,0.62513053,-3.914806,0.0859125,0.16589732,1.5587476,0.24541306,-0.79469556,-2.3270779,0.61576104,-0.45533973,0.4916205,-1.0054306,-0.22642949,-0.62300664,-1.4175869,0.3178718,-3.1138005,0.27909464,-1.3412216,2.4438424,0.759314,0.59833246,0.3973235,-0.6243641,1.4023945,0.47377512,1.3100357,0.6104691,-0.64082307,-0.15083371,0.40587217,-0.29817826,-1.2752244,0.6883996,-1.6314486,0.93156093,-3.597705,-0.47189468,0.50794685,-1.1949223,0.6117898,0.52757555,0.20502797,-1.7355342,-2.6702538,-1.1510841,-1.6468174,-1.0234678,2.1265478,0.62417334,0.7262442,0.5341336,-0.03742771,-0.7045163,0.9307418,-0.73239696,2.376758,0.1812901,-0.17393263,-0.5321637,0.42845857,2.0688303,0.4217014,0.050657228,0.5940841,0.59706694,0.11087061,-1.4554895,-0.0458532,0.3530474,1.0339084,-1.0377305,-0.5020114,0.4505908,0.22502047,1.9546716,-0.7374061,1.9766718,0.01940807,-0.17728043,2.119392,0.9848569,0.37397972,0.87553084,1.8028705,-3.5661004,-1.748627,-2.0709515,-0.89875877,-0.6823688,-3.5439556,-1.2566929,0.6449006,0.78419304,3.504231,0.4039112,0.25056845,-0.2957094,-0.13946147,-3.7540655,-0.18971324,1.2308737,-0.60138756,-1.2124624,1.5871999,-1.4792635,0.046449464,-1.2089603,0.5948078,-1.0969955,0.7139881,-0.11372921,2.0347047,1.5677458,0.7328399,-1.3212725,0.091967665,0.70258725,0.12293544,-3.4575171,0.70113516,-0.21132366,1.1771716,-0.058189385,-0.5198519,-0.2659351,-3.127053,-1.6215134,-0.40569532,2.3588006,1.465669,-0.14613378,-0.037574876,-5.843236,-1.367265,1.5722058,0.71854854,-1.209339,-2.041922,0.39066765,0.8962746,0.9091082,0.59836465,1.0725055,1.4362721,0.6859031,-0.7148021,-1.032731,-0.40879083,-0.98099035,0.14551929,0.15259297,-0.8034088,-0.8907082,-3.1607656,-1.5561019,-0.23040631,-4.8467617,-0.24651635,-5.661425,2.5500517,0.4183983,-0.2845135,-0.4484357,-1.7337451,0.057229802,-0.11872992,0.51316994,-2.5632813,0.7033187,1.1451427,1.0165806,1.2006557,0.2717055,2.8796825,-0.7286129,-1.6582245,1.4058444,1.2079761,0.60207975,-6.5906887,-0.51328176,-3.479964,-1.2016553,-0.61671054,-0.114237055,-0.13573067,-1.8236258,-0.27786404,-1.1988417,-3.3804146E-4,-0.7268229,-0.30355918,1.6188658,1.0495602,0.6215497,0.8069458,-1.2507373,-1.1819254,2.1088436,1.403328,0.42017055,0.64762926,2.250338,0.59306234,0.6490602,0.23108661,1.1011279,-3.9642158,-0.58608747,-3.872163,-0.03836432,-1.9453183,-3.664836,-1.7478144,0.42451477,0.72936136,-0.7555798,-4.4603996,1.7348515,-1.0702175,0.58102435,-1.5667291,-1.616584,0.81669134,-0.49644628,1.7616853,1.7373823,0.05535172,1.628404,-1.1540952,-0.7988895,0.35034198,0.13364978,0.5245242,-2.0294387,-0.24441378,-1.1223644,-1.1321976,0.2953408,-1.3848801,-0.24644895,0.36057845,0.88042325,1.2982508,0.5941766,-0.53452307,-1.4090699,1.2291942,0.64618576,0.035717186,-0.7661445,0.922476,1.5623157,-1.3543507,-0.052005228,0.6917181,0.6382446,-0.46246788,0.6070176,-1.1442462,2.233335,2.6811938,-0.0204826,-1.613537,1.3669449,-1.3802202,-2.1951823,0.6683241,-0.4111746,-2.8252764,0.09343602,-0.14071149,0.51155573,1.6413326,-0.114142634,0.29431975,0.7979533,-0.02489816,0.37309584,-0.30699486,-0.35314023,-0.33025986,1.4443368,1.9197508,1.3537595,0.92613626,2.6410465,-0.4361304,-0.25612524,0.19061019,0.3942708,0.24309771,1.559665,0.78510976,0.7651141,-0.46600047,0.054218948,-0.7560535,0.2533861,-3.8412566,1.250744,-1.3376758,-1.7521518,-1.2535894,-0.6778552,-1.3819209,-1.7854989,3.384529,1.4607607,-0.063712865,1.7989769,-0.39911243,0.43491602,0.90300155,2.1389403,0.37547344,-1.4242946,1.0284016,0.80629015,0.25040504,0.76597047,-0.78142995,-2.3029585,-0.8598452,0.3813195,1.2527341,-0.9807137,0.11686487,0.7958784,0.31016898,-0.8798355,0.27896953,0.27270886,0.21795578,-1.6252329,4.6816926,1.2858416,0.42416656,0.7789097,1.111429,2.0178106,1.3048973,-1.9954755,-0.08346119,0.10075599,0.8775178,-1.6487743,2.8654203,1.2492188,3.6069458,1.2626377,0.41421947,0.89299566,-2.1510918,-1.4530557,1.1063607,-1.949412,0.12261028,1.645794,0.77229846,-2.1665144,0.21008158,0.7354618,0.82666147,0.5706126,0.7628008,0.540011,2.0284784,1.6281412,1.1285603,-1.260659,-1.7806307,0.3280499,1.0117046,0.38794234,-0.43994412,-0.07248172,0.6128541,0.19714493,-1.6388587,0.098340355,-2.3305855,-1.0088797,-2.0215476,0.18733805,1.3794945,-1.7328947,1.3008682,-3.1801233,-3.9363186,0.9913971,2.6206653,-1.8436097,-1.5900394,0.79115343,-0.83410275,0.291091,2.8522575,0.6677298,0.5722731,-0.40408698,-1.6819427,0.6418753,0.21046844,-0.78799653,1.0095285,0.34827888,0.978966,-0.43188137,-1.1850578,-1.3485645,-2.3849173,-1.1583717,-1.1639227,-3.4817257,1.8075861,0.2998675,-1.323241,-0.12283945,-3.0805464,-1.9069133,-0.09468668,-0.26197693,-2.2652001,0.49595526,0.5204162,0.75268704,1.8579689,0.09513001,1.5404799,0.5686428,1.0630566,0.86901426,2.2437677,1.0792034,-3.8801763,0.06321952,-1.6442678,-1.5254683,1.1999716,-0.14938854,-0.30785266,-2.146799,0.050314177,1.2755153,0.09715411,-0.13511539,0.20376436,0.64703196,-0.04836506,1.4472245,0.69295835,-1.5588137,-0.2982716,2.1714015,0.97725135,-0.28664708,0.4703914,3.38794,0.384399,2.0642464,0.17180844,2.0346863,-3.3189085,0.14722928,-4.7130466,-0.5808992,-2.1739914,-4.7926745,-0.87695915,2.8022287,0.5414437,0.11809746,-4.4556084,1.2137492,-0.76504606,0.77773046,-2.149505,-0.73109704,0.8493992,-0.39561772,2.7101715,1.4761924,-0.6048901,2.2054727,-1.1854122,-1.3286229,1.0320936,1.2479511,0.5238101,-1.8044577,0.5182845,-1.5569793,-0.5421739,-0.5065801,-1.7410599,0.1034871,-0.5917476,-1.1402999,1.6799893,0.40645835,-0.08305655,-1.8466147,1.4120343,0.7650529,-0.50473547,-1.3010546,1.383695,1.0266439,-2.7210674,-0.5578749,1.4120295,0.35579765,-0.5533939,1.2544707,-0.27672789,2.4306493,2.05309,0.18605158,-0.54076755,0.7735419,-0.65398,-2.1799715,0.45328203,0.008507545,-3.4440618,-0.22040135,-0.47395062,0.81485355,1.9215102,0.60064274,0.21284752,0.042071935,-0.17886762,-0.2160508,-0.91722554,-0.6751814,-0.5787893,0.96716535,1.9119971,1.5704554,0.8182082,2.9091926,-0.7616841,0.16206796,-0.20907038,0.23440054,0.0224114,1.7031367,0.91972816,-0.07526019,0.42671272,-0.012316661,1.222268,-0.5181813,-3.0558758,0.73656094,-1.445712,-1.7577175,-1.296813,-0.26289788,-1.7259628,-0.69628793,2.2346036,1.0157443,-0.60735404,2.3007338,-0.5855886,0.2670617,1.0409809,1.3214716,-0.1722265,-0.98379016,0.6907928,0.61511517,0.06639167,1.3398664,-1.0028944,-0.42908227,-1.6304992,3.2824674,-4.486233,-0.32648206,-0.1754221,-0.54674125,-0.08716269,-1.1417788,-1.9361802,0.5353828,-0.88625944,-0.9487877,0.83810264,1.556332,3.4590151,-0.03288094,-0.09822286,2.2006655,2.0742662,3.237804,-0.37643087,1.0882156,4.483717,-2.5610023,-0.68795687,-1.2434239,-1.7664748,1.0240773,0.42297572,-2.2071412,-2.8905678,0.08613317,0.22706057,-0.44828433,-0.72048837,-0.43541577,0.8411422,1.2608731,-0.8869659,1.5484983,2.3881207,-1.6460059,-1.6649126,-3.7310627,-1.8870566,-1.0272143,0.15244569,-1.8949921,-0.7601855,-0.4243594,0.053752393,1.0901053,1.2297434,-0.45525542,-2.5112169,-1.1040306,-0.99446064,0.37874478,3.563919,-0.8070756,-0.28615838,0.6363604,-0.90578663,0.047136694,0.46433452,0.17938249,-2.6674247,0.75017756,4.397923,-3.730866,1.820602,1.1627381,-1.4991516,-0.7415535,-1.9732084,-1.35455,-0.18415448,-1.9290653,-1.4652587,0.8677461,-1.7426292,-2.510568,-0.2712397,-1.0509937,-1.1658006,-0.6684442,-0.9034921,-1.9843831,-2.124355,0.15088366,-2.7452207,0.143898,-2.2711165,0.08078962,0.24248187,-1.5198753,2.7265322,-2.4861622,-0.16892087,-2.9796119,1.5389137,-1.4001712,-2.308577,-2.1997368,4.4822392,-1.160485,-0.7061736,0.41181213,-1.1878839,0.29610172,-3.007784,2.385918,0.05973693,-0.20298475,-0.43713728,1.8105472,-1.0310236,-1.1046368,-1.045784,-2.9909005,-1.2182424,1.444059,-0.52532506,-0.6923652,-1.1891942,0.34916037,0.40628472,0.59830964,0.2600814,-1.3643407,0.62995017,2.5260553,1.0946932,0.016364262,0.8398287,2.7863052,0.22303645,1.0814636,-0.039323505,1.3995005,-3.352196,0.23262589,-5.025637,-0.41938904,-0.67979825,-4.548053,-0.6413796,2.1759253,1.0221269,-0.06942965,-3.067839,0.9520858,-1.328769,0.65555996,-2.1625142,-0.5477993,1.3955072,-0.34325442,2.7421684,1.8495686,0.016672665,1.4897053,-1.3980249,-0.56441945,0.9943888,0.6379948,0.49839666,-0.07343038,0.8537427,-1.3291267,-0.017376795,0.03660672,-1.0053097,-0.14708778,-0.25073597,-0.3485919,1.1229445,0.38953698,-0.029832017,-1.4381723,1.936068,0.8696131,-0.34998494,-1.41732,0.9194022,0.9846114,-2.5598998,-0.31759953,0.84531826,1.3086904,-0.50820494,0.49378777,-0.3780861,2.9552052,2.3661888,0.5251964,0.1217617,1.1400951,-0.7896968,-2.638412,1.0496253,0.29176,-2.4483728,-0.37019452,0.16398999,0.30458972,1.8737139,0.6315569,-0.26802847,0.6030976,0.25178066,0.6401668,-1.0554217,-0.58652663,-0.55738896,1.0103254,1.7741458,1.9036063,0.7667737,3.589059,-0.46578756,-0.22056848,-0.14674193,0.41077977,1.2498487,1.4514756,0.9390931,-0.015062172,-0.21406816,-0.06172833,1.1153297,-0.24533322,-2.5682335,0.57488286,-0.78638667,-1.1995175,-1.1445098,-0.77754927,-0.784304,-0.3201846,3.582885,0.943213,-0.3479397,2.9460618,-0.5753425,0.2143775,0.99695504,1.3709794,-0.19298525,-0.7066015,0.60809994,1.0240645,0.20208734,1.271605,2.642344,-2.5168884,0.70285183,0.42755064,-1.303502,-0.0064529274,-0.50587547,0.802106,0.63297135,0.56403744,0.388991,0.026096884,0.87396795,-1.0920968,-2.1258166,-1.4369528,-0.09855443,1.1062248,-2.305591,0.39967355,-2.3952472,-2.6440587,-0.7294422,-0.9907575,-3.4312272,0.5525267,-0.20763616,-0.44209492,1.7037313,-1.6160587,-1.0484043,0.72356427,-0.3569979,-2.3839862,0.6584914,1.1847986,-0.5428943,-0.9356673,-0.6207722,-2.7341511,0.48399195,-5.0348086,-0.40046206,-0.42528445,-1.6541125,1.0956786,0.974134,0.684787,0.8974463,3.3150816,0.075000905,0.78806275,-0.5925416,-0.9424823,-0.1711913,-0.19191392,1.3210701,0.5478864,-0.57082826,-0.3731556,-1.1306977,-0.14042187,-1.0614498,0.16576722,0.68031687,-1.70947,-1.277371,-3.6664221,0.8461265,0.48531884,-1.9901481,0.33915192,-1.7490646,1.2621177,2.2765465,0.32898092,-2.5368521,1.2614442,0.27211672,-0.028108526,-2.1695127,-1.7079686,0.6110408,1.1397785,0.08979343,-0.829575,0.99573904,-0.41511273,-1.2137947,0.5227424,-0.38414487,-4.1210184,0.2904046,-4.221165,1.5908407,-0.16056322,-0.08596627,1.048641,-0.9801013,-0.2644893,-0.017543133,1.7077768,-2.6939137,0.91167176,-1.5486634,1.3089924,-2.6218197,0.31658155,-0.024177996,-2.7970772,-0.7921787,0.068460025,0.066192925,-1.2264663,-1.5361717,-0.4229936,-0.99604946,-1.3096665,-0.052821994,0.793829,-0.6780717,0.5727797,1.3233734,-1.5060071,0.4497636,-0.31510136,0.9451004,-0.2707844,-0.5727354,0.3836576,-1.0501457,1.165488,0.8227324,-1.6104898,-0.51833946,-1.6981544,-1.3757143,-0.8464801,-1.0841033,0.18128727,-1.0353187,-0.6755688,4.00408,-1.2898344,-4.6831636,-1.0413212,3.338858,-3.0278149,-1.1888618,1.4569589,-0.93707436,-0.29314846,3.4006698,-1.1921939,0.7378943,-0.19426155,0.18658774,2.1867726,3.0549717,-1.1763831,-2.5303514,1.1539103,-0.60684013,-0.055510268,-2.3051105,-2.7756894,0.4517016,0.3443416,-1.2059225,2.9660628,1.6548113,-2.7644992,0.0120259,0.43707967,1.3463407,0.17349981,-0.9570765,-1.1820945,-1.6227895,-1.4910427,0.83920103,-2.837434,1.4056746,-0.86729574,-0.060308184,-1.6379323,-0.6924493,0.42379668,-4.3801794,-2.141157,-0.30487177,3.2014995,-1.1040175,0.0979466,-1.788429,1.164145,-2.322913,2.4088278,3.1655612,-1.8256212,1.6201414,0.15583418,-0.9465897,0.5203002,4.1277,-1.2516208,2.2497187,-0.7575394,0.49346375,-2.2934468,-0.70388484,0.04267483,-0.4468961,1.9230297,-0.6817194,-2.4123151,-3.2074468,-1.7924918,-1.9223621,1.3388566,-1.754293,0.6090844,0.4883188,1.5030651,2.0905125,-0.8488908,2.5947027,-1.958637,-0.6288341,0.4981675,0.89027154,-1.0881634,0.87362194,-0.5911367,1.3943442,-0.25047982,2.508753,0.39260146,-3.4280276,1.8367301,1.3217162,-1.7212911,0.4999118,-0.20509799,-3.192299,3.0476184,0.2559355,-0.8459025,-0.13082232,-1.6129409,-0.68934226,-1.77919,-0.88383704,-1.5879322,-0.9148235,1.5045718,-0.5766157,0.81964463,0.84719545,-0.9917928,0.16087538,-0.35132936,-0.16514464,0.6060758,-1.3328419,-1.3843238,0.7833432,-1.2947987,0.16110411,-0.31191036,-0.91895306,-0.94283944,-0.38559756,-0.012789231,-1.5152338,1.6438097,2.703382,1.1120087,0.11431517,2.1907525,1.848385,1.0002761,-1.2584043,-0.1790907,-1.2304597,1.255586,-0.85956347,0.029780341,1.1030458,2.2138913,-0.23651415,-2.2437027,2.2546566,1.2850084,-0.05291865,1.2857542,-0.02684182,1.3614867,-0.89980465,2.6744196,0.8533602,0.1784592,-2.1345222,0.19255604,0.7926914,0.14235693,0.8143024,-0.056423217,1.2394058,4.110347,-1.5443012,0.008535614,-0.7416593,-0.030665891,-0.07906856,-0.13177995,1.2675987,2.1149526,-0.41874796,-3.3857787,0.45603165,0.19136739,-0.030258842,5.0546885,0.88866085,-0.94407076,-1.8418959,0.8662863,1.7167146,0.24539652,-0.98981,-0.2951228,-0.25186497,-0.03522881,-1.3913745,0.40712008,0.21757531,1.206284,0.6727369,0.5663031,0.2327629,-0.8481957,-0.39102697,1.971355,4.2432723,1.3374277,0.90843374,4.5259485,1.123417,5.585196,-2.812226,-0.29727194,-0.59824765,0.36947858,-1.1367761,0.7872328,-0.060965367,-0.7655666,0.86994755,0.15176593,-2.103336,-0.1935853,-1.6082429,1.7004629,-2.450722,1.9992467,2.4982357,-1.8149147,-0.9775484,-2.139626,3.375569,0.20752028,4.8090615,-2.6030688,-0.18670331,0.21323906,0.14677614,1.4695202,0.1718814,1.8587451,-0.1280764,0.020344596,0.105895266,0.25588304,-0.47985435,1.7156688,0.3482729,-0.9207231,0.49585867,0.29849795,-0.7185532,-1.7073048,0.60484385,4.866627,0.3489617,3.7453425,0.12290026,2.4806144,-2.6562831,0.30450004,-2.4439073,-0.27803364,-3.080148,-5.482829,-0.6193981,3.5420637,-1.0444751,0.8780548,-4.0206,-0.15691547,1.4259124,1.42268,-3.2567155,0.6869495,-0.03856398,0.19611683,4.48561,-2.5586953,-1.0227262,3.0839167,-0.26920927,-1.9300307,2.5312312,1.8499305,0.032007493,-3.7144535,0.8419447,-1.8348318,-0.6139417,-0.98600537,-1.6363977,1.3656466,-1.4800453,-2.2063775,2.2260344,1.1833168,1.2517544,-2.173205,1.4741855,0.013220932,0.36585316,-0.9841312,1.6089022,-0.5894254,-4.338388,-1.8027164,1.9024112,0.46333244,0.9246846,1.5776445,0.14879936,-2.3790665,2.0702503,0.741363,1.0205027,-0.03372809,-0.36045703,-0.17095073,0.9651382,2.020248,-5.320603,1.1007683,0.1049433,1.6841906,0.5616625,0.6381042,0.1197233,-0.20917864,-0.40845317,-1.7914948,-0.35431147,-0.8757255,-2.1034665,0.73668003,1.5971049,-2.047377,1.1257961,-2.0722425,-1.7168624,0.29430264,-0.5532098,0.42959866,0.61013436,1.8104395,-0.009984442,-0.22420865,1.4654325,0.6277016,3.771863,-1.1083953,-1.1966476,-1.5418441,-0.952816,-2.3961287,-1.6265458,1.529939,-1.7050333,1.0112814,-3.2872152,-1.0134814,-2.7852793,0.5702722,0.73800683,-0.05937886,-0.09452892,0.3963886,-0.09688741,-1.7043529,-0.0026151976,-0.94958,0.12816368,2.2702203,0.6452295,0.23872706,-0.28925085,-1.655255,0.92778236,1.3277409,-0.4648945,-0.43821582,0.18349276,1.1070639,-0.23579232,0.99604,-0.15153258,0.2285428,2.9249423,-2.4279652,-4.62368,-0.8254044,2.2636037,-3.6115584,-3.2627926,0.2972159,-0.2245261,-2.6960483,0.14045544,-0.5580325,0.5819596,0.8324695,-0.15657918,-1.4770352,1.9859452,-0.3265205,-0.54802763,-0.06802661,-0.65684086,1.7120111,-2.9278686,-4.8410654,-0.3182607,-0.07609726,-0.1967466,1.0303595,-1.1178739,-4.2469177,0.17332682,0.3761862,1.731799,0.45813838,-0.18392867,-0.3896271,-0.38192034,-0.15800513,-1.2509109,-3.8275375,1.2001284,-0.06330114,0.39458114,-3.3437798,0.046950918,-0.23415896,-4.6173778,-3.8827536,0.22750221,2.4108257,-0.93931013,-0.006973407,-3.3082647,-1.5765632,-0.77443576,4.764956E-4,1.6236248,-0.6418814,0.24438046,-3.8062184,0.9180769,-1.0638555,2.7256293,-0.23598905,1.2392198,0.124838784,0.7048657,-3.8127007,-0.23324142,0.18689038,-0.09440186,2.0877264,0.08741559,-3.5194356,-4.5145574,-0.8659536,-0.4815472,-1.3530453,-0.43920943,-3.1072934,1.9656357,1.4431063,1.9716696,-0.18227166,-0.78286743,-0.595998,-0.12896007,0.992996,0.64145076,-0.15261982,0.35968104,-0.2878615,-2.0982435,0.08014532,2.7372828,-0.44918504,-5.070443,1.4697438,1.2919915,-1.9448416,-2.002248,-0.31639558,-4.4689355,2.5735087,-0.024407797,-0.13006352,0.21378809,-0.82537115,0.08120806,-3.8892589,-0.3389761,-0.27851427,-0.33186328,2.0994925,-1.0944818,-0.435632,-1.2809491,2.6752691,-4.657692,-0.9913499,-0.47078383,-0.87045413,-1.2646803,-1.2971175,-1.6592271,0.04686375,-1.3188535,-1.0002496,1.3876368,1.3089797,3.195533,-0.16930312,0.5114979,1.8983828,1.8455087,2.831598,-0.6791447,1.1987615,4.628582,-1.8384261,-0.84840274,-1.0436413,-1.4395987,0.9564523,0.43047488,-2.6663883,-2.6822681,0.2945506,-0.025444388,0.29577014,-0.4271818,-0.60673773,0.9067092,1.3807197,-1.3110905,1.5453792,1.961033,-1.6444219,-1.818842,-3.209346,-1.6277966,-0.81552565,-0.058047313,-1.1613402,-0.43165702,-0.64881176,-0.042937964,1.6262472,0.8326141,-0.76698554,-2.54099,-1.1385978,-0.7764141,0.024909567,3.682897,-0.632321,-0.082591616,1.7325147,-1.1247234,0.094679244,0.31545344,0.5602287,-2.484414,1.0463115,4.404686,-3.6482027,2.7059264,0.956627,-1.1040065,-0.6968673,-1.8493751,-1.4655155,0.24068011,-1.5068313,-1.3378965,0.68558997,-1.5450058,-1.9315828,-0.2514335,-0.9684538,-1.5036377,-0.389889,-0.49037337,-1.49063,-1.6559157,0.4795205,-2.0939584,0.45596215,-2.0512023,0.5043645,1.8141507,-1.470711,3.4644744,-1.9266503,-0.5760157,-2.4040763,1.9411484,-1.5127913,-2.7777383,-2.337656,4.271337,-1.2704757,-0.17188837,0.7079795,-0.78387535,0.8899411,-2.9195244,1.584461,0.4625936,-0.42711294,-0.26964414,1.8216795,-0.925567,-1.5787661,-1.4545912,-2.1926625,-1.3203121,1.4436105,-0.88702846,-1.0691376,-1.7189693,0.56950516,1.3113567,-0.7464742,0.004976588,-0.42774308,-1.1580579,1.6372386,0.10341253,0.78105515,2.6437275,0.8894221,0.5780416,0.66409147,1.1062647,-0.49349797,-0.44587874,-0.23450696,-3.3605828,0.67698425,-3.2099257,-1.9101238,-0.04012627,0.8059169,0.19738728,-0.40509477,-1.0855901,-0.25277975,2.1027737,0.18078059,-3.6324701,-0.14501235,-0.327505,1.1780434,-0.80588406,-1.4366661,1.5326025,1.6362629,-0.46924645,0.22846557,0.5303076,-0.83928263,1.1687711,-3.2521467,0.71683854,-0.6758254,-1.4484087,0.36783057,0.5722769,0.35917455,0.58470225,1.9451648,-0.6693989,1.4880091,0.31192783,0.28434655,0.4998984,1.1119969,0.3208565,-0.5915767,-0.14893338,-0.24992718,-4.5214086,-0.9632714,-0.50563276,-1.5210396,1.0247426,-1.082865,0.07932412,-2.1274862,-0.8329364,-2.289446,0.5882198,-0.9320183,-1.1872976,-1.7190511,1.4857143,-1.0262635,-1.9659102,1.267115,-1.4382335,-0.88618463,-0.3681495,0.6002188,0.5208135,0.8095494,1.1510881,0.29161698,2.0081625,-0.6059582,-0.79858005,0.7798879,-1.7599803,-2.376505,-0.9648966,-2.7841651,0.99152994,0.20351137,-0.8934027,0.9150002,-3.1849663,-1.9880345,1.1091003,0.18683957,-0.97026336,1.136868,0.01447439,0.37639678,-4.2667513,-0.9436974,-1.0934504,-3.105376,0.039204117,0.7712712,0.53573155,-0.3177881,-1.3070763,-0.3242344,-1.0764457,-0.67667645,1.9411732,0.8735056,0.23144168,-0.113651305,0.932413,0.071056806,1.1267744,0.65942883,1.1376163,0.19437338,1.2394972,-1.2232985,0.515058,-2.6600094,-1.4303373,0.5214878,0.16939113,1.0452175,-1.9307398,-0.68714684,0.29064405,-1.7323058,-0.27468896,-0.2714329,-2.9837918,-3.5009995,-0.71152514,0.5228947,-0.7807957,1.7393086,-2.3922684,-3.3419256,-0.34049377,-1.2630408,-3.6916094,1.7208872,-1.7794219,-0.9401159,2.2385833,-3.1239176,-1.392876,-1.5726111,-1.0413312,1.1676183,-0.15769127,-1.2855043,0.7471417,-1.9880066,-1.449015,-1.9455501,-0.19493732,-1.0513482,-4.0277257,1.4857284,-1.8859512,-0.37395355,-1.4275805,-2.0324078,1.0289346,1.8341898,-0.48754048,-0.11438532,-1.5362655,1.2061611,-1.7595271,-0.58530104,0.95084774,-0.09013619,0.086273216,0.29772612,3.8437824,1.7004223,-0.63720435,-1.7613033,0.43630946,-1.6617918,-3.3460732,0.7643455,2.4337974,-0.99621457,-4.345104,1.4024273,-1.0777183,0.008211395,-0.29752365,-0.9114821,0.30508366,0.5983354,-0.2687168,-0.29922652,0.22434942,-1.9800423,0.25028798,0.6365717,-0.7781042,0.8997438,-0.22180021,0.82707274,2.1155689,1.7495934,0.95097834,0.5793775,0.5086581,1.3969924,-0.5270372,-0.43907765,0.2990493,-0.20521203,-0.20223151,0.25333402,-0.52940744,1.0189086,-1.8543012,0.18332033,-5.261832,1.3820827,-4.087531,2.3116133,-1.0219656,-0.55071807,-0.85502875,-1.7564023,-1.7554249,-6.1503735,2.1706126,0.6270748,2.9832213,-1.1007907,-0.72869354,-0.18604216,-0.18430507,2.5024548,0.1837112,-1.9535172,-0.021058774,-0.20845596,-0.7737101,-0.11909888,0.884536,-0.029754482,0.29216677,-0.9122525,-1.2108461,1.5689913,0.10731004,0.30505037,2.197876,0.07179947,0.9898373,0.28395686,1.0025666,-0.4370087,-0.06078664,-0.110580534,-4.722411,0.067493536,-3.8734138,-1.0852195,0.043796435,2.0304391,0.21349797,-0.51858974,-0.20068957,-0.030009903,1.2881128,0.16534333,-5.4363804,0.23849021,-0.4191474,1.2984613,-0.22601287,-0.61506754,1.3244133,0.61334676,-0.4602793,0.66695863,0.08925174,-0.05159392,0.92259157,-2.3427129,0.5573275,-0.42388332,-1.1489971,0.2698224,-0.72042346,0.42355505,0.18927126,0.9884668,0.020419475,1.3743641,1.0222446,0.78899646,0.21585569,0.70380497,-0.23898983,-1.3191742,-0.30376998,-0.05694817,-4.4763017,-0.90773594,-0.40593034,-3.107558,0.42144135,-0.68887216,0.35780522,-0.8424026,-0.5975101,-3.2081056,0.70874554,-0.67118734,-0.11730835,-2.1235242,-0.2279373,-1.7111487,-1.8560808,1.0559617,-2.4286005,-0.6028442,-0.5931232,0.7419801,0.9301398,0.5729935,0.524153,0.11813346,2.1551943,-0.58027095,-0.28879866,0.84828603,-1.4080642,-1.2888665,-0.40515164,-1.6650118,-0.80345666,0.51323503,-1.3233483,1.1532689,-3.7248366,-1.4386106,0.7069947,-0.04862128,0.009352086,1.0572209,-0.66244215,-0.30496278,-5.500235,-0.78140056,-2.300818,-1.9700431,0.7858433,-0.14990804,0.019333525,-0.29000673,-0.12593205,-0.14705452,-0.38933533,-0.90167224,1.2848715,0.7868118,0.12661435,-0.052513015,1.068377,0.07840205,1.0561001,0.34805423,1.2108184,0.05841252,1.9392872,-1.9043137,-0.20278147,2.3672245,-1.6659229,1.1217268,-0.31298983,1.6263788,1.210475,-1.1393015,-0.1839267,-2.090523,0.8950565,-2.0152473,-0.9031423,-1.1066378,3.9080062,0.946494,-1.760352,5.210136,-0.19772421,-2.7213657,0.5784969,-0.4359649,0.43082538,0.15330668,-0.09417458,-1.824389,-0.31981695,-2.2911286,-1.0072927,0.41674232,-2.518717,-0.7725123,1.6315405,0.124876976,0.12561981,1.529588,-1.5953052,-1.6404604,0.31333712,-2.9799697,0.8758839,0.5765017,-2.1142416,0.8496959,1.1858819,-1.537236,1.5281752,4.510477,-1.2473534,0.53113455,-1.47414,2.519704,0.038655117,0.5395147,-0.77567494,1.0889529,-1.0800164,-0.41940397,2.802722,1.1252767,-1.4810145,-0.8125899,-0.5647455,-1.8845751,-1.2264522,-2.1186693,0.5605315,-1.3561782,-2.256058,0.97191286,-1.1704493,0.4693919,1.6917732,-0.17019098,-0.6309408,0.049058717,-2.1842017,-1.1583033,-2.124704,-1.0850704,0.03745574,1.1832383,1.3426414,-0.33037627,1.4546221,0.52692133,0.45057017,0.80205905,-1.3259951,-2.6302903,-0.71588886,-2.6146169,1.7938223,-0.48712835,0.0539553,0.5344944,-0.22686732,-1.0707564,0.12165752,-0.009190555,-1.2328988,0.2360505,-0.26437432,0.103739135,0.91700095,0.22555967,0.037516244,-2.3202379,0.67383987,-0.040940747,0.32583892,0.96959066,0.517748,-0.45751086,1.022888,-0.8598053,0.40398324,0.9017614,-0.59174514,0.22485901,1.0944604,-0.44542307,0.06838675,0.99418116,0.8743952,-1.6665316,-0.13896722,-0.75293916,0.64608604,3.0946915,1.5719181,2.4120715,-0.28261325,0.1585367,1.1166332,3.122898,0.14618403,1.517278,0.31085023,0.94907844,-0.2092245,1.6991205,1.9667016,1.1278571,0.4018779,-6.1735773,-2.6786704,-1.7378658,0.28815106,-1.9704493,-3.1774778,-0.07959275,2.256288,1.802642,2.1854055,-0.817891,2.036256,0.44404662,1.4476749,-3.1471756,0.63451344,2.4381661,-1.032383,0.8971248,1.4173975,-0.46531,0.33513787,-2.1044524,3.6139238,-0.6682473,-0.09961098,1.5687054,2.1322043,1.160458,0.22622788,-0.01826955,1.3063326,1.031898,-0.7220019,-4.3986597,3.2093277,1.4351803,1.3225558,1.8259777,0.36693385,-0.8852387,-5.248961,-1.2830229,0.50299025,4.942968,1.3136911,0.44579372,0.06037407,-5.0829315,0.053643987,3.6872091,-1.1096959,-0.625085,-2.260697,0.7483387,3.2994688,2.0933242,-2.447158,1.017055,1.8700454,0.9669677,-0.5178577,-0.93597656,-0.04040682,-0.09134002,0.93326074,-2.0602207,-0.5079298,-1.0519077,-4.3296885,-0.84765357,0.98353016,-5.896864,0.7077111,-5.6696963,3.2969968,-1.2811564,-0.18079397,0.1386175,-3.4876118,0.9960532,1.2781062,0.9417287,-1.521661,1.1174048,3.4523394,0.66679144,3.6569445,-0.7349882,2.0591238,-2.0657196,-1.0298156,2.3826492,1.5288792,3.85128,-5.408969,-0.83981544,-4.695712,2.0546038,0.9327973,0.25689638,-0.48022693,-0.8879384,-0.1743451,-1.9002743,-0.094502956,0.38348472,0.3977494,1.6385679,-1.478901,-2.4638472,-0.24462453,0.15284726,1.0998417,-0.69828266,-1.6790074,0.22099933,-1.6735116,-1.4476612,0.18889728,0.6407723,-0.030367965,-0.77977926,0.6759768,0.21509908,3.4395704,0.86877084,-1.3910711,2.8831363,-0.19099636,-3.6201077,-1.45128,-0.5214077,0.37511826,-1.2562587,0.88660365,0.89895767,3.0407436,1.1083506,-0.72168916,0.28898096,-0.82867867,-2.8010378,0.10056436,-1.1659645,1.6782981,2.5013924,0.25797823,-1.7898123,-0.38063693,-2.2138722,-0.00303288,2.1945748,1.4177701,0.59287304,0.9078979,2.1541567,0.5942399,-1.6598723,-0.5885999,0.66343534,0.97242403,-0.035989072,-1.4201291,-0.121165164,1.0530132,1.334327,-0.57107145,-1.8322016,0.3380789,0.65396565,-0.7955612,-1.8517593,1.6249734,-1.0897226,1.0600145,-2.8410013,-3.269832,1.1238563,-1.7912952,-1.6026747,-0.529891,1.9784977,-0.81982446,1.392251,-1.3720288,1.2397301,0.5917223,0.34937492,-3.767512,0.09274737,0.48944625,-0.6596804,0.5592867,-2.153482,-0.7023605,1.2817949,0.6625241,-1.285655,-1.2549452,-2.4100263,0.09149001,-3.0192404,-0.53381217,0.04920897,-0.9361327,0.040231485,-4.4938354,-0.5342842,-0.5230357,-0.15948805,-1.3763547,0.9490677,0.28621095,0.97486454,0.51898897,0.114875,-0.24113637,1.106356,2.5295541,-0.22900133,1.1410347,0.32020748,-5.081051,-1.6450962,0.23564267,-3.8352942,0.42525283,-0.5615113,-1.8657368,-2.0474744,-0.3437407,0.9185416,-0.94729155,-1.2900158,-0.15869637,0.78776604,-1.6069056,1.3062025,0.6920612,0.4921266,-1.3175952,-0.2725979,0.19266446,-0.11684873,-2.555213,-0.04903986,-0.18577997,-0.025942344,-1.2236768,0.012365673,-3.1388514,-0.23298018,0.85149306,-0.3601822,0.2144917,-0.3388826,1.2567283,1.6095513,-0.35835057,0.95434445,0.23582886,0.70924616,-2.4683,-0.13287696,1.7359185,0.7486359,0.22310892,-2.5621214,0.40740025,2.1267912,-1.8543557,-1.6000421,0.88076425,-1.5465311,0.4098505,2.2013044,-0.72502273,0.92361253,-0.035264786,0.68367565,1.0544964,-1.5337234,-3.0241911,0.484224,0.052596755,-1.6096017,1.7978272,-0.8047541,1.079508,1.3293148,-0.009393176,-0.533832,-0.38450772,0.22406632,-0.14351828,0.35071996,1.4912639,1.0208755,-0.20057678,-1.4023998,-0.44403285,1.2686753,-2.0404432,3.9034808,0.40959093,0.894073,-1.7277021,0.49157885,1.4356406,1.5772911,-1.4104983,0.4653327,-0.4880721,-0.5875104,0.072632365,1.2168458,1.0509835,0.07868488,-0.47185808,-0.8235942,-1.177979,-0.0977533,-2.9149463,0.768384,1.9727031,0.4448434,1.3108195,3.5146306,0.8307413,4.9393973,-2.6141045,0.21982181,-0.3084816,-1.0455567,1.880851,1.3954241,-0.49387485,-0.72165436,1.4129527,-0.6767354,-2.789792,-0.15933308,0.8627594,2.15261,-1.699452,1.731024,-0.4154801,-1.8220692,-3.8149087,-2.1674225,2.7056875,0.5842571,2.3621156,0.28768262,-1.7042634,-0.67843866,0.5723878,0.8351615,-1.4113277,0.3132963,-0.5904451,-0.61337364,-1.6378648,1.391502,1.8270987,-2.899014,0.4434425,0.5474982,-1.7081933,1.2894816,0.21578151,1.4446194,0.09444343,1.3194532,-0.40995285,-0.55632174,0.099643774,-0.35698184,-3.5170631,-1.9087026,4.9139333,1.3880885,-1.1745373,2.0787566,-3.1266143,-4.185433,0.22768892,-1.4127674,-4.608804,0.66614336,-1.4548807,-0.90172416,1.9749448,-2.9045749,0.39879277,-0.76826054,0.83648944,0.4327747,0.5460016,1.2698603,-0.44850302,-1.0390261,-0.89312226,-2.5942326,-0.22701171,-4.790605,-1.0641124,0.019976795,-2.36249,1.2362897,1.1943845,-0.6104536,1.2020723,3.6797044,0.5017191,0.44854838,-1.4219778,-0.43994445,1.8030573,0.25556362,0.9144809,1.1790421,0.014033655,-0.11426851,6.18861,0.7642035,-0.2775897,1.3819717,0.33580884,-1.8735552,-2.8588798,-0.67400753,2.6915007,1.3537643,-5.330274,0.79163015,-2.205605,-0.03378921,3.7388928,0.3078482,-2.098383,0.68016845,0.09433244,0.026383338,-1.8860269,-2.6847022,-0.44813693,1.31437,0.1595736,-1.0094911,-0.7895517,-0.13555664,-1.2169956,1.0167822,0.5849555,-2.1546428,0.38488376,-1.3323321,2.4162943,-0.57399666,0.40175313,0.1799234,3.0876637,0.5097021,0.19295658,1.3910488,-3.0680194,0.49263215,-1.836722,1.106211,0.08195726,1.2870827,0.82888734,-2.962525,-1.8864831,-0.068400666,0.005654487,-0.69640183,1.6828567,0.043202598,-0.09679875,1.2459483,-0.6834067,0.1901301,-0.8167021,1.6887656,0.22894157,-2.9881659,-0.1391717,0.48428333,0.035381258,0.5162879,-0.15342991,-1.1177397,-0.08834564,2.9813728,1.3933533,1.3612267,-0.3288102,-0.30151713,1.2039638,3.5243917,-0.16197611,2.048459,0.07266827,0.6601178,1.501025,0.75829464,1.848779,0.30312508,1.6741583,-2.86186,-2.9673953,-0.6112804,0.37516126,-1.9386795,-3.2073529,-0.9758167,1.0360811,1.5077612,1.6469756,-0.84813434,2.216074,0.546319,0.627647,-2.4197037,-0.030203767,0.7296509,-1.4434302,-1.0240321,0.72241384,-0.6832656,-0.20393021,-0.9257742,2.8636074,-1.5659561,0.35211307,0.44713655,1.6579115,1.1986804,-0.43176222,-0.51056457,0.31322497,0.31958303,-0.4544262,-4.437722,2.9605756,0.8695986,0.61260337,1.0989046,-0.049670592,-0.7474885,-2.0217004,-1.6225896,-0.15012814,3.5660794,0.08020265,-0.17901538,-0.6078979,-4.730812,-0.26603657,2.7078485,-0.2375513,-0.74950284,-1.6270248,0.43992823,1.4838631,1.3777213,0.73113614,0.04511664,1.696938,0.70107794,-0.76164776,-1.8230453,-0.30778077,-0.4426874,0.5185494,-0.5577019,0.0030155687,-1.4843234,-4.119218,-0.79779696,-0.23278683,-4.2524557,-0.28854823,-4.8276935,2.92161,-0.25220695,-1.1180005,0.05707213,-1.2797978,-0.026981726,0.5993534,0.28677988,-1.6436026,0.31932425,3.5913322,0.0669774,4.659143,-1.3286904,1.990442,-1.7514102,-2.2633553,1.1696353,1.3447217,3.22175,-5.498094,-0.76226526,-4.6726985,2.494704,0.06592404,0.075239405,-0.2311911,-0.984591,-0.05279059,-2.3868053,-0.56544036,0.3758801,0.21559626,1.1165357,-0.6649709,0.7011559,0.28942433,-0.38144457,1.4345129,0.50011116,-0.1705503,-0.3506153,0.422435,-0.019893978,0.8258687,1.6233355,0.3782074,0.8746875,3.9404104,2.3386114,-0.29230714,-0.2435637,-0.15377077,2.303471,4.5378203,0.88610584,0.21844472,1.7446946,3.7466655,-0.52236414,2.4274468,1.6308177,-1.6042655,3.159577,1.1049337,0.9462728,-0.4091397,0.89187217,1.2486,-1.6982182,1.4875332,2.5335824,2.0175571,1.0045772,0.44575536,1.3106956,0.36552805,1.2756968,0.3706437,0.6997493,1.0541482,1.868799,-0.08317711,-0.8324722,-0.14611192,0.85014874,3.1239066,3.5819256,0.11022735,0.35063925,-0.9613953,0.46167707,0.63947904,-0.54360574,-2.9256423,0.7827359,0.483388,-2.8698275,0.38119546,0.10790604,2.3961751,1.4321243,-1.9003586,-0.8216404,2.1120796,-0.34137142,1.6233032,0.4051738,-0.71049494,0.43438628,3.4119494,0.4916584,-2.2178998,1.0651816,-1.0345017,3.0594954,0.74498254,0.6135218,0.53476363,1.4857152,1.2104759,1.2593172,2.0244205,0.36207396,-0.83322674,1.6738538,0.30095753,0.44861817,0.37259766,1.6945183,-0.75018066,0.6213549,-1.5100933,-0.66931796,0.15165432,-0.99223846,0.6702082,0.64414346,1.4325969,-0.833082,0.71559167,-0.52004784,0.48469564,1.0197899,2.6206944,1.2071441,1.7767098,1.0202739,1.0775129,-0.4177106,1.7273759,0.6369973,1.8463634,0.183977,-0.059883844,-0.6137949,0.22788347,3.5093627,0.062752694,0.090392746,0.33223116,1.5361028,-1.7895603,2.4346285,0.59278065,0.34963793,-0.47395462,1.1025317,0.06384443,-1.1532365,-1.566381,1.8455937,0.16398945,0.7997367,-0.5676061,1.4299887,-3.2993355,1.0828753,-0.40252054,-1.1800098,-1.0737529,-1.6867365,1.7451998,2.8822055,0.1269434,1.7562227,-1.9158245,1.1267568,-1.29361,0.30707997,-1.0230445,0.773282,0.85861796,-1.3573867,2.3157175,1.585634,-0.86983997,0.55282456,0.09405767,-0.450948,1.7221433,2.4017425,-0.3917295,0.02441469,1.1157633,0.12246694,0.7654076,-1.1512103,-2.5859685,0.07102067,-1.0903132,-2.290462,1.8045192,-0.17159602,0.9280356,0.47383574,0.6707308,0.2997103,-1.5378225,0.07769757,0.97967225,0.023294259,-1.1347008,0.6543726,1.1762345,-0.66323215,-0.983444,1.8977174,-0.06672085,3.5237136,1.323203,0.5436527,-2.3964634,0.7203719,1.5575438,0.2690477,-0.49834034,0.6539063,-1.4696794,-1.0788945,-1.0449499,0.9333665,1.9264944,1.328128,-0.24335547,-0.51428187,-0.24850985,-0.23768495,-1.7988088,0.28893432,1.007622,0.62879384,1.8945849,3.2515323,1.1108335,4.351282,-2.0809305,0.2995803,-0.12980737,-0.36800286,1.1498964,1.7955372,0.3559145,-1.4153999,2.1092772,-0.8424978,1.2071451,-1.3354787,1.3395947,0.54808235,-1.254553,0.21230093,-0.12335148,-0.44004926,-3.206726,0.21386157,2.7260535,0.27299124,1.0315601,1.3212591,-0.7597204,-0.20486026,0.44683793,0.9316801,-0.88496166,0.34514177,-0.3085217,0.05204149,-0.7349716,1.7157375,0.28021383,0.19179823,0.11967244,-2.755756,1.4798286,0.52809906,-0.934623,-0.9729456,0.7031252,2.8549814,-0.07738738,2.1370115,0.10293667,0.71215266,0.36598146,-2.5501647,-4.3917007,-0.41923147,-0.3290089,-6.504595,-3.444809,1.2077233,-1.4886444,-3.1764483,-1.5106626,-0.8303808,1.0863018,1.0617179,0.63479835,-2.712866,-1.5257589,-0.35476393,0.67556345,-2.923108,-2.5908887,2.7163458,-2.8859506,-3.580091,0.1506472,0.10079166,0.06716732,-1.257909,-1.0672277,-4.104876,-0.69626063,-0.5733706,-0.95888007,0.8791957,-1.1693481,-1.7743547,0.26450932,1.4437089,-3.0607474,-4.2548423,1.3274345,-0.28244832,1.0733377,-3.078745,0.33879843,-0.4949184,-6.2917004,-4.0874104,0.6623006,2.1244524,-0.006930417,0.3989205,-2.793518,-4.7554455,-0.4813407,0.04669778,3.2703924,-0.6245645,-1.0209936,-3.354488,0.75463027,0.3840199,-1.9702202,1.1534035,1.0132148,0.4655122,0.72358847,-2.512144,0.019981166,-0.49953136,-1.4524086,1.0924455,-0.20937607,-3.1923952,-4.812968,-0.6473535,0.42271483,-3.960108,-0.13400848,-4.8642464,-0.29512334,1.1736968,1.320635,-0.070329905,-3.0988579,0.17112643,-0.3423482,0.52798396,0.39881855,0.9222832,2.3492804,-0.08604615,-3.5399146,-0.6152342,0.3471705,-1.6894886,-4.1589265,1.4777108,-0.6697875,-0.9740792,-6.682522,-0.9130177,-5.204019,-0.11125771,-0.019040847,-0.15193346,0.2818079,-1.1167251,-0.03765897,-3.6051056,-0.15877126,-1.1770033,-0.22994252,1.3803036,0.13932624,0.70930636,0.1992439,-0.9934503,-0.46181515,1.5363553,0.8553447,-0.41384852,0.73829603,2.6198323,-0.07531051,1.5384963,0.035204317,0.57540756,-2.4867325,0.17613699,-4.9190354,-0.40299222,-1.9707769,-4.6431837,-1.4332705,3.4518197,0.517236,-0.45989767,-3.5039363,0.19065157,-0.716783,0.18779068,-2.6403162,-0.49257183,0.83937883,-0.3047942,2.444893,0.6373605,-0.51099026,1.8185215,-1.8885564,-1.9039006,0.9678478,0.7246874,0.48474485,-2.3386168,1.004793,-2.3261545,-0.70099735,-0.55654764,-1.5960768,0.10750408,-0.4851491,-1.6808814,1.2932327,0.53558195,0.04649473,-2.5732927,1.823298,0.7005857,-0.096597105,-1.8068614,0.20810087,0.91268796,-3.6443503,-1.689146,0.16993709,0.9064073,-0.26703748,0.5899085,-0.51511955,1.2489142,1.2747467,0.30200103,0.7085784,-0.307847,-0.4587157,-2.2251217,0.19362876,0.10030361,-3.625059,0.08435248,0.15933318,0.3334744,1.3627757,-0.05125828,-0.2027049,-0.11231472,-0.15109484,-0.26432997,-0.67537725,-1.5139778,-1.9086556,0.18434069,0.6883058,0.67130125,0.16654117,1.5260925,-1.4238247,-0.025840692,-0.38487473,0.13706727,0.5059742,0.71990263,0.8639308,0.039771922,0.2027531,0.09932855,1.6070607,-0.37186465,-2.3900576,0.005293441,-1.5455425,-2.3656068,-2.13036,-0.2698231,-1.4291054,0.22106452,1.5926545,0.75093114,-1.9718044,2.390093,-0.7010578,0.17088065,0.70487255,0.26397708,-0.16950661,-1.5083693,0.6242045,0.4183164,-0.017230239,1.3769675,-0.3044927,0.70071816,0.46382964,-0.93021214,-1.2587801,-1.3518907,-0.25512898,-0.28565297,-3.140466,1.036484,-0.114408575,0.561138,-1.6987578,1.3463287,-1.0471609,-2.2477179,3.9933612,0.44472313,1.8330845,1.8447514,-1.0486922,-2.2001464,-1.2797645,1.0520797,-3.695152,1.3178009,0.19629595,-0.104574785,6.0822,-1.2093633,0.18378118,-2.4826272,1.2864339,1.1556605,-0.8474282,0.7849567,0.69106436,-1.8934801,0.07850729,0.08336087,-1.1466489,0.68157256,-2.4139504,0.31615946,-0.42072338,-0.33483034,-0.17503482,-0.7085346,0.15974359,0.16529617,0.68315154,-0.8342297,-0.6688479,-0.11658092,-0.7248354,-1.3730491,0.8020679,-0.013910049,1.3792759,0.58421856,6.566948,1.0171398,1.5070785,0.9315064,0.427281,1.1085767,-2.1251762,1.0304087,2.6916873,1.8489568,-4.0896287,1.3087192,-0.023610624,2.0227363,0.6284538,0.19794391,-0.527074,0.0013430293,1.6864865,0.67896533,1.2731105,-1.3206787,-0.34681538,0.29567668,-0.9804145,-0.22135866,-1.9205835,0.519345,1.0933673,0.72958064,2.6604555,1.3277485,1.1481599,1.7769809,-0.19205412,0.51982045,1.475437,-0.53914374,2.390026,2.0672731,-1.1813176,0.63728267,0.12076568,-0.43149385,-3.9646704,0.89714295,1.3379673,1.6467524,1.1224797,0.9998676,-0.81347626,0.41768637,-0.9363139,-3.7554324,0.1325657,0.4440141,1.1309978,0.1530587,0.17008245,-1.2372136,-0.07857425,2.1538334,-0.9554067,-0.8809868,-0.56768477,-1.5156347,-1.74977,1.3361369,-0.29691133,1.4121832,0.12549283,-0.56733143,1.4964052,0.43610168,0.14386205,-0.93531746,0.18536276,0.92868793,0.779494,2.0053136,0.074823424,1.2107877,3.440753,3.8359482,-3.922075,-0.3796099,1.523912,-2.0352726,4.4321074,1.9264383,-0.17804818,2.361502,3.2749932,-0.09682787,1.6659842,1.919804,-0.3635424,4.1768856,1.4319276,0.24997325,-0.04079976,0.014503859,0.53043646,-0.58106893,0.25018412,1.2924118,3.0076885,2.0965297,0.35434747,2.1373546,1.3774905,-1.2175672,-0.52793014,0.95956403,0.93767184,1.4363467,-0.59225464,-2.270513,0.07387063,0.72523165,3.7231436,1.2037296,0.59169734,0.4028931,-0.62743276,-1.2132187,0.7213962,0.4581312,-5.145513,-1.0068547,0.61668605,-0.03857622,-0.20777115,0.7813259,2.67271,1.3757856,-1.9588426,1.3373139,2.8507326,-0.6973958,1.1771444,0.095821,-1.7156968,0.6206223,2.5111053,-0.08198021,-0.072241224,0.7937932,0.15297051,3.6419544,0.49490777,0.24051301,0.08760206,1.0430689,0.64913076,0.12172022,1.1546086,0.05748703,-0.41692254,2.3544664,-0.04937842,0.7723902,-0.059048146,1.0683309,0.1843812,0.6367944,-1.7765136,-0.68227845,0.50712574,0.17446047,1.7853353,0.15967035,0.30483964,-0.630137,0.7705968,-0.5277155,1.2868475,0.09668682,1.4088461,0.86881495,1.7023207,1.3567326,-1.3074595,0.12708338,0.23987015,1.067199,1.2491752,0.05405607,0.38895544,-0.52732944,0.31556767,3.827008,0.4675489,-0.31861094,0.27999347,1.894924,0.005202695,0.2045668,-0.3180653,-0.585014,1.2021778,0.032556448,-0.48001927,-0.468902,0.12495538,1.7554585,-0.6003563,1.4248247,-0.013315633,-0.14884666,2.805162,-2.948779,-6.133986,-0.47257262,1.7440048,-4.6792126,-3.959662,1.3577887,-0.40874192,-3.3671649,-0.27804276,-1.3650739,0.8798163,0.96165514,0.66308403,-1.6060841,1.7610486,-0.51788527,-0.30742744,-0.86341393,-1.8980646,1.2302288,-3.900793,-5.564771,-0.84753525,0.3750828,-0.28296676,0.29421982,0.5161366,-5.086465,0.40309903,-0.5532904,0.6590424,1.0327842,-0.33711207,-1.9834405,-0.27546674,-0.34044898,-1.6075387,-5.478228,2.4070575,0.16969867,0.50825673,-3.8287864,-0.6767097,-0.0749366,-7.2663174,-4.8307457,-0.3840941,2.5856524,-0.7535185,0.14168018,-3.5586655,-2.3742678,-1.1563048,0.9016258,1.7205727,-1.0875843,0.20723568,-2.7477405,-0.83755076,-0.04626,1.5095489,-0.36350757,1.8862514,0.4264499,0.52502984,-4.491731,-0.29370067,-0.95721835,-0.354975,0.9174557,-0.15358913,-4.294041,-5.867431,-1.6846387,-0.6948561,-1.8436432,-0.7076026,-3.3552926,1.0701833,1.0890303,1.0987127,-0.50356275,-0.8505592,-0.5986525,0.21318904,0.58053946,0.5650182,-0.3243178,1.7068341,-0.22656675,-0.36222303,-0.064234294,1.7880496,-0.6124512,-6.056405,1.2288766,0.4953754,-1.3200585,-3.663485,-0.34291807,-6.095028,3.169231,-0.23544183,0.016195491,0.29142278,-1.7665834,-0.15948991,-4.667966,-0.38943836,-0.34764305,-0.37615094,1.6661537,-0.7239494,0.028541967,-0.36767277,2.812927,0.49231213,0.38029763,-1.3320081,-0.47179794,0.62246954,1.4775455,-1.0067537,0.5848016,-1.0238227,0.5378794,-1.2568254,0.513135,5.882293,0.17164494,0.14908868,4.0452476,0.957923,-1.2441107,-0.6494691,1.3393227,-0.1721536,0.18912393,-1.421537,-0.8887828,-0.6774046,-0.6768275,0.07100039,-0.6643778,0.12035375,-0.337387,0.25228548,0.32373297,1.0808518,1.3650932,0.48666975,1.6136452,-1.5549251,-1.087753,1.0197296,1.7162415,0.16280745,1.1656271,0.1535472,-0.8715558,-0.25066686,0.60278237,0.88862425,-0.2372957,-0.82538795,1.5075842,0.48867673,-0.51993036,-0.64739907,2.9290714,0.40459815,-1.7952555,5.9084578,2.318101,0.9566792,1.7596457,-0.50319296,0.97317845,0.13737139,-0.16644426,0.89006513,1.0324111,-3.9773045,0.44710523,0.50436294,1.4075457,0.7015852,1.2779887,-1.0289285,-0.76414543,-0.21254031,0.12937969,-2.0601335,0.33524832,-1.0820186,0.32069463,0.2775973,-0.94723743,-1.2422583,1.7681978,1.1107993,0.54023755,0.8206974,-1.4940969,-0.2606918,-1.3405683,0.7820667,0.43540347,-0.15379931,-0.5811249,2.773084,1.1881081,-0.89154637,0.041500766,0.864169,-0.5140337,2.2282476,-1.1157131,5.0625033,-1.1959674,-0.21910015,0.7033521,0.9651441,0.05503504,0.6733308,2.381841,1.2718447,-1.6404252,1.4208702,0.5211056,-0.723284,-0.7813336,-1.6043378,0.6006703,-0.82354444,0.21783684,-1.8519027,-0.75340104,-0.35551742,0.17245401,1.3985442,-1.0246763,0.09600223,2.6637452,-1.2049164,2.4329703,0.07147746,1.417481,3.827046,1.5288806,0.26938713,0.71875954,1.4800519,-0.484052,-1.4031988,0.99936396,0.12174651,1.110603,-3.460731,0.501276,0.38348415,0.32299593,0.63187206,0.12565017,-1.4517667,-0.56336045,0.89217603,0.043997392,-2.5639398,0.09080927,0.6493112,1.7600238,-0.084057584,-1.156246,2.158965,0.48042047,-0.042680766,1.4406805,0.7912354,-0.45698938,0.9911836,-4.6207476,3.1901908,-0.34158206,-1.4335828,0.61330545,0.51676625,0.37651813,1.0790554,2.1655521,-0.1508897,1.6887846,0.5966843,1.0645528,1.405749,1.5820228,-0.23030213,0.8792868,-0.6217397,-0.39463693,-2.6547997,-0.08946591,-0.7615281,-0.6448289,0.5306177,-0.83766586,0.7777433,-1.8899614,0.10587954,-0.0731972,-0.5194482,-0.053696044,-1.5583482,-0.12675157,1.6916374,0.45139897,-1.8085014,0.86269003,-1.549639,-0.6083106,-1.5046645,1.1285325,0.3045592,0.76461345,1.7994146,-1.1286938,1.909824,0.18299793,-0.54118943,0.7431636,-1.5412588,-2.1397924,-0.91196233,-2.6390047,1.014301,-0.5966995,-2.2924628,1.0342904,-1.9003887,-1.0630791,1.3648531,-0.37916946,-1.4624258,1.0514241,2.3920243,-0.03201717,0.45196444,-0.981018,-1.4686202,-3.0003362,0.68399787,0.047740877,0.46704146,2.7715068,-0.36093616,-0.49249193,-0.73667353,-0.2415509,1.0405871,1.4265268,0.02240303,-0.5396132,1.0936742,0.18825606,0.8139044,1.3359741,1.6739361,0.1972698,-0.6704848,-1.3447828,-0.10514377,1.4047012,0.82908565,-0.10120878,-1.0985086,0.9152312,-0.68246937,-2.0675843,0.25185204,-0.82904315,0.12252056,-1.0716887,0.5234404,0.32994616,5.499372,1.0420711,-0.8986157,5.555204,1.2208412,-4.2548423,-0.420057,1.1928765,0.8450868,-0.5544864,1.629943,-0.07096217,2.7405212,0.4257624,-0.09523435,0.42370725,-0.8025588,-1.660094,0.7601903,-0.69779354,1.711023,2.3925624,0.28491274,-0.6779902,-0.35338876,-0.8539064,-0.09417402,1.7923454,1.1411183,1.0914845,1.0210066,0.059267774,1.1104825,0.8391146,-0.33032477,0.02643639,0.030961037,2.8847635,-0.24940236,0.11604111,1.0513676,1.270284,-0.5757065,-1.5148541,4.3151217,1.168724,-0.25996566,-0.040794738,1.2935205,-0.4108653,1.163161,-1.6935676,-1.4227726,0.36439154,-3.3277113,-0.2532131,-0.06523277,2.0101988,0.8302459,0.71411675,-0.84892,0.8210957,0.80728674,-0.28768414,-1.9036452,0.5619302,0.08917115,0.33438632,1.1949772,-1.4014399,-0.02897498,1.1990635,1.2717092,-0.30988738,-0.25255,-2.0142093,0.3762597,-1.7758247,0.46370146,0.022329316,0.29272833,0.15946601,-0.7541419,0.24587072,-0.32062683,0.32765087,-0.40407315,0.4608826,-0.708632,1.1135707,1.6981081,0.44928145,0.1547075,1.1350744,2.450022,0.6559595,1.0552013,0.57923424,-1.4164035,-1.1989585,1.2583004,-2.1033263,1.0648239,-0.14079583,-1.164255,-0.8187233,-0.10163246,1.0868152,-0.872805,-0.20182228,0.26410422,0.5663013,0.43617955,0.7870286,0.042609904,-2.6493967,1.4918468,0.92248213,-0.4511288,-0.37062177,0.49963483,1.7810327,-0.063623756,1.4360626,0.07884683,0.3711349,2.4841378,-3.17386,-5.114197,-0.8045743,2.4079664,-4.7035027,-3.8858888,0.84024376,-0.4887759,-3.3782003,-0.6763406,-0.02709535,1.0011117,1.104443,0.4574437,-2.4135435,0.7046876,-0.35816967,0.18398522,-0.4132677,-2.2027574,2.3839664,-2.790259,-4.707548,-0.61722505,0.41965327,0.0740395,0.7175444,-2.1103868,-4.256991,0.52266365,0.53880703,1.6495843,0.8171499,-0.36765325,-0.94898885,0.0967247,-0.24626979,-2.3897872,-3.9950945,0.5740528,-0.31410697,0.81415504,-3.5345528,0.3190938,-0.17765823,-5.3805475,-3.889339,0.45556435,2.6978412,-0.7552823,0.5991623,-3.560236,-1.7274706,-0.7976256,0.21786132,1.6483283,-0.285986,-0.3918154,-4.0535583,0.27481326,-0.79124486,2.4275556,-0.031140544,1.4503621,0.28576127,1.3188292,-4.0551972,-0.14093396,-0.10058843,-1.0917972,2.5138502,-0.21758133,-3.366153,-4.306367,-0.7864526,0.11068948,-0.9460118,-0.012550085,-2.7680142,1.7589386,1.7495166,2.4392283,-0.32415456,-2.7339225,0.0139125325,-0.27634016,1.4181353,0.86705095,-0.07267719,0.48642546,0.24328953,-2.631176,0.5690312,2.7492433,-0.40451163,-4.8351026,1.7925233,1.3854226,-2.917911,-3.0367396,-0.3534946,-4.2462296,1.5748641,-0.016163658,0.060479984,0.6852009,-0.68445843,-0.0389943,-4.3070097,-0.0933561,-0.41424975,-0.18203543,1.9974507,-1.5545062,0.33121315,0.41095984,0.1435873,1.6712003,0.22727402,-0.23536,-0.17368118,0.7133007,1.849888,0.78589296,2.739535,0.67105335,1.1274399,3.090071,2.0629807,0.5027371,0.26497713,-0.637242,1.4287391,2.7669935,1.2779497,0.07409076,1.1427146,0.25867942,-0.62264454,3.2415736,2.6427405,-0.16571362,2.9925144,0.857388,1.2434356,1.2748342,-1.9749779,1.0165471,-0.75076896,1.0462363,2.0446017,1.9848222,1.0895905,0.6710924,-0.45450586,1.7212797,1.1040603,1.5032622,-0.11190371,0.5597655,2.9064717,0.0122128045,-2.259141,1.2006348,0.9577837,3.2157533,1.0706391,0.6095967,0.9150588,-0.033403922,0.81974554,0.35269663,-0.89029884,-4.293742,-0.71749055,0.25340018,-0.6053079,1.3352561,0.72060245,2.4641082,-1.4531335,-2.1246881,1.5130504,0.634019,-0.8004805,-0.25793785,0.44344014,-0.5838875,1.2146114,0.22088864,0.7490614,-0.38265833,1.8793648,-0.6437113,2.2954223,0.6992631,-1.0478159,0.92623657,-1.211223,1.1729268,0.37055308,-0.08715247,-0.68655455,-0.2532554,0.16294761,0.45817548,-1.6918315,-0.08390674,0.30494177,-2.0680678,0.3267551,-4.5129495,0.55645347,0.75269663,-1.0149326,-0.74438787,0.8842,3.3201761,-0.04265983,3.0371401,-0.82386726,0.26845896,0.026231956,1.818141,1.378235,1.0444403,1.8582252,-4.09836,-0.5722961,-1.0706903,-2.3012302,1.8995457,0.59035456,0.32505333,-1.8938538,0.15229839,1.6918724,0.11878743,0.17245176,0.73002106,1.3371973,-0.1678822,0.27435786,-0.0739632,0.07543986,-0.6006614,0.7130456,0.09988932,-0.22871268,1.203471,0.21109134,0.5946332,0.93295103,0.5249166,-0.46491897,0.9887717,1.8409492,-4.016845,-0.07672911,-2.891535,-1.5484576,1.7420349,3.557596,-0.123022854,-0.12850481,0.4370838,-0.89080036,1.6413563,0.8937559,-4.356782,1.8180472,-0.024572318,0.5414794,0.877708,-1.0340044,0.58553624,0.3519895,-0.8382121,0.88003933,1.0701272,0.564641,0.65262675,-2.2836924,2.2532134,-1.1453991,-0.8343031,-0.74597067,-1.0229684,1.1856251,0.020731576,-2.1158993,0.3093498,1.1641222,2.100151,5.3185504E-5,0.6462501,0.37652674,-0.6339277,-1.526362,-0.6185368,0.25555316,-5.700192,-1.969708,-0.6100612,-2.1204965,0.38169923,-0.13434635,1.2585206,-0.84474957,-1.8740356,-1.2073452,2.885292,-1.7280496,-0.07456139,-0.7058065,-1.0684714,-0.07559812,-2.4407892,0.70070726,-1.4152937,-0.103917986,-0.52049506,1.6076505,0.33306053,-0.58914125,0.21591079,-1.145659,1.0460223,-1.0619822,-1.0493035,-0.5354424,-1.3091131,-0.3700029,-0.29931015,-1.1329583,-2.1928782,-0.066185415,-1.7946867,0.45973992,-3.3656352,-0.9260795,0.7186082,-0.5873349,0.19662936,0.7972488,1.0566264,-0.7003259,-2.4426863,-0.9559269,-1.9726341,-1.4475803,0.54785764,0.0371314,-0.6530813,1.7009015,-1.3320352,-0.09596528,-1.7353492,-0.4447883,0.9685508,0.14922808,-0.079659216,-1.6444154,0.3220543,1.3625166,0.82758486,0.01175754,0.56865966,0.70818466,-0.98754823,-2.335613,-0.6670974,1.1948158,1.0400969,-1.1188307,-1.966239,0.2943542,-2.630305,-1.0268787,-0.5419564,-0.10840767,-0.32545394,-0.9487647,-2.1018112,-0.0038385112,4.634353,1.0191842,-2.0118814,-0.16369341,-1.3236336,-3.6680186,-1.9204395,-0.34076905,-0.8397794,-1.1239324,-1.7799171,-0.41354516,3.272776,0.34376132,-1.5103579,-0.26827335,-0.73697,-2.7899842,-0.02298235,-1.0866492,1.6212908,2.636952,0.20085222,-1.9664059,-0.63933957,-3.1628523,0.6505803,1.8851354,0.76448673,0.07013638,0.3584271,1.169983,0.50813425,-1.1453768,-1.1003916,0.8921178,0.18048956,-0.42996642,-1.9246761,-0.45537537,1.2526286,1.6163598,-0.70758504,-1.880649,0.04969429,1.0273721,-1.0945264,-2.281532,1.7114733,-1.6397067,0.41436434,-2.9191773,-2.1354263,1.0722505,-1.9517106,-1.6069736,-0.5170597,2.9790852,-0.6513679,1.9291447,-1.9297605,1.3485662,0.35027424,-0.45313105,-3.7977843,-0.7062677,-0.067821085,-0.48180482,0.3155896,-2.428117,-2.793919,1.3624716,0.6063607,-1.0758469,-1.6326177,-2.896474,-0.52761745,-3.2921398,-0.61626875,-0.615582,-0.85721177,-0.40779534,-2.351356,-1.1702876,-0.9892793,-0.1140184,-1.2963852,1.085729,0.5832899,1.1225153,0.8203443,0.29812256,-0.40241283,0.3188193,2.4878733,-1.18668,-0.02383913,0.391772,-4.399178,-1.7546655,0.29550886,-3.2203805,-1.0710293,-1.1552321,-2.3182936,-1.3152115,-0.9724577,0.072267964,-1.1007737,-1.5601697,-0.8575207,0.2845424,-1.1846347,2.2771027,0.7208164,-0.88485795,0.22868375,1.0544474,0.044487577,-0.6208794,-0.9431851,1.1494896,0.45288205,0.46381253,0.15557152,1.3942801,-2.930805,0.1088339,-2.4085622,-0.81331676,-1.530397,-3.015329,0.9583294,3.297976,0.22986464,1.2344127,-2.6444724,1.4983935,-0.7035864,0.4048137,-1.7475489,0.58097893,0.06940558,-0.02900866,2.9057627,1.1468165,-0.53610134,0.5880668,0.53197384,-0.3938405,0.95450914,1.8338257,0.040227205,-0.21352035,0.52072567,0.29790127,1.2292002,-0.4265554,-1.6648064,0.30916253,-0.58760405,-2.0180237,1.4332575,0.4527246,0.76212007,-0.24385501,0.23661435,0.5815853,-1.0621119,-0.28717443,1.0617398,-0.17794688,-3.428412,0.73960185,1.0415665,-1.0843437,-0.26166466,1.576126,0.1365592,3.276611,1.5033567,-0.07456698,-2.9221675,1.0046964,0.9873097,-0.40821502,0.1575511,0.7615236,-2.2079034,-0.2888053,-0.9590449,1.0073829,1.7689831,0.86300755,0.46010748,-0.13489668,0.2838206,-0.80349535,-0.93037254,0.46539056,1.1864417,0.7945413,1.6868746,2.8266287,1.2016265,3.8538272,-2.2999966,-0.058479086,-0.29876137,0.28328508,-0.86898065,1.6932214,0.42887646,-0.9749786,1.5113984,-0.10802681,2.0452683,-0.8518529,-1.5031104,0.40343028,-1.4077137,0.22964707,0.18123448,-0.48272514,-1.5092806,-0.38846242,1.8352692,0.15805271,1.157454,0.22596857,-0.45845032,0.1347094,0.5736054,0.95672727,-0.111933395,-0.12686628,-0.15543942,0.2706306,0.027587967,0.97151303,2.0999992,-0.56730384,0.19071335,0.2839642,-2.1812425,1.6523426,0.06329785,0.23401515,2.3051307,2.3558881,0.18691614,1.2314421,0.75310856,0.10252314,-3.1411006,-0.675364,-4.098288,0.3062887,-3.2554533,-3.692006,-1.9891982,1.0099083,-0.3364177,-2.2266922,-1.988807,-0.014106294,-0.41079903,0.11873783,-4.5590053,-1.5375282,-0.6220596,-9.594791E-4,-0.04906576,-0.9588892,-0.07719364,2.9895096,-1.7956302,-1.7863669,-0.10600893,-0.65654427,0.81707,-4.9498625,0.82508206,-2.5829399,-2.3333254,-0.20015764,0.18380503,-0.008604304,0.10822239,1.802447,-0.13492478,1.7151091,-0.6080153,-1.564719,0.8453533,0.30830303,0.53942645,-1.5315636,0.2692075,0.23852384,-4.191029,-1.6709497,0.051510133,-0.15539286,0.075408496,-0.8139918,-1.9293016,-1.6051015,0.14684968,-1.6923051,1.2336932,-0.9252593,-1.1993718,-2.4863498,2.0386329,-1.0593172,-3.2839143,1.5242176,-0.84320915,-0.59279007,-0.038125545,-0.9341057,0.08301095,0.9121557,-0.23208266,0.5875576,0.71197534,-1.589602,-2.1788213,0.76184064,-0.7801772,-2.40156,-0.562296,-2.717308,1.2193674,0.21210039,0.12206554,0.66167295,-2.0113187,-1.3569707,0.50951195,0.7557511,-0.40383524,1.2177061,-0.6922831,0.014630153,-4.350736,-1.0064464,-0.8566483,-3.728868,-2.2299902,0.35493416,-0.8299306,0.018410524,-0.95280504,-0.13681608,-1.9465702,0.63639545,0.16844186,0.46148917,0.19569096,0.08353131,0.81764036,-1.6071222,0.97511524,-0.113809444,0.51408285,-0.21286048,-0.15699576,0.85081965,0.5969741,-0.9776777,-0.5073345,1.0859412,-0.042336285,-0.34370738,1.5766422,0.89089936,0.8251776,1.5237714,0.71221983,0.45336124,-0.2844306,0.55386275,-2.811334,-0.35451564,-3.1761599,-0.9555168,1.1838732,3.040152,-0.11007256,-0.06548791,-0.2081983,-0.44263923,1.5417372,0.5217352,-4.974706,1.2339791,-0.3278982,1.1181072,1.3474648,-0.81282353,0.6497789,0.36367938,0.07595292,0.9568376,0.7455179,1.1204389,0.7023225,-2.3207219,0.4899793,-0.11282922,-0.3822518,0.24343492,-0.4227391,0.9954686,-0.18020096,-0.85837376,0.9198439,1.1819562,1.6284984,0.68823063,0.23504989,0.6654391,-0.64885867,-0.916186,0.32526025,-0.39844224,-4.4067955,-0.79520136,0.18854105,-2.914781,0.2603676,0.35966164,1.0053998,-0.40828153,-0.19827372,-2.4145036,0.73006934,-0.33055136,0.3839344,-1.2718694,-0.1567616,-0.58674175,-2.4130192,0.92582434,-1.9588472,0.42978385,-0.54455364,1.403941,0.66750294,0.24564683,0.22813343,-0.6315397,1.3808064,-0.21305512,0.27100027,0.5908433,-0.7217958,-0.8585224,0.26640204,-0.93614084,-1.4945964,0.5473753,-1.8885667,0.8744808,-3.4771862,-0.18983005,0.53852445,-0.6588859,0.7954207,0.88835466,0.5260204,-0.9206451,-3.7562382,-0.9596463,-2.2350097,-1.3548954,1.1247742,-0.13888715,0.2509425,0.6221124,-0.3218401,-0.49991074,-0.048054855,-0.69329524,1.4631953,0.6538908,0.2455434,-0.3904443,0.43617773,0.6940157,0.6278273,0.14401416,0.7933112,0.8100889,1.4985244,-1.4895495,0.7061496,-1.2926095,-2.1018243,1.670422,-0.07777064,0.8941573,-0.8366298,-0.3047844,0.13574964,-1.26113,0.18092948,-0.86780757,-2.6349173,-2.681302,2.1115613,0.30891073,-0.8891507,3.0068517,-2.4504669,-3.5530138,0.005155855,-1.2381759,-3.1999075,0.8271272,-1.6813107,-1.058207,-0.3652491,-2.4712317,-0.6493364,-1.0227287,-0.46959057,0.44768655,0.26501754,0.32130408,0.46601668,-1.1026593,-0.9989554,-1.61495,-0.1607418,-2.9577851,-2.498245,0.9703452,-2.110359,0.49905688,0.7670923,-0.93748134,0.68173766,3.0402997,0.1577544,0.55437315,-0.7769063,1.1634551,0.33231,0.13518868,0.41095543,0.69970244,-0.19274113,-0.3559223,5.1592603,1.5135064,-0.6201155,-1.5138693,-0.049348295,-1.6635002,-2.874336,-0.19064227,2.0836082,-0.99524015,-4.279036,0.51514614,-1.4847631,-0.7730267,1.8222253,-0.92801577,-0.46958983,0.535969,-1.1429473,-0.1730998,-0.8761798,-2.0665798,0.27496678,0.9229927,-0.13823794,0.514164,-0.18004753,0.7843866,1.0552287,1.2520775,-0.16547796,-0.9531326,0.2676923,-0.06451134,0.85837466,-0.25704896,0.1836657,0.15204726,0.6187855,-0.41439572,-0.020283334,0.6514315,-1.9540508,0.33407193,-3.4906182,0.38726312,-2.3529844,0.91720337,0.38053077,-1.6266873,-0.8905504,-0.8442568,-0.38640797,-2.906539,1.6435614,-0.16658734,1.9775636,-0.26866972,-0.49203804,0.31444353,-0.43913978,1.5131897,0.42459232,-1.9676632,-0.17187,0.18042807,-0.27473179,-0.044800386,0.3892815,0.6217903,-0.2599504,-2.396155,1.1722385,-0.028137682,-0.47215635,-0.839681,0.100600734,1.4307203,-0.60882574,1.7333596,-0.27803263,0.4163501,3.107203,-3.8090239,-7.0454087,-0.75548714,1.6456271,-5.586961,-3.6125555,1.8435898,-0.7686061,-3.3138983,0.8710426,-0.8432256,0.62039137,0.56579715,-0.76126254,-2.1385305,0.8851318,-0.6889214,-0.74210525,-0.067502536,-2.3551779,2.1727374,-3.5910325,-4.886837,-1.0747105,0.45880222,-0.31782335,0.85591394,-1.81925,-5.047958,-0.007655031,0.020793898,1.2587104,0.8420606,-0.5730983,-1.3664637,-0.3564927,-0.40831462,-2.2270732,-4.534434,0.6357498,-0.63296086,0.2054108,-3.6147685,0.39176756,0.04969872,-6.8823404,-4.215669,0.63268846,1.8528632,-1.5585195,0.38318378,-3.9618397,-0.8377146,-1.5753859,0.2783125,3.3946402,-1.0035533,0.44693413,-3.6364548,-0.37631464,-0.7003479,2.0444198,-0.3610642,1.0303637,0.30181906,0.66911495,-4.0088525,-0.22011127,-0.23065932,-1.1844946,2.4068542,-0.1293196,-3.8188293,-4.89468,-1.1337901,-0.56354594,-1.2487755,-0.5786037,-2.2526133,1.3575523,2.166595,1.8598865,-0.42286912,-0.20572628,-0.6725974,-0.66837126,0.7008108,1.188567,-0.29737666,0.7976517,-0.3659453,-3.747982,0.47714177,2.3804796,-0.59141695,-5.300465,1.4558425,0.9753171,-3.3481917,-1.5521944,-0.2672403,-4.9873567,3.2128386,-0.18809061,-0.21572666,0.5228166,-1.3436567,-0.0402881,-4.0259337,-0.30818763,-0.8053502,-0.51832426,1.7596221,-0.514497,-0.6112484,-1.1561671,2.429756,-4.7783723,-0.8160315,-0.3297416,-0.7310029,-1.2407641,-1.0193713,-1.5456228,0.20874682,-0.92526597,-0.9651942,1.215571,1.0762086,2.926288,0.0010084737,0.90073276,2.0897691,1.6493428,2.6615472,-0.674679,0.8168467,4.2063136,-1.7858568,-0.913311,-0.9144382,-0.37710142,1.0413516,0.4636716,-2.3529298,-2.7221954,0.36514005,-0.4212206,-0.0864342,-0.70663553,-0.7906373,0.5316884,1.1603836,-1.0417207,1.7917283,1.7607574,-1.6540556,-1.256596,-3.3090007,-1.7496405,-0.14610441,-0.103803754,-1.1157943,-0.41371012,-0.40015087,-0.053666566,1.0723768,0.927327,-0.57124287,-2.2223926,-1.2721231,-0.830346,0.2589679,3.604388,-0.83726066,-0.24715346,1.6691751,-1.4265908,0.024391467,0.22890534,0.5285025,-2.3890204,1.4644941,3.8812087,-3.0736368,2.398605,0.9673941,-1.0450064,-0.29223725,-1.7161764,-1.3602922,0.31925577,-1.1378056,-1.3654898,0.57026404,-1.209193,-1.9902604,-0.52044064,-0.6887282,-1.3246648,-0.6482758,-0.59428364,-1.4423014,-1.4660016,0.079305194,-1.9736047,0.28812346,-1.9146829,0.5044112,1.4156152,-1.0536779,3.5499,-1.7829676,-0.37127513,-2.2892156,1.6566055,-1.3202716,-2.6867247,-1.8651198,4.7150145,-1.187049,-0.132533,0.72828925,-0.92011344,0.5933305,-3.265076,1.4514003,0.4345409,-0.29951772,-0.24655356,2.0044746,-1.1042349,-1.1896232,-1.2206718,-1.9363338,-0.84048635,1.3854614,-0.57315326,-0.881435,-1.2205728,0.31643522,0.49854612,-0.41201922,0.22221503,-2.765969,-0.13647328,-0.027903832,0.23731981,0.10713116,-1.4696704,2.7922063,0.47293764,1.1704464,-0.6364814,1.1517942,-1.2521428,-2.695259,-1.9723138,1.1130004,-0.19834569,-0.39661285,-3.6448371,0.079129174,-0.91057223,-1.0889935,-5.770336,0.7500792,0.72302186,0.54381925,5.578032,-2.263227,0.4857709,-1.1327453,2.5395224,0.92723227,-0.635372,2.6154718,-0.67074966,-3.8942606,0.42640415,-0.98432565,-0.42043296,-2.0209284,-3.3847253,-1.4247023,-1.2024351,-0.79570013,-1.5373186,-0.0035947985,0.3451659,-0.20748502,0.62491286,0.110466525,-1.3378541,-3.2451823,1.2484813,-0.5960323,2.084821,-1.9297686,1.1230397,0.8962197,2.5785763,-1.9688424,1.1117915,2.5192275,1.5206712,0.30291554,-1.8725342,0.10724658,2.529282,1.9076607,-2.1168122,0.4285553,-1.8950323,-0.9687226,1.2426447,0.20773675,-3.8514225,1.3154285,2.7559733,0.18011735,0.85006696,-2.3808148,-0.15698035,0.22622676,-0.79993516,-0.62599367,-0.4126636,-1.5416648,-2.790573,0.82414347,2.167363,0.17496978,0.97653455,0.97931623,0.06709409,0.34498608,1.9840655,0.26027146,0.8035336,1.4567765,-0.3103843,1.315269,-1.4215131,0.60608727,-2.9789007,1.926752,-3.312707,2.0420942,0.1705321,-1.8481255,-3.3843162,0.7722871,-1.8459548,-4.6205487,-0.17773834,0.62543374,-2.5912845,0.9978784,0.2723343,-0.5278873,-0.09231243,1.4939646,-0.262181,-3.3531988,0.1720232,-0.9345172,-0.49671736,2.4842002,-0.60505736,-0.7650728,-0.44854805,2.7585888,0.36039636,0.55912584,-1.0984892,-0.078344844,0.776742,1.4151397,-1.3376396,0.56523955,-0.83906204,0.329501,-0.9361449,1.1394844,6.378902,0.49286288,0.2629834,4.494746,1.2053001,-1.6335002,-0.434119,1.5755551,-1.5764794,-0.49731916,-1.2328224,-0.8136316,0.5479071,-0.10496374,0.80070525,-0.5290612,0.03066494,-0.6634695,0.7438888,-0.22287308,0.79978865,1.4005798,0.87051153,0.55992687,-1.3489054,-1.6824986,1.450263,1.0054654,0.3689192,1.207185,0.7195312,-0.5860912,0.15853417,0.5602197,0.8491885,-0.2199585,-0.47058952,0.88472956,0.78314286,-0.39894828,-0.49769434,2.583134,0.18664102,-1.701055,5.991797,1.7972115,0.67558986,1.9452622,-0.42216805,0.5832322,0.597516,-1.0880265,0.36754927,1.5853537,-4.2898455,0.6039383,-0.0832617,1.3726014,1.1018504,1.4962931,-1.2278074,-0.6394921,0.10692276,0.27318054,-2.4660678,0.6450091,-1.2124385,0.040959824,0.72693413,-1.1309091,-1.2364995,1.3484608,0.39007443,-0.15913928,0.6235201,-2.272852,-0.17023613,-2.1381671,1.2080641,0.33816025,-0.77548444,-0.67824996,2.3124933,1.426783,-0.70886165,-0.18712425,-0.055309433,-0.4997556,2.195058,-0.66037446,4.962904,-0.6922239,0.20124857,0.22729592,0.71870905,-0.07364946,0.9465904,3.005316,0.6296539,-1.5928993,0.5094592,0.52075887,-0.8135002,-0.39565325,-1.1137276,0.024158955,-0.9026188,0.51902384,-1.6813577,-0.552461,-0.31082627,0.7744801,1.1902194,-0.34060058,0.30364868,-2.0740395,-0.55679226,2.559109,1.1841862,-0.011160114,0.72153854,3.1827517,0.33045724,1.7520192,0.28757653,1.1851158,-3.270225,-0.62060446,-5.2595177,-0.26603615,-2.2276525,-4.284403,-1.981104,1.0044845,0.5763469,-1.4308577,-4.2801313,0.80648535,-0.6692624,0.92343944,-1.9592268,-1.5670826,0.822287,-0.5207022,1.4097477,1.3384912,-0.03800663,2.4007828,-2.2274065,-1.674636,0.66820073,-0.3683821,0.6660349,-3.1032343,-0.6018048,-2.5267181,-1.684724,-0.021201666,-1.2724344,0.22438845,-0.07390564,0.06957867,0.70793295,0.8710524,-0.5581481,-2.1674373,1.7904723,0.85930365,0.0659442,-1.8960593,0.92236006,1.3232585,-2.1638548,-1.3831388,0.79591393,0.92658967,-0.41309163,-0.12088997,-1.310303,1.6178616,1.6589092,0.19723812,0.016519314,0.3313177,-1.4589173,-3.0449152,0.6572998,-0.28025582,-3.5216599,0.29550427,-0.09811454,0.30631125,1.0665249,-0.09516193,0.14331156,0.5778533,-0.08645877,0.35451967,-0.11120686,-1.4287447,-1.7543147,0.8873784,1.0495949,0.747697,0.25988722,1.6980296,-0.11739981,0.13118273,-0.11537661,0.40091038,0.23957014,0.48727745,1.0226563,0.7303201,-0.9256345,0.4515565,0.01609892,-0.018721918,-4.2350345,0.61303115,-1.4564846,-3.03129,-2.0959826,-0.23780453,-1.2203354,-1.6481519,2.3590102,1.0895823,-1.6973807,2.507007,-0.3642444,0.29130313,0.7830232,1.1256838,0.34207028,-1.620796,1.0709679,0.71455544,0.08470504,1.0449632,-0.5500445,-2.0808904,-0.7248858,0.25271776,1.3387797,-1.151184,-0.64198816,0.6548899,-0.42164817,-0.43290624,0.013623493,0.8517589,0.03707495,-1.2683197,3.6036386,0.76426286,1.4076686,0.85001427,1.1837543,2.0778682,0.65777415,-3.042276,-0.8383808,0.22507444,0.029919742,-1.6785986,2.2917671,0.9111114,3.5851436,0.8921303,-0.3536903,0.31957233,-1.8834498,-2.9663544,0.7733819,-1.6323249,0.89925075,1.0724512,0.707477,-2.061808,-0.13504317,-0.019727638,0.33426946,1.2222208,0.88016725,0.24540201,2.5447755,1.7571694,0.8222421,-0.8069539,-1.2928971,0.34990948,0.7328861,0.02891636,-0.8276337,-0.3298292,0.96189815,0.8420429,-1.1840225,-0.5931378,-1.8803841,-0.5497486,-1.4428024,0.078263365,1.6185914,-0.9811268,0.858935,-4.1920652,-3.848083,1.0968963,0.8811774,-1.709805,-1.498622,1.3777326,-0.22920984,0.875962,1.598907,0.97732127,0.871199,0.041663744,-2.2715085,0.19072331,0.06273348,-0.6022186,0.79455334,-0.13352163,0.28940603,0.0740004,-0.9607115,-1.5963174,-1.8870778,-2.4022245,-0.7517728,-4.052079,1.9768147,0.52408206,-1.1109375,-0.04444246,-3.9116838,-1.2188872,-0.4840771,-0.1018487,-2.1516182,0.64682114,0.6037832,1.0253888,1.0333188,0.49567935,2.0435202,0.5259955,0.8165647,0.7307041,1.8450972,0.49269965,-5.6113434,-0.58949244,-1.4350102,-2.833415,0.8846083,-0.30632955,-0.6723474,-2.4715912,-0.03655778,0.6337641,-0.33574325,-0.67401797,0.041139595,0.9714831,-0.88116086,1.1589483,1.1407179,0.38414428,-0.54484886,-0.25117347,-0.4683674,-0.35963035,-1.3939483,-1.3315384,0.9435577,-0.79128844,0.19009574,0.21580027,-0.9383572,0.9846668,1.0908717,-0.5965711,-1.5555642,2.858009,4.318257,1.5406722,-0.114709295,2.6765964,2.4320428,1.4662635,-1.2465875,0.34598836,-3.223662,2.295855,-0.27196488,-0.13587084,1.0691084,1.7003282,-0.9231051,-1.696718,2.5893795,2.6359582,0.9793791,1.684832,-0.31624842,0.66603047,0.48715302,2.58181,0.38678572,0.7199398,-1.3877202,0.4852308,-0.24187133,-0.19191605,1.3132752,0.10078818,2.1152644,4.7057905,-0.60541356,0.22326076,-1.7879262,0.78182477,0.46462116,-0.7072265,1.3283821,2.5147989,0.19994013,-3.8035574,-0.9160659,0.6361878,0.773164,4.830408,0.53134334,-1.1949482,-1.4271998,0.7354012,2.0305574,0.4465364,-0.39290845,-0.16314727,-0.13797191,-0.7359979,-2.6366253,0.92137736,0.09264207,2.532547,0.94111705,0.9213907,-0.08396452,-0.97604,-0.67679024,2.441302,4.2733154,1.3142363,1.1109998,4.0736485,1.2447385,5.0581574,-2.9642358,-0.3254395,-0.5020031,0.42274413,-0.066723384,0.9883999,-0.052137587,-0.9579241,1.4869063,-0.40663654,-1.3310854,-1.8817486,-0.32276884,-0.15430574,-1.8023567,1.5278223,3.212775,-1.5264397,-0.8331802,-0.35096025,3.2413557,-0.455324,4.7346573,-2.5787275,-0.19107075,0.2579184,0.049158644,1.1892251,0.0634744,3.0181828,-0.5860171,-0.2074623,0.086777695,-0.22642426,