-0.46987936,0.4469055,-0.46738565,-0.045819268,-0.3622817,-0.5110677,0.273048,-1.013345,-1.1852025,-0.39351436,0.28953773,1.4839251,-0.7403793,0.12088987,0.8106672,0.7925764,-0.3771205,-0.036844656,-0.6345292,-0.12579617,0.6551479,-0.037109204,-0.733576,0.16770312,0.16371678,1.2679615,0.43714675,0.12107038,0.39242265,-1.6118643,-0.29693276,0.5367612,-0.036441907,-0.6341954,-0.38713494,-1.1571876,-0.2489876,0.21789142,1.7741059,0.77827483,-0.13147901,-0.14774734,-0.057992168,-1.408234,-0.40432674,-2.073802,-0.20615987,0.9972694,-0.71156096,-0.5848275,1.2134346,-0.74349225,0.4701956,0.42899707,-0.03117043,0.12251803,-0.8925907,0.2633722,0.5844105,0.9020996,0.21368349,-0.2571214,0.8254146,-0.34566095,0.41971925,0.52222615,0.5048349,-2.6841276,0.29640168,-1.7710971,-0.26932952,0.6786129,-0.31296518,-0.27892792,0.62470126,0.021401778,0.072234504,2.147875,-0.65772885,-0.44321737,-0.4646075,-0.35663825,-2.9223049,-0.123928435,0.2000359,0.0018405274,-0.6955934,-0.06244441,0.17739162,-0.31568864,0.43939593,0.59149134,-0.53514946,-0.46296275,-2.135394,-0.13240956,0.4874695,-1.2274348,0.9028226,-1.8950706,0.49631128,-0.07724401,0.22275856,-2.501424,-1.600694,0.02607244,0.32344246,-0.60995805,0.5024595,0.073401175,0.16443302,0.22946618,-0.043165404,0.2461168,-0.25650826,0.99512875,-0.5330741,0.17565376,-1.0214641,-0.54361373,0.45817956,0.5635332,-0.07345316,-1.0677242,0.35878426,0.05918423,-2.1579447,0.13611127,