0.028828377,0.041040353,0.5949581,-0.68758446,-0.8007795,-0.66879594,-0.33719575,-0.5473746,0.33190024,-0.15988319,-1.576211,0.5999404,-0.37951896,0.4642703,-0.030307941,0.51841545,0.49213788,-0.35373172,-0.7818478,-2.1572015,0.22414437,-0.51108503,-0.7690124,0.05945831,-0.46669117,0.6543432,1.0050976,0.2479753,-0.047203112,-0.09678282,-0.26361257,1.0643685,-0.77404267,-0.52184004,-0.66741055,-0.07142951,0.056303017,0.14557748,-0.72852397,-0.8461612,-1.3167478,0.017566822,-0.8228241,-0.3921986,0.062948614,-0.13251363,-0.010833559,-0.13022897,-0.096540354,-0.60391414,0.4381407,-0.1830854,-0.92754704,-0.4659731,-0.19526933,0.65832263,0.14204396,0.5005477,-0.43763474,-1.226974,-0.11320693,-1.626537,-0.013659453,-0.12872657,-0.72681814,-0.79700977,0.059608646,-0.22590886,0.89267844,1.4189509,0.09599812,-0.18045859,-0.31365955,0.28178656,-0.16699113,-0.2055523,0.6830475,-0.9887346,-0.18791808,-0.19079368,0.5521881,0.124274045,-0.68826735,1.1839647,0.70910877,-1.4281335,0.5348037,0.036333583,0.1473054,1.2550204,0.8845465,-0.49932244,0.08362442,0.33747253,0.44888783,-0.1891591,-0.60029936,-0.065170154,0.52989304,0.2630657,-0.026910476,-0.57602805,0.29994765,-0.41390884,-0.14974631,-1.8128167,1.1447123,0.7608738,-0.71076965,-0.43026865,0.5566176,0.5461764,-0.09426093,-0.19599135,-1.1313566,0.25286475,-0.037544396,1.0364411,-0.13639869,0.08748208,-1.4927261,0.7526405,0.1239104,-0.46205062,-0.40944564,0.71545327,0.23285474,-0.48947877,