1.4953333,-0.94176376,-0.960029,-1.4169749,-0.49237368,-0.062014364,-2.507755,-0.2992603,2.9590127,-1.3045483,-0.17882122,-1.0431303,-0.5601282,1.3131653,5.5709705,-0.9881828,1.8908738,2.4368522,-3.8077734,5.024819,2.2592263,1.9681431,0.35630047,1.9017069,0.88600224,1.0242862,1.591236,0.63163745,1.1014127,-3.8269465,0.53659165,-0.08641537,-2.0736532,1.4186144,1.8827239,-0.94343317,-0.5450404,1.0177436,-3.097453,-1.8994297,-2.3652723,0.6740535,1.3827413,0.49447763,-0.39837185,-1.038241,-1.9983733,1.864001,-1.1479422,1.4884732,1.579135,0.19602622,1.7276205,1.4685647,-0.09117513,2.946349,1.4702469,-1.6405523,-1.5917478,1.5499424,1.7028376,0.41381156,-4.388812,-1.5790837,1.2882892,-3.3576512,0.19931431,-0.08378617,1.8403636,0.22246967,-2.6473987,-0.2035249,-0.5362434,0.9123858,-0.07161559,0.26300052,1.8209918,0.66158336,0.024547853,-0.38698074,2.7300534,0.21664418,-0.93342924,0.75639236,-0.03548076,-2.9008284,0.44217482,-1.1721996,2.2172863,0.24165078,-1.1691784,-0.7948762,1.6070808,1.2399138,1.4026377,1.2328362,-1.423216,1.0580628,0.81699467,1.6000241,-0.7258934,0.46037024,0.6126857,-1.1768541,-0.033522747,0.82224095,1.2842622,0.34680334,1.4514784,0.20513435,-2.197356,-0.035884857,1.1934509,-0.09255293,-5.403066,-0.07124637,-0.31452906,1.2226338,-1.1031511,0.9475391,-2.825453,1.2990242,1.5418802,0.9280736,1.7156005,0.039759867,-2.3858724,0.77401906,0.91919094,-0.16030276,1.5291064,-1.4077922,-1.669079,-1.8657165,-2.8057432,0.36753875,-0.112543955,-2.6055515,0.03910011,0.40047154,-1.3472086,1.932677,-0.14347713,-0.11173931,0.33916256,-1.3528672,-1.0457362,3.2245636,1.3348094,0.7936819,1.1124234,-1.27543,2.2536092,-0.94349563,0.25595,-0.46566418,-0.64765114,-2.8729398,-1.202953,0.5407337,0.93418753,1.129085,-1.9075505,0.06626892,0.5909338,5.3654127,-1.3361987,0.74646485,-0.54412013,-0.842933,1.752554,-1.4292465,-0.8790868,-0.7563149,-1.3810596,-0.20519997,-1.7651112,0.56891733,0.95055515,-1.4818223,2.5580504,-0.109941915,-0.28363505,-0.07995639,-0.94002235,2.2874987,-2.7847774,4.5781565,-2.3896248,-1.321442,-1.9042833,-1.3032463,-0.116042785,-0.022270348,-0.016051516,0.1660676,0.2308891,-2.9373791,-0.3556927,-2.0594525,-0.42725977,-0.31644303,1.3013332,-0.3460532,1.1955589,0.22275977,-1.7562807,-1.5813272,1.5892105,2.015985,-1.2871331,2.9446142,1.2482768,-1.1315638,0.43138638,-1.8633288,0.18233196,-0.028465752,-0.27823222,2.5679474,-0.06650263,-0.7137801,-0.75985074,-1.3514576,-1.0375555,-0.43584523,2.7575016,-1.9026978,-1.9627507,-0.8276437,-0.7343854,-3.127425,2.4205787,0.5611342,1.4411533,0.3784707,-1.3457437,-2.9152734,1.3114051,-1.6742142,-0.1093762,-0.70720875,-1.8596661,-0.38213128,0.019393897,1.5536023,-0.81701225,-1.3185599,-1.9220344,-0.51310945,-0.48623544,0.64342076,0.03791545,0.60633546,0.0891584,-0.6727886,0.62287396,0.39258233,3.8799741,-2.7195373,-1.1809103,-1.9358438,-1.083212,0.51226187,2.653731,-2.139955,-0.39639345,-0.18953505,-1.8753833,1.847468,2.323601,0.4879534,0.5225903,-2.0832555,-1.4673803,2.22103,0.5597805,-0.27996668,0.7885926,-1.5473316,0.96154934,-1.4974948,-0.538784,-1.2223345,-0.47315925,-1.4668386,-0.6160317,1.2497962,1.3421499,1.2177919,-2.448429,0.6306931,1.4326526,4.602857,-1.3010738,0.93851,-0.2145712,-0.7553741,1.1329502,-1.8980368,-1.0431044,-0.27308723,3.428054,-0.7256347,-0.036137354,0.43760893,0.9737457,-0.6335327,0.8387585,-0.2776243,-1.1643536,-1.7455305,-1.8796785,3.8023155,-1.7645316,3.2838848,-1.3813249,-1.258114,6.6450915,0.49940595,0.3942918,0.35016504,-0.24474825,0.30521473,-0.6092305,1.2119102,1.0069042,-2.1523988,1.6615891,-1.1845933,-0.6092599,-0.23005153,1.4549311,-0.20129845,-2.5525498,-1.9635799,-0.22599936,2.0891814,-0.69270056,-1.0749922,0.15226695,0.35274637,0.21233898,-1.7990717,-0.68337494,0.52427965,1.1603893,2.8220882,0.05672217,-1.4717227,-1.2691239,-1.6908288,-2.1817436,-0.4920676,1.3780512,0.94119585,-2.3831215,-0.17590404,-0.25382105,-2.9442086,2.1743753,-0.98750013,1.3246714,-0.81624436,0.91801196,-3.139113,4.3472958,-1.7892257,-0.8376595,-0.4714382,-1.0750276,-1.28544,-1.3286704,1.2529812,-0.5680865,-2.6151304,-0.5220226,-0.38632578,-0.73109096,-0.2630394,-0.137127,1.5478156,2.1796489,-0.17653552,2.1328802,2.832085,-1.1079494,-1.1977191,0.5081421,-0.07599359,1.6870434,0.934743,-1.7376243,2.6491354,-1.528488,-1.4093708,0.6333795,-0.24048094,-0.4542212,-0.6527441,-1.1151057,0.47680572,0.8152395,0.18476999,0.54822356,1.9491163,0.20905276,0.3285309,-2.4448733,0.38865992,0.35144642,0.67591405,0.63783157,1.1245314,0.9129377,0.14106606,-1.0833664,0.50114095,2.1590955,0.73038536,0.16399094,-3.4874477,0.89015496,0.5977166,-2.377935,1.1630579,-0.5955285,0.48470727,0.72284615,3.2653518,2.6245356,1.7059448,0.019041596,-0.87969023,-0.94368494,-0.17237101,0.2912295,-1.2696501,2.2685487,0.7171581,0.86920416,-2.8333845,2.0033696,-0.9173467,3.3346877,-2.299891,1.2206053,2.8918917,-0.3853832,-0.63506407,2.2391748,-1.3703921,-0.006840091,3.1206393,-2.3519447,2.900133,0.41202366,0.37289643,0.50584954,0.80228984,-0.699537,-1.2065325,0.25465885,2.1305182,0.8068881,-1.0689831,1.20549,-2.8993237,-1.0359268,1.9266008,0.590242,1.2318105,-1.1990845,1.842629,0.21872494,-4.2427697,-0.10988705,1.9319937,1.4183787,0.3573246,-0.11081771,-1.099324,-0.66006285,-0.6690594,-1.1963408,2.8321066,-0.61636364,-0.12521896,-0.16007155,-1.1225423,-0.14974749,0.69941306,-1.354891,-0.33949924,1.064779,1.3456402,1.0833255,1.1037425,1.1510183,0.53462577,0.73144656,-0.44754905,0.41292387,1.3860124,0.42285246,0.34043914,1.0642816,-1.6500283,-0.22323966,0.33812648,2.4389842,1.536079,0.59554315,0.2670976,-1.0944213,2.346659,0.7901718,0.5207334,0.84883827,-0.46158165,-4.4200883,-1.9942906,-0.63476104,2.9608505,-0.48012394,1.3133855,-6.8145638,-1.5342892,0.71417767,-1.3398169,1.9085542,-2.014705,-0.26466516,0.50347954,-0.18111145,0.62907255,2.3124309,0.1570364,1.3295867,0.93869907,-0.05815112,0.40296137,0.9255214,1.3260498,-1.665625,-0.13867903,-3.5817766,0.02810427,1.340785,0.49169466,0.6221078,0.8359872,0.08555909,-2.2257826,-1.5897361,0.5806089,-0.11590556,-0.45529726,-0.6053996,0.4275689,-3.3335648,0.36492723,0.67352676,0.01264342,0.5496793,0.14299732,-1.0485686,1.3511842,-0.9670399,1.7132487,-0.05937468,0.3572378,0.5962221,0.7863057,-2.8030424,-0.12174959,-2.7484834,0.6627241,-0.66767,0.27792403,1.0432173,-4.224614,0.67950314,-1.1393741,-1.2587254,0.23857827,2.1247454,1.0337107,0.087574326,-0.024459792,0.18241337,-1.1176072,0.9625108,2.5283737,0.3486888,-0.1560612,1.9935306,0.1327921,0.13989441,0.10098433,-0.44121855,1.0299875,-1.2592144,-0.60385126,-0.87378466,-1.196915,-1.0227996,0.6744823,-1.2910774,0.37513566,0.95952594,-4.761522,1.0980405,-0.16743167,0.5939209,1.1246308,0.671066,0.033319067,1.1059295,0.9858082,-3.751465,2.9429283,0.562889,0.3377228,1.129044,1.262722,-0.68354255,0.85415417,1.1127092,0.8046665,0.4562781,-1.5952944,-2.2791538,0.5127592,0.20888518,0.893,0.023623355,0.0625522,0.8594465,0.3979918,-2.361961,0.5439382,-3.3384447,1.8090812,0.67766744,1.1152442,1.6074843,1.0944861,-1.3684287,-0.8997233,2.261124,1.3830023,0.04044578,-0.5424285,-1.923361,0.5988494,2.1424875,4.317072,-1.0632915,2.5662234,2.5477734,-2.6073446,1.3831079,0.12093262,2.6654377,0.60271156,-0.074076556,0.0610348,-0.8057269,0.79653424,-0.37866274,1.7081559,-1.9639949,2.316076,0.9260809,-0.20124318,-0.9012478,-1.2257122,-1.391784,-1.2700013,3.3685498,0.041245464,2.6119576,0.32191315,1.2038182,-0.10314896,-3.8813815,-2.2444017,-2.2213552,1.2242903,1.5237279,1.3083276,1.2243304,1.569046,-3.4208765,0.621036,-0.33576775,-1.2545553,1.1954252,-0.80658174,1.9914105,5.51724,-4.0160336,-0.36342147,2.177289,0.3073741,0.63850194,1.4255207,0.50694394,-1.0899863,2.1412566,-2.9420915,-2.584641,0.19340461,-2.3197021,0.37996212,0.4267994,1.174879,2.2572684,-0.5663471,-1.1535976,-1.0077094,-0.6975149,2.0424612,0.7520109,0.10356132,2.593455,-1.1467705,3.310058,1.0300153,0.24344803,0.72646844,3.3813725,-1.1949843,-0.5088178,0.57198775,-1.8946196,0.89017934,-0.15754166,0.58870304,3.083298,-1.4688691,1.2732515,2.0194778,0.47709304,1.335175,2.1362226,0.29586437,2.8509789,3.1644416,-1.5416381,0.70904523,0.1292576,0.510147,-1.505767,2.3613553,1.0473804,1.8623033,0.37862337,-0.5967468,-0.2076032,0.37125388,-0.85771215,2.1036558,1.254723,1.010797,-0.8888701,-1.3332349,-0.35891703,0.08655033,-1.0790745,-0.73507506,0.29961127,1.0627289,-0.07516596,-1.4306893,1.2697359,2.3596425,-2.0893502,-1.2472779,1.2363173,-2.1740072,3.324996,-0.48218504,0.1653202,4.3020205,-1.1101094,4.013297,1.8516427,-2.2748287,-1.5868448,-0.41819608,-4.0087295,0.19507411,0.9831758,-0.188668,0.90540856,3.1361475,1.1396255,0.473449,-0.6011218,-1.1471151,4.569042,1.8898879,-1.5907766,-5.5913205,-1.0897862,-1.9715115,-2.2759671,1.2528924,-1.6599152,0.5930749,2.0032969,0.41789263,-2.0817149,-0.37537035,2.2045653,-1.3445531,-0.53231883,0.9001298,-2.4748273,-1.1942537,2.7379048,1.6448185,1.283178,-2.4819868,1.5627854,-2.479931,-0.7987345,-2.9188902,-2.5305493,0.9081512,-0.16341527,-2.480975,1.2631922,0.24311456,-0.5325636,1.5086255,-2.7631435,2.7788663,-0.47086334,-0.294911,0.093213424,0.27184525,-2.7317672,-1.8811527,2.6062706,1.1806827,0.2352662,-4.833189,1.2967207,-1.2575268,-0.3560228,1.765815,1.5560263,1.7561545,1.0824424,0.13145466,2.478999,-4.4820514,1.0531405,0.7005829,0.56371593,0.08538775,2.1851754,-1.8040276,-2.067324,2.6112075,2.2219374,-0.86970836,-1.194716,1.580562,-2.8928301,-4.4159994,-0.059480943,0.048710626,1.5640141,0.17110956,-1.5868924,-0.06415423,0.7330425,0.10693075,-0.7454406,1.9847742,1.9628807,-0.25051558,-1.0059054,1.3079408,-0.7473947,0.22920378,0.56136537,-1.9143273,-1.1273155,-1.7760218,0.51348245,0.38203263,1.2547706,1.8304467,3.9146094,-0.97885054,1.0712863,-0.8389445,1.818451,0.2584887,-2.017692,-1.6811877,-0.9339626,0.301517,-1.247956,0.9246041,-0.3997948,-0.63465595,-0.1832104,-4.3146596,0.1254116,-3.321269,-0.5252613,0.8849124,-0.06865462,-1.0058243,0.19316904,-0.65147376,-0.6018251,-0.34130755,-0.4918591,2.6072087,0.88135,1.7309502,4.904833,0.65047413,-5.617972,0.98369485,3.9994292,0.7932296,0.08286554,1.8910167,-1.915175,-1.4595934,-0.38701606,-0.95538414,-0.0057122195,1.8516215,4.899366,0.22401243,2.6629689,-0.46474493,0.49119416,0.8785211,-0.07094346,-0.8647939,1.0830415,-2.1506221,-0.64129156,3.5131073,-0.041522387,2.585327,0.7201173,-3.213542,8.855219,1.9853913,-4.408652,1.298976,0.9294072,-0.76399577,-0.48804325,1.184042,1.8784561,1.6818576,0.69711703,-0.48866755,0.01884119,0.4882084,0.4423814,-1.0841454,-0.92113227,-0.26998332,-0.6934475,2.7051668,3.0725636,-1.9820023,0.51303464,1.7531499,0.5290366,-0.20364848,-1.6766597,1.3947164,-0.1037814,-0.7623509,-0.86609715,0.10126189,0.030191956,-0.6835525,0.44473037,-0.78351307,0.24411386,-0.023852699,-1.326148,2.9627476,-0.6004333,-0.93535393,1.7045451,-2.216814,1.2137758,-0.29114062,-1.4918133,-0.20299552,4.5136833,-0.31391865,-0.37175578,0.42461386,0.6641269,-0.75318146,-0.3939388,1.0073113,0.85151714,-0.8876764,4.3617105,-0.40496224,0.46729365,-1.4359305,-0.5158981,1.2512418,2.528447,1.2181253,-0.87989837,-1.2569326,2.721894,1.066032,0.08742809,-0.10146331,-1.132099,-2.203561,-3.7593496,0.8021578,-2.1327977,1.6313719,0.064703725,0.5344978,-5.603167,2.3392365,0.73345786,-3.2660322,2.0966375,-4.2111683,-0.13874221,-0.32929602,-1.0896864,-0.21805961,0.19198908,0.051878713,1.9428357,0.6191138,0.27447134,-0.3262421,0.047449876,0.6151242,0.046400364,-3.2925282,-0.360983,1.1718671,0.004905072,3.3416336,1.6142216,1.0985376,-1.11579,-0.47253183,-3.1404421,0.014697835,0.63350224,-1.3763543,1.0230453,-0.08831719,-1.8913878,-0.025750741,0.6589356,0.5070654,-1.3962775,-0.014911653,-0.5777874,2.1495645,-0.28388,2.653558,-0.07616121,-0.9499613,-4.360343,-3.875853,-0.6810372,-0.49866894,-3.541008,0.99417907,-1.2125477,0.40744784,0.7478949,-3.3851674,0.11555585,-2.7570665,3.9853897,0.61966014,2.1292076,-0.28656685,-0.6118286,0.047474083,1.6851889,-1.1601503,1.573541,1.8674749,-1.2131764,3.519164,2.199654,0.57602555,-0.45841336,1.45422,-0.06975451,0.31765464,1.0135028,0.7353755,-2.1051717,-1.2838414,-1.1132225,-0.08288239,0.5409172,0.26045206,3.2099898,-4.6764574,0.74219096,-1.8968643,0.3983932,0.40672025,-0.31314215,0.039993696,0.5827547,2.0416944,-4.0474706,0.14932542,1.1577784,0.3663898,0.67341065,-0.7379192,2.1777174,1.5182179,0.899593,0.6131104,-0.46870324,-1.1430541,-3.2907727,0.9033501,-0.007796011,0.17417653,-0.25165132,-0.99052006,1.9105811,-0.65280265,0.988558,-0.13772422,4.9497585,-0.66503155,0.7832711,-0.1161011,1.2318323,-2.1020894,2.5204504,-1.554638,-3.85696,-0.21228065,-0.55399543,0.29880297,3.101512,1.1111647,-1.0911909,-3.32332,-1.3570353,-2.857957,0.3597959,-0.8553665,-1.845668,-0.47109768,-2.6514525,0.72453046,2.1457396,1.3616921,-0.18310784,1.4383818,0.4233703,0.29982406,2.271899,-3.796554,-1.6854745,2.258178,0.16427162,1.1303854,-0.2516578,-1.4316858,-4.781274,0.4927568,-3.9394188,-0.28986567,1.1424422,-0.43709973,0.50090384,-0.077950455,3.2588105,-1.7483557,-0.98878795,1.8453385,-3.168713,-1.3464295,1.6833128,1.2225382,1.157386,4.02234,-1.8936584,-0.19075277,-0.94088143,-6.18169,-0.17983383,0.35740677,-3.120268,-1.1298296,0.8277651,0.0010928699,1.1926248,-2.1236696,-1.6603178,0.34247848,1.9386432,1.5526228,2.1128721,0.051120292,-0.8786221,-1.5854459,2.8281887,0.7849892,1.7707042,-0.06788081,0.8671613,-1.0394862,1.1311665,0.18686591,-1.7506747,0.24809796,-2.134576,0.89591414,2.2608593,-0.57416475,-2.604527,1.0173,1.5089555,-0.5114692,4.168886,-1.3019109,0.5169227,1.9936014,0.5821495,1.2961258,-1.2790312,-0.83166236,-1.0967603,-3.6034138,-0.9735633,2.441709,-1.241707,-2.3809648,0.82253677,0.1672657,1.5067003,-0.3714073,0.9394609,0.78108984,0.99840254,-0.9360075,-1.0797808,0.7033544,-1.254501,1.0225098,0.7381436,-2.9639642,-2.2480838,-1.5322758,1.0822921,1.34038,0.36020255,1.9228841,-2.0023713,0.8949668,0.87415475,0.600445,0.54168,2.0673902,-5.292538,-0.4018844,2.2486842,2.29668,0.30653945,0.5382078,-1.905662,0.8630545,0.5218937,0.04938097,0.56360537,-1.5915995,-0.47922763,1.6795386,2.2667346,2.2034867,1.1275357,0.9547568,1.3025874,1.4921893,0.21448708,0.3066343,-0.1620114,0.114637576,-0.7786142,1.1304947,-1.622932,-1.5194936,1.0524154,2.1834066,-0.9286677,-1.1928144,-0.4118998,-1.2060777,1.1128752,2.5041795,-0.7931895,2.4010835,-1.2434561,1.5453542,-0.8585565,1.9152513,1.0806527,-1.5788875,1.3323568,1.3816787,-1.0806485,0.75512964,-0.6412491,-2.0803924,0.5929913,-1.8590454,0.55393773,0.17992347,-2.6105375,-1.116459,-3.6842515,-2.1755848,0.8768619,-0.18361634,1.2043837,-1.9181635,0.7476187,1.9305328,-0.69449955,0.70469666,1.9280044,0.82047105,1.4419916,1.6420941,-0.0082209455,-0.067055956,2.2935028,2.1074593,0.2856053,2.9787867,2.1108103,-0.40690303,0.31887835,0.2286633,0.24535407,1.0091925,-2.8610601,-1.8427254,-0.07997139,0.70909446,-0.25991815,2.005725,-1.9843476,2.1058295,2.8776724,-4.019911,0.9302618,0.9990979,2.2011542,2.179119,1.3415331,2.512664,0.5030358,0.5608076,-2.0927653,3.6980288,-1.2206653,2.450822,1.5016397,0.9295182,-1.3827047,0.20079984,0.7498289,0.3914462,-0.15994123,0.06443254,0.38152862,-0.0956042,-0.016527528,1.7022014,2.4877882,1.3312651,-0.28955725,-0.45893157,1.6116084,-1.6580144,-0.9774901,-0.80491704,0.17603008,-1.0353625,-0.98256814,-2.249195,4.0545106,3.412159,-0.59521466,-0.27050257,0.5763798,1.337407,-3.1541898,0.5947069,1.8612932,-0.5655423,1.0304528,5.2861743,1.099797,1.0418444,-1.8437611,-0.33431858,-0.9807361,-0.72417724,-3.2196054,-1.6113206,2.116503,-2.3928514,0.474203,0.46576113,-4.416356,1.7559628,3.3091526,1.6009339,-1.0386264,-2.6617637,-0.47640762,0.7859237,-0.4941357,0.69002384,-0.15311825,-1.2821046,0.88471407,-1.6810142,2.727723,1.068961,-6.2725935,-0.27179188,0.43614256,-0.62026465,-0.041235764,-0.092350684,-0.043994255,-1.7605264,-0.048363462,1.6781116,0.9518602,0.53278476,-0.74428564,-1.5260319,-0.021553362,0.6488736,4.1001415,-0.3901752,-2.602461,2.1166422,-0.9749575,0.40939078,-2.993975,-3.1890876,1.4735113,-1.1643337,1.2613814,0.35707667,-2.9031913,-0.55117357,-2.4312367,-0.010313123,-1.3782837,0.15243296,-0.6735098,-3.0220869,-2.2136314,1.0040547,1.3549514,3.9374452,-1.0140774,-1.0672114,0.53477544,1.1944088,0.7789133,-0.36440864,-0.66786426,0.13262957,-3.768303,-0.012768833,-1.298381,-1.1897444,0.1281059,1.1516496,0.6126411,0.33673173,0.18526782,-0.8419048,0.8149741,-0.26886958,-0.099360734,-0.85308295,2.3260803,-1.5096327,-1.8217853,-0.19453716,-1.1996261,-1.32959,0.85220027,0.46358073,-0.64100677,-0.053725794,-5.162842,1.3506367,-0.19320415,-0.43939963,0.13931695,-1.5526733,1.3254485,1.3991996,-0.09908514,1.2729181,0.8424546,0.36530066,3.1706033,-0.1019108,4.038735,-0.19392823,-1.5106423,-0.7309813,-0.48001355,-0.22069667,-0.28226086,-0.1667245,0.59940904,-0.381338,-1.1513791,-1.2181134,-1.2158698,-4.123816,0.18055224,-0.9779626,0.68720335,-0.3483122,0.16141526,1.361466,-0.023525896,0.15157758,-0.72224605,1.3106214,2.3183265,0.1714084,2.7231295,-0.046915434,-4.993624,0.54789954,1.362757,2.7811391,-0.4806864,0.71828914,-0.25245014,0.23549004,-0.2791403,0.4562162,0.1233458,1.5691195,-0.19879283,-0.93548733,1.9061579,-0.5692125,-0.948502,5.352675,-0.16759792,-0.6003057,-1.4959701,-0.7331019,3.185932,1.0560578,0.004521699,1.8545291,2.4076576,-0.07809748,-0.79367113,0.64622486,-4.8650656,0.80122,2.2078009,-0.8558208,0.8288085,-0.14780344,1.7813174,2.3158023,-0.6437887,0.8604712,-0.682087,0.92452407,0.63752335,-0.37863123,-0.1005848,1.5341407,-0.3420331,1.2716633,1.5038995,-1.1032941,0.7722497,2.057349,-0.51455516,-0.4777382,-1.815353,1.6372666,-1.2496713,0.77629954,-1.1538805,1.5705343,1.7053429,-0.020731343,-0.22540449,-1.090486,0.7613887,1.8509872,0.61500454,2.6267722,-1.2122862,1.7292391,0.72966397,-1.3195832,-0.1775464,1.6084704,0.5594212,1.6638913,-0.07626586,0.08208013,-0.40759087,0.92279553,0.79484123,-0.25668803,-0.8418972,-0.61096317,1.1336267,1.464571,0.97625875,0.7087192,2.305568,-1.1742314,-0.41722202,-0.25239488,0.7475576,1.0577735,0.71830827,1.1896511,-1.7128578,3.938914,3.2225385,0.9605244,3.561614,-0.870487,-5.4031596,-0.3195317,-1.7480637,2.5942092,0.3233367,0.4588909,-7.0497274,0.35686684,0.9833902,-1.5165814,2.5158904,-2.7841585,0.11726405,0.18243869,-0.79076874,0.7823233,1.1166018,1.1725141,1.0872488,1.23615,0.30639404,2.4905438,1.4367421,1.3459585,0.048161935,-0.88837093,-1.9090482,-0.33206812,1.6776539,-1.5560293,1.3874394,0.17131625,-0.20011377,-0.6673366,-2.400333,0.9288229,0.33192572,1.1616898,-0.6909238,0.70594525,-2.1539907,0.8214757,0.69238704,1.5633849,-0.5259194,0.9257184,0.30255607,1.7091141,0.95457834,0.71206015,0.86037457,-0.7940995,0.9352326,-0.29985654,-3.0543287,0.11421364,-2.611862,0.37589467,0.9048493,1.1113067,1.0471444,-2.8035886,1.2396072,1.0361823,-0.48732492,0.8355413,2.3222904,1.3853709,-0.17762142,0.83058184,1.863222,0.63583535,0.7524269,2.1336057,1.2164414,1.1425213,1.5796223,1.7135731,0.9471826,0.40552497,0.29065517,1.2841395,-1.0103632,-1.5098854,-0.4384177,0.28661466,0.3343042,1.6231402,0.68989795,1.15848,0.27845967,-4.4884224,2.10837,2.474025,1.4695283,2.7690372,-0.42106503,0.6517019,1.0379937,1.1488837,-3.0755165,3.1495469,-0.15373333,1.5971491,1.53635,1.2093586,1.2035023,1.0002457,1.396489,0.93976504,0.14446121,0.72467756,-0.6783992,0.6410708,0.6527931,1.0366054,0.8543281,0.3018577,0.68248355,1.5853722,-1.2354186,-1.664035,-1.2134159,-0.5738487,-0.87437874,1.5446134,-2.7380922,-2.4991276,1.549666,3.095569,0.40856916,-1.6583842,2.0065892,-1.6519009,2.1042604,1.3348923,-0.49052742,2.0332353,1.4113585,6.8431597,1.9619721,-0.14899623,-2.4569662,0.69210494,-2.883367,-0.77588403,2.5081503,0.40939486,0.5177109,-3.076735,-1.0012829,-0.33685791,-4.671976,-1.937806,8.999839,1.1163306,-4.6518173,-1.4582775,1.1051133,-0.24124238,0.17728901,2.7781775,0.29911777,1.598622,1.0740565,-1.4991927,-4.602419,0.6192644,-1.4524851,-0.6100883,-0.7796714,-0.79595125,0.48797238,-0.20788312,1.1263323,4.7324996,-0.1879479,-4.2492323,-0.45408246,-1.7987164,-1.6407712,-1.1236157,-5.577906,-0.7782076,4.7308974,-0.62833416,-0.79723173,0.23278387,-0.004310923,-1.5241579,-5.236362,-1.8922366,1.0827024,0.22869462,1.5192925,0.5152244,-1.826676,0.9753951,2.8694055,-0.10213484,2.4700148,-3.8161838,-0.66206264,2.5506747,0.42347267,-0.21306473,0.27140218,0.78755105,1.6369772,-1.5013022,3.683828,-1.5640984,0.3584565,-0.29154274,-0.07920506,0.3092651,-0.32866347,-0.3928481,0.63242954,-0.2987311,2.4848397,-3.242853,-0.94845057,2.2177496,-3.1537094,1.0076661,-0.8746007,0.7903701,0.6887906,0.17866468,-3.0208757,-0.58501893,1.8624388,0.6622076,0.4676519,2.3133204,2.3468947,-0.4348515,0.6744081,0.21840695,-5.5718937,-0.082611,-0.69021446,0.27623263,-0.4288145,-2.0028877,-0.57629186,-0.47188795,0.19972347,1.4552659,-0.9159532,-1.3749655,1.1767733,0.28969344,2.2744896,-2.4938047,0.30121082,3.3415878,-3.5984244,-1.6677008,0.6547998,-3.6987545,-1.5205748,0.55206484,-1.6171011,0.5175521,-2.0201027,-0.5331971,0.8350312,-2.9090018,-2.5388207,-0.8960876,-5.767891,0.2577966,1.371045,0.15950978,-0.36572132,3.4038832,1.2519828,0.33870572,0.57608926,-3.7505178,4.485228,0.68168825,-0.84173113,-4.5381637,-1.5786781,-2.1562572,-1.9942057,1.6505246,-3.4551752,-1.0313483,1.0946983,1.6242344,0.6778769,-0.624587,1.2399241,-2.8370407,-2.2981305,1.694673,-3.6281123,-2.3157103,2.1858497,1.0518833,1.5211974,-3.28258,1.8025068,-4.4883366,1.6521784,-2.1333058,2.7171996,2.116191,-1.3371661,-2.4071772,1.5584236,-1.0574101,-0.15114719,4.4862933,-1.0288628,2.8818989,0.5906095,0.15096737,-0.2664261,0.072542295,-2.587622,-2.359807,2.0200157,1.4300103,0.3846635,-4.2523866,2.0828912,-0.8688202,-0.40268174,2.1572256,0.82093,1.5371369,-0.9602324,1.1940857,1.9228035,-3.8910384,-1.1524988,1.2069775,0.8725304,-0.09305876,1.5291141,-2.5511336,-1.2289323,2.394143,1.2127862,0.50907576,-2.0074196,0.68700534,-4.044435,-3.2648573,-0.29229978,0.8431377,0.2951903,-0.7432519,-0.42840663,0.46384043,0.48595077,-0.2717817,-0.8380374,1.1643739,0.9756842,-0.84079266,-1.3576858,1.3261925,1.2406129,0.75008667,0.9098587,-3.082537,-1.8979765,-1.2201773,1.6967978,0.96522486,0.05831605,0.15203412,1.6210519,-1.6612031,-2.1070144,0.30605462,-3.9002523,0.41361463,2.1528041,-1.6077644,0.35057423,-2.251199,-0.4906357,0.19224922,3.4260044,2.0509844,0.27761343,2.0285225,-2.7382574,3.0237577,2.8217337,-0.98175883,0.99632984,-0.70755774,0.57811517,-0.15123437,1.6962419,0.6029846,-2.3465922,-1.0999007,-1.0473969,-0.5065991,0.9113805,-0.23836587,1.7376053,0.6276149,-1.7974387,2.81738,-1.4640411,-1.9099209,-1.103263,1.3089639,1.1110113,-0.23143387,0.63108015,-0.57508606,-4.732184,-1.2735384,1.012884,0.6243934,0.79630053,-0.31851494,1.8246789,0.26207513,0.49601954,2.7593832,0.35518336,-0.02200788,-1.2760412,1.7922437,-2.416762,-0.29532686,-4.578685,-0.38948476,1.9444449,-0.53457695,1.6843318,-1.0512199,0.5580082,-0.2985374,0.6698647,-0.06364806,-0.69644266,0.8923484,-0.15018603,-1.8297688,1.6021837,0.88081324,4.0272098,0.010321628,2.207126,-1.1980783,-1.1448712,3.6994076,0.5881473,-2.5855072,0.3957182,-2.2397506,2.308733,0.3748241,2.1434655,1.2995174,0.97565174,0.73358786,1.19221,-1.3728678,1.7823588,-0.35630348,0.9970111,1.5432895,-0.18905887,-1.881022,-1.0788587,-2.4872088,0.3447356,2.145397,0.7008329,1.4535546,-0.015837464,-2.2443514,-2.8415256,-0.6409776,1.8033484,-1.9855407,-1.3548818,1.894668,1.2202102,0.90316904,-1.401271,0.5365975,-0.7317816,-0.13180992,0.30448502,0.1003201,0.2500401,0.21105014,-1.354954,-1.0315955,-1.7295998,0.93866086,0.35804567,0.62354565,-2.8469572,-0.9427086,-2.1973689,0.9817608,-1.2698114,-0.41774264,1.9926577,2.0284429,-0.3144103,-0.09172967,-3.6438537,2.5894024,0.432438,1.6209267,1.8327879,2.3557498,1.1072499,-2.532014,1.2411456,-0.7923371,1.54981,-1.4208928,1.0621725,-0.750449,-0.09220171,2.3938713,-1.6397309,0.874554,-0.17448585,-0.023341753,1.2005407,2.1780255,-0.32876253,1.4745545,2.6119561,2.227051,1.4151716,-0.5746617,1.7207006,-1.5238363,2.1967926,0.36798334,-0.07323964,-2.708398,-1.6309526,0.46423823,0.7722506,-1.5346987,-0.08239682,-0.13934305,-1.6085486,-0.67642623,-1.7868477,1.9395059,-0.8498792,-1.2188028,-4.2761326,-0.5909129,1.7125508,-0.017989537,0.8893599,3.4999948,1.0230097,0.6953409,-0.46392745,-1.3177458,3.506561,-4.1747155,2.7948365,-0.43700194,-1.6210973,-1.2198973,0.6905355,0.21616817,0.6112436,-1.8433763,-0.06570216,-0.32205892,-0.015291205,4.3437586,2.1623416,2.3724773,0.8517338,-0.29256392,0.45115548,0.7877991,3.0604246,2.5736547,0.5996782,-1.7228193,-1.2813157,-0.8259406,-0.2735319,-0.06692124,3.019321,-0.33664122,0.520105,-3.568922,0.04664339,-1.3371879,1.0113434,0.7806851,0.9050775,0.5985538,0.9305939,-1.9511074,0.585462,-0.47452104,-1.4264064,-1.4185879,4.3466053,1.6047329,0.8337523,1.0388606,1.200872,-2.2192602,0.49276102,-0.34665027,-1.3554637,1.5358112,-0.27818272,1.4748023,0.90065235,-3.098019,1.7022375,-1.0746194,-2.6721852,-1.7250056,0.7750791,0.64467454,-0.9712966,-1.5332724,3.7476845,3.1369054,-0.541507,-0.7442978,1.3905146,0.5842877,-0.60116893,-1.1875758,1.44725,1.9960701,0.52819735,5.9579806,2.6547732,2.2877636,-1.7589121,0.591398,-1.3633202,0.011317499,-2.1061075,-0.37066478,2.5673366,-3.608389,0.76341957,0.61582583,-3.7839322,1.9292868,5.801888,1.3898987,-2.4568183,-5.2781854,0.046640776,0.99271506,0.035035104,1.2626739,0.047403466,-0.34619212,1.0490459,-1.1077514,0.5330379,2.0442445,-4.086181,-0.8976891,-0.18021531,-0.20891418,1.0308347,-0.3813249,-0.05553244,0.09690559,0.63953066,-2.5366175,2.0387986,1.4739171,2.0898876,0.5375537,-2.3019998,1.3213823,4.61156,-0.6410439,-1.7031536,1.5180042,-0.29334313,1.6659921,-3.9806826,-3.0882804,-0.3513613,-0.48970592,1.4876455,0.6300953,-2.949478,-1.053283,-0.9521465,0.7723877,-0.87498474,-1.8962197,-0.31389394,-2.3779473,-1.7659416,-0.32123587,2.1757681,2.7630656,1.0039289,-0.47728682,0.59070754,-1.1207712,2.278456,0.2176045,0.056990687,0.625834,-2.998772,-0.8005532,-2.1396096,0.0035866536,0.21280321,2.044439,0.2237511,1.268904,-0.78556424,0.73644274,1.103366,-0.24838085,0.8665805,0.8633407,0.9574893,-0.5629754,0.37360922,0.3881412,-1.9775743,-0.004607593,1.2257965,0.60380936,0.74412584,0.9599816,-3.3576348,1.4278433,-0.43427646,-0.53711575,0.20635816,-1.4278903,0.8541669,2.2523355,0.2632415,0.57911205,5.35827,-0.39087486,0.80124,0.61316,1.0973046,-1.3283284,4.1825066,1.1609801,-2.6379273,-0.7388332,0.72762346,-1.2140651,3.9087791,1.629321,-2.1875622,-2.6390445,-2.2426448,-2.389839,-0.07767064,-2.1646993,-1.4484398,-1.1059232,-4.0665345,0.6638491,1.8379996,1.4771222,0.1934595,2.297436,-0.11628025,-0.4120432,2.4866443,-4.0137577,1.3202686,2.193744,-0.25786,1.7681868,-2.6195335,-3.353904,-4.137933,1.5438145,-3.3976219,-1.9752858,1.535855,0.22649166,1.9063784,-1.6320144,3.0366294,-2.2787704,-2.0555289,1.8562673,-2.8875818,-1.803609,2.271776,1.1679626,0.9875281,3.8984773,-0.31366265,-1.5865753,-0.08817725,-4.8973503,4.084917,1.2632493,-2.3211043,-3.816468,1.1211013,-0.0638072,0.84314424,1.533044,-2.293439,0.39848152,2.9636264,1.6970085,0.744355,-1.0483996,-0.75789475,-1.4875367,2.7922893,1.1200633,0.71960706,-0.95204043,0.8769125,-1.8050879,0.7858921,0.4462044,-1.5656074,0.8686863,-2.092845,0.7318434,2.501819,-0.44907135,-2.6128185,1.1784371,1.5531827,-1.1164905,3.7672288,-2.060293,-0.15880223,4.0605507,0.18838696,0.114617914,-2.0112534,-0.8834016,-1.2890011,-4.270689,-1.6053283,2.1636631,-0.51113206,-3.242044,0.7346397,0.64302033,1.1512077,-1.6214216,-1.6869365,0.70951676,1.0509692,-1.6652433,-2.72942,0.82515365,-0.3154114,0.42485958,0.49714416,-2.9293933,-2.7730143,-0.6741962,1.3072361,0.35305777,-0.7352502,0.23273034,4.534967,1.8798249,0.91501296,0.06316821,2.144951,-2.1378186,4.6152687,-1.8500735,-1.5273626,1.7972058,-0.9785855,-0.00859328,1.7557821,1.6850259,0.14651375,-5.1316667,1.234656,-8.514854,-1.6667727,-2.0507019,-1.9417067,-0.3910884,1.0431665,-0.59572405,0.6409672,0.16910352,-0.5676156,4.2080173,-0.21490534,2.3490002,4.601675,-2.5143018,-6.0069933,1.9577382,2.48389,2.4935892,2.3419294,1.3313352,-0.7014918,-1.7902714,-3.9300869,-0.49097353,2.0411422,0.38790888,1.2585517,-0.99192655,3.626047,-0.40814754,-0.028585268,1.4820175,-2.473518,-0.18988752,0.80072564,-0.784023,-0.22142774,5.6473885,0.41407564,-0.28948313,-2.3295312,-3.529766,2.5092092,2.3933144,0.39158225,3.3027265,0.49692118,1.3794879,-0.76912564,-3.3362887,4.114678,0.14484224,3.1438763,0.15077403,-0.7186931,0.03929326,-1.1615746,-0.2729071,3.0304494,0.5676078,-0.6852865,1.7680076,0.16949013,1.1386584,1.4015443,1.0489293,-0.047808852,-1.6569769,-0.91398114,0.5251754,1.964645,3.742457,-2.6299765,-0.12673892,-0.0062148995,0.10770776,4.475906,-0.17804651,0.6285511,3.1075335,1.2693527,1.2745348,-0.28350532,0.47567737,-0.68747157,-1.0280633,0.18831313,0.44199306,0.43218195,-0.036214795,1.6606208,0.5449366,0.24149834,-0.1465753,3.1828437,1.3561711,0.12977207,1.0433593,0.6726414,-0.18813373,3.3951633,-0.8476858,-0.32957923,-0.43644515,-0.7866433,-0.6671653,2.127322,0.3137377,-0.8804972,1.2152668,3.3124504,-0.17905664,-0.11999368,0.74294585,-0.58938986,-1.9134707,-0.12731603,1.2196916,-2.8173325,0.0053093974,1.2473894,-1.6053896,-2.353759,1.0725213,-0.6258904,-3.6182206,1.054501,-2.8840115,0.358691,-1.7779032,-1.8400403,-0.07404346,-2.802763,0.8476938,2.9515483,1.7700152,0.50325716,2.0131989,-0.5031379,0.31965387,1.2494812,-5.795175,2.2985263,2.6189308,-0.06601551,1.2157224,2.0224009,0.4418091,-2.5985837,1.2834582,-4.026985,-0.6953044,3.017581,1.7631208,1.0853312,-0.77215725,0.16504817,-0.54954755,-0.9018645,0.029548034,-3.3365052,-0.17638053,0.9523275,3.1071067,0.5304424,2.2619326,-0.10206116,-3.1987834,-1.9297671,-5.4605584,0.7268297,1.2678144,-2.9303916,0.7018214,2.3562505,0.8352264,0.18935747,-2.3425703,-0.94404644,-0.41866094,5.166641,1.4594642,1.295775,-0.4910243,-0.8929514,0.1600201,3.9495065,1.6799269,2.0348701,-0.38344702,-0.060114887,1.7920798,0.61638695,1.144343,-0.6910452,0.7557996,-0.06282759,0.94262177,3.912129,-1.3628346,-2.7195175,1.2446086,1.7924228,-0.19743235,3.3268046,-0.5437701,1.0018083,0.5872286,0.22925536,-0.30975926,-0.4924634,-0.5036378,-2.435207,-2.213915,-0.5627984,1.4568803,-2.3801277,-2.21594,-0.7306834,1.8417652,2.3725505,-0.85956806,3.5438077,2.7078345,2.1035204,-0.3483443,-0.76069564,1.0384867,-0.20837569,-0.30728972,-0.020307563,-1.0297463,-0.8746753,-0.97163755,2.041278,-0.5640879,0.30734316,0.23051172,-1.3701302,-2.0622642,0.5249001,-0.15284196,0.42714086,2.1866217,1.9494017,1.4673426,2.3169143,-1.8258827,0.2921339,-0.1657239,7.3753467,-1.6314253,-1.3393731,2.2630546,-2.8362334,0.03785854,-0.0869856,1.6571662,1.8762935,0.16856281,-0.36883295,0.3159732,-1.7182384,-0.79206395,-0.0057366276,-1.564589,0.5841783,-1.2526393,0.16856262,2.3186235,1.3069363,-1.6861025,0.32966912,-0.5028922,-2.6854253,-1.5267822,-0.05981086,1.3065965,3.2162788,0.4136952,-2.431533,0.70977616,1.0048455,0.86078334,2.5177543,-0.5115598,-0.7037607,0.713817,2.0586245,-0.9385821,0.47682312,-1.1273037,1.1784579,-4.1898894,0.14931116,1.6992437,3.4192064,2.3952599,2.5349736,0.04709456,-1.0374206,-3.0353239,-0.1822937,-1.9756323,-0.15393458,6.656019,-0.67383415,2.2835839,-2.497482,-0.38515934,-1.412121,-0.026228733,1.4597992,-0.8638561,-3.2471392,0.13017474,-0.38376668,-0.70266664,0.8718549,-2.2245052,-1.2128462,-1.0643444,-0.36198324,-0.9717073,0.08155618,-0.0032624756,-2.6607559,-1.319427,1.4090719,0.83038,0.3275982,-0.03624119,-2.193707,-0.89518785,-1.0320746,3.658077,-1.5699295,2.0068333,-1.0015136,0.40059936,0.87352437,0.14894524,-0.50407845,-1.3104191,2.8052216,0.47332996,-1.2318016,-0.124205835,-0.9030758,0.30554667,-4.430008,-2.1755445,-2.182953,-0.7834899,0.477783,0.9955307,2.3403168,0.3576482,1.1486408,-0.40649983,0.016870918,0.9162414,-0.9804611,0.50275916,1.4704455,1.6993452,2.089627,-0.16086243,1.6691742,-0.4142565,4.0840807,0.1615712,-1.3363956,-1.1491051,-0.76639885,-0.3303025,-1.1427889,1.1623747,0.28748685,-0.31150794,-0.64137834,-2.2060251,-0.102090776,-3.3922534,-0.59217936,0.53249216,-0.13892712,-0.8276956,0.43740615,-0.26976055,-0.49324495,-0.21291621,-0.76643807,2.1139252,0.9931625,0.8114485,3.7000196,1.3143231,-4.9439907,-0.24141707,3.0069616,-0.11541287,0.016649704,1.9339248,0.23327745,-0.6046766,-0.1487532,-0.094342895,-0.7357101,1.4882774,3.0908854,0.10540213,2.8092997,-0.23779534,-0.1515186,1.9909887,-0.23952995,-0.50413185,-0.09183131,-1.4475604,0.096479215,2.8710332,-0.27367485,3.0575037,4.310035,1.0393622,6.396703,2.047026,-4.103032,1.147534,0.9225371,-1.0106463,-0.22088052,2.801159,1.6773534,1.6095105,-0.9296732,-0.1980772,-0.13645303,1.1244813,0.6098785,-0.5506292,-0.86941767,0.1482706,-1.0205204,2.4197204,2.3748536,-1.9477555,0.06373915,1.4859904,0.10168355,-0.9381063,-1.3061268,1.6629148,-0.17748408,0.8305359,-0.37402967,0.18767285,-0.10734613,-0.42582506,0.27171257,-0.42916492,-0.43496338,1.1751378,-0.25432494,2.7389479,-0.4196907,0.49552837,1.2955161,-1.1786779,0.82156986,0.02809865,-0.3801281,0.4167275,3.2178154,-0.30213618,-0.31877908,1.3135917,0.22136413,-0.7949127,-0.62724334,0.40799662,1.4276024,-0.73276275,2.7128139,-0.0700072,0.6509145,-0.86429006,-0.24033074,0.8059302,1.9151214,0.9053258,-0.79887927,-2.3815753,1.4243269,0.93089676,0.009286059,-0.9547409,2.8667295,-1.6527275,4.053713,0.1106305,0.9228242,0.38689342,-2.0526917,0.3233516,-0.54163045,0.46014246,1.3144909,0.022059986,1.1131781,1.7552645,0.32252955,-2.2658772,-1.6898857,-1.6558615,1.788565,-2.329303,-1.0755547,-0.82239634,-1.6835598,2.4914312,-0.7224097,1.9305818,1.1822705,1.0952685,-1.5114695,0.8782919,1.5401514,-0.36168826,1.4316423,1.3559091,1.101582,-2.547792,0.8097613,-0.37788484,0.8037847,-3.4222608,-1.9850864,-2.38113,-1.1440833,-0.27724734,0.7144978,0.783629,-0.095982045,0.029695526,-0.2792394,-1.2397872,-2.2066944,3.7625012,0.08109257,1.5427172,4.222541,2.6004026,-1.778762,-0.9081328,3.8154614,3.4597917,-2.8972046,1.7697427,-0.19336163,1.489162,3.8614094,-4.2610707,-3.61364,-0.57583666,-1.6495553,0.0583485,-2.4289095,-0.33076182,0.38014114,-2.4426036,-3.2125378,1.0553275,0.5467421,-0.9116888,-1.2593817,0.55708367,1.591975,-0.6271043,0.49906546,-0.11460895,-0.2782046,2.9826767,0.283689,-3.2199855,-2.7404983,-0.92031825,1.9387901,-0.12934747,-3.5044777,2.8199847,3.0186698,0.7328944,0.2843478,0.63647205,-0.3896785,0.35000274,0.7775363,0.3440682,2.646956,-0.085280724,2.2646258,-1.9771737,-1.5479192,0.65000373,0.8721415,0.17806092,0.047419958,0.9235299,1.6918842,-3.0704753,0.21451688,0.28198895,-1.0579584,-0.09178068,-0.39765912,-1.0499988,-1.1637244,-0.717422,0.597471,0.5455272,1.3850842,0.5035132,1.4281893,-0.7199764,3.6972497,-0.23931763,-0.102135815,-3.0827358,-1.5901208,-0.006356404,-1.870291,0.99328786,0.8333965,-0.50254774,0.20914517,-0.86212355,-0.29859918,-3.496909,-0.22131997,-0.17244239,-0.193792,-1.273559,1.1909158,-0.009505139,-0.30950573,-0.5297318,-1.5350796,3.8368404,1.4060452,1.6117624,3.1258042,0.8813326,-7.3770895,0.26623553,2.776593,-0.45527458,-0.28813443,0.9696975,0.0012878289,-1.6450394,-1.1086504,-0.12223184,-0.34632465,0.024831522,1.5852652,-0.7426408,2.757785,-0.037556022,0.71696925,2.722695,-1.1789632,-0.21609545,-0.541712,-1.3602628,0.07839074,4.0788445,-0.8789377,3.4152455,2.4148934,0.8776082,2.6367414,1.3076216,-1.920878,1.19294,0.59373283,-0.3071837,-0.136287,-0.08308171,2.9891825,0.86147076,-1.4732418,-0.34232795,-0.8441417,0.7226629,0.66507715,-0.4331636,-0.6532653,-0.7131554,-1.3656772,2.256357,2.6812985,-1.670418,0.8430942,2.124198,0.64376235,-2.0285788,-0.25670674,1.240685,-0.22016895,1.4841233,0.4153936,-0.82733566,-0.5094946,-0.9441202,0.88151085,-0.47894067,-0.1704741,3.456049,0.65095145,2.3800228,-0.50827205,0.05806277,0.9997019,-1.4615653,1.1400399,-0.10651428,1.6704413,0.8344098,2.527665,-0.81361,-0.70393884,0.956256,0.53655136,0.015099523,-0.5885206,0.94419867,0.9594927,-1.4071611,1.375412,-0.17650868,0.87358665,-0.73637396,-0.32994586,1.0950879,1.411855,0.8384574,-0.9599457,-1.1608108,-2.3780649,-0.13337088,1.4635414,1.869659,2.8387651,-0.81467724,2.9450877,1.5495524,0.976629,-0.63461286,1.1700467,-1.0856355,3.0594687,0.07324596,1.3591484,4.8204436,-1.6036413,1.3492647,1.4591789,-3.1716409,-0.23033251,0.25467816,-0.72321266,0.45906863,-0.25900877,0.03339197,-0.08021921,-0.43635976,0.96556276,0.069545835,-0.51145005,0.49230012,2.5855982,0.7424256,-1.6569622,-2.4450667,-0.35813662,4.2575088E-4,0.6974088,2.2204924,-0.63102424,0.7010742,1.9502187,-2.0964782,-3.2802854,-1.3443412,1.7028313,-0.16177689,0.47889334,2.6952345,-1.8627378,0.42005417,-3.1827772,1.6627032,0.3683434,-0.6426235,1.605593,-0.30243194,4.050541,3.531747,-3.8408182,1.1152445,3.49367,1.6298909,-0.50295085,0.63098335,0.6941194,2.8439162,0.5357537,-4.2199907,-3.3443055,0.73606086,-2.0701663,0.95007694,-0.89754766,-0.3355604,2.0413249,-0.37127405,-1.6144739,-1.9002864,-0.40196642,-1.9816474,-0.63427573,-0.16810095,0.87257594,0.36590767,2.0577712,-0.006125515,2.594886,1.5421183,2.1315913,-1.6105691,-0.8612981,0.9070404,2.39556,-0.3020872,-2.7124832,3.539644,3.0457132,0.9240156,-0.11370775,2.5779207,-1.4713204,-0.8606893,0.25562066,1.3032882,4.6551323,2.8957129,-1.6503159,-0.80449295,-0.1506435,1.132783,-1.6313508,2.6430135,0.7269351,0.09331128,2.987121,-0.68130183,-0.79593825,1.4611654,0.07721534,-0.21375479,0.09687507,-1.0274341,0.18722135,0.72769964,-0.028595949,0.90891254,-0.47202218,-1.2513475,1.1472052,0.312217,2.3578777,-2.895755,0.32646373,3.202692,-3.8014622,-1.6069448,0.6945062,-3.694647,-0.9575526,0.68327945,-1.4907603,1.4199299,-1.8653901,-0.4953856,1.118437,-2.849389,-2.9387896,-0.9371965,-5.6598473,0.53415126,1.0611,0.35778207,0.11887582,3.0747523,1.1994131,-0.073369645,0.82516575,-4.030899,4.252064,1.1479977,-1.619111,-4.3717666,-1.3179247,-2.2822585,-2.0918355,1.542068,-3.4195032,-0.98934346,1.3366983,1.0254121,0.7621307,-0.5846765,1.3662503,-2.778348,-2.2172167,1.9493741,-3.3739226,-2.0372434,2.0360897,1.0217358,1.788701,-3.0058029,1.8263394,-3.7867146,2.3721225,-1.937691,2.3231273,1.8382399,-0.9904898,-2.3885899,1.4770402,-1.0213326,0.23678829,4.384815,-1.8487566,1.6161866,0.9368074,0.52842695,0.104372375,0.26819474,-2.6906195,-2.637121,2.57444,1.298233,-0.10046882,-4.700586,1.3735938,-1.001317,-0.5312172,2.226841,0.61985606,1.688223,-0.5734988,0.96915066,2.0016127,-3.781239,-0.87800443,1.1263827,0.98757344,-0.08371806,1.8432814,-2.6159034,-1.505927,2.4808414,0.8572068,0.41033798,-2.180836,0.585404,-4.285989,-3.669122,-0.7227296,1.1440372,-0.011441837,-0.7661558,-0.17239386,0.35406142,0.5986692,-0.057779234,-0.26009595,1.3427893,1.1628836,-1.2223085,-1.5410715,1.3892484,1.0981715,0.98415506,1.0759803,-3.0706503,-2.0559585,-1.8198414,1.3770405,0.76322,-0.69944394,-1.344295,-0.70371085,2.3870177,0.7332327,0.8359423,1.0406382,-1.3559145,-1.9976599,-1.309969,-1.187685,2.8823311,-0.33450028,1.5283071,-4.8223677,-1.1770462,2.5515726,1.2735401,1.4779185,-0.42842048,1.7874388,-0.5241699,-0.8497761,0.12083891,2.5567923,1.15925,1.2917161,1.0232124,-0.37528068,0.76807094,1.238021,1.9906116,-1.6767069,0.22652824,-1.6414748,1.0768142,0.55986124,-0.38242358,0.6780823,0.70364076,1.1400557,-0.5019222,-2.1653652,0.33988693,1.1297798,-2.5453966,-1.7594346,-0.048779145,-2.5320513,0.43231937,1.7841539,1.8493844,-1.0234922,1.046852,-1.826036,2.4303455,-0.23147884,2.98949,0.14421341,0.8225058,0.13959076,1.7188064,-4.1874638,-0.298737,0.23159058,1.2949921,-0.9514919,1.8899772,1.8249999,-3.0095675,1.0344644,-3.8754215,-1.5659008,1.0856453,1.6575141,0.8796572,-0.4526386,0.026163446,1.085202,-1.7328265,0.7158067,1.8706383,-0.6552858,-0.56865543,1.5627769,-0.067116745,1.7541159,0.45759088,1.4000467,0.79286,1.1551973,0.64216846,1.383857,-2.0427961,-1.1468769,0.38991144,0.7517022,0.790906,0.37321103,-1.6137377,2.7703974,-1.1506482,1.2946005,1.4220759,-0.227831,-0.7588081,1.8881382,1.7425879,-0.55046177,3.710126,0.5336876,0.31091496,0.9834801,1.1171556,-0.368021,2.7270608,1.2336551,1.5618517,0.6035474,-1.3463078,-3.1622949,1.1848011,0.5022294,0.7426522,0.5111993,-0.5413799,0.2562085,0.16334729,0.68967164,-0.7962684,3.019819,3.3010836,3.501537,0.7177395,2.4171743,-1.5477071,0.25365558,0.45498767,-1.5546805,2.258296,0.43639344,0.16999525,-0.82617354,-0.11613696,0.29317674,-2.208711,-0.60989434,-3.2871614,-0.14862572,0.29645866,-1.096265,1.199003,0.36240762,1.9604961,1.19406,1.7025816,0.9282033,-0.2984623,1.5381958,0.4446934,2.0993235,-1.6892365,-1.5234059,0.38229683,1.8837888,2.1509883,-0.41001967,-0.59061575,-1.070334,0.05024649,-2.672585,0.91556716,0.5121936,-0.84735715,-0.110393114,0.6968657,0.57949805,-0.16515733,-0.16836388,2.9376848,-0.90439314,0.9276309,0.73848736,1.6165941,2.0828753,2.602505,0.39409667,0.6526424,0.30449167,-1.8489419,-3.2949111,-0.46625143,-2.3577676,-1.0240171,0.34835318,1.4861321,2.130948,-2.2204869,-0.083299056,1.6929013,0.5896499,2.027625,1.8753465,1.0153456,-0.076530404,0.43939424,1.3741125,0.5595146,1.2592164,2.4279585,-0.19235255,0.8021711,1.7511495,-0.61970794,-0.18417859,1.0000329,-0.4307646,0.7629705,-0.21062624,0.33488014,-0.993371,1.3790972,1.7913384,1.2603896,1.9037284,0.58160263,1.3044777,-0.5176202,1.0923426,2.8325853,0.6886859,1.5010159,-0.5182574,-0.55284464,0.14814314,1.9692532,-0.55994624,1.4038996,0.18984552,1.3318673,1.2953095,0.6211814,-0.8052343,1.0458876,0.94656104,-0.05164311,-0.9765782,1.1508124,-1.1138135,1.9496921,1.4903985,-0.18006238,0.26571554,-0.7680787,0.21280292,2.2898667,-0.45870548,0.60387,-2.6090689,-0.39456627,-1.6788484,-0.964178,-4.044357,1.4994742,-4.5699778,-1.1744514,3.1323924,1.6797575,-0.0067099086,0.40689826,-5.3161087,2.2074893,0.41192657,0.23072687,1.8339974,-0.28746453,0.3094931,1.3708292,1.8642124,0.6178521,1.3801875,-0.1553533,1.5445826,0.3944459,0.6890328,0.4576994,-0.5091118,0.65030885,-0.95057833,-0.17446342,-2.1151857,1.0069075,0.71170306,1.3979692,0.8781564,1.0509405,-0.7085818,-0.8576868,2.5506704,-0.21824242,0.38578165,0.6835831,1.581757,0.8476777,-4.0489526,0.9331522,0.7272065,-2.5813153,2.51009,0.3827725,-0.30223358,-0.095628865,-0.8431237,-1.3500398,-0.11333483,-0.6056028,-3.3392332,-2.0443027,2.8853989,-0.69758487,-3.054603,0.23300868,-0.47694787,-0.44493696,0.035919998,-2.785567,0.6889569,-1.2681482,4.186367,0.24549393,1.2280841,-1.1755586,1.4588526,0.8734074,-0.40881193,-1.0252247,2.3610165,1.4566097,0.6486397,5.239029,2.2637324,0.1026208,0.171748,0.43917224,0.4348471,0.27372205,-0.5853631,-0.1327327,-0.03832132,-0.693108,-0.6602159,-0.4441643,-4.42397,0.6339881,4.146087,-4.2445683,-2.1713939,-2.2701316,0.5318218,-2.4073908,1.8213515,2.2504768,0.68161637,0.3326896,-1.8051562,-0.9643807,-0.05911707,0.94154894,0.32188657,-1.4845616,1.1627568,-0.25800925,0.37334344,0.8961529,-0.8730915,-0.46941823,0.111372486,-0.7301922,-0.4992427,0.94928455,0.7124059,1.3170136,0.9112839,-1.1688696,1.7931787,0.63460416,-1.6386765,-0.15628405,0.34911174,-0.044598043,-0.7022253,-0.11535899,-1.3016096,3.3894734,-0.07890915,0.21392167,1.2165629,1.2555634,-5.422794,-0.78018695,0.85837233,-0.8506631,1.192691,2.2336092,0.5879224,2.0057054,0.16818754,0.7270822,-1.0229263,0.65598476,-0.038770832,0.82802933,1.8816518,-1.3927125,0.7540538,0.3751415,-2.6312659,0.6545881,2.9655507,0.3937319,0.3460952,-0.8451623,-0.5831273,-0.17039561,-0.23482393,0.10845703,-0.65138865,-0.5201207,0.18746652,1.2802858,4.0102973,2.2124577,-4.316902,0.27326792,0.44648618,-1.2824692,0.6843756,0.37708217,1.1423767,1.2715261,0.7317963,0.18743984,1.9956697,-0.6483508,0.94228005,-1.3018094,0.20531833,0.89491576,1.3735907,-2.0129104,0.12896198,0.44423428,0.45158815,0.06932557,-2.7883596,0.5956094,1.2060667,0.14045638,2.7244606,0.41627705,-0.13283339,0.09857237,-1.3057878,1.8833233,1.0689125,1.4957895,-0.6979977,-1.5508344,-0.83001137,1.091453,0.9505569,4.0639524,-0.54255706,1.2083138,-1.4266813,-1.0303564,-0.55356,2.1476514,1.4182518,0.7448385,-2.4774046,0.73789626,-0.48784474,-4.6304708,-0.8607477,0.9856973,1.1594874,-0.037156187,0.8748482,0.023715928,1.0150069,0.45674416,-3.3788989,-0.37803674,1.4786149,1.3098251,1.1850836,0.07789193,-0.48509607,-7.62293E-4,1.6778657,0.4560632,-1.3797104,1.596908,-2.4943538,0.720381,0.36850893,0.22699519,0.9696926,-0.03599318,1.4097278,0.9768359,1.2876738,-0.19941615,-2.3820179,-1.0726453,0.6245625,-1.4604722,1.2866153,1.2055058,-0.055737924,-0.89060146,0.69881445,-1.1881179,-1.7146562,0.73751146,4.8170857,-1.9459769,0.6311765,1.873257,-2.25578,0.17181893,0.30633795,1.4062569,1.2920932,-0.49736768,1.5943459,0.028880142,-0.8988944,-0.95001864,-0.74484134,-0.91945344,1.4262724,0.2185509,-1.499314,2.4692857,-3.1208284,-1.0648278,0.973,-2.040529,-2.3601239,-0.7778435,-0.02714561,-0.8841604,2.1858797,0.20923485,-1.7966083,-0.7083777,1.0593463,0.68662286,0.7639683,0.5519521,0.9338315,1.6423068,1.0022844,0.37899393,-1.1065421,-0.5857678,0.44494972,-1.8665707,-0.5249519,2.1621156,5.0268245,4.2912264,0.9301863,-0.379737,-0.9964538,-2.3364227,-0.1126522,-0.55886096,0.11018244,2.1193693,-0.710279,0.83868825,-3.8751817,-0.74127734,-0.7261441,0.07780519,1.259305,-0.34446532,-2.7905807,-0.78122777,-0.5801704,1.0262034,0.9133351,-2.5025558,-0.3335658,-0.84728855,0.17778477,-1.1653818,0.5065032,0.38019526,-2.3764143,-1.9238921,1.3460789,-0.035690587,-0.31275403,-0.51936877,-2.3490362,0.21878283,-1.1669244,3.1607609,-0.18947819,1.7673984,0.1967899,0.26384032,0.7752158,-0.35841933,0.75407624,-0.98408407,3.2882087,1.2731664,0.23878573,-1.0051578,-1.1730824,0.42388695,-3.010967,-1.797697,-2.0997052,0.39393023,0.24665603,-0.62866575,0.05060283,0.52453256,1.6718919,-0.10166544,0.5087832,1.1265023,-0.5386615,0.59597135,0.07741565,0.9695218,3.2622116,-1.8893911,-2.983135,-2.650897,-2.6539469,0.20692736,1.2452736,-2.9962513,-0.2421538,-1.3465537,-3.3299115,1.5989895,2.265625,3.2133322,-0.5333659,0.73239803,-0.30495057,-0.11281229,2.1675737,-1.7662115,1.1797266,-2.1102533,0.4465805,-1.3978777,0.8539695,-0.22593132,-2.847138,-0.7939661,-2.141436,-0.22278258,2.6874459,-0.87814075,-3.05602,-0.86319536,-1.1081277,5.056196,1.6749021,1.0526778,-0.6868438,-0.622133,-0.13207862,-0.34426752,-1.6545547,0.2338843,-2.4282253,-2.7649257,2.0082526,0.3071182,0.86522746,-0.99207747,0.5464462,-0.6462848,0.16705225,1.0572208,-0.9891377,2.4566615,-2.7758334,1.9571958,-2.991662,-1.2599926,-1.2694409,0.128735,0.05021275,2.8317304,1.2907463,-2.3054512,-0.074429095,0.862338,1.9291272,-1.0920534,-1.8105166,0.40265208,-0.38843104,-1.0885144,1.990991,0.5671319,2.48264,-0.9234384,0.62011486,0.53466564,-1.650689,4.7215962,0.58922744,-0.84849656,0.4225375,-3.6371279,1.7767191,1.405009,1.4437134,3.9588337,0.080159634,-0.064168856,0.37717757,-1.7830275,2.664289,-0.951301,1.3632789,0.64852387,-1.1335328,-1.2934204,-1.7212096,-2.8362672,1.5852915,1.7049304,1.0220554,2.4077969,-0.9966164,-3.6120038,-0.0844467,-1.9878848,0.019642107,-0.94469017,2.5146027,0.5360982,-1.3489707,1.3070624,0.46086448,-1.4551157,-0.08444164,-0.7840051,-0.5367184,0.06807829,-0.8117979,1.0894504,0.28853825,-2.1027915,1.372946,2.2704911,4.119916,-1.8400091,-0.20703582,-1.6398032,0.42517954,0.33293346,-0.933667,-0.4955491,0.21886571,-0.064256065,-1.1894765,1.0980889,-0.39165118,-0.36520633,-0.28292894,-3.5307312,0.52374846,-2.1451344,-0.4768301,1.2181872,0.49244985,-0.6031217,-0.4440777,-0.48057127,-0.17046812,-0.41030678,0.20213342,0.7892323,0.18662181,1.1406405,4.0612745,0.20053472,-5.6004095,1.1929154,3.0911236,3.2301497,0.60736215,1.7936251,-2.8857927,-2.0119343,0.0076327017,-1.1641368,-0.18384145,2.969513,5.8153834,0.6745346,1.0090917,-0.2958454,0.47800127,-0.5826165,0.073853955,-1.2850215,0.7884297,-2.1068988,0.09352006,2.5011377,0.24803536,2.9278102,0.6450998,-3.727375,8.942091,1.9458534,-3.8345234,1.1896598,1.6802336,-1.9609922,-0.74175936,1.8710923,0.9935139,1.4437475,2.5565305,-0.47988993,-0.08280163,-0.35218138,1.4450185,-0.92521346,-0.8669582,0.82352024,0.39835,2.8974216,1.5309825,-1.6113567,0.47241458,2.0933373,0.56627035,0.68127847,-1.7129866,1.95399,-0.15166453,0.45024386,-0.81008315,1.7787068,1.3962145,-0.7453261,-0.056417856,-0.96715695,1.5967504,0.068076394,-2.614813,2.9064436,-0.81251925,-2.2786772,1.7173371,-1.5515519,1.4173424,-0.1762781,-1.5291586,-1.3847195,3.4025443,0.49489447,0.029822953,-0.65748906,1.7673192,-1.4585819,-0.7544883,1.3594618,0.25970176,0.8411193,2.1962829,-0.45244813,0.7854734,-1.1370801,-0.32749256,1.8371516,2.4579165,0.6958513,0.0017032999,0.9988271,-2.4818702,-0.16331933,-1.7341582,-1.169313,-4.146327,1.6783571,-3.9888637,-0.28667402,2.7069166,1.6076815,-0.3291861,0.6785931,-5.685011,1.3027226,-0.0054900018,0.7571676,1.291862,1.6844313,0.15225945,1.0952159,2.4636006,0.41399354,1.5225682,-0.45616654,1.1351825,-0.29628605,1.2012225,-0.7194428,-0.1977518,-0.74227196,-1.9071077,0.8093533,-0.59142274,0.37832516,-0.106611155,1.7109146,0.4819469,1.3328372,0.5695918,-0.52964306,3.0109465,-0.6737935,-0.077420704,0.70285815,1.6813827,0.42794627,-5.0442657,0.88983345,0.37687722,-1.8180144,2.3098114,0.20233515,-0.82396466,-0.37035713,-0.3793284,-1.2092551,-0.633343,0.14594355,-3.301765,-0.5633782,2.8931735,-0.76821893,-1.8764096,0.029246818,0.39303878,-0.26288238,-0.20669946,-2.075221,-0.46556765,-2.0160036,3.7612712,-0.38316396,1.239173,-0.83391947,1.3332293,0.3288462,-1.308604,-0.7761689,2.1398847,0.86411583,-0.29069313,4.8326516,2.219074,0.10527377,-0.48955098,0.55297375,-0.7034673,0.41113743,-1.2791156,0.3974567,-0.18527874,-0.28545782,-0.54357177,-0.34905884,-4.22316,0.44341126,4.4576,-2.863338,-0.9230777,-2.7524457,0.39067617,-1.4392492,1.9795227,1.2269145,0.05745653,-0.010824206,-1.2165146,-0.89432317,0.12002174,-0.14057243,-0.500056,-1.1308842,0.3408673,-0.46296188,0.5465026,0.008133118,-0.59938765,-0.63845795,-2.1408553,-0.33793065,0.20057103,1.4750315,0.57919234,1.0120965,0.7809481,-1.3710135,1.2062665,0.552424,0.8136071,0.054940544,0.09433085,-0.1542321,-0.91967684,-1.6005374,0.23315872,2.738808,-1.8887048,1.4169482,0.8290244,0.87174803,-4.9970326,-0.3030717,1.0603979,-1.6876758,1.5697765,3.0671191,1.1133238,0.58978575,-1.3983564,0.42829666,-1.4120301,0.37831545,1.4808521,0.7591078,2.2886813,-0.2548674,0.47978857,1.2023623,-2.3541362,-0.7751502,3.707907,2.952859,-0.5733938,-1.1030557,1.5605168,1.769878,-1.1180096,0.42397505,-1.5029685,-1.1813693,2.6061857,1.1129307,3.1389298,1.0024614,-3.169213,-0.21937095,0.15838343,-0.58671516,-1.122841,0.3411209,1.7459557,2.536948,0.6919699,1.7686787,0.6427467,-1.3706082,-0.96718943,-3.5465286,-1.0487043,1.3027047,0.44753078,0.9101569,0.43412068,2.0785387,0.0017659427,-1.8679705,-2.4866762,-0.43546098,4.795974,0.2933974,2.2248678,0.3145497,-1.1023,0.10648731,1.4275632,1.2543157,1.566212,0.31750214,-0.6062266,-0.93691057,-0.08362033,1.9687567,0.75959826,3.6934292,-0.5900423,0.7394456,2.1102743,-0.59461135,-0.8121257,1.2550496,1.1005539,0.36532795,-0.15756597,0.30489206,-0.28420427,-2.9277594,0.092045054,0.6434527,0.64392376,-0.06415358,-0.19127455,-1.0840112,0.7305606,0.9304389,-2.5640864,-1.2240524,2.1944597,1.0543298,1.6348689,-0.3043406,1.6042823,1.6626718,2.2281718,0.65422714,-0.6176291,1.4004167,-3.1886685,0.5098358,0.019243876,-0.35463846,0.12869544,-1.0084854,2.4139204,1.048,-1.5328417,-1.9032735,-1.4228828,-0.07382438,-0.29742843,1.7480177,-2.4611197,-2.447809,2.1338794,2.6388228,0.7303041,-0.96462595,2.022237,-1.9343169,1.792364,1.0069937,0.2115842,2.444615,0.9128644,6.044256,2.230087,-0.7173945,-2.332739,0.6109536,-1.9087843,-0.4297053,1.9790205,0.19899267,0.92772585,-2.745389,-0.06708779,-0.10532885,-3.381184,-0.8385155,7.1716433,1.7857474,-4.048562,-2.225677,0.7316863,-0.33871529,-0.23112997,2.6947513,0.63008726,1.2192419,1.6030356,-2.0103328,-4.766222,0.12661964,-1.3843943,-0.87856954,-0.73699725,0.4208155,0.49992537,-0.31993932,0.57365924,3.9507108,0.2082887,-4.0473623,0.34193394,-0.6292594,-1.3355238,-0.77516556,-6.4292707,-0.24889643,4.4900784,-0.46815926,-1.1702529,0.92566884,0.08729325,-1.2848936,-3.883814,-2.5859218,0.3915577,0.14232714,1.1847581,0.25855055,-3.0076222,0.30326903,3.1438916,-0.24111606,1.9898494,-4.0600295,-0.11488888,1.4843907,0.42365152,0.29259875,0.7662547,1.1306607,1.5638068,-1.3477914,3.41424,-1.3019015,1.0803785,-0.98714787,-0.5727651,0.5233616,-0.19811884,-0.85774946,0.014858194,0.27246997,2.4369345,-2.904438,-0.90947235,2.222599,-2.8394,0.49869913,-0.5040532,0.84079254,1.5473926,1.0483552,-2.5399768,-0.8304255,1.70802,0.262721,0.061814427,2.259714,2.4969847,-0.28190103,0.95143527,0.26043493,-4.2348237,0.62194014,-0.63689375,-0.05780286,-0.36524406,-2.3233771,-0.22473972,-0.09501774,1.6801722,-0.38429612,-2.172801,-1.6360121,0.65209365,-0.704465,1.4496715,0.77990115,2.6956565,-1.2531888,1.0821186,-1.6453689,-0.8262114,0.9065705,6.9478974,-2.136566,-0.3882796,1.9532351,-2.078338,1.1485614,-0.10771688,1.5355543,0.6041519,-0.19525337,0.70052373,0.10403595,-1.0708828,-1.0049353,-0.23067506,-0.4415763,1.3940346,-0.89301246,-1.1622692,2.97777,-2.359276,-1.4015611,0.0405099,-2.5369096,-2.4382873,-1.2689337,-0.32239613,0.19044419,1.8931334,0.73556226,-1.6400731,-0.0916314,-0.67479974,0.6216293,1.9903287,-0.16374733,0.12807894,1.1212701,1.3784748,-0.61063987,0.51967496,-0.46844512,1.4169306,-2.502544,-0.83638006,2.5308619,5.656092,3.250233,-1.4365549,-1.1259345,-0.336538,-2.636768,-0.5016492,-1.0252714,-0.36650681,2.1001885,-1.9022483,1.9446219,-4.122335,-0.6616993,-0.88815147,0.8127637,0.3830755,-0.65689456,-2.0898902,0.08324908,-0.6679953,-0.49552557,1.3963778,-3.6632988,-0.9465655,-0.4084053,-0.3574246,-1.4970995,0.21285598,-0.09765414,-2.392863,-1.7663039,1.1416085,0.541034,-0.009203473,-0.046601817,-2.5300956,-0.7383244,-1.4211172,4.804864,-0.42965043,2.7432947,-0.934708,0.15272574,0.7563166,-1.3951998,-0.05557995,-0.9999142,4.1184173,0.5577073,-0.9389333,-0.87554646,-1.0886697,1.3627827,-3.6162739,-1.3239509,-1.5801538,0.021948472,0.6069717,0.63826406,0.11645312,0.06252053,1.6098051,-0.6405464,-0.23755302,0.018503109,-1.5896758,1.2454156,1.7501624,1.1115967,4.294765,0.95449084,1.4566637,-0.18816319,3.5243704,-1.4105426,0.9919721,0.12596641,-3.2287812,0.90066403,-0.6658298,0.8944044,0.17966765,-1.2172906,-0.26504725,-4.631824,-0.8046412,-4.2624955,-0.7949009,0.7977817,-1.8049725,0.17999798,-0.38902065,0.7668358,-0.1684704,0.95651734,0.26546496,1.3326681,1.0910978,1.8169006,4.0411997,-1.0435121,-5.420815,1.2831479,3.9064734,0.34877825,-0.45148882,1.4479628,-3.2449145,-1.0632113,-3.1939652,-0.14001992,0.51227283,1.1157702,4.516098,1.3183408,2.5240552,-0.7909143,-0.10253998,1.0757097,-1.4673091,-0.80996275,1.4402786,-1.1805004,0.07139955,4.6440673,0.7112143,2.0125272,1.6894302,-4.314149,3.6353526,2.8181918,-3.3549192,1.0612017,0.51283395,-0.26335323,0.7223629,0.004282631,1.2499256,2.1941037,0.09319267,0.9141419,1.2775713,1.4745386,0.0384808,-1.2401,0.38279608,0.84051543,0.22583383,3.3129504,1.8630201,-3.1842034,0.4486323,1.3099532,0.24693337,0.660353,-2.1454794,1.7059906,0.8245445,0.032560382,-1.2650607,1.1000053,1.1624994,0.48149678,2.4998324,-0.52548766,0.10888669,-0.16877376,-1.3995421,4.710294,-0.27706406,-0.007529713,-0.14281264,-1.8795925,1.055514,1.1821032,-1.5307803,0.31265762,4.309516,0.71669656,0.72212774,1.3210442,-0.12596494,-0.3256625,0.17829444,0.856503,0.5139888,0.19222564,1.6735158,1.1999779,0.63078946,-2.0825608,-0.7096871,0.5671735,2.5293083,2.1994822,0.48392546,-0.8396115,-2.3150122,2.275969,1.6715772,1.2039516,1.2301564,-0.39600655,-4.8034225,-0.39198333,-0.96604574,2.1775818,0.5701679,1.740747,-5.3583417,-0.8052127,1.2225596,-1.0201046,1.5360807,-2.3502889,0.3142954,1.5791224,0.3720862,0.9366699,1.7393795,1.1789382,1.2928611,1.6408197,0.44804284,-0.8743161,1.5270759,0.6140332,-2.3665035,-0.1919028,-1.2309242,-0.21602103,1.2236052,-0.41370985,0.5135758,0.41681215,0.21754588,-0.22794084,-2.4498844,1.7163278,-0.06849283,-1.5105133,-1.4966744,1.37065,-3.325406,1.2477853,1.322116,1.6068486,1.0690925,1.0081913,-1.2277453,2.9937263,0.6839576,0.3548138,0.24771848,1.3546178,1.5297431,1.2898602,-3.5279455,-0.834008,-2.8024137,-0.33698598,-0.7315741,0.675393,1.9674506,-2.3384054,-0.12719776,-0.9830011,-2.171127,1.0579702,3.408964,1.0668862,0.12797028,0.77667224,0.51366955,-1.3003695,1.7724439,2.7039657,-0.28649276,0.65601164,1.573619,-0.583575,0.44850975,0.7823592,0.19032317,0.69298124,-1.426614,-1.4644442,-0.22534312,-0.8552065,-0.5252742,0.9839626,-1.1250927,0.9692101,0.74518347,-4.3292103,2.3889303,0.17233825,1.2642783,2.7409034,0.46788225,0.75783557,0.71072245,1.585584,-3.8286343,3.8123357,-0.48572913,0.538964,1.7894057,1.1444063,-1.1783946,1.2698503,1.714059,0.28444707,0.71373683,-0.61408764,-3.2793937,0.9118037,1.3497584,1.3392278,1.2579739,-0.38335013,0.108882874,0.6219514,-1.7662672,-1.5344468,3.3699434,1.7814736,1.035244,-0.34185344,-1.9489875,-1.1202338,-3.8649359,-1.1545663,-1.6584057,2.639013,-0.42109329,-0.87336284,-2.241324,3.8117385,1.1271174,-4.0549607,1.7261136,-4.5334873,-0.28573558,-0.70984405,-0.9550861,0.06521224,1.2564642,-0.2724804,1.8522338,0.059570324,0.92385256,0.751494,0.2794201,1.0825036,0.5708013,-3.0155113,0.49046603,1.4096966,0.27597654,2.157438,1.8667879,0.6595087,-0.06307156,-0.5040916,-2.9795449,0.6010395,0.59544885,-1.844185,-0.15318027,-0.2827477,1.1052674,0.29257482,1.0654761,2.3686483,-0.9803158,0.25352126,-0.4948691,1.0245829,-0.37334988,1.8839626,-1.5276107,-0.88393027,-6.3922725,-2.8161674,-1.3228241,-1.0023751,-3.5166943,1.3749664,-1.491241,1.1553317,0.16976374,-6.508474,0.7291933,-2.5683308,5.0693893,0.09825831,0.6807873,-0.35588202,-1.4156265,-0.11843741,1.6394671,-2.2460475,1.8022187,0.3714643,-0.3858328,6.579017,3.4902916,-0.1664092,-0.27242202,0.16877937,0.060361646,-0.3495761,0.7417403,0.04646723,-1.9226103,-2.4885175,-2.2420273,-0.023325643,2.3984246,0.30392703,4.7648764,-3.762006,1.4448447,-3.715839,0.38261414,1.2758946,-0.81053656,-0.7811927,0.43314272,1.0191495,-3.08417,0.5369367,0.98246455,0.19304313,0.24823026,-0.66168475,3.3617747,0.8980084,0.06890398,0.85656697,0.25537938,-1.7811216,-3.0868073,0.48570052,-0.56339246,0.74720234,0.058330312,-0.809208,1.5170444,-0.33831048,-1.1590369,-0.78206134,2.0152447,-0.22449437,-0.82552695,-0.17150822,-0.63793206,-0.025714908,0.108563915,-2.3683932,0.018470144,0.60025984,-0.81067204,0.3917397,1.6043425,1.1594398,1.2452639,1.57871,-2.349419,1.7382611,2.4530814,-1.5265383,1.1420789,-1.4709965,2.021689,0.44065514,0.2888757,0.42082414,-1.1240457,-1.578156,-1.1003618,0.99737376,2.2778416,-0.379901,-1.5510672,0.7158072,0.19128111,6.61372,-1.6582812,-0.70524645,0.718123,-0.18182163,0.6046337,-1.4212909,0.9003322,-1.4919832,-3.1844375,-1.5696499,1.3576763,0.6970548,1.2335323,0.53115684,0.21702738,1.2997133,-1.1907598,0.7630429,-0.12369804,1.9889302,-1.3907881,2.7956924,-2.1360006,0.94091105,-2.8157918,-0.76815385,-1.1151518,0.36290327,0.82143486,1.0773917,1.2717743,-1.1997763,1.9487727,-2.0941813,-1.1758894,0.8570506,-0.5157029,-0.5227819,2.2825737,1.0165184,1.051772,-1.3877623,0.40826672,1.637804,-1.9604183,4.428203,0.56948584,-0.9768767,1.371866,-2.2225804,2.708777,0.507758,1.5513148,4.1224732,1.8877295,-0.64334935,-0.073098846,-1.20776,1.846281,0.53279555,1.1582382,0.47314376,-0.7767527,-1.2243749,0.44620314,-2.5441751,0.8443408,1.8121148,1.9359269,1.3060712,0.5173163,-1.7476611,-0.022502877,-0.4099777,0.3610245,-1.1214886,-1.1983465,1.465151,0.090818055,1.712543,-0.76394045,-0.6551752,-0.58772624,0.08576338,-0.122721225,0.23470908,0.7148131,0.6599254,-0.90432686,-1.0445373,-1.9784065,-0.66834795,1.6225818,2.6417477,-0.40262753,-0.5657574,0.6712973,-2.0646825,1.2942165,-2.2475414,-1.0065997,3.687796,-2.2337935,0.15904547,-4.3385205,2.4884048,2.0678954,-3.0455115,1.1506745,-2.7989142,-1.10182,-1.9455892,-2.0085638,1.0295476,2.6792238,-0.571333,2.321904,0.59593624,0.573035,2.2329924,-1.1227415,2.1685045,0.73869073,-1.3390415,-2.9233563,1.1430798,0.81354105,0.407871,1.7308756,1.0914354,1.079778,-3.2414956,-2.1799388,-0.09052449,1.6390191,-0.84966,0.7708355,-0.8545983,-0.24323477,1.0182743,1.7481626,-0.19844954,-1.4449564,1.3197258,-2.0090642,0.8121771,-1.7159059,4.25014,-1.4141209,-1.2626379,-2.0499177,0.06113054,-1.1063079,-0.54524916,2.333366,3.1560478,-0.32594252,2.6216028,-0.20394285,-2.9501586,3.9748845,-4.7315874,4.506743,0.49693516,-0.40855822,0.095163554,-0.6203878,0.7600018,3.6741383,-1.1052538,1.2281028,1.3043106,-1.4723686,3.2312264,3.339488,0.95115626,0.18131709,-0.42838877,-0.020007282,0.3447689,0.7641888,3.892925,-0.9536415,-1.7973742,-0.9048457,0.990589,3.277695,1.4394025,3.4072797,-0.4415538,2.377601,-1.415838,1.795509,0.3900717,-0.7762422,0.614597,1.3733274,0.022069769,-0.61265844,-0.26924968,1.980527,1.2687323,0.67769945,-0.1053034,2.509205,0.91250926,0.74290395,1.8090701,0.0065815924,-1.4725336,0.10654939,-1.0885284,-1.496136,1.1513758,0.68667024,-0.119330436,0.13545676,-1.0941904,-0.14613459,-0.17940055,-4.4438205,0.34606656,0.22301286,0.902642,-0.80743426,2.1005113,-4.048303,-2.6361747,2.5390904,1.3948864,-0.22995585,-0.14214896,-2.5912356,-1.2549679,0.9603151,3.253407,-2.0707626,2.3542626,1.4110254,1.0954119,2.3558805,0.8990678,1.7622464,0.70457816,1.2348776,0.67028224,-0.4143308,-0.06740182,0.60902995,0.6952789,-2.5798898,2.3398852,-1.6563096,-0.5696156,0.13127056,-0.36100948,-3.2066338,-2.135306,2.7712045,-0.71595407,3.059994,0.23370484,-0.16898784,-0.922726,-2.3845527,0.7377603,-3.4657285,1.1850883,0.935431,-0.0020734947,1.794052,1.3320309,-1.7909964,1.0431081,-0.041020975,-2.467479,-0.1684725,0.017084884,1.744251,6.02986,-2.3029308,-0.5577888,-0.34536144,-2.6576312,0.16682693,-0.26126638,0.82503927,-1.6460575,1.4050248,-1.9957708,-1.6557505,0.17655654,0.57026696,0.019568082,1.9562439,1.3319491,-0.3281186,-1.3399239,2.134058,0.4453256,0.617188,1.1241671,1.4913714,-1.1610004,0.8849779,-1.9410142,2.3032582,0.3760399,-0.5370866,-0.56670797,2.274606,-0.80706495,-0.4165244,0.15624954,-4.1298456,1.080599,1.4670627,-0.7219815,-0.05727512,-1.4008213,1.0492966,-0.7315316,1.337156,2.1300719,1.4197906,-0.071747996,1.4422609,2.4978487,-1.2949629,0.43424296,1.7003525,0.12336923,-3.8982797,1.2024312,0.5911994,1.0591742,-0.544555,-0.26441127,-0.9496232,-0.32974163,0.6322086,1.497136,1.713646,1.3665024,-0.73532915,-0.48192438,-1.1696208,1.083452,-0.8616098,0.43449184,-3.0776768,-0.9283916,-3.3977468,1.6058179,-1.8327855,-0.8167626,2.8491008,1.7984223,0.0033807377,-0.70803857,-3.3670893,2.8440218,0.100756146,1.7655984,1.4396071,2.9682965,1.4165728,-1.2194773,1.6927956,0.3797526,1.4741641,-1.2689768,1.6554756,-0.44490036,0.34360653,1.3695557,-1.3611906,0.7957298,-0.4448416,-0.13823463,0.8509766,1.4953709,0.11870378,1.8850524,2.1861353,1.835927,1.5562443,-0.08525437,3.2796645,-0.45084324,1.3823217,0.8032739,-0.2717591,-1.1194006,-2.2512896,1.0881087,0.58732456,-2.7297432,1.5733219,-0.06673986,-0.06442055,0.273971,-1.2220244,-0.6382286,-0.61406004,-1.4882843,-4.874839,0.1945316,1.5126954,-0.48231915,0.09848141,2.8091,0.7736165,-0.115181364,-0.29628965,-1.8426155,3.0623174,-1.654163,3.63596,-0.4037024,-1.0007564,-1.0249145,1.0505072,0.79517424,0.49870595,-1.4299483,1.4979168,-0.2581681,0.76945806,5.9051175,2.7071085,1.8331428,0.50204647,-0.7183886,0.7930704,0.45069373,2.2415807,1.4885466,0.43119416,-0.82199055,-1.0225981,0.049136557,-2.0876946,0.33036008,4.6568155,-1.4631586,-0.850731,-3.602559,9.311434E-4,-2.2233796,0.869903,2.293312,0.65227634,0.38908815,0.6315305,-1.942225,-0.7089288,0.014030652,-0.61401933,-1.3698989,3.6508956,1.0819309,0.34420025,0.91949487,0.83576876,-1.3174919,1.1423585,-0.8272157,-0.80303097,2.2379375,0.40291014,1.5895373,0.2555845,-2.4408448,0.68067443,-2.5553017,5.085376,0.9494498,0.16652355,0.876612,3.0282125,-2.2825568,6.770208,0.7463405,-0.50868607,0.7158297,-0.28535396,0.66165155,2.5345287,1.2943541,1.2102079,-1.9061997,0.35784125,-0.5039778,0.24268506,-1.5371782,-1.8525566,0.7818688,1.1854147,-1.4383513,0.49701276,0.007816683,0.08118336,2.256633,0.10606596,2.000405,2.9985292,0.5533828,-0.04533399,2.3083217,2.4953132,1.5323302,1.3281511,1.5457712,-0.46608543,0.27588987,-1.1622205,0.74266523,2.1539602,-3.7984462,-0.14613609,-0.5878744,1.4427876,0.064745896,1.1411034,1.1141589,-0.29602614,0.09751802,1.2694556,1.6648685,-1.4883527,5.124263,-0.116259694,2.3305664,1.2325332,-0.69403625,-0.2742097,0.47612432,3.141885,2.8567948,-2.7510571,1.8761287,0.73978794,0.28971165,3.2534757,-1.388571,-1.2057226,0.17053032,-0.4110689,0.94799626,-2.0347612,-0.1758958,1.7685616,-2.4926324,-1.2253102,1.1960363,1.1450733,-1.0070922,1.0923355,1.4696753,1.0705074,-0.082178846,-0.002041834,-0.37937874,3.360743,2.966111,-0.4785825,-1.661984,-1.6578923,1.1476623,2.5776415,0.095704935,-0.7611322,4.3359094,3.913228,2.5546298,0.3983808,1.8493555,-0.08656829,-0.8461793,0.71383786,1.2722068,2.5946517,0.9769486,1.8970648,-1.4324359,0.03797352,1.2439595,1.7527324,2.6847436,1.3826269,0.94520116,1.9206169,-2.2824755,0.12160875,1.2716682,-0.28333354,-0.33179393,0.013796985,-0.97919506,0.3401042,0.8492582,-1.4827999,2.1386578,-1.0731108,-1.2882817,-0.43337747,0.07894872,-1.0322596,1.3898497,-1.6367817,0.1298262,0.9472373,-1.032523,0.46714342,-0.57920235,2.135694,-0.37267977,-0.80355096,-0.53651446,0.22647397,-0.64398175,0.67473733,0.3428994,1.3649995,0.9590938,0.07758717,-0.21933609,0.7995524,-0.50997806,-1.071654,1.3165416,-0.5583094,0.63733375,2.370169,-0.6644195,-0.32755482,-1.9141837,0.8881021,3.812633,1.3254226,0.5821631,-1.8707895,-1.3672878,1.9705284,0.629227,-0.9916802,3.1774487,-2.7648125,0.13062659,1.2436343,0.13566558,0.23706083,-0.92444,1.5013871,-0.9299133,1.2225826,-0.7368732,0.1910867,-2.0074468,1.1063693,0.3650167,-2.579503,-2.8009608,-2.919571,1.1904509,-3.518283,0.64200836,1.7550726,-3.487588,-1.0102918,-1.4679451,1.8103461,3.4555845,1.7782011,-0.63545954,-0.8962182,-0.38036707,1.5794566,0.009198953,1.7061247,0.51664263,1.9615427,0.6654677,0.38450828,4.2362165,0.8347828,0.6141149,0.9688405,-2.286028,1.0102694,0.7170835,-0.99881446,-0.21506947,-0.014209311,0.6430226,0.8907014,0.83619857,-1.4974731,-1.0755869,3.1553414,-0.6851774,-2.0512674,1.6734921,-1.2413701,-1.151569,0.8454609,1.8862146,0.9930847,-1.1963326,-1.9006897,-0.008115135,-2.9799125,0.8165217,0.69782454,-0.4007466,1.1413939,-0.737455,-0.637791,1.3246318,0.29159635,0.90679145,2.7774785,-0.70094854,-0.1158001,0.32721564,-0.09213441,1.3184369,0.916852,-0.42807046,1.8188366,-1.0433096,-1.7471132,-2.5224347,-1.1235459,-1.8674266,-3.020519,0.58252597,2.5005603,-1.1433078,1.3036367,-1.8188831,-0.81874716,1.4468122,7.2275925,-2.9604192,0.45469797,1.4224021,-3.675334,5.7439704,1.8227658,2.925447,0.922181,0.74486315,1.1555997,-0.12821265,-0.5299965,-0.8195381,1.1605092,-4.040158,0.29315504,-0.1289367,-1.3130019,2.124022,-0.08824079,-0.4371227,0.2955425,0.6621083,-3.5639455,-1.1970905,-1.604145,-0.13764973,3.902672,-0.3550798,-0.9389787,-1.081414,-0.71511126,1.7899914,-1.1671299,0.51925373,0.7349864,-0.42634922,3.4622843,-0.18813577,-0.07057073,0.49481,1.2657573,-1.8047155,-1.9570609,3.7110074,1.9455352,1.3072928,-1.4357687,-1.7988728,1.3998419,-3.0141573,-0.42196506,-1.0066386,0.6034649,0.18006612,-1.9417324,-0.115604274,-1.4219769,-0.5027778,0.14683661,-0.22848353,1.3173032,-0.56697655,-3.5248199,-0.9796151,2.1307526,0.73244756,-0.3377112,-0.18332282,-0.14952931,-2.712899,0.15627368,-1.0813297,1.1020467,-0.13508499,-1.991748,-0.80602103,0.6733152,1.0482177,1.0911885,0.049944185,-3.607204,-0.54684466,1.1055434,1.0939295,-2.3419013,0.9005974,-0.85507494,-1.9461079,1.210361,0.52336025,0.73841965,-0.47080573,0.46360967,-1.3613844,-1.2121702,-1.6316638,-0.4398345,-0.2677585,-5.8750677,-1.5501915,-0.40732673,0.6682094,-0.4007553,0.63059324,-1.8059186,0.5527473,1.5784602,0.35510048,0.43069044,-0.09598875,-1.9423531,0.15117332,-0.30566743,0.33758664,4.2690988,-1.5494521,-1.1207376,-0.90848833,-2.6047823,0.5614067,-0.31422138,-1.0939938,0.33878678,0.83273596,-0.45113158,0.22792393,1.5257522,2.0467985,1.2844384,-2.3830307,-0.1737353,0.6777607,0.35337365,0.6026976,0.57204974,-0.595474,0.7803447,-1.1513695,1.6714809,-0.13371485,-0.09661901,0.06342227,-0.95679903,1.9902871,1.6053817,-1.2501787,-1.132753,2.3095307,1.4329216,4.9461527,0.036310118,1.445756,0.2542725,-0.9107287,0.9458256,-1.2746543,0.75788915,0.2382615,2.6801827,0.4539676,0.6440323,0.7285847,1.6923934,-1.8076258,0.8211536,-0.09197068,0.2549116,-0.10428744,-1.9940605,2.7232509,-0.7025116,1.2190869,-4.0711994,-2.6718595,4.31949,0.1791396,-0.838239,1.227417,-0.0887591,-0.11062277,-0.4285286,-1.5351877,1.0274963,-0.68907785,4.790296,-0.52056366,0.47763556,-0.92535007,1.498557,0.544247,-0.2690427,-1.2480878,2.3715692,1.6433012,0.44045576,4.3972893,2.3939657,0.060997758,0.5411461,0.1646514,0.7213753,0.2637851,1.8973602,1.8753278,-0.31591204,-0.76235014,-0.45689967,-1.4988604,-1.1887784,0.13439284,4.3975005,-1.0875087,-2.4320033,-1.132017,0.19360568,-3.2104013,1.2416302,0.23259799,1.5860169,-0.36718556,-0.7890505,-2.4036841,2.7601151,0.11145972,0.05999381,-1.3943508,0.7535728,0.20119455,0.08415892,2.1679068,-0.6278811,-1.6821845,0.32247448,-0.8861541,-1.0939882,0.4219186,0.19713965,1.5533098,1.557018,-0.40507096,-1.1547432,1.5498152,3.8311002,-4.5477805,-4.6801276,-1.1238153,-2.6474216,1.2671474,5.6253285,0.49241897,1.4278731,-2.2228262,-0.67953134,-0.6995109,8.516212,0.2677988,-0.8811321,1.8028054,-2.9832509,3.5066772,0.80425817,-1.3416277,0.30810574,-2.2813606,-0.9762225,-2.4591827,-0.82619536,-1.4129758,-2.3580384,-1.0301219,-4.153835,0.61441714,1.7120042,0.5322642,3.87911,-0.26345918,-1.4653876,2.2470622,-1.79908,-0.7173489,1.4113643,0.10437766,2.74481,-2.500453,-0.5007606,1.4169006,1.4314189,-2.1013825,4.9678125,-1.51399,-0.4920949,-3.2767725,0.23126733,-2.4041185,-0.45745137,-0.495625,-3.4980104,-0.83826977,-0.24451618,-0.047791224,-1.0428294,0.38091075,4.0534472,1.1911408,3.167087,0.4466877,0.4304312,-1.7487078,-1.3943025,3.4501321,2.148675,0.66179705,0.64702564,-1.3490971,-2.1141112,-2.0525105,0.6008946,-1.234068,-0.98630935,-0.61920285,-0.89981973,-2.453485,-0.99886125,0.14322367,-1.2322514,-1.9074742,0.8809209,-1.793774,0.8987578,0.22307102,2.4853814,1.9940394,1.2634157,-0.40881133,-0.5603786,-2.751897,1.2299765,-2.4092155,-0.73350096,4.7023997,-2.8519716,-3.090083,-2.5021393,-3.5894802,0.2701343,-0.8212109,0.4011977,-0.521816,3.470565,-4.58594,1.006371,-1.2722566,-1.1652658,-1.506131,-1.6504084,0.022346359,-1.4807793,0.80217636,-0.050599378,-2.3939862,2.6860392,-0.75791603,-3.2258246,-1.1820567,-2.34845,1.4299201,0.6592434,-3.4777827,1.5871923,1.4466914,1.3398964,-2.646181,-0.17876093,-2.5923302,-0.3424607,0.66014606,-0.578707,-0.50628006,0.14008045,-1.1368985,-1.554379,1.1258668,1.0676917,-0.19104296,-1.2712272,-1.9969053,-1.0699939,-1.818312,-0.70738417,1.285407,1.1392355,-0.72427404,-0.51062727,-0.3762827,-0.4545681,-0.5754197,-0.2834705,-1.0552468,0.8050428,-0.5144251,1.316807,0.8021295,-3.9698799,-0.66821396,0.85156286,2.6948135,-1.5369918,0.6544025,-1.6313497,-0.77725303,0.7336033,-0.6469824,-1.9205066,2.1517117,3.8831449,0.316489,0.03672445,-0.2893158,-0.2924238,0.25903592,1.3260674,-1.3073428,-0.48967725,-2.1859264,1.0624931,0.077383175,-0.7107796,2.0312073,1.0055865,-1.659788,6.701215,0.26010704,-4.3528147,-1.47243,0.7366104,-2.375968,-0.31574544,3.8809152,-0.8086688,1.0115675,1.2631147,-0.45838287,-0.62821454,0.016425522,1.591132,-0.91658866,-2.464582,0.35396913,-0.055410653,1.557853,0.5046729,-1.5998099,0.03269431,0.69203293,-0.6821233,-0.37195888,-1.8299391,1.3141493,-2.41201,0.13805965,-1.0636301,1.2571061,0.6300789,-0.96653277,-3.8611803,-0.8793808,1.1502377,0.57018554,-3.083415,1.9487923,-0.95811707,-1.6562799,1.7059679,-1.459141,0.32994017,-0.16440031,-1.1337092,-1.7218516,1.2388858,-0.38491854,-0.7803896,-0.057960197,-1.2430936,-2.5900917,-1.8196088,-0.11400363,-0.6025405,0.16230474,1.187607,-0.11522406,1.4632897,-0.99327725,-0.43812615,1.1062968,1.4772267,0.25355178,1.248967,-1.6534659,-0.023255222,-1.1430142,0.13525695,-0.25032613,-2.216429,-1.1963648,0.9929888,3.166568,-1.1580667,-0.48861873,0.57425547,1.4957159,-3.3791199,0.45019275,0.63865566,-1.3153665,0.46629086,4.519528,1.7411712,1.8394828,-0.6338244,0.48471573,-1.2822385,0.49416494,0.52598196,0.20476952,1.7527307,-2.9952848,0.46551305,-0.49512172,-4.355009,0.49308354,5.368308,0.72704035,-1.9414183,-0.3723978,-0.80692506,-0.012846124,-0.76433647,1.4137181,-0.2754324,-0.22462279,-0.10754742,-1.6279278,0.959066,1.9202294,-5.154205,0.23528893,0.37796715,-0.39354926,0.94952655,0.41875228,0.7483809,2.692933,0.87330234,-0.94791687,-0.17657767,0.26350105,-0.501082,-2.1425786,-2.1452656,-0.7303834,2.5850432,-1.4862158,-1.6499919,0.9604219,0.73184204,-0.6868166,-4.220697,-2.0285077,2.1926653,0.27849972,2.2111225,0.21601918,-0.19364412,0.46533877,-0.6311299,-0.1165956,1.9938397,-0.20741634,-0.83499765,-0.367572,-0.53571075,0.13822097,0.1720113,2.3534346,-0.5743313,-0.19260678,0.2903663,-0.39030293,-0.44793034,0.42565563,0.39834303,0.27978337,-2.7161164,0.5519703,0.90480125,-3.3736522,0.0029937287,0.0767973,0.49197188,0.3833659,0.4063386,0.18916635,0.27976564,1.0133023,-2.2258809,-0.4958921,0.53173405,-0.20052509,0.47522458,-0.34051883,-1.5681874,0.28105247,0.86453897,0.06929546,-0.90763974,0.9411263,-5.551213,1.2459521,0.7050311,0.33949906,0.7334507,-1.0222632,0.6782079,1.0102488,-2.7330556,-0.9701294,-3.70137,-0.33240905,-1.3142995,1.5889739,-2.5107646,1.7214056,-1.268842,1.6536335,3.4585962,-0.72066206,1.0594021,-1.3190593,0.83352584,0.8792145,0.26227665,5.0959535,-2.9232783,3.4718435,0.22427459,-0.50243104,1.6490215,0.82408166,0.73688185,0.6384302,1.760615,0.72347194,-0.48102185,-1.8060579,0.22068763,-1.3721291,-2.1844926,1.8963127,4.8232203,-0.26021025,-2.4570117,-1.5912071,-2.0960445,-2.2133985,2.1814363,2.3224504,3.866722,0.9129945,-0.4207685,-0.9703011,-3.1063867,0.24119253,-1.0250384,0.42760777,0.22944897,-0.12450022,1.0064121,0.95557165,-2.0180066,2.374765,0.26276225,-4.5882764,0.28532892,-1.1470951,1.1838074,4.460535,-1.2405281,-2.085275,1.2178061,-2.5362532,-0.4687009,0.3197723,0.6894421,3.8303912,-0.8393992,-1.5233356,-0.7461587,0.5195318,-0.47776505,-0.60514224,0.8961236,0.7473468,0.87374634,-0.9754706,1.457444,-2.23735,-0.69999045,1.6237677,0.5073415,-1.1703289,-0.50189257,-0.6777829,1.7299445,-1.0492134,0.25650865,-0.6151996,1.9359444,-0.78578925,-0.82623196,0.26534697,-2.059366,0.66698754,0.37906632,1.5625513,1.5149416,-4.1030607,0.88521075,0.7022216,-0.16477832,1.3426237,-0.9043405,-0.19586779,4.3332915,2.6008637,-3.2971213,0.7925796,1.0830474,-0.32910642,-2.5507274,0.91824025,-0.08582432,-0.5047771,8.175657E-4,0.3794995,1.0848595,-0.6112043,0.70580757,0.6929941,0.96297437,0.24071996,-2.1132066,-1.9153062,-1.5870528,0.8925636,1.6283723,2.9578228,0.9075285,0.48389566,3.3336241,-0.69639724,1.59782,-1.8013858,-0.7972513,1.0818849,0.057022806,-1.202484,0.57846266,1.5192828,-0.47861362,1.4591552,1.1946869,-4.787091,1.5074358,-3.1902852,0.03733252,0.11222298,0.19064654,1.2109327,-0.3996315,0.56803566,-0.8764792,3.2200036,0.13783926,0.7556248,3.6662514,-1.5548841,-3.3580184,2.7702434,-0.73194414,2.8429704,2.2960048,1.0637476,0.98326886,1.5607358,-2.6800377,0.76981115,2.7823362,0.5914871,-2.4922016,-2.3392758,3.682172,-0.4695211,-0.65828514,4.046045,-1.4733095,0.06844865,-1.6616137,-0.73839027,1.8618056,2.619212,0.19662116,-0.12531005,-0.49363786,-0.23141296,-0.23590565,1.2583954,-3.0375357,3.3037539,2.5767167,0.4591049,0.6872871,-1.4592358,3.6390538,0.20064749,-0.21706487,1.7592161,-1.6787858,0.20339435,-0.14830214,0.41889405,2.7254293,1.5845916,-1.4233505,-1.0857711,-0.2005009,0.43376786,1.3454154,3.1099567,0.75191885,-1.1645504,-0.123840265,1.4482737,3.217753,3.8890932,0.27144477,0.79307634,1.6496763,0.5654324,4.06998,-0.81537145,0.36226523,6.180788,2.7677605,0.11064525,-1.0621414,0.71526396,-0.39139456,-0.8179138,-0.28905773,3.1263175,2.1441834,0.7430146,-1.5995389,0.2388345,-0.6031622,0.49672958,4.602385,2.261907,0.43450412,-0.25770995,1.4292798,1.0264019,2.15291,0.6730097,0.42705896,-0.13575448,-0.6637215,-0.79126704,0.19545566,-0.88666475,-0.83090454,1.4575325,-1.5834812,-0.69782436,-2.713755,-0.6710888,-3.509597,1.8949152,-2.3084683,-1.1290859,2.8326628,1.4727271,-0.12227556,0.044655733,-4.1660237,1.9232577,0.18737234,1.6471903,1.9337811,3.625393,1.0715008,-0.25420746,1.6374032,-0.04874591,2.0606687,-0.77452886,1.4245985,-0.010743864,0.15503046,0.70075357,-1.232962,0.750527,-1.133627,0.7536382,0.029569011,1.5628546,0.30170706,1.5592177,1.3473724,1.7126211,1.4873551,-0.36853212,4.0273194,-0.82061434,1.2438678,1.1959628,1.1883034,-0.19409472,-3.410061,1.1004715,0.7212534,-2.8853638,2.442274,0.25024945,-0.47135413,-0.13752632,-1.2789395,-0.32348368,-0.7112152,-0.0901938,-2.515179,0.9361143,3.206784,-0.5073368,0.6778246,1.5009784,0.5983749,-0.03797629,-0.14490858,-1.2082396,1.9244694,-2.1280308,3.0256317,-0.18686426,-0.32579082,-1.0368901,1.3291838,0.7076063,-0.26815933,-1.0676032,1.5829203,0.31911662,0.5118609,4.8055744,2.099533,0.71642745,0.4928567,-0.25084713,0.8668975,0.5593388,1.1981598,1.2917062,0.5842601,-0.85681146,-0.7941268,-0.7337052,-3.364072,0.6568992,3.5954344,-2.113864,-1.0788975,-2.8636482,0.48675027,-2.6503706,1.4872339,1.9998845,0.78852063,0.036890827,0.28619647,-2.041928,0.12472883,0.4883097,-0.13432616,-1.2127777,2.0214543,0.76516753,0.883094,1.0377637,0.16630897,-1.0623564,0.9860731,-0.84909517,-0.9672079,1.8293912,0.7585651,1.7419585,0.18411472,-2.1329641,0.30426183,1.2130593,-0.17409202,1.2814385,1.040224,-0.22378936,-0.49030864,1.8277963,-4.1711645,0.07329951,1.9397658,2.2272494,0.23262404,0.6609777,-1.5530868,1.280114,0.43932706,-0.50760525,1.0301948,-1.9492775,-0.21288931,1.4570624,2.5425909,1.9488045,1.1038958,1.4891746,1.0880371,1.5488005,0.57107407,-1.0198071,-0.17614947,-0.22137272,-0.026748668,0.8948105,-1.0567031,-1.1702971,0.71031404,3.1380844,-0.5296666,-1.0316013,-0.22835012,-0.42970607,0.7220231,2.1055622,-1.0500681,1.4273661,-1.2564231,1.4968407,-0.319704,1.9679275,1.1317952,-0.39725402,1.1693206,1.5568521,-1.3747284,0.3349458,0.655856,-0.71280515,0.035076424,-1.503221,-1.0581847,-0.2904148,-2.7447755,-1.5004451,-3.2122962,-2.1238446,0.952893,-0.15581627,1.8551893,-2.6332028,0.13777272,2.2735913,0.14925481,1.3393315,2.2090652,0.33125055,1.3840467,1.6387643,-0.22114216,0.32235324,2.453496,2.3173015,-1.0817266,2.9274554,1.9783713,-0.6268414,-0.049723305,0.84833914,-0.11179638,1.1785573,-2.3191588,-0.6883323,-0.2994162,1.6466329,0.51976156,1.6741778,-0.7368846,2.2441986,3.1148047,-3.4240654,0.21272561,0.54723483,2.0315325,1.1757501,1.6243811,2.134988,0.65500844,1.361829,-1.693053,2.191414,-1.3373889,2.3040762,1.0327985,0.071382895,-0.556104,-0.32271475,0.36955568,0.3289285,-0.7086187,0.75984496,-0.085296184,0.77734894,0.3955972,1.6922072,2.4401526,1.1583903,-0.4129766,-0.3926556,0.62880695,0.026309753,3.6371787,-1.8362789,-1.1393244,-1.1817026,-2.6617768,0.5142515,1.0430851,-1.5970483,0.2519295,0.23580958,-0.5900663,1.4368224,1.30516,0.029090237,0.90960515,-2.6790845,-0.8054541,1.8046703,0.47349218,1.2399567,0.84620696,-1.4290195,1.6177487,-1.1551077,0.58223873,-0.59814644,-0.29159507,-0.9920654,-0.29122922,1.57153,1.6502576,0.5327911,-2.1567981,1.6185688,1.5278484,4.966048,-1.1101297,0.8942423,-0.058017723,-0.9474334,1.4805847,-2.299788,-0.13462076,-0.39225963,2.4147387,0.3201633,-0.18870711,0.32503036,1.3850156,-1.348307,2.2068536,-0.40132362,0.058552027,-0.78166306,-1.5122467,2.9781692,-1.0965858,3.4869468,-2.8920283,-1.2721726,5.957045,0.11533271,-0.7000708,0.092082165,-0.6313684,0.07694454,-0.089970075,-0.93820673,0.5286525,-0.84418535,1.8787776,-0.7556672,1.0344067,-0.69415593,1.42177,-0.0683975,-2.0091467,-2.1247866,1.1640704,2.2762747,0.13532513,2.0785804,1.6857388,-0.33108675,0.56772834,0.0055031665,0.1408494,0.53262967,0.966897,2.1584964,-0.18275648,-0.9869288,-0.81106085,-1.6307545,-2.79981,-0.5410987,2.5101075,-0.20207886,-3.0575562,-1.137882,-0.5376296,-3.4519598,2.5466247,-0.058902122,1.8009206,-0.35057846,-0.72007674,-2.4440494,3.5695338,-1.1715368,-0.5696443,-1.0207224,-0.9152064,-0.4112455,0.4035146,1.9395303,-1.3197001,-1.8690718,-0.8210516,-0.30688408,-0.43244857,0.117974326,-0.17480674,1.3865168,1.6589079,-0.33501002,-0.46404114,0.08970801,-0.9610533,3.379571,1.2807112,1.047923,1.2420963,-0.2568912,-3.9579298,-0.87486297,-0.15350811,3.3527815,-0.023780549,1.5470332,-6.480064,-1.1192554,1.349938,-0.6677557,1.9600416,-2.2430913,1.0576723,-0.2625381,0.47502166,0.88552743,2.896727,1.1025902,1.7365994,1.485381,0.5820729,-0.38962933,1.0527983,1.283111,-1.7069986,0.13873415,-1.6636659,0.6514196,0.66619027,1.0532565,1.1951509,1.0921459,1.1090157,-0.5915772,-1.7747655,1.1246419,0.5849085,-1.0213876,-1.5388364,0.12604204,-2.6846738,0.93407935,1.210471,1.8956738,0.20347837,0.80268335,-1.629521,2.9201746,0.036454216,1.5699085,-0.14644818,0.95265895,0.22370073,2.0626476,-3.6597083,-0.259167,-1.7817652,1.449903,-0.27228215,1.2872219,2.1792843,-3.587057,0.45246756,-1.8349524,-0.90419257,1.2277081,2.4311993,1.5118511,0.19380155,0.36883906,1.5530845,-1.116626,0.8656282,1.990603,-0.46654385,-0.032177567,2.3436518,0.25095356,0.5958765,0.14098199,0.5000165,1.280431,0.32566708,-0.14047657,0.033500202,-1.1788136,-0.7905187,1.3428098,0.26877362,0.81355923,1.1352338,-3.3705661,2.9884372,-1.0675387,0.83809626,2.437936,0.9224594,-0.53265303,1.3170105,2.1829133,-2.3180478,3.4375026,0.5207326,0.4215456,1.5400679,1.6656767,0.48960546,2.5000477,1.708532,0.9975871,1.155267,-1.1270376,-2.720314,1.1397077,0.6219689,1.42843,0.45328546,0.09937766,0.49368733,0.34335217,1.3100753,-1.2510436,-3.0724187,-1.0258285,-0.6590302,0.38763842,-2.4737048,-0.44364512,-0.043101486,2.6215172,-0.7720709,-1.5774513,1.3500143,0.6219208,-0.7618749,-1.3235797,-0.24249712,0.9469626,-0.41838366,7.1089187,1.5355477,2.4507096,-0.6925421,0.64221746,-1.4838933,-0.023285478,0.31922445,0.034853302,1.0019192,-4.8181076,-0.040936574,-0.9414238,-4.87054,1.1447707,8.049089,-0.0944032,-2.2268636,-3.0785186,-1.8661641,-0.7990682,-0.36929938,2.073966,1.4073082,0.82261825,-0.7384859,-1.1452726,-0.9921385,2.1606083,-4.51033,0.29522175,-0.1209996,-1.8499646,2.1012137,0.25563744,1.9230161,2.9233532,0.20569125,-4.47593,0.3676167,0.65959084,3.0282452,0.94751096,-4.7350874,-0.838994,3.6380181,-3.4856532,-1.922854,0.08294906,0.23719251,0.6756764,-6.855509,-0.0013941072,-0.48237827,-0.07995479,1.7187897,0.30988017,0.07082094,0.5963615,-0.51970685,0.17511714,1.4746162,-0.92259866,-0.97178966,-1.3259426,-1.1274174,-1.2999135,-0.23117213,0.8016958,0.4445716,-1.1210158,-0.40965822,-3.6980662,0.54505646,0.3703234,0.12984532,0.2084974,-3.6461227,0.5888804,-0.5566249,-3.7809832,-1.2987611,0.4460973,0.27294675,-0.33995143,-0.4766862,0.79314566,-0.30998215,-0.64518076,-1.5163748,-0.9864183,-0.931931,-0.49462608,0.7488797,0.4721136,-3.2335806,-0.35069537,0.3856848,-0.39100346,-1.0092349,0.593862,-4.7275796,0.3555954,0.22819215,0.42834237,0.42327178,-0.6070229,-1.270489,0.75680834,0.5773435,1.3461852,-1.1683581,2.4358344,3.1596608,0.25366205,1.8227776,0.87541866,-5.022484,-0.7496689,0.816407,2.4409008,-0.015209626,0.6602288,-2.441279,1.058914,0.27690056,-0.40874776,1.3310018,-2.0155807,-0.32167262,1.3515542,1.2964293,1.8786274,0.97146964,1.6534902,0.9794465,1.5509434,0.50155395,0.86180335,1.3062319,-5.530806E-4,-0.6353015,0.12509309,-1.921396,-0.91241807,1.1599348,1.3213999,0.21513724,-0.2928971,0.36972463,-0.9666777,-0.33911768,2.3929176,-0.7848888,1.5511593,-0.5600281,1.2378712,-0.85156155,1.5876693,0.6864136,1.2306309,0.377321,1.642979,-1.3518523,0.15721008,1.0490674,-0.61251205,-0.033792235,-1.1337209,0.4185767,0.6832981,-2.8409986,-1.1095198,-3.7486582,-1.176499,0.96939135,0.17152536,1.417322,-2.932059,0.7517483,1.5590657,-0.21392865,1.2496119,1.7967445,1.4021436,0.88244104,1.6136553,0.34127817,0.268757,1.8390139,2.2712848,0.21064259,2.4440262,1.9817144,0.20646706,0.004659345,0.6430499,-0.2207278,0.9860477,-2.369197,-1.0738469,-0.2714301,0.9860656,0.71142656,1.9290497,-0.32582247,2.2350812,2.9010146,-3.4885857,1.0147842,0.92799455,2.2042768,2.2651212,0.8579369,1.6818122,0.40728402,1.404959,-2.104324,3.0220172,-0.6009701,2.1640694,1.2483033,1.2522374,-0.074876346,-0.1385432,0.27271387,0.20288436,0.15537629,0.5203661,-0.8768277,0.73300415,0.8903275,1.487033,1.920088,0.6071174,-0.11146595,0.8428503,-2.1396477,0.0054995385,1.6654674,1.61731,0.10560916,0.4316965,0.44321948,-2.2916927,2.5271206,0.40650785,0.1591341,2.0043778,-0.72688603,-0.22435711,-2.24903,3.1471758,1.7877594,-0.6438283,0.8615358,-2.4931386,-0.86495984,-1.9948226,-2.3684173,-0.06785595,1.4544044,-1.9468763,1.681373,-0.08671858,0.41520232,5.199216,-0.5594279,2.2284613,1.9479443,-0.91774845,-4.4792547,2.691876,1.7568544,0.08580243,2.2155294,1.5179117,1.1483927,-2.9893398,-1.293351,-0.38690928,2.9749746,0.98885524,1.5668133,-1.2021905,1.2335211,0.21096033,0.9942534,0.24744745,-1.4728241,0.6441918,0.4962096,0.42487946,-1.5748333,4.005421,1.8352885,-1.491127,-2.7240047,-0.6185468,1.3643926,1.2828499,3.5161166,3.515913,-0.23727717,2.5827856,-1.8610032,-0.2627608,4.6476507,-3.2690668,4.9365854,-0.58475995,-0.90928894,-0.26080036,-2.7122705,0.15623604,3.7722418,0.8716567,-0.36506364,0.95620316,0.13597664,3.980355,2.2863421,0.6629493,1.5704857,1.4806765,1.2790538,-0.77593076,0.07274984,3.4779794,-0.47166774,-1.6766418,-1.5720824,0.31166244,4.14877,0.42254388,1.0972885,2.0131176,3.444502,-1.1740462,1.1015663,1.9447722,-1.2796724,1.0135573,0.23465201,-0.9559975,0.754951,0.8879862,2.4382005,1.2413065,0.074934214,-0.52787864,2.8935719,1.7497891,0.9375143,1.1862882,0.83317727,-1.0809565,1.8650336,-2.5568457,-1.0521065,0.27671713,0.012237262,-1.1238744,1.2742633,-0.79682106,-1.3811436,-1.8439027,0.7228944,1.125293,1.0909088,1.2949241,3.7290206,-2.4797149,5.5335593,3.5667543,0.5284211,-0.6292677,0.68527186,-0.70454246,1.342121,1.4300063,1.3246503,0.8909039,0.3999601,0.6759345,-0.1485981,-3.5437872,-2.486281,-0.5356596,0.52020836,-1.3211236,-1.036463,-0.72275066,-0.8545633,0.8594452,-0.07615784,1.1313875,1.1557903,0.034821596,2.7843702,1.9674001,-0.6260291,-2.318971,0.43622681,-0.17750335,0.92162496,0.7380535,-0.8610979,0.602858,2.4611018,-2.9005578,-1.3108025,-1.8592827,1.1085118,-0.72832733,0.4631326,2.0316179,-1.4885991,0.030602403,-2.2915645,-0.0036347006,-1.6719108,2.345937,1.9577706,-0.14244008,3.3693702,1.6741744,-0.70192605,2.7798374,4.73557,2.392113,-2.8058114,1.7283487,-0.5921827,4.2003393,2.2753172,-4.958037,-2.4379835,-0.23137143,-2.4184265,0.78026545,-2.6938543,-0.59825873,1.8840753,-1.2456988,-2.491306,-1.5843805,-0.56420594,-0.87611896,-1.343807,0.61677355,0.9107663,0.7387683,0.7690942,-1.1714518,3.672993,2.536186,0.5833645,-3.1023397,-2.3063424,0.2685075,3.0969362,-0.1782882,-2.8716755,3.4594796,3.7003565,0.54028803,0.2514889,2.9861586,-1.359813,-1.2761058,0.15546323,-0.0058133877,3.61827,1.9679639,1.1571206,-1.4137757,-0.85234773,1.2859536,0.39379817,1.844374,0.80836827,0.61258113,1.9493824,-2.422721,-0.09598952,0.70306087,-1.3184587,-0.27780008,-0.67021036,-1.3864795,1.7345539,-0.005871149,-0.9492027,-2.0851228,2.3837376,1.0091681,0.550101,-0.17198195,1.7482857,-2.4788208,4.755823,3.4986675,0.26078832,0.7584792,-0.66189694,0.38709852,-1.3418419,1.2175454,2.4834945,-0.66292286,0.78650343,0.59414786,0.035546605,-2.9259338,-2.1719823,-0.3991434,0.9237715,-1.9969375,-2.1415355,-2.3007278,-0.015845604,2.3926208,-0.097180404,2.3994772,0.84602815,0.7650226,1.7455906,2.5733452,1.6627212,-0.2677504,0.6324552,0.5262571,-0.17609914,-0.65092045,-0.41493905,-0.016500846,1.7588667,-3.5242503,1.8730572,-1.4775208,-1.6196804,-0.2617417,1.1974206,1.4890047,-1.4232141,0.42567366,-1.2578803,-1.9560537,-2.1048803,4.9167023,2.2410767,0.14433102,-0.5612626,-0.78597885,0.052858744,2.8361197,3.3891006,2.5582612,-3.2479744,2.6405275,-1.2406297,2.3302813,3.6515155,-5.583204,-0.63385314,-1.3718117,-2.3676875,0.3805146,-3.4145114,-0.62312347,-0.056188986,-2.6082504,-2.492599,0.9740409,0.19716771,-0.67675084,-0.60156775,1.1843514,1.6334743,1.5965234,0.31239536,-1.0111461,2.865933,3.1938133,0.42221817,-3.2484758,-2.6318514,0.20610802,1.6138567,0.020754155,-1.6534725,2.9516373,4.099349,0.0082070045,0.89318436,3.0621653,-0.5410703,-1.0640761,1.455632,-1.2570367,2.7662268,1.9737595,4.07135,-2.079821,-3.04678,0.51568496,0.78134364,0.028499253,0.26997346,1.57601,0.94822025,-3.0800443,-1.708545,1.1576514,-1.338012,-0.34499034,-0.19938403,-1.1780673,3.0629716,0.05917051,