0.6786156,-4.442221,-3.337779,-0.08915187,3.2185967,-0.95454824,0.036637373,0.36223507,1.0159594,-3.3678176,2.2448921,0.02567363,2.3121831,0.021105653,0.07542042,0.05845918,0.9411497,0.3381091,1.7073746,-2.1606815,-4.9998064,0.044306178,-1.7401289,0.118240915,0.02195276,0.012883587,0.5136835,-1.0337782,-0.26258826,0.09727531,0.122169584,1.8826132,0.058599606,-2.2510567,0.07548819,2.0074527,0.045499455,-0.34311754,-4.571512,0.06490491,-3.9185247,2.0944598,1.5549278,-1.1500211,-1.4131256,2.7895815,0.07104,2.784949,0.2663506,0.046540234,2.4201696,-0.59528977,3.0918057,0.069767095,-0.7946397,-0.0110622225,1.5927578,-3.8031359,1.2576934,-0.7703515,-0.99319667,0.11827416,0.07346512,-0.25590742,0.07334048,-0.34174684,0.040208712,0.0542663,0.014215637,1.9198488,2.7408433,0.0441778,0.8616938,-3.241954,-0.09820611,-0.20633942,-0.04904509,-4.302908,-3.7276824,-0.85391617,2.4311516,-1.6584072,-1.3599248,1.5670972,0.5739725,1.6563147,-0.3057648,-4.3542147,-0.2751463,5.8495855,0.42952186,0.095456734,0.112466544,-0.0125593925,-2.9370487,0.46825275,-0.22025278,-0.3554859,0.07021787,0.022781173,0.053529356,1.3131689,-2.011958,2.728605,-2.7217438,0.035573896,-0.7817499,-2.1713228,0.2855337,0.80274934,-0.12724407,0.86373925,0.0871391,3.4643562,0.073913,2.5093896,-2.469296,-0.24487042,0.5762016,0.082005404,0.05567844,2.4901052,0.6685647,-3.2423782,-1.653836,1.6297497,0.013310002,2.2773259,2.2516003,-1.3196148,2.0154026,-2.305709,-1.3682952,-0.5244913,-0.0070222327,3.6897552,-1.6897943,4.7362075,1.6462215,4.4006915,-0.85493153,-0.04941378,-0.11730643,0.10148428,4.142333,0.41798618,-1.3715435,-3.3515553,-1.7741356,0.09325828,1.6689457,-0.06192397,0.057530362,-0.10926694,-2.584593,0.4336839,-0.3012172,0.050108414,-0.0032038742,-3.1034424,-0.01642371,1.9824535,0.070604324,0.48617,-0.03985971,-4.6252317,-1.9067658,-0.05922882,-0.060130782,-6.9423428,1.3888139,0.05255532,-3.1402617,1.1311005,0.09369393,1.1375915,1.3130705,0.056438614,-3.3125532,-1.2730379,1.9899606,0.0614796,1.6634299,-0.50523674,0.65808135,-2.735536,1.47335,0.7345702,-2.700181,-0.03430527,-0.17854604,-2.8792377,-0.10566464,-0.06727943,0.8827844,-0.09551935,0.022623898,0.20857885,0.8641929,-0.09006745,-0.5441733,-5.9631023,7.05251,-0.5682991,-0.119711585,-1.341757,-0.6365205,3.507139,-1.1504998,-2.0373902,0.6143054,4.944389,2.2403064,-1.4705378,0.6774439,0.75899106,0.8771285,0.57112104,2.269453,0.04915612,-0.019479638,0.018074997,-0.62987906,0.40606725,-0.076439805,-0.0399636,0.11899528,0.09979654,-0.04972769,1.9552423,3.2051506,-2.1447473,3.7076354,0.057492394,0.84283423,1.232427,-2.4410284,4.1498394,0.063027315,0.7886103,0.015290556,-1.5125676,0.03601035,0.80479425,-0.029768756,0.5626667,-3.477978,2.2607927,-6.004995E-4,-0.17652069,-1.1090308,5.0137076,1.1586783,-0.45766798,-0.017154444,1.0489461,-2.4132597,3.5024934,4.952642,0.989435,-0.6687823,2.96372,0.07621367,-1.856185,-3.0972197,0.4591087,0.6161572,4.16778,0.6136196,-0.062082097,-0.11461266,-0.11791568,1.4567606,0.3458596,-0.5570301,2.0972614,-1.2225108,-0.0025943313,4.745657,0.021095341,-0.01221596,-0.045726884,-0.46407565,-2.1415036,0.44805458,0.051846504,0.019824103,4.2418957,-0.02541097,1.2088196,-0.12554523,1.0689465,-0.06843781,2.2945871,5.0685906,-0.020602094,2.3062055,-0.36316195,-1.3437347,0.6478791,3.119963,0.5434105,0.039774094,0.94025856,0.17813215,0.11978251,-3.168392,-0.68613243,-1.0841385,0.076454684,0.16257492,-0.74648297,1.7331831,6.5323477,-2.536454,-0.16830575,-0.31583297,0.041322205,-0.13730516,0.7912123,-0.09560868,-0.3557722,1.4955394,-0.11989427,-0.03220156,-1.3597499,1.0482755,0.0921562,-0.2715891,1.6172743,1.2557584,0.42907006,0.02272618,4.8055573,4.432553,0.29094324,-0.09101186,-0.54707,1.2173641,-0.42808884,-3.0878263,-0.14516217,2.2890968,0.9099977,1.1292834,-4.383925,-1.9225076,-0.079411656,-0.01398802,-0.11221237,1.1072824,1.9846683,0.89074826,0.7977191,-0.053421963,0.05203359,-0.053416494,-4.4495945,4.018256,2.6177874,2.854272,-0.0042346083,5.770701,2.8366778,-2.6465964,0.41188076,0.11741483,-0.856741,0.020362398,-0.76497024,0.028722959,0.9227888,3.4387307,2.6837173,3.11692,1.127802,-0.07953102,0.6924637,5.5622163,0.3639914,3.1486099,0.20790616,0.10207788,-3.1535401,2.471954,-1.562277,1.5379164,-2.3697472,-0.50308865,-0.7879407,0.10590371,4.2610226,-1.1720593,3.9572623,1.7917283,3.1158252,-0.38820395,1.08288055E-4,-0.09150183,1.724243E-4,4.3557367,-0.052344557,-1.4838688,-3.9927394,-2.314764,0.0037269732,2.0276992,0.047573254,0.10710004,-0.09605593,-2.0188773,0.9034842,-0.9790785,0.08143794,-0.03705491,-2.5342703,0.091422506,2.938695,-0.053470444,0.70178926,0.09476646,-4.9266443,-2.2576997,-0.00871874,-0.36955953,-7.105408,1.6774234,-0.1257175,-2.3086002,1.4699564,-0.075319275,1.2482225,1.1314541,0.058746055,-3.2791305,-0.5446478,2.520318,-0.030421522,1.9663603,-0.78811014,0.14670001,-2.8723133,1.5627401,-0.031628665,-2.3478947,0.0050604846,0.06472085,-3.060247,-0.038193066,-0.29291037,1.1558901,0.08800743,0.008261211,0.97904086,0.9811811,0.11510825,-0.54838353,-6.1962285,7.7250724,-0.832961,0.018868139,-1.7551639,-1.366772,3.239972,-0.8566743,-2.3771887,1.2909446,5.4132123,2.6773777,-1.234336,0.2758329,0.8798882,0.55923915,2.133907,2.211996,0.07518133,-0.07317437,0.0797721,-1.5456216,0.2757583,-0.38045532,0.10923068,0.005550299,0.025201172,-0.10995011,2.4309878,3.3165195,-1.5248357,4.363664,0.055492803,0.89174455,0.73073536,-2.0645287,4.882722,-0.09664899,1.2606863,0.093675554,-0.6723578,-0.08442332,1.0037756,-0.48192948,0.31614956,-3.3752017,2.6637552,0.027666843,0.09494909,-1.8787036,6.0727687,1.4106457,-0.41186976,-0.03620954,2.1787174,-0.016345765,-0.060713287,-0.031077761,-0.07167812,-0.043709543,0.012382357,-0.08258909,-0.032859806,-0.052409034,-0.057520553,-0.08937987,-0.0030715778,-0.024478167,-0.010378496,-0.054418337,-0.10925131,-0.05878446,-0.07483797,-0.039153595,0.036134277,-0.098522134,-0.041547477,-0.110112876,-0.074632324,-0.067139894,0.041060902,-0.021292765,-0.10932475,-0.09791341,-0.0017985451,-0.022640454,2.0102243E-4,-0.10172762,-0.006455701,0.028902093,0.08200204,-0.028003879,-0.031274933,-2.3100388E-4,-0.038647857,-0.0017232591,-0.11999279,0.018228153,-0.094011985,0.084362745,-0.049745277,-0.1157961,-0.026336966,0.08867011,-0.06389423,-0.01073552,-0.0766692,-0.1072509,-0.056652073,-0.016607424,-0.10128187,-0.08251318,0.0016452427,-0.024766924,-0.093711905,-0.061730992,-0.021131752,0.0906366,0.06108502,0.032884445,-0.01096865,-0.009898682,-0.059984267,-0.1070092,-0.05253627,-0.11639283,-0.09620551,-0.07006222,-0.11906128,3.0505384E-4,-7.774992E-4,0.029317379,-0.017725693,-0.10958355,-0.009131211,-0.10275231,-0.0050514573,0.039580375,-0.05198613,0.10048603,-0.11154992,-0.113611214,-0.09702633,-0.006582672,0.018585728,-0.08450076,-0.015604602,-0.059744664,-0.10662464,-0.06880948,-0.07291836,0.02052655,-0.11737578,-0.0129468795,-0.048464336,0.11917205,0.017422717,-0.0537674,0.016367452,-0.11888801,-0.052013982,0.072036564,-0.03084657,-0.09346911,-0.062479705,0.0010830519,-0.011115383,-0.053994533,0.020346569,-0.09437576,0.116319306,-0.092104144,-0.020063363,0.008209236,-0.005675006,-0.08095881,-0.058592338,0.113949545,-0.035527334,0.09391805,-0.057768434,-0.03008318,0.07214557,-2.8027363,1.0612655,-0.7109571,3.0476716,2.743344,1.3011055,-0.02435206,-3.9044552,0.9980021,-6.398338,-1.5464364,1.4027972,1.1256003,-0.084814705,-0.020870864,0.042204734,-1.387299,0.83441883,2.1565063,1.4463758,-2.9548995,0.025330454,-4.03159,-0.06527782,-0.04541811,0.049444694,-1.2814494,0.11229842,1.3391508,-0.05706185,0.08160919,2.0900795,0.017939184,-0.81572354,0.0013188628,0.48945847,-0.05514743,1.5929359,1.6081718,-0.032930713,-2.6111422,1.4135169,-1.3876307,0.43251643,-2.1385496,0.14176285,0.045558203,-0.90311515,-0.07141141,-0.0031931342,1.331891,0.710113,0.83675486,0.024843099,0.36487153,1.8249984,1.3868682,0.5539766,1.3846217,0.779519,-0.37511858,-0.11376108,-0.0391906,1.5346252,-0.1099221,0.48604208,-1.4473714,-0.00695252,-0.008535819,-0.8286128,-0.31243873,-0.07314577,1.5242219,3.6231894,-5.983981,2.3211057,-0.038713615,1.764898,1.616707,-0.39565355,1.8552924,-0.82846534,-3.0714774,-1.9434358,-2.349476,2.0921047,-0.38969243,-2.39365,0.35929114,0.60970557,-2.8060606,-0.05179637,-0.0437772,0.007588556,0.44952348,0.71383816,1.8542637,1.0543267,-0.108354844,-0.07384419,0.04287935,-2.571438,-1.228328,-2.336358,-5.9830937,0.023816496,0.27055842,0.36773202,1.74139,-2.1826785,0.022550328,-1.4561031,0.08385496,2.062779,-0.058416974,-0.26728764,2.6886718,0.6527854,-0.48086601,-2.5754366,-0.029113622,0.71248627,-1.9456744,-2.9270325,-2.3247945,1.8953886,-0.11372771,-1.5912992,-1.4983827,0.1227455,-2.8979313,0.06849063,1.0564508,-0.35290155,0.023111818,1.092294,4.3051047,-2.7122371,1.3509412,-0.1891022,-1.1305089,-0.017948925,0.040561136,0.08522609,0.9515954,0.13708355,-0.13740446,-1.6403306,-0.16219069,0.047704525,-4.755169,0.09295955,0.10911814,-0.08964538,4.4824376,2.296101,1.1670793,0.008755717,0.06750463,4.0674815,0.091173835,-4.7874026,0.034695335,0.24376148,0.06203634,2.0833356,-2.670966,0.09564369,0.2041083,4.140722,2.768419,-0.5963144,-0.22463126,-2.1066892,0.108156584,0.3327897,-1.2888514,-0.049257036,4.2343946,1.4018348,0.033779316,-0.11839354,0.8947017,2.3263063,-0.48136792,-0.7257583,5.3900766,1.3568425,6.5623317,0.010014978,-0.0030214158,3.7687922,-0.07616244,1.8471913,3.0706108,0.07431716,0.057741944,3.5039158,0.3852665,0.07663599,-0.5975596,-1.8002697,-5.496011,-1.1662378,0.022289671,-3.221594,-1.5542825,-0.88754565,0.8864554,2.19041,-2.9294634,-2.1952927,1.7855047,0.29600024,-0.06652103,-1.2075261,0.95912325,2.2878718,3.6272762,0.06456775,0.07437588,-0.03267915,-2.5620742,-0.046495613,-1.3469743,-1.2103065,-0.068656765,-0.051677153,0.060140777,5.0066943,-3.7586768,-4.2696457,-5.358493,0.0033326154,-0.5127579,-0.9033088,4.2329025,-2.2620554,0.048550814,3.1816864,0.09401654,1.638976,0.039871145,0.2710484,-1.7359607,-0.61993647,2.9615624,0.17788206,-0.09176839,-0.25231,-2.1814184,-6.146679,-0.9849876,0.037562903,0.0734406,2.5991738,1.8442461,0.88651067,0.857043,1.3112209,1.0311881,-0.66224104,-0.110793866,-0.3921425,-0.51442283,8.716409,0.47224918,6.9064655,-0.17959577,0.0026322783,-0.08803887,-0.03309092,0.024289317,-0.46608672,2.7316842,-1.33356,-0.267095,0.08621988,8.265947,-0.106654905,0.098048426,-0.0023912394,-0.25205195,-1.7284029,-0.08622639,0.01844363,0.07648624,1.1400484,0.031737816,4.987802,-0.109625734,0.7827784,0.0348572,-0.006316431,4.864894,-0.11821756,0.75082266,-1.5137976,-0.5026805,0.63469404,4.2661867,0.9040548,-0.09262377,0.48140588,0.88085884,-0.023177693,-1.9433067,0.009505872,-1.115125,-0.095714666,-0.082928576,-0.44674382,0.3724774,6.2261105,1.6699811,-1.6709591,-3.1889937,-0.09401833,-0.19216087,-0.9681203,0.061058257,-0.027053472,-0.12811403,-0.052477553,0.11857592,0.5424139,1.4519477,-0.0012512387,1.0089779,-0.8248116,4.694053,1.0853593,0.043935247,-2.4229136,1.196459,-2.0430508,1.5031694,-1.2342384,5.423022,3.323621,-1.4258425,2.4153187,0.14222711,4.7409463,-0.9183958,-1.744661,1.1352735,0.10022298,0.013464194,0.074922785,-2.1129832,0.5804,0.2189826,0.88196725,-0.011661467,0.0012669035,0.08430845,1.1346256,4.874578,6.846598,4.529495,-0.052092157,1.6222832,-0.085639164,1.2769434,3.9889476,-0.012813206,-0.07619234,-0.05099451,2.0703933,-0.014687844,0.9533742,0.53763366,0.29689744,4.3469124,1.5384998,-0.090492964,0.8585084,5.2166524,2.7504833,4.5544896,0.7394515,0.08039851,-2.080813,-1.3515851,-0.12459081,-0.21439102,-0.50061184,-0.848917,-0.05435168,0.059431512,-0.5323602,-1.0700705,-0.64374566,-0.3846151,-0.65167445,-0.3232363,0.108581565,0.0296328,0.023998545,-0.05862819,-0.30496156,-0.62499446,-0.33635318,-0.72376895,-0.0078106746,0.065929644,0.018301489,-0.024360063,-0.038261794,-0.29388648,-0.37687194,-0.49411,-0.046405304,0.107128024,-0.077149376,-0.10792168,-0.48017347,-0.044655204,-0.26589438,-0.041036606,-0.19662541,-0.45968598,-0.013436087,-1.1030257,0.014888995,-0.8980828,-0.2470178,-0.012940909,-0.3523108,-0.0107440455,-0.28142738,-0.47695854,-0.049019415,-0.41125354,-0.24548791,-0.34307078,-0.058160458,-0.34406194,-0.9776175,-0.54258615,-0.30481693,-1.2105473,-0.23433617,-0.4136514,0.022839867,-0.016075153,-0.44805315,-0.046886954,-0.3939862,-0.456513,0.09800864,0.047225103,-0.2511401,-0.2912889,1.3346702E-4,-0.63889486,-0.42074215,-0.73281425,-0.417899,0.055010997,0.17352271,-0.09594984,-0.25937185,-0.7295251,-0.9233802,-0.39876953,-1.148695,-0.72102153,-0.7761844,-0.0912722,-0.89652467,-0.07607291,-0.5465291,-0.61047,0.08572729,-0.060814172,-0.014322805,-0.014311293,-0.18666454,-0.36183074,-0.4447426,-0.053091105,0.035212535,-0.032756295,-0.36845562,-0.71487147,-0.0069494215,-0.44005382,-0.038273286,-0.1685005,-0.3130022,-0.9551782,-1.0495812,0.022016523,-0.6280018,0.013964513,-0.6014162,0.0012922704,-0.28299135,-0.14309125,-0.0759537,-0.3336761,-0.4507984,0.02826903,-0.24232368,0.21278614,-0.7356455,-0.6269334,-0.72599995,0.038407344,-0.6428486,5.2146397,2.6101797,-0.19693984,-0.5194884,-2.2861378,1.452894,0.03620424,3.0255408,0.96509373,-0.4764654,1.5428536,-3.1272871,-1.77053,-0.09286076,0.054907326,0.062297463,1.2744193,0.39324522,-1.0190637,0.34829238,7.1399193,0.07823536,-2.5926042,0.032661866,0.049102932,-0.015229171,4.8451114,0.032938257,0.7961224,0.07718355,0.110645965,-0.8270153,-0.07267274,0.44728604,0.025593223,-0.7087869,0.05762048,2.5094452,-1.1568449,0.014622665,4.0856705,0.050178044,2.541664,0.120816186,1.107816,-2.2754278,0.11405592,0.5909745,-0.10259549,0.0024911354,0.11880321,0.35007945,-3.3381667,-0.0017309674,-0.21965753,0.91606385,-1.0166771,1.043833,-3.429057,0.94467103,5.3031344,0.028961642,0.024444588,1.4937559,-0.06684758,0.5328498,1.1287037,0.02816985,0.10309592,1.373857,-0.37879753,0.05810031,-0.6334498,-0.4858642,2.3655567,-0.8389513,0.02609251,1.5142554,-0.89998543,-0.121131934,-0.5760475,2.8002264,0.74071985,2.3626277,2.66317,-1.1395288,-0.3409973,7.724663,0.52228034,-2.0837214,2.4110062,0.077783234,-0.10138026,0.09571601,0.2595248,-0.11930454,-0.49559504,0.08072022,0.00529045,0.040674593,-0.0016698668,2.2045689,-0.14489675,-3.4827805,1.6835914,-0.111640625,-1.6098832,0.9768872,0.8475053,4.342603,0.035325408,2.7862523,0.042890143,-2.8190343,0.054760512,-0.38432488,0.032118868,-0.05682242,1.4215277,1.7578322,0.032721974,-0.84920704,-4.4725804,2.9256318,4.5347857,-1.682088,0.03725703,2.6263878,-0.023411548,-0.13093671,0.055256378,-0.02798311,-0.1617234,0.028943079,0.03447293,-0.17891112,-0.1406056,-0.06612456,-0.069861084,-0.12752728,0.018017208,0.015696457,0.010505285,-0.10300696,-0.044146504,-0.061856184,-0.03430355,-0.090122156,-0.042112503,0.014382944,-0.027087843,0.0319766,0.04784289,0.06885925,0.06590038,-0.13711855,-0.05537877,-0.11058377,0.024896074,0.06680725,0.061860584,-0.011660867,0.049871936,-0.01593195,0.09646158,-0.04272954,-0.09494419,0.03271525,-0.06030691,-0.07788886,0.0055127493,-0.019313939,-0.09874451,0.011481666,-0.08807111,-0.02028509,-0.053894777,0.106535025,0.026346205,-0.07859251,0.0014151109,-0.016333077,-0.14287488,-0.13865727,-0.059054445,-0.11279639,0.0424721,0.008408643,0.062317375,-0.08999412,0.107077315,-0.027637342,0.0128174685,-0.078171134,-0.10418791,-0.11071447,-0.065280646,-0.026822206,0.08484188,0.015086365,-7.963588E-5,-0.089696676,-0.16994384,0.048259933,0.0692287,-0.095202185,0.031181592,0.021788158,0.017754234,-0.16371456,-0.12305359,-0.12968469,-0.03284063,0.061678715,-0.12006914,-0.013019039,0.007875847,-0.0069824364,-0.062579185,0.12172264,-0.06272116,0.04713943,-0.009724956,-0.040322956,0.036427304,0.042431634,0.018827341,0.036175955,0.01434144,0.012091601,-0.14103548,-0.11835472,0.02953627,-0.06904289,-0.14691424,0.06141315,-0.023061974,0.04079852,-0.12542047,0.014497257,0.001972298,-0.16014305,-0.084738985,0.07170038,-0.023569185,0.03656002,-0.043032944,-0.15386322,0.10516241,-0.053672027,-0.17257038,-0.0029579706,-0.105040275,0.040365614,0.041493796,-0.05973097,-0.17724666,-0.28416994,-0.12602107,-0.07996077,0.03932694,-0.3226836,-0.026864938,-0.24854085,-0.32972255,-0.18836153,-0.3318339,-0.014120982,-0.35482824,-0.015328786,-0.02405095,0.057414506,-0.085534796,-0.04828367,-0.045793816,-0.051343985,-0.028609032,-0.06673075,-0.022729486,-0.084436946,-0.029121736,-0.040743265,-0.3475343,-0.07494129,-0.38993,-1.2143704E-4,-0.039979953,-0.11267899,-0.037713606,-0.0029390403,-0.026217159,-0.25585577,-0.016330354,-0.029688237,-0.09295274,0.07518422,-0.28151035,-0.020146728,-0.32433447,-0.013176499,-0.0143091455,-0.28533602,-0.057264525,-0.24319968,-0.050957922,0.110256076,-0.18856637,-0.0711713,-0.28252095,-0.0065556485,-0.045789253,-0.29014048,-0.19921294,-0.015360207,-0.33336148,-0.13000458,-0.27107176,0.025405353,-0.10192665,-0.27009633,-0.05980258,-0.2593896,-0.102984294,0.02171622,-0.0024872986,-0.06597629,-0.16743743,-0.03894273,0.060528837,0.001757096,-0.108578905,0.10979988,-0.005963119,-0.082912184,-0.066837385,-0.090733916,-0.09699125,-0.3090412,-0.09118001,-0.16054186,-0.23637779,-0.29275468,-0.08768518,-0.35976052,-0.08781459,-0.089601986,-0.3314705,-0.080688365,-0.072388135,-0.09379562,0.02307923,-0.39746,-0.27888808,-0.19190463,0.038649708,-0.10442605,0.040168762,-0.031145886,-0.084683865,0.093479306,0.11703157,-0.10401774,0.03454017,-0.25786272,-0.15469608,-0.35406488,3.0359466E-4,-0.26806602,0.04219444,-0.11998652,0.011560836,-0.23927708,-0.013752722,-0.36115083,-0.0905563,-0.27520704,0.046751335,-0.37729028,-0.0047620945,-0.14498918,-0.3194637,-0.24187575,-0.06928212,-0.18845813,4.5725327,0.14563832,0.40949845,-1.0255088,-0.24726374,0.08606733,-0.0013913361,1.7828858,-3.2504427,6.3852477,1.3568233,0.0369933,3.0836132,-0.12691262,-0.0045164693,-0.04861799,-0.027991073,-1.59086,1.5360975,-0.7915965,3.5111675,-0.016070528,3.8866076,0.09668727,-0.07076655,-0.021684991,2.5698957,-2.523869,-1.5097748,0.038512103,-0.002003634,-3.4668405,0.104486346,3.5312302,0.08756249,2.234848,-0.025846612,-1.2288156,0.12245475,0.05811694,2.5006053,-3.1999116,0.46733844,-1.7545313,1.0321254,3.0504897,-0.079472795,1.6364576,2.471982,0.038526252,-4.1793985,-1.5888036,0.48565114,-0.04656424,-1.3214642,-2.7491565,-0.81932336,-0.7574939,-2.3831716,-2.445024,-2.1845264,-0.031681225,0.18211776,-5.3332458,-0.053919077,-1.9887309,-1.7695878,0.044521373,-0.11051441,-1.5998524,1.9592018,-0.04275828,0.5029874,-1.8097118,7.530161,2.103901,0.017674591,-0.021959746,-0.3882191,-0.32814914,-1.2853324,0.8756256,3.0359209,5.0667005,-0.062640905,0.15965994,-0.2389405,2.7700026,-1.7527058,-1.6152462,-0.86574715,0.07573549,-0.09162163,-0.001194142,-0.40770698,1.6742216,3.0040967,2.922249,0.0692535,0.01867347,-0.011766778,-1.9553133,3.4086256,2.1011121,5.9201574,-0.08125962,-1.2059528,0.62992656,-2.2176466,5.327099,0.026395146,0.3727872,-0.07545503,-3.0394082,0.059452374,1.9630202,0.7324313,1.3917449,-0.65342325,1.3352342,0.03227816,2.4812925,-1.8979375,5.0374784,2.9991972,1.4708519,-0.041210223,-0.42223853,-1.519216,-2.5410192,-0.69801694,0.7092835,1.7083031,-1.7108502,0.042813465,1.2852638,1.8958104,0.8713081,-0.4649714,4.4612875,0.08088426,0.08190039,0.08482425,0.0056887767,3.153815,1.6598228,-0.2548158,-3.6017456,-8.799821,0.10950647,0.05649465,0.08167498,-0.052472174,0.008596046,-2.8841562,-0.22200738,1.3750114,0.013748748,0.09045955,3.4283612,0.04692693,-2.5583904,-0.05310702,0.046986017,0.014781029,-0.8221094,-3.2451735,-0.0886405,-5.2451696,1.1674854,-0.6321225,0.7287794,-2.6074567,2.0335495,0.018740708,-0.010923473,0.96868694,0.029648777,1.0793815,0.7100037,1.3095213,0.044354472,0.06066177,0.6252715,2.4311712,-3.7186234,0.90802085,0.9993628,-2.1152582,-0.073558085,-0.012272314,1.4678566,0.09094978,0.7029356,1.2265931,0.048103258,0.08370886,3.5015037,1.4045609,0.009065652,0.5015626,-4.5863347,0.87749976,-0.11457969,0.056470405,-4.311051,-0.94992954,0.38376048,3.1605937,-4.7061267,-0.6852757,1.3611076,0.027429288,0.71038014,2.0842748,-3.952435,2.1277113,6.8768873,3.6270974,0.09390958,0.042868305,-0.013418979,-2.2183475,-0.4549896,-0.37387165,-0.17279881,0.06425828,0.10776438,0.10989641,4.3818784,0.75246066,4.1903315,-0.7769207,0.058227986,0.8353045,-2.3940449,-0.36427918,0.4910036,-0.005275913,-0.6751661,0.057508066,5.0792494,0.024287077,-0.020487763,-0.41387275,-1.0487102,3.1028888,-0.26143885,-0.09614736,0.25121778,5.2964153,-2.256355,-0.40911227,0.10761416,0.0011401495,0.48690015,2.3563821,2.2867086,1.1514267,0.39901483,-0.70977014,1.5145434,0.012854921,-0.6759185,-0.5987136,2.5250466,-0.9440368,1.4878784,-0.97752327,-0.055569977,0.1059824,0.10661759,-2.2888682,0.52523285,3.5167239,0.3113625,5.385186,-0.01913878,1.6842177,-0.075211406,0.005234173,-0.027768513,3.34249,-0.9851036,1.0178812,0.103526235,0.056215186,-2.081098,0.07309306,4.7655406,-0.011218976,-1.0711597,0.00135062,2.7332096,3.4498508,-0.06794312,4.2078357,0.24874558,-0.57375085,0.5198581,2.246484,-1.780983,0.019209772,-1.2768567,0.93150365,0.050611697,-1.3678641,0.13488594,-2.9062734,0.03218889,-0.39670455,1.3853644,0.20709911,4.2483673,-1.664733,0.762871,0.8504417,0.05405124,-0.041268233,-0.45269698,-0.04352511,0.4602021,-1.4421923,-0.03175612,0.011138595,-1.8772526,-1.3607163,-0.09283467,1.942431,1.8567863,2.7827215,2.264412,0.022917956,0.9840962,0.9259924,-0.49893266,0.5336163,2.5300326,5.2536554,0.4014213,-1.07588,0.45415568,-0.2547091,5.1593714,-0.0048992224,-1.6255566,-0.82687575,0.0035772154,-0.057713266,-0.078601316,-0.037764046,-0.38291028,1.007343,1.3716527,0.015312915,0.11588694,0.07583343,-1.7570723,3.2524788,1.0543363,4.287655,-0.08463427,-0.02636879,1.9057212,0.6230009,2.625622,0.021550544,-0.18662786,0.002606786,-0.9824274,-0.12145494,-1.247054,1.5183568,0.25348678,1.9830923,-0.54933137,-0.03556491,-0.71485674,0.24583003,5.0320334,3.599334,-0.36688498,0.07937939,-2.1125963,3.240197,0.6298108,-2.0503669,1.2664059,1.3023343,2.50197,-0.06563478,1.2491395,1.0963689,-1.5918916,0.8546259,-5.030885,0.848582,-0.004460598,0.06024052,-0.066250294,-4.7938547,-0.7627186,1.1209439,1.0528595,5.2607317,0.013910148,-3.9376514,0.05795986,-0.05407555,0.06347972,5.5498633,-1.6686577,1.3968858,0.08029325,0.05546363,-3.8480318,0.046785805,1.4024528,0.037386935,2.5942895,0.014940899,4.501672,-3.1688933,-0.02290157,2.070547,4.6846614,2.5103412,-3.543721,6.8788896,-2.5082073,0.031745005,1.6759003,-1.7635816,0.013648724,4.2730613,-2.5536692,-4.7039514,-0.0775325,-2.8224556,2.2736528,1.2898278,-1.5380808,6.289344,0.37013,3.90859,-0.06819738,-0.06023608,0.57913333,0.014489339,0.09435116,-1.6729162,0.09719688,0.05102946,-0.6229715,2.3716352,0.07484704,-0.2811921,3.698197,-2.143066,-0.31816298,-0.036914088,-0.69558614,-2.6570787,-1.6305584,0.2518318,3.3895504,4.7614245,-1.3098066,0.40522674,2.0910294,-0.9030174,1.4892244,-0.6894257,-1.1927975,0.21207759,-0.05836878,0.003720307,-0.08004381,-0.38378796,1.1497455,0.43418306,0.09815563,0.08982735,-0.044017937,-0.047734722,-0.8483386,1.1213673,0.9958851,1.4295294,0.056012876,-1.4763892,1.1180183,1.3271556,-1.7034106,-0.039873805,1.294399,-0.004468627,1.2004049,0.102748275,1.6472822,-2.119216,0.6070931,0.29979193,-2.9674678,-0.039967056,1.8020682,-2.732366,-2.106652,0.7794111,3.688063,0.07692204,1.8656749,-2.695562,-1.680613,-0.5305025,1.3068728,1.7786654,-1.1239331,0.017192379,0.13819575,3.1473365,-1.5474402,-0.8674418,4.3999643,-0.6294198,0.1340459,0.0870292,0.02075613,2.2691348,2.3338323,-0.70045066,-2.205254,-8.191854,0.11196785,-0.771446,0.059970617,0.02011385,-0.07231165,-2.7637353,-0.4173736,2.2908769,0.014506548,0.07694553,5.2463317,-0.05392885,-2.8611076,-0.09686803,-0.497883,0.090552464,1.0793829,-1.1888294,0.03201966,-4.429062,2.9917102,-0.5835181,1.2304841,-1.9676737,0.6024886,0.066479,-0.59048724,-0.17071696,0.02984427,0.9300013,0.9605203,1.1510695,0.030967165,0.34183243,1.4557142,2.7470403,-2.3675492,1.6009759,1.9220395,-1.8067341,0.09688355,0.014954035,2.1002016,0.0270191,1.6740636,1.616006,0.045417167,0.02067667,2.951658,0.6479633,0.08273298,-0.108061835,-1.9365548,-0.52792597,-0.7376432,-0.0103825405,-2.5206966,-0.78274965,0.66944945,3.8692374,-4.180743,-0.74399734,0.013111115,-0.38958138,0.61196727,2.5798566,-4.0122695,2.8501134,5.706653,2.2872555,0.01597836,0.040254038,0.12595293,-1.6281203,-0.66587603,-0.86954075,-0.7598568,0.012784833,0.032126818,0.018949764,3.1527276,0.476619,5.4585857,-2.0326996,0.01317159,1.5155048,-2.2155437,0.025340846,-0.533676,-0.01740941,-0.6857738,-0.0025732927,4.7359333,0.07071596,-0.5746586,-0.32608584,-1.0624001,3.2575123,-0.5308815,-0.007994717,-0.499482,7.785449,-2.37319,-1.0784714,-0.30997863,0.06385878,0.022815868,-6.1805844,0.3221808,0.5917474,0.6622684,0.2808112,0.9162654,-6.6873373E-4,-1.9537904,0.63194984,-7.035092,-0.5191016,1.0286422,0.89238256,0.11543367,0.080078304,0.05675169,2.0385544,0.76187253,-0.5761118,0.5022857,-6.645161,-0.07462923,-7.036516,-0.084196195,-0.103911355,0.0038205779,-4.5086875,1.9353255,0.3357605,-0.020317705,0.024087006,3.1911025,-0.0019418183,-5.533733,-0.05750066,-0.16672328,-0.039064623,-2.2084546,0.02520021,-0.05459793,-4.268403,-1.4762812,-1.7243943,1.2786722,-5.4496827,0.5376268,0.058323015,-0.6278605,0.08349016,-0.08158497,-1.9853144,1.6191701,2.5209692,0.10269888,1.1741687,0.07989738,0.22486696,-1.703802,-4.562668,1.21686,-1.0351218,-0.0022892745,-0.09213301,0.9948719,-0.089706294,0.033010814,0.87596977,-0.03137354,-0.0023323689,0.69888234,-0.81962675,0.12742499,0.3795279,-0.8343636,-5.6946735,0.7617391,0.017847966,1.8631988,1.3880109,0.5833586,0.48369962,-2.8733656,-7.3566375,-2.5762773,-0.768665,-0.9317683,-0.069200575,-4.2122483,1.2780691,1.8729151,-1.4079874,-0.0013508922,-0.075090416,0.080419816,0.09743177,0.9360834,0.89179754,0.27434748,0.08869149,-0.11968024,0.020042267,-0.68027604,-3.4317842,-7.086493,-7.9775558,-0.03324956,0.81177807,0.5085688,0.71535116,-1.6726427,-0.054535437,-1.3000704,0.0013456114,0.41523078,2.1338166E-5,-0.23740998,2.836429,0.9377948,-2.2811637,-1.2968012,-0.021142753,0.079856,-2.57892,-1.6937503,-2.9298947,-0.6382163,0.11950794,-1.0072141,-2.8928382,0.636447,3.6208694,-0.87171656,-1.2894678,2.1086345,-1.4440913E-4,-1.7173548,-1.8742522,-6.086128,0.48797074,1.219155,-1.0768452,0.041644342,0.057000067,0.038918477,2.795969,0.29441494,-1.9491589,2.13184,-1.2451931,-0.046106253,-3.4444206,0.0010965214,-0.004580598,0.04306047,-2.8060868,0.93910456,-0.23659514,0.034371585,0.0043719234,4.783813,0.049834557,-3.3527145,0.09549733,-0.47124815,0.11438305,-0.27333942,3.6644113,-0.04860702,-0.18128596,-0.84242064,-0.23501118,1.3477429,-0.20484948,-0.86820596,0.022093426,-0.14516367,-0.8053134,0.0047317604,-1.6558448,1.1051155,-0.16815901,-0.03157284,2.2807066,-0.5532611,1.1368643,3.0135515,-3.1930773,0.40135503,1.2679471,0.036853746,-0.031719077,3.1749141,0.02767501,-0.47634047,2.4401124,-0.0010419099,0.05586914,-0.08665274,0.13544124,0.094414495,-1.5129515,0.17354558,-5.279147,-0.90966105,-0.036054846,6.3706727,1.7854627,2.3319912,-0.58855563,-1.1077188,-3.4135056,-2.2609565,-0.7521791,-1.8481036,1.7772284,1.9901463,1.5984454,-3.3082695,-0.47003433,-0.11450546,1.3072992E-4,-0.02951153,1.9305006,0.45954755,-0.34296656,-0.54546493,-0.10364225,0.051927734,0.046953358,-1.8542135,0.5481624,-4.9200854,-2.0513554,-0.051628426,5.3735228,1.8339396,-1.8182797,-0.5446301,0.050782144,0.075738244,-0.076122425,-1.4373735,0.05730754,-0.7490288,1.3577669,1.0378278,0.6535718,0.62589324,-0.12716952,-0.9028312,1.246655,-0.49028724,1.9755902,-0.9927718,0.036947913,-0.5021553,-0.10109377,-0.042335246,-0.112420075,-0.08994862,0.045655195,-0.030315243,-0.031532716,-0.09631572,-0.09938957,-0.08872081,-0.03531961,-0.036923923,-0.026153632,-0.006588913,-0.08159925,-0.02175237,-0.028267626,-0.037812117,-0.11765596,-0.021267712,-0.10932235,-0.081192985,-0.04664635,-0.022910027,0.047048807,-2.8064076E-4,-0.031642284,-0.026331356,-0.05069848,-0.082948186,-0.038163688,0.019924302,-0.043104876,2.5171513E-4,-0.056584828,-0.021160677,-0.08279271,-0.09113864,-0.016080152,-0.041232824,0.057112675,-0.061577845,0.0027811266,-0.022110078,0.035049036,0.0063762763,-0.09519184,0.008976715,-0.004310406,-0.053444948,-0.059662502,-0.004374991,-0.035747033,-0.024477653,-0.03610659,-0.07220152,-0.046737578,-0.01698639,-0.015145914,-0.10823141,-0.10133323,-0.06513636,-0.06182165,-0.057364874,-0.033338323,-0.02111891,0.034065124,-0.047167826,0.0078021167,-0.0153016355,-0.036936123,-0.09494063,-0.03899459,-0.026295608,0.016398806,-0.057613518,0.023361824,-0.0771955,0.014229854,0.0051455502,-0.11817924,-0.06647781,-0.0152798295,0.022001565,-0.050114825,-0.030298447,-0.05133293,-0.060465578,-0.034231603,-0.008087078,0.04582554,-0.01752678,-0.12129901,-0.01967763,-0.068241864,-0.045646127,0.0034104306,-0.10829007,-0.11691982,-0.0050061466,-0.05671918,-0.01907041,-0.0324853,0.012257426,-0.0394439,0.042076066,-0.120282955,-0.044905126,0.005719501,-0.060518473,-0.017163485,-0.0033682175,-0.0016780569,-0.05433284,-0.021457342,-0.03747687,-0.033787243,-0.058947116,-0.047291666,-0.023595214,-0.053196486,-0.05068435,-0.1187905,-0.08677341,-0.026628314,-0.03781522,-0.011483192,-0.049518272,-0.10890458,-0.19269192,-0.21651456,-0.33251816,-0.18293697,-0.020899208,-0.0028660246,-0.08541139,-0.0014735748,-0.032012533,-0.08434005,-0.06217804,-0.08843573,-0.034785926,-0.09212436,-0.06574136,-0.36676097,-0.33292964,-0.17543316,-0.05100846,-0.11519755,0.05776257,-0.28944147,0.10632395,-0.08129271,-0.00480479,-0.119877495,-0.19489588,-0.14532407,-0.06967855,0.052941453,-0.06446744,0.00881782,-0.35861957,0.05959355,-0.17487973,-0.113832206,-0.08829935,0.094177976,-0.02348827,0.001596347,-0.0015312878,0.100903265,-0.23035616,-0.058932647,-0.105725154,-0.08421565,0.039058167,-0.2616711,-0.0023335628,-0.122884244,-0.08086228,-0.057401124,-0.09672216,-0.11348056,-0.10736187,-0.23012136,-0.027260665,-0.009468958,-0.25573522,-0.0831583,-0.1201484,-0.115144596,-0.11551434,0.054840315,-0.3807258,-0.24280816,-0.077102445,-0.032200653,-0.1145857,-0.2799425,-0.02456088,-0.22420761,-0.05928725,0.07983313,-0.24384089,-0.048828136,-0.054292243,-0.25190198,-0.34440264,-0.020930653,-0.121231996,-0.07998541,0.07673103,-0.024000783,-0.21217181,-0.22030292,-0.03920309,-0.30131632,0.079385646,0.03781949,0.056008413,0.12118505,-0.118683904,-0.26863235,-0.22396624,-0.25242615,-0.3377385,-0.039710816,-0.11650857,-0.08148792,-0.19632514,-0.11812832,-0.0850394,-0.049662683,0.0022009232,-0.19059408,-0.18189363,-0.0067063845,-0.04779591,0.031792797,-0.11840786,0.064171106,-0.0060533374,0.1147642,-0.0087099,-0.3705767,-0.3107706,-0.05266311,-0.2502089,-0.020277372,-0.21574014,-0.35945553,-0.02649828,-0.036720764,-0.25485584,-0.053369902,0.10355908,-0.05450809,-0.11475934,-0.025267083,-0.08253224,0.0064954376,0.03227077,-0.11089128,0.009027323,0.03897515,0.019961242,-0.09942968,-0.0470267,-0.046832412,-0.046794873,-0.10440431,-0.11094698,-0.04759683,-0.03979008,-0.057886112,0.025046192,-0.07382212,-0.08857971,-0.0010943208,-0.04569316,0.0011519878,0.0692488,-0.12309792,-0.023006633,-0.098982126,-0.026647272,0.069912985,-0.055256333,-0.005431624,-0.11669411,-0.084859945,0.020676937,-0.06653273,-0.07287169,-0.05607911,-3.7117233E-4,-0.061110232,-0.0231973,-0.12552759,-0.017516674,0.008370779,-0.11849836,-0.10007615,0.010822064,-0.024392681,-0.05118798,-0.07625938,-0.029168786,-0.051423173,-0.11556942,-0.04335181,-0.08487486,-0.0720042,0.0054966845,-0.0664476,-0.12845026,-0.011009754,-0.019638583,0.05476912,-0.13135646,0.046780556,-0.059578616,-0.050522115,-0.043967307,-0.09315832,-0.04841372,-0.0036975513,0.0012808596,-0.016358003,-0.11529258,0.029394787,-0.046712916,0.0065561347,-0.10366475,-0.0102451015,-0.107521534,-0.009877997,-0.11076591,-0.12629487,-0.07012237,-0.035846632,-0.112731546,-0.06213425,-0.14033067,-0.11199299,-0.052030247,-0.111549065,-0.03332411,0.04882742,-0.05782596,-0.07355166,0.08016227,0.026400836,-0.042245496,-0.03906521,-0.038393512,0.04163375,-0.007798164,-0.11378109,-0.07854247,-0.066977344,-0.0015680024,0.01761127,-0.050870482,0.023828775,-0.105237365,0.03193782,0.08828949,0.027931131,-0.07496339,-0.009671002,-0.050598357,-0.027796153,-0.110400975,-0.10334547,-0.026658721,0.001958225,-0.1131614,-0.042664193,0.07907598,0.06067667,-0.035988122,-0.07259127,-0.014774141,2.4435275,-1.346387,0.2607119,1.9839237,2.7427785,-0.13290732,0.120691605,0.83060175,-0.203094,6.065392,-1.4445612,5.4252186,0.9466037,0.025379585,0.09800925,-0.062480293,-2.7733257,0.06807088,2.7183957,-0.9779617,-3.9638484,-0.05652332,6.646001,-0.0015620851,0.11630923,0.060743358,0.95872164,-2.4277308,0.403092,0.1193215,0.061089654,-0.37141418,0.051956926,4.018059,-0.061616335,2.1579018,2.0591552E-4,1.9230747,1.7351698,-0.011895336,2.9510972,2.428097,0.004966968,-0.66119933,3.7296655,1.2100453,-0.100123465,-0.08404495,0.057460196,0.0023053521,3.3379097,-1.4631907,-1.62342,-0.090281636,-0.5578941,0.9817415,2.600714,2.5270343,8.924383,-1.5804797,-2.8126762,0.0012416899,-0.08233399,-0.7885648,0.03584801,-0.17266153,-0.5668089,0.031966988,0.032617383,-0.47893354,2.6548228,0.050337303,0.74744266,0.83801323,4.9831185,1.1553658,-0.020667635,-2.982653,-0.6095826,-0.5717037,2.0244296,1.4778631,5.721299,2.1564794,-1.1132534,3.4185412,1.223892,0.06869849,-0.9259999,0.05325877,0.52803767,0.022611436,0.025741851,-0.060261022,-1.3720137,0.38527545,0.5586423,0.5847167,-0.0013540046,-0.057344545,0.0040691826,-0.16316248,6.257789,9.335084,6.5340447,0.07496564,1.6403276,-0.7995343,-0.24162576,0.42729414,-0.116494596,-1.0516824,0.11897217,4.279255,-0.106518045,1.0925139,-1.4529676,-0.064218946,3.4151685,0.17077766,-0.06089049,1.9870282,4.850048,0.123125896,2.5820308,3.4936783,0.068746224,-0.9820234,2.0885224,2.80738,-0.6166931,-0.14021483,-1.7536299,1.8689984,0.08955206,2.830116,2.074237,-3.1648808,1.4873776,-3.805196,-0.95850784,-0.072249755,-0.08278732,0.018631438,-0.9469864,-1.5879996,-1.3989854,1.5995207,8.476666,-0.01539478,-5.14814,0.11665899,-0.04395178,-0.07900876,6.203676,1.0307152,0.6662076,0.030450096,0.05485854,0.35617605,0.05916685,-0.78535694,-0.08311684,1.0371754,0.0023099377,2.8537867,0.69003975,0.079174824,5.6193986,1.5312926,3.0225701,-1.9424896,4.4135146,-3.4822407,0.102332704,1.025564,-1.8680254,-0.08382104,3.070486,-0.3145409,-4.2942305,0.0022993218,-0.7916974,2.2055278,-0.64730644,3.7773602,2.2150896,-0.03286434,8.962258,0.053964335,-0.056841604,2.5730906,0.05854021,0.4495622,0.7161191,-0.022217719,-0.05232562,1.0080131,0.6555867,-0.07842664,-1.6113955,1.0090336,-0.2893599,-1.3501617,0.08896339,1.6875062,-0.6969495,-2.1655014,-1.3840758,5.2646604,0.87748706,-1.8769158,2.0402756,-0.7340693,-1.0352832,5.02075,-1.073584,-0.6418721,3.2294648,-0.058790002,0.029967407,-0.030992478,-0.200979,1.2930894,-0.42341578,-0.4976049,0.042991173,0.046388477,-0.040190507,2.379619,-0.5483347,-6.8945656,1.0599551,0.12136087,-1.3124938,0.89765376,4.187702,0.5474996,0.023630457,3.2908764,-0.067781754,-0.9718479,0.025596982,0.9162233,-0.2551515,0.8188496,2.526917,0.74085623,-0.0078879865,0.20561965,-5.9392548,0.19720843,2.4569063,0.048253983,0.11021438,2.395,0.103439935,-0.08769068,0.061268236,-0.050373446,-0.02438495,-0.12056491,-0.11466045,-0.005019056,-0.050923817,0.015148979,-0.07341404,-0.11579877,-0.032537576,-0.060756665,1.2773355E-4,-0.11392074,-0.0762262,-0.09390356,-0.07884409,-0.045227643,-0.12117678,-0.03802033,0.059407208,-0.09301478,-0.049724292,-0.12124423,-0.12023865,-0.12137689,-0.02020996,-0.04041997,-0.038933564,0.013754273,-0.08849418,0.02534555,-0.09266013,-0.015703287,-0.04145668,-0.117554106,-0.118432894,-0.076556295,-0.061818924,0.11291529,-0.010789183,-0.049281154,-0.08892877,0.08129916,-0.023920305,0.015003726,-0.040722728,0.04443198,0.027533457,-0.117252275,-0.063111626,0.115570545,-0.058500722,-0.050970517,-0.014448881,-0.06986906,-0.09222675,-0.016267017,-0.0648289,-0.06516103,-0.10063118,-0.06218296,-0.0789329,-0.07002667,-0.024541343,-0.046784293,0.055899896,0.012880068,-0.11239912,-0.043560266,-0.0029806334,-0.024231551,-0.012722155,-0.0140578365,-0.055199634,0.0016796157,-0.009611726,0.04703787,-0.122234896,-0.03243621,0.025241934,0.021707956,-0.0017074912,-0.04442947,0.05688015,0.024039906,-0.06302755,-0.023773521,0.020575577,-0.053334147,-0.0024103993,-0.0013639459,-0.06552445,-0.09994472,-0.0071825073,-0.062983334,-0.07350627,0.012389068,-0.04683852,-3.2528414E-4,-0.12053861,0.058409777,0.062178798,-0.02602376,-0.11181987,-0.01731358,-0.039661866,-0.044426773,-0.08681697,0.11804832,-0.04042328,-0.084248334,0.027957093,0.04712626,0.0965383,0.033098,-0.08419867,-0.090907395,-0.055379644,0.017986646,-0.08200161,-0.012781295,-0.057350144,-0.022266464,-0.06621792,-0.10583193,0.04012333,-0.055826277,-0.019510197,-0.09447083,-0.011633655,-0.0576752,0.120440826,-0.018491304,-0.021224387,0.051989086,-0.009626148,-0.032718204,0.021493841,0.0830756,0.007114831,0.015713273,0.024137143,-0.056089874,-0.16141795,-0.05456791,-0.039752256,-0.08824635,-0.012702554,0.023472289,-0.052859068,-0.04760755,-0.11121725,-0.09133524,0.017106349,0.027408322,0.061771072,-0.07549987,-0.05518225,-0.08016186,0.023865553,-0.08837633,-0.07275138,-0.13171366,0.006990402,-0.054983813,-0.090509176,-0.024655452,-0.11215681,0.027200354,-0.031398337,-0.023429425,0.04352747,-0.068986446,-0.065478034,0.076549485,-0.100181825,-0.01778945,-0.08506616,0.06917597,0.018938405,-0.05283563,0.031176548,-0.07919154,0.08153742,-0.05393371,-0.04263835,0.07320871,-0.08781416,-0.10060619,0.0058504906,-0.1249219,0.019237656,0.07698211,0.0251392,-0.025263162,-0.071932726,0.08261597,-0.12200918,-0.07930393,-0.08767903,-0.17284638,-0.006080378,-0.046553705,-0.13157824,-0.10391969,-0.124342605,-0.06394679,-0.0741598,-0.070037134,-0.0052373884,-0.091701165,-0.020421553,-0.093665816,-0.09876409,0.024716692,-0.083474204,0.08883159,-0.03980258,0.04352072,-0.08338285,-0.06891592,-0.058131225,-0.031083483,0.00939906,0.029976439,-0.060438186,-0.045091916,-0.024643695,0.021605931,-0.06576927,0.023627765,-0.07977937,-0.027973538,-0.043860897,-0.03536451,-0.029529601,-0.06962884,-0.08320025,-0.079314254,0.038917635,0.035361003,-0.04306572,-0.086354494,-0.009564887,-0.17009781,0.0015023726,-0.07647023,0.0016683297,0.09820703,-0.09103245,-0.10887285,-0.050234403,-6.001692E-4,1.755083,2.6497898,2.8792896,1.013066,-1.0841599,3.0507739,0.04236208,-1.4819877,-1.4789687,-1.2693576,-1.1628882,-1.3968401,0.2656506,0.12121029,0.05023428,-0.011651192,-0.44884968,0.34142062,-0.3420422,2.3282213,5.8385243,0.03172615,-1.9473042,0.034889523,-0.049591277,-0.042347778,0.8146019,-0.07046899,0.8403713,0.10145342,0.07791044,-2.1432364,-0.10575239,1.8590542,-0.029088683,0.06596708,0.007090724,1.0344479,4.311351,-0.055416375,3.7400022,-0.84524226,-0.34524438,-0.2937232,0.6500958,-0.9923027,0.06578374,-0.7220845,-0.46126512,0.1027144,-0.6035797,-0.59708834,-1.5859522,-0.051361296,1.1947751,0.9833589,1.4330835,4.003822,2.2522213,0.7059203,-0.1810312,-0.03389817,-0.10341693,0.088683106,0.08042375,0.13000014,-0.7035657,0.0033552893,0.06735116,-2.8809273,-0.717771,0.07787751,-0.40720725,3.492371,-2.655296,0.49077994,-0.024859495,6.1513343,2.9874284,1.949683,-1.2941171,2.7839246,0.4402284,-1.0239067,-1.387687,-0.17320457,1.4983062,5.9298325,0.8340567,-4.3438244,-1.6673454,-0.10843189,0.10807379,0.10137116,2.8886924,1.0099779,0.93395257,0.6717018,0.048037205,0.04613574,0.008567242,-4.3741317,2.6909635,-4.372153,0.1690438,0.1051465,2.1839738,2.8499053,-1.5381894,0.15536752,0.121039234,-1.2433825,-0.11910256,-2.961957,0.029635293,-0.51656365,2.3934286,2.107556,-1.6176646,0.095733695,-0.19144878,-0.17911364,-2.693,3.2693098,2.0675225,0.74396926,0.08502,-1.5345868,-0.05857891,-0.031922337,-0.06895271,-0.029481934,0.045193605,0.019465184,-0.037863966,-0.0021514315,-0.056290463,-0.062507235,-0.0696524,0.005800057,-0.10116906,-0.051717862,-0.017889665,-0.112968184,-0.005505909,-0.045783814,0.02883468,0.021758504,4.7165604E-4,0.030776814,0.030679064,-0.044119507,0.039899576,-0.042906836,-0.015209271,0.016249448,-0.016690623,-0.114043005,-0.09355302,0.060650956,-0.043348875,-0.054324448,-0.036510047,-0.048020374,-0.06874381,-0.04241544,-0.09850558,0.061727468,0.03615317,-0.032932784,-0.027135458,-0.07357284,0.021678798,-0.04382373,-0.062423818,-0.016025202,0.024153657,8.4479194E-4,-0.0088524055,-0.019872515,-0.012497258,0.014981862,-0.091257736,-0.058141485,-0.035739854,0.03726951,-0.09425395,-0.09458005,-0.11597152,0.027363947,0.010627659,-0.048832126,-0.060599256,0.03467735,-0.0673091,-0.08360252,-0.07446373,-0.0640689,-0.10143347,-0.11039313,-0.008304135,-0.030363096,0.060903963,0.030627485,0.010652204,-0.010008023,-0.022140652,-0.05698627,-0.050969824,-0.077842,-0.092532724,-0.035086133,0.001751469,-0.017156214,-0.028605169,-0.07723405,0.0066597955,-0.03125082,-0.012957777,0.061130445,-0.09653385,0.0022197014,-0.07099823,-0.05847382,-0.034494385,-0.073246524,-0.11462414,-0.09062338,0.03650549,0.0421917,-0.011490506,-0.06090778,5.916679E-4,-0.021199739,-0.100699045,-0.031775605,-0.00261083,-0.055440526,0.04464568,-0.084912434,5.360727E-4,-0.03115319,-0.06812508,-0.08078584,-0.09737713,-0.116281785,-0.038541898,-0.01655938,-0.008309001,-0.05887248,0.039251894,-0.057177342,-0.043448154,0.0010727869,-0.0047406377,0.010883366,-0.24066414,-0.28204933,-0.16879775,-0.07052477,-0.25191167,-0.20914592,0.09834948,-0.089775905,-0.27847466,0.012253901,-0.052107826,-0.2220374,-0.26150993,-0.0018934525,-0.03626354,6.999807E-4,-0.17792664,-0.19710556,-0.19060229,-0.17957123,-0.014047153,-0.06621566,-0.06352584,-0.055302534,0.01209925,-0.048820112,-0.040566612,-0.17227104,-0.030145409,-0.07683722,-0.033668168,-0.22903292,0.056545798,-0.19034833,0.08839147,-0.14424728,-0.0011209605,-0.058977623,-0.11121369,-0.05086666,-0.12688164,-0.15499309,-0.14776729,-0.19958448,-0.25272658,-0.18578483,-0.03449197,-0.15542017,-0.06894547,0.06395389,-0.069489636,-0.085107945,-0.21695076,-0.05220644,-0.2859502,-0.04501275,-0.08745921,-0.19235381,-0.24474499,-0.13133617,-0.14754346,0.018992363,0.011179247,-0.08326994,-0.04444685,-0.29183626,-0.28585535,-0.028499525,-0.06915915,-0.20164819,-0.20170614,-0.03143982,-0.15340194,-0.114260286,-0.18988232,-0.11555877,0.047716036,-0.15494941,-0.116393484,-0.078305244,-0.234236,-0.117424235,-0.09597718,-0.07753415,-0.06747544,-0.12877879,-0.29797053,-0.14018957,-0.2842703,-0.099131405,-0.12439904,0.10913669,0.072275534,0.019549092,-0.27254876,-0.25103703,-0.07001099,-0.22943474,0.12078201,0.0036124971,0.02647255,-0.057321034,-0.26870146,-0.2813198,-0.11737243,-0.10846866,-0.14088754,-0.24112858,-0.21525078,-0.12077155,0.0020590434,-0.18874474,-0.0587776,-0.16247597,0.073801234,-0.16172934,-0.13783622,-0.22656746,-0.18375598,-0.05772421,0.071356274,-0.2434746,-0.17445074,-0.18288825,-0.25134155,-0.16836117,-0.105148666,-0.11764772,-0.09498389,-0.024292165,-0.0062929937,0.023399545,-0.034625065,-0.088526204,-0.0023710043,-0.08269763,0.014228397,-0.014971051,-0.10960022,0.04518118,0.046032704,-0.050126653,-0.07065369,-0.06900258,-0.052255835,-0.102987826,0.0149587,-0.046746574,-0.07141329,0.015478074,-0.032541893,-0.023063801,-0.0020850017,0.0012350249,0.0028135835,-0.009881729,0.038066365,-0.057997342,0.0036045169,-0.046145424,-0.05966781,0.002120314,0.010128845,-0.094763555,0.054152068,-0.030196618,-0.099086605,-0.01518867,-0.060691625,-0.05330237,0.019238034,-0.016780835,-0.02648456,-0.023152746,4.2766417E-4,-0.061157286,-0.016037695,0.001056981,-0.040951647,-0.07382532,0.026470054,-0.11683293,-0.10225375,-0.040623102,0.01710157,-0.027734028,-0.07772974,-0.07335845,-0.10855065,0.027464287,-0.049036656,-0.05779673,-0.02662267,-0.021192465,-0.08133241,-6.9847086E-4,-0.0051557845,-0.07403997,-0.051069986,-0.07950698,-0.04919151,-0.05483674,-0.0324397,-0.056664992,-0.0464896,-0.06117726,-0.04975652,0.012203957,-0.09786963,-0.10843879,-0.026266439,-0.023627305,-0.101178564,-0.11886847,-0.0648421,-0.108402774,-0.011561366,-0.026772935,-0.045642328,-0.057526432,-0.04824845,-0.11665068,-0.120912954,-0.045835525,-0.01783054,-0.040588774,-0.120335825,-0.03741386,0.043734144,0.05630657,-0.032140907,-0.11447189,-0.038933683,-0.0013028355,-0.02291116,-0.062096674,-0.0571039,-0.013639589,-0.058584593,-0.041640528,0.036834575,0.01733801,-0.03515887,0.009698773,-0.027755134,-0.055712797,-0.054456644,0.0061376686,-0.033205546,-0.023063395,-0.015891427,-0.044443406,-0.06289755,0.032353435,-0.0919884,-0.03721518,3.0528352,-1.6960971,-1.9881003,2.0917356,2.2983549,-0.47735536,-0.09214071,1.1697541,1.3189015,2.0836225,-2.1524954,0.07847741,-0.19387309,-0.006166665,-0.002283512,-0.11337808,-0.4658075,2.967426,2.173643,-2.6719298,-1.8559598,0.07485514,-2.2780967,-0.120317124,-0.004620087,0.06674466,1.8588483,-3.0302882,3.2263458,-0.013050428,0.09342344,-4.037163,0.089479335,-2.9305258,0.040896498,-0.98260826,0.052261632,-0.30038705,-2.649542,0.09025585,-1.0312742,1.4392095,0.5924482,0.05706279,-2.6498055,1.462764,-0.042552207,-1.8087399,1.4440709,-0.08927735,0.61159736,-1.7481772,-0.601486,-0.11659808,-0.9421041,2.8553607,2.6015115,-4.575299,4.3738513,2.802001,-1.7456582,-0.0024804124,-0.10362045,-2.9371767,0.059823453,1.8809557,-3.534098,-0.07716762,-0.11100926,-2.877844,0.38988322,-0.11360219,1.9879576,-0.91078013,3.393633,0.7719894,-0.010718306,-2.7541077,-2.628286,1.6111598,2.896351,-0.73408717,2.2466693,-0.8656974,0.059797205,2.6289275,1.2538028,1.1865076,2.1044104,2.4983585,-0.19000006,0.118907265,0.089932546,-0.03691946,-1.2268156,-1.62652,0.4037836,0.66236764,-0.062018927,-0.06409903,0.10283721,-0.9050779,2.7324622,5.757553,3.267689,0.1204616,-1.5742575,-2.404073,-1.8114653,-0.44063964,-0.010698423,-0.52584183,0.048730336,0.5040752,-0.03169103,-1.8922966,-0.4671129,-2.1382496,-0.050545063,-2.8671944,-0.007519363,0.17179796,2.0446188,-0.11160454,-0.19852155,1.7414739,-0.034706365,-0.90878284,-0.1199682,-0.09899797,-0.08106873,-0.021177921,-0.049994137,-0.10651324,-0.040319744,-0.09275488,-0.10770634,-0.07818656,-0.0366489,-0.03538158,0.019565705,-0.042580746,-0.097502075,0.0011571888,-0.06269098,-0.09884747,-0.012241574,0.05998101,-0.03852244,-0.042287953,-0.04174214,-0.094730094,0.0065522487,-0.050193053,-0.11321938,-0.03937247,0.06529264,-0.061710488,-0.08940907,-0.07204084,-0.028387422,-0.0938381,-0.02691605,-0.10034258,-0.043937758,-0.052079268,0.005382416,0.10618016,-0.041131727,-0.0052573546,-0.013555945,-0.071373805,-0.12034056,0.0029173568,-0.031963266,-0.049262434,0.011596259,-2.4289078E-4,-0.10408063,-0.10604007,-0.012326022,-0.11061784,-0.04862826,-0.115455665,0.04372583,0.028756693,-0.11554377,-0.052683525,-0.0059464616,0.018366475,-0.048590258,-0.038870685,-0.0698173,0.060814545,-0.10758847,8.608665E-5,0.013520287,-0.11483801,-0.05480625,-0.0145759825,-0.09062929,-0.060999993,-0.003343556,-0.10521575,-0.060190603,-0.078360565,-0.05234746,0.09195336,-0.07230824,-0.095375076,-0.06220334,-0.06260211,0.047492072,-0.027371166,-0.0080177095,0.012766706,0.03378856,-0.11656252,-0.05904533,0.005616387,-0.041574728,-0.03330296,-0.04930778,-0.024182096,0.06177752,-0.041857466,-0.06738967,-0.113204986,-0.07794264,0.023589976,-0.0047228993,-0.014544028,-0.10220074,-0.013344757,-0.07811829,-0.054230347,-0.06493759,-0.0918315,0.001924304,-0.08404946,-0.011573097,-0.06814707,-0.048529528,-0.11110262,-0.104241796,-0.11654859,-0.055841364,-0.08954023,0.10270445,-0.057090465,0.021317985,-0.045318346,0.019912977,-0.098384105,-0.040246844,-0.036806975,-4.5882463,-1.7405509,-2.1326218,-0.74409366,1.1541357,0.8790824,-0.08819006,-2.94856,0.23526552,-5.4122677,1.4169475,-1.9165485,2.9167624,0.044992957,-0.09375017,-0.071341835,1.3159531,0.046808783,0.2699458,-0.39176524,-5.3723264,0.03524286,-4.2973146,0.0017224243,-0.08409484,0.0857838,-2.241587,0.7569593,-0.6341436,-0.0062555503,-0.024536895,2.048696,-0.10900716,-4.3389215,-0.111603625,1.5382246,-0.057478573,-1.743823,-3.7949264,0.04639317,-6.544334,0.7846351,-0.8684387,-0.2784118,-5.317906,2.4345832,-0.028038703,2.6692095,-0.008910093,-0.08773515,0.11108905,0.68682426,3.2771459,0.051869694,-0.22762708,-0.42352372,-0.22442143,-2.9908369,-4.5628805,0.09598379,-0.7561817,-0.051622983,-0.044291645,-0.07083123,0.05156157,-0.21398252,0.16966793,-0.062667854,-0.044931322,0.18212567,1.2160649,-0.047141314,0.15971537,-2.3274581,-5.910486,0.6781925,0.055309143,-0.20609157,-0.6064883,-0.52243465,0.40872946,-3.440623,-7.86219,-2.4173913,-0.82533807,-0.8140973,-0.51515883,-6.2438736,0.6051652,2.750606,-2.5220037,-0.10241513,-0.119585365,-0.075273685,-0.10938713,1.4376965,0.96131384,0.2014547,-0.008167276,-0.021419056,0.009598046,-0.9673135,-6.715539,-6.253911,-8.321196,-0.085485846,-0.92275023,-0.6257608,-0.36268547,-2.6377978,-0.08182093,-0.5352949,-0.050991163,1.0393958,-0.035668526,2.4863527,0.58105093,1.3886933,-3.5241745,-1.413399,0.008806279,1.8986456,-4.4482427,-5.486831,-3.7114635,0.3767723,-0.029905155,0.65573394,-0.0069664097,-0.14006765,-0.15256561,-0.115517914,-0.025153669,-0.053589523,-0.01570594,-0.10638665,-0.12545577,-0.039841637,-0.01815739,-0.12684806,-0.07350157,-0.058132064,-0.02648446,-0.055119716,-0.063755,-0.050238717,-0.09444016,-0.107041694,-0.05604833,0.014550937,-0.09345171,0.0056611095,-0.031706985,-0.019437086,-0.029864471,-0.02252191,-0.09834007,-0.013957705,0.015013982,-0.07848977,-0.0026716087,-0.0052593364,0.044172972,-0.14389439,0.028408574,-0.07550267,-0.11511708,0.0064782794,-0.04563002,-0.03372516,-0.06029755,-0.08337088,-0.017270572,-0.045420736,-0.05840349,-0.025957545,-0.013653829,-0.060780823,-0.060442146,-0.08251639,0.050174687,-0.038897052,-0.09152064,-0.098908104,-0.1411795,-0.06858695,-0.12979284,-0.104316026,-0.103770144,0.057368126,-0.061694834,-0.056364533,-0.021065658,-0.01755945,-0.10419964,-0.01546129,0.05198204,-0.033937443,-0.06272328,0.055307295,-0.050010577,-0.06155179,-0.075501785,-0.09384184,0.042994373,-0.06127832,-0.13730665,-0.10734512,-0.078038186,-0.1059727,-0.079835415,-0.0031198396,-0.06400334,-0.14990564,-0.09705865,-0.014883231,-0.054144334,-0.07022365,-0.0374956,-0.011600663,-0.02425717,-0.041461866,-0.05072615,-0.056790847,-0.008861531,-0.024993861,0.0018572356,0.028854962,-0.058720026,-0.088788144,-0.048714135,-0.07604325,-0.04952311,-0.055903997,-0.114471085,-0.12030421,-0.09827021,-0.013724428,-0.059560232,-0.0020638108,0.043207817,-0.041900277,-0.036857788,-0.10797763,-0.09703022,-0.14754854,-0.04829396,-0.069096714,-0.021708747,-0.14098191,-0.026551545,-0.06515288,-0.0178033,-0.11997787,0.028348522,-0.09535024,-0.68749636,-2.8959029,-1.0306422,1.7200947,3.4817529,-1.8554206,-0.008250874,0.02932386,2.1228538,3.0871563,-0.976219,4.361205,0.5830181,0.003106516,-0.05959219,-0.03428595,1.0362022,1.2132636,1.8304513,-1.6389927,-7.160325,-0.029792244,2.859425,-0.043092705,0.029916545,-0.02058027,-3.3029253,-0.7206634,1.4031857,-3.397141E-4,-0.062388778,1.7903831,0.00599846,0.012837267,-0.0021294951,0.9980133,0.013239541,1.6588553,-0.59985286,-0.056334246,-3.8993685,2.0490777,-1.5922719,1.0063123,0.57912815,2.9107363,0.0292647,0.01826355,1.5547873,-0.06130167,1.0376866,0.43979168,0.27746305,-0.039491694,-0.096125565,1.3115267,3.2935462,-1.8293875,1.9861811,0.29214713,-3.56,0.061107423,-0.09134834,0.62929857,-0.002432647,0.6056011,0.24756573,-0.014300632,-0.03863277,1.9448754,1.9931251,0.15099561,1.7327571,-0.3731906,1.7258719,1.0417461,0.049813423,-4.4798603,-0.9781238,-0.34833178,4.2357583,-3.896382,2.1650743,1.6509167,-1.6737535,2.246374,1.5206902,-3.0744224,1.1233962,4.41238,2.4469616,-0.03617671,-0.008272564,-0.02669311,-2.386117,-0.39821014,0.09294999,0.45461965,0.049465597,0.058936678,-0.038356636,3.766729,3.3058689,8.155035,1.1909679,-0.012514732,1.3622208,-2.0766778,0.8785725,0.32998028,-0.055398162,-1.7294923,0.018818311,7.204054,0.017124103,0.65913886,-0.5226291,-1.238913,3.7980752,-1.1017013,0.18203758,1.0398922,9.18657,-1.2921109,0.28630903,1.4179626,-0.04172118,-1.51387,2.5346906,-0.15911631,0.1282845,-0.9147509,0.34610656,-0.69480467,0.07535044,1.5992861,-1.6382264,1.2729523,1.4365879,-0.703474,4.293927,-0.050599348,0.060667526,0.013696571,2.5285869,-1.2201742,2.779852,-1.9262602,-0.1391865,-0.10990849,2.7849727,0.040251303,-0.025285142,-0.03378144,0.06313192,0.19603303,-1.7455254,0.099542275,0.015122309,-2.6328728,-0.09762369,2.2909577,-0.019707115,1.0742831,0.0914699,-2.765737,-1.489509,0.112493865,-0.47382447,-4.499887,0.14084193,-0.26056272,-1.8229737,5.244667,0.10361293,1.3215926,3.9106753,0.032070868,-4.651441,-0.018370135,0.3734166,0.07176152,-0.78603077,-2.560116,-0.76857656,-1.9896674,-5.329193,-1.7751328,-1.8052285,-0.06551621,0.08218615,-3.1328897,-0.07252121,-1.39693,0.279114,-0.117437,-0.091464624,1.365133,1.064397,0.06761778,1.9380803,-4.1799417,5.019242,3.7960901,-0.054285534,-2.3894079,-0.3980564,-0.76962006,-0.4231363,-1.6076486,0.32120577,2.701463,-0.060919438,0.73091364,-0.7052445,1.0955313,-1.2688171,-0.22107072,0.6343062,-0.018782064,-0.1177288,0.03782631,-2.248773,1.0263312,4.1839294,4.1211843,0.11748399,0.031521514,-0.11981607,1.1057069,0.1864691,-1.1024783,2.213639,-0.0121713765,-1.0099677,0.034594066,-0.041829586,5.319893,0.017888116,0.5017385,-0.024696428,-0.022661127,0.09832265,1.6169281,1.3021816,1.0776775,-1.4350231,1.4834667,-0.008537215,2.4458492,-1.7445372,5.921684,1.7625564,0.7254558,0.03073352,0.23343727,2.1508722,-0.42164424,1.5025331,-1.5501734,-1.3572564,-0.57431024,0.0543497,4.3006687,0.5217438,3.237096,1.974002,4.1620555,-2.1589043,0.026591916,0.035828333,-0.120700456,2.5328662,0.4252606,-2.2206953,-0.9067112,-1.3003805,-0.11609614,0.8221477,0.049119,-0.019097267,-0.022801822,-0.0610339,0.5973136,-0.27273536,-0.01616759,-0.054845273,1.151751,0.0036542555,0.27285755,0.0942747,-0.34588212,0.06215007,-0.8254848,-0.44536954,-0.01969021,1.6233793,-1.5890181,2.483492,1.7814356,1.1101741,-1.2419729,-0.07112069,1.1208735,-0.6567213,-0.017968252,0.09147673,0.048146058,-0.4201646,-0.10416938,1.467098,-1.066438,0.57026047,0.101955555,-0.21575077,-0.16894898,1.9110724,0.037552007,-0.12386646,1.2104129,-0.12094341,0.41004017,3.1717544,0.014752389,-0.0070106266,2.1056805,0.7332112,0.06426775,-1.8299487,-3.7317119,5.511045,-1.6270533,0.05255958,-0.4746951,-0.98445,1.814701,-0.024541555,0.1605254,2.8930519,3.6471741,2.8873086,-1.3863164,2.3714292,2.1536417,0.83299047,-0.4833776,3.8955839,0.09845322,-0.008269869,0.04041766,-0.5359052,-0.31533372,-1.4605055,-1.2178414,-0.105041154,0.05857473,-0.0027059459,3.0518124,3.8417823,-1.0714682,5.0026755,-0.10917041,2.6801872,0.22889757,0.16663393,4.772072,0.016823454,2.8424666,-0.026105156,0.9242326,-0.07453511,0.1324131,-1.0003241,-0.20215058,3.6255095,2.7396376,-0.060232498,-1.053558,1.320415,3.4547424,3.2176428,-1.5024296,-0.09688688,2.8762634,-0.03138257,-0.028391317,-0.10153434,-0.0070122704,-0.011935287,-0.044072766,-0.10383286,-0.09135298,-0.0020468903,-0.024863236,-0.073221005,-0.052331552,0.029106412,-0.014862615,-0.0059752814,-0.015682153,-0.03391823,-0.06344812,-0.08415659,-0.02409239,-0.11196955,-0.054228388,-0.04079549,-0.05243071,-0.06746494,-0.023736997,-0.06611161,-0.11000159,-0.08592274,4.817787E-4,-0.025223648,-0.020447763,-0.06341974,0.05191896,0.027234538,-0.04134446,-0.104756474,-0.083902925,-0.014579773,0.11719329,-0.10099031,-0.05879814,-0.046129573,-0.02317051,-0.11412707,-0.120957136,-0.10427708,-0.04800578,-0.023120064,0.10107467,-0.101531915,-0.10666975,0.041920412,0.080714434,-0.05996263,-0.0608926,0.08618425,-0.107376516,-0.0029013618,-0.0842044,-0.05015972,-0.005135726,-0.011685067,-0.0033208677,-0.069095045,-0.007352198,0.025829298,-0.050892167,-0.004891469,-0.09093453,-0.018655475,-0.032369044,-0.11573602,-0.107733265,-0.020221775,-0.0049352874,0.058343958,-0.037272986,-0.034327365,0.044692595,-0.11754723,-0.06286632,-0.114341214,-0.07617774,-0.11762557,-0.0053736595,-0.02963634,-0.043480087,-0.0033860481,-0.08283324,-0.08243729,-0.06468669,-0.015485304,-0.055751063,-0.09561508,-0.0819546,0.011571258,-0.058254693,-0.059404325,-0.0685968,0.105366364,0.058853105,-0.12207452,-0.01025306,-0.10839039,-0.0844914,-0.08673649,-0.06944615,-0.03004034,-0.10125801,-0.0494647,-0.10063291,-0.055446196,-0.047234192,-0.022838404,-0.06554952,-0.12028575,-0.113379925,-0.09107899,-0.11767806,-0.04904937,-0.019048698,2.0445297E-4,-0.06188377,-0.07665843,0.089299805,-0.0011100288,-0.04405939,-0.1330307,-0.56588495,2.2198608,0.31479424,-0.12576522,-0.87564284,0.115695335,2.4051857,1.7648852,1.1409471,-1.2268759,4.792237,-0.4367426,0.09973956,0.004993056,0.0011550765,3.0466433,2.0756788,-1.422529,-2.5434783,-2.7186313,0.07254459,-2.1624186,0.0010430719,0.024437882,-0.08770527,-3.460188,1.12077,1.5725178,0.0977777,0.0066710953,-1.8191149,0.0149243055,-2.1258652,0.06965244,-1.161214,-0.0775017,-3.0480847,0.0050596553,0.08762199,1.1442655,-2.9059906,-0.61526155,1.3067536,-4.2794805,0.77327245,0.08010504,-1.5329939,1.1016387,0.071391694,-2.3075309,0.18295605,0.1420785,0.045480836,1.4372029,1.0831214,2.6954472,-1.9843919,2.175256,2.4404705,-2.9330485,-0.036399703,-0.13392153,-0.20862956,-0.023239834,1.3419929,1.470291,0.111420795,0.034634534,0.9719128,-0.63681173,0.004867454,0.091489404,-4.1105976,6.139896,-0.68919694,0.1169736,-1.4524695,0.35914192,3.3872888,2.3598294,-1.7092782,-1.6627443,2.548147,2.3481433,-0.31801414,2.0311182,1.6989375,2.431822,2.4946427,3.0891733,0.08925265,0.10489288,0.004702578,-0.33265078,-0.73653054,-0.45796198,-0.22511446,0.014284168,0.04574389,-1.15173054E-4,2.5283754,2.4834146,-0.010739013,1.8598291,0.08507457,2.1393063,-0.3279251,-1.3127748,2.9295456,-0.10502096,-0.5611497,0.08172138,2.2100866,0.10242085,-1.3480216,0.9949583,-0.5894604,-0.032964636,0.70588887,0.122338384,-0.64952105,2.9627044,5.7237573,1.4929475,-1.037713,0.030352792,-0.5921757,1.3604915,1.2236024,3.971741,0.44987053,-0.76785666,0.67326236,0.031226905,-0.20331925,-3.7942312,7.859514,-0.15039733,4.330116,0.75064725,-0.04504622,-0.022220239,0.025461862,0.2634273,-0.35370907,0.8544517,-0.84490275,2.138965,0.09184228,6.6780787,-0.11488622,0.1063954,-0.0962965,1.57138,-2.3440144,-0.3934763,9.077514E-4,-0.080902986,-1.8018321,-0.06867425,4.305345,0.066213615,0.83608204,-0.0751425,-1.4752451,2.5918653,0.052131355,5.5402083,-3.8848007,-1.4183104,-0.029377252,1.3807912,1.6175562,0.0608268,0.04422307,2.076484,0.040274743,-3.3263705,-1.4467751,-0.66165596,0.008800981,-0.29058343,-1.3585554,1.8459288,2.2540112,-0.65274596,-1.4884031,-2.9650435,0.05474796,0.030458268,-3.1201594,-0.07744369,-1.3167131,-1.5846065,0.091973335,0.022464884,-2.3767798,0.94645035,-0.10167585,0.68695647,-1.8248684,7.6838856,1.8894593,0.011732362,0.06958784,2.3094754,0.32881346,-0.37238786,1.8871568,4.544401,3.6910238,-1.8754064,0.67546743,1.6041883,3.3726618,-0.3422959,-2.5031981,-0.5549471,0.066348314,-0.092528924,0.018596368,0.14338778,1.0861025,1.9079086,1.9190423,0.059317585,0.114504285,0.112223744,-2.7692769,5.8788576,3.5344334,7.853067,0.11890956,1.6980897,1.5968322,-2.410027,4.1806297,0.08056689,-1.0804473,0.10004076,-0.9557338,-0.02759423,0.44122466,2.157183,1.5185077,0.9478589,0.89735126,0.008309948,0.8386969,2.5044212,4.5285974,3.7000034,0.83373487,-0.053335138,-2.9701023,-0.014547808,-0.1143701,-0.07612996,0.040911566,0.016194332,-0.104667164,0.019629532,-0.05366168,-0.020943727,-0.041209165,-0.04875728,-0.08615736,-0.015307851,0.09595233,0.079122946,0.07755465,-0.028027134,0.013571885,0.06748643,-0.015653854,-0.0817754,0.0037346855,-0.053098477,0.06678945,0.017301075,-0.024311474,-0.04802705,-0.11845315,-0.061262388,0.01393715,0.058226008,-0.020386279,-0.11450355,-0.00596729,-0.049276207,-0.10213828,0.013812564,-0.05670403,-0.13275638,0.05414522,-0.12939532,-0.12611404,-0.07894327,-0.008063275,-0.15741137,-0.09268675,0.021333858,-0.06209089,0.010858068,0.086896315,-0.063001975,-0.040205766,5.85656E-4,0.03685946,-0.034733314,-0.13052301,0.07008964,-0.046880573,0.120473765,-0.09504768,-0.07268713,-0.020096095,-0.077477284,-0.10257899,-0.029950809,-0.12446955,-0.08430021,0.004299462,0.010561149,-0.059707537,-0.01916994,0.10379504,-0.0380738,-0.05848445,-0.121778995,-2.5326293E-4,-0.02509352,-0.09979796,-0.04173889,-0.057913713,-0.0048363106,-0.09016614,-0.10919752,-0.18844645,-0.050387125,0.006754247,0.030386541,-0.028816221,-0.012042078,-0.07519757,-0.034956038,0.010000783,0.048669126,0.1044224,-0.025858596,-0.09469606,-0.13994394,-1.0602314E-4,0.084039606,0.069009915,0.06953484,-0.09076256,-0.044147156,-0.038611088,-0.04251632,-0.11598516,-0.08903055,4.6772666E-6,-0.09875211,0.0075189625,-0.07164794,-0.060978852,0.025552992,-0.016572017,0.03423172,-0.03474774,0.0585424,0.0282035,-0.0107332375,-0.084848516,0.012028921,0.011961521,-0.019697055,0.012703648,-0.13522194,-0.022936335,-0.117506824,0.016869359,-1.9498969,2.5888877,5.0102053,0.19507253,-0.86111456,2.630824,0.074630804,-1.2787355,-1.5432693,-4.725375,-0.15280658,2.1503074,-0.23500335,-0.11462685,0.0049569006,0.061668746,2.0587819,0.22097315,-1.4953297,2.7204354,1.2160568,-0.10486577,-0.27079675,0.05523805,-0.11278131,0.08619501,-0.92369944,0.9240229,0.23624498,0.10784629,0.07371674,3.996653,-0.059707925,-1.7657855,0.0056305607,-0.18946344,0.07483692,0.37958655,4.4911995,-0.01880615,2.99391,-1.6693512,-0.70499134,0.7937383,0.2887146,-0.5435539,0.009638817,-0.46897432,-0.26470116,0.08785484,-1.4606913,0.85167074,-0.29239842,0.09133544,1.716536,-0.06996159,1.7811186,4.758762,-1.3793337,0.29413942,0.41075325,0.102558374,-0.023803867,3.075996,0.07134909,-0.15568124,2.917826,0.06681312,0.024804942,0.124930315,-0.18073438,0.10075605,-0.9403013,0.6212409,-2.6483338,-0.099506676,0.022879079,6.1891594,3.289737,1.7899995,-0.2936308,0.7820285,-2.3642347,-1.6269693,-1.5560282,-0.99721664,1.7547052,4.3365173,1.3568754,-3.3805854,-0.22669774,0.00662175,0.013112857,0.051244445,2.1174567,0.922298,0.40660572,0.13696921,0.0050642006,0.11527516,0.07065295,-2.4093792,2.3948238,-3.4970934,0.018169463,-0.023379376,5.8918457,2.920021,-1.6344805,0.44086942,0.03762202,-0.5213643,0.020133836,-0.2972896,0.02904557,-0.5276235,2.4253078,1.8402194,1.144482,1.1084514,4.670954E-4,-0.4264652,2.161342,1.4500965,3.814244,-0.39779526,0.003691817,-2.2885225,-0.812318,0.74885136,-0.20521718,-0.4220993,-0.70049596,2.6063528,0.10341724,-1.5784442,-1.723175,-6.27648,0.98300004,-5.460005,2.8433588,0.15135816,-0.06847797,0.025855891,1.8272856,0.2153118,1.1713008,0.6130875,1.8591914,0.045113556,-5.1413836,0.023097783,0.07068418,-0.09747135,0.4914235,0.5588137,-0.5568687,0.0038229062,0.045872606,-0.7618823,-0.01586052,-2.010773,-0.11958734,0.27408183,0.009703045,-0.7831068,-2.3735843,0.08480427,-2.0923913,-3.3331833,-1.08578,0.09853025,-3.9424295,1.6219708,0.049010407,0.8708434,0.8973522,-9.6321903E-4,-4.863774,-0.05156866,0.94497144,0.025480554,-1.1121528,-0.97347885,-1.4960871,-1.8480486,-7.058319,0.61546457,0.5661463,0.11173597,-0.059389826,-2.2873843,0.10193844,-0.55062515,-1.6111621,-0.095299184,0.050758816,-2.1343815,-0.9268801,0.09290521,1.1127288,0.22137463,-4.1558905,1.6455874,-0.11376798,2.4041014,0.22645432,-0.12060031,-0.6541712,-1.3144323,-6.207466,-2.0564735,0.0018883565,-0.43296844,-1.3853381,-0.12937017,0.2176576,0.24135622,-3.2254064,-0.052248444,0.08918585,0.023538575,0.07078904,1.1374878,1.8590586,1.4103236,-0.11237247,0.013091163,-0.020755196,-2.7085903,-5.6501927,-7.979826,-6.3808427,-0.055216253,-2.6054933,1.8529122,-1.6178572,-1.1045084,0.14006345,0.0115192905,0.02700499,-3.2975779,0.02493136,0.96178496,1.9242951,1.5019357,-5.835406,-1.2519099,0.04844486,1.4168339,-6.0846,0.9757003,-1.2648534,-0.31244025,0.10697074,0.44965443,-0.08535288,-0.029430203,-0.050168354,-0.039306976,0.043543804,-0.038326427,-0.060974337,-0.039257847,-0.020983916,-0.016321152,-0.04221169,0.058023356,-0.056069184,-0.061092306,-0.0836932,-0.07965062,-0.006969109,-0.044761673,-0.030831484,0.030641234,-0.103244476,-0.020792255,0.024642618,-0.055828158,-0.041275304,0.06027029,-0.052968435,-0.0020818305,-0.030072015,-0.092937015,-0.068986595,-0.040039904,0.042783953,0.030834751,0.019754859,-0.07472008,-0.034097683,-0.061780185,0.0038706544,-0.022903534,-0.033851407,-0.057508957,-0.023235705,-0.118110694,-0.0037894503,-0.0605138,-0.08505157,-0.0030239213,-0.032777578,0.020954998,0.027766872,-0.08537324,-0.01200132,-0.04782513,-0.009416593,-0.0411739,-0.061387777,-0.116044074,-0.1176088,-0.11475743,-0.058785368,-0.117154196,0.054167457,-0.018125199,-0.088526666,0.030316932,-0.09805986,-0.11327013,-0.057412554,-0.06460655,-0.0057919254,-0.031616956,-0.033921428,-0.07909447,-0.020446062,-0.015944647,-0.010226653,-0.03174389,-0.013547727,-0.07431173,-0.091379546,-0.085040554,-0.04531123,-3.2828594E-4,-0.05466473,-0.02898192,0.016670374,-0.04639045,0.020401293,-0.016595373,-0.035524916,-0.00465358,-0.016284386,0.056448616,-0.11476639,-0.041091487,-0.067739025,-0.117045745,0.004567958,-0.002639742,-3.137437E-4,-0.019236844,0.0052434285,-2.5029556E-4,-0.10155201,-0.107189186,-0.07422131,-0.11368282,-0.07814989,-0.08174938,0.04462828,-5.266966E-4,-0.05056664,-0.07131773,-0.041514922,-0.090280995,-0.010868327,-0.0033061034,0.004647106,-0.057623606,0.006776319,0.058992617,-0.04939871,-0.10246014,-0.003001511,-0.02268394,-0.061874125,-0.015257526,1.7648878,-0.17221689,-3.6009815,0.20055431,1.0176206,-0.1710163,0.013223925,-0.049431086,1.1912555,-2.0396793,0.32031885,-5.065758,-0.10182025,-0.037334926,-0.0712796,-0.0010603785,-1.5463152,1.7845123,4.4389887,-0.33626467,1.4799147,-0.02769608,-3.3940172,0.08276784,-0.008594713,-0.03134172,3.951181,-2.7255104,1.7188993,0.057711583,8.215339E-4,-0.5682141,0.023446223,-1.2805665,-0.045281276,-2.0833886,0.024651501,3.2208471,-1.9014897,0.0028647573,-1.1166978,3.761191,1.3265685,0.40779412,-0.51037467,-1.7154325,-0.11415695,-0.18746805,1.0680889,0.006982222,-1.5799313,-0.27510417,-1.2006574,-0.06399732,-1.9495268,1.3539306,-0.13761364,-3.6188087,-4.119718,1.6337556,3.5166347,0.040877722,-0.037038296,0.4282695,0.03702934,1.6512231,-0.6266984,-0.08638806,-0.04500409,-1.271061,-0.8071709,-2.0093443E-4,2.025087,0.3762648,-2.4338474,1.8996063,-0.059259117,0.027579334,-2.9966805,-0.23002176,2.3086066,-0.015535511,1.3969373,-1.1384796,0.5945957,0.69087934,-0.31385785,2.1938348,1.3324763,-0.73930675,-1.585787,-0.058519784,0.052152287,-0.056381144,-0.8494473,-2.2588575,0.797141,1.1014087,0.04986583,0.055533513,0.024536332,-2.0730236,-1.110404,0.6760819,-2.5160382,0.0021361895,-2.9339492,-0.6692798,-0.5434819,0.87990636,0.033734053,1.6177764,0.0503521,-1.0223376,-0.045290295,-1.3724049,-0.7474723,-2.7744029,1.8713214,-1.9946039,0.03583668,0.21119489,0.2747802,0.08958365,1.5083812,-0.54645765,-0.01345885,1.2302079,-2.8005245,-2.616842,0.17898512,-0.064916044,1.3478708,-1.3636838,-0.053111304,0.75054437,1.358548,-5.1301436,-0.6222925,3.8134997,0.24411361,0.03246814,-0.039420936,-0.0110286465,3.928171,1.8426838,-0.52427477,-3.0728862,-10.665068,-0.049484376,-2.8433087,0.009683691,0.054389264,0.03514781,-5.3873777,0.9438858,0.96923524,-0.040659867,-0.054945674,3.3336499,-0.0070585357,-4.336094,0.047292184,-0.48512733,0.046717465,-3.1607237,-3.5179355,0.014634141,-6.12699,-0.7046853,-0.6368038,1.2190728,-5.7711234,1.8202983,0.05237035,-0.7284166,0.9197687,-0.05876442,-1.0474025,1.0966679,2.872427,-0.031811893,0.7749209,0.22550459,2.4180388,-4.691818,-0.19737555,1.886865,-2.6863482,0.03755149,-0.05786506,0.7220264,0.060229063,0.74234563,1.5287325,-0.058513574,0.029066367,2.7224104,0.050133716,0.16020472,0.25122735,-5.639091,-0.27671513,0.13551669,-0.035488676,-2.2806842,-0.8821059,1.9328741,2.7339258,-5.5240393,-4.1986365,1.1357011,0.8961026,-0.27596658,2.0576096,-4.2538695,2.7364037,6.7558203,1.7990388,0.04578879,-0.05470557,0.06028525,-1.5458379,-0.5275108,0.10276802,0.00600937,-0.03315625,-0.040908292,0.04982922,2.636093,-0.61680925,0.045940816,-3.544527,-0.020081712,1.4622617,-2.01156,-1.4729171,1.2695057,-0.03815224,-0.913705,-0.046902828,4.0649686,-0.056321617,-0.5143324,0.24445423,-0.83147514,-0.06491085,-0.6549564,0.21847375,-0.12817599,2.4546978,-0.6286573,-2.3081956,-0.44001845,-0.028798807,0.7809004,-0.05479636,-0.20590487,-0.23377433,-0.30703822,-0.23062527,-0.37447536,-0.11096803,-0.024704678,-0.37506688,-0.10141355,-0.016490154,-0.07402582,-0.3720376,0.0018872742,-0.10193702,0.12151699,-0.38484305,-0.24751478,-0.34801665,-0.39656854,-0.005977526,-0.010328848,-0.06436781,-0.08282781,0.058243103,-0.022985943,-0.08831525,-0.05826452,-0.21817438,-0.004006559,-0.04039902,-0.042132232,-0.010244662,-0.03338162,0.0857461,-0.25601643,-0.09022357,-0.107606664,-0.029958747,0.048396327,-0.077988505,-0.035402883,-0.05926841,-0.2775398,-5.1493535E-4,-0.09779278,-0.019286066,0.012419177,-0.2423287,0.029373065,-0.01803193,-0.07905398,-0.11610285,-0.0048728674,-0.09662967,-0.3063622,-0.19718501,-0.119517565,-0.075352155,-0.3036628,-0.10350294,-0.023509732,0.07779917,0.032086037,-0.012398133,-0.39303106,0.012574984,-0.11570926,-0.037345067,-0.007361639,-0.12215691,-0.025895758,-0.24880621,-0.18788025,-0.096509345,-0.2907033,0.06346797,-0.30538788,-0.3323898,-0.17738152,-0.38269144,-0.022226172,-0.07853761,-0.0434355,0.06940242,-0.3638773,-0.2454836,-0.01618945,-0.17317782,0.0917186,-0.04918973,-0.089391485,-0.089299105,-0.025494792,-0.22626172,-0.3697975,-0.2645723,-0.33086154,0.056782804,-0.09086105,8.6657546E-4,0.060135186,0.0900771,0.06617726,-0.028184248,-0.081237815,-0.17727852,-0.30664834,-0.119247615,0.0626341,0.0635872,-0.2758747,-0.046841104,-0.105058715,0.025656965,0.07358278,-0.18667457,-0.30388063,-0.052784257,-0.10948035,0.06340249,-0.3639807,-0.097276114,-0.009255368,-0.009713585,-0.21938314,-0.09147221,-0.035864666,1.8919219,3.9909468,-0.84266007,-0.2241663,-1.7516651,1.9332738,-0.04250719,1.0239625,0.11031369,-0.64823806,2.1013515,-1.8099961,-0.76598144,-0.07727535,-0.021693274,0.119067475,0.4186061,-1.1878548,-1.076855,1.725399,7.50988,-0.056469828,-3.2502456,0.008300562,-0.07317127,-0.08617934,5.7547026,0.342834,0.11627648,0.083001055,0.10960089,3.2354968,0.013097869,-0.4911546,0.08985797,0.4175868,0.11803589,3.3826323,0.17988452,0.06235001,3.7688878,0.20575805,2.0536606,-0.45330796,2.5799084,-2.6369836,0.11066629,1.2611545,-1.3055849,0.041229337,0.5668735,1.0188566,-3.4506814,0.05938163,-0.582153,0.23901583,-1.4664773,3.3450234,-2.3087122,-1.0225401,6.568832,-4.2214087E-4,0.040313058,2.584635,-0.0015747662,-0.27472502,1.8573664,-0.04647429,-0.067698896,1.7457151,0.15622617,-0.12330525,-1.4839995,-0.30683863,-0.7614911,-1.0616553,-0.020354005,1.9283221,0.090704285,-2.9654005,-1.2586741,2.9710271,-0.12623735,1.6196918,0.34288245,-1.0106232,-1.0142518,5.1207657,-0.9959044,-1.4958653,1.4867731,-0.091444746,0.0953571,0.10658098,-0.88995427,1.3810394,-0.19658202,-0.053760488,0.107552834,0.121677496,0.09995069,1.5903853,-1.9364008,-5.9840083,0.050842565,-0.005748692,-0.5511156,0.5109844,2.5551531,2.351402,0.14821045,2.9836378,0.022450604,-1.9131094,0.0847057,0.9077277,0.610166,1.0331588,3.0596604,1.5102378,0.046548475,0.1312376,-5.3879538,-0.20065346,4.833309,-1.430685,0.11884175,1.0316546,-0.1169964,-0.008637968,-0.05437053,-0.11171638,0.035734903,-0.034846954,-0.020452676,-0.028544215,-0.013798054,-0.056996558,-0.042405527,-0.096631855,0.02201245,-0.07572542,-0.064867586,-0.028911581,-0.021816228,-0.07194678,-0.09349329,0.11253654,-0.0481305,-0.099617995,0.011148577,6.7902735E-4,-0.009889768,-0.06108865,-0.10663068,0.059464086,-0.002119987,0.10727906,-0.088533446,-0.04535075,0.0014385659,0.035973605,0.10699735,0.057592694,-0.01815608,-0.00844889,-0.09653017,-0.0479434,-0.07287009,-0.016615272,0.015933186,-0.0733029,0.0060772756,-0.063125335,-0.012272831,0.013646115,0.08532208,0.07071028,-0.050168596,-0.012144296,-0.081101865,-0.017074926,-0.015068031,-0.11693257,0.07664677,-0.059613194,-0.064420484,-0.06988713,-0.08700599,-0.05836586,0.10683604,0.06501132,-0.009157506,0.041249707,0.10586786,0.064673804,-0.05502519,0.11889436,-0.03046446,-0.036489293,-0.06171379,-0.067707695,0.0024038453,-0.05770182,-0.007058074,-0.09906232,-0.068130106,-0.11725015,-0.030168774,-0.0140432175,7.631492E-4,-0.017347937,0.052045837,-0.10898711,-0.011428232,-0.017459402,-0.096736655,0.115476884,-0.07972069,-0.018198842,-0.012447705,-0.02848879,-0.049618673,0.004464988,4.1417187E-4,-0.09970999,0.091833964,-0.0807033,0.061357424,0.08449986,-0.0026185203,0.07955535,0.0058335667,-0.11957539,0.006319019,-0.08187357,-0.003629516,-0.1169936,-0.0631295,-0.09918436,-0.06283278,-0.07560645,0.05771723,0.10142124,-0.010900178,-0.100209415,-0.05082312,-0.11106258,0.025541859,-0.065446526,-0.07039091,-0.052950934,-0.0071498738,0.096929505,-0.11795444,0.043581393,-1.7033409,0.024713557,2.1883092,-0.096367136,0.75374866,-0.19753984,0.053883284,1.7552456,1.6624917,0.7915253,0.26649195,7.7556686,-2.9957855,0.067699425,0.051345255,0.09932233,2.0527697,0.053701874,-2.9518716,-0.2768782,-0.7504425,-0.052640915,1.8701293,0.030864077,-0.07386675,-0.11971927,-0.68143696,1.5228347,0.5310735,0.11921922,0.116680495,5.9108453,0.02160471,-1.474643,0.049755856,-0.36076382,0.02577151,1.9571015,2.76794,-0.11261062,3.0375323,1.7422501,0.55589944,0.60934293,1.4824317,-2.2502859,4.2605324E-4,-0.28014898,-1.5503556,0.009171561,1.5309623,1.3753896,-0.31861594,0.06404041,1.918107,1.1198388,2.4861193,2.4419348,5.8683224,-0.15965049,1.1792104,-2.1352072E-4,-0.035885014,3.907891,-0.11477836,0.720406,4.743228,0.100384235,0.008613676,3.1760497,0.7398104,0.10339576,-1.9467032,-1.7929984,2.2972553,-2.7632797,-0.029187884,-0.46997166,0.05689233,0.9797466,1.3312794,0.5150281,2.2723236,1.2950757,0.4498707,-0.49818647,2.10581,3.1234524,0.8400573,-0.19042528,3.9273841,0.034522425,-0.01629519,0.012746186,-1.6451606,-0.2278015,-2.680453,-2.2017946,0.10349931,0.005794929,-0.116825916,2.7200181,4.5733633,5.148038,2.9587584,0.01362194,5.58994,-0.15285045,1.5458853,0.31784606,0.11845018,0.7511933,0.03620381,3.7526958,0.035872977,-0.55004615,-0.95478535,-0.07691001,6.9559603,1.9578161,0.09162284,-1.2708163,6.459927,0.12634484,5.013408,-0.5827597,0.045811396,-1.042221,2.3570797,1.1910921,0.8177165,-0.45309994,-1.7555714,2.1014936,0.020439036,-0.431359,-0.2732933,-1.1980063,-0.8023148,-0.26167715,-3.4952743,0.036716063,0.021738404,0.020570118,-2.5256267,0.21001735,-0.894456,1.3056567,6.5824456,-3.1256527E-4,-1.2986741,0.0055635553,-0.035794806,-0.05666273,2.6439338,0.2776112,0.71660244,0.03048666,0.046462536,-1.1817622,-0.06262188,2.1729012,-0.11384009,-1.5984048,0.033270188,3.519033,3.7186835,0.107487634,4.7958665,1.4990524,0.14808722,-0.10939882,3.0854254,-4.967683,0.05656799,-1.3229787,-2.3380241,-0.014747971,0.51396775,0.4324442,-2.5147953,0.111993305,0.19869512,1.7525172,0.027265916,4.2016125,1.0258726,0.7988071,2.1458697,0.04415806,0.025238704,1.6747152,0.07521384,0.4013431,-0.51953125,0.057019208,0.11074231,-1.3984432,-2.0988386,0.068805724,-0.9439532,3.5243375,-0.46291178,-1.3163944,0.010981133,2.595536,0.49268505,0.101769015,-0.37153554,3.1041343,4.132823,-1.1261736,-0.062716424,-1.3204652,-0.53186935,5.964138,-0.040493328,-3.2112272,-0.4254656,0.086938046,0.031916533,-0.079649605,1.3938208,-1.2623689,-2.082125,-2.049268,0.10891333,-0.025526712,-0.032491304,-1.9252863,2.996754,-0.8269913,2.460891,0.040679686,0.3354711,1.6232985,0.5351392,0.51916075,0.11395584,0.048513677,-0.04288192,-2.4251275,0.009014415,-1.7561826,0.026249494,-0.7068796,1.8404987,-1.238345,-0.20998548,-2.3431783,0.4717439,3.2358327,2.575361,-1.3220044,0.017085232,-0.27594712,1.926362,-0.4168996,0.10052962,1.2362027,1.4954981,0.92553,0.016039882,0.5728978,1.9200401,-3.2231045,-0.49614486,0.9545563,-3.7639277,-0.05501341,0.056443047,0.09920859,-2.7083197,1.2430812,-1.2873648,0.43261403,2.9616933,-0.08519854,-0.84553665,0.033592775,0.08945701,-0.027747767,2.6781805,-0.7044176,1.9793551,0.033888783,0.106551304,0.40433145,0.028423408,0.8413826,0.042504273,-0.34913492,0.0049664713,4.181672,2.9128358,0.04150516,2.9747937,4.4185195,1.3283015,-0.75999963,4.8733244,-4.46908,0.065548174,-0.5802784,-3.2711608,-0.054886974,3.1125762,-0.84239435,-2.1289766,0.07439527,0.50458,2.5832098,2.3584754,2.8092246,9.153708,1.2316068,2.7351086,0.023272438,-0.037674684,1.4448118,-0.12151308,1.4054482,-0.49254772,0.022827405,0.047016997,-0.98877764,0.24252197,0.043258093,-1.6473169,2.9385524,-1.8376317,-3.030671,0.05587176,0.62016714,-0.7362221,1.1541542,1.4330596,1.8627468,4.694763,-1.0335186,0.29083812,0.97800785,1.170917,3.8154328,0.81240195,-0.92079896,0.8620848,0.055119287,-0.062408183,-0.065832525,0.061331987,-0.8024568,-3.257913,-2.9185424,-0.07072106,0.041843444,0.09149567,-0.8334809,4.0725555,2.7229245,1.2624892,0.035616163,1.2575417,-0.31418794,0.5646299,-1.365666,0.065494746,0.64244866,0.062412784,1.6306597,0.056858078,-0.8140294,-1.5374204,-0.8875778,2.494889,-1.4083055,-0.10663511,-1.3137965,2.2368772,0.36721578,1.8181552,0.7040531,0.07408337,0.3507383,2.4979877,-0.3033744,2.3178468,-1.5838412,-1.8921443,-0.5723754,-0.08292541,3.4947572,-0.85362667,3.3094995,1.4505861,2.0986583,-1.3291463,0.057211045,0.034613896,0.09584393,3.5243897,0.026440047,-1.6071792,-2.0298445,-1.1584333,-0.032227077,-0.43966293,-0.04882841,-0.041766994,0.114628725,-0.7925153,0.621853,-0.65368193,0.019675981,-0.058086075,-1.1235236,-0.025654344,0.9464244,0.012911275,-0.18790253,-0.101969875,-2.441652,-1.0997723,-0.061623704,0.801265,-5.6070867,1.0405318,1.5856357,-1.4067003,-0.21295963,0.0904227,0.6384737,0.3292584,0.0125179095,-1.6753527,0.060468126,-0.22932021,0.028285528,1.3821024,-1.6119847,0.39776552,-0.9936117,-5.052321,0.14719594,0.4898292,-0.073404476,0.09369951,0.29275283,0.05614933,-0.17881444,2.6217961,0.008522676,0.113971755,1.9640988,0.29565823,-0.082950436,-1.1557275,-5.7467294,6.0353837,-0.64452684,-0.060098466,-0.06896088,-0.42844075,2.529014,-0.80646515,-1.0829595,1.3671887,3.6837769,1.6534338,-1.5905817,1.9025621,3.4936168,0.845349,-1.9133034,2.5098054,0.003096226,-0.074213944,-0.013435439,-0.5290636,0.19733247,-0.3885916,-0.2884677,0.039064523,-0.0838824,0.056341074,1.6551019,2.859464,-4.3153133,4.3784223,-0.05937839,1.5914102,0.794569,-0.33390108,6.522185,0.083364464,1.4821784,-0.035742722,-0.6767923,0.10741856,0.14362471,0.1427923,0.39501503,0.31167978,2.704253,0.032436594,-0.43909752,-3.1684818,6.079416,3.7434616,-1.5748388,-0.040913194,1.1678606,-4.175206E-4,-0.3482,0.0619312,-0.3530933,-0.18977454,-0.27909917,-0.09316778,0.1011034,-0.2670279,-0.18019412,-0.22936313,-0.063815236,-0.39823577,0.021419168,-0.0934499,0.039674617,-0.21251234,-0.2896875,-0.31739533,0.017499087,-0.24780478,0.0035412088,-0.09382435,-0.024355862,0.11623409,-0.034665316,-0.27524456,-0.11398704,-0.2384828,0.11134314,-0.024138266,-0.07036537,-0.0895781,-0.04903751,0.05593829,-0.2138826,-0.08585752,-0.08852081,-0.115257025,0.085505255,-0.25304264,-0.057312507,-0.39082867,-0.09264296,0.07884857,-0.33488876,-0.044149894,-0.22521974,-0.25556365,0.05088753,-0.06498132,9.6698024E-4,-0.11611497,-0.07317413,-0.07473016,-0.16998383,-0.3830083,-0.013590214,-0.10418923,-0.26584446,-0.22574027,0.07101142,-0.09963719,0.116483435,0.07062241,-0.16932032,0.042692807,-0.04250224,-0.031154081,-0.052421026,-0.36407548,-0.025724614,-0.26890424,-0.0025443018,-0.06763441,-0.30027452,0.05418376,-0.09601677,-0.28461906,0.04907793,-0.348552,-0.09653455,-0.089948766,-0.09391009,-0.23040803,-0.33983186,-0.2671661,-0.032244474,-0.22323687,0.06588937,-0.25430617,-0.023199778,0.07990069,-0.034750912,-0.093260385,-0.3758558,-0.20604964,-0.37322447,0.043782502,-0.012709573,-0.021565247,0.048964206,-0.036447387,-0.041240573,0.10997689,0.10448762,0.06951246,-0.28093877,-0.11721556,-0.12993762,-0.014990633,-0.22587931,-0.106582046,-0.07477004,0.10841722,-0.26609775,-0.16234966,-0.340304,-0.056896374,-0.11274711,0.0056640324,-0.28952062,0.11260626,-0.04413254,-0.33797622,-0.21391942,-0.0020156496,-0.066391215,3.9488332,2.4595742,0.25276846,0.26384062,-0.7306798,2.1863835,-0.05927759,2.3047218,-0.9175048,-3.3398497,2.360709,-2.3369179,2.1952453,0.05015822,0.02760902,-0.050979353,0.93543434,-0.82998407,0.92277354,0.3313581,4.4284616,-0.045154672,-1.4435201,0.00768758,-0.059189126,0.090429455,3.800459,-0.89814436,-0.34442917,-0.056219038,0.014787561,-0.33241177,-0.004164338,0.37697804,0.0017726732,1.0451148,-0.049513016,0.045407712,-0.9767563,-0.026428211,1.614453,-2.3918693,2.7798545,-0.78183126,-0.6168667,0.2750145,-0.04230739,1.7142466,1.7248884,0.0259115,-2.7250764,-0.45447972,-1.811472,0.04776986,-1.5530096,-1.6349878,-0.79091763,0.54474926,-5.5958934,-0.9520206,3.3101428,0.0445426,-0.00591627,-0.919603,0.024451759,-1.0094824,0.5804483,0.0208112,-0.019902602,1.1442627,0.62258524,0.18156676,0.5656203,-1.1699678,3.0547118,2.1556194,0.043701544,0.9487777,-0.4018382,-1.4205577,-0.93028307,0.28931144,-1.1229851,3.0096054,1.6911244,0.54931426,-1.3039725,3.6688528,-1.1043273,-1.4765995,0.42949528,-0.02661314,0.012323548,0.024658868,-0.4834197,1.5335037,3.310067,3.0562232,-0.052211598,0.041877076,-0.060661335,0.012696746,-1.8268665,-3.492109,0.15411887,0.009220551,-1.6590098,1.3820031,0.28579798,5.9348593,0.06656657,2.463792,-0.032204036,-2.2045476,-0.06174794,1.4146664,1.1380852,1.6030488,-1.6690438,1.7880696,-0.17097384,2.3861415,-2.2569885,4.547584,3.1872663,0.6785445,0.0058199423,2.9184492,-2.9078486,-0.040662322,-0.05939914,1.7043298,1.7224613,-0.4779636,-7.3363684E-4,-3.7810419,-1.6117406,3.782617,-0.7896576,3.9835079,2.1069236,0.10522033,-0.046333324,-0.001023853,0.9326822,-0.24619102,4.1571565,-0.6425204,-4.879148,0.10654143,4.167324,0.055809576,0.11341125,-0.07900328,-3.0522068,-1.3662211,-0.41953066,-0.09537835,-0.10134602,1.2386646,0.11853733,1.0829545,0.0085636275,0.99510354,-0.09771726,1.0150063,2.27383,-0.009300036,-3.5542707,-0.14900585,-3.5537217,1.0870644,0.16563773,3.5335379,-0.02798089,0.26914614,2.640799,-0.02507917,-3.4088113,0.28685173,0.98644406,-5.4642704E-4,-0.6458097,-1.2869478,0.3258009,1.9267237,-4.8802485,-1.3096867,-4.6495166,0.07377788,-0.060953144,-1.0233772,-0.030132528,-0.655458,-0.9432858,-0.038338255,0.08225374,0.12435577,0.7624931,-0.029873606,2.6053843,-0.15127128,-0.6525935,3.3957582,-0.055119846,-2.35165,2.0925415,-2.0164926,1.4793669,-3.1824882,1.3364325,1.0809327,-4.48,1.9781259,-0.103628226,-2.3689914,-0.13012283,1.0737113,-1.1701583,0.013559866,0.11064757,-0.1090562,-1.7331871,1.2591352,2.2900856,2.3538482,-0.0556984,-0.061939634,0.09903152,-0.15243247,1.7082496,4.902329,-0.9152148,0.026820991,0.8275174,-0.5505928,0.38428912,1.2775702,-0.075488105,-3.2523336,0.05586691,2.1803682,0.0017702875,0.9853955,2.1016726,0.9918431,2.6081254,-1.2050457,0.29907915,1.629143,5.4642425,-1.5544791,-0.35307744,1.0536168,-0.016919013,-4.233671,2.773769,0.19195561,0.14933825,-1.2928334,0.27049315,-0.27088273,-0.11400276,1.9813372,-1.6371473,1.7519084,1.3192345,-0.76062596,4.3668747,0.013306972,0.052410074,-0.069655776,2.59833,-1.5541908,2.5982516,-1.8290012,0.46778882,-0.015689693,2.1020513,-0.0610469,-0.05823775,0.11120012,-0.12352961,0.58697206,-2.0172243,-0.115925156,-0.10441897,-2.7563581,0.07651134,2.2722538,0.060703546,1.2313962,-0.08222244,-3.7566645,-1.0133073,0.105520085,0.18625017,-5.207329,0.46589082,-0.70999634,-1.6409988,4.8726406,-0.11705997,1.020855,4.030011,-0.0441344,-4.3427916,0.08301452,1.1022121,-0.051362514,-0.38730788,-2.4816124,-1.0717944,-1.3473221,-4.7101135,-1.8028636,-1.9887971,-0.069814734,0.15108256,-3.4851508,-0.041011553,-1.5515776,-0.067015424,0.06305375,-0.027976187,1.2884418,1.1025451,0.060634017,1.8347327,-4.1944895,5.232986,3.794345,0.0176672,-1.7657514,-0.43759587,-0.45700833,-0.95849127,-0.8613725,0.30997887,2.8987992,0.45469582,0.791584,-0.95497066,1.3013476,-1.5948192,0.21285594,0.48425806,0.035193607,0.047766346,-0.0131550785,-1.9742702,1.3273877,4.328377,3.9685354,-0.057294063,-0.021077007,0.057867665,0.97298545,0.39994425,-1.9100661,2.4933214,-0.011613288,-1.236566,0.7373745,0.20188765,5.2479067,0.059883516,0.59513366,0.019924672,-0.643715,-0.106701575,1.5077386,1.2149267,1.1907803,-2.2245314,1.6283066,-0.09808694,2.5588088,-2.3964028,6.0064445,1.3515611,1.404088,-0.06260194,0.5475981,0.10519223,-1.6617032,-3.8545294,0.6884714,1.5712718,-1.9221747,-0.06920866,1.7185947,3.2274883,3.1923046,1.272682,4.2947783,-0.34829012,-0.02016784,-0.036220923,-0.083213195,-0.1817214,0.71210986,1.4246819,-2.540479,-2.3251684,-0.0014129705,0.99111503,0.0806048,0.019019844,0.012630118,5.1325865,0.8383827,0.9569983,-0.018639725,0.003662723,5.197274,-0.026426835,-0.34808558,0.09102113,0.5250782,0.004827025,3.7386532,-1.6491349,-0.0032243016,-0.74634355,6.3618026,2.1576235,0.1851826,1.2041501,-0.6758193,-0.03218214,0.70954233,0.13914303,-0.051134825,4.6252656,1.606046,-0.90322727,-0.04695265,0.27210525,1.7588286,-0.47363713,0.90677196,5.9077544,0.5439596,5.3706603,0.10563052,-0.19417241,4.197016,0.050430633,1.6679159,3.1540086,-0.029590318,-0.07889993,4.4499226,1.8763905,-0.028750936,0.85721534,-2.2869995,-0.20130633,0.0034494675,0.120189615,-6.465524,-2.2661283,-1.9436202,1.7084475,0.17002682,2.3132417,1.4319748,2.0392442,1.9848366,-0.25323543,-1.4972215,0.3779896,2.5451233,3.7981634,0.12093444,0.07262401,-0.10030033,-3.681657,-0.36869276,-0.60960305,-0.2751283,-0.10155648,-0.008871508,0.11884388,5.177141,-0.0865679,5.283662,-0.9929111,0.058197293,-0.749718,-2.917502,3.5673947,1.0140018,-0.058975287,2.9053264,-0.07352048,3.4052546,-0.11270934,0.6225585,-2.3004346,-1.3084276,7.048514,0.51702106,-0.048215162,0.57008547,4.0071325,-3.2706099,1.0999986,0.92606616,0.05939182,2.462788,-0.00655507,0.04724278,-0.012862464,-0.010237698,-0.095499374,-0.060112298,0.008482412,-0.057535738,-0.1463451,0.05898322,-0.016492557,0.044965763,-0.121126935,8.6623273E-4,0.11548523,0.03652839,0.007822755,-0.04743005,-0.043509595,-0.060899906,0.0071913726,0.07726586,-0.11184195,0.11811926,-0.0077077197,-0.10954342,0.046034448,-0.1430149,-0.045613572,0.054077547,0.088581525,0.0027010061,-0.11662602,0.036939,-0.003711347,-0.053169925,0.03257451,-0.046200585,0.035180703,-0.076933764,-0.020334247,-0.064944096,-0.13791032,-0.017902846,0.012527031,-0.0735869,0.0063021895,-0.03753452,-0.043594617,0.033238698,0.0134698935,-0.04108803,-0.022356885,0.057524614,0.009301584,0.047516786,-0.08448259,-0.013009352,0.015018623,-0.04232904,0.057164755,0.10103989,-0.0057034986,-0.12190452,0.040038116,0.0064263693,-0.11545303,0.10166188,0.07101134,-0.12994644,-0.001344899,0.02740459,0.05278604,-0.07136996,0.027827963,-0.1109578,0.05105914,0.0030556046,-0.02001129,-0.050792173,0.04598615,-0.035325523,-0.16116083,-0.10582449,-0.09346596,0.0091991965,-0.0036820867,-0.014428819,0.012794468,-0.08171625,0.04625059,0.093159445,0.092191495,0.05838285,-0.0061042537,-0.14548486,-0.08245856,0.01899962,0.082414314,0.09971461,0.093025304,-0.04174821,0.025808824,-0.1446619,0.024731832,0.0038211772,-2.7185056E-4,0.020247662,-0.06649227,0.003634622,-0.0598313,-0.020659553,0.0017825187,-0.11828191,-0.12123094,-0.078216575,-0.052702576,-0.09358246,0.057258073,-0.08908915,-0.06279572,-0.023624707,0.028520638,0.059919834,-0.07479089,-7.4783765E-4,0.09570638,-0.02225798,-0.090219714,-0.17650865,-0.1396177,-0.17627867,-0.15371914,-0.16232766,0.007538251,0.04327373,-0.15207049,0.00529628,-0.14476459,-0.07682538,-0.21229894,0.08240315,0.0174148,0.045525283,-0.05454241,-0.11473102,-0.11142532,-0.060795374,0.0077082906,0.0374467,-0.068909034,0.02484596,-0.007880932,-0.08461611,-0.06914285,-0.045375712,-0.18643701,0.11808317,0.008292199,-0.041525647,-0.039923806,-0.16577142,-0.002320344,-0.1750436,0.0409335,-0.032191597,0.051567912,0.048705615,-0.035193093,0.005980191,-0.027965235,-0.08984829,0.028621392,-0.0222941,0.02596881,-0.25850424,-0.10004741,-0.053238396,-0.08275889,-0.074205965,-0.11144282,0.09590215,-0.04781518,-0.1050078,-0.2083637,0.11805859,0.07209393,-0.15574756,0.0054714964,0.08002261,0.014526417,-0.10524893,0.022605173,-0.16035418,-0.11547924,0.026400091,0.013085861,-0.20876233,-0.16927074,0.02363705,-0.16735575,-0.11165997,-0.09778619,-0.12109141,-0.011370241,-0.09050753,-0.09546836,-0.12601174,-0.09069927,-0.10035734,-0.10094823,-0.12872122,-0.107734375,-0.16291897,-0.23620982,-0.09770948,-0.08733793,-0.09214829,-0.06780143,0.11390135,0.03159989,0.0028374628,0.0195153,-0.2226392,-0.06854372,-0.12148494,0.061973773,0.020768136,0.0287438,-0.06287113,-0.08354029,0.027266826,0.07474902,0.0013720576,-0.04011096,-0.16493103,-0.124538586,-0.011925908,0.08886789,-0.03431654,-0.010701629,-0.18263283,-0.018737093,-0.14975479,-0.022471841,-0.06423791,-0.008116752,-0.1746773,-0.059773564,-0.20678368,-0.12672025,-0.018066838,-0.08261042,-0.24031924,-0.05759806,-0.11377941,-0.020403,-0.047182,-0.04909439,-0.09147526,0.11661949,-0.015101921,-0.08974764,0.008573809,0.025229743,-0.11279071,-0.07118683,-0.012388245,-0.12129216,0.09441773,-0.0045851655,-0.058632553,0.07703102,-0.045283444,0.09352371,0.0017133283,-0.049402352,0.119698204,0.0775871,-0.023171779,-0.0012231163,-0.057627395,-0.11890207,-0.043479357,-0.109539196,0.039732903,-0.119326144,-0.005260087,0.088924855,0.11276265,-0.027881596,-1.2407648E-4,-0.06595186,-0.07227423,0.06074901,-0.06459341,-0.102867655,0.04474416,0.10465399,-0.062935926,-0.11863702,-0.010981927,-0.056222074,-0.0041880053,-0.08287057,0.11682924,0.010954213,-7.139367E-5,-0.0821085,-0.07065855,0.122482926,0.10842349,-0.053194597,-0.027286889,-0.031600144,-0.012331853,-0.06299513,-0.092653364,0.08912763,-0.12123435,-0.05397714,-0.010317426,-0.0027227513,0.034404587,-0.08880686,-0.049812023,-0.115956046,-0.07130135,0.08026025,-0.098657094,-0.0021905028,-0.03582676,-0.019157866,-0.06889392,-0.018713085,-0.004588224,0.06584934,-0.08849482,0.07377337,-0.044975717,-0.03402489,-0.122364424,-0.04779982,-0.070016876,0.010460604,-0.023796404,-0.10113016,-0.07589799,-0.027694192,-0.05429092,-0.04570379,-0.11548178,-0.091667816,-0.015800282,0.024700008,-0.027719893,-0.06666414,-0.030487977,-0.013214594,-0.010815874,0.011831461,-7.1734627E-4,-0.047007475,-0.08188512,0.031499878,-0.106561236,-0.05506326,0.09023975,-0.041061178,-0.080201715,-0.023069607,-0.036434393,0.02366771,0.037442707,-0.08613021,-0.077729724,0.081675604,-0.0709401,-0.120171726,-0.019758798,-0.012154701,-0.023035467,-0.05847728,-0.010473935,-0.07672253,-0.03391692,-0.05684707,-0.08133158,0.015464774,-0.07148357,0.04296684,0.03397243,0.051625837,-0.046533935,-0.059091244,-0.08444245,-0.056245975,-0.053927395,-0.059174594,-0.05321443,-0.061373804,-0.02733843,0.0026913665,-0.0151945,-0.03883226,-0.040898953,-0.023514062,-0.030633489,-0.040913146,0.060167976,-0.039066486,-0.026989203,-0.009718552,-0.021199154,-0.04526299,-0.06232412,-0.020981735,-0.054730877,0.024719834,-0.0023777892,0.0076429206,-0.11461529,-0.056356978,0.048200417,-0.06268845,-0.053313624,-0.054705944,-0.052020278,-0.013183422,-0.025540734,0.03323228,-0.041669298,0.023782775,0.02079601,-0.019799858,-0.01093821,-0.049498674,-0.009130497,0.0047762147,0.004058247,-0.013142659,0.025490453,-0.04970238,-0.014240658,-0.032174516,0.054657184,0.036148023,-0.0897802,-0.05044931,-0.04902968,-0.026714781,-0.041302353,0.035630602,-0.05733825,-0.07838864,-0.052325983,0.02794068,-0.100719385,-0.00818358,0.057419565,-0.040588222,-0.038362984,-0.007259378,-0.024678016,-0.10827108,-0.062014014,-0.07007724,-0.082920834,-0.059474207,-0.061925944,-0.036428504,-0.045082122,-0.0062119183,-0.003458922,-0.09737182,-0.0029484166,-0.009250918,-0.020406423,-0.10935851,-0.057625126,-0.019701589,-0.081213266,0.052850686,0.019917792,-0.051774167,-0.028952133,-0.018565014,0.058770582,-0.06069919,-0.048515547,-0.063058384,-0.073437534,0.02134671,-0.08423659,-0.061988275,-0.0081934575,-0.057189073,-0.061602842,0.034567066,-0.01861158,-0.04850885,-0.04830583,0.053344138,-0.032228272,-0.025253564,-0.024037687,0.053600937,0.06179259,0.033674695,-0.10573736,-0.00988903,-0.050520234,0.02111935,3.4587884,4.4011045,1.30812,-1.1724862,2.7268932,-2.1931884E-4,-1.8295568,-2.2587085,1.1146936,-0.5058204,1.3669281,0.6925474,-0.07570125,-0.11962323,-4.2300997E-4,0.3824766,-0.012576123,-0.22870705,1.4810363,2.7680924,-0.06010999,3.4361658,0.030566255,0.054089386,0.096501306,1.7591926,-1.9742597,0.64281076,-0.121468015,0.0037698632,0.30266577,-0.11848815,3.0017614,0.09928344,0.63171804,-0.10393415,2.9309292,4.96127,-0.022316484,4.69887,-0.31289315,-1.2261724,-0.35475656,3.3946307,0.0886537,0.0408383,-0.10346584,0.0380141,0.07841439,-1.2611812,-1.2692335,-2.209147,0.11390016,-0.2664239,0.06665667,1.5245597,6.345738,0.71278864,-0.1878967,-9.789299E-4,-0.10720297,0.115783356,0.4969945,0.04585869,-0.24560206,-0.08320627,0.09502111,-0.046595916,-2.3371515,0.4318201,-0.009956978,0.0464439,2.6299474,2.60192,0.72227466,-0.07671144,3.9350963,3.3321037,0.25825885,-0.60968137,2.0807624,3.359741,-0.7593505,-3.204361,0.35147277,1.4956615,3.954936,0.51776266,-4.0041447,-0.64928734,0.11541864,0.105126016,0.0037990639,1.1339405,1.4893161,1.1666709,1.150937,-0.021414343,0.027927922,0.026066482,-3.9690526,4.9603605,2.44233,3.9928863,0.045599855,4.262298,2.630025,-1.7940339,0.6370718,0.030096596,-1.2173129,0.047732383,-1.0838069,0.0018479748,0.15048951,2.8806443,2.2735,2.118166,0.5185116,-0.107125245,0.62827504,3.7513635,3.7764547,3.3168619,0.41852158,0.015732724,-3.598638,2.3856478,-0.9554671,0.5663938,1.3958815,2.05602,1.5976661,-0.09912662,0.81892014,-0.0445665,0.8379655,1.1035738,-0.047676906,0.52716005,-0.09477011,-0.0035293156,-0.0012836935,-1.8642659,0.21728215,0.28590766,0.7570246,0.262781,0.09334605,2.107719,-0.013829689,0.035217825,0.08150879,3.8178484,-2.1413991,0.78332484,-0.044536773,-0.07950884,0.72812986,-0.09926877,1.2221144,-0.05000395,2.3646803,-0.084911056,6.587596,-2.0455759,0.06259019,0.028522179,4.2176247,1.1901312,0.29858786,3.8126352,-0.7382538,-0.039362185,1.9469026,-2.591964,-0.061859667,2.0311666,-0.98665476,-2.8608296,0.09731109,-2.340457,-0.03142998,2.5480072,-1.5221026,-1.8070276,-0.6640505,2.187293,-0.039911196,-0.021972386,1.1493742,-0.07382004,-0.23673779,0.35050732,-0.061958347,0.020801753,0.6704268,2.7797587,-0.029520899,-1.6819919,2.3787754,2.290751,-0.4488463,-0.019296478,-1.0995386,-0.84908974,-1.9034723,2.409469,-0.4336371,4.73162,3.5626295,-1.0496857,1.3451984,1.0825863,0.15949285,0.2112741,-0.88454425,-1.9123797,-0.064531505,-0.072752275,-0.10008545,-1.2050229,1.476782,-0.31543234,-0.98449504,-0.113686204,-0.059649985,-0.013165288,-1.1351236,2.1867838,5.1738567,2.9811997,0.084805824,1.158742,0.6349177,-0.7943488,1.1915461,0.023863424,1.1092702,-0.04354391,3.9238448,-0.11198288,1.9925047,-0.78528094,1.299691,3.822088,-0.45423704,-0.09909147,2.5740743,1.5796102,0.4943232,3.3006296,1.6967381,-0.053899173,0.6143582,