1.3608307,2.37943,1.5441928,0.9230388,-0.99762446,0.32969794,-1.243993,-4.446808,1.347087,-0.14961705,0.32410485,-0.11857282,0.6815488,-3.0414004,1.2899227,0.61976653,1.6040868,0.53900844,-1.9500322,1.5570172,-0.4739594,1.3093419,2.8613462,1.124478,1.4072204,1.3987275,-2.9149687,1.2813951,-0.53542805,0.5026178,-1.2202632,-0.29457393,1.4967836,-2.634762,0.5970784,0.68198663,-0.03788906,-3.031302,0.67150533,-2.145822,-0.7004904,-0.17828381,1.2368588,0.45371607,-0.66254526,1.8323985,-1.1692495,-1.2907479,0.18573481,2.4720156,0.14486454,0.88537085,1.3319772,0.15493833,-1.2537663,0.7103481,1.3975189,-2.154333,-0.53819144,1.268908,-0.07950209,1.7170976,0.873331,0.10091074,-2.466702,2.760232,2.0193992,1.5746617,-1.2178572,0.48921737,-0.26136953,1.9588144,0.4776933,-1.2105135,0.44659904,1.6661664,-0.63078064,-5.2876863,-6.141478,-1.4409847,-1.9497715,-0.06964066,2.1489222,-0.065312766,-6.362922,-0.47302032,-4.31405,0.71406084,1.344182,-0.85348666,0.10401865,4.4009743,0.6182759,4.5143757,1.2929441,1.2597967,1.0288508,-1.4750212,-0.16540803,0.67903316,0.30543557,-3.3055475,0.17766446,-0.5230103,1.3799447,1.216547,0.91986763,1.2174761,0.48538285,1.2648716,-0.34922394,0.6258809,2.5220685,-0.2536122,0.11657621,-3.214985,-0.6824131,1.6751021,-0.030702783,-2.2935166,1.1784662,0.05423363,1.4633394,1.5302048,-5.4764147,2.0295472,-0.2121986,-0.61947304,-0.39288965,-2.318645,-0.9872377,1.1341588,-0.55712086,1.2082402,0.15794231,-3.0197818,0.46185577,0.84009165,0.45882073,-0.2880356,-2.1163354,1.3909113,-0.7599996,-0.6518082,-0.9445779,-1.3879148,-1.6276397,0.42631778,-1.2094549,-2.0348141,-3.5367062,0.8286323,-2.2231905,0.18531205,0.28917393,-2.9438913,0.28120103,-1.3540899,2.5313308,0.6827784,0.578919,3.712029,2.3358796,-1.6331383,-1.4015895,5.246705,0.76976365,-1.7356889,1.0186025,0.42829338,1.0729475,0.3738288,-0.9080914,0.2225913,1.2316676,2.6443589,-1.5803599,1.4424139,-0.6485595,-0.47099233,0.84520566,4.061505,-0.73400533,0.23210405,0.9382648,0.30269867,-1.1028848,0.05820504,-0.51123863,-1.2431821,-4.379295,0.18117912,-1.7450696,-2.1597102,0.4637583,2.3343246,0.9409024,-2.663038,1.6412235,0.25798792,0.08912772,0.51622623,2.176862,3.9151537,-1.2772733,-0.86839926,-1.1218514,-0.55413836,3.5223384,0.33000362,-0.2300203,-1.4205539,3.4800096,-0.2192969,1.2922848,0.39296654,-2.5608237,3.1574545,0.9046495,-1.4524398,-1.4154065,-2.9427524,0.072615266,1.740605,0.7119834,-0.060975455,0.9049701,0.02537167,-1.1768382,-1.8231518,-1.4884063,0.0650995,0.5754827,-0.35968372,-0.043509446,0.76109767,0.35684088,-0.59260994,0.22735576,-0.081824325,0.3634187,1.7119462,-2.0792966,-0.77428454,0.6058015,-3.776104,0.3889174,0.91138506,1.1735959,-2.3578525,0.92706287,2.7372808,0.404844,-3.4944584,4.688016,-0.1376039,-1.2396994,-3.508256,-3.8439772,1.2937258,1.3019079,2.528587,2.0939553,0.82703793,0.24866052,1.8952271,-0.80474013,-0.42640173,-1.1481646,3.4895759,0.07440508,-0.28744873,-0.734982,-2.2306485,-0.6599891,1.2247075,0.56003314,-2.674008,-2.1258411,1.8992537,-0.59378386,-0.24266872,1.7178675,-2.1806104,0.8771519,-1.5089953,2.6138422,1.1107091,-0.58579016,2.7423005,0.6890747,-2.0250828,-0.785021,4.6026587,0.86003023,-0.42671862,2.2436435,1.3034047,-1.6260719,-0.47598505,-0.9702829,0.38270372,1.2806009,3.5121844,-1.4419374,-0.62760234,0.5976507,-0.6005546,-0.20055883,-1.3307443,-0.8820498,0.9050989,0.92900133,0.5058492,1.2541844,-0.047340438,-0.30031827,-2.8485684,-1.0455165,0.5900376,-1.1096739,-1.3100605,-1.3587137,0.8084757,-0.14902818,-0.057669777,1.9960097,0.60948646,1.8366755,-0.043946534,1.0762792,-0.8071815,0.13793327,2.1697788,2.3140504,1.1413165,2.9669714,2.0409837,-1.5857711,0.14528164,5.6717434,0.6327096,3.9831722,0.6026758,-3.9135075,1.2637986,0.9718306,-3.4662538,0.7002158,-6.4947066,-0.52031225,1.553312,0.9617508,1.3578948,3.1394114,-0.045166902,-0.6436028,-0.27843383,-1.3407128,1.4422722,0.9770282,0.48728517,0.4653301,0.18639052,1.2703832,-0.19623397,3.419996,1.828367,-0.4957666,2.1520858,-0.114593886,1.8958273,1.1912477,-4.6900597,1.249503,2.1854782,0.06607457,-1.301347,-1.0065796,0.30664384,3.168507,-2.583421,0.59964496,1.859829,1.9159893,3.7676332,1.9382235,0.7791272,-1.1937995,1.1601171,0.19602093,-5.1516,1.7766691,-0.40806708,1.5610967,2.0703573,-0.27375415,-3.5944088,1.0916191,0.85601705,2.0614133,-0.71182,-0.9611015,1.0344371,-1.1286354,2.879374,2.3761482,0.91568935,0.7241166,0.19445093,-5.378699,-2.114994,-1.4575397,0.03116737,-2.8394334,-1.5331109,2.5212502,1.5456579,-0.32564598,-0.7845855,0.82438356,-3.4935231,0.97153026,-5.2991877,-0.5512941,-0.23678145,-1.2518984,1.4104842,-1.3575189,1.0918553,0.1763017,-3.1614687,0.5799177,0.81953174,-2.0082724,-0.2213871,1.2527361,0.547286,-4.109214,0.47350273,0.8411338,-0.61351204,-0.6825603,0.8366752,-0.29054818,2.0510936,-0.19570561,0.8496789,-1.1867003,1.3803228,2.4183483,3.5708146,-2.2404633,-0.14264931,0.702213,1.0996189,-0.062034972,0.64235914,-1.2131584,4.2510786,-1.1460004,-5.304583,-4.934303,-1.9175094,-2.716945,0.53934145,1.8136476,-1.0322094,-6.4174676,-0.93995583,-4.1681495,0.5766501,1.8174961,-1.9846846,0.7087906,0.89934176,0.8630162,5.5398173,0.85112345,2.495228,0.8657043,-0.87818587,0.60694087,-1.4166647,0.44049594,-0.20239168,-0.48978683,-0.8620638,0.9206914,1.2673001,1.2575732,-0.5854843,0.29347587,0.5015755,0.6459567,0.43547928,2.1019957,1.4929141,-0.5138105,-1.646101,-1.5185721,2.7307122,-1.2722282,-1.7000271,1.8812149,0.12665394,1.4659358,-1.0517468,-2.067597,1.934714,0.70115685,-1.4712117,-1.1102237,0.7820225,-1.6124693,-0.88715106,0.27815396,0.38195303,1.2643006,1.8174199,2.1520557,0.32936907,-1.6557661,0.7461156,-0.93576187,5.255764,1.0762914,-0.94721234,0.6451889,-2.11717,-0.47003546,0.45731926,-0.23958921,0.64293295,-0.5807658,0.8203935,0.1079095,-0.9025031,3.9222658,3.690808,0.7827386,-2.259982,-0.40052938,0.8852047,-3.8528194,2.4472928,1.2442466,-2.3786073,-2.2221003,4.484898,-1.0086879,5.5360456,0.8147889,0.5952089,-0.48689744,2.4994688,-0.74711204,-0.047316004,-0.7015424,0.17606579,-1.1661253,-0.07363814,1.0305566,0.7805403,-0.6583389,-4.599192,1.9164908,0.10127348,-0.45380896,1.8038086,1.1297436,-1.4789678,-0.82804394,-1.6923304,-3.2969294,-0.007825009,-1.8226115,0.01864432,-1.7179173,-0.4009288,-0.91769236,-3.0647502,-0.55002373,0.30092332,0.64294636,1.5669248,0.28731614,0.3002643,-1.1176585,3.7044237,3.445726,0.7350508,0.8142696,0.7321176,-3.3147113,-1.9801402,5.7685704,-0.2582907,5.487438,0.5565966,0.8898701,-1.2532257,-0.03268547,-5.3960667,1.6691955,-1.9094818,-1.672949,1.6877974,-0.93228346,0.528703,1.440047,-1.2460717,-0.94943196,1.125732,-0.38986588,0.36397302,0.12762302,1.5745962,-0.5429042,-1.7655109,1.1329283,0.699542,2.7052314,0.72736216,-0.08594856,1.2940315,-0.9165658,-0.8595193,0.91438186,-0.552104,0.96685404,-0.64239967,-0.8713437,-1.1465923,-0.3475046,0.7320167,1.1904054,1.9022709,-3.4246187,1.9988511,1.5709014,1.100617,0.5030519,-0.46245846,0.39321497,1.8560432,1.6055634,-2.3560898,1.1970141,-0.52988666,1.5853938,0.23152044,-1.1713166,-5.7239223,-1.6647444,-1.3439242,-0.038996506,-0.2232564,-1.1676288,1.3454838,-1.0583386,0.8269072,-0.97027373,0.84464014,0.7596585,0.362335,-3.183278,-6.909495,-0.062993094,-0.8305724,1.6006789,0.58413583,-1.0778513,6.9700155,1.9448999,-0.6784921,1.8477937,0.08559697,0.454331,-6.3859205,0.5804996,1.0453529,-1.6693357,4.178483,0.12917905,0.87587696,4.2562437,1.4085267,-0.54963744,2.2123222,-0.60824656,0.18727428,1.1889467,3.1067913,-2.9118042,0.5443064,-1.6162938,0.24437803,0.12562001,0.8480024,0.39705727,-0.44466013,-3.2807496,0.656602,-0.16486627,-1.9046233,-0.5935546,1.8527606,0.103720725,-0.7939693,1.0371162,0.9299947,0.15976487,1.775612,-1.3379285,4.159082,-0.47784966,-6.524189,-4.2481728,-0.060284905,0.48007065,1.3235012,0.4084679,-0.6723266,-1.5364954,0.41461435,-7.568164,0.20854266,-1.462558,2.5304706,1.7018335,-3.7714493,-1.8657082,0.3709751,0.009941703,2.140611,-0.9593013,1.3011919,2.4637868,-0.75960875,-0.42168579,4.4509034,-0.636809,0.8630148,-1.2650946,-1.3631587,-0.8965926,-4.5796075,-1.7303741,1.1968348,2.3342698,0.78745043,1.7744074,2.606547,-0.5112059,1.6400721,1.1350065,-2.0358481,0.46300307,1.5690073,0.1528477,0.74119264,0.4677627,-0.60241324,-1.8171475,-0.71755606,2.6037452,-2.4057417,-0.33243015,0.3402662,2.2602394,-0.46237573,-1.036618,0.6640454,-1.2614824,-0.3165938,1.408133,0.056006104,0.38717794,-0.21161546,-1.4765196,2.318096,2.1031199,0.45948118,2.7627246,-3.5574553,-0.34342974,-1.5954862,-1.7908831,1.3466182,1.4982185,-1.3995241,0.89519656,-2.3228507,1.85061,0.7296786,-0.73111224,-1.5515225,-0.034623694,-0.5924671,-0.22834225,-0.15509546,-1.2565384,-3.76228,2.9622355,4.258106,-0.7810342,1.3218604,-0.04890583,-1.5726801,-2.6180923,-0.21672791,-2.4717498,-1.8117299,-1.8418202,1.161023,0.56081194,-0.799536,-1.1611016,0.4664862,-0.09710172,-2.271965,0.004448863,-0.38113654,-0.27439266,0.2292986,0.07685019,-3.6905684,-2.3750613,1.301366,-1.1339914,-1.0292355,-1.305259,0.76130867,-0.039665192,1.5416902,0.05768632,-1.3800142,0.16331516,-1.0005884,-0.5413861,-0.47068465,2.0257885,-0.20742294,-2.451263,1.0790892,-1.4736415,-0.90047395,1.1506706,-0.3631146,-2.1115072,-2.5261488,3.5003085,-2.3693445,1.7959423,0.10246977,4.3397856,-1.4409544,0.756059,-0.5945816,1.8553914,4.0836515,-1.3272213,0.71838063,-0.8262969,-0.63759005,-1.5215111,-0.70889026,1.013055,1.7266039,-2.033925,-0.9844169,-0.010004383,2.511038,0.029612603,-1.7152559,0.7160779,-0.0451084,0.93071735,-0.56513476,1.114194,-1.1549107,-1.9053091,-1.5189942,-1.1176777,2.5934496,-1.0388634,0.3065693,-0.0844798,2.4492865,-1.0973235,-0.8576786,0.11106251,5.8169746,-3.8996499,1.0433352,2.4239845,3.934663,-0.9420563,1.1042552,-0.3739231,0.8636491,-1.1750555,-1.7667348,-0.057942618,-0.0073230136,3.856744,-0.94103956,0.90208316,-7.0252156,0.80833626,1.1101332,0.99036455,-0.119805746,1.324669,0.0086370185,-0.71097785,1.744471,2.7998924,0.26267108,0.94788307,-0.03250726,-6.552244,-3.4959333,-1.1083057,1.5503116,-1.9250891,-1.1813655,2.2027633,-0.04339413,-1.0872678,-0.25538027,4.441224,-3.768012,-0.16693388,-6.730622,-0.6906384,-0.5823861,-0.06964008,1.5681392,-0.7876739,-0.12250381,0.8673238,-1.6394897,2.1262379,1.7691592,-2.0470247,-0.97070384,0.18972646,3.4381225,-1.4674418,-0.10211559,1.2895683,0.3439469,-0.047901146,0.26302433,-0.76300406,2.692441,1.5092225,0.31075197,2.1407802,-0.8531303,0.9732163,1.707301,2.1110787,2.3169866,1.7775248,-0.27958035,0.2743522,0.9922797,0.6233731,1.9449345,0.31311405,-6.2348504,-7.6006455,-0.6536244,-0.64824337,1.149253,3.5379405,0.7752243,-6.402503,-0.5683332,-7.5108914,-0.8933135,-1.481489,-1.0704354,0.18520965,2.5447571,1.0889024,-1.3640063,-0.44626498,0.5869533,1.1765947,1.1869115,1.0471452,-1.154169,2.828255,3.0515254,-0.43063352,-0.46558666,0.51372313,1.7357453,0.47896975,-3.286764,1.0857,-0.40149653,0.9560956,0.37682155,4.5263634,-0.89207226,0.6091768,1.4118248,-1.2983935,0.8220484,-1.43171,-0.8552833,0.9168704,1.9425857,0.2513113,0.23515421,-2.6200004,0.19592597,0.60158104,-0.0049623493,0.12859203,2.0500896,1.7206879,0.3973064,0.81893575,-0.114897,-1.2394218,0.31130856,0.4366608,-0.059765346,0.20035113,-0.6406204,1.3389901,0.07614513,2.0684173,2.3778908,3.0364985,0.95346373,-0.15016969,-0.6136914,0.9094147,0.30133817,1.629115,-1.2624229,0.9018389,-1.5233961,-0.6967647,-3.575661,-0.8896413,1.2341188,0.48788062,-1.4796954,2.3053281,0.07861651,-2.2732036,0.65164703,2.7563183,2.4279206,0.24008065,-2.8665485,-0.56195796,-0.95011336,-0.2584964,0.057998743,0.1453067,-0.67089444,-1.1028242,1.7546068,1.6989025,0.37827688,-1.8703079,0.08381759,0.10513742,-1.6625962,-1.5225313,0.05654907,0.5648334,0.6233521,0.79875183,-2.021895,-0.22203872,0.45121053,3.3483443,-1.080946,2.3963091,0.66057116,-0.22325335,2.0150373,-0.58043337,2.919076,-0.2743234,-0.57630074,-1.0379889,0.23581807,0.29622462,-0.11997266,1.4084377,-2.452139,-3.144992,0.38761672,2.5565827,0.17894056,0.6213981,1.4137847,0.45262665,0.81793547,-1.138103,0.32792,2.6406963,-1.3033291,0.3346593,-0.38544983,1.5516748,-0.25010827,0.15303108,-0.4280048,0.56682706,1.3819377,0.62743694,-1.3804297,2.9304311,0.7907522,0.7855226,-0.42145365,0.2799394,2.1586304,1.0717357,-1.6493415,0.54753333,0.053992562,0.89584976,0.28292924,1.6037782,-1.6989555,2.13276,2.0985916,-2.2385483,-0.37825465,-2.0841796,0.2538012,0.28677252,1.6423459,0.16898398,1.1900489,-1.3266505,4.0849442,-1.3363693,0.6075636,-0.8091201,1.358288,0.05226419,-0.5955115,0.5254539,2.129879,1.764731,1.3867986,1.8932952,-0.572791,1.4003626,2.4518602,0.58671474,-0.6199457,0.060776282,0.4106796,-0.06520453,-0.024828197,0.15911144,-0.12860838,0.73460215,0.8717019,-1.5830344,0.76053643,-2.4220595,-1.4442403,-0.99735546,0.3945305,-1.0396934,-1.015374,-2.5220385,-1.334361,0.5388073,3.6210897,-2.4233813,-0.08637217,0.7101446,0.03583299,1.5201585,-2.3045983,-0.5069826,-0.09316174,0.5671051,-0.09015359,1.4369051,0.041290075,0.73350483,-2.4274094,-0.3488009,-2.3251257,-1.7510859,0.19420086,-0.15774505,-3.0921721,-0.07851304,1.0737364,-0.9335403,-1.3455956,0.47069386,-1.1091206,0.41181672,-0.8819864,0.12040813,-0.14661767,2.615255,-2.827038,-1.1002748,1.0370831,1.0911707,2.249262,0.45120892,-0.36285317,-0.0055881613,4.858786,2.2259688,-0.6904718,1.0199119,2.68551,3.6792362,-0.4279178,1.423105,1.9601212,-0.5381924,-0.08515527,1.3273299,1.5930846,0.0473999,0.8233337,1.7669352,-1.744317,-0.64917827,-5.816882,0.96001226,-2.068223,-0.0695201,2.3088431,-0.73279893,3.6160805,1.6113212,-2.7509654,0.39893916,3.5053635,-0.2296192,-0.17985614,-1.2624801,-0.13785033,0.20840265,-3.1802113,-0.72851926,-2.4315917,2.8281727,1.3531418,0.8811601,2.6750767,1.5795025,3.405516,-1.1982682,0.6716078,-1.3955963,0.6014494,0.38113138,-1.9191386,-0.6290368,-2.8035145,2.755143,2.0371494,-1.3624667,-0.5678594,-0.53893876,-2.4230382,-3.0973837,0.18952648,0.45994428,-0.30938584,0.3626819,3.220272,0.61409533,1.0682409,-2.1731064,-1.5125124,0.9300958,5.2921295,0.7561957,-0.52053064,-1.7512306,-0.031117786,-0.71414584,0.81108195,0.58349895,-0.8618311,0.033338517,1.0294336,0.5008434,1.0155165,3.7265246,1.3490462,0.9823413,1.227111,1.3743936,2.1118567,-2.3130977,-3.8721871,1.5276376,0.020626077,-2.433201,1.9174981,-1.0506196,4.0426397,1.465874,0.511429,-1.0068686,-2.4541008,0.21155752,0.48049814,0.026745884,1.9575244,0.37456176,-2.5459042,1.7671632,1.6525265,0.411775,-2.2717354,0.08469358,0.32903922,0.4844588,-0.3538836,0.8583846,-0.041976478,0.13233961,-1.0752499,1.9384785,-0.5008986,-0.072532326,-0.7152552,-1.5481145,-3.3676167,-1.9894075,0.6026997,0.67619485,0.77574694,1.57246,-4.7374845,-1.3439517,-5.4571047,0.45758572,4.951446,2.7148547,0.60787714,1.2493168,0.2552346,-1.8922051,1.3896772,3.9091804,-0.14678492,6.253462,0.34408697,-2.5594122,1.4460367,0.025306592,-0.10277756,1.2474543,-5.9611025,-0.45187694,-0.11834772,0.104646996,-0.36154902,0.8599411,1.0824165,-0.35946772,-2.096866,1.2339025,0.6346638,0.5917417,1.0073178,-0.23038533,0.770031,0.9228356,0.20816955,-0.14988329,1.2668871,-2.7964087,0.2057829,1.1796283,-0.4062362,1.7236539,-2.0603921,1.760818,0.5304227,-1.0598559,-1.322901,-0.3674721,-0.8674964,1.9229301,-0.6444774,-1.1347069,1.4522805,-0.23062806,-0.3361451,1.7237641,0.080384955,-0.33357012,1.3133489,1.0583568,-0.8643819,1.1808506,-0.9990742,-0.08517468,1.4480157,0.16222705,0.61472845,0.35352856,0.6610181,1.0163822,0.8402147,-1.1405964,-0.66478884,0.108400606,3.7693543,1.4581038,-0.38256356,-1.7813057,-0.1688916,-0.3325084,0.53647536,-1.1778572,-0.27124953,-4.225583,-1.8829374,1.4519771,-0.8734869,-3.2592375,0.69766545,2.3835733,-2.536253,1.7190105,-0.3826147,-1.4155512,-1.5938318,-1.2756125,-3.5683498,1.7048832,-0.33140677,0.9138809,-3.6366422,0.4031825,-6.0527773,-2.2583754,1.148353,1.4276593,-4.4668727,-2.2699287,0.81683236,-0.19875859,-1.6172674,-1.2007172,-0.7408189,0.510298,0.90017366,1.3712054,0.97182727,0.051039882,-1.6509899,1.1058068,1.304382,-2.80969,1.070296,1.1892543,-0.05031342,-0.6083684,0.6625253,-2.2141347,-2.115068,1.046789,2.2415555,2.896451,-2.3151538,-2.1082957,0.529748,1.2987674,0.4688882,0.5018889,0.4922449,-0.110324904,1.3160667,2.0994134,-4.4888124,-0.475688,-1.9923321,0.3222557,3.372459,1.4512026,1.0946689,0.14336292,1.7423172,-0.37897453,-2.114508,0.72272384,-0.86124265,0.07953409,-1.7267783,-0.14965306,0.8114817,0.4903781,0.8700747,-1.7930602,-3.9573967,0.26186103,0.55966794,-3.9795675,0.9896876,0.5794937,1.9948165,-2.6726396,5.762801,-2.401313,1.6855496,0.61247927,2.140766,0.4124502,-5.695978,2.3399067,3.2471447,-4.7467747,-3.102348,2.1157281,2.070588,-0.031437367,1.7170162,-1.8209083,-0.34379518,-1.232687,-4.7917395,-0.955657,0.5461366,1.9389371,-1.2773001,0.19392148,-3.1500466,0.6382405,0.81638813,0.48806807,1.0571622,0.37491137,0.36824122,-1.2188052,-0.95477444,2.2913327,-0.024629986,1.8112236,0.6545855,-3.7745368,-2.120255,-1.0713496,1.2291169,0.2701555,-0.16647783,1.6800942,-0.9480179,0.24564573,0.935397,2.4040744,-2.7501817,0.47623882,-3.8462126,-0.22314608,-1.4733112,-0.92521477,0.6455614,-0.6583948,0.56224597,0.21496199,0.67502254,0.93922615,2.7371001,-0.44409972,-0.4564684,0.7719538,4.1877613,-1.2446895,-0.022449173,1.5146834,-0.43346334,-1.6149356,0.8804075,-0.59263206,2.2984748,0.13653268,1.0102015,-2.1416948,1.7830185,2.3754385,1.989012,0.76200634,0.29717812,0.8956997,0.34666252,0.29154104,-0.89578104,1.5228153,2.5360148,-0.07048491,-5.487589,-8.568899,-1.2767318,0.68147326,-0.6003768,5.084071,1.1496482,-6.4725857,-1.4407623,-4.6218724,-0.2575057,-0.10469367,0.165115,1.0041442,6.8164053,-0.24175721,3.1526577,0.63048995,-0.24803627,1.7351847,-1.4290289,-0.27902663,1.3027563,1.0869906,-1.595984,0.13377559,-1.301144,1.0835632,0.374731,0.18059792,1.1103641,0.4825293,1.5696262,-2.0248866,-0.4992773,5.26115,-1.2950718,-0.44964617,-1.9377097,-1.046968,-1.3863853,-0.7838927,-0.53195405,1.1009014,1.7680072,1.1651161,0.59909374,-5.173644,-0.36195278,0.0039744605,-0.19976747,-0.59580755,1.8255023,-1.5239147,-0.5084862,-0.31927824,1.065153,1.773059,2.9898443,1.8856225,0.1602068,-0.29371732,0.23193811,-0.76285887,4.1704383,0.2343124,-1.3507698,0.8183956,-3.347315,0.9534409,0.20872854,-1.5360678,1.7542858,-0.15659913,0.18961518,-0.07503758,0.13970862,3.085798,4.5278873,0.252907,-1.911905,-0.6859682,1.1749164,-4.542921,3.1536062,1.1700728,-3.262351,-0.77807975,2.1373498,-1.0650606,5.199982,0.63310534,-0.056068398,0.52184623,2.5502834,-1.394415,-0.48033306,0.8031376,-0.4293555,-0.893556,-0.43540654,0.7651146,-0.22954735,-0.74185646,-3.0747774,2.964048,-0.49377337,-0.1486076,2.7413876,0.73678553,-0.509902,-1.6627461,-1.4694204,-2.9524775,0.50443316,-1.8494214,-0.5723757,-1.6680218,-0.21084796,0.5466385,-2.263104,0.44187498,-0.103159875,0.747731,1.1689812,0.29477304,0.47044536,-2.1397676,4.508621,3.510027,0.6192575,0.29096892,0.35857487,-1.7321068,-2.9072225,4.5515046,-1.5477129,4.4307313,-0.22063328,-0.3243279,-0.60390306,-0.15747368,-3.1520317,0.95249695,-0.96759313,-2.6133504,1.4584835,-0.48820943,0.7131235,1.5083863,-0.7079217,-0.71596915,2.508525,-0.33252808,-0.2722331,0.06937788,1.3738716,-0.98756564,-0.7317471,0.47274858,0.33933645,2.8224807,-0.10571112,0.14165086,0.51513386,-0.53601265,-1.220426,1.2300478,1.172286,1.0400325,-0.09122679,-1.0531601,0.16513857,-1.4797997,0.00567405,2.3711534,2.393346,-1.2407292,0.809754,-2.4476686,-0.52957785,-1.5554264,-1.4878395,0.6139419,2.1574337,2.7970464,1.7946465,1.573258,-1.4363506,-0.36332762,3.0701034,0.8738406,-0.050005835,-0.6212779,-0.194136,-2.2383826,0.1568657,1.1920694,0.05658655,0.9940145,-1.5706581,-3.4220386,1.2572021,-3.0064206,-1.8760583,0.46130133,4.0032244,-0.5925308,0.2970553,-2.8241508,-1.3084351,-1.732351,2.6774151,-1.9533458,0.09028985,-1.4325926,-0.023157744,0.40195566,1.1394639,-1.0631733,-0.04074345,0.7548355,1.1927834,1.4290595,-0.02392904,-0.029259821,-2.8763878,-0.11822172,-2.0535123,-1.2320337,-0.018820733,-0.14758997,-4.1411653,2.2235177,0.8536122,-2.1168761,0.84379715,0.22110556,-0.65798616,0.13549878,-1.3977953,0.005179411,0.2592983,1.8370066,-4.6722875,-1.3084444,-1.296251,1.479403,1.5785761,-0.36860326,-0.27083388,0.5045513,3.4502878,3.1218605,-0.8521743,1.3721611,4.9541373,4.214612,0.19562428,1.5979826,2.2057343,-0.6454023,0.13503928,2.0809846,1.7734883,2.6641023,0.48407125,1.051464,-1.54917,-1.686083,-6.900231,0.7297986,-3.0512125,-0.77645993,2.2962625,-1.6047158,3.3517277,2.0542655,-3.728691,0.25449395,3.2229068,0.5158379,0.056068547,-2.2412212,-1.3658108,-0.114522085,-2.5567415,-1.1749372,-2.691991,2.7821977,1.6133312,0.77178353,3.2678761,1.7220165,3.6799498,-0.7369868,-2.0534406,-1.1040003,-0.3920047,-0.07200104,-3.2198417,-1.0439469,-2.5863986,2.73711,-0.6502082,-2.120687,-0.39122418,1.1476887,2.2272758,-3.167815,1.6249518,-0.75950235,0.14785959,-1.3234538,-2.3024118,-0.52843946,0.8348068,0.9135763,-1.9985428,-0.4599809,0.09195156,0.09458381,-1.0263715,-1.2322983,-0.7289449,0.83165437,-0.18245621,-2.6184304,-0.51918805,-1.068903,-0.7690316,0.88744056,1.5461642,-1.3614901,-0.9317974,-0.40729755,0.28602982,0.4617408,1.1892163,-0.8554647,0.8407198,2.3213582,-1.0235018,0.7307692,2.1429427,-0.78125,-0.38458845,0.23408909,-0.38562706,0.23731187,3.4415832,-0.651294,-0.75110066,1.4716604,0.42146325,-0.14090434,4.843332,-0.07616326,0.5029722,-0.037071586,1.9331778,0.60238874,-0.7485332,1.618851,1.8513263,-0.4584421,0.1089906,-1.9645998,-1.0583822,-2.3809505,0.01477423,-0.6208838,-0.8611326,-1.4368951,0.13942638,0.7527793,-1.4032562,2.6279547,-1.0518453,1.1508552,-0.72775465,4.28299,0.8889523,-1.4869639,0.065694,-1.8785417,-0.7394533,2.7418303,-0.8075568,1.2787877,-1.1353767,-0.25408927,-2.4039876,-0.32487616,-0.08880267,-1.5318218,2.0149577,1.6918823,-0.54071707,-0.08945781,-5.344265,-1.0491774,-0.13404258,1.0101688,-0.11943131,0.9048038,1.7290221,-0.54486316,1.3464962,0.16069663,-0.16068499,0.4497664,1.3228819,-0.9723256,1.7421952,1.0367327,1.1637615,-1.333124,-1.3060622,4.793765,-1.4999272,-0.5476304,-2.3968456,0.22411348,-4.486544,0.45388085,0.8278247,-0.6837247,0.17450349,-0.5268228,3.724165,-0.027761765,-2.1515927,2.4668953,0.075738,0.45214558,2.0425646,1.7004275,-0.6254172,-0.24920884,-1.7439326,0.09568633,0.2547004,-0.21391538,-0.6040448,-0.71577084,-0.48646206,2.1299632,-0.91033983,1.1912473,1.1394966,1.1572293,2.3491197,1.4097407,0.9557294,1.0818911,0.5804164,3.1209486,0.38024247,1.2930363,0.63273203,0.63679105,2.2863274,-0.031997114,1.686406,-0.41967386,0.10267015,-0.9979831,-6.664701,-0.70520604,2.4498236,1.2270893,-2.39031,-1.3464391,1.7016512,-0.7849027,-0.87452036,-0.8572044,-0.095931776,1.1934994,0.90545213,-0.6550876,-0.67058724,0.83628213,0.5759624,0.5780464,0.9128151,1.0699344,-3.9003475,0.45707712,0.32433286,-0.030693889,0.10360866,0.58183545,0.11143835,0.40859202,1.7187421,3.9066234,-0.028473273,-1.0725554,1.5516424,0.9382044,-3.8449686,-1.0423838,2.1484041,-1.0692477,1.3085403,0.101439215,-4.176405,-0.16540329,-5.918372,1.752903,0.16032358,-1.546706,-0.1627854,-1.6938187,0.028541202,1.0530562,2.2768784,-2.466162,0.43321535,-1.3689556,0.32303926,2.4312723,-0.03939942,-0.817492,3.4315977,1.344378,0.74098796,-0.03828805,-1.2443087,-0.16501324,-0.48007503,-0.050254643,0.19969487,1.2941226,-0.3687341,0.9683876,-0.45972973,-0.017708223,1.0827389,0.7081946,0.5789709,0.040108275,0.51099485,-1.165827,0.9377128,0.50752413,-1.1825508,1.0675907,0.73340863,0.484523,1.3784348,0.3261065,-0.8570116,0.19367608,1.246788,0.16942044,0.3267405,-1.3980464,3.5445204,-3.741694,0.35036457,0.39469987,3.3138866,-4.0340567,0.99560905,-0.80046564,-1.8032397,-0.03981052,0.2315803,-2.4036083,0.62258,1.8772553,-1.2452945,1.7599391,-2.5465858,0.210872,0.5424884,-1.9052045,-0.087553896,3.443762,-0.42453793,0.6728976,-0.18873943,-1.9552652,-0.25648126,-1.2849541,0.8463478,-4.097231,-1.0803072,-0.023642868,0.7961306,-0.59972167,0.26884088,-1.6265509,-1.0641276,1.0049202,0.3174696,0.14841606,-3.6066978,-2.8969781,-2.9945133,-0.29539934,-0.7861403,1.5812213,-1.4274973,-0.36271194,-1.1103483,0.8946248,-1.05021,0.1152635,1.5785246,-0.13257834,-1.6715591,-2.0610003,2.3883116,-0.24583438,-1.8556772,1.264795,0.53132766,-0.27633998,0.2215728,-3.1280305,-0.8096045,0.14062935,1.4736947,1.0489343,-2.1446228,-0.007776228,-1.2747078,2.0663726,1.6457419,1.638252,-1.4277747,1.104077,0.50421894,3.0467677,-1.2630368,0.6895112,-0.19184524,0.36804247,-0.520305,1.8847725,-0.28704196,2.2861974,0.12281561,-3.818958,-0.6174373,-2.1200247,-2.1384673,-2.7060094,0.5196566,-1.3669763,2.2442732,0.49493554,-6.4350696,-2.7794294,-1.6764575,0.8767152,0.6904557,0.69127357,1.0589747,1.9786183,0.6502934,0.61681724,-0.29623196,-0.1436923,0.39183623,-0.7532975,2.808138,1.0211532,-2.4278703,-1.4028383,-1.1048206,3.3670006,-1.0282415,1.5342678,0.30972362,0.8319998,-5.235164,0.42851895,0.064557455,-1.0280699,-0.79406595,-1.8896564,1.8744215,1.2071986,-2.0967312,2.082527,0.54205614,-0.059272658,-0.41266996,0.4720447,0.23566967,-0.29156518,1.5951949,0.43511206,-2.6773849,1.0866892,0.21424891,-0.37844804,0.42186913,-2.3435917,0.13818857,-2.1747444,-2.841549,-0.48544994,-1.2545156,-0.7854187,1.0047187,-2.8452792,-0.9796601,-2.3638828,0.68833804,-0.67831653,0.18169299,0.7985847,-4.5174694,0.15334986,-1.122179,1.9693055,1.8369918,-0.05806823,6.789588,3.1129782,-2.1318293,-0.5204112,4.3008747,1.3049339,-2.2845802,1.5743614,0.69275886,-0.84889996,5.328524,-0.55668545,0.4937506,1.6545856,3.0375092,-0.8106525,1.9643037,0.34149346,-0.2936219,1.2387322,2.527573,-2.4042199,0.5119904,-1.0254906,2.189793,-1.2381885,0.4940281,0.8293177,-0.12887481,-3.7998755,0.39756802,-0.84104294,-1.5135627,0.42443287,2.6227844,-1.132663,-2.7946286,-0.1076844,0.7563889,0.018883832,1.4243923,0.14858396,5.6269035,-2.124517,-4.059104,-2.9570944,-0.1367152,2.6419194,0.38755715,-0.24391869,-1.7795374,1.6091121,-1.0024322,-1.2096332,0.17388485,-0.68711877,2.475522,2.2571304,-2.7069273,-2.6025774,-0.22305019,0.5246399,1.7165868,-0.3970941,0.19552149,1.5951132,0.6464392,-2.0213332,1.5816847,-1.1243879,0.11044175,-0.6007896,-1.56573,-1.3975936,-2.9096544,-0.76611245,2.4738476,1.4148806,0.34363404,1.1286923,1.9829303,-1.7407739,-0.7463566,1.1837875,-1.7394867,0.9605759,-0.15291926,0.23625389,-0.5376978,1.947561,1.1029984,-2.3639152,-1.1586957,1.7498959,-0.90900266,-0.16817078,-1.8696616,1.1983707,-0.19784553,0.8540729,0.8092226,0.54333794,2.226119,0.35202417,-0.5948166,2.3570888,1.8237296,0.17654943,-0.8004713,0.5571011,1.5620499,1.4614905,0.48397127,-0.9051209,-1.7841377,1.1489744,1.927931,0.7467511,-1.3396133,-1.8689231,-1.6842693,-2.25261,-0.16590112,-1.6505327,-1.1129924,-2.2711751,-3.9082663,2.0742629,0.28536603,-4.886807,0.52849865,3.9094927,-1.0347712,1.2175256,-2.3104112,-2.0018733,-0.83338445,-0.24308924,-7.0523214,1.4908546,-1.1651108,0.61802727,-1.6231163,-0.09722535,-4.418308,-3.7220984,0.05164431,-0.10464234,-2.8474107,0.56752634,0.47910675,-0.5425584,-4.57391,0.5807002,-1.8043197,-0.16014645,-0.032350518,2.076821,0.43298495,3.405047,-1.6469423,0.54867685,1.4125309,2.8705838,2.2533123,0.76769805,-1.111518,-1.4415375,3.2802947,0.040337127,-1.8614312,1.4751432,1.2751884,1.0374291,-0.75151306,-2.2569423,0.81064415,2.4797144,0.68434167,0.36388153,1.7403488,-2.6569831,0.36465546,3.0845723,-4.3305535,-1.6037664,-2.3710372,0.7582274,3.5990212,0.21764086,0.1746527,0.25486034,2.977611,-0.51123136,-3.4214702,1.2134447,0.5396265,-0.98396295,-0.4479054,-0.41279027,0.83208597,0.8376383,-1.1286122,-1.2781796,-5.5426226,1.1299729,0.31220934,-2.303663,0.15675968,0.8807774,3.580141,-3.4179022,3.5476124,-3.6755152,2.6352794,0.8350507,1.4699004,-0.26846448,-3.275985,4.393085,3.3400154,-3.9432106,-1.2810564,1.5443511,4.9515076,1.079795,-0.84434545,-2.1085827,1.3817831,-0.104022,-4.0514045,2.3801227,-1.0340033,2.1482954,0.6630423,0.4236709,-4.9612093,1.1296664,0.486601,1.0227758,-0.55050194,0.6466462,1.1133972,-1.3978558,2.3390515,1.2979119,1.300551,0.11555412,-1.0514199,-5.478494,0.23755449,-2.002437,0.5640749,-4.6524386,-1.4695774,-0.17687115,1.2221651,-1.1509732,-1.0827861,0.88335514,-3.7537215,0.32134315,-2.3600461,-1.3725721,-1.4631335,0.7796186,2.8517098,-0.59930927,1.1787498,-2.1532502,-4.995197,1.4462395,1.8833386,-1.5203165,0.47257245,-0.5155131,-1.1047239,-1.2228189,0.7600261,-0.106040835,0.25194794,-0.6263356,-0.9478084,-0.70455945,1.4550145,-0.77779984,-0.61670244,-1.6871792,-0.29499045,0.4264167,1.2827073,-0.17980191,0.09504906,-0.44384563,0.7284676,-0.57615525,2.1031687,0.0935071,0.079168126,-1.4297495,-3.4503329,-3.769485,-1.3374507,-1.842771,1.3283284,-1.3617113,-1.5581056,-5.3034005,-0.9251388,-4.204226,0.45105398,2.1004217,-2.9023175,-0.72555536,-1.9691995,1.5962583,2.809613,-0.11671069,2.4898412,-0.8607973,0.8137586,1.8365473,-2.3079374,1.217823,2.6852582,0.5153458,-2.0439765,-0.6798268,1.3369697,0.3903563,-5.5415125,0.8864673,0.09875628,1.9487318,1.099207,3.5093517,0.88269657,0.044921953,-1.2285697,-1.5892391,2.246904,-1.3175756,-3.895341,0.6945517,-0.03479988,-1.3724481,0.5619442,-2.9978335,2.6991498,-1.1359816,0.15483943,0.016480096,-0.35320526,-0.34855172,1.2335904,-0.16603762,1.0251219,0.21906947,-3.0215034,0.5910703,0.49284324,-0.33901045,0.45862332,0.26496837,-1.5276476,-0.23596916,0.8781036,-0.5731996,1.6819797,-2.5675614,1.6153677,0.7996758,-0.37514168,-0.76850164,1.9585793,-1.5611186,1.6566634,-2.0863466,-2.7323368,-0.45828265,0.28336138,0.7699238,-0.054417722,-0.7448097,0.0874003,0.7142898,1.6603442,-2.772709,0.28724396,0.19221328,-3.165733,-0.3298742,0.31628457,3.232879,0.23861961,0.8280382,1.442661,0.29720584,0.82401913,-1.0293875,1.8312833,0.05177157,0.54165816,0.94846344,1.0968738,-2.2473269,1.1935662,1.3169727,-2.5693529,-0.79222804,1.4850131,0.26232755,-1.400234,-1.2558941,-0.017573796,-2.0553577,-1.1424075,0.84202045,-0.6290995,-1.2345797,-0.2704937,0.94500446,1.0263538,0.8528163,0.880208,0.3627851,0.5502706,1.8754619,-2.5854924,0.5398825,-0.8813698,1.8574599,1.7281662,0.52380264,2.2281792,-0.06928745,2.0787883,-2.4153972,1.6374832,-1.3121799,1.2062279,-0.49217167,-0.8730602,-0.63642454,-4.5784388,0.73182726,2.623074,1.1129876,1.8208506,2.3644574,0.13771786,-0.2687235,-2.8047292,0.7876144,0.2105066,0.29684064,-0.29025578,0.964278,0.20274997,0.39207187,-0.48683634,1.4638287,1.8015023,0.43907815,3.2898507,0.5704914,2.3851213,-0.350127,-0.5173743,0.07769261,-0.7728783,1.5001029,-2.9144552,-0.22594152,2.4570103,-1.633339,-0.8449308,2.7691417,0.0069255307,0.9524726,-2.8202913,-1.9587249,1.6155773,1.8891411,0.8305146,-1.0172514,-2.288597,-0.67873687,1.6792297,-0.81727993,-2.4927523,-0.30962932,-0.6769627,0.6554055,0.46688545,-0.828293,1.7968943,-1.7737231,2.2521892,0.8652801,-2.6549137,-1.0356756,1.5928981,0.6520811,0.2703387,-0.88345116,-6.320166,1.4124218,1.0640911,2.4181483,0.8206565,2.1872456,1.4750103,0.77877253,1.4292632,0.7791315,3.682722,1.340733,-5.1267447,1.6911281,2.1836727,-1.7068338,0.59620035,0.95894796,1.7893108,0.4581006,3.2740064,0.18475983,1.3397264,1.1099943,0.42083022,0.89706147,-0.6196648,-4.5755935,1.2306691,1.4657725,-1.2258735,1.5364127,-0.19655776,2.3392642,-0.4901359,1.2332962,-1.2291583,-0.18060622,1.2757152,-1.2574761,1.7943718,-2.71618,0.7502506,0.49471837,1.9069414,0.65192175,-0.14262958,-1.747651,-0.14210507,1.3537383,-3.0538507,-1.8699596,1.7179587,0.8006154,1.8161749,-2.034947,2.6116674,1.3262082,0.8221847,-2.3006446,0.6620027,-3.9468675,1.4450704,1.9987901,-0.08056161,0.2387886,-8.097405,1.8187921,0.14030574,1.193518,0.86553794,2.461809,-0.05949851,-0.551984,-0.09946898,0.4908598,2.3753564,1.9229206,-0.08053389,1.0261427,-1.5097963,1.5086337,1.9235895,2.4286697,2.1201913,-0.85586464,0.11338217,-0.021177066,1.8615605,0.8828426,-3.9203956,1.1134398,0.49805036,0.31931084,-0.747089,0.50021327,1.3486505,-1.6980828,-3.8197,-0.14212945,1.628431,-1.4947222,1.2786735,-1.9323665,-0.9195772,0.6528007,-0.68803394,2.0235863,4.9535847,1.5929072,-0.074871525,-1.977367,0.6227905,1.6156721,5.5992994,1.3432208,-0.014634475,-0.72970366,-0.28243238,2.1157095,0.5774436,1.2135512,0.09896114,-0.17740744,1.2254786,0.6951803,0.040103123,3.8642466,6.415437,1.0307326,0.48700163,-0.6535855,1.3616424,-4.07024,-0.664651,1.4332817,-0.5363776,-2.2587907,0.9659198,-1.8734895,6.693109,0.56801075,0.5084246,0.089746095,0.6173784,0.5998962,0.53483623,-0.90045977,-0.6255245,0.0034770267,-0.45561704,1.725087,1.8115809,0.17626935,-4.556337,2.9918737,0.3548215,-0.5114557,2.5705287,1.6399859,-0.28718084,-0.83546937,-1.2110509,1.083104,0.092966415,-0.3668719,-0.13345739,-1.5072951,-2.2422101,-0.43569496,0.8031535,-0.38595247,0.72990036,1.4526433,-0.9440602,0.83948654,-2.5234392,0.1735772,6.049626,5.312434,0.5850502,0.23439871,0.5765635,-2.4059603,-0.20442127,3.8256254,0.7452592,7.9286814,0.52738863,0.74635386,-0.6340724,-0.626915,-2.565158,2.4692616,-1.4966341,-1.7865975,0.79989594,-0.777842,0.56992114,1.0820093,0.5641647,0.13042325,1.1383054,1.7090465,0.5651102,-0.34322232,1.1502093,-0.049882837,-1.2183118,0.57705134,0.6071865,1.6091584,1.0730373,-0.46546248,0.5750473,1.9066232,-0.4508662,1.740641,-2.1310189,1.6227039,-0.49379677,-0.8443979,-0.5164818,-0.20905204,0.50321585,2.7784941,0.82184935,-2.6004121,1.5600684,3.9307077,3.0152588,-1.5543456,1.236743,0.2698352,0.7246969,-0.4207299,-0.04539412,-1.1365503,0.9267901,5.129635,-2.103129,0.80128103,-3.7643173,0.20090103,0.13348524,-0.13205072,-0.121356905,4.3720293,-0.5868535,-0.49557978,2.952224,4.3958783,-0.03742794,2.573669,0.40220642,-3.9172785,-1.7890048,-0.30392563,1.4322166,0.32114545,0.25593823,2.603872,-1.1158804,0.15512365,-0.11664322,4.675557,-2.660662,0.39946693,-4.815843,0.5191888,0.15640114,-0.116437994,0.35721126,-0.15941243,-0.7407185,1.9680971,0.58109593,2.1770957,2.2947698,-0.33886367,-0.83671886,-0.6137552,3.275896,-0.0103410175,-0.27952117,1.4321208,2.157951,0.06867975,0.15313645,-0.8846413,3.1863716,1.7063701,0.668294,3.5684512,-0.0034016338,0.34036815,1.1678439,4.0031385,1.7944565,1.947069,-0.85799855,0.536158,0.5548607,2.449452,-0.192752,-0.02371207,-2.2228272,-4.1515703,-0.41337237,0.43024564,0.5744041,1.6876435,0.37846744,-3.1667237,-0.79592925,-5.0522184,-0.98638695,-2.4329069,0.73991776,1.4705324,2.7439752,0.35576847,-1.3806882,-0.26696274,-0.6943322,1.2432736,1.100783,0.48768452,1.2246621,2.2803726,3.2849646,0.0126229,0.37587497,0.92390835,1.3599278,-0.2305385,1.7193446,0.60960764,0.3270969,-0.41166332,-0.15012124,4.9653473,-1.4339535,0.6948639,0.72698146,0.6342195,2.3579583,0.27609283,1.4880575,0.09006214,2.4518278,-0.6130088,0.2408588,0.60026205,-1.1984339,1.8677679,-0.39098424,-0.37327376,-3.105717,-1.4093583,0.9510116,-0.103468746,1.6356523,0.12823413,-2.5125272,0.94840336,1.1366062,-0.5858314,-0.39072773,-2.0539138,1.779278,-0.9114074,-1.454016,-1.1749152,-1.3325351,-2.42931,1.4007688,-1.6243948,-2.5260699,-2.9605591,1.8493998,-1.2604512,0.65118855,1.1429473,-2.5831716,0.92740613,-1.0477241,3.2567995,1.9937195,0.42497844,3.360686,3.1756384,-1.5057342,-1.7615383,4.7629433,1.6143415,-0.037462197,1.7891587,0.9490682,1.412577,0.8811881,-0.92920744,1.1440924,0.7950154,3.1725097,-1.4155825,1.8024566,0.853327,0.093955286,0.8777511,3.9940908,-0.21678962,1.0967563,0.6502758,-0.6587816,-0.8020719,0.6699638,0.70306206,-1.0682015,-3.6895661,0.14290303,-1.8099498,-1.2412406,0.18812467,2.0803068,0.27681512,-2.8337402,1.1390809,1.3418523,0.92624193,0.31425428,1.7974925,3.8904145,-1.7701033,-0.03891873,-0.52011335,0.53563356,3.6519074,0.8727712,-1.4912032,-0.94019574,3.259149,-0.7020662,2.8344655,0.5422779,-3.0146506,3.508678,0.9280773,-0.8228041,-1.509909,-3.619735,1.0451756,1.8655186,0.56955284,-0.8410677,1.5733553,0.5798321,-2.246432,-2.2203224,-1.0128112,0.6647505,0.5683596,-0.57253814,-0.3547189,-0.2906377,0.66405696,0.48675236,0.43339247,0.87990266,0.6837308,1.9403747,-1.9075097,-2.295816,1.4142315,-2.3800476,1.4376055,0.16958638,0.57942253,-1.9333327,1.5954201,3.2243545,-0.36792588,-3.568047,4.109847,0.87596023,0.06775652,-3.8861012,0.786056,0.76601374,0.114125974,1.1603552,-0.51805395,-3.2405457,0.60835767,0.5639285,-0.79745823,-1.9075651,-1.6006823,1.0902554,-0.56889915,-1.2027754,0.2403968,-0.77003354,-2.6740036,2.2689645,-1.3046063,-2.7860596,-2.5179102,1.7895296,0.19794177,0.11193895,1.4270763,-3.3908198,0.8168499,-0.5365951,3.339261,2.2657647,-0.27703515,3.6000245,2.8689332,-0.8569693,-1.428211,4.0769706,1.4967408,-1.1365615,1.5013299,1.0373462,-0.050950825,0.16090086,-1.2263386,1.527406,-0.2451355,4.0626006,-0.62829685,1.4880604,1.4134288,-0.012510692,1.3226277,3.039538,-1.6803919,0.79588723,0.42699003,-1.3092283,-0.5020995,0.42621854,1.293638,0.19878902,-2.145814,-0.21480864,-2.4825962,0.6245349,0.93978226,1.5162238,-1.1328067,-2.568808,-0.83524173,2.1665523,0.3914427,-0.31780192,0.23836443,3.2257848,-1.626954,-1.7682856,-2.8488934,0.29536474,2.2327797,0.3648012,-1.1843067,-0.37015924,1.7481896,-0.7343136,1.2282658,0.21999817,-1.7105064,2.1898487,1.9206791,0.4229502,-1.5913261,-0.17445216,1.1884956,1.1295948,0.396005,-1.2485431,1.9192109,0.39486346,-1.5721034,-3.4021122,-0.99024737,0.76597935,1.1094855,-0.7673062,-0.07671714,-1.0981495,0.23562144,2.087331,0.5575513,0.9791032,-0.103601314,0.2955426,-1.9410919,-2.6889815,1.5367136,-2.1184812,1.7259437,-1.1820488,0.9118548,-0.83719426,1.4328567,2.2727385,-2.431205,-1.5338356,1.1066945,0.3993596,-2.182722,0.17322709,1.3302333,-0.83990026,-0.45948932,2.0644505,1.3712175,-1.5216165,1.1656963,-1.2033273,-0.9020372,1.3219112,0.559724,2.959526,0.82203245,1.2100179,0.65100175,0.89894414,-1.6018808,-0.37006292,0.25366747,0.5391561,-0.9646695,0.2101641,-3.7437332,0.894013,1.1055336,0.016841343,-1.1481364,0.31592432,-4.0013113,-1.159544,0.33374736,-0.7026383,-2.8844502,0.640568,-2.4716341,0.25812218,1.2926614,-0.78946304,-1.519167,-1.6911125,-0.6948113,-2.1291962,1.9689608,0.087173276,1.1350162,-3.264196,0.26422998,-4.5919504,-1.5953269,1.4836818,1.0832915,-7.001175,-3.370575,1.0302762,-0.33729652,-0.7097633,-0.83596313,0.21318997,-0.10211391,-0.9601393,1.0777448,0.6955035,0.5251812,-2.869294,0.3541277,-1.4957045,-4.0449705,1.2004124,1.4919477,-0.03252178,0.93901753,0.40426046,1.5372185,-3.8067753,0.99602824,4.9096575,6.6558127,-2.5289412,0.59445167,0.79927504,-0.17212549,0.011457079,2.0421574,0.8036882,4.6369634,1.8603904,2.6048357,-3.2358856,-2.275321,-4.4192004,1.1754684,0.16974668,0.9486247,1.5871756,-0.5756329,2.192616,-0.31162223,-2.3074713,0.79566896,-1.5517232,0.82591903,-1.8275013,-0.9088188,1.3414868,0.8965383,1.4969226,-1.6448762,-4.0749326,-0.8929628,0.4709722,-1.4081486,1.2468691,1.2367032,2.0857117,-1.5931783,1.4836353,-1.6217575,0.91622776,0.7673694,-2.5648565,-0.24612331,-3.6901476,3.6106892,2.7803206,-2.2690399,-2.2967129,1.0412917,2.5954452,-0.37820864,0.6015024,0.7579036,0.19920272,0.26576883,1.2789211,0.6797555,0.18277116,2.7125416,-0.8543384,-0.57357305,-2.8721356,-1.5473945,-0.48908076,0.7555878,-1.9567468,-0.20625894,1.2260654,-0.06251873,2.3154707,-0.63661784,1.1987759,-3.207209,2.2134848,-3.5507572,-1.15337,0.538139,-1.4253654,-1.2551768,0.2466795,-0.79900396,2.4590373,2.0246656,-2.2581694,-2.450893,-2.0910687,-0.7270478,-2.412751,0.12391319,1.9325387,3.9552844,1.7155861,-1.3915188,1.0926012,2.1938553,-3.0753787,-0.949846,1.5134172,-0.27277175,-1.244433,-0.2530554,3.4346855,1.1318364,-0.6407189,0.7072863,-0.32804015,0.7594387,1.7946286,-0.493177,-1.4078465,-1.8853506,-0.36885938,0.42716488,-3.4102576,-1.1448482,1.2772299,3.1783493,0.1815803,1.6437685,0.6737419,0.71351117,1.9426452,0.3483904,2.8194108,-1.9330155,-2.2604585,1.1060729,0.59105337,0.19376372,0.518838,-0.08920163,-2.597787,-1.58531,0.4937789,-2.4037666,-1.4130769,-4.2519197,2.2571166,-1.8503437,-4.7173495,-1.3340966,-5.8166366,-0.9212449,0.98683673,0.90704703,1.0789592,1.9317765,-2.0018797,0.2365543,1.8110533,-1.4932742,1.4412082,-0.29297835,-0.9580211,-0.13095766,-0.7019377,0.19498292,-2.6064281,3.7176487,-0.043002445,0.08679693,1.4225469,-0.043592934,-0.62453306,1.229734,1.3226484,0.98413044,-0.90770257,0.54461014,-4.148096,-0.29600394,2.3706927,0.10497207,-1.791138,6.1542463,-0.045060378,-0.13279416,3.1560082,-2.2131717,0.6121844,-0.20429295,-1.2851976,0.68679506,1.953279,-1.6349711,0.7968396,1.8766861,-0.39152163,-0.72387195,1.1024444,-0.08430588,-1.178892,-0.29698014,-4.6858153,3.300273,-2.2485824,-2.3660882,0.542175,-0.9795961,-1.8594867,0.19277206,0.12558591,0.70834994,3.367382,0.13812523,-1.6334274,-0.6080825,0.7091383,-1.2579492,1.3380933,0.21503636,-4.6067004,1.4437412,0.63667256,-2.1192958,2.212694,0.6759468,-0.65464455,-0.33836296,2.7746117,-2.1895533,-2.6342025,1.521018,-0.42604864,-0.25345472,1.9401636,-0.17904812,-2.1396062,-2.6849394,0.3981321,2.35979,-2.453259,0.77074707,4.4584804,0.63848567,-1.0866563,-3.4926057,-2.0204535,-1.3503245,0.8754999,1.6991171,-0.75684726,-0.96030235,-0.50305605,3.2735348,-1.1314518,1.7690398,-2.8050437,0.8659332,1.3984466,3.7261608,-1.1911978,-2.8478684,3.6421773,2.0964236,0.66989034,0.3071522,-2.167489,0.49468464,-4.5894175,2.0387404,-2.9137669,1.0325298,-2.1210787,-0.075500704,-0.39791316,0.5235611,-0.24077071,0.8721553,-0.75275534,-3.7834055,-1.6920577,0.5182198,-0.09309396,-1.6758996,-0.017711738,0.19413927,3.0302052,-1.3363142,-0.27747616,0.29460287,1.1089714,-1.3624567,0.5977356,1.2326789,0.24870123,-3.080513,-2.8326967,3.3902676,-1.6138115,-0.76217014,-1.0353091,0.25503373,-2.6371086,0.13776669,1.3037511,-0.8613587,0.9658048,-2.3329275,0.89265597,3.1310024,-0.25275978,0.018331397,1.1412915,-1.0384543,-2.6064084,-0.9736512,0.41940853,-0.50526094,-2.855281,-0.113875866,2.6818547,-2.5310588,0.8014709,-2.9334762,-0.5919335,0.81050044,6.2570705,-1.6330318,-1.6618744,-0.6882542,1.8953254,2.8456376,-1.1412227,0.74017715,-2.5347974,0.5049875,-1.3924166,2.0778933,0.42912257,4.659411,5.621028,0.7503818,1.4868718,1.9125,0.636221,-4.1238427,-4.623638,0.90097624,1.8498524,-1.4139175,0.7375859,-1.4296178,6.6116047,0.38237572,-1.6781384,-0.60227275,-1.5049886,1.3229442,-0.9343818,-0.8161447,2.7498353,0.3652776,-2.2041383,1.5029591,-0.07900226,0.15017113,0.11692182,2.3173354,-0.46864378,0.1996926,2.749969,-0.4347644,0.23139368,0.18684883,-1.6120079,1.222182,0.44236773,-1.5493181,2.9481125,0.1892994,-5.974065,-0.90486604,0.226505,-0.9402942,-0.78067935,-0.10207473,-5.339569,0.27740955,-3.9094543,1.2965945,6.4561095,3.3794973,0.17103508,1.3845919,-1.8837221,1.8282608,1.5681653,1.8205209,0.61832756,6.6764135,-0.32716027,0.18041128,0.7222995,1.131468,4.1202564,-1.5756648,2.4977198,-0.14086163,-3.0199971,0.77355343,-1.2360941,-2.5535488,1.9765719,-2.0942323,-1.4415793,1.2538782,-0.91325295,1.0567952,-1.5444742,-0.7072877,4.348905,-0.17698807,1.9870543,-4.69967,-0.78141326,-1.2606168,-2.2290044,0.2929041,-0.6911006,0.69606453,-2.8067756,0.6992706,1.3989283,-1.0614927,1.5876403,0.10771315,-2.5297494,1.6170677,-2.6231709,-1.1495643,0.100586265,0.5465117,0.2043733,-1.869628,0.56826234,-1.3049904,1.5221031,0.4968874,-3.0234869,0.56686413,0.6474495,-1.6135602,-0.5848907,-1.1633537,-1.7565638,-0.8182639,-2.0678422,-0.97888905,-0.48199582,-2.122903,1.7358861,-2.0671766,-0.79476273,0.06205923,2.04865,1.9971635,1.9924865,-0.71047217,-4.169195,0.48635688,0.61832887,2.9169288,3.224147,0.35297534,1.5387703,2.9121947,-0.81756145,-0.11490728,0.20695107,0.730994,-2.2714508,2.0891483,-0.23326905,-2.249127,4.9878287,-0.7951854,1.2860389,1.4631076,3.1817198,0.19687873,3.1692817,1.9853523,1.027273,0.79793465,4.187488,-1.9307014,1.5024956,0.18958247,0.7624008,-1.3611885,2.2725224,0.96847916,0.19728348,-2.239991,0.76733977,-0.29285777,1.6629841,0.0772456,0.62083125,-1.0832658,-2.2416477,0.8541486,1.1979357,2.0355787,-1.0119653,-1.8696467,2.9153466,-1.5134035,-6.075702,-6.4116635,0.98637825,0.77704656,0.94811803,-0.4470801,0.05866701,0.016803514,-1.1243016,-4.045852,1.2359693,-2.037595,3.624055,1.100903,1.666455,-0.7316669,-4.6074824,1.0229605,1.8302191,0.287597,-1.2549338,2.055619,2.6817434,-1.983153,0.1373328,-0.10634102,-0.4468929,0.1844089,-0.5364327,-0.53307676,-3.6765566,0.26730564,3.5896757,0.087059185,1.3724617,2.677665,1.5533242,-1.505455,-2.620901,2.1589184,-1.5388132,2.3690567,-0.86196,0.16712289,1.4817101,1.0173551,1.5952932,-4.7116923,-3.0919652,1.6498092,0.2710921,1.1458511,2.9576836,0.7791166,0.39101806,0.9029672,-0.015962297,0.3054842,1.8755857,0.18374383,-0.7510759,3.7368662,-2.6709044,0.2100855,-4.288287,-1.3939406,-0.49394628,1.1622036,-0.9807972,1.7917947,1.5724386,0.16764702,0.5051776,-0.25906882,0.8844745,-1.9246562,1.4785302,-2.8796675,1.7182119,0.18396664,-0.61613333,0.099515684,-0.40377465,0.5514565,0.99697477,1.5082009,-1.0827057,-0.5482677,-1.6829036,-0.0572909,-1.2977002,-0.95303047,1.6866045,4.2511826,2.69622,-0.23856305,1.675169,1.9146106,-1.3190713,0.15625422,3.316933,-0.434207,-0.772669,0.09763119,5.0345173,3.1861303,-1.1578926,-0.05939574,1.2070788,0.92772037,1.3995266,-0.44323775,-0.46738186,0.2895487,0.17694579,1.3850995,-2.9883225,-0.52196926,1.8077517,4.5991683,1.5598705,0.66473466,1.1713341,0.59951085,3.0122752,3.2469108,3.128983,-0.6976299,-0.17812903,-0.034508202,0.38932216,0.9832967,0.59554,3.33313,-1.437988,-1.5834051,1.7843693,-2.7944186,-1.9572284,-4.350224,1.9485594,-1.2019022,-2.0091705,-1.4844252,-4.3593,-0.43260416,-0.971306,0.68971705,2.5066314,2.1859996,-1.6088318,0.80454683,2.1438766,-0.64637476,1.3187308,-0.8741903,-1.1150631,-0.63742614,0.38155183,-0.7307595,-1.9512146,4.5597954,-0.18090785,2.9701395,-1.6777486,1.0773063,1.51298,0.8160767,-0.9904625,0.4215935,-0.042221203,0.18579969,-3.397439,0.07469884,2.8800237,-0.19858551,-3.1250653,5.0136347,-0.56953484,3.8742692,3.114012,-1.9806919,1.9009427,0.24192534,0.20624645,-0.66907346,0.2611816,-1.5162642,1.3490925,4.3412423,-2.2924178,1.2791549,-5.4272013,0.20003368,0.22897255,-0.21022446,0.36074385,3.1955328,-0.13003895,-0.2547847,2.9798732,3.610731,0.12839721,2.783344,0.39362684,-5.045683,-3.78301,-0.0027116276,1.6885569,0.8640453,0.29124796,2.0450013,-0.9681548,-0.061938573,0.546583,5.091231,-4.254637,-0.24712633,-6.080176,0.65649724,0.4126792,-0.27646583,-0.72000223,-0.36599287,-0.34688243,1.4678997,0.94637287,2.3507388,1.7198526,-0.08615818,-0.95495516,-0.70130575,5.3003464,-1.5331916,-0.19010977,2.1712708,0.052794363,0.05279901,0.15965727,-0.5735866,2.725297,1.6933455,0.783931,3.321467,0.3252775,0.66054404,1.2085017,2.8922822,1.8569826,2.3066096,-0.6523455,0.39511925,0.9634777,1.095296,0.61861837,0.62694407,-4.4443173,-4.4500527,-0.05879021,1.5267978,0.6247993,2.1337981,1.2467215,-4.3268814,-0.83624244,-6.470583,-0.6953845,-3.4225643,0.86580265,0.87656456,4.135009,0.23800746,-3.1754339,-0.21272857,-0.6074205,1.6760501,0.65727365,0.7305196,1.4406518,2.3176649,2.6053376,0.26764762,0.5927516,1.2476029,1.2298974,0.022379762,1.3527261,1.3084378,0.12742771,-0.58222455,0.08789394,4.5455375,-1.1657472,0.76657856,1.175959,0.47806114,0.8677059,0.4050553,1.6503181,0.38571212,2.8604467,-0.4230928,-0.13761641,-0.25140366,-2.6315205,3.494323,0.28525543,-2.924299,-2.7664583,1.2351139,-0.4756352,-0.53401506,1.4670248,0.06625578,-0.9720844,1.5767215,-0.57013875,-5.3581543,1.4761149,1.2753186,2.729685,0.112441115,-0.1018879,-0.12476857,2.2966166,-4.877233,0.33598906,0.58429015,-1.2890356,-0.77159077,0.72633845,-0.8444822,2.1119573,3.793738,4.385379,0.29458314,0.8087161,-1.3401794,0.623753,0.23600179,-2.4442177,-0.14267339,2.3494263,-4.481777,-1.2141869,1.6742744,4.2984123,-0.21075922,-1.0663567,3.234498,-3.1014333,1.9708667,0.5512309,-0.4512459,-1.0661818,-0.36014548,-2.30513,1.2190851,1.5889627,1.0603946,-5.871701,0.32082573,1.6132524,0.08930025,-3.9200263,-1.2665923,1.449009,1.4033085,-0.46522617,1.5715697,0.052599255,-1.6047513,1.4620907,0.029214017,-1.9033762,-5.306189,0.74366355,-0.4464708,0.80865115,0.5550314,-0.54822624,-0.0716811,-2.5314143,1.4773998,2.5848742,3.9936807,-0.97439414,-0.5108983,0.65913653,-0.8451407,1.5308542,0.87803173,0.6929701,4.0621824,2.0972838,1.5457616,-0.8766842,-1.3724061,-0.24486412,-0.007218389,0.8145857,2.0477555,1.8240823,-0.23335621,0.6282713,-0.3927995,2.0316257,-1.2316939,-6.971721,1.5772735,-1.3615922,-0.06689217,-0.10243271,0.4549093,4.4541144,-1.4971793,-0.12805407,-0.5478675,1.2869279,-1.9821658,2.6012259,1.3356729,0.07290306,0.0703321,0.60475224,0.42274246,-0.44737372,-0.32416353,-1.6213322,1.0838224,-1.033898,-1.5613722,1.2651951,-0.96276957,-1.7930655,1.8404965,-0.365127,-1.5648322,0.3445318,-0.27319366,-1.6031327,0.059390318,1.5344859,-2.1756732,0.37472904,1.8881601,-1.6425217,1.9138287,0.71163666,1.3408614,0.4627286,0.102395035,-0.45098963,3.864752,-0.8993547,0.8339156,2.1317115,3.845543,-0.45124808,1.8596292,0.09803893,-0.9106786,1.316018,0.047030743,1.3535345,-0.26198772,0.625555,-1.5863699,-4.680341,0.23825844,-0.13221242,1.6725177,-2.6457212,-1.6758201,0.100207165,0.21704963,-0.6657261,-1.7103963,-2.5450327,0.1006179,-1.2098341,0.99448806,-0.15292537,1.1504799,-1.3122855,0.22374673,-0.8836775,-1.0843071,-2.4699132,0.09564025,-1.4266998,0.44558683,1.8808138,0.62243575,-0.29596657,-2.256265,2.132321,2.2200887,-0.05953473,-0.28460062,0.13176471,-0.17220712,-2.1625025,0.82432693,1.5131003,1.4086801,-1.0115827,0.9522981,-1.6180773,0.57204384,-4.566094,0.59358996,3.0362158,0.30467257,-0.28333306,-1.3949276,-0.3024058,0.017306594,0.39049342,-0.80774236,-0.32203916,1.4756236,-1.6129494,-1.389694,0.32294777,0.11595002,1.2282386,1.7215807,-1.8617469,-1.8474299,-2.2045877,0.5339559,1.1805323,-0.12846954,0.45183164,2.28811,0.79158056,0.724022,0.05789401,0.39470592,1.8181154,-0.17505412,1.4550399,0.32788277,-1.0961325,-1.6707072,-0.5852058,0.53629494,-1.5840102,1.0007919,0.5350895,1.3238546,3.1886559,0.8545219,0.8961015,-0.73487574,1.4801193,-1.9616092,-1.907566,2.2951958,1.5250258,-1.6842177,0.5407211,0.4666429,0.46142876,-1.2821541,0.65076756,-0.44844308,-0.89594495,1.9448105,2.9325423,-0.6605566,0.699186,2.8314028,2.220495,-2.5505533,2.5735853,-1.3641764,-1.722105,0.2370711,-3.0209408,2.8450606,-2.4042268,-1.9015352,0.33800626,0.20070985,-1.294289,0.75102895,-0.26868933,2.1069026,4.968762,0.30704358,-1.4458481,0.29326135,0.0710142,-2.34303,0.21609372,-0.66605574,-3.0955071,1.8212067,1.9572964,-2.5062096,3.8099477,0.81183046,-0.98999894,0.9534839,1.2242464,-2.267399,-2.257475,0.9219679,0.8617711,0.08096818,-0.10837539,-0.14015636,-2.0686116,-2.0226786,2.7111259,3.2926679,-1.1613121,0.4327418,3.9138145,-0.026232453,-0.20842464,-2.710797,-2.3481183,-1.9315838,1.930623,0.88199955,0.638154,0.7661706,-0.5682758,3.9785523,-3.2287962,0.69641006,-2.4198604,0.25740412,-1.2156773,2.4108956,0.13999942,-1.8323607,4.8463535,3.6346822,0.8217562,1.1695796,-1.5022589,2.731901,-2.4027731,2.3798769,-1.2653215,3.828735,-0.83323777,0.9277559,-1.0095843,1.1415547,0.9218678,-0.7348049,5.5899973,-2.9789195,-0.43424392,0.91613346,-2.3804374,-1.9515074,-0.50404847,-1.6898763,2.4051082,-1.0141196,-0.7763815,0.93836874,0.5623862,-0.716932,1.6877613,0.67005146,0.86113036,-1.5848782,-1.5117233,1.0781943,0.1506969,-2.01704,-1.1037986,-0.091137014,-2.647269,-0.400141,1.5946916,-0.08002909,2.3368201,-1.2497493,-0.410387,3.3218353,-2.6411972,1.0340846,0.7623809,0.25237384,1.2197534,-5.4956326,0.91914135,0.5647488,-1.7622352,0.10919375,3.662515,-2.3023021,1.1743832,2.093419,-1.1969078,1.537935,0.24554808,-0.12918265,0.21205957,-2.7341597,-1.5539688,2.586136,-0.61936677,0.30823368,0.017985342,-0.90665025,-0.39640582,-1.2854608,0.5503309,-1.2772977,-2.1149104,0.18770738,0.27258188,1.1517382,0.71716785,-1.0744361,-1.7058319,0.22419812,-1.2693477,-0.36834762,-1.3235642,-2.6654637,-2.124625,0.61055964,0.29255387,-0.3813105,-1.7664932,-1.0449846,-1.2466686,1.165963,1.1169128,0.4315508,-0.88573694,-0.06955998,-1.832633,-2.468879,2.4262106,-0.6389442,-1.5661305,0.97893614,1.317371,0.4332262,-0.5418737,-2.3303473,-1.6727902,1.4963579,0.5556237,3.0046198,-2.617213,-0.8364971,-1.5324677,2.162728,2.143695,1.8558944,-1.8066238,0.8315127,0.10432357,1.2058978,-2.0756118,0.008962585,2.6246371,1.9397757,0.50592744,2.7263134,-0.4858765,0.28340596,-0.6996022,0.20767084,-0.78391665,0.15204917,-1.8817512,-3.241025,1.3622332,-0.6072173,2.0981846,0.6538463,-7.539207,-2.5892246,-1.594145,0.57118565,0.99114484,0.48727453,1.208297,2.1668134,0.7907382,0.28776428,0.5435413,-0.25732416,0.5691,-0.99649024,2.0645998,0.9462436,-1.7162336,-1.4086305,-0.9991433,0.28930962,-0.9131395,2.036389,0.93560505,0.5613357,-3.9378,0.42726216,1.451676,-1.0890435,-0.49658796,-2.0322866,0.04356106,3.1455295,-2.4586458,2.5125053,0.65604204,-0.913479,1.983048,-1.4326309,0.45734984,-1.3604124,-1.3223866,1.7998637,3.1520653,-1.3687052,0.3905644,1.0109457,2.3634577,-1.8092785,3.0322506,-2.2228863,-2.4266636,-0.028299743,-2.8672209,4.093841,-1.7358129,-3.1679316,-0.13180515,0.65040195,-0.96253103,0.8305123,0.01521899,2.276402,6.6942325,-0.6464305,-0.92593604,-0.19414124,0.1683575,-2.1074114,-0.28456995,0.28547964,-3.3424282,0.57831794,0.54336035,-2.1052494,4.9798007,0.4462087,-3.0240433,0.55138004,2.9291468,-2.1812627,-1.7703886,0.22396415,0.40599918,0.19381657,0.7620256,-0.24730213,-2.5732024,-1.4504347,2.1825788,4.218472,-0.99473065,0.0015105673,5.3362446,-1.2017959,0.5020838,-1.6825027,-2.2600713,-1.1806769,2.0780108,-0.058139414,1.1767569,0.90827537,-0.8273771,3.4063337,-2.159896,0.29037565,-2.1151938,0.53692675,-1.7717944,2.5167265,1.9244715,-2.8329074,4.670699,2.903944,-0.91648966,0.049015306,-1.6001706,2.6710844,-3.2566018,0.5023371,-2.318377,4.3783855,-1.2586068,1.4130331,-0.7998049,0.9259046,2.186385,-1.3842765,6.867955,-2.0674152,-0.60005546,0.57085866,-2.5598512,-1.9150895,0.21807824,-1.8461297,3.056481,-0.8864207,-2.3889775,0.2538027,-0.5482128,-1.4455078,1.5671265,0.44892654,1.6928264,-3.0369482,-1.2802043,1.5874803,0.58214897,-1.3274366,-3.366466,-0.33888793,-2.01181,-0.4478515,0.8841497,-0.37609047,1.8179057,0.19543484,-0.60186785,2.1123848,-1.1667018,0.28626907,0.13185355,1.059822,-2.0430994,0.8962526,1.0588955,1.8549837,0.11961148,-1.1645231,-1.7442634,-0.25644216,1.088323,-0.6946311,-2.5217383,-0.10162965,0.012816483,0.9186585,0.85048544,0.67205155,0.6294294,-2.3760462,2.470638,0.745493,-1.0045336,-0.72983134,1.0184246,0.8557263,-0.03197707,-0.4512411,-6.4187565,1.5015192,0.86490065,2.473275,0.66653526,1.4901451,1.5379336,0.5731783,0.4039935,2.7154493,3.5222566,0.6187238,-5.024919,1.1771977,2.22552,-2.695444,-0.009507778,-0.18273899,2.252778,0.3774349,3.5197527,0.40071797,0.21865039,0.7381587,0.9519853,1.298538,0.43532163,-5.0232067,0.6622439,0.9441604,-1.5325567,1.5808741,-0.52460563,1.9853799,0.7914845,0.9307082,-1.1085166,-0.428313,1.4806035,-0.79282373,1.6213394,-2.7324533,0.42330575,0.24155025,2.6750817,0.20614274,-1.0024879,-1.6842629,0.8572261,0.43123752,-3.4621344,-2.559493,1.9680634,1.3907763,0.99376756,-1.9774605,1.8251845,1.6763054,0.42695966,-2.0093985,0.2583194,-2.7212021,1.6311738,1.1785114,3.8358523E-4,0.3339042,-5.1954575,1.2551857,-0.62134904,0.84069085,-0.68969244,2.013479,-0.69038624,0.8360148,0.08615503,0.14921623,2.3972723,1.3796139,0.2928926,1.0267048,-1.8908918,0.9569562,1.3805035,2.0626028,1.453119,-0.7694409,-0.82745004,-0.33586913,1.3950256,0.8487011,0.093441464,0.77566063,0.41243353,0.5628081,0.9350488,0.3455517,0.72735465,-1.9794707,-0.5519163,0.6963976,1.1527885,-1.3567103,1.1570268,-1.738901,0.10605876,-0.8917269,-2.5036387,2.0141494,1.5191405,-1.0385292,1.1192486,-1.1235552,1.4028045,0.52622855,6.9328203,1.0371138,0.50651187,-0.58168447,0.0951889,3.2936897,-0.90186024,0.49109003,-2.705048,-1.1764145,0.282678,0.05496458,0.6007441,4.4824305,5.5162773,-0.29130507,0.1224287,0.15379448,0.8305448,-3.5070739,-2.7239375,0.1456634,0.16677982,-3.4940727,2.2449827,-2.2456436,5.819819,0.6216633,-1.7962132,-0.121575125,1.9223995,0.35749397,-0.5115405,-1.5492622,1.3658864,-0.22179452,-0.60636145,0.85275203,0.4039004,-0.9707952,-2.893536,2.4450152,-0.4979073,0.37141526,4.875731,0.50197077,0.661894,-1.5280939,-1.8933691,0.14958288,1.6736912,-1.6578201,1.3410512,0.06522684,-4.105503,0.6778139,-0.49944943,-0.7405925,-0.65510976,1.1653222,-4.1781974,1.917655,-3.230118,-0.19281726,4.784599,2.882774,-0.9471613,0.69619364,-1.0713573,1.0996763,-0.38333482,2.930142,0.60000235,6.8347087,-0.035552386,1.6636178,-0.27594882,-0.34847546,1.9388907,2.0679045,-1.5442042,-1.6686361,-1.3215318,0.51013863,-1.0273438,-1.3760319,1.582809,-0.4200296,-0.6014894,0.4704194,-1.2180731,0.43213087,0.4975235,0.79004145,3.7657127,1.5689759,1.170682,-3.1147494,-0.35354778,0.031609163,0.5000512,0.39299512,-1.5101357,0.4750805,-4.774857,0.5626281,0.38349,-0.26341835,-0.84605014,-0.9968958,0.35095412,0.7750095,0.18239088,-2.2666922,1.9317995,-3.1740584,-0.56538695,2.2320874,-0.5578042,-0.90265703,2.6349733,1.5067174,-3.5970738,0.9387844,-1.0283571,-2.675508,2.7852623,0.2872482,2.2426758,0.035977922,0.76508236,0.3831124,1.061968,-3.5535069,0.7411478,0.65872693,-3.0519083,-2.220915,1.0968894,-3.7614672,2.6253407,0.9456602,3.4055498,-0.54056466,-0.6441566,-1.0156996,0.5878613,0.5876143,2.4834065,1.2326454,1.2376288,-3.4147074,1.0253439,1.9136885,1.3406773,-1.1259701,-0.27757445,2.3461192,0.3140451,1.7007823,0.7024546,1.4572845,-1.8195446,-1.7884194,0.3270798,0.31811953,1.119714,1.6576136,-1.5267496,0.48524094,1.4172223,-0.5320027,-2.4320142,-1.0180086,2.296311,0.43009555,-0.6703813,-1.42621,0.88788694,-3.0326138,-2.2067907,1.5843514,2.01156,-1.7823272,-0.032370083,1.2043787,0.9577557,1.4039758,1.6688483,3.148113,2.5670934,1.3527837,0.8517147,2.5977848,-1.9594887,0.91319317,1.0361017,1.1309505,0.4532605,1.4275231,1.5269893,1.8620466,2.360613,3.0717535,0.90933716,-2.242062,-1.1287925,0.29209772,0.26807907,1.2339764,2.4305513,-0.24966674,1.5105969,0.32859993,1.0571615,-0.47608602,-4.5823503,-0.07080158,-0.9260278,-1.2079499,-0.047449585,1.4225019,3.4538963,-1.6085886,-1.8618399,-0.30521765,0.775599,1.3503337,3.3313267,-0.15872368,1.8445882,0.7875057,-2.4075959,0.81153953,0.81178176,1.6346577,-3.6489272,1.087072,0.96472096,-0.10372032,-0.14574681,2.4603002,-1.7792773,1.0516574,-2.5821624,-1.6646987,1.6805146,2.644453,1.3327879,-0.50783026,-1.1312534,-0.20808908,1.1664397,0.5336535,-1.8278077,-0.13758288,-1.2331696,0.61150193,0.72955287,-0.48028183,0.676857,-1.9940785,2.1921227,0.924017,-1.8473155,-1.0769204,1.5296196,0.48567843,0.059856802,-1.0785749,-7.0741234,1.5771815,0.75161207,2.0602214,0.33776438,2.1433446,1.5756798,0.7403347,0.4924477,0.3056876,3.2289267,1.7160355,-6.2232428,1.3697069,2.8328044,-1.6005118,0.32395315,0.7728499,1.8855753,0.64338744,2.9492567,0.772075,0.33544672,0.26338392,0.2252694,0.92780685,-0.33093104,-4.9328046,1.0807326,1.3192557,-0.8815657,2.10241,-0.18574888,1.5669024,-0.31035036,1.5589819,-0.7081617,-0.46753064,0.74228305,-1.0155966,2.4954612,-2.5379257,1.0265529,0.8427133,1.9851348,0.6097099,-0.21879415,-1.9120529,-0.64958954,1.0792652,-3.3721125,-2.0666428,2.0178792,0.72837394,1.9448357,-1.2616246,1.867317,1.501221,1.11361,-3.1143236,0.40778086,-2.931316,1.6027248,1.8646502,-1.2241577,0.5448316,-7.2642198,1.3552123,-0.0140572125,1.296122,1.2988296,2.7056441,-0.8914888,0.7510033,-0.111067265,0.32998565,2.7063603,1.5212332,-0.10439743,0.9545851,-1.8676217,1.096774,0.95812804,3.2454133,2.2805207,-0.28712684,0.29443377,0.37239632,2.5124009,0.76634943,-2.5463717,0.8233183,0.48640177,0.25677818,-0.6556421,0.08452513,0.1349187,-1.2319239,-2.039613,0.8489815,0.93334454,-0.395069,0.5774159,1.524383,-0.17913999,-0.99874264,3.2405598,1.8261658,-0.43551585,1.7229291,-1.2028883,1.0561789,2.8870444,-0.433698,1.988937,-0.040412936,0.41463894,0.94788295,0.52803856,-0.30575317,-0.8819614,-0.76654804,3.494501,1.968702,-0.24283294,-1.9633546,0.753444,0.7601668,3.1387901,-1.4873091,-0.50358754,-3.328195,-1.2973877,1.1996735,1.8711705,-2.463838,0.15188383,0.75062555,-1.2402608,2.0327218,-0.11821507,-1.0624644,-1.9395192,-0.44503823,-1.771926,1.2906697,-0.826774,2.620669,-3.5301044,0.573741,-5.961833,-2.004185,0.8546249,1.432241,-2.5164156,-1.6430832,0.9445386,-0.29467762,0.7632571,-1.5663542,0.918107,0.38527632,0.5344626,0.77950394,1.5622286,-0.16189533,-1.8487223,0.78663534,1.9732351,-1.8964682,0.17042755,1.7782562,-0.6674535,0.36634913,1.5325364,-0.0071567795,0.3376607,0.45920643,4.296169,4.435812,-2.8485584,-1.5486478,0.7250019,1.1026667,-0.37322724,1.4742172,0.121738225,3.1197317,1.7159173,3.0614038,-2.7897968,-0.15218076,-2.544204,0.030382039,5.937504,1.477805,2.157843,-0.087839544,1.4660355,-0.04833795,-1.8088362,0.47565848,0.05011186,0.097014986,-2.171071,-0.374207,1.1896201,0.44004425,3.029012,-2.1078274,-3.4525282,-0.28261885,0.3476503,-2.8296084,1.798793,0.18077303,1.7389495,-1.6377162,5.936777,-1.8007075,1.7874169,0.5023929,1.1981387,0.57262784,-6.0727158,3.9382842,3.3546922,-0.6482159,-3.8492029,1.162971,2.21802,-1.8714993,0.0025670798,-0.029593894,0.46460333,0.12645976,0.9042271,-0.6843948,-1.257929,3.6495557,-2.6306536,-0.6057921,-2.9847486,-2.314687,-1.0002425,-0.36623076,0.25425306,2.1871552,0.6496212,-0.3695177,-0.009202799,-0.039705034,0.30649066,-2.4408026,2.167322,-1.1268193,2.5401788,-0.07424749,-0.28336713,0.23052934,-0.42973518,0.44785577,0.45730624,0.64178634,0.11790022,-1.3560532,-0.9162787,0.44375327,-0.6587108,-1.2940509,0.8260737,4.3167186,2.4715133,0.68672967,0.6424582,2.7147021,-0.35520354,0.21734439,3.4533813,-0.42017528,-1.1837903,-0.29623398,3.3861115,3.2724302,-0.7447901,-0.46613035,1.9346193,0.32698417,2.148504,6.373762E-5,-0.48943695,-1.1025248,0.33179727,0.87724984,-3.3232837,-1.0303953,0.58365816,4.6959314,0.07832654,0.81599915,-0.017270438,0.63488173,2.8951223,3.932102,2.1431308,0.5041212,2.0129128,0.97414255,0.3332147,1.7214195,0.58560866,4.3532453,-0.31258598,-0.60089546,1.7644916,-0.8243817,-1.3561485,-4.669249,1.3633825,-1.4977804,-2.22844,-2.0344915,-6.1719275,0.16436727,-1.045251,0.42992318,2.7242827,0.76342225,-1.3293518,-0.07609757,0.43260986,-0.7021187,0.73504215,-1.722058,-1.6358821,-1.2771376,2.5589824,-1.9072404,-2.2148814,1.1245826,-0.3532631,2.9769294,-1.6697488,0.032843277,3.0607927,0.67570835,-0.88294584,0.33748963,0.70061386,-0.19819003,-3.170927,0.02386944,2.8785503,0.8948686,-3.827529,4.227897,-1.3250499,1.3377025,2.850491,-3.3698227,2.1177347,-1.2948132,1.6955348,-0.65981877,-2.5454693,0.12240265,1.2970312,2.3637977,-1.4679312,-1.1983787,-3.0822797,-0.4499406,-1.3252455,-0.91481346,-1.754684,1.0139033,-0.2436711,-3.3019316,-0.0032690554,-1.232619,-0.32168362,-0.09224391,0.2668284,-3.2876384,-1.161367,-1.1020867,-0.119024776,0.6664754,0.7043644,0.78610665,4.018061,1.6942314,-2.0000286,1.6634836,2.482556,0.9610746,-2.028766,1.2340949,-1.0485299,0.742371,5.937523,-0.8541718,-0.87818545,2.0192106,0.68481404,0.024207067,4.7338223,-0.72457266,-0.870859,-0.80617094,3.9271016,1.5398737,-0.65004146,1.474819,3.748429,-0.87068075,-0.1437386,-1.1489651,-0.32372874,-3.4266284,1.7917234,-0.2614459,-0.9674953,-0.16630414,2.6022663,2.6987898,-1.9518843,2.8769853,-1.4050019,0.74044144,1.0755947,3.224939,3.2185128,-1.5403191,-3.2372239,-5.37506,-0.53392726,1.3619424,0.063414514,3.958738,-2.4491656,-0.67018753,-2.0681856,-4.625105,-0.6895037,-1.9154705,2.086327,2.4353576,-0.23390135,-0.71969175,-4.9477954,-0.5128059,1.9257803,1.4500606,0.8299481,1.7819134,0.56273764,0.13531817,3.182238,-0.50840896,-0.68744713,0.33321103,0.42627114,-1.5627601,-2.190949,1.4322557,1.2428753,0.47226006,-0.7427138,4.2615438,0.5256859,-1.2415521,-0.6518443,-0.36783776,-2.0052035,-0.18788175,0.85746175,-0.14223732,0.30883136,-0.10309065,3.4215682,-2.0119288,-0.8131509,1.5853353,0.66044074,-0.82348037,-3.5887206,-2.9189618,0.17130217,1.3149158,0.7135626,1.6472242,2.6214187,0.5775107,1.0980349,-1.1324351,-0.39112243,1.0104502,4.88174,1.0445381,0.42496616,-1.2853754,0.4855127,-0.7145316,1.4148982,1.7284635,-2.320192,0.33480743,1.7385721,-0.33266243,0.21839803,2.6859791,-0.27356508,1.1134166,0.78218406,1.4703104,1.2100843,-3.0035334,-2.606985,0.30438536,0.6368491,-3.2177792,2.9267144,-0.47724265,1.6396606,1.419976,0.83612597,-1.5554221,-1.7879245,0.862006,1.0433182,0.06644703,2.1898,-0.57193184,-1.9879405,1.3727939,1.3895438,0.2853142,-3.2931697,-1.3176012,0.6934969,0.38906163,0.25933385,1.4410574,-0.20106527,-0.025942657,-2.4611666,1.2887758,-0.2679711,-0.8590115,-1.6171676,-1.8361129,-2.7176335,-1.5836995,0.9426526,1.1356194,1.1208025,1.7580056,-2.110506,-0.6776884,-4.6727424,1.402332,4.616769,3.7021103,1.0984609,1.4867424,1.401381,-2.6157296,2.4752092,5.7404513,1.1011493,5.7318068,0.97609246,-2.6737895,0.48465556,-0.053164918,-2.4681103,1.8758653,-6.3774815,-0.36323032,0.92073274,0.17552324,1.3511494,2.0055819,-0.31853718,0.052761815,-1.6602218,1.462749,1.081035,0.46889108,1.0235212,0.7875558,0.07058422,0.81086934,-0.4282142,2.1792178,1.7273052,-2.8045545,1.4150221,1.4742106,1.506129,1.311464,-2.854162,1.3114475,1.1087403,-0.4448441,-2.5868871,-1.1132022,-0.7212299,3.405305,-0.99815696,-1.0899025,1.5942085,1.26087,-0.8574903,2.9067407,2.2021768,-1.0358999,1.5701114,-0.31856167,-3.7887921,0.9190532,0.7271773,-0.8028168,0.7699025,1.4567511,-1.8988717,1.530004,1.5228496,2.492026,1.3682731,-4.124879,0.45863107,0.60149246,0.84983987,1.244948,0.6673894,1.3042866,1.2416549,-3.1353438,-4.676016,-1.2103952,1.3631077,0.13112178,-0.7042015,3.0130608,-1.0543187,-0.6762899,1.5802982,0.44272313,-2.5359166,2.151708,-4.735736,-0.17832342,-1.0713003,-2.1876924,-2.812083,0.8551458,0.6584183,0.68022317,0.06354917,0.75040025,-1.1335968,-0.90524316,1.3852586,1.9201676,1.1261394,-5.3639865,1.2729864,2.0194426,-4.2303414,-1.2627804,1.5895342,0.19149506,2.035953,1.814407,1.1549827,-1.7101058,2.5389142,2.9044445,3.8252988,-5.0948744,2.085862,1.6858529,0.9748375,0.38400823,0.5917448,-2.8764489,2.1019063,1.2916563,-4.549642,-3.542304,-1.8555363,-0.30285832,0.6743879,3.8252015,1.7093207,-4.1626983,0.921822,-3.9838035,2.068353,1.9028603,-0.23753995,1.1740218,3.2006037,0.60367197,4.1022577,2.2194865,1.6436992,2.1915889,1.0173527,-0.29893762,0.83067864,0.8787023,-4.4227324,0.9505329,-1.2329296,2.0115857,1.3931938,1.9898015,3.2440135,0.34431648,0.25758624,-0.80151796,0.88183147,-0.18223408,0.63068926,1.4698735,0.95370215,-1.0522544,2.9251423,-0.91198474,1.01795,2.2799742,0.15527636,1.402274,-2.0935888,-2.442587,2.3537035,1.3703021,-1.2100194,-0.17476153,-0.45754874,1.5507479,-0.04373071,0.4606505,-1.1193876,-1.2706656,-0.08308825,0.34854466,0.5406592,-1.997846,-1.4577835,0.23999062,2.3037596,1.3933545,0.85018104,1.4680517,1.6786022,-1.2209848,0.6045361,0.9122955,-0.1634653,1.3739346,0.19424051,1.4798694,-1.0173249,2.575075,-1.2138816,0.40763563,0.95657,2.206181,0.5334154,-0.7083553,-3.1118,-0.6153656,1.4961275,1.4750646,3.5986147,-0.18458466,1.4464831,0.7381452,-0.33179647,-1.0319259,-0.16380303,0.7125406,0.5105509,-1.868583,3.3686883,0.44284055,-0.10525375,0.86453927,1.4106447,1.2275544,-3.9365335,-1.3909171,1.2858357,0.17526226,-0.8947067,0.89481056,-1.9879751,1.8550156,1.0641919,0.9270515,-1.3538164,-2.148536,2.0938892,-0.79348326,-2.6297271,-2.244308,-0.5278584,-1.0692794,1.0298778,-0.76382715,-5.6668406,-1.1702775,-5.191261,1.318165,-2.2542386,-3.07854,0.9567441,2.0531707,0.46343532,-1.0041145,2.746937,1.8586688,0.33953953,0.27257288,1.4326041,1.2644701,0.6232825,0.47393018,-0.10957743,0.9520246,-1.8208642,0.77620614,-0.46780232,0.0831772,-1.4956014,0.3442998,0.4834606,0.37724727,-1.8371284,0.81578344,0.2719125,0.5557335,1.2069993,0.7259193,-1.0520668,0.4758252,2.0079732,-0.5243403,1.777841,-1.0250161,-1.0721868,-0.13929722,0.22469397,-0.3906328,0.7687858,0.039476596,-0.0636966,0.09876672,1.8035606,0.6222891,1.6552479,-2.3085666,2.9802594,-2.9886286,1.2101258,0.017339567,-0.31524655,-0.17214148,0.5127026,-0.1994137,-1.8127533,0.75638306,2.0418594,-1.6945126,0.40562385,-1.3964101,-0.5795368,1.1448609,2.5893116,-0.862495,-0.96937066,0.22565433,1.2015357,4.33286,-0.59937936,0.8780298,0.9311397,2.6502984,-1.0195267,1.8927195,1.1948442,2.606611,6.4167724,0.8287877,0.7852436,-0.12220126,0.9020774,-1.8506674,-5.0474014,0.8085273,1.133708,1.369376,-2.9966052,-1.1607327,5.0605717,0.29315874,-1.134577,-0.32112285,-2.2151017,0.8559537,-0.51480675,0.32043445,0.19870767,0.08381379,-1.2781401,1.3125391,-0.07196677,0.10012828,-0.37694383,2.064756,-0.5981819,0.53644526,2.9933286,-0.20815024,0.88571376,0.42711598,0.19934633,3.2983675,1.2019385,-0.84923714,2.7565808,1.0665601,-5.0466714,0.020818213,1.6087447,-0.8417632,-0.06242042,0.25153887,-4.0049267,-0.1414664,-4.520856,0.5514399,5.3240294,1.6007024,0.10627745,-0.30202252,-1.4564879,2.028964,0.8794646,-1.3314053,0.28565082,4.064667,-0.7257393,0.28263876,-0.11982284,0.7935752,4.5038676,-0.92390263,5.783029,0.0047612535,-2.6153138,1.0553014,-0.9854107,-2.1600854,0.77556336,-0.89188576,-0.45194304,0.40774634,-0.7470522,1.4166152,-0.35806403,-0.06365881,3.459959,-0.28684452,1.6963432,-3.2567863,-0.5645393,-0.56727475,-2.4585133,0.52916276,-0.9456062,1.5458121,2.087805,1.0831611,0.649209,-0.58111066,2.7600214,-0.2128037,-2.2370198,0.5819024,-0.39628124,-2.2109797,-0.13563603,2.6488812,2.043783,-0.4472642,1.461367,-1.0085217,0.84477085,-2.3119602,-4.7655725,-0.37707236,0.18863362,2.1987443,-3.028098,-0.17869803,-2.31641,1.3626609,0.49092054,1.3927867,0.6071344,1.61157,0.05805834,-1.58144,0.19844513,3.3240945,-0.23171209,3.149363,-0.39267707,-3.11316,-3.7679358,-1.0027345,1.547087,0.82133085,0.15342364,2.5667672,-0.22916529,0.66882664,0.29439902,4.450796,0.8975693,1.3983324,-3.5291324,0.098257184,-1.247346,-3.139726,1.7943311,0.13867283,0.14790294,-0.1909067,1.5165852,1.2310458,3.6018786,-0.37875506,0.57505363,0.9061922,2.6351473,-1.5069197,0.12873861,0.9925441,1.7983406,-0.52930063,-0.25581583,-0.25177082,2.0726953,-0.5031572,-0.095348634,-1.6375035,0.94423294,0.7347974,2.9432147,0.8065163,-0.06321007,1.503711,0.11128139,0.51794714,-1.4906431,1.800002,1.7050538,0.14864148,-4.115362,-9.599919,-0.4578394,1.8961468,0.12146725,2.3571584,1.5425434,-2.2317924,-1.05177,-3.9750586,0.19319676,-1.5527451,1.1661146,2.3544817,3.2672155,0.58030677,-1.2870613,0.8975896,-0.6451426,1.2473638,-0.24271515,0.30706802,1.2076014,0.6491476,1.7306327,0.4592959,-0.64346784,0.8907058,1.6247567,0.50257605,-1.2837331,0.19548778,2.1390038,-0.6378397,0.010267658,6.774404,-2.4376323,-0.27494174,-0.47509515,-0.6190285,-0.5137791,-0.22537863,0.06937163,0.4771225,2.917274,0.5476926,1.173677,-3.5709028,-0.19485562,-0.42486346,-0.5220457,-4.0171394,-2.0586867,0.91557443,-1.9831382,-0.06548175,2.2105775,2.3885744,-0.04073451,2.2877188,-1.7866834,-3.1108136,3.5733657,-1.5661092,3.136856,-1.1731311,-1.4671006,0.050394814,0.9159722,-1.573207,0.46534586,-0.94530463,-3.2138927,-1.9473877,1.2610719,-3.6658247,-0.7253875,3.4930682,7.3614664,-0.5749466,-0.89157605,-3.6343243,-0.6049244,-1.5638227,2.9066281,-1.4075098,0.37157646,-6.165092,0.6095551,1.3649651,5.383899,-0.5752175,-0.5768518,1.4292877,1.3097541,1.027262,0.24437588,-0.28390107,-3.1780612,-0.7844514,-1.5397042,-0.4061234,-0.033629194,0.29601625,-5.5709105,2.138913,1.145294,-2.4271202,0.25439024,-0.7599688,0.037784982,1.0700877,-2.180632,-1.9420388,0.79238737,-1.6728565,-2.0865345,0.09635896,0.21810865,-2.2381337,-2.3941493,-1.0469382,0.46581078,0.5868039,3.6345942,2.752237,0.97739154,0.6411001,5.179755,4.787204,0.013300255,-0.10737704,1.3926537,-0.4954098,-0.31661153,2.255381,0.5455864,6.4290442,1.3458447,3.5009284,-3.2445498,-1.660402,-5.964698,-0.21180168,2.286982,0.5002659,3.00807,-1.8520066,1.4338393,1.5727336,-2.9863195,-2.213625,-1.5333102,0.24437568,-1.239825,-1.9382219,-0.9158937,-0.5354588,2.0558252,-1.8677696,-0.91539115,2.0466924,1.5053029,-0.41151792,3.6231413,-0.8485611,1.1183141,-0.64213556,-0.4204193,-0.44312295,-0.74050313,-0.1778116,-3.4381232,0.24552646,-1.8361573,1.0100555,1.5751972,-2.2757144,-1.1398414,-0.05480174,0.7046189,-2.2219362,0.01470917,-0.864048,-0.1415754,-0.6774505,-2.1216192,1.0097239,0.6800195,-0.7682722,-1.2982002,-0.93326926,3.179226,0.54127216,-1.368128,-1.0027059,-0.17138685,-0.31386063,1.1221327,-2.1635134,-1.8000451,-1.4129823,1.3069692,0.5722472,0.8872929,2.0625882,1.7757897,-0.04182221,-0.36673105,1.073733,2.2393024,-1.1622916,1.1311935,2.843918,-0.54350644,-2.2151618,4.3848624,-0.09075458,3.371188,1.0769653,-0.16203597,1.011957,5.2548685,-0.10620998,0.7585376,-1.6504978,2.0903778,-0.50379384,3.358528,1.76073,1.353663,-0.12267086,-2.1709878,1.5092847,0.25425228,0.54434526,2.220621,-0.0826543,0.49030116,-0.6111689,-1.0813442,-2.2923253,0.03755311,-2.347872,0.49426973,-1.4178946,-0.2823821,-0.17566696,-2.615877,0.07101664,0.53197116,0.9288871,-1.3524666,3.2023818,1.0236385,-1.5173997,0.02698904,-1.6696302,-0.26419747,2.116456,-0.58806264,-1.291577,-0.7964541,1.4217576,-1.5566028,2.8707683,0.6501271,-1.3257886,1.4446096,0.6235417,-1.5386467,0.48109618,-4.644247,-0.089221805,1.1868812,-0.2044337,-1.4591315,0.9470144,2.5999718,-1.728554,-1.6695721,0.4203236,-0.17418915,0.11874176,0.6901902,-0.56745875,0.76809156,1.497374,2.505665,-1.1009115,0.2737131,3.8689675,0.88844246,-0.61899805,-4.3047466,0.75175285,-4.166657,1.5737382,-2.267024,-0.8117762,-1.123675,0.35772532,3.1887765,-3.35846,-1.1122795,-1.491083,1.5806385,0.12836877,0.892672,-2.9721837,0.15334536,-0.7582848,0.5716718,0.1806788,-2.2477953,0.19898002,0.7868445,-0.22686078,-0.46581876,-0.94427466,2.8751023,-0.7697648,-1.9430223,-2.186603,-0.73386127,0.21717721,1.3639641,-2.2840142,-1.6592774,-0.9280849,1.539263,0.3804007,0.95851576,1.8154267,1.5734899,0.27117306,-0.2994817,2.0058548,2.3751163,-0.99929446,1.5138324,3.0731058,-0.9304677,-1.7152288,3.4722233,0.35547698,3.138427,1.3264282,-0.085898034,1.3467976,6.000044,-0.65280956,0.675957,-0.5258315,2.9058545,-0.3820584,4.5692034,1.4110312,0.4716331,-0.15065019,0.75083214,1.9986748,0.77620095,0.46303058,2.9943995,-0.6849211,1.1209611,-0.1478518,-1.0215362,-2.317496,0.7958096,-1.8081812,0.3164816,-0.91272384,-0.31561315,0.6552743,-2.549433,0.37517977,0.347605,1.0014851,-1.3986838,3.5815263,1.4281386,-1.6752639,-0.40449172,-2.7560186,0.15747015,2.4407823,-0.025492117,-0.0666,-0.6027794,1.2738192,-1.5661328,3.3511105,0.6808156,-2.3088682,2.6412354,0.8418106,-0.35045084,-0.5686401,-4.62027,0.09048436,0.61445016,0.007080765,-1.7410904,1.7098283,2.2858553,-1.9888613,-0.7043615,0.02833188,-0.561984,-0.065384485,-0.17745328,-1.0610946,0.9922395,1.0908031,2.5426373,-0.9652193,0.51102394,4.3377433,1.0298178,-1.0336412,-4.2982583,1.1215962,-3.5402546,1.5517535,-1.235751,-0.8189563,-0.20612273,0.4579845,4.0358405,-3.5031276,-2.8225203,0.8656509,1.0954542,0.75127894,-0.6572836,1.1820856,0.33583817,0.3129535,1.3267766,-0.11638152,-3.7079272,0.61606205,0.9294699,-1.1929345,-0.35694402,-1.7523377,-0.7806937,-0.9679325,-1.6265248,0.37397453,-0.2485826,-1.6531554,1.924437,-1.3438476,-0.2974355,-1.4544655,1.4765494,2.351345,0.23846436,0.22855514,-4.5761437,0.95966196,0.24675031,2.235346,1.6546285,1.2002788,4.3699408,1.4898255,-0.68564594,3.717225,1.8713427,1.4020827,-2.6972175,1.5911895,1.232422,-3.4064574,2.801007,-0.48511982,1.9066246,0.71302646,3.328346,-0.17938678,1.6297288,1.2255446,1.0499828,1.6057059,2.5351927,-3.4919887,1.6007183,-0.1937974,-0.0874733,0.38367087,0.3215135,2.2123039,1.4371573,-1.9378673,-0.32932743,-0.85385585,2.3072963,0.41893166,3.6208541,-2.2144942,-1.8972499,-0.20995699,2.0847342,0.44610274,-0.14842771,-1.452838,4.7281985,-0.92906475,-3.8768404,-3.9019508,1.6356066,-0.16223028,1.1958544,-0.43313032,0.40437812,0.11801518,-0.08822572,-2.128796,0.7330831,-0.35787514,2.255272,1.7703273,1.093323,-0.6962969,1.3483039,1.5126921,0.7396837,0.08812078,-1.0057431,1.6602187,0.82552207,-2.0061567,1.09695,-0.91439885,1.2693083,0.50957686,-1.0578992,0.06493806,-1.9576613,0.465096,2.922578,1.2139541,1.5819174,1.0480798,0.83139724,-2.17905,-0.5953055,1.2713116,-0.3912267,1.2279755,0.46290427,0.7617941,2.411149,1.6974154,0.098420724,-3.440881,-1.9763491,-0.03421171,0.6575295,-0.41487515,-4.224646,-2.2955122,0.9315972,1.0832009,2.0494282,1.9651579,0.54796034,0.15234274,1.3051192,-0.93955654,-0.19690187,0.042580787,3.384092,0.5721557,0.5967358,-0.5524105,0.3204776,-0.83692497,1.3033129,1.5346776,-2.7777703,-0.55455834,1.6725645,-0.13918404,-0.02891932,1.5841262,-2.6668913,0.26835376,0.27898857,2.772383,0.7269214,-1.735144,0.95866764,0.26745844,0.35203958,-1.2986721,3.940239,0.63689,-0.8549738,1.3954887,0.891187,-2.6331477,-1.0597773,1.1529174,0.56909406,0.85708284,3.4593818,-0.66961133,-1.1385435,0.46113887,0.6249288,0.98486763,-3.2335458,-2.2102177,0.97033393,0.6465965,-0.022983018,0.8583933,0.39457244,-0.20360072,-1.9531554,-0.66267717,-0.11813683,-0.90800655,-1.3028314,-1.491685,-0.5704934,-1.2104743,0.30131888,1.7069708,0.84453064,1.9842348,0.19324216,-0.0559762,-2.3138473,2.02251,2.5130205,2.4490361,0.54119307,2.2909791,2.3214493,-2.1401265,2.413621,5.1404953,2.0182962,3.3617992,1.3702594,-2.5373256,1.4614155,0.86618376,-3.5310097,1.1538942,-6.7622976,-0.11792068,1.4176987,0.66316,3.2242448,3.0987763,-0.32485044,-0.17494036,-1.3771912,0.45210728,1.2038605,0.68278325,0.67047215,1.2166762,-0.15116559,0.8409947,0.023547618,2.997716,2.1202981,-1.7935525,1.9028351,0.7536446,4.4807916,0.6562824,-3.9735205,0.7018737,1.58695,0.83501136,-1.6698864,-1.197802,-0.75734586,2.427198,-1.4911356,-0.9611917,1.2770536,3.033141,1.6187141,-1.7597146,1.7786499,0.5718195,-0.016395109,-0.6106359,0.66514814,-1.2463665,1.1901473,3.5287192,-2.462673,1.6940829,-3.3553145,0.53650236,0.4492515,0.34136456,0.4610073,2.902404,-0.29952833,0.16008937,1.3777624,3.321532,-0.060987934,2.4702063,0.4466228,-3.79069,-2.864429,0.16934271,2.1049314,0.7615821,0.5821739,2.2892373,-1.6711895,-0.046704218,0.61464274,4.269722,-3.8930483,-0.25681058,-4.7469296,0.7200595,0.040023454,-1.2124655,-1.521941,-0.22376622,-0.488986,1.0762873,1.119386,2.5012882,0.8870251,0.25033092,-0.5982274,-0.6941514,3.5623603,-1.2139052,-0.35360283,1.9019006,0.36811575,0.25295365,0.09025748,-0.6983486,2.6059427,3.0875428,0.43807822,3.359968,0.9954968,0.5854907,0.75904834,2.2788618,2.7539036,1.7449476,-0.63697016,0.5572297,0.37807056,0.47029382,-0.5427081,0.6008908,-2.8348815,-3.5798473,0.19812244,0.8286466,0.42146507,1.9693611,1.1448979,-3.730556,-0.73636633,-4.027588,-0.9938341,-2.9550028,0.56760097,1.0712916,3.9590259,0.50565034,-1.9434705,-0.15445268,-0.85321397,1.8367351,0.69505835,0.6789585,1.416454,2.3640027,2.354554,0.7235957,0.63413393,1.5991784,1.1989408,0.05569741,1.7120792,0.97170085,0.23199622,-0.32185972,-0.059246346,2.875978,-1.7341334,1.3678982,0.27092788,0.628216,0.9231855,0.42746273,1.1247536,-0.017505404,2.5577853,-0.7057406,-0.52156496,-0.108852394,-1.3136973,1.6549726,0.38592204,1.1207656,1.8493315,1.627708,1.6794975,0.2201829,-1.3526381,-1.4408216,-0.20161039,-0.22924392,0.9669723,0.90182734,-0.79413325,1.569541,-0.26033452,2.0653427,2.0204093,2.689147,1.8312364,-0.4687864,-0.019280514,0.63930005,-0.6359753,1.4857237,-0.5766186,2.0784688,-1.3574456,-0.7521967,-3.303974,-0.32735848,2.0170784,0.95210415,-0.20403971,1.4792999,-0.26125005,-1.41364,1.6405299,3.727471,1.7496117,-0.5653478,-2.3367643,0.34226534,-0.9700535,-1.1741524,0.4888854,0.5371143,0.12704344,-1.4843557,2.1288767,1.6385006,1.3720456,-0.09196632,0.7116597,0.42947596,2.9838123,-1.4005119,0.34290993,1.7144058,0.16077557,0.78804666,-1.5667018,0.104723416,0.8436856,2.7848742,-0.60247546,0.9407748,2.677505,1.2105846,1.4786416,-0.0102523845,2.428814,-0.32847533,0.22209531,-0.60499865,-0.85274875,-0.42013472,1.0791655,1.3779644,-3.0689094,-3.7689824,0.77393633,2.0339973,0.013547135,2.4724803,2.0199983,-0.600195,0.5695555,-2.0900178,0.31622693,2.4964025,-0.99709225,1.031685,4.4813657,1.3161187,-1.2402428,0.33167267,-0.92617774,1.7526906,0.12414271,0.49787045,0.12737612,2.537538,0.6812052,1.3738505,-0.05705195,1.6155366,1.7819064,1.3488061,-1.1927799,1.5056616,1.6401287,-0.051918805,0.52254206,1.487521,-1.7907797,1.504749,1.0147576,-1.219239,-2.3022368,-0.88205206,0.42185676,0.97257113,2.9390514,0.59092975,1.5160702,-2.5124907,2.455728,-0.82076156,1.5089139,-2.028653,0.30493414,1.4912941,-0.05093105,-1.1316305,1.9030597,-0.10542534,-3.08066,0.62964064,-0.47322196,-3.2909372,2.151457,1.7691457,1.6333749,0.49520266,1.050447,0.04363347,2.2724926,-3.6195848,0.6757544,1.0852685,-1.1580502,-1.3114561,1.0946923,-2.366047,3.7956636,0.9001398,4.0617566,-0.2297273,1.2123667,-1.222849,1.0793563,0.31682733,-1.9650347,0.49267215,2.650569,-5.514782,-1.4180601,1.4032607,1.5535383,-0.9939201,-0.9378142,4.883862,-1.2196867,1.6925545,0.8961948,0.76014143,-1.3433452,-0.994968,0.7032291,1.3467771,1.7637571,1.3501294,-2.1200976,-0.19094214,1.7735829,0.409867,-3.8492322,-1.5118883,2.8763375,0.38705122,-0.4198905,0.21953553,0.25702792,-2.462063,-0.41591185,0.7794331,-0.7314886,-3.239758,0.7977411,0.8542149,0.8324687,1.4158193,0.13684504,2.29024,-0.95074,1.854301,0.22186449,3.076824,-2.1854556,0.64224136,0.6928333,0.24221188,1.6929473,-0.7129567,1.364774,0.97246474,2.9188614,1.5572513,0.45236355,-2.5123312,0.35525924,0.19853197,-1.6814659,1.686152,2.2801414,0.1492768,1.1905435,-0.675976,2.519371,-0.085201345,-6.58978,1.685736,-1.1515126,-0.63162804,-0.145157,1.2738093,4.416462,-1.1907204,-1.136582,-2.0416768,0.7662899,0.91034955,3.8088164,1.1866715,0.4428447,0.62172824,-1.8921121,0.81267905,-0.16621761,1.0056014,-3.969944,1.0089943,2.1010005,-1.4770766,0.3901408,2.4947221,-1.6885527,-2.1267605,-0.01913815,-0.92561316,-1.3773319,0.6585658,0.964598,2.085299,1.4021034,0.89168245,-2.0504706,-0.09717679,1.8463862,0.83379656,-1.6575235,0.4519876,1.3303319,-1.3452194,1.1191543,-0.91807055,1.1331772,1.8547057,-2.038491,-2.4326565,1.3460798,-2.9711576,-0.33577925,-2.9997883,-2.9135888,-0.8857841,-0.19357614,-1.2475271,-0.8008077,-1.3255409,4.7127485,0.36284965,1.0044467,-2.477643,-2.5235682,0.88251126,-3.5153093,-2.0206468,0.31522417,-0.7588595,-0.8822097,2.4283662,1.2084143,0.6231777,-2.6221762,-0.57328993,-2.6735103,-1.1019623,0.9847832,0.8713623,-1.0657703,-1.062396,0.5616995,-1.7109228,-3.1577396,0.6443285,0.2452272,0.28833294,-2.0057237,-0.6619108,-0.026970858,1.5891898,-4.0238905,-0.63395,-0.40925047,0.92026156,1.4642397,-0.18465959,0.9163265,0.38767225,2.755259,-0.71179664,-0.7253638,1.6316762,-3.0860822,-0.6623766,-0.79188854,0.0156043265,1.1988201,0.10697383,0.687251,-0.99677056,2.4402125,-3.5906634,0.65230584,1.2317734,0.8238137,-1.9073497,-5.1586347,1.4263576,-4.564977,-0.08773359,1.2082057,-1.2859406,3.2093315,1.901679,-1.6021907,1.1205298,2.859712,0.73835284,0.5136148,-1.9279662,-0.7094951,0.8904325,-4.34096,-1.4669691,-2.799284,2.5635114,0.97856814,-1.0867591,2.0750506,1.8102794,3.6849446,-0.20980714,-3.511368,-0.4751531,-0.91248524,0.5392721,-3.3677304,-0.5763567,-2.492045,0.43031684,0.3377425,-0.030173924,-1.0136248,2.5823028,4.179035,1.60259,-0.36598352,-1.4185861,0.6499452,-0.035671208,-1.9759763,1.4858104,-1.0283983,3.1323626,-0.33550552,0.08237897,-6.374064,0.50230587,0.6812395,1.116066,-0.47708306,1.6433849,1.0116585,-0.97041434,2.6779273,1.3882782,0.96260184,0.11062138,-0.7328019,-6.9688044,-0.75794894,-1.5881996,0.34740087,-3.1374247,-1.9124997,0.50770265,3.363004,-0.97217035,-0.83400315,1.9563173,-4.4746523,0.5937565,-4.7787957,-0.97244775,-0.62901336,2.4572015,3.0180213,-1.247188,1.0296946,-0.680371,-3.9802577,0.8699168,2.907759,-2.268747,-1.5502012,-0.52213895,2.3613122,0.15320604,-0.4023805,0.13753158,0.67840123,-0.5127984,-0.3763081,0.90148026,2.1840465,-1.4567244,-0.23688044,0.08255784,-0.7150825,0.7606888,2.9976976,1.8639129,0.4178615,-0.2911578,0.51331925,-0.79409695,2.5487998,-0.08814305,3.6225977,-1.1596452,-4.644204,-3.3352156,-0.8936571,-2.5255163,0.8525704,-0.23757648,-1.3930029,-5.9743743,-1.2624913,-6.022822,-1.166957,0.3078081,-1.087759,-0.28711453,-1.0180287,0.8104201,0.92314005,0.5900222,1.8509088,-0.30351695,0.42486316,2.0697482,-2.5507772,1.4335908,3.5527718,-0.52423847,-0.9871445,-0.6540376,0.8439701,-0.10676652,-4.5948553,0.5858293,0.05276594,3.706359,0.09166024,2.5469286,0.5866464,-0.477972,-0.4380545,-1.3950539,4.166338,-1.5985129,-2.8803606,0.68910223,0.18422888,0.2731004,1.6307327,-1.7638584,1.1094488,2.1171324,-0.32006142,0.029275103,0.07718666,-1.6887647,0.58595884,0.5642741,1.680714,1.500388,-1.3039821,1.9830959,0.7128446,-0.9719561,0.59404397,-0.007001937,-2.1084845,0.97132844,0.69276935,-0.91646963,-0.1340654,-1.6727806,2.4590378,1.001649,0.6982664,-0.020816375,2.6753643,-0.6283297,0.21415202,-2.4764948,-5.349674,0.035440646,0.09493082,2.3370311,0.5526714,-1.5218631,2.4924626,2.043456,-0.08504753,-2.1115172,1.8464229,-0.0037402636,-3.4703076,0.950138,1.2557809,-0.71718055,2.5014467,0.45007664,2.1449199,-0.34318995,2.2680564,-0.51464665,0.76097554,0.08936241,1.1709504,0.7735448,-0.39517957,-3.1935396,1.7850319,0.6525523,-1.0415334,0.5090051,0.30454156,0.4472243,-1.4950137,-1.9537119,-0.124438204,-1.0699611,-1.8130563,-1.15074,-0.1832185,-1.8402783,-0.4679341,0.9227009,1.8037037,1.026226,0.018981399,-2.2987974,0.3402276,0.72805804,-4.7463794,-2.4070098,-0.06518056,2.1935728,2.235084,-1.4766294,1.2531357,0.84996367,1.4665794,-4.4171305,1.5910143,-1.4211798,2.850229,0.36025026,-3.2993135,1.5444511,-7.1406584,-0.25757152,3.1451132,0.25160614,1.0337363,3.1934893,-0.8323885,0.47128978,1.0720692,0.53247243,1.0393487,0.28923765,0.43140143,1.124687,-4.020915,1.514437,0.5771107,3.59067,2.551074,-0.37361383,3.375672,0.4979486,1.2373153,0.7592469,-0.12630723,0.96635234,-1.1287975,0.76808256,-1.5710145,-0.37127927,0.8856235,-2.4651325,0.41727126,1.0902749,1.1060909,0.7301104,1.8305336,-2.209947,-0.10403229,0.22901045,0.016169088,1.3965355,1.4565564,-1.4755579,-0.95443875,3.3755896,0.12305171,0.28522363,-1.3047522,-2.102527,0.060672183,-1.9722787,0.6502583,1.8916101,0.16495937,0.37811577,-0.89924335,-0.1889817,0.24297155,-3.1876028,2.8939798,-0.8078696,2.6136198,-0.25135434,-0.11507551,-0.477591,-0.5597079,0.5868614,-0.9004286,-0.40991378,0.70539755,-1.9417961,-2.1485524,-0.41707715,-0.48679727,-1.5662376,0.32236207,3.6940536,0.6939649,1.4057244,0.19219646,2.9334016,-1.4221745,0.2564659,2.3898497,-0.70524484,-1.3762784,-0.7350746,4.7718587,2.8025177,-0.808351,-0.08371916,0.9043766,0.38376874,2.771799,-0.75846404,-0.4437487,0.3500695,1.9655735,1.3578305,-4.469612,-0.073216096,-0.11057408,4.3011994,1.0349586,1.6871017,-0.5595891,1.104535,2.3373618,3.5749967,-0.5400595,1.9167624,1.706932,1.8572288,-0.11226332,2.1116512,0.8698441,3.4398358,0.8944922,-1.1871598,1.9114866,-0.6127431,-0.9548487,-2.8623228,1.1634823,-2.4362674,-0.93764544,-1.1134585,-5.244244,-0.42254695,-1.4531245,0.5650007,3.0039055,0.60201734,-0.5907174,0.87337625,-0.18960708,-0.36086676,0.4283111,-1.9666858,-1.0841634,-0.56310457,3.7887506,-1.5469,-3.216995,-0.2451839,-0.31269684,2.2851818,-0.06446039,0.80097073,4.112924,0.5711122,-1.4885676,-0.02525484,1.5275776,0.2544659,-3.7250063,-0.76104915,1.8882865,2.5051053,-3.455546,4.807195,-1.4974337,0.12049189,0.8624219,-2.2222445,0.9908183,-0.07431777,0.9295509,-0.8123661,-1.6489017,0.5011734,0.2904913,-0.1705445,-1.7540581,1.3542004,-2.5136242,-0.080314375,0.79865056,-0.90446156,1.4989127,-1.7587448,1.4412102,0.7746186,-0.6278182,-0.102349155,1.5858366,-2.1672373,2.0895674,-2.773886,-2.828189,-0.20007768,1.1350138,0.08181792,0.035118025,-0.25524157,-2.464976,-0.05623829,1.5236379,-2.413442,-1.2609524,0.10465622,-3.499524,-0.26536193,0.66787994,2.5397453,-0.35529983,0.55017406,1.4425722,-0.07191663,-0.22822613,-0.46029416,1.9240794,0.19017094,0.4740371,0.42293236,0.79987806,-1.5733756,0.9023559,1.2683452,-2.8491414,0.09950957,1.8790603,0.38509014,-1.2699373,0.8331985,-0.5574004,-0.7618697,-2.4917324,-0.84146655,-0.42563817,-0.18886109,1.6068865,1.1937354,0.75892305,1.6136521,-0.375776,-0.25240725,-1.4765359,1.7688279,-2.6004133,-0.18555026,-0.30827886,1.7345698,1.3934501,-0.08106631,2.4712002,-1.8996227,0.9183727,-3.0405252,0.87063247,-3.5413194,1.2656282,-1.5331569,-0.63874805,-0.08305759,-8.422845,0.5443865,1.5413436,1.0647421,1.4284817,1.755447,0.060093734,0.75198257,-1.5208775,0.95985717,0.71626663,-0.045034982,0.026945096,0.8114984,0.22510764,0.46581897,-1.5245341,1.5855024,1.2376338,0.25048867,1.2158657,1.5588477,2.513068,-0.01799096,-2.0953324,0.3281215,-0.5462032,0.76186436,-3.6881065,-0.65753627,2.8496606,-0.81921375,-1.0508795,3.734204,0.27894062,