-2.563038,-2.9977913,0.3762768,-2.3045382,-1.7269388,-0.014243592,-0.4787125,1.3769783,0.8197686,1.1474768,0.41158372,-1.5580087,-1.4640874,-0.6652192,1.465686,-1.1663069,-0.21675861,1.5027689,-4.629193,1.5521635,0.26344284,-0.16225913,0.5820398,0.17371415,0.6434858,-3.3339133,-4.565345,-2.547562,1.0462632,0.07949511,-0.055887133,-2.4480603,1.1463386,1.1558206,-2.6920671,0.76721525,-1.2595907,1.4105403,-0.15628201,0.10685161,-0.17874652,-4.2872386,0.66001064,-2.102415,0.4658362,-3.1558223,0.6549181,-2.9862146,-0.81001043,-1.3210708,-1.0070349,-2.143971,-3.6236615,-3.1464443,-0.72413015,0.2609578,1.2070793,0.7469092,-3.3704717,0.9621678,1.2154244,0.15898466,0.78739893,0.44567803,0.9170875,0.4280329,-4.203742,0.8481818,-2.3970168,1.0966675,-4.279875,-1.8255999,-1.8499779,-1.3168675,-3.86475,-0.06890562,0.7407972,-2.3640828,-0.7230025,-3.4752584,-0.83177304,-1.7381861,0.92408156,-1.1293358,-1.9611137,0.7434193,-0.9086294,-2.1236162,-1.1395105,0.34186676,0.9898381,-0.6975121,-1.8519006,-2.4260278,0.7432432,0.4317647,-2.0064745,-0.6690941,1.1706827,-4.5424514,1.9303229,-3.3238335,1.7651962,-0.45497662,0.6387664,1.5346028,-1.7678485,1.2298161,0.027725145,-2.5962641,-4.0047626,1.0242822,-2.6344423,0.97846645,-1.140502,2.2023182,-0.5524921,-0.05682736,0.79922986,-2.0055933,-0.56452036,0.5508733,1.1670264,-1.9103702,-2.186157,-2.7664719,-1.6904064,-1.8570845,0.45103845,-1.4836102,-0.094361335,0.43808752,0.97400576,-0.6907669,1.2136543,-0.21771678,0.3182567,1.0588157,0.28567904,1.9848429,-0.6504788,0.6032775,1.5756088,-0.4601633,1.3775162,-0.2141654,-2.8871057,0.8910337,0.7783241,0.7676234,0.30415374,0.41518226,-1.0541742,-2.9072382,-0.98677117,2.238198,-0.1556859,-0.4820607,0.629935,-4.92806,0.014791818,-1.1848329,1.0909966,0.5508404,-1.3807039,-0.45795274,-0.8624299,-0.051691834,0.23913619,0.9021077,0.45643562,1.6614598,0.36216262,0.76498806,0.67500615,0.7167551,0.6472338,0.835285,-1.1194768,1.7098095,-0.5633629,-1.6595666,-2.1614952,0.62081945,-0.69266176,0.14741512,0.9497892,1.458871,0.4582794,0.57661694,1.7103096,0.90191317,-0.35586563,0.91085225,1.0210428,-0.4613804,1.3022977,1.0406244,-1.0094918,-3.4287467,-0.88756365,-0.095762126,0.8075026,-0.8310924,-2.7808533,0.59372437,-0.09952775,-1.1475716,-0.71240157,-4.0335608,1.3322599,-2.2911284,-0.7597916,0.16382052,0.44191197,0.6055429,-2.7086675,0.9216626,0.8192954,0.73961616,0.7599683,-1.3639587,-0.56994426,0.73097163,0.39264137,-2.6414924,0.5600899,-2.227388,-0.36504516,-2.1468105,-1.3321028,0.15886629,-0.16582435,0.7055711,0.49495584,-0.6509231,-0.38655752,-0.0827479,0.9777417,-0.7086449,0.64736366,-1.4661793,-2.2617087,0.73792785,0.4672643,0.34445018,0.38126555,0.7298371,-2.4086168,-0.8622392,0.6063916,0.20655145,0.551945,1.1150575,-0.90076214,0.31133544,0.17930607,-2.9342527,-4.912396,-0.25796443,0.5585542,-3.3505912,0.8626131,0.611163,0.32687667,-0.12811986,-0.24183597,-1.8851013,0.9302987,0.35360616,0.6567187,0.5043542,1.055332,0.038049836,-0.28925553,0.070582576,0.5832784,-4.732003,-2.1145115,0.6868923,0.66642874,-1.9723556,-1.2697293,0.35597634,-4.584082,0.8344008,0.64443827,0.61605084,-1.4875051,0.3575873,-0.9281246,0.44021398,1.1287658,-0.41216394,1.6172863,-1.446297,0.5103374,-0.7925275,-2.5532715,-2.9079592,-0.76132977,0.72051907,-3.634096,-1.963729,0.3583097,0.41980168,0.9115335,-0.065771095,0.6162866,0.40332913,0.13183132,-5.547375,0.30095387,0.54918534,-2.0420392,2.2528813,-0.019385837,-1.9734159,-0.4059365,-2.988095,1.2509375,1.7277788,-0.019104479,1.8135066,-2.3965278,1.6740611,-0.45041683,1.1765428,0.42734763,0.21747851,-3.0705953,-2.8047764,1.658633,-3.2797725,-0.13177274,1.684934,-2.2431424,2.031549,1.7251557,-0.8698496,2.0788894,1.0655556,0.7888196,-3.586425,0.25000265,1.4764347,0.9693529,-4.34792,0.9795475,-0.26009798,-3.4164307,1.1884403,0.46739623,0.39542237,-0.34700388,-0.9020013,-5.4402876,0.16169041,-5.2282987,0.68296033,-0.3612141,0.6639212,0.59305793,-0.9182464,0.74419427,2.1487813,-1.8032321,1.087701,-0.36863384,-6.059694,0.953334,-1.1813238,0.93748075,1.0612363,0.8082337,-0.13222066,0.1386115,0.39942914,0.72633296,0.7792929,1.545562,0.6280256,0.22529209,0.9165511,0.8423821,-4.0776525,-0.83848214,0.855967,-5.3894544,0.20400104,0.8118908,1.2670606,0.62695134,0.25612238,-2.9597924,2.348308,1.0385697,-2.3471425,-3.201992,-3.2178571,0.93805975,-2.2571545,-1.4612128,1.3247695,0.99774677,-1.0787398,0.52021,-4.5460873,0.8792699,-3.1435468,-0.28056833,0.46909332,-1.126921,-2.2290046,-2.7948513,-0.82834744,0.69215447,0.94736135,-1.33764,0.32334337,-3.7071917,-1.4407216,-2.921817,0.8346039,-3.2268767,-2.2914488,0.5231431,2.077539,0.30295017,-3.6976798,-3.0842714,0.85247236,0.4193421,0.58005023,1.0338587,-1.9408877,-4.901195,-4.3534307,0.82806015,-2.2245555,0.66453964,0.24146228,-1.5647651,-1.6431034,1.0778723,-2.2784948,-0.75736445,-0.8643216,-0.5245838,0.6765205,0.18942848,-0.20619476,1.0266938,-3.791405,-0.0471517,-0.3231917,-2.9844077,0.9608146,0.85296273,0.16357993,-0.7721549,1.4622521,1.590215,0.7248621,-3.0090296,0.81495,-0.29090288,-0.58853817,-0.35069808,0.07593144,-5.3634095,0.8451841,0.56720465,0.6121143,-0.7578156,2.0324616,1.151215,1.0713012,0.7776252,-0.85247684,1.3858955,0.30969658,0.9621224,0.6584575,1.5367035,0.72064084,1.4194422,-5.006712,0.59383196,0.75322646,-4.3773875,1.2819985,1.6125124,1.1676447,0.89544207,0.5468693,-3.2719862,0.95067644,-0.5642181,1.2487183,0.53238857,0.47340685,-3.6239474,0.594579,0.16050282,-3.4019198,0.77867925,-0.95281255,0.6752974,-1.3375614,1.0565091,-0.5967884,0.8621381,-0.54508954,0.21150395,0.09569172,-1.3822657,-3.657044,-2.6937838,-0.38603783,0.0070414892,-2.8038986,1.2530866,-2.4249961,0.80645084,-3.358644,-1.9396205,-0.096283406,1.0733145,0.19498803,-1.8932356,-3.3228064,-2.4096918,0.32470134,0.42605844,0.419658,-0.14866789,0.4723392,0.4885293,-2.4660034,-1.0723956,-2.8474147,0.46467122,0.57695645,-1.4250939,0.18430313,1.2607738,0.37524122,-3.64407,0.6365527,-4.7734075,0.41233757,0.27927592,0.33298984,0.4997775,-1.9047364,-0.88772166,-3.2235963,0.950488,1.0566485,0.6272716,0.6489259,0.4904073,-1.1124525,0.1033533,0.29985958,0.27041635,0.52615255,0.14863697,0.13313973,0.8078212,-2.4862733,-2.6459587,0.08574103,0.06067921,0.83600897,-2.5752335,0.8607796,0.9401209,-3.8121588,1.0538182,1.5314877,0.8811447,-1.5635942,0.4603225,-0.35327968,1.089573,-0.06743273,-0.2298391,0.8992277,-0.8784456,0.7219585,-1.3115227,0.48577684,1.6950433,1.8971893,-2.8260546,-1.0094558,-0.10976182,0.8893364,0.18843201,0.95413554,0.4163222,-3.255231,-0.14534853,1.0226568,0.552414,0.9394659,-0.9380853,0.06699211,-3.0366087,0.35549402,1.2079313,1.0532033,1.3040237,0.10524454,0.7234119,-1.9815296,-0.15844734,-2.0744693,-0.9698809,0.7725113,1.2213275,-3.3347175,0.2585039,0.3087834,0.52062035,-2.696009,0.55579615,0.70747876,0.41067666,0.46725723,-0.047461987,0.18932553,-3.0466657,0.2098148,-4.3315616,-0.47677702,-0.61398774,-1.3574595,