-4.3165984,-1.4896566,0.96370167,-2.41385,-0.006098255,0.7079853,-1.0454447,1.1726542,0.04117413,-3.418715,-0.034194376,-0.070707284,-4.192793,0.06682985,0.5526264,-1.6051964,0.75077015,-0.055515233,0.9555011,-0.013826485,0.07375216,0.056509048,1.9272443,-3.118921,0.0072442,-0.028533962,1.0979028,0.042553987,0.03845265,-0.068463676,-0.67764175,0.047745965,-0.9056417,-0.11348703,0.9339539,-3.9708717,-0.062856674,-0.045950904,-0.39742145,1.1475768,-0.10038027,0.81544137,-2.0587187,-0.069940925,-3.7209573,-0.5657434,-0.04089887,-2.3600457,0.024193365,0.7862982,1.4312805,1.2904719,-1.4779354,-0.047152787,-5.2230973,0.9942841,-4.0311704,0.45970178,-0.036675237,3.8745697E-4,-0.031146925,-0.094454095,0.8432316,0.73622185,1.0763378,0.9240652,-2.2312932,1.1497947,0.026394602,-6.4438343,1.0538377,-4.392005,-0.07713058,1.5312344,0.108599015,0.1365948,2.0283277,-1.1201488,-2.3182793,1.98073,-1.4271169,-5.2022324,-1.9211311,0.044764064,0.1371857,-0.03653611,-1.2082039,1.5751914,-0.022687012,-0.21086024,-1.7968587,-0.021824706,0.11060906,0.012014966,-3.8064222,-0.040865775,1.2347776,-0.0048273103,-4.636703,0.7183899,0.8436893,-0.045311414,-2.8672993,-3.7610586,0.0010706539,-3.4456954,0.71920335,0.09133682,1.3601953,-2.7595096,-2.7479595E-4,1.3649315,0.09501126,-1.3214449,-1.6129526,-1.1918488,0.856891,-0.28790727,0.87596893,-4.9890676,1.0436969,0.84212756,-0.18064097,-9.6555025E-4,0.060140863,-0.028726075,-2.9860299,1.8786536,-0.7657849,-3.2013998,0.28951415,-2.8646796,-0.035465155,0.8962697,1.0460367,-0.25057063,-0.1799345,1.2031635,-0.12772863,-0.21093984,-2.932424,-1.5718948,1.6019292,1.9614787,-0.20851827,0.15138753,0.83299625,-0.038538918,-0.030987885,0.0043948055,-1.3917012,1.548448,-0.09661597,-0.12690227,1.015634,0.03776529,-0.012636625,-0.0048715253,1.519729,-0.087652616,-0.42277116,-0.03725087,-1.6381296,-2.0496924,0.24110802,-0.017675858,-0.8850723,-1.3320394,-0.0407988,0.63559324,0.17270344,0.008849363,1.8601419,-1.141234,-0.13229097,1.1732801,-0.021362092,0.39333445,1.411837,1.2173402,-0.012294886,-0.2147423,0.37077093,-0.84367377,-2.1476266,0.60777205,-0.009467689,-0.011394189,-0.0046445145,-0.08882719,0.659915,2.729933,-4.733941,1.1647956,0.013774256,1.2662413,0.013319153,-1.2391204,-0.54598165,0.30208114,-0.25701138,1.1500856,-0.06102457,-0.2943908,1.2832352,-2.4620624,0.5858517,-1.3483212,-1.9803873,-0.5374359,0.5920252,-0.063921206,-0.39067194,-0.006669467,-0.8882151,0.7993676,0.08325447,0.044250403,1.1906621,0.029861016,-0.056465413,0.069160506,-2.0999773,-0.06647475,-2.969116,-0.15140459,-4.140678,0.5139692,0.476251,-0.068334065,0.71242017,1.1865898,0.03025799,0.5441347,-0.12785752,-0.081467494,-2.1493173,-1.5831642,0.08448536,0.5946357,0.075339146,0.17186221,0.5202907,-0.2511954,0.98981917,-0.17418297,0.23355447,-2.7838542,0.50776994,-1.2214546,0.013120782,0.025795374,-0.0032721004,-0.12900482,0.46423212,-2.4859536,1.4014124,-0.43334216,-5.4633937,-0.095020205,0.010573032,0.94873166,-0.13608207,-1.6026704,-0.18783794,-1.1248997,-0.055473138,-0.008293188,-0.6690197,0.8871745,0.03621207,-2.9367647,0.5651899,1.2298052,-5.3764005,0.01204777,-0.005329432,-0.070315816,-2.4525568,-4.0115104,-0.0051073856,-0.23181003,-4.563801,-0.10456015,-0.015734928,-0.10898733,0.69616747,-0.016699545,1.0878503,0.056942597,0.93520206,0.68279374,-3.9054308,-0.12312739,0.559947,-4.530364,0.040663272,-4.8339405,0.6873337,-0.047007073,1.323729,1.4132557,-0.04044683,-3.6911416,-0.14213665,-3.812942,0.87555957,-1.7311667,-3.0588405,-0.27246064,-0.14514513,1.0871491,0.9469133,-0.3507563,0.083582856,0.06972428,0.008273651,-0.017375754,-4.943948,-2.889408,0.9752814,1.236552,0.35346663,1.2511549,-0.12481438,-1.4936532,-0.321394,1.0128129,0.1800821,0.41276976,-0.02258099,-0.031869695,1.6398278,1.3344964,1.0549965,0.25125322,0.6462485,-3.3754394,-1.261557,0.03804632,-0.2419471,0.0013597461,1.6173408,-0.09810434,-0.13984695,-0.0124652805,-1.6877116,0.0076328614,0.15413383,0.010577139,1.7617929,0.053954065,-3.429223,-0.14791358,1.4621475,1.2027566,0.7861537,0.024919406,0.86809856,1.2987922,-0.021315651,-0.4136381,-1.3480433,0.07781993,1.9170182,0.76065415,0.06077413,0.0976521,-0.08078352,0.7301151,-0.3288361,-0.06906137,1.1291376,0.2504445,0.7429413,1.5028938,1.1512957,0.7642621,-0.11461879,0.11889294,-0.122251995,-0.13102025,0.5819397,1.4142252,1.9798378,0.4104764,-1.0390514,0.20948163,0.078258276,0.060843192,1.0111039,-0.10285382,0.4202564,-1.7303203,-0.1468678,-0.056766212,-4.6756215,1.2146106,-3.4897022,2.587065,1.0139085,-1.2311277,-0.89754015,0.0035015012,-0.061426368,-0.034047935,1.8978313,0.26885706,0.004360326,-0.11641194,-3.3616173,-0.0952942,-0.11853953,-0.04740087,1.8376801,0.010311502,-0.9110976,-0.106112294,1.1150903,-4.7370524,0.5486423,-0.116396286,0.38794526,-1.9265279,-0.16126245,-1.3244684,-4.0261683,0.008720292,-0.45608345,0.98000616,-0.034436192,-2.6127963,-0.008146379,0.8309527,-0.49255723,1.7222654,-1.4248952,-0.22481003,-4.0888247,-1.5467072,-4.980275,1.2547649,-0.0492784,-0.035182126,-0.005265366,-0.08169716,-1.5373026,0.122401446,0.3104983,-5.4544125,0.64405805,-4.823287,0.048695765,1.1659613,0.118335225,1.2288926,-0.470559,-0.03642494,-0.0067378404,-0.10749417,1.7762517,-3.772803,1.0683275,1.9537864,-4.267321,0.1308121,-0.65780634,0.0011469368,-0.31719455,-0.0749563,2.2501159,0.95949,-0.13351867,-0.0802158,1.134703,-0.06182918,-0.12563643,-0.007333256,-1.7714949,0.031338688,0.66940224,-0.032315806,0.10240815,1.0485148,-4.2069273,0.0010232071,-3.9942827,1.2000849,0.0019576035,0.47559986,1.0637144,-0.014053201,-0.52066743,-3.5715415,-0.2710352,0.84492666,-0.004944792,-3.371847,-0.2069413,-2.370789,-4.4198117,-0.2560152,0.7710766,1.3925163,1.0603108,-1.0657905,-0.14956184,-0.04317884,0.053864613,0.011669371,0.85901254,-1.1750981,0.37621272,0.49152702,0.691937,0.40691787,-0.0056693354,-0.0032645543,0.9972313,-1.0999292,0.12767671,0.20513831,-0.028719978,-0.2139725,-2.1596289,0.8706271,-2.7864394,-2.6021056,0.65692586,1.193357,1.211657,-0.099715225,-0.22203456,0.02163289,-3.9735317,0.77839804,-0.04651491,-0.112621,0.0812286,-0.09138439,0.0063157994,-0.074647725,-4.0158534,-0.02100601,0.6155129,-0.12979317,0.24247085,-0.20586793,0.56329864,-0.007856979,0.06814287,-2.2964478,-0.048864022,0.80038226,0.03160881,0.00205874,-4.655467,0.9854586,-0.08396311,0.6049689,0.06600284,0.46220344,-2.4268208,-1.7788839,0.63885105,-0.3928088,0.30676875,-0.4737779,-0.102364935,0.4432392,0.05470248,-0.054720093,0.13640888,-0.12378114,-0.29913497,-3.3975868,0.5937715,1.052241,0.5801025,0.8045636,0.09512547,0.96254796,-5.110478,-1.5045445,-0.13216522,-4.4423966,0.14190632,-0.092073314,1.3241546,-0.1125577,0.34491423,-5.4165654,-0.17855734,1.6920694,0.7047145,-0.0885182,0.250989,-0.013097859,-2.6738722,-5.0544267,-0.13582636,0.013109902,1.214656,-0.022202678,0.0047579687,-0.009292269,0.47237206,-0.08921136,1.4966986,-0.013473011,0.011786803,0.8965824,-1.0097233,-0.07171957,0.3038533,1.0187606,0.019371478,0.29750422,1.1461703,-0.00948548,-0.010018061,0.8213944,0.2084075,-3.0798404,-0.12912957,-1.5017531,-0.9449386,-1.3006268,0.020116387,-0.27160275,0.58291095,0.9082212,0.8423957,-5.6308475,-0.0969651,-0.19982798,0.018518595,0.015391352,0.54408336,-2.1588087,