0.52721226,0.68502235,-0.38948902,-0.15695536,-0.28796983,-1.1429247,-0.69167024,-0.66634417,0.20573865,0.90927166,0.23055741,0.14818089,-0.09320372,0.5798043,0.7225193,0.6004587,0.15075111,-1.6270162,-0.6223767,0.84571445,-0.9438414,-0.7234133,-0.5585897,-1.849678,-0.12506272,-0.8487597,-0.8780436,-0.68299496,1.1547177,1.1196682,0.5089817,-1.4241899,-0.25296208,-0.9522318,0.097176135,0.23090832,-0.7219668,-1.3058228,-0.42643577,0.78263706,-0.9188105,-0.45280036,1.5769601,-0.2417202,0.08216608,0.23767656,-0.5674636,-0.52984434,0.1978099,0.23421112,0.6307601,0.3053844,0.12185889,0.47320205,-1.1654027,-0.18307678,-0.5358548,-0.9456437,-0.5414985,-0.33444315,1.1855319,-0.2986016,0.76084626,-0.1453923,0.06980018,0.21433865,-0.9806595,-0.26687974,-0.16934513,0.12053722,0.7506536,0.2366242,0.1798011,-1.0651907,-1.3320231,-0.25368053,-1.154392,-0.92701423,0.28809312,0.36294603,0.10793643,-1.0564512,0.2072098,-0.014421118,-2.2699072,0.7383159,0.55817956,1.6271347,-0.5116231,0.32350144,0.070042714,0.29719567,0.65509224,-0.14767054,0.3739892,-0.2103941,-2.5520606,-1.9807028,-1.3832074,-1.2323673,-0.24284762,-0.20597957,0.056462973,-0.16537473,-0.10778807,-0.13219875,2.301571,1.0310317,-0.34710607,-1.8672138,-1.468717,0.16615145,-0.80715275,0.7047909,0.3249364,0.07806626,-0.06773439,0.13995759,-0.33944204,0.6106526,0.16052327,-0.55119646,-0.034285367,-0.4571407,-0.71854633,-0.0069225035,0.18593897,0.7099702,