-0.75562125,-1.0684718,-1.5519567,-0.2386534,1.3083724,0.8303779,0.595821,1.022015,-0.35304174,0.46410605,0.767062,0.52978027,0.41940826,-4.582498,0.9761393,0.9844369,-2.5279777,-0.46733698,-1.7939373,0.009598929,-1.16809,0.89694273,0.6504382,-0.5066209,-2.2300785,-0.2686946,0.23085096,-2.3929749,-3.9701626,-5.482847,-4.39202,1.1266689,1.203084,-1.0295737,-2.312094,-3.352265,0.4526452,-3.4054492,-3.3243296,-6.547034,-1.460637,0.7332091,0.92158383,-2.015434,-1.8243852,-3.8024209,0.53028214,0.8429381,-3.7112396,0.6573342,0.35314193,-0.9498745,-1.5765688,-5.1979876,0.43882984,1.7722929,-3.050375,0.5945187,0.59296465,-1.9399691,-3.108756,0.16540994,0.38355148,-2.5436673,0.47723925,-0.4440974,0.99425715,0.7511662,2.6276484,-1.3644779,-0.22080413,-0.75682133,0.35242212,-0.4755008,-1.0517197,0.18881552,-0.66772693,0.57816845,-2.964737,-2.1832447,1.3338515,-3.6363356,0.45682603,0.20446137,0.47115174,-2.9090557,-3.0456557,-0.63644105,1.2140374,-2.941361,-1.5327442,-2.1963112,1.7040185,1.2496743,1.3147415,-0.38432828,-5.156912,-2.7749677,0.8153406,1.2821779,-1.8271592,1.6804116,1.1983709,1.0097444,0.9858785,-2.980684,-1.6455309,0.8102906,0.2914134,0.87901384,-2.2354763,-0.8226811,1.1471363,-0.12635407,-1.9347464,-3.2595713,-0.3369856,0.9306181,-2.8268244,-2.8654394,1.3211988,-1.0811294,0.8518307,0.8914022,1.5115174,-2.972858,-0.27293453,0.6221523,-0.3308495,-0.84927595,-0.5389228,-0.39620173,0.8510082,-0.9003613,0.38247418,-0.023508687,0.7090951,0.17208906,-1.8155127,0.27413943,-1.1318818,0.7138582,0.4018002,0.9673543,1.6219729,1.1220229,0.6064468,0.8335266,0.3015612,0.30012804,-1.0396534,1.6661884,1.5254818,2.1493576,-0.09727414,0.43988433,1.0556059,-0.7091421,-1.6940951,1.9278426,0.4947589,1.1600041,-2.266345,1.6545365,0.2771678,1.6812478,-3.10614,1.8028165,-0.044722218,0.9134839,0.057526007,0.38525888,0.66609323,-1.7562879,0.18655834,1.0915786,0.693713,0.20907594,0.45307153,-0.08066115,1.8695794,1.1102304,0.3773918,1.304835,0.25808287,-0.8005035,1.0042605,-3.8428676,1.8727177,0.13469036,-1.0689611,-2.2530048,-0.8649174,0.3996982,-4.352331,0.70270723,-3.1328833,-3.351173,0.24004413,-1.6940265,-2.5090249,0.3548452,-1.260371,-0.23564017,1.3787434,0.8812767,0.4480493,-1.8194163,-2.238903,0.118573375,0.17342639,0.9539364,-0.5895052,0.5186636,0.13722676,0.8270223,0.66796404,-1.4169037,0.121493645,-1.9042578,0.6159469,0.6569229,0.9512889,0.24422666,-4.50438,0.12848611,0.7916579,-1.3354012,-0.7523633,-1.7895963,0.20267099,-0.32646707,-1.8229102,0.9738546,-3.6464148,-2.1629422,0.85989606,-0.80357605,0.51689327,0.54064864,0.25729504,0.24326329,0.035812806,0.58402103,0.34834155,0.6660329,0.40924063,-0.70574933,-0.25244582,0.08653674,0.35115093,0.5177574,-0.31028995,-0.5259833,0.600973,0.19335605,0.5096386,0.42369178,0.8373716,-2.7463481,0.3086252,0.7902769,-5.152285,0.88542104,0.8903815,-0.081396066,0.21942708,-0.18291804,-4.2508035,-2.088749,-3.8696792,0.48303568,0.8345264,1.0016662,-1.6286995,-2.700098,-0.10812062,-5.71726,0.64233464,0.83491737,-0.47953668,0.8993629,0.53060776,0.6959893,-0.044340003,0.8677572,0.28996438,2.6556888,0.5481955,1.1805221,-1.0449252,-1.3737324,0.21721093,-1.2137669,0.68082196,-0.63818216,0.77772063,-2.3149586,0.3421268,0.36344674,-1.8046595,0.7834718,-2.4438252,1.5671866,-0.38276333,-4.352164,0.49751723,0.8675252,0.83583665,-0.908468,-3.5859249,1.0479054,-2.9475982,0.36501032,-4.7475276,0.2901733,-2.9587495,0.40914088,-2.8777866,0.40912443,2.0836,1.3912942,1.0555261,0.8391419,-3.8348863,0.5301204,0.69434005,-0.023502635,-2.9288926,0.4007919,0.67119527,0.40990832,1.6740907,1.1175388,0.50132376,-0.029154347,-2.8845959,-3.5745308,2.2183387,-3.1672516,1.6048381,0.5001069,0.34365025,-1.9948481,-1.9548626,-1.5739305,0.6101771,0.77212816,0.6565001,0.75254726,0.9225686,-0.37980172,1.4019998,-2.3110802,1.8842369,-2.212977,0.4711701,-1.8740629,1.31058,-0.5084279,-3.5909922,-1.8471426,0.25551617,1.0060838,-1.6526176,1.0025102,0.5406039,1.2822287,1.777629,1.2172006,0.29550755,-1.1583952,-1.8023629,-0.070951864,0.7844531,-1.622543,1.910323,0.6953594,0.8293671,1.6570309,-4.62455,0.55428547,0.9452513,1.7655697,-4.793149,-3.0871305,1.0024016,0.78090686,-1.1704395,1.1051327,-2.3807724,1.0298866,-0.0033981074,0.59592456,0.9024345,0.6151057,-0.19411401,-1.9051523,-2.1145012,0.4612301,-1.3372862,-0.67071724,1.1963837,-4.5592933,0.6815681,-1.9808669,-3.411082,-2.5732255,-1.0113734,-1.9470186,0.18646133,-3.097326,-0.7387541,0.507434,-1.5587978,-1.8474618,1.500863,-2.2414587,-2.8604496,2.2155018,0.45964047,2.6254838,-3.272317,-1.1520969,0.5610702,-4.7159667,0.51445204,0.90674806,-4.4399323,-1.8218699,-0.15993236,-0.5818985,0.9048809,0.84595597,0.5238068,-6.3614726,0.24404956,-3.6315734,-0.13017647,0.972596,0.9145953,1.1923947,-0.59331393,-3.2501185,2.0251908,0.6470993,0.81801975,-3.5825818,1.0887636,1.3702514,-0.75133276,-4.602194,2.0452397,1.4031559,0.8417908,1.655836,0.28081095,-3.8235664,0.34201837,1.4876106,-3.4248555,-0.04358758,0.98983353,-2.283175,0.55054486,1.0521216,-3.165756,0.9436705,0.005513792,0.84634095,0.644871,2.0074308,1.5168208,0.87912965,-3.087035,0.93027854,0.82387656,-2.465129,-2.1666527,-0.4077236,1.5310009,0.9620387,1.0080165,0.7025661,-2.8879845,-1.5425322,0.3857626,0.9013769,0.4510473,1.365005,0.71503645,-0.23736507,0.7117063,0.57633424,-3.6613076,-2.602037,-1.6933155,-4.4655566,-1.3798062,0.72961813,1.5759323,1.0453945,-1.9768236,1.0144717,-1.4712999,1.47531,1.022568,0.82618153,1.6133202,-2.7658687,-3.2536294,0.735107,-1.685379,-3.7529833,0.49659127,0.3292229,0.93542135,-0.48885217,0.31125772,-0.29825628,0.93244416,0.2754336,0.41558406,-0.17636141,-1.687222,0.63812745,0.36873767,0.37489182,0.9497614,-3.2507787,-1.5018117,1.2082133,0.40261963,0.18191639,-0.052601565,-0.40110603,-0.74641615,-4.0250044,0.271003,0.6647645,-1.4073254,0.55396545,0.6634758,-3.3143222,-4.324564,-2.8107252,-1.1375939,-2.481507,-0.072797604,-1.8805149,0.43293825,0.5207515,0.75630766,0.7864673,0.18161955,0.9214632,1.1543123,0.32492316,0.52103955,-3.3360248,-0.55216575,0.031517737,0.49689907,0.7231494,-1.0381806,0.20290396,0.43032855,-2.5711665,-0.036828164,-0.7909475,-0.71497476,-0.98922247,-1.369882,0.051908504,0.52386844,-0.911037,0.60028714,0.8788646,0.43117923,0.39673576,0.9960187,-0.59213436,0.12318826,-1.3139277,0.729767,-0.5262212,-0.9898092,-1.2677324,0.59528196,-1.7302856,0.52069426,0.42895755,0.3803755,0.96586466,-2.7674246,0.80307144,-4.093451,0.49708715,0.503797,-2.3416023,-3.441052,1.0568593,-0.121768914,0.46818236,-2.7512448,-0.21388407,0.93777484,1.7203976,0.39568317,0.8093308,0.8827977,0.035715908,0.3184672,-0.8404055,0.715359,-3.2348025,0.8452637,0.9939485,0.22326876,-3.3769708,0.94307435,0.62840337,0.048132274,0.38246554,-4.306248,-1.0674906,-1.8135297,0.8396198,-3.7245991,-2.5810914,-0.72688997,1.0891464,-1.7545367,-1.777141,-0.5583803,0.9591292,-1.7995614,0.44135365,-0.8872541,0.79806525,