-0.52476025,-0.86753005,-1.311675,1.6736498,-0.74450016,-0.72557425,-1.2678192,-0.36155584,1.5749718,-0.21729872,-0.57078385,-0.60423154,1.1124982,-0.5713671,-1.345275,0.7460925,-1.6932999,-1.1342158,0.6980553,-3.163589,0.73645365,1.4579183,-0.97324896,-3.340914,-0.8247019,-1.217276,0.5279294,0.8259642,0.5942018,-0.6460566,-0.015271438,0.8894851,0.26342577,0.33692256,0.82057905,1.5930479,-2.4528837,0.21205181,0.806584,-1.8223041,-1.5505779,0.098649785,0.7526716,-1.3687177,0.95613897,-0.85147804,0.6879196,-2.3478544,1.082634,0.7594439,-2.3838851,0.8091629,0.21027033,-3.7404,-0.7769992,1.2911328,-0.66288537,-0.8827875,-0.69393194,-0.83883274,-1.3088418,0.75827295,-1.5788983,-3.269099,0.23223013,0.634902,0.98726946,-1.0415726,-1.947993,0.7980854,0.866187,0.8919507,1.4498327,-0.91113824,0.97626173,0.67962515,0.9831334,-1.3242685,-0.67002416,0.26518053,-0.48358005,0.29784533,0.633776,0.6819997,-2.2947946,-0.17805979,-0.09154322,-1.3484346,-1.7557746,0.09271907,0.62848216,-1.6127028,-0.22409071,-0.83355564,0.49301854,-0.3835409,0.32831287,0.22753866,-0.9512874,0.3567229,0.48694807,0.5437208,-1.0902903,-0.76978767,-0.92156154,-2.2622004,0.44024253,-1.1348015,0.22308497,1.051427,-1.0719568,-2.109974,0.015764005,0.537652,-1.7521774,0.042197615,-1.8755832,0.18739007,0.560324,0.21631964,1.0488228,0.86817056,0.676774,-0.32211882,0.8880948,-1.3453918,-1.0953931,-1.5405959,-2.0810356,0.55373526,-0.484401,-0.6934318,-1.8902016,-3.2402794,0.70303625,0.9163457,-1.232272,0.8531108,-2.435626,0.39967757,-0.941536,0.53129596,1.1718864,0.44892126,0.5170267,-2.7363756,0.58895314,0.19189593,-1.2163644,-0.8690251,0.55662125,0.18647736,-2.7082622,-1.5043498,0.21143948,-0.83677787,-1.4813488,0.78980625,1.7021761,-1.6162134,0.61827755,-1.921528,-1.8139614,-2.2628188,0.5359072,0.55684954,-0.3751388,0.43554637,-2.6451063,0.77613956,-0.1665634,0.60076404,-1.180578,0.91159993,-0.23835549,0.8621793,1.2846035,0.6664192,0.9486389,-0.7443113,0.9751719,-0.97649455,1.2027706,-0.42659143,1.0011278,0.82447344,0.44215754,1.2123396,0.6056053,-1.2133312,-0.6065296,0.9720462,0.6652146,-2.218117,0.5868628,1.2270105,-0.6963697,-1.5200243,0.7450069,0.7501093,-1.3733557,0.78690267,-0.15542011,0.8245971,-1.2197505,-1.3716593,0.7150515,0.59514207,1.1182973,0.6190977,0.5846578,-1.192898,1.157722,1.1421219,-2.0803325,-2.1826012,-1.2327707,-1.6766757,-1.9450029,1.3329389,-2.7241735,-2.0197594,-0.6951016,0.071311265,-2.0107088,0.6670781,0.116454795,-1.58431,0.5928274,0.10773403,0.3006118,0.57837963,1.7476002,-1.4156417,0.2169773,-3.3841274,0.9569504,-1.1416463,-0.811817,-1.197033,-0.18267998,-1.279135,-0.34817433,0.62741303,-2.0473356,-2.5396729,-0.28602764,1.1644491,0.53761166,-2.1641412,0.6644476,-1.7407528,0.9353145,1.006809,0.9181742,1.19419,0.38345698,0.09685165,1.1133443,-0.3419192,0.58738536,0.41909957,-2.2564657,-2.161402,1.3263162,0.6795368,0.5206579,0.6720712,-1.4486009,0.4978582,-1.7325108,-0.0794643,-1.1138463,0.08959308,-1.14416,0.25844193,0.58384097,-0.6129926,0.5583857,-2.2298696,-0.675884,0.6108728,-2.0812004,-1.3807702,-2.5118382,0.7491416,-2.2699773,-2.1003032,-1.5027566,0.6330852,-2.412123,-0.24705526,0.63845307,-0.8631336,-1.3562905,-0.7546464,-0.30660918,0.90328383,-1.6901616,0.0664545,-0.2190915,0.7527677,1.1390008,-0.78693485,-2.1908188,-1.8259181,-1.0076847,0.4114088,-0.782349,1.8251299,1.0300434,1.1867348,0.608491,0.69546396,-0.8744032,-0.53233963,0.34056684,0.7616887,1.5135688,0.28876138,