0.345981,-0.012063989,0.91584,-0.53986007,1.6786684,-0.22824834,-2.088637,-2.068304,-1.3851942,-0.9331495,-1.3116242,-2.3136904,1.310483,-0.8825917,3.4450724,-0.87682354,3.0970397,-1.3192285,0.6467301,-1.7759751,-1.0689675,-2.5878453,-1.0021539,0.087476656,1.4241437,2.536245,-4.5286126,1.6131799,0.7438381,-0.47192532,2.0216832,-1.7084048,-1.6127307,-1.190086,-8.271806,1.7665244,-2.950635,-1.4371266,-0.36201543,-0.64448804,4.681196,0.92509407,-2.461721,-8.248047,-0.120995164,0.31052554,0.77001864,-0.16936213,-3.2217393,3.2128859,-1.5602813,-0.83454084,-0.879334,-0.97418195,-0.9988672,-2.7222369,-0.7738107,0.6438929,0.14725286,0.11380718,-0.22651684,0.9411543,0.7786386,-0.9171455,-1.8649807,-1.8244146,-3.2306137,-2.1280375,-1.3307557,1.9144568,-1.4698579,1.7603878,-0.69233954,3.4302413,1.7153091,2.1247551,-0.5016669,-1.4648004,0.615241,-0.32881093,-0.12563422,0.58642495,1.384573,1.7841737,4.9782147,2.748774,-1.0564159,-1.5054253,2.226897,-1.8628725,0.9472857,-1.6507,-0.88715017,-0.47053093,0.5534171,-2.7315145,2.0608752,2.627324,-1.1689012,-2.682944,-1.7644615,-1.4747534,-2.3565009,0.12247891,0.539838,0.67546463,0.043571662,1.3423488,0.98213536,0.87660664,0.30989695,-2.0851102,-1.6973917,2.0198965,-1.7982401,-1.4291852,0.548867,1.9922694,1.6415653,3.407242,-1.1309583,-2.4944675,-0.6987139,2.6238947,-1.626611,4.6538744,-0.98530287,4.1307836,-1.8957353,1.1840807,1.314297,-2.4516916,-0.57154346,1.1764469,-1.298069,0.19512434,0.63675976,0.039228536,0.9984819,0.920906,1.0372924,1.5634809,1.3045385,2.5764537,1.1359906,0.57768357,-1.29903,-1.3618298,1.7723001,0.93931043,1.3115033,-4.2537465,1.102997,-0.07019975,-1.0243102,0.99585116,-0.80892956,-2.2853096,1.9026064,2.1171086,-1.2432363,0.9810198,0.5563416,-0.58273876,0.7812325,-0.49481937,-4.7317553,2.671342,3.6480255,-0.46822575,1.5805984,-4.245012,1.5058097,-2.304911,2.2770865,-1.2579341,-1.9007314,0.07799839,0.741284,1.6419094,1.205662,-2.236338,1.9495862,0.8929438,-1.5712726,0.10928623,-3.4967551,0.8239261,-0.12994573,1.6611964,1.2964667,1.2436813,-0.9035479,1.3627272,-0.33526987,0.5604576,-1.4919921,2.0227926,0.30789426,-1.6076338,-0.9995741,0.91093075,0.5929743,-1.4722075,-3.8536792,-1.8870403,-0.6648354,-1.702932,1.6700628,0.0195786,2.594975,-0.9527,0.5723658,2.8030903,-0.46724796,1.7367041,2.5838559,1.3576245,0.09075323,1.495013,1.0018885,2.011687,-0.8741811,1.2780652,-0.27697688,2.2130933,0.6451604,2.0557559,-2.942484,0.83642244,-2.7265239,1.0080483,-0.21551855,-0.3700485,0.8011122,-0.104721054,0.8990331,-5.1653414,0.8185485,0.50477314,2.8496592,0.27420247,0.5826972,1.5654995,1.5955977,0.57314306,1.2077746,0.96014,1.4565883,1.551119,0.5264286,3.602689,-1.0457536,0.12743798,-0.62175316,4.952389,-0.17349161,1.8133076,2.1850057,2.2717745,0.66065,1.6441401,1.5730007,1.3498988,0.9954697,0.9815902,1.3291143,2.2919288,-0.12961732,-0.083806284,1.4819539,-0.77052194,2.462936,-1.1376402,0.27405745,0.22519937,-0.9419457,-0.6698286,0.5414571,-3.2126105,-0.19094263,-0.24353814,-1.1889735,0.42846715,0.123254806,-0.26336592,0.8709118,-0.929812,1.6749498,0.18513604,-5.244047,0.4084763,-2.656684,-5.6708374,0.037867486,0.6735993,1.9033513,0.9741999,2.935495,-5.239368,1.8729687,-2.4533708,-0.691794,0.013724957,0.7591351,-3.8608525,-1.6826352,0.6630438,1.5648402,0.22204663,1.0383663,-0.17719144,-0.4847263,2.8755412,0.86018485,0.08601942,-0.30239227,0.8306258,1.1809645,1.5145146,-0.47939262,-2.1619735,-0.11142909,-1.2478182,1.275076,0.20110103,1.3337975,-2.0930827,-0.49374095,2.3822057,-0.10187053,0.10612102,-4.0013204,-0.30206394,-0.008464846,-2.7348785,-1.1400684,0.112915225,-1.3739564,0.9252028,-1.5101248,0.38912874,0.754735,1.3613015,-0.8320739,2.4733474,0.026530059,1.401546,-1.838527,0.56799525,0.15162894,2.182026,1.6260287,1.7231654,1.116486,2.1063788,-0.29313558,0.1483245,-0.8794562,2.313288,0.2452105,1.2174006,1.0681319,1.105182,0.49802643,-2.4616616,2.4674482,2.0872853,-0.4485677,-0.8069031,1.3462772,1.6577694,-1.0895324,1.5338197,-0.22013897,0.1573261,-1.0121033,3.6783457,3.2899673,0.004232983,-2.1714072,3.2179222,-1.2914643,1.7395898,0.24230087,2.019555,1.4343622,0.0350495,1.2885563,1.8314586,1.4002783,1.9016793,0.3830505,0.1744157,1.6999073,0.9211192,0.41400635,0.79410857,-1.1341723,0.07661136,0.32332435,-0.75594634,1.8173642,1.489632,-0.43029857,0.40944257,0.73579764,-4.287229,-1.0691609,-1.1510739,4.0878634,-1.5177982,1.3101914,-0.5249487,0.057414044,-0.2546817,2.392185,0.32005358,-2.254049,1.1031845,-1.7242199,-4.8559384,-0.20296179,1.7525461,-1.5340965,1.1613864,2.0489354,-7.4920897,1.2678937,2.0056045,-0.761873,1.8412241,3.2699819,-5.31935,-1.80213,0.3709558,1.5485257,1.4979821,0.48514622,0.6094529,1.4510751,1.7855737,0.35273403,-0.8816792,-1.23823,-0.20538348,0.44431582,1.1365168,0.88434416,0.16326831,1.2527593,-1.8045382,3.139509,1.2885447,1.7259903,-2.5578077,0.27235505,-0.5554516,0.42185307,-0.8511846,-3.905793,3.7891822,0.7184853,-1.2230837,0.30945778,0.83469707,-0.46740037,1.4623402,-3.2490726,0.21077429,1.1280729,-0.06431604,0.17482252,2.8479142,0.123247825,0.6567447,-0.25546968,0.6358494,0.98904854,1.9542446,1.1788017,0.196595,0.49602354,2.1390688,2.5746794,-0.34048074,4.027866,2.2334678,1.2812836,0.87804514,1.2360758,1.1040595,-0.16530493,-3.3862817,1.9098473,0.83196765,1.0917792,-0.9767927,1.1538044,1.0691069,0.5010558,1.4822507,0.5159891,-0.37385458,-0.2751106,3.1201081,2.1116514,0.43355688,0.68833447,1.8386948,-1.8771056,-1.3274922,1.8571951,0.6269943,0.38859776,1.9816105,1.6905304,0.9649265,1.6511351,0.550113,0.13974997,0.65238166,0.5274157,0.8753791,-1.5020796,-0.57008886,-0.7870436,-3.3203583,-0.15357873,-1.5774677,1.2205832,1.9659199,-1.3526419,-0.68636537,0.40977702,0.3574622,0.9915241,-0.17827362,-4.9207344,-0.89902514,1.4807051,1.3992099,0.35917008,-1.4325247,0.48174855,0.0045106653,-4.4356775,1.3927193,-2.5506377,-5.906159,3.310096,-0.53972936,-2.3927612,1.7164358,-0.29735762,-1.8691071,0.12762891,0.87111014,-1.76341,0.83227265,1.9773458,-1.653512,-1.075497,0.03987961,0.43014845,1.8866326,0.38743672,-0.70671266,-0.42527238,0.20281622,3.0330667,-0.5036221,-0.2619989,1.5540034,1.7970293,0.95145404,1.098453,-2.306721,0.2065769,-1.0526291,-0.18459398,-0.72454125,1.5095384,0.48811996,0.88814765,1.3144635,-0.55801606,1.0810981,0.33834103,0.060108498,0.48112762,0.7470149,-0.9165415,0.6807814,-2.9353201,1.2395967,-0.22065093,-1.5399637,-0.25060356,-0.10132197,-1.8035618,0.79515827,0.97513515,0.025135186,-1.2947885,-0.0014379101,1.550604,-0.63362974,1.7930198,1.603048,0.41893834,-0.53335494,2.024669,-0.51151764,-0.74455297,1.2933277,1.5593683,1.496916,0.9245712,-1.0278857,0.2041412,2.767208,0.27072003,0.048335914,-2.6679707,1.3411914,0.12607916,-0.6690192,-1.1349353,1.1543281,-2.0364196,0.85274374,-1.8504062,0.21866745,1.0734472,-2.2153087,-1.3509749,5.9541245,-0.9464268,2.686199,-0.055688955,-0.5380657,1.4596319,-0.5074777,0.30783594,0.97897357,1.4197763,-1.3114926,0.29573295,0.42255837,-0.19132084,1.118328,-3.2632804,-0.41210806,-0.7380919,-6.049972,0.09518109,-3.292028,-1.3416572,-1.7344865,0.8194723,-0.4193057,1.5954976,-4.6711054,1.7545052,4.2201023,-5.6112046,-2.0262265,-1.6811551,-2.8990376,3.4299836,-2.9910648,-2.016105,-0.060830783,0.684101,-0.9756633,1.3062453,-1.9684091,-1.8677866,1.4034576,-1.3937464,-2.4747682,0.9020331,2.080432,-0.25949875,1.7805994,3.6797407,-0.9211357,-0.8049903,-2.0797822,2.475777,0.39266858,1.5222952,-1.2740477,0.20799318,-0.7001205,-1.5296339,-0.83430505,-2.4214118,-0.25919086,-2.240544,1.926988,1.111867,1.0147359,-2.4703512,1.5070788,-1.0969107,2.6344593,-5.347617,-0.47848102,1.2330818,2.4328878,-0.99906397,1.5934653,-1.8749721,0.26565537,-1.917059,-3.090293,0.28553352,0.029761354,0.5232179,0.11928703,0.10621048,0.89081764,2.4225538,-3.671528,0.114377275,1.6849296,0.43820742,-0.3496701,1.2753556,1.187669,1.4982444,1.0804034,0.038411338,0.97417444,1.0538943,3.0684829,0.3706372,-0.12493394,0.7780826,1.2968104,-3.224559,-0.3980212,-0.15567674,-1.6547518,0.5241578,0.21905619,-0.607989,0.8541155,0.15465087,0.6080235,-0.44471285,-0.14678401,-0.0140299555,-0.2699825,0.16808368,-1.3744831,-4.8455043,2.6411028,-1.9524205,0.3749597,0.14195281,-0.6703066,-6.4130354,4.371816,1.8814203,4.1736403,-1.5472798,0.03315549,0.55543274,2.3619566,-0.29141727,-0.40186906,-0.043168016,-0.05812802,0.67821485,0.5302997,0.12970005,0.12915312,1.0413511,1.3838835,-0.7216949,-0.3191989,1.3783106,-1.1130445,-1.1850575,-4.32772,2.3714838,1.5937529,1.1921737,-3.365566,-0.7117579,0.032744043,5.3529806,-0.8109268,-0.61503285,-4.1309123,0.48400974,-2.3150537,1.9592335,1.7652489,-0.019641623,0.020998457,2.6960726,-1.018209,-3.9278653,1.1230235,1.578409,-0.42347658,1.6286047,0.5875914,0.40886974,-2.274184,3.1909842,-0.38988498,1.2690508,-2.2664104,2.5214264,0.16809876,0.3430122,-3.7893007,0.036579117,1.8603083,1.3030767,1.7577312,-4.071049,2.4380822,-2.8511438,-0.36038494,-0.10806447,-1.1395347,-2.1619604,1.3531201,0.062461227,1.3175429,1.6707664,-0.38032705,-0.6599445,1.1399271,-1.5626128,2.1317835,0.32223487,0.8814781,-4.655587,3.0320523,-0.50768584,-1.8929726,0.2880564,-0.5195967,0.7700131,1.1303482,-1.6645153,-1.6975384,2.6612272,0.70884323,1.0294687,0.7424605,-0.55487585,1.0896575,1.353024,0.7431187,-1.1044867,3.579813,-0.94114166,0.46758243,-0.12818737,1.6012863,-1.0091558,0.3023846,4.7007484,-0.07826176,-0.96686476,0.09309389,-0.050516874,2.5745344,0.41974184,-5.600543,0.8615526,0.8359913,2.345168,-1.4838067,0.14529979,0.6952933,0.6907786,1.5183766,1.5238703,1.2859339,0.47932243,1.9939522,0.85832113,0.7075026,-2.18118,-1.5395218,2.1058056,-4.3141527,1.9108628,0.5034167,0.1773892,3.1133068,0.60645324,0.2558656,1.433406,1.020119,0.6449462,1.2081764,0.6190381,1.5308149,-1.8390563,-0.91162723,0.85987896,-2.7380602,0.058364484,-0.36492714,0.41048008,2.5475707,-0.48469275,1.3104787,0.5381484,4.750893,0.2774772,-2.3864768,0.1916699,1.2264254,1.4485371,2.7488222,-1.7151452,0.17609471,0.5072466,-0.44750884,-0.6438865,1.2836258,-2.123946,1.4451379,5.5339956,-0.8062383,-1.7904779,1.7118909,-0.106946945,3.8029525,0.61396176,-0.04209557,-2.8672543,0.24637944,0.5096078,1.2680906,-1.1837804,0.14547214,-0.10507963,2.6013947,0.5926873,-0.19874166,0.78172314,0.6673044,4.519827,-0.9069011,1.6362543,0.57607967,0.5604545,0.2634391,1.2234524,-3.8090796,1.3051958,0.6460982,1.1267288,-1.9058899,0.510093,1.2338471,0.8563286,-0.69825345,-0.7552459,1.4333174,3.0619361,-0.3298224,0.03358367,1.4814825,-0.77633655,0.3821286,-4.3230696,0.21285559,-2.4815855,-1.9672385,-1.6866914,1.2475699,-2.8040555,-0.23486885,0.19875622,0.705159,-0.36468476,-0.5382358,0.7353646,-1.0027913,0.12938772,-1.4770883,0.6922363,-0.427619,1.6847452,0.7376752,-0.4076023,0.20150383,1.180276,1.0925678,0.891039,-1.7309499,0.24013427,5.7490153,-0.52555263,0.9916908,-1.4558492,1.2825879,0.13397197,-0.18359044,-1.0951083,0.4720218,-2.080699,-0.19603696,0.056600064,-0.19699712,-0.26733908,-3.0617738,-1.3894823,0.30702353,1.7386439,-1.5034968,-0.39398053,0.53755593,1.616764,1.7621392,-0.61968577,1.4960759,1.7117065,0.34097788,1.8905386,2.4290807,1.0757216,1.5034381,-2.911277,-1.2306768,3.2695243,0.37191972,1.4286685,0.23512296,-0.18688704,1.298941,-0.3362713,1.9741069,-0.036047444,3.7274494,1.3302419,-1.7466501,-2.7265816,2.7342463,0.040107194,1.1253947,-1.0663768,1.45368,-1.189924,-1.6784804,1.2844127,0.2742389,-1.2601538,2.5635793,2.4198358,0.27128413,1.4871835,0.7175217,0.41745004,5.9908633,1.3562595,-3.2143307,-3.8892303,0.6192641,-0.89280736,4.5838356,-0.17001519,1.2912023,1.5590743,0.4980405,1.6978346,-1.2028886,1.5696201,0.87712514,2.7254133,-1.41308,1.9498365,1.0601135,0.35352305,1.5396497,-0.41879773,-4.5365934,1.056991,1.8611912,-2.0431333,-2.0590746,1.1354458,1.2525733,-1.3049152,-0.25197974,-1.5774834,0.85855407,2.235952,-2.3125877,0.04150443,-1.0835963,-1.2629294,0.10929129,-3.9950626,-0.93809897,-2.6540346,-2.853015,-3.3059268,1.2737615,-2.960031,-0.464079,-0.041220598,0.7573143,-1.0336118,0.49986312,0.53226304,-1.6984303,-0.0039415965,-0.18019539,1.9613008,0.09783691,-2.848692,1.2657568,-3.6005604,-0.364767,0.22722656,0.0475144,1.3371464,-1.0652653,0.10674823,4.7787347,-0.66951376,1.9981947,-0.43104607,1.6752009,0.9882072,1.0505751,-1.6529951,-0.62701213,-3.1637042,0.119928084,1.2050632,0.11122556,-0.044971168,-2.2130208,-2.8999562,0.82751733,2.6352193,-0.93551576,0.5695768,-1.4484898,-0.7117676,1.1282482,0.30744943,-0.7965503,-1.4838519,-4.075343,-1.0798571,-1.0880966,-3.0319464,-2.187464,0.99097556,-0.15406506,2.2124543,-1.1657926,2.8954859,-0.5687346,0.30982682,-1.9327707,-0.79683477,-1.4741249,-1.0337348,1.8825384,1.877961,2.0264268,-5.5469637,0.90296346,0.3850116,0.28620857,1.041568,-0.6707631,-1.8638895,-0.8174003,-6.245842,1.2000258,-1.2969425,-1.5167874,0.19474852,-0.6957203,3.4978902,0.5425056,-2.610803,-5.039885,-1.839778,0.36392558,0.3785387,-0.18133599,-3.0505257,3.6434388,-0.8386712,-0.3209843,-1.1344858,-0.78435063,-0.70821995,-1.684475,0.0498568,-1.5143939,0.25994655,1.2427318,0.14631703,0.96582025,0.42517966,-1.1605133,-1.5156202,-1.3818573,-3.7648315,-2.3141446,-1.4786024,1.8986293,-1.6853665,3.2782168,-0.13798892,4.1535354,1.4983065,2.6313474,1.2652519,-0.50091517,0.21709721,0.6596602,0.7714906,0.24118869,0.39002916,0.47210303,4.375652,0.9767664,-1.7672261,-1.4935956,2.5108733,-3.0757294,0.5960205,-1.7773052,-0.1826061,0.250506,0.14388879,-2.5499234,0.65378666,1.8450989,-0.98189735,-2.7386813,-1.5894645,-1.7474903,-1.5792421,-1.4326079,-0.06002805,0.69559425,-0.7141836,1.361785,1.2748045,2.0074,-0.6232977,-2.06045,-0.29830587,1.6305226,-2.1333342,-1.9124479,1.59045,1.5676373,1.2587323,2.5150306,-0.19907494,-3.493961,-0.6622279,2.0936427,-0.541272,4.935392,-0.039319586,2.6776147,-0.78792727,-0.05080983,0.36982647,-2.8702857,-0.6940825,-0.110211946,-1.4738241,-1.0935047,-0.2717037,-0.3879517,-0.8207669,-0.54904383,4.1378474,2.4396338,1.142565,1.5960757,1.7539136,0.9235831,-0.03199417,-2.5400658,1.3588412,-0.4543955,0.2322392,-6.506193,0.9323727,2.821666,0.43800545,1.2188137,-0.19872344,-3.3600214,2.0111465,-0.13073176,-0.49336198,1.2453138,0.6400989,-0.092460945,1.6114819,1.5726565,-6.170955,2.0024598,5.7754197,-0.02223689,0.19429913,-10.33246,-0.16130532,0.7201714,3.2947106,-0.5965204,-1.440057,1.3118753,0.64059025,0.86861587,0.39860317,-3.0752466,-0.046973623,1.3444988,0.7961438,-0.020546388,-3.8093815,2.6554892,-0.5926627,0.852312,0.6578949,-0.056244235,-1.3429532,4.102403,-1.5747908,-1.0973457,0.26272175,2.8007104,0.030599438,-2.0037007,-2.9814523E-4,2.658451,3.588736,-1.3008044,-5.323309,0.70899016,-0.08664647,-0.6092275,1.7065164,0.38000324,5.046792,-0.017641988,5.093705,4.2576222,-0.09933387,-0.07502038,4.5934377,0.49103022,0.19562818,0.42203495,1.8092055,1.3144507,-0.5593617,0.870679,-8.233177E-5,1.8645437,-0.41665432,0.6514651,-1.766185,-0.73179245,0.06655686,0.20653027,-0.34203178,0.100285575,-0.47206312,1.5222651,3.1293135,-6.9696083,0.5048814,-0.9788953,2.3854547,-0.2192331,-0.49043596,0.07066266,2.3941789,1.610099,4.350184,1.311584,0.8022224,0.640616,1.0792389,4.326655,0.063896686,2.6995966,-2.80847,2.0543613,0.5755091,-1.3632996,-0.13147521,5.035166,-0.7834906,-0.18310621,2.729023,0.55009216,0.32357153,0.27226773,0.08192932,0.90362805,-2.4987502,-1.0868758,0.8035352,-2.872419,-0.02254605,-1.831406,-2.1842995,-2.3509972,-0.7414404,0.48973256,-0.4549037,3.375526,0.18799436,1.1624154,2.5655751,0.39656192,-0.33450407,-0.80469257,0.543134,-0.9803373,-0.48789772,-0.5360062,-1.1064273,0.41099584,0.13213372,-0.6520618,3.278879,0.5077504,-0.3061526,-0.3670442,1.3857661,4.9588795,-0.29757434,-3.1735861,-0.57397765,0.15053691,2.791912,3.3764536,0.42737472,0.47780988,1.0944147,-1.3103675,-0.759297,-0.4987135,1.1804385,-0.58003694,1.9984425,0.31594723,-0.1896681,-0.20109464,-1.1759993,0.47997227,-2.9193687,-3.2347598,1.2914363,1.6735957,-1.397795,-2.9539409,0.22170393,3.533469,-1.5967537,3.712586,-2.2333093,1.9405432,3.4725335,2.1855042,0.5761041,0.4992527,-1.2273943,0.05645829,-3.4003923,0.47999346,-2.6109354,-7.7166862,0.26376078,1.4531872,-1.9956475,-0.25387084,0.5818093,0.121374466,-0.8161348,0.3645938,-0.2231856,1.6200485,-0.6611655,0.56065625,0.558221,0.15329547,-1.3463751,0.80995744,3.2613022,-1.5413755,-0.47433513,0.302006,-0.6700331,0.16691926,-0.7305477,5.7963943,-0.26228607,1.8990387,-1.0100281,-0.72822833,0.44685906,0.05180536,-1.0355844,0.839254,-2.5406365,1.5799062,-0.34800318,1.0755084,-0.14175342,-3.1514702,-3.6691546,2.091225,5.6061883,-2.8173056,-2.669744,-0.528628,-0.8476348,0.6329568,-0.66378385,-2.6678555,-0.48164302,-0.22901675,-0.6120945,-0.82315266,-0.61094165,0.58464044,1.7116523,1.3008705,1.4747872,2.7466874,0.83032495,-0.29082835,-4.3234773,-4.8161006,1.9148061,0.12538347,1.1201668,-2.5316749,-0.7065155,-1.0423712,2.30616,-0.5320931,-1.9289305,-3.453815,0.091666795,0.38236728,-0.067209356,1.4025764,3.3827405,-0.703575,2.5847843,2.7435415,-4.4241815,-0.7853451,4.576278,-1.9700409,1.3918399,5.054996,-0.19166307,-1.2310046,2.362194,-3.4697583,-0.94477016,3.7994685,2.5296793,-0.30977485,-2.075411,-3.8458655,-1.1560497,1.1405964,-2.07557,-0.22010888,-5.0572705,0.9277681,-2.3066087,-0.32184583,-0.58492863,-1.9563673,-2.2859328,1.3087296,-0.39052197,2.4028635,-0.06679875,-1.029519,-1.3907307,0.25364032,-1.3131009,1.3578292,1.0256165,0.10177857,-1.421426,-1.6077499,-1.6657819,-0.13036399,1.231071,-1.5986979,2.6144216,-0.31759414,0.7750628,-0.3239652,1.8969053,1.7588062,2.4506402,-0.49136025,-0.7106071,1.1141771,1.4592887,-0.47925586,-2.6877484,2.2200315,-2.3981578,-0.44221395,-1.3601944,1.0115551,-2.6735563,1.4409171,-0.50329036,-0.9305528,-1.9243301,-1.188289,-1.426569,-2.9555504,-0.03545307,-2.5222883,0.6160179,0.9303808,-0.11089298,-1.4662023,-0.9651306,-0.05460234,1.2095177,0.2786082,1.745163,1.3692874,-0.5168553,0.65026677,0.36771452,2.1403887,-0.2639544,-5.110255,2.4041576,0.26068968,1.1157908,-0.14158796,-0.56257474,1.553296,-1.2787794,-0.5423466,-0.3292171,0.6210754,0.043763082,-0.5314405,-0.22164318,-0.35499814,4.6704965,0.3114449,1.9802574,4.17048,0.8815902,2.0760887,1.1380228,0.3536174,-2.2896593,-1.8312608,-1.3946475,1.9470489,-0.6834525,-1.3467919,3.7973218,2.616864,0.9767244,0.91773576,-1.0998598,1.3225722,0.3156688,0.30048415,-1.9035797,0.4226099,-2.6649437,1.7283872,0.92285955,-0.7958186,2.0478992,1.8541235,0.23048566,-2.0864832,0.3523632,-0.46446007,-2.1224594,0.05239909,1.8365308,3.460422,-4.20237,-1.3931055,-1.1786792,-0.35074618,-2.0620763,1.2347691,1.194212,0.16128017,1.0790448,0.90440595,1.64038,-1.8838298,-0.61685497,-1.5783296,1.2713422,-0.099139705,-0.8693486,-4.1007495,2.6887426,0.65563846,-1.8967665,-0.30905497,0.8248866,0.07824893,3.306366,-0.17499644,1.3069236,2.8587246,0.15143591,1.3072803,0.70496625,0.6551041,1.3706919,-0.83131677,0.58821636,0.1508755,-1.4341316,-0.5636857,0.71696055,1.787549,-0.22493371,-0.5014585,-1.3162717,-1.4880856,0.39666557,0.7725777,-0.6669414,-2.6610801,-0.5533933,1.7363542,0.431647,-2.1950283,3.8089056,0.18526112,0.11880367,1.949107,-0.69862175,-0.4973749,1.0134857,-0.57801175,0.8505795,0.11873416,-0.41134128,0.39603823,0.4316777,1.0848938,0.70315266,1.7580805,3.8845654,-1.5578483,0.5173929,1.1842452,1.3531525,0.7716785,4.494529,-2.9537656,-0.5628209,-3.1528525,1.0850918,-0.9901962,0.041254595,-1.3341256,0.51377046,-0.78673166,-0.8329124,-2.794343,-1.3929151,-0.7635126,-2.0940711,-1.4206928,1.0457679,1.2578849,2.3457868,-1.9721804,1.5084655,-0.13054357,1.2908847,-2.498868,-0.28876513,-2.6670012,-1.5701094,-1.1450927,1.038237,3.3499584,-1.2339026,0.28731835,0.7590917,-1.5579679,1.7594007,-3.0852306,-1.2223226,-0.38988262,-4.0928574,1.0838681,-3.1810486,2.6871576,-1.6273838,-0.2954855,3.476714,0.7737427,-1.3035678,-6.559642,-1.0977738,0.9727794,2.2751122,0.134518,-3.3430297,-0.26203117,-2.1927226,0.055988375,0.35463494,-1.4105324,-1.3522742,-1.4859811,0.06429165,1.064656,-1.0720716,1.5186841,-1.6037762,1.6229312,0.74163574,-0.5740003,-1.0591929,0.8656668,-3.4090533,-3.1780436,-0.27113298,1.6186715,-0.6366032,2.0077941,0.011358536,2.0721662,1.5369768,0.8315374,-1.9670856,-0.15730228,0.46816024,-0.7998528,-1.0674981,0.3716623,1.7535415,1.4066452,4.4870462,2.1526787,-1.1805631,-1.5092596,0.75582653,-1.3249213,0.413113,-1.2771477,-1.2760917,0.12993135,0.3947142,-0.8820386,1.6894162,2.541486,-1.1531656,-2.3886993,-0.11313672,-1.9976285,0.14124581,-0.63479507,0.21319668,0.4594242,-1.2949133,1.9093802,1.9104266,-1.1013801,-0.767082,-1.0807253,-0.9708572,0.94763774,-2.0532315,-1.9433285,-0.26455483,1.6523039,1.2798961,2.3713806,-1.1334512,-0.97996706,-0.70812565,1.6053091,-2.4996233,5.4989576,0.8978914,2.5114074,-1.0045086,-0.018000375,0.8810351,2.6875935,0.104198635,0.13163482,0.92589873,0.24494429,0.5091342,0.22303887,0.13372609,1.1388752,1.5599648,-1.5289459,1.5725118,-1.3467431,1.26957,-3.3745894,-0.8947493,-2.4266741,-0.1771261,-0.61431277,0.6062414,-3.7207856,-1.4345351,0.30509964,4.962779,0.7671993,-0.6037542,-1.8543208,0.36156538,-2.3451536,2.188163,0.0032672575,-3.907028,0.23870434,-2.114412,-5.247745,-0.33713552,-1.0612594,1.6224827,-0.41827154,1.6297088,-2.7024379,0.33950308,-0.06381056,1.023621,-0.40587872,2.7188597,-1.5472142,-1.1146486,0.017034974,0.6119834,-1.212882,-0.5321139,0.26596197,0.53722346,1.3632871,-0.40745297,-0.0077082845,-0.7566069,-0.45718974,-0.27195358,-0.439583,-2.0519185,-2.1083307,0.28152293,0.6589314,2.8019042,-1.0305996,-0.57502633,0.3263054,-1.3033799,2.224186,1.4652885,0.4809557,-2.8851678,4.0536146,0.03406339,-0.7680847,-0.95733106,-0.57674974,-1.0941237,1.5466928,-1.991579,-2.7279778,1.0702484,1.6755943,-0.09484956,0.4657868,0.07169254,0.8802564,-0.39351115,0.16234563,-0.75646687,2.622829,0.04681847,0.90650684,-0.21585771,0.9573598,0.26251397,0.20007154,5.4723287,0.124929674,-0.66049767,-0.08205385,0.17536466,1.5691497,-1.6765367,-2.590288,1.0622365,1.1793542,-0.2672905,-2.609374,0.11888062,0.40039253,-0.69278914,1.5401976,0.7642455,1.6453925,-0.7912475,1.6884778,1.3801882,-1.1630752,-2.1297622,1.75145,3.2057312,-5.7073603,1.3735273,-1.1966337,0.5407255,4.946415,-0.28911227,0.80304986,2.9276085,0.7531472,0.7733599,0.8110564,0.6373222,1.3681964,-3.5589333,-2.581348,1.608111,-3.4886823,0.0012114849,-3.3748798,-2.041228,0.13924518,-1.2724962,1.2118554,0.21374457,3.319195,-0.1994536,-0.6204369,-0.40025935,1.931483,0.47812682,0.576296,-0.5968537,-1.5554836,0.38536885,-1.053663,-4.1558814,1.0262679,-2.1451116,-6.9590664,3.6456916,-0.39348075,0.5239111,0.77995515,0.97976017,-0.06459964,0.015070163,-3.575075,-1.4486008,-0.24480364,3.1029313,3.5309722,-0.37631914,0.62269455,1.7033563,-0.13077964,0.47389087,-1.2545209,0.20329387,-0.10840852,3.258088,-0.77854556,0.65174425,0.14975773,-1.0967181,0.9692797,-2.2998898,-5.508477,1.1406919,2.4122903,-0.8053995,-3.437784,0.53334206,2.1021016,-1.6237077,3.8338306,-2.9632735,2.13685,3.517734,0.8517384,-0.02713095,-0.302765,-1.8764265,-0.1433978,-4.261498,0.6841719,-4.4235473,-4.953879,-0.43454856,1.6331655,-3.4636173,-0.4334154,0.320206,0.25625443,-1.5867407,0.5225201,-0.23314688,0.4638982,0.047911126,0.6951777,0.9439457,0.009296314,-2.012822,1.8070214,1.3525333,-1.3768406,0.1758826,1.0781207,0.48652682,-0.8723893,-1.4910336,5.4569583,-0.44118646,1.5079159,-2.045329,-0.42310753,0.8534046,0.17132197,-2.213333,0.69472414,-3.980434,1.1999894,-1.1911044,0.8488959,-0.069390416,-4.3326063,-4.278976,2.4147494,4.062244,-3.256299,-0.89044255,1.474654,1.116094,-1.4000136,0.5611744,1.7987713,0.86650914,2.039313,1.0415213,0.87422013,1.7073808,1.4964517,0.90335363,0.1295834,-1.275381,1.6048932,-0.45983812,-0.5469445,1.1369334,1.5389067,0.13339305,0.91637087,1.9223883,-2.0407608,-0.7157488,-2.5499797,0.993343,-0.80198306,0.012715622,0.28648016,-0.9452826,0.6326392,2.0497847,0.3540123,-1.5874891,-0.527701,-0.96844006,-4.508302,0.33588973,2.3244631,-0.57780766,-0.43906003,2.1903126,-5.603608,1.3404387,0.33007962,0.75455415,1.131122,3.2646008,-2.7096002,-0.29430586,1.5314977,1.7364976,1.1299614,1.2500376,0.850241,-0.35569346,0.6310595,0.7311113,-1.2316748,-0.12843363,-0.26442885,0.31807536,1.7665877,0.8925776,0.2280556,1.6094822,1.3280642,1.901757,1.203271,1.9764723,-2.7450666,0.42939988,-1.1835021,0.11392569,-2.2097218,-1.1702714,1.525506,0.08487861,-0.07261372,1.1562878,0.7537997,0.42802197,-0.77478147,-3.254009,0.03683356,0.23837687,1.4218369,0.18942729,2.5390093,-0.10621924,1.969133,1.3520697,1.5736669,0.7272674,1.4334793,-0.3995138,0.33198124,1.1313813,2.8970535,1.7435328,1.786154,0.77772534,1.5294071,0.7748307,-0.6301143,1.1620674,0.086636744,-0.60183555,-2.1861281,1.4281645,0.93519247,2.2554686,-0.66562337,1.8657039,2.1437364,0.79212457,-0.60599995,0.18022366,-2.0599449,1.0858818,2.8325276,1.3695847,0.8521256,0.83363515,-0.9382138,-2.1302485,0.8199329,2.2780716,0.40388626,0.17846756,2.0713768,1.9249301,-0.80404264,-0.566725,-0.5908253,-0.88313866,-0.9825999,-0.66208446,-1.1374959,0.8750777,0.9595678,0.12484771,-2.1467237,2.0048928,-0.8201165,2.7887797,-0.6873073,0.6564573,-1.2684821,-0.70787394,-0.25239432,-0.10486037,1.1294869,5.8195376,-0.96960783,1.4944888,0.75541323,0.88159496,-3.3517752,3.1198382,0.8463613,-4.1762576,1.730179,-1.798022,-2.8726103,3.0619426,-0.7194839,1.2427224,1.7381498,-0.36686572,-6.278985,-0.6739397,2.5056775,0.5493329,0.9676252,2.300095,-2.9376845,-0.64900196,-1.6479585,-1.5001819,1.1769813,-1.2400706,0.19042957,1.6213828,2.8789537,2.3460734,1.2868884,-1.7576462,-0.15223274,0.55060357,-2.077472,0.7341443,0.15539986,-0.38145527,-2.482229,4.884587,1.2555822,-1.0039496,0.42183855,0.8480292,1.4834698,1.0046426,1.4352741,-1.883919,5.885428,0.64840055,0.6256441,-0.50394887,0.24304205,-0.778961,3.6303039,1.2428931,0.08428587,2.4069371,-1.3555455,-0.31917647,0.34254095,-0.19475691,-0.8030718,-0.820099,-0.85147625,1.0968783,1.156989,2.664901,-0.028036276,-1.7147672,-0.657791,2.933429,-1.8435824,6.3185334,1.1279265,0.421026,1.600465,-0.23282522,2.0457642,1.225305,-0.28372166,0.7456803,-1.0578344,-0.48279768,0.68021643,-1.3306451,-1.2878648,0.08178871,3.249605,0.5924421,0.778128,-1.338206,0.30271333,1.034393,-0.40060365,-0.455182,2.730513,-1.2213295,-2.9430163,-0.0856457,-1.0126345,-0.36022022,-0.26127416,-2.6480887,-0.53399247,-0.6149925,-0.912535,-0.20337963,-0.83644533,-0.53376806,1.3965238,4.4322257,1.9160455,-2.7158422,0.084276214,0.20528428,0.116343044,1.8222058,-0.33090606,1.0387822,0.5642234,0.450083,-1.5966849,-0.9729156,0.34047705,7.0122867,-0.035736848,-0.54139525,0.19596508,0.29393584,-1.1245577,1.765331,1.5948242,2.2394986,-1.6201823,1.0609434,-0.2419104,0.753397,1.29019,-1.2058672,-0.26327914,1.4096634,-8.405862,-0.64418817,2.9080343,2.3301544,-0.25585288,1.0824133,-2.4469411,-0.6637734,0.05560286,0.22790472,0.9391533,-0.48154932,3.0357232,2.1417968,0.85619164,0.17779656,3.0255766,-0.87699413,-1.0570133,-1.2424934,-1.072582,0.2793964,3.4659638,-0.36598665,-0.019022174,2.6881392,1.6168437,-0.2821792,-0.891454,1.2037185,2.4725716,3.3524928,-2.0056999,-2.097902,4.0249114,-1.145259,2.1835847,1.4556876,-0.15239105,1.5604657,-0.39248708,-0.49030817,3.429489,0.55912083,1.5384316,1.234408,1.3811014,-0.6438826,1.4344318,1.6689774,0.8447406,-1.6345345,4.383103,-2.3638585,-0.07173309,-1.1426498,1.7373323,3.8581872,0.63417643,5.0139375,-0.5714236,-0.8991608,-0.31424406,-0.6079911,2.1572442,1.3064939,-4.2475457,-0.2810662,-0.14054856,2.4228957,-2.452909,-0.5306865,-0.28223902,1.8250167,1.9336715,2.928429,0.35599402,0.49320117,1.8047696,0.0982696,-0.7526916,1.0176547,0.61195004,0.19903229,-3.5383475,0.07484863,2.2246048,1.6332352,0.19945465,1.1967698,2.1623693,1.5245486,2.175436,1.0035264,1.124803,2.0056317,1.3252864,0.20271553,0.6116103,-0.74193394,-0.44089422,0.5504413,-1.1465724,1.3071445,1.7630408,0.19535172,1.2154307,0.85837966,-4.5739536,-1.2742758,-0.71910506,3.5238338,-1.1387118,1.4758074,-0.9323589,0.640513,-0.20469253,2.5518918,0.19899964,-1.907833,1.0658095,-1.4007741,-5.2749023,-0.34464854,2.2930603,-1.2831621,1.2649977,2.0649593,-7.5884137,1.734125,1.4426366,-0.83712995,1.9634788,2.7042484,-4.655843,-1.3123423,1.3469534,2.1840036,0.9407745,1.6248013,0.41070884,1.3002822,1.9102083,0.091565706,-0.8430128,-0.7364746,-0.590682,0.3787484,1.5386128,0.4582225,-0.3220551,1.4389595,-0.5806717,3.0026033,1.1253595,2.2970717,-2.7041163,-0.37081826,-0.26318082,0.30984238,-1.2176685,-3.5994575,3.5239985,0.9531901,-2.0342844,0.19429399,1.1924978,-0.96083015,1.6238234,-2.8999064,0.99990016,1.1817809,0.31353936,0.030483516,2.8226216,0.6289278,1.1446699,0.05301774,1.1824052,1.0876248,1.6345015,1.2912005,0.9792886,1.0735264,2.1198947,1.6125861,0.8315867,3.290583,2.4416575,1.496989,0.7597048,1.6512047,0.8155885,-0.28019542,-2.85392,1.9585392,1.0845811,0.80114204,-1.1803617,1.6221381,1.4849651,0.51362836,1.7220227,0.16288432,0.23065068,-0.32295826,2.9320784,2.0961223,0.17410143,-0.31237203,1.9276241,-1.9155409,0.1261956,-0.20511428,0.5506068,-0.40029913,-1.3774136,-1.3564392,-0.108180255,-1.4129467,0.64500344,0.54929435,-0.081020564,0.46533486,-0.2378553,2.633631,1.1952198,0.30031192,5.8251514,-0.13195144,3.2324889,1.1171824,1.750601,-0.33601648,0.831427,-0.37247106,1.917442,0.06441425,-0.86370397,0.48224953,3.1741335,0.63355756,1.1653649,-0.7532656,3.2589426,-0.5631402,0.71372247,4.6970186,-0.47942713,0.4603904,8.544507,-1.5245798,1.4354653,0.84332305,1.1859783,0.1098338,2.02551,0.8334513,0.21560304,-1.6437086,0.28368816,-1.58422,1.3407955,-1.7400833,-0.19017415,-0.68363714,0.46593654,-0.073975876,1.4752913,2.6123023,0.27754796,0.25522363,1.4734039,2.6999047,-1.0416735,0.2810149,-0.48297098,1.9185941,2.4746425,0.108711995,-2.135905,0.19341852,1.2407109,-0.66505736,0.49302083,1.1334281,-1.9448057,1.9355272,-1.2574178,0.5431656,-1.1249803,0.05840149,1.0359093,1.238382,0.4886167,2.8167493,-2.364495,0.5747015,4.4292054,-1.1053647,4.580994E-4,0.9920662,1.000646,-0.42458093,0.16123281,0.9142145,-0.034372382,0.2193554,-0.49642962,-1.0290741,-1.973373,-0.040987384,1.3932378,-0.08787794,-1.2130456,-1.57121,0.3704412,0.011514157,0.7148178,0.17660552,-0.22748613,1.5887501,-2.1903107,0.061035827,-0.06595803,2.6420329,1.007375,0.5306545,1.1518863,1.2367101,-0.21327619,3.4325588,-1.9389113,2.7912722,0.4846732,0.20650476,1.3484019,3.31787,-3.5813236,-1.395353,0.209563,0.7120501,0.66441476,1.0916308,2.9876173,-0.010434453,0.8031723,1.2861606,1.2973607,1.5299538,2.0137472,1.1520864,1.5082726,-1.3101026,-1.2808374,2.7674701,-0.9960947,1.8194265,-0.40030092,0.049543526,1.1020323,-0.024653312,1.4149537,0.005639541,3.8379488,0.69094336,-2.187503,1.7276527,2.6525676,1.1925368,2.2598512,-1.28073,0.782628,0.043587837,-1.0042491,-0.96943176,1.6439254,-1.6170865,0.88920313,4.1519885,-0.96071154,0.86974734,1.9971712,0.5752974,1.6388984,1.5296924,-2.1965299,-2.9177694,0.14692405,-0.10477405,3.0631359,-0.67807984,0.8058963,0.92634064,1.801777,1.0257797,-0.7212414,0.9464631,1.3787695,4.256993,-0.23418857,1.4699396,0.9154969,0.50360614,0.8493807,-0.096051216,-4.357184,1.7161977,1.1788946,1.534301,-1.3965541,0.6712441,1.0625037,-0.46828058,-0.32560572,-0.2894061,1.5119575,1.491956,-0.38581648,0.06997494,0.440958,-0.994578,0.10916784,-3.9764168,0.039211664,-2.513985,-1.0099571,-2.7661707,1.2782907,-2.358178,-0.26430058,0.10520115,0.98444253,-0.7994161,-0.082587026,0.5861772,-0.68199193,0.4583006,-0.98533696,1.3200825,-0.06041057,-0.7290429,0.75268495,-0.96864575,0.027313009,0.80202144,1.1720854,1.0145675,-0.94825786,0.6454228,3.9361846,-0.40419614,1.5395398,-0.9268308,1.2984042,0.62122023,0.5519693,-1.1793479,1.6646546,-1.4837893,0.21690537,0.7218719,0.51105744,0.20520072,-1.9976432,-1.9706815,0.9513519,1.8837541,-2.9508839,0.31626797,1.399154,2.3327177,2.7843494,0.39983597,1.215307,1.5670092,0.72585124,0.9289008,1.1520706,0.6505903,2.320534,-0.2463579,-0.08964993,2.6382337,-0.872323,3.2416098,-1.6733359,-0.07546349,-0.85448205,-0.4091187,-0.7054912,0.07427556,-2.396713,0.15869887,-0.500635,-1.4274055,1.1436378,0.30972788,-0.22637041,0.8929031,-1.9088612,1.8546637,-0.30106246,-4.996492,0.6599656,-2.1878216,-5.004867,0.6502228,0.05818613,4.213478,1.0991555,3.0127451,-5.8901525,1.6853437,-3.3079817,0.06645332,0.06254418,0.31371087,-1.2217581,-0.7930891,0.25526452,1.4111526,-0.21525453,0.7853646,-0.7718698,-0.69652855,3.3214724,1.1824524,0.51347405,-0.6119834,1.191621,1.1345927,1.1513957,-1.0911916,-2.1983235,-0.4743748,-0.29923493,1.3372811,-0.62607634,1.0212268,-0.4832891,-0.8759149,2.487502,-0.17630868,0.7981634,-3.318718,-0.39628664,0.15670486,-2.581124,-1.2233137,0.23590207,-1.0424728,1.823057,-1.7684027,0.52263564,1.1563724,1.2143949,-0.6850762,2.0204992,0.04771869,1.4701672,-1.987579,0.26140875,0.5490584,2.1510344,2.201797,1.2827176,1.0282378,1.8158252,-0.52066517,-0.11405422,-1.1295593,1.9465623,0.22952808,1.2818444,0.3406652,0.60073054,0.5147434,-1.5963122,2.3177087,2.4064426,-1.2878884,-0.71307415,1.0677934,1.6313475,-1.3704562,1.9824798,-0.065210186,0.7423567,-1.8062145,3.758219,3.0560853,0.3161148,-2.8400602,3.5102723,-0.7735246,-0.31695032,1.0297014,1.1344761,0.63293016,0.37740886,0.13882644,0.06983025,-0.13794026,0.8291719,0.9203491,1.2414168,0.6311097,0.19007689,0.277695,0.2211718,0.88385624,-0.9868036,1.4529339,1.3250268,1.2881987,0.9772446,0.104478195,0.36659223,-1.1584499,2.5077627,-0.48800826,-1.5338092,5.1648126,1.6118035,1.2710909,1.837114,-0.938922,-0.045117207,1.4692829,-0.3695885,-0.1981778,0.87546134,-1.3296634,3.7118878,3.3084912,-0.7438228,-1.4180051,1.5874457,0.5461033,0.17949776,1.3345592,0.048199326,-2.93199,0.5678269,-0.03611212,-2.0036013,-1.526042,-0.25247052,-0.28410298,2.0440385,-0.01283058,0.19502881,1.8167467,2.156448,3.1412153,0.33906326,0.9031356,-0.4522742,0.2687336,-0.21769063,1.3531445,-2.1909716,0.5393606,-1.0027034,4.15575,-0.17543289,0.10831899,-0.25454566,0.5794947,-2.4748676,0.8054066,-0.37416947,-0.3585597,2.7958338,0.17252126,-0.091681875,-0.50176203,0.008337861,-3.2617443,0.36527023,-1.8433172,-0.11172891,-1.2198232,-0.7043637,-1.5843072,0.56055653,-0.44579735,0.22173026,-0.5915565,-0.99643916,0.52482504,-0.29498732,0.61328155,-1.8957573,0.5506127,0.0144071495,1.8627707,-0.8458985,2.7293139,0.7816707,0.35761735,0.6354633,0.33493534,-0.27852106,1.31427,0.054604303,0.51873076,0.8378842,-0.3031063,0.9106508,0.4073099,0.76002073,-0.45845705,1.6893443,0.14804205,-0.73236275,0.6250832,0.9045963,1.19078,-0.7620531,-0.23169759,-1.473719,-1.4245347,-3.319909,-2.5115917,-0.1999718,-0.08550679,0.5993473,-1.9244772,-0.30907997,1.6215537,0.028497504,0.64214504,0.67247576,0.3378288,1.05425,-5.1876435,0.45943362,-1.5766412,-3.2622805,0.05717021,-0.3391911,-2.6606677,-2.6778712,1.0865616,0.9714473,0.6509855,-0.69834095,1.0246465,-0.2337319,-0.09863475,-2.3719966,-1.7731982,-3.2731898,-0.05624612,-1.4954448,-3.4935637,0.18471839,3.8461256,-1.9779955,2.581291,4.1648164,-1.4899468,0.8527266,-2.430307,-2.4934952,0.6077431,7.365765,0.34348235,-2.364338,1.2063457,-1.2094728,-0.78781295,-1.954154,2.2410512,0.64178735,0.40513864,-3.2592986,-0.045609497,-0.050498053,-0.56621253,-2.1244652,-1.8589598,0.6664697,-2.4902081,0.42794368,0.18045484,-0.07517051,-2.7970202,1.6114138,-0.9154027,2.595495,-4.2059913,-1.1805403,0.8550482,2.2603438,-2.409524,0.8052416,-3.5810988,-0.21345201,-1.0142602,-1.2680119,-1.5363362,-2.6130025,0.84124017,-1.5560586,-0.035984322,-1.8123003,-0.617455,-3.0307739,0.53002644,0.97852355,1.1257226,-0.10627907,-0.6938704,0.8573585,2.186053,0.4503696,-1.9222702,-0.19237024,-2.494911,0.5795493,0.06930546,-0.20953564,-3.3087783,1.5990932,-0.9715773,-0.5119951,-1.563232,-2.0841138,-0.33876872,-1.3543801,0.60458696,0.013530604,-0.15706907,1.1403098,-0.6339628,0.11808496,0.3668449,0.15911658,0.7457077,-1.2366325,-3.1281748,0.84563386,-1.6800745,0.010306895,-0.16523051,0.5017355,-4.179962,1.756368,2.533917,1.4695346,-2.2660298,0.5766778,0.40883943,-3.3724492,-0.008117436,0.4436857,-2.0572734,-0.15538807,-0.12227519,-0.2167017,0.39480206,-1.6478121,3.8282375,2.0550122,0.5915301,0.9401653,1.3145739,-0.5129078,1.0203379,-2.6573026,2.7328255,0.92342263,0.7451318,-8.188221,-1.1767491,0.08187153,3.9028928,-1.3036572,0.24638961,-4.348408,0.62897843,-1.3104159,0.9523714,0.85547876,1.4866267,0.23445214,3.3068979,-1.662883,-6.5934997,0.6491876,4.617096,-0.28571406,-0.78410304,-9.440019,0.52696115,0.7739634,4.042214,-0.2582319,-0.4499303,2.2463806,2.670506,0.24149916,0.789017,-3.292049,0.8419617,0.83835065,0.08443136,0.9817571,-4.8078003,1.2536465,-2.5078273,-0.2739722,-0.22073644,-0.4431381,-2.423397,3.7743025,-0.35476875,1.2743897,2.203119,3.1562068,0.35179755,-4.3803625,-1.9570782,1.5812409,3.134823,-1.9238055,-6.250615,2.4775634,-0.27215683,-1.5904007,1.9819016,0.020268308,4.1193495,1.0927457,3.0205646,4.9071045,1.674044,-1.5591599,4.4406223,0.3570957,-0.5484681,-0.11677721,2.078009,0.7692263,-0.49541876,0.15971988,0.552671,0.73893154,-0.6640992,0.33972028,-1.2342527,0.475439,2.9046464,0.2187404,-0.27728555,-0.67520076,0.29462188,2.1680481,1.056263,-7.2680573,0.042666826,-1.5014684,1.757119,-1.8628693,0.11918854,0.14404675,2.5035539,1.7795632,2.5472007,0.8264443,-0.1981465,-0.17639832,-0.35999635,4.3196025,-0.615092,1.3011588,-3.3368003,-1.5341372,-0.55854243,1.724721,0.6041875,-1.0231816,0.8379776,1.1831812,0.5450665,2.030748,0.30375224,0.23606634,1.4633548,1.6226467,0.58935416,0.17219126,-0.8863304,1.2982183,-0.39332375,-0.5433695,1.0429305,1.6011637,0.39309394,0.927371,2.2607315,-2.183261,-0.8773177,-1.6971596,2.4545376,-1.0288107,0.08674197,0.37680262,0.024199493,0.5721829,2.3147368,0.41446424,-2.0957139,-0.3198471,-1.1064773,-5.0640845,0.4982805,2.086893,-0.5239444,-0.3873002,2.0058122,-6.3661675,1.0710312,0.73645544,1.0815324,1.2147745,2.9701624,-3.0305147,-0.38630682,1.3569467,1.3965024,1.4424012,1.1846929,1.1064156,-0.6049318,0.55718666,0.63672566,-1.202026,-0.2543723,-0.16184226,0.3240417,1.4267871,1.0047355,0.395591,1.5641719,1.5611799,2.605435,1.0346597,1.6850152,-2.6936986,0.69857985,-1.0833352,-0.047529068,-2.0797431,-1.1383297,2.0561378,0.48610172,0.23057969,1.0618397,1.0869353,0.32416308,0.35913092,-2.6726065,0.9305489,0.6249064,1.5982553,0.0017776955,2.5869753,0.59151614,2.1566415,1.4988352,1.4600159,0.9117192,1.662922,0.33052468,0.5956795,0.79010457,2.8348582,1.94787,2.1615713,1.8064737,1.6720487,1.3017868,-0.6082139,0.63242674,0.34000275,-0.5380148,-1.7814434,1.4886146,0.6031202,1.9395394,-0.8805305,1.618094,1.9135901,0.80425864,-0.19320226,0.45998108,-1.2672276,0.6255627,2.6674166,1.2967249,0.56058383,1.1638969,-0.678229,-1.7149,2.4976966,-0.016411899,-0.5013644,-1.241484,-1.1641144,-1.4631308,-0.18924704,-0.46416587,0.14311856,0.26111045,-0.052276377,-0.10132584,0.59617406,-0.064051665,-0.77480435,-0.34453756,2.8504977,-1.9739119,1.8598448,-0.755632,3.0378428,-1.3189486,0.34425372,0.5597375,4.304176,0.29405126,-2.2285995,-3.9797463,2.1123195,-0.18742529,2.6279643,-2.1795413,2.8326468,-2.2950795,-0.33098623,5.0600467,-1.26128,-0.4419015,6.971664,0.8527962,-0.657176,-2.396024,-0.24987851,-1.1743915,8.130713,-0.4159567,0.71302235,-1.5965202,-0.76545674,-1.8032646,5.2837105,-1.3054147,0.6676573,-0.29997763,1.7417785,0.46171653,0.3349033,-1.0968022,-2.1169686,1.1306683,-1.2520356,2.9127948,0.04476192,0.4252494,0.5527206,2.3261106,0.30565467,0.49034882,0.6151823,-2.1324766,-0.7537071,0.027116688,-0.08783697,1.8186935,-1.9409333,0.5998917,-0.050788876,4.5752044,-3.4783714,-0.59204805,3.9602728,0.6098923,-0.2224521,1.253482,-3.7128026,0.2580963,-0.21703826,-2.1706884,1.1663516,-0.06847592,-0.5420356,-0.31803197,0.32157564,0.90555084,-0.09845558,-0.5398996,-1.7802572,-2.3228579,-1.6137571,0.45005825,-0.03826662,0.14647338,0.8582433,-4.031722,-0.69391483,-0.1569406,-0.3161013,0.19099012,-2.4326422,-0.59815806,3.1131241,-1.374035,-0.6230981,-0.76061434,1.3262548,0.09770632,-0.109993,0.137069,-2.324413,0.6437889,-2.353454,0.67511374,-1.957645,-1.3208882,-0.73225635,3.020565,-2.3048613,0.772247,2.113147,-1.5776092,1.9650818,1.5308907,-0.116638735,1.4739988,1.1301519,-0.10892012,0.6390729,-0.06989691,0.508005,0.6475712,0.6359544,-1.9387494,0.7250913,-0.197693,-0.3000087,0.96629155,-0.6430751,-0.17712879,-0.7160467,1.4810675,0.124056116,1.5944133,-6.0601425,-0.30453235,0.094789065,1.8371092,-1.8885573,-0.2383336,-2.6050234,1.3387841,-1.7529206,2.54975,0.6319122,-2.248665,0.27020845,0.5728926,-4.9674907,-3.5613744,1.3614926,-0.13771228,-0.070804745,1.4314188,-7.777547,1.1401843,-1.0842024,0.67235273,0.51835394,1.302188,-6.5354166,1.8464088,0.8934147,0.20220116,-1.4340558,1.2034286,0.375514,-0.3841653,2.3677742,-2.9357924,-0.27755222,-1.8298965,0.6320247,1.2570812,0.7038036,-0.57917845,0.5798951,-0.5937601,1.576226,3.1191716,1.3014581,2.1335814,-1.9189949,-1.2073072,0.28993586,-1.5888345,-1.1360366,-5.421345,2.328541,0.68045205,-3.9774334,0.8587637,0.37821636,-0.32823244,2.170632,-1.3560518,0.9677614,1.615927,0.5108043,1.567014,1.9029169,0.34643114,1.0516826,1.5864137,0.8707576,0.78222233,0.97327614,2.1100953,1.305934,0.2747577,1.5012895,-0.91627294,1.0797304,1.9022273,2.2053764,0.45958728,-0.1444933,1.0086938,1.1804793,0.49457937,-5.783676,1.7758294,0.09326256,0.92877245,-0.6020981,0.5569476,1.2545116,1.0658484,1.6176627,-0.117285,0.50384384,-1.4644967,2.1991637,1.5399305,2.0406816,-0.7592948,1.8177055,-1.4912215,0.7699079,1.6256338,0.8179508,-0.66365486,1.9066042,1.1728535,-0.9751397,-0.40809757,1.056547,-0.8499665,-0.7650875,0.4600735,-0.94012415,-0.1283516,0.36385056,-1.9459978,-2.2634528,0.77308404,0.33783212,3.2947767,1.2897235,0.33614454,-0.116538055,-0.5115423,2.1810691,-0.40173683,-1.6533433,3.860056,-1.5723614,1.3739685,1.792973,-2.0623174,-1.3895235,2.9716935,0.5795802,-0.026455719,1.0623983,-0.27821025,1.307017,4.030307,-0.9739428,-3.1274796,1.197194,-0.5655024,-0.90729994,-0.029048616,2.5751626,-1.6031195,2.090172,1.516839,-2.6104968,-0.44729933,-1.7611135,-2.1713848,2.004703,-0.8412953,0.35762018,1.8930005,1.6379555,2.8908641,0.45559746,-1.0559386,-0.97859937,0.25382173,-1.9446301,1.8933349,-0.68857557,1.1413409,-1.7145137,3.7598677,0.41288057,-0.9309241,0.17530164,1.4367162,-1.0976018,0.17110428,0.9620418,1.2756802,3.6886463,0.671019,1.0989105,-0.461568,0.4135102,-2.514093,0.7674122,-0.8998998,1.0150611,1.8465558,-1.3197277,-1.8077247,0.40369087,-0.8855311,-0.63827103,-0.4375697,-1.8905042,1.2036425,0.5335815,0.39917547,-3.027835,-1.3590792,-0.5504338,3.149076,-1.2638402,4.0423384,1.0845144,0.84035903,1.1147656,-0.2201626,1.0353379,0.66964155,1.8881598,0.81882864,-0.50294065,-0.8761103,0.93264955,-0.37130558,-0.7818574,-0.3204655,1.1842241,-0.6717029,-2.1532426,-0.20441514,-0.18549275,1.0711105,-1.973811,0.3479205,-1.8182306,-1.4164138,-2.9459376,-0.5865376,0.2815347,1.4545823,0.26744404,-0.80569047,1.7709218,-0.18011725,0.11656162,1.401203,0.88172656,1.3310812,-1.0113497,-4.535416,1.3140749,4.0385966,0.48643053,0.8079725,1.5842199,-1.7080883,0.73551303,0.9925,2.2776983,-0.32788935,1.3716608,1.7513523,-1.7802888,-7.9618754,0.85909057,-0.40117964,-0.17438996,-1.1815664,1.7922434,-2.8059332,-0.038692288,1.5289391,-0.15389064,3.664163,-0.9043839,-1.1944088,2.3123543,3.007541,0.009768732,0.048063673,1.043119,1.3215053,-4.64996,0.34968722,0.3370134,-3.685394,4.638408,4.1028385,1.0437111,1.3136785,-0.65618324,2.6084297,-0.38170367,0.19813074,-0.009404854,0.34834856,-0.39196095,0.7389312,1.2033944,0.58624285,1.5410525,-0.29217127,-1.3566908,0.3720608,1.8634417,-5.557392,-1.0401981,0.4696191,0.05064354,-0.7152377,0.8150434,-2.9182742,-0.02469993,-0.08800596,-4.4882393,0.18836825,-3.032648,0.48741123,-0.48417073,-1.0631368,-2.8785574,-2.2065685,-2.082638,-1.9754062,-1.0821037,1.0966989,-0.1963794,-1.1151168,-0.59987086,0.46176088,1.1414845,0.48620236,-2.0110283,-0.4235549,0.5052902,1.4729438,0.028390612,-4.3341765,-0.20780559,-6.078015,-0.5298319,-0.65325963,-0.25290656,1.5978947,-1.0420059,1.9668885,1.0550112,-0.9671922,0.4980668,0.25219357,2.5827796,1.2881149,1.072334,0.19194905,-1.0121808,-3.5662246,-1.2132448,0.6947357,-0.31481388,-0.6323554,2.0383387,-3.8810368,-0.3167824,0.52083504,1.8166853,2.1240408,-1.7059661,-2.3735483,1.8365123,-0.6075057,-1.9394362,-1.4751819,-0.77668756,-1.1075732,-2.372985,-1.0900211,0.9929337,3.4068692,1.8124611,1.0581506,-0.38317093,-1.0092835,0.34911737,-0.4472982,-0.43618253,-0.01886305,-3.8792458,0.5173886,0.023252033,-0.040679842,0.6695385,2.5960438,0.3906139,1.3175962,-0.4604544,-0.6608998,-1.3081152,-1.4172502,1.4209492,-3.0502036,1.723077,-1.463592,-4.4487514,0.95441645,-1.7395644,1.2668204,1.5894784,1.5355681,-1.7832457,-1.0649582,1.923288,3.0648494,-1.2269509,2.2775295,0.8348822,-0.8154104,-3.0928652,-2.8928225,-0.101420075,-3.4192162,2.0656257,-0.82538664,-2.1911123,-0.69230735,1.6648687,0.21506633,-0.2521235,-0.69835585,-3.337719,0.81187105,0.90423816,-1.9720763,-0.50311863,0.34646395,-1.5349826,-3.24457,2.1206968,1.1045488,3.299286,2.7493944,1.0967935,0.51437086,3.5812836,-0.56899756,1.461969,-0.08943533,0.5460216,0.73903453,0.2673093,0.6532614,-0.854773,1.2266815,1.6693022,-0.13152725,0.5986443,0.07843559,0.5500468,-0.656325,-1.9107335,0.0019324177,3.2091553,-1.3372254,-1.4825532,-2.7541087,1.0132722,1.4208865,0.011357755,5.2454557,-0.6104824,0.6375608,1.9531246,-1.0771531,-0.35970622,1.2317774,0.5630238,-0.33254462,0.25418386,-0.95802987,-1.2039338,-1.0734773,-1.1339679,-0.71276945,1.9227066,1.9412025,0.93377006,-1.2240193,1.1930683,-0.112559974,-0.7595209,1.4517158,-0.4839384,1.1490695,-2.3556638,-2.0297616,-0.2903376,0.4152212,-1.9851536,-2.608156,0.22575279,0.17521565,0.65236115,1.1348426,0.4023662,0.5140632,2.5330827,2.141395,0.34181902,-2.2436676,2.7172194,-1.0194131,0.38361022,0.29321104,2.7954986,0.64305294,2.2028039,1.465348,-0.005725058,-0.5242282,-1.937933,1.6527002,1.7305158,-1.6485771,0.80785453,-0.74735117,1.6845652,-0.34142703,0.4819461,7.024599,-2.6970603,0.23192425,6.2792673,0.20443465,2.5750391,-1.1259868,-1.7795131,2.0058298,5.935798,0.4503418,1.0644531,0.23122846,-0.46770668,0.47047618,0.88006645,-0.44536725,1.2459083,0.98678684,1.1599641,0.83240473,1.6291385,1.6068887,-0.06375304,0.7148021,-0.16144465,2.5239332,-0.151738,-0.06914539,0.13639696,0.4434585,1.6024029,1.3432195,1.8660601,-0.7253306,-0.2929267,-0.0060462845,-1.174465,0.4615118,-1.9198261,1.2382135,-1.7408104,1.3408359,-0.85996675,-0.9618611,2.1429598,1.2080864,0.104768515,1.5367833,-3.3486693,-1.4397484,1.2556647,-0.5552606,2.725393,-0.09438361,1.3032143,0.022204408,2.5171778,1.8631839,1.6166124,-1.1102695,1.65879,-3.4399288,-0.74716073,0.72343117,2.0899446,1.4413463,2.0637717,-1.5876615,-0.0024271072,-0.37566316,-1.4883566,0.041094996,-0.4599213,-0.43809026,-0.009262178,0.38401446,1.7187945,2.7990146,-1.2213925,0.7955235,0.9932684,0.90981185,-2.006618,1.7099898,-1.605562,2.133049,1.7823645,0.46244618,-1.4027958,2.414402,-3.4611163,0.55469036,-0.05254944,0.41609484,0.79894763,-0.7922446,1.7220726,-0.6891643,-1.0502293,0.02339392,1.3153518,0.27055857,0.36063716,0.20633626,-0.5080897,3.9595945,0.5434417,0.62670636,2.61905,1.791788,1.6211569,1.1917388,-0.41708887,-0.5278744,-0.35664308,-1.0538183,0.90906334,-0.7142061,-0.41406453,7.231563,1.3039703,1.0948853,0.0013283263,-0.88695145,0.47932273,1.8625056,0.3003234,-1.9455119,1.170533,-1.2329321,0.065653704,0.15933692,-1.1324521,1.6150167,2.1951582,-0.7071735,-3.1896188,0.70210993,0.032370463,-2.0391045,0.1421028,1.5324109,0.9928888,-2.7668285,-0.5320771,-1.5942808,-1.3660583,-0.763494,1.0773286,1.5292717,1.037347,-0.31034347,1.4205724,0.43071005,-1.5364528,-0.2597559,-1.4825567,0.56145954,-0.1638999,0.49905413,-2.8815978,5.8218775,1.0556304,-0.98306376,-0.0571393,0.6964055,-0.50886095,2.6116943,0.54027545,-0.10930923,4.565628,0.52042824,0.79203445,-0.05771412,0.3938194,0.9014492,-0.19307646,1.2977036,1.5899857,0.07814917,-0.7948649,0.83392876,0.7080125,-0.48675004,-0.42641088,-1.3033153,-1.1427867,0.3402842,0.19944458,-0.29752657,-3.0822625,-0.36499047,0.42360684,-0.2545246,-1.4024084,5.294349,0.85554945,0.1793654,2.1206458,-0.32964024,0.7285161,1.3634207,-2.7132237,1.0401696,-0.35915488,0.2629499,0.27409542,-0.043316834,0.25578085,0.5389555,2.805983,4.1162868,-2.0549793,0.80634266,-0.051130407,1.614812,0.9445227,4.2801337,-2.6051912,-0.18295577,-4.585347,0.5096275,-0.7620642,0.68777394,-0.76213574,0.2694633,0.8321211,-0.72393054,-1.1107672,-0.248012,-1.4985135,-0.5742114,-1.3132081,3.439551,-0.8856762,1.9060694,-0.47401768,0.036766596,-1.4563936,2.6096716,-0.24788822,-1.8778929,0.30233833,-2.0735745,-0.7913589,-1.1462654,2.8823578,-1.0112759,1.4693372,0.38915008,0.3455223,1.7984785,0.3750809,-0.14451225,-2.4750912,-4.199509,0.54640543,-1.4856806,-1.9060912,0.05414812,0.8564984,2.8886383,0.028760444,-0.8410466,-9.913781,-0.48202732,2.573814,0.005479875,1.2228278,-0.8381378,4.304217,-2.2281168,0.006973337,0.82734644,0.26967883,0.30056348,-1.4973558,1.7660594,-0.4737582,1.176795,-1.4253525,0.7953571,-1.7778021,-1.4556473,-0.09397116,-1.1149302,-0.035889942,-1.2397175,-1.9115855,-0.17732936,3.0065746,-1.3857706,-2.06464,-0.28226975,3.2104926,3.328755,0.40218145,0.11288335,0.85119504,0.86469877,0.98827374,1.2817091,0.9518426,1.195966,1.2490159,4.362465,3.5660226,-1.5108248,-1.7191107,2.8919313,0.066638194,1.12407,-1.2598014,0.48607525,1.0331186,0.40969962,-1.9323663,0.91687626,2.1944487,-0.42369032,-0.376576,0.6297906,-0.85425544,0.45082054,-0.3674945,0.58672726,-0.19153067,-0.20261033,2.7538996,-0.61321896,0.21846998,0.08296065,-1.0040939,1.8198866,-0.60444766,-0.026909158,-0.057269335,2.0918007,1.5629019,2.290995,2.6855626,1.1393676,-0.4987812,0.10351383,1.728039,0.6742368,4.819233,-2.5703676,2.1675792,-1.1408885,0.56151366,0.17135452,-2.2812924,-2.3573976,0.7057975,-0.6607954,0.43241113,0.9331445,0.6807211,0.4986669,-0.023968289,3.3730278,0.94177586,-1.7145528,4.910099,0.34022376,1.8751063,1.0877429,1.5707766,0.2990052,1.1135613,0.141115,-1.6755278,-0.7707442,-2.6962254,1.2120445,2.0076723,-0.16171628,0.06950366,-1.1844152,1.8248072,1.106137,0.51332825,3.2553678,-1.6898885,1.5475982,0.6031788,-1.7477912,1.9691777,-1.6575991,0.6675986,0.45232666,-3.68577,0.9603716,0.86830246,-0.750586,-0.20450121,-0.13522619,-1.4663981,-0.43821225,0.606876,0.2869206,-0.06117426,0.55659175,1.8596553,2.3022833,0.9270494,-0.5220436,0.24351543,1.8010817,-0.93704784,-0.019550623,0.54829335,1.3271636,2.7251627,0.105271265,-0.55293304,1.8549151,1.308835,0.82077795,-2.9229352,0.14704086,-1.4331853,2.0808628,-2.7090812,-1.6252772,0.47508502,-0.94516474,-0.074006245,1.7354668,-0.06204192,2.4837937,-2.4018197,-1.4387337,4.4077864,-1.1162215,-0.15296853,1.5489931,1.5473342,-0.9522062,0.5781139,1.421617,0.6715636,-0.8993221,-0.20652765,-1.9571433,-2.0119073,0.6891705,1.993961,1.0290158,-0.35938326,-0.5283471,0.4841,-0.5808966,0.12680975,0.40558076,-0.35569397,0.38986766,-4.650253,0.48961136,0.16230811,2.6792307,-0.6891905,1.1642042,1.7238189,1.7804674,0.12828504,2.6687145,-2.7631845,1.8357184,1.2212727,0.9585104,1.0852243,2.8729765,-2.129319,-2.5997193,-1.6357996,0.41556537,-1.6916051,-0.22987607,5.7664676,-7.6497113E-4,0.06688982,2.6645002,1.111232,0.015793696,-1.1188947,0.37304586,1.2604104,-0.24831781,-3.0501707,-0.04178137,-3.2489727,-1.2543236,-3.910716,-2.8173194,-1.1360087,-1.6456071,-0.26261032,-0.10713568,2.4726415,-1.7282397,-0.45637015,1.8931022,0.19374284,-0.5738381,-0.83539,-0.18587933,-0.99777913,0.8989087,-0.55706435,-3.904809,0.035716407,-1.9855756,-4.0914598,3.001444,-1.6369599,-2.5095165,-0.6782583,1.4109956,2.5221264,-0.5241965,-1.2653894,-0.77792245,-0.8521461,3.608486,3.5964346,-0.94412524,0.01318065,0.7406944,-1.2396383,-0.9364481,-0.32051975,-0.7045118,-0.72220165,1.1744279,-0.82734406,0.123711415,-1.6178826,-2.2853966,0.0727437,-2.3241434,-5.323071,1.4555792,1.3552574,0.10732268,-3.5356357,-0.8484436,2.4356012,-1.6146692,4.0898066,-0.90785867,1.5457327,4.314768,1.2263678,0.104312934,1.6297076,-1.6233294,-0.3546065,-4.1252995,0.81864154,-4.566469,-7.53955,0.86156833,1.8726616,-2.69828,0.15412048,0.7643869,0.018109867,-1.8756071,0.22292629,-0.85424346,2.2741969,-0.90484035,0.6184797,-0.010676383,0.751882,-0.49876848,1.1449502,2.6451583,-1.3778278,-0.32850772,0.09929377,-0.51805043,-1.2699181,-3.7560492,6.2515235,0.40018997,1.412247,-1.8032143,-2.8961487,0.6150703,0.087168716,-1.6038755,0.23038398,-2.3442345,1.4159219,-0.6994707,1.0617236,0.52236193,-5.1436973,-2.1915326,0.29672506,5.446735,-3.5447657,-1.249209,-0.06574301,-0.42158878,-3.37744,-0.7194551,0.061267734,-1.2463007,-1.4733664,-0.15082772,-0.29441202,-0.9594633,0.7888386,1.6691691,1.5870456,-0.92304474,1.5663675,-0.49315876,0.29198772,-0.16916999,-0.79972893,0.41365546,-0.4664994,1.7847393,-3.8531299,0.53812385,1.5781466,-0.35693842,0.56199574,-0.9090758,-1.3966386,2.0601852,0.35629126,-1.1814021,1.3225219,-0.4839293,-1.0295205,0.061675563,-1.798585,-2.755874,2.9064143,-0.41239822,-0.8200315,0.34131598,-3.0781174,-0.46788678,0.6668128,2.6702025,-0.56905127,-0.30405778,-4.092786,0.1191334,1.1019173,0.33682624,-0.91196436,-0.12872079,1.796919,-0.20655526,-1.3360573,-2.3802536,0.9255332,-0.045928657,1.4216112,1.1465423,0.3515142,0.42578834,3.0908093,-1.4819971,0.7095407,-0.8072432,2.1175425,0.724759,-1.2507803,0.82744825,1.2347649,1.7996173,-1.688067,-3.0691166,-0.15621611,-0.15101622,0.4333454,1.9797151,0.8034912,3.145821,-0.5166405,2.691833,0.40727794,-0.9919305,1.6563544,2.6717334,0.7092838,1.0748848,1.2289382,2.7890673,1.6495206,-0.3506888,0.89180076,-0.3826999,2.0362873,-0.08692262,1.0163087,0.51122266,1.0253267,-0.98217064,0.2885817,-0.012244981,-0.7633479,-0.1142846,0.531126,0.9224416,-4.442251,-0.13510936,-1.0040568,2.507529,-0.6359955,-0.44734573,-0.03509665,1.8148096,0.30839366,2.037086,1.2938617,0.94744354,0.569282,-0.18060394,2.2932453,0.39292806,1.3781198,-0.7624243,5.025959,0.5135135,-1.1500201,-0.58031255,-1.3235015,-2.0649762,-1.9080567,-2.948327,-1.4400349,-1.0004486,-1.816979,-1.8375754,0.4454692,4.533595,2.4823372,2.011719,0.48780522,0.94495946,2.1631727,1.801425,-1.5153087,-0.9366168,-2.6288722,-2.1472852,-2.0359375,-0.58097476,1.7482748,3.6969254,1.2180527,0.44199166,-1.4210917,0.52084845,-1.264155,0.654622,0.9067313,-1.4194138,0.35367996,-1.9610488,0.60471904,-2.1673832,0.19894765,2.6109674,1.0344571,1.2454065,-5.7793803,-0.5834263,1.3612287,1.8094337,-0.3453888,-2.19896,-0.39947346,-2.7801065,-2.0663733,-1.8146763,-1.2575818,-2.0682516,1.7410457,2.1422403,0.50628453,-1.8791472,3.1648166,0.05520912,-1.1257151,-0.7104096,-3.3764188,0.1640826,2.1388283,-2.139984,-3.7943873,4.450322,1.0840346,-4.1174283,1.5614765,0.683119,0.30800903,3.9243705,-0.8351414,-2.4787097,2.2910557,-0.62316984,-0.060807884,-0.09340468,0.040897813,1.8642083,-0.09143654,1.7971851,1.869654,-0.2893372,0.23264916,0.98943365,0.69403327,-0.2724238,-0.09869285,-1.5338705,-1.0949298,-0.69029844,2.398018,-0.5552982,-0.31431156,-2.332168,0.43072096,0.64045954,-2.6763747,2.9143424,-0.043968126,-0.4818823,0.8747503,-1.7741073,1.9611633,3.320456,-3.5512316,0.41076618,0.27729014,1.1089115,-0.90497404,-1.8075662,-1.2302874,0.23439641,2.081323,3.5594118,0.55738515,0.41614866,1.4182532,0.9808087,1.3504385,1.1021059,-0.91991407,-1.9182464,-2.9139948,-2.578317,1.445369,1.3955402,-1.4271057,-0.6145233,1.0349072,-1.2295682,1.2108022,1.2810483,0.47539017,1.7871062,0.681447,1.5693439,1.6964161,2.620355,2.5706947,1.8523018,1.058905,-1.3825111,-2.5663857,1.9128569,2.2529402,1.0898827,-2.8596284,-0.10037941,-2.286299,0.71079654,0.58618677,-0.7928401,-2.9967136,-0.23198995,2.236433,-1.3402141,1.0198128,2.9852674,-0.1625983,2.0877607,3.4391894,-5.8851595,1.5854149,4.752061,-0.75380564,1.8159546,1.3670359,2.124839,-2.574907,1.1529433,-0.8807719,-2.7179892,4.017851,1.4684038,1.3578508,1.1674906,-3.5058177,2.1613362,1.0199136,-1.1795777,0.41544482,-4.399594,0.35745645,-0.74068123,0.20000358,0.4871284,0.69651943,-1.2966063,0.50138485,0.78692925,1.0127952,-1.3165847,1.2348703,-0.37302244,-1.5916139,-1.1789867,0.669981,0.9768733,-0.946426,-2.7232969,-2.635101,-0.80246687,-1.7314969,1.4517131,-0.18403125,2.014949,-1.7591887,0.22046447,-0.019255383,-0.16815016,1.3167733,2.2981052,0.90253097,-0.5841059,1.36432,1.2671204,1.4902956,-0.7347965,1.1005989,-1.4847513,0.20152871,0.87181467,1.6590515,-3.5097177,0.80633914,-2.724444,0.8278336,-0.28001225,-0.75411886,1.0931842,-0.13364084,1.032554,-5.2510905,1.0890836,1.0653743,2.772048,0.29839113,0.8408526,1.4865795,1.3283107,0.3174542,1.2872982,-0.029016664,2.1098258,1.5480782,0.70667535,3.0878644,-1.2427073,-2.7274442,0.42151034,0.5928033,1.170022,-1.5982563,-2.4822211,0.46623334,0.6257541,-2.3333948,-0.7343474,-3.2578397,-1.7129076,-2.4432817,-2.6452665,1.3109941,2.9239998,0.9862471,0.50147444,-0.5850729,-0.14760736,0.07284024,-0.62129474,-1.752528,-1.0017469,-3.613206,0.7706442,0.25094774,0.29436198,3.8188257,-1.501814,-0.15261462,0.43481416,-0.62972814,2.035041,-1.1660255,-2.033751,0.8848548,-4.9219127,1.1775347,-2.794753,-1.2748125,-0.7227574,-2.0409293,1.8498453,0.44971585,-0.29740942,-1.8884926,-1.8147508,2.879132,3.092278,-1.0271511,-2.617606,2.6564274,-2.122271,-0.8595606,-2.5162885,-0.78416616,-2.0817473,0.69515336,-2.317783,-2.0927677,-1.629576,1.2852849,-0.66550094,1.4829719,0.61642295,-2.169872,0.24707738,1.6478558,-3.9442265,-1.340024,-0.92480594,0.121791564,-2.4848416,1.5650332,1.5617595,3.810962,3.197629,1.7294399,0.7791493,-1.0932345,0.22138873,2.5744395,0.2782739,0.6525552,3.1733687,1.6779461,4.115124,0.17609459,0.0050542722,2.0131862,0.7867661,-1.2444752,1.4991854,0.58070314,0.09346415,0.068298705,0.032649852,1.3406006,0.78558207,2.5063727,-2.4052203,-0.73408794,0.7398882,0.18393426,-0.15795487,-0.5709906,0.4731673,0.85839844,-1.1700052,0.35873598,0.93975705,1.4840001,-0.49677718,-0.9893227,-2.3323667,-0.7448135,-2.5408328,-2.5285945,0.14633045,1.5500758,2.5292785,3.2331524,-1.5887954,-1.3016431,-0.3819778,-0.5817833,0.6360922,2.3836002,2.6465495,3.9815972,2.161859,0.4088395,-0.09189962,2.3585699,1.1858518,-0.5357834,0.21014827,-0.47642297,-0.51856416,0.099376656,-0.7462555,-0.55609715,1.1136123,1.1541777,-0.20728897,-2.4128344,1.8110261,-0.5445232,2.5668638,-1.6429393,1.147901,-0.5314041,-0.6912849,-0.3022745,0.30328935,0.9080126,6.562703,-1.5960772,1.295317,-0.28434044,-2.2830325E-4,-2.950757,3.358353,0.83952385,-3.5552394,1.6015091,-0.15850794,-2.3953118,2.582968,-1.7842091,0.9539011,1.5681425,-0.333345,-5.192883,-0.44630772,2.5721092,1.5379616,0.83873904,2.3749802,-3.419856,-0.13418944,-0.54244477,-0.72166234,0.06008525,-0.5970511,0.29136524,1.345742,2.4749534,0.7440709,2.1132832,-2.5153036,-0.0874364,0.45395422,-1.1371462,0.07068197,1.0731521,-0.38098538,-1.5922459,5.4074306,1.8137083,-0.26248533,1.571448,0.61516887,0.828706,0.87335277,1.3633307,-1.4082594,6.8518085,0.24412219,0.49486417,0.24989043,-0.22149721,0.62868655,2.4491794,1.7838271,1.3058342,2.1368165,-1.1754066,0.82491916,0.1225127,-0.73671705,-0.28019166,-0.5061822,-0.33720034,0.42149764,1.3357255,1.2755587,-0.6219261,-0.56135744,-0.86837417,2.8591142,-1.2624677,7.6437855,0.8080731,-0.041493174,1.617378,-0.3964419,2.3913887,1.3511779,-0.6403201,0.45066285,-0.43904203,0.30179837,0.55697644,-0.92590505,-1.019898,0.9366643,2.8215592,1.0013778,-0.13777317,-0.46466917,0.2665965,1.083948,0.6874159,0.14436583,1.4666523,-0.46822828,-4.6540833,-0.054318927,-0.75595576,-0.9842165,-1.624734,-1.3839931,-0.023501942,-0.40708637,0.11206005,0.06555694,-0.08076656,-0.17517327,0.5632021,-0.7712739,-0.5708134,-0.21276708,2.1352458,-2.2932673,1.4481571,-0.5157868,3.3974128,-0.8471633,0.7336277,0.68405366,4.00037,0.81920487,-1.5884608,-4.2009535,1.9319755,-0.36819497,2.7979445,-1.5303204,2.242779,-2.3943288,-0.22947964,5.5145907,-1.3596287,0.1054502,6.994351,1.4058027,-0.19558777,-1.8903259,-0.6733589,-0.86697346,8.09207,-0.52619493,1.0172378,-0.6035612,-0.526285,-1.6990349,3.9009585,-0.083354115,1.0172575,-0.19498709,2.3504844,0.8744331,0.21656373,-1.1514137,-1.6756248,1.7038625,-0.79171133,2.618972,0.54174674,0.42724183,0.7416122,2.118164,0.9102048,0.52280957,1.6717172,-2.7552888,-0.4642092,0.74967486,0.4236108,1.740743,-1.6663752,0.27715316,-0.42821503,4.2435374,-3.2972934,-0.3092628,4.008921,0.70619315,-0.018812563,1.6851094,-3.072609,0.51577985,0.41500962,-2.183579,1.2167475,-0.1664769,-0.5890667,-0.09329134,0.32419154,1.2038003,0.27965325,-0.17777501,-1.4683241,-1.7310445,-0.76071316,0.5217679,-0.026775483,0.938317,0.98185295,-4.1872516,-1.0090733,-0.09985499,-0.79528826,0.1273682,-1.9855292,-0.40493068,3.001833,-1.5966836,-0.5575657,-0.6040292,1.2503306,0.012129207,-0.19667612,0.2397962,-2.4375596,0.41989437,-1.7430801,0.6626459,-1.5179257,-1.7454718,-0.71958286,2.438691,-1.2714702,1.193561,2.0887918,1.3021408,0.5526324,-0.11480066,1.7284485,0.37557095,0.05662052,1.5866736,1.7396679,0.51697564,0.67545736,0.8984512,1.757801,-1.4305906,-0.9404925,-0.5083305,-1.5016776,-1.5473906,0.23880221,0.52476233,2.8757029,-0.64936614,0.77613825,0.23151597,4.0946617,-0.5636077,-2.5970428,1.076343,0.4376455,0.80755866,2.8290415,-1.8839862,0.35910088,1.2564961,-0.55966437,0.04409242,0.12694404,-1.9288238,3.1280372,5.247838,-1.2827067,-4.013696,0.7058146,0.5979723,5.160207,0.69458395,0.7565712,-2.9859097,0.24118713,1.8299172,-1.3269176,-1.4387388,-0.2551477,-0.28949094,2.6795783,-0.30626222,0.13769564,-0.5861979,0.7859784,3.8748884,-1.2787462,1.4172145,-0.44373083,-0.08266845,0.17315246,1.7625296,-2.8875523,1.8010783,0.5315892,1.7507573,-1.5015587,0.52918494,0.5031323,0.81474394,-2.1798956,-0.89615273,-0.15054774,3.2287378,-0.29249358,0.07304898,1.372571,-0.806419,0.1667076,-3.7056117,0.085420676,-1.9894567,-1.7932286,-0.9195623,1.0771925,-2.9008784,0.54021305,0.010441685,0.9108593,-0.5321771,-0.9266931,0.59599924,-0.5557125,-0.36400777,-1.9337184,0.47769073,0.17183505,2.6459682,0.69983035,-0.016581664,0.46304733,0.66095877,0.23044881,0.38712195,-2.1368504,-0.85193455,4.250639,-0.06904903,1.2565424,-1.7382336,0.2223159,0.47782096,0.31013647,-1.2120512,-0.8698336,-1.5053521,-0.912385,-0.28701854,0.48810202,0.21416414,-3.0212522,0.87134606,-1.1309392,0.9883333,-1.6266779,-0.5757935,0.5155682,-0.5325089,-1.6164858,-1.4928726,0.16277246,-0.9079736,0.8924915,0.30790392,0.02558633,0.3997152,0.0073088245,1.9122218,0.9798495,-0.19162361,5.325216,-0.39281785,2.4621165,0.31576294,1.9097253,-0.5103031,-0.06731327,-0.3426277,0.53751653,-0.399361,-3.4311016,-1.6111876,2.4571056,0.14679937,0.9549257,-2.0294359,3.7772615,-0.24833336,0.2952701,0.30636826,-0.65323466,-0.80576664,1.4211953,-1.889857,0.1759754,1.0400317,0.9203276,-0.05294902,-3.361702,0.70781857,-0.021731425,-1.883955,-0.4466314,-0.8301065,1.8038332,-2.1115086,0.7049837,-0.24091087,0.029354434,0.46563578,1.1361339,-0.67314667,-0.19801736,-0.43684468,0.18834533,2.65378,-0.59746003,0.11655252,0.7406706,1.838517,0.10529351,0.0680162,-1.9980078,0.5849123,1.5370753,0.12107826,-1.8491021,1.0426046,-1.9369638,1.1548512,-1.7269036,0.85987717,-1.9595994,-0.56292737,0.7700648,1.6026192,-0.058002107,1.8355391,-3.4239037,-0.6407383,4.607553,-1.1810658,-0.13517655,1.9288281,0.7450602,-0.85657567,0.22845,0.3013248,0.20472993,-0.3596673,-1.1432201,-1.9502037,-1.6191018,0.5504836,1.0450696,-0.659921,-0.47063002,-3.1320322,0.65345234,-0.055017322,0.43058568,0.11561343,-1.7023131,0.832604,-1.9056392,0.49723607,-0.008357609,0.8828917,0.40782234,0.59242105,0.93303925,1.5669351,-0.69478023,1.9369594,-3.396859,2.0238702,0.12465578,0.64685684,2.693699,3.0704856,-2.7414856,-2.269283,1.4526601,0.78662956,-0.52755034,0.066216946,-0.64134556,-0.11429869,0.87097275,0.58338445,-1.3321757,1.3356274,2.2560422,-0.6985319,0.26862526,-2.3352177,-0.48785654,2.0182083,-2.0273974,0.47106177,-0.049433198,-0.96341443,1.562038,-1.6858476,0.3444961,-0.28746596,1.1056466,1.9142548,-0.109696,-6.4631796,1.9837245,0.712789,0.6245406,-0.35786557,0.6938742,-1.5004867,-1.229166,-3.4101744,0.69080347,-3.0055256,0.25797743,0.12770045,-0.16326447,1.8383662,0.8208904,-1.8335785,1.102961,-0.17259312,-0.49126416,-0.19894606,-0.623774,-1.3167983,3.332886,-1.6888957,2.0210798,1.8497722,0.2232403,1.3898883,-1.9617916,-0.73430324,-0.6773042,0.42069265,0.10950297,2.110224,2.1155844,1.0796646,2.1877837,0.13024896,-3.319055,-1.2325732,0.45164356,-2.256343,-0.23155601,1.7274731,1.6022589,0.46975696,1.1863772,0.04373859,0.8543551,1.3633951,-3.1224856,-0.3588233,0.2516432,0.16362134,0.221843,-1.6040964,-0.8356197,1.3436518,1.0010232,-2.3622994,-0.1896653,0.50170916,-1.4636471,0.55330616,-0.64721394,0.39303127,1.4276488,0.12391272,-3.0953736,-0.048476826,1.8417188,1.721637,-2.2420695,-1.5131912,0.16450478,-4.252786,-0.7009551,0.52534324,0.2304457,0.768481,-0.39157203,1.0916463,3.232774,-1.0073218,0.12905224,-0.9527038,1.4064238,-0.17085601,-0.98681986,0.0985807,0.12804814,-1.7139027,0.9202102,0.07885575,-2.188333,-0.22102864,0.18141694,-1.6143826,4.063444,0.54536897,4.578198,0.46594548,-0.44874778,1.3729084,-1.5609313,0.53649426,0.9991581,-1.3237989,-1.4393134,0.035881422,-0.93747926,-0.5504468,-1.402341,2.996796,-0.97747064,2.597657,-0.15916462,2.1990976,-1.6393443,1.8852795,-0.75520164,-2.2840657,-0.21674284,-1.704433,-1.413614,-0.5369975,2.9769099,-1.1776984,1.7458142,0.61230505,-0.47189748,2.3057787,-0.3452651,-0.31819478,-2.2333958,-6.0444283,1.2287078,-2.994738,-1.9909053,-0.21949427,0.9900385,3.938647,0.47300592,-0.68764883,-10.933428,-0.06476821,1.5834153,-0.20884591,0.59936553,-1.1431655,4.2495093,-3.534405,-0.26287517,0.8656327,-0.4394871,-0.06871882,-1.7865115,1.9579537,0.53942573,0.7604353,-1.1130673,0.50275934,-0.63013935,-0.6308214,-0.48460874,-1.6797576,-0.09376529,-1.4955473,-3.008427,0.031796042,3.0088177,-1.6458503,-1.5893792,-0.541669,3.4803834,2.9540343,0.7610645,-0.4042214,1.2780031,0.54020715,0.43733755,0.78108805,0.71154666,1.6240816,1.9784178,4.372891,3.5353117,-2.2369068,-1.6991732,3.0977223,-0.27582905,1.0059608,-1.2859133,-0.19736616,1.099357,0.13770013,-1.7583174,1.1428204,2.4542081,-0.46136984,-0.4522621,-0.37579212,-1.4979435,0.5170135,-0.40640888,0.33857745,0.23886207,0.19519538,2.7244062,0.19541842,0.007078352,0.078333095,-0.9660461,1.5320944,0.14429796,-0.09971108,0.039038505,1.7163591,2.6421294,2.6785352,3.3066862,0.69706994,-0.20000601,-0.009948773,2.4501636,-0.06566905,4.84105,-2.54802,1.1253935,0.5790527,0.64075303,-0.79005295,0.9346496,0.4271975,0.011806552,-0.2619931,1.4664246,0.128937,-0.29330438,0.6892643,-0.6814545,0.9727475,0.4441698,-1.4287301,2.8400855,0.3202412,1.4184545,2.1388104,0.9008247,-0.40856236,-0.31749558,-0.33407477,0.07946057,-0.80138713,-2.8304782,2.777286,-0.88476616,0.89693546,0.69810593,-1.9078085,1.7931582,2.686214,0.79762644,-3.618787,0.4904243,-1.503935,-3.7805884,0.92311287,-0.44118753,-1.9560547,1.433974,-0.7262111,-7.0266485,0.36944956,0.49132732,-2.5637293,0.98630714,3.0417027,-4.497224,-2.2567556,-0.16882835,-1.2862002,-0.14396487,0.040463798,0.78297347,-0.30608776,0.5117684,0.045016408,0.4043116,0.10168732,-0.91151714,0.0076203607,-0.5607168,2.0019035,-0.7856496,0.717051,-2.793551,4.2888093,1.667658,-0.26912454,-2.1637053,1.1557983,-0.46431103,-0.60588807,-0.4403802,0.55974096,2.8424616,0.19509798,-0.86421114,0.44916117,0.3914985,0.18694961,-1.1201744,-1.1643583,1.7458278,1.04284,-1.187631,0.5226071,1.0743542,-0.8230282,-0.5595123,-1.2684107,-0.19176018,0.58476126,-0.11166167,-0.6623079,-2.0801256,-0.10396124,0.49284372,1.0044374,-0.84307283,2.808599,1.0832402,0.48574436,1.6263257,0.25610334,0.019042106,0.5701117,-2.5217252,0.9623546,-0.366155,0.030072356,-0.011155882,0.7310904,0.45923352,0.7544594,0.9589574,0.9898934,-3.2449024,0.60437924,-0.13370575,1.2341391,1.3698261,4.5898967,-3.1744142,-2.308291,-1.6426594,-3.141115,0.6621369,0.48753437,0.20244204,0.4649463,-0.15578109,-0.78540874,0.7343347,0.8715881,1.221927,0.67128456,-0.90370315,-0.7136945,0.18992116,-0.13255335,0.46798956,0.6427305,-1.6744463,-0.6679006,-2.8911908,2.3965864,2.0077722,0.341009,-4.73506,-0.58277744,-1.3887743,7.3453603,-1.2494316,-0.36521733,-4.784468,-0.33837983,-1.5359002,2.9940324,0.60879296,1.5473725,0.51727235,3.639932,-0.08403751,-5.813059,-0.809599,1.1870421,-0.36396924,-0.0066398247,0.57194537,0.8102979,-2.1439044,2.0273457,-0.7222228,2.3012216,-4.343577,2.8943987,0.3373874,0.12663849,-4.057983,0.43986943,0.023446886,0.5452626,2.4113913,-4.700387,1.3407971,-2.6022806,0.12711513,0.017206851,-0.67672366,-3.0867977,2.3195765,0.4703492,1.1967667,3.054673,1.4999199,0.3957748,0.25120753,-2.914685,-0.5551005,-0.74291587,0.25777048,-5.3677063,4.4617267,-0.35716268,-4.9611917,0.92564476,-1.0345823,1.7802304,1.9911127,-0.09214803,2.8385472,1.7397354,-1.21522,2.554156,-0.07738165,-0.7839944,0.080508515,1.7754856,0.29100034,-0.8544401,0.30026627,0.3280424,-0.35643172,0.26648372,0.08289144,-4.348965,-0.29184607,5.777031,0.021519724,-0.9670337,-0.35219547,0.2851648,1.755717,-0.59480053,-7.1160088,0.15661436,0.13486432,1.767705,-1.2252722,0.47298175,0.7563932,1.6672243,1.7815236,0.4870467,0.59390163,-0.041426186,0.3612535,0.07643739,2.8770664,-0.7931055,-1.3213389,-0.33160076,-4.936371,0.8895974,-1.3903862,0.13936755,3.3651152,-0.4865859,0.003558132,2.7264168,0.03603459,0.5353775,1.106716,-0.11945466,0.78210914,-3.350759,-1.9406022,2.322954,-2.9459915,0.5786596,-0.975111,-1.6988635,-1.3941907,-1.724364,0.231348,-0.9106302,5.2068076,0.7115208,0.07232267,0.6809295,1.9885807,-0.5082896,1.0440149,0.0027034467,-1.3541585,-1.053378,-1.5874964,0.050232526,0.61434215,-1.6339209,1.1076041,3.5332603,-0.2730479,2.1177745,-0.1988928,0.3869557,3.8682413,-0.469227,-2.971901,-2.8740308,-0.9179948,2.2344818,5.819985,-0.94353646,0.9985544,1.7053994,-0.31833705,-0.6950143,-2.1775947,0.528016,-0.73249406,3.101246,-0.08475381,0.66941035,0.11441736,-1.0590386,1.0949352,-3.0944967,-4.1460295,0.7263522,1.3198402,-1.8177881,-2.276166,0.8885183,3.5520892,-1.3767774,3.524514,-1.9411329,2.7264316,4.2080646,0.20657854,-0.23030886,1.5788348,-2.7703047,-0.5000669,-3.6624475,0.874955,-2.1360939,-7.1877375,-0.9714478,0.948805,-2.8476472,-1.1856098,0.5224244,-0.2845791,-2.8978043,0.681982,-0.14948273,-0.28033134,0.17061721,0.9351334,1.2323301,-1.1117527,-2.0659888,1.0837168,0.70980394,-1.7176218,-0.6773168,0.5013952,-0.40955678,-1.1231283,-0.44207,6.447629,-0.44036955,1.6183361,-1.2808573,0.68234825,0.1058263,-0.4116559,-2.1973186,0.86154616,-2.043075,1.774036,-0.25887123,-0.08961834,-0.68800807,-3.1726584,-3.0550568,2.7476506,5.214365,-3.406622,1.7889864,0.96599185,-0.5762816,1.2053968,1.9151454,0.13455273,-0.6147723,1.5116069,-0.9669732,-1.5922781,0.7221042,-0.72466755,-0.18933825,0.57432616,-2.034898,-3.2639818,-0.032424916,0.12935328,3.0377522,0.77943945,-0.56023616,-1.2449592,-0.18554857,-0.73155975,-0.48146528,-1.2877162,1.3597955,-2.581705,1.7465097,1.2537915,-0.5966718,-1.4443803,2.9322617,1.1780385,-3.3350472,1.2520897,-2.5692298,-3.2799385,3.141957,-0.31202415,-2.627891,1.6847843,-0.7410278,-7.380377,-0.047880184,2.8404522,-1.5472386,1.4969717,2.793822,-5.0926814,-1.8945231,-1.4670203,-1.6928837,1.7341512,-0.32619175,0.5805864,-0.1396313,1.1515765,2.086633,0.22453132,-2.2074723,-0.4740357,0.75115186,-1.3716743,2.663557,-1.2906916,0.6245887,-2.889187,4.4141936,1.6024476,-0.53132933,-1.5368972,1.9198136,-0.0033594219,0.0602017,-0.41662452,-1.1185353,3.1188307,0.60161656,0.37169522,0.03219899,0.5590726,-2.6755924,0.9545798,0.4082172,0.3218857,1.7789005,-1.4768044,-1.0487903,1.1196815,-0.46652794,-0.9291879,-1.1423082,-0.92191005,1.7006217,0.2998273,1.6636246,-0.9825505,-1.644376,-0.4605325,3.688725,-1.5804569,2.825169,1.7152336,1.4278902,1.6370353,0.66564196,0.6563329,0.82493055,-1.2288555,1.090118,-1.2535123,-1.0782232,0.21725881,-0.08553943,-0.9938118,0.14599271,1.2860951,-1.3978275,-1.7625139,-1.4533099,0.1039293,1.5476967,-0.3973807,-0.52515054,-0.38903272,-3.1447856,0.23949844,1.8718916,0.9137107,0.32162637,3.4800463,1.6374058,0.89643514,2.034879,1.2794029,0.51069885,0.84914833,0.9504801,2.023761,-1.436688,-1.0465866,-2.2292342,-2.4715207,-0.44487378,-1.8209476,0.3307732,3.1459951,-1.1138066,0.5501406,1.6502091,1.0935959,0.015722781,-3.315599,-0.46763864,-0.8998352,1.5193964,2.8578086,-1.3450717,-0.9676593,1.4060888,0.7947063,-3.4266994,1.1761324,-2.5885472,-6.5459404,4.9361577,-1.895095,-4.543672,1.5715287,0.7197685,-2.1529157,0.4526319,1.0346683,-1.6841726,0.4252384,3.2328322,-1.7106851,-1.6382356,-0.25096035,0.21522936,3.2689707,0.42556652,0.5330162,-0.27161148,0.16497253,4.1392694,-0.7193295,-0.044079628,1.0359674,1.3748046,0.41950554,1.9329977,-2.141294,1.1811678,0.108254775,1.3835201,-1.8801101,1.1050763,-0.29751432,1.3940878,1.855132,-0.65008706,1.1564068,1.5703908,0.6234437,0.117684655,1.6195811,-0.18896078,0.5268177,-3.0884302,1.6786997,-2.4710462,-1.2724918,0.7273662,1.4708034,-1.8324372,1.1469644,0.9281489,0.95778376,-0.069628,-0.10168612,0.94227463,0.7136357,0.6881389,-0.24637702,0.28588197,0.8460614,2.750111,0.88753545,0.7120391,1.2735915,1.8201661,1.2608624,1.4352463,-1.8832343,-0.9399252,3.264224,0.5407875,0.63149273,-2.8446143,-0.041340955,0.5592241,0.12584732,-0.85669196,0.5292708,-1.7453923,0.524189,-2.3082378,1.0064466,1.1403581,-2.9143076,-0.51833606,3.4636168,0.426697,-1.2085943,-2.414205,-0.09484991,-0.25658062,0.9743752,-1.8579532,-0.47888333,1.3616753,-0.0670619,0.5587555,0.9315584,0.061515696,1.5653259,-5.1744413,0.53510046,-0.9534001,-3.1748695,-0.25715175,-0.48369083,-2.9228723,-3.296176,1.257477,0.95210016,0.89899796,0.07640021,1.6283525,0.108706936,-0.087494716,-2.1246326,-2.0538993,-2.5630841,0.39059716,-1.668122,-3.091777,0.5265671,2.7782373,-1.8528253,2.8810673,2.786776,-1.2517715,0.49947506,-1.3060464,-2.3321126,1.265053,7.4105067,0.27407652,-3.2735257,1.8559307,-1.4433138,-1.1582321,-2.3145812,2.8874311,0.7950196,0.4478176,-2.8089383,-0.2023433,0.07638231,-1.5627937,-1.4120581,-1.8475032,1.4023231,-2.4979212,1.2542447,0.50661033,0.0558742,-2.3204427,1.3967055,-0.9952277,3.102111,-4.555883,-1.3505465,1.1782796,3.0016334,-1.7243881,1.2684801,-3.3056076,-0.25798756,-1.3486304,-1.9847133,-1.5194782,-1.8441854,0.49814138,-1.3354087,0.005979224,-1.8211123,-0.07084806,-3.593935,0.4268899,1.5804963,0.8452315,0.08361999,-0.3068566,1.274603,2.1164773,0.5096304,-1.9175419,0.5236064,-2.3793347,0.83749723,0.25369963,0.064109236,-2.9428825,1.6987419,-1.4567451,-0.17737144,-1.4509996,-1.655399,-0.39616182,-1.5066416,1.1366783,-0.35724187,-0.0941013,1.2888418,-1.2279199,0.08652753,0.28335312,0.13720924,0.24967436,-1.3716097,-2.1809332,1.0469677,-1.9442747,0.88416284,0.0021942393,0.51624715,-3.6166053,1.8180186,2.8008869,0.8699413,0.25597873,-0.67694825,-0.48788348,1.4086587,-1.5317603,-1.8330019,-0.41662896,-1.3504668,-0.5588034,-0.037969943,-1.9294707,-0.22204468,4.764406,0.9906976,1.4741606,1.7605709,1.8830432,1.6325985,1.8674477,-2.4134295,-1.3431638,-1.3464999,-2.2787304,-0.10174183,0.05899787,1.2906935,6.3325872,1.1277521,-0.2653578,-1.4798605,0.19990624,-1.4180367,0.4919809,0.27549818,1.6272357,-0.30880487,-1.6062028,4.9529,-0.4569996,-0.35412645,2.89084,0.32145852,0.018505171,0.22169183,-0.73333323,1.3058367,-0.17630559,-0.13937262,-0.5714407,1.55815,-3.8681428,-0.35550678,-0.88275796,-1.90022,-1.5972013,0.8703638,2.8107905,0.8039484,-1.3623285,3.0218112,-0.13844001,-1.3468678,-0.58152187,-1.6450979,-0.7905832,2.0792317,-1.7797871,-4.360412,3.4069655,1.4255301,-1.9919152,2.5051887,-0.24112569,0.39187115,3.8865833,1.1728197,-1.3153355,3.790418,-0.059328236,1.0291709,-0.42726517,-0.111397706,2.4824011,0.15921642,2.7722762,0.8662334,-0.007905129,-0.51372737,1.2139547,0.19948016,-0.51048917,-0.76132804,-1.6726747,-0.40705004,-0.38074782,1.3242205,-0.16622935,-0.9835927,-0.62917775,-0.13912074,0.51403826,-2.260705,5.0887957,0.024993746,-1.0577989,0.69679826,-1.7124392,1.9094394,1.890096,-2.507306,0.5942596,0.43337774,1.2628247,0.08960583,-1.5273466,-0.7089051,0.54589975,1.7786198,4.4829087,-0.4485206,0.8559222,0.5436747,1.0745008,1.0128767,2.1989207,-0.32384813,1.7929307,-3.9698343,1.9824057,-3.2259557,-3.5727277,0.27028647,-3.0242653,-3.223565,-2.7446215,-1.3047104,-0.9703963,-2.3761191,-2.2224936,-0.3599227,1.587741,2.3338494,1.5410099,1.1997572,-2.2116828,2.068193,-0.024646185,0.5544848,-0.6559577,-2.9792035,-1.4606903,2.8753023,0.41626948,-1.6843886,-0.36354,0.6928138,0.61191595,1.5295899,-2.4071255,-0.017244909,-2.6746929,1.3697168,0.6768971,0.26987037,-0.75855875,0.23049118,1.5009483,-3.0173252,1.0203329,1.014298,-0.6862849,-1.3695455,-2.0452528,1.009672,2.3680136,-1.7409474,-0.8771596,3.4325602,-1.0263797,-2.8930283,-3.681275,0.87420267,-3.1317215,1.9651335,-1.4739782,-3.1123707,0.83785284,2.4714901,0.95583785,-1.3901342,-1.5921406,-3.525323,1.0958842,2.0434961,-1.9097902,-1.2082405,-0.051785454,-0.75517035,-3.774754,2.8975914,1.5205622,0.21630113,1.4091638,0.32917523,2.3308847,0.28457177,-1.4094329,2.6491363,-0.039451994,-0.6282897,1.2780743,-1.4609262,1.853699,0.4340276,-0.1761374,0.45350215,0.503356,-0.7374702,-1.4036378,-0.5514073,-1.1163914,-2.6827254,-0.9179473,1.1431044,-1.954111,-3.2300742,-2.490396,-0.06701236,0.9501857,-1.2432797,1.1580074,-2.180401,-0.9455643,1.2720801,-2.5298781,-1.9186541,2.135777,2.4852028,-1.9413728,-1.3202013,-1.9416099,-0.22041301,-1.5622858,-1.6629452,-0.55684716,0.22219872,1.5124216,-1.789372,-0.75117403,-1.5036736,-1.9700671,0.5291093,2.1529007,-2.0552492,-0.44160292,-2.0194585,1.0491002,-0.65897524,-0.82354254,-0.17008704,0.005738836,-0.117196985,0.26394266,-1.8250059,0.41515335,0.8788866,-1.3562102,0.61405617,-2.2662935,-0.27825388,1.8169931,-3.106395,-0.08965552,-0.80905783,-0.7403214,0.7083412,-1.7706014,-1.3878936,0.2846723,0.6277934,1.839896,1.5251291,-5.8915224,0.98510426,0.392626,0.67100215,0.69523036,-0.18647645,-1.7109604,-0.53396106,-4.307133,0.39609924,-3.3650947,-0.524035,0.90446806,-0.62519854,0.984153,0.5494141,-1.0741045,1.354676,-0.7180503,0.09874646,1.1759497,-0.64594936,-0.99618846,1.1732514,-1.3654606,1.1390179,0.606911,0.45633024,0.102714315,-0.9581837,-2.548363,-0.9226586,0.22007813,0.29910696,0.9075708,2.4983633,1.27365,1.3599228,0.7932815,-2.5784578,-2.12013,0.12151066,-2.4855251,-0.094688,1.2216407,1.6704047,1.2603506,2.0125332,-0.27210414,0.94479686,1.2370337,-3.1672306,0.1256911,1.3940638,0.04712394,0.49727663,-1.2870935,0.19247095,2.417033,0.52267057,-1.9180449,0.7165774,-0.39721102,-1.2660763,1.0433583,-0.13350493,0.04792131,0.94639015,0.5399552,-1.6766418,0.71535397,2.0065687,0.6528555,-1.8535268,0.0332134,-0.12510163,-3.6181853,-0.42608884,0.57639074,0.3565656,0.06729099,-0.32284448,0.76985896,3.5184293,-1.0307877,-0.044364486,-1.8818969,0.6982081,-0.7817946,-1.4173846,-0.23882928,-0.39051726,-1.7653028,1.2961361,-0.9082708,-1.7077148,-0.4461673,-0.70212215,-2.275044,4.224971,1.2984291,4.9396024,1.0970453,-1.8499072,-0.46197805,5.513805,-0.095852375,0.0202546,2.454921,1.2744842,0.08267014,-0.79527813,0.7079774,0.3052464,-3.8423545,-2.471702,0.9847365,-2.9417262,-0.98407745,-2.3843806,-2.1176744,-0.59392357,-1.7438893,0.17227201,-0.4486099,4.5656257,0.09777165,-1.3175273,0.43639666,0.6803344,0.022461478,0.46205425,-0.9244263,-0.42086485,0.2836649,-0.9543826,-2.5813558,0.60439354,-1.6253781,-3.8123984,3.5411546,-0.6394903,-1.467572,0.13428056,0.7956417,3.7611938,-0.52145606,-3.7993772,-2.171934,-0.53239983,3.7210424,3.2296045,-0.5995939,-0.44267935,0.5316997,-0.7716703,-1.0389893,-1.3723861,-0.43417287,-0.8518333,2.4274147,-0.89993143,0.35931262,-0.51115423,-1.6609927,0.38923383,-2.3403096,-5.3604145,1.7889293,1.8413869,-0.9904579,-3.1200354,-0.052518763,3.0787702,-1.6459292,4.0070043,-3.7107863,2.5409293,4.569622,0.64993674,0.16061181,0.059119668,-2.1755111,-0.25240013,-4.491159,0.746906,-4.288307,-6.5758467,0.21888776,1.0232712,-3.9779108,-0.31807008,0.01251637,-0.650234,-2.1316855,-0.37647063,-0.21823762,0.6641974,-0.5249103,-0.4155389,0.24064699,-0.115905926,-1.7088475,1.0766418,1.3715184,-1.8110279,-0.32579947,0.7175936,-0.4850663,-1.4781591,-1.8113117,5.895564,-0.28478697,0.90670854,-1.7017465,-0.4570687,0.8654004,-0.1291616,-2.092605,0.20108595,-3.985857,0.60532963,-0.4580174,0.5970321,-0.5693784,-4.7356076,-3.0737672,0.69723564,5.1744757,-2.9160018,-1.2408148,-0.0151633555,0.4353572,-1.0608029,0.1848619,0.28563356,0.9462542,-1.2658855,-0.082398325,0.6494311,-0.788709,1.7268606,-0.28572023,0.15741245,0.26460952,-3.018101,-0.40415227,-2.8414128,-0.59828806,-1.1091018,1.2416968,-0.6712104,2.459351,-3.3208823,0.7969984,2.4852958,-4.6731424,-0.9105773,-2.003785,-1.5105877,2.3917174,-1.7871382,-1.1147869,0.2635513,-0.097621866,-1.419545,0.9010819,-2.6190271,-0.5781283,0.88729554,0.8942522,-2.449791,1.0861301,0.96758765,-0.5283814,1.3809727,3.6543934,-0.67189586,-0.5177861,0.47645932,2.5731,1.4688344,1.2310498,-0.36821768,0.47475824,0.23586978,-1.9501159,-0.7624781,-0.83026415,-0.6020953,-1.6596134,1.8160917,0.8942392,1.9603022,-1.0339526,0.57857877,-0.92280304,3.10038,-3.2738972,0.40900922,2.055851,0.3344579,-0.2231563,1.0885196,0.42259184,-0.22487071,-1.1326374,-2.9268272,0.21281911,1.0469164,1.1675236,0.6521725,-0.28062555,0.5294011,1.950686,-1.925003,0.08068303,2.5751164,0.4675539,0.060822856,1.6430217,1.9499916,2.433782,1.4367958,0.27344406,1.3305839,0.63254637,3.0253367,0.8935328,0.5721649,0.747383,2.5246325,-3.5034492,0.27416533,0.41979322,-1.670924,0.12686175,0.14068098,-1.033876,0.0063983747,0.14839157,0.5323075,-0.10693661,-0.8017437,-0.2674324,-0.21547285,0.5111297,-1.4356089,-2.2171366,2.0244331,-0.9546208,0.5111955,0.19501658,0.22088277,-4.0752892,2.2838752,1.161292,4.1198025,-0.95042235,0.15489435,-0.67343086,-2.5048497,-0.95763505,0.046264283,-1.3725106,0.16418464,0.17810215,-0.08094993,0.029385585,-0.44320217,-0.22152828,-0.17597634,-1.4918472,3.439693,-1.4600917,1.9330821,-0.2346505,2.4971423,-0.81120145,0.6313163,0.053320885,2.2931376,-0.008993763,-2.1601162,-2.3730814,1.306131,-0.4656207,1.5970994,-2.0903413,2.8832116,-1.5923957,-0.2057974,5.737276,-1.4208672,1.5255146,7.581225,-0.9880556,0.5783507,-2.423134,-0.39326864,-1.2154815,5.721456,0.06757073,0.4699828,-1.0922098,-0.23744383,-1.7495517,1.6609697,-0.014501128,0.9928152,-0.46803537,1.0275372,0.6900591,0.47563544,-0.379024,-0.96095294,-0.11736934,-0.7949193,2.3466015,-0.32280284,0.2303638,0.72821176,2.3152244,1.2995945,0.2551189,0.19411904,-1.5184883,0.11292872,0.22080302,-1.1523981,1.2906315,-3.2690587,0.29179576,-1.427241,2.3194962,-3.003031,-0.3665176,2.290575,1.3118453,-0.24186163,1.9530175,-3.615989,0.15557493,1.1455725,-1.8986968,-0.21304955,0.8894531,-0.356413,-0.8444524,-0.19528319,1.7178156,-0.0015243613,-0.45720074,-2.1472836,-1.9719216,-1.493803,0.57184833,-0.25169927,-0.0333957,0.1452096,-3.7319267,0.019671235,-0.31528413,-0.8053154,0.30332318,-1.6633167,-0.1953431,0.40549508,-0.7975576,-0.83658445,0.70481724,1.2461692,-0.08958314,0.20130825,1.0524032,-1.8767589,0.6879726,-3.0914838,1.4343426,-1.5675346,-1.0450308,0.04303774,2.4055018,-2.9588914,-1.0632868,2.9140508,-0.10506368,1.9817067,1.9611075,1.060646,0.40512654,1.4141324,1.2176329,1.1832665,0.44740415,0.42799383,1.2365335,1.4945111,0.74388576,0.6408816,0.14029394,-0.043553773,1.6666404,-0.94284666,1.3713696,-0.71837157,-0.08087184,0.35420156,0.30132863,-5.9823575,-0.613231,-0.30179408,3.099238,-1.4164839,0.6372136,-2.155252,0.7725751,-1.5807985,3.2238314,0.21508849,-2.3215919,0.47393522,-1.5472642,-4.575473,-1.9020773,1.5329974,0.9560344,1.0501665,2.3312726,-8.415977,1.6605532,-0.173811,-0.24722774,1.1990002,2.000388,-5.3886976,-1.5993382,0.31143138,1.2563982,-0.49815422,0.71165353,0.49449384,0.9310971,2.8519402,-1.6731161,0.1375667,-2.130838,0.07765538,0.870033,0.7035851,-0.44470596,-0.28903767,0.2867183,-1.3494188,3.4127114,1.0675863,1.2118577,-2.1995847,-0.8132038,0.5441126,0.33982977,-0.9487813,-5.5417085,3.6445227,0.1403896,-3.3629024,-0.37112334,0.24117208,-0.42739016,1.738958,-2.5880075,1.3329811,1.2023156,0.54585224,0.3929953,2.5663204,-0.13879463,1.0651175,-0.9990234,0.57576203,0.19374397,1.9046849,1.3878127,0.8217864,0.24254872,1.9216843,0.67761785,-0.27546525,3.4468212,2.3610778,0.2842917,0.6829872,0.8797967,1.6275868,0.5622663,-4.838088,2.2365978,1.2302513,0.74644697,-0.9554589,0.9380985,1.4396387,-0.105782814,1.9185067,0.73928624,0.12441572,-0.76171255,3.2973106,2.575526,1.056652,-1.0212744,2.4680765,-1.5195984,-1.8387909,-1.9371215,1.9054224,2.068297,-1.2003607,0.6068534,1.6887375,-0.7442681,0.6414982,0.8168633,0.85679686,1.3033376,-0.12012431,-1.5127871,1.0230803,0.051458173,-0.4627591,1.7471874,-0.070881605,-0.44592154,-0.37157983,2.3985367,1.4598331,0.96048343,-4.9591227,0.7680929,0.35532203,-0.7541433,-0.9280432,-0.41272575,-2.0868914,1.7162218,-0.6338331,0.029709795,0.8137927,1.1956321,0.18413845,1.8346049,-2.0349562,-3.3696494,2.2136765,0.3735159,-0.34068078,1.5245639,-7.9114795,1.8550826,-0.53145266,1.4199588,-0.2964471,-1.8519737,-5.399323,2.1909013,2.060191,1.2423996,-0.90278226,2.79156,0.22702345,-0.16196197,2.106181,-2.2351258,0.44486877,-1.3097237,1.3681202,1.4329119,1.770228,-0.7483353,1.6938558,-0.6678823,0.9915292,-0.4465334,1.1694666,2.0729039,-1.7675354,-1.2985066,0.72144884,-1.3065922,-0.8414341,-4.862822,-0.075339854,0.024062011,-4.1979446,0.7898412,-0.22868954,0.86594003,0.5732978,-0.7191063,4.0062637,1.4026954,-0.09166141,0.9991063,1.8328174,-0.07186502,0.54321665,1.3319151,2.0021508,-0.01646673,0.8896463,1.4666504,2.6205614,1.0227299,1.3684012,-1.5147244,0.39425245,-1.261703,1.8805934,-0.07727853,-0.3354414,1.3644459,1.0224245,0.9122608,-4.1510663,1.510181,0.5202388,2.25095,0.14847146,1.0577648,1.5084096,1.0432361,1.241441,0.02575903,0.9984716,-0.17870057,1.9003919,1.6007375,1.1097536,-1.5456465,2.6728277,-1.6829156,3.5713048,-1.5690635,0.3049291,0.1447172,-3.3841221,-1.4540521,0.14783092,-1.5383173,-0.65843374,0.26238713,0.05348635,-0.25003105,0.71703714,2.1290915,1.0636014,-1.6567022,2.7181194,-0.12523523,1.0468521,0.44218338,0.2883226,0.14947401,-0.034619357,1.052533,-2.6968868,-0.13878068,-1.6704415,0.2281102,1.586058,-0.57852656,-0.19400701,0.30578423,1.2709717,-0.297838,1.0150666,0.22516769,-1.1812593,-0.66835284,-1.071242,-2.0595157,2.696941,-0.037065357,-0.6153131,0.8464038,-5.3582544,0.19185843,1.2245435,0.39307204,-0.7272208,-0.81781936,-3.212057,-1.1304524,0.89545155,0.20090301,-0.11284646,0.23793338,1.5060464,1.2164011,0.07709172,-1.3382584,0.80290896,1.2271745,0.30035162,0.8453016,-0.091578014,0.86370134,2.1625807,-0.5680537,-0.23394656,0.60196626,1.7072244,0.18774442,-2.4753573,0.8815782,-0.6591216,1.9149238,-2.4886594,-2.1188455,-0.36513972,-0.8062608,0.48269063,1.4079223,0.36183667,2.7067857,-1.8336838,0.05214197,1.9364301,-1.3771062,1.2465217,1.7911384,0.7550533,0.08535241,1.2077812,1.6111413,1.334329,-0.6985427,0.4362147,-1.3819321,0.45183906,-0.12544492,1.0657326,1.0678865,0.101436,-1.593069,0.46541727,-0.31734312,-0.7954527,0.23683873,0.18296963,1.1877985,-4.5543237,0.048195086,-0.05065908,2.857677,-1.2560949,-0.34628838,0.08514513,1.3711481,0.30477756,2.6501532,-0.50104725,1.6041471,1.0125943,0.36447364,1.9689393,1.7098312,-0.45120162,-1.5709102,0.69699764,2.2246606,-2.4598715,-3.6116793,2.0965824,-1.3580399,-2.3927224,-1.343489,0.708733,-0.86999124,-2.101861,-0.411487,0.48260736,0.9554986,1.6404148,1.4113742,0.65925735,-2.2994587,1.3038517,-0.7667637,1.1568526,-0.39785784,-2.743646,0.32982954,2.6061907,0.24502242,-1.8608563,2.4629295,0.2497304,1.4660554,1.176206,-2.018068,0.17938122,-2.769907,1.80987,-1.622037,1.8796846,-1.4052539,-2.4701493,1.7851014,-3.3629007,1.0022304,1.683806,0.02860542,0.018556582,-1.0954868,0.0362734,2.3159735,-1.4639834,2.8115225,4.0403576,-0.69852006,-2.3325274,-3.2028675,0.621172,-3.0311542,1.9965286,-2.7573388,-4.2715726,0.8283945,1.6227343,0.56083745,-0.69127727,-0.9879396,-2.9259176,0.93998975,0.6437195,-0.63626057,0.28952435,-0.13493876,-0.93329793,-2.850781,2.655885,1.1067724,2.4553137,0.49669755,1.4901866,2.8829145,1.9075241,-1.238656,2.0507848,0.22236729,-0.4250231,0.46742344,-0.3814792,1.1285111,-0.34710595,0.67043304,1.6213472,0.41014257,-0.34725097,-1.0226152,0.26710707,-0.08309801,-2.3670392,-0.70558625,2.0131865,-2.4410474,-2.1520424,-2.2195458,0.41645646,-0.076245844,0.48487115,3.6190941,-1.5982392,0.12285154,2.2389693,-1.2793152,-1.6622632,1.3082095,2.6951413,-1.2983739,-0.786107,-2.174793,-0.36660355,-0.7294475,-1.106891,-0.48351178,1.2528238,0.5738489,0.28631204,-0.91736335,-0.9855733,-1.619158,0.56705546,1.8309025,-1.7141896,1.2096655,-1.865589,