-0.38592276,0.19064084,-0.2703642,0.9700526,-0.020628484,0.29875523,0.3409201,-0.51301396,0.22490971,-0.38445854,0.23862748,0.7212979,-0.28145954,0.080115184,0.28408343,-0.5756263,0.5957003,-0.1996788,0.20118351,-0.24511245,0.69678587,0.71203446,0.49913397,0.45216674,-0.29660007,-1.8755627,0.006022943,0.5061596,0.12042254,0.058144264,-1.5579948,-0.016867964,-1.5697429,0.5452765,0.6734031,0.1360352,-1.7488303,-0.41553685,-0.73638874,-0.8574073,-0.4977952,-0.4714345,0.5319951,0.5183322,0.30485222,0.14385368,1.3295525,0.92529213,-1.355193,0.31837845,0.6476175,-0.5584447,-1.9070554,-0.16047797,0.23643705,-1.0017564,0.7817859,-0.012612743,-0.020426631,0.029579517,0.3936342,-0.7029154,-0.6226798,0.17863335,-0.28187746,-0.3577416,-0.5495701,-0.83880013,-0.6421939,0.4279785,0.39593992,0.35412118,0.47482258,0.6160595,0.5170472,-1.3433226,-2.7593935,-0.64774936,-2.0879018,0.99723047,-0.143116,-0.62021863,-0.48950866,-1.0746319,-0.57557905,0.53329325,-1.1768713,-1.0739555,0.40432248,-0.05416874,-0.063285984,-0.1481077,-1.3451139,-0.5879507,0.33338216,0.25124198,0.33977127,-0.68527246,0.013391543,-0.32733682,-0.4570438,-0.70284253,-0.26227155,0.12084897,0.2431672,0.5383478,1.6498423,0.47692615,-0.6209877,-0.4665786,-1.8320206,0.23540923,0.28044933,0.010469236,0.39989665,-0.2619473,-0.44363454,2.2449203,0.17018898,0.41135228,-1.5731726,0.44727558,0.21382713,-2.267982,0.12720162,-0.4812914,0.27270412,0.8793775,