-1.3597094,-1.4225806,-3.3508084,-1.7359552,1.1716409,1.3569518,-1.5116756,0.67780495,-1.0202932,-0.7869344,0.630905,-4.9835033,0.3025423,0.8007536,-2.547048,-1.9707937,-0.9225551,-1.3690466,-3.373209,-0.41387618,1.0802453,-2.5920641,0.8321304,1.105927,1.6775384,1.2522801,1.8526475,-2.727876,0.9868631,0.4128265,-1.8975843,-3.524525,1.0722734,-0.9335069,-2.659803,-2.6256235,-3.6462247,-2.1626205,1.0343689,0.6066698,0.8087684,-0.49844423,-0.10283554,0.27232778,0.72705,-2.224668,0.8089545,-2.4488084,-2.6036592,-4.5628853,0.007354153,-1.7906432,-2.8865752,0.98476446,0.91627836,-2.2426004,0.18738894,-3.3910213,1.0249654,-0.4973177,0.7132723,0.3998118,1.8275595,0.58033735,-1.9961543,-1.9121011,0.6448535,0.96605504,-2.7251198,-2.3277748,0.23568437,0.75178975,0.56232613,-0.6577833,-1.0462688,0.7823687,-2.5141926,-0.9576236,1.395262,1.4085431,-2.6835535,1.0518683,1.0733895,1.2090782,-1.0117918,0.9517416,0.21471082,0.5899985,1.8039931,-1.7055608,-2.2365415,1.3353921,-2.8371608,-0.6121443,0.92299443,1.1684458,-1.0428162,-2.9150758,0.85575426,0.4785566,0.55345947,0.7541535,-1.6028384,-0.29643333,-2.1605701,0.9772278,-2.9084678,0.36757237,-3.82016,1.0238469,-0.038443506,-2.3979242,-2.2416966,0.7249581,1.4926746,0.8453724,1.0229369,0.5173103,-6.094829,1.2607176,-0.50895613,0.44403657,-2.5618339,0.94044256,-0.72568846,1.9942658,0.40730405,-1.2814605,0.8727459,-0.8837395,-1.9861381,0.7537334,-0.06824174,0.7258337,1.3941206,-2.2222106,-0.09166181,1.1105354,0.021847807,1.2572918,0.27539206,0.038969345,1.6100512,1.6675522,1.1817557,-2.1604314,1.2960688,1.0966785,-2.2546797,0.8967341,0.5443477,-0.6019067,-1.1424031,-0.8230196,1.7317716,1.4926007,0.5742035,0.3560198,-2.4783397,0.5327013,0.7730035,1.5511156,-1.0326906,-0.82386625,0.8075482,1.6024108,0.72682846,-0.18303818,0.15626954,-0.29680988,-0.17204827,-0.06903359,0.041025206,-2.83308,0.66522104,-1.4286346,0.47814623,-3.2785244,-1.7258031,0.4341953,0.9049935,0.7529957,0.9289648,-2.4118788,-0.029947678,-2.2474847,0.2787049,0.97029364,0.20274438,0.53973085,2.3827853,3.0472608,0.5436008,0.09753941,-1.5050666,-1.1910645,0.42154005,0.794163,-0.4695134,-2.9630287,1.420302,-0.8096489,0.67187756,-0.057412416,-1.7406735,0.26596898,0.6065568,-1.9311111,1.1931849,0.6039447,0.49118632,-1.8659389,-0.07146881,0.47680843,-1.2482859,-3.185277,-1.1348289,-3.5851493,-0.14540163,-1.892312,0.1316032,0.4183284,0.88314915,0.9726115,-1.858783,0.35912377,-2.168767,0.5970831,0.33674663,0.778529,-2.4030194,-1.2670707,0.23455067,1.3652123,0.20583922,0.59214455,0.66905785,1.0690254,-2.532331,0.7918161,0.16318372,0.45332837,-0.6268374,-2.6603622,0.5205435,0.14516607,-2.6714447,0.68577355,0.68074644,-0.19337207,0.5116868,0.57555324,0.345973,-0.027297454,-2.127724,-0.9745407,1.2580227,0.71554923,1.0741526,-1.4130442,-3.7754257,-5.354269,-1.5697675,0.716171,-2.7998903,0.7901735,-1.7472693,-1.2966332,0.4955878,-1.393172,0.44571763,-1.6832324,1.1139927,-2.969833,-1.9036672,0.9596682,0.67634916,0.0140902605,0.7548667,0.4200852,-1.2830442,0.42918321,-0.32304248,-1.3830866,-3.7131345,0.73893195,-1.9718155,-1.053848,0.72065854,0.6534304,1.318105,-1.816736,-1.3659598,-0.53592646,0.5333181,0.57249504,-0.89030695,-3.49842,0.90555274,-2.632896,-1.8491569,-2.5156245,1.1299835,0.61933285,1.2182724,0.5571224,1.3928062,0.6824337,-0.6043711,-1.2017196,0.73906267,-2.0140817,-0.5006689,0.70199776,-3.414368,0.7775077,-1.2648015,-2.916831,-1.528451,-1.1914135,-4.60247,1.2441413,0.9359468,0.33015034,1.1545072,0.25530797,-1.673851,0.8699388,1.5377301,1.9233924,0.2896071,0.75095713,0.5750129,0.6322532,-1.2937938,-2.044545,-2.2010198,1.82879,-2.4918294,0.98401386,1.0504084,1.2154682,-2.6212935,0.62172544,-0.6022789,0.38004592,-2.9459703,-1.9089278,0.96924984,0.607465,1.1203641,-0.27936354,-2.9631639,0.7552957,0.6774349,0.96068263,0.9703991,-1.3409827,-2.047966,0.6475634,0.9375753,1.8846117,0.27706483,1.2576244,-0.61192805,1.3183354,-0.55686736,0.58729345,-2.8053114,0.80649555,-4.019997,0.65392673,0.33516786,-2.4123023,0.48593023,0.5844027,0.29523763,0.6760068,0.67114884,-2.6890564,0.5346307,0.936594,1.1152086,0.7618166,-5.404291,-4.6535892,-2.6139278,0.77004457,0.2622108,-3.422686,1.9781256,0.9950572,-0.89438075,1.1739287,0.73328876,-1.7742509,0.77450776,0.50781685,-1.6204681,2.3132944,-3.7778666,-2.6116705,-2.9897125,1.8015196,1.7216257,1.0357649,0.07510282,0.8477118,-1.2517009,0.9468838,-3.541225,2.4236782,-0.43660647,0.28182274,-2.032451,-0.142132,-0.3673323,-4.6172915,0.63628054,-2.6764035,0.42239168,-1.1819274,0.35873464,1.0799329,-0.13155583,-0.76812625,-4.277854,-0.17003071,-2.7407894,-2.2441628,0.40935567,0.8254899,-3.879335,-1.6082003,-2.4394565,0.6290506,-2.7823465,-3.6783924,1.0200582,-2.815506,0.15923317,-1.5091273,-0.23956192,-3.5800831,0.43514347,0.23899485,-1.3944552,-0.84550196,0.85569584,0.5537863,0.7427161,0.31369925,-1.1247958,0.6577715,1.8531499,-1.0089427,-2.7682803,-0.3717422,-4.305074,0.63122314,-1.9618475,-3.4816618,1.7468278,-0.9585382,1.2964972,1.0062399,0.945414,-1.0016767,2.1654932,-1.3602996,0.1829491,-1.2756069,2.5361156,0.4045426,1.8119786,-0.5805224,0.20079161,-3.1829536,-1.0065895,-0.22604673,0.34124053,1.3383853,-1.3462641,-0.2807355,0.14619495,1.8505461,0.5195795,-1.6933389,-2.451285,-2.9538817,0.6206926,0.6488502,0.38520107,1.0392767,1.9178433,0.10295077,0.7469683,0.70034564,1.6597953,-1.0624366,0.44908094,0.7517764,0.31796506,0.60146064,-4.4981103,0.5719788,-0.81888425,1.0684735,-4.460354,1.3689257,1.9039133,1.7676916,0.83889997,0.28075707,0.4887132,0.87503505,0.2627456,0.014312386,-1.940088,0.75982195,-0.46520007,-2.1101995,0.40096486,0.65310067,-0.3141267,-0.046395876,-1.7500505,-1.300556,-2.6466982,-1.5907034,1.2974327,-2.3740296,-2.7725182,-1.0085746,0.15571505,0.31567508,0.94661546,0.116430864,-1.0340664,-2.4562721,0.16801067,-0.1574058,0.8532108,1.0064468,0.947514,-3.507757,0.95596975,0.61482346,0.4069442,-1.5282456,0.5514388,0.39847022,0.34349427,-2.7247481,-0.30845925,-1.5608853,0.7904925,-0.77216005,-0.75849533,-0.3090764,0.78281254,-0.17178307,-5.1128564,0.59071213,0.6443149,-0.037419498,-3.101077,0.518602,0.38013917,0.4083467,0.09269483,0.8186293,0.5029208,-3.1575704,-2.4705932,-0.6163439,0.9099387,0.5290921,0.56256294,-3.356893,-0.84902066,0.59973,-2.8776467,-0.069605224,-0.20306863,-4.4575605,0.33934397,-1.4701432,0.6525721,-0.96038866,-2.2743862,-1.2265338,0.61355525,1.1418082,-2.5722485,-3.5353642,-2.418574,-5.065367,0.9832561,-0.13721316,-1.7691816,0.2748222,0.4029984,-1.1159704,-0.66436654,-1.0027637,1.2773087,-3.232436,0.83353806,0.6986544,0.33884442,0.9458762,-3.2254372,-2.2834702,0.85899776,-2.0070918,-0.82259846,1.6421819,0.6513235,-0.4382082,1.1560454,1.6252065,-1.3157907,0.6841548,0.9653463,0.7784606,1.5969195,0.7151326,-1.5195502,1.347712,1.1044321,1.3594007,0.18485211,0.7825709,-0.89219797,-0.99460155,0.022629598,-0.5305275,-1.3128629,-2.309888,