1.0683236,1.0637912,0.6485809,0.038313635,0.8644817,2.1439133,-2.3360496,-2.305885,-3.851304,1.3149155,1.1754873,-2.637403,-0.014382687,-3.4865181,1.5509579,-1.8184979,-1.8952389,0.07051432,0.3486331,-3.618523,0.49117756,-3.0514345,-3.8044322,0.40737605,-3.2418828,-2.487378,0.85198873,0.28897443,-1.0441141,0.5374667,-0.78548497,-1.0262989,-0.1600789,-2.6766608,-3.1249912,0.9133436,-2.2598693,-0.48476988,1.187145,-1.5440575,-1.0984772,1.7549411,-0.3110662,-0.19008096,-1.9816624,-0.91501904,1.2407931,0.28072676,-0.32122067,-1.5524307,-2.4016595,0.7151288,-0.14508598,-2.6073613,-3.5486722,-0.18429202,2.1250181,-1.1873881,1.3617923,-0.19085804,0.05055885,1.0397866,0.1105453,-0.3421903,1.2864301,-0.293547,-1.6892444,-0.41483796,-1.8078011,-2.9421365,0.6783324,0.81382567,1.1633551,1.257896,-1.3005332,1.2508849,0.787264,-0.07433383,-0.31818983,0.10130188,-0.32264015,-1.6085111,-0.64941835,-1.919364,-0.2906485,1.3269941,0.89704525,-1.4525985,0.678716,0.9494397,-0.24031965,-0.9963199,0.62187415,-0.93347746,1.0457687,0.5208676,-4.3127985,0.87220347,0.11832984,0.44811028,0.2948858,0.34481263,-3.906719,-3.925763,0.5918451,-2.6834238,0.42618623,0.75110716,0.78799975,0.36387318,-2.5325181,1.321285,-1.7384746,1.241873,1.4306237,-3.456318,-1.1404475,1.3016064,1.2240431,-3.60805,-3.0781562,0.80419606,-3.2164779,1.0988604,-0.99169487,-0.034282908,-2.079103,-3.4441657,0.43006632,0.59225965,0.74881995,0.39907426,0.884535,1.2673293,0.37428004,0.6372228,0.87712824,1.246427,-1.0461457,1.150263,0.78088087,-1.7504315,1.2354509,1.2617352,1.6242946,0.18618889,-0.775868,1.6344141,0.45127362,-1.6864432,0.97630984,0.7289549,-0.12108548,1.5953114,-1.7556033,0.1971395,0.19909026,-0.007053851,-2.3480978,1.0068697,0.88182664,0.5042292,-3.0022192,-0.33518392,-2.138823,1.2949163,0.30498183,1.2446363,0.12309211,0.25741968,-1.730091,0.61473006,0.33714327,-1.2687289,2.610363,-0.091169,-2.865017,-0.46737415,1.5310076,-1.4877372,0.74662644,1.2633382,-3.0145316,1.8371181,1.6765033,1.2610745,0.7087483,-0.04371515,0.14605005,0.30685905,-0.12133249,1.3457472,-1.169457,-2.1227243,0.39568,0.7538055,0.48502952,-1.1640971,0.86205316,0.44970316,0.116051346,0.3589939,-3.8356829,0.53909576,-0.87694997,0.26815242,-2.295494,0.9844309,0.87695307,0.31869397,0.77702826,0.36056355,0.6165653,-1.4553137,0.36959803,0.7304733,0.33885983,-1.4934542,0.32394943,0.44798106,-1.470835,0.5151347,0.9385548,-0.9499756,0.6795613,-1.840781,0.20031507,-0.50899327,-0.49924913,0.76485693,-2.734354,-1.44265,-1.949321,-2.1589024,0.9000116,-1.4246162,0.42498982,-1.2499917,-0.57963717,-1.2129488,0.5688964,1.3745753,0.19754007,0.79799694,1.2744081,-1.0343442,-0.35858047,-0.44827974,-0.50527465,0.469027,-0.35106212,-3.009203,0.63554126,-0.21457566,-3.0155318,0.97867954,-1.5229039,0.3282546,-3.4437711,-3.6563568,-4.8181987,1.0734236,-0.41866368,-2.0363843,-0.82321477,-0.6692122,0.40422624,-0.6884192,0.52680933,0.6609517,-2.6386065,0.28026554,0.7931724,0.16596927,-3.6961565,1.1495168,-3.3449957,0.9493056,-1.8206118,-3.6684813,-0.6560966,-2.1340182,0.054256275,0.0031850243,0.96307653,-2.7563546,-1.4051436,-1.6450878,0.72210515,1.1748059,0.75145125,0.5868282,0.8745154,1.1817269,0.6826873,0.7988948,0.2364152,0.74467534,-2.6440187,0.64283085,-0.61392593,0.97806257,-0.77782744,0.11210849,0.56114787,-3.3069656,-0.95077175,-2.1437209,-4.337256,-1.9288535,0.6245962,0.83202595,-1.0385473,0.51655036,1.0674937,0.64087015,-3.7861583,-1.5665143,0.6415757,0.8484677,0.5022098,0.9288975,0.7999183,0.81640667,-0.35505176,-1.4637723,2.0980768,-0.82823014,-0.92933565,-2.731045,1.0387688,-1.0286527,1.2938486,0.8064,1.1521055,1.973631,-1.0382758,0.7300564,1.1270863,2.002771,0.62421685,0.15416063,-0.025575222,0.7151878,1.0409867,-1.6714654,1.4094286,0.6640497,-1.5776231,1.2061815,0.43744433,-0.48801377,-0.019825054,0.12173231,1.1224121,-0.50957716,0.8969381,-0.6571781,0.7388987,2.0045228,1.33732,-0.9285551,1.2691569,-2.7020051,-0.46848938,-0.21561752,-3.388605,0.42698455,0.81791407,1.9936444,-2.2848935,0.7972498,-1.0921547,-1.2526053,2.1369073,-2.7201283,-2.5438223,-1.8105876,-0.6599385,-0.88778144,1.1290156,1.0169283,1.1860157,-3.7310097,-1.5607935,1.0742131,-0.46837464,0.16665651,-1.9922385,1.322689,0.6662083,-3.7601354,-1.177444,-1.3770787,0.93787426,-0.53957057,1.2973481,-3.2370288,-2.1742327,-2.0883288,-2.3306398,0.3849127,-1.8782462,1.4515861,0.19483173,-0.15654787,-3.080254,-0.66368616,-3.2987797,2.2175918,1.4692825,0.21023068,-0.022532808,0.37462008,-3.4556096,1.4039619,-3.7706652,0.43669623,-3.7533195,0.6387813,0.6730593,-3.3277302,0.6545259,-4.226988,1.1502277,-2.6117663,-2.6171205,0.2485238,-3.271955,-0.42453024,-1.6997788,0.1894566,-1.9413177,1.2114182,-0.85640603,-0.8496382,-5.0639606,1.8873203,-5.426324,-2.4840474,-1.9098965,-1.5953209,1.0031503,0.8767176,0.3899507,0.717156,0.7137276,-2.5672407,1.7440486,-2.7208855,-0.5321281,-4.679731,0.81973594,-1.6697466,-0.53387415,0.56483924,0.8643548,2.6029046,1.3362925,1.1223538,-0.62316644,0.7550321,1.5155257,0.22235602,1.3370689,-4.270094,0.68869114,-1.5882949,-4.598819,-0.12554453,0.7571806,0.048105583,0.34872407,-1.2438267,1.1765747,-4.6004453,0.3567476,-4.1571283,0.361655,1.397053,1.09581,-3.1267622,0.6244052,1.9064585,-1.0241665,1.5652318,-0.7336962,1.1529711,0.110021174,1.3902062,0.8326702,0.36645022,-0.056866553,0.056629002,1.7166923,1.5792665,-0.13003181,-2.4360237,1.4307446,-6.973883E-5,0.7246968,-0.20519403,0.8165405,1.5599217,1.2297733,0.9914676,-1.8539174,-0.17446645,-3.782459,-4.036589,-0.6105262,1.3496428,-0.07349654,0.6466003,0.619619,0.5139383,0.66057104,-2.9726405,-2.2911963,0.8664646,0.854475,1.1608481,-0.2936411,-1.3089352,-2.2380912,0.26333943,-2.0792572,-3.4251375,0.01544917,0.42086998,-0.9602997,-3.060053,0.4691237,0.9273263,0.7065218,0.41350222,0.51878345,-1.4396883,-1.6267973,0.3677776,0.68863493,0.022239003,0.48248002,0.82972926,-2.3508258,0.3865039,-0.07529639,-0.5499473,0.838517,-1.2581787,0.11442154,-3.2496154,0.5856382,-2.0668776,-1.9034708,0.35241133,0.7564034,1.0544437,0.6061948,-0.46959844,0.7522397,-2.2704175,-1.2111696,0.6993666,0.8997016,-1.5808797,-2.6412714,-4.3334613,-0.078160495,-0.108212925,-0.7476295,0.6794259,0.09510466,0.37650034,0.46894774,-3.0448337,-1.0665666,-2.9861543,-2.1825666,-0.2090475,0.48446652,2.6819441,-5.046248,0.5533671,-1.4305522,-1.3099251,-0.90660787,-2.6510863,-4.337414,0.53758883,0.7381702,-1.4511708,-2.3242495,-0.020938009,0.93881387,0.8947915,-0.37324798,0.6161935,-0.06008618,-2.4688547,0.7653986,-1.5970547,-2.514777,-0.14627801,0.65627193,-0.21298975,1.4561318,-5.039947,0.843245,0.44995186,0.68284523,-1.287578,0.38003635,-1.5867585,0.1342634,0.7091431,-4.175174,0.8800272,1.3309118,0.7426959,1.2187824,0.41354984,-1.0534155,-1.0266504,0.60072184,-2.0755854,-1.2890319,0.7630492,0.53072786,-1.1770185,0.7104736,1.0454354,0.49782586,-1.3405814,0.7425757,0.6231003,-0.3892939,-1.9600232,0.29446855,0.9051309,