-2.3630009,-3.9876273,-0.9337138,1.5291859,-0.5394241,3.1802464,1.3589588,3.7022085,0.71593845,0.21384849,0.30835453,3.154455,0.8357581,2.5936053,-0.70434296,-0.003721755,3.3114188,-5.518481,-0.44422546,-0.08584163,-2.846795,-0.22662401,-0.0390289,1.673039,2.0209372,-0.23476261,0.2592083,-0.91890186,-0.27862632,1.4834002,3.1408803,-3.7125428,1.8704057,5.028842,0.9218916,1.7402906,2.4678319,-0.6033744,0.56763494,1.1015822,-1.2878871,5.7118506,0.6940561,-0.49392188,-0.6380217,-0.977773,5.260902,-0.16853309,3.6442227,2.3524308,1.0098981,0.083414376,2.5407844,1.9782825,2.5500302,0.15253858,-0.2255605,1.2882276,0.2916057,-0.38343507,1.143071,4.0693707,2.1664853,-0.48522475,0.6406428,-1.1692183,-0.68878573,0.09113068,-0.5097694,-0.17430866,1.0107868,0.6877648,1.8811929,-0.95661396,2.247505,-0.6479881,5.0419846,2.925104,1.5507241,0.76207566,-0.105340086,-0.32606095,1.1353068,0.68617,1.7658186,0.47821504,-1.1506587,1.4788692,-0.27330944,-0.010204654,0.28823957,0.10932711,0.00686619,0.6627287,0.5430099,1.0205253,-3.4025512,-0.66642755,-1.5893872,1.5455745,-1.2919296,1.3088495,2.7253034,-1.3852427,-0.4641957,0.13509654,-4.8085737,1.6658591,0.4081261,0.4932734,-0.69993854,0.49775767,1.8113406,-0.7998292,-2.0166094,0.5202175,-0.0716875,-0.9250983,2.5343397,0.60239285,0.30329153,0.77847886,1.5125834,0.35544422,1.6977268,4.099361,0.03580202,0.5524992,1.860464,5.7760744,1.2510184,-3.149183,-4.258283,-2.410225,-2.129561,-3.3667006,-0.21490046,1.3098767,0.492675,-2.5980525,-2.3581016,-1.182866,1.0467165,-0.2356588,-3.789669,8.754664,0.07831423,-0.031415254,12.576777,-0.79829705,0.028478112,-2.5218494,-1.4741685,0.97767526,-0.67329216,-3.0085201,0.14114787,-1.0486596,-0.954657,1.478254,-1.7072794,-2.4115665,-0.038818847,-0.10953837,-0.66803896,-0.31365937,-0.9327756,-2.0397267,-0.11004919,1.990674,2.498226,0.302417,-0.11869844,1.2312533,-6.4835606,-0.18912558,-2.6187913,-0.5681473,1.5735896,-0.12834641,-0.06461713,-1.7852432,-1.4009157,-1.137446,-0.0137084825,4.8118787,-0.25147069,-0.5879583,0.63549393,-6.672458,-1.6359694,-0.46243352,0.21325006,-0.18757288,3.2271342,-0.22926554,0.91290075,0.8315452,-0.32175395,0.2139559,-0.9178889,0.40173158,5.9401083,0.9519863,-0.20355639,-1.866438,-1.2077335,-0.54960364,-0.85196257,-0.18864402,0.33552837,1.1333073,-4.4797873,-0.6823679,1.8667066,-2.811777,5.2848406,-2.942891,0.21182,0.38677847,-0.49377644,-0.16379152,-0.53877044,-1.2168177,5.336307,2.4140053,2.0178852,-0.25066417,-1.2012237,-0.96111494,2.4665515,0.4178675,-0.6292422,-0.16276409,-1.2628361,-0.68447804,1.1967863,-2.6029897,-0.46433097,-0.48575526,-1.3871679,-0.26077178,0.90943587,-1.0601621,0.44695863,0.8617855,-0.9346744,-0.27606583,0.00724041,-1.3986068,-1.911139,-0.7516725,0.44849658,-4.989087,1.3276457,0.1436873,3.3059464,0.701686,-1.4620919,2.5756152,0.30588284,-0.9140045,3.243897,0.7213266,1.4780984,0.8012324,-1.427656,1.704933,0.17718217,-0.26561734,-1.4193048,-1.1534392,2.0199037,-0.558811,0.53154737,-0.5679075,0.18796508,-1.7727841,1.4164829,0.5430571,-0.49863222,-0.16811688,-0.49806798,3.2246425,0.22471264,2.211618,-0.48804024,1.4070027,-0.6661679,-2.0244143,-0.831273,1.7784789,0.085398175,0.7101465,0.90623844,2.0939877,0.2958884,-4.8862634,-0.52353275,0.63845056,-2.9612148,-0.7953659,2.089378,0.07778387,0.9922856,2.305574,2.3890653,-0.3749339,-1.8206458,-0.2806352,-0.90685433,0.9081645,-0.1930824,0.6032878,-0.20148416,0.17140996,0.3976532,3.1951063,1.4273616,1.2155964,0.9058243,0.37828833,-6.0520205,-2.5740988,-0.61143684,-0.6020159,1.1098893,3.5300977,-0.9494181,-0.14417528,-0.67417365,-3.696611,-4.559985,1.1534562,-1.274908,-0.44317034,2.6204426,0.68600863,0.819802,-3.9583557,2.9211953,1.1820368,-1.000103,1.1484646,-2.025946,-0.52274734,-0.97742146,-1.8402781,1.4436008,-1.7660124,-0.6339326,0.54748195,0.8173619,2.441197,-2.8500319,-1.583911,0.57638305,-1.7282118,-1.1686938,-0.14879376,-2.0049465,-1.6800818,1.5802968,-0.046997003,-2.9347255,3.55224,2.225573,-3.1811864,1.8745966,0.77462924,2.994506,-0.12044632,-2.9814744,-2.3495278,2.2200992,-1.1829396,-3.113493,1.5414294,0.2613901,2.0957978,-0.6142509,1.5858932,3.2076638,-1.2812127,-2.598593,-5.004568,1.0766945,4.0302515,0.1904914,2.4638646,1.3855402,2.714745,0.7047548,-1.9517413,3.1325796,1.1018687,2.5878239,0.7769552,0.8245884,0.6193253,3.9132524,-4.14298,0.35126185,1.0301014,-4.7076893,1.8065071,-1.6250583,1.9282418,0.3297947,-0.23641701,2.2720263,-0.7514839,0.3877007,-0.7062957,1.5940518,-1.2263623,0.80662,4.419701,-1.5211806,-0.53430927,-0.26474965,0.8540734,1.0773813,1.5256015,0.73231447,-4.1466975,-0.23931326,0.60811895,0.04643971,0.32365537,4.5689898,2.8825858,1.4552814,0.07430187,-0.27601898,2.3500378,-1.5782845,1.2892324,-0.19992507,1.5239836,1.6261743,-4.2783494,3.243983,0.28718013,0.22628146,3.343832,0.45896584,1.2054818,-1.6100612,1.0090126,2.3060203,-0.111839585,-0.37725744,-0.8200139,-0.01639474,-0.07138002,-0.22888096,-0.64622813,-5.2643204,1.9050188,-0.76340884,-0.16526307,0.66543126,0.6440589,0.8243216,0.3492289,-0.5290564,1.1986556,3.0070198,0.6279747,0.51378673,1.125585,-4.316198,2.6801143,-1.5476899,-1.0520576,0.9514185,-1.078764,1.2345672,1.3315898,-5.709899,-2.3315976,2.2078443,0.4867185,1.624089,-1.1526325,-1.177457,0.6078713,0.04954552,2.4700387,-1.3012788,0.43059805,-0.509691,1.8412943,3.1766417,0.4302844,1.8586401,1.105934,0.2847769,2.2978876,-1.2608193,0.45962283,-0.4817121,0.5345356,1.0743726,2.13856,1.3053826,0.09733309,-0.7151859,3.7031784,-1.9034551,1.0463097,2.405683,3.8464975,0.9223026,-2.6174674,-3.1793783,-0.93980545,-0.67059857,-2.8027418,0.37779567,3.085059,0.24856034,-2.755745,-1.2288591,-1.1292428,0.7003388,0.3771069,-5.5225873,5.900321,0.2016974,0.5490061,10.117234,0.5578722,1.3629647,-2.0341685,-0.34443656,0.43281737,0.5378248,-2.645946,0.013838488,-0.89655656,-1.6147441,1.448795,-1.1573327,-3.037462,-0.09451828,-0.9736563,-0.67659664,-0.5211581,-0.014017685,-1.7698433,0.09629496,0.089385435,-1.2450234,-0.7731298,0.9038611,0.34998006,-7.840171,0.15856366,-2.9796538,0.8069327,1.3164618,0.7987256,-1.1649814,-0.7336441,-0.6902527,-0.41661748,1.2566197,3.2454324,0.8727547,-1.2079128,0.3842109,-6.264933,-1.1692753,0.5424807,3.3992386,-1.3631933,2.165586,0.7374727,2.9205925,1.2796211,0.16051166,-0.6249263,-0.4592347,2.2067275,4.8208094,1.7953482,-0.4138141,-1.7249832,-0.08865309,0.46715307,0.08285156,-0.27816588,-1.1001453,0.9080262,-2.2207603,-1.0288552,0.51799405,-1.2910948,3.9195607,-4.4561887,0.065254286,1.0809379,-1.4062493,1.8073708,-0.32242018,-0.44285968,6.044844,0.52988315,3.1531818,-0.07773936,-1.9690254,-1.9975965,1.1806837,0.13068591,0.68728065,-0.6420762,-3.5480087,-0.48762974,1.4788129,0.4400973,-0.11758488,0.33366382,-1.1414545,-0.71166855,1.763944,-0.25512892,3.0315406,1.4875929,-0.47899526,0.26608604,1.0822787,-0.40707687,-0.8177376,1.2207183,-0.16845168,-4.6883903,-2.6400204,0.050825525,0.6438996,-1.2244438,-1.1963173,2.2656271,-0.773171,1.0241144,2.386011,2.5684674,0.4377075,1.6851479,0.28639537,1.9556049,0.058572695,0.17780526,-0.9952134,-0.27899954,3.703176,-0.7925562,0.36249685,-0.70070267,1.4688741,-0.4297175,0.11859538,1.5919433,-0.4260256,-0.32119173,0.25763324,1.9234915,-0.29641658,1.3748631,2.3076046,-1.1324742,-1.0956931,-0.95782906,-1.4202236,2.341578,0.18557651,0.53206,0.75190204,0.52091146,0.5331975,-5.769805,-3.0900218,0.83945745,-2.5363903,-0.8519864,2.8338044,0.42970943,2.391832,4.0297537,1.1188586,-1.0151004,-0.98820496,-1.4003546,-0.2860061,1.1887822,0.5375469,1.4404697,0.38899544,-0.5197308,0.5441013,3.3266563,1.1741906,0.2069805,1.1279389,-0.7758571,-5.7006245,-0.84143716,0.70252085,-1.6837395,0.6976975,2.5545602,-1.6191157,-0.11034269,1.7753896,-1.3805704,-6.5709434,1.2276973,0.27205846,-0.7157448,0.6432132,0.66195226,1.0678232,-4.7301755,3.4875724,-0.2714912,-1.0392394,1.473638,-0.45820832,-1.2680682,-0.9458622,-3.341567,0.47987902,0.04190837,-0.1786131,0.9385221,0.7403643,2.8390987,-0.112438284,-0.7526887,-0.690485,-0.4443014,2.215819,-0.17720635,-0.6446585,-1.8630675,-5.2558722,0.59133685,-1.0641209,3.4469073,3.056549,-0.84153545,3.1546462,-0.66484946,1.2187419,0.3696862,-2.193855,-0.82255584,2.0189712,-0.20612822,-0.8340335,1.439741,-0.24425358,1.1070656,-0.40882504,2.3408823,3.8085415,-0.6897429,3.6151142,4.9742947,-0.9997232,-3.5751638,-2.645229,-1.2903535,-1.237152,0.10421799,-0.31123084,4.47027,-1.7787367,-0.9624934,-2.2543688,-0.31402975,0.09036663,-0.023203779,-2.6810293,6.2527924,-0.27287906,-1.1594006,9.292498,-0.6231002,1.8003201,-2.3952441,0.27468345,0.6562544,-1.1138326,0.8956712,-1.2750845,1.5149517,0.5351535,2.0738509,-0.6084698,-4.2505636,1.6996806,2.2064078,-0.82211924,0.10192587,-0.9195116,-1.1776959,-0.95804703,5.419535,2.035554,-0.34622264,0.19674948,0.10111238,-3.4298213,-2.2721703,-0.35170949,0.41309834,0.93816656,-1.3300062,0.19753866,-1.7804662,0.26614493,-2.3053467,-1.265031,5.946033,-1.2273719,-1.0612608,1.2676401,-2.6450546,-0.49178076,-0.81423163,0.36114207,-1.4396222,0.14980915,0.60812384,-0.6557839,0.6640582,-0.9200119,2.0856707,-0.24195546,1.3569432,7.9730506,-0.69642216,1.8830417,-0.9471495,-0.7888529,-1.7507946,-0.4433682,-0.5623211,2.1772661,-0.8952663,-2.309929,-1.211329,0.18509921,0.5248896,5.9710145,-5.9271083,-0.90987986,-0.0059539797,-1.3481305,-1.228374,-0.3427205,-0.69806665,4.9585323,3.304269,-0.9935788,-1.0864363,-1.6809874,-0.735043,5.743249,-0.9204021,-0.10924451,-1.2084326,0.6915551,-0.25114965,0.88717896,-0.41172746,-2.5694966,0.18715875,-1.488828,-1.791393,1.1469047,-2.4507089,1.6502142,-0.41214508,1.8114487,0.38450307,-0.7062368,-1.8396729,-1.0568291,-0.102132335,-0.3253364,-3.6640792,2.72093,-0.08985748,-0.48954517,-2.4253995,1.135249,2.21555,1.0594876,-1.520929,2.3714952,-1.3616793,0.084640935,-0.56244665,0.6023208,-1.73429,2.0565972,1.771198,1.2746634,0.7352402,-0.62832284,-3.3459334,1.3116224,1.1233032,-3.6199467,2.2239897,1.7839272,1.9865892,-0.017739115,0.83726794,2.216434,-0.73257476,1.1729678,0.24551085,-1.9335359,1.1933302,-0.067249365,-0.06400807,0.35074925,-0.7171204,-0.029284488,1.3391343,-0.015990289,-0.39074105,1.9791747,-3.9896474,-3.5502257,1.2699475,1.1854537,0.9908988,-0.2318143,2.617827,-1.0383664,-1.0546694,-0.9420226,-0.78623265,-1.0140901,1.7097981,0.02864188,2.2123606,1.6210425,-3.5867543,-0.6237759,2.0869625,0.03444954,-0.94563884,-0.5519393,-0.050967384,0.27315512,0.13305727,-1.0089091,0.4388901,0.7528494,1.1723667,-0.4633466,-0.13385473,0.9455915,2.4654758,-4.4602966,1.3456178,-2.871176,-1.3712251,0.3107936,2.2174706,0.4165246,1.7938962,-2.2075086,-0.38962883,0.926854,0.13003664,1.3808411,-1.0353335,-3.8987484,1.9702827,3.1800988,1.6929915,-0.6065831,-0.26044384,0.8190683,1.4392467,-0.87727463,-2.7456834,2.0202072,1.4836367,0.3452494,1.9743947,-3.5423372,0.9732723,0.85146207,-0.5997663,-3.8054507,0.89057076,1.0544822,1.1705472,1.4529661,0.5430158,-1.2261262,0.32792586,-0.052574296,2.7503116,-0.27917188,0.41885427,-1.2162746,0.6157988,0.8166985,1.9216552,0.6660617,0.27711454,0.45119524,-0.08550699,-2.7819176,1.0442634,-2.0019128,-2.9516087,0.18656875,3.708492,-1.1410125,1.1852647,2.013924,2.849229,0.5730426,-1.7931366,1.9841721,0.22263798,1.600283,0.45179588,-0.45065337,0.856312,3.5450933,-3.5047653,0.03783556,0.84127134,-3.7663455,0.9970179,-0.97424775,1.0041947,0.056875758,-0.9839566,1.3954424,-0.2643647,0.4912151,-1.1490679,2.0405517,-1.0423054,1.2023464,6.229637,-1.5658162,0.20225026,-0.60042006,-0.21810478,1.2111768,2.1852133,0.14867428,-4.270269,1.1929903,0.15274364,0.16992754,-0.71518475,3.1899679,2.1131253,1.0904833,1.2235361,-0.13858922,2.319247,-2.620162,1.8859168,-0.39681965,1.9169515,1.0779313,-4.3223343,3.8941844,-0.65312284,0.4159655,2.5402482,1.2920569,0.9528584,0.07775167,0.065491915,2.1162567,-0.048121326,0.55531543,-0.49215853,0.64233124,0.13794604,-0.60956854,-0.33702734,-4.9983983,0.35450006,1.5289321,-0.1250837,0.82828456,1.1403418,0.83582336,-0.038832434,-0.07201485,1.7390978,2.8517568,0.8629478,-0.7732581,1.8912126,-4.4572487,1.9786304,-2.5968442,-0.8567113,1.1756446,-0.8155787,0.58183414,0.75220644,-3.8175392,-1.299963,1.5273448,0.035260767,0.37890142,-1.0466572,-0.7518239,0.14727165,0.066292845,1.2969866,3.2289941,0.7999359,-1.0794698,2.2881944,2.8024073,0.013378479,1.7872906,0.94089425,0.119902685,2.0369244,-1.4142522,-0.23051402,-0.81551313,0.7272748,0.58287376,1.9399878,1.2515382,0.6505295,-1.3032871,2.8611972,0.072991684,0.7461937,-0.16104296,-0.20227118,0.6934615,-3.4365451,3.572392,1.9149075,-3.3191893,-0.20062694,1.7632451,-0.44686657,1.7483598,2.5285718,-0.06767201,4.4133377,-0.43370393,0.80141026,0.19097534,0.3983065,0.56758744,0.3538468,-1.7356282,-0.20821822,-3.197006,-2.0049748,0.59778243,-0.39293668,-1.01294,3.377891,-0.5746332,1.100906,1.2682799,1.3127124,1.2699333,-3.0028117,4.223357,-0.6951191,-0.41271207,0.2501093,2.44904,0.43087754,-0.21003811,-5.6490088,-3.5357678,-0.2775919,-0.9361628,1.2289813,-0.0106584,-1.8533474,0.79885125,0.29724503,-0.7802879,1.3777529,5.404987,-0.07493042,2.2175648,-1.0357082,-0.27701932,2.4269369,1.5187622,1.3449774,0.08131818,0.8571322,0.55209535,0.9137546,-0.40351477,0.4122507,-0.9923234,1.5795747,-1.0689855,-1.2998912,0.12823673,-2.6346827,-1.6761363,-3.0959904,0.08045961,-0.22853135,-3.5656357,-1.0675434,2.1595736,-1.1022182,1.162252,0.3375837,-0.093948714,0.85473484,0.8570228,-0.43025595,1.1883843,0.66329014,1.4053135,1.3380054,1.268179,-1.8831583,1.0905745,1.9552659,-0.29441038,-0.6182077,1.2512451,-1.8970754,-1.0380343,-0.14095493,0.32537022,2.9610643,-1.8454838,0.07031552,-0.6610623,0.72315407,-0.919156,1.7648212,1.1155094,0.8358476,-2.662965,0.6705518,-1.0783747,1.0748391,-1.1131716,-1.1422119,0.8690367,-0.44465247,0.5846475,0.94058144,1.122611,-1.9839498,0.54353124,1.5582736,-1.0919374,2.0856364,1.8801697,0.57910025,2.7670488,0.52452844,-0.5956761,-3.7336693,1.2717754,1.6264675,-3.7405102,-0.38243338,1.2451599,-1.0629338,-0.45329618,1.3666189,-0.27026272,0.559233,-3.1768832,1.3082999,1.9448444,0.96253586,-0.1571777,-0.6810353,0.6176573,-3.5928779,-3.6792135,-5.0790067,0.020381367,-1.0305676,-4.8284583,3.565118,0.22768635,2.486419,2.4973233,1.0189625,1.3365873,-1.3798419,0.68869907,-0.7023678,-2.2353783,-0.050220568,1.2238423,1.0467609,-1.2304052,-2.5508795,1.0127481,-1.0929149,-0.787439,0.39780074,1.010824,-3.4095836,2.6576862,0.15924793,-1.2478815,1.3662544,2.2243893,2.6599164,-0.7848031,1.0800085,-2.927575,0.55511034,1.119648,0.04428765,1.2565701,0.102636285,-0.9387752,0.76624143,-2.112183,0.8048941,0.79302514,0.6570979,-2.8223312,1.1866667,-1.5969816,-3.2517729,-0.2908688,-5.8597765,1.0201372,-3.0912473,-3.1310334,-2.2049606,0.33422792,1.3448595,1.7346293,-0.81583923,-0.95554453,-2.4412274,0.34955305,-0.8295875,0.33089113,-0.013449186,1.6482786,1.9975531,-3.6787276,0.89946735,2.525359,-1.1475382,-2.2007117,-2.132685,0.9692062,1.8646097,-3.377124,-3.0684726,0.3759773,-1.4116477,1.2214692,0.13951145,-3.2005005,1.0164148,-1.7595543,-0.16690163,-2.0650864,0.20805927,-2.409161,-1.2897775,-2.1218798,1.5674782,0.5896847,0.13703017,1.3190008,-2.4942858,-2.6877208,0.18073548,-0.86020046,-3.605094,-0.26044178,1.4680805,-2.962449,-1.0597882,5.252637,-0.34734824,-0.25769088,-3.928974,-0.4766062,4.2148333,1.1957651,1.5845629,2.23443,4.440757,0.5871693,2.3713832,0.6019157,4.4358115,1.8271929,2.007391,-1.1304237,1.1302613,5.124478,-5.77034,0.13784023,0.005639048,-3.4991767,-0.53063136,0.11062935,2.0981278,1.6595734,-0.027140379,0.44681248,2.905199,0.5747424,1.8686123,4.603756,-2.1901293,0.30806032,3.628201,0.18878755,1.5683575,1.9117929,0.820816,1.5505166,2.350725,-0.06960317,-1.3381233,-3.9290721,0.5071373,-0.6837248,-0.4894627,6.1512933,1.4652301,4.352955,3.4481025,0.011349821,-0.33687827,2.959566,2.5959928,1.3146052,2.0579267,0.9561246,0.6087441,0.37884155,1.112967,2.8706806,5.1294537,2.2780628,0.15601242,0.55530745,-0.45563236,-2.3047647,-0.20745665,-1.2389373,0.7942684,0.26514095,2.348534,1.2350825,-2.0400221,1.291473,-1.6559613,-0.03124761,2.8143017,0.79206336,1.7070938,1.054433,0.537481,1.1162896,-2.9126608,1.3738135,0.5932908,-0.9648139,2.3472037,-0.652412,1.1612881,0.92294,0.23428713,1.37028,-0.46991813,0.5123477,2.3845344,-2.1623526,0.85449684,-1.3367012,1.2114265,0.57431227,-0.7775953,3.8839798,-0.4705853,-1.8585533,-0.5808595,-10.567713,0.24393666,-0.83276874,0.9359441,1.136929,-0.5087413,3.8407633,-0.71549535,-0.21366729,2.185175,-0.6027233,-1.5523996,1.6641788,0.9249734,-1.150886,2.2612965,1.9301251,1.341287,1.2839173,4.6828384,1.9028242,0.32682952,3.2068985,0.12853453,-0.74081856,-0.55123216,0.7879513,-2.3200707,1.4195601,-0.18923907,1.6708382,3.3676279,-1.2327341,0.8532981,-0.11006638,1.8070105,-0.10048494,-0.5950176,-1.9246279,-0.34642205,1.445863,0.26410958,-0.013304282,-0.43036446,2.7222514,0.29965776,0.47810265,0.9846566,-0.4571094,1.3626187,0.0161899,2.448899,-1.8577291,2.3509777,-0.907645,-1.8851154,1.2443914,2.6841154,-0.71419907,0.892836,0.7653885,2.0275552,1.2560405,-2.875484,-3.0971875,0.8550008,-1.1819655,0.46222562,-1.9026242,-0.83075345,-2.2486935,1.786298,2.0662768,-0.3546749,-2.096629,-0.2867564,-0.4192982,-0.07447857,-0.17710601,1.3479898,-0.57581854,0.99155754,0.26060444,1.2919207,2.8856268,1.1703111,4.5027146,0.62019753,-4.5585074,-1.2221365,1.3053069,-0.49711266,1.9913096,3.339082,-0.43747273,1.7424797,-1.1364993,-1.8063481,-2.2757406,-0.6981445,0.10411773,-0.5702795,2.0857458,1.5725224,1.0590924,-2.8433938,2.0146878,1.1730039,0.255247,1.7703017,-1.7919462,-2.1896682,0.984995,-0.71149725,-0.052274413,0.24616058,-0.17491648,-0.09422995,2.8625507,1.355438,-1.1741182,-1.1009073,0.8076776,-0.35753807,-1.4391346,0.9928559,-0.5393082,-2.254195,0.35699216,1.460507,-1.2353705,3.7191854,2.1698864,-1.6242387,-0.1224702,1.0860766,2.9863243,-0.6742439,0.30719885,-0.6680038,3.9791272,-0.21127829,-1.2527332,-0.1888104,0.9828959,1.9550194,-1.1798717,0.18267317,-1.0434566,-0.569475,4.097301,3.156089,-1.8881835,1.6496989,-1.8331177,-1.3926172,0.72992605,-1.5854757,-2.0516531,3.6601095,-5.4104958,-0.44558665,-1.0739865,-0.49777552,0.5627873,0.5284599,2.1382668,4.162373,-0.94492394,-0.49498814,2.8672807,0.51214755,1.3607303,1.0216022,1.2287399,1.827938,0.7430295,2.8866227,-0.28323802,2.1549757,-1.4987792,1.3254155,-1.2446212,-6.0823245,-0.77854997,1.1049125,1.639154,0.7711951,-2.3875768,0.12682506,0.14640509,5.9147983,1.8300924,1.0301936,0.59479296,-0.17922322,2.3973637,0.93916255,1.7810664,0.1574222,-1.610574,-3.996019,-3.2243862,-0.38393015,0.0075697354,0.052999776,1.1676978,4.4712005,-3.8656514,-0.4296372,2.0600953,-2.3980494,0.027721234,-2.643746,-0.64613974,-1.0442628,-2.5531268,0.98236346,-0.98218375,0.90072674,-1.4981482,3.3414214,0.7032948,0.041960422,5.7055736,-0.11845569,-2.57849,1.6502293,0.24934062,-0.0076828715,-0.8711676,0.25433433,1.8610791,-2.7118835,-2.6882455,-0.49296078,0.08855846,1.2394441,4.491846,-2.5325222,1.0687119,0.4764285,-1.1595025,-1.2754842,0.23627716,2.2713022,6.6456437,4.0788784,-1.5534782,0.6176597,-0.8659526,0.8802938,1.9452561,-0.9970851,-0.07455128,-1.6835456,-6.3625717,-0.6202792,1.6715873,-1.853629,2.0189197,0.59924006,1.4464422,-1.9959108,-0.1456934,0.19601834,1.1126605,0.5565911,1.9346789,0.7313842,0.084964395,1.1715481,0.11663303,-1.8016179,2.6315982,-3.881277,5.7084894,0.36828366,2.7544386,4.4943113,0.1806511,-0.5369084,-1.7072453,0.255321,0.2329444,1.5583375,0.4432558,-0.4197401,-0.34524608,0.08833277,0.23930557,-2.0949605,0.62670875,-1.2223709,0.9456981,5.557285,-0.14280462,-0.14071977,6.2797327,-0.059136804,0.5083976,-1.8533448,-1.3671755,-1.0410904,-0.06839693,0.8770736,0.3708726,-1.075118,1.793023,3.8948033,-1.6733168,1.6366204,-1.2941406,-2.313766,-2.2866006,-0.09795736,0.062465973,0.042056456,0.092019305,0.99770087,5.8897805,-0.06531091,-0.21567515,1.1105592,0.31536153,0.5951808,-0.052746806,-0.72136533,2.6079562,1.1116121,-1.7775247,-1.1034974,-2.9798803,1.3956596,0.21172683,2.0283284,0.9981738,1.0907072,-0.13639548,0.56673926,-0.8680703,1.0369905,-0.2622646,1.498012,3.9841475,-1.5144252,-0.2159839,0.43985906,-0.21585046,1.0885228,-1.7941808,0.7720306,5.6396375,0.5053164,0.6578314,-2.5800126,-1.8918415,0.6258964,0.8396234,-0.4624987,-2.28632,1.5139328,-0.045783862,0.06309532,1.1914136,-1.7042881,5.2274694,0.13367164,-3.123297,-0.47495982,1.3338468,-0.54341453,0.3876994,-0.85990965,1.7099137,6.1852884,0.81139386,-1.8262093,1.6466861,-3.204373,6.775683,0.92219836,0.21596405,0.8502404,2.7751117,-2.0083072,-0.032248594,-0.8954453,0.92818856,-1.0317966,-1.5076145,0.68554074,2.2947826,0.59177136,-0.8014665,0.62096405,-4.251535,-1.403918,-0.6555365,-0.09130165,-1.0118492,0.4152205,-1.5878409,-0.9835439,7.666883,-0.5364522,-4.503998,-2.6503983,0.4924484,0.763907,-1.6447319,3.07008,0.5903978,1.1804055,-0.1723503,-1.7723892,2.6400943,-1.0970037,1.2601451,-0.327647,1.9612033,2.0987532,1.1360421,-3.1632707,0.21002276,2.3122506,-0.25617102,2.6242197,-0.6407449,0.92492914,0.5706028,-0.62779146,2.5868478,-3.5729122,1.8771806,-2.2606707,2.1186793,-4.438024,1.0855399,1.0949488,-3.23392,-0.055095628,-0.68723166,-1.1378853,-0.8172087,-0.62397015,-0.85807735,-1.7426872,-0.9216622,0.11622794,2.4490411,-0.23236863,0.5528242,2.554937,2.5445588,-0.3874694,-1.0867908,0.7531272,0.9966767,0.7449974,-0.7173147,0.33778596,1.4896678,-2.5785913,0.10691825,-1.4688085,1.0806184,-0.27140146,-0.162768,-0.8050785,-0.6440082,-0.93347806,0.9993689,1.5124749,1.4207705,1.6894529,-0.19079357,-1.856945,2.304583,1.7434903,-1.2289509,2.9255307,0.3536366,-1.6636279,1.2625417,1.4921603,-1.4080576,-0.31687123,-1.0077299,1.796525,-1.4017462,0.42514005,-0.42437977,-0.026859028,-1.779551,1.1376497,-1.6114813,1.8865998,-0.28535706,1.1753368,2.1099827,0.98930866,-3.566267,-5.198207,2.1587756,0.5251732,-1.4861658,-0.038894728,1.4760162,-0.4843485,1.600333,0.9578502,-5.857171,1.4518746,0.8775213,-1.3911874,-0.44645315,2.0964818,-0.5657747,-0.09450616,-2.0694063,1.4166445,0.8404791,1.8167654,-1.8369948,1.5144371,2.4346595,0.85595536,1.1642128,-1.5920906,-0.83504885,1.9032217,-2.7677543,2.589783,4.210087,1.474597,-0.72151375,1.6411612,1.1785705,-2.4728892,1.797247,-0.15459296,1.3416531,2.3238957,-1.9644034,0.4570279,0.67386883,0.8352938,0.27695546,-0.17728591,-1.4359941,1.3878392,1.794389,0.15447526,-0.2820987,-0.14944015,2.0263994,-0.6355317,0.41737762,1.4494768,0.05047647,2.1489913,0.09985899,2.7355425,-1.9906032,3.8163512,-1.0347214,-4.3284917,0.1601042,0.6695533,-1.5761583,1.0648282,0.48733076,1.9427967,0.9907546,-3.8864768,-2.414038,1.4866749,-1.8141614,1.4990929,-1.5735066,0.05556865,-2.114979,-0.15435044,1.3293031,-0.62883943,-2.5358703,-0.4047695,-2.0502865,1.0035977,-0.28200504,1.4839102,-0.5122714,1.8406377,0.91523063,1.228732,1.456129,1.2347581,1.4985795,1.2376783,-4.3809013,-0.98138076,-0.9288701,-1.1521828,0.47615802,4.533356,-1.2100033,1.0865337,-0.510595,-1.3497572,-6.033123,-1.5223911,-0.12760343,-0.48887315,2.4841244,1.8606105,-0.26789188,-3.559736,2.067309,0.9659421,1.2380916,1.0839622,-0.9584037,-2.2167702,1.1944742,-1.5159293,0.7224898,-1.4060527,0.008351411,0.1768445,4.466186,3.8507457,-1.827722,-2.5042133,1.6757488,0.529301,-1.6302962,1.4443147,-1.0035423,-1.8532187,-3.5459945,0.5259429,-0.79757863,3.2996492,2.7179615,-1.1067772,-0.90714717,1.3319923,3.0402722,0.22445561,-0.07109585,-0.22695453,1.9750799,0.117494434,-1.1739142,0.5942737,0.31908694,1.6528094,-1.5990882,-0.60890716,0.5783172,-0.0060967794,-1.1368483,-1.768841,2.1964095,-1.9868807,2.4385314,-1.9551528,-0.77981794,-2.5615969,-0.035163444,-0.8381809,1.4943845,-1.7011071,0.8184096,2.1936762,1.8923625,0.3452089,-1.3428795,-2.1121867,1.5228231,0.80930954,-4.1851354,2.1014752,0.6230655,0.21542181,-0.07717432,1.8520006,1.1073718,0.5639205,0.16916053,0.31136668,-1.693657,1.9189814,-0.40544176,0.7382469,2.1995616,-0.7586443,0.61016893,0.91126317,-0.1961401,-0.53273,1.0462948,-4.130369,-4.1412554,0.897209,0.5740215,2.3377094,-0.6570144,1.0097332,-1.697475,-1.7379302,-1.168005,-0.4756887,1.0347365,-0.13516279,1.1480967,-0.8392258,0.45452338,-2.183859,-0.8176108,2.868469,-0.4885158,-2.6745653,-0.09628149,-0.30273655,0.3383528,1.1307214,-0.63048756,0.6006152,-0.15164633,-0.49757913,0.088489294,-0.9187689,0.32034567,1.803907,-3.5325086,2.1471076,-0.96205,-1.2267364,0.62328327,-0.3752835,-0.5234309,1.398659,-1.3842999,0.5059012,0.8249194,0.31171197,2.910394,-1.1015781,-1.6117847,1.9776493,4.9837236,0.43816802,-0.8765302,0.21727766,0.7407072,0.8882724,-0.9246178,-5.205676,2.5805588,2.185967,1.1725866,3.0436811,-4.6999407,2.0161488,0.7810624,-0.41347152,-3.69082,0.8479442,1.8422915,0.6960618,-1.0048716,1.3594658,-2.5416582,0.31937215,-1.160532,-0.2664699,0.060119666,0.9854876,-1.5085449,0.65484375,1.2736483,-1.0304091,0.55206317,-0.47108856,0.9676004,-0.6378683,-3.4958959,1.3269715,0.3709921,-3.7323816,0.26479253,-0.14563683,-0.14735292,3.838975,-0.3328312,2.937537,1.1413563,-0.10219918,2.030367,4.1759787,-1.3760835,1.9501772,-0.73404837,0.03406048,-0.49014598,-2.3620887,0.57838863,0.27521986,0.3460821,-0.26753187,0.6687123,2.6627443,-0.409236,0.42337644,-0.18551353,2.1160822,-1.5085219,0.930654,2.8111563,0.6339359,0.2595266,4.429271,0.43031722,1.2926762,1.7992772,-0.47226655,1.5838059,0.63770276,-0.59865385,-3.4437706,-4.8330173,-0.30119815,-2.0728533,-0.28688934,1.469642,0.787884,1.2829343,3.8898134,1.2848724,0.43244186,2.900053,-1.3162516,1.9150137,-1.6051064,0.89684796,3.749124,0.78728044,0.5012778,-0.7639787,3.4685752,2.0946102,-0.24330598,3.1403036,-1.7470537,-1.0240141,0.14724128,1.9076457,-2.5345,2.1541805,0.5234943,-2.0766726,-0.07225176,3.4538379,-0.085093655,0.91388965,1.9405308,1.4892666,-2.1643581,0.2557521,0.16436046,0.5693964,-0.8175105,3.8548043,0.027856672,-0.8144916,-0.5033268,2.693213,-2.2013032,1.2018253,-3.1206307,-0.99171823,1.9256322,-0.6299321,1.4341292,-0.078912705,-1.3118297,0.878759,1.8252782,-2.2330334,1.9722173,2.0289328,-0.14815526,-0.27755708,-1.4164052,-2.878145,2.1664214,0.75263894,2.8042696,-0.13247585,1.080484,2.1992762,-0.6432925,-0.8517469,-1.2696403,-0.6115235,0.2580836,2.4370437,0.20180312,1.3426358,0.06280544,0.2049499,1.4290552,1.225111,4.7947717,-2.058824,0.43440673,1.2934198,1.9220799,0.9815304,-0.31552643,-1.9579865,-0.80554444,0.0116123995,1.7077581,-0.09150262,-2.7182848,0.38694897,-1.3295527,0.22324188,-3.1616468,0.0866404,-1.9528809,1.2921016,4.6073875,-1.0082251,-0.76257807,3.5995722,0.3728545,-0.30968356,-1.2959194,-2.0321271,-1.6567144,0.46872145,0.84782356,-0.5386847,-1.7695282,2.4895058,3.5787146,-0.95149374,3.5654826,-3.2173505,-3.5818598,-2.0200887,-0.7842677,0.17535622,-0.59925175,-0.14023304,1.9193006,5.6816616,-0.53686845,0.012808243,0.7056489,0.37418976,1.0674068,-0.44129774,-1.7188455,0.9100668,1.4846647,-1.5880761,-0.7134291,-3.1606376,0.9526372,0.36503905,0.073735155,1.9264587,0.738322,-0.94282204,-0.7661632,-1.9204528,0.73470426,-1.6133732,0.84915036,4.5623207,-2.2540722,-0.2062159,0.2866668,-1.5014459,-0.2365505,-1.6603587,0.5612185,2.5192742,1.194574,2.2678833,-2.5794985,-2.5993874,0.45682696,0.36183766,-1.2581483,-2.9410212,2.09705,-0.78398496,-0.60364825,0.8951066,-2.351587,3.9271529,1.5362706,-4.0037165,-0.08905749,0.73652524,-1.5170988,-0.049602967,-0.52046514,-2.017626,3.5927775,2.0809672,-1.0518713,1.1878476,-4.627609,6.2602615,0.43549183,0.026630554,1.3620261,4.199818,-2.698394,-0.097933464,-2.120881,0.63891387,-1.5702733,-1.4555824,0.32435694,1.2992289,0.6724592,-1.8259689,0.59604436,-5.630219,-2.137922,-0.9412293,-0.19137655,-1.4299304,-0.007193453,-1.093011,-1.5772614,6.0060186,-0.81974447,-1.8656145,-1.7771238,1.2355553,3.4485147,-0.38862526,-0.025345942,2.3318162,0.005663085,-0.17857036,-2.0660572,2.5890865,-1.6425568,2.3087862,0.68500084,0.5499733,0.95073885,1.2381887,-3.099426,-0.40868598,1.4093566,-2.8323703,1.522792,0.7268714,0.2379912,-0.28259993,-0.8681658,2.1423306,-1.1276985,1.3981019,-2.176272,1.034762,0.42590493,0.5226657,1.7043242,-1.8168772,-0.7035097,-1.0652267,0.3913005,-0.30411065,0.5124982,1.6180739,-2.8672638,1.0880291,1.0632137,1.4709654,-0.51451105,0.31191236,3.2738771,0.91744995,-0.66391194,-0.890577,0.8185405,-0.23175901,3.0282755,-0.54475045,3.1610186,2.0412173,-4.070177,0.70163137,-0.35728717,-0.25771925,-0.29703155,-0.3954368,0.019019337,-0.17502743,0.18719134,1.7931647,0.066882186,1.2313813,1.150128,-0.5306069,-0.055637974,0.6313823,1.7602499,-3.350603,1.5441333,1.0327504,-1.4860364,-0.20126052,2.5299258,0.015791958,-0.08328636,-0.11630536,1.3892287,-0.15521389,0.56488687,-0.24542321,-0.30371895,-3.1844914,2.866628,-3.933314,2.1147506,0.3874203,-1.4706295,0.8719341,1.9031634,-2.109385,-1.7440017,2.7727582,0.54695386,-0.2209917,-1.4074508,-0.64161736,0.469486,0.7705073,0.33246872,-3.7807481,-0.21747659,-0.060339656,0.76913095,1.665264,0.42877895,0.14198458,0.642,-0.31911135,3.3711185,-0.21488483,0.6033866,-3.0597303,0.28108054,0.72436655,2.6600204,0.78716505,-0.48601535,-1.1759394,0.41805342,-1.107558,1.3075391,0.9757785,0.059087053,0.6540088,-3.3483143,4.2541785,0.97490305,-2.396243,-0.2215467,1.5901297,-0.89586186,0.5841311,0.719781,-1.3867587,4.49788,-0.19214673,0.41523293,-1.7129594,0.5321911,1.0970665,-0.10843833,-0.6279484,-0.27692375,-3.0252643,-1.2683171,0.9436612,1.5635931,-0.8678077,2.268026,-0.752686,2.350911,-0.72490025,1.9386936,1.2490163,0.34651268,6.2975197,1.8576243,1.2507069,-0.18956947,1.4524598,0.4700767,-1.1510298,-1.6728628,-2.3009193,-1.1760691,-0.31296745,1.7167203,-1.5634354,-2.5257685,-0.90351903,-0.6526944,0.39227852,0.5027405,2.56849,-1.484783,3.069438,-2.561906,-1.9291866,-0.16836476,0.29842177,2.1431303,-0.49433014,0.5359291,0.908192,0.73862743,-0.2973605,1.4170855,-0.57607675,1.4738591,-0.6323373,-1.6910857,1.0104436,-2.693586,-0.6304595,-2.3566098,-1.7117262,-0.5237158,-0.34650624,1.2675751,2.0625067,-1.9417698,0.2716883,0.21091762,2.3083956,2.3269863,1.4403294,0.23367886,1.7090462,0.96456856,-0.072648026,-0.40663815,2.1900463,-1.6936723,0.8003062,2.401597,-0.41999888,-2.1749642,1.6143669,-2.896004,-0.6021391,1.3748225,1.023794,4.178266,-4.5919523,0.62959945,-0.5120077,0.15954156,4.1764865,2.373014,1.027122,1.3442695,-1.6207579,0.23847662,0.003946868,0.40657154,-0.7930369,-2.1643295,0.5319893,-0.33628568,2.0296075,1.2232065,0.7670765,-2.2513196,0.99439335,0.7023525,0.7593266,1.3863496,0.86379313,-0.22187679,3.0636995,0.14855151,-0.46544325,-1.8991947,3.828245,-0.45564273,-1.2272428,-1.4518032,1.7404065,1.2436286,-1.356025,2.8837483,0.7635116,4.6688566,-0.079872936,0.45033404,-0.20258667,-1.365594,0.9906804,-0.1725976,-3.3993447,-0.6011119,-0.58607996,0.8065254,1.5716935,2.3044472,-0.510661,3.929277,-0.011398515,4.11076,-2.1490881,2.6630661,1.5141969,-2.654944,6.8803964,1.3370544,2.2654881,0.9884312,0.8442298,1.2408231,-0.32539195,-1.7521205,-2.227469,-0.58214253,-0.4287549,0.8562142,1.1110194,-2.8321247,-0.6048409,-1.1232483,0.34931743,-0.7442541,1.7866766,0.4891632,4.2140903,-0.64009637,-1.3618792,0.282301,-1.692145,1.9512858,0.7240245,2.197459,1.1746716,0.56611174,0.05834893,0.9876002,-3.9934509,0.9616668,-1.5016891,-0.5421956,0.76537126,-0.030469202,0.8642703,-2.0864692,-3.4367073,-1.4186653,-1.461698,2.3752592,1.5374534,-0.83840257,1.5713053,0.8051188,1.9900696,-0.1981151,2.8232193,0.6396869,1.128289,1.8112916,-2.2258203,-0.25118497,5.4538193,-0.48991454,0.82705575,1.16578,0.19979317,-4.699336E-4,2.5286243,-2.092715,-2.65818,1.2108225,0.9548066,5.7841396,-6.6218333,-0.0845897,-0.68268704,-0.93570113,1.053535,2.3376412,0.8728032,2.7821584,-1.4266518,0.22634426,-0.12783182,0.77520925,0.30815583,-0.90468323,0.35996732,-0.66266364,3.4881444,0.8821704,-0.099610925,-1.4609271,1.3471408,1.2862786,1.4378679,2.3626955,0.28681344,0.1382703,-0.95503765,-2.320394,1.4556293,-4.920109,3.1175795,-2.2548323,-1.397255,-1.7950113,0.6053648,-1.243945,0.22738165,-1.590289,0.3889287,3.0794666,1.637079,0.76255304,-2.1263795,-3.1876533,1.3040029,0.92077106,-5.576159,1.636515,0.017050954,-1.9802861,0.4935193,2.4838946,1.1643668,1.1353632,0.2612687,1.2404108,-2.205749,3.3114183,0.022443933,-1.8901991,4.010615,-0.31285048,0.71545064,0.16190583,0.43059894,-0.12777905,0.23432319,-6.083916,-5.7092915,0.47383338,0.43342948,2.3189547,-2.1827407,-1.9790354,-2.5046654,-1.8358501,-1.173324,-0.39985704,0.7016811,-0.34549195,1.8792105,-1.4776653,-0.97052693,-1.910607,-1.0399647,3.695988,-0.5520962,-1.5402988,0.18426031,-0.038008038,0.08105128,1.2125648,-2.3292034,1.0813382,-0.35620993,-1.0803862,0.39366287,-0.964398,-0.047093052,1.0479665,-4.9768143,1.244669,-4.525947,-0.7547466,1.0970309,-0.91473347,-0.5782084,1.2772895,-0.9839725,0.13484657,1.8105478,0.34615153,2.580817,-1.0469242,-2.157315,0.17319867,5.900378,-0.27158207,-0.97960323,1.0151519,0.9181489,-0.13101101,-0.3790296,-5.5457053,-0.10649465,1.4038618,1.3096786,4.7116904,-6.043891,1.9029418,0.32643887,-0.9383174,-1.6904964,1.2098074,1.2744946,2.0751674,-1.7566905,0.655831,-2.9490972,0.2840867,-1.2597464,-0.6221385,0.43302402,0.87696594,0.07354163,0.7808596,0.8078777,-2.9210317,0.8521199,-0.22617131,0.7067165,-0.041486017,-3.33348,1.0989895,-1.6044064,1.4470699,-4.8540497,0.44765547,-3.6625624,-0.71362036,0.87768257,2.4116175,-0.7514851,1.0223525,-4.547429,-2.8513563,1.3506042,1.0694082,0.36282828,0.8496289,0.05772827,-3.357598,-0.80652404,0.73438925,1.4337627,-0.037553854,-0.006093043,2.0190558,1.4009894,-1.1034818,0.26743189,-5.332631,1.2213297,-0.8512649,-0.5975658,-5.733162,1.3837847,3.128446,0.7223446,2.4206316,-1.8081506,-1.6694283,-1.8432723,1.3372194,-1.4978918,4.96881,2.3268769,-0.93247306,1.5775194,-2.035893,1.0178894,0.112859994,0.47990495,1.621632,-0.22176513,-0.9898908,-6.0107665,2.4174979,0.030817531,1.5085931,-0.45083907,-5.548524,-2.2403216,-3.72614,0.8304208,0.43243653,0.7389055,-1.5060834,1.780015,-1.8987923,0.2617186,1.067523,0.7128412,1.6084399,0.31813115,-1.2878346,2.4588437,0.15300396,-1.8589406,-0.29290298,4.5268393,-0.80308616,0.5938783,1.606991,-0.22325923,-0.81226605,1.21146,2.28552,-1.0161742,1.1032284,-2.341871,2.6185184,-4.3695164,0.42401797,-0.4215108,2.1882577,-0.9674858,1.6879076,0.9300442,-1.5471487,-1.5474883,-2.9017844,-0.91539454,-0.5896139,-2.8935256,1.3391508,0.6477915,-1.5184921,1.1581963,-0.27777615,4.7306433,0.6711131,0.07480892,-1.2300906,-1.6593534,1.0469658,-0.93955314,-0.74305636,-0.31267315,1.2281631,1.018341,0.06780774,-0.26933986,0.8535464,1.0094777,0.4454653,1.5972748,-0.29294884,-2.0467043,-0.89657205,-3.1850407,0.66315275,-1.097204,-1.4219869,1.0442334,-1.046221,1.5653346,-0.00977479,0.10357277,-2.652794,0.6604365,1.6466225,1.7242008,0.13503975,-0.2961707,0.74454874,1.1466175,2.8080833,-2.411571,-3.4591568,0.91259915,2.543557,-3.8144495,2.0258532,0.51840323,-0.07522345,1.6471424,0.6474878,1.0264806,-0.8801709,1.2869401,-0.60530496,-2.1035972,0.040680762,-0.62197053,-2.821047,-1.9797567,-0.5211717,0.4744932,-0.20357001,0.12873645,1.0771447,0.7706801,-4.539246,-4.2110443,0.6850914,0.81221735,0.4108441,-2.5452485,0.7237469,-1.0646486,-0.18983899,-0.7552669,0.06934626,0.04365104,-0.43859133,0.29623237,-0.80658984,0.9512448,-0.28939998,-0.41438934,0.43392253,0.91038924,-1.8489226,1.9024043,0.1231157,2.5344033,0.22782762,-2.6053965,2.390429,2.3106792,-0.7381753,1.5300813,0.19359419,-0.23413788,1.7096211,-2.9857302,1.0470004,-4.7032843,-1.0311664,2.3221047,-0.45852873,-0.3605771,0.48785138,-1.1591792,0.22463728,1.7766854,1.0898665,0.6572764,2.208353,-2.276454,-1.5262007,0.7843677,-0.7767556,-0.826121,1.1813905,1.3392315,0.81789917,0.98586774,-3.243609,0.58337533,0.9821002,-0.1100942,3.1736531,-5.393317,1.0354235,1.4849186,-1.7327566,-5.4776883,2.3084104,0.92468053,3.649351,1.6266656,2.536693,-0.56256527,0.72452855,-0.65563345,-0.028237112,2.7070348,0.9842804,2.9390244,2.471022,2.9106736,-0.116878405,1.8666382,0.09046114,0.13732721,0.5434012,-4.4883356,2.3560138,-2.7451007,-0.21293682,0.7150843,-1.5719233,-0.98096687,0.09091165,-1.8239318,0.36536747,0.53860134,0.20145655,2.6968222,-1.6762655,0.7269597,-0.8069505,1.8750224,1.9563023,-2.5207713,-1.1037394,0.4979357,1.3748885,3.1526473,0.38796076,-1.0862637,0.49057218,0.8670316,-0.015293957,-0.34929305,-4.947,1.1847447,-1.6865861,1.0426681,-1.3275394,1.4132311,2.0430791,-1.1962168,0.34127554,-0.13866024,-0.98640114,-0.3422769,-0.7651814,-0.62649405,3.9740078,-1.2874839,-0.019495687,2.2799685,1.0251247,-3.5746012,0.8034083,0.6310867,0.73672813,0.11538014,1.3477138,1.8703599,1.9630058,1.0637323,-0.2051436,0.51704514,-1.7593391,-0.40491366,-0.79765385,0.841063,-2.0984888,0.09772246,0.0842683,1.9802847,0.29917568,2.4183028,1.8031615,1.6383153,1.5903074,1.0199845,-1.3737396,2.7376845,0.32584757,0.78341645,1.5069312,5.716959,-0.81527317,1.2205635,1.2540027,-1.2073407,-0.110635996,-0.2917327,3.1769016,-1.8772813,0.47650418,1.1220795,0.23038764,-1.1511647,0.2343305,1.1662012,2.8922412,-0.5280329,2.7562869,0.9301133,-0.5573348,-0.7411609,-2.9500442,1.4186698,1.6262518,-0.74261594,0.067904346,2.5357716,0.48211643,1.0074494,1.5579792,-0.43499127,1.1946003,1.4454392,-0.6559842,-1.6133288,1.7434623,-0.7585978,0.75835985,-1.1966673,0.30249685,2.449349,0.9878686,-0.0032111546,1.7114259,1.5607018,-0.66047406,0.5482278,-0.3937902,-0.2595145,-0.5905269,-6.4234285,1.8816605,-1.7887505,-1.3057156,-0.86433053,3.8932376,-4.499352,1.2343,2.1692264,0.25744128,0.5129344,0.39800596,-0.1842347,-1.8551468,1.4881903,-2.187051,1.2441578,0.53734374,2.6235733,-0.8047789,-0.3118528,0.8763331,2.6770246,1.6995778,0.41093597,0.40397462,0.02684112,0.065043,2.2354662,-5.824093,0.505201,-1.9666977,0.17934047,-4.0118823,1.43639,-0.7020766,-7.054091,0.04781441,-0.48955193,-0.25449526,0.28857943,-0.28319767,-0.69066155,2.0775225,-0.124303006,0.88846767,0.69352967,0.011181061,1.5555036,4.4895425,3.1351073,-0.05163024,-0.2918858,1.6228459,-5.409486,0.8632215,-2.334826,0.1748803,2.2313695,-1.9313347,1.5916924,-0.4806827,0.8514073,-2.1138885,-0.51728594,0.761153,-0.8744271,-0.36985436,0.7018155,-0.27620906,-0.23451558,0.5098067,-1.2250473,0.79137594,1.4352226,1.0129961,-0.10693752,1.7469763,-1.8543481,-0.66672057,-0.5357356,0.26069963,-0.09966182,-0.3750216,-1.0403428,0.37188327,-2.3775845,-0.027319914,-0.18684147,-0.081991255,-1.8885663,-0.38914266,-3.20066,0.70543575,-0.84224796,-1.6667508,1.1521443,1.7152915,-1.3004472,-2.4513116,0.7776308,-0.09169325,-0.60632914,-2.8937,0.7669567,-0.22825174,0.11667637,1.9397149,-7.1339,-0.653741,-0.42151445,-0.82708806,2.3571694,0.26886243,0.66463107,0.04407025,0.4234517,1.4739778,-0.6838355,0.47091928,1.0829562,0.39694476,0.5842561,2.548659,0.36694983,-0.26233518,-0.16027926,-0.9155099,-0.6011693,1.436624,3.0108783,2.019098,-4.951862,0.36724347,-2.902016,-3.5177543,2.0006754,2.1331031,-0.6612567,2.3379972,-4.978259,-3.4547606,0.30108157,-0.21999195,-1.875326,0.38314658,1.0750164,2.4009793,-2.681219,0.18202958,4.5334682,-0.071729384,2.0628977,-0.117361315,0.43262058,-2.465269,0.60341537,-0.21201469,0.5013012,-1.2533267,1.2984437,-2.1533365,0.8528116,-0.018671583,-0.15825628,0.8632805,-1.0508981,-1.9581094,-0.024734443,1.0650914,-0.39174008,6.023359,4.162189,-0.89135325,0.66897875,-3.8574626,-0.54138,0.20709474,-0.07427414,2.4443517,0.61056787,0.29762694,-4.108247,2.1128175,-1.187607,1.6674807,0.406293,-4.085663,-0.20888226,-5.5861325,0.4971054,-0.8851375,0.5448909,-0.07490823,2.4660044,-2.40058,0.19494662,0.12894404,1.5673639,1.1455911,0.14501993,-0.3833282,-0.02097129,1.0233462,1.4034107,-0.815111,2.2860546,-0.5537832,-0.05013374,1.69939,1.7116196,-2.001509,1.0068697,0.0030190004,-5.402848,0.32486764,-3.2558177,1.7559443,-0.75294966,-1.4280645,-5.565046,1.004807,0.83560526,0.27315074,0.099729955,0.8344274,1.8286676,0.1294757,-1.0367472,-1.3529726,-2.451254,-2.0328412,3.4643455,-1.646871,0.5242301,-0.44751403,3.2561328,-0.53377044,0.0062845484,-2.3702338,-1.264167,0.38390544,0.4170407,-0.084041886,1.5461441,1.1295543,1.2594619,0.07350392,-3.2486537,0.2295115,0.4460739,0.79914206,0.54572505,1.6095176,-1.0521456,-2.5528924,4.5582414,-0.061402,-2.9165635,1.1199988,-2.417917,2.2919252,1.4362775,1.5776595,2.8245044,1.7085842,-0.54780084,3.0225973,-1.9220774,1.003155,-1.0195165,3.5680077,-0.08508316,0.4477935,1.9057388,-5.6558027,-0.88122547,0.18055886,-6.0460005,0.4453347,2.6510715,1.7681009,1.9010874,0.09616877,0.30892518,-3.0302498,0.35693955,2.2584898,0.90035194,-5.7491336,0.41922373,-2.5668242,4.2632866,2.81763,2.5152402,-0.16604719,0.053984996,0.85025305,-0.095215544,0.49795064,-1.3236905,0.058448516,0.30488017,-1.6371831,3.0656052,-0.7697901,3.4414015,2.892002,-0.8799305,-1.0752655,0.09727351,0.123315535,3.5806563,0.22333273,0.6136236,-2.340942,-2.5151713,-0.8828913,0.57819337,1.9755303,1.2737805,-0.6398203,1.9159518,-1.0219582,-3.993439,1.20864,0.85229266,0.40372896,0.48588786,1.0444294,1.2101612,0.63352346,-4.552443,-0.8164264,-0.510956,3.629982,0.82553923,0.6013169,-0.027827742,0.00867235,3.5556307,0.093707316,0.32677516,0.8058053,-1.236978,3.070656,-4.4061317,0.9896141,4.0447917,0.05931028,-0.40437,1.9051859,1.0622802,1.583235,-2.162621,-1.1952944,-2.4573886,1.1165024,-0.59493536,3.29005,-3.3646147,-1.3977313,1.1325142,-2.370349,0.5017127,1.1335083,1.1662352,1.2584423,-0.47140294,1.2556021,2.1880877,-1.2714819,-1.264627,0.10459502,0.60539323,-0.064208105,5.250867,0.84580415,0.7557033,1.7047502,1.8263327,0.713046,1.9308554,1.0593549,-3.2266114,0.32818317,-1.1647252,-0.80295414,1.3750042,-2.38562,2.6649113,2.767157,-2.6517792,1.2204223,1.364004,-1.8802072,3.688661,2.6119177,-0.054603986,1.5853409,-0.8564378,0.50355005,1.3371068,-0.015534241,-0.3582978,0.4989926,0.29364842,-0.1184935,-3.99076,-1.8529813,0.5252254,-1.9374052,-0.35342896,2.799513,-0.6047832,-1.0617329,3.1261284,0.20277931,0.06803834,1.716781,0.15395662,-0.12946528,-1.0827756,0.117455795,2.373779,1.6905024,0.1411366,-5.9387803,-0.5348041,-0.41295576,-1.6106093,0.056282513,0.8663773,-1.4570688,0.6626385,0.8154963,0.36387265,2.6418197,5.04183,-0.7958457,-0.19434626,-0.55103177,-0.14439583,1.0617207,3.4820616,0.16386993,-0.44609076,1.871392,1.0215319,1.1087034,-0.6429837,0.80401915,1.4012573,0.75654554,-0.39751816,-2.376476,0.5963652,-2.879123,-3.425099,-2.9298398,-0.5137513,0.41166297,-2.3572657,-1.6933813,1.8136196,-0.92274123,1.2800529,-0.6020356,0.24253014,3.175015,1.1209038,-0.10522769,0.14590214,1.1674974,0.3344633,1.4969497,-3.0365565,-3.429276,1.6633867,2.015954,0.046112668,-0.9266264,-1.7418649,-0.95821434,0.15477778,-0.48603493,0.84461015,0.642367,0.13353683,0.20517372,-0.056539632,0.78110313,8.053211,0.8601182,-0.6303708,1.1306853,-1.5306846,0.28771257,-0.30212212,0.8224429,0.146992,-0.8572093,0.20745218,0.15373737,1.5614773,0.38390246,1.2951299,-1.1935991,1.329617,1.2412632,-1.7144337,2.7018075,2.9922116,0.37016863,2.2766664,-1.3916584,0.69807893,-2.6068556,2.5661762,1.0931014,-3.2571256,-0.8926776,1.6615285,-2.1639552,1.0906359,2.0156412,-0.119117305,1.3232536,-2.7245784,1.6313341,1.020933,0.8819924,0.066928826,-0.5264011,0.3294904,-3.7710118,-2.7055836,-1.9517142,-0.13949929,-0.6185476,-4.3019876,3.3783433,-0.6232729,2.754946,2.115701,-0.6020915,1.7166489,-1.115455,2.4534822,0.8373753,0.101958565,0.40820104,1.7443714,0.26601827,-0.095584564,-2.212728,0.1370461,-0.4058728,-1.029436,0.57793456,0.74919033,-1.702652,2.598577,0.8407956,-1.5048654,2.516466,4.37886,1.7878389,1.3848943,0.26763567,-1.5371914,1.0838541,1.2841772,0.4909662,0.3471343,0.029707862,-1.5479376,1.1353449,-2.594021,1.7507553,0.43342853,0.68976915,-2.246933,-0.18233454,-1.6840153,-3.5274804,-0.31525818,-4.9139466,0.47704235,-2.6951644,-1.3737874,0.9024591,-0.16200198,-0.15150912,1.6843369,-0.6681588,2.1084397,-1.5434986,-0.80402637,-1.1155345,0.95587623,-0.041956432,1.1224959,2.066091,-3.459581,0.39426425,3.1032138,-1.7327417,-2.1438088,-0.34648678,-0.7447593,-0.28271326,-2.198723,-1.285729,0.71127164,-1.5573673,-0.63266695,0.58438545,-3.2931216,1.0656902,1.634072,0.13153438,-1.9754354,0.2142886,-1.6459204,-1.4804653,1.0743167,2.5920608,0.36772102,-0.3960967,1.2458353,-2.3198051,-0.1515496,0.051254105,-1.1488142,-2.3264914,-0.06656271,1.3592125,-0.6695555,0.24964687,3.9745471,0.24902886,1.490564,-1.618145,-1.4290615,1.9115472,-1.7190514,2.253358,-0.22848327,2.1924865,1.5971454,0.028206227,0.79794544,3.557766,-1.8092631,-1.1628793,-0.4100182,1.474811,-0.5317656,0.16904648,0.31667435,1.7659345,4.8412147,-1.0815938,-0.23505838,0.7077949,-0.39662415,0.6834125,-0.9907507,1.5126665,-0.39267865,1.3284478,1.8124503,0.47332442,0.0012116751,-3.2359576,-2.8470285,1.5018914,0.90678364,-0.48771074,0.5370827,-0.0557949,-0.7385087,-0.41745308,-1.6329285,-0.16664654,-1.3786565,-0.6747433,-0.5562172,1.5817868,1.256129,2.9481232,1.7425612,0.33367702,0.8809591,-1.7091835,-0.5362695,-1.3590393,-0.13480835,4.12547,-0.8322703,-0.6774856,-0.3078723,3.740708,1.1453903,-0.17467079,1.0549976,-1.5618665,-3.9777408,-0.35601938,0.12307896,-1.9872195,1.5016433,0.32037768,0.4799805,-1.6878139,3.6201608,-1.0066284,-3.6155236,1.3374385,0.66556203,-1.9064846,0.123796724,-0.013881914,0.26773697,-1.9074434,2.1539364,0.8176611,-1.1030031,-0.50936264,1.7665703,-3.2052004,-2.522359,-1.8270098,-1.0149906,-0.76239556,0.19817938,-0.6222282,2.666654,2.6287644,-1.2617801,-0.36519557,-2.5892816,-0.15536283,2.9187303,-0.8922689,-0.8324154,-1.1316644,-2.0078173,2.1345253,-1.0115018,2.1259885,2.3006682,1.4807736,2.0876536,-0.057070337,0.4369107,-0.6699542,-0.32841414,-0.569841,3.3250563,0.58383214,1.9007092,0.43937725,0.44275355,0.7672102,0.55141556,3.5011075,0.83142954,1.7607754,-0.26576063,2.6388226,-1.4943413,-1.9372073,2.9481053,2.3108027,0.38740367,-1.2523743,-0.27778664,4.30718,-1.3871889,-2.502667,-1.1690323,2.1143548,-0.61381525,1.8561033,-1.8264731,0.6103277,0.09764817,0.22745056,2.13116,-0.7347521,0.2926462,-0.7291815,2.1995425,0.8200177,-0.04868539,2.1837714,0.3686625,2.4527168,0.06943748,-0.4670577,-1.4058572,-3.24106,3.5672123,2.5975988,1.3787304,-0.53948545,-0.052559648,0.7250719,-0.36841467,-1.2289926,-3.5114913,-0.31898934,0.3669219,-0.9004919,-2.3027139,-2.0433912,0.60530454,3.8779817,-0.74796104,-2.374384,3.1192439,-0.2000652,3.5066488,-0.047313966,0.7334641,-0.67881167,-2.8262253,-2.3319845,1.426368,-2.496102,1.1787792,-1.2191198,3.4798582,-1.5048177,-3.8917863,2.8000805,1.59265,1.045261,0.92338914,-0.6214657,0.1811543,-1.544449,3.175085,-0.7657493,-0.96400803,1.865375,2.3720639,0.36614683,-0.6329238,0.41648406,2.9294646,-0.5749141,0.084058635,0.25308377,-0.8352357,2.8318799,2.1485972,-2.0105062,2.004645,-0.15220696,-0.44402814,3.6207802,-0.38801157,0.49492416,4.003489,-1.7870069,-1.4078679,1.25091,-1.632636,2.1039782,-2.4056435,-0.7804158,0.28823003,-4.1698885,-1.622202,1.8633918,1.5249324,2.245024,-2.468873,1.8101735,1.2747457,-1.3452576,-1.6880136,-0.040776044,3.4097056,0.07020515,3.8508358,1.8298633,1.7318027,0.48396194,1.3890173,0.6855688,0.86965585,-2.3777442,0.19346926,0.4701334,-4.2366357,-2.0575688,-0.78545165,0.08326766,-0.37182453,3.665301,-0.8017251,1.7576487,-1.4732443,-2.1867301,1.0287668,-2.1746144,0.16782281,0.8186506,-1.2108028,2.2585416,2.352054,-2.813474,-2.5031588,0.3748306,-0.38235074,-0.7560671,-3.8069103,-0.76680356,1.5353397,-3.3257227,-0.5795922,-1.9504777,1.0495356,-2.3496494,3.302658,-4.8015356,1.3399876,0.39848393,-1.454181,0.96203554,-1.8453517,-2.4617372,-0.60332716,-0.14972676,-2.9288228,2.8001034,0.4511575,-1.3193444,1.668504,-1.7762569,1.8453051,-0.6086541,3.6899586,-0.26496473,-3.9479227,-0.84045184,2.1061454,1.3646973,-1.307757,0.3343724,-0.86257726,-2.4785912,-0.44232294,-2.0651815,0.9343294,-0.512899,-1.43163,-1.2389748,-3.6629944,-0.6709113,-0.1008056,2.3862379,-2.4188645,1.4331884,-2.4227993,-2.651994,1.5481902,-4.2175617,1.8080348,-0.7965985,0.4498069,-1.3746998,1.294159,1.1167951,-1.6931897,-3.012357,0.6421283,0.11223091,-2.6842804,-0.37431931,-1.6702412,-0.16424832,0.13942115,1.5804673,-0.78417116,1.178272,1.2337347,0.43692595,0.36394417,-0.6850801,-3.9989018,-2.4676116,-2.4309862,-1.5272291,-0.46495995,2.8779285,4.0202355,-1.8619162,-0.5006611,0.7178038,-2.5411685,-0.28613734,0.94668275,-2.5793374,-2.929825,1.3166815,-0.8845376,-0.7823726,-4.195024,0.59252447,1.575585,-1.1572454,-0.8103701,1.3536135,0.9269932,-0.029667217,1.2750474,-2.0340047,-1.6173525,-0.55815053,1.4921329,1.0356432,-2.1556401,1.8620858,-2.3207626,1.5223671,1.6637536,1.2775393,2.8441594,-0.01641714,-1.1134344,1.9659866,-2.0458596,1.1800199,-1.2595948,3.1604497,-0.45042545,0.7192955,1.8590586,-4.060798,-0.7125143,0.36011234,-4.27057,0.5745771,2.2026827,0.5023545,0.7236238,-0.12433478,0.5768565,1.5639535,0.63844675,2.03744,1.2743376,-3.4397452,-2.1491296,-5.064778,3.6988711,2.3340979,1.5599719,0.23342042,-0.34566686,0.5797623,0.2980598,-4.561946,-1.4471642,0.2623927,-0.10359282,-2.0012205,1.2734337,-1.0409606,2.6952353,2.8008323,-0.5974287,-2.1180694,0.62554157,-0.599607,2.2550907,0.8210288,0.47800913,-0.14620641,-2.634444,-1.4716691,0.37405452,1.4646473,0.9009834,-1.1890154,1.7091776,-1.3398995,-5.008201,0.9940546,1.2339672,0.39348912,0.54257596,1.3199806,-1.1167287,0.8847966,-2.5909023,-0.8738365,-3.6210165,2.2501607,0.69615245,0.84941345,-0.22587714,0.104526006,3.1535096,-1.0916194,0.063325904,0.42998636,-1.5632961,1.6239184,-1.9399911,-0.67381376,2.0440865,-0.5040871,-0.16056533,1.9660666,0.49939737,1.4661506,0.32522625,1.347677,-2.1459548,-0.08588476,-0.91038585,2.290568,-2.553,-0.89606947,0.74632615,-4.61665,0.10299838,0.65851873,0.8108274,2.1241498,0.26690757,1.060603,1.9359207,-1.4432806,-1.1238192,0.16431497,0.49904886,0.17009011,3.6950066,0.56665695,1.1776026,1.4265435,1.0097663,0.287039,1.1260544,0.047482062,-0.32773897,0.31328312,-2.8532853,-0.8213927,0.40235603,-2.3433292,4.055106,1.0997336,-1.1402614,-0.12414714,-0.38940942,0.48388815,0.8096694,0.60697514,-0.9311814,3.6632514,0.61685413,0.08833846,-1.299389,-2.3519604,-0.35935953,-0.7292464,-1.7185284,-0.043868914,-0.6650897,-0.2855381,1.1571516,1.1777874,-0.2731704,-1.2453074,-0.8448686,1.867644,-0.055563673,-1.7289475,1.0781131,-0.18944195,6.3127923,2.7421196,2.0588694,-0.08022316,-0.17983158,0.27523044,-0.6587539,0.54558617,-1.6246492,-0.042348668,0.5328884,0.07058878,-0.63611233,-2.2801487,0.27865747,1.0261378,-0.88730955,-1.0469013,4.0721006,-0.6377526,4.465896,-2.2292347,-1.012843,-1.4725341,-2.141249,0.767279,-0.5251454,-0.06855779,0.96435225,-1.5726489,-0.21914695,-0.526582,-2.4953403,1.1072764,0.05064665,-0.5632572,0.61875993,-0.7523428,1.0124077,-1.1219977,-4.445071,0.28006405,2.4440832,1.7454505,0.83212835,-1.2847074,-2.0393035,-0.22977652,3.7677548,2.5083928,0.02581653,0.30509523,0.5724728,2.111039,-2.204635,0.99909383,4.8392506,0.32355326,-1.0265388,2.3212342,-0.24089147,-0.34813496,-3.8404586,-6.032805,-2.016672,2.100911,-0.93543005,3.90489,-5.47807,-0.7029434,0.16561934,-1.1603309,5.408352,1.2758336,1.372733,0.06466152,-3.9270394,0.44837058,-0.17739551,-1.039257,-3.662103,-1.2767403,-0.09926262,-0.15335593,3.1188588,0.6122894,0.5044608,-1.1318927,0.8905295,-1.0083224,1.6790475,0.64503306,-2.4186718,-0.2540751,0.861228,-0.25392026,0.10764377,0.8522598,-1.5753803,-0.24531996,0.75832886,-0.23294385,1.2904825,2.4578958,1.5836111,0.86193705,-0.71272725,-1.9581076,0.94491476,1.9398359,-3.0756845,1.1550721,1.2385582,2.2576385,4.306567,1.706014,1.7622849,0.8470645,0.023418693,0.087300256,1.2419823,-1.2330511,0.72080374,-0.87003654,-0.4804205,0.1274414,-1.1562033,-2.6385262,-5.438307,-0.9465617,-1.4666497,-1.0956713,0.74914724,-0.16656123,-0.47917852,-3.6318815,-2.5391517,0.12797946,0.039338324,0.6938815,-3.7240622,2.8075979,-1.1523477,1.7516948,1.7013185,0.3955062,-0.90294987,-1.191833,-2.9312258,-0.9574399,2.321979,3.0150268,0.2775531,0.076822326,0.64141667,-0.1824952,1.0976363,0.61878926,3.7510395,-1.0993978,-2.320951,1.4465175,3.109833,-0.49839753,1.6840005,1.0208287,-0.8423564,2.56184,2.831811,1.4082495,-3.5120113,-1.9950299,1.7336221,-0.79559016,0.22671288,0.54977214,-2.8273408,-1.0359054,0.56479436,0.16640173,0.24380733,0.30314004,1.2984636,-3.9311895,-2.2568161,-1.0962517,-1.8176173,1.3356013,0.79716206,0.8249314,3.5470982,0.1956856,2.1668932,-1.0870469,-1.709311,-0.09522356,0.9865614,0.9803287,1.6196085,-2.1590502,-5.8958163,1.558381,0.9592663,2.4655743,2.383804,2.4778793,-0.23123857,0.15371712,1.3485764,-0.07762987,2.803217,1.5215818,1.3107309,1.6604108,2.838597,1.3396095,0.20748025,1.2601079,-1.2870302,0.9428513,-2.972199,1.67734,2.097108,4.4738145,-0.85126173,0.5182922,0.42055556,-0.8178713,0.4189899,-2.1324844,-2.1047173,3.590139,-4.1026206,0.45881906,-2.57065,0.22833349,-0.56522197,0.8309846,-0.10735975,5.1083646,-1.2330974,-1.0343217,3.6959753,0.11942388,0.92659783,-0.06560079,1.3186312,1.556228,0.61302835,4.5303674,-0.87451714,2.2239773,-0.90126115,2.300098,-2.4796205,-8.059992,0.7385769,1.6537638,1.0972426,0.69435996,-1.9848496,0.35989338,-0.21174213,2.2015831,-0.23686905,0.29407996,-0.48807567,-0.4647699,-0.9159533,-0.004683946,0.33427694,0.97963715,-1.9604003,-4.4379168,0.7284803,-1.047561,0.66732746,-0.2675023,1.200797,5.8649783,-3.7316296,-0.57865095,1.9588596,-4.2860103,0.40356734,-3.0298903,0.24488874,-1.3333927,-3.5040765,1.2048881,-1.7806234,0.55803007,-1.5677414,2.6468728,-0.8281898,-0.15658747,7.4586697,-0.90923756,-3.1698596,0.79010624,0.5401883,-0.49513596,-1.127405,-0.18269633,2.51009,-2.5103526,-2.1181433,-0.82176805,-0.20722917,1.0141194,7.07512,-3.5626674,1.0865867,-0.97581565,-0.5040088,-0.80371356,-0.756857,1.8314728,6.833446,3.9743803,-2.309483,0.21159287,-0.76914275,0.6289898,0.85945463,-1.3745937,-1.1172009,-3.6347704,-5.3127823,-0.29953325,1.47335,-0.9319155,0.06913998,0.1276917,0.8433951,-2.4977567,-1.9035976,-0.13274395,1.9423904,-0.677848,1.8549051,0.9484925,-0.42489356,0.9217464,0.14791657,-1.6992421,1.5712612,-4.5480237,5.7455335,-0.038545042,-1.7699676,-2.033854,1.6233915,-1.1417598,0.07011035,2.296123,-1.6250504,3.0988543,1.4889863,-3.158069,4.545397,1.0952818,0.7170873,0.79766864,0.20754813,0.0013062696,1.5925754,-0.97364783,-0.07307356,0.47688162,0.8492298,-0.34768432,-3.5326052,-0.26957512,-0.045266453,-1.5534235,-0.3942239,0.800668,0.35099286,-1.1479884,4.419219,-1.2000638,0.820428,6.869397,-0.48449183,-0.04361222,-0.91720015,-0.6763465,1.5994443,1.5675676,-0.082380995,-2.0093136,0.60826707,-0.25641403,-0.8992019,-0.032431558,1.0030521,0.016984088,0.78854936,0.65920645,1.1633612,2.4502556,3.265042,0.9575796,-0.055263057,0.31795704,0.006633865,-2.5025046,3.4015772,-1.1398648,-0.5164131,2.5066762,0.8471799,1.4409766,-0.75907916,0.9448313,2.2009943,-0.5560165,0.15018912,-1.0727581,1.2878333,-2.6068082,-1.2934775,-1.8561325,-0.63715154,0.5466101,3.3807235,-1.1742605,0.7758205,0.2866343,1.154394,-0.6679555,-0.07066432,3.4788334,1.2466286,0.73491997,-0.069342256,0.8887101,-1.2661242,1.7091224,-1.9812298,-1.3398058,2.3953872,1.3871924,0.42881855,-0.4582925,-4.4623327,-2.6608133,0.46889186,0.54777575,0.49815395,-1.1579291,2.629606,0.34712714,0.13887952,1.2339096,8.690829,0.6960104,-0.99588364,0.8323514,-1.5371068,-0.38909927,-0.39654547,1.6212553,0.4223816,0.021075305,-1.1670681,0.30891857,-0.70694035,-0.17640454,0.4761056,-0.79206353,0.7234841,1.1155765,-1.5913287,3.0357468,2.633404,0.26366308,1.0918367,1.9495634,-4.345111,0.5160507,-3.6517093,-3.3540711,2.0987363,1.7452071,-1.2411474,1.8976103,-5.712106,-3.942461,0.67536724,0.37431222,-1.1270499,0.57468086,-0.08343019,0.55861646,-2.6367507,0.3854296,2.947018,0.62814325,2.20544,1.177469,0.9272135,-1.3889804,0.556294,-4.198314,0.49907938,-1.6330142,-0.5526058,-3.6804254,1.4725503,1.3273932,0.8180715,0.620141,-1.1784297,-2.351883,-1.184402,1.007286,-1.0171279,6.151375,3.769754,-1.2682043,1.3446815,-3.1497822,0.70929444,0.5166567,-0.046697352,1.2719558,-0.09886513,0.23455895,-5.517138,2.1440287,-0.68466014,1.1344769,-0.014649335,-4.811052,-1.1827396,-5.20061,0.3085388,-0.9807744,0.49985376,-1.0541948,2.0692108,-2.3738582,0.4760831,0.81582755,0.9445879,1.3241155,-0.047010653,-0.7603665,1.1210558,1.2439092,0.15926142,-0.5625953,3.9444907,-0.5245308,0.22635515,1.560823,0.4630195,-2.274408,0.9982097,1.395149,-4.6404853,0.65082926,-2.6429272,1.8352221,-1.6862035,-0.30531818,-4.0903816,1.8372352,-0.72657675,-0.121529475,0.5948194,0.16335715,-0.9517966,-0.94076675,-2.0693338,-0.89537877,-3.1698663,-1.1201917,2.054713,-1.7071707,1.1048932,0.022900742,4.3617897,-0.19187632,0.37691092,-3.0458453,-1.5142406,0.79524314,-0.15150923,-0.33811814,0.32236084,1.0576402,1.219696,0.0105463695,-3.288157,0.6384187,0.79137546,0.7500344,1.2050258,0.21094608,-1.1530614,-2.16602,-0.5356736,0.6176318,1.0465593,0.4735399,0.504911,-4.111527,3.0953815,1.528109,-2.3866947,-0.57046604,1.1052148,0.6018793,0.61249095,1.9504259,0.32509598,3.7512975,-1.4989758,1.5383185,0.7451877,1.002228,0.0623097,-0.13074334,-0.4501245,-2.0943637,-2.001795,-2.1769178,0.89631665,-0.3281272,-2.1244707,4.358641,-0.3793408,3.2203548,1.7011224,0.054680694,1.5980008,-3.783897,4.779314,0.63094527,0.2715503,0.39837706,1.6481841,1.0494516,0.07057683,-3.996021,-2.0074525,-0.023383884,-1.026337,1.0709343,0.6358891,-2.9596512,1.7686023,1.2048959,-1.7966826,0.78624165,5.566519,1.877452,2.3784065,0.2599577,-1.3713015,1.8802804,0.19538285,0.8141585,1.0390766,0.23586535,-0.0478984,0.30659583,-1.2814046,0.92361677,-1.5312309,1.3022747,-2.53674,-0.70858115,-1.1545473,-1.6415678,-1.3197128,-3.9561975,-0.027474456,-1.5535771,-3.388581,0.1457918,0.9868571,0.13749348,1.1752644,-0.28316122,2.2117863,-2.1973653,-0.7236476,-0.68793714,1.3315217,0.9002069,1.3789715,1.5647209,0.4009469,-0.6519377,2.160027,-0.4644776,-0.9492782,-0.4248488,0.13633436,-0.686028,-2.1470885,-0.67500997,0.2502491,1.8503823,-1.3656107,0.65122575,-1.9400012,-0.41321948,-1.3466655,0.39954332,-0.655884,0.4885944,-2.333198,-0.54071516,-0.11102414,1.5551412,-0.6820851,-0.21079457,1.2823876,-1.3015035,0.34980285,0.8572517,-0.2332172,-2.891586,0.28941634,1.1177485,-0.30636644,0.5802427,3.9092515,0.48063046,3.8858197,2.6959834,-0.88542014,-1.026041,1.5369823,-1.3393178,1.1795422,-0.95245963,1.6242112,2.6891208,-1.3827311,-0.28201795,-0.4438117,2.6572034,-0.07072411,-0.20791528,-1.7899266,-0.44312924,1.2896993,0.4320488,-0.42394957,-1.5974103,2.2465408,-0.84641165,0.93126327,0.15812296,-0.50829905,1.9540483,0.59598106,2.533605,-1.52687,2.8935368,-1.268511,-2.1831095,3.1454568,2.9878461,-0.3348495,-0.09277382,0.9566071,2.2379963,0.6213783,-2.8622518,-2.3783612,0.26221287,-0.46065304,-0.06591501,-2.3389544,-1.3181418,-1.9307904,2.6801863,2.3463967,-0.7869961,-1.627032,-0.16302088,0.314636,0.2124814,0.1520098,0.6675439,-0.6060437,0.7373777,-0.14413223,-0.0022403935,2.538504,1.2920427,4.744132,0.6123033,-4.2863984,-0.6329372,2.2456722,0.32539615,2.5466535,2.4855282,-0.13781312,0.97687393,-0.63880455,-2.0441217,-1.3586681,0.25942916,0.47251746,0.16919534,2.117986,0.9704968,1.9979084,-1.8825133,2.8288312,1.3272892,-0.26645982,1.6303316,-0.9608273,-2.2444503,2.5360985,-0.07805161,0.43082115,2.0964987,-0.33043832,-0.0724013,3.3649387,1.1634159,-1.5285469,-0.6808525,1.1377783,0.991057,-1.9654061,0.98122287,-0.27329168,-3.07717,1.307362,1.7769722,-0.907018,4.0797195,0.3096841,-1.3864113,0.34928003,0.748071,3.1092575,-0.33025798,0.9792516,-0.25198844,2.930842,-0.29829714,-1.1315417,-0.055037316,1.1059062,2.4918876,-0.8713134,-0.98536617,-0.14971854,-0.8079233,0.22048819,-0.9190368,1.400155,-1.3473376,0.3026424,1.8953854,-1.4367884,0.16147855,1.2260652,-2.11389,3.0508318,0.884951,0.63658935,-0.22853196,-0.4408392,-0.37290508,1.6739573,1.2348185,0.11941539,0.2434906,-0.5915645,-0.5463009,-2.995416,-3.4042056,-0.64797103,-1.8116472,-0.08170011,2.0551934,-0.026949072,-1.1951846,2.5664272,1.5281194,-0.111923985,0.24039449,-3.2671921,-2.533377,-3.324633,-0.1763635,1.7949339,0.5062224,0.23860003,-6.841755,-1.3440427,0.022400523,-1.5529734,0.3196132,-0.5498231,-0.010948287,0.1624338,-0.4495009,-0.22038567,2.2476966,1.7210121,0.033555977,-3.2764795,0.90925604,0.33339897,-0.007250783,3.7453394,0.3096944,-0.3989782,0.73806095,0.011908886,1.5276098,-0.8538551,0.8033749,1.6607172,-0.685337,-0.7762735,-1.4599149,-0.11576975,-1.2396681,-3.1727984,-2.0605583,0.2681594,0.97024804,-3.8161814,-4.4470234,0.21874736,0.34093663,1.4185282,-0.112696484,-3.2391486,0.92862827,1.3034766,-0.1703779,0.12454418,-0.81869256,0.9741939,1.1792293,-2.897754,-2.4630678,2.0413408,0.15692851,-0.37041774,-1.030987,-0.97124547,-0.4449989,2.48533,-3.031897,1.2733531,-1.6471318,1.0270599,0.45713085,-1.0744352,1.1884152,-1.8703079,-0.2322899,-1.2625098,0.12265964,-0.4403011,-1.3100841,-2.7360482,1.1472465,0.47009423,0.17157993,-1.0914935,0.16389084,-2.9918764,-0.60908985,-0.40720993,-0.7894779,-0.12288248,1.0331817,-3.329593,0.81985223,3.6397686,-0.20585889,-2.599803,0.4321341,-4.1676636,0.9171358,-3.7060435,0.99866784,2.1375332,2.9168057,-0.10541518,0.68314946,-3.0725515,-3.456326,1.8506453,1.0188559,-0.023466732,1.0751959,0.25917572,-4.638999,-1.2137326,1.217237,0.3529357,1.3536685,0.7506358,2.1114671,1.6367244,-1.8307977,1.3033801,-7.069394,1.1574687,-1.4514831,-0.113289826,-6.4807577,2.4111104,2.902474,0.8523842,1.7478741,-1.6374286,-2.3447254,-0.7098878,1.0545694,-1.7394997,4.122478,1.0619782,-1.1325865,2.0022118,-2.518881,0.9685297,0.19216332,1.1886926,2.1580446,0.17373754,0.17382313,-5.7173953,2.9229276,0.77231216,1.3968443,0.2745537,-7.1392198,-0.67082506,-3.7932968,0.56882346,0.028417205,1.1773955,-0.4827983,2.239812,-2.0227733,0.49833977,1.5518113,1.9448212,1.6956023,0.897778,-0.93764395,2.1643872,1.2385168,-3.1808617,0.7305228,4.2886195,-0.39743525,1.010034,1.9654965,0.083886474,-1.3482242,0.91616887,2.2909324,-0.034712363,1.312756,-2.6295595,2.1753914,-5.5821834,0.70854175,-1.4174236,2.075212,-0.9589025,1.6541786,1.5656,-0.09542286,-2.6243157,-3.7627234,-0.6208064,-0.41396776,-2.764011,0.9055773,0.30622217,-1.2961624,2.042962,0.4134911,4.5684285,1.0170712,0.6832426,0.752684,-1.3967773,1.6955367,-0.18288311,-0.38681602,-0.23059505,1.2876619,1.473147,0.6474752,-0.4908056,1.1149704,1.7659619,0.92462844,2.2748024,0.7501715,-2.2938943,-0.29817012,-4.0847173,1.3100427,-2.0439806,-0.93771046,2.50504,-1.6513741,4.0957603,-0.45143226,-1.3280584,0.055317722,0.057953242,-3.8017,2.964699,-0.582662,1.2098131,1.688346,0.26124606,0.53567284,-0.6174203,-1.2709297,-0.6759482,0.72840333,-5.6671433,0.9970081,-1.8914973,0.033158027,-0.043229047,-0.662773,0.48696545,0.8941971,0.3705102,-2.081891,0.89371496,2.2090037,1.403399,5.9110947,1.6873962,-1.6850051,-0.13009228,-0.32196578,0.8855164,0.14975616,0.5622876,-0.502967,0.24150535,-0.3873425,1.3549553,0.923746,0.22213838,-0.101550676,-1.0889742,-2.4052274,-1.9484364,1.1954461,5.1361756,2.3393118,1.4921265,0.7148034,-0.032071117,-3.482087,0.78109723,1.0868574,-1.4776815,-0.28144154,-0.33652744,0.0451337,-0.3084379,2.1751995,3.240965,0.7486511,-0.9196189,-0.112758555,0.1822111,-3.3059766,-0.1156488,-0.020201163,-4.7456746,1.1895149,5.033779,-0.82941276,0.58084804,1.7059362,-0.3821159,-0.67666626,-0.45246437,3.3904345,0.10339655,0.65786797,2.3365855,-0.7342224,-1.6787554,4.6351433,-0.22211134,1.3184687,1.3657968,0.5237458,0.86200964,-0.22152463,-4.4348106,-2.2590206,0.9792242,1.6188918,1.5757601,1.550438,-2.3416724,0.9213366,1.1175604,1.1510893,7.4775696,-0.021021323,1.2609324,-0.1239782,-1.0067455,1.1996062,-1.0767024,1.4129821,-2.112408,0.8626835,-0.020586476,0.42163792,-2.1610491,0.36338702,0.96419173,-1.1990304,0.94705087,-0.37505654,-0.30858847,1.1653646,-2.5890718,1.1727213,0.77831256,-1.3722303,1.0983593,-3.8863986,3.2043118,-0.83914495,-2.5939713,-1.4819971,0.9578436,-0.9608004,0.57234627,0.45517504,-0.54322344,3.482856,0.314626,0.27937514,-3.2054646,-0.3315844,0.935937,-0.24114017,-3.1844194,0.092650935,-1.6732091,-1.5327553,0.7021482,1.2455896,-0.6975173,2.690472,-0.9047448,1.5465375,-1.7339859,2.9825268,-0.6489197,0.21776462,5.3265305,0.96820307,0.49502537,-0.1709476,1.0670034,-0.24983086,-0.66170627,-2.5537615,-4.0477414,-0.80803627,-0.4079627,1.329116,-2.9428732,-2.4021714,-2.6916,-0.55830467,-0.07036843,0.18882605,1.9687413,-1.1159658,2.237909,-1.9496762,-1.3242497,-0.19765364,-0.36134708,2.397256,-0.8661419,-0.42288357,0.5234282,0.28340343,0.030502012,0.938042,-1.231007,1.2091252,-0.09569264,-1.340287,0.8687605,-1.9002804,-0.27819037,-0.82284486,-3.2973683,0.067045555,-0.5513648,-0.101699606,1.6794001,-1.7420322,-0.2618316,0.20736551,1.1207001,2.0077486,1.6064501,0.04141263,1.4399561,-0.23771381,-1.0480485,-1.3313725,3.5458548,-0.9047052,-0.65906775,2.4795046,-0.4183477,-1.3210797,1.7156891,-3.7434063,0.20735781,0.8313528,0.7044889,3.5278616,-5.2570486,0.67838746,-0.44565788,-1.8082682,3.2070224,1.675704,1.1711266,2.1093643,-2.2668166,0.44550705,-1.1156912,0.39946067,-0.8579095,-1.7467312,0.8023077,-0.09681208,1.7329633,0.73653156,0.4079606,-2.4077709,0.702164,0.6153024,0.33200973,0.5865123,-3.7880247,0.027994718,1.0622544,4.1539874,-0.47982332,-0.9229476,1.428997,-2.948065,1.089885,-2.594409,-1.7523586,3.7535856,-2.5216832,-3.6517189,-2.435463,0.79597837,-1.218188,1.7393376,-2.4091039,5.2489095,-1.7024533,0.24256298,5.840111,-0.61018175,1.1049722,-0.9607587,1.4322336,1.5604998,0.40743974,1.7343659,0.5550045,1.5136153,-1.1261214,0.8610678,-1.8697085,-3.8935723,3.7280915,1.4292744,0.90496457,-0.35423675,-1.1653216,0.3864634,0.871159,1.8922212,1.1108768,0.19171545,0.41795772,-1.5654013,-4.8204017,-0.24766076,0.17563887,1.8047097,-1.148315,-1.9914889,1.8907936,0.28724968,1.9397262,0.80039406,0.7924829,0.2953998,-2.9601953,-4.1256576,1.9658026,-5.118141,0.15015936,-1.9994875,2.333817,-1.1985149,-1.5467094,1.7541509,0.38593772,1.5111737,-0.93172914,0.1321705,-0.28418607,-0.037554663,3.7076898,-1.0150381,1.4805393,0.7235606,0.82319844,1.1755478,-0.05647591,-0.47888264,2.4429657,-0.8612971,-5.004766,-0.29736543,0.2063616,1.6446749,3.7198849,-3.3652158,-1.8620898,0.75490874,0.4328346,0.80568755,-0.5483742,0.6414024,6.2657337,-0.28101107,-0.78988534,0.82760745,-1.5990056,-0.53348833,-0.55001664,-0.9460788,-0.52689093,-4.039514,2.548919,-0.30717933,1.8151593,0.08027405,-0.9147696,0.6553356,0.7274381,-0.77979505,-0.83243793,0.87833726,3.6271586,0.19264454,-0.9443175,1.2330077,0.6557637,0.68844837,0.28385636,0.0049969056,1.1417538,-4.9494667,4.606475,0.47920316,-0.61386806,-1.5996176,2.5997155,-2.2093825,1.4461985,-2.5094295,0.21134336,-2.116783,0.26189718,0.0014925674,1.6036264,-2.0960753,0.6610221,2.1228065,1.96481,0.9553457,-2.2897124,-2.1249042,1.745053,1.3337607,-3.2720323,2.5945666,1.6421177,-0.3869079,-0.35940322,2.7427902,1.4156616,-0.64133,0.5473457,1.5218012,-2.1195936,1.7777928,-0.6022872,-1.4326155,1.9408256,0.19049515,0.30317473,1.2759452,0.123239145,-0.50060254,1.9946893,-5.6451488,-3.914676,1.6985039,0.36233827,2.5032299,-2.8852756,0.6987946,-2.505692,-0.7561226,-0.90710175,-0.7588363,0.19449337,-0.52863246,0.3744986,-0.21702844,0.48531088,-2.1882563,-1.0438849,2.5708134,-0.18441729,-2.096232,-0.45283943,-0.2515669,0.69477546,1.0431684,-1.6507789,0.7790926,0.576831,-1.0285041,-0.12035226,0.6249008,-0.8239049,2.6487541,-3.2080739,1.5072355,-3.7142293,-1.5013963,0.34403718,-0.052426115,-0.37115204,2.1005063,-0.5938772,-0.1496967,-0.15951888,-0.032377347,3.0221953,-1.5024225,-1.7982504,0.16439421,4.796348,-0.39971015,-0.63964397,-0.38933614,1.1601082,1.2022735,-0.74992496,-2.974229,1.6344776,1.4425002,0.717727,2.6470752,-3.7680624,2.1759148,0.9126683,-1.511774,-3.9440114,1.2228023,1.6000332,1.3158128,0.4378741,1.1548866,-2.0992813,0.56401694,-0.91480196,0.69337726,-0.0039107855,1.0986289,-0.55061805,0.8332537,1.5499451,-1.0494046,0.2728719,-0.27875564,0.5829902,-0.14948662,-3.699797,1.7661221,-1.6203451,-2.0184274,1.4630834,1.9745543,1.5611472,-0.24916518,1.9040055,-0.75000423,-0.10466188,-2.2562964,1.988775,-1.1002024,2.4453917,1.4659001,0.2683864,0.82650876,0.5439956,-3.4517653,0.37623483,1.7208443,-5.0082493,2.3950791,1.135767,0.6852237,-0.3709206,-0.91921365,2.226273,-0.44069165,1.5117145,-2.032972,-0.011623683,1.1027304,0.645604,1.2483374,-0.63337773,-2.6039135,-0.4214964,0.6160998,0.15466581,0.32533586,1.4938285,-5.3714423,-1.6609945,0.37843877,1.8561769,0.06585051,0.12892048,1.7302222,0.3476543,-2.1331148,-1.2037852,0.56909555,0.6816651,2.5054345,0.51927996,2.7458832,1.3298899,-3.0551116,0.36385173,0.6495832,-0.8463051,-0.6781216,0.04709924,0.03704901,0.8351438,0.5513565,0.16465999,0.3815973,1.676879,0.84855086,0.30170628,-1.7048409,0.35479861,1.9999857,-5.0672064,1.4535669,-0.53593045,-1.4898039,0.30438152,2.8083932,0.07340515,0.42542776,-2.2155528,0.45408475,1.0353014,0.753076,0.7650169,-0.5479278,-3.7770581,3.6903398,0.40206608,2.2406738,-0.12337393,-0.10961966,0.9198776,1.4554224,-2.412386,-3.3196783,2.0385647,1.5876486,0.46425408,0.80933505,-3.14306,1.0979221,1.5841326,0.52605134,-3.0474286,0.7323107,0.7438575,1.4522158,0.58055246,1.1727345,-0.9558797,0.84424675,-0.71449834,3.5704744,-0.37011984,0.5478925,-2.368345,0.39435622,1.7272221,1.9912208,1.0864521,-0.16546318,-0.49890104,0.70881027,-2.4512453,1.4265478,0.50479305,-4.0845437,-1.0066411,0.8234696,-1.171869,3.0929334,-0.6141396,3.3818872,1.4607304,-0.869696,1.3885567,4.059196,-1.2875073,1.3357801,-0.13922733,1.006794,-0.29945296,-2.096311,0.6232166,1.4106796,2.5078967,-0.48029763,-0.15644185,2.296554,-0.34480804,0.44883063,-0.58676386,1.3959546,-0.4790883,1.2016025,2.663125,-0.33753955,0.53756404,1.6295528,-0.5949247,1.6694384,1.5296665,-0.75649637,1.240741,0.37427846,-0.9964413,-2.4943523,-3.4571848,-0.4724509,-1.6910475,-0.6382698,0.4684319,1.2408881,1.7604911,3.5875375,1.7901942,1.2925875,1.2821219,-1.5768365,1.002773,-1.7023469,0.28443483,3.4250484,0.31280836,-0.37771407,-0.50440794,4.3089576,1.6122485,0.16727987,1.7888374,-1.99185,-2.7648199,-0.11641869,1.623859,-2.2249272,1.9987406,-0.5238519,0.44266173,-1.2664309,2.9220195,-0.22024176,-1.2502723,1.914487,1.2759517,-2.176041,0.05927092,0.063832596,0.5697463,-0.18791458,3.1748931,0.684924,-1.2594041,-0.03547459,1.0164695,-2.7090416,-0.2350173,-1.9614314,-1.1115453,1.4491457,0.20470898,0.23539238,1.0557079,0.38328147,-0.39507344,1.1113645,-2.7822707,1.2160498,2.781618,-0.5602246,-0.14963731,-1.0241792,-0.89108217,2.1860123,-0.15294352,2.9888585,1.1998587,1.472953,2.3568964,-0.10379068,0.031566836,-1.2043614,-0.5529278,0.25379902,3.473337,0.40125442,1.9398742,-0.0062550395,0.64640546,0.98817044,0.7722656,4.6983986,-1.4073606,1.3583325,-1.2404187,-1.3313125,1.3046436,-1.1641004,1.9730983,-2.2997959,0.6798396,-2.11231,0.12680171,0.24314748,0.58673555,-0.8178499,-0.021459533,2.0734067,1.9968265,1.5643811,-1.9283532,-4.2534394,1.6796517,1.9054369,-5.249223,1.9214947,2.0730534,0.16885112,0.48671833,2.247462,1.0006944,0.023987275,1.225791,0.84313357,-2.654147,1.3540968,-0.77832365,-1.6895221,1.1666199,0.07337521,0.82073617,1.2334217,-0.20072936,0.14895105,2.1044197,-5.5168996,-4.9560847,1.7857778,0.5843191,1.902145,-1.7867231,0.36399788,-2.302159,-0.9025475,-1.1887851,-0.33029592,-0.06736303,-0.47132894,1.1132886,-0.23901534,0.28276727,-2.3291302,-1.5166547,2.6276276,-0.044788864,-1.1380309,0.71850514,-0.40489376,1.4796699,0.7687914,-2.6611602,1.0639529,1.3018817,-0.948206,0.89875084,1.0960495,-0.3595086,2.5764859,-5.632741,0.31829342,-4.50728,-0.58680147,0.7051866,-0.14172117,-0.8300276,1.6676178,-0.93192357,-0.30803442,1.0865229,1.0797794,2.1705022,-0.13490267,-3.6074488,0.11225687,5.0661283,-0.1757508,-1.2209396,-0.6442008,1.4029872,1.545963,-1.0057367,-3.5628905,0.12312911,1.5537921,0.5085572,3.8862224,-6.2083235,2.0460556,1.1947986,-1.5036633,-2.8953297,1.6262616,1.000264,2.5987198,1.3141669,1.4642308,-1.1285977,0.4794061,-1.3888445,0.72855717,0.8023805,0.88877195,1.5075787,1.3593124,1.37608,-0.78529733,1.2007011,-0.53831327,0.94843566,0.43557423,-3.1205864,2.0327196,-3.6769388,-3.1188545,-0.10846857,-0.36103523,0.43723258,-0.20241503,-1.304848,1.0395525,0.15828301,-0.6399464,1.4799589,0.30637988,1.1947031,-0.25347313,1.3589619,1.1712807,-0.79930276,-5.2889185,0.55459684,1.3349187,-2.6496525,1.191157,-1.5436251,4.2621446,0.9252604,0.1640763,0.39611596,-2.5468931,0.67418724,-1.4594754,-0.78321093,-3.2955816,1.1272807,5.0623574,-1.2875392,0.18306613,1.1824411,-0.15196586,-0.38167244,1.0926555,-0.06058357,1.5748509,-2.1481867,0.0894988,0.84031963,-0.41730496,0.5293236,2.1633627,-0.53060704,0.6807792,-0.18311696,1.3981396,0.44936198,0.21584857,1.2255762,-1.3483387,0.76173896,-3.5709832,-0.26621228,0.022472102,0.068754606,0.93760324,1.2728578,0.12601598,0.58719677,0.18821427,0.80732274,0.43562037,1.0225068,-0.24547139,1.0180837,-1.987252,2.1247287,0.3603413,-5.427906,1.2123057,3.3565824,0.7011232,0.92197615,-0.74499315,-0.887868,0.25719306,-0.80918354,2.386254,1.2854017,1.0713907,-0.2784861,2.2373874,-5.4623013,0.2424842,-0.12780088,0.9295053,-1.0553312,0.28653085,1.1630809,0.5644825,-3.0675535,-7.8416877,1.6802338,2.6553774,-0.031360358,0.9170438,-3.4561257,0.2562476,0.7475787,0.6529003,2.9313166,0.69810027,0.6475927,1.558834,1.1454353,1.640745,0.72920865,0.5648336,-0.9275283,-0.23008524,0.52796584,0.27305734,1.8360711,1.0398481,1.3030437,-0.491599,1.4573216,-0.3706281,0.6779712,2.7969906,-8.12458,1.5491905,1.9911109,1.7312499,-1.6300317,-0.6164325,-3.9460676,-0.8849025,1.3299867,2.0014124,0.3002569,1.8960782,-1.2137545,-2.510971,0.41131422,-2.2191133,-0.59770304,0.35095572,0.2624016,3.2994223,-1.0902541,0.57918507,7.568286,0.78734046,2.0946102,-0.04083021,0.6975931,-1.5202065,1.0078473,-2.0294228,0.10609904,-0.92965543,1.5197991,-0.93025535,1.0799748,0.40145394,-2.6326082,0.30303657,-0.2410847,-1.6988075,0.48734662,-0.32701227,-0.21691567,5.304961,2.4148204,-0.9328675,1.0167204,-2.1909976,-0.61040837,0.4784282,1.0389113,2.357862,1.5179508,1.5577244,-2.333209,1.5947483,-0.5612355,0.63422,1.4402549,-2.1023777,2.161575,-2.4612834,0.52170116,-1.6643602,0.0050685275,0.8681149,2.7913876,-2.351115,2.9251497,0.57809997,3.6646147,1.7664255,0.37666506,-0.03342542,0.9938431,2.6361704,5.7682323,1.3529185,2.8675685,0.10172944,-0.037407666,1.2676594,1.238533,-1.1869648,0.27748632,0.34204492,-1.9237635,-0.4372602,-2.1227274,0.39588007,2.6370087,-2.0585263,-4.244535,1.6492378,-0.67977256,1.2821846,0.4825858,1.2539877,2.4495316,0.5515503,2.8110852,-0.34761778,-2.231828,-3.370733,5.4054594,-0.49533594,1.8057742,1.2685142,-0.5275994,-0.97261804,0.101384155,0.07310596,-0.6028347,0.7312974,0.9646301,-0.82427543,2.796854,-0.1705588,2.3450615,1.7476277,-0.26216313,0.014081231,0.9647734,0.70887834,0.5689588,2.122088,-0.49692383,-2.582836,1.830217,0.05836249,-3.041708,-2.567981,0.6237481,0.2794087,1.448919,0.8722986,0.7502293,2.148599,0.03053273,-3.240552,2.6041114,-0.39726183,0.9173415,1.7141428,-0.8563645,0.7309044,1.2705661,-4.3018374,-1.1483649,0.7476867,-6.6767735,0.4400951,-1.4425813,0.5454593,0.32605776,-1.2256631,0.7506811,0.5605241,0.76242787,-2.306593,2.3091671,-1.1126958,0.7320391,5.770945,0.7249963,-0.53009146,-0.6361869,-0.44633126,1.0096005,1.9812537,0.29293332,-4.1378355,0.38031656,-0.30875352,0.13457844,-1.04154,1.6907252,0.08063673,0.81000704,-0.47216424,-1.2015265,1.7420651,1.5602384,2.1312907,0.99372077,1.7038264,-0.092234366,-5.7693973,1.7131405,-0.9372498,-0.36018226,1.6625206,0.90331733,0.4210417,0.15048093,0.40792376,0.6719973,0.22698762,0.028383953,0.10285314,0.89586836,-2.734077,-0.2311737,-0.4344774,-6.1406045,-0.32901484,3.8239045,-1.0405122,0.7074041,1.6076028,0.8561376,-0.90063035,0.47610402,3.1895192,0.004684613,1.4556937,-0.80308175,1.0325043,-4.321881,2.8294737,-1.6649134,-0.14368448,2.1477382,0.4113546,0.05102934,0.042638786,-6.1677356,-6.190124,0.3442641,1.0285853,0.5460761,-0.19706814,-2.297461,-0.18225206,0.3707435,-0.058100272,7.4317436,0.6901639,-0.4509386,0.09144002,-1.9241565,-0.23343955,-0.47068316,1.815937,-1.2280402,1.227639,-0.6235187,-0.73430854,-2.2769747,0.49886307,0.4415998,0.08691298,1.7637148,0.014387896,-1.3136357,2.6760445,-2.0047312,0.40346655,-3.6515048,1.6830068,2.2277653,-2.527437,1.8741503,0.72610986,-2.2235553,-0.34078175,-2.7772205,0.8361332,1.2109381,0.9101296,-1.0966935,1.6451162,-0.056189276,1.1172624,-1.1877168,0.66476655,-1.7248943,-0.71893626,1.3816345,-0.43203852,-2.5708349,-1.7456867,1.4360242,0.8711716,-0.3918874,0.2791332,-0.3599788,0.6984406,1.4751322,-3.72056,0.7100808,-2.8904088,2.9014094,1.4940529,3.537589,-0.3026511,-3.12112,-0.14384647,-0.5586131,2.7440228,0.7301577,-0.2432507,1.297856,-0.64605516,-2.0187879,-1.9282163,1.6236198,-1.0567358,-3.6314971,-2.5913455,4.376199,0.66530144,3.5060294,-0.6915965,-0.1777182,1.6431725,-4.2333007,-2.1196094,1.0809708,-3.667061,-0.50322884,-3.765844,-2.1116054,-0.46166024,-2.038932,1.6449199,-2.0172102,0.7749918,-1.7944971,-0.18035871,1.2715218,-3.3845904,0.18801302,0.8657108,0.85557044,3.134789,0.8631678,0.35554773,-3.4562817,-1.3954058,3.549651,0.47072747,-3.8046296,-0.64140797,0.31941417,1.7487023,1.3576523,-0.21459682,3.4256437,1.2550529,-0.19285004,1.0389432,-0.51885605,0.82477665,0.5910503,-3.188989,-1.9657717,3.2942278,-1.3186716,2.559112,-0.060027406,-1.7618765,-0.675314,-1.3925191,3.6499994,0.085587524,1.9127132,-3.2233381,-3.713481,0.8132364,0.19962204,-1.645476,-5.2185426,0.32259142,1.6600608,0.4511045,1.8177894,0.86928666,1.2203279,-1.4097754,0.48101085,-4.0957174,3.7277763,-2.2049437,1.435388,0.5157326,1.0129074,1.7686243,-2.9404602,3.9185443,-4.4803953,-1.3656185,3.43181,0.20377782,-2.1377482,1.8774675,-4.052525,1.0036488,0.9131593,-2.7060084,-0.39998424,0.263119,2.067237,-1.9097434,-1.8667967,0.269713,-0.4938935,1.2571362,3.497026,3.2696137,0.28126046,-0.47448888,0.86924034,-1.8464626,0.8039347,-2.4229434,-1.3627179,-4.000605,-0.7275854,0.10991147,-4.9615707,-0.96143854,1.4946346,0.8532478,-2.424756,0.8755992,0.9062548,3.7546961,2.98548,0.81685317,1.0617675,-2.534957,3.9323742,2.768668,1.3128972,-0.06940502,-0.8910481,-1.8911963,-5.6297894,1.6263895,-0.51412964,1.7378318,1.412051,-0.584228,-2.966751,-2.5111554,1.3159009,0.98319036,-0.165341,-1.3555697,0.23504972,-1.966206,-0.33283186,-0.11331268,-0.052894283,1.9339851,-1.3939749,2.8438632,1.7935683,2.3320873,0.5729718,-0.8531805,0.7476422,2.5456882,-1.1299464,1.6702588,0.7815819,-0.29747048,-0.23470949,-1.9499501,-2.9354107,0.12059201,-3.1276422,1.3378752,-1.4697696,0.9576185,-2.617606,1.8431976,-1.3267899,-2.240303,0.8354362,2.7483773,0.76529783,3.9562368,-1.2014494,0.87643677,-1.6826334,-1.5964285,1.8119789,-1.8161341,0.8248246,-0.72124326,-4.209947,-1.9193226,0.10197262,-0.81001997,3.2186346,0.875135,2.9962778,-1.002163,1.1990325,1.3581109,-0.14833355,-0.019232158,0.48076278,0.05557399,-0.43650177,2.1880643,0.4524485,-0.6033518,1.7712759,-1.1298757,-2.404338,0.50742525,-6.4748616,-5.0558214,-0.48506156,1.1228456,-0.39431632,4.177867,1.858277,3.1738248,0.623406,-1.038774,1.5756811,3.0037272,0.6363415,2.7651224,-0.18085887,0.7926565,3.5075984,-9.013495,-0.8840902,1.0883679,-9.487769,0.24884613,-0.29450193,1.6270541,1.2919916,-0.49165145,0.34421375,-1.5791658,0.835685,0.18735194,3.6140237,-5.882835,1.3845692,4.151313,1.1183348,1.6870971,1.8272436,-0.32785302,0.47588107,1.6360441,-0.7644078,2.0385437,-1.9549037,-0.12098247,-0.069038354,-1.681909,4.7435513,-0.2545836,4.124747,2.364103,0.13775921,0.6692771,3.2479413,1.3736833,2.213541,-0.04177232,-0.6322241,0.25869137,0.38846958,-1.4910744,0.90372646,4.0578575,2.124682,-0.051787566,0.20567706,-1.0238165,-0.99485,0.22213975,-0.21021627,0.20939967,1.2337613,-0.33915296,1.5504234,-1.0576453,0.760719,-0.7134174,3.2730954,2.1979291,1.6737337,0.9003312,0.22039407,-0.44133976,0.8088181,0.8572337,0.87172014,1.186009,-1.1629524,2.245829,-1.8989557,0.7822086,1.1551226,0.050055355,1.0144881,1.214019,1.0805422,0.67592317,-7.6408834,-3.1767702,-2.0752509,1.2996676,-1.2260461,2.554373,2.6490653,-1.727592,0.32602546,0.08639967,-3.475943,2.09523,0.08686047,0.3021687,-1.0287073,1.1543772,1.1748034,0.5005878,-3.5832293,-0.3276124,-0.25751036,-0.7061537,2.097288,0.91577095,1.1015013,0.3861108,1.7918646,0.065704845,1.2900629,4.1635523,-0.7997235,1.2350019,-6.1331396,-1.896373,-0.79073155,3.928429,-0.23874107,4.457494,2.4624789,2.2557282,-0.18010734,0.57395726,1.6690834,0.19166708,0.233862,1.90418,-0.12119882,2.5894244,3.3622425,-6.5085506,-1.4952118,1.3897576,-6.2556744,0.29945844,-0.36477676,2.2558722,1.2970235,-0.2982503,0.6735851,-1.4727349,2.1894982,0.088500716,4.044024,-5.666262,1.381811,1.3588535,0.6270439,1.8455449,1.9793025,-0.73488265,-0.056959625,2.0182288,-0.95473963,-0.235986,0.6136134,0.5418954,1.5394137,-1.6826695,3.6747,1.4736674,4.886771,2.8530736,-1.3132573,-0.33365136,2.8470495,1.868651,2.4946425,1.1626955,0.6741158,-3.9548323,-1.0078995,-2.0683603,3.1314154,1.8215901,1.062254,-0.9472576,-0.8001873,-1.3547279,-1.666093,1.5508076,-0.44766417,2.5530486,0.122207984,-0.34558704,2.52689,-1.5016483,-1.8323373,-0.90384257,1.6440686,2.5191288,1.4679569,2.2884104,-0.2619047,-0.7633498,2.1297073,-0.73501617,-0.6464774,1.0196948,-1.4922326,2.7313726,-3.011957,2.2690222,-0.93213767,1.3420506,1.8276458,0.27485323,1.2457154,1.5098099,-5.7166696,-2.2832017,-2.482925,1.5303655,-1.709432,1.4364767,2.4176962,-1.8391265,0.06752892,-0.08412186,-2.8739777,1.2072165,0.3690442,-0.36802152,-0.25975105,1.5771736,2.5935187,0.37198067,-3.1888838,1.1948261,0.8058629,-0.7749769,0.06662592,1.9149561,0.96972024,2.35108,1.2821201,-1.1466264,0.8604475,2.8229003,0.7492442,1.9050354,0.06441231,-0.7506715,1.123844,-0.5250797,1.8292044,-3.7711651,1.1983498,-2.079586,0.08818313,-0.40362048,-0.06712553,-1.6316072,0.5724062,2.5171905,1.5708812,0.81978726,-2.1811895,-2.8903916,1.7294286,1.3979024,-5.3905196,1.805608,2.3645377,-0.9887891,0.069158666,2.258032,0.7165839,0.7601172,0.9628061,1.2632014,-2.237792,2.6354027,-1.0396835,-2.2289433,2.3624377,0.573788,-0.09290363,1.4812765,-0.3014841,-0.13662817,2.5149724,-5.9462857,-2.719278,2.1524935,0.6403477,2.0151346,-2.9365146,0.44576645,-3.2160594,-1.5263152,-0.8177157,-0.513039,-0.896284,-0.18931402,-0.13923195,1.1679165,0.4303922,-2.3828986,-0.9965255,2.2445335,-0.50080234,-1.5731491,-0.025668574,-0.03589529,0.97968006,1.2922127,-2.6137931,0.38393545,1.3772697,-0.49999657,0.103162296,2.0472949,-0.61415195,2.7296617,-4.8380423,0.121197626,-4.414082,-1.5577852,0.0409202,0.6541332,-0.013463801,1.8622552,-0.27850366,-0.5573604,0.373494,0.7351818,2.4765477,-1.0951505,-2.1882315,-0.38626462,4.557229,0.17859648,-0.5689451,-0.79046863,1.1859415,1.3517997,0.3405983,-0.88375366,0.45475215,0.5963124,1.270453,2.2003174,-5.123843,2.342845,0.9872082,-1.8008282,-3.2309365,1.3804309,0.78890085,2.3576047,2.231906,0.5586614,-1.6391816,0.8919805,-0.059464995,1.2269756,0.050578386,0.66095793,1.1224246,0.72472495,0.6198399,-0.23226792,0.9320374,-0.058629192,0.466395,-0.90950626,-2.9618897,1.475953,-1.3058385,2.3964886E-4,1.0454829,-3.1419568,4.1049848,2.2016997,-3.3973737,1.3256052,2.317485,-1.2332255,2.5798745,1.5993905,-0.46147326,4.305007,-0.25697368,0.50436765,0.19968116,-0.23531327,0.9312831,0.33667573,-0.65044844,-0.10356983,-3.9666922,-2.0914683,0.6062236,-0.023568867,-0.7177415,1.9304634,-0.36601165,0.5807392,2.6054082,0.72140867,1.2640533,0.6263261,4.285979,0.49851632,0.018432735,-0.26046363,2.5579276,0.75447094,-0.71318525,-3.0694194,-1.9119004,-0.80513734,-0.46893,1.9373163,-0.40208408,-1.9406433,0.60950565,-0.37158743,0.85188824,1.6179752,5.8389907,-0.8537113,1.7899362,-1.5469662,-1.4427634,1.6352296,1.3615711,1.3289975,-0.47671643,1.1661992,1.067208,1.2798626,-0.056016956,1.320432,0.75991374,1.3163967,-0.79811484,-1.728339,1.6110352,-3.0548456,-1.8598027,-2.6439047,-0.242143,0.01270659,-1.9239293,-0.37324286,2.6246326,-1.1853735,0.492701,-0.031501558,1.0059772,3.146355,1.0195388,0.26784682,2.018716,0.9430488,0.71036303,1.0683988,0.3930475,-2.266447,1.4671954,2.691291,-0.015998296,-2.1927938,-0.8664194,-1.540811,-0.109252095,0.38712463,0.7885593,3.292466,-1.2441838,0.70680493,0.064682096,1.124589,4.8370166,2.7483873,0.48276773,0.4767779,-1.9510819,0.49523386,-0.8255153,0.98316616,-1.2689501,-1.3491433,0.49176946,-0.4627815,1.7418209,1.0255508,1.2113998,-2.002107,0.84086925,1.4694812,-0.61786103,2.4443045,1.8950826,0.15751807,1.8117532,2.724223,0.735999,-0.53311485,0.8756044,1.646889,-1.2573633,-1.7492287,0.8756185,1.3927687,0.48244372,0.79674524,0.759124,0.33359838,-0.14597312,1.9178435,-0.02854823,3.1701295,1.4060521,1.1657838,0.029401312,-0.7056665,-0.9061799,-2.6432571,0.49023548,-0.6002291,-0.5357406,2.308685,1.5531528,0.4543652,0.59520376,3.1096442,-0.6954655,-3.8275344,0.23772985,-2.134385,-3.8866396,0.5249419,0.33328572,0.62825894,1.1741803,-3.874163,-0.04028884,1.5298667,-0.8191939,1.9763789,-1.3104725,0.2577076,1.0701977,-1.0109564,-0.28585827,0.1565668,0.9553805,1.2836466,-3.5790436,2.3345559,0.30075294,2.2974005,0.7170533,0.83778805,1.8881515,-0.81267184,0.5039971,0.51526886,1.2214774,1.5480679,-9.0978714E-4,0.78306377,-0.59868616,-0.04693327,-0.52998394,0.73142993,-1.7954731,-1.1827477,0.7309805,0.1363039,-4.168839,-4.854366,0.5912986,1.2201217,1.409077,1.3481647,-2.6392522,-2.1914675,0.64446425,0.24660593,2.4612963,-0.05207395,2.5740106,-0.19029243,-1.207793,-0.61884284,1.2364026,-0.4705168,-0.3011952,-1.1189615,4.231025,2.2138178,0.9702131,-3.9278886,0.8080093,-1.2018343,-1.0484552,1.568557,-0.9814904,-1.0225013,-5.7774224,-0.14150143,-1.161812,0.915597,0.5732935,-0.6300859,-2.8194635,1.5072266,1.1249173,1.4515533,1.7041475,0.36081967,-3.0190372,1.2321485,0.14249216,-0.5594097,-0.023540633,0.98100513,-3.7813087,-0.78924227,3.7817206,0.9659611,3.1444988,0.6596247,-1.7628356,-0.9758726,0.6006775,-0.10662195,1.482797,2.3804564,0.49129453,0.021301433,-1.8283957,0.70957077,1.1091206,-0.04380298,-1.5970956,-0.34339622,2.7266831,0.23223741,-0.3005655,-1.2005125,-0.8541352,-2.0697105,-0.25491932,-2.5870621,-0.07073256,-0.81977856,-1.6053622,3.2930772,0.5241081,1.4958038,1.8273621,1.0598425,0.27977812,-0.47201446,-1.3857338,0.014244355,-2.430799,0.39110646,0.41416913,0.9205827,-0.88926625,2.089657,0.82911813,-0.5766314,0.10608331,-0.307839,2.7287047,-2.8740993,1.4257319,1.4233332,-0.6753075,-0.7250538,-0.05677547,3.5870836,-1.726141,2.378149,-1.7542963,-0.66597825,-0.40091667,-0.6480535,1.64166,2.6163564,-0.81424755,0.39638844,-1.2707753,0.012381151,-1.0215496,-1.0327184,-2.3845148,2.6767428,-1.206158,-0.4396949,1.3274282,-2.3199365,1.204925,-3.7878373,-1.1969795,-1.7348605,-0.9905932,3.5805957,2.190344,-0.08218982,0.34034806,-3.4959946,-1.7117443,-0.55314213,-0.7821196,-0.13345623,0.8817166,1.2618093,-2.2713253,2.1471465,1.734069,-1.0039364,-0.6751778,-0.51489383,0.590837,1.8842815,-4.96072,-3.1290188,0.26888394,-3.1696668,3.7572758,-0.2984017,-1.8424087,0.1272943,-3.518211,-1.2580326,-2.2488265,-0.04265179,-2.6439621,-2.1482935,-1.0737647,0.3954746,1.5875615,1.3163188,-0.5036235,-2.136734,-2.0208576,-0.7290172,-2.701688,-0.48200545,-0.25332156,1.6145928,-2.8345597,-0.9064978,4.3769965,-1.3609477,1.2333918,3.111796,1.0894662,-2.1669297,-3.142887,0.45364147,-0.56799644,-1.548932,0.45946208,2.3182354,1.6958499,-2.1899686,-0.8147126,-2.07496,0.8804003,0.4582008,-5.000028,5.6441207,0.0068129394,0.78953356,10.664657,0.2811054,1.2707909,-1.4882293,-0.50744456,-0.15120108,0.555481,-2.8562946,0.2168168,-1.3309606,-0.2494777,0.8189664,-1.2542477,-0.8958369,-0.7244957,-1.2691731,-1.0201172,-0.46038693,-0.034193844,-1.8364507,0.17516989,1.0574654,0.45618364,-0.7748013,0.98493093,-0.032257188,-6.2416806,0.014324322,-2.2241232,1.3825397,2.2286797,1.1214967,0.18281245,-0.9696098,-0.5779915,-0.36369058,1.1924398,2.0938458,1.0340855,-1.4231386,0.28245434,-4.7483497,-0.74543846,0.91740835,3.7153864,-1.518602,2.7132082,1.0603459,3.4718366,1.4011824,0.7872679,-0.8784568,-0.30718777,2.3066654,5.6900635,1.984042,1.6869109,-1.5221611,0.24618839,0.32527444,-0.09532112,-0.3647769,-1.3018943,1.5298234,-1.8823626,-0.8584986,0.20900507,-1.033073,4.196197,-3.7050748,-1.6747452,1.3163798,-1.5626452,2.692108,0.17501245,-0.22267297,5.5522294,0.095469676,3.6257224,0.077207476,-1.9447078,-2.7003393,1.7324252,0.176952,1.7955803,-0.13800779,0.10752729,-0.38828516,1.8331002,0.63016874,-0.7015218,1.2155526,-0.8016546,-0.75475895,2.072668,-0.17215124,3.528394,1.8821523,-0.14773071,0.38549995,1.5865114,-0.10429574,-0.8645303,1.2335805,-0.5970929,-3.4815698,-2.0052755,0.09944537,