0.010821499,-0.0022772176,-0.013429981,-0.020299824,-0.024709797,-0.025169652,-0.019632194,0.01583461,0.006096135,-0.018974582,0.016240068,-0.0043585524,0.33799663,0.21645956,-0.24309303,-0.26653644,0.02509624,0.013213802,-0.0067437296,-0.019858643,0.014567172,-0.020233251,-0.019589411,-0.0029650333,0.0106211025,3.62583E-8,0.020368425,-0.024977643,-0.017623682,0.021474926,-0.017173486,0.024825918,0.31446862,0.36750478,0.46038365,0.639488,0.93447924,1.0744067,1.1916031,1.4053929,2.0525239,2.6692886,1.0802456,0.50587624,0.46510202,0.9655573,1.3096169,1.5958004,0.9699746,0.10711499,0.094678156,0.5091701,-0.0059282687,-0.008874088,-0.015413998,0.017054005,-0.020645538,0.014916724,0.32641146,0.7040583,0.6991744,0.71603656,1.4479382,1.8258567,1.9070799,2.7471871,2.7453337,0.8256873,-0.024983067,0.1349764,0.11556278,-0.42242983,0.17980288,1.5218669,2.5072174,2.0082443,2.0038798,1.79986,1.1132061,1.4724011,1.5439733,0.8991134,-0.019265644,0.006981857,0.014616991,0.017563311,0.5945683,0.9482794,2.158039,0.22747135,0.40603817,0.9178579,0.45228177,0.5868694,-0.010030227,-0.2026719,-0.6051273,0.43459296,0.85624826,1.101214,0.5198236,-0.094330244,1.0079324,2.8171532,2.5515463,3.1447594,1.7219064,2.4149365,3.0903375,1.9040827,1.7886602,-0.021824436,0.008989896,-0.22409905,-0.32362947,-0.2687613,0.46312162,-1.2531912,-0.13721313,0.16182551,0.25409016,0.2890755,-0.069195785,-0.48169756,-0.8588535,-0.31349462,-0.086332776,0.16253476,0.49281242,1.0434617,1.211661,1.2856292,2.315369,2.650014,2.6082594,3.0082018,1.5624934,2.5931337,-0.8399783,-0.016001234,-0.0247408,0.009284353,0.6105063,-0.23940593,-1.3898699,-2.228132,-1.5480802,-0.35154983,-0.49072248,-0.16663606,-0.3331513,-0.46068737,-0.35424426,0.38314623,-0.057656165,-0.24730554,0.55223405,1.558674,2.0911305,1.9227667,1.7523972,2.3739696,1.7288266,1.3665671,1.8223077,0.915552,-0.70704323,-0.10527741,-0.00516878,-0.016850494,-0.51079476,-0.6808859,-0.5015522,-1.1271708,-1.7019165,-0.6503682,-0.78907835,-0.11285036,0.27059776,0.3181308,0.91190046,0.7484498,0.61188656,0.7670351,0.6652428,1.3453399,1.687969,1.200136,0.90405816,1.5042473,2.6440942,2.0574977,3.0386753,2.7569416,1.2562888,0.6792386,0.00551149,0.03977571,-0.29514745,-0.41413048,-0.8831467,-0.7622458,-0.79818356,-0.25662038,0.36873955,-0.25503916,0.30082667,1.0753306,0.93947226,0.8291482,1.3818684,1.5939559,1.3373556,1.3206723,1.6007948,1.0661836,0.30111256,0.590034,1.1486402,1.7128834,2.4846385,3.33247,0.6590281,1.5746776,1.0540065,0.18168375,-1.0974376,-0.6732018,-0.32617843,-0.42444667,0.4023859,-0.064138606,0.6076649,0.0762479,0.07845296,0.6519661,0.77675605,0.5757205,0.8917488,0.4230238,1.1317968,0.5636211,0.6626936,0.46175268,0.40444088,0.2893186,0.099152505,1.3287622,1.6328454,2.594555,1.3419896,0.6988125,1.190955,0.2738653,-0.40868124,-0.24976452,0.0071063763,0.49251142,0.3272539,0.43802986,0.44048592,0.37623098,0.019053712,0.44996098,0.628835,0.7715549,0.14318366,-0.5543945,-0.60982746,-0.8779369,-0.5836453,-0.93373084,-0.5164648,-0.5854116,-0.6372538,1.6328081,2.6271942,3.605071,1.2502705,0.59963083,1.2287214,-0.11257203,-0.64379126,0.38262644,-0.31791475,0.27336192,-0.5973612,-0.64487034,-0.47707617,0.40293443,0.13583839,0.65507525,1.135932,1.4373091,-0.8100371,-2.312696,-2.2216947,-1.9199653,-1.8317798,-1.8979671,-1.2231932,-1.5405339,-0.9819173,0.76067847,2.248795,1.9087338,1.7682575,0.5461665,0.8976409,-0.7182351,-0.21055576,0.03640018,0.7917431,-0.41285235,-0.5404127,-1.264115,-1.3808187,-0.7143071,-0.44256642,0.55392927,1.3404154,0.97427183,-1.4328498,-3.2567768,-3.3304265,-2.987303,-2.2722094,-2.3719065,-3.0678563,-2.863609,-2.4757645,-1.6659495,-0.04368228,0.39081421,1.088674,0.13734226,-0.24756104,-0.074009165,-0.40557298,-0.25083667,0.0037353663,-1.175671,-0.3875206,-0.77593327,-0.67436445,-0.26292986,-0.05404766,0.63530296,0.9348861,0.53440076,-1.2711676,-2.8268445,-2.4750276,-1.553929,-1.7902931,-2.4485238,-3.0126343,-3.1280863,-3.706013,-2.8456237,-1.777913,-1.2112826,-0.5601828,-0.08167759,0.005385419,0.859129,-0.46176532,-0.2824359,-0.8988732,-1.5753517,-0.8846101,-1.0486615,-1.1530437,-0.12779483,0.8808953,0.45363337,0.42268166,-0.19880384,-1.2414635,-2.9357681,-2.4128263,-0.7613005,-0.57409924,-1.5241176,-2.530201,-2.9203315,-2.834571,-2.4496646,-1.6418656,-2.5778499,0.11815805,0.15748362,-0.002410345,-0.28809258,-0.19256228,-0.42595747,-1.7103078,-1.3305221,-0.86252904,-1.0697292,-1.2149436,-0.1588393,0.56919175,0.31892654,-0.063351616,-0.93003106,-1.9935441,-2.7262087,-1.6279222,-0.7363253,-0.7629053,-1.399851,-1.7737272,-1.9758189,-1.2463981,-1.6155902,-1.2511775,-2.9068005,1.4729009,-0.76445013,0.019653397,-0.010707514,1.4515215,0.06914972,-1.0054781,-0.04350837,-0.62205225,-0.81609887,-1.0790615,0.23292112,0.6597582,0.60867375,0.18296087,-0.9331308,-1.8699974,-2.1170561,-0.9644215,-0.36395785,-0.5181101,-1.020853,-0.8640876,-0.253815,-0.66767895,-1.1149226,0.0072251926,-0.222323,-0.52391917,1.7785655,0.013774088,-0.13364074,1.6647266,1.1371955,-1.0198576,-0.47772416,-1.2804576,-1.0998807,-1.4189619,0.46080506,1.3542045,1.7954503,1.0232153,-0.030186675,-1.5093776,-1.5298773,-0.92676336,-0.841687,-0.5058205,-0.06735034,-0.46222576,-0.23605761,0.15586789,-0.408797,0.4642177,2.255788,1.1282588,2.0101805,0.005430515,-0.2857153,1.7623737,-0.29870075,-0.40864003,-0.57459843,-0.9892327,-1.4726222,-1.088283,0.34491685,1.3446673,0.87846357,0.14504099,-0.74121004,-1.1997421,-1.3284713,-0.77622354,-0.23075137,-0.14641298,0.1400112,-0.29463333,-0.4994779,0.22678743,-0.43660757,-0.52605724,1.1998186,-0.2271996,0.38769978,-0.6953495,0.7543042,0.9737575,-1.2643932,0.11994285,-0.34107602,0.052332908,0.1516364,-0.17473167,-0.32877812,0.10239695,-0.4779184,0.03626451,-0.46662882,-0.8311148,-0.45361862,0.15578368,0.2958477,-0.1748399,-0.15572111,-0.3610531,-0.14082818,0.37330613,-0.38423544,-0.3983179,0.28324613,-0.5879679,0.92894375,-0.003152081,0.8913075,0.5639295,-1.8018657,-0.38198918,0.16365477,1.1501542,1.1712215,0.917139,0.040431492,0.3526293,1.0996733,1.5283825,0.9134968,0.9544698,1.5299673,0.8399637,0.23499736,-0.29933363,-0.39605847,0.24652353,0.31164578,1.0937204,0.26689097,-0.67627263,1.1391686,-0.35628587,0.34465423,-0.0010044037,0.45534736,1.6439675,0.27843526,1.0978231,2.304973,1.6950465,1.2848586,1.3481373,1.4643269,1.9722927,2.5850525,2.4404767,2.127083,1.7432944,1.3457824,0.5986156,0.32812545,0.07686958,0.60239655,0.49221304,0.9175595,1.9119068,1.26752,-0.46310014,0.6357132,-0.66387177,0.27555397,-0.45637482,-0.33220056,3.2391143,2.7896264,1.9237787,2.353776,1.468027,1.2936785,1.4698784,1.8365095,1.8062782,2.0344815,1.5546168,1.6640372,1.3231997,0.6364479,0.52287716,0.9016319,1.0254885,0.9680141,0.37056112,1.6991409,3.284997,1.9964132,-0.59408313,-6.560714E-4,0.4483101,0.6382032,-0.45966586,0.16952156,2.4493086,2.5799866,1.2338169,1.8502804,1.3523711,1.0534735,1.0135251,1.3651606,1.2281121,2.2701077,1.796013,1.1248589,0.5870177,0.535181,0.88480073,0.7944976,0.8953586,0.91511476,1.4997948,1.4633554,1.940438,0.75879043,-1.6174797,-1.5454179,-0.34989083,0.6280913,-0.012476165,-0.01429865,1.4824125,1.5823512,1.7672633,1.478592,1.7931553,1.27567,1.6718783,1.8621331,1.0454621,1.1184952,0.99910605,0.90513414,0.6383966,0.7398683,0.5484421,0.53115714,1.2149812,1.2567284,1.6327324,1.5624373,3.075037,2.1561408,-0.721537,-1.5934975,-1.6503125,0.0058595655,-0.02246042,-0.022534186,-0.0020220077,1.2478995,0.5817858,-0.16640715,0.6880539,0.4519544,0.33470032,0.76449627,0.37692046,0.14834248,1.1798395,1.3114301,1.4336299,1.5833192,1.8902081,1.9750772,3.1315198,1.5974332,0.9563405,0.8743567,1.1714265,0.2590027,1.8426292,1.4738812,0.9859421,0.01811446,-0.010888415,-0.008208897,0.41970152,0.37445503,-1.1674063,-1.837699,-0.34764063,-0.6249509,-0.7188956,-1.062955,-1.4045569,-0.120189875,0.42584953,1.5276922,1.4682374,2.1570914,2.3726997,3.0719032,2.1837237,0.8835473,0.3301689,0.90002155,1.1171764,0.40465185,0.14635047,1.1497262,1.4841106,-0.010540129,-0.0032073115,-0.011554622,-0.016637778,-0.007269318,-0.8297837,-1.2241111,-1.6042095,-1.2927136,-0.88407964,-2.1550634,-1.3914988,0.8175023,0.93888223,0.59116316,-0.5867853,-1.0692252,0.40828475,-0.60850906,-2.6149244,-1.3948038,0.8205789,1.3987536,1.3948376,-0.05037664,-0.28644583,0.010574088,0.008794918,-0.011265998,-9.2073926E-4,-0.008773033,-0.01785637,0.008086661,0.02175907,0.3633352,0.2847214,0.31029648,0.15276335,-0.09814655,0.5389255,0.390176,0.2885274,-0.1972,-0.80628806,-0.44374445,-0.014028197,-0.22693822,-0.59496975,-0.6955677,-0.402659,-0.32049835,0.17585173,0.314598,-0.024454633,0.023726955,-0.0071674637,0.0057307146,-0.0071911784,0.023919519,-8.88382E-4,-0.013155474,0.025057178,0.0044515976,0.024632,0.006985768,0.021193143,-0.020692712,-0.0047085066,-0.0064698136,0.0211538,-0.08846811,-0.3113674,-0.34291688,0.0026145019,0.009648429,0.024347436,0.0066018617,-0.024129536,-0.0015078433,0.023375934,-0.022055663,0.009832408,0.009719463,-0.015691306,0.023138039,-0.021794511,0.020033441,0.008835328,0.0051667066,0.51980376,0.24796723,-0.20308606,-0.11808221,0.33700052,0.4456209,-0.21455595,0.019330125,-0.14148973,-0.6289445,-1.0215389,-1.7315121,-2.618718,-1.8637114,0.763442,0.8177205,0.0938942,-0.9847737,-1.4914143,-1.362853,-0.009668826,0.015316349,-0.0023487774,0.007769904,-0.015915358,-0.012301726,-0.15243591,-1.5213017,-1.2731895,1.1252507,0.44596502,0.53583306,1.2391578,1.3736218,0.2771415,0.5238069,0.91748047,0.6212234,0.86468,0.41424596,-1.6667144,-0.6801174,0.6221531,2.38166,3.0011172,2.2763193,1.3368621,-0.8258736,-0.4867691,-0.34820315,-0.0184075,-0.019982282,-0.012694656,-0.01888507,-0.37117964,-1.3749936,0.22589414,0.43760017,0.83644384,0.06290037,-1.9784074,0.5831293,1.5665678,0.85958725,-0.3749841,-1.5301217,-1.5179325,-1.5042707,-2.503134,-1.0110413,1.0465629,2.5037956,1.1053854,1.9552997,2.0022805,0.0072168536,-1.3765258,-0.6970021,-0.4164115,-0.006241366,0.010043046,0.04895938,-0.8650199,-0.35570005,0.35363257,-0.74501294,-1.0175312,-0.7388539,-0.62342703,0.21644258,-0.086242154,0.77609956,0.8041216,0.45617893,-0.3393758,-1.538429,-0.55955595,-0.5761299,-1.0222664,1.0119871,1.1694018,1.235222,0.22639176,1.2415749,1.3888899,-0.42670184,0.40754586,0.0044940202,-0.0015663593,0.009865282,0.15551971,0.43248394,0.623957,-0.9464389,0.017291076,0.312229,0.794419,1.9082186,1.204278,0.8445365,-0.110995404,-1.4255617,-1.3712257,-0.96547776,-0.6598758,-0.10067885,-0.07243491,0.6034435,1.3353436,1.0509627,0.8907812,1.3643029,1.8557073,0.15377894,-0.75671023,-0.11841749,-6.931209E-4,0.007231349,0.47575602,0.07639783,0.9838171,0.7370179,0.5110009,0.9328418,1.4627498,2.0050232,-0.16430044,-0.9420827,-1.0697113,-1.8059325,-1.8107336,-1.8258365,-1.2440491,-0.44252756,-0.68128943,-0.1680879,0.12597741,-0.1929457,1.6324042,3.0091894,2.2549253,1.656893,0.50749135,-1.5132685,0.022129895,-0.42620438,0.27126423,0.47154373,-0.48125535,0.84462667,0.84980357,2.1911945,1.7698196,0.43290234,-0.7890332,-1.0118723,-1.9139196,-2.1296465,-2.0907288,-1.029824,-0.16252737,0.09804891,-0.0022879574,0.025180405,-0.45567128,0.6749252,1.4337506,2.1868615,2.4697177,1.7803454,1.21121,-2.1981912,-0.098496705,-0.7952253,0.9594639,0.414219,-0.8826978,1.7933507,1.7856514,1.5286517,1.1561375,0.6642632,-0.34617525,-1.1103952,-1.8413614,-2.5064545,-2.0908039,-1.2472156,-0.22773942,0.24071169,0.027638882,-0.37901938,0.40124443,1.6044027,1.5772004,2.1012552,3.2494578,2.7246108,1.3615656,0.31932762,-0.9024889,-2.6571047,0.37215856,-0.70913625,-0.9584227,0.8530731,1.2412075,1.1360866,0.75395155,0.534034,-0.062305637,-0.46063957,-1.8901579,-2.9341128,-2.7654443,-1.322808,-0.031161182,0.5909692,0.45276695,0.21647425,0.6111429,0.8889509,0.9805936,1.6757727,2.5198004,1.8593533,-0.057609104,-0.42186514,-0.9350468,-1.6777204,-0.21984297,-2.0529482,0.13008481,-0.5254552,0.5347252,1.2554967,1.3418461,1.6077806,0.8413089,-0.6000685,-1.5527531,-4.07241,-4.590176,-1.5333306,-1.0733399,-0.23095794,-0.7302507,-0.4338769,-0.6670452,-0.2086883,-0.57429284,0.051041152,1.7415756,1.4516047,-2.0689452,-1.4281754,-1.1459011,-1.2955177,-1.9229547,-1.9463735,-0.71089506,0.06574171,1.0168314,1.147724,1.7829144,2.4823472,1.9008029,1.0897653,0.31663364,-3.281467,-3.0598502,-1.3829588,-0.011880051,-0.5483809,-1.0535752,-1.2687104,-1.5579255,-1.3452066,-2.1459908,0.1063415,0.54490143,0.199812,0.24412872,-2.4532094,-0.3343762,-1.13972,-1.5160329,-1.4230824,-0.64803684,-0.7990223,0.9877758,1.3760378,1.8812548,2.1303458,2.1912453,2.9139187,2.0252497,-0.37515736,-1.439609,0.080924936,0.2718207,-0.028116845,-0.6991249,-1.2933034,-1.4131968,-1.1637464,-1.3262755,-0.9973567,-1.8504208,-2.464932,-1.4954067,-2.8368468,0.010092378,-0.91053027,-1.7449318,-0.23121291,0.44263786,0.32795963,1.3534501,1.6246698,1.4659632,1.6929493,2.249501,3.1707954,2.5129821,-0.1394981,-0.864065,1.0502987,0.42362332,0.58822143,-0.5626956,-0.6089942,-0.9787382,-0.3754075,-0.22621422,-1.2169292,-2.6201448,-4.0826135,-4.5784974,-2.1050084,-0.015446908,-0.6187511,-2.126581,0.61259663,0.6688657,1.5428208,1.7215658,0.9821294,0.9310853,1.0615618,1.1868881,2.3475032,1.8441472,0.052682124,0.35982853,0.26172224,0.40797555,0.95289403,0.2627973,0.51719886,-0.35059953,-1.347473,-0.8196021,-1.2275848,-1.7571114,-2.2780466,-3.1922097,-1.9952166,0.009983474,-0.010439859,1.095757,0.97985077,-0.7501555,-0.1641135,0.79268444,0.8337311,0.79049045,1.0226527,1.1674788,1.2217883,1.6873723,0.7873567,-0.024165872,-0.25885698,0.47144234,0.542831,-0.28763816,-0.5396722,-1.3557476,-1.2695543,-0.73015237,-0.44011948,-1.6772002,-1.5898777,-0.9793927,0.39240694,-0.009224276,-0.5344197,-1.576154,-1.6249924,-2.426845,-0.9383297,0.3277343,0.075759344,0.5849639,0.27956817,0.567617,0.70768714,1.2383868,1.0839922,0.41800198,0.7485541,0.2367837,0.13918826,0.19242968,-0.4510563,-0.87518656,-1.1227293,-1.1570085,-0.8400717,-2.262698,-2.9528017,-3.3332381,-1.7859327,0.0119099,-0.32807234,-2.1268883,-2.4561625,-1.4850824,-0.3135682,0.4402024,0.08322889,-0.47343484,-0.001308559,0.47999474,0.8312916,0.55133927,0.49764735,-0.080951296,-0.09901289,0.23009655,0.121731654,-0.12092401,-1.0038328,-0.6162926,-1.1215658,-1.0669799,-0.7864461,-0.120536715,-2.0075169,-2.3105042,-2.733914,-1.3359782,0.261915,-1.354013,-1.8327898,-1.8506259,-0.3506244,-0.5117577,-0.21557543,-0.8071581,-0.45536682,-0.28458467,0.41581246,0.50589913,0.04902153,-0.6312328,-0.65624785,-0.35692126,-0.8870227,-0.9731207,-1.0874091,-0.78356415,-1.1148325,-1.3347396,-0.9185785,0.5368479,-1.8987783,-2.1316984,-1.1663868,-0.010145992,0.2600549,-0.92123103,-1.4120445,-2.879445,-0.73150384,-0.75415975,-0.5877797,-0.7180288,-0.83371717,0.1008903,0.8231465,-0.1343488,-0.6425931,-0.42416275,-0.94152445,-0.9241014,-1.023959,-0.36579865,-0.854899,-0.9582013,-0.652369,-0.6262754,-0.38425782,0.31700912,-2.6251507,-2.0869653,-0.557579,-0.015731778,0.030022776,-0.3201123,-1.3206923,-3.7776852,-2.7807467,-1.8579844,-1.3711909,-1.0340875,-0.50985485,-0.5777081,-0.1870709,-0.044849284,-0.7799695,-0.6277468,-0.6018009,-0.48065144,-0.2982428,0.56615615,-0.06463358,-0.50188506,0.4989884,-0.010444531,-0.78695816,-1.6565919,-1.1756197,-1.9410932,-0.21101959,0.19510193,-0.27142158,0.1886464,-1.3294711,-2.0722506,-2.5883462,-2.620777,-1.3804755,-0.32852846,0.091356434,-0.6949659,-0.44373578,0.05441708,-0.51125747,-0.4439884,-0.08896886,-0.0370145,0.87832266,0.79895467,0.511502,0.83850354,1.1722537,0.44921222,-0.78189266,-1.1408942,-1.1032835,-1.8634566,-0.4729017,0.19991367,0.3164429,-0.29165256,-1.3072038,-0.69666743,-2.3702514,-2.3751638,-1.829266,-1.2895273,-0.7437462,-0.70556074,-0.13122497,0.35734797,-0.13271843,-0.28672445,0.12516843,0.44591,1.1726058,1.2875067,1.5389487,0.5643856,1.5400873,-0.31241497,0.21599121,-1.0862362,-0.69678706,0.95157474,-0.4972483,-0.015229389,-0.021255689,-0.11769345,-1.2674712,-0.92725205,-1.701536,-0.42682707,-0.8887929,0.1740155,-0.4486952,-0.113350734,0.058710836,0.324958,0.24707282,0.52817416,0.37584338,1.5939957,1.810217,1.7158868,1.3814901,1.3775735,1.3161622,0.61333704,0.7463351,-2.8173995,-1.0091372,0.6005165,0.024694726,0.0039734277,-0.0077563585,-0.22001249,-1.3515006,-1.362296,-0.84650517,-0.29805544,-1.1073959,-1.0813313,-0.83133173,-0.56541514,-0.41241667,-0.15195855,-0.22219618,-0.15370329,0.22968456,1.0099542,0.9301695,1.1657236,1.9095556,0.94022864,0.72592115,0.70077264,-0.8097836,-2.0520213,-0.69091827,-1.1097287,-0.021098668,0.013704186,-0.011204547,0.2734064,0.54970855,-0.8227776,-0.80040973,-1.0229846,-0.8786927,-1.8160244,-1.3682953,-1.4670037,-1.7553128,-1.9668263,-0.77920234,-0.73693055,0.2021014,0.0037516593,-0.04308602,0.7583001,-0.19409233,0.9908672,0.48506024,0.90427583,1.3391584,0.10050551,-0.2311143,-1.1439435,0.005872656,0.006548667,-0.0039269715,0.018195871,-0.023042472,-1.2006329,0.5658498,-0.37187445,-1.7284232,-2.313356,-2.8907268,-2.1962085,-1.0202316,-0.963166,-1.3898523,-1.9745618,-1.6375155,-1.2843046,-2.0102236,-2.3092341,-1.4362831,0.1236136,-0.7830836,-1.9803731,-1.7478495,-0.87331384,-0.2477851,0.0035138424,-0.0030919637,-0.024509734,0.0046492647,0.0011282355,-0.0023020278,0.020020815,-0.34231195,-2.0118003,-2.163928,-2.330047,-2.1081192,-3.2494829,-0.6821958,0.1789623,-3.2761877,-3.92089,-3.3596292,-2.6841133,-2.8622596,-1.3896691,-1.452936,0.4087126,0.01649357,-1.1084644,-1.2874328,0.013789729,-0.018802475,-0.02193058,-0.022951372,0.0054211873,0.0011851266,-0.0013074812,0.01919112,-0.0012792812,-0.01657013,0.006023656,0.0042527476,0.022070628,-0.009891836,-0.0134804,0.015334281,0.5870836,0.7403535,0.4300032,0.42085034,-0.0047268164,0.0023676122,0.004984375,-0.025234073,8.0162234E-4,4.6159132E-4,-0.014728287,0.01829493,0.022050932,0.013589292,0.0037558717,-0.022606345,0.022558903,-0.012104749,0.0010135602,0.011995227,0.7799092,1.1262987,0.7621981,0.39728782,0.37427822,0.8215596,1.5750659,1.9912195,2.768627,2.9109852,1.2902447,0.15839125,0.6222903,0.9804581,0.51635796,-0.1407873,0.49485832,0.7498195,1.0012199,0.93754613,0.00804159,-0.005194807,0.013079633,0.02418213,-0.020946046,-0.010309446,0.37160063,0.17696609,-0.029295346,0.9204514,1.2060349,0.47382152,1.1808387,2.3276658,3.7101142,2.0118723,0.9504007,0.8641124,0.17565516,-1.1340073,0.41593418,1.4785569,1.9448086,0.41418684,0.087864555,-0.014704783,-0.10005618,1.4621934,1.6501554,1.2845176,0.01566581,-0.004227393,-0.021694036,-0.013505529,0.68961877,0.4757789,2.1340444,0.39287347,0.42824396,1.868082,3.1458216,2.4107199,1.5382348,0.59553754,0.37901306,1.3149914,0.7687744,-0.17864525,0.28072694,-0.2664202,0.8584039,1.5657903,2.803601,3.2031937,3.2434108,3.9405591,3.5393586,2.6375139,1.3602546,-0.0012936005,0.017419934,-0.22178783,0.032682266,0.51094234,1.799469,-0.2966316,1.1620868,1.4581095,1.533065,2.8137634,3.1132586,1.530883,1.3795481,1.1886753,1.270451,1.8168885,1.8900828,2.440044,2.4771686,0.62870413,1.86501,1.0602907,1.6740186,1.8395946,1.8540013,3.517135,1.9616477,-0.0057303193,0.017403271,0.0210959,1.1096283,0.65378356,-0.71137804,-2.2975087,-1.1087458,0.45222047,-0.23464504,0.1580389,1.5538728,1.0351369,1.4526917,1.9493275,1.4358163,1.1056453,2.414074,2.6943493,2.5205178,1.8964622,2.03946,0.8851095,-0.20172653,-0.6005759,1.0272506,2.5527806,1.2087076,0.29554972,-0.019529166,0.26925486,0.74101657,0.23806547,-0.73094565,-0.6251364,-0.30438015,0.12681161,0.08492925,0.6397129,1.3958466,0.5023972,0.982989,1.6341106,1.4313028,1.7265733,0.92569256,0.22491597,-0.071901806,-0.06328299,-0.3730802,0.016657518,-0.75748134,-0.30380234,1.8832486,3.4520473,2.4488564,1.6860521,0.0203185,0.2196251,0.03142059,-0.73393804,0.14612117,0.5812602,0.62566453,0.2983272,1.640426,0.26731685,0.47379985,0.8172353,1.404562,1.9540015,2.162221,1.804994,0.1901442,-0.72584134,-0.69051737,-0.6636138,-1.1363587,-0.9612979,0.028649004,-0.72573984,1.3720394,1.8049598,0.9942255,2.6042132,0.7243543,0.3119537,-0.3588869,0.40634334,1.7002008,0.13641118,1.0448887,0.9346075,1.420456,0.92502254,0.90228236,0.8701009,1.0292983,0.70831424,0.4489628,-0.42643476,0.017112378,-0.9981518,-0.7255978,0.12807155,-0.87488383,-0.9957852,-0.026334044,-0.04719363,0.5178557,1.6311352,1.4922242,2.1924229,1.0251164,0.4567284,1.5395104,2.1629705,1.4429235,1.2146524,2.0509083,1.332017,1.0511055,1.4760904,0.9996054,0.44066238,-0.18874836,-1.0775224,-1.8194783,-2.208148,-0.6227945,-0.3607317,-0.15921211,-0.4887787,-0.4735764,0.06858768,0.6130418,0.74891573,1.5440041,4.7723184,2.550202,0.8438792,1.0338901,0.17100738,0.61540705,3.1540473,0.60014015,1.8782426,2.040029,0.8099878,1.0024253,1.6486255,1.4899031,1.0754222,-0.9261168,-2.0002174,-3.6748047,-3.8715494,-0.94230473,-0.17404193,0.37554288,-0.5466029,-0.11083854,0.24836317,-0.19237311,0.8756298,2.556824,3.606783,4.9694,1.4834582,0.4655133,-1.5916561,-1.9243312,2.2845285,2.1645815,1.3460648,1.1915343,0.17455518,-0.079568915,0.27595237,0.64805496,0.41493908,-1.6818801,-2.0903134,-3.6814964,-3.3016458,-1.7332051,-0.13922435,0.40324086,-0.04848806,-0.48182085,-0.15336217,0.17923316,-0.13883132,1.4547102,3.1397326,2.4055858,0.82302284,-0.35380578,-0.90807116,-1.0699676,2.0251904,1.2699779,0.26083395,-0.031069456,-0.16638611,-0.6925601,-0.19136608,0.45217797,-0.02305257,-1.3629847,-1.137973,-2.2112699,-2.5545309,-1.2084281,-0.25394407,-0.111654975,0.2117026,0.29242492,-0.20431532,-2.060702,-2.1271327,-0.3849282,-0.34378675,-0.21942732,-1.0934451,0.04835658,-0.5712991,-0.6519929,1.652064,-1.0055852,-1.2003917,-1.712732,-2.202741,-1.9381014,-0.46888024,0.68234956,-0.070029594,-0.8512856,-0.014331985,-0.61287415,-1.6161405,-1.1212196,-0.4962935,-0.057456985,-0.61997455,0.015762724,-0.4893811,-2.225103,-2.2504153,-2.0618167,-1.7277486,1.2794358,0.6013129,-0.023200143,-0.9375788,-1.2760656,-0.023516392,-2.514586,-2.9206376,-1.9182283,-2.2825985,-2.645363,-1.7566701,-1.0231181,-0.9945457,-1.0481119,0.922293,0.5721426,-0.57743114,-1.0404246,-0.7100841,-1.326321,-1.287125,-0.7807381,-0.7939661,-1.4175094,-2.1670241,-2.181243,-1.9655528,2.6254487,-0.37560907,-0.0064989366,0.010721832,-1.4278771,-0.27152178,-2.095925,-2.2050107,-2.311423,-2.7146716,-2.994504,-1.6175851,-1.2025084,-1.1213406,0.5849642,1.8733269,0.9994967,-0.37862715,-1.0121667,-0.9039698,-1.6049,-0.9711253,-0.91393626,-0.019870961,-1.0813742,-2.0327833,-0.6133566,0.47238845,1.6316943,1.0974368,0.022469271,-0.608547,0.1988781,1.7523799,-0.9122869,-1.488383,-2.9199674,-2.022955,-2.6706877,-1.2433951,-0.2906221,0.82055575,2.5984166,2.425145,0.6505258,-0.75122714,-0.9308535,-0.97095513,-0.7722013,-0.47693646,-0.4211766,0.6459879,0.26988712,-0.21847863,1.2558508,4.0173125,2.1089368,2.4338393,0.0029971018,-0.16002415,0.85130733,1.8648667,0.46906915,-0.9753809,-2.21397,-1.9139643,-0.7758699,0.10254643,0.91786516,1.7372432,3.0129428,1.9029912,0.35845652,-0.6834733,-0.8200697,-1.1954783,-0.79698485,-0.63365084,-0.28904822,0.27319023,-0.033561513,-0.15524697,-0.33150336,2.5469875,1.2039622,2.23551,-0.2700386,1.0573044,0.10133433,0.15155448,-0.29055476,-0.1941918,0.53827155,0.32109773,0.15825447,-0.110512055,1.0073719,1.7836002,2.1473157,0.5934405,-0.85779667,-0.77486134,-0.2303118,0.22088988,0.5392343,0.45919344,-0.58042955,-0.675053,-0.01896114,0.51181513,0.8014454,2.172203,0.32811832,1.9347386,0.011111174,1.1800773,-0.58795977,-1.1299185,-1.5461394,-0.113121495,1.186895,1.2129365,1.0416843,0.094147414,1.3547413,1.7359455,1.6658587,0.4275616,-0.81783026,0.2909704,0.93511146,2.0662324,2.078137,0.6711783,-0.0061881915,0.05946255,1.3517413,1.4661151,0.39194202,2.8000765,0.64805245,0.9524912,0.015932066,1.3632787,0.42105085,0.74919844,0.021335222,1.542625,2.122504,1.6275331,1.3379892,0.85883915,1.266404,1.2798285,0.8405357,0.63428396,0.121391505,1.5426508,2.1542878,2.0002558,1.7330456,1.2264615,1.1453985,0.9296442,2.3194425,1.9894305,-0.2799176,0.050364494,0.04370541,0.23301604,-0.62734526,0.39148945,3.4169595,3.661576,0.6308902,-0.3417346,0.56285626,0.33652785,0.13055141,0.88717824,-0.02347594,0.39532092,-0.06082215,0.6794452,1.3334603,1.4076424,1.8875468,1.9528782,1.369922,1.202176,0.47500655,0.817473,3.4668229,2.8142278,-0.9238544,-0.6397262,1.0011115,0.63004017,-0.6012393,0.28112516,2.4340787,2.994617,0.9116902,-0.42251962,-0.8667115,-0.8360313,-0.12518962,0.44129035,0.27908966,1.6329068,1.417855,1.5463585,1.9136357,1.7065351,1.8627263,1.1685134,1.0591081,0.8356883,1.8640841,1.7498783,3.2257295,1.494569,-1.0409303,-1.566645,-1.2889749,0.63370156,8.4664533E-4,0.0034016434,1.1648073,1.8342317,0.47347414,-0.85410917,-1.3935677,-0.6421472,0.2636799,1.1987785,0.95663816,1.8482872,2.241573,2.540925,1.9243333,2.2260876,1.4456735,0.9651973,1.8418562,1.1450881,2.6135237,2.609493,3.8249469,3.2154367,0.52808434,-0.9578529,-2.2055438,0.01502787,-0.024701476,-0.010290785,-0.11607787,1.319479,-0.16137563,-1.591598,-1.5894169,-1.459133,-0.49800846,-0.27972528,-0.15351973,0.93461996,2.3239288,2.705291,2.9665985,3.422543,2.8692496,1.743147,3.388711,1.9209561,1.5064192,0.5627106,1.2340523,1.6179134,3.757785,0.7555586,0.90291953,-0.0039909654,-0.024899015,-0.002425684,0.3649778,-0.013270968,-1.4264076,-1.9591982,0.4659246,-0.7662213,-0.33060437,-1.1222924,-0.40891972,0.37561727,0.87302864,1.417421,1.5222698,2.2296069,2.898344,3.2737615,2.5345962,1.9165342,1.0135405,0.8968922,0.0047625564,-0.7237077,-0.18262196,0.16285123,1.4573275,-0.015282645,-0.00821915,0.00729901,0.008893504,-0.021923317,-1.0586652,-1.755582,-0.7686078,0.35417,0.596368,-0.6012914,0.9270338,2.5180812,1.46273,1.4498794,0.7909287,-0.8929734,1.1374862,1.6055119,0.84301627,-0.15427579,0.31241903,0.63757545,-0.1870994,0.21790226,-0.5942143,0.8908814,-0.01799395,-0.0098833,-0.0023630343,0.0030518277,0.0058256867,-0.0229466,0.002290881,0.0017330537,-0.6659501,-0.73477334,-0.8372423,0.0015631393,0.49949473,0.81921065,0.284207,-0.36059746,-0.7194591,-1.4366634,-1.5027171,-1.2856328,-0.040612627,-0.94885546,-1.950422,-1.9395652,-1.2389024,-1.2324448,-0.021517279,-0.0021597957,-0.0048642447,0.007698233,-0.010259601,0.010333881,0.0048976853,-0.007254873,-0.024101043,0.003219058,-0.009113103,-0.021540036,-0.015720546,0.006270622,0.024968525,-0.017077703,0.04233263,-4.015608E-4,-0.10670126,-0.124442324,-0.005133009,0.018798588,-6.193229E-4,-0.013760496,0.0033779838,-0.0085259145,0.010268616,0.011568285,0.0025176746,0.018239768,0.0082871765,0.015872542,0.01663311,0.010171845,-1.7371382E-4,0.020365808,0.35282752,0.17266187,-0.33586603,-0.4425494,-0.789923,-0.9187165,-0.61744446,-0.820479,-1.2490927,-0.7584752,0.17143792,-0.76638967,-2.0896366,-2.1184402,0.13512771,-0.013915767,-0.9618799,-1.1097919,-1.3847871,-1.2069985,-0.005682515,-0.013290816,0.01360101,0.0011762582,-0.008518718,0.011380128,-0.3494193,-1.5972557,-1.4350709,0.0441693,-0.8400364,-1.0475178,-1.1230023,-0.24741246,-1.2285196,-0.112363376,-0.050281793,-0.10125227,-1.0545205,-0.008029076,-0.6718899,-1.5353526,-0.25183573,1.0625705,0.9866362,-1.2671973,-1.2586359,-2.0008307,-1.3238086,-0.9449105,-0.008765682,8.220208E-4,0.01127305,-0.010725774,-0.4590607,-1.7654383,-0.9965719,-0.18080138,0.27806747,-0.15246567,-2.674778,-1.4399399,-1.6951098,-2.6203535,-3.037149,-3.5927439,-4.2425632,-3.8411021,-3.4779074,-3.279556,-1.2991503,-1.2403395,-2.1384811,-1.2834575,-0.04817816,-0.35282308,-1.0098037,-0.6610999,-1.8322396,-0.016832141,-0.01615618,0.4019917,-0.56268454,-0.37059775,-0.54543245,-1.6951358,-0.91065794,-1.1708945,-2.199412,-1.5240294,-1.4323848,-1.2924364,-0.600118,-1.1398404,-0.17642376,-0.23396866,0.2184038,0.73359215,0.5771767,-0.23563105,0.72203165,1.2467552,1.2822473,0.6928383,1.0190945,-0.23994234,1.5844152,-0.010844218,-0.004937698,-0.02157489,-0.5636259,-0.69182694,-2.2116385,-2.9902773,-1.8302135,-1.1748217,-0.7336466,-0.3686359,-0.14471559,0.9004267,1.3600591,0.9890889,0.8425285,0.33606368,-0.2238921,0.27077594,-0.5545177,0.08834442,0.81224847,0.7177316,1.3657912,0.96460325,1.7158247,1.7798231,0.8012881,0.18607788,-0.0047701877,-0.02493118,-1.1132983,-1.2424681,-2.1780179,-2.0150087,-1.912324,-1.9639642,-1.5321943,-0.7827413,-0.21557227,1.3446636,1.2020851,0.35216805,0.068090014,-0.05072156,-0.282003,0.06294267,-0.48589247,0.21441284,0.30448955,-0.7919287,-0.16459045,1.1422707,2.0988657,2.4225767,0.43674555,-0.28625944,-0.0036214103,-0.24770252,-1.0106322,-0.6804248,-1.7696104,-2.2314527,-2.3874235,-2.1301932,-1.2500701,0.19669706,0.5796843,1.3666769,0.860328,0.5907878,-0.8284331,-1.2667285,-1.0074497,-0.56897575,-0.61655164,0.11773569,0.3223254,0.8146562,0.6137998,1.450875,2.0320764,1.6843909,1.2854135,0.0829362,-1.4304291,-0.50474423,-0.75738084,-1.0286754,-1.2494146,-1.5871847,-1.6671158,-2.4419599,-0.85040563,0.95011586,1.0287814,1.9021707,1.4131329,0.35082915,-1.6476499,-2.1520615,-1.7376914,-0.9570323,-0.59244204,0.14802776,0.22206065,0.4614762,1.5268198,2.5835454,4.5655847,3.5181606,2.3328857,0.8036836,-0.9731926,-0.77914965,-1.4096572,-2.2305305,-1.8217307,-1.8508121,-2.9816945,-3.7616174,-1.5290428,0.626608,1.426905,2.3552437,1.5488673,0.03687316,-1.3931986,-1.8290806,-1.4904772,-1.013125,-0.65113556,0.5168944,0.28232524,1.051924,2.765247,3.1778302,4.485553,3.1350756,1.7353272,0.5676425,-0.9531016,-0.62332916,-0.7775155,-2.8922498,-1.712255,-2.6467075,-3.9398458,-3.9611025,-1.7059187,0.741381,1.4752159,2.786318,2.513748,0.70260346,0.5543995,-0.7979476,-1.4270929,-0.78738093,-0.22752467,0.12549867,0.16130927,1.629936,2.535865,3.178707,3.0455573,2.5855908,0.5704578,0.10030751,-1.0544974,0.10573593,1.6528143,-0.992482,-2.0433042,-1.9782827,-3.3475602,-2.8468354,-0.49766156,1.2182432,2.1335566,3.1590521,3.2273517,2.2400184,2.044934,0.5807113,0.08059102,0.10295594,0.33093426,0.40542367,0.49047965,1.438119,1.6938181,3.3312092,3.4609964,1.7800466,1.1665777,-0.32199225,-0.07638889,0.7422189,2.004722,0.8253616,-0.8412188,-1.9310626,-2.4585779,-1.9267962,-0.9455136,0.5663043,1.1942452,1.7416643,1.3207533,1.2599049,1.7977748,1.0904223,0.1777672,0.6566316,0.78667617,1.063307,1.4155726,2.46546,2.4064517,2.526752,1.1470605,-0.41557223,-0.16299678,-0.83771145,0.3321062,0.37942567,2.0300574,0.5758454,0.38375017,-2.12763,-2.0874693,-1.0171518,-1.5307072,0.3414358,0.36263067,0.59312475,0.17184897,1.0163968,1.4113954,1.6965443,0.50692666,0.72954243,0.0044331993,1.0012302,2.1693127,2.5742915,1.422729,-0.49669263,-2.0930548,-1.1996906,-3.5131042,-2.0924475,0.021704847,0.19840817,1.0844262,0.7158442,0.0011914449,-2.0764368,-2.4651718,-1.7800624,-1.911625,-1.1406872,-0.45504987,-0.13931996,0.40103674,1.9983007,2.544407,1.4651476,0.7891081,0.11225638,-1.2269242,-0.35738778,0.33555973,0.5397797,-0.99488944,-2.2163837,-2.7975068,-1.4946202,-3.387898,-1.9745947,-0.017083202,0.019907499,0.2232536,-0.43463412,-0.8430209,-1.2667128,-1.8590826,-2.6166394,-2.591253,-1.7151718,-0.92414165,-0.89466953,0.64914995,1.8539394,1.5893782,0.59436196,0.4015202,0.12891228,-1.2743706,-2.3031511,-1.5124148,-0.432512,0.08096241,-1.4885318,-3.9884021,-4.0832753,-3.0084631,-0.7727901,2.5274538E-4,-0.58061326,-0.89475125,-0.95248145,-1.3220675,0.04921045,-1.9453756,-3.0960813,-2.5375998,-1.8109394,-0.9138988,-0.82604295,0.66711265,1.305909,1.1194651,-0.057868477,-0.83814424,-0.31114352,-1.7765836,-2.7956636,-1.6468403,-0.3496506,-0.84103644,-2.616504,-4.687707,-5.3464866,-2.8153918,-1.6952585,0.019960443,0.27849504,-1.2626741,-0.9587057,-0.48706737,-0.38220653,-1.5181108,-2.4090848,-2.198215,-1.2153618,-0.36052927,0.2996703,1.0473073,1.0469706,0.48691723,-0.41742054,-1.1973152,-1.2435399,-2.0178645,-2.2311058,-0.99698234,0.1251268,-0.9064915,-2.2634153,-2.9160175,-2.551415,-1.4840871,-2.7861867,0.20983464,-0.77339494,-0.19420695,-1.3289865,-1.7031,-0.24712785,-0.7348225,-1.6707288,-1.2985862,-0.7800815,-0.49368006,0.8504968,0.90027916,-0.038120694,-0.43852836,-1.1373649,-1.3785696,-1.2154506,-1.7725613,-1.6822144,-0.57366407,-1.1010878,-2.2146163,-3.4263787,-4.279599,-2.6468744,-0.50837433,-1.0782526,-0.008416364,-0.91574967,0.22182296,-1.9014118,-1.9271014,0.12311024,-0.6206376,0.06299987,-0.043307498,0.28288332,0.44660076,-0.27955183,-0.13975392,-0.7609031,-1.2298118,-1.5374215,-1.1666138,-1.5464526,-1.2864476,-0.86845046,-0.9658059,-2.372348,-2.4950862,-3.4338076,-4.458389,-2.4226162,0.020408811,0.82972115,-0.016251113,-0.8446667,-0.96696734,-3.0890496,-3.7525632,-1.5582362,-1.2591459,-0.06379883,0.22355552,0.6411175,0.41236463,0.06710562,-0.064557575,-0.87164235,-1.7556105,-1.8942637,-1.3612148,-1.2164717,-1.8015854,-0.7069208,-2.2110367,-2.693163,-2.402268,-2.9036157,-3.455328,-1.76269,0.29491964,-0.2611344,0.36931837,-0.03245569,-0.37056723,-1.8785208,-1.3244878,-0.9235885,-0.18709938,0.01063337,0.33314663,0.96875936,0.31645066,0.21725553,-0.15705816,-0.8298979,-1.7490385,-1.5992612,-1.2609842,-1.1556691,-1.8372991,-2.2379014,-1.98519,-2.7574668,-3.079553,-2.7678123,-2.1127625,-1.0092673,-1.3824682,-0.5177265,0.41175684,0.28302842,-0.24237935,-0.7862758,-0.16289094,-0.9844037,0.1027764,-0.01072191,0.1665666,0.44724965,0.6118597,0.79179853,1.3904088,0.68382275,-0.12210921,-0.73815674,-1.1799538,-0.9314492,-1.5477637,-2.0739195,-3.016977,-3.1560626,-2.9530942,-2.3183894,-1.0066559,-0.4551651,-1.7960072,-0.556463,0.017490191,-1.3062535E-4,-1.5543379,-2.718685,-0.866603,-1.0328715,-0.15580584,0.31697085,0.7649592,0.19841139,1.1154996,1.7920834,2.6160748,1.6478084,0.83211225,-0.2883076,0.38827318,-0.443042,-2.3967922,-2.8148108,-2.9975052,-2.5102024,-1.8664106,-1.4267693,-0.47992662,-0.8906065,-1.3100584,0.0044225217,-0.01315826,-0.016298046,-0.23529257,-2.9278777,-1.965116,-0.2310366,-0.84794235,-0.19724748,0.13962999,0.3005873,0.7598166,0.67634356,0.70559984,0.2927647,-0.33040264,-0.6400196,-0.65831554,-1.7203956,-1.3691525,-2.079691,-1.1058736,-0.49161652,0.95792305,0.534716,-1.2093211,-1.4397081,-1.0729153,0.00686718,0.008018293,0.019940475,-0.029942678,0.4942297,-0.44181585,-0.25014043,-0.84010834,-0.44805098,-1.5663129,-0.3908858,1.3048923,1.7842262,0.9053823,1.0057763,0.89780587,-0.09067648,0.22105,-0.45566523,0.63159025,-0.12007394,1.0121092,1.8810647,1.9463525,2.1658454,0.7090998,-0.6733371,-1.025992,0.009480656,-0.017620893,-0.019953609,0.013756808,-0.020565135,-1.2790287,1.9185174,2.051761,0.6647372,1.391071,1.741177,2.6886508,3.0252466,1.6899593,2.1877792,2.0210721,1.8428844,1.429492,1.3225046,1.0377213,0.5858085,0.40664473,0.379593,0.58306605,0.9550052,0.50775737,0.29390204,0.013991165,0.014559575,-0.0077402117,0.010110095,0.012027367,0.018973336,0.005772299,-0.1565379,1.299125,1.3414223,1.230566,1.0368884,1.1120247,0.7850391,-0.043759458,0.34566656,1.1413711,-0.1850632,0.36623022,0.23012792,1.8450745,0.7625369,0.4956637,0.74982035,0.36880225,0.28723463,-0.015237746,0.010631418,-0.004262664,-0.022994256,-0.008520961,-0.022104762,0.021783065,-0.006764076,-0.010310271,0.01784892,0.010269914,0.016729707,-0.016920963,-0.013981984,0.013429996,0.004697032,-0.89985335,-0.13104403,0.0844899,0.08188723,0.010011226,-0.018772563,8.5463346E-4,-9.825694E-4,0.019509716,-0.006348243,0.023078544,-0.005770593,0.01677965,-0.0029969441,-0.017294759,0.013218279,-0.0136554595,0.018739874,0.015644625,-0.0028627412,0.16965209,0.014026102,-0.98599625,-0.79759514,-1.0322767,-0.82835895,-1.4976197,-1.165623,-2.0010066,-1.7876248,0.319795,0.5265954,2.3047938,1.4295427,-0.26490006,-0.47746712,-1.8771611,-1.7477881,-1.9444758,-1.8647306,0.00960827,0.020296104,-0.0045466633,0.009980587,-0.012230681,0.01661005,0.3685083,0.5529424,0.37064472,0.1407386,-0.29377997,0.23620881,-1.2534636,-0.6302982,0.115218595,-1.2592326,-1.380458,-0.77277935,-0.36163795,-0.59740835,1.0722406,2.7760568,0.708249,-0.40674818,-0.76903874,-0.29760447,-0.45487258,-2.124133,-0.073799826,-0.3318643,1.9704239E-4,0.018378504,0.009084833,0.0044777873,0.3885295,0.46824455,-0.014075251,-0.25994596,-1.8971806,-1.2617041,0.08578525,0.42184797,2.4562016,2.1818066,1.2406843,1.1613183,0.86967653,-0.02122194,0.66860414,1.2514819,1.3200953,1.1499728,0.47143194,1.137522,0.39731273,-0.39687335,2.3764625,2.1393654,1.7592237,0.016259102,0.014787646,0.100095466,1.0251169,0.14115447,0.5887591,0.3127141,-1.1857938,-0.22945727,0.18325368,1.6109233,2.1986153,2.3503573,2.0034184,1.5377787,1.0623028,0.9388211,0.9510045,1.376559,0.7881549,-0.3503922,0.72597915,0.89170516,1.2790736,1.6747063,2.6868286,3.673147,0.8321062,-0.0209612,-0.024428159,0.021267338,-1.3060026,-0.5185971,-0.46940047,-1.3781638,-0.28302425,-3.7255278E-4,-0.1432575,0.7758612,1.7363516,1.3581513,1.6919475,1.6427447,1.0215082,1.3639647,2.4682586,1.9207972,1.5219014,1.2019168,1.8054366,0.8175026,-0.06550836,-0.90974206,0.8391839,3.1612012,0.13503419,-0.041267745,-0.01664432,0.49888635,0.7163883,1.3291273,0.819057,1.0787735,0.59709984,-0.4354026,0.054197453,0.83786815,0.5412309,-0.4921778,0.7675073,1.1443247,0.7333053,0.9691794,0.79627997,0.76134235,0.7810055,1.2304068,0.68547094,1.13402,1.682779,2.2833323,1.3251101,3.0159402,1.0226185,0.6168629,-0.021134976,0.9041449,0.8226865,2.7157667,2.0173614,1.2456989,0.39286897,-0.1704231,0.3664476,0.2479702,-0.20642065,0.07293659,0.34986526,0.4034384,0.58726966,0.53927106,0.2517991,0.69539344,0.78048784,0.61160064,-0.21831635,0.42679602,2.2911928,2.5797024,2.993531,4.2456465,-0.032524746,1.7314441,1.1254593,0.94608486,1.7652693,3.016712,2.057031,-0.40993676,0.1984988,0.23653758,0.042370867,0.3653676,0.6714772,0.71494126,0.6846647,0.47680387,0.25162238,-0.25328073,0.21065632,0.036679447,0.85187507,1.1659894,-0.024266114,0.49132952,1.0739248,1.80942,2.702951,3.2844348,1.3852913,0.8169087,1.5197632,0.7524999,2.936063,3.7645373,1.2010821,0.36227962,-0.004500349,-0.41189313,-0.17223106,0.4293529,0.7156119,0.30719736,0.42055526,0.6981561,-0.56158173,-1.5897118,-0.651627,0.61487925,1.0722965,1.2741011,0.96927005,0.62149894,0.77842534,1.6135125,2.2217674,4.5731425,2.7578945,1.2540802,1.5662606,1.1112365,2.2761674,4.006905,0.06078749,0.56996435,-0.91177624,-1.059598,-0.97191864,0.057962812,0.3621429,-0.23788126,0.04060539,0.946592,-1.4685152,-3.09358,-1.1932541,0.33646366,1.184431,0.86527747,1.1369805,0.52477974,0.20539194,1.3579754,3.3887248,3.9259086,3.575604,0.94675404,1.6088609,-0.07652821,-0.7298165,1.1805193,-0.75836724,-2.1642184,-2.3936327,-2.2978609,-1.0582815,-0.35956782,0.21027453,0.632506,1.1298307,0.9280646,-1.8125317,-3.4746275,-1.8679072,-0.19094428,-0.15705644,-0.24301225,-1.3988668,-1.5845288,-1.1288483,0.41118544,3.1594965,3.2346926,3.0341737,-1.0998679,0.24119528,0.04360706,-0.5495311,-1.3328081,-2.4263244,-2.4492571,-1.7781572,-1.8465838,-0.6442098,0.2542863,1.259019,1.8514713,2.0767834,1.9422479,-1.5313928,-2.8163965,-1.6167121,-0.5413879,-0.33871537,-1.0701147,-2.0561318,-2.881599,-2.9700394,-0.9161352,3.7427905,1.5914104,2.2683303,-1.9345375,-0.23584948,0.39919734,-0.31479356,-0.7924614,-2.3877225,-2.2904558,-1.1147391,-0.48714933,0.6197899,1.0865172,2.608318,2.0796416,2.456936,1.3203644,-0.97271484,-2.0662096,-1.9214295,-0.6895927,-0.35643226,-1.7114261,-2.3017862,-2.1597335,-1.5004869,0.08912029,2.0542946,0.06106295,1.017905,0.54813856,-0.013251542,-0.36079362,-1.2483022,-1.3447427,-1.4556762,-0.8968879,0.18103102,1.4027103,1.055346,1.0351124,1.6147183,1.2191046,1.5178759,1.0608003,-0.4380751,-1.2544,-1.3063886,0.80266064,0.21278626,-0.0012807611,-0.5722708,-0.8726874,-0.19655512,0.55915153,0.90586627,1.072131,1.8151435,-0.43620336,-0.021455433,-0.0047186674,1.1366521,-0.6401048,-1.0146688,-0.31019723,-0.120269716,1.295624,0.56724155,1.5090553,1.2960514,0.38001785,1.3756754,0.7799373,-0.10889677,-0.4797205,-0.10735977,2.2075846,1.0620918,0.92684275,-0.12252482,1.1832708,1.9237591,2.0774431,2.1179185,2.6875355,3.4802763,0.9935538,0.016031563,-0.64419013,2.0787613,0.42668265,-0.27464858,-0.44944802,0.37548488,0.36751705,0.26907533,0.623821,0.00896812,0.013997562,1.0841614,0.046998378,-0.6672173,0.54758656,1.5220517,2.771546,1.7806746,1.3004494,0.6268154,2.4140275,2.4042222,2.2019608,1.9188454,3.135049,0.99751574,1.9772553,-0.006913823,-0.6863534,2.814911,1.4070574,1.8329526,1.086049,1.00071,0.66696525,0.54609543,0.2597207,-0.6709018,-0.09729594,0.13703072,-0.72227746,-0.5631667,1.1727327,2.0265017,1.8771704,0.24840662,-0.2306372,0.5122039,2.0982044,2.1448197,1.3384842,1.2548577,2.9157526,1.027027,1.8359776,-1.284402,1.2267429,1.2288262,0.42121905,1.6112465,2.6796942,3.217671,2.114178,1.3591344,0.2443972,0.14687656,0.019616062,-0.7095705,-1.2419181,-0.53021204,1.0759284,1.1085122,-0.2283215,-0.5853272,0.13685814,0.033964824,1.2333363,1.3219663,1.0715699,2.1616378,2.3399541,0.5831003,0.9226394,0.016364647,1.3796445,-0.5611306,-0.537537,1.4063529,2.9542947,2.9723332,1.8311062,1.4646753,0.90343004,1.0226554,0.6491534,-0.016071664,-1.0719013,-0.5799365,0.7067884,-0.14169806,-0.69820684,-0.5917448,-0.023714742,-0.09195899,1.0542974,1.4660075,0.6189284,1.0178376,1.3979504,-0.22480114,-0.3651464,-0.018557962,1.5692983,0.4029269,1.6487517,1.3451067,2.7240663,2.293774,1.033165,0.6664663,1.1882292,1.2485498,0.7760309,0.118840724,-0.36807218,-0.39462218,0.24605986,-0.51816624,-1.694206,-1.1607069,-0.27989617,-0.30772883,0.549796,0.5932822,-0.24231964,-1.082826,-1.0178881,-0.41691488,0.3234672,-0.3732347,0.67006725,3.3003988,4.0490932,1.0609565,-0.61433995,0.3251561,0.24604438,0.18910365,0.30545515,-0.11417357,1.2250067,0.71133846,-0.13379918,-0.5551283,-0.4486801,-0.38545898,-1.0476696,-1.0501459,-1.1762402,-1.2776787,-0.27378324,0.5937612,-0.68077254,-2.2385392,-0.99173963,0.65065587,0.81242025,-0.36471766,-0.21193545,2.391988,2.658849,0.32515967,-1.4960315,-1.0375065,-0.27866474,0.3532832,0.8346482,0.95700926,2.5598955,2.5978305,1.288372,0.3873872,0.2704315,0.2634855,-0.74269885,-1.0658687,-1.0893531,-1.0987781,-0.9509537,0.4375888,-1.517417,-2.3014088,-1.7117103,-1.1978819,0.8147194,0.007230485,-0.016503356,2.0640018,2.95069,0.3690039,-1.4934639,-0.96331954,-0.014402287,0.8300655,0.85366833,1.4338766,2.2862868,2.7816372,2.6683054,1.4331331,0.7959282,-0.3718731,-1.1492286,-0.77716696,-1.7276055,-1.7394689,-1.4867232,1.1276486,0.38048768,-2.002451,-1.2245804,-2.223489,0.013016915,0.0133491615,0.0030176158,-0.42230186,2.2291353,1.9151704,-0.87487924,-0.72180176,-0.34618407,0.42012164,0.48453486,1.0364774,1.9210275,2.6205952,3.3182805,2.4770794,1.6606288,1.6242038,0.4919487,0.28956613,-0.6732196,-1.4321246,-1.5357257,-0.95210934,-0.84849256,-0.40841752,-1.1337483,-1.0374202,-0.006140733,0.011755735,-0.008731873,0.60762525,0.63368297,0.033014495,-0.26100448,0.9787136,1.2589289,2.4079158,1.6729269,1.4224738,1.5630603,0.0014694937,0.642833,0.8758778,2.1479068,1.5026549,1.4584923,0.9740991,0.44223788,-0.8769043,-0.9862366,-1.4010085,-1.9448656,-1.9396412,-1.1437005,0.5154871,0.0069274236,0.008826167,-0.0024405287,-0.008717952,-0.0067021013,-0.35212877,-1.5694091,-1.0031123,1.2561963,3.0464604,1.7715287,1.3514074,2.3283525,2.2824597,2.0285532,1.8247521,0.82677776,1.599326,0.5069806,0.3061965,0.20945746,-0.019835368,0.3149566,-0.084508814,-0.60998714,-0.5598823,0.7698955,-0.017646799,0.01839245,1.5344462E-5,-8.986983E-4,0.01608161,0.017946778,-0.021473628,0.97509485,-0.035667833,-0.38069615,-0.4239116,0.982839,1.3063865,2.1694343,2.342763,0.42414203,0.6588118,1.7470722,0.65779316,1.6476527,0.7866175,0.37295642,-0.5699577,-1.2389544,-0.8643182,-0.71887434,-0.012149132,-0.021123206,7.921999E-4,0.013255646,0.010928156,0.005099585,-0.014148982,-0.020350382,0.0075557455,0.02172434,-0.013058826,0.020544017,0.018084694,-0.023233851,0.003229731,-0.0039336523,0.7747804,0.6385831,-0.052078336,-0.06708296,-0.022944529,-0.0056882096,-0.01867561,0.015442983,-0.003866655,0.018140078,0.018085763,0.017853396,-0.017415479,-0.004444138,-0.021207334,-0.012647993,-0.00457921,-0.014892848,0.007668204,0.004023985,0.425352,0.47331586,0.6385917,0.65298307,0.78234416,0.9983577,1.6106957,1.8974782,2.3743112,2.8672621,1.1799397,-0.013071182,-0.6661061,-0.063945286,1.0044371,0.620559,0.69049525,0.24267523,0.70020205,0.8909984,-0.012183623,0.017186072,0.018962879,-0.006126559,0.018939266,0.023502916,0.40307373,0.4429494,0.25375292,0.4941251,0.93774164,1.274554,1.528004,2.3745108,2.141136,1.1815029,0.5761441,0.18494332,-0.70497715,-1.0495496,0.46966803,1.7581958,4.2455373,3.3986573,2.3482013,1.3073453,1.157511,1.4357098,-0.2561693,-0.5390971,-0.019387554,0.02440076,0.021910815,0.0011170771,0.4905137,0.63799655,1.0457802,0.3250682,1.2987406,2.1088612,1.8962368,1.4492856,0.7148575,-0.2670037,-0.5855477,0.084075004,-0.30901277,-0.4444646,-1.4481022,-1.3745298,1.4697233,1.3226646,1.6059978,1.1513516,3.042416,3.8082178,2.1377442,1.4330741,-0.13342239,0.013592967,0.0071401894,0.47399625,-0.55358356,-0.76708436,0.28900284,-1.0104482,-1.1732094,-1.4308223,-1.257133,0.30151874,0.09714338,-0.83568794,0.28353834,0.2817619,1.2429059,1.5773315,1.514537,1.3400644,0.8511625,-0.5905982,0.6428034,0.4299396,1.5397127,1.4571377,1.7410129,1.9481,1.6664926,0.021211494,-0.0159319,-0.013280546,0.97516805,-0.325348,-0.66960824,-2.1113005,-2.1069803,-0.5816836,-1.2978405,-0.28369397,0.019861747,-0.27580765,0.29711333,0.24991278,-0.37014478,-0.63840365,0.0890962,0.9888694,0.7678864,1.1025952,1.8083613,1.3212718,0.9284307,-0.31489536,0.77702814,1.3387239,1.647578,0.25581408,-0.0068209525,0.21443476,0.06031041,0.3388479,-0.82458174,-1.728973,-0.48940557,0.42907253,0.3924439,0.6271789,0.9039961,0.6663406,0.68213814,-0.027500067,-0.9070643,-0.9065773,-1.2430655,-0.790956,-0.54147506,0.421394,0.6474496,-0.018391417,0.46683064,1.2274784,3.1592567,4.0973625,2.708166,1.9771612,0.0075859334,-0.27662563,-1.2380605,-2.027168,-1.6179776,0.14707081,0.39091602,0.528861,2.0355694,0.7250874,0.5719813,0.32935172,0.46537724,0.5717877,0.27667823,0.29736632,-0.5400536,-0.29688013,0.02347793,0.7672152,1.1767242,1.2039498,1.0355629,0.66109884,3.1356618,3.3089225,1.9490943,2.7343428,0.90920526,-0.54232424,-1.0404752,-0.47028118,-0.5148181,-0.039548043,0.9933005,1.2855666,1.8593432,1.7192087,0.81399125,0.30514842,0.36942768,0.022443788,-0.48880816,-0.72958535,0.03672642,-0.16887799,-0.1441501,1.5050118,1.1343668,0.8009524,1.1252998,1.4014691,2.5414996,3.9574418,2.760322,2.228495,-0.5083527,-2.7615492,0.31068906,0.8498392,-1.0454774,-0.072949156,2.1012254,1.1744622,1.3315083,1.8779902,1.0109948,0.90549606,0.007863669,-0.7688822,-1.3565484,-1.8477557,-1.0931005,-0.87328607,-0.42845204,0.6036918,0.48814183,0.91241753,1.8992037,2.1776667,4.0220957,7.408209,3.9914296,1.2366561,-0.5796968,-2.2151296,-1.1240637,0.65630156,-0.15060227,0.5963907,1.4093335,0.29791555,1.16175,2.1346169,1.4176009,1.4555148,0.845971,-0.165634,-1.7845364,-2.53037,-2.0127456,-1.6237117,-0.2934595,-0.36149153,0.06296515,0.52316266,-0.2666287,1.8063323,3.5707803,5.438677,5.255474,1.6644095,-1.1136637,-2.1938636,-3.9825153,0.43768302,1.0703405,1.3087677,1.2240255,0.19324477,0.38280207,1.1584054,1.0224218,1.0227618,0.74902135,0.54001004,-0.66949284,-1.8816887,-2.7208405,-1.6384332,-0.47189313,-0.045780208,-0.4214352,-0.6089801,-0.534319,0.2783113,2.0838785,4.408946,3.2200081,1.0499433,-0.66962045,-1.6302443,-3.419639,1.4091699,0.6056721,0.3491296,0.91970474,1.0178717,0.39060822,0.91363335,0.9374669,1.5178168,1.1922276,1.209326,-0.26397598,-1.609394,-2.03901,-0.97246313,-0.7022457,-0.22384682,-0.43538284,-0.9762926,-1.6635054,-1.4785076,-0.4140025,-0.15524596,-0.625443,-1.54891,0.30285016,-1.2671292,-2.3999598,1.5583365,-0.90318435,-0.8167113,0.055953555,0.09066167,0.51003283,1.2389404,1.2154045,1.505475,0.9208673,0.8959219,-0.21562293,-0.7924518,-1.052273,-0.6876004,-0.6123982,-1.1611636,-1.5999795,-2.3764682,-3.0428047,-1.5829054,-1.6018908,-0.7714508,-1.3467392,-1.28131,0.010088674,-1.1681079,-2.4479408,0.24845658,-2.1942854,-2.4897027,-0.45806864,-0.55511594,-0.35597375,0.3970409,0.13475882,0.5563681,0.4225721,1.2642777,0.91868085,-0.5263893,-0.6885378,-0.6557363,-1.3769958,-1.7452303,-2.3988497,-3.4109733,-3.203899,-2.2540739,-0.31793696,-0.41573402,-1.0897926,-1.7135067,0.0018681354,-0.009328689,0.06501239,-1.4407961,-2.7499719,-2.725893,-1.8629982,-1.7420655,-1.5263233,-0.1786785,-0.20919025,0.1417996,1.9273056,2.5045319,1.3783764,-0.17452246,-0.2760166,-0.72341967,-1.5521146,-1.7929146,-2.059733,-2.5368614,-2.3838685,-2.1681905,0.17337441,0.33042327,-2.4538305,0.117910355,-0.011610599,0.64979494,0.64132816,-0.81823313,-2.6142697,-2.655143,-3.320187,-2.5866468,-2.2235494,-0.5306919,0.26913702,1.1297499,2.6186907,2.620968,1.2370774,-0.21824187,-0.5245741,-1.1277027,-1.060219,-1.2695867,-1.6376966,-1.532751,-1.502252,-0.087306604,0.78922355,-0.44581154,-1.3700904,0.33643144,-0.017206037,0.23219068,0.14948942,-0.40533635,-0.88902724,-1.1460948,-2.376481,-2.6494586,-1.1649984,-0.11159071,0.7999935,0.6809432,1.7053249,1.6082965,0.6729878,-0.33211055,-1.2521676,-2.0516696,-1.416798,-1.0274408,-0.9251873,-0.26988348,-0.3530231,1.0346559,0.28077868,-2.8485773,-1.7464514,-0.018084148,-0.92868394,0.38126487,-0.3157965,-0.13956392,-0.48988476,0.67554,0.04995841,-1.4200916,-0.76716757,-0.23712315,0.22834904,-0.22793406,0.5827169,0.43953556,-0.92773294,-1.1688217,-1.6489593,-1.3086667,-1.1721566,-0.70574534,-0.41634074,-0.47731608,0.54871696,1.8552494,0.7971323,-2.32425,-2.0153196,0.9440444,-0.010781064,0.56924784,0.4051483,-0.21055801,-0.55967206,0.78257775,0.4878687,0.09323484,-0.038497947,-0.09239627,0.74482685,-0.15922976,0.2544692,0.32275522,-0.9057042,-0.78947586,-0.9538473,-0.09258397,0.58939135,-0.1800863,0.34641415,0.6430165,2.5718472,2.6319797,1.215172,-0.9824429,-0.67141485,0.40436292,0.019281996,0.53376746,1.2932662,0.20353158,0.39536732,0.4691272,1.0671182,1.4378035,1.3875811,0.8137304,0.41471162,0.19232439,0.13926968,-0.04118743,-0.721734,-0.21862867,-0.21351162,0.38724172,0.87318736,1.1869833,1.4139745,2.248759,4.135989,3.0756361,-1.4916921,-2.4448004,-0.89134467,-0.13206047,0.16030277,0.32560974,0.8112948,1.3225988,0.27824214,0.065856636,1.4308957,0.9377129,0.65217525,0.55692476,-1.0788808,-0.6870048,-0.6178829,0.019168062,0.11948423,0.13487068,0.48385882,1.582318,0.99121517,1.709146,2.6673572,2.887376,3.505229,2.4484413,-2.6775546,-2.643734,-0.6823174,-1.0145031,0.17533721,0.7486727,0.60803884,0.90810084,0.3393816,-0.46151677,-0.3415144,-0.24425411,-0.7344164,-0.3023591,-0.9939915,0.123068415,0.5077575,0.652285,1.187061,1.5718548,1.7767466,1.8699014,1.4465822,2.404425,2.9985137,2.8454323,1.7249687,1.6686002,-0.6635763,-0.97290653,-1.5383346,-1.0521506,-0.021586247,0.009989408,1.144069,1.3804228,0.33312917,-1.3967606,-2.2612083,-0.66997486,0.016052816,0.5084334,0.18202545,1.231803,2.0020092,2.5884693,2.4709222,2.718582,2.6936536,2.2317631,1.9634979,1.8912101,3.3140438,2.2694516,1.3349626,2.1783917,-0.18564184,-0.25939372,-2.2947228,0.021952325,-0.021174831,0.005689188,0.3594998,1.7207363,-0.70057166,-2.3408387,-2.303573,-1.0246466,0.71991515,0.43541035,0.7936232,2.256191,3.4738662,3.5326717,3.3794863,3.3756557,2.7192721,1.6760006,3.6353948,2.0800085,0.9749366,-0.11894881,0.46509463,0.7516914,2.2806075,-0.5425252,-1.1649295,-0.023817325,0.012698877,0.021480031,0.3061168,0.19219007,-1.6058319,-2.2934506,-0.07193955,-0.58566344,0.0809398,0.07372227,0.6709525,1.36205,2.5706756,3.178675,2.2133322,1.5513504,2.5161486,2.9525692,2.5208752,0.8626542,1.3711123,0.6078756,0.5526002,0.5173417,1.1997544,-0.4180085,-0.596914,-0.013039961,0.021404462,-0.0037787564,0.0010099965,-0.014468084,0.16408753,-0.6092478,-1.1411308,-0.90633553,-0.341167,-0.8874061,-0.45193353,1.3630368,0.93334734,0.980727,0.33596745,-1.737061,1.5435568,2.0803647,-0.050411515,-1.4849937,0.81397593,0.8412685,-0.6649294,-1.0144147,-0.75077736,-0.39030597,-0.0014520383,-0.0035194664,-0.012910729,0.0022716913,0.01915862,-0.007890336,-0.0075856047,-0.14134865,-0.902902,-0.943058,-0.92700356,-0.7182227,-1.2057341,0.5628664,0.11733244,-1.5533675,-2.0655928,-2.6547709,-3.0543344,-3.4874816,-0.49807748,-2.0857785,-2.6147022,-2.1578972,-1.9207096,-1.954399,0.020839605,0.018724617,-0.02293624,-0.02081458,0.0059809857,0.020198269,0.023628127,-0.020316353,-0.019690916,0.018036595,1.2971702E-4,0.00656286,0.0025137688,-8.5302733E-4,0.0028356244,-0.01879068,-0.01485415,0.09509487,0.30061516,0.3058239,0.011481536,-0.0030590987,0.009534531,-0.0111538675,0.019035678,5.2034244E-4,-0.008289909,-0.0064854566,-0.023727762,-0.019526215,0.013859123,0.0019009482,-0.017903717,0.010696636,0.017851258,-0.011715169,0.13001995,0.17447864,-0.52130497,-0.372095,-0.03298384,-0.13887554,-0.041512933,0.004009033,-0.16629879,0.7661701,1.066752,0.9054197,1.3870294,0.8825656,0.26806253,-0.21418132,0.06280557,0.4961987,0.89412624,0.9745889,0.021535255,0.0026572223,0.021650113,0.020018583,-0.00739681,0.021192357,0.4112457,0.3305222,0.32183307,0.27200213,-0.062745355,-0.5698919,-0.4980605,-0.6475904,0.23658185,0.1864342,-0.050985202,-0.8212022,-1.2422769,-1.3248576,0.53388447,0.13658066,0.4655981,1.7512492,1.0711982,-0.5110758,-0.72506636,0.34299216,0.5812453,0.60972667,3.8090718E-4,0.019936053,-0.00894356,0.02191186,0.35709286,1.2925755,1.2515942,1.8775775,1.11465,1.026149,1.4121748,0.37117007,-0.6217225,-0.17981757,1.420869,0.76875186,1.028752,0.30253243,0.30535004,-0.41195682,0.34065244,-0.01493866,-0.26636356,0.04450851,-1.4914893,-2.5942187,-1.700816,-0.23867208,-1.6815832,-0.018899363,-0.02316754,0.35579124,0.76429564,1.837359,0.56907326,0.97145486,0.56130344,1.3105484,1.1558696,1.7545991,1.9354277,1.725093,0.86376745,0.68358094,0.16061172,0.06404009,-0.5353486,-0.21891871,0.3213867,-0.5582095,-0.90568143,-0.68833286,-0.9079353,0.21466827,1.8229678,0.80307615,1.7713528,0.013998634,-0.017164713,-0.017233983,1.0780338,1.7436572,0.7523307,0.72629446,0.12947172,0.050578997,-0.52096003,0.30456814,0.10798555,0.13771719,-0.04947233,0.47993726,0.21431093,-0.39741513,-0.51242316,-0.7944013,-0.34195116,-0.33154714,0.6338578,-0.20413916,0.18767393,0.9297232,0.53666425,-0.8004976,0.05393961,0.15980984,0.015929775,0.42544422,1.70336,2.5883498,0.76542807,1.0328517,0.6084972,0.0730949,-0.4722368,0.7074946,0.61118776,0.54653394,0.41444778,0.91275585,0.9411318,0.3146365,-0.048887026,-0.19633481,0.6245541,0.30257636,0.9747104,0.9847998,0.48745093,-0.012524916,1.8683164,1.3530542,2.1259356,0.93079966,-2.2061124E-4,0.7832291,1.4252125,1.708234,1.6596818,0.4718056,0.07472925,-0.6700439,0.11532332,9.610641E-4,-0.07810456,0.29671824,1.136487,1.5024519,2.129804,0.9534466,0.7707136,1.0838751,0.9583021,0.5392697,0.37472972,0.15597098,1.0901127,-0.3248685,0.46596625,1.0509651,2.2553031,1.6093819,-0.44719434,0.14258543,1.3257804,1.5040845,1.9524342,-0.8007162,-0.7431649,-0.81027794,-0.83488345,0.07186326,-0.1505612,0.1002806,0.88390744,1.4330077,1.6048219,1.3651308,1.4715784,0.8032239,0.5231874,0.38829958,0.39883694,0.2725259,1.160561,-0.24710143,0.92358464,1.0021919,3.1905894,2.325523,1.4103464,1.8588082,1.2486838,1.6403904,1.1394403,-0.9745131,-0.43865135,-0.25778157,-0.04231311,0.29463944,-0.70823514,-0.6888524,-0.6466117,-0.24118973,-0.44220752,-0.4362444,-0.13371055,-0.04518877,-0.91867787,-0.7869199,-0.2393618,0.30797815,0.7483131,0.38188827,1.4184699,2.481249,0.86066926,0.41473806,1.39155,1.3884003,0.5298938,3.5455768,0.019841012,-1.3969386,-0.22859879,-0.8617023,-0.737877,-0.6688485,-1.7968925,-2.081678,-2.3494146,-1.8024362,-2.3438761,-2.5457568,-1.2837261,-1.0179707,-1.3780956,-1.1569898,-0.22535141,0.6331289,0.7430175,2.116088,4.633214,5.1866975,4.4431896,0.42760533,1.316113,-0.16991816,0.22518162,2.5314112,0.29945773,-2.2941086,-1.3605489,-1.8252523,-2.523399,-2.304785,-2.3030818,-1.4435588,-2.4620843,-1.5800229,-1.2038224,-1.545908,-1.7246923,-0.76109123,-0.8506814,-0.36924767,0.24374618,0.8314732,1.14593,1.6961231,4.4372654,7.2127094,4.5508842,1.251357,0.04765337,-0.1307636,-0.72709686,-0.50847316,-1.2988242,-2.9758515,-3.0633876,-2.3655183,-1.995166,-1.1629783,-0.21125104,-0.34987906,-0.31131315,0.3994938,0.7064257,-0.6763931,-0.65557945,-1.0510696,-0.7395613,-1.047203,-0.64461994,-1.3988957,-2.1680818,-3.5724704,-1.8697991,2.6185226,3.0820456,2.0538516,0.19723529,0.22950652,-0.356123,-2.0489426,-3.2755141,-3.0449202,-2.652547,-2.3343098,-0.48338336,-0.5005946,0.4911184,0.591114,0.8336114,1.5853755,1.1837995,-0.81620544,-0.4955537,-1.1179869,-0.8794116,-1.3024906,-0.85693324,-1.7837775,-2.5566673,-4.136138,-3.6587248,-0.15489784,2.1358724,1.1928302,0.007092467,-0.15166783,0.38201466,-1.9868208,-1.0946466,-1.7422972,-1.6664181,-0.9819625,0.31760868,0.56753945,0.55434805,0.0067829983,0.5078043,1.3769375,1.1068382,-0.4052727,-0.6117169,-0.34062645,-0.5599036,-1.3937526,-0.5422414,-0.96541417,-1.0180402,-1.8202668,-2.528651,-1.096555,2.000782,0.22638598,-0.009524356,0.0045333547,-0.7515006,-0.6986485,0.74468637,1.3040315,0.9726721,-0.5110766,-0.6030568,0.074129954,0.09916316,0.08076569,1.1005406,1.3355755,0.45712298,-0.46249372,-0.90064573,-0.68412936,-0.27662495,-0.78029007,-0.70952016,-0.3939527,-1.2944833,-1.3778833,-1.3222511,-0.06928758,1.3573956,-0.025653256,-0.020736666,0.89241517,0.45201534,1.9066604,1.6797376,1.8005556,-0.40012074,-0.6311636,-1.6386336,-0.8459522,0.2233339,1.0455327,1.6063797,1.4810592,-0.119009286,-0.8726006,-0.77169466,-0.0017472329,0.4280166,0.5165225,-0.6307889,0.08665681,-0.3729663,-0.76533747,0.7365134,1.5597153,1.6360555,0.67937464,-0.004671046,0.8832493,0.37879658,1.3315387,1.7192923,1.0033566,0.27960947,-0.39574486,-1.9005933,-1.0710807,-0.114914805,-0.2606778,0.042812116,0.39687207,-0.32019708,-0.22022657,-0.48354352,0.42862076,0.8187334,0.5263993,-0.5139934,-0.39585045,-0.50217164,-1.0499344,-0.7127098,1.133237,0.8929107,0.6367622,1.5115775,0.096821636,0.42953163,1.2326581,0.5411747,1.2415844,0.9688759,0.056874946,-0.26194453,-0.58332556,-0.6661542,-1.1875168,-0.8174304,0.3161396,0.16272956,-0.22809678,0.5998197,0.9313508,0.93733096,0.41823778,0.04416871,-0.31503338,-0.69271034,-1.191496,-0.5487902,1.5159997,0.04663225,1.3637373,-0.022082878,-0.10498933,-1.8635165E-4,0.84181994,-0.88601285,-0.13865997,0.20886207,0.40764806,0.7963593,0.4463856,-0.4579601,-1.022319,-0.7941112,0.26265746,-0.13536528,0.55215293,0.56880075,0.74440825,1.273179,0.6395514,0.44097564,-0.095532544,-0.2887587,-0.30482224,-0.107081465,2.1780994,1.6547828,0.6793523,0.024753502,0.7831996,-0.1950207,1.6837639,-0.013121227,0.22809504,0.74875253,0.0841112,0.6406575,0.72266394,-0.0022468711,0.037105277,-1.0793387,-0.27526784,-0.016931575,0.5302093,0.42386207,0.72266763,1.4545684,0.651233,0.8510319,0.18508561,-0.45392826,-0.3157292,-1.1160595,0.32846624,0.7487472,-0.17547883,0.11175484,0.93839216,0.8677642,2.2534406,-0.5386094,-0.054841273,1.008284,0.059174392,0.1183446,-0.08956825,0.29507864,0.06635135,0.11456582,0.28843856,0.56651855,0.5901627,0.799349,0.46039268,0.55596733,0.18217808,-0.24018571,-0.4191079,-0.3429947,0.14610362,-1.3507135,-0.46913365,0.73171055,0.6082253,0.11407875,0.56437767,0.53532726,1.3262463,0.06171134,-0.10473592,0.45234844,-0.7576484,-0.7270062,-0.6064039,0.0843287,0.6572243,0.26422608,-0.3094525,-0.103938736,0.4155567,0.27790594,-0.2639136,-0.16978118,-0.7717336,0.16788715,-1.5205145,-0.5710192,0.03426768,-1.3739537,-1.6828438,1.036266,0.61909825,-0.018970432,-0.01448747,1.9980775,2.9504058,1.7854431,1.8065782,0.83361465,0.06796574,0.24171497,0.7646945,0.38275975,0.3106828,-0.026711078,0.28496727,0.20653734,0.39361793,-0.88018703,-0.6322605,-1.1440145,-1.2489036,-0.8638132,-0.8433217,0.38244572,0.7386379,0.034496058,0.042895216,2.386238,0.015105658,-0.004613112,-0.015232733,0.701478,4.002468,2.8869505,1.0685381,0.83706766,0.30253157,0.13902016,0.73748446,0.2634395,0.77776355,1.2071894,1.149559,0.68861705,0.70172644,-0.32047155,0.26307485,-0.275396,-1.6694901,-1.4353678,-1.2622837,0.17069963,0.39637312,0.73868346,-0.3422745,0.11161542,-0.0059899795,9.027866E-4,0.0022920086,0.7817347,-0.39433002,0.20471536,1.13462,1.460597,1.2671965,2.247819,1.9476622,1.5290841,1.4282514,2.271555,1.3570157,-0.017986612,0.32233056,1.5981555,1.6561297,1.3237606,1.4262749,0.5256372,0.6745684,1.1550896,0.048576415,0.23834628,-0.54489523,0.17500447,-0.022475459,0.022195594,0.02043481,0.01127285,-3.7307724E-5,-0.18013528,-2.0575085,-2.106732,0.71769446,0.03129259,0.07600088,-0.03646354,1.0861745,3.0958927,2.936265,1.7214429,2.262124,3.6965182,3.8742387,2.6047926,2.451831,2.956804,3.3522253,3.0664213,2.2717495,0.43612635,0.4403525,0.0075018196,-0.00360426,-0.008520639,-0.015708674,0.012048069,0.011555034,-0.02456549,0.27008772,0.76118207,0.51181006,0.5373241,1.7113389,3.407337,2.1848695,0.85254335,1.267944,1.9588526,2.2376912,1.7965535,1.7129204,0.40361607,-0.36964244,0.045779,0.16101646,0.6065162,0.61180127,-8.352762E-4,0.022401584,-0.021307249,-0.022536619,-0.022728635,0.008845354,-0.021157546,-0.022926748,0.023093184,-0.0040756506,0.018751953,0.0022384422,-0.019277874,-0.0131226005,0.022326313,-0.007137711,0.028355384,-0.07480501,-0.12144667,-0.12953578,0.0091486545,-0.021502003,-0.0068586254,-0.01806089,-5.4498285E-4,-0.019994142,0.0030583027,0.012376838,-0.010726689,-0.013731147,-0.011364148,-0.021036934,-0.00842691,0.018319393,0.0037936494,-0.02460262,0.07665958,0.14624025,0.24779364,0.1639083,-0.20453647,0.038971215,0.05854397,-0.06526872,-0.3902003,-0.26381513,-0.6393186,-1.0150969,-1.6853311,-0.68060875,0.9416094,0.8440782,1.2637686,0.6783409,0.0103765065,-0.81590426,0.005050998,0.002878719,0.015264117,-0.013041951,0.023495747,0.013487353,-0.23453285,1.8181648,1.6473682,0.097101964,0.084348686,1.3953052,0.16319667,0.36506674,-0.9748978,-1.2205633,-0.9215799,-0.89918494,-1.2102962,-1.2508402,-2.1676946,-1.0876125,-0.2296677,-0.53673065,0.72628796,3.0488083,2.3874626,0.8334613,-0.39905846,-0.49609187,-0.0046888688,0.012474583,0.016276369,-0.011543355,-0.1584187,1.5847231,0.4489257,-1.2408419,-0.49970403,0.6987517,1.4054533,0.01240051,-0.47796136,-0.023370102,0.035306424,0.27437517,0.0930483,-0.028478384,-0.12865211,-0.3868983,-0.7361987,1.1244797,0.8692318,0.36535037,1.7450218,3.0890098,2.3994055,0.7226366,2.1201105,0.014935699,0.013463967,-0.012474758,-0.7633321,-0.5441642,-1.399664,-1.4832801,-0.3360578,-0.7149897,-2.1735134,-3.5992084,-2.8479104,-1.1854203,-0.24367347,-0.19826058,0.13118958,0.47032017,0.75115985,0.62294173,0.31323415,0.62741315,1.3301924,1.3978394,2.4607408,1.8831248,-0.24744172,1.0024159,-1.2499518,-0.024672076,0.0066873003,0.021399708,-0.44677022,-0.6582873,-1.7097484,-0.9372365,-1.5713431,-3.5251384,-4.19242,-4.2916827,-1.4528902,0.09506302,-0.7846555,-0.49484482,0.12898155,0.4409297,1.1853242,1.9406981,1.730201,1.6337537,1.1386325,1.5752085,1.2727737,0.17714354,0.88636255,1.8473929,0.4137979,-0.16476543,-0.024436379,-0.11044797,-0.8224859,0.804066,-2.518049,-2.7342608,-3.063115,-4.0423565,-3.5629492,-2.5890896,-0.67718065,0.31675592,-0.4885191,-0.75752205,-0.8522661,0.6037118,0.8508548,1.7321714,1.9515721,1.8621109,0.99637234,1.251016,2.5313222,2.1217287,0.534682,1.3052866,-1.2706513,-0.29587755,0.019551955,-0.50789744,-0.39893404,-0.4791834,-3.7321608,-3.0700388,-2.9879148,-2.738655,-2.252628,-0.62803274,0.43802512,0.30018845,-0.38133746,-0.08399919,-0.34487444,0.38880068,0.637709,1.6197835,2.1771028,2.1111717,1.1765475,1.5498303,2.1010337,2.6904159,2.067706,1.9192107,-1.9670746,-0.088550396,1.3700818,0.5129089,-1.6151671,-1.6989311,-4.385553,-2.6844397,-1.4910685,-1.6906984,-0.36492974,0.3300265,-0.22487739,0.53817874,0.5722316,0.4973546,0.70298094,-0.34523767,-0.03339188,0.814451,1.2911832,1.6181933,1.2215974,1.0488056,1.1912501,2.9850605,2.1378503,1.2556177,-0.25444892,-0.5516837,-0.38087553,0.26013517,-1.1089708,-3.0413728,-2.5848327,-1.5379425,-1.2069013,-1.9161826,-0.43190625,0.052567646,0.546258,1.7981781,1.7562479,2.1021855,1.83249,0.01793208,-0.94347215,-0.8838675,0.105186634,0.6114465,1.2136265,1.3788148,1.3790008,2.9255924,3.2020051,2.709338,2.3048143,0.8487678,-0.3154905,-0.015231308,-0.58829695,-2.9616537,-2.215162,-0.9559342,-3.044396,-1.6283705,-0.32382923,0.3423505,0.5824535,1.4065465,1.9426063,2.7775052,2.1368473,-0.08388045,-1.4703618,-1.40189,-1.3590615,-1.2531768,0.98627144,1.5891601,2.050606,3.0076032,3.229793,0.035194017,1.6388743,1.5889071,-0.4851169,0.13947728,0.75869274,-2.4578357,-2.9763966,-1.8983107,-2.3862157,-1.0155001,-0.20464733,0.23648308,-0.084038965,0.6235043,1.8091443,2.8657107,1.4312749,-0.77715874,-1.6248503,-2.7190607,-3.3112113,-2.2713325,-0.5933384,-0.32007462,1.4834173,2.2999039,2.2981243,-2.7949724,-0.86051023,0.86219823,-0.35001624,0.6973896,0.8770498,-2.0392478,-3.7145698,-1.1846647,0.014803592,0.52774805,-0.6467848,-0.5146045,-1.0617652,0.11482536,1.5288208,2.278761,1.0351251,-0.076849796,-0.7587248,-1.5354903,-2.4472826,-1.888555,-0.9342915,0.090655856,1.2716027,2.9538758,3.7879896,-1.183618,-2.596427,-1.6431757,-0.04634411,1.2315159,-0.509839,-1.4858712,-1.9131912,-0.96202475,0.39508846,0.5273363,-0.79902536,-0.96148086,-0.0985014,-0.033747066,1.3963537,1.6981795,0.80406606,0.087502636,-1.5775217,-1.860998,-1.9582376,-1.6619351,-0.83271277,0.49507034,1.3411925,2.587708,2.6401932,-1.9166887,-2.5210114,-0.51697856,-0.0246407,-0.6135427,-0.18489562,-1.1462586,-1.3241076,0.053003654,0.22484855,0.5739873,-0.31148958,0.054106966,1.0788581,1.1476455,1.924639,1.5617533,0.12903121,-0.80558974,-2.176452,-2.7040255,-2.0878422,-0.12747113,0.23636317,0.49785054,0.63679606,0.7120145,1.4018017,-2.5112,-1.5941523,-1.943501,0.005928581,-0.017789375,0.6079873,-1.076017,-1.6595124,1.0834011,-0.10948936,1.0079058,1.311975,2.269582,1.7682809,1.6130911,1.8670607,0.01100821,-0.43632573,-1.6397247,-1.3608974,-1.0403799,-0.67525476,0.34648946,0.7850137,0.8097781,0.4075837,0.91148335,0.10934749,-3.00262,-3.7231874,0.23884957,-0.020604417,-0.06743376,0.2629551,-2.0039213,-1.2099322,0.20122337,0.8216212,0.5029219,3.5406873,4.380328,2.9962401,1.7768693,-0.28840774,-2.7817857,-1.6188022,-1.6278543,-1.5302231,-1.6353012,-1.2249794,-0.20717634,0.15810229,0.15812042,0.54805475,0.6335489,-1.0497833,-1.8120147,-1.4805616,-0.090537935,0.023234084,-1.097517,0.15866251,-2.9793408,-0.7019959,0.42526916,0.9555021,1.4016485,4.7915034,4.9665155,3.4104102,0.010779225,-3.432726,-4.618937,-1.720357,-1.469053,-1.5685024,-1.5975555,-1.4756078,-0.60335785,-0.06649263,0.23741084,0.5961403,0.7327101,-0.50194395,-1.9857911,-2.638251,0.5509808,-0.25962198,-1.544647,0.009394371,-3.0037255,-0.5265963,0.12510346,2.131904,3.389869,4.5970035,4.9375534,2.1757822,-1.8964152,-5.836565,-5.9237165,-2.5058103,-0.47081694,-1.4273727,-2.2658916,-1.7961717,-1.4512734,-0.26229212,0.7262517,1.5516638,1.0580051,-0.9150767,-2.4087305,-2.198929,-0.6991039,0.010426413,-0.9888681,0.029927,-2.899382,0.60270983,1.6088537,2.6504483,3.5747485,4.3868785,3.852966,1.3732154,-3.0701642,-4.93743,-4.445635,-0.74472004,0.120988324,-1.6472571,-2.357689,-2.147927,-1.0733439,0.078583464,0.6866092,2.3347738,0.3413523,-1.3563671,-2.455389,-2.2343862,-0.31594774,0.014152639,-0.6381919,-0.24671832,-2.2538927,0.5068547,2.4355628,2.6499722,3.846002,3.2605245,3.0353708,2.1343732,-1.3271842,-2.3789587,-2.2897856,-1.1212888,-0.62385964,-2.4730847,-2.8904853,-2.8260815,-0.46310654,-0.063366376,0.72472584,2.0696862,0.19169345,-0.6624723,-2.3456216,-1.8000873,0.24321584,-0.097159006,-0.28006938,-0.84130365,-1.5586857,1.3896781,1.9944283,2.6903331,3.5887806,2.5829747,2.570004,2.0062826,1.1998082,-0.5017623,-1.2778322,-1.1840711,-1.6572162,-2.168183,-2.0870218,-1.174212,-0.51398253,0.17246091,0.89706695,1.1715994,-0.94642234,-0.9520762,-1.0982095,-0.6399184,-0.12244888,-0.09011294,-0.08425144,-0.55257535,-0.32617164,0.03869922,1.2342927,1.8404897,3.269634,2.1304631,2.6847131,2.3488455,1.5759574,0.95790595,0.8156664,0.13926749,-0.06829523,-0.38305733,-1.0576887,-0.87993705,0.37814474,-0.679986,-0.08897031,-1.5477215,-3.0914466,-1.3430239,-1.8428409,-1.349084,-0.110436864,-0.0032038875,-0.0029059565,0.2512408,1.2516514,-0.21218348,-0.5973557,1.0901837,2.470383,2.3591602,2.0165696,2.2732437,1.7405754,1.5694324,1.888625,1.0458165,0.4640014,0.3921297,0.2564084,0.65895206,0.24197777,-1.4274071,-2.7509642,-2.2632692,-1.9244186,-1.0445472,-0.70722353,-2.4156735,-0.011372073,0.009551805,-0.024395168,-0.2693808,-0.4867469,-1.0734687,-0.48708767,0.350761,2.0933876,3.0908918,2.8640692,2.7424061,1.9425224,1.9778785,1.2531905,0.39370823,-0.34583047,0.065482736,0.39623493,0.4628335,-1.7647296,-2.4597201,-3.4653156,-2.398802,-1.9429774,-0.25190955,0.13141654,0.07856754,0.01832894,0.016529419,-0.0059015835,0.016258046,0.5216729,-1.9702576,-2.7638009,0.4562624,-0.105902955,0.41729343,0.83363336,0.9730514,1.9688993,0.7921877,1.2345746,0.9379052,0.4162814,0.8337523,-0.52732027,-2.3183863,-1.3692702,-1.8296827,-2.8823042,-1.6564265,-1.1388354,-0.8690461,0.12715852,0.22610752,-9.128322E-4,-0.02453971,-0.0082714185,0.025061771,0.0233433,0.57042587,1.3468728,0.9939308,-0.24299239,1.2305275,0.20453414,-0.009733126,1.3223128,0.5323374,-0.29633698,-2.0719695,-3.5883641,-2.242025,-3.745516,-3.4745338,-1.3114754,-1.5481355,-2.444103,-2.0456095,-1.5861729,-0.77592003,-0.47098958,0.01585958,-0.01228553,0.0051305154,-0.0011005364,0.006469168,0.0050788675,-0.01570118,0.14533626,0.7132514,1.0478213,1.0391613,-0.6012106,0.5663593,0.82831156,0.26885056,-0.18814503,-1.0767217,-0.9454242,0.7124475,1.2106749,0.11275091,-2.0873277,-1.4649962,-2.6192758,-1.9308126,-1.8566564,0.02508912,-0.014661192,-0.0020513406,0.013991079,0.0094470205,-0.011601051,-0.011150363,0.010434639,-0.015148334,0.007345951,-0.021664489,0.013671373,-0.0069319783,-0.024155978,-8.7050995E-4,0.004350461,-0.45512125,-0.30996576,-0.09652147,-0.09419671,0.009606972,-0.00854581,-0.0010062361,0.0011909053,0.002134067,-0.009226158,-0.023845784,0.022450523,0.0098709,0.009325153,-0.017733667,0.0057720994,-0.003132215,0.018762998,-0.013598132,0.0036041497,-0.22319932,-0.4160739,-0.9946686,-0.7259679,-0.26065055,-0.04850967,-0.7903769,-0.53661937,-1.5164822,-1.0794911,0.25471377,-0.17009278,-0.75658625,-0.9814066,-0.652152,-0.25541088,-0.73130137,-1.2252698,-1.3133636,-1.0048614,0.0054861503,-0.004195155,0.016092746,0.018101918,-0.0052812533,-0.004626051,-0.16523921,1.4883139,1.5014372,-0.470336,0.13390197,0.37103683,-0.6724487,-1.7478623,-2.250328,-2.3247588,-2.7075217,-2.1880007,-2.409374,-1.4427534,-0.0639008,0.49195752,-1.0240275,-1.1018767,-0.4097642,0.09311916,0.38919398,-0.15958108,-0.88485926,-1.0639489,-0.017849786,-0.023411296,-0.011135007,-0.0038602492,-0.27474076,1.3112444,2.1796846,-0.5472992,-1.3416413,-0.31080303,-0.28894156,-1.522798,-1.7663554,-2.15133,-2.8690174,-2.1944606,-1.096932,-0.89817506,-0.52386576,-2.13359,-1.9424846,-0.13386165,0.94573474,0.9587746,-0.7072219,-0.17912713,1.1794527,0.73445934,0.8019308,6.294126E-4,0.0150707355,0.22312582,-0.21840087,0.3946506,-0.8183601,-2.2427576,-2.3169549,-1.9834617,-2.2390082,-2.0323555,-2.141632,-2.826976,-2.7300372,-1.5029422,-0.3358734,-0.4114645,-0.76405805,-0.3832795,-0.29322544,-0.30053407,0.68368775,2.1260436,2.8696964,3.5511334,1.938879,2.9066606,-0.8915064,-0.016132234,0.009509199,-0.006077886,-0.9092432,0.42531186,-2.5011866,-3.742547,-4.421996,-3.7933607,-2.0529375,-1.6472404,-2.5582976,-2.2733207,-1.9037493,-0.95187366,-0.59069407,-0.7294326,-0.84772503,0.21267879,0.7446145,0.65058935,0.76782686,2.2687669,2.2152586,1.6748577,2.1784942,1.4932073,-0.81798625,-0.0986444,0.008446403,-0.25499898,-1.7379076,-0.7325363,-2.17105,-3.0386097,-4.697156,-4.3782988,-2.9443336,-1.4809804,-1.1784922,-0.3787993,0.24223413,0.38149333,0.22867323,0.15274426,-0.0064654276,1.0043225,1.6843681,1.3761631,1.5860443,2.2943969,4.0805254,2.907278,3.3268714,2.553184,0.96771455,0.20179775,0.015378191,-0.08973335,-1.297977,-0.12784113,-3.2080357,-3.2692893,-3.1638203,-2.3011153,-1.3711426,-1.0697563,-0.14376162,1.2698996,1.5532185,2.1517124,2.7737598,2.6236603,3.4504259,4.0219574,4.124784,3.1333897,2.4645739,2.2863407,2.8310251,2.8429673,2.426658,3.5770574,0.053845394,0.8501854,1.8916547,0.58643836,-0.76092994,-1.754747,-3.2364125,-2.9736276,-1.9976609,-1.9981414,-0.7516285,-1.2229068,-0.5262754,2.109594,3.444868,4.1793776,3.997461,3.8309472,4.7635865,4.4731894,4.201779,3.2070951,3.1945589,2.291021,2.2374163,2.5687022,1.9703815,2.5322998,1.3251425,1.0195907,1.2609718,0.5458953,-0.13985947,-2.3602922,-1.6626172,-1.9760201,-3.0305593,-1.3049788,-0.4915323,-0.08724713,1.0654166,3.1783183,4.1386304,4.857915,4.1752157,2.8364222,1.7303065,1.7339182,2.319284,1.9178916,1.259502,0.27809948,0.2951201,2.169555,1.814439,1.7885941,0.61648387,0.76651883,1.2778153,1.1709602,0.20431572,-1.6260612,-0.9129097,-0.97946197,-3.109414,-1.1275072,-0.63030994,0.6786492,2.1378157,3.2869294,4.061605,4.6141114,2.016635,-1.5416675,-2.9425302,-1.7464759,-0.926042,-0.89880246,-0.74339217,-1.2836388,-0.43616188,0.96177197,1.5592748,-0.24580312,1.9585198,0.7765663,1.1901511,1.3182285,-0.35061085,-1.285162,-0.7211985,-2.1827154,-1.5561885,-1.0012995,-1.4492621,0.12209461,1.8936099,2.39352,2.5995004,1.4609303,-2.5313056,-6.085724,-6.0633364,-4.473734,-2.8623385,-2.696585,-3.4242277,-2.7425148,-2.653844,-0.8987627,0.57602,-0.88361895,1.4921477,0.21040589,0.13446656,1.4644823,0.57385653,-0.5441031,-1.8699067,-1.7582978,-0.23357031,-0.35633484,0.06959368,1.0771829,1.9074286,1.4003592,0.8734165,-0.56738335,-4.0674734,-6.883069,-5.626028,-3.487457,-2.6992548,-3.909756,-4.0726027,-3.4707963,-3.0748322,-1.7602632,-0.23035306,0.009099703,0.7014981,-0.33345553,-0.08942533,1.9781313,2.381434,0.27139592,-2.1871786,-1.5056032,-0.1055699,0.35609537,0.19280274,1.5083392,2.3689013,0.71786207,0.20604403,-1.5377833,-3.8318908,-5.6525097,-4.330014,-1.6423566,-2.597706,-3.5798554,-3.6091223,-2.800221,-2.1117957,-0.9473752,0.95154166,-1.2757059,1.2088895,0.0773939,0.0045905146,1.1028748,2.261233,-0.12852907,-2.0964906,0.07358712,0.486626,0.8579738,0.92005193,1.6246377,1.9507948,0.21137565,-0.123240724,-2.0187254,-3.5173182,-3.3558776,-2.233521,-1.5806202,-2.8198762,-3.218815,-2.8281295,-2.039925,-0.3332755,1.0043553,0.88106555,-1.844234,-2.052582,0.33454558,0.0031682572,-3.3303054E-6,1.0761873,-0.8346301,-1.0252705,1.4284698,1.0088356,1.314203,0.55692625,0.6507638,0.39550632,-0.2336666,-1.0874213,-2.6827316,-3.5619106,-2.3336973,-0.49131802,-0.20227854,-1.3996708,-2.6033077,-2.2390752,-0.18397328,-0.34645188,1.8304158,0.8453761,-1.3420142,-3.5862586,-0.042707514,-0.023777574,-0.14529617,1.0984604,-0.13991845,-0.860715,0.8409136,0.5812381,0.19800489,-0.61324614,0.074920416,-0.11723642,-0.27024308,-1.8571646,-2.767616,-2.9102416,-1.124363,-0.16743945,-0.47917068,-0.9025389,-0.5927615,-1.3739486,-0.7606912,-0.6073636,0.5101964,0.30768397,-0.5992819,-0.65590096,-0.7922673,0.023956873,-0.06552505,1.0622748,-1.857969,0.21609594,0.9230908,-0.04365959,-0.6098034,-1.2697268,-0.16069716,0.31025878,-0.96426743,-2.4049568,-2.5437517,-1.8113065,-0.78055066,-0.31414843,0.28204846,-0.21831004,0.094562806,-0.8866339,-1.2298524,0.09863488,-0.2296386,-1.0095155,-0.6436521,-0.65778375,-1.5816855,1.1700852,-0.64031464,0.9275472,-2.604109,1.3561938,0.32290906,-0.27098876,-0.31364384,-0.29682726,-0.49166843,-0.9066,-2.4658883,-2.332828,-1.8802694,-1.3436793,-0.2857896,0.22522597,0.2968877,-0.5994051,-0.21348834,-0.24278857,-0.36169294,1.2226263,-0.70287436,-2.3339057,-2.213949,-0.6914227,-0.82666117,-0.02177937,-0.5398833,0.25102997,-2.0617955,1.1978831,1.1603281,0.5898459,0.17162985,0.11133867,-0.108970635,-0.688652,-1.4028744,-1.0451307,-0.46631077,0.108776286,0.84136933,0.19863074,-0.5115574,-0.6459679,-0.34489486,0.20377341,-0.06969934,0.8574378,-1.7920495,-2.3652892,-2.1848214,-1.6964173,-0.26013154,0.020106029,-0.34658733,-0.30169967,-1.8133686,1.2495968,2.725754,1.034143,0.31060246,0.6193035,1.554874,1.7428495,1.8867255,1.8078228,1.5246447,0.7724514,0.04894652,-0.39782244,-0.30480978,-0.37340847,0.63784754,0.17312862,0.24954951,0.120013066,-1.2732787,-1.5785302,-0.80486685,-0.4011805,0.24765773,-0.029025875,-0.10760416,0.92835647,-1.1213223,1.1381259,2.152822,1.0605317,0.6594984,1.20493,2.0024643,2.5930014,2.380549,1.4530609,1.0887749,0.5936485,-0.06528544,0.17787167,0.7207762,1.2922736,0.97821504,0.44301632,0.9790036,0.5914005,-1.0143932,-1.1915357,-0.5595084,0.85429907,0.76691484,0.0064324657,0.075362615,0.9076526,-1.1160898,-0.8874896,0.5330575,1.0596832,0.9078091,0.74144244,1.1443692,1.3097737,2.4430707,2.228074,1.4308331,1.2614684,1.4221323,1.5361865,2.1315699,1.5169351,0.79008126,0.96116513,0.5623089,-0.25784627,-0.89661986,-2.0999925,-1.8278292,0.6363932,0.7334893,0.015305208,0.005209571,0.48401305,0.5501014,1.1637025,1.1365976,2.1123598,0.48654014,1.009517,1.3327361,1.2792416,1.453384,1.9149681,2.2379205,2.510297,2.218917,2.2215955,2.2967274,1.4593258,2.0802999,0.94801694,-0.2656787,-0.99926007,-1.1100308,-0.86691064,-2.0465918,-0.18605004,5.8310543E-4,-0.022155501,0.0010377138,-0.25069803,1.147918,1.2117013,0.015887367,1.1917932,1.2928427,-0.053002194,1.048822,1.2282647,0.6698075,1.7445912,2.4328465,2.9422326,2.4651062,2.0027852,3.4146414,4.879745,2.637417,-0.00474489,-0.44813177,-0.6871775,-0.7824182,1.0796294,0.5076457,-0.94433296,-0.0049225464,0.021266093,0.014807776,-0.7737417,0.5312464,0.019980583,-1.3898722,1.2241503,2.1014714,2.1737616,2.4748828,1.5065913,2.5407543,2.2212148,2.3219042,1.7082069,2.3697124,2.3042905,3.6754282,3.3956797,1.7372552,0.6529477,1.1689485,2.1635916,1.6279557,1.2684798,-0.48436028,-1.0203671,0.020288486,0.010607288,-0.024146307,-0.024756974,-0.0018364721,-1.2780899,-1.8718333,-1.0580381,0.25296327,2.0043368,0.39713708,0.8068521,1.8238065,2.8356433,1.2834219,0.4547038,1.5519649,0.7985051,0.06945291,-0.9504075,4.0373216,1.5114542,1.2554581,1.7554251,0.7666526,0.4696106,0.10665113,0.0037605811,-0.01490684,0.023032658,-0.0065575126,0.0016138162,0.003931567,0.0036548928,0.62807393,1.4617125,1.5112094,1.0562142,1.5402989,2.1243305,0.89489335,1.083454,1.5560629,0.7681454,1.3728105,0.4831512,2.2343504,1.3971381,0.7156039,0.45982376,-0.1504588,-0.20530525,-0.09622223,-3.359292E-4,-0.014428901,-2.2425523E-4,0.014517118,-0.0072507383,0.017234454,0.022023335,-0.0027855635,0.02151856,-0.02397882,0.023624854,0.0022558835,0.006648143,0.017238826,0.012919556,-0.006406834,0.51620597,0.4760001,0.2508673,0.2134542,-0.0196003,-0.019151635,0.020558499,-0.014721408,-0.009528447,-0.013637024,0.0068061235,-0.0010164648,-0.02222766,0.0062112142,0.021271542,-0.00426802,-0.0016288683,0.020984644,0.019002251,-0.019015122,0.6751045,1.3017437,1.111732,0.7755233,0.3402195,0.6967096,1.6236537,1.563174,2.4554472,2.8023548,0.90448815,0.54771173,1.7633737,1.9821472,1.1652299,0.34540266,1.6596718,1.6304289,1.6539195,1.3416797,-0.007584695,-0.009657026,-0.02172461,-0.023351675,-0.025135033,-0.01637987,0.47551814,0.8255295,0.7372058,0.88555044,1.1618345,0.27317446,1.1765229,2.4952142,3.230096,2.2650297,0.93243414,1.0558614,0.710292,-0.27691466,0.9836901,1.1701875,1.0905867,1.1658903,1.5626395,0.30202264,0.10384083,2.6691337,1.3056029,0.8560049,0.024632838,2.9170653E-4,-0.021576896,-0.002537128,0.83474207,1.177862,2.141973,1.5220127,1.8575463,1.7083207,1.6002761,1.4531744,0.06119583,0.6111899,0.093601644,0.77871555,0.9314642,1.0467631,0.0321993,0.1904908,0.34522173,0.7504301,1.1452773,0.92642885,0.83268565,1.8371339,1.6596111,0.86356974,1.5475031,0.012305825,0.011138351,-0.43167707,-0.033666227,0.5113276,1.0838183,0.35188496,1.2757839,0.5522993,1.3871849,1.7861568,2.0865479,1.3210168,0.21340081,0.26704428,0.18140775,0.08781259,-0.16346806,-0.28271416,0.50503093,0.07169176,-0.46466312,-1.0636913,-0.9757704,0.053845223,-0.2928075,0.5720041,-0.76525414,0.010503395,0.003579083,0.009935177,1.4556128,0.22600655,-0.44409835,-1.0389645,-0.68001443,-0.08174163,-0.1867526,0.3386043,0.709181,0.22532672,0.1374113,0.48220584,0.18821447,-0.20058882,0.008610131,-0.22447649,0.18882176,-0.31303245,-0.4562629,-0.77152354,-0.7251076,-0.082755335,-0.054216117,-0.31653374,-0.28901258,0.031241449,0.0047142603,0.010416417,0.73171264,-0.63511974,-0.27482125,-0.55496436,-0.3514698,0.10026854,-0.038438443,-0.15411802,0.09254611,0.286833,-0.122900456,-0.42430982,-0.52641636,-0.53747845,-0.5839521,-1.1387484,-1.0664496,-1.4869082,-0.9495925,-1.0393784,-1.4119074,-1.4181613,-0.6363818,-0.5220583,0.83247894,0.5747144,0.014487506,0.308,0.6675049,-1.7202954,0.25432098,0.25116897,-0.18267393,-0.2721031,0.1928446,-0.8627309,0.055284053,0.29397455,0.14528713,0.3785808,0.84501106,0.35270143,-0.5065035,-0.65373296,-1.3252773,-1.3373694,-1.671545,-1.6459308,-1.5118705,-2.2611125,-1.3193493,-1.2717441,0.8396021,0.47692287,1.3043203,0.49881318,-0.1425147,-0.85416955,0.6865537,-0.5089606,-0.6318877,-0.26436982,-0.2658413,-0.035980046,0.6184337,0.03062273,-0.19965574,0.31827798,1.0207278,0.7191266,0.37625006,0.34330112,-0.57646227,-0.4625828,-0.5194785,-1.0298015,-0.6873062,-0.8651002,-1.8539202,-2.010917,-1.6257623,-0.1899762,-0.6722485,-0.57753634,0.09921372,-0.33909586,0.4181682,-0.72360116,-0.19519074,-0.05971844,-0.099929236,0.5148718,0.18925007,-0.059112083,0.053937834,0.3989377,0.7594671,0.4745197,0.7191021,-0.108439684,-0.7642987,-1.2409726,-0.86367905,-0.9413615,-0.8322784,-1.0247034,-1.9337791,-2.2693813,-1.0494066,-1.2502853,-0.6830849,-1.0759147,-1.3646668,-0.25099313,-1.1628847,-0.5799162,0.24077684,-0.06321842,0.07623735,-0.007285232,-0.16526748,-0.26385903,-0.8100173,-1.0837114,-0.85472566,-0.4820015,0.22301075,-0.37265503,-0.70545894,-1.1299974,-0.8261136,-0.3678658,-0.5074545,0.54225266,0.16775861,-0.8203071,-0.020004904,-0.31677747,-0.8599936,-1.7290645,-3.9755192,-1.0137436,-0.5553843,-0.39073244,0.07503367,-0.6393276,-0.40794885,-1.0006729,-1.4251165,-1.6527269,-2.316003,-1.3209108,-0.09441551,-0.0995811,-0.37028864,-0.7420877,-0.13524392,0.4072216,0.7285627,0.70464504,1.1060381,1.0888243,2.3224502,1.776722,0.38763216,0.45066333,-0.3815172,-1.4750874,-3.399743,-1.6401407,-0.7286087,-0.6150719,-0.8733643,-0.47355908,-0.46533236,-1.0551277,-1.2399518,-1.7103795,-1.3091501,0.68505144,1.1757239,0.10015744,-0.2988701,-0.65619344,-0.24703301,0.817346,1.4291558,1.2203834,0.2581499,0.0045190384,0.6275454,1.8837614,-0.15895878,0.7970662,0.21905562,-0.7807248,-2.4084284,-1.3108182,-2.4327261,-0.47118834,-0.87372357,-1.0976982,-0.4259301,-0.73521173,-0.692831,-0.70211357,0.3551525,2.0489883,1.5963004,0.38266805,0.21934302,-0.6272639,-0.160675,0.76122785,0.90561694,0.20754045,-0.066273294,0.18354574,0.44947055,1.9489512,3.571823,2.2995431,-0.0039011212,-0.7145058,-1.8770931,-0.7707737,-1.476059,-0.12949383,0.10768234,-0.16553332,-0.46316704,-0.5596538,-1.1410744,-0.1848873,0.90313125,2.1660638,1.3432571,0.30287167,0.2189491,-0.32833272,-0.14026147,-0.2060205,0.07883354,-0.37657183,0.6150694,0.32178384,1.0228069,1.5063121,4.1120625,1.9962119,0.0011315272,0.0076611205,0.026354201,0.5128931,0.38916504,1.019757,1.0815499,0.37187627,-0.2840272,-0.58809274,-1.0498326,-0.2307554,0.9903643,1.5056305,0.74011344,-0.22712854,0.051551297,-0.20207623,-0.47453246,-0.52483624,-0.49828598,-0.4155841,-0.77193815,-0.13089857,1.2043291,1.673984,0.22056808,0.32502788,0.015726898,0.8386566,0.35668176,1.4732877,0.6758431,1.5233417,0.6232799,0.91487557,0.2470792,0.414174,0.38622126,1.1242423,1.0632911,1.1259409,0.3778999,-0.231415,0.1256805,-0.04134527,-0.45982057,-0.5700163,-0.27792275,0.48141354,1.3171296,1.310266,2.2108314,3.5143623,3.4386878,1.9575506,-0.022738568,-0.30093083,0.979195,1.3299974,1.0382992,0.84175324,0.72595155,0.9723841,1.6848631,1.7253458,1.4665773,1.379916,0.86662793,0.6812289,0.19358246,-0.37186396,0.1899238,-0.31057018,-0.024065398,-0.09397499,0.071997136,0.53609145,1.0899982,0.9460348,1.0367337,3.3396335,3.2162101,3.348652,-1.1862442,1.3413023,0.054068055,0.7767721,0.70228106,0.90354264,0.9387076,1.7380573,1.928794,1.5558101,1.3390821,0.846181,0.7962718,0.3788318,-0.10325029,-0.5040139,0.74961126,0.43727747,0.47273996,0.3999701,0.31512782,0.5031735,0.85939246,0.8305641,1.4262772,4.0387115,0.42613268,1.9676158,0.01483101,1.4667039,0.24865125,-1.0548269,-0.9775912,-0.40163928,0.039631266,0.8186715,1.5618385,1.2551774,0.9145475,0.998967,0.60758626,0.119184345,0.04405196,0.4981138,0.9434858,1.4752558,1.1039559,0.2731062,0.6165394,0.71283835,1.8775934,1.8413117,0.9577644,3.7029479,1.6155123,0.676991,-0.017087217,1.1205565,0.8061475,0.6800467,0.69701743,0.17579462,0.12980527,0.64367765,1.0829824,0.8148148,0.40562165,0.5452821,-0.145456,-0.36720723,-0.02642616,0.62648934,0.8943557,1.3835385,1.308551,0.40303504,0.8969471,0.8672807,1.735686,1.3278477,0.7257989,1.4856738,0.9129788,-0.26874483,0.08943549,-0.05338145,1.6431916,1.6081115,0.032058302,0.36362067,-0.08263516,0.28907892,0.0014088769,0.8366895,0.5371088,0.051527984,-0.15086135,0.6810195,0.677283,0.5654062,0.43565407,0.91754407,0.42736617,0.42011553,-0.053542722,-0.06382487,1.2787305,1.2576159,-0.3395268,0.564631,2.0087616,-0.11402814,0.121530935,0.19963428,1.3109038,1.6319112,-0.06339355,0.3558387,-0.31400093,-0.38023683,-0.39442196,0.06596575,0.55050117,0.5177673,-0.11668741,0.12591115,-0.45629117,-0.55081224,0.2527007,-0.276357,-0.1789169,-0.14020306,-0.12319857,-0.45634496,-0.48937806,-0.6385068,-0.68842125,0.8625862,1.5769545,-0.15231907,0.011874134,0.005896318,1.1220963,0.73009014,-0.33229777,-0.24692559,-0.32251325,-0.38315278,-0.08835976,0.21193592,-0.6254726,-0.42672145,-0.37142554,-0.37206066,-0.94338614,-0.53378755,-0.3894276,-0.8125126,-0.64537996,-0.8876844,-0.36056793,0.10848055,0.22362949,-0.35847396,-0.09971343,1.4977582,1.0797825,0.0069011324,-0.02388408,-0.018015353,-0.014433296,0.78512496,-0.5031626,-1.3726208,-1.5895578,-1.5244783,-0.5314183,-0.4848126,-1.2160852,-0.52306026,0.3198106,-0.14979644,-0.60482395,-0.23570669,0.25636438,-0.4791287,-0.6322834,-1.097466,-1.2046465,-0.74758226,-0.92121434,-0.4998796,2.047805,1.0651798,1.0909499,-0.013689741,-0.0144327,-0.016713055,0.45589513,-0.67667854,-1.3358026,-1.9146945,-0.56957954,-1.4002109,-0.43725222,-0.5778895,-0.7993288,-0.9236772,-0.41019365,-0.72865975,-1.8362373,-1.6824231,-0.964796,-0.80300057,-1.0890179,-1.1002452,0.13215716,0.085296586,-1.5145025,0.1620186,0.5838642,0.28947923,1.0914975,0.01817859,0.007853476,0.021644035,0.0028708917,-0.005647084,-0.83978647,-2.0362105,-1.500373,-0.6609695,-1.1896653,-1.44307,-0.47804275,0.4253848,0.38509703,-0.2163577,-0.41751477,-1.6952509,0.9279307,0.41571766,-0.5959472,-1.3649585,0.11635902,-0.50044525,-2.3555295,-0.9311763,-0.7264973,-0.50825804,0.005805436,-0.021728434,0.012635061,-0.009304265,0.010521847,0.0041174483,-4.3794818E-4,-0.4070471,-1.3997505,-1.2387414,-1.5166366,-1.7323592,-2.6637206,-0.098179065,-0.08128468,-2.4338162,-1.8826916,-1.6903803,-1.5564609,-2.6733425,-1.8221935,-1.4378961,-1.2462548,-0.9222104,-1.847469,-2.131624,-0.010353258,0.021016166,0.024352906,-0.019429885,0.012512797,0.021864306,0.009701204,0.013449111,-0.0056754104,-0.009734541,-0.019848753,-0.007629848,-0.018697346,0.01725268,-0.0112880105,0.004381066,0.21270189,0.09807188,-0.25015596,-0.24898608,0.009615243,-0.02018608,0.020420022,0.0074068694,0.0021351124,0.009667665,0.015373086,-0.015421105,0.0025497996,0.018230401,0.015686918,-0.013429986,-0.00502882,-0.023373859,-0.015654344,-0.025065072,0.5881632,0.7313898,0.6032899,0.67853427,0.21075119,0.53862804,1.1663761,1.1726068,1.1800476,0.17818171,-1.0365013,-1.409683,-2.2641008,-1.2116241,1.0595466,0.8490714,0.7468266,-0.09628285,-1.1486008,-1.2560806,0.022483794,-0.018301204,-0.003581483,-0.0073344214,-0.018107325,-0.02329244,0.7930102,-1.8269963,-1.1212238,1.6942623,0.65868276,0.32149586,1.0502453,1.5403904,0.86292976,0.7410563,0.84230924,1.3006554,1.8746114,1.5477439,0.30747095,1.8533444,2.342264,2.2052152,3.3622065,2.8539376,2.0065563,0.7612525,-0.58061385,-0.7564663,0.022118019,0.023408348,-0.020068971,-0.0010905577,0.64471483,-1.6143057,-0.18295203,0.21524006,1.1149656,0.6292014,-1.0751016,0.48134804,1.5358467,1.9709373,-0.258136,-1.0569288,-0.3094752,0.18678191,-0.77572197,0.962884,1.3510437,1.6860263,0.80546755,1.9220235,3.4916432,3.9127955,2.0542336,0.51865506,1.897412,0.009435306,-0.017584812,-0.11903149,-0.7073126,-1.1159034,-0.15898956,-1.4125485,-1.7631035,-2.1047437,-1.5121137,-0.513886,-0.5353523,0.33525842,-0.16033755,-0.45391807,-0.8279146,-1.3307811,-0.16405602,-0.34338912,-0.55363905,0.8555856,1.5330602,2.29291,2.6773705,3.2757812,1.6993089,0.48397666,-1.2402444,-0.022968614,0.009587306,0.0097761825,-0.053440385,-0.8995919,-1.1113019,-2.708662,-2.6107154,-1.7912381,-0.9482123,0.560599,0.63236004,0.71551967,0.19939531,-0.9316374,-0.9880536,-0.7462296,-0.53366786,0.13214298,-0.3421855,0.47710553,1.3170594,2.0938375,2.153641,2.3262637,2.860492,1.3157703,-0.471473,-0.16097803,-0.01650324,-0.09194906,-0.5082793,-0.6880919,-1.5129282,-2.9546762,-3.4960728,-1.5964794,-0.050618052,0.8524208,-0.33209404,-0.5418731,-0.35231137,-1.3040352,-1.8219547,-2.483448,-2.1032457,-1.0768694,-0.96558243,-0.36832455,0.3502869,0.79362786,3.0779452,3.237231,1.9178028,1.8414161,-0.78228617,-1.8849143,-0.014644615,-0.41779092,-0.2844655,-1.4565008,-3.053131,-3.2780697,-3.584327,-0.69520974,0.6585738,0.4372758,0.44868782,0.2566197,-1.2261965,-1.6138531,-2.465063,-2.026957,-1.7884146,-0.84547764,-0.6242542,-0.22247177,-0.31450468,0.6062876,1.8925171,2.3117676,1.8801173,2.511756,0.04883446,-2.210147,0.63820934,-0.71034116,-0.36894065,-1.9793879,-3.1240654,-3.0172544,-3.2594361,-0.87314373,0.33053812,1.6472937,1.2552624,0.45548654,-0.8582552,-2.072305,-2.597951,-2.179528,-1.2867566,-0.89846873,-1.0437897,-0.83861077,-0.2188588,1.2348198,1.327735,1.5946317,1.9736168,2.8673322,1.2141175,-0.9534393,-0.99550456,-2.5473597,-0.31201175,-2.4349906,-2.834679,-3.6775043,-3.2481313,-0.9082608,0.4845011,1.5538347,1.0436959,0.56491077,-0.8480752,-2.2593338,-3.1814096,-2.151332,-1.0715796,-0.74212617,-0.39467445,0.059124913,0.10199184,0.044218924,0.3924472,1.3167475,2.5126894,2.4988952,0.7820052,-0.2658298,-0.9741261,-1.513502,-0.8060548,-2.5073016,-1.7297182,-3.490083,-3.0569494,-0.45129335,1.1445179,2.0150645,1.6108072,0.5778783,-0.13837458,-2.2622547,-4.211193,-1.5870298,-1.5012214,-0.8390917,-0.86511254,-0.43369687,-0.9091171,-1.1650363,-1.6792765,-0.14687054,1.6276602,0.9244846,-2.6152127,-0.9033207,-1.1748961,-1.043554,-2.512666,-2.8295453,-2.0796325,-2.5890853,-2.0490422,-0.42221603,1.3031561,2.6590724,2.1256514,1.5691882,1.4421161,-2.2019413,-2.9578056,-1.959258,-0.57779706,-1.2495897,-1.4511656,-1.3367617,-1.9947612,-2.5850618,-3.4308138,-0.36477727,0.13785838,-1.8364528,-1.8500729,-2.3245413,-0.31052077,-1.055851,-2.2254045,-2.446912,-2.1490777,-2.4310753,-1.0831463,0.010549091,1.3971777,2.1647117,2.158322,2.722822,2.0870733,-0.526188,-2.4224176,-1.0837351,-0.46567836,-0.07697512,-0.7556291,-1.9371315,-2.2319489,-1.9087509,-1.9677321,-0.17425534,-0.19639763,-2.893846,-2.9324837,-3.118013,-0.06786516,-0.79574245,-1.6916398,-1.1011827,-1.0484704,-1.1117691,-0.22560444,0.4267321,0.9466155,1.9258841,2.4363585,2.8320034,1.8812181,-0.760754,-1.8027269,0.2364327,0.14835523,0.80758023,0.03367173,-0.91396964,-1.5590096,-0.7393683,-0.2659135,0.5380321,-0.82711965,-3.0357327,-4.3074203,-1.8847846,0.012138737,-0.5404891,-1.5961746,0.19304052,-0.3568653,0.040990833,0.2041179,0.7252864,0.88733536,1.4437472,1.5889643,2.3266456,1.4134272,-0.128279,-0.11877617,0.07451645,0.8559741,1.1775258,0.41859972,0.63356423,0.123356454,-0.3290703,-0.030802403,-0.002817282,-0.71690106,-1.3446378,-3.283238,-1.8812556,0.008425694,-0.00483408,1.4805697,0.5801324,-1.808093,-1.4174014,-0.75912476,0.79464513,1.2036188,1.6535839,1.546717,1.6552498,1.6353729,0.8459985,0.54644245,0.24372818,1.0431905,0.92697895,0.010643466,0.23463331,-0.28057325,0.40331438,0.97469515,0.19121118,-1.1119473,-0.97827464,-1.3489349,0.39610675,-0.011906978,-0.4376775,-0.75592524,-1.2285401,-2.4156876,-2.0946386,-0.76234865,-0.2412749,0.8521445,0.6314341,0.58311206,1.1531774,1.4784186,1.2169726,1.005528,1.4958416,0.9201491,0.10548898,-0.09935675,-0.019111678,0.0043278905,0.07640025,0.61966556,-0.17339493,-2.5275407,-2.4117298,-3.086057,-1.3166676,0.010280466,-0.39615253,-1.512303,-2.186612,-0.90193754,-1.8798867,-0.58783513,-0.29606023,-0.029077386,0.05824435,0.040927432,0.48155552,0.51810026,0.6752355,0.64319444,0.7716211,0.79338056,0.070473604,-0.48794153,-0.79940015,-0.071799725,0.2357192,0.43335754,-0.5804289,-0.95160556,-2.4811878,-2.1377714,-2.8275898,-1.6677786,0.34428552,-1.6973938,-1.4841014,-1.18988,-1.1573861,-0.6472669,-0.06534356,-0.48882964,-0.38437438,-0.47048628,-0.1084385,0.6923044,0.8059913,-0.08897378,0.18612824,0.08477312,-0.88214713,-1.2083181,-1.0743538,-0.8365486,-0.1301061,-0.38358694,-1.1102964,-0.1656094,-1.5782478,-1.4510312,-0.93141574,0.004008843,0.3885174,-1.264812,-1.6986935,-2.0769944,-0.98245764,-0.23910548,-0.12792753,-0.052247237,0.111249685,0.6284659,1.3514475,0.90941125,0.50562936,0.4735411,0.07471773,-0.4066873,-1.069293,-0.8411243,-0.70653844,-0.93761724,-0.5123522,-0.902108,-1.1709219,-0.7890557,-2.222835,-1.6715297,-0.58734244,-0.019834062,-0.07806057,-0.26450175,-1.6991818,-3.6044924,-2.5573003,-1.3005447,-0.9104238,-0.5958728,0.6643665,1.0041844,1.3214808,1.6273582,0.46062312,0.5711265,0.38609087,-0.050537065,-0.49034712,0.23335752,0.034844693,-0.8178598,-0.87702435,-1.8817579,-2.9924834,-1.4985023,-1.1204847,-0.7366747,0.009131448,0.018531302,-0.42718086,-0.0621005,-1.7255304,-2.3235683,-3.496707,-3.143235,-1.8947698,-1.1245853,0.51478297,0.34882402,1.2589878,1.4347428,0.9558196,0.9216203,0.84454703,0.3277069,0.7619725,0.30479306,-0.28411797,-0.8363384,-1.0921713,-2.089498,-2.5920467,-1.7632912,-1.0746082,-0.39188978,-0.5322775,0.016361125,-0.019879961,-0.5755209,-1.1723281,-0.883494,-2.4814842,-3.4082239,-2.98467,-2.66171,-1.0893188,-0.3770684,0.7448131,1.1184527,1.1829145,0.9724765,1.2124305,1.0134833,0.54901135,-0.20033403,-0.16048542,-1.8212236,-1.1462901,-2.681136,-1.7173326,-1.5490515,-1.0132549,1.3081276,-0.5448592,0.009649751,-0.008789464,-0.23168635,-0.5476374,0.027143663,-1.2631935,-0.2245208,-1.5909693,-1.634847,-2.0337086,-0.9316991,0.32439214,0.9276154,1.3089602,1.4512067,1.2942314,1.6747338,1.1400194,0.3786423,-0.7197715,-1.1795118,-1.3458842,-1.2236122,-0.66392916,-2.2181356,-0.41464695,0.34814373,0.0109408945,-0.004338251,0.025158076,-0.44709364,-1.2201444,-0.45536295,-0.2890423,-0.22835204,-1.7752901,-1.9373102,-1.8667183,-0.838138,0.27092007,0.96604484,0.94020975,0.5132013,0.43069527,0.87425405,0.4333485,-0.30138397,-0.26291436,-1.3781062,-0.91092867,-0.8387112,-1.9758257,-1.4658285,-0.3235191,-0.6204909,-0.02155998,-0.008644066,-0.009585401,0.16099206,0.5454764,-0.2556824,-1.3989773,-1.3118775,-1.6333714,-1.5895209,-1.3459795,-1.0519513,-1.1606565,-1.8643914,-0.89653146,-1.089524,-0.6357083,-1.1708883,-1.4079629,-0.5614705,-2.1496084,-1.3879093,-0.6867815,-0.27263558,-0.33997408,-0.87456834,0.058676865,-0.40461457,-0.01754203,0.020268647,3.1028868E-4,-0.011523836,0.018052751,-1.2454453,-0.9858739,-1.0051199,-1.9331455,-2.6431224,-3.5332806,-2.4762433,-1.948106,-2.1204088,-2.8431306,-3.1991937,-2.9627063,-2.6052604,-3.7551804,-3.815818,-3.282496,-2.1055326,-1.9872228,-2.3278358,-1.4437593,-0.5921262,-0.16744044,-0.001010002,0.004404526,-0.0127317635,-0.008444444,-0.004776901,0.0040563396,0.020996021,-0.2592366,-1.8918823,-2.2322073,-2.4637845,-2.165128,-3.0915163,-0.7332832,-0.11157273,-3.5623093,-4.144441,-3.193974,-2.771727,-2.2087047,-1.4234822,-1.554837,-0.50454533,-0.08865133,-0.23113865,-0.20482554,0.01052016,0.015232981,-0.017236687,0.022042384,-0.0031468063,0.0018171938,-0.023334134,0.008919533,-0.0016041452,0.022674128,-0.0024296257,-0.010398496,-0.007129152,0.016863676,-0.0022833447,-0.015496545,-0.22709112,-0.05277071,0.3694478,0.33174625,-0.002611971,8.687792E-4,0.016557274,0.0040071453,-0.002536269,-0.005614,-0.0072611645,-0.018713443,0.012411005,-0.014172993,0.0060248175,-0.0113120405,0.008661836,0.021536265,-0.009336852,-0.015915046,-0.2711725,-0.42383572,-0.6119015,-0.6830507,-0.7212708,-0.7736764,-1.5654556,-1.109649,-2.058545,-0.56057644,1.7791187,1.6515287,1.7371582,0.82246286,-0.208296,-0.6283609,-0.8587559,-1.2053716,-1.0818423,-0.78946316,1.9029644E-4,-0.0043238164,0.013920905,-0.0036388587,0.017388044,0.024319572,0.16100942,0.7304392,-0.44694367,-0.34433994,-0.32693148,-0.7439995,-1.1787658,-1.5605593,-1.486831,-1.0547723,-0.70468736,-0.15973662,-0.19674921,-0.22440608,0.8398516,-1.5053277,-2.9440045,-3.0308154,-2.5146468,-1.622728,-1.0854789,-0.0664651,0.61569756,0.6474819,-0.010141635,-0.021255432,0.009382011,-0.01083952,0.7923473,0.7299796,-1.6555275,-0.13495037,-0.635193,-1.2934002,-1.7654372,-1.8272486,-2.6468885,-2.3193104,-1.1009021,-1.5443723,-1.7579201,-2.150435,-0.833455,-1.9569613,-3.586755,-3.9567475,-3.3089654,-2.5672607,-2.4680357,-2.344153,-2.0138233,-0.91714823,-1.9235953,-0.016604407,0.004067069,-0.13744019,0.95079875,1.1098659,-1.0152888,-0.35840797,0.05588154,-0.08509104,0.28491127,-0.6232404,0.027317662,-0.6807196,-1.3711166,-0.73466057,-0.7534096,-0.39317194,-0.28592965,-0.7852544,-0.7352843,-0.21212418,-1.0676157,-1.0845659,-1.6459072,-3.4607985,-3.3624818,-2.398284,-0.935212,0.018931212,-0.010285536,0.015106397,0.026989244,0.17807747,-1.2508043,0.25953,-0.66773957,-0.94018936,0.28983155,-0.16809589,-0.4062869,-0.46503174,-1.2615472,-1.0364912,-0.16549015,-0.16481473,-0.22645977,-0.7468722,-0.76417065,-1.5494118,-1.6661942,-1.152664,-0.64687765,-1.2242059,-2.9100287,-3.5376089,-0.25126922,0.124303974,-0.014560511,0.058395986,-0.38315657,-0.9391086,-0.8437141,-0.3358424,-0.4909932,-0.4675657,-0.3800097,0.19881013,1.7183324,0.8377276,0.21893273,0.37421146,0.6129883,0.5051336,0.68030655,0.56852794,1.0567001,0.49427542,0.68381333,1.3068069,0.8906901,-1.3734144,-2.9001014,-3.9453826,0.07410955,0.33968896,0.01137544,0.58746445,0.67290306,0.42525986,-0.780522,-0.8385771,-0.28494275,0.02236466,0.16999446,2.1372952,3.183239,1.5370151,1.2359543,0.87512815,0.21619733,-0.4814504,0.586531,1.3096045,1.6138003,1.6111082,1.7222776,0.8651683,1.5717627,-0.077872105,-3.454374,-4.5879145,0.17627357,0.4993118,-1.990192,0.76345515,0.26753938,-0.9220529,-0.33239043,0.13913669,0.18254606,1.218536,0.8110458,1.531509,1.9074055,1.1860936,1.3080575,1.2661592,0.96742976,0.9171207,0.9021982,2.0050611,2.7991934,1.8090278,1.5685991,0.8237168,1.5480825,-0.648107,-4.4171996,-5.1493387,-1.4232475,-0.117058024,1.3074645,3.3881965,0.23764223,-0.8478659,0.20027,0.4129888,0.4871306,0.7558596,0.9401531,0.6775667,0.091772184,-1.3123541,-1.4349517,-1.7632093,-0.68303585,0.34573692,1.2062492,2.2630394,1.8112588,1.2163035,0.9525436,0.2953889,0.1526586,-1.325645,-3.9316378,-5.2435765,-1.7633859,-0.42571175,1.3415256,2.7436953,0.31443378,-0.7308955,-0.9710654,-0.7511951,0.14809126,-0.10991504,0.21387048,-0.8133278,-2.5732107,-4.295606,-5.505846,-5.232159,-2.3067415,-0.091938265,1.1972861,1.384818,0.77990204,0.7800168,-0.0062572374,-0.5368792,-1.2121124,-3.1722128,-4.1474676,-3.3171477,-0.20069425,-0.3297842,1.7023053,1.0445374,-0.42228287,-0.7755125,-2.4717119,-1.9433858,-1.3715028,-0.7160814,-1.9779044,-2.5550914,-4.83573,-5.4692826,-6.2174983,-5.654678,-2.5649326,0.29423162,0.60896516,0.70122,-0.05350922,-0.27914572,-0.75528884,-1.8241085,-2.549499,-3.8749177,-3.8711033,-0.5352889,-0.9891323,2.0501328,0.6385561,0.8155533,0.094829544,-1.711881,-3.0115967,-2.9903135,-3.4495091,-3.470563,-3.4810362,-4.349895,-4.755088,-5.042363,-4.287956,-4.157912,-1.6841922,0.6127073,0.61238706,-0.85618037,-0.9080054,-1.4485916,-1.9618881,-2.3877065,-3.1507533,-3.0760944,-1.6405702,2.4295406,2.9006324,3.0965438,0.07910429,1.3810692,2.0040088,-2.3211591,-3.0889452,-4.5844865,-4.186509,-4.532361,-3.6703656,-3.41725,-2.9142838,-1.9482186,-2.2840588,-1.2138578,-0.20299007,-0.0077218227,0.5829361,-0.69676566,-0.7786032,-1.376418,-1.7190542,-1.0815538,-1.8348538,-2.0807855,-0.035208344,3.3376174,4.4634132,1.5886843,0.0010915757,1.4956261,1.5577888,-2.2085965,-1.4001377,-3.5752711,-3.9745033,-2.0458272,-2.347421,-1.4129453,-0.3489964,-0.6327644,-0.58394474,-0.05002262,0.29569742,0.7213324,0.5620034,-0.3357842,-0.47485486,-1.3128422,-1.6918513,-0.14386278,-0.38362244,-0.6412686,-1.3774977,0.34086388,2.7864594,2.2833219,-0.005524088,-0.0151662715,-0.4976345,-1.555304,-1.1723655,-1.6244413,-2.2121856,-1.058442,-0.010848193,-0.60405976,0.16417755,0.60812134,-0.48280394,1.0815753,1.4120611,1.6720588,0.06380408,-0.8567654,-0.92865413,-1.6775814,-2.0578768,-0.53734195,-0.98530316,-0.65796345,-0.93122756,-0.07646968,2.6008222,0.6637876,-8.990479E-4,0.9407374,0.3530606,0.32140255,-0.53794175,-0.9354791,-0.65657926,-0.08965383,-0.24484773,-0.20356053,0.19324292,0.08175945,0.91218174,1.7833049,1.2965,0.3150934,-0.69275916,-2.0298493,-2.4328117,-1.9204302,-2.9063716,-1.460853,-1.225107,-0.6349294,0.27919585,1.2167671,4.0066876,1.4110457,0.014836393,0.64172083,0.6178935,1.6830828,-0.47971743,-1.1610053,-0.89554596,-0.46155447,-0.59826654,0.053190418,-0.26600233,0.5977082,1.5777911,2.3050277,1.2014021,-1.0081309,-1.5981885,-2.2844403,-1.8905296,-1.2544715,-2.3689766,-1.7870741,-0.38975388,0.9763428,2.4012942,1.9428117,3.4621904,0.66974974,1.5695535,-1.2449197,-0.85185677,2.1182065,0.27386189,-0.7966209,-1.8920246,-1.6727835,-1.1140921,-0.34439152,-0.4393087,-0.15934081,1.4914577,3.3409715,0.8736405,-1.5538044,