0.005651857,0.023245879,0.012431732,-0.014568478,0.0046436684,-0.02521101,-0.02383858,0.011355903,-0.015569977,0.018333413,0.0068155583,-0.012092066,0.33770022,0.37459788,0.20294401,0.15498926,-0.013678314,0.024940189,-0.0031386719,0.019150836,-0.01857091,0.01885948,0.0156102255,-0.01209898,-0.0028936504,-0.0030541478,0.0071731545,0.0037787787,-0.011151388,0.01951589,-0.008182142,-0.007431735,0.12734345,0.31154034,0.47883445,0.84307814,1.215748,1.9431785,2.2626936,2.5969892,3.0186427,2.5537999,2.0697122,1.1759405,0.45496085,1.339252,1.8738036,1.662736,1.2146988,0.6652979,0.38753888,0.4261874,0.0041691046,0.0027294676,0.015055675,0.015421326,0.017848928,0.020774368,0.14332105,-0.044938482,0.14020175,0.44151542,0.5183362,0.21170083,0.967489,0.97047925,1.6992296,2.2292752,1.095127,-0.06846997,-0.6122233,-0.19115242,-0.23441716,0.8443929,1.1445049,0.9579627,0.61027753,0.10898074,0.27775502,0.6458673,0.59928983,0.40137565,-0.0019224989,-0.020471891,-0.0079068635,0.0015297083,0.18963966,0.18358274,0.8958716,1.8513167,2.4154737,3.2258933,3.1641347,3.4899821,1.6257852,1.1563406,1.0367306,1.4697185,0.6068331,0.6788219,-0.520236,-0.6726379,0.3301011,0.14161788,-0.21865019,-0.50226617,-0.53434527,-0.051282752,0.13997605,-0.064983994,-0.14748363,0.010957283,-0.012260695,0.102820605,0.10892745,0.108805366,0.36953694,1.010276,1.975731,1.7324154,1.0011232,2.0607195,1.0334169,-0.010343529,0.5412213,0.8279969,1.343632,1.8392837,1.4744741,1.1944025,0.4148273,-1.485829,-1.1452725,-1.1998907,-1.3844547,-0.84673977,0.46162984,0.5644241,0.032804012,-0.0037984122,0.009217373,0.012745975,0.60422534,0.6251424,1.4239789,1.360872,0.85482794,1.3047187,0.393625,0.16340217,0.47489786,-0.5057541,-0.8500047,-0.4671101,-0.16691428,0.15255418,0.46405998,0.6180777,0.33971342,-0.023184195,0.6384934,-0.4443654,-1.9604675,-3.0568957,-1.38187,0.06744526,0.30491287,0.060440186,0.006213298,0.08589134,-0.051098365,1.0467509,0.71056414,1.8143824,1.7482508,1.3045833,0.436274,-0.039452612,0.19693841,-0.30529064,-0.5356082,-0.82070935,-1.0491356,-0.5120119,-1.146867,-1.8845855,-1.3842292,-0.7632679,-0.72438246,-1.834807,-2.516363,-3.653524,-1.0745602,1.3056086,1.1619861,0.4396384,0.015687495,-0.6396538,-0.23805577,0.96730864,1.5742452,1.9260125,1.4196609,0.49907592,1.5427852,0.38225576,-0.32308894,-0.4505942,0.3529409,0.32920197,0.47797155,0.12083466,-1.3048035,-1.2444439,-0.78831017,-0.80890524,-0.8343717,-1.2117631,-0.8519306,-1.7203294,0.5575889,1.6294849,1.1315116,0.5292445,0.024819601,-1.4777851,-0.7300428,0.32824415,1.5852613,1.7566786,1.1238145,0.69277745,0.8280873,0.9782859,0.09210176,-0.122266725,-0.8252079,-1.172434,-1.0926478,-0.82327163,-0.12213113,-0.72808874,-0.59877473,0.42888066,0.85363245,0.7981269,0.9666442,0.10911332,1.4992017,3.6355863,2.9330468,1.1068869,-0.36430573,-1.9417626,-1.940993,0.37355003,2.1457772,1.3619945,1.1563468,0.14180465,0.7635453,0.80678385,-0.0018353616,-0.4747984,-1.9829351,-2.4557562,-1.8761437,-1.9438238,-0.34958827,-0.011228795,0.19700992,1.3650215,1.900305,2.0635803,2.025962,1.5801224,3.1512668,5.082003,2.5480092,0.57585907,-0.3574398,-1.810558,-2.361305,1.2282767,1.3710392,0.7520727,0.6685063,-0.92178065,-0.6227003,-0.44611996,-1.7112312,-1.3312232,-2.293274,-1.9156078,-2.9506516,-2.7907178,-0.77528965,0.21341276,0.74528027,1.113489,1.8732402,2.5461001,1.9451207,3.1421475,5.669815,5.5376005,3.1557255,0.35035837,-0.5365799,-0.8299903,-2.427389,0.8167413,1.1239607,-0.0137501545,-0.20847288,-2.1760852,-1.9256009,-2.7170217,-2.2713041,-1.5330157,-2.5686529,-1.3231238,-1.4452696,-2.02992,-0.746235,0.38905838,0.93516123,1.3167261,0.8938774,1.4789914,1.7107555,2.4006875,4.3525577,5.7763534,3.2591686,-0.21459985,-0.19520363,-0.86593163,-1.9583462,0.23555359,-0.8037278,-0.7195762,-0.942721,-1.6308014,-2.005013,-1.7023083,0.24691777,0.008262338,0.085308306,0.8284836,-0.024367882,-1.5620618,-0.9208583,-0.47348854,-0.33488882,0.18364413,-0.07353362,-0.8542659,-1.7053624,-1.3620931,0.032024484,0.91585904,1.374167,-0.44541728,0.19770473,-0.8637341,-0.51355135,-0.25483948,-2.5264935,-1.7485442,-1.6535182,-2.1705506,-1.3332074,-0.84000343,0.50256866,1.3362491,1.387201,0.80574286,-0.14274944,-0.40940776,0.021321055,-0.66982704,-1.231371,-1.4904597,-1.2217659,-2.4577029,-2.9399362,-2.8362582,-2.050855,0.20557265,1.4909109,0.10799707,0.019225243,-0.42847392,-0.9374366,-0.98396295,-1.9996732,-1.7272593,-1.5020062,-1.3557928,-0.3535901,-0.3294867,0.35626057,0.4770774,0.45557874,1.170351,1.3806399,0.65735275,0.118118286,-0.65170306,-2.31407,-2.3072107,-1.3450501,-1.9147326,-1.8910742,-2.1083314,-0.68403614,0.15049157,2.4119573,0.25120223,0.0026929385,0.015683154,0.23922746,0.37223127,-1.0611238,-0.8679863,-1.2393636,-1.755012,-1.4642158,-0.2122378,0.17887606,-0.7162414,1.5955352,2.3353279,1.3200897,0.38369888,-0.2314708,-2.019591,-2.3389106,-2.3871455,-1.6827692,-1.0795296,-1.4651788,-0.5705732,0.79589844,1.6525103,2.5026143,-0.10996568,0.012421657,0.07268012,0.5814621,0.8744286,0.08905835,-0.39548314,-0.8673442,-0.8767919,-1.7770479,-0.519107,-0.59115577,-0.20548034,2.3464663,1.8329712,0.51944214,0.28517967,-0.80549943,-1.5834917,-1.0605513,-0.94926924,-1.5504676,-0.1701613,0.6485899,1.4548336,1.8336262,3.2737644,3.1326013,0.9582326,-5.5188034E-4,0.22417302,0.92567086,1.386397,1.3649331,1.7581868,0.8516934,-0.2574278,-1.3654797,-0.0479576,-0.13904494,-0.8387887,0.44555846,0.023524739,-0.029214041,0.27788246,-0.6721342,-0.95678365,-0.6274337,-0.7223081,-0.7495282,-0.82772666,0.044924762,0.752125,0.7133488,1.0231222,2.1762733,1.5387478,-0.3256562,0.4985863,0.6772,1.7927809,1.9879159,2.9670959,1.8867866,-0.12648104,-0.99783933,-0.717419,-0.2547047,-0.17457029,0.40215957,-0.5796884,-0.9370974,-0.41835967,0.7198986,-0.4873085,-0.40582982,-0.07506199,-0.075413086,-0.25376534,0.11275845,0.58030254,0.5421374,0.71588326,1.5442071,0.3745491,-0.010355352,0.4577218,0.25090557,2.0055609,0.8104664,2.5311527,0.67697716,-0.3963165,-0.5656032,-0.28332505,0.50156814,-0.5579093,-0.6745059,-1.3337758,-1.7834066,-0.2408353,0.6471243,0.6914615,0.84592706,-0.29458797,-0.36685225,0.21232986,0.7706442,1.5315866,1.3569801,1.1076568,2.4162247,0.08590677,-0.00906983,0.62333345,1.1687763,1.9792104,0.90373874,1.4892293,1.1224713,0.19448635,-0.1470142,0.15417354,-0.47146928,-0.95353055,-1.5996077,-1.5166637,-2.2224064,0.07291169,0.4031757,0.5128915,1.1244481,0.4784,0.5209331,0.51807404,1.5667162,1.547543,-0.09804766,0.22467464,2.020266,-0.06340178,-0.1923935,0.5197019,0.96211004,2.2874248,1.5855105,0.20802131,1.4165051,0.07674545,-0.28985053,-0.7591727,-1.7629141,-1.3651814,-1.1859525,-0.5341192,-0.6216449,0.04804543,0.45416915,0.97241086,1.1905633,0.89480495,1.5835345,0.46930832,1.6968896,1.2927341,-1.6598119,-0.8361035,0.29544857,0.09430482,-0.19455445,-0.10571018,0.73154294,2.1874838,1.2715557,-0.8183231,-0.5015734,-1.5072515,-1.1362854,-1.0511053,-1.3107452,0.27129743,0.7684387,0.56689537,-0.12285984,0.5299979,1.2149235,1.4568404,1.4418788,0.7496285,1.5923998,0.46144623,0.74454015,0.7473754,-1.1510078,0.20789486,-0.07433315,0.102513224,0.013621203,-0.009244295,1.624009,3.6184661,1.373228,-0.72417706,-1.6082947,-1.5616109,-0.6148985,0.15466367,0.17757335,0.62528515,0.9474956,1.1323779,1.4221224,1.7137558,1.3518944,0.4172493,0.17193428,0.5877431,1.3062636,1.0081444,0.046109777,0.19066273,-0.9058817,-0.061091222,-0.9394555,-0.018763015,-0.018937463,-0.005043437,0.5193156,2.3777266,-0.15936916,-2.420107,-2.6368399,-1.2318116,-0.44448093,0.54476804,0.32872134,0.61450505,2.4366877,2.0957072,2.1374652,2.607968,1.8975118,0.9618993,1.8320789,0.47696382,0.48590612,-0.33254647,0.009359857,-0.022483785,-0.01661734,-0.0035882432,-0.3563388,0.005931005,0.007823178,0.017587563,0.5257741,0.10260999,-1.2326381,-2.6558542,-2.1167114,-1.1484544,-0.5685638,0.20778123,0.26066798,-7.166269E-4,0.8297225,0.6194867,0.5010523,0.68204814,1.2011511,1.2405369,1.1240667,-0.4248282,-0.32173008,-0.5223597,-0.5046754,-0.356866,-0.28620774,-0.30084023,-0.074672356,-0.006202144,-0.016380932,0.00449623,0.01628582,0.0071436753,-0.58415437,-0.65882814,-1.2083626,-1.6834646,-1.9822342,-2.2350998,-0.63627374,-0.77627534,-1.0584022,-1.3837609,-1.2984862,-1.850554,-1.0676482,-0.8781076,-1.6155496,-1.9273312,-0.578569,0.29295066,-0.31861517,-0.47231883,-0.007700977,-0.052576445,-0.011686324,0.021163747,0.011428657,-3.1111212E-4,-0.00997567,-0.019355072,0.007910488,-0.088575155,-0.8984529,-1.1472584,-1.2172056,-1.8765337,-1.4910516,-1.7529812,-2.7071402,-2.5272942,-3.1684914,-4.122234,-4.400476,-3.3741467,-2.0521452,-1.5549015,-0.91092706,-0.49957561,-0.3611905,-0.5146172,0.006218317,-0.004460785,0.018537482,0.019927947,0.0063398574,-0.0064842557,-0.0027635032,0.025253287,0.005067779,0.010247029,-0.014795257,0.02238651,-0.010022366,0.02285989,-0.014099405,0.014096762,0.2335907,0.2634145,-0.07051134,-0.098077916,-0.006841881,-0.00815189,0.016203502,0.008702357,-0.0067944257,-0.0022211664,-0.0063480665,0.0072772116,0.021282459,-0.002510526,0.0044293446,-0.0021585168,0.013058927,0.023090903,-0.015620908,-0.021969587,0.19198774,0.4364109,0.9456449,1.3553172,1.9421979,2.4390469,3.3638961,3.981308,4.684797,3.9516208,3.4867435,2.5446615,2.0424187,2.8384585,3.7471123,3.2688177,2.3179867,1.5319529,0.7220563,0.6437369,-0.023515863,7.714656E-4,-0.0030439503,0.013494174,-0.0050546643,-0.0118266605,0.17123929,0.31793734,1.1616563,1.6959558,2.520539,2.751018,3.8138757,4.0017543,4.1690946,4.7604833,3.3761108,3.0811267,1.247708,1.2762398,2.8437748,4.8781757,5.8950133,6.8649826,6.0575776,6.1504135,4.8754416,3.9175465,1.4147074,0.23193398,0.0012018782,3.3179624E-4,0.008562311,-0.01958654,0.43474084,0.70356095,1.6197613,1.8119773,2.6631231,3.3932693,2.7651668,2.6578782,1.6581264,2.2449443,1.8034717,1.5901886,1.2214329,1.4859601,0.5002008,0.12168829,1.1242731,1.6178948,0.7266342,1.3665681,1.8262297,4.159952,2.1875913,1.3869036,0.3051083,0.013450462,0.018812044,-0.11684708,0.10002855,-0.41868404,-0.34831712,-0.56450367,0.5729155,0.26242998,-0.19693346,1.35988,1.2698095,1.4615513,0.557156,0.74921453,0.8256011,1.217996,0.9269965,0.98785025,-0.41322064,-1.8938267,-1.7102091,-1.9894242,-1.4115849,0.5520935,0.9276295,0.21763311,-0.2030856,0.014254718,-0.0043953173,0.0076740715,0.93257743,-0.66728354,-0.6761615,-1.3150567,-0.11259644,0.75396776,-0.4923573,0.12578616,1.0375807,0.14935787,0.29153597,0.16457047,-0.34819818,-0.19693173,0.3479892,0.53015476,-0.99326915,-2.0837395,-1.7748971,-1.2041968,-2.3966463,-1.2431077,0.27576396,1.1004074,-0.18521518,-0.08589994,0.01823133,-0.030675257,0.04442249,-1.4044862,-0.048292533,-0.4074481,0.1328784,1.244069,0.45484683,-0.2226118,-0.16273423,-0.76661056,-0.9579553,-1.8554724,-2.7394545,-2.3949542,-2.177748,-2.5166764,-3.0580785,-2.9013362,-2.9294627,-3.1318488,-1.212645,0.09836514,1.1696918,1.9963403,2.059192,0.87405694,-6.71397E-4,-0.9698734,-0.4928093,-1.3429921,-0.23199727,1.670213,1.1709446,1.3822129,2.1307766,0.50061166,0.071538426,-0.47912738,-0.6960979,-1.4884399,-1.5432485,-1.1117105,-2.430506,-2.57754,-1.8221983,-1.3914425,-1.0512195,-1.1168283,-0.527139,0.75978297,2.2272577,1.4369838,0.20069389,1.0794685,0.31260335,-1.5403277,-1.3100414,-0.7176413,0.19176583,1.4995425,1.0500282,0.9828454,1.5521424,0.89402527,0.0019966078,-0.52806085,-1.3667372,-2.192175,-1.8763992,-1.0416552,0.17152874,-0.6055828,-0.8832513,0.72510856,1.8430312,0.6659696,-0.58081335,0.9750093,2.0809584,2.2128017,0.99429286,0.579371,-0.52076375,-2.6250222,-2.7093894,-0.9742063,1.1501671,1.3258376,1.0069559,0.8267079,0.74462813,0.78864086,0.2751514,-0.1379395,-0.8878426,-2.2465065,-1.5587168,-0.5847168,0.88690466,0.37660855,0.7434354,2.0655732,2.3573055,1.5263141,-0.28174838,0.37951043,2.3378441,1.9748507,1.4354589,0.6649648,-0.5309674,-2.8790748,-2.7557447,-0.09528081,0.57036835,0.63938075,1.0040815,0.5064652,0.58670294,0.6878975,-0.058733348,-0.067588426,-0.8120805,-2.292897,-2.6878664,-1.1520736,-0.26617256,-0.062783174,0.5199722,1.2294521,1.2247745,1.1585532,-0.17124589,1.6329632,2.889999,0.4064859,0.950485,0.5861759,-0.7098314,-1.3089304,-3.2300453,-0.193938,0.3540648,1.4466267,0.8474608,0.20979062,0.16620629,0.20390232,-0.30871153,-0.32583153,-1.2759787,-2.269097,-3.1755476,-2.678456,-1.6276269,-1.4725486,-0.79776764,0.061811477,0.39336964,0.55891234,0.5687202,1.941504,3.4355555,1.0822114,0.14815651,-0.3669281,-0.23151988,-0.791541,-2.595434,-0.13362604,0.038868986,1.5834637,1.2714955,0.43031156,0.23272622,0.1682505,0.4638589,0.35323146,0.032092854,-0.55592746,-2.9265707,-2.5393996,-1.8004525,-1.6773217,-2.1899438,-1.1737604,0.08905167,0.8357226,0.9330447,2.807002,3.7648637,0.07434095,0.6109237,-0.480107,0.11251999,-0.70253575,-0.89950943,0.12213342,-0.093601346,1.0985988,1.1234591,-0.27661642,-0.19632694,0.68667346,1.6494671,2.0745301,1.7323307,-0.05039183,-1.4669936,-0.75381774,-1.0172501,-1.0106295,-1.5526772,-0.89917135,-0.6941402,-0.2682944,0.88397473,3.2411404,3.6386292,0.6260286,1.1424423,0.06307362,0.019873565,-0.4743025,-1.3196567,-0.28400117,-0.031114995,1.3359975,1.6767714,1.4132029,0.3648537,0.41051134,0.7363514,1.8967074,1.3387783,0.7575892,0.2322877,0.018817902,-0.19440502,-0.464979,-0.85492885,-1.0598998,-1.0631008,-1.0195394,0.667325,1.5929517,2.7935207,1.1416,1.0540355,0.021598462,0.011672148,0.019498076,0.60384107,0.36794218,-0.23132439,1.2510757,0.7632694,1.3075757,0.16846323,0.1813633,-0.012382337,0.36085638,1.5488756,1.1956316,0.40285212,-0.0818335,0.7664991,0.5491236,-0.51420146,-1.0947511,-1.7742491,-0.937923,-0.6000955,0.64954877,1.465513,1.9835421,0.5308649,-0.21198158,-0.008730303,-0.07602655,0.008191187,0.15350653,-0.08363699,0.45618477,-0.2515981,-0.20105961,-0.65140134,-0.33999112,-0.42491022,-0.1075709,1.4747216,0.9904048,1.0193112,1.2704984,0.8179374,0.47296554,0.3363416,-0.8546987,-1.461538,-0.5173544,0.5476718,0.8297844,0.92604154,3.4398615,1.7030821,0.22227515,-0.0045211576,-0.31345844,-0.8673877,-0.24049416,0.628728,-0.06596213,-0.2960847,-0.9301074,-1.0106701,-0.35550854,-0.0017210026,0.49554616,1.287772,0.96273875,1.037229,0.25579587,0.48671502,-0.1644091,0.060658496,-1.3813305,-0.7837954,-0.9533229,0.31581232,0.43095624,0.33971924,1.5683463,1.7373352,0.79665875,-0.39132395,0.12056252,-1.630486,-0.0587557,-0.1463495,0.09411719,0.21588805,0.04355602,-0.17885937,-0.65753675,0.36296684,1.0704095,2.0481915,0.71683365,-0.41575888,-0.60921156,0.24558778,-0.67247444,-0.61117065,-0.8084423,-0.76469254,-0.47008613,-0.12862028,0.642157,0.6733908,0.6783089,1.3682249,-0.032509122,-0.021386182,0.26237637,-0.79259133,-0.31433406,-1.5445137,0.558822,0.048463713,-0.5616333,-0.7892305,-0.2789508,0.9824068,1.9570947,1.9928135,0.670336,-0.2523934,-0.23836012,-0.5189519,-0.05673943,-0.00858483,-1.7880608,-1.1530092,0.2961082,1.2554941,0.80019444,1.0235605,0.16041566,2.5668588,-0.3715287,1.727637E-4,-0.11497802,-0.4542062,-0.22770013,-1.0161128,0.367779,-0.41578624,0.12066232,-0.31596512,0.7440354,1.6653891,2.5206246,2.1410222,0.76879466,-0.4819154,0.4541665,-0.64729387,-0.4888753,0.029572422,-0.41523266,-0.4012225,1.0458378,1.2195369,0.14317547,0.3694492,0.8838834,2.2093422,-0.0270167,-0.22489186,-0.6499832,-0.32677475,0.30624834,-1.0041975,-0.4288756,-0.20497856,-0.111614734,-0.18388633,1.4667917,1.3821838,1.5346701,1.3266463,1.6777225,1.5320622,0.5661818,-0.07552542,0.997482,0.029348945,-0.49377564,0.3009626,0.55139494,1.056277,0.43790498,-0.5559071,-0.22478275,1.2113533,0.19709195,-0.24706008,-0.30953908,0.015537707,2.489553,-0.67399323,-1.2061545,-1.2259021,-1.3924105,-0.7352909,0.2325895,0.38826358,1.1017724,1.7143468,1.733155,0.9295752,0.78916395,0.7998425,0.60398686,-0.2959154,0.16318579,-0.037108656,0.17824906,-0.34731093,-0.04508454,0.2909653,1.1934937,0.88006157,0.20415424,-0.0063439417,-0.0026544752,0.15180624,0.74176943,-1.5801553,-2.7338417,-3.132323,-3.4489217,-1.3054322,-0.99866205,-1.829325,-0.415528,0.91511726,1.0269707,0.80570745,1.3403909,1.4365559,0.75487155,0.2641488,-0.116150536,0.37530008,0.17550112,-0.38124615,-0.27091065,-0.82743657,0.5993417,-1.036715,0.023869555,-0.0071529117,0.0027404553,-0.4013552,-1.03555,-3.5631175,-5.2563233,-5.260415,-4.938646,-3.9018135,-2.85628,-2.009179,-0.5696113,1.5855994,1.5157294,1.229261,1.9249063,1.5503855,0.40446806,1.431014,0.452543,0.057447374,-0.28177184,-0.4363118,-0.76346076,0.15994118,0.42468718,-0.13347664,0.011086294,0.004020689,-0.022793928,0.4199009,-0.49259925,-1.5417837,-3.5586529,-3.5450823,-3.7632835,-3.975313,-3.3643918,-2.329951,-2.7395358,-2.7129536,-2.203646,-1.1980021,-0.18367587,0.33178633,1.5466259,1.1439337,-0.43441424,-0.2695469,-1.0865929,-1.0687495,-1.155234,-0.6529597,-0.048438862,0.13978961,-0.02136901,-0.022257918,-0.021713464,0.023536729,-0.024086725,-0.24853788,-0.77593195,-2.274216,-3.3612487,-2.5808935,-3.3766203,-2.6430862,-2.1551979,-2.2892826,-2.921946,-1.8454543,-3.0000265,-2.4014242,-2.6852543,-2.2483842,-1.3656119,-0.7361383,-0.1149697,-0.58197314,-1.054483,-0.25806603,-0.15892912,0.012891496,-0.0036270097,-0.0089366585,-0.0017180821,0.0015238568,-0.01796539,0.011608814,-0.25621903,-1.6554197,-2.0599403,-2.360176,-3.206106,-2.6665113,-2.7826033,-3.4422293,-3.769794,-4.4068775,-4.356928,-5.170722,-4.1606326,-2.39753,-1.8915268,-1.2264202,-0.27641314,-0.19057135,-0.6091434,-0.009998055,-0.025128134,-0.020242969,-0.006916712,-0.0074195364,0.004159097,-0.01073231,-0.020340743,-0.01938167,-0.021553842,-0.005807297,0.013446041,-0.007678581,0.014004298,0.006382362,-0.015570134,-0.25737813,-0.34956178,-0.2254096,-0.14331381,-0.012801226,0.009333397,-0.006216435,-0.0139611885,0.009856234,-0.011926484,-0.02307342,-0.020890923,-9.956956E-4,-0.01027925,-0.024980532,0.005131488,-0.0012109935,0.017345082,-0.006282759,-0.024325782,0.024377588,-0.1449547,-0.4417784,-0.56812555,-1.3087806,-1.9129626,-1.7686014,-2.6924942,-2.9303474,-2.4429598,-2.1313033,-1.1082615,-0.47829542,-0.37547588,-0.19384411,-0.707432,-0.861224,-0.449506,-0.5908644,-0.64916277,0.023897346,-0.024356559,0.024242511,0.015483589,0.002286976,-0.0129901925,-0.040977184,-0.12333971,-0.008173666,0.10707316,-0.35745665,-0.5443454,-1.3305683,-2.2021916,-3.2567174,-3.438152,-1.94587,-0.08570768,-0.26083395,-1.1464198,-2.9038212,-2.646238,-1.5823133,-0.5490501,-0.032563884,-2.038304,-1.2247016,-1.6466204,-1.3512946,-0.6568407,-0.0240739,0.022074804,-3.41654E-5,0.007470964,-0.15890317,-0.16008995,-0.0821667,-0.4260443,-0.9395531,-1.3989173,-1.8570404,-1.6560059,-1.2479056,-0.95105463,-1.3801848,-2.0309489,-2.1389318,-1.9396034,-2.314739,-2.5147796,-1.1474661,0.05070147,1.4234356,1.5941321,-0.31219688,-2.7142642,-2.333754,-1.9894694,-0.2328658,-0.017388921,-4.416586E-4,0.07812545,-0.16857247,0.24349989,-0.16529134,-0.2638433,-0.76154494,-0.63598067,-1.1962126,-0.804795,0.1123423,1.4034846,1.45116,0.4733227,-0.11843371,-0.5127648,-0.9666613,-1.3598852,-2.3453982,-1.251973,0.11201936,0.044188242,0.26155236,0.8888235,1.3672723,0.572139,0.30969226,0.023161892,-0.0075076735,0.010311736,0.34854352,1.1169181,-0.34698653,-1.3598026,-0.09446946,0.06838743,0.6820328,1.4021181,1.2878957,1.5268991,0.6803108,-0.72943574,-0.91586435,-1.8380198,-2.6554356,-2.2958338,-1.8287148,-0.7762658,0.40931728,0.08693419,0.96331,1.0798981,0.44678596,0.67916113,0.43832457,-0.01363691,-0.0090691615,0.03998865,-0.10643874,0.25197503,-0.544283,-0.3716138,0.18472114,0.2841408,0.93752587,1.577773,0.8681147,0.32460794,0.5424224,0.066786304,-0.5635365,-1.6721585,-2.133547,-1.7485899,-1.4531237,-0.554985,-0.55367076,-0.76258016,0.5588876,1.0715979,1.6479752,1.871794,1.3903608,-0.0600506,0.024584694,-0.5299128,0.33528894,-0.49499452,-2.0746915,-0.261169,0.46170077,1.4526782,2.1719027,1.719453,0.07957792,-0.19198398,-0.35902482,-0.6707029,-0.2981971,0.28521007,0.40905374,0.16724901,0.81664485,0.68623924,-0.11925886,1.1634645,0.4596409,0.31432626,2.6467628,2.5225174,1.681302,0.19198531,-0.058634177,-0.9187224,-0.46776798,-1.4200654,-2.0290601,0.08316054,1.502522,1.5471871,2.4679635,1.873028,-0.021833092,-0.77935654,-1.1455696,-1.522425,-0.59745663,0.41659868,1.4757166,1.494396,1.411314,0.84469366,1.0277196,1.3439629,1.009784,0.873926,3.132455,3.1685264,2.3443043,0.7392257,-0.17389403,-1.1316184,-1.4074409,-0.9666541,-0.97099423,-0.1810209,1.5003501,1.4463077,2.0042915,2.7871342,1.1005431,0.29946378,-1.9744507,-2.6635432,-0.8177754,0.46809554,1.8133343,2.0733778,1.7187089,1.4639884,1.0133543,0.57286143,0.24853088,0.50692576,3.715108,4.903811,1.7520179,0.42222932,-0.14729224,-0.8225963,-1.66956,-0.29154643,1.1242343,0.5784071,1.3019786,1.9238454,2.5536811,3.1258967,1.5032848,-0.31722796,-2.3003733,-1.9990697,-1.2032297,0.9911802,1.1460277,1.3901509,1.2317754,1.0181231,0.5144664,-0.34713182,0.07439942,-0.22673953,3.2538364,5.049935,2.657558,0.18657285,-0.21708609,-0.29930165,0.13379633,-0.22531162,0.5227025,1.2503109,2.0723197,2.0392654,3.350276,3.085342,2.2988915,1.6055143,0.06358883,-1.573277,-1.4862459,0.4716485,0.54639775,1.0958941,0.41274363,0.014314471,-0.3415229,-1.0826392,-0.60213596,0.8516296,1.5608102,2.9007125,2.5652335,0.08404763,-0.05381099,0.23284313,0.72627556,1.3024284,0.08314398,0.92626137,2.6820624,1.7544715,2.6514382,2.8129086,2.978324,2.0004346,-0.26828,-1.7359331,-2.4767275,-1.4016056,-1.0884343,-0.8046346,-1.027096,-0.53920406,-0.51944554,-0.9751354,-0.05372028,0.96549106,0.55008274,-0.75684214,-0.5259705,-0.8227357,-0.049788736,0.18274306,0.45571506,1.773574,1.503382,0.94734836,1.442613,2.359641,1.9654564,2.582599,3.3752487,2.557669,0.08771902,-1.827653,-2.785796,-1.8161713,-1.6760044,-1.2534813,-1.377858,-0.5849209,-0.48913836,0.026078546,-0.26021236,-0.061502438,-0.74321276,-0.976023,-1.5828377,-0.75127375,0.010160413,-0.13182335,0.1339167,2.065712,0.9400498,0.4625828,1.4492807,1.4094065,1.4166474,2.1061943,2.6341102,2.2557054,0.14217092,-2.042313,-2.5952563,-1.94283,-0.97740114,-0.4611447,-0.4843512,-0.5102225,-0.80526257,-0.38917503,-0.90119445,0.33948955,0.9076385,0.100261085,-2.427813,-0.82310903,0.003358155,0.024397366,-0.49040377,0.61605537,0.481997,-0.27676576,0.9267468,1.4629272,1.9597843,2.0100853,2.996837,1.870512,0.64392257,-1.6636043,-2.5110424,-1.8965052,-0.19563864,-0.18500634,-0.8761866,-1.0878962,-0.97715,-0.6920941,-1.0856684,0.60431457,1.4143091,-0.63289887,-2.4271755,-0.40826327,0.003557416,0.025534391,-0.3269632,-0.9292351,-0.13219617,-0.09948493,-0.05139275,-0.055844985,1.4506592,1.8230258,2.5408785,2.2033777,1.2460091,-0.061170608,-1.4413897,-1.5509262,-0.81041795,-0.34387606,-0.27212563,-1.1030339,-1.6760167,-1.7039393,-1.1467131,0.64521337,0.43834344,-3.1842659,-3.8598323,-1.0952505,0.017858941,-0.14640729,-0.28439546,-2.0797613,-1.6570145,0.06370753,0.24468921,-0.007453933,0.49163195,1.4261703,2.2559686,1.2149664,1.0222121,0.9808198,0.038300503,-0.3442951,-0.30229154,-0.0882963,-0.21758455,-0.71112293,-0.38496768,-0.8048439,-0.13991797,0.515253,0.8136297,-2.7633164,-3.1697323,-1.7867582,-0.040459197,-0.46495247,-1.2163655,-2.2808783,-2.8299835,-0.9411077,-0.6139586,-0.66964036,0.31175703,1.1212553,1.249917,0.8335567,1.2892065,1.1342441,0.508142,-0.26899743,-1.1159382,-1.0280888,-0.6835585,0.25681874,-0.124957,-0.27666244,0.6399028,0.6435821,-0.112707384,-2.799528,-2.9485261,-0.75580263,-0.021842556,-0.27779183,-0.5476922,-1.7382296,-2.6894536,-1.2032974,-1.5410486,-1.4122137,-1.018403,-0.33355647,-0.08830818,-0.11304948,1.2198962,-0.3429478,-0.8246034,-1.8638295,-2.5321066,-1.4470388,0.6833408,0.8162901,0.1557002,0.15004778,1.0729948,1.5527716,0.1342218,-3.5137208,-3.5900123,-0.39629638,0.01028927,-0.32727823,0.8472018,-0.6452958,-2.6873975,-1.0360715,-1.382763,-2.306155,-2.0923867,-1.8574592,-2.227893,-1.6218184,-0.75418323,-1.0650445,-1.9046427,-1.5071478,-0.89271194,-0.3781072,0.23525028,0.69672126,0.021419829,1.0089412,2.248155,1.6611171,0.31844535,-3.6844025,-2.9934278,0.07772776,-0.122280195,-0.11808242,0.9095364,-0.14672123,-1.7835231,-1.2874371,-1.307986,-1.3461014,-0.95054,-2.0783446,-2.9358954,-2.2573571,-1.3203342,-1.516453,-1.4055843,-0.5015109,0.4819462,0.73227274,0.9114027,0.15273502,1.3443182,2.0690403,1.7937226,0.73914146,0.42786774,-1.94872,-1.5100774,0.20662807,-0.12199012,-0.059695978,0.5877162,-0.10372322,-0.8493427,-1.5866369,-2.423883,-1.0814157,-1.4267291,-1.4298887,-1.2466774,-0.93412197,-0.048377678,-0.24993165,0.103211716,0.68767846,1.7185861,2.188502,1.8710488,1.1622564,0.62463343,0.13290074,0.61276543,0.47608796,0.0959306,-1.2993834,-0.40217438,0.21227513,0.0036262358,0.010072445,0.23407312,0.25662923,-1.5197686,-3.2537704,-3.0337129,-2.6246364,-1.1677,-0.8637405,0.809642,0.6240034,0.6628859,0.7082457,1.0156901,1.1248672,1.933255,2.2868626,1.8943971,1.1968949,0.22635339,-0.8667132,-0.2841193,1.1761687,-0.14823541,-2.203887E-4,0.2848919,-0.020281164,-0.011148405,0.014624874,-0.022343796,0.9170661,-0.994567,-1.2749451,-2.1929524,-2.0607314,-1.3910408,0.33308983,1.4832774,1.4161382,0.48998576,0.3479067,0.51414675,1.4245603,1.6187527,0.8631107,1.9282752,1.7852377,2.1001577,1.3695041,1.3718048,0.8535639,0.048677683,-1.2216684,-0.53330326,-0.0137673905,-0.02416972,-0.004109768,0.33393013,0.25119078,-0.23089972,1.5406097,1.2701895,0.3398657,-1.3686775,0.14893799,0.93675804,1.6939838,1.2279824,0.98332846,0.51763827,1.1891018,1.4715247,0.8762898,2.3569126,2.7216637,3.8006754,4.009548,3.7576506,1.9338442,0.7503028,-0.07333795,-0.33430323,-0.0129687525,-0.01785184,-0.0027957915,-0.009108827,0.018221566,1.207429,1.6077914,0.63709277,0.4115059,0.40893134,0.70031625,-0.45547405,1.1550322,2.2620983,2.7778783,2.281062,1.6017531,1.7931964,2.0014083,2.555809,3.1788845,3.2973678,3.5096955,2.2059016,1.0046947,0.056050338,-0.14257827,-0.0014506768,-0.009699874,-0.012950266,0.009264739,-0.017588416,-0.014016564,0.023147853,-0.20023558,-0.8263837,-0.9508345,-0.46197036,-1.0878772,-0.221387,-0.24781467,-1.4766387,-1.3733662,-0.44078714,-1.0115324,-0.947748,-0.0622713,-0.37916398,0.12383228,0.027125439,0.8413572,0.47705927,0.12816055,0.011219475,0.023407867,0.01501921,0.004251611,0.019456087,0.020371322,0.021422727,-0.012295631,0.006997861,-0.01292327,0.023861341,0.019845646,0.004975449,-0.010180168,-0.0077873366,-0.014155652,-0.28482375,-0.31058648,-0.040387213,-0.021379855,-0.023558225,0.009393822,-0.008318064,0.018807251,0.0048979344,0.016874189,0.022456484,-0.009694401,0.0015334837,0.021896554,-0.010635244,3.0676092E-5,0.023689358,0.00796774,-0.016946161,0.0018878867,-0.06755307,-0.24848402,-0.6125023,-0.88312614,-1.4746586,-1.6380635,-1.7422926,-2.3558075,-2.818817,-2.4533558,-2.1374412,-1.2421418,-0.6177281,-1.4994179,-1.982289,-1.803666,-1.6963449,-1.1594384,-0.68417394,-0.6373981,-0.021316547,-0.02431867,-7.5726944E-4,0.024371328,-0.020556182,-0.010493228,-0.021401314,-0.3068018,-0.7454261,-0.52310294,-1.2337588,-0.96026355,-1.8728108,-2.1028042,-3.1774457,-4.0470862,-2.333043,-1.6489341,-0.87686974,-0.56375635,-1.5055715,-1.3270254,-0.92999965,-0.57902914,-0.07127338,-1.8890373,-1.7372848,-1.6814597,-0.5544299,-0.24082403,0.018000852,-0.007956287,-0.007754831,0.022071678,-0.08531255,-0.5344193,-0.6072648,-0.66419876,-1.9006578,-2.649454,-3.604712,-2.5856097,-2.6391516,-2.1884742,-2.7678947,-4.2371416,-3.9678648,-3.1643224,-1.3581113,-0.730332,-0.48749393,-0.40655363,-0.13754198,-0.26609623,-0.9285039,-1.9172977,-1.3988695,-0.81515235,-0.2546873,-0.0097966455,0.0202785,-0.014785123,-0.30080292,0.21911749,0.6479957,1.0867156,-0.54062724,-1.0420637,-1.3846935,-3.4115217,-2.8157198,-2.2076614,-1.8096014,-1.9376044,-2.1383379,-2.7057295,-1.985727,-1.6159071,-1.0288743,-0.17815456,-0.34201053,0.3090918,-0.40247595,-0.6267884,-0.18722369,-0.9184172,-0.28891003,0.0070001846,-0.0071998755,0.018827891,-0.15006523,1.0180441,1.608195,1.854478,1.7390212,1.3838606,1.6493884,1.4093773,0.14727226,0.8234542,0.098095015,-1.3808151,-0.61787766,-0.22288729,0.27566293,-0.31747955,-0.21475817,-0.78028125,-0.07256174,-0.95400184,-0.5005248,0.6844398,0.30119574,0.006020249,-0.62207055,0.004642785,0.012659913,0.0952568,0.96032465,1.7152251,2.2636657,1.67975,1.9674218,1.8232144,2.0382624,1.8301284,0.26949096,-0.43630865,0.015474848,-0.18306029,0.003453292,-0.19196248,0.10954791,-0.4775945,-1.1322182,0.19566241,0.43675628,-0.005809228,-0.015738085,2.0184033,1.89294,0.23421642,-1.0853564,-0.5774279,-0.010861239,-0.5973554,1.1890596,2.0662448,1.520938,-0.2245013,0.4466174,1.167658,0.41861695,-0.032482855,-1.0573771,-0.64607275,-0.8145448,-0.86596555,-1.223196,-0.8964813,-0.45857012,-0.36846057,-0.22302437,0.38045093,0.11162679,0.43655163,0.05288818,1.1749381,1.0111305,0.10206564,-0.060486868,-0.9191045,-0.2648351,-0.9827993,0.52664137,0.34246585,0.8922874,-0.034156978,0.4965252,0.6811462,-0.29517996,0.20918807,-0.3790295,-0.22664575,-0.20052187,-0.29440495,-0.1386175,-0.4573005,-0.98298365,-0.7913036,0.40034539,0.44577092,0.12854756,0.3843246,0.19843987,-0.18624863,-0.016551716,-0.2761913,-0.68447834,-0.3947069,-0.21744199,-0.9858198,-0.989781,-0.5018933,0.53373814,0.19242628,0.4898562,0.46982276,-0.30493206,-0.03342522,0.04404297,-0.25629207,-0.39644065,-0.33223954,-0.33225793,-0.6767383,-0.12717637,0.7571697,0.6870658,0.9318296,0.8782198,0.25727472,0.51887673,0.13719332,-0.977827,-0.091697246,-0.61129403,-0.15158634,-0.25267258,-1.2582394,-0.4930928,0.32201153,0.8410657,0.057239354,0.27796176,0.3875694,-0.06353832,-0.22886488,-0.8362705,-1.3336823,-1.1430292,-1.8794252,-1.4961785,0.0029094117,0.027870847,0.66568875,0.6043463,1.037129,0.8633132,0.08698608,0.5470085,-0.8488326,-1.4176755,-0.021183925,-0.8669333,-0.51238585,-0.2979343,-1.1891037,-0.04579586,0.7725042,0.05567275,7.923214E-4,0.17025648,0.5444066,0.68699604,-0.15045764,-0.6543337,-0.30969718,-0.5013457,-2.0905492,-1.5429881,0.42791817,1.1059803,1.1846755,0.6281428,1.1268437,0.78342927,0.2705567,-0.19756147,-0.06368762,-0.36369234,0.0832929,-0.01705378,-0.5235186,-0.040409002,-0.6236678,-0.18255953,0.63737935,-0.6133681,-1.3329217,-0.10382523,0.01783715,0.49085405,-0.50865763,-0.64208645,0.6077651,0.06103039,-0.8917843,-0.89105856,0.95930094,0.30282262,0.22800551,1.3344948,1.8373486,1.2077857,1.2844425,0.6771229,-0.12605594,-0.7336322,0.13941519,-0.39922318,-0.6181317,-0.24285229,-0.69872636,-0.5604304,0.45276335,0.18216161,-0.84072393,-0.38751042,0.9483096,0.6113344,-0.235348,0.070481665,1.1146564,0.53564286,-0.3672628,-0.29691133,1.2585341,-0.068545416,0.31088188,0.5770164,1.4594272,1.5677905,1.392987,0.6572409,-0.93921024,-2.024334,-0.72871196,-1.1774186,-0.33976945,0.01655652,-0.1439475,-0.5873263,1.3951316,1.270279,-0.8314244,-0.7398,0.3442052,0.24798898,0.27821833,0.20011388,1.0246758,0.50798994,-0.5720132,0.6095816,1.0988892,-0.16158672,1.0485924,1.2864671,1.368965,1.0629023,0.5509623,0.005988559,-0.46480983,-0.78684086,0.57961464,-0.94061404,-0.3688402,0.0036635972,-0.023378303,0.10993139,1.2931657,0.7495461,-1.0347686,-0.3884835,0.3639081,0.6505718,1.0289178,1.3816637,0.89393526,0.6090202,0.14395894,0.65337706,0.815676,0.23431717,1.3723451,0.6755625,0.21961659,-0.14622763,0.18027818,0.7374954,0.05547107,-1.2798303,-0.517532,-1.005238,-0.1057714,0.02138046,-0.30526432,-0.21644996,0.55644333,0.37048855,0.3249777,0.4125248,0.12612985,1.5547421,0.5554757,0.80794233,0.85349077,1.8082703,1.7589874,1.0996808,0.69157284,0.15116893,1.3429873,0.76794875,-0.3765581,-0.22463574,0.25083673,-0.23365596,-0.613212,-1.329284,-2.7992733,-2.452584,-1.0468547,-0.007071081,-0.18494676,-0.58735085,-1.6486138,-0.0150942635,0.36737755,0.28913677,-0.07547972,0.3569921,-0.06748466,-0.56817645,0.49643466,1.5756277,2.1045663,0.9253525,0.5023507,0.1435436,0.9708776,0.322819,-1.1000456,-0.5790309,0.2635267,-0.18106677,-0.32485852,-0.6026308,-1.80213,-1.4363734,-1.2428347,-0.101200245,-0.29945615,-0.68475974,-1.7655668,-1.0811303,-0.3081742,-0.70637524,-0.13237381,-1.0501994,-1.1141461,-0.94231355,0.3950469,0.8598253,0.49952,-0.18263829,-0.36492673,-0.749095,-0.6365924,-0.83801395,-1.0359378,-1.9031073,-1.4207323,-1.8327392,-2.0681975,-1.7871717,-1.3978007,-0.17067583,-0.2518676,-0.016007947,-0.38633466,-0.52606523,-0.9937729,-1.2038417,-1.3121569,-1.4289937,-0.6986606,-1.398588,-2.0285318,-1.6666862,-1.6339715,-1.5120362,-1.7617354,-1.6243374,-1.6935868,-1.4456819,-1.4410901,-1.0154808,-0.078569405,-1.6842543,-2.051033,-3.00718,-2.7205746,-2.3131597,-1.8535969,-0.38523152,-0.09686234,0.0068445243,-0.26483965,-0.08661702,-0.3938671,-1.5617615,-1.1358733,-1.4635221,-2.2459886,-2.667924,-2.6679778,-2.9897313,-3.2728424,-2.8021147,-1.9899706,-1.4106765,-1.3028225,-0.5004228,-1.0530257,-0.45660818,-0.6402829,-1.9245368,-1.6814814,-1.7409568,-1.0225666,-1.2318192,-1.3790208,-1.5431972,0.025734639,-0.30131084,-0.12331247,-0.37933367,-0.5933029,-0.5736382,-0.09452471,0.01676048,-0.66686237,-0.42755735,-0.72068125,-1.5957025,-0.98004556,-0.64281833,-1.8050666,-1.8624557,-0.774147,-0.10428106,-0.8792326,-0.58230084,-1.1463126,-1.5400338,-0.5045617,-0.93558556,-0.5563997,0.30185908,-0.58023155,-1.1488764,0.052706227,-0.30768588,-0.355109,-0.92985415,-1.0551536,-0.14130054,-0.15458745,0.5197583,1.0245454,1.245186,-0.2608213,0.3087946,-0.047444426,0.33943862,-1.1365036,-1.2985783,-1.0821726,-0.91368705,-0.6558881,-0.8602619,-0.96966255,-1.8652949,-1.0168458,0.1725696,-0.59639186,0.30996335,-0.3160225,-0.43954197,0.10029818,-0.023733282,0.0072329077,-0.69754004,-0.778063,-0.10130236,-0.4300233,1.2806149,1.5522126,0.67994386,-0.46620506,0.9108216,1.2508965,0.7527176,0.30939084,-0.40461823,-0.6704347,-0.17906746,-0.77779007,-0.44691113,-1.387897,-1.7538244,-0.88305366,0.6733743,0.5126601,0.37974477,-0.09864352,-0.5062103,0.008712424,0.017909719,0.024304919,-0.29554838,0.16521056,1.3519384,1.4686632,1.9042323,1.3512676,0.08520648,-0.078155175,0.6071886,0.49819896,-1.1056432,-0.5123336,-0.7735897,-0.60420823,-0.4796994,-1.6127669,-2.3661904,-1.2449358,-0.41551664,0.90436167,0.9263278,0.26186335,-1.0075579,-0.7651135,-0.366371,0.017495964,-0.024151001,0.012014085,0.058139138,0.20525871,0.9775462,2.9529147,2.0246775,1.2761385,0.74809784,1.156316,1.3275068,0.850717,-0.6462033,-0.71681285,-0.8477638,-0.08096167,-1.1547637,-1.9634506,-0.6598998,0.25624272,1.0838145,1.1641471,0.96258646,0.29669473,-0.1936431,-0.079963885,-0.29928258,0.014220934,-0.0010808404,-0.013880538,0.01456206,0.0063269055,1.0100442,0.6515423,0.5844392,0.3806657,0.56456155,0.1474019,-1.1088288,0.6628787,1.1377184,0.8349923,1.1378586,1.0896268,0.08437891,0.61683726,1.5728838,1.5811747,1.3133404,1.8086064,0.5682718,0.05095267,0.12788917,-0.22753921,0.018256752,-0.021729916,-0.020547234,0.014564992,-0.004931522,-0.014176814,5.502788E-4,-0.26011664,-0.92445767,-1.4199525,-1.2432541,-1.8269407,-1.0911856,-0.2523347,-1.703414,-2.435975,-2.2887177,-2.4418635,-2.54176,-1.5065087,-1.1404427,-0.89094096,-0.3460571,0.61635774,0.31372085,0.07550002,-0.023069357,0.018692145,0.019331133,-0.021263942,0.014522273,-0.015639463,0.003092346,-0.0016486782,0.025154501,-0.022068342,-0.020270335,0.009026996,-0.0019451177,0.023212072,0.021587165,0.024590941,0.07712292,0.10179685,-0.0078604,0.0010833514,0.024881039,0.008726968,-0.020265907,0.0059992997,-0.01663995,-0.010934542,0.010873306,0.0021511444,0.01902931,0.0015499254,0.009130034,-0.00603501,-0.023197189,0.0067628697,-0.01606012,0.0048026564,0.011374333,-0.07663648,0.040413994,-0.0041628457,-0.07629905,0.13479166,0.19752082,0.2786735,0.54457164,-0.2946427,-0.3789206,-0.75115365,-0.9340592,-1.2817224,-0.88809687,-0.58796364,-0.5886479,-0.32804263,-0.30325502,-0.13635886,0.022207495,-0.0119939605,0.00104718,0.0085194865,-0.024971478,0.01609665,-0.0722483,0.14359891,0.19516152,-0.496649,-0.64158815,-0.29256564,-0.29248312,-1.7328991,-2.6182237,-2.0760057,-1.5630987,-2.3028848,-1.7523372,-1.5963571,-2.2532983,-2.95055,-1.9895858,-1.114845,-0.30309322,-2.2941988,-1.9472382,-2.4833467,-1.4065237,-0.37412786,-0.019558124,-0.011475751,0.022329738,0.013439777,-0.17089376,0.061325107,0.4393033,-0.54401267,-1.3876965,-1.0629723,-1.5513144,-1.7767924,-2.1982963,-1.7052575,-0.86548126,-0.17232612,-0.14010535,-0.1867335,-2.1048415,-2.1625507,-0.2503629,-0.6815711,-1.7618667,-1.9523362,-1.5097816,-1.3866082,-1.5935255,-1.6658843,-0.3342366,0.012323914,0.01812537,0.009862946,-0.4590005,-0.8499537,-1.2978212,-0.74258256,-1.1415485,-1.363379,-1.8750299,-0.4386948,0.47670713,0.071720615,0.30823871,0.7091195,1.959147,1.9694068,1.5879625,1.3974978,1.1447723,-0.30623436,0.47777575,1.2866116,0.40107268,-0.111723594,0.5367851,2.02387,1.3465472,-0.01954887,-0.015223863,-0.005396029,-0.15686318,-0.43898436,-0.9069287,-1.8665661,-1.2086381,-0.29173484,-0.15100819,0.44897258,0.5431823,0.33781543,0.39341348,0.8699838,0.6280302,0.7984444,0.79641527,1.1617112,0.68893486,1.0782548,2.1010256,1.8321834,0.9722592,0.36702898,0.474763,2.2669933,1.6099383,0.04250721,0.02351249,-0.032865383,-0.92976224,-0.626225,-1.5225152,-0.92403233,0.0049815904,-0.012759837,0.070501335,-0.2854343,0.16594763,0.9357233,0.72389764,0.09668809,-0.63574183,-0.054820478,-0.007136953,0.065322235,-0.40684453,0.35418922,0.22861123,-0.44319007,-0.0555077,0.5598614,1.3897711,3.2631936,2.9696944,1.2405344,-0.0081632715,-0.80224794,-1.1507478,-1.9242544,-2.2362666,-0.7899054,-0.34748104,-0.47643122,0.8344414,0.99620813,0.043862607,-0.30127847,0.6401011,0.4327364,-0.3012348,0.5795831,0.05072922,-0.08322306,-0.018270189,0.16410393,0.5254538,0.63538384,0.9476013,1.0570796,2.2998672,2.270898,2.4477637,1.4991516,0.07619061,-2.095724,-2.3372822,-2.0411828,-2.1063726,-0.9579523,0.19753565,-0.29599634,1.0569885,1.2470913,-0.032251775,0.26129314,0.5579427,0.5681151,-0.31461498,-0.5186636,-0.3978583,-0.63563746,-0.33502123,0.7011082,0.20979233,0.27432463,1.364341,1.4066368,2.1553757,3.6485946,2.767011,0.97630906,-0.4929531,-2.5102992,-3.713818,-1.3596903,-2.067014,-1.7326018,0.19344129,-1.1543467,0.53323436,1.0922761,0.37166485,0.4395866,0.26192057,0.019554196,-0.9021335,-1.3542893,-1.0888077,-1.0897038,-0.8705797,0.60374814,-0.5935634,1.0270832,2.0147903,0.7564244,1.9088343,3.8295517,3.3086023,1.0856886,-0.5276953,-2.6109595,-4.1102448,-1.8270409,-1.486639,-2.1315436,-0.79142207,-0.9186725,0.35953256,0.7951278,-0.057494268,0.56741333,0.6834074,-0.016448157,-0.15884447,-0.6543225,-1.6940902,-1.2293607,-0.31823722,-0.1201333,-0.2406493,1.1494983,0.628557,0.39101306,1.4300102,3.1046484,3.441433,0.8501298,-0.6848801,-1.2251096,-3.3552063,-2.3265567,-2.5117285,-0.8238656,-0.7200704,-0.5628162,0.021368545,0.25257748,-0.07363909,0.70972234,0.95904344,0.8534983,1.3280478,0.24208753,-0.9156317,-0.13276848,0.043804213,0.3180678,0.4537338,0.3161813,1.0580741,0.6418078,1.2470547,1.3685536,1.7796519,-0.25535592,-0.22038344,-1.3011109,-3.0956933,-1.9680156,-2.8528192,-1.4099289,-0.37505636,-0.48981497,-1.0022631,-0.57947266,0.094643354,0.42935705,0.46789747,0.8960844,1.2657422,0.11722286,-0.48511907,0.44377694,-0.09194854,1.0406598,1.2081836,0.37419233,-0.41584617,0.09699323,-0.6119406,-1.208701,-0.69501245,-0.674,0.3274973,-0.6865391,-1.4676517,-1.213107,-2.9196696,-3.100092,-2.082152,-2.229479,-1.5184,-0.5021097,0.14442462,1.1965998,0.6399384,0.7621139,1.2356485,0.8510726,0.2654305,0.007583515,-0.05480025,-0.055460643,-0.2575093,-1.0655408,-1.3016529,-2.1938531,-1.9826325,-1.4317411,-1.8232826,-0.1952352,-0.014416294,-0.3060577,-0.81360084,-2.0221646,-3.617276,-4.3565164,-2.6998272,-2.0999134,-2.0991108,-0.9790776,-0.23723787,0.6530173,0.5170123,1.709298,1.8787117,0.6082252,0.07205773,-0.5232495,-1.1718684,-1.1291109,-2.0904398,-1.9702463,-3.079169,-3.5639555,-1.9113266,-0.7900598,-2.0451925,-0.70616436,0.012667498,0.012226451,-0.7910579,-1.4591188,-3.1608179,-4.347922,-3.606683,-2.4319165,-1.9885111,-1.1759665,-0.1387306,0.044346645,1.3157072,1.8921962,1.1137584,0.11764041,-0.08365994,-1.1524928,-1.569435,-2.259639,-2.299528,-2.160849,-2.733014,-3.4257717,-2.2538571,-2.1567585,-2.4938602,-0.5723016,-0.02037126,0.15939134,-0.745655,-1.0426197,-2.890715,-3.497138,-3.431015,-2.7943923,-1.508397,-0.41791427,0.11996211,-0.031306647,1.2823335,1.3336558,0.6838182,-0.22656468,-1.0270487,-1.3802264,-1.157605,-1.8677604,-2.6489434,-1.8185669,-2.6468928,-1.301651,-1.8409746,-3.1661966,-2.781507,-1.3014566,0.018476095,0.16638397,-0.80784667,-1.3410217,-1.4496902,-1.5455854,-1.5454167,-1.6456277,-0.9040847,0.03431302,0.004871914,-0.7821744,-0.080316186,-0.22441627,-0.18136528,-0.7179584,-0.800061,-1.5734345,-1.4761354,-1.496411,-1.3531235,-0.9203401,-1.7251893,-0.28459278,-1.1186641,-2.866,-1.6512475,-1.2438031,-0.24680935,-0.09891768,-1.2636122,-0.9810627,-0.3075635,1.25009,0.27251336,-1.0548563,-0.98094916,-0.17563052,-0.16783287,-1.2183188,-1.4871118,-1.6412817,-0.94041336,-0.3856258,-0.68508846,-0.64485854,-1.3403791,-0.7816137,-0.30209547,-0.8974523,-1.8224194,-0.7347397,-0.8256255,-2.715396,-1.3255298,-0.17005298,6.995346E-4,-0.13396955,-0.98598504,-0.62021834,0.077839285,1.5290737,0.32656595,-0.25350803,-0.48414204,-0.07310693,-0.3279067,-2.4560022,-2.518108,-1.6735579,-1.1905631,-0.74881154,-0.8852961,-0.23890437,0.6515603,0.5468605,0.14744692,-0.27196816,-0.6859439,-0.039888788,-1.235401,-3.2109058,-2.0734134,0.31329185,-0.009296531,-0.19611247,-0.73614764,-1.0353321,0.28137782,0.82782316,0.52768546,1.178606,0.952985,0.3412752,-0.5147388,-1.437514,-1.0768181,-1.1164547,-1.329559,-0.51485354,-0.3201605,0.41522253,0.8526954,0.8864328,0.094389,0.345903,0.82664853,-0.28366947,-2.1944833,-2.3695421,-1.6278856,-0.07118348,0.21302563,0.22557028,-0.78747696,-1.3944869,0.014494533,0.65386146,1.806936,1.8587655,1.1017535,0.76666284,-0.8146983,-0.6220349,-0.2978329,-0.04809126,0.3936182,0.47791135,0.44521976,0.7666713,0.58342934,0.11201702,1.7649236,0.7083924,-0.12122111,-2.0039139,-3.0591068,-1.8005761,-1.0907836,-0.21758772,0.21170837,0.27103114,-0.76695323,-0.40674955,0.09332246,-0.38348818,1.160655,1.1451855,0.25040132,0.35252023,-0.6141345,0.007272003,0.30969244,0.7655803,0.66560066,0.5380807,0.15827797,0.8018958,0.6973454,1.0150926,0.56803966,-0.3760885,-1.1010512,-1.9103312,-1.2543931,-0.35656708,-0.797465,-0.23701808,0.016459908,0.012037596,0.04918848,0.66337925,1.05215,-1.031701,-0.80219173,0.047367044,0.4596704,-0.2249868,-0.25404713,0.26356167,0.7503025,0.92050105,0.9235366,1.1165515,1.0195287,0.81928414,0.45095208,-0.4092307,-0.66419166,-0.74398875,-1.8783066,-1.2157253,-1.4106795,-0.89657056,-0.7880551,0.02147264,0.016628174,-0.022844788,0.30696183,0.5828174,-0.45747787,-1.3174752,-1.813631,-0.3869764,0.39630234,0.19631928,0.093158245,1.0680742,1.8544178,1.6298056,0.96096784,0.8491107,0.20741493,-1.4140564,0.053576764,-1.0673314,-1.1178919,-1.3074449,-0.5649544,-0.265627,-0.8309157,-1.344611,-0.57121813,0.011934697,0.0032089804,-0.018040957,0.52635694,-0.31341976,-1.8287265,-2.4747937,-1.5272107,-0.94296956,-0.4029256,0.40510756,0.9233206,-0.15104069,1.4975262,1.644513,1.0128099,0.16802028,0.82791215,2.0876417,1.391329,-0.18090817,0.43973675,0.33194253,-0.32389316,0.9758787,-0.08355494,-0.25704706,-0.32757494,-0.009348149,0.017278237,0.0085747475,1.21646946E-4,0.023996554,-0.84564173,-0.6033613,-1.0097666,-1.1736007,0.20725262,0.23277204,1.5202497,0.9786179,-0.0015562155,-0.3782707,-0.12480115,-0.48267886,0.7882304,0.70728254,-0.39973164,-0.92680377,-0.0478182,1.1279302,0.74570537,0.18243809,0.36501998,-0.1712071,-0.01185194,-0.022418093,0.006964505,-0.01491587,0.015646774,-0.017901784,-0.0055540446,-0.3024703,-1.156851,-1.5140287,-1.8119935,-2.2567492,-1.4649272,-1.6593391,-2.5526712,-2.3650157,-1.8890798,-2.276962,-3.222343,-2.3560846,-1.2564065,-1.3934262,-1.3447709,-0.43229744,-0.36815032,-0.29358703,0.022005586,0.0020827232,0.0032433064,0.017828641,-0.018966554,0.0062117255,-0.0042567584,0.017228112,-0.013767527,0.009168412,-0.018441414,0.0011928905,0.011235855,0.008153423,-0.023857655,-0.010261243,0.110625654,0.12727109,-0.026434038,-0.09086733,0.019166578,-0.018561246,0.0076334514,-0.019165117,-0.02240306,-0.012335598,0.01968721,-0.003134002,-0.0017524352,0.0059340093,-0.014589227,0.014121271,0.007703749,-0.0033885292,0.020094456,0.020087006,0.16263016,0.25376508,0.49995404,0.656927,0.8101458,1.7333014,3.16582,3.937226,4.355166,3.8501194,3.6776295,1.9000648,0.72652507,1.3904587,1.3943672,0.33180603,-0.022443512,-0.061463006,-0.108264916,-0.11432117,0.018562816,-0.020246569,0.008666683,0.003177267,0.0046391333,-0.016601635,-0.055755682,-0.32603347,0.5825426,1.5154207,1.4393787,1.9414608,3.0322661,4.323227,5.2725525,5.6249485,5.330125,6.140779,6.213387,4.6292934,1.9308428,0.7940244,-0.48740968,0.3636012,1.5879787,2.5951638,2.3270762,2.2191882,1.3630311,0.6054986,0.00506706,0.013118284,0.014916034,-0.0133063635,-0.07338658,-0.31209508,0.12839462,1.6389058,2.603017,3.5135891,3.941471,3.6499264,3.7703664,3.8326735,2.7891467,1.3462939,1.3570534,-0.011107447,-1.804076,-2.7943778,-3.5958261,-2.1252987,0.240911,1.9424399,3.2067769,3.9735544,2.9472575,1.8616204,0.32663146,0.014130656,-0.010014003,-0.122709356,-0.051956147,-0.040886115,-0.011287054,1.2305253,1.9030545,3.3647375,4.5247583,4.8197775,3.75123,3.7572155,3.263147,2.3438852,0.8192368,-2.2376819,-2.9438093,-3.0471199,-4.225061,-3.2456238,-0.6394264,1.1368877,2.4220362,3.116808,2.2147737,1.0604553,-0.5255257,0.023658669,-0.010582207,-0.014019422,0.66758555,0.10147647,1.3885007,2.0120318,3.225153,3.7072964,4.026925,4.0651617,2.3408837,1.4701627,0.49097577,-1.5116248,-2.5346906,-3.5706756,-2.383914,-1.9281371,-1.745762,-1.2269927,1.2116045,1.3121033,1.3921587,2.8952856,2.204667,1.0647151,-0.9592098,-0.031834934,0.0037855017,-0.021606792,0.9475716,0.19805218,2.7803266,2.333571,2.798916,3.0969286,3.9420648,2.3951206,0.43767202,-0.859493,-0.84882647,-2.4466166,-4.8015575,-6.0603976,-4.580294,-1.8552414,-0.32102922,0.19360556,0.8209588,1.0416664,1.6366203,2.7266192,0.89870065,-0.1441866,-1.857652,-0.55808896,-0.011833413,-0.08573264,0.35701346,0.75324917,2.1044369,2.009273,1.7605265,3.0710902,2.2942157,1.6391387,1.2137156,-0.035020303,-1.4392041,-3.021134,-4.841715,-4.8491807,-3.2699509,-0.4455219,1.0349228,1.0657641,0.9221097,0.9893835,1.2314638,1.3842487,0.47367305,-0.27578887,-0.9673127,-0.43237337,-0.12701333,0.8566922,0.76423675,0.031650577,1.9323554,2.6759737,1.109986,1.3369958,0.44511396,0.7914991,1.124669,0.53481734,-0.8514936,-3.0129504,-5.2519913,-4.662797,-2.3644714,-0.19967178,1.2540176,0.93602693,0.83620775,0.8492453,0.73579335,0.5602005,-0.98566806,-1.5354817,-2.1045163,-0.45706755,0.34976062,0.92420775,0.5343957,-0.31827474,1.2447988,1.6108367,-0.04452391,0.521866,-0.06033106,-0.35335442,0.8311867,0.1742453,-1.1622089,-3.47125,-5.457176,-4.3725624,-0.76295143,1.167674,1.9516541,1.3650962,1.740705,0.86081696,-0.26835805,-0.6384299,-1.4917163,-2.4475257,-3.2031515,-0.72741985,0.3694141,1.044367,1.101221,-0.23197839,1.5117269,0.72541213,0.16359614,1.0061977,0.8576365,0.61310285,1.0494322,0.2851409,-0.6152508,-3.559981,-4.914385,-2.204177,0.8331069,2.1063464,1.2234416,0.8375646,0.61944354,0.22172496,-0.48024732,-1.2639883,-1.8771685,-3.2885997,-3.365388,-1.0346779,0.390395,0.6398356,0.59969735,0.3464714,0.577063,0.8765029,0.48181793,0.6746626,0.0044717453,1.0318104,1.3631982,0.86737543,0.44273898,-3.525411,-3.09831,-0.724455,2.6214414,1.7923013,0.7101845,-0.10736507,-0.7342665,-0.6680418,-1.4036273,-0.7853419,-1.5455092,-3.4659274,-2.3212955,-0.85907537,0.08127368,0.7802744,0.5158098,-0.5278246,-0.12017871,0.13132726,-0.018976048,0.5816705,0.48951864,0.6290102,1.5854281,1.8655663,0.28442737,-1.9118092,-2.8275573,-0.17484738,1.9902319,1.5253791,0.9075647,-0.30148885,-0.4044928,0.6362264,0.48399326,-0.017564068,0.24170218,-0.5839481,-0.6365425,-0.41336146,0.07792852,0.4852928,0.2792747,0.04990019,-0.31138065,1.4416753,0.82339615,0.7146328,0.8142345,1.1226454,1.5097374,1.2823205,-0.62072146,-3.2932892,-2.7515419,0.5340169,1.0509208,1.464701,0.89664936,0.29029617,0.5626844,0.6847103,1.3794839,1.2688683,-0.15212165,-0.84235245,-0.7360964,-0.18750738,-0.011250604,0.3168172,0.03488618,1.8224039,0.8104714,2.2673569,0.66829497,0.71885294,1.2097971,0.86103266,0.5764996,0.76257515,-1.1139474,-1.5386188,-0.32123372,0.6346658,1.1412394,1.7659959,0.837393,1.5704736,1.211694,0.71557367,0.6940351,0.74500716,-0.18362127,0.01741804,-0.7913761,-0.360852,-0.0034187925,0.006206976,0.8012435,2.3201735,-0.045287058,1.1106633,0.870168,1.0353073,1.167482,0.9268113,0.2251428,0.12415414,-0.76740617,-0.21706223,1.1449863,1.0867249,1.2631389,1.6974458,1.0467374,1.7388431,0.33275425,0.6467665,1.5551999,1.589172,0.14032556,0.43557078,-0.33883703,0.115651995,-0.0055400087,-0.19622855,0.31863117,2.1285646,0.3493497,0.89194745,1.8404254,0.64666295,1.180658,0.16288225,-0.52762294,-0.63551545,-1.280394,0.1617759,2.0018108,2.313254,1.4242827,1.5914317,1.4105141,0.7534738,0.2426164,1.0799699,0.67671597,0.5792542,0.35983157,0.14722052,-1.5430026,-0.18673801,0.02237354,-0.328219,-0.37416035,1.6373626,1.8027871,1.133982,1.8873075,0.34762087,-1.0429015,-1.5220023,-1.8402617,-1.4684516,-2.1185186,-0.20556785,1.6275419,0.8774059,1.6176021,1.8661027,2.0492616,-0.35107243,-0.04441161,0.7126971,0.17360215,0.25620374,0.19950092,0.89046746,0.3420515,-0.08825859,-0.20657949,0.06844932,0.22585265,0.460702,1.2646872,-0.031823356,0.09612184,0.35028484,-1.4447966,-3.4791732,-3.855731,-2.2157545,-0.86896026,0.9083375,1.3883303,0.8717768,1.6511024,2.0199497,1.3654264,-0.7705935,-0.40730414,-0.14176758,-1.6794554,-1.7825456,0.3202453,-0.007935419,0.7831089,0.18859082,-0.022263046,0.03218253,-1.5120673,-0.70701075,-0.5098494,-0.5430852,0.5358534,0.36393103,-1.8203702,-4.9848094,-4.7144933,-2.48812,-1.2140536,1.0919619,2.0195122,1.3386488,1.5157858,1.4475218,0.0906594,-1.3687606,-1.7877895,-1.3111748,-3.4489472,-2.0019875,-0.9426418,-0.9374865,-0.02656609,0.046533555,-0.006120657,0.14361677,-1.5493315,-1.0550596,-1.7060814,-1.7309436,-1.1747817,0.67698634,-0.86793,-2.8503268,-3.52267,-1.6821014,0.41366774,0.54723924,1.3588357,1.4069353,1.3511205,0.85116756,0.40481415,-1.0129067,-1.4078628,-1.2808791,-3.4679654,-1.638663,-0.92093956,-0.9354658,0.19266878,0.038072728,-0.20919411,-0.38778278,-1.4848197,-1.776054,-2.842742,-3.7256265,-2.6903546,-1.1403995,-0.29585752,-1.4540805,-2.1069527,-1.3033882,-0.38708913,0.45904866,0.82553816,0.9422269,0.31249303,0.17513888,-0.5393161,-0.62619793,-1.5748982,-0.483641,-1.0357782,-0.84422094,-0.63155156,-0.82473636,-0.068322755,0.1610376,-0.23834193,-0.29758206,-1.16939,-2.5954602,-3.7636173,-5.0310364,-3.8690896,-2.5807984,-0.9990068,-0.7156031,-0.90478724,-1.2842329,-1.4461994,-0.75346774,-0.3993435,-0.114934,-1.4021603,-1.4883926,-1.2434461,0.58157325,-0.7010942,0.21346596,-0.6485389,-0.5534101,0.69124097,0.2692268,-0.04917863,0.17270543,-0.012568494,0.002925575,-0.56546867,-1.5246918,-3.555823,-4.219425,-3.01972,-2.987813,-2.1174104,-2.211357,-1.1229662,-1.0177202,-0.14717774,0.05091505,-0.046269927,-0.5748724,-0.6464075,-0.22551085,0.04259247,0.3219295,0.510628,0.94291604,0.5252757,-0.7764589,0.024082413,0.3367861,-0.26313028,-0.020418813,0.014888933,-0.008570539,0.10912541,0.21654832,-1.4330581,-2.2880383,-2.7310321,-3.593819,-3.0405407,-3.3317308,-2.404144,-0.8303444,-0.15239076,1.5460246,0.52119046,0.54986346,0.5929468,0.71491885,0.08512999,0.3067092,0.78278697,1.0030632,-0.12687242,-1.0438721,-0.7352096,-0.12804349,-0.38462353,0.015926728,0.0024147176,0.002354525,-0.38440022,-0.6907612,-0.8608451,-0.6909541,-0.83409697,-2.2756844,-1.4837227,-1.54897,-1.4824847,-1.4428618,-1.8437059,-0.44470483,-0.7146095,-0.46393016,0.07709348,-0.43041158,-1.2735578,-1.1380615,-0.9920623,-2.0008843,-1.1449711,-0.9908158,-1.1287063,-0.5162053,-0.1879218,-0.015332216,-0.0011493701,-0.01980231,-0.019448973,0.012887662,-0.38157502,-0.6210131,-0.5185496,-1.4054327,-1.9550146,-2.8535852,-3.3382893,-2.6379778,-2.5089076,-1.8768754,-1.7626979,-2.0486794,-1.8227568,-2.202983,-1.4724163,-0.6195585,-0.9566169,-2.6300135,-1.5469234,-0.9300242,-0.13371538,-0.007199318,0.008686513,0.008797579,0.0078345165,0.021007359,0.019166278,-0.017992985,-0.0252258,0.09624412,0.03540986,-1.7336124E-5,0.040307555,0.18391715,-0.32537708,-0.21548268,0.34473374,-0.9631222,-1.8905969,-1.443471,-0.19071212,-0.46387848,-0.35907277,0.2052657,0.64670455,0.06805698,0.024246372,0.001991666,0.01224644,-9.5455354E-4,-0.014728236,0.0019424408,4.7084468E-4,-0.02180716,-0.021372411,-0.023877209,0.003383396,-0.024065768,-0.004300671,0.009907574,-7.985375E-4,0.0017977966,0.014489363,-0.008615132,-0.16989388,-0.15667577,0.04351669,0.013986177,-0.006354036,-6.797449E-4,0.0023722472,0.024161585,0.0030477848,0.016706312,-0.021169571,-0.020548569,-0.018507246,-0.013915966,-0.00922139,0.02187685,0.017794361,0.0029709658,-0.002291414,-0.016253343,-0.0017792822,-0.15623756,-0.47059742,-0.44919464,-0.73496467,-0.7210666,-0.19508067,-0.653157,-1.3541566,-1.0716369,-1.5414053,-0.5946443,-0.048328985,-0.8094599,-1.1701884,-1.0832322,-1.1169289,-0.9909389,-0.7324615,-0.6240314,-0.022249354,0.023462282,0.024381679,0.017173948,-0.016649235,-0.0021964926,0.015844159,0.20514657,-0.01424031,-0.54206806,-0.4852764,-0.7212972,-1.2849183,-1.5134317,-2.0332615,-3.737533,-3.2188323,-2.6706152,-2.6111522,-2.2257082,-1.3097754,-1.1424657,-1.978542,-2.174504,-1.3591675,-3.2529864,-2.3398478,-1.3854433,-0.309781,-0.139514,0.02172376,0.020864837,-0.017773895,0.02212563,-0.07532748,-0.07454487,-0.104943894,-0.5578097,-1.7366359,-2.7776182,-3.3309455,-2.8392456,-2.1254296,-2.0202863,-2.691459,-4.004598,-4.0490913,-3.0348587,-1.5406909,-1.5506817,-1.9757427,-2.113664,-1.5266138,-0.55026746,-1.0582181,-1.6397805,0.20562649,-0.1378635,-0.25291643,0.0026045453,-0.009274345,0.08849203,-0.31420147,0.41710576,-0.38965338,-0.071098834,0.003504353,-1.2054812,-2.0222793,-3.2074955,-1.9149289,-1.4537929,-1.2210219,-2.5439398,-2.040121,-1.0151368,-1.0770106,-1.0013323,0.035400346,-0.73822594,0.043554697,0.414797,-0.022574192,0.4542252,1.3117406,1.4252385,0.33021644,0.018514264,-0.022103572,-0.022971496,-0.8167313,0.43331015,-0.33699086,-0.20792831,0.31120017,-0.23582691,0.32451802,-0.19464944,-0.21242017,0.9242191,1.2175652,0.85875,-0.039964225,-0.7458314,-0.5362143,-0.8163449,-0.48646125,-0.43298697,0.016307915,-1.6861665,-1.4106225,-1.0457678,-0.75460345,0.30616572,-0.12581486,-0.017181793,-0.0052328575,0.03348913,0.35244808,1.2003582,-0.65456635,-0.6608737,-0.44543317,-0.84884363,-0.12605622,1.8133712,2.0145323,1.7159611,2.0010657,1.7634087,1.6737189,1.5616354,1.2673216,1.174479,1.230365,1.2648125,0.34292537,-0.6021255,-1.2552791,-1.5460114,-2.2079806,-2.1086438,-0.78436786,-0.37035596,-0.0048778523,0.44326678,1.3502921,1.6254988,-0.6812003,-1.7075126,-0.47781456,-0.112629086,0.8381735,1.3328894,0.34656245,1.0036415,1.0557094,0.9463988,1.3961049,1.3317486,1.7879262,1.314249,0.94289917,1.1799471,0.51851934,0.43483147,-0.7014349,-1.9545766,-2.7142892,-2.8485217,-1.2238348,-0.19240803,-0.26836988,1.0605557,2.4190469,0.99234813,-0.8903454,-1.4942951,-0.5735331,0.039002992,0.98052275,0.8314444,0.108300164,0.73155683,0.57812536,0.6870857,1.1532192,0.88405854,0.95511746,0.5454678,0.74686533,0.32439178,-0.43536642,0.09382557,-0.59942764,-2.5596733,-2.7771833,-3.8934596,-1.7847278,0.18605928,0.36080554,2.052064,2.6280963,0.65627795,-0.43016365,-0.1980065,0.57231754,0.78883624,1.3038933,1.4364572,0.089966595,0.45136827,0.37076673,0.55805326,0.62872434,0.56643486,-0.24805266,-0.017731594,-0.08479547,0.14696811,-0.21188611,-0.73287284,-0.64406794,-2.6271682,-3.3004227,-3.238797,-1.3972623,-0.10115067,0.3872389,1.8612087,2.8517737,0.31940633,0.07556445,0.41730723,1.040964,0.9171574,0.98041403,0.60236543,-0.5577359,0.37848762,-0.4968195,-0.0036324935,0.16838469,-0.71285814,-1.018103,-0.4112801,0.423697,0.39743775,1.2354038,0.4899732,0.40609694,-0.9873699,-1.0346515,0.1126075,-0.13932927,-0.48995468,0.5729518,0.49826685,2.2792857,0.035430133,0.21416779,-0.057886813,1.264154,1.3113984,1.7587135,0.09144307,-0.24532832,0.12748346,-1.0162708,-0.12946178,0.07710614,0.1433036,-0.3436963,0.90143985,1.3456328,1.4877071,2.1955404,1.5064837,1.8458182,0.98715615,0.9794304,1.7111255,1.3308314,-0.5648101,0.26122934,0.6655826,1.3456739,1.1931616,0.8090029,0.39538458,1.189389,0.50628316,0.6906725,-0.11491313,-0.958558,-1.3980666,-1.9566356,-1.071569,0.14139768,0.29581204,0.035318278,0.9110008,1.88894,1.967174,2.2083623,1.3758273,1.1513228,0.91986436,0.2437867,0.6670323,0.35218734,-0.2490374,-0.26433882,0.35425472,1.1897422,0.8390908,2.2293234,0.23148039,0.3664428,1.4227883,0.1805891,-0.6090647,-0.8850915,-1.8625573,-1.6499412,0.011131156,0.6919246,0.24270213,0.07154322,0.7846802,0.9392197,1.7577422,1.5849164,1.6251421,0.8508309,-0.8423168,-1.193006,0.67503285,-0.5425869,-0.056314312,0.020466568,0.16577013,1.1763496,1.2376903,2.1431985,-0.61604965,0.48183128,0.60857,-0.43368977,-0.7751111,-0.78876054,-1.1488886,-1.0382682,-0.18911603,0.05998283,0.69731224,0.16087255,0.5768457,0.92258793,0.80318356,0.8741756,1.3066036,0.64394826,0.10505024,-0.8418461,0.2097649,-0.25331268,-0.17196457,0.015147289,-0.00583977,-0.70192176,0.18774953,3.2153745,0.8244954,1.1110566,0.10117938,-0.072779566,-0.91515833,-0.21591847,-0.6989744,-0.3326481,-0.7314863,-0.86873925,-0.16369061,-0.23370226,0.7205897,0.6967219,-0.027056064,0.5348077,0.8699671,0.1477352,-0.62546754,-1.1893982,-0.83734906,-0.27106875,0.1804881,2.5299536E-7,-0.20947479,-0.6385164,0.25925356,2.302206,2.1392298,1.1650969,-0.19392526,-0.28006503,-0.56750953,0.27823257,-0.09164,0.66912925,-0.36051375,-0.88003576,-0.8251953,-0.33659858,1.1517879,0.5956491,-0.6490686,-0.80995107,-0.542979,-0.85128206,-1.743741,-1.7793772,-3.302857,-1.5953904,0.018380677,-0.005843996,-0.023446178,-0.2509774,-0.55811787,0.3103894,1.2581184,0.7845331,0.8012568,0.66459054,0.120682806,0.38376793,0.34209502,0.76571643,0.16922764,-0.20710017,-0.14815359,-0.097664855,1.0476352,0.47495723,0.39368168,-0.862979,-0.75947315,-0.67146534,-1.7468913,-1.4717236,-2.4184017,-1.249748,-0.6397523,0.37383354,-0.103790954,-0.2902915,-0.43949878,-1.6165045,0.04356123,0.70176995,0.92478764,0.75582975,0.67320687,0.33707362,0.602176,0.01182666,-0.67646205,-0.051827826,-0.3454026,-0.7577471,0.51949954,0.5622903,0.99408895,-0.60714483,-0.88891935,-0.45984218,-2.5106213,-2.7381613,-1.4827995,-1.237002,-0.24765705,2.577404E-4,-0.25426802,-0.19300619,-0.52109987,-1.6029975,-0.6479318,-0.72003233,0.15366936,0.35013473,-0.26396066,0.13227624,-0.30665237,-0.0044333613,-1.0308592,-0.7898252,-1.0735232,-1.2780823,-0.35971436,0.7656358,1.5354718,-0.07317032,-0.5423054,-0.63408875,-1.5859514,-2.1489456,-1.4269701,-1.3591496,-0.23146811,-0.0028837868,-0.17165315,-0.29485595,-0.31927192,-2.080054,-0.39757535,-1.2985511,-1.3844925,-1.5740356,-1.1651758,-1.0369778,-1.9034581,-2.1175358,-0.6881055,-0.93781495,-0.86361367,-0.3197891,0.16555238,-0.074622706,0.28913054,-0.8887206,-1.6414124,0.060206898,-0.4050893,-1.0275555,-1.435548,-1.531635,-0.03878471,-0.23240253,0.052912407,-1.1491879,-0.9284754,-0.569267,-0.65262794,0.21262325,-0.75345856,-0.55384713,-0.39209983,-0.5534606,-1.0734396,-1.3341393,-1.5489556,-1.4487691,-0.8950972,-0.2174281,-1.1083219,-0.3706561,-1.5850976,-1.7349726,-1.0546781,-0.7645651,-0.633297,0.80274165,-0.4165792,-1.6976784,0.1753702,-0.25036302,-0.27183926,-1.4311717,-0.95481753,-0.39259604,-1.0731304,-0.7168924,-0.2791955,-0.50585353,-1.221608,-0.41885892,-1.1992253,-0.66680044,-0.8993914,-0.34018436,-0.9369582,-0.763024,-1.0809089,-0.76831555,-2.37056,-2.3451984,-2.5190108,-0.16292152,0.5081462,0.6003241,-0.34743062,-1.0043094,0.1493712,0.0026355884,-0.002377124,-1.249022,-0.9149204,0.12048435,-0.27292067,-0.22876741,-0.036115613,-1.1696937,-2.0174627,-1.1548707,-1.1089815,-0.7470291,0.020263828,0.5330585,-0.12243774,-0.53376234,-0.6922643,-0.44597137,-1.5759734,-1.9295341,-1.5795124,0.38516876,1.3451167,1.6168666,0.023518374,-0.87141895,0.012304845,-0.013309906,-0.017542318,0.0029932912,0.46700776,1.9369698,2.005083,0.5924049,0.93970776,-0.14342616,-0.32738692,0.014488395,-0.5609097,-0.78675205,-0.56717235,-0.28867903,-0.076476686,0.17864452,-0.24275371,-0.33255512,-0.12696272,0.4863283,1.4203691,1.5091524,1.6715236,0.5204768,-0.89564306,-0.5878635,-0.023599776,-0.014450581,0.022667224,0.21380821,0.2545707,1.0073063,3.3998756,2.1514792,1.964173,1.9614211,1.4823202,2.246184,2.7762752,2.0497935,0.87177616,0.5383304,1.5431784,1.4643847,0.7609705,1.9897164,2.7840846,3.4200628,4.5152717,3.7423682,1.9920014,0.8490521,-0.022052005,-0.33563665,0.023363164,-0.013257508,-0.019645572,-0.02094082,0.0057904306,0.8946014,1.7884158,2.9903297,4.3314624,5.1939225,5.300641,3.9665236,4.3746543,5.623734,5.682014,5.110545,5.520059,5.1499953,5.905137,5.785424,4.824983,3.7640545,4.593695,2.8037493,1.227554,0.27086404,0.07338943,-0.020068472,-0.006877188,0.021619312,-0.022769824,0.022737822,0.0070075137,-0.004368662,0.1751948,1.3885779,1.7742635,2.43819,2.8129153,2.7885118,3.5560315,4.047999,3.8833377,5.1178694,4.8535213,3.8184183,3.5888295,2.0296206,1.0964687,0.46265846,0.6174594,0.48304796,0.20728013,-0.004570133,-0.009763134,-7.254287E-4,-0.013394759,-0.021742063,-0.0032341208,0.021717101,0.0066699274,0.008946871,0.021103596,0.009127897,0.008271383,0.022253461,-0.017994784,-0.025119603,0.015269067,-0.13614933,-0.082680516,0.17071031,0.11291014,-0.016332006,-0.004353082,0.016590262,0.01919027,0.012370155,-0.021506447,-0.02350051,-0.004667654,0.013577711,-0.024080118,-0.010087376,-0.006343305,0.0024491055,-0.019769246,0.0047074184,0.00586111,-0.089045964,-0.09024384,-0.51105005,-0.4439818,-0.7209296,-0.9767059,-1.5395083,-1.9133452,-2.3651426,-1.3548445,-0.82017183,1.0418956,0.5831419,-0.032962076,-0.609421,-1.0048628,-0.45029414,0.08473391,0.34474963,0.21612479,0.007762898,0.0010341288,0.014206661,-0.018115897,0.021823198,-0.020207778,0.047148366,0.260248,0.026705947,-0.914489,-1.036023,-1.0868965,-0.85580105,-1.2863579,-0.81911075,-0.10951213,-0.3242798,-0.7156716,-0.25320825,-0.40698114,-0.4345259,-1.4646616,-2.676311,-2.6569395,-2.0629447,-2.7886448,-1.5583057,-0.09247905,-0.08124778,-0.011379635,-0.021591574,-0.009428887,-0.020976288,0.008086484,-0.087725736,0.2753075,0.2087099,0.8300234,1.4150226,1.4303969,2.4682205,2.761769,1.9881049,2.234215,3.8462985,2.9587781,1.032585,-0.6717357,-1.1960813,-2.0205388,-2.9761968,-3.4040575,-3.368548,-3.4655159,-2.6542606,-1.6579807,-1.4016588,-1.0314806,-0.20716459,0.014221967,-0.0015936806,0.17077422,0.12153675,0.51713187,1.3487008,2.4146438,1.9629352,2.468621,2.301754,2.364716,2.0877943,1.442558,2.0533533,1.9306166,1.2080452,0.5757322,0.07593639,-1.3733239,-1.1766435,-0.73440444,-2.553837,-2.9997869,-2.7712407,-3.5736995,-2.7651381,-1.6320112,0.0035589267,-0.02265784,-0.0032265105,0.012310234,-0.027629143,1.0941206,2.7747905,4.2228103,2.7175136,1.8328804,0.92920446,1.2057644,1.6144533,1.1382564,1.6836505,1.5912194,1.3577543,1.1742944,1.1690276,-0.6164345,-1.3472234,-1.8510532,-1.9518349,-2.8205845,-3.5009038,-5.323676,-4.1548367,-2.1675587,-0.0109696,-0.025961075,0.003345559,0.20071681,0.3592137,2.067024,2.573159,3.9791436,2.8352916,1.5635049,0.48352388,0.5457742,0.9403253,1.3956305,1.753522,1.7646205,1.1375136,0.41100937,0.79171675,-0.42376137,-0.8828566,-1.9005003,-1.9261558,-1.8046845,-3.9522846,-6.1680737,-5.3797245,-3.1260319,-0.3351527,-0.21588556,-0.0021119341,0.032204185,0.44858426,2.6176913,3.8793387,2.1653419,1.8408483,0.26572502,-0.6000207,0.5155966,0.8496696,0.07538083,0.81323063,1.2752563,0.57060283,-0.0592172,0.35959658,0.16277584,-0.3006017,-1.3821605,-2.1346686,-3.2293146,-4.7411137,-6.9384723,-6.86999,-4.267705,-1.4405687,-0.21595997,0.07535246,-0.8159881,-0.50899005,2.6277375,4.4824457,1.3110617,0.6906262,0.8098631,-1.2526313,-0.17847589,-1.017375,-2.032472,-0.20697065,0.2962608,0.7186721,1.2526081,1.3101835,0.800944,0.51780784,-0.7265527,-2.7710915,-4.5528846,-4.4088597,-6.5646305,-7.9456105,-4.9578958,-2.4070768,-0.056455955,-0.42466688,-1.3846506,-0.7901546,2.2849398,3.2957695,-0.13070844,-0.17606027,-0.3458806,-1.8614718,-3.806574,-4.373923,-3.928854,-2.397987,-1.0320672,0.46973845,2.699353,2.3536465,2.3530805,0.59492034,-1.1859543,-2.9377491,-4.809265,-5.187887,-7.531394,-7.906814,-4.55657,-1.3865079,-0.22314924,-0.4452725,-1.0885086,-0.44360736,2.5998838,1.1422288,-0.90176356,-0.95291346,-3.3925843,-5.3682475,-6.189103,-5.4745913,-3.9999015,-2.9303873,-1.7381912,0.8374492,2.2149417,2.522292,1.8269123,0.17700839,-1.7395805,-3.4408398,-4.4795914,-5.275998,-7.5398784,-7.295925,-3.4248924,-0.57220495,-0.19074962,-0.42896372,-0.8402737,-1.2348534,1.6889365,-0.09649636,-2.6289806,-3.0451236,-4.8440824,-5.2433777,-3.98654,-2.7397957,-1.7399071,-0.9296566,0.08497064,2.0433402,2.0814407,0.77448136,0.46142626,-1.8342364,-2.992427,-2.3337402,-4.2892046,-4.951276,-5.682538,-3.7703323,-1.5188494,0.25725985,0.7329792,-0.028806716,-0.20312877,-1.0171744,0.20034774,-1.20128,-3.1717527,-4.615187,-3.8227577,-3.0612323,-1.1088724,0.21279305,0.21546423,0.78523433,1.6382904,2.7310104,1.545566,-0.108671635,-1.8206447,-1.9293733,-2.7117162,-2.9174905,-2.8930824,-3.580806,-4.398158,-0.9435843,2.4706218,1.7110431,0.7841144,-0.23068832,-0.20611838,-0.44567755,-1.5013727,-3.300879,-3.9018798,-3.0404656,-2.5321,-0.06740542,0.33664826,0.055773392,-0.01243574,1.0090694,2.5545416,2.543055,1.3618932,0.3447542,-1.7845331,-1.5895591,-1.6446433,-1.283888,-1.7964469,-2.9922543,-2.4519734,0.30082226,3.0838075,2.2029235,0.31437004,-0.010492359,-0.14386924,-0.18342611,-2.0071092,-2.6217654,-3.4019315,-3.301729,-0.5778544,0.9664881,0.6126999,-1.026159,-1.1530374,0.34981337,1.9940264,2.157179,1.1779795,-0.3075627,-0.428177,-1.0636299,-1.7909287,-1.6305963,-0.6217516,-1.7434038,-0.7251433,-0.100652285,1.547453,1.2543118,0.056336593,0.008957036,0.024667628,0.27303392,-0.37149036,-1.8284199,-2.8884368,-1.5042236,-0.1781877,0.4692906,-0.0709479,-0.5727316,-1.1325061,0.07287121,2.4935272,2.5461035,1.149516,-0.9260899,-0.87859315,-1.018188,-1.3368837,-0.7658971,-0.589983,0.22221771,0.32298845,-0.027978774,1.3660434,1.4578282,0.31629133,0.0019245768,0.12612988,1.4019018,0.73431957,-1.2443886,-2.038753,-0.99960274,0.26006773,-0.14673367,-0.38689643,-1.4635981,-1.0403008,0.17646684,1.715586,1.0661043,-1.7213392,-1.3103614,-0.86784637,-0.6486234,-0.079170845,0.1263284,0.8517167,1.2373935,1.4690067,1.3413725,2.726493,2.6002026,0.7246735,0.015622316,0.4283496,2.1853955,2.035151,-0.81799656,-3.1481872,-2.2988865,-0.16801614,-0.16916321,-1.1446948,-2.816126,-1.5483658,0.533544,0.7129011,-1.3837055,-2.8215592,-2.0511656,-1.2558424,-0.81559217,0.32472634,0.1580655,1.2776164,2.2178335,2.3370357,1.5323248,1.1525775,1.7137166,1.0575287,-0.2005331,0.16248193,3.3743289,2.7576346,-0.64307034,-2.2595432,-1.6588957,-1.7637744,-1.4909937,-1.5352134,-1.98563,-1.7961537,-0.92424995,0.0013414454,-2.0795891,-1.9627821,-1.6874034,-1.3054589,-0.23580663,0.45017537,0.09877941,1.8410864,2.0362952,2.0899062,0.44138244,1.1117905,1.2897351,0.42451367,0.014215646,0.071650766,2.1970909,3.228132,0.05936556,-0.7416269,-0.92051995,-1.1688226,-0.9557638,-0.87247825,-1.439963,-2.4292197,-1.704386,-0.5020901,-1.9753231,-1.2146238,-1.1176972,-0.523856,-0.32234493,0.5987821,0.4121087,1.6650485,1.27505,0.8960614,-0.059654355,1.2751262,0.90568614,0.31413057,-0.011567695,0.61635214,2.8166246,3.789674,0.84205043,-0.5256965,0.30162996,-0.154098,-0.692854,-0.5008563,-0.96705425,-1.0386608,-1.4764936,-1.6523924,-1.2532167,-1.1816478,-1.2152507,-1.2859373,0.28146967,0.40048248,1.1978791,0.82724565,0.5776737,0.73156714,-0.6936695,0.5889731,0.8135643,-0.06432352,-0.15995954,0.99304694,3.409984,3.6654572,1.4436738,0.12076171,0.5283226,-0.4438016,-0.94753814,-1.2899206,-0.7752599,-1.0922366,-0.9227568,-0.9192946,-0.7363943,-0.9618601,-1.0640239,-1.1341358,0.17503484,1.1632919,0.3492984,-0.45485252,-0.3193215,-0.26499754,-1.5889465,-0.4312054,0.86241865,-0.01456222,-0.18872038,-0.067375265,3.6051917,4.4685345,2.477495,0.971012,0.57431215,0.5746993,0.9333061,-0.2072007,-0.0716731,-0.48891678,-0.9589582,-0.36382252,-0.45024365,-0.48646694,-0.45320693,-0.19243604,1.2356284,1.159494,0.90457493,0.20588814,-0.25760043,-0.65742725,-2.163916,-0.11129959,0.45389122,-0.0069419504,-0.019091975,-0.013724652,3.591769,4.7080803,2.4635248,2.1082778,1.1065929,1.4542809,0.8001457,1.0789304,0.6351721,1.250437,0.9161331,1.0920185,-0.12799321,-0.29051334,-0.30540472,-0.17864336,-0.025262093,0.12489981,-0.14041373,-0.6583431,-0.6102751,-1.535251,-0.1603155,0.021646515,0.96078163,0.0074486593,-0.0071587595,0.01429129,1.0999725,2.4107013,2.0506816,0.9584759,1.6058247,2.2185943,2.4053595,1.5307015,1.5612965,1.8466177,1.0540152,1.4896019,0.43861085,-0.79610246,-1.4102187,-1.4099321,-2.039371,-2.1574984,-2.0081232,-3.1068828,-2.0962267,-1.1387974,0.0035230597,0.49452215,0.22852096,0.019740326,-0.0140604805,-0.023051076,0.40019596,0.37706384,1.40895,0.73555595,1.1250924,0.99871314,1.8363547,1.464145,1.0284543,-0.056606773,0.23185875,-0.041801803,-1.5177377,-2.004764,-2.367971,-1.9443945,-1.3525833,-2.0108914,-2.2727206,-3.4053605,-2.801082,-1.2623539,0.12746842,-0.14462993,-0.04916346,-0.023060298,-0.010877107,0.008158237,0.011674828,0.019139465,-0.2744404,-0.24935542,-0.73725915,-0.5749064,-0.0072425315,0.7216453,0.94074595,-0.47209832,-2.2020028,-1.5155367,-1.3778789,-1.2866013,-1.3528364,-0.8855515,-0.98201436,-2.162022,-1.8672479,-1.3612131,-0.36813694,-0.056224618,-0.22578472,0.032657724,0.01144546,-0.0091086775,-0.014985778,-0.021547582,0.011622672,-0.010712214,0.008793104,0.21447697,0.22699727,0.21433371,0.33750218,0.37723318,0.7887384,0.5416836,-0.39194497,0.073630504,-0.2529629,-0.5527355,-0.78072095,-0.42652375,0.06855618,0.39967456,-0.28132957,-0.19399391,0.16963598,0.23147787,-0.016958343,0.0043442426,0.0047072982,0.0055222944,0.016168546,0.002461027,0.009387838,-0.022222964,-0.02276281,0.020844158,-0.012860437,-0.012480844,0.01311795,0.0036198443,-0.013139505,0.019447243,0.10138737,0.09364827,0.005160487,0.08431319,-0.024327748,0.023222256,-0.0067151706,-0.021714443,0.024563704,-0.019006371,-0.0014621753,0.019006843,-0.019915886,0.013748314,0.008818065,0.006671164,0.008103694,0.01811735,-0.0033949001,-0.012155408,-0.021523993,-0.07815657,-0.2544386,-0.22703244,-0.46395594,-1.0374544,-1.7626035,-2.19772,-2.4002671,-1.5583577,-2.0620663,-0.6982305,-0.30704924,-0.33341572,-1.4241517,-1.4444182,-0.9114786,-0.4508901,-0.011412323,0.17267027,0.0196855,-0.0115389945,-0.009621324,0.0018805134,0.01978027,0.013006779,-0.0043241433,0.32357037,-0.025807628,-0.9272097,-0.5411673,-1.2277478,-2.582816,-3.2213027,-3.1601741,-2.674771,-2.5159163,-2.41855,-2.3842938,-2.7968242,-2.6517441,-3.3630352,-3.8553224,-4.542581,-4.0481443,-4.3524723,-3.1602447,-2.023065,-1.0546135,-0.30384356,0.018336281,-0.015268131,-0.0044217096,-0.024332233,-0.19964486,-0.03940576,-0.29715177,-0.44551817,-1.0951585,-1.1003748,-0.6032189,0.08069092,0.7718449,1.0529321,1.7118478,0.9127932,0.8168104,0.4787092,0.87699413,-0.18146507,-0.5875938,-1.3643963,-0.61753327,-1.1421626,-1.7957525,-3.2938545,-1.9216298,-1.4039944,-0.32687652,0.016899005,0.01408149,0.18241526,0.045919698,0.46201363,0.72601444,1.471724,0.11078597,0.7355928,0.7791969,1.3533981,1.1497914,1.4082223,2.2769666,2.4157329,2.0143967,1.8056927,0.63781005,0.5235112,0.42594624,-1.1573349,-0.7812573,-0.158347,-0.1326604,-0.87817556,-0.26005325,1.5054202,0.8085172,-0.006017414,0.015761316,0.0105279675,-0.78287756,0.6001311,0.5366865,1.0988505,0.695741,0.3324124,0.072341576,0.77370644,1.2940851,0.880193,1.8815813,2.8502805,2.1315963,1.4243795,1.7086853,0.44128639,0.7384134,0.11609009,0.3933401,-0.4438054,-0.31688473,-1.4425722,-0.6980332,1.4318471,1.0576224,0.06494597,-0.013947495,0.1459436,-0.54998004,1.3899927,-0.42585924,1.9670631,1.4574813,0.16549008,-0.30532613,0.90891236,0.5452739,0.09381967,0.92170835,1.8663092,1.3185486,1.0760233,1.3508735,0.9198959,1.5605319,1.4339267,0.9601671,1.6771766,1.1963843,0.89394665,1.3105744,0.99739397,0.32570046,0.7351381,-0.01426426,0.7245353,0.28735036,1.9181857,0.672675,-0.5564471,0.5992817,-0.56546414,-0.8998342,-0.018449774,-0.56796604,-0.27851203,0.6970308,0.06530556,0.93370885,1.051211,1.447806,1.761502,2.0760846,1.8355601,1.3607781,0.41132024,1.3447675,1.6630901,1.2714865,1.207959,0.79739153,1.2847944,0.10754879,0.42793912,0.21015678,2.453344,0.6147309,-1.7587962,-1.5426586,-1.4659765,-1.2201262,-1.172928,-1.1025008,-0.6365646,-0.053688686,0.5469994,1.099807,1.6878182,2.332712,1.705527,2.5628445,1.6581522,1.1314048,0.7119307,1.3087696,1.0988469,1.5728513,1.7854383,1.6905555,0.8206564,0.3892986,1.5036094,1.0660135,2.1136718,-0.35549927,-1.3693511,-1.931699,-1.0078652,-1.1337866,-2.3938792,-1.367777,-1.0613141,-0.43445283,0.64134973,0.6731075,0.77041745,1.1291355,1.8102448,1.6027273,1.472731,2.162846,1.4849912,1.7296942,1.2862161,1.1234192,1.0645063,0.4324834,0.4377031,0.39778835,1.9158366,1.4740058,2.0725071,0.4399194,-0.41207725,-0.73150855,-1.4358267,-1.4947938,-1.6023785,-0.6994256,-0.7735247,-0.2990753,1.2657309,0.7991491,-0.46362197,0.22025022,0.6680467,1.3738072,1.2881889,2.0659888,1.9054906,2.3650746,0.5135135,0.6385994,1.333633,0.5322297,-0.02461958,0.4544343,0.57365036,1.0212901,1.2475884,1.1262798,-0.96771073,-0.0547642,-0.28501108,-0.7056553,-0.78897715,0.60259026,1.2087952,0.91115206,1.5163414,0.3146033,-0.77896005,-0.93897873,1.0660452,0.99289596,0.7190839,1.4734929,1.1033847,1.0197136,-0.6235944,-0.45208368,0.9027246,0.7604686,-0.5922781,0.102479376,1.0584972,1.1197748,1.0936776,1.734845,1.201101,0.5178859,0.23511147,-0.17220932,0.52865213,1.936843,1.446399,1.1078027,0.58226335,-0.06863703,-0.86877656,-0.7213925,0.04998634,1.0830703,0.25478145,-0.5438776,-0.92025083,-0.29773653,-1.217789,0.3389002,-0.9398533,-0.8277211,-0.355102,-0.2754778,0.67175347,1.1695292,-0.27482483,0.64152104,1.8810844,0.36626953,0.3269942,0.77858216,0.064127125,0.58198464,0.124329105,0.31338015,0.0049628336,-0.6746833,-1.481321,-0.9102877,-0.20447615,1.1175627,-0.50673515,-1.1681896,-0.7895451,-0.31198794,-1.1006961,-0.4216677,-1.9037199,-0.9437869,-1.4193373E-4,-0.023056341,0.22543892,0.6306998,-1.6137699,0.62615955,1.0770472,-0.041396126,-0.104435466,-0.3221017,-0.5537315,-0.37175024,-1.2349153,-1.1252682,-1.1971505,-1.3414414,-1.4089422,-1.412091,0.52539825,0.5701829,-0.329102,-0.3894598,0.3568938,-0.09657409,0.62180936,0.75547713,-0.61858624,0.22113618,-0.15404783,-0.014887747,-0.008528436,-0.07058369,-2.1772344,0.9827095,0.71838,-0.3588616,-1.1489943,-1.8206288,-1.4036916,-1.1812016,-1.9418573,-1.6471591,-1.6695634,-1.8849238,-1.2185966,-1.5609871,0.09777784,0.41558415,0.38908982,0.1957184,-0.10100096,0.068233326,0.8094622,1.2215824,-0.11241839,0.90211666,0.24627914,-0.005217299,-0.29042912,0.77195305,-0.2552208,1.5836331,0.34417608,-0.8536377,-1.520656,-2.2657604,-1.6769531,-2.063126,-2.8013828,-2.2110312,-2.3027308,-2.4692852,-2.13681,-0.93129146,0.16519223,0.43712026,0.24795204,-0.32635686,-0.8107257,0.2552172,0.6225142,0.8927685,0.117556475,0.39942732,1.2592034,-0.006678472,0.11544311,1.6099029,1.0762802,1.31378,0.25853527,-1.3596478,-1.309034,-1.9156711,-2.9211733,-2.6727207,-2.8084524,-2.131208,-2.2143004,-1.5699264,-0.45820457,-0.29461938,0.51512945,0.40038648,-0.017758917,-0.8683746,-0.5606001,0.6219202,0.24988532,-0.47037122,-0.6331799,0.17351061,1.0749432,0.2687457,0.059506215,2.688353,0.95697653,0.564291,-0.15000486,-0.6411754,-1.5135658,-1.1595075,-1.7464976,-1.8753666,-1.5360729,-1.1872789,-1.0620066,-0.3529139,0.9002545,0.6376256,0.55478776,0.6141893,-0.38174972,-0.6483077,-0.32599127,0.59391594,-0.252898,-1.77466,-1.1515207,-0.89086896,-0.08320055,0.013231389,-0.08387926,1.937738,1.2486062,1.3774612,0.0182182,-0.5674574,-0.2980987,-0.12947899,0.37863493,-0.10077134,-0.7355393,0.5565513,0.32581145,0.46167555,0.8913752,0.1029676,0.29283646,-0.49323815,-0.09656737,-0.46408942,-0.4643588,-1.2131625,-0.74749815,-0.53735405,-1.7176551,-2.1379564,-0.19676395,0.0048663784,0.3830909,2.0844364,1.4775712,0.6043996,0.30817342,0.04893747,0.055818915,0.52584594,1.0513463,1.2398449,0.9841605,0.6501223,0.761366,0.6828261,0.41824538,-0.24107116,-0.5476095,-0.65665525,-0.91088015,-0.2740282,-1.0752606,-0.87896377,-0.9224029,-1.6703305,-1.6863675,-0.09204618,0.07878454,-0.33054972,0.7712979,1.8711767,1.6279417,0.37072575,-0.3468055,0.713865,0.32510924,0.5893732,-0.15557379,0.53478724,1.3793889,1.2545536,0.90546906,0.2123016,-0.028768687,-0.18595944,-1.1838545,-0.95426357,-0.8458425,-1.5642732,-1.6725892,-0.7852438,-0.6341317,-2.167623,-2.2463536,0.22801043,0.26776573,-0.31884378,-0.21913809,2.1538613,1.0661955,-0.036198273,0.6214071,0.6293624,0.0016812143,0.8924841,0.6251292,0.9221955,1.5036943,1.4122757,0.98159623,0.81207675,0.6248277,-0.3077177,-0.47145796,-0.40455255,-1.2011218,-0.6857186,-1.3664026,-0.83726156,0.60326713,-2.0014374,-1.2522436,-0.03571683,0.3084113,-0.017749725,0.005475432,3.377146,2.3835166,0.8986353,1.440173,1.3888224,1.0488174,0.2539306,0.9134917,1.0429212,1.2808545,0.8250381,0.96185243,0.5183394,0.12796587,-0.93931705,-0.570587,-0.934003,-1.0723592,-1.1469606,-1.4172087,-0.9267415,0.17197338,0.16145945,-0.47807163,-0.6355194,0.019258173,0.013934437,0.019489566,1.0146972,2.0805085,1.9455007,1.32111,2.0575294,2.127804,1.0888118,0.14423268,0.47867262,0.46247795,0.28827733,1.324748,1.1466733,1.1406809,0.25085267,0.13829406,-0.94464076,-1.2984157,-2.7717533,-2.7715764,-1.3483372,0.3212195,0.7808237,0.12081571,-0.071111605,-0.018697467,0.012256657,0.015609433,0.12361515,0.7802386,1.5167823,1.9230784,1.6458801,2.653893,2.9424393,2.6006227,3.0106568,2.567658,1.2448927,0.68939286,0.8177196,0.61380035,0.4132861,-0.24531259,-0.58426046,-0.14329824,-1.7694397,-1.4265202,-0.19391651,0.23876145,0.45029798,0.18603179,0.24107099,-0.023871629,0.011568219,-0.02116538,0.009884354,0.018314963,-0.39654228,-0.023238327,0.5404216,1.21492,0.29274425,1.1398294,1.8875805,0.7554125,1.06777,1.959462,1.2496655,1.9151508,2.0641735,2.3091235,1.719335,0.6479816,-0.5203298,-0.52002645,0.60352063,0.7554401,-0.111801796,0.13538781,-0.011877989,-0.009403329,0.0057284096,-0.02312006,2.8313883E-4,-0.021781651,-0.021795273,0.21509562,0.47392365,0.83215195,1.2393572,1.2541142,0.43527713,0.5469875,0.2193843,0.88805985,2.0924456,2.0454175,2.7911537,1.9241058,0.63051575,0.44419116,0.0835899,-0.3090333,-0.067115866,0.3711215,-0.01758869,0.022362316,0.01480367,-0.012761254,-0.020729577,-0.015728457,0.007252828,0.024874398,0.004813337,0.024552189,-0.02022138,0.0046949615,-0.012662476,0.024330229,0.0040350566,-0.0059836083,-0.22069693,-0.29750562,-0.11658731,-0.0467807,8.047762E-4,0.00481384,-0.01212287,-0.013588846,-0.008495291,0.0034842864,-0.024928315,-0.015021029,0.005042892,-0.023889834,0.0154309,-0.015508847,0.014417484,1.6313088E-6,0.009996964,-0.018090272,-0.037999958,-0.09002422,-0.38880226,-0.7666644,-1.1888679,-1.5003293,-1.6373343,-1.9733249,-2.0947409,-1.0413597,0.42878953,1.3513609,0.9140501,1.4844352,2.8151343,2.5852568,1.5963513,0.6358415,-0.05329665,-0.21622074,-0.024323808,-0.021122692,-0.020278474,-8.45841E-4,-0.01005711,0.01727021,0.16308823,0.32886484,0.52437,-0.25453043,-0.25597152,0.17566283,-1.2003888,-1.5589819,-2.1187255,-2.3218865,-0.42015928,-0.32828146,-0.27441913,0.24226736,1.303555,2.4429798,2.5665953,3.1888666,3.2038815,4.4187837,3.542621,2.7531219,1.6287172,0.6294066,0.0020615854,0.013496986,0.013835815,0.023046011,0.42957142,0.16271871,0.5488605,-0.34542695,-1.1340683,-0.5125552,-0.24852757,-0.4421299,0.6264491,-0.43707633,-0.4151567,-0.2709023,0.80315644,1.2309409,0.7058622,0.4095446,0.5497188,0.78694713,0.16856134,0.4975682,0.9160087,1.9633372,1.6049554,1.3932254,0.3180681,0.01761921,-0.0023324369,0.036523525,0.12124003,0.3662548,-0.14066097,-0.31479934,-0.8895408,-0.42685625,-1.5081708,-2.237157,-1.6659427,-1.414953,-1.2279478,-0.2436745,0.7807952,1.3731034,0.59029365,1.2494625,-0.09555127,-0.2926661,0.2676529,0.04627049,0.47006813,0.9218303,-0.23046774,0.9309994,0.13410905,-0.019246066,-0.018701116,0.02496688,0.39711335,0.66399515,-0.13079005,-0.7587587,-1.1780692,-2.6050885,-3.033309,-3.1084187,-1.942097,-0.4966856,-1.2026836,0.18615584,0.60278255,0.6504906,0.78934526,1.6040981,1.7424054,1.2760563,0.8175124,0.965855,0.3132074,-0.24459521,0.56458735,1.9727715,0.6981019,0.0021706459,-0.009213404,0.017109578,-0.0013094381,1.7672968,-1.3867376,-2.2816067,-3.8097005,-4.480828,-3.0442243,-2.3205047,-1.409107,-0.11042806,-0.5350399,-0.3918333,-0.8305547,0.20121689,0.03788528,1.1051605,2.0932426,1.5955619,0.11319025,0.6111658,2.117032,1.8679539,1.0055584,2.1097462,1.1043602,0.8698481,0.02499333,-0.65549946,0.50981367,0.34680167,-2.1916943,-2.6498168,-3.4414577,-3.063888,-1.7882252,-1.1715741,0.51509506,0.80910194,0.3969901,0.1066964,-0.59027654,-0.037245765,-0.055927522,1.7714392,2.8388073,2.1978498,0.5782082,1.0448596,1.884314,2.4456165,1.8298802,1.3659388,0.03703686,0.8347589,0.3078907,-0.57677317,-0.2689497,-1.2203627,-2.5436041,-2.0500357,-1.642524,-1.2645934,0.101261415,-0.7415228,0.15706287,1.2275815,0.8383522,0.38906005,-0.23452774,-0.53792214,0.52684295,1.2498938,1.8196299,2.0495822,1.7777256,1.5150192,1.1678672,3.143006,2.797066,0.9085964,0.21834922,0.15888299,-0.15616386,-0.81644374,-1.0375533,-2.4024851,-2.27239,-1.5901103,-1.6642756,-0.21977015,-0.043177914,-0.06370759,0.4685945,1.143589,1.7938514,1.3995007,0.5738475,-0.9095883,-0.7048565,-0.40726075,0.75558853,1.4988602,1.7687105,1.986947,1.3492564,3.0833418,3.251008,1.3356444,1.4368314,0.6131011,-0.19676423,-1.0454837,-1.7209353,-2.4880414,-2.8656325,-1.9204544,-2.7931182,-0.14801252,-0.1569288,0.07370253,-0.033177156,1.0757134,1.7879173,1.6516519,0.39536926,-1.7631594,-2.273382,-1.4540645,-1.0308864,-0.429304,0.9554735,1.5444415,1.7860762,3.2747772,3.2923229,0.55195194,1.6691464,0.8695714,-0.2633477,-0.889973,-1.0933878,-2.7072446,-2.2620885,-2.496207,-2.0425572,-0.34342998,-0.845447,-0.7896607,-0.46405217,0.6275113,0.6757374,1.2085004,-0.46991852,-2.7653036,-2.7715297,-2.8476267,-3.2424781,-2.1762218,-0.83588487,0.10080587,1.1983833,1.8588396,3.398576,-0.26522604,0.4294455,-0.25547576,-0.034506623,-0.5301138,-0.86327815,-1.5705546,-2.4739556,-0.89926726,0.18610397,-0.32640293,-0.71133924,-0.74061733,-0.33306977,-0.3062905,0.7511177,1.435715,-0.46364343,-2.0383568,-1.8664259,-1.929021,-2.28995,-1.2168998,-0.7047428,0.22224511,0.9831439,2.7863586,5.002119,0.45334944,0.36592394,-0.01887706,0.014722209,-0.016937241,-0.33022738,-1.2823577,-0.84096944,-0.34337547,0.383736,0.077552035,-0.5570366,-0.2630581,0.13829546,-0.5765382,0.9074504,0.90356684,-0.37774307,-1.3222562,-2.0492022,-1.5405444,-1.4090614,-1.4877211,-0.24532598,0.55996937,1.6612965,2.8683493,4.884985,0.2905128,0.6184752,0.49182323,-0.0060938946,0.030179445,0.298448,-0.9294828,0.030265287,0.85821146,0.77609634,0.62730205,-0.3189406,-0.0030232999,0.62137395,0.60697865,1.2088897,0.528326,-0.68885297,-1.2910308,-2.1356084,-2.4149868,-1.9056679,-0.29706895,0.4956263,1.1887758,1.0758479,1.5393327,3.1236537,-0.13404149,0.73235357,-0.016494734,0.015349242,0.009369545,-0.13432021,-1.4281334,0.14685051,1.9639822,0.66757965,1.3473158,0.5298325,1.1953465,1.0364826,1.0269204,0.73987144,-1.3654909,-1.5044168,-2.3176398,-1.5647081,-1.0152745,-0.72117144,0.21859811,0.9328992,1.5986861,0.8017842,1.2492877,2.5920439,0.18691334,0.39694768,0.28848872,-0.013037032,-0.06632467,-1.1565335,-2.1004646,0.07973173,1.0840923,0.71294737,0.21449275,1.9366883,3.0181944,2.1626933,1.3385907,-0.8727866,-3.559076,-2.576978,-1.808464,-1.1915038,-1.0616474,-1.2641449,0.25558552,0.19349794,0.71284246,0.3073424,0.41703832,-0.060608577,1.0096263,0.4255019,0.78675187,-0.010369781,-0.31877735,-1.7729683,-2.652285,0.21036068,0.5892263,0.40040007,0.65616614,2.6437116,3.6384885,2.9087925,-0.08546241,-3.1452825,-5.579083,-3.1862755,-2.0625677,-0.77165455,-1.1812658,-1.2362833,-0.19229335,-0.567751,0.106368706,0.0757237,0.20548314,-0.5488245,-0.38571265,-1.1804144,0.598788,-0.2613957,-0.5479554,-1.845902,-3.0092702,0.21804005,0.13958955,1.6311971,2.2071412,3.3943393,3.7456748,0.90636706,-2.03053,-5.299488,-6.5657587,-3.6859734,-1.4833496,-0.91784,-1.6196158,-1.7322905,-1.1231958,-1.282363,0.3952823,0.8795459,0.6209238,-0.4080548,-0.10789443,-0.38570178,0.2938164,-0.018583039,-0.19725142,-0.8227645,-1.6142489,0.1598644,0.8622907,1.7163651,2.27634,2.8517694,2.5932524,0.60282755,-1.9697479,-3.7284672,-4.0227537,-1.4511558,-0.5890938,-1.3330551,-2.4584322,-2.3690884,-1.6025394,-1.2929053,0.043156706,1.9702933,0.056266375,-1.1661572,-0.68399704,0.6214657,0.15131983,0.017062975,-0.19974458,-0.573148,-1.221477,-0.047767453,1.6195159,1.2144996,2.3407564,1.7596508,1.7845483,1.9312922,-0.18917407,-1.2364618,-1.7197645,-1.3583597,-0.75272095,-2.415881,-2.2838113,-2.3868604,-1.5677929,-1.4270257,0.3559426,1.0872966,0.0798797,-1.0174466,-0.68680805,-0.37753305,0.046500348,-0.046281613,-0.07249285,-0.48446527,-0.34378323,0.7138504,0.86047333,1.3586009,1.765968,1.0915436,1.8253361,2.0302327,1.6336596,0.11476615,-0.5117221,-0.5716671,-1.0862639,-1.7191964,-1.2257291,-1.5950584,-1.8084927,-1.694289,-0.19815795,0.5318333,-0.84131354,-0.53656447,0.11369345,0.11897286,0.22086383,-0.023731185,0.024432944,-0.50530595,1.0405213,0.39488947,0.8480966,1.198782,2.2797713,1.0251651,2.0851002,2.2094922,1.9563795,1.5467756,1.3987278,0.51922756,-0.3586991,-0.45900112,-1.062713,-1.5689012,-1.6288016,-1.9180363,-0.82426184,-0.78455955,-1.9606853,-1.1622279,-0.18348959,-0.15701652,0.24374917,-0.010579179,-0.00923896,-0.6188976,0.2914884,-0.7621687,0.47256178,1.6816694,1.728132,1.8869734,1.8867112,2.2147043,1.7865648,1.8762628,1.6597378,0.5209224,-0.10605923,-0.0545479,0.00223911,-0.41225216,-1.5790334,-1.9954395,-2.152416,-1.335612,-1.3039094,-1.3726864,-0.49669918,-1.1229708,-0.014329344,0.015483996,0.0015814496,-0.67720824,-1.2079206,-1.26538,-1.991357,-0.63250065,0.83330524,2.2210717,2.6419423,3.2271504,2.5629156,2.3564997,1.7646977,0.7291632,0.04422674,0.2745296,-0.65267044,0.061920233,-1.8484737,-2.1249745,-2.1910663,-1.5121305,-1.0902876,-0.36923683,0.22780679,-0.014195362,0.017873518,0.018119471,0.020477733,0.24701844,-0.7477662,-1.7577953,-3.0597296,-1.7920582,-1.4140708,-1.2257525,0.31922856,0.37669644,-0.1383865,-0.8990003,-0.29767764,0.18124025,-0.005196633,0.34461915,-0.41291124,-0.7544501,-1.8133614,-1.7838551,-2.052858,-0.21262416,-0.32021445,-0.32112837,0.43309096,0.26064658,0.011470817,-4.771047E-5,-0.02136048,-0.005677955,0.016508523,-0.5367771,-0.6991558,-1.8678918,-2.1209304,-1.4527037,-1.4591643,-1.1094847,-1.0250591,-1.7105787,-1.604083,-1.3607984,-3.1634665,-2.9323633,-2.4798813,-1.1204557,-1.3049904,-1.2783566,-1.9359041,-0.5266824,0.23872063,-0.13871686,-0.053950977,-0.024899295,0.01327828,-0.004493588,-0.005059153,0.0012646674,-0.020584002,-0.019195484,-0.035575084,-0.24357742,-0.4568166,-1.0666431,-2.1297483,-1.6990103,-1.9973558,-2.2150574,-3.0148926,-2.6097574,-2.0280535,-0.7280867,0.110930674,-0.3316215,-0.3867102,-0.23486811,-1.012458,-0.88918054,-0.45805627,-0.019522214,0.00876562,9.918325E-4,0.0034519015,-0.01471724,-0.010025669,-0.02121465,0.0131656425,-0.017530471,-0.0047498518,-0.015443106,-0.0047303974,0.01280672,0.018758193,-0.0076483306,0.006741684,0.20350894,0.2446521,-0.08065937,-0.075572476,0.016040152,-0.01206078,-0.017004741,0.0012863145,0.019378312,0.021928392,-0.017866313,0.013274719,-0.017655266,4.3967346E-5,0.008140181,9.8820834E-5,-0.014487549,0.023770556,-0.0077805133,-0.024504995,0.21743847,0.42513695,0.9587517,1.4428263,2.0762413,3.2258253,4.713378,5.757644,5.9535046,4.5578513,3.404822,2.9767168,2.3624303,3.5010533,4.477449,3.8805637,2.7278893,1.6118705,0.76082575,0.63537985,-0.019093748,0.0051242514,0.023598876,-0.0022236754,-0.014000126,-0.023382397,0.24640776,0.2973713,1.2877477,2.0131204,3.1868513,4.157935,5.375283,5.94614,6.1348195,5.086246,3.2958806,3.0549464,0.9397277,0.75978166,2.5385482,4.472291,4.899414,5.1453934,4.781479,6.805794,5.1697745,4.3925085,1.7263457,0.31887597,0.004089049,0.013800348,-9.5948E-4,-0.011101642,0.5006,0.3678197,1.3625358,1.3631485,2.3855236,3.193997,3.0203364,2.7025623,2.3470416,2.6202047,1.4028502,1.4425241,1.0146933,1.446359,1.7010821,0.6866839,0.6070735,0.78967994,0.30215052,1.4912397,2.3722858,3.965098,2.095653,1.8715326,0.3288552,-0.01788793,-0.022381678,-0.10041527,0.13525327,-0.39143,0.20057197,-0.7236259,1.1225209,0.7240287,0.01916827,0.7016926,-0.104392916,-0.2748405,-1.1030833,-0.9605168,-0.17195952,1.0445633,0.55819964,0.8601055,-0.02199088,-0.30507663,0.038863067,-0.4013658,-0.076036714,0.64176863,-0.5184082,-0.14596805,-0.58786356,-0.01948081,-0.025054893,-0.022525933,0.6175874,-1.1774592,-1.2781502,-2.291032,-0.23663369,-0.2471177,-1.4290328,-1.8679272,-1.3311188,-0.6831997,-0.17003289,1.1232871,1.0967118,1.1769836,0.85043484,1.4805411,0.9849783,0.77702785,0.44762474,0.17287636,-0.812539,-0.88119423,-0.40585113,0.6696568,-0.5697597,-0.059695777,-0.0074486346,-0.10233878,0.72300845,-0.22662733,-1.3552194,-1.9101187,-1.3769296,-0.7671836,-2.3207343,-3.4985788,-2.0443554,-0.75195116,-0.86608636,-0.31836876,-0.48350963,0.44606835,-0.09853686,-0.27468488,-0.65507257,-0.60978985,-0.7393854,-0.62441343,-0.4377406,-0.53466576,-1.2546396,-0.0064024488,-0.26908812,0.5281308,-0.002406083,-0.43158606,0.6746473,-1.1518635,-1.1297365,-0.30778646,-1.4029487,-2.3044293,-2.8902764,-2.7067997,-0.10244441,0.50157946,-0.2694018,0.034669794,-0.14580649,0.33648586,-0.97985554,-0.6392712,-0.4635848,-1.0848217,-1.3220391,-0.9628566,-0.7779442,-0.48105836,-0.81210834,-0.8704304,-1.6326575,0.37990457,0.3276507,-0.16146828,-0.6803543,-2.33125,-2.623105,-1.1523361,-1.4027464,-2.263827,-1.5954568,-1.2719646,0.124865,0.9394229,0.58575743,0.2051239,0.16754712,-0.52455676,-0.042938944,-0.22096235,-0.8701428,-1.1317605,-0.39077175,-0.28701386,-1.8947926,0.14322935,-0.06885091,-1.3878403,-0.7379572,0.14121297,-0.2946846,-0.84485626,-2.1580193,-2.9699214,-2.429503,-1.8836602,-1.981416,-1.2864769,-1.3894763,-0.29441926,0.04082046,0.78610206,1.8616078,1.3614331,0.4002606,-1.0344185,-0.5337013,-0.8496128,-0.6598576,-0.58361816,-0.32099503,-0.3378579,-1.9360677,0.084392644,0.6479062,-0.902285,-0.1972418,0.61408174,-0.27019107,-0.98218465,-1.8285064,-2.599699,-2.9072847,-1.8390683,-1.6636767,-1.0782915,-0.9264228,-0.57031345,-0.031406797,0.79608995,1.3575188,1.1812036,-0.39757165,-1.567083,-1.0369596,-0.513794,-0.15849324,-0.582863,0.42122555,0.542183,-0.07608452,1.801761,1.2354177,-2.2505846,-0.93638104,0.3206289,-0.3693329,-0.14129011,-2.521717,-2.9203627,-1.8729033,-1.2765884,-0.77292794,-0.45017794,-0.75494695,-0.88030493,-1.1731706,-0.3914236,-0.15969288,0.38178694,-1.0605571,-2.1358104,-1.2907383,-1.1659863,-1.3254664,-1.0087147,0.20170505,0.8717865,1.4324944,2.1407776,1.6114153,-2.4154155,-2.1134877,-0.8806023,-0.032181516,0.11481807,-2.3771205,-1.9969709,-1.1073722,-0.014679973,0.48734677,0.6071024,0.111701295,-0.5524707,-1.1117195,-1.1129869,-0.09678067,0.6463801,-0.44250643,-1.6758939,-0.9637167,0.0916439,-0.9608184,-1.1744254,0.38793975,1.6154015,2.065132,3.096305,3.428379,-0.49731612,-0.8426698,-0.7326788,-0.0700247,0.026657483,-1.4197485,-1.5330585,-0.46667254,0.13640207,0.8085776,0.6522422,-0.4126678,-0.45565778,-0.14703107,-1.0433729,0.18072127,0.26467896,-0.22514363,-0.7433375,-1.2950346,-0.36683455,-0.619172,-0.45826897,0.4138815,1.4913298,2.1208858,3.8729393,3.7855318,-0.46029016,0.114474475,-0.11048191,-0.0019629905,-0.23431905,-0.8733201,-0.9155531,-0.8659747,0.85170573,1.2084866,1.5801299,0.6598761,0.37118533,0.19809467,0.3273205,0.74068314,0.6661467,-0.4694535,-0.90796316,-1.4116889,-1.4047884,-0.848665,-0.22993161,0.92921686,1.7456235,2.126578,2.190973,3.0385954,0.120121345,0.8751693,0.14506121,-0.023752535,0.0014018395,0.15849198,-0.570042,-0.5321142,1.3586171,0.36784935,1.6932803,0.7766772,1.1590362,0.95342016,1.6544914,1.7730771,-0.32028028,-0.62714213,-1.8360052,-0.97183514,0.09342359,0.1458118,-0.059358437,0.9553449,1.8224127,0.96306485,0.81902903,1.4895146,1.0857874,0.24081798,-0.21168347,-0.023984462,-0.14832376,-0.24450062,-0.9763513,-0.83191866,0.642712,0.015620546,0.20627305,0.614916,1.8334191,2.0569878,2.560868,1.2972819,-1.1892657,-1.1058989,-0.7418576,-0.36467755,0.47496045,0.35373747,0.4124999,1.0439147,0.8791029,1.1354077,-0.22306763,0.4926618,3.410893,1.2347492,0.056354027,0.017935215,-0.33952036,-0.9726474,-1.9279256,-0.572601,-0.48327523,-0.563854,-0.020832872,1.330856,2.5620525,3.0328612,2.4545112,0.56646997,-2.0781415,-2.1192086,-1.2447735,0.59563494,1.4251351,0.65350366,0.67470014,0.6442731,0.35334757,0.7619301,-0.5278667,-0.42319748,1.8728768,1.3840858,0.82232255,-0.40201753,0.09273393,-1.9320434,-1.8668084,-0.39287427,-1.766606,-0.378302,1.2112303,2.3613608,2.3899143,2.525972,1.9555749,-0.30762324,-3.61602,-3.108077,-0.5705797,1.7259828,0.9579667,0.49033386,0.17698742,-0.30507326,0.5850407,1.5813471,0.46230188,0.12113356,1.0151179,1.143977,-0.043522965,-0.017972486,0.28107056,-0.49351546,-0.92507344,-0.7372864,-0.7244308,-0.35648766,0.8002039,1.4347708,1.9233538,2.2761607,2.145333,-0.40281227,-2.3839412,-0.48049736,1.145881,1.6073731,0.6971489,0.2420646,-0.3774959,-0.14635234,0.3694463,1.8247242,1.0408621,-0.12645917,0.7103761,1.9985635,-0.43421385,0.008585522,-0.012992053,-0.49274558,-0.79873186,-0.19013193,0.779282,-0.72558177,0.3979926,-0.02493702,1.2240856,1.9326712,1.6710527,0.66368204,-0.15802318,0.25523663,1.4061251,0.27074674,-0.117207855,-0.25265482,-0.07683127,-0.68438745,-0.12278489,-0.049263198,-0.44525418,-0.3777774,1.0377458,1.9081726,0.0398036,-0.30900246,-0.659564,-0.602294,0.2584462,0.5538184,0.52303165,0.18418086,0.82379794,0.008452845,1.878634,2.0637927,2.1068141,1.1503468,1.4916233,1.4421924,0.6733195,-0.3821349,-0.1480768,-0.9969913,-1.4776149,-1.5901258,-1.1083013,-0.53289497,-1.1453865,-0.87472194,0.12769753,1.0004402,0.25287372,-0.3148196,-0.3009068,-0.7037591,1.3476607,0.045651905,0.45861858,0.3646229,1.3176955,0.668772,1.7067327,1.9088936,2.1139412,2.111595,2.5560482,1.4018457,0.25202122,0.09298241,-1.1626585,-1.9526558,-0.90855235,-1.6243966,-1.5568018,-2.3502507,-1.7454177,-1.0999882,0.7112271,0.6211014,0.2955718,-0.025114382,-0.017087987,-1.1516086,-0.24561605,-1.0845165,-0.53699297,0.36138988,0.46059814,1.7950102,1.4933747,0.8216954,0.5321478,0.90522194,0.8704302,-0.39309925,-0.5239629,-0.5620715,-1.9054787,-2.4334753,-2.123846,-2.686231,-3.1493654,-3.4171872,-2.9298449,-1.8447703,0.2980969,-1.1281486,0.008860846,0.018838147,0.012781787,-0.52781177,-1.2235587,-2.2185307,-2.446538,-2.0308914,-1.0963783,-0.11908154,0.5694402,0.3051488,-0.6274853,0.075671904,-0.7232263,-2.0759704,-2.4819136,-1.4108264,-4.4002604,-3.2359693,-3.1706715,-3.473469,-4.2296853,-4.07336,-3.0944564,-0.85978675,0.41293296,0.010697505,-0.013417976,-0.0019208081,0.019809593,0.23214224,-1.2141008,-2.8502579,-3.4056315,-3.0512576,-3.6701868,-4.029404,-4.051312,-3.8149257,-3.5584729,-4.9053307,-5.006936,-4.734399,-3.8958442,-4.227303,-5.094021,-4.516122,-4.0944,-2.8365698,-2.6261115,-2.1453037,-2.2119162,-0.6960488,0.31194708,0.25490406,0.018754646,0.016899332,0.005301353,-0.0040460774,-0.012176381,-0.7853625,-0.8514981,-2.166104,-3.1415513,-1.7695091,-2.7100072,-2.2334719,-1.3177531,-2.0786724,-2.7255554,-1.2513127,-2.6632628,-2.95917,-3.173755,-1.986392,0.027196098,-0.11379178,-1.2595301,-1.0601643,-0.8518803,-0.1163034,-0.18438524,0.0057690255,-0.01788498,0.011791943,-0.020083122,-0.013802757,0.013237204,0.0029259685,-0.37052584,-1.3181695,-1.6679804,-2.1259155,-2.9122777,-2.75208,-2.4725003,-2.9068112,-3.3912377,-3.841538,-2.9612641,-2.5716815,-2.0270054,-0.75521594,-0.28754696,0.5426305,-0.5341541,-0.59945536,-0.53498125,0.022684712,-0.012279647,-0.0128395185,0.0181203,0.011307984,-0.008701671,0.023438655,0.009288347,-0.014114711,0.020704806,-0.024996506,-0.021771833,-0.013050747,-0.0043826723,0.013915941,0.01931637,-0.13146643,-0.22087008,0.06467114,0.098609194,-0.024764659,-0.01376563,0.0027585914,-0.019105945,-0.010985719,-0.0048234975,-0.0039149504,0.0021442329,-0.022153033,0.014335847,0.008992862,-0.021701956,0.020148935,-0.011538434,0.021963488,-0.017001333,-0.13840176,-0.30631724,-0.6022397,-0.67510986,-1.5113773,-1.9627436,-2.3772953,-3.0531862,-3.4436915,-2.67359,-1.8910459,-1.1349174,-1.0045322,-1.3742555,-2.273486,-2.1489973,-1.6665927,-1.0142436,-0.5161451,-0.6214368,0.006936813,-0.01748111,-0.017177142,0.015880715,0.010646315,0.006565333,-0.05043798,-0.041516416,-0.7160153,-1.3856481,-1.498539,-2.1794026,-2.8014953,-3.418229,-3.1794968,-2.8257945,-2.2862294,-2.7986815,-1.84297,-2.6807902,-2.7744963,-3.7882655,-4.06968,-4.3190494,-3.0553231,-3.1094756,-2.5670269,-1.6261327,-0.7453344,-0.14666058,-0.017912395,-0.010361456,0.008437686,-0.008785291,-0.26690048,0.12157519,-0.94968307,-1.6834127,-1.8059225,-2.0536864,-1.2929778,-0.6368748,-0.5975721,0.07644098,1.4620938,0.3145257,-1.4291556,-2.0795557,-1.9580742,-1.619146,-2.0015285,-2.8786333,-2.3528545,-2.718032,-2.7290049,-3.1415548,-2.8957577,-0.8294783,-0.33889377,0.0027928634,-0.017915094,0.14266498,-0.01965851,1.197412,0.53030604,0.8875792,-0.30287942,0.023167146,0.12678461,-0.23795438,-0.46531016,0.13520756,0.98056155,0.47750437,-0.13685536,-0.5248023,-1.5487274,-1.8507376,-0.9562825,-0.8086186,-1.4626101,-0.30728304,-0.30424583,-0.57460123,-0.45620283,-0.40627527,0.6830851,-0.022979988,0.009620173,-5.887594E-4,-0.5221038,1.2724471,1.8184582,3.0140178,0.98346156,0.048344683,0.8217822,0.699359,-0.17712109,-0.07393955,0.43843377,0.47374448,0.73778546,0.8674678,0.32886747,-1.4712428,-1.5026816,-2.485177,-3.0065427,-2.6872015,-1.3161784,-2.721517,-2.1855824,-1.9180264,0.36236092,0.017741626,0.019825872,0.07964668,0.2685357,2.6772656,1.9179921,2.1588345,0.86312795,0.21344252,0.5414539,1.1580157,1.0046927,1.149201,1.1601247,1.2857385,0.84904504,0.679553,0.8284513,0.15954481,-0.5212466,-1.2131894,-0.85355484,-0.7745128,-1.6838503,-2.9767785,-2.371206,-1.8945698,-0.5716529,0.2164791,0.02364196,1.8138961,1.8943052,3.2284145,2.3913026,0.21362282,0.25683025,0.5489991,0.15303238,1.3594944,1.1894804,0.61351115,0.98155254,0.704634,0.29167387,-0.6265952,0.0826756,0.298311,-0.41508695,0.0303306,0.21938676,-1.0152495,-1.1740272,-2.0439067,-3.8616533,-1.3966551,0.42482355,0.55722135,-0.32080555,2.136596,2.7358534,3.3875966,1.629696,-0.119456634,-0.06491516,1.2828461,0.79954237,1.0563744,0.89501643,0.73362184,1.3968445,1.9565947,2.0167058,1.935605,1.0436554,0.135217,0.37183508,-0.15156543,-0.19975764,-0.9051876,-0.6381632,-2.2198374,-4.2173233,-1.9807433,-0.24290596,0.06872512,0.6375932,3.5000324,3.5938892,2.9447281,1.410498,1.2769148,1.2934318,1.2883389,0.8795299,0.15899654,-0.08235522,-0.089049205,1.4159011,2.6827266,2.3465593,2.1130269,0.9659688,0.32441258,-0.9348846,-0.33193773,0.020124895,-1.2471781,-0.8882618,-2.5608954,-3.9992447,-3.1991944,-0.5727755,-0.48740318,0.68010044,3.773169,3.9959826,2.2253883,2.346438,1.7671165,1.2375516,0.07870486,-0.2426472,-0.3125491,-0.33002612,-0.4422118,-0.18011355,1.5218636,2.1663914,0.8630432,0.56185144,0.115020774,-0.52075475,-0.40054518,-0.80730116,-2.0217347,-1.8703698,-3.2282176,-2.2407634,0.9419664,1.728251,0.40498322,0.8940142,1.9674817,3.3581104,1.0180806,1.6819159,-0.25949064,0.41007838,-0.31465128,-1.217286,-1.3690498,-1.2703753,-0.61838984,-1.1461583,0.33602324,1.036294,0.48646083,-0.039100498,0.7916387,0.2178614,-0.2612072,-1.6308787,-2.302842,-1.9162927,-1.5851494,-1.0601954,2.4622757,2.8019683,1.3306806,0.28969458,1.4146281,2.0663853,0.30350834,0.3821897,-1.0520715,-1.5053453,-1.2307472,-2.6145995,-1.8350941,-1.2138793,-1.5187871,-0.94301915,-0.33087748,1.1332748,1.3890538,1.0325788,0.16807021,0.7372981,-1.2124132,-2.3518882,-1.5469872,-1.7954813,-2.108083,-1.861658,1.4502746,0.8985374,0.6742612,-0.093092896,0.7549462,0.8560605,-1.5555129,-1.4400945,-3.0590732,-2.521512,-2.074404,-1.5692483,-1.69983,-1.2766421,-0.8376662,-0.3508998,0.49250656,1.4501301,1.3058966,1.3551824,0.17896424,0.12744613,-1.6954463,-1.7948376,-0.1961558,-1.0711373,-2.0101502,-1.6095366,1.2371835,0.5051605,0.10657857,-0.014043309,0.3912771,0.6137601,-1.4184992,-1.9033262,-4.5967417,-4.087306,-2.8665352,-1.138451,-0.32975677,0.5205299,-0.2594876,0.5929818,0.8489194,1.6906909,2.0399706,1.1040183,1.0841479,0.08104942,-1.4086399,-1.1173058,1.2908477,1.5338072,0.40980566,-0.9650811,-0.27320984,-0.147709,-0.09220505,-0.010787023,0.005918806,0.29519254,-0.8298542,-1.6721604,-4.278492,-3.4831192,-2.2653859,-0.99288696,-0.31091347,1.1445702,0.57340896,0.31676182,1.327765,2.2443008,2.4360452,0.9009745,0.446398,0.2846282,-1.1991014,-0.27802467,1.1472553,1.9361085,1.7244827,-1.0148122,-1.1972461,0.13153787,0.18738942,-1.6480853E-5,0.016567485,0.9960414,0.072772704,-1.5775884,-3.6022444,-2.747291,-0.8637447,-0.66379845,-0.047778092,0.6123797,-0.180306,0.009142688,1.2488936,1.860955,1.0323482,0.33402807,-0.32117286,-1.0022779,-0.42851314,-0.22068985,1.5638529,1.3729875,0.52320737,-1.1401321,-3.029478,-0.7510477,0.3805597,0.003237822,