0.91082925,0.7593323,1.1141899,-0.106196165,-0.04368428,-1.0916096,1.1052213,-3.4572134,0.45630777,1.8433157,1.6487343,0.78631985,0.92546374,1.8539898,2.3584037,-1.1761646,2.3435733,0.68644935,1.4365472,0.27037153,1.7298665,-2.8487422,-0.27736643,3.1694584,1.1962589,0.63288784,-2.2210145,-0.34577337,0.3212117,0.16184647,-0.8028358,2.8271022,-1.3797745,2.6171799,-0.897219,1.3417485,-0.5757312,1.2396747,0.03537763,0.7750832,-3.2441494,-7.4742875,-2.1234663,-0.64821875,-0.52416587,-1.7312635,1.9635453,0.17811632,-2.2206116,-0.6399417,0.8862176,1.0019131,0.14731155,1.805542,1.0288984,-0.08535368,2.0445588,0.938975,-0.38296473,-0.66891354,2.9492466,-0.8712141,0.559547,-1.0585142,2.9966931,0.054004747,1.8351481,1.841802,-0.058325365,0.65185237,3.7391307,0.41001505,0.6758196,-1.3052543,-2.6411657,0.28863087,0.20708993,1.1627676,2.2748644,-3.251746,0.53195494,-0.59244967,-3.8459997,4.336341,-1.1115286,0.7189869,0.63423485,2.065094,-0.44240588,2.915283,2.3118322,3.2720478,1.9337865,0.25643265,-4.3234634,1.0845668,2.8460891,-0.96756756,3.6858203,1.4054075,2.4983327,1.5202587,-0.04874768,1.6908181,-0.8823889,1.4277499,-1.6922088,1.050119,0.6835522,1.8997478,-0.6347725,0.3680211,0.3583535,1.3061622,-0.557775,0.3095776,2.4064186,2.746184,2.5433788,0.5176537,4.014178,-4.5336537,1.3531626,3.415973,1.8827304,3.212384,-0.7382932,0.8093476,0.5275459,-0.21260306,1.5230308,1.143613,-0.94833434,-0.7172752,2.395977,-3.6096306,-0.2682651,0.20918213,0.6355736,-0.5276544,0.8034149,2.0175354,1.8401752,-1.1108975,1.0708355,-0.5405088,0.9565154,3.822938,0.5830113,-0.43318033,0.6885925,1.3936427,1.9026551,-0.53992784,-0.92405957,-0.33907953,-0.62811244,-0.60542715,-0.85510314,3.1941783,-1.8755506,1.3760581,0.63948333,2.2124197,-0.13792008,0.6854804,-0.39913124,2.4165654,1.1858202,-1.7211527,-1.9119037,-0.20522533,-1.3059735,-0.027438762,-0.5710667,0.9268845,0.3066587,-1.7215732,1.4129543,0.9744038,0.8121425,-0.89783895,0.08554103,-1.3796339,0.7718979,-1.1997424,0.1585542,-0.14509392,0.6911672,-1.269459,-0.84092283,-0.3393125,-1.9300219,-1.0833825,4.205208,3.6762612,-0.99674225,0.062267803,2.6444592,0.7995633,1.9780005,-1.1828147,-3.2001655,1.8900651,0.33781606,1.8754828,-0.5234602,0.5236329,1.2351669,1.999955,-1.0533988,3.5465875,-3.0957723,1.7077649,-1.9909288,1.4572761,-1.2874647,-0.6936201,1.2417643,1.3698776,-2.4630933,-0.061549325,0.04288526,0.6064477,0.9218127,0.052706145,-0.22861482,0.79339457,2.1601603,0.19074015,0.3828113,1.5237547,-1.182284,0.028037395,-0.93724155,-2.9567883,0.46625945,-1.0366858,0.24326855,0.9785522,-1.0131267,2.4373012,1.279542,0.07570716,2.457978,-0.5344971,1.207324,-0.18130901,1.1511257,1.3183632,1.4698806,0.25325197,2.6504948,3.3338306,-0.31283042,-1.5187495,-0.9131598,-1.7912902,-0.35081324,0.80508894,-1.8910834,1.8736688,2.081659,-1.7430707,-0.86856633,-3.747607,-0.58355224,-0.29645917,0.22726594,1.6579099,1.2669028,-0.7080708,-0.49342957,-0.067752905,-0.67558956,3.0808532,1.8355627,0.42100376,1.3023951,-3.0566921,3.2404487,-0.5217901,0.099609956,0.19511698,-0.48676312,-0.38340822,-1.037797,-2.315572,-1.0911839,2.4869645,-0.15853053,2.5781507,-0.34351283,-0.66648346,0.21975738,2.1356337,2.6653674,0.3481118,-0.20486291,-0.23105377,-2.1416354,0.60581553,-0.29512584,-0.56769973,0.86470485,-1.2459168,0.10241525,0.5878516,0.9499259,-0.9024961,-0.59508944,-2.797115,-0.2699181,-0.10574011,0.8922769,0.19221582,-1.666251,-3.7402332,0.18473504,-0.55063766,1.1964602,-0.41984078,-0.59130716,2.4576862,0.14460082,-0.21610475,-1.7375796,1.8775156,1.6800878,-0.61262727,0.2393494,1.2232367,1.6643318,1.9110041,-3.3064623,0.6623488,0.6387799,1.3696797,-0.65714407,1.2896469,1.0153916,-1.1582222,0.3701181,1.5432653,-0.116048165,-0.69700235,1.8869908,-1.3073888,-2.3762338,-0.23721136,1.1386083,1.2917589,-3.051368,0.17392261,0.028179446,0.3847981,3.4058957,-0.3672939,-0.97844106,0.90277624,-1.2975761,-2.285891,-2.5098097,-1.6780624,0.70628893,-3.0963235,0.074574955,1.5876532,-2.322863,1.7763467,0.9693744,0.6942085,2.2194219,1.3038479,0.2096202,0.08850287,-1.4349486,3.944791,-0.4245058,-0.5139644,2.3510008,0.82179683,0.2351397,0.15519801,-0.15781417,2.4925313,2.1910412,1.080653,0.82189876,-1.373595,1.2555677,-2.3419566,0.2602366,2.7120433,1.7051412,0.49116865,1.6393802,4.286774,3.8322506,0.07017631,1.442225,0.0916794,3.6083033,-0.42658016,0.9586028,-1.1963905,1.9313298,0.7056243,1.1787984,0.45739543,-0.13228586,-0.7985307,0.37915322,0.29126257,0.69508064,2.2076788,-0.8174328,0.49534503,1.6141609,2.87827,1.711933,-0.5884673,0.66693336,1.7156775,-0.7991063,-4.612391,-2.3262131,-0.33143672,-0.4006821,-1.0570446,0.16962901,2.0091298,-1.4101278,-0.89225936,-0.22333865,-0.5928256,0.6538974,-0.05808524,-0.53798825,0.8910637,2.958352,0.4517597,1.1688482,0.49938145,-0.11683458,1.34695,-1.2918515,0.30113882,2.7151048,1.0763103,3.5405185,1.9331446,-1.4797869,-0.6548039,2.0726423,-0.58595157,-0.96174836,0.62748545,-3.6139195,2.0576031,0.7859943,1.4474199,-0.8134204,1.1165158,1.1638988,1.2870702,-1.154228,1.8306687,-0.4614216,0.022429014,-1.007763,1.5942419,-0.9527656,-1.4884051,1.151504,1.340985,0.68025756,0.62669843,-1.4246609,1.3421994,-0.094235055,0.43012637,-1.8266175,4.462104,1.134954,-0.27292958,-0.7201778,1.2794117,0.9931995,-1.4611977,0.870692,-0.95293087,0.96850926,1.2084302,0.034821123,1.4332501,1.9625418,3.6600668,-0.19747104,0.13096151,1.4030826,0.38157895,-0.8564787,0.087671116,0.44610003,0.78930604,0.8306173,-0.94010645,2.9878087,1.1162689,0.84072626,0.5004126,2.3952038,1.2167137,0.78483325,-0.045101307,0.2092533,-5.4356184,-0.082067035,0.746615,0.6611209,-2.588822,-1.1595482,-0.0042999075,3.5727684,0.3261656,1.4040749,1.858823,1.3136724,1.8064021,2.6631746,-3.3670464,-2.5000222,-0.31778818,-0.18473004,-1.1225334,1.9055465,0.25167823,1.1551211,2.779622,2.1174364,-0.36603788,0.12006062,1.8521647,-0.47443688,-2.0949204,0.5934904,-1.9114718,-0.84190553,-1.6683291,0.19872577,0.065232836,-2.1759338,-1.7437938,-0.73884314,0.43127745,0.40351674,-1.3164896,2.6241033,-0.2180609,-0.148345,0.24509889,2.881312,3.724996,0.19911012,1.8511783,2.6304588,1.4687936,2.293853,0.1687104,0.22911844,0.6063258,0.94637173,1.0750856,0.17875363,-0.34525722,-2.418524,0.10220248,1.0950714,-1.0747741,0.7487026,2.1681802,-3.5444615,0.64608246,4.391901,1.2433366,0.024017442,0.122424275,-0.5215319,1.7700773,-1.1160988,-0.4507857,-1.6233566,-1.7234787,-0.5780131,-0.22390324,-0.4750383,3.882805,-0.17110083,2.5719123,0.17016825,-2.5156167,0.09900239,-2.2036161,-2.1376164,-2.071708,-3.3198285,-0.25801882,-5.0034947,-0.31183276,-0.69289696,-0.48552275,-3.9940884,0.5887825,3.1689715,-0.54670656,1.0884154,-1.2494527,4.727446,-0.9629461,-0.77887106,-0.5645355,0.1369497,-2.082322,1.3832626,-0.026062407,-1.3359823,-0.3367635,0.7880937,-6.107988,0.8425898,4.410806,-0.6590254,-2.5392387,3.6702318,0.3768102,0.85673356,-1.5895189,-1.2839805,-1.4393369,-1.5846643,-1.323881,1.846761,0.41006836,-0.002558632,-4.0932527,1.3628508,-4.4217515,-0.1727416,-1.2017324,-2.361372,0.4209094,0.24295981,1.0501387,1.0233973,-3.264691,-0.025094144,-0.064776406,2.5764453,1.4968095,0.24251738,-0.5737348,-0.36473703,-0.95419776,2.3053503,0.3931272,-1.0416969,1.197768,-0.76785624,-0.06990425,-1.1286968,0.646727,-1.8735337,1.6605712,-1.1706913,0.42191353,-0.770478,-3.9016266,0.4088203,0.12547141,-2.0192919,-3.0045419,-0.18761082,-0.23805,-0.15844803,-0.717112,2.9896479,0.43341577,-1.0190828,-0.41441214,1.4104661,0.8603994,2.6976616,0.7603544,1.1502215,-1.6892565,1.9709364,0.16042475,1.181358,-0.57220024,0.58542985,-1.3487242,1.6210105,0.21022764,3.4482086,0.6497764,4.8017373,1.8637152,0.7681718,-0.89054644,-3.5790656,2.0338058,1.7764715,-1.8026885,-2.3105283,-0.13865869,-1.6183649,3.1771858,0.79621065,-3.098148,0.56291366,1.8754643,0.6151307,1.3623989,0.9809667,1.221347,-0.67745394,0.7772374,0.3512677,0.6055439,2.6539083,2.243328,3.100586,-0.859594,-3.9288065,0.46818683,-0.04638815,-0.43284017,-0.12771127,-1.2209277,1.4222656,1.7309225,-2.490157,1.1456393,-0.49192563,-0.9888444,-0.6355038,1.0663509,0.2382149,-0.6741987,-0.7041952,-0.46511835,-1.4612799,-1.5557297,-0.512299,0.06969155,2.8353674,0.6603762,1.0392029,-0.16865757,0.14008565,-4.3763328,-0.12939873,0.96276385,0.5621145,1.654114,-1.2636272,0.14941235,0.86547333,0.6362826,-3.0537238,-0.09422268,-1.3829918,1.3234131,0.64962554,2.0845232,0.6992676,0.3712838,0.9658315,0.043539334,-1.8273358,-1.1716924,-1.8598737,0.7764971,1.9723074,0.023341889,-3.3007972,4.3732753,-1.3713487,0.07577487,0.6371679,0.9288901,1.3378786,0.1577443,-0.30052835,-0.60103804,0.20410545,-0.59573585,0.92202544,-2.19513,0.0065234043,-0.31655794,-1.6951607,0.5679293,0.33082232,1.9353967,-0.52985406,0.6079484,1.7870922,4.7210345,4.357864,2.5026453,-1.6448691,0.57197535,1.3858801,-0.5491842,1.8462094,-0.7699215,-0.21804394,3.402762,0.08624476,1.8388115,-1.1618203,0.3232451,-0.84552014,-0.59219056,0.41025373,1.1114581,1.4131966,-1.1261059,-0.12409806,-0.5157715,-1.6084803,-0.6855213,-5.7101545,1.1569598,0.22547665,2.683847,1.7906353,-2.9558024,0.24650112,-0.96060836,4.491841,0.5527775,1.219394,0.17824924,0.65072125,1.6356189,-0.70019513,0.6848104,1.9142517,0.028463282,3.011668,1.1588302,2.9766355,-0.40600637,-0.6713827,2.081577,2.193561,-0.8191623,-1.3632869,-0.2110087,5.1482887,-3.017697,1.1198621,0.20675227,4.9733744,-1.7752827,-1.2503965,1.4708434,2.3180296,-0.11780079,-1.7136607,2.4197834,-1.3834989,-0.8622016,-0.12332807,1.7051494,0.8361268,0.9882685,0.37339044,0.84171903,2.524825,0.43477818,0.25500545,0.7458243,1.7769917,0.7046642,1.6444341,0.992863,0.994842,0.7552705,-1.6781387,1.3049431,-0.42917934,3.308393,0.5831538,0.98393524,2.070796,0.36923748,-0.71158093,-1.9630915,0.15746762,-3.8249536,-0.7460889,-0.46428642,-0.90061307,1.0155883,-1.4627191,1.0057931,0.9705833,-1.2708924,1.5231667,0.12932463,1.5879797,1.0340335,-0.76412624,-1.455198,0.46053872,1.1276896,3.558834,-1.05765,-2.4204326,-0.08664151,0.75972193,-1.5029142,0.49202713,1.9083213,-1.8174074,2.4021542,-0.41234726,1.4638933,0.14133018,-0.1311524,-1.053585,-1.8299887,-2.4479299,-1.8859959,-4.3686714,-0.78889334,-0.12714534,-2.652766,4.578394,-0.39875817,-0.17667739,-0.6659308,1.3504395,2.527024,3.7668302,1.8152461,1.6060293,0.25905615,1.4259192,-0.8178195,0.8876361,-1.668122,1.6771238,-3.463116,1.9997245,-1.8833919,2.0906818,-0.45822683,2.547636,3.0589554,1.3259788,1.041881,1.3505081,1.6371206,0.43237603,-1.7001673,-3.992267,1.0213869,-2.63263,4.6685004,1.6937208,-2.2960231,-1.9412439,2.0523193,-3.1952639,3.9690785,-3.2747605,1.6950839,-0.72008073,1.1995207,0.44397298,0.7125594,5.2001987,4.0493402,1.7324915,-0.9991194,-1.9328256,1.9494091,1.0188252,-1.6293981,4.1390834,-0.067223825,2.359288,1.1635437,-0.79471993,1.6766876,-1.0365183,-0.35549533,-1.6994284,0.43754685,-0.61071134,-0.18326473,-1.4883351,-1.2403141,0.6316569,-0.6940432,-1.8071598,-0.4364094,4.9636354,1.6837174,2.7692316,0.65670216,1.9431474,-5.7704825,0.47504783,3.7391598,1.1033341,1.3295475,-1.8170046,-1.1906797,2.7024033,0.8836014,0.9775931,-0.0015850386,0.13271685,-5.199639,-0.37398174,0.4773635,0.9510921,-3.0947137,-1.3981236,0.20725155,3.1755168,0.19806302,0.8479526,1.1882074,1.5706319,1.621754,1.6905968,-3.2370641,-1.9451516,0.060419146,-0.7085873,-1.0545101,1.3882792,0.40267363,0.43500713,2.9748824,1.7015629,-0.521517,0.81391346,1.0603104,0.111855224,-1.4368839,0.25091296,-2.0945685,-0.93946594,-2.0253325,0.25000173,0.37164566,-2.620817,-2.3235643,-0.21717864,0.06320398,0.2324221,-0.8333986,2.3706,-0.24239609,0.41571084,0.43208644,2.123732,3.4169834,0.65239084,1.7428002,1.9646897,1.5363333,1.6192418,0.29963082,1.0247549,-0.26520786,1.3706578,0.782102,0.8723551,-0.61462873,-2.1726377,0.09556907,1.1774033,-1.5436709,0.88864106,2.2001767,-3.1847565,1.6832005,4.1977425,1.2635125,0.26996726,0.036393993,-1.466488,1.8409793,-0.5053307,-1.4701294,-1.9907999,-1.4159563,0.1223817,-0.4323267,-1.3298721,4.2839637,-0.50803804,2.2926376,0.54335594,-2.4786575,0.7092025,-2.1408353,-1.6207544,-2.0382223,-4.598845,-0.36088184,-4.9848804,-1.4138936,-0.7101669,-0.601459,-3.3448808,1.6217144,2.52273,-0.40033054,0.6533575,-1.2786915,4.0989037,-2.2691202,-0.13181727,-0.88834834,-0.26196626,-2.74628,1.1751388,-0.3740676,-1.6583235,-0.026476163,1.0020416,-5.6495657,1.4444208,3.5585515,-0.6117778,-3.9249184,2.9363966,0.7994292,0.87757057,-1.9391632,-1.7858927,-1.9318676,3.20724,0.9619011,0.39130056,-0.4076726,-0.2553912,3.1362545,-2.3863814,1.5528698,-1.3449309,-2.0370996,-0.28847918,-1.9963282,-1.1721605,0.3081367,-0.65017134,1.5587345,-0.557969,2.217479,-1.0334964,-0.9775105,-3.8762622,0.6789078,0.016835332,-3.2140083,-0.28199598,-1.8439615,-0.2823911,4.397908,1.5652446,-1.8241365,1.0506196,0.8993229,0.110351786,0.56905615,0.8710057,-2.1480336,0.16613692,-0.9250171,-1.0227177,-3.1071844,0.71151304,1.63316,1.5833188,-2.4443042,-0.34685722,-0.119561315,-0.76185095,-0.7687347,2.6133738,0.014495365,2.0775573,0.84575444,0.87568665,0.43679294,-0.505096,3.0743887,-1.503133,-1.6597477,1.1179879,-2.4388008,2.325196,2.1313953,0.9852274,-2.7698054,-1.3090041,-2.211803,1.2074133,-3.4614394,0.29364726,2.463586,-2.3570924,2.2443085,0.9169961,1.5241195,2.3012843,-0.6883011,-1.282965,0.7650585,-0.56806445,0.91737777,-2.4448338,0.08287052,3.0324178,-1.0587012,-1.4752629,3.1210635,-3.0184255,-1.2274529,0.77447814,-4.2574544,2.012946,-1.4590988,-2.4420624,-0.5403151,1.9565308,1.8906089,-3.7441978,-1.7011265,2.7280452,-1.4366461,-0.90424675,4.088221,1.1404814,-1.5253323,1.4391067,-0.6401582,4.657147,-1.4695152,-0.083080746,-1.4311707,-1.8833692,-0.24129832,1.5762361,0.69147676,-3.940528,0.19973625,-0.89520997,-1.7403265,-0.5491113,1.7595878,-1.5107063,0.87986225,2.314667,1.0363674,-1.6702433,-0.30514935,0.59155375,-3.9061265,-0.43504313,-0.39010578,2.2976441,2.2267518,0.9440075,-1.1217264,0.75032973,1.4735758,0.4423788,-0.606398,-0.34176707,1.6596673,2.0870361,2.292704,3.1793542,2.8720686,2.0983372,0.54630625,1.8538955,-1.8552471,-0.113867484,0.089274965,-0.23199347,-0.76171994,-0.28858465,0.06159395,1.3050073,-1.5613979,1.6667585,0.26549962,0.2074995,-1.5311779,0.92451227,1.0604378,0.6018164,-5.00787E-5,1.1100584,-2.1486237,0.41735277,0.26265913,-0.8646388,-3.4547064,-0.97761303,-0.26366815,0.5839777,0.02818884,-1.9034284,0.43492758,-1.4981812,-0.26692256,-3.8682535,0.3415129,0.1927534,-1.3161925,-1.1720412,0.187388,0.968278,1.5117514,-1.6274278,-0.020632433,-0.6287602,-0.21586584,-0.9006951,0.46606544,0.050926693,1.5000699,-1.929744,-1.6580964,-0.92539036,0.9243075,-2.4644437,4.882082,1.6449847,2.5775726,-0.18362524,1.0008682,0.92295367,-0.2429739,-1.9935876,-0.88262707,0.5088385,0.47103894,-2.3732648,-3.0636928,2.2120047,-2.4399977,0.21157609,1.6115499,0.3230782,-0.8151099,1.590191,-0.6059579,-1.1915596,-0.15229188,-1.4963306,2.2679062,-3.3220406,0.63868374,-0.45758012,2.0990357,-0.48640072,-0.8876024,1.4926054,-0.19323331,2.3176634,-2.0075529,2.271777,0.29260972,0.9858289,0.26304585,-0.042342696,-0.4467088,0.19478728,-1.7811579,-1.0242064,1.5839581,0.012717842,-1.6893301,-4.0123243,2.3795137,-0.41784498,1.5312095,0.7014287,-0.6331913,2.9642923,-3.7701964,0.53803664,-0.31325454,1.033818,0.47287843,1.4675016,1.7076772,-0.7878244,4.1898537,0.14080727,-3.3411298,-0.22619838,-0.40119871,0.08837219,-0.22398762,-2.2489433,1.4576156,1.4354897,-1.9570678,0.027844517,0.44174474,1.0264409,3.9020286,-1.542639,-0.3869921,-0.03967049,0.06814317,3.4464743,-0.2947566,-1.6409085,-0.76545507,-0.13480304,-0.6256188,-0.25408366,2.1697602,-1.8215643,2.6670737,0.7012568,3.2115269,0.6598354,-0.8807316,-0.9895183,-2.0030985,-0.35082534,-0.26987875,-0.8754225,-2.2338927,-0.947169,-0.11518857,2.4883296,0.13031472,-0.15631919,-1.0251267,2.1363301,1.3523408,2.2249362,1.5837325,0.48691377,0.3561549,0.668042,-0.4487894,0.8144433,-1.9072784,2.7872078,-2.5493,0.2245082,-1.4204644,1.3369414,-0.30329618,2.8655744,2.2186217,0.599826,0.17997177,0.02464158,1.3101017,0.6871058,-2.3899486,-1.1900514,0.9330054,-0.9298397,3.4583368,0.9861448,0.16485955,-0.22178109,1.8536179,-0.21079823,3.3997433,-5.5087266,1.6916536,-1.780787,0.6854439,-0.13506073,-1.3234468,3.5177693,4.3189187,-0.18880937,-0.4368903,2.3191807,1.8406636,1.2338804,-0.6403565,3.983756,0.65438294,2.707564,1.6548207,-0.6447686,1.1263226,-1.5533808,-0.45415473,-1.976079,-1.5222374,0.6148713,-0.15194868,-1.452583,0.13786894,0.532145,1.3080294,-3.8204324,0.35592136,3.4956653,3.4413807,2.202454,-0.6158479,1.5164282,-0.9126631,0.2648404,1.9853872,1.5672282,3.5969124,-0.805978,-3.926133,1.7488056,1.4004405,2.87738,0.9459258,0.6825057,-4.249382,1.2388552,0.7268571,-0.13834612,-0.6289098,0.44044152,-0.3942512,2.587942,0.8780435,1.4926007,1.764816,1.7442594,1.2425988,3.0075269,-2.6928167,-2.8570018,0.11186947,0.05753379,0.63334554,1.2842555,-0.17472097,1.4194843,0.45771542,1.6780407,-0.61857533,0.88734424,0.58603245,0.5934796,-2.3949807,0.019442413,-0.8681328,0.76845086,-2.8323467,0.112689026,0.75691825,-1.508117,-4.217047,-1.3933699,1.2975935,0.61654127,-0.40131286,1.0929216,0.68988484,-1.1212351,0.31028932,-1.1366034,2.6138291,0.43132362,0.3196257,-1.3291707,0.6289114,1.8762434,0.1028252,-0.18519902,0.85035187,1.2989031,0.8489912,-0.41018057,0.7200752,-3.936377,0.8423821,-0.6856483,1.1839656,0.062598996,2.7179222,-3.3657987,1.7866728,3.245088,1.2860053,-0.7710891,0.9487389,-0.9023681,0.710514,-0.88482,0.44695443,0.18749058,0.8994249,-2.4372232,-2.5169537,-0.25756118,0.7501889,-0.709082,1.655813,0.5448736,-2.4925804,0.87846565,-3.070281,-2.1196666,-0.22212261,-2.7773707,0.6387907,-4.287925,0.5960635,0.09497175,0.26708588,-4.204708,-0.85293156,2.5209312,-1.0048934,1.3998947,-0.86217445,2.7808025,-3.3040512,-0.1723448,0.7507442,0.8706272,-0.6735752,1.7237568,0.16914336,-0.0035637408,0.4727981,0.863252,-5.6442013,-2.674631,3.834142,0.3551803,-1.3302622,2.2716029,0.68295044,0.8610586,-2.1632032,0.48712078,-1.6715616,0.97463715,1.8240563,-1.148996,-0.9195657,-0.9931918,0.5329776,1.354908,0.019438755,1.8280088,-0.25239503,0.66231763,-1.0732232,-2.4271948,0.017154854,-0.30356553,0.8770121,2.4274085,-0.0030836845,-1.846427,1.8545606,-1.8529439,0.030574007,1.3507918,1.2788023,1.2646308,1.3937247,-1.7237284,0.022257319,-0.45487937,0.25747347,1.0277541,-1.3561885,-0.116442345,-0.010194451,-0.7480337,-0.79302204,-0.14064269,0.7422515,-0.1722799,-0.63582236,2.4353206,2.8378046,2.4064348,0.22836994,-1.0216476,0.44553936,3.966659,-0.34923598,2.7270138,-0.41431642,1.7187562,5.077381,0.07019621,2.1878252,0.81038576,0.17402361,0.70322394,0.2154165,1.824417,0.22546136,0.8800814,-0.4655515,0.412444,-0.08452239,-1.8916497,-0.64640725,-1.7981716,1.7017643,0.17362751,2.3205655,0.8613368,-3.656246,-0.31229314,-1.3533473,1.554618,0.029423177,-0.41248408,0.622816,2.0152624,1.2668843,-0.07441612,1.0706458,3.0475307,1.6881663,0.7039819,3.164718,0.41820073,-0.96180147,-0.27591735,2.4455104,0.6045979,-1.0282785,-0.76226586,0.1647291,3.3583972,-1.0053245,1.919574,0.05125415,2.5003815,-1.4192741,1.4438812,2.1533556,2.1980247,0.91515267,-2.5162084,1.5870163,-0.5265266,-2.335038,-0.9051753,1.5946808,0.08721404,1.1598973,1.3516619,1.164041,0.9574048,-0.48297155,0.74833167,0.89108336,4.3814054,1.4251335,1.0113866,-1.3705511,1.3776443,2.3155403,-1.2366315,1.3633299,0.070729785,0.66747993,-0.8983153,-2.334368,-0.3988244,2.4118133,-0.23989783,1.6347071,-0.6776612,1.9547544,-0.54580194,-1.2406664,-4.4392753,0.07273638,0.16503924,1.6390145,1.6107666,-0.052135803,1.6577431,-0.9547147,-0.9909577,2.257214,1.8334519,-2.1887589,-1.7769352,-3.255463,-0.19997105,-1.5696821,-0.7125256,-1.961329,0.7302802,-2.121048,-2.345168,0.69869214,-3.7136345,4.150287,1.989144,2.1985455,1.1012875,-1.5988123,-1.3915366,1.1320496,-3.6115692,0.6587498,1.7546542,-0.1796701,-0.3300889,-2.4742215,0.029091632,-0.36190948,-3.2930017,-2.033416,2.9639003,2.5679026,-1.2913275,1.6810707,1.0333236,-0.54026437,-0.054451555,-1.4840649,-3.6626394,0.38271436,-2.1868892,-0.64395607,-2.2324603,-0.79370075,2.225071,-1.002286,3.620531,-1.7374419,-1.8563137,-1.5044719,0.18638824,2.8615468,2.0343857,0.5325211,1.3395913,0.04584825,0.5221015,-0.9390188,-3.9657562,-1.0437171,-1.4249221,-1.2428054,4.3627253,3.0523117,1.0929298,1.3210614,1.1508541,-0.30655268,-2.1438136,0.19219168,-0.16392343,0.88354796,-0.20852825,-4.603079,1.0706781,1.2302686,-1.1028901,-0.20986441,0.24470033,1.2443383,1.2422655,-1.1600081,2.0194132,1.4134358,0.42204025,-2.0402546,2.3473926,2.8248193,-2.2869604,-1.9545679,0.15788426,-3.2471209,-1.9783996,-2.370518,0.66056997,-1.6688851,-0.8193555,1.4923403,1.5917953,2.5739553,-2.2457733,5.7847805,0.9368511,-1.7954391,3.1688573,-0.71357906,-3.506586,0.5610712,-2.505052,-2.9063456,-0.8035447,0.6012712,-2.0291421,-0.73081464,1.1759002,-0.6005051,-0.20737293,-1.2219269,-3.010172,0.70845973,1.2009017,-0.40283987,0.9598037,-1.9658653,-0.29572743,-2.2405732,0.08858284,1.3619561,2.2210774,-1.2524796,-0.7169918,-0.14901586,1.720984,-0.2312834,0.0069685746,-1.3627704,-1.0257645,-0.9107733,-3.6527803,-1.9012682,-2.4960327,1.2969004,-0.5608615,0.7636764,-0.9560823,-1.4196913,-0.66423553,2.2535498,-3.5145485,-0.76146024,1.7996889,0.95567125,-1.2017816,-0.8441209,1.1700293,0.0032814485,-2.864439,-1.6002753,-1.5042741,-1.8367224,0.5634805,-0.204185,-0.6610438,-3.1077168,1.2866743,-0.32115936,-1.4744672,0.7734872,-1.1943852,-3.1010332,-0.3976213,0.26767734,2.2323282,-0.34121418,1.8018284,1.8905619,-0.6999157,-1.8720758,-0.3725664,0.5062421,0.52988243,-2.5163972,1.2373037,-1.1952393,1.1027037,1.658244,-2.1746686,0.15474479,0.20935114,0.5990467,0.021099892,0.0127583025,2.1013298,-2.1069274,0.61848533,0.87761444,-1.7830583,3.4819806,-0.3278013,2.4698002,1.6913865,-2.329037,-1.4267774,-0.5015813,-1.2355199,0.52342147,-0.9238339,-0.1772702,1.1878818,-1.2461929,-0.4308486,1.8879094,-1.6962337,-1.385669,-3.1923623,3.3089747,-1.0678145,-2.6638217,0.6926282,-0.74003804,-3.1841636,-1.0556333,2.2826517,-1.456983,1.4721975,2.157817,-2.2521062,-1.4959908,1.0271144,0.13024522,-1.5614238,-0.68522465,1.6165253,-1.3711858,-2.5518196,1.500925,-0.29918027,-0.104247116,1.0006953,-0.4858208,0.2571946,-3.5816367,1.5907719,-2.3684351,0.43546623,3.9068182,0.13832188,1.2613909,0.39220107,-0.34694067,0.075241625,-2.2674537,0.45103607,0.17576374,2.653735,-1.32589,0.5065985,-1.1537396,-0.35174963,2.977083,1.3429974,1.417433,-0.19759844,-1.3409475,-0.44319186,0.69933325,-0.5603512,0.51902163,-0.81654817,-0.33258882,-1.7639073,-0.51691216,-0.83796763,-0.3669369,0.7744573,0.52444905,-1.5519383,-2.305217,-1.558778,2.0435042,0.757882,-0.6289979,2.9879365,1.16162,-0.91393304,0.10929337,-2.6596599,-3.4497662,1.625491,1.7490083,0.39314836,-1.0688773,3.2121966,1.0414206,0.562907,0.94994265,1.003266,-0.12360883,1.395598,1.5181366,2.7758253,1.4810933,1.4606196,2.3827772,-0.16727462,-2.29058,0.26962975,-0.27615097,-0.0499722,-1.7528769,-2.237867,-1.0818508,-0.95065874,1.2360035,2.2792516,-0.5971637,0.58030397,0.5628276,-3.7363415,0.32806972,2.3174698,-1.8074538,1.1016338,1.7019124,-0.3274562,2.3993456,2.273306,2.7408738,4.6071978,-0.21910954,-2.2731385,-1.7513804,2.2720954,0.57175535,-0.31940416,-1.7980927,-0.007137396,0.13255438,-1.302093,1.7829186,-0.44847044,1.3696492,-2.2906494,2.3389432,0.5918029,2.2628818,1.0103177,-0.81587934,-0.5269388,-1.5952016,2.2480311,-0.5593311,1.9953847,-0.15330516,-0.23681808,0.17221285,1.9131076,-5.102149,-1.609283,2.5791287,-0.57501507,0.93306625,-1.1539423,2.9537356,1.2800595,-0.40974426,1.7550111,0.5430955,-0.3651998,-5.609231,2.8338518,-1.1374635,-0.9128486,-2.7341628,-1.8310895,0.51119256,1.7711601,0.5858763,0.9788348,-2.0117493,0.33441615,1.781715,3.2752306,-0.24431697,-0.1901902,-0.699199,0.60126823,-1.1088883,3.9196455,-0.57957286,-0.31273466,2.5779815,0.234997,-1.0916362,0.0990581,1.572323,-1.88696,-0.23514798,-0.7379112,-0.17736904,-0.53728986,-1.1892897,-0.26430577,1.4379256,-1.6226084,-3.0085928,1.1717248,1.4746134,-0.71417326,-0.68436104,4.238738,0.20619744,0.24333084,-0.083994515,2.6580734,3.6056838,2.0125902,1.4838189,2.2018373,-0.6618166,2.7251468,-0.5922737,1.0587472,1.2919244,1.9432316,-1.7993693,1.5951853,0.08268892,1.3217198,0.15849845,1.91869,1.4486941,1.1534687,1.8335323,-2.1253319,2.3868392,3.8532133,-0.98754287,0.8073555,0.8699577,0.019131895,3.3223553,-0.78378874,-3.097756,-0.11843905,1.2621747,0.7249126,1.5721308,1.9300574,2.9640243,-0.108674236,2.9438498,0.56325275,0.70699155,2.7528152,1.590499,0.25886428,-1.7919604,-5.012189,0.22460024,-2.633723,0.32925612,1.8770627,-1.2140309,0.030255498,2.2260196,2.4800823,2.2616777,-0.35864848,-0.8766191,1.1444862,0.91599923,-0.19416517,-1.4505371,0.5612915,-0.83768415,-0.4096136,-0.56559163,0.5778397,-0.29870734,3.121269,-3.5100534,1.8961089,2.239924,1.5272567,-4.3508887,2.5030465,2.172295,0.8728103,0.65850407,-1.5836016,0.80322695,2.06914,3.4836316,1.5258313,-1.4989545,0.5665654,-0.174325,-0.18568401,-1.560843,-0.67952245,4.95482,3.4600232,-0.7769416,0.63023406,0.97417945,0.41000268,0.7355661,0.9942169,0.726703,0.24056393,-1.1956365,-2.9719768,-0.09248385,1.1242033,2.053798,1.7466991,0.18657947,0.06285014,-1.9081821,1.6677318,-0.31223506,1.6246226,1.5048218,0.4438667,-2.6492662,-0.5197344,-0.95454884,1.7193736,0.19832356,0.1730745,-0.49382198,0.20376454,-0.12630256,0.2599945,1.3596778,0.19876024,0.09092301,0.73022777,1.3245645,1.718301,-0.21206875,-2.897873,-2.9089446,1.4692925,-0.07999131,-3.673922,1.7939628,2.169626,0.4038638,1.2349927,0.56551296,2.2294621,1.3716422,-0.36251238,0.30097938,-0.81551284,0.78525424,-2.3191404,3.008979,-0.84455556,0.45716977,1.2872232,-3.1807585,-2.3798163,0.7425664,0.47564504,2.119077,-0.06794563,1.605509,2.104335,3.4803524,-0.25199845,0.9265336,-2.494603,0.31673646,0.28493968,-0.63701993,-1.7086796,0.92481846,-0.22751345,-0.7277093,1.9404888,0.026417274,0.9111625,0.25052097,3.8077981,-1.4104712,0.933425,0.41465372,1.5340327,0.85692376,-2.3781583,1.0697582,-0.99343365,-0.4318203,0.24048993,1.9281192,-1.4999194,-1.1379341,0.16619353,3.347562,0.7527087,-0.159833,3.060685,3.323659,1.1904922,0.7548975,2.012326,-2.1254013,-1.3977077,-0.7427967,1.3684125,-2.7336533,-0.6458131,1.6524028,-0.6634563,2.6798642,0.9357025,0.6333738,1.8416394,1.3880918,1.6056545,-0.6168352,0.74914646,-5.2072086,0.72784406,-0.2133909,0.033357393,2.6715367,1.2149777,-0.60883814,2.809207,0.08042515,-0.46550545,1.5296186,1.6888361,1.1493678,1.1571817,-2.8454065,-2.090372,-0.43969288,-0.036623415,2.9861283,0.91637564,-0.12831335,0.313844,-0.56882,1.7860398,0.055138316,0.57991195,0.98254895,0.70988154,-2.7100148,-1.0753871,-2.1988413,0.9525321,0.68599576,1.0533868,1.2969695,-0.13536963,-5.220049,-1.1081678,1.1846712,0.26473793,0.5506431,1.3387456,1.3878672,0.71814567,0.71099275,-3.5017831,-0.0018296097,1.5490761,0.29745904,-1.4491466,0.6810688,1.4365312,0.4193451,0.7023229,0.52740455,2.2237835,2.0058599,0.26511076,0.30489138,-2.4545896,0.395935,-1.5223604,1.4376817,-0.14181446,2.7404475,0.06637183,-0.4079442,1.7077686,1.0645187,-0.006325609,1.9126174,-1.1246068,1.3528515,2.5236244,0.45766973,0.066407144,-0.17112982,-2.9236026,-1.509757,-0.17425536,0.69229656,-0.7553396,1.5808359,0.6138585,0.24681044,0.9610937,-1.0547711,-0.20192343,0.5555017,-2.3402894,-1.5830067,-0.06495486,0.3075449,2.2760208,-0.361723,-3.2738209,-0.04040976,1.5770645,-0.16014946,1.127801,1.8754811,1.2188066,-1.7553962,0.24166021,3.2767942,0.5447828,-0.3691202,0.9320828,-1.1102673,1.3838634,1.3305038,1.5561272,-4.476911,-1.6688205,1.836244,2.1050308,-4.6295385,0.935353,1.7999476,-0.41452053,0.115983754,0.7783083,-0.30649677,1.1362823,1.5403244,1.977233,-0.6576062,0.47907078,1.880929,0.37766048,-1.7656226,-1.7677627,1.1799778,0.28614286,-2.2093487,2.664943,3.8255348,2.5761073,0.13878964,-0.4749943,0.040996954,1.1575736,0.97219497,0.06712884,-0.72476304,0.11288355,-0.46291026,1.2226881,-1.3714217,0.35617846,2.1618044,0.78366333,-0.8910583,-0.08818225,3.7214015,-0.6983977,1.2262169,2.8976338,1.2542372,-0.1606441,-1.4504415,-0.6221044,1.2738788,0.10240779,-0.3437149,-1.1366127,-0.89519733,0.3398219,-1.153299,-3.438103,1.0959476,0.09587408,-1.0294462,3.2023985,-1.7388709,0.02291865,-1.5287479,-1.1318853,2.9181237,1.9084483,-0.9308894,1.6462109,0.3284932,1.2163835,3.8193963,-0.5733531,-0.17357394,0.25188968,-0.67697996,7.7911787,-0.21749192,-1.3630354,-1.2854786,-1.3096732,0.54923016,0.48601213,1.4717033,-1.3016526,1.294274,0.09378292,1.1863402,-0.314833,1.5447931,0.3034239,-0.8297819,1.4805833,0.016832752,-1.7790147,3.051197,-2.8164423,0.3801474,-1.4265212,-3.4049263,-0.8254787,-0.67967165,-0.21866481,-0.6662585,-0.7450446,2.4089224,-1.1801631,0.46974283,-1.9790441,2.9610064,-0.99908024,3.1095195,-1.236749,-1.2302911,2.5055568,-0.48127556,1.7380333,-0.23381613,-0.6473278,0.8005605,0.43339995,-0.58130413,1.8257757,3.1987169,-0.92364895,-0.7615098,0.18811499,-1.1030073,-1.4500445,-0.6140735,-1.3737592,2.4180765,1.0565261,-0.7097722,1.2965033,2.3346307,0.2029779,-2.6216364,0.053480193,-1.3595536,-0.14758138,1.0120907,1.2225732,1.341866,-1.4413247,4.599036,0.6056178,0.22771715,-1.3751733,0.35675764,3.4321454,0.019775389,1.6028547,2.4367442,-0.42405772,0.012000095,-1.8035307,-4.048451,2.3996043,-0.2288704,-1.1678505,-0.9290223,-5.641228,-0.6957907,1.6280334,-0.5494619,1.4769446,-0.2670916,-0.5353162,-1.9590816,0.80709344,0.89688176,0.14998928,-1.2735721,0.38611957,-0.5001473,-0.52236825,2.4004185,0.47769383,-3.0849972,-0.43437245,-0.7580194,1.0478632,0.69149435,-5.4318213,-0.76504713,-0.21235888,0.3790287,-2.477706,-0.9613908,-2.8621304,-1.9885925,-1.1949109,1.0272708,-0.7814547,-0.14679672,-3.087807,0.9149079,-0.6614544,3.8868406,-1.1619718,-0.2753704,-1.3812743,-0.43398955,-0.67942774,-4.984917,-2.3210607,-0.53782153,-1.6511289,2.565203,1.11748,2.3636847,1.464071,-1.3094064,0.8352542,-3.2455308,-0.38912153,0.43298513,0.5170088,-2.0296159,-1.0904801,-3.6066694,1.7602588,-1.2727917,0.09016873,-1.9337795,-0.6208081,1.1332055,-2.8268075,-2.887331,-1.1998411,-0.27709612,-0.7073841,0.3505775,-1.2177688,0.73468924,-1.9866298,1.0621562,-0.955079,-0.7977023,2.591052,-1.9169887,2.7867398,-1.3881857,5.0498924,1.5339426,0.34200546,0.29655287,0.43307468,-0.55673134,-0.31139407,-2.8588896,-0.56806546,-0.5494179,-2.6821055,-0.1979829,-3.815634,1.8064028,-1.6264051,6.006914,-0.1614359,-0.87159556,0.91941077,-4.9235225,0.87356,0.124273196,-0.2017931,-0.16425188,-4.725489,-1.5097728,-0.60967803,5.7487974,-0.72504836,0.4196193,-0.04507086,0.09648536,-0.43647894,0.512133,-2.7622426,-2.7076576,-4.002669,-0.2787154,-1.5760046,0.18077306,-3.666415,1.2258271,1.4024159,-0.76023036,0.33552748,0.24196793,1.54165,0.39326766,-1.9705981,2.355692,-1.2244364,-0.2967111,-0.1899419,0.3611706,-0.5653118,1.6774235,-0.21124011,-1.7539253,-1.824881,0.33765018,-1.2556291,-1.15481,1.5880723,5.120352,3.0597725,-0.40392324,-0.31695154,-0.35678527,-2.9886198,-2.2569804,1.1475817,-0.2345755,1.841011,-0.37596977,-0.8934616,0.31342316,2.8157747,1.7512741,-3.3783293,0.8507877,1.9093323,0.37411138,1.2942362,0.92404526,-0.3253091,-0.17431574,5.3024306,-0.47494647,-0.2939979,-0.13329,-0.22702754,-0.761837,0.14863077,-3.2650225,-1.552417,-1.2065125,2.9462957,-1.8359365,1.7861462,-0.5315615,3.3048213,2.6847308,-0.4236628,-0.97906595,4.683426,0.2246817,2.8148396,1.6687016,-0.19670121,0.04661183,-0.65665466,3.0498612,-0.9586024,-1.4813429,3.4301481,-0.22697383,5.247752,-1.3871087,3.3311026,-0.12493859,1.3257077,-2.1756594,0.3323946,2.7493644,0.33224228,-2.4026253,-2.6685102,-0.119411595,-0.9389456,1.9530997,-1.0126932,-0.09356387,0.007119043,0.34124535,-0.041735765,1.5880919,0.6978216,-1.6042832,-0.887765,4.687201,0.5886753,-0.7774183,-0.42567575,3.893552,0.2459355,1.4846647,-1.5851909,1.4065877,-0.17822716,-0.1770297,1.3941455,1.4083921,0.1552724,-0.15920606,-0.85989195,-3.617094,-0.8459538,1.0307667,-0.40669602,-3.654814,-0.46898836,0.26255628,-0.12679611,0.40472868,0.38532656,-0.05646423,0.3654583,0.41212624,1.8619024,-1.3493999,-4.9029074,0.89727926,0.58277786,-2.3897417,1.42197,-0.39776534,-0.6400128,2.5073824,1.1368536,-0.8302169,1.6891257,0.59087926,-0.73827505,-0.7900628,-0.14595123,-1.899253,-1.2697507,-0.6213657,-0.009356442,-2.5495646,-0.26981753,0.52859086,1.8128566,-1.7977624,-0.7221066,-0.57150376,2.6319356,-0.29869416,1.194118,-0.5150784,2.6890645,3.270762,1.639765,2.1500518,2.256828,1.4840865,0.48073393,-0.5049179,1.2989311,-1.2901896,0.55648863,-0.57186794,0.60323656,-1.7677741,-0.16930076,-1.1051465,0.7645276,-2.247296,0.7949521,1.527403,-2.2612796,2.0614016,3.2859476,0.44226196,0.8943568,-0.932045,-2.4078083,2.419291,-1.1161457,-1.7461268,-3.2241044,-0.48765588,2.9061058,0.68444175,-1.708127,4.5726495,-1.1038715,1.0399058,0.69933885,-2.805133,1.6044723,-0.7132712,-1.5471958,-1.3910186,-2.4580436,0.5215117,-3.6666944,-2.034196,1.2183322,-2.0969772,-1.5337892,1.5841235,3.684973,0.513869,-0.34388396,-0.9569655,3.068196,-3.2318578,-0.885229,-1.328464,-1.3703533,-0.7356284,2.0159123,-0.18750128,-4.239693,-0.23223299,0.59115005,-5.46445,1.7208004,2.9900439,-0.8054603,-3.7565973,2.0017986,0.08063622,-0.08015245,-1.0622448,-1.0407851,-3.7317967,0.48652974,0.56960106,0.30020007,0.38712022,-0.5639576,5.9114094,-1.3690939,-0.94125825,-0.2487065,2.8550284,1.4843099,-0.18008067,-2.5003073,1.9826559,1.0044886,-0.5547181,0.5423475,0.8145836,-2.5344553,3.0487216,-1.5832229,0.3635423,-0.11348485,0.3464069,-0.28073922,-0.24785414,-0.8821672,-0.9915904,-0.6728987,-1.0797986,-0.24828689,0.79077494,-0.7190335,2.6960769,-0.3344197,1.9476156,1.2521781,0.8277806,-1.4902787,-1.9910599,1.8725524,0.9674915,1.8890331,-0.8587091,-0.9980577,0.6050169,-2.655247,-0.3603916,2.246299,-1.0585822,-0.7047498,-0.71427983,0.10200008,-0.0717839,-1.0992106,0.89937735,-1.2143344,-0.5784331,0.8924682,-2.26204,1.7684697,0.36623186,-0.43330064,-0.527706,-0.6779674,-0.40578666,-1.7493376,0.33872184,-0.9908461,0.20886908,2.150155,-0.37633255,-1.3136964,-1.3692107,2.19415,0.18675211,0.15107736,-0.08731912,2.321383,2.6792793,-0.44244742,0.8767721,-0.29974324,3.577248,-2.688195,-0.7335792,-0.5239012,-0.47158614,-0.93430126,0.4852067,1.7456418,1.0004252,0.72765464,0.21588604,6.034751,0.49472877,3.2495575,-0.83669657,2.890234,0.8282749,1.4279406,1.701841,-1.1676812,-0.7642567,-0.39699396,-0.102434486,-1.655919,-2.8680456,0.2846455,0.52356637,-0.8741407,0.92175394,0.7235139,2.6695964,-1.1580188,0.059965473,-0.06295033,1.6346047,1.6474358,-1.0972989,0.17011282,3.4413524,0.46768224,0.41820487,1.1425922,2.2136698,0.050444312,-0.4910084,-2.8395183,-1.5836104,0.39958784,0.28657633,-0.6646256,2.271889,0.15409298,-3.7723875,0.53977376,-1.7066312,-2.8803768,1.3222684,-0.54428333,-0.33644417,0.21536884,-3.3608701,-1.0140737,-1.3996798,0.7548245,-2.0459306,2.4206595,-1.3254136,-0.5682126,0.15679407,1.1332396,0.82558244,-2.000976,-2.5143552,-1.7553622,0.16434826,-2.453261,-1.4652494,-2.4135032,2.1693177,-1.3935007,0.2915485,-0.11187101,-2.7145045,-0.058863726,-0.21790582,-4.0959797,-3.1980374,2.3244872,-0.84499824,-0.087845325,-0.9716035,1.399955,-0.30682647,-3.0276334,-0.49685434,-2.3624787,-3.350151,0.12223582,1.1797144,0.6928234,-2.0103965,0.2575929,0.57377136,-1.9173473,-0.4989871,-0.5947843,-4.103575,0.3551025,-0.111056864,4.369652,0.19260542,1.0523701,1.0253062,0.3909088,-3.1325526,-1.3021604,1.0847136,-1.258108,-2.8398066,0.8734247,-1.1428568,-0.06683125,1.1766717,0.44821057,-1.5293458,0.15962623,0.7610166,0.88464427,2.170727,1.7751008,-3.3248413,0.15822421,1.0410062,-0.44477275,4.0733585,0.4294477,3.1073792,3.4027748,-0.9936176,-1.3548801,2.1661098,0.9377941,-0.6204614,-1.5554284,-0.5971891,2.5625496,0.027212752,-3.023882,1.8062075,-1.5182556,-2.0591762,-4.08165,2.3025603,-0.42623484,-2.17067,-1.049258,-0.5971696,-1.6216041,-1.3359389,-0.69468695,-0.92848253,1.4202354,3.5039515,0.9052555,-2.9263732,0.98826855,-2.3228827,-2.232834,1.5831503,1.2265166,-0.87474453,-1.7384727,0.7862463,1.197557,0.8702429,1.4797696,0.15568309,-0.22961698,3.0512414,0.7336512,-2.9218142,-0.2709329,-0.1146382,1.3688209,0.45267713,-0.034061912,1.168405,1.9268353,-1.5251937,0.1453964,0.4672501,0.8785907,4.2805605,-0.10634604,-1.5232035,0.50798225,1.9829348,3.8037143,-0.37050936,-2.0489767,0.33810958,0.5723535,-1.004653,0.049836338,2.6196196,-1.6334476,3.156568,-0.27066156,3.2311854,-0.16728148,0.9019866,-0.8115718,-0.043139577,0.53423715,2.0077686,-3.414048,-1.0637937,-0.3182794,-1.7738966,2.1576777,-0.547923,0.7723327,-1.0220721,1.7174305,0.5900782,3.2019281,1.622298,1.7306795,0.56985646,1.5440191,-0.37811354,1.8935758,-0.38326034,2.1143775,-2.1934044,2.2472606,-2.5548227,-0.7986446,-0.7821744,4.234014,3.198162,1.0549569,-0.54699546,1.9323418,1.248572,1.0936089,-1.5644436,-2.2676952,0.8518542,-1.3791541,4.1714144,2.6028507,-0.41552427,-1.209861,1.0572644,-1.9414691,3.6523402,-5.949135,1.7202308,-0.9106161,1.8544928,-0.51015913,-0.025822984,3.2831535,5.3682857,-1.3227488,-0.33939347,0.7365278,1.9590664,2.567193,-1.0877763,2.5958605,1.0605738,2.8890061,1.0699197,-0.9724889,1.34619,-0.45638117,0.40670455,-2.0549567,1.0737913,-0.027371677,-0.29619935,-0.52633953,0.5133388,0.36571628,2.101902,-1.9024656,-0.047682557,3.6811333,3.8217015,1.7372192,-0.157511,2.2427678,-1.7555197,0.81634647,3.4058094,1.9000919,3.9355693,-1.3272039,-2.8123248,0.96816665,1.6267747,2.448748,-0.2911219,1.1564938,0.88507134,0.83254695,-2.546562,-0.90581965,-0.01283253,0.236921,-1.3275596,1.986573,3.7185607,2.9604225,0.47432736,0.48902804,-0.08481862,3.5653195,-1.1321121,-0.98757505,-0.53138816,1.1092521,0.3376585,1.1399592,-0.34260377,0.039719604,1.4245293,0.84568864,-0.3536672,0.4505569,1.8895489,-0.12638608,-0.219998,1.4759926,0.17333752,0.89011455,-2.4785705,0.08833858,1.3219091,-0.3496142,-3.4926455,-2.5759423,-1.2651588,0.66822946,-1.0399128,-2.5861208,1.1784754,-0.014187846,-0.45998317,0.5357413,-1.3306477,0.9992481,-1.7983767,-1.7997768,1.5232915,1.2129589,-0.104141235,1.6523027,0.021761307,0.6788078,2.5126028,-0.6898845,-0.28439942,-0.56271976,0.42442736,4.297472,0.8861012,-1.0853461,-0.6981826,-2.307633,1.4062014,0.9301073,1.813336,-2.8495128,1.2784534,0.19674431,2.1410172,-0.12865263,2.2613337,0.4994983,0.4356476,-1.6544796,-1.3121393,-0.9035979,1.2939365,-2.2676938,0.97228456,-0.7763072,-3.5339146,-0.6676141,-1.2107012,0.05965811,0.23206978,-0.8919363,2.568995,-2.9654388,0.36462015,-3.2127337,2.6445422,-1.0236537,1.0521379,-0.78589803,-1.0511196,2.03355,-2.2376878,2.164431,-2.3970726,0.21188538,0.34250653,-0.055882048,0.10369046,1.9452887,2.6791985,-1.714676,-0.036961295,1.311259,-3.0264874,-2.4704487,0.49265772,-0.30736357,2.250866,1.2584953,-1.0710081,1.7480862,0.33163252,0.86005145,-2.612565,-1.9989681,-2.169987,0.24864712,1.987219,-1.0952101,3.1011386,1.0582943,0.8900011,0.18065077,-2.1880064,-1.3628175,1.6329592,2.4223568,1.4919685,2.2557178,-0.0065366477,0.042527843,-1.4846456,-0.41990063,2.2249076,3.1165614,-0.14064729,-0.7701845,-2.545654,-0.051677372,-0.4693298,0.93144864,-3.3990598,0.10681318,-0.81175643,-1.5537107,-2.0188837,-2.0521297,3.9807553,1.3672055,2.961034,0.97305244,-0.6210808,-0.9861816,2.6706216,0.7000577,-0.7796497,0.12130872,0.23494071,-1.2462037,-0.32558632,-0.9466291,-0.4944285,-1.0615611,-1.6702735,-0.11369605,0.9513615,-0.7612045,-0.8280477,0.23299131,-2.3145735,0.6077271,-0.021756308,-3.317984,1.261643,-3.0983937,-2.1272554,-1.5958264,0.062785126,2.1473637,-0.13354748,0.99750686,-1.1681651,-1.9097451,-2.5615675,-0.025446828,2.497221,1.1322364,-0.6265395,0.3281089,0.57069665,1.8781323,-0.4049998,-5.3177705,-0.27684978,0.560036,-0.15468521,0.28654543,1.0373178,1.1280829,-1.457525,1.2610227,1.1662277,-1.3874763,0.35865152,0.43019542,-0.14899386,-1.3823196,-1.126137,1.2689965,1.3762215,-2.1501522,1.009037,-1.3382664,1.9792403,2.514259,-2.7210047,0.623923,0.7739193,0.8085001,-3.2168915,0.54301983,1.1655936,-0.24067396,-2.0896413,0.9442873,0.03810054,-2.2623327,-1.9247856,1.1477134,-0.44972697,-0.005929849,3.092683,-0.5858643,1.067028,-2.3154216,6.9229445,-0.24909125,-2.4011045,2.8575726,-2.694554,-0.3941993,0.36048147,-0.15205899,1.4117507,2.742152,0.885832,1.4304935,-3.6069353,1.5672121,-1.3360541,0.5168455,2.2978082,1.0960389,0.70195353,2.0374882,2.0912142,2.3571494,0.5793031,1.8222451,0.7285781,3.5406759,-2.3055568,-0.3334405,-0.61701226,0.8780771,0.5660602,-0.33758417,0.6919886,0.6084275,-1.2559619,0.8478513,0.1348275,0.39130795,0.28625172,0.1300229,-1.0235765,0.6470921,1.1287067,1.0628675,-0.79452425,0.27194458,1.1744792,-1.380094,-5.1190376,-2.7786784,0.2417372,0.5222836,-0.6748998,1.3441186,1.764235,-1.7142843,-0.06777341,-3.8753676,-0.8644587,0.7570447,-0.84204113,-1.6298468,0.44052398,3.6415565,1.1189107,0.24127814,0.65613323,-0.064003736,-0.24218668,-0.97652614,1.0476224,1.3804834,1.8292452,1.8810911,1.9217111,-0.6148813,-0.1736962,1.6516111,-1.3591509,-2.0211124,0.96298707,-2.8577201,1.4456503,-0.7229461,0.046204235,-0.8121677,0.36774313,1.1102527,0.7685837,-2.6861503,0.9067369,-0.77338886,-2.815403,-0.54308057,2.2709324,0.021238698,-1.0815043,1.4620214,0.99471647,0.846557,0.4313275,-2.3674924,0.44577393,-0.99170405,0.9956061,-2.020816,3.1136894,0.24728055,-1.2149967,-0.97221893,1.003382,0.6471592,-1.2071065,-0.14990152,-1.0963174,0.64510494,1.7237521,0.5291831,0.32909077,1.0534537,1.4863374,0.47231773,0.20209467,1.0716666,-2.3751538,-1.8620509,0.4654499,0.8567552,-1.7408969,-0.003909082,-0.5548229,1.4370004,-0.940375,0.66339207,-0.019410102,1.0784155,0.7664082,0.5404415,0.3599626,-0.019440645,-5.5415688,1.4142207,0.8328332,1.4476519,-4.7834773,-1.6011113,1.9006969,1.2348104,-0.041466154,1.2930484,0.32702583,1.8298167,1.4918603,2.3828502,1.3196267,-3.7594948,-0.47852832,0.10784495,-0.7409407,4.5925703,1.0544814,-0.24344769,2.71423,0.4775959,0.15580742,1.1031612,0.52735585,-0.8160122,0.035897337,-0.059514668,1.0472547,-1.2590193,-0.8786985,0.28704798,-0.22451489,-0.38923413,0.30703115,0.033319738,0.2285308,-0.38375854,-0.8983575,5.3184023,-0.4105677,0.7722754,0.2619725,3.0919158,5.8594093,1.2369872,3.043176,4.591097,0.35631326,1.364579,1.0460896,1.7996918,0.025730038,1.164617,-2.2323222,1.0767605,0.046643388,-1.4391183,0.15712352,0.07448302,0.54874504,1.157055,2.6231503,-2.109562,0.7461261,5.574742,0.4788033,0.23980686,0.92229396,-1.362051,2.1700613,0.0034837276,-2.6012177,-1.6058121,0.5838697,-0.16601065,2.2338428,-2.472647,3.3309052,1.4810961,3.4310365,0.8506933,0.44531244,1.314276,-1.8323894,-2.5913515,-1.4480696,-2.2516222,0.65727764,-1.4856254,-0.8593151,1.5278594,-1.0916691,-2.0758235,0.84015214,5.278469,0.86313134,-0.5193443,-1.7286245,2.0041773,-3.647279,-0.33354497,-1.8971636,0.21129301,-1.9723451,0.701669,-0.41250288,-0.6621667,-0.048481096,0.89616126,-5.374815,3.9634907,3.7654655,0.79862016,-1.3811704,3.4142118,0.95758593,1.105896,-1.4948641,-1.3725789,-2.3153572,-0.9677478,-1.1289603,-3.8541334,-0.84802824,-1.098843,0.48947206,-0.82408834,1.8670934,0.6190742,-0.8856233,-1.334867,0.10029333,-1.0714335,-1.97521,-1.5158619,0.6968216,-0.051894236,-0.06570513,-3.4804897,-2.4384658,2.3741336,-0.6621461,-0.34730005,0.680631,-0.024925923,0.48245904,-2.1441212,1.2003404,-1.0631741,-0.15393779,0.02072461,-2.3083723,-0.25804657,1.3389236,-3.416522,-2.7175503,-3.2886403,-0.3180227,-0.9561873,-0.013025994,0.2726899,1.9197975,4.897737,-0.08113228,-1.1237293,0.32730818,-0.5705746,-1.8638912,1.9844931,-0.27423206,0.5959299,2.9390366,-1.1858343,2.5235333,2.8357406,-0.42196208,-1.0979903,0.20296149,1.2975662,-0.7225465,-0.11667964,0.30419427,0.41490012,-1.2606006,4.2528358,-1.1811873,-4.018787,-1.1044229,-0.4391388,1.451719,-1.3642511,-0.51209295,-0.084949665,-1.0131034,4.754673,-2.1717083,0.6574489,-1.2383752,2.3367653,-2.0434163,-0.5614789,-0.51690555,4.636681,-0.37265846,4.6092157,1.4550427,1.474675,-0.6655424,-0.42560044,4.1315937,-0.7613713,-0.21502775,1.5521884,-0.7105905,-0.44057682,-2.009195,1.4549595,-0.7347455,3.4289625,-2.446349,-1.6519918,1.8317566,1.8159204,-0.8364818,-1.9675002,0.05248218,1.6204243,4.4677134,-1.1344764,0.15175365,-1.1018906,-0.4812812,-1.0026977,-1.6291599,0.39649615,-1.3801858,-1.6293339,3.167713,1.9800165,0.9494214,1.3039647,-1.375113,0.93326247,1.4736092,-0.15332289,-0.8714009,-1.2432489,2.8716042,-0.81725585,-1.2297056,-1.0865586,1.1199869,-2.150529,-2.6799142,0.9343272,2.4004805,1.7017765,1.2397312,0.5961173,2.0489943,-0.7407137,-2.1532788,-1.2393838,-0.14217196,3.617829,-0.3063097,-2.1021628,-0.12059283,2.2116792,-0.7249835,-0.17425124,1.9862537,-0.920552,0.65919644,0.09131665,-1.6144067,-1.1608431,-0.006380851,-0.4930477,-3.2601948,-0.6807687,1.6664472,-3.5483937,-1.470554,-0.43282884,3.0045407,-0.12559827,1.6624137,1.3337764,-1.2314773,2.2556746,1.5740224,-1.7052846,1.1425427,0.6096701,-0.30276522,1.0557585,-0.76651984,-2.2227092,3.1480014,-0.16314307,1.6571364,-0.06798671,-1.3803778,-0.89066553,0.25724798,-0.9591406,0.82972056,-0.13699073,-2.2883906,0.41972658,0.80462295,-2.1324828,-0.23705055,-5.6715884,1.677536,-0.26115322,1.5059553,3.338285,-0.21340376,0.12768573,-1.8664213,2.433844,-0.27884012,0.38341603,-1.664579,-0.08654579,-1.3189481,1.0153892,1.4166474,1.8767198,0.87571764,1.6570412,-0.6453004,3.3632076,-0.019000294,-0.61076856,3.8232992,1.9586675,1.0019244,-1.8481927,-0.13666832,-0.58508855,-2.0410318,1.268215,1.09838,3.5579367,-1.1092691,1.351965,-0.27850363,2.5051622,2.2107973,-2.306004,1.9856135,-0.34134978,0.34957588,0.15484323,1.5835124,0.9820022,1.3927175,-1.4300314,-2.0910435,2.563435,0.3969911,1.1504487,1.7352058,2.0966449,1.670497,2.5820167,-1.6224993,0.27313533,-0.20093334,0.7286697,-0.9419872,-1.3136576,3.9990268,2.273612,1.1611271,1.1234077,-1.7128634,0.7069586,1.4042181,-0.28354245,-2.0517082,-2.6450646,1.0485641,0.78343403,-1.783549,2.528564,3.8962588,3.1994305,-0.4961321,-1.0514785,0.8835404,2.8750198,1.6187152,-0.42700568,-1.3949972,0.285095,0.8609916,2.6910553,-1.9675814,-0.47242713,2.702939,0.84322107,-1.7647521,-0.08143717,5.285203,-1.0760865,0.9974412,2.9982588,1.5066469,0.36767223,-1.0187144,-0.9784538,1.701918,-0.43865368,1.30778,-0.6603786,-2.2354338,0.2923274,-2.2632837,-1.1286571,0.61049616,1.9434062,-0.3763582,3.6757367,-1.9265474,0.7535644,-1.6244861,-0.07558808,2.9472802,2.6791837,-1.3785409,2.1428285,0.28005654,2.1745584,3.8620243,0.27353856,-0.7499159,1.636281,-0.5293069,6.6548376,0.76373774,-0.50242174,-1.34605,-1.2731706,-0.38824823,0.60867405,1.9117978,-0.62039226,2.2317667,-0.83205473,3.0806475,1.0928322,1.2117624,-1.2979231,-0.8807237,1.9084247,1.0538865,-1.0975292,3.1422548,-3.9664514,1.2861965,-1.0506655,-2.327203,0.26517558,-0.6693411,0.33047664,-1.6974504,0.3735005,2.3476493,-0.50989884,-0.4744121,-1.2277136,2.704519,-2.9714522,4.16014,-1.1061766,-2.0882201,1.3675333,-0.108761154,1.3913479,0.680482,-1.4472232,0.3021666,0.023616364,-1.26071,1.3315344,4.352107,-2.052457,-1.0222961,1.7751852,-2.124314,-0.7461395,-0.26413018,-0.1723668,1.5924643,1.495323,1.0851997,1.5150921,3.3426015,-0.57396156,-3.1664436,-0.24599943,-1.0583063,1.5523641,0.7321221,-0.90390205,-5.9132104,3.0423422,-1.1051265,0.57112175,-0.31831083,-0.4881178,1.8139179,1.7563045,0.84015036,1.556381,-1.4628807,0.84391767,0.62944585,2.2992957,0.57518697,-0.2515487,-0.32676753,0.21413368,0.031793512,4.0548882,0.14245398,0.19993596,0.28717095,-0.0054038847,-0.17231004,-0.11874127,0.65274465,-1.8255398,-0.09382685,-1.121472,1.239819,-0.39772695,0.60522246,0.28656012,1.8547758,-1.4149415,-4.337409,0.5472284,2.2860692,-0.63102764,-0.31496552,5.1830063,0.6334222,-0.6929207,-0.28320146,1.1106523,3.7851624,2.3433118,2.5896804,0.6310032,-2.3701186,3.0852003,-0.039077777,-0.2849841,1.5348293,0.0036943639,-3.4192169,1.3114628,1.0404975,0.25054473,0.5742066,-1.5253686,2.7131104,1.2598413,2.4551108,1.2185924,1.84136,3.5766294,-1.6084771,0.08149271,0.7675927,0.026287017,2.7517507,-1.458237,-3.7961905,0.26128393,1.8717501,-0.87750775,2.320984,0.7124342,1.115211,1.3577974,2.6762924,0.5398607,1.6082395,3.5307822,2.3754706,-1.0671977,-0.7540421,-5.0162024,-0.17934157,-1.0551913,0.46868068,1.6687442,-1.164483,0.67544395,0.13531934,1.6031342,4.048628,-0.85993254,1.3352461,-0.19846739,-0.8362255,0.10449803,-0.44866347,1.2971936,-0.09701188,-1.5622429,-0.5051214,2.315903,0.0076274327,3.0309043,-2.4900014,2.676097,2.307474,1.4301534,-3.1837099,1.4888438,2.2992315,1.1258534,1.8302805,-1.5903724,1.5693198,0.9215394,2.0622568,2.192066,-0.4624816,-0.08464071,-0.6291008,0.6900354,-1.9538994,-1.865021,3.4817433,2.7446518,-1.4749606,2.2357938,3.2604485,2.5811296,-0.23701212,1.825236,-1.1620417,-0.22231936,1.172555,-0.97609884,-0.022695923,1.1802139,2.25256,-0.34407344,-1.650935,-0.44727758,-0.20851782,-0.28428757,-1.4781424,0.4723036,2.7982948,-0.4757788,0.49190965,0.2670609,0.38913265,0.6261951,1.0881217,-1.3376734,1.7102518,2.8529062,-2.2348647,-1.478102,0.090859525,-0.35199252,0.107377656,-3.3829515,1.1806523,3.0867867,-1.2416881,0.8885782,-0.52941346,0.7911186,-3.0908906,-2.9167762,1.0719627,2.2649522,-1.670878,1.0486605,0.042254873,1.0430449,2.5586698,-0.20334786,-0.3151277,-1.5608435,-1.0521528,0.3430769,1.3151019,-2.1920152,-0.3120722,2.2816322,-0.19115901,-0.05929249,0.44771442,-1.5085403,1.8328847,-0.29058883,0.76006967,1.3747435,2.1328256,1.549296,1.0182793,-2.0255365,2.4150002,-0.6411919,1.7709856,-2.7113078,0.21745762,-1.7713829,-0.6774301,1.2793205,-0.80024666,-0.7565673,0.7214907,1.6460807,-0.2801896,1.8690475,0.98550594,-0.8414491,1.4875749,-0.25361243,0.97380644,-0.689151,-0.9886528,0.35801226,0.49139515,0.62243205,-2.077781,-0.20476434,2.0191512,0.22026674,1.6463246,1.657903,3.3876147,0.41499835,-0.25732878,1.3363578,-2.1951776,0.12281221,-0.3022246,0.2044789,2.2720609,0.102014214,-0.1750283,2.143129,2.9971056,0.59656966,-0.33166897,0.12311281,0.7416154,0.6335116,-1.5082282,0.6345653,2.648793,0.5720469,-0.08485467,-1.4626606,1.7089015,1.6149141,-1.4324328,3.0230768,2.5043893,2.3124156,1.1550025,1.1668681,-0.77313113,-1.6658232,0.63803667,0.63043267,0.046037704,1.2292948,1.5666665,-1.2237805,-1.8720164,0.23549673,0.9493227,0.43097576,-0.75930107,0.74035484,0.6968441,0.32077265,1.8519279,0.25774544,-0.08315473,0.5535864,0.72026,-0.39491907,2.5286694,4.2541785,-1.4478203,-1.0842923,0.17405158,0.16686374,0.08076253,-5.3819604,0.041521017,3.4595985,-0.73757446,0.50615776,-1.4690139,-0.41936618,-4.5329366,-3.7310462,1.5841874,0.7516297,-1.5077684,1.8635211,0.6412119,-0.21202768,3.9482682,0.07159524,-0.3115795,-2.4729202,-1.306478,0.48413366,0.015771596,-1.983977,-0.5025496,0.42719162,-0.03731354,-0.5126204,1.8865073,-0.64869076,1.400644,0.25616413,-0.22902548,1.8839451,2.2988067,1.4846145,-0.43688032,-1.1540962,-0.9977081,-0.1696904,1.0087513,-1.6838706,-1.0160495,-1.4579805,-0.44608128,-1.4656376,-2.8557105,-0.9074929,0.7134679,1.0732034,0.9010666,1.0629914,0.9902921,-1.7274839,2.3195467,0.22161467,0.103592664,-0.5181184,-2.5959864,1.6709895,-0.10560271,1.2565166,0.33417374,-0.12892365,1.1643894,0.77049416,1.6928319,0.99757004,2.1477742,1.147488,0.0045001,0.017712547,-0.27960548,-2.3249104,-0.10260456,-0.38554674,5.2056875,-0.023340277,-0.67356586,1.8561912,0.5009335,1.3269672,-0.048085913,0.8838098,0.35332066,0.32044604,0.88880026,-0.5012746,-4.139384,2.8624058,0.7938704,2.2333632,2.5385702,0.21906537,1.1524295,2.5405846,-1.3993673,0.32567063,1.2288855,3.2894135,0.81973696,0.18060954,-3.2680242,0.856889,-0.5146543,0.6355257,3.8179107,1.8213933,2.207677,0.4667856,-0.4845404,0.68785846,0.9489828,0.07682582,-0.89186436,0.51066446,-1.6584698,-3.3349924,-1.619006,-1.0706428,1.379108,0.74435943,3.040216,-0.21279372,-4.0771413,0.9366143,2.3383627,-0.49701655,1.3848671,2.8956394,-0.4544222,1.0314249,0.3829346,-3.2467213,0.56179726,1.0617346,1.5911305,-0.45102942,-0.42602643,2.9092062,2.1243994,0.6841066,1.3283267,1.678122,-0.14910404,0.93850493,0.7376952,-0.035979975,1.1048998,-3.829576,2.4063878,0.58324283,1.8830786,0.31630474,0.162245,1.5196861,-0.7495387,1.2429093,-0.39829418,0.81391394,0.70847,2.271046,0.5935628,1.468782,0.74929094,-1.356136,0.32182974,3.675922,-0.30563378,2.061729,2.1176095,0.4369688,4.112302,2.4387684,-0.51146793,-0.12180776,-0.055630658,-1.6367092,-1.5156543,0.48393536,1.5969666,3.6362884,-1.0314615,-1.4825743,-0.32204136,1.651463,0.49829203,-0.6219815,1.1021131,0.6315539,1.2347611,1.9021889,1.9588892,1.1140398,-0.25369453,-0.48971185,-1.0609419,2.990599,0.78503525,2.2355561,-1.8109065,0.3652666,2.9429598,4.5600357,-4.2454123,0.4336557,2.2343097,0.8214676,-0.72147864,-0.5200049,4.3382716,-1.5077411,-1.6659865,-4.542261,-4.7241373,0.23996933,3.1798255,-2.004533,2.3719456,-0.19144048,1.5295137,-0.6070239,0.25824034,-0.35287133,-1.4464579,-1.8950502,1.5370222,-1.8372132,-1.5816089,-3.5241241,-1.0761614,4.20365,-2.0347989,-3.1223736,2.6347458,-0.6635661,0.38648605,-2.0019255,2.3148482,-0.9038654,-0.06834924,-1.8330108,0.2171742,-0.070351124,1.966763,-0.034863126,-1.0372331,-2.0113122,-1.0316987,-1.3590908,0.67614937,-0.76963204,3.6821532,2.1265419,1.1049668,0.85081714,-0.8570554,-3.5690634,-2.3596814,0.55045074,-0.35226318,-0.65593326,-3.0498037,-2.1398993,0.3495728,0.20528045,1.3801941,-2.234635,0.34303904,1.7953162,-0.30866843,-2.5354054,4.3484054,0.13939542,-0.49098673,2.9456556,-1.1734079,0.6485061,-0.13297649,-0.70897454,-2.9319398,-0.76227075,-3.0298994,-3.37123,0.6242316,2.8759232,-1.548762,1.6208773,-1.4510494,2.8598275,0.85625315,-0.13990994,-2.1783972,2.4032345,-2.024058,3.0834584,-0.30822036,1.1707599,-1.7397424,-1.812113,3.4367502,-3.3306053,0.70524865,2.2356195,-1.0130743,1.4128823,-2.8813708,3.245213,-0.40210623,-3.7571378,6.105715E-4,-4.514387,1.0989978,-1.2481092,-2.435512,-0.5893572,0.43664977,1.5638032,6.115075,-2.2035065,1.2947631,-0.15555903,-2.2174504,-1.175978,-0.2552762,2.8239145,-3.5204527,-1.61246,5.3986673,-2.5002744,-0.19237356,-0.102893576,3.653561,-2.1133354,-0.003047878,-0.42208362,-1.2631874,-2.6072938,3.748845,0.37302172,-0.9910986,-3.4005928,-0.43003702,-1.9794078,-1.8531986,-0.711285,3.0866036,1.2578688,0.11249698,-0.70548207,0.46637732,-0.4494211,-2.71833,-0.022475988,1.1733574,1.1450092,0.2705995,-3.9704177,1.3527855,2.2347205,-0.1599582,-0.8713598,0.53965545,-2.086857,0.19853094,-0.8673069,-0.7021665,-1.21901,-0.33807996,-0.058267515,-2.8028636,0.15700117,1.7783298,-4.1883893,-0.4834913,-2.034648,1.2001944,-1.1837777,1.1809169,1.4348506,1.6762723,3.8138342,1.4229107,-2.489227,0.7069356,-1.273949,-1.5475926,1.5769277,-0.69076455,-0.9692859,2.0361757,-2.191677,1.8003623,-0.17970997,0.06780082,-0.5490184,-0.5269411,-0.07609598,-0.6776942,0.88553965,-0.96521,-0.1280795,-1.4380472,0.549131,-1.498049,-7.9571366,-2.049121,-0.29860657,1.9931712,0.52437335,-0.6978942,0.21344477,-1.0417556,4.3699484,-2.069095,0.35793185,-2.9924917,1.0516435,-1.6906923,-0.9025078,-0.8932623,2.6422777,-0.43080732,2.7783563,-0.21406782,4.311625,-0.9022097,-0.31412593,2.9246926,0.8057147,-0.8495888,-1.8110148,-0.08829593,1.3989284,-3.7150884,1.1255115,-0.98257005,4.986961,-3.504305,-1.719639,2.0242703,2.7099466,-1.049696,-1.5408458,1.0162967,0.81941676,1.5362604,0.7936256,0.69265807,-0.67782044,0.26199442,-0.65740764,-2.2819784,1.2567223,0.33294258,-2.1965675,1.3941611,1.8284343,0.9105089,1.432266,-0.49027085,0.5185196,0.23102592,-0.24452624,-1.0196432,-0.29845023,4.7131763,-0.48669636,-0.74241364,2.3732216,2.6288066,0.009331325,-2.4052846,2.4891212,-0.72622395,1.7141964,1.1750633,0.26228595,1.5229388,1.7844732,1.624647,2.676979,-0.031229842,1.6751741,0.1978757,1.733492,-1.2374252,-0.16665664,-0.3355773,0.28373528,1.4334037,-0.5048591,1.152861,0.43489018,-1.8949281,1.2120292,1.3020203,-0.09205572,-1.6929225,0.18687509,0.60284203,-0.23534767,0.30671823,0.34934855,-0.005764093,0.57864463,0.50068676,0.607563,-3.601139,-0.7176843,0.17432946,-0.37462142,0.4080233,0.12141179,0.692506,-0.26661578,-0.26224497,-5.2261276,-1.0607752,0.97852534,-1.4552695,-0.9380971,0.08455968,1.6157048,2.004642,-1.0152978,1.3244002,0.35050115,-1.2142535,0.085264154,0.90816724,0.90982455,1.6744562,-2.0014143,0.04143723,-0.7348357,0.018117765,-0.045458734,3.6662939,0.6188022,0.5527012,-0.04703778,1.1590816,0.9765271,0.05242701,0.64828956,-0.7588277,2.1526237,1.2646174,-1.8895406,-0.90139186,2.5967894,-3.679261,-0.2559923,2.3362741,0.31759328,1.9201909,2.9579592,0.48038578,-0.041936357,0.4445694,-1.6275878,0.42892525,-0.20854641,2.1417239,1.1148826,1.6740158,0.99161285,-0.22415145,-0.68719834,0.91074353,1.3332201,-1.0032697,-0.026021894,0.33784813,2.0551758,1.7600149,0.88292736,0.9531419,-0.6933345,-2.0951998,0.11515339,1.2715969,1.634949,-1.0861064,-2.0845559,0.6313487,1.7156439,-0.44708523,-0.4168242,1.3053087,2.2185974,-2.3549268,0.5195438,1.5977111,1.0847396,-0.6273934,-2.8598108,-0.74211156,1.0389934,0.06738348,-1.4852837,4.4793277,0.7137195,1.339397,-0.88547605,0.8388772,-1.1723932,-2.6773715,-2.04103,1.6241668,-1.0089389,1.052016,-2.641616,-5.2761784,-0.46683255,-0.2714064,-1.7151588,-0.12208503,-2.8460295,0.3654471,0.21216035,0.7832971,0.7948649,0.071708746,-0.048907716,-0.7783204,0.9650707,-2.9160802,-1.8016081,-3.9467506,-1.3724024,0.78177434,-0.94328296,-1.4363773,-0.2792358,0.6890369,3.806238,0.4781637,0.39072222,0.70816326,-1.6740336,-1.8263302,1.8248875,0.6659685,-0.36162457,-0.32935008,-1.3660088,1.2202928,0.6115471,1.9790694,-1.5082642,0.75010616,-0.5752567,0.1113338,0.48382652,3.2002096,-0.08873204,-0.37655625,3.7990148,0.017200118,-5.3786173,-4.306188,-0.5483799,0.6493469,-0.75082785,-1.1749951,-1.8650544,1.4780256,5.1595545,-2.7247815,2.2586093,-3.039798,2.0028014,-0.44213656,-0.37091538,-1.6090906,1.5648608,-3.310655,5.139499,0.966224,1.5249536,-1.29365,0.050920807,2.2933407,0.22841644,-2.0361722,1.2277129,-0.50480956,0.64967537,-3.4083517,-0.1568182,1.1031867,1.8891433,-1.6540929,-5.394653,2.3090036,1.7622824,-2.2464485,0.8180323,0.4246678,2.9445977,3.1483202,0.39740962,1.7365241,-0.02214009,-1.3260839,0.09424976,-2.2798762,0.5093185,-0.61810803,-2.4595602,-0.7425718,-1.1179365,0.51104623,-0.5029961,-1.0693568,-0.16303846,1.2842665,-2.257025,-1.4142944,-0.6117637,2.9447064,1.6272004,1.6905527,1.3142542,1.6169806,-0.66317767,5.264843,-1.2404215,-1.664177,-0.049592763,-1.7131363,0.4078325,-0.41707984,-2.6783688,1.6214027,0.9620327,0.04446424,0.20550504,1.0874351,-0.638362,3.3884852,-2.3577006,0.39621317,1.1187267,-2.236396,1.6093522,-0.31237847,-0.3800754,-0.3398059,0.24958526,-0.36553907,1.1424828,2.5973809,-0.7021424,2.0085022,0.72552645,3.136181,0.76405305,-0.92292976,-0.8235189,-2.3079603,1.9246411,0.9074834,0.78595275,-2.6148727,-1.0127993,0.4812918,0.13788459,0.14907551,2.870658,-0.7285343,1.4912142,1.4043185,0.69069797,0.1399734,-1.1171072,1.1193613,-0.7862915,-0.5116165,0.52498454,-3.2242231,2.9216516,-0.8882006,-0.15813088,-1.3706236,-0.36595538,-0.6356732,1.1924248,-0.08752521,-0.109055616,0.57785577,-0.8443649,1.01111,0.19568238,-0.86220086,1.5485038,0.46320388,-0.4752668,0.91130465,0.11365248,1.8852016,-0.7228993,1.3607235,0.013678489,3.2850862,-5.156862,0.8763016,-1.6365634,-0.8819084,0.33422205,-2.4889703,2.4987576,1.2786063,-1.9125322,0.9094278,4.8534966,2.1016743,0.14438163,-1.0919166,4.7296996,0.9553058,1.8565803,2.22255,-1.8207636E-4,-0.8014106,0.15600564,-2.6876407,0.47270244,-3.3188927,1.3507621,-2.3407693,-1.7877913,1.5484312,1.8722503,2.4715893,-3.3932672,1.0744777,0.98587924,1.3700403,1.1980962,-0.4728597,0.31441522,2.3161736,1.2992233,0.56941825,1.1607485,2.0665739,1.1010938,-3.386404,1.10734,0.33511233,2.1464503,2.9985626,1.4748759,0.12113052,1.2035643,0.9797344,0.020738084,-3.2983053,-3.205398,1.740796,0.26468834,1.3252647,1.6266166,-0.0050106514,0.6137126,1.0694908,3.2247016,-1.3537472,-1.2401406,-0.7357836,-0.7922852,-1.8118929,1.1465548,-0.10724233,0.16840181,1.4423652,1.0257413,-0.7108108,-0.1525971,1.3176988,-1.5309509,0.8313223,1.0453289,0.48243448,-0.275883,-3.704927,-0.3867396,-0.7165986,-3.4676929,-3.6522572,0.8830539,-0.23929244,1.4889892,-1.5342176,1.6280357,0.7288395,-1.6440783,0.2684769,2.3292637,3.783459,0.4628061,1.2574861,1.9987799,0.32987878,0.89710987,0.27741432,-0.04342464,0.1783944,0.32526204,-0.8072947,-0.35666004,-0.2690921,1.8327924,0.63673925,2.684911,-1.1932127,0.86503804,0.7243498,-3.2528446,5.3286176,4.5641494,0.46839178,1.2006776,-0.19066964,1.7102017,1.4605807,-2.4056487,-0.36641172,-0.5601191,0.119441666,0.9777621,0.7637492,1.2968893,2.2452521,-0.2606855,3.1307995,0.49714315,-0.94731015,1.9046111,1.8022227,-0.28726625,-1.9392546,-1.4789296,2.6740127,-3.8461745,0.33258197,0.023628445,-0.040576674,-0.9564651,1.2556574,2.5128703,0.9726203,1.0588776,-2.7031012,3.8259811,0.3726849,-0.93795395,-1.7811109,-0.32137015,-1.9576309,0.6569136,-1.3922609,-1.3372681,-1.185488,1.5117809,-2.1389403,-0.21011464,2.2381508,-0.47540528,-0.100773714,3.5691004,0.16470255,1.8770298,-0.7945369,-1.504734,-1.7109812,-0.31386292,1.2538575,-1.1737233,-2.9745662,0.65681577,4.541693,-1.2882032,-0.09452056,-2.4485652,2.7029574,1.0121185,-1.5866185,1.5232766,1.9406027,0.5539685,0.31373447,-0.68975115,0.02278497,-1.5500263,-0.6634313,0.5559514,-0.98466414,0.7215238,0.8800296,-0.39496964,-1.9425709,-0.99851245,2.3832562,0.066054575,-1.9479709,0.24125515,1.7357095,-0.12420849,1.676718,2.3123024,-0.81316376,-0.3448637,-0.21558352,-2.2589808,0.49893796,2.3711662,1.70835,0.65247935,-1.6578892,0.82252616,-0.77702296,-5.472353,-1.2128409,2.3164384,-0.42965737,1.4252871,-3.624682,0.0932621,-3.5688214,-1.1859645,3.5174286,-0.48013082,-1.8035531,3.0210354,-0.37776056,0.7544955,4.5822835,0.6808467,-0.59401375,0.47173014,-1.4700804,5.3910327,-0.7180698,-1.0587376,-1.7845687,-0.8265393,-1.8365202,-3.1582763,0.65015066,1.0848362,0.046918854,-0.86501276,0.55742747,3.212424,2.0934424,0.1323393,-1.1822567,1.7582188,-1.5512128,-0.67021984,1.3926041,-3.645513,-1.4924455,-1.291366,0.36119446,-1.2436833,-2.1438181,1.809421,-0.17724574,1.492469,0.41075587,2.169848,0.38384795,-1.0897834,1.0429363,-1.1443893,2.3155525,-2.5247588,-4.5314226,1.1796479,-0.042228293,1.2316021,1.2296627,-1.550997,1.7656009,-0.02819254,0.15807107,1.3638484,2.145644,-0.551354,-1.8599873,-0.1585547,1.1931473,-2.4052024,-1.5513284,-0.6341121,3.808198,-1.2203814,0.74804026,-0.3633349,1.2628319,0.11206027,-1.732621,-2.1109304,-2.510821,-1.7912678,0.42348784,-0.9037108,1.3457993,-0.10519754,1.7290554,-2.234327,-1.6176498,-4.0716233,0.60997385,1.0101137,1.1661887,1.1184511,-0.738263,-0.32082373,-1.9647678,-0.4076509,3.2352808,3.504537,-1.939946,-3.7320426,-1.0629643,-0.11178157,-2.1908433,-0.6390479,1.4962918,0.16926247,-2.387758,-3.4657753,0.5040978,-2.9430523,2.724555,1.1883559,2.5285373,0.39821258,-0.8477787,-2.2583776,1.7179407,-6.1347346,3.0958633,1.6856073,0.7745979,-0.19495276,-2.1019645,-0.7012042,-0.84786403,-3.2755663,-1.2745283,0.7998414,-0.77543384,-1.2458467,-0.503671,0.73228043,-0.43970877,-0.58925885,-1.1335019,-0.831101,0.24287719,-1.8079114,0.08977249,-0.5104399,-0.28239012,2.8107839,-1.0051103,4.057133,-0.4969443,-0.84322006,-2.8295672,-0.22220993,0.7445116,0.9906072,-0.34445375,1.1422439,0.31084707,1.1983758,-1.0680623,-0.98855674,0.5868269,-1.0022401,-1.1527437,2.9224045,0.9434817,1.491434,-0.38777333,0.92411906,-0.027043948,-2.0022166,1.2051184,-1.5907693,2.0548363,1.4260156,-4.1952944,0.113589264,-0.40377328,0.025228761,-0.4671294,-0.63118917,0.64649665,0.36428773,-0.20150977,0.72764117,0.58118975,0.20383996,-1.3873001,0.7599373,3.2018535,-1.6678941,-2.5285876,0.052029554,-5.092958,-1.7795728,-0.7905448,1.8547426,-1.7388346,-1.5859219,3.2759926,-1.8451412,0.08847046,-0.45732754,4.951249,-1.1960319,-0.8949299,2.0312035,-0.5314141,-3.9290743,2.2699583,2.3049357,1.5068966,1.055298,-0.53458434,0.21375783,-4.4365563,1.814198,-0.5106447,0.23515111,4.0406985,3.6100392,-1.30623,3.3430126,-0.10633803,-0.30813906,2.4248226,2.2895818,0.40546337,0.60242695,-1.6482536,-0.8519539,0.058496837,0.9975432,3.2745154,1.452053,0.116104,1.2350712,-0.2750004,1.4038374,0.5066443,0.70791876,1.0144962,1.1018924,-2.2159624,-0.2476878,-2.2090874,0.7550941,1.9927099,1.113512,2.633039,1.4691321,-1.4753587,-1.3161095,2.2009468,0.39763978,0.47607577,1.5588257,1.6502719,2.3505757,0.11692104,-1.705316,-0.39881912,1.4546534,-0.101114295,-2.1339028,0.10418875,1.8328189,-0.01637008,1.5239986,1.688504,1.1661248,1.9841383,0.0816614,1.0376153,-3.2728963,0.011922628,-1.8486187,3.270782,-0.6233846,2.3473392,1.1028981,-1.0742272,1.858542,1.240451,0.059495825,2.574872,-1.1488472,1.9112091,2.4439645,2.1630986,0.6158499,0.33409482,-2.3380198,-1.3043935,0.6579388,1.5724573,-0.4280427,1.4123707,-0.4115984,-0.0072511127,0.8883903,-0.96796405,-0.59567016,0.41270223,-0.3745798,-1.8720405,0.7292899,0.9130937,0.23523206,-0.1522756,-2.126973,-1.4383392,2.0594983,0.06819907,0.6839425,2.9242735,1.2485007,-0.542647,0.2801789,3.006685,1.6666617,0.5924565,0.8876081,2.0520759,2.3590899,1.2694327,1.7889953,-2.6593857,-0.34046158,2.7408128,1.7951621,-3.08719,0.20186068,1.5460978,-0.027689729,0.8973622,0.837382,0.58245116,1.0638123,1.4567275,-1.3154103,-0.33290702,1.5753161,6.172252,-2.132571,1.0698233,-0.50255144,2.4105375,0.39684588,-0.12736371,-3.0175953,-1.24123,-2.7286541,2.6514878,-1.0421174,1.4398252,-1.3654114,-1.582411,-1.6735148,0.12999703,1.1212208,-1.037015,0.9436051,0.08046741,-0.20595202,1.6510679,1.6301217,-0.48428115,1.7402375,2.0553794,1.7257775,-0.59205025,1.3661966,-2.0201356,1.7078605,-1.5556558,-0.2329881,-3.114888,0.11140388,4.400022,3.2178516,-0.53715414,1.4109331,0.21001454,-1.0065987,-0.13207576,1.3498548,0.6900472,0.73401225,-3.7835288,-0.48479033,0.3933792,-0.56961656,3.6257513,-1.798681,0.3064081,1.8815528,-0.19921492,1.5167105,4.1749997,-1.1348908,0.52953666,4.990757,0.5807156,-0.39593536,-1.0137697,-0.49841627,0.5528987,-1.957807,-1.8858443,-3.0696,1.7213969,4.0888953,-0.6664113,1.1386325,-0.39439875,2.56924,4.358004,-1.0124329,-0.2494282,2.0213878,-1.472531,2.2129383,0.7702074,-1.5745577,-1.3871855,0.057117235,0.19693792,-0.3035635,0.05924311,4.132654,0.22560816,5.8857336,0.4386907,0.7944386,0.3281379,1.4241929,0.20910186,-1.6545999,3.8272257,-1.3462836,-3.1221778,1.6126957,0.5567632,0.89549047,2.9501495,-0.8259484,1.5808605,-0.02427441,-0.23189007,2.2852619,1.7656611,-0.72551924,-0.14960422,-1.0230007,3.3465927,-2.0157633,-0.5627056,-1.0086737,1.623866,-0.48526987,0.08679468,-2.0881078,0.65690804,1.2883762,-1.5284988,0.66224355,1.098437,1.0266984,-1.8168693,-0.2375128,3.1905048,-0.6616706,-2.265407,-1.3418294,0.5156589,-0.49456128,-2.4680524,-0.41159338,1.9169422,0.6702048,-0.42746478,-0.9700379,-0.19800954,-0.9174012,-0.42580006,-2.255091,-0.21027856,0.57081723,-0.0976389,0.44067043,-1.2281361,-0.54592675,1.5997351,0.44049203,-1.0243666,0.27986544,2.485567,-0.23425533,1.3160324,1.1430209,-0.77304107,-0.72626495,-1.4994829,-0.98778945,-1.0850719,1.2848401,-0.6621481,0.2990868,-1.7666149,-0.021642243,-0.51176167,-4.0444913,-0.54561394,2.8100708,-0.37025282,2.0605328,-1.7778571,0.38372472,-1.4862115,-0.6693903,2.7427783,-0.049392905,-0.99319804,2.3019862,-1.3647844,1.6239142,3.011903,0.74573344,-0.9038134,-0.13075621,-1.1890472,4.9116335,-1.0311015,-0.6434669,-1.4314017,-1.6178006,0.013526982,-0.9957475,0.16425754,0.5239881,-0.6077015,-1.0324411,1.1657274,2.1403399,0.9066185,0.009266869,-0.99406683,2.036265,-0.57366055,-2.0343566,2.4929547,-3.6552165,-0.69703066,-0.4290511,-1.099003,0.53733313,-0.6487806,0.6260502,0.04075965,0.8794229,1.6824068,0.4986205,-0.15195963,0.26524985,-0.07558244,-0.22604415,3.8371964,-3.1316562,-3.2976468,1.3421456,-1.5562432,1.7303381,-0.81597596,-0.51130563,-0.20439559,-0.81208056,-0.114642985,1.6113663,0.96269214,-1.8147055,-0.68798614,0.8489292,-0.1876114,-0.9136683,-0.90579826,-1.0158694,1.092828,0.37292856,0.72786254,-0.30198407,1.7076011,0.57316774,-2.6436942,1.6792206,0.37069368,-0.34600887,0.84313804,-0.48633543,-2.567235,0.7609883,0.5040922,0.14231703,-3.8083675,-1.247469,-0.22904779,-2.5309572,-0.24347885,0.5489477,-0.9618487,0.034801934,0.95333546,-0.35419726,-1.9600112,-4.2561126,0.15010178,0.48887473,-0.2686707,0.69283074,0.025965542,-1.9257472,2.0248582,0.17308412,-0.71714467,1.0719641,-0.39369422,-0.8882299,1.4449838,-1.9063318,-2.6363332,-1.915342,-0.33176252,-0.98890525,-2.6304696,0.9451043,-1.3634095,2.6612082,-2.2948623,-0.7810334,0.39087185,2.5300016,-2.164798,2.9226012,0.24544299,3.6971412,4.956509,0.22935937,2.9608357,3.6629276,0.5584669,-0.5109623,0.055222932,1.432029,-2.2282407,2.403803,0.22367822,1.4291431,-1.8618174,-2.1011052,-1.4558206,0.682962,-1.8250734,0.76504123,1.1545182,-2.647225,3.8701541,3.496922,-1.5548893,1.675037,-1.8843254,-1.5734142,1.216717,1.0897481,-2.9897518,-1.2148408,-0.5052585,3.9845407,0.5948656,-0.66099006,5.4284873,-0.24461204,-1.1447312,0.7528778,1.2513964,1.806427,-0.9170602,-1.2209191,-0.754781,-1.5733802,-1.0507187,-0.48746753,-1.5046545,2.7853281,-2.3603303,-0.28102702,3.194839,2.87178,-0.7757851,-0.653733,-1.544302,3.65424,-2.5073369,-0.31792057,-1.4447572,-2.0495937,-0.53806186,0.74228305,-1.3147682,-2.3057368,-1.0803351,1.0573914,-1.9892147,2.920994,2.439636,0.5594299,-3.91047,1.7699039,1.8961041,-0.85173815,-0.87476045,-0.80543405,-1.7281277,-1.9992952,-1.7822605,-1.0900635,1.4920881,-1.3803827,0.7641984,0.324683,1.9159579,1.601589,-2.698447,-2.137899,1.873198,0.6439113,-0.5915173,0.99371296,1.5104148,1.5396326,-1.490368,-2.1772423,1.2523199,1.8984551,0.584867,0.35811424,-1.5780535,-0.47195637,0.2385977,0.86065847,-1.8622925,-0.35768062,0.23130718,-0.7050862,-4.4099307,-0.2912927,2.177191,-1.2678307,0.7451271,-0.041499972,0.53918445,-0.27811113,1.2793835,1.9503903,-0.6627417,0.9104399,0.21190228,-1.5667267,1.3310218,-1.9665442,-1.2118384,0.88195395,-0.7952803,-1.2315167,3.1409636,-0.73384666,0.20717871,0.48793674,-1.8357548,-1.2161945,0.65661293,-1.4626433,0.6235755,-0.90295714,-1.1435604,-0.27702612,0.20755872,0.9632375,-0.015302915,-3.8540926,-1.0741663,-0.98233604,1.2234367,-0.49165538,2.195972,0.40452302,0.08313263,2.012178,-0.6403052,1.3523469,-1.6454211,-2.4230237,0.101742126,1.0134605,0.66272676,-0.10181769,-1.7579533,2.5831892,-0.89999044,2.222358,0.19716527,-0.28116098,2.5854402,0.708901,-1.9439821,-1.0813373,0.2887651,1.3359622,0.21096945,-1.8022395,0.8486269,3.1622186,-0.94628435,1.1108477,-0.8843872,2.899216,-0.05529096,-0.045063734,-1.9956067,2.0653896,1.0958426,0.8447218,-2.4116998,0.3381564,1.624172,-1.6840713,-3.4383252,1.2126478,0.6793785,-0.6296617,1.6188109,-0.10879247,1.8348064,1.0539576,4.3271008,0.118776545,-0.99681765,0.9098349,-3.97541,0.7213372,1.947533,1.2805669,0.5594859,0.8468115,0.7056157,-0.09776839,-6.410778,1.4488252,-1.061615,0.18067473,-3.5389693,-1.1682242,0.9525202,2.1101904,0.7319992,1.1520281,-0.19601688,1.4446266,1.2527283,1.9764769,-1.5950711,-3.1304808,-0.37701112,-0.032420523,-1.0010232,1.6432692,0.35746646,-0.40277383,1.183064,1.1433331,-0.4629608,1.2764444,0.41469628,-0.46629468,-1.0217279,-0.21034521,-0.7688924,-0.5085031,-1.5661094,-0.15240672,0.083226785,-0.97636193,-3.6383238,-0.46512985,0.6330504,-0.24651182,-0.11255412,3.7229002,-0.1785723,0.9047065,-0.015912293,0.5829343,3.6456158,0.60008025,2.187084,2.144355,0.07773583,1.1673542,0.48512098,0.3165917,0.3805574,0.67114353,-2.468521,0.93097204,-0.18089996,-3.517936,0.59709704,-0.7925145,-0.5081872,0.8147222,1.8753775,-2.2246275,1.8486698,4.8370337,0.03362738,-0.4268158,0.5952539,-2.053637,1.107766,-1.0235845,-2.4863505,-1.1993003,0.36710018,-0.7993918,0.66940206,-1.1851807,2.556585,0.15113312,2.6108217,0.74365366,-1.0990012,1.8016948,-1.7499458,-2.7729902,-1.1165196,-3.6613603,-1.3142412,-3.364495,-0.7247378,0.29901317,-0.7600928,-2.2423656,1.1057262,2.8030643,1.3348786,-0.6776943,-1.3675909,1.5136328,-3.9273808,-0.25006196,-0.39265054,0.19508599,-1.7738563,0.74200326,-1.4272717,-1.2484868,0.0038805886,0.92220724,-6.3927226,2.0654414,3.4645991,-0.14381921,-3.4534628,2.439509,1.2653131,0.86515117,-1.8579804,-1.1953859,-1.4645419,-1.081207,-1.4920436,1.5457234,2.6229448,-1.3976983,-0.26592806,1.2624168,-1.7532119,-0.6051592,-1.9416866,-1.3386219,0.45519337,0.70166457,3.1160765,2.5227206,-1.071034,1.2150851,-0.60102695,0.23670739,2.19976,-0.007303671,-0.31432655,-0.3085253,-2.9353,0.69890153,-0.41617942,0.79248154,-3.6075733,0.7634787,-1.215012,-0.46418846,-0.47166392,-1.9918569,5.138684,1.9080054,1.6928267,1.4217465,-1.6175505,-1.3897885,0.641848,1.0058193,-1.7202976,-0.79038996,0.23366845,-1.6742101,-0.8547311,0.49190938,-0.5091832,0.9524464,-1.9812037,1.1125662,1.3656586,1.9148,0.086347125,-0.09369403,-1.4534838,0.7394346,-0.4893716,-2.3668735,1.3508196,-1.2197815,-3.4905117,-0.7113868,0.06094504,1.3941499,0.104292355,0.7103002,-0.9249738,-1.6874766,-1.4369087,-1.4812838,4.4026475,2.7534084,-0.21556978,-1.00628,2.116485,0.07794312,1.8218844,-4.027996,-2.0739071,0.21191485,0.5927465,0.48278773,1.7818865,0.19264822,-0.35619038,0.43073672,1.5636756,-0.78957254,-2.4724066,3.739453,0.018000713,-0.905824,-1.657782,0.18032031,1.8973696,-3.0211227,1.0714966,0.3230507,2.336824,1.8216726,-0.48280454,-0.9217927,0.23227108,1.223123,-2.7206883,-0.88838774,-0.42342833,0.21388955,-0.25148287,1.5305146,-0.009209212,-1.0845772,-2.1050823,0.10793461,0.7633413,2.2686763,0.39534563,1.6858227,0.47186434,-2.096804,2.8921967,-0.63956505,-1.4577659,2.7667437,-0.4915396,-0.9871207,0.029591596,2.120076,2.4112847,0.64697677,-0.5303785,-0.80864084,-5.3460455,1.7815189,0.79578,0.23591572,2.9267273,2.6892462,-0.7953467,2.8439586,0.4757979,-0.16887887,2.1077023,3.5158136,0.23541513,0.6118995,-2.24388,-1.4091299,-0.65830165,0.9618628,3.4650955,1.8209447,0.30866405,0.48830023,-0.2740492,1.4402617,0.09902019,0.810344,1.2303255,0.3482539,-2.3200345,-0.5996618,-2.4539046,1.042624,1.5798223,0.8335424,2.2924895,0.39370638,-2.3737628,-0.8051264,1.5229839,-0.16704506,0.41621915,1.8764371,1.3571754,2.0741758,-0.16220367,-1.5087676,1.1532283,1.6459113,0.7375971,-1.5220567,0.4272146,1.9235783,-0.053934857,1.0910317,1.3988912,1.5516238,1.1356747,0.032053202,0.35692316,-3.3414094,-0.3963044,-2.0580864,2.9841099,-0.10992419,2.473683,1.2852468,-0.95317185,1.8577003,0.98624843,0.07913664,2.6749368,-0.7895773,2.366543,1.7992091,2.0216627,-0.1819816,0.17675853,-2.220743,-0.551021,0.44238314,2.11659,-0.45246682,1.3332117,-0.5166102,0.42920667,1.0141453,-0.96803004,-0.8258508,-0.30235207,-0.5631414,-1.9910003,-0.45914534,0.17779754,0.48574814,0.08364597,-2.4364946,-0.8008811,2.5034153,0.4810757,0.1978331,2.327002,1.4827083,-1.263671,0.544787,2.702346,1.2132981,-0.25702074,1.6688194,1.2131394,1.9711434,1.0777799,2.0336432,-3.6455843,0.661142,3.8046756,2.6408882,-3.6821942,0.8695625,1.2927283,0.19953576,0.44195783,-0.4496001,0.05385049,-3.5225952,-2.3744504,0.24127728,1.7689205,-1.5110631,0.16435464,1.1923512,-0.79159504,-0.43268088,-0.77810836,-0.21571818,1.9592736,1.4420329,1.7022612,2.154028,-1.3215729,0.3411216,-2.557987,0.6292707,2.838789,2.666372,-0.040913288,0.3518336,-1.1889404,0.14878684,0.051906988,0.25575796,-3.5882971,-0.6913357,0.121001765,-1.2536104,-2.5799737,-1.3526416,3.3848495,-0.07705588,2.619204,0.58724314,0.6233946,0.2594534,1.7727404,1.4794475,-0.67022383,0.32385275,0.6482561,-1.5426142,0.40129697,0.47817355,0.6352957,-0.74056196,-1.2792562,-1.6287704,-1.7224361,0.17731336,-1.6493766,-0.17241426,-2.3550818,1.3160247,0.44519877,-1.828091,1.078695,-2.76836,-2.847014,-0.43774515,0.42790437,2.216443,0.6084231,-0.14856306,0.36003882,-0.58455133,-3.58942,0.5785138,1.851773,0.80003256,-0.9908804,-0.04472138,0.88826567,1.2475737,-0.3948058,-2.2651563,-0.6502777,1.1132134,0.8219893,-0.76138747,1.8739384,2.0958946,-2.768138,1.1068703,1.2908342,-0.7743465,2.3254404,1.0910778,0.31620532,0.33598492,0.33833805,-0.09416171,1.491667,0.20127244,0.7837352,-1.0142674,0.3161413,2.4657707,-2.2157538,-1.0131896,1.3114735,0.37179857,-1.3072728,-2.859966,1.0791284,0.30903378,-1.5089341,0.44896957,1.6966845,-2.6165023,-1.0100782,1.327677,0.23965645,0.017379062,2.0808969,-0.16386546,-0.52007836,-0.71100473,3.6569335,-2.2398777,-0.7992321,1.974039,-1.2741483,0.36375794,1.8606551,-1.9592205,-0.4020488,-0.061679192,1.309423,-0.86336744,0.87682843,1.9600087,0.96015656,1.3432493,-0.51203924,0.37435526,0.53090817,0.9686242,-0.25969213,0.22679868,2.1152732,2.1484823,-0.99884355,-1.2887546,0.08537461,1.739692,0.26922855,1.0688553,0.6541882,-0.25026807,0.7368843,1.0470074,-1.6358305,-0.12705223,0.4306702,-0.8595723,-4.377555,0.22862436,0.2707751,-1.390361,0.18897086,0.30408195,1.2640004,0.8414266,2.1880188,2.5857797,-0.9555815,-0.14040595,1.7582614,-0.9079978,1.2953088,-1.0148168,0.055122677,0.4577354,-0.9416218,-3.646071,1.3694539,-0.38891947,-0.9068028,-2.6484618,-1.3885638,-0.26824775,0.38152382,-0.63744223,1.3635514,-2.2391176,-0.2646327,-1.0598772,0.9441959,-0.18419686,0.18786877,-3.346667,1.3128175,-0.57760835,1.6413475,-0.35041255,0.7514807,0.089202926,0.3974164,1.0080355,0.49255878,2.126835,-1.5910231,-0.20730403,1.8455087,1.4684733,1.0454473,-2.2197094,-2.9477634,3.4619853,-2.3783205,1.9065603,1.2026875,-0.7987491,1.2967447,0.66494656,-2.5215547,-0.8524133,0.62405765,2.1232097,-0.11814526,-0.22838463,1.4894772,0.057699084,0.3926186,0.2892138,-2.098694,0.80512583,0.15143768,-0.33813235,-0.48822036,0.5542183,-0.33862728,0.861661,0.097503856,0.8868695,2.2717934,-0.9366709,-1.0157874,2.724801,0.85222274,-0.19191238,1.1187007,-1.7000906,1.14525,0.5197883,4.0739994,-0.31602636,-1.0026112,1.6660013,-3.8756938,0.7620458,2.2021084,0.5490864,0.10148363,0.48518023,0.45863023,0.31874597,-4.960623,2.3138871,-0.2060736,1.7657934,1.3976355,-1.1328484,2.056588,2.4409614,-0.23641442,0.95820147,-0.40209788,1.8237876,0.2677546,1.5752434,-2.9430964,0.9455326,-0.6024034,-0.010344113,3.384896,1.1758289,1.4049232,0.23904198,-0.13580899,0.6405304,0.5891377,0.23610707,0.49985385,0.029727332,-1.5559007,-2.5554426,-1.3855404,-1.1940124,0.12695083,0.33134732,2.1898499,-1.103123,-3.846394,1.3310071,1.656502,0.7482804,0.705085,3.575347,-0.078739524,1.2094047,1.0281286,-1.7425472,1.4734567,1.1048839,1.4337251,0.13380194,-0.9750135,2.677019,1.261003,1.0050257,1.1709703,1.931185,-0.62308663,1.8286953,1.1122237,-0.026886778,1.3911208,-3.0692658,1.8294903,1.0226556,0.75982344,-0.24220228,0.590387,2.0278716,-0.7380054,1.1142803,-0.8204719,-0.69926023,1.1624256,2.3690689,-1.1917747,0.7607975,0.6242824,-1.0015544,0.6779133,2.628584,0.69804955,1.1450382,2.3644857,1.1759107,4.645671,1.8391397,1.2441677,0.62681144,-0.10816489,-3.5147693,-1.9045895,0.64344543,1.0399448,3.2456245,-1.5833712,-1.4723134,0.073812835,1.5315132,1.3440379,-0.5315713,0.47062528,0.43055436,1.6358393,1.0553198,1.3975203,1.2293094,-1.4392196,-0.43311217,-2.1762576,2.4159105,-0.14298785,1.925367,-2.3407373,1.4346899,2.013262,3.587701,-5.017759,0.0896467,3.2339513,0.9513692,-0.0977254,-0.48329377,3.0438752,0.5656793,0.2882726,-0.4333621,-0.0032404815,-0.6791842,-4.5344763,1.6472013,-0.3504845,1.1293234,-0.40047303,-0.22867839,0.77865016,-0.63035434,0.2859885,2.1746309,-1.3926945,1.8508352,1.0123271,-0.23306207,-0.3914775,-0.13255344,-0.7414323,-0.30421206,0.95679784,0.28488463,0.71223044,-2.6681118,0.019614693,-1.8524197,0.036746137,0.5339333,-0.48182982,-0.8057757,0.9386509,-3.1169286,0.40392017,-1.9218986,0.0031225374,-0.70580035,-0.21488412,0.44399363,-2.8124413,2.5265155,-0.13267505,-1.2118741,0.91953117,2.4587414,-1.5440321,1.7803805,0.26128837,0.21195462,3.7264879,-0.1778485,2.4932969,0.9768011,-0.17189215,2.1375887,0.4560334,1.0202106,-1.7173533,1.5852932,-1.6607406,1.3134745,-0.79053223,0.43579262,-0.58259404,-2.1886506,0.676568,0.735886,1.6156433,0.7752317,2.048679,1.932256,-3.0425494,1.8608624,-1.0473361,-0.30125982,0.23770633,1.1228107,-3.000438,0.3077588,1.542394,1.856032,3.1327941,0.47960678,1.8641483,1.3131943,0.68894494,0.71359426,2.862631,2.7921207,2.3578281,-0.8870866,0.13639587,-1.5897721,-1.7366667,1.8674971,-0.8525255,4.455539,-1.7971469,0.5487411,3.3749404,1.195739,1.5853983,-3.300766,0.47278875,0.70858985,0.16951269,0.3568618,1.2774178,-1.5032232,0.17379916,0.23055665,-1.4084285,-0.40382743,-0.45438182,1.5423139,-0.10245391,3.7065833,0.9395396,2.2394526,-6.0506296,0.89887744,2.303939,0.57371014,0.5753309,-0.56538486,1.6075059,0.37650153,0.09793349,1.7523718,0.36143947,-1.0406374,5.219348,-0.38695163,-1.1089832,-0.28720692,-1.1680611,1.227713,0.44650924,-1.4348748,0.13686308,1.2726876,-1.4543092,-0.97122836,0.54424864,0.71225315,4.523018,-0.8402266,-0.42009252,0.45481232,0.5219876,4.279749,-0.11646149,-1.6175767,2.1030028,0.19990522,-0.4709302,0.03723045,1.178614,-1.0247296,2.9620671,0.29219604,3.460446,0.21875769,0.4566552,-0.22462253,-0.37153903,0.6416724,4.6771817,-4.272202,-1.2816286,-0.90593827,-1.400821,3.6797647,0.5033268,-0.24107327,-1.0391418,1.4173222,1.5009867,2.2704506,2.090065,1.6169672,1.3262253,0.19769044,-0.40853208,2.6976564,-1.1150446,0.63842183,-2.1741006,1.5804827,-2.3606622,-1.107649,-0.8619638,3.573401,2.841924,1.8775306,0.94499683,0.01631428,1.4543943,0.7116382,-1.2950091,-3.372735,0.314652,-1.2566706,3.4563153,1.7988665,-0.28558326,-0.85200316,1.5397556,-1.9608871,1.7821523,-6.272616,1.3557426,-0.46260676,0.534253,0.030328214,-2.1771393,2.2526603,4.096247,-1.5942281,-0.10084301,1.7113827,2.478888,0.9816685,-0.7209444,1.8226622,0.10609488,2.1832697,1.4114393,-0.59920746,1.849661,-0.43193763,0.98724556,-1.1744381,-0.7478313,0.21954674,-0.44348854,-1.1401454,0.74945456,-0.040906347,3.2813761,-2.6531987,0.47432593,2.8870049,3.0100117,1.5418941,-1.0889657,0.6956239,-0.18295139,-0.045013912,1.5939602,2.024193,3.324093,-0.6633113,-3.1082873,1.626897,0.81390643,1.9509752,0.9247222,0.06094165,-5.8004847,1.8748285,-0.08400499,-0.17206836,-2.367886,-1.0533447,0.9794362,1.989278,0.8538055,0.9834887,0.14327098,0.92359155,0.7530017,4.3824906,-1.433752,-2.164044,-0.03414473,0.8295286,-0.5609046,3.3766215,-0.088155195,0.5174403,2.2943246,1.0929106,-0.38312602,0.034966838,2.5533826,-0.5116085,-2.3090959,0.6202271,-0.1907913,-0.60983336,-1.7710325,-0.24933602,-0.013283753,-2.271662,-1.3592865,-0.20362885,0.46894053,0.5219141,-0.64915156,2.35361,0.6773175,0.10922593,0.74781615,2.1252174,2.2969346,1.3828226,0.8710408,2.4238162,0.3552688,2.1191046,0.52275676,0.8657593,0.051294636,2.1240988,-0.2622928,1.0315169,0.0461369,1.1488692,0.7448273,3.9622972,0.794799,1.4016038,1.5299364,-3.0332136,2.3841496,4.374202,0.64401394,0.12754029,0.8790686,0.5195006,2.2282186,-0.91894066,-1.0143619,-0.4205435,0.81461895,-0.28622556,0.6871742,0.56899786,2.9220655,-1.139877,2.6212301,0.9842742,-1.0094173,2.5190814,-0.04902722,0.58583874,-0.777083,-4.5181956,1.4253843,-3.450441,-0.12697095,1.4374099,-1.3411502,-1.6504637,1.0930572,3.3054845,0.905624,0.6776694,-1.5635267,3.0360441,-0.2961714,0.24980825,-1.4342397,-0.35703817,-0.78041863,0.7869552,0.8756779,-0.7907881,0.22586787,1.9176396,-5.4547167,0.17195316,2.0965393,1.369859,-3.9225676,2.4552057,1.0028484,0.27128688,-0.121514514,-0.30301633,-1.1040939,-1.6254953,-2.3826654,-1.1503751,1.4340674,-0.7262881,4.623691,-0.5053806,1.8365836,-1.6313305,-2.0540667,-4.310338,1.1837908,0.77051926,0.7106045,0.91476804,0.31947315,-0.47315755,-1.7043695,-0.8863072,3.1830409,3.1324053,-1.6507882,-3.0849516,-2.3987331,-0.39457557,-1.2499961,-0.12598689,0.31331968,0.2788329,-1.4516134,-3.4228272,-0.0494017,-2.8054729,3.8299778,1.14908,2.638042,0.9060087,-1.3330941,-1.4273095,1.4928321,-5.21703,3.053839,1.438069,0.57049966,-0.27189356,-2.0062923,-1.3005681,-0.8240883,-3.9148254,-1.4194992,1.1599721,-0.8246346,-1.6456194,-0.2571631,0.8834169,-0.3690784,-0.91117746,-0.28633648,-2.1210432,0.46804106,-2.199138,-0.36872306,-1.5167037,-0.021017477,3.4002216,-0.44239688,4.035192,-1.3443264,-1.2332957,-3.5178971,-0.31805667,1.0259954,0.9884889,0.6533518,1.203843,-0.08483322,1.654225,-1.8527755,-2.3975596,1.3458643,-1.0710628,-1.4450235,3.5365322,0.95024335,2.1280916,-0.65432394,1.2691041,0.24692184,-2.0205622,0.84729666,-1.5044863,1.7525209,1.1732342,-3.483473,2.58306,1.0346032,0.31618318,-0.23184651,-0.777983,0.7767351,0.6487187,-0.5512938,1.1222177,1.0891469,0.52025807,-2.5563924,0.93010706,3.6186,-1.3160771,-3.2979436,0.07807964,-4.051115,-2.1467075,-1.322103,1.5226803,-1.5570291,-2.3958526,3.7206216,-1.5346568,0.3545442,-1.7832541,7.988293,-0.8570339,-1.4317821,2.32558,-1.346119,-2.5705123,1.9626371,1.2817256,-1.6512704,0.5603309,1.6399324,-1.4599278,-1.2323514,3.03771,-2.6177769,-1.7919995,-2.9712667,-0.52598923,-1.5528175,1.5871373,2.61177,2.5611205,-0.6472764,0.9600004,0.72397256,-0.1957104,3.2636719,-0.5312215,0.4708882,-0.015741898,-1.4308722,2.2202785,-2.1866813,0.44302672,1.4870526,0.4541549,-2.3423138,-0.83881027,2.3129785,-1.8403636,0.9263166,1.1863654,2.2166753,-0.28919926,0.5687087,-1.7478542,2.5142043,3.1444104,-0.6476141,-1.0002257,1.0395856,-2.1382322,0.29742268,-0.8370731,-1.207506,2.857781,-1.970034,3.8649817,3.859385,0.88199586,-1.2461666,-0.92142797,-0.6984444,1.78375,-2.2201366,-0.10274483,1.22901,0.970629,-0.75704527,0.340387,-0.9136551,-1.0696015,-1.4891014,1.9561806,1.0068471,-0.71629256,1.2425535,-0.35725728,2.5730393,3.9695463,-0.28106558,-0.70481855,1.5681201,1.4732544,1.7319683,-1.6797218,-1.5259966,0.39110744,1.3134736,0.49322715,3.055143,-0.32503805,3.9642215,-1.8211486,1.1517017,-1.1313391,-3.4400284,3.9964983,-2.2361457,-3.1559157,-1.4042654,-0.8239742,0.05331941,-2.170987,0.91749907,0.8835237,0.82580733,0.21713993,1.1479068,0.6094235,-0.6355282,-0.28794998,-0.760825,0.75702876,-2.7108555,0.37298006,-1.3196626,1.0816785,0.52646005,-1.5331676,1.3380247,1.0989093,-0.054822136,2.7084084,-2.1451988,2.3925343,1.3194827,-1.1288948,2.361503,2.533253,0.30647403,1.5596138,2.8998263,-0.8917995,-0.35166878,1.9201595,0.8867814,-0.7784571,-1.5045456,1.4082106,0.8535247,-1.0403898,-0.08518155,-0.6064598,-0.6449824,-0.31334367,0.4422555,-1.6072851,-1.6969985,-2.104427,0.6554533,-1.321288,2.077552,0.15056935,-4.8810973,-1.0389916,0.09448129,-0.27074015,0.428524,1.0289322,0.4164339,-1.1202117,2.858018,0.99140185,-0.101916574,1.8226703,-0.0741708,0.9615935,-1.73931,-0.7992904,-4.0436397,-0.84194016,-1.2327386,-0.16025789,-3.0767834,-0.48885152,-1.0256623,4.2890687,0.113494225,0.7922403,0.3028279,2.3434005,-0.6311771,1.6867036,1.1538929,0.81787777,-0.50470376,0.7313783,2.2269516,2.1109498,3.859055,0.05977645,1.6277442,2.5292633,-1.2337757,2.9348176,3.0783393,0.52357554,0.09645747,5.2153606,1.3382536,-1.0990133,-1.6080115,0.28745455,0.60409313,-2.827957,0.017147416,-2.6801724,0.64474356,4.0442886,-2.0126717,0.38969046,0.8915808,3.0020027,0.18569894,-1.187266,-0.17459927,2.8105962,-2.1984499,4.4316115,2.0953193,-1.2575587,0.62275696,1.1431631,1.860946,0.9058084,1.3819784,4.0406547,-0.79051447,0.0672048,-0.6053583,-0.042360093,0.05187385,2.0932965,-1.1648331,-2.7998152,5.326309,-0.16673797,-1.4309623,1.3702862,0.04438227,3.3977354,4.67366,-1.1863368,1.2716101,-1.5503476,-1.3716985,1.854585,-0.8809863,-0.40673724,-0.9034147,0.28937984,0.90237105,-0.95106196,1.2596552,-0.101982884,-4.5801406,0.21652336,2.6129117,-2.5676649,-0.615152,-0.20765351,0.8782646,0.99164414,0.32678333,2.0454113,2.8317194,2.3304532,0.15730928,0.50613415,2.6907556,-0.09896166,-2.227821,-1.5520107,2.1089928,2.2934704,2.3721495,3.6206787,2.4460301,1.216991,1.7860217,4.074157,-2.083307,-0.6477892,-0.904126,-0.86166745,-1.8583304,0.5859558,0.04957085,1.3013108,-0.15659851,1.8588455,-0.5186227,0.08092909,1.1567641,-0.32187748,0.9205811,1.5602349,1.0059901,1.0250124,-3.059877,-0.44584653,-0.024801122,-2.412064,-2.5090632,0.16525766,0.34434393,1.8307016,-1.1553222,-0.23220538,0.29060894,-2.274219,0.3874112,0.86535525,2.605155,-0.31171346,0.9626305,1.358486,0.9937187,1.2617811,0.9375432,-0.419519,0.21119688,0.22226708,0.38862234,-1.210597,0.25699177,0.79650927,1.5798364,1.1326137,-1.618917,0.104030736,0.49307382,-3.5786738,5.152666,4.0352206,2.923177,0.79920465,0.6585874,1.9606225,-0.0379113,-2.4481986,0.046592288,-0.32554668,-0.2958312,-0.67165023,-0.7357155,2.231346,1.150885,0.1871989,2.5765731,0.3190655,-1.8820301,0.8466388,1.014062,-0.54270947,-1.1874814,-1.2001008,2.8739612,-5.0440755,0.5417579,-0.841522,2.0376253,-1.4101701,0.31367916,2.8640575,0.13442653,2.0645719,-2.423023,4.037512,0.8414755,-0.5299708,-0.90519756,-0.28522146,-1.2059857,0.9356194,-0.9940522,-0.85599256,-0.16241594,0.014775753,-1.4117815,-1.8950264,3.43082,-1.0393803,2.0225792,3.2577732,-0.6374288,3.3598294,-2.7763476,-0.5273143,-0.59206825,