0.17590876,0.711394,0.14232236,0.37257886,-1.031565,-0.1461662,1.7773882,-0.6624035,-0.17814085,0.3240307,0.39765632,1.0006964,-0.2568666,-1.2246734,0.54228365,0.29614386,1.0228653,-0.5931605,-0.05180338,0.25072545,-0.13614257,0.6469398,0.32446,0.7408751,-0.003900256,0.138889,-0.27825361,-1.5513618,-1.1744766,-0.8793756,-1.0231721,0.09197684,-1.9487832,-0.066841364,-0.15951626,-0.41690668,-0.018929671,-0.96143836,-0.5661529,-1.5651525,0.5748153,-0.94318783,-1.363456,1.1135833,-0.5233267,0.19408996,0.09026675,-0.7606533,-0.81401414,-0.02752067,-0.33467916,0.020410953,-0.52993214,-0.81681883,-1.2832313,-0.23856449,0.67215234,0.48597997,-0.99746794,0.6712411,-1.0065342,-0.18488286,-0.9381509,1.8059849,-1.322642,0.7059784,1.2298819,-1.3483107,-0.13638948,-0.2735124,0.08152459,0.17532028,0.5704598,0.40813035,-0.4506404,-1.3474386,-0.4758796,-0.35151792,-1.421487,-1.2495039,-1.1595285,-0.14724357,0.80743724,-0.63762563,0.10724026,0.14971454,-2.6630807,-0.4973448,-0.22896433,-0.51069367,-0.3442509,-1.2790171,0.7335013,-0.13999343,-1.0172213,0.117010735,0.69239765,-0.08245268,0.38456166,-0.5006385,-0.12364337,-0.45256844,-0.55137587,-1.218393,0.6495914,0.683282,1.0286173,0.8425936,0.62160164,0.14864375,-0.14389287,-0.10759134,0.14505364,1.7564988,-0.21760324,-0.7791759,0.045176998,0.8394326,0.025857354,-0.120311916,0.87413424,0.120023936,-1.3450354,-0.42822286,-0.3114577,1.238912,-0.83991414,0.64230037,