-0.27478352,1.0123607,0.38460618,0.25300103,0.37131393,0.019652694,-0.27360433,0.017439913,0.3683232,0.09304097,0.3220146,0.022842595,0.71035755,0.13725168,-0.4077545,0.72645116,0.5354588,0.6675191,-0.9364446,-0.8753398,-0.43789688,-1.730508,0.8684455,-0.5339619,0.5609009,-1.0220734,-0.45182925,-0.55549294,-0.38092247,-0.4212317,-0.97346085,-0.3701002,-0.24570325,1.0920748,-0.42300835,0.058845446,-0.009930687,0.38172778,-1.4668747,-1.6608933,-0.50974214,0.38731346,0.014245426,1.756272,0.5053162,-0.89793146,-0.18685845,-1.3401464,0.6414723,-0.3661097,-0.027805625,-0.7917818,-0.6348291,-0.6768893,-0.6450849,1.2685632,-1.3348027,-0.21188474,-1.1037472,0.07434938,-0.29276797,0.38721254,1.3011901,-0.5520484,0.6324875,0.2939751,-0.269964,-0.46364072,0.06337245,-0.5775484,-0.64767957,1.1384451,0.18771574,0.32438022,0.4113049,0.62243676,-0.84452283,0.5248096,-0.99078184,-0.07335377,-0.14332627,-1.1916705,0.23226725,-0.47034523,-0.5248049,-2.6162367,-0.16402276,0.4027113,0.050904,0.34721705,-0.67545044,0.09831197,-0.411591,-0.6082498,-1.2229638,0.37199172,-0.9802216,-0.33293048,-0.14196357,0.5984649,-0.6426582,-0.3532317,0.74900335,0.9851746,-0.89307696,0.6779826,0.64007264,-1.1601223,0.3281486,-1.4138265,0.59678507,0.10158193,-1.6169704,1.2862567,-0.04507634,0.36393756,-0.43943495,0.30798462,0.55821973,-0.40543613,-1.4962918,-0.15774165,0.122687966,-0.23232178,0.21580364,0.05985016,0.32918248,-0.2554238,