-0.8337429,0.6010359,-1.8059644,1.5923128,-0.6155569,-2.6824605,0.05399841,-3.8401933,1.725842,-0.47081903,-0.69649154,1.8707857,3.1477294,2.77572,-0.5219317,1.4990834,-2.7818966,-1.8878405,1.7101167,-2.0050454,0.2607772,-1.2419558,-0.06757619,0.45506528,1.1728332,1.2595999,2.447365,-1.6941315,1.0511267,-2.6693912,-0.47472095,2.1326063,-0.9128561,-1.4192142,2.0577712,2.1203153,0.80028844,0.23246373,3.2354302,2.057031,-0.99821454,-2.3073792,-0.058610033,1.0010077,0.7018989,0.6839032,-1.7087939,0.2359135,-0.62507415,-2.8989346,1.5308453,-1.9406149,-0.12712003,0.32019395,-0.12164323,-0.8547524,2.0125844,-1.2043132,0.7852769,1.5289657,0.947362,-0.13355881,0.44172388,-1.4991904,1.5676407,-0.17436817,1.1814685,0.6692955,-1.5741253,-0.65280116,2.1197991,0.7439818,1.1136873,-1.411989,1.1470711,-0.19388387,-0.6553114,2.2231348,-2.3937602,1.5026423,2.3585937,-0.097744,0.43699503,-2.252076,-1.8121086,0.5238547,-2.0967069,-0.79480976,-0.4289656,-0.2769511,0.03488874,-0.34615114,-3.12937,-2.8725631,0.86723435,-1.799776,0.055106584,-0.5376696,1.1403575,-0.7288487,1.468398,-1.09639,-1.0711094,0.017023334,0.8596844,0.8501888,-0.3205823,-0.4226779,-1.0046803,-1.4030641,4.4719357,-0.91654676,-1.80723,0.22591382,-0.83648264,3.4569457,1.8199792,3.3635774,0.5895202,-0.7185666,-0.43803206,1.0007313,-1.8302494,-2.444926,3.5757427,-0.8907048,2.2952821,-2.4002602,0.42828152,1.6754825,-1.140354,0.56052774,-0.78896505,-1.2886068,0.8337815,-4.9106727,-0.21233957,-0.9060964,0.81015366,1.344444,0.8084782,2.0875797,-1.4782342,0.7580198,-1.0554993,0.6757986,1.035382,-2.6134827,-0.4098794,0.62560976,-2.2022965,-0.07477412,-0.21293867,1.5933311,-1.4317731,0.50407594,2.0018916,-4.426583,-1.5587186,-0.23215646,-1.2345306,0.3270482,0.48990747,2.302012,0.6378122,-0.59668714,1.7881488,2.2256672,-1.4101684,-4.007948,2.0925453,1.6905873,-1.051688,1.1629859,-1.077584,1.2090242,-0.70099366,-2.685493,0.8351809,-0.53199506,1.6445014,0.4671435,1.6988093,1.2655972,-2.7150772,-3.1832073,1.6544764,2.6413167,1.0327967,-1.956137,0.02620621,-0.10441848,0.7362842,-2.1611464,0.6963273,1.2916636,-1.6101798,0.88870394,5.3444796,-0.56399786,0.4752108,0.61325604,1.3712205,0.35406446,0.69817835,-1.8950006,-4.982886,0.81582546,2.2408514,-0.54813987,1.1914096,-1.9448466,2.6767404,-0.5361463,2.1544902,0.032882437,-0.9270857,-0.18488461,0.5666428,-1.5764469,-4.047324,-0.2501584,3.6936522,-1.6019295,-0.75906575,-0.35033393,-0.110449955,0.711874,2.1352506,-0.15852512,-1.8121592,1.7298969,-0.70867395,0.7676347,0.98489326,1.6711837,1.3667325,-0.6263877,4.1472516,0.49533892,-2.8917775,1.3363156,0.45441785,5.2827435,2.884105,1.6361971,1.5928379,-0.20957999,-0.6663247,0.037226222,-1.7384874,-2.3545702,0.07835404,0.6528605,1.447266,-0.4193029,0.24543132,1.7783818,-1.1298041,3.0497615,-0.25787053,-0.12088619,0.26170167,2.1792617,1.2281905,-0.07783148,2.1721234,-0.8624411,0.18573049,0.8666914,0.83039284,1.178201,2.8887265,-2.9428334,-2.1024745,-0.5925503,0.10737789,-1.8204951,3.3236983,-0.5239534,0.8591279,-1.4184273,0.47009274,-1.0925524,-0.8743958,1.9507835,3.2633715,0.46681613,0.21156102,-0.84083694,0.085207894,2.984106,-0.9655044,-0.2047017,1.8700676,2.1161363,-0.5437448,-0.8412458,2.488124,-0.8001411,-0.18299426,-3.6382022,-0.14873809,-2.9170494,-2.3849018,-0.1176192,-1.5012685,0.43537408,1.2156543,-1.8140289,0.42739666,-0.8171038,8.658589,0.14173016,1.1479189,-1.3844311,0.45945898,-0.60413575,-0.5339398,-2.031706,1.3053441,0.32288244,0.4010568,-1.0589466,0.7801781,-0.84081537,0.34160852,0.792021,2.0199974,-0.47898948,1.5659387,-0.8014923,-0.64460415,3.7912147,1.1553428,-0.55747527,0.62647116,1.5051057,-3.8112123,-0.33392543,-1.1304516,0.009103743,-1.8558385,0.758443,0.27035004,0.7915791,0.91333365,-0.23684117,1.0855596,-0.35590458,1.884456,-0.17031264,1.1825502,1.3101048,0.3022508,-3.3116837,1.4219221,-1.0530139,-0.25885803,-2.1591952,1.1147138,-1.91489,0.19870095,-1.0018398,0.042334568,-1.1204123,4.6557775,0.23039532,-1.2580589,1.6857986,-0.4361486,1.682289,-3.3829122,0.97782564,1.2989954,-0.82723796,-0.3104632,1.0471983,-0.108299606,2.4198112,0.22882748,-0.6942079,-3.4163723,-1.2365645,1.0469956,0.08901818,1.911404,-1.3363625,0.50637805,3.0105836,0.9547112,-0.9483366,-0.013369363,0.13033813,0.122681536,-1.8364617,1.7306627,1.9522436,0.2814225,0.42931852,-0.13075735,-0.13750336,-2.8202777,-0.44665718,1.7148609,0.9091752,1.0386723,0.15705933,1.8770728,-1.2609198,-0.20273228,0.52734905,2.0385423,1.2748834,1.4295405,-1.2046787,0.28108165,2.1152556,2.4542289,2.2720587,-0.3691753,-0.18012783,-1.4494737,-2.5746856,0.017474625,-1.397418,0.027395945,1.6013551,0.9777466,-0.23009752,1.9270037,0.18464532,-4.9948444,1.4454554,-0.86712456,2.395522,-0.8064251,-2.2036023,-3.343615,0.8762704,0.14014474,-0.33341545,-0.9349231,1.5086521,0.034543782,-2.6496112,-0.16738492,-2.0749855,0.3394125,-0.54102,1.9290534,0.34959242,-0.65037805,-0.11484692,3.4133623,-0.31922185,1.1629301,1.2133459,1.3189931,1.0205102,1.7580771,-2.3225093,-2.5903766,-1.0083139,1.8902836,0.36263648,-3.4166543,-1.8415478,3.880139,0.30704406,2.2023451,-0.054321665,0.989467,0.7846777,0.023677245,0.00424534,-0.24998996,0.9853913,3.4705126,0.20050158,0.14897588,2.7427886,-0.25035134,-3.5257387,2.647243,-1.0890324,-0.058893304,-3.9755664,-4.763106,-1.2477417,1.0072166,2.9562209,-2.7852638,0.96426785,-0.07336311,1.9553356,0.56750643,0.50077677,1.7097683,-0.0396488,-0.5047245,1.7503548,2.3709395,1.3155028,1.5142155,-0.068236016,-0.97966486,-0.41593087,-1.7060089,1.8186662,0.0673924,2.664061,0.19156407,-0.55229384,0.73202753,-1.0778472,1.2880945,-3.2108932,0.56185544,1.2156389,0.8699625,-1.0056788,-0.18103908,1.5362563,1.2980094,-1.4444704,-1.6091211,0.612707,0.68340975,1.6910756,2.730698,-1.1508124,-0.620423,1.6106578,-4.78299,1.2086204,0.36988056,0.62347376,2.252208,0.43232724,0.5305505,-0.13391706,-0.25703204,0.459327,-0.36863634,-0.46883312,-0.047620676,0.7261274,0.31224474,0.59741175,-1.592042,0.927771,-1.4465393,2.5529616,-0.1168662,0.55647767,1.0729617,0.32464308,-2.1568167,1.5902855,3.671665,-0.72221863,3.8125167,-1.54227,-1.7856848,2.9866755,2.9465375,3.0205452,-3.7415395,0.6923758,-2.0962057,1.5019993,0.36625567,2.1812932,1.104566,2.4606616,-0.14107321,0.518714,-0.4773722,-1.8664216,0.31280503,-0.024024025,-3.2394543,0.0060087955,1.6741737,-0.7607597,-0.4807039,0.28991523,-0.2899549,-0.2757386,2.4933305,1.4038444,1.2440362,-1.1571246,3.390789,1.0821623,-0.544292,1.2945673,0.4662083,1.7109079,-2.146586,-0.17840977,-0.28205618,0.24307159,0.03133291,-1.6012456,-0.96846706,-1.1875633,1.511324,-0.13966365,0.9992768,0.4785978,-2.5904188,2.3988214,-0.4845311,2.3114445,5.1182775,2.2221315,-1.046095,-1.2698526,2.0964074,-0.5625531,0.03494728,-1.8491856,-0.6292671,-4.091763,0.41701394,1.4454083,0.6630296,0.32368964,0.5138249,0.32647097,0.02727862,0.4630445,-1.726778,-8.20605,1.6664581,0.5613783,1.4488736,-1.7673628,0.81226367,2.3645208,0.73299885,1.829261,0.39885905,-0.44530874,2.5503027,-0.30736598,4.44618,-0.049494468,1.4952626,-1.3753763,1.3174531,0.37745273,-0.67575186,1.0569826,4.008022,0.16703314,4.731389,-0.6697948,0.08598772,0.5190824,1.9270376,0.8423684,0.11271176,-2.7149146,1.2166051,0.11986351,0.6730014,3.0035357,-0.36180967,1.0128427,0.25550497,-0.551977,0.2419886,5.0305114,0.5402782,0.5782624,-2.0722437,4.8890176,-0.48811835,1.4922805,1.8877814,0.86328954,0.22631411,-7.4446244,-0.44697875,-1.6051935,3.71199,-0.6738464,-4.2791276,-0.56977665,1.9329529,0.061866958,5.776999,1.4099636,7.3175488,0.017785123,1.589477,1.0764335,2.7327533,-1.9816552,1.0407392,0.3276505,1.348716,0.025618069,1.3746018,-4.0826197,0.765525,-4.5248966,-0.80783474,1.2352945,3.9965563,-1.150799,0.83306944,-0.37951222,-0.19508763,-1.4066657,2.394679,1.1557268,2.3030205,0.55444825,-4.1120143,0.9449089,0.48297808,0.41362664,0.38668814,2.7861674,0.09208593,-0.73840547,2.2893653,0.10450636,1.7647517,-0.93477875,0.5003771,-0.6181196,0.8545548,0.0016643507,-0.43526536,-0.52523905,-0.4366045,0.7687296,-0.739198,-4.28718,2.855706,3.258441,0.4280682,-0.90881914,3.0800872,0.5420919,6.1747074,0.54869044,-0.50352407,0.24450858,0.15958606,3.3733587,0.420359,1.8406636,1.1622556,-0.19764328,-0.36966342,0.59694964,-0.75260067,-1.9765579,4.7127438,-1.6777427E-4,3.23783,0.14069694,-0.15030532,-1.7495576,2.1940126,-0.9867267,0.123106375,-0.22530918,2.5401347,0.9762985,0.875158,0.6107581,-2.9703944,1.5266955,1.027401,-0.59076536,-0.41309634,1.1086469,-1.5620072,2.9903944,0.8783033,1.2356137,1.1834732,3.3020074,0.17363545,1.3678094,1.4592829,1.120105,1.6226231,1.4027311,2.147009,-1.4165366,-0.84043473,1.2547736,0.9892963,0.016234947,1.7029406,-0.02452278,0.5663172,1.9389722,-1.5885108,-2.902078,0.6112116,2.5119772,-2.3097415,0.012546726,1.1846287,1.618908,-0.16089906,1.937054,0.9944231,0.90314907,3.619944,0.58830535,-0.40231982,-0.6581397,-2.988896,1.8073694,-5.125951,1.8262151,-2.7876148,2.076324,2.6570964,0.39818013,2.3132172,3.6382077,1.3770212,0.76157624,2.0834327,-1.3402742,-1.3341724,0.8056228,-1.9436319,2.0542493,-0.07267909,-0.81543523,0.43509358,-0.21162865,1.1603038,0.18019044,-0.9661648,0.2462049,0.6459839,0.56945145,-0.41903034,-1.9675487,-0.27419227,0.9042577,-0.39562774,-0.5765147,1.5161725,1.4203306,-1.5113633,1.5463176,-0.36194527,-0.78013706,-2.5814958,0.6027438,-0.12675431,-0.3297704,1.9000685,-0.7141864,-0.29941535,1.0141917,0.7560649,-0.52074796,-0.893772,3.6559777,1.3699113,0.067404,-3.3571234,0.8223081,-2.2103834,0.81865394,2.291562,-0.4902141,0.3741416,-1.0792369,1.2770153,0.25476488,-1.061171,0.5936846,0.64246154,0.9874908,-1.6095601,-2.4703984,-1.3968188,0.21101232,4.6913495,0.20971346,1.4742283,1.7155125,0.37662417,1.4118259,0.044359166,0.09545948,1.7497042,0.5105383,4.5286393,-1.353259,0.58624357,0.038701527,1.2745454,0.5413858,-2.4300187,-0.2736297,1.7017628,1.0801202,5.1966453,-1.4679792,-1.507188,0.28615662,2.5682154,0.8723712,0.6459682,-3.1210685,1.0899096,-0.30835983,0.606206,1.889798,-0.83754224,0.19565868,-0.9954796,-0.040949523,1.113719,4.564053,1.0901836,0.9419625,-4.496067,4.362444,-0.7332189,0.95553595,0.435279,2.105898,0.3019513,-2.7133222,-0.13813049,0.0039174333,2.839139,0.16108616,0.620721,0.040661745,1.6035519,-1.077845,4.2343774,0.6788272,5.42326,-0.8320771,-1.3417007,0.8249509,1.281035,-2.0435615,1.4240816,0.22087885,-0.08661459,-1.7486103,0.7678724,-0.3966015,-0.22961251,0.13272153,-0.6487785,1.4180923,3.7992647,-0.49925852,0.5242499,-0.48691025,0.73423094,-2.462746,1.2673666,0.4696291,1.9818913,1.8872378,1.0212995,-0.68331283,0.13634118,0.52843785,0.9398349,1.5626378,0.14430398,1.1725072,-0.12685066,-1.9152305,0.40159175,-0.7120299,1.1762477,-0.6649464,-0.69808555,0.5101444,-0.6999382,2.6614552,0.05691039,0.99693507,-2.4835143,0.63202524,2.780258,3.1902888,0.23294656,-0.10393257,-0.16298065,0.5052607,3.2670937,0.5749727,-0.045384042,-0.09531867,-0.0526416,1.0114211,1.5972879,1.3486887,1.1783872,0.2831854,-0.5618263,0.5046207,-2.298237,-1.0189658,4.374129,-0.059357446,4.908306,0.7468968,-0.39706814,0.35341617,-0.65121883,1.9299266,0.46848002,0.41856518,-2.0798104,4.879986,-3.024971,-0.7678771,2.3375077,-0.58412564,-1.7884912,-1.1843976,0.4734483,0.120587975,-0.13369745,-2.2105262,-3.4303746,-0.5630798,-0.6840929,-2.0554128,0.7597351,0.040816195,0.5368867,-0.4040959,-0.1598175,-1.1805636,-2.9158392,1.0613629,3.0576541,-0.1737286,-0.22885899,-0.79188657,-1.0296041,-2.490243,-0.6611379,0.52997386,-0.6168026,0.24421075,-0.9457248,1.2200794,2.382237,-1.9971935,0.10511749,-0.6709893,0.12709439,-0.541657,-1.3405787,0.7406338,4.638387,0.6985997,-1.7845368,-0.047112595,-0.67000455,-0.7676729,2.022988,0.69816136,0.19137241,-2.7660387,-1.6785941,2.276344,0.18835059,0.12722406,-0.28084186,0.31466225,-1.1627616,2.4416003,0.87215334,3.56154,-2.6384773,0.17942707,-0.26485637,0.46436715,0.41268483,-0.04445204,-0.46965644,4.421263,0.99094266,-0.20322241,-3.3083394,1.6468391,1.9758129,1.2595481,-2.2881088,0.69812906,-3.4052064,-0.47015572,-0.93236756,2.085969,0.045154005,-0.5848896,0.10410336,0.52774155,-3.0096083,0.2590835,0.91201305,-0.5566769,0.83888406,1.5266057,0.82581276,0.010085469,-0.49365872,4.027155,6.8432555,-1.8545967,-1.4663038,-1.3855454,1.0954163,-2.0281832,-0.49234438,-1.5409672,-0.8931038,-0.97595817,0.23896018,-0.53796583,-5.236188,-1.0691018,-1.7226708,-0.34189934,-0.21470211,0.8519743,0.30896088,4.306309,-2.4440007,-0.103286445,-5.6523004,-2.0383642,1.2547362,1.3840048,1.9653764,-0.3322989,1.0937378,3.1880026,0.904492,3.0730717,-0.22154689,0.775129,1.7642028,-2.1353877,1.0523907,1.5483963,1.1351485,0.11293291,1.6239176,0.20933372,-1.1411582,0.39827216,2.07263,0.5593687,1.6069093,-0.6207351,1.2418617,-0.27749953,0.508694,1.166621,1.6087494,2.7123966,2.2981744,-0.35654223,1.1308731,0.70455587,1.2654312,1.709467,-0.37376118,-1.0136703,-1.9853319,0.7912008,0.48916313,0.53820187,0.25929296,0.8510793,1.2659705,-0.92549187,3.227846,-0.48092604,-2.039655,1.6776806,-1.5241091,2.6627607,-0.7875545,-1.5926231,0.206972,1.0805047,-2.2021117,1.2269036,0.13083322,0.24707827,0.11149142,-0.43460384,-1.0164121,0.14597997,0.5547781,1.0553174,1.694919,0.043990884,0.90145105,-1.2281313,-0.34001034,-0.36553064,1.2896564,0.316895,0.61728334,0.9694385,0.7177775,-2.044999,1.150539,0.07839139,-0.10439935,0.51936984,-4.812527,0.85530114,3.2784374,1.291226,2.0013883,0.36090013,0.9328379,0.24193753,0.7029245,0.98906964,4.7075634,0.79728234,0.40683258,0.9844023,1.3675731,0.91511774,-0.28397697,-2.573783,2.0212712,-0.11608912,0.7552478,-4.007967,-2.8737123,-0.020795373,0.20838171,1.7509971,-0.44697934,0.67925847,1.51071,1.7478629,1.356549,-0.40398392,1.3028392,0.8197268,-1.2210054,0.95761836,0.77300453,0.8273576,1.8540654,0.06652404,0.51522017,-0.94581807,0.12486976,1.6821945,1.0205275,2.8857682,-0.061890088,1.3307908,0.3975152,3.8109267,0.09806139,0.5932425,2.2175791,0.67681277,2.605668,0.5913637,2.0885677,-0.90890074,0.95481634,-0.22534473,-0.3400305,1.7277442,5.319238,-0.77948993,3.1573648,0.6382284,0.6834248,-0.29337057,3.148669,0.46210954,0.59280354,-2.598136,1.3535177,0.56967235,0.23013234,3.8261828,1.5074837,0.8884171,0.7924507,-0.013391755,-0.08750323,4.3730993,0.11807766,0.49674,-1.8137705,2.3973413,0.13686422,1.9586623,2.7585957,0.43914658,0.6767125,-6.718059,0.5068604,-2.9589856,-1.0080787,-0.39867917,-8.334633,-0.23951499,2.4736042,-0.9894139,4.806911,0.14556146,4.1403,0.43458563,1.8893037,-0.24614148,2.5056264,-2.371832,0.9103512,-0.48090026,1.0135382,-0.02352648,1.242939,-5.3427873,0.9968759,-4.407527,-1.433118,1.9651692,3.41007,-0.48570427,1.3998005,-0.52694756,0.0026497347,-1.348027,1.6109822,0.35860845,1.0864443,1.6904881,-6.3390408,0.0696572,-0.4859175,-0.4882758,0.47191328,3.263705,0.779783,0.088375084,3.7711248,1.167342,2.8236535,-1.2439337,0.30480194,0.080459625,0.08306522,-0.7661604,0.4932566,-2.3423436,-0.48839757,-0.30968824,0.3630912,-6.7458897,-1.2270272,0.53469926,0.94015193,-1.1661423,3.730719,0.1350188,5.3594375,0.7182235,-0.07265249,1.010719,0.15072036,1.8085909,-0.26399806,1.1877104,1.0441432,0.17865093,-0.2399657,1.6712534,-0.8891004,-1.8056713,3.7643478,-0.3694872,4.052003,0.22666183,-0.37633952,0.99302804,-0.15211326,1.3919084,-0.2985645,-0.7805963,1.02955,-0.9870196,4.217523,-1.8635759,-0.71142924,0.94223684,0.9527747,0.66663164,-2.912522,-0.51503456,0.114985645,0.8953168,5.5925593,-1.6570745,-2.3689249,-0.9633575,1.6271484,1.5893064,0.30706778,-3.0668957,1.3940152,-1.4057484,1.1629556,-0.61474913,-1.7286794,0.41666177,-1.4854687,0.2506688,0.6454815,2.4085863,1.152742,1.4108906,-3.7559152,4.2870507,-1.4904656,0.94013315,-0.31694844,2.4468143,0.53379506,-0.8313891,-1.267879,1.2501545,2.645482,-0.7737479,2.8392982,-0.51041085,3.9617906,0.07874518,3.4584801,-0.8451367,2.270772,-1.5208395,-2.1193647,1.756902,0.5659651,-1.9093364,1.8251129,-0.07156683,-0.7261587,-2.4029977,0.28395167,1.0705645,-1.679527,1.9627832,-0.35472205,2.6361444,3.0886536,0.055602036,-0.09388997,-0.30400103,1.7606102,-1.2306647,-0.5666069,0.49430406,1.6302391,2.014442,3.121853,-1.6649411,-1.4625603,0.5350162,-0.96392477,0.7926856,0.7449976,1.8720738,-1.3689634,-2.3895473,-1.4120262,-1.8533274,0.23368065,-1.4544766,-1.858404,-0.45356274,-0.30360788,3.7687316,-0.8040538,0.29169673,-3.3212006,3.124586,3.410099,3.7416084,1.3189781,-0.39715815,-0.47432014,-0.7285814,2.400408,0.87096405,-0.18606193,1.9219724,0.19503886,0.56793344,3.3190744,0.68310344,-0.012582456,0.7225198,-1.4706355,0.8024074,-3.1880276,-1.9085377,5.3360786,-0.13972086,4.708418,-0.28047806,-0.28293416,1.3495595,0.20053159,-0.65829057,-0.5209,0.13073155,2.8713632,-4.898806,-0.24301265,0.04987983,-0.031686015,0.45293066,0.6136765,1.880867,-1.4295685,0.24098065,0.65485483,1.1744586,1.9229068,-0.41894433,1.1777331,2.1673222,1.9336513,-0.27717417,-0.16286294,0.75006765,-2.1062062,1.1656964,3.4765208,-2.5871317,-0.08160921,-0.7686149,0.06106543,0.55017567,0.56931007,3.630235,0.053294316,-0.63751113,0.6334991,-0.42716593,0.52641517,-2.5551264,0.4673095,1.1570542,-1.1919173,-3.2290263,0.56783503,0.037322227,0.26107863,-0.9170157,-3.022682,-0.04876628,2.2915392,-2.6759462,-1.0327075,1.1957324,-0.8454925,-0.5396011,0.09701184,3.816458,2.0064838,-1.3888452,0.5671958,-0.74409,0.28257006,-0.745995,2.292999,-3.5698335,-1.8696547,-3.5065897,4.72978,-0.17703098,1.5414988,-0.2792982,1.1516999,-0.40041152,1.4303746,-3.022098,-0.23484567,-0.13771422,0.9479192,0.082662486,-5.5724664,-2.257118,4.626032,-1.0218132,3.8591082,0.08644246,1.2434816,-0.7889863,-0.11722925,0.29130295,-1.1992011,-0.6285874,3.1655855,-0.5315682,-0.5411627,-0.26415634,-0.984496,-3.9310555,1.8724841,-0.4539008,-0.42769358,-6.696101,-7.347291,0.41100624,1.8012353,1.6937028,-1.0681782,1.4289256,1.5627904,2.474102,-0.20771948,1.8868356,0.47627318,2.9585137,1.4181765,0.9477608,0.42738357,0.24827422,0.5090206,-0.59708494,-2.070172,-4.608935,-0.9775424,0.5273366,4.2914815,2.655406,0.45443395,0.7226864,0.94387335,-0.0677564,0.1063318,2.3897812,0.8203772,-2.1357136,-0.89090014,0.36036852,-2.1893492,0.05424821,-2.0869565,2.4581969,0.3085854,-0.9516942,-1.378891,0.039652567,-2.720053,0.8668913,0.38465542,2.0880334,1.9107591,0.20774764,0.7367284,2.3573785,0.98763096,0.727822,1.587942,-2.7091017,0.03344098,0.5548012,0.37749046,0.33823478,-1.5271279,-0.9846151,-0.5600911,0.6368222,0.66962796,0.6204378,0.918521,0.73656064,-3.593113,-0.66898775,-0.72465914,-0.06334447,2.6117456,-2.8776548,-4.380399,2.2766252,-6.1663322,1.3996087,0.5220232,-2.9455419,-1.6621,1.9273603,-4.0420933,0.7225814,-3.3345094,0.251418,1.0027866,0.030807177,0.008244283,-2.3277483,1.2824538,0.14596282,1.3550057,1.3080285,-0.7895609,-0.2812401,2.0857632,0.9912035,-1.8994201,0.27083802,-0.52057654,-0.58623856,1.8920575,-0.37840718,-0.52443933,-1.6993127,-0.65770394,-0.0021555633,-2.0322394,-0.87382853,1.1575137,-0.48294708,0.66397697,-1.2209959,0.98356766,-0.79025614,-3.2781405,-0.060214933,-1.6199379,0.7181534,1.7780249,1.3562613,0.41509447,1.5153465,-1.3307179,0.9730098,1.5329127,0.29949388,0.12692505,-1.9603235,-4.530764,-0.066170946,0.7309913,1.964626,-3.997154,3.1807816,-3.827399,0.9478309,1.9052621,1.8437518,0.24394606,-3.3847947,1.3462029,-0.12401264,-0.5861011,0.46305192,1.0021187,-0.49696195,0.15910661,1.7049465,-0.7755281,0.63215166,0.8070176,2.0982237,0.19162133,-2.5217648,2.3033383,-0.6403757,0.17858228,-0.6029112,2.3485467,1.1340222,0.026722832,0.12467928,-2.4714994,0.8541974,1.7645149,-0.49184486,-1.00668,1.4987291,-0.9393061,2.6021712,2.7617083,-0.26475954,0.82505673,2.3850598,-0.121395424,2.0104952,1.8026845,-0.2660854,1.3183535,1.0357796,2.0260506,-0.6955948,-1.1232919,1.4051,0.42699426,1.4168881,2.1083252,0.14297782,0.7455631,2.0284936,-2.2960706,-3.396088,-0.50114906,0.6743262,-1.4641225,1.8596178,1.85164,2.6548553,-1.5051322,3.6219811,1.2151952,-0.9004519,3.1930842,0.6328644,-0.11245975,0.6421656,-3.1052325,0.94022906,-3.2674575,0.15874398,-2.2753532,1.9393873,1.7522378,-0.55251175,1.9107338,3.4628284,0.6055279,-0.09750224,1.0437107,-0.6390927,-1.2303079,2.2829802,-1.2312354,1.5183874,1.7824086,0.7723477,0.97505975,0.84121674,1.4434431,-2.1145937,-1.128305,0.74521184,0.575641,1.1299589,1.0588902,-1.6828612,1.5246297,0.97444105,0.035517335,0.09216367,-0.096491136,2.2903574,-0.93270206,0.9059908,0.5726088,-0.29808146,-1.7857696,-1.0596979,-0.7095422,0.00486619,2.509138,0.103291996,-0.3349656,0.6088289,0.08379857,0.06840366,-0.74202573,1.0703924,1.7907075,0.33797637,-2.8664904,1.7301928,-1.3182319,1.0021787,0.5437185,-1.4590143,1.3578981,-1.2454667,-0.67200947,0.15655865,-0.12327247,1.4406078,0.03370504,1.6609713,-1.7421521,-4.4881625,0.69562566,0.5967433,3.5021489,0.69730395,0.85471654,0.5450981,0.35493657,-0.47773838,0.18939146,0.4457441,-0.8187924,5.7191296,-1.1909251,-0.17151678,1.1321071,-2.0626383,0.9652631,-0.4972529,1.1407194,0.09822448,0.46096528,-0.15711333,-2.8445413,-0.20439248,0.6181764,-0.87504697,-0.37392208,-1.3137603,1.6786402,-0.72225803,0.9869,0.18285878,-1.3535815,2.5343304,2.0521317,-0.42878807,0.48158196,-1.6767099,1.3662467,-0.3571684,-0.7073206,-1.4788089,-2.560571,-0.19783095,-0.57223755,1.4374727,1.134088,-1.3482476,1.7606679,-0.98658824,0.7903273,-0.08872153,1.7469026,1.1931704,1.2657738,0.46791503,-2.7743018,-0.07651314,-0.24467815,1.1099796,-2.8659065,1.2118311,0.81118256,-2.1418042,-0.9828062,0.5269538,-1.1749334,2.6348236,0.9616778,0.71572644,0.85671484,0.32261312,1.2029667,-0.15653445,-2.9453886,-1.242349,0.4018736,-1.1409726,0.104618385,0.17964894,-0.97504103,2.6794877,1.7674023,0.43851244,-0.7588076,-0.36070836,-2.9764776,2.036262,-0.21627894,1.9834929,-0.9043851,0.21532194,-0.10024221,0.16484725,1.1930549,0.054009393,2.4701731,-0.39613718,-2.1637814,0.6749285,1.5467098,-0.43051535,-0.06832636,-1.6627787,0.68287176,0.45146275,-0.087507844,-1.8111327,-0.18762669,0.9416303,-1.9989659,-0.7141955,0.6944959,-1.8929411,1.100216,-0.6724553,0.18313156,-1.0708711,0.063056566,0.9793038,-5.478295,0.81816036,0.040194042,-1.1125214,0.6982845,-0.5246975,0.86156386,1.1703566,-1.4901485,0.4650044,-3.7392216,-0.5394846,-0.22408848,1.0697688,-0.24526931,2.0176332,-0.5087101,1.7782556,-1.9721601,5.4187093,-1.927093,-0.71409047,1.3550453,-0.63011837,-2.995476,0.0741203,0.11367578,0.70009184,-1.4271574,-2.7326887,-4.0249877,0.25253835,-0.75199956,-2.624578,2.5046747,-0.48156065,1.0081673,-1.3190681,0.3231102,-1.5260359,-2.9861584,1.1765302,3.9260437,-0.32031798,-0.09370829,-0.12626183,-1.2887928,-2.4991722,-0.15725337,0.30125564,-0.55736375,-0.7872515,-0.5766244,1.614164,1.7334448,-2.3989143,-0.13362968,0.6528738,1.1161351,-1.0198051,-0.3999177,1.8960965,2.622684,2.0233667,-0.72990346,-3.1799374,-2.2230635,-2.074769,2.0051415,0.6667121,-0.094993845,-2.9850862,-1.5088004,0.31594944,-0.27776575,0.2036474,-0.89643866,-0.80703974,-0.7036425,2.109502,0.51994693,3.3007207,-1.4276263,0.81855613,-0.39401704,0.33318758,0.8174296,-1.0052319,-0.036598325,4.5212827,-1.7832582,0.19890858,-2.8612957,1.8632606,2.040611,-1.481066,-2.517752,-0.3531855,-5.3272357,-0.78875613,0.031694375,2.1273882,0.03256044,-0.7328735,1.2554697,0.6376909,-1.9986548,1.0142813,-0.7707471,0.31724215,1.0502408,2.1292374,1.3518361,-1.2215956,-0.5938054,4.610971,3.6368527,-0.65706784,-0.8207758,-0.9102161,-0.2768434,-2.8633447,-2.2362,-0.7811391,0.056927033,0.25891158,-0.7731115,-1.9373053,-3.7560015,-0.77545506,-1.8842075,-0.30547217,-0.3984655,1.1845591,0.21931715,5.1915045,-3.0466976,-1.01028,-3.9162126,-1.542406,-0.8004904,0.83288723,-0.5634169,0.1828711,1.4282416,-3.0605795,0.093102336,-4.599305,-2.7302208,0.6425044,0.5926099,1.1504505,1.7916853,0.16421266,1.3268485,0.03043408,-2.4706843,0.10502855,-0.73555654,-1.1056256,-0.0728007,0.463274,-1.6902142,1.6452177,-0.05671025,1.277203,-0.48824,-0.41072443,1.0072036,-3.5680249,-1.4290076,1.4270252,-0.40302232,-0.3444552,0.9699643,-1.9187219,-1.0004519,1.6374574,-1.1746826,1.8300177,-0.17648242,-1.4228363,1.15257,0.73349977,0.12654147,2.3173614,-2.4478307,1.3867924,1.2380579,-2.8148572,3.1525638,-1.879947,-1.8129876,2.03697,0.9541661,0.82413685,-2.4899027,-0.8711202,1.0030966,1.7176989,-0.0738284,2.0611143,1.4494292,-1.1914961,1.7032293,1.7404934,-0.84242797,1.9085624,0.2945831,1.9653363,0.8137519,-0.5457433,-1.1807317,0.9151592,-0.027019978,0.40107203,0.994987,-1.5317006,2.1116152,-0.50465196,-1.8102303,0.66512424,2.4870033,3.1044197,1.1898084,0.90133375,1.4683015,0.25893426,-1.881336,1.2402928,0.2004654,-0.4772339,-4.530351,0.5056052,0.27899924,-1.3376075,2.2141836,-1.2435222,0.25153294,1.6811079,0.3253927,1.680298,0.067806564,2.9004412,4.524212,-0.32821912,-0.17648365,-1.009815,1.0057057,0.9297559,1.9410731,-1.051667,-1.8025808,-3.5798492,0.9709985,1.6143165,-1.0505723,0.34449714,-1.412785,0.25930136,-0.7272427,0.29220164,1.9433022,-1.4384742,1.2168635,0.8687803,-0.95798653,-1.2324764,-0.17480914,0.15341602,-1.4288511,-1.5865978,-0.7327061,-0.89934266,1.4640257,-3.3503299,-0.7572798,1.5156515,-1.2551322,1.1914542,-1.9379894,-3.5366457,2.0694823,-0.5286985,3.3299851,-0.92558867,-3.649129,0.8593122,0.9051682,0.69068176,-0.8360601,-0.45940626,-3.340183,1.6767907,-2.3624504,0.35582477,2.0620308,0.3405908,-3.263315,-0.042960856,1.0290514,-0.15308495,-3.3937333,1.0773113,-3.0178854,-0.4598914,4.095565,0.1710309,0.963712,-2.3900874,-1.0001274,-2.4755197,-3.8237958,-2.1544719,0.012784441,-2.9392483,-1.9039217,-0.91914624,-3.418368,-1.6669215,1.5429475,-0.3294629,2.7285006,0.8405151,4.0150437,-0.118630886,2.8436296,1.6405398,1.7775306,-0.65079814,-0.17021544,-3.0076017,2.258319,1.2006946,1.382876,-6.4783907,1.4007707,-6.663312,1.5934694,-0.307681,-0.51071644,-0.7760786,-1.11626,-1.9119985,-0.18281324,0.71105987,1.7904246,-3.128871,0.9495969,-2.7491343,-2.9058435,2.786141,1.1705054,-2.8646626,1.916941,2.6914344,0.84629774,-5.893644,1.3335721,0.5773164,0.62036324,-0.15880531,1.2727267,0.338115,1.3137333,0.20905541,-2.1414971,-5.85558,-2.496459,-0.95351905,1.3335178,-4.6460266,-2.2891715,-1.9681392,0.81232893,-1.24053,1.6213847,0.001828434,-0.49488395,0.56061786,-0.6465539,1.3882984,-1.6247315,1.698199,-1.8649518,-0.56683356,0.83077025,-0.9725405,0.32247123,-1.9360676,2.4374495,-0.7101183,-3.8486114,-0.80746216,1.9547399,-0.54637253,0.07105147,-1.974308,1.1261563,-1.1734066,0.98022515,0.8639962,-0.8297453,2.398208,-3.039106,0.24110413,-0.17760086,0.54493517,-1.1327144,-1.0309451,0.3957789,-0.04114828,-1.9039507,1.3441707,-4.0988965,0.42119518,0.38062432,1.2533399,-0.6207367,0.18379319,0.9499857,2.1421452,0.25651708,0.70337147,0.31884244,-2.7753484,0.53889257,0.50137186,0.6145028,0.91816485,-0.0013496544,-4.6384845,0.07777512,0.6949076,-1.6045015,-3.1736681,0.059394117,0.6285766,-2.2634254,-0.49377665,0.25968245,3.9187248,1.0212237,0.9203455,-3.9646754,1.4954438,5.0808687,1.5799882,-2.1079402,-0.5071241,-3.6336513,0.8267725,-5.722434,1.1246104,-3.372593,-0.6260513,-0.94137204,1.8195448,0.7007993,0.97690815,0.10681783,0.5580983,0.17910911,3.8150704,-0.3441693,4.548522,-1.0980054,0.009137412,-1.8400824,1.2983656,-0.17301726,0.4651601,1.198165,0.6764426,-1.5661641,-0.7688553,-2.1337652,0.7021236,4.4231706,-0.5375049,0.1791667,0.62643105,-0.048017375,-0.7041049,-0.08942098,2.186912,-2.4596133,0.17329352,-2.1419187,1.609039,-2.1773138,0.98936987,0.77245283,0.06076514,1.0435336,2.4650495,0.059808876,1.2691886,0.42306384,4.8811154,1.6117996,-1.5295035,-0.4853712,1.8081248,-3.6063094,0.720265,-4.3059483,-0.5244241,0.8161413,-1.0656037,0.9716004,-3.1248405,-1.173352,-1.510515,-1.2869279,0.876011,1.0005131,0.6610485,-0.71751153,2.2249844,-3.017494,1.3528671,-1.3035599,-0.040435314,0.4968746,1.8616385,-1.133989,0.29551372,0.33438334,1.59132,0.47641417,1.7403356,-0.53346527,0.78781825,1.2411293,-0.5318787,-3.0328202,1.1032647,1.5652572,-0.29706857,1.674269,-2.5771098,-2.219962,0.4637382,0.8319557,-0.6176185,-0.28746247,-0.10966055,-1.5845696,0.5022931,0.395836,0.07135202,-0.5650938,2.1979413,1.0181789,0.51200724,0.43106967,-0.48369926,-3.0795655,0.7878046,-0.86184925,0.021116683,0.7197854,4.791148,0.63057196,1.1731234,-1.380295,-2.8502903,-1.5857751,-4.1011934,1.8588717,-3.1224608,-3.8950217,0.6872879,-6.685016,-0.07179439,3.4709466,-0.92778796,4.2806287,1.3271965,0.022536378,0.051965732,0.7730517,-0.7891024,1.3230962,-0.69991165,-0.572877,-2.6267521,1.7684586,0.84729165,0.6419246,-4.5350404,0.93177754,-4.8408194,-0.8277912,1.4502559,-0.82602006,-0.46570706,-0.72007275,0.023605188,-0.41603443,-0.6864004,0.25246522,-0.8244847,-0.18408053,-1.7940075,-2.1392293,0.9363191,-0.5077154,-0.41937712,0.25977203,0.727539,0.61464435,-3.1052444,0.44737563,0.9478289,1.0787685,-0.29251114,-0.17505379,0.66922414,1.2432622,0.42993945,-1.3381807,-1.7329767,-0.862393,-0.097385086,0.99869186,-3.4036658,-1.4712855,-1.6566982,1.4023685,-1.1514502,2.2066813,0.8076589,0.84547687,0.84529597,-0.4021617,3.033458,-0.6350762,-0.4554721,0.25116545,-0.6405911,0.14045638,-0.60548073,0.95699555,-0.44853497,1.6710703,1.7482502,1.5242223,0.12206786,-2.2434247,-0.07360152,-0.4546052,-2.1785972,2.084659,-1.0572023,-0.09223005,-1.1585354,2.7582412,-0.7290578,0.72098285,0.4540159,-3.2418618,1.3596181,1.4321334,-0.13155097,-1.1288534,1.3324655,-1.1649659,2.8387933,2.325476,0.3816942,0.85043204,2.389725,-0.6893044,2.2301357,1.1526177,-0.52933884,1.6195419,1.0876126,2.8356566,-0.64571285,-1.9543296,1.6189146,0.4264221,1.4394928,1.5173572,0.6516003,0.35552508,2.308762,-2.0937865,-2.1638515,0.087830715,1.6019518,-1.9844143,1.8518159,1.5747814,2.124936,-1.8559741,3.0894685,1.0636301,-1.031173,1.5212313,-0.6782514,1.867701,1.3141469,-0.76792955,0.0655605,-3.8647354,0.0682269,-1.7870616,2.662975,2.33438,-0.6853122,2.1648965,2.6259148,0.73541427,-0.19233881,1.1720111,-1.304517,-1.3375838,1.0901767,-0.7962145,2.5386186,1.214,1.093587,0.4572127,0.81738275,1.8323385,-2.3597476,-0.78101856,0.20743725,1.088479,0.80177337,0.21829277,-1.1676582,1.1648313,0.4779399,0.17098655,0.10813983,0.66755,1.368269,-0.6811705,1.3656551,0.5358886,-1.5582626,-2.0374963,-1.0620105,-1.124322,-0.53142804,2.0080106,-0.0043257866,-0.900597,0.068915665,0.36270964,-1.4861082,-1.1508965,2.0543575,2.9710963,-0.35851067,-1.5829619,1.7312732,-0.44439408,1.9125173,1.3165528,-0.110786974,1.0335488,-0.5224666,0.6252713,0.47096735,-0.5501609,1.4811803,-0.54850394,1.3823476,-1.7119422,-5.356214,1.3667095,0.12617223,6.330305,0.5245706,-1.0639389,0.8575121,0.19936731,2.2544978,1.3177851,-0.72397435,1.1688796,-1.5859609,-2.1518574,-0.059018873,1.0134921,0.21611017,1.8206711,2.7598033,-0.84105647,1.5654241,-1.5988113,0.8477626,1.7595326,-0.6120878,0.7136175,0.11345474,1.6258087,1.6009482,1.1936959,-0.31179905,1.9440484,0.4405254,2.2863278,-3.1505766,1.4099468,2.3332984,-0.015558187,0.9659977,0.7064044,0.06670224,1.2538768,1.5827496,-1.557123,0.6983905,-0.3630664,-0.5530153,1.4532505,1.2750564,0.96965593,1.9072082,-0.2971522,0.94710255,-1.4417725,-1.4950684,-0.1912411,0.4676359,-1.0420289,1.3447452,-0.52585757,0.36316514,-2.9697838,-0.30502918,-1.139662,1.6491349,0.9932848,-0.456821,1.4376734,1.2877799,0.5707443,-0.043544337,0.30573124,1.4932442,-1.0122567,0.95122963,0.16177112,0.7092079,1.1279355,0.89910126,1.2329193,0.98218423,1.4626138,-2.180869,-1.1829804,1.2630061,-1.1241233,2.1657448,0.31254527,-1.6987911,1.3498683,1.0501671,0.43721518,0.1278272,-0.76517093,1.550647,-0.0033693828,0.61217576,-0.90787536,0.18166296,-0.3064094,-0.6270561,0.22763574,-1.6078174,1.6354705,0.51773036,1.1043186,0.5940437,0.06645835,-0.27276343,-0.22536898,-1.3873409,1.125503,0.70105875,0.2776269,0.32960445,2.4493792,0.16541713,-1.1223727,-1.1742043,1.5513484,1.9568657,-0.7470095,1.0815082,-1.1797878,1.3526183,0.36837196,1.5325583,-1.9296631,-3.5931683,3.2957044,1.0315702,3.8920574,-0.17541339,0.60360926,-3.5663695,0.61786705,-2.5582075,1.297783,0.030042963,0.80882156,-1.9270698,-0.6643884,0.40099055,-0.40194502,2.7894762,-2.3286593,-1.6213654,-1.2085625,-2.7242088,-1.449866,1.4281933,-2.576622,-0.32729405,-0.17357609,3.541827,-4.5096254,0.68839115,-2.1836166,3.260584,-2.6452005,1.4670162,-0.3116089,-2.3089173,-3.097545,-0.14178796,-0.2955575,-0.65034264,-1.6983426,-3.9406095,1.0970807,0.7744774,-0.24140927,0.20338003,-0.21972068,2.0327692,-3.6744251,-0.44351274,-1.2427771,3.8066025,0.25278044,1.9936541,-2.354131,0.7301179,2.2510712,-0.53936106,-1.1097654,1.579256,-1.1570026,2.3033323,-9.890066,-0.7467851,-2.6974459,0.8127934,1.6732662,2.3665807,0.8534747,0.5126659,0.016795665,-0.50172395,0.006278494,2.9430766,-1.817203,2.5650036,-0.19201899,-0.73049444,-3.3111124,-0.27205333,-3.0917578,0.4162387,0.008445774,-2.075205,-0.23092301,-0.06032303,0.33742303,-1.9333626,6.8505235,0.53936434,1.2909979,0.014994163,1.8386397,-1.9484581,-1.0363753,-0.4510594,-3.0704234,-0.11547173,-1.8462176,1.2230774,-0.793675,-0.049426205,0.2199936,0.09054446,-0.872628,5.1767335,-2.7671118,1.8618999,-0.28514138,6.9021707,0.6920468,1.6347803,0.18322495,1.2164634,-1.2630525,2.8439534,-0.86343056,-0.16904876,0.3271454,-1.5191205,0.22368334,-2.232677,3.208986,-2.897615,-0.13983756,-0.1472827,0.39557576,-2.0401618,-0.023398846,-0.8084735,-1.4741913,0.87223816,1.5009145,0.9141648,0.7147087,-3.4604187,0.6289597,-2.6009552,0.4622189,0.17732507,0.9820326,-0.21551232,-0.7840573,0.24835253,-1.7224978,2.4770002,-2.0788417,-2.2332022,-1.2374425,-2.025898,-1.712651,-0.1635959,-1.8891305,-1.0025091,-0.18868497,3.2318902,-5.5204163,0.49352568,-1.899929,3.7964885,-3.4487274,1.0679214,-0.5523859,-2.7436354,-2.2341454,0.66290826,-0.32275844,-1.6895727,-1.1048924,-3.1217706,1.4910799,0.23754731,2.6575906,0.38428685,-0.33490095,1.1403964,-3.7425032,-1.4993935,-1.2049779,4.344059,0.49341646,1.1223994,-0.17356499,0.636654,2.604445,-0.13592058,-1.5935861,0.2598735,-2.077949,2.3725417,-5.6828947,-0.74676895,-2.9194102,1.3793634,1.3380502,2.108706,0.49039778,-0.010413596,0.055360615,-0.6622354,0.44443917,3.944007,-2.9872818,1.8771257,1.3639642,-1.2800392,-3.2773685,-1.4829777,-1.9801687,-0.20487322,-0.24861509,0.5745373,-0.26466313,0.84501845,-0.037966512,-3.164199,6.963117,-0.15806347,2.3628788,-0.2695461,1.7999625,-3.282175,-0.9628173,-0.9188622,-4.1753793,-0.46108583,-2.6022773,1.2673391,0.13373747,-0.345967,-0.009461609,0.7385038,-1.0838064,4.768065,-1.8312502,0.6822817,-0.80546707,7.802991,2.071418,1.7119786,-0.319281,1.85382,-3.2407382,2.557182,-1.7624559,0.051383827,0.20612639,-1.4644239,-0.18691584,-0.47734433,3.3964748,-2.3287976,-0.23648609,-1.2559692,0.29076108,-1.9471129,-0.61964095,0.5462835,-3.9273582,0.59834695,-3.5868578,1.2975912,-2.2054286,2.1336625,-3.7981362,1.8221066,-0.054340273,-3.2552285,-2.189501,-2.597576,-3.5281367,-0.41378155,1.183187,0.41500452,2.5482626,1.671712,0.81871957,1.274204,-3.1803162,-2.6933756,-0.040460467,-3.0890195,-0.7635466,-2.2501159,-0.30862266,1.182589,0.76328367,1.1403662,0.75613534,-4.375521,-0.6962857,-5.172496,0.079564564,2.6655881,-1.4988863,-0.38941884,2.0835907,-1.3040375,-0.89128053,0.7396886,-1.1050715,2.4319224,-1.9160113,-3.7982764,2.0843666,0.037518438,0.3865492,1.4107999,-2.6164987,1.3290408,-0.1834333,-4.263367,4.102748,-2.251774,-1.1075283,0.95772344,1.0770074,-1.1767111,0.40350798,-2.586251,2.1495357,-1.2806418,-1.1041771,0.6187979,-0.07311988,-1.4016782,1.8548108,0.25999847,-0.6210248,1.640447,0.908047,1.4142361,-0.9423673,-0.20125708,-1.5694859,0.49547145,1.2168907,-0.11347631,0.114353426,-0.17102331,-1.20567,-0.14831012,-3.1421537,0.964978,1.5049345,2.021749,-1.8766453,0.74854857,-1.7544792,0.39385176,-2.7547777,1.1182839,1.2922435,-1.7450724,-5.813651,-2.2973356,-0.8671038,-3.0120192,1.5589273,-2.685514,0.73132056,0.55698717,1.5874448,-0.56178105,-1.37549,2.1577,3.7552433,-1.7088296,-1.2688717,-1.2798705,1.2921544,-1.3289232,2.4202344,-2.8907647,-4.2941265,-3.0331063,0.021304727,3.6339083,-1.1585062,2.2874396,-2.2411206,-0.48454896,-2.1471393,1.1864462,1.2059944,-1.3330431,1.5133144,-0.37975863,-0.34053022,-3.0077279,0.8456046,1.1446743,1.4461592,-0.17878467,0.7671164,2.5461483,0.39250866,3.464654,-0.9387898,0.95587724,1.6352533,-2.886654,1.0631058,1.1790581,1.266003,0.079597056,0.7739955,0.018348688,-1.5696124,0.24269362,1.8954293,0.21907927,1.2244043,-0.9346064,1.6135571,-0.7574811,0.54917777,1.0570973,0.59887314,1.8175179,2.6142676,-0.513364,1.2196593,0.36350316,1.7111381,2.3475437,2.6871514E-4,-1.3988711,-2.0600195,-0.45528257,0.41128266,0.34450683,0.82130504,0.5085998,1.6395152,-0.61480457,2.9971766,-0.3119749,-0.91524225,0.9607245,-1.2204375,2.4915795,-2.127797,-1.5242442,-0.8949218,1.495365,-3.0370388,1.2369119,-0.14887322,-0.90790194,-0.39937574,-0.30166417,-1.3888303,1.2835094,0.5606591,1.0705713,1.5225991,0.21812181,1.2029785,-0.7770639,-1.5331538,-0.99891186,1.713755,-0.056966197,0.5711927,0.82537735,-0.037040986,-1.4911084,1.447961,0.47549224,-1.1596404,0.54917747,-4.3180776,1.4501003,3.0533314,1.7252305,1.1433043,0.43086576,0.54771256,0.4283842,0.7715062,0.89259267,3.911326,0.83806753,-0.03388578,0.61612844,1.7152778,0.09668852,-0.15120986,-2.3086584,1.8865702,-0.05321094,0.72395825,-3.8816826,-3.7298832,-0.81062615,-0.8631457,1.4931645,-0.8218408,0.045620974,0.93790114,0.8888499,0.7246359,-1.0739826,1.2220864,0.62912476,-2.9462824,0.8202277,0.5755393,0.5507532,1.5694444,-0.25266427,0.8411429,-1.3592389,-0.99580383,1.3201888,0.52067196,2.2063706,-0.3915303,2.6074295,0.22443086,4.548262,0.41995344,-0.83766365,-0.2342879,-0.6741684,-1.1505508,-1.0939249,1.6635485,0.11363263,0.5491781,2.8902385,-1.6358371,1.1574484,0.6732901,-1.8456727,-0.2520292,-1.1254565,-0.8028471,-1.3443013,4.149588,1.2474061,1.6633319,-2.2281768,2.960939,-0.05236997,0.8869021,-2.394928,2.51891,2.9767125,-0.4687682,-0.0016112799,-0.2807351,0.15746872,-0.15429732,1.613777,-1.3346729,2.5795376,-1.5441391,1.6589687,0.81816393,-0.2618386,0.4528825,-1.0445551,-0.4565366,-3.0016587,-2.6005423,0.08965147,-1.5629592,0.68165046,0.64362144,-2.0885532,0.28374904,0.4550142,0.8648514,-0.2632449,-1.1132338,-0.6178529,-0.47401974,-0.4226533,0.20793973,-1.7931687,0.3703934,-0.74091345,-1.2860373,1.1400939,0.38378027,1.4287237,-1.3118817,2.4253812,0.9037384,-0.23530547,0.91396815,-0.7900331,1.5178733,0.63628906,0.10117806,0.18450376,-1.0253335,2.9406703,0.2290545,-0.84594923,-1.5266534,0.15986983,-1.3246824,1.5791566,-1.5970808,1.3835309,-0.6123075,-0.93823963,-1.4305245,0.24856852,0.9481299,-0.40010077,0.34442785,-0.009013804,0.28349862,-0.008252303,0.782574,-0.4207593,-1.4537271,-0.19703183,1.3884228,0.19434339,1.0336691,-0.6552087,-0.2554204,-0.3884695,2.7278728,-0.69671655,-0.72386646,-0.9766306,0.33252338,0.38032997,-1.4442515,1.7213103,-0.96923155,0.4672357,-0.52187383,1.8180889,-2.0848365,-1.3791486,1.9066013,-0.3804831,1.3964279,-1.771904,1.3325654,-0.69403535,0.7564042,-2.7410324,0.23548695,0.48334467,1.0929294,-2.8682525,1.0217993,0.42110866,-2.7195947,2.323864,-0.347723,-0.04356415,0.35990477,-1.8435634,-2.6864321,-0.616603,-1.0911542,-0.14966233,0.31161147,2.1937265,-3.4073358,0.45787627,-1.3742458,3.3686423,-1.5574598,0.33785954,0.31417367,-2.7743196,-3.2223341,0.93812424,-0.07878726,-1.4874383,-0.38705483,0.19020183,-0.110842235,0.48684227,3.1131594,2.0172446,0.20381752,0.6090756,-4.667057,-1.0594668,-1.1776787,3.6509922,0.47533774,0.36217403,0.3032552,1.4338158,0.13410802,0.10818684,-0.2809333,0.20908219,-1.2343824,1.9726918,-1.6581041,-0.14537036,-1.141988,2.4744425,1.5994879,2.0960734,0.5861633,-1.887336,1.4616743,0.435871,1.022148,1.7016244,-1.5718076,-0.69036543,4.262762,-0.46971533,-2.3503573,-1.3645368,-2.1187124,-0.3485949,0.3652647,0.5146856,0.34019098,-0.73215115,2.0183027,-3.6933122,2.9784465,1.0394186,1.592489,-0.16132402,1.3865423,-2.9543166,-0.10899421,-2.8236527,-3.553981,-0.07894876,-3.0094216,0.61531526,3.1615765,0.39850023,1.2401475,1.8608046,-1.7020954,0.9751925,-0.37855685,0.5512718,-0.032411423,3.0565362,-0.46511766,3.0768898,0.58633053,1.611076,-3.6349893,2.7302065,0.4513263,0.7565966,0.8602145,0.034767084,-0.77074355,1.1160265,4.7804193,-0.05201201,0.8467934,-1.2040457,0.54760605,-1.9846205,1.5029944,0.59133834,-1.8227013,0.1606502,-1.4886223,1.295037,-0.10130513,2.6758566,-0.19243146,0.8716813,0.6104142,2.0877726,0.64321536,-2.0342014,-0.7242117,0.5269059,1.4539542,-0.8980834,0.17684662,3.882784,1.5905375,-0.2889306,1.2480589,-0.7854296,-1.6633883,0.4358023,0.8575116,-0.9815554,3.9124458,0.48502743,1.1132408,-0.5833997,0.33335128,-0.5025731,1.7572856,-0.5335509,1.0636342,-0.18587202,0.43205243,0.9868275,0.3434408,0.44316533,-1.7129449,0.3269147,1.3400254,2.5115292,0.52673185,-1.9320749,0.07878898,0.06558476,-0.40049502,-2.7911706,1.8390192,-2.0660365,-3.6880581,0.91868407,-5.4600134,0.9994615,1.3425236,-2.0132394,-0.27011544,-0.4720256,4.235342,0.22549988,-0.4661003,2.3281388,-0.22149636,-1.092101,-0.09572529,-2.6580079,0.96704006,0.57403135,0.7125061,1.6629776,0.6822421,-0.3567917,5.478069,0.8273787,-0.71558094,1.0180069,0.85648507,0.020797,2.8682866,-1.2469575,0.39610967,-1.9133605,0.12211854,1.1851273,-3.5897753,1.321422,1.9991623,-0.32609776,0.13227588,0.456258,0.81341946,0.06030673,-0.9192127,-0.07047516,-0.35549626,0.369523,3.4640255,0.8528315,1.3596531,1.6532198,-0.89124244,-1.5116932,3.743814,-0.35195008,0.6508998,-3.1810822,-1.2301865,-2.042897,2.2924826,1.3478752,-2.6437492,0.89174855,1.8075486,2.2558768,-0.15813611,2.3387096,0.635679,-0.28956044,0.8477133,1.2636108,0.6252043,0.84301925,0.97384185,0.26707482,2.0143945,3.3875513,1.2455964,0.9882682,-0.74190646,2.0612152,-1.3789316,1.2281446,-0.20958626,0.65025073,-0.42382374,1.5058421,0.29560247,-2.4807668,-2.076785,0.05601471,-0.92922455,-1.6544255,1.1720359,3.9986923,0.85470533,0.7766607,-0.19200584,-0.6888295,-2.0816188,0.26677048,0.8639744,-0.481013,3.6945972,-0.10534655,1.630758,-0.5097033,0.22655764,-0.47773096,2.4403188,-3.403241,1.3860329,-0.3172188,0.3229224,1.6111065,1.7700452,-0.018239755,-0.9433122,-0.36554003,1.7137103,-0.9146624,0.2555736,-3.1573193,1.1739609,0.8970567,0.40389362,-0.07529085,1.5956439,-0.8198053,-3.4049277,0.072705664,-2.670118,1.5136737,-0.20251083,-2.2510312,-2.8353355,-0.5874784,2.6658847,0.2820635,-2.0185008,2.3934186,-0.8149923,-1.9756838,-0.42274415,-1.9790226,0.11667695,0.034607843,0.9389692,1.7558032,-0.74300957,0.46732146,6.220508,-0.42520487,-0.2966368,1.6146829,1.9591652,0.18679957,2.3944395,-1.1100988,-1.7583222,-0.85407335,-1.0589155,1.6863289,-5.106714,-1.9225221,3.2576315,-0.6517065,-0.084344946,-0.56542337,0.38158712,0.8799422,-2.262806,-0.12512855,-1.919102,0.6257398,3.7934506,0.43518293,-0.1448294,0.8128344,0.15184575,-2.5029752,4.345691,-1.3221291,0.37231076,-4.2931905,-3.606193,-2.889081,0.9439607,2.450333,-4.1981816,0.0952602,-0.104737245,1.0406327,-0.3839678,1.3770016,1.1378793,0.98459685,-0.30743027,1.2075648,-0.46388197,1.0430341,0.71317196,0.78180534,-0.3229887,1.27144,-0.7424931,1.086724,-0.69837695,1.5059924,0.9313934,-3.3367178,1.873685,-3.122699,-0.39411694,-0.4303093,0.70379686,0.38018426,0.9521195,0.084864564,-3.53387,1.0058818,2.881073,-4.3313255,-0.65359956,-1.9546189,-1.5695262,1.5025693,1.7945107,0.6291006,0.2267212,1.312762,-2.7095804,-0.50359887,-0.5217563,0.72677505,0.44109443,1.2774211,0.5000307,-0.3871905,-4.631905,-1.1892903,0.36751923,-1.5224117,1.3998575,-0.8700669,-0.07108999,-0.19806908,0.8582667,-3.0747137,0.33713487,2.0643344,-4.4399056,-0.9790455,0.76938874,0.7063109,-0.35374448,0.35744914,4.991645,1.7718623,1.5297984,-0.26594925,0.37924862,0.42265388,-2.8348236,1.1767517,-4.879864,1.2206727,-3.5727751,0.35140866,0.7129161,2.1350532,0.29905045,2.4334924,-0.05714582,0.56059736,0.3387803,-1.5314817,-2.1245909,-3.2541246,-1.0306298,-0.59755665,-0.28653914,-1.8057423,-2.7122035,-0.7422363,-0.78163475,2.089816,1.7710805,0.5837771,0.79700994,-2.109243,-1.2224373,0.12338693,0.43695873,-7.244713E-4,1.3316698,-1.8003706,0.56072104,-2.1143403,-2.5938203,0.53078777,0.5298055,0.79818445,-1.8636814,0.704607,0.15911606,-0.17714623,-1.3770212,-0.90489084,-3.9772847,0.7547183,0.07135512,-1.9049314,3.1770446,3.63545,-0.37700617,0.037515707,-2.7800136,0.73574775,-1.2661221,0.46239668,1.8755596,-0.038508948,-0.66823184,-2.4271,1.0348526,0.20304112,-0.5523426,-0.7398221,0.63752514,-2.049647,-0.5499227,-1.1639032,-1.391129,-0.29987127,2.2794092,0.5421459,0.5523804,1.0071926,-0.11439799,0.14141323,-0.3908698,-2.4559944,2.1089888,-2.2981527,3.8790061,0.49202937,-1.3377483,-0.77614135,3.6869104,-0.6656884,0.64026135,1.6871887,2.3852916,0.3978951,4.1479163,-0.777845,0.33274892,0.7312281,-1.1522232,0.89968204,0.37166613,-1.2203692,0.49580035,0.36247697,1.2083967,1.1285099,-2.4639661,1.5616364,-0.028047215,-1.4965603,1.8279742,4.653255,-0.31555265,-0.04249457,-0.5912647,2.094841,0.05568144,-0.49070218,0.43888626,0.9824971,0.37836888,-3.6586013,-2.0769074,-0.094367385,4.158384,-2.4765618,-0.9481555,-2.658,1.7039366,1.5059227,3.8361511,1.4107413,4.4857817,-0.57510203,2.556849,1.3763778,1.7772089,-1.2872515,0.1328054,0.25814626,2.3190792,0.9527948,1.2911496,-4.267563,0.47102672,-6.011545,-0.35233676,0.24999277,1.9974242,-1.4762758,1.0445832,-0.7200669,-0.5786718,-2.9966302,2.4451544,0.41631374,2.7359157,-1.581258,-4.2884946,1.9765568,0.004400049,0.2135978,1.1793544,1.9216096,0.33105388,-1.9546262,2.5190291,0.2593143,0.59403205,-2.2829962,0.8923292,-1.6629212,1.1981223,-0.050617438,0.643073,-4.006156,-0.5368631,0.2175308,-0.27258572,-5.3085437,1.9930178,3.2255514,0.39322045,-2.2407835,1.8870407,-0.18672477,4.477339,0.6802474,-1.0405893,-0.57111764,-0.121548235,4.0687814,0.49235776,2.4707692,1.1612798,-0.7769811,-0.67269903,0.5805457,0.7515642,-4.891973,2.959452,-0.5835627,2.7366824,-0.56084573,-1.4169846,1.2395743,-0.9230737,0.46159133,1.3840673,-3.426913,-0.3648356,-4.343659,-3.0844097,0.18761231,1.3575962,1.1055161,1.8528801,1.0540522,1.2787397,0.5099557,-2.4302812,0.17966849,-0.9807196,-1.5544211,0.31231904,0.4828461,-1.8712285,1.3831614,0.43669775,1.9942209,-0.11032983,-0.17317459,1.1920692,-4.6569004,-0.70685166,1.7003211,-0.5052249,-0.05593085,1.0001467,-2.1490448,-0.730589,1.4142442,-0.90454,2.0519419,-0.48861802,-1.7855328,0.9370511,0.4184421,0.30422705,2.2046566,-2.3039243,1.5192933,1.046469,-3.1980002,2.810475,-1.9987788,-1.7750376,1.9602464,0.32798377,1.4052727,-2.514967,-0.96149707,0.7402477,1.8276588,-0.38478914,2.387931,1.3328943,-0.40056384,2.1127656,1.3376088,-0.3970214,2.3929503,0.45319292,1.8271514,1.9257879,-0.595489,-1.6899817,1.1000755,0.40492463,1.0195849,0.9410722,-1.4405605,0.8033426,-0.03805904,-1.3001055,0.7662209,2.1559508,2.1096337,0.9175027,1.3480407,1.2701818,0.17086129,-1.9777503,1.1193545,0.22490023,-0.22730905,-4.4409437,0.20784436,0.72973174,-1.4895113,2.1562903,-2.1246278,0.53064024,1.0709385,1.0473851,1.6820409,-0.11709273,2.6362257,3.2470963,-0.12641692,-0.23376806,0.098336436,0.050014123,0.6318469,2.031918,-1.5584577,-2.1762013,-3.1875355,1.0725073,1.8812749,0.14411268,1.2178979,-1.4990194,0.33683407,-0.33049908,0.47840405,1.2204494,-1.5932064,1.0923625,1.0632945,-1.5745873,-1.8974304,-0.0020823877,-0.93360734,-0.26819506,0.11336076,-1.2524972,-1.0623188,1.4645728,-5.733528,0.47259206,0.27023995,-2.587863,1.4660841,2.3494995,1.5365303,-1.1817471,1.3241457,-0.10492314,0.0766274,0.6653732,-0.46967,-0.18004782,1.2125711,1.654425,0.25684124,0.4452705,1.344249,-0.02129514,0.24515246,2.8249643,-1.8467845,-1.8543175,1.0120981,-2.0173565E-4,0.67006236,2.0796325,2.6723185,0.4166063,-0.06314174,2.706065,-1.0064898,0.09929625,-3.0231156,-0.1996854,2.2006564,-0.021972202,2.1188138,-1.1468824,-0.4617392,-2.0335855,-0.99823046,-0.92611116,-0.09590893,1.3943597,-0.35090965,-0.781592,0.2231833,2.653097,-1.283551,-1.2079614,2.4881654,1.1633035,-1.0622195,0.47551015,-1.8116745,0.5484382,-1.228121,0.6015328,1.2274156,-1.859543,1.101404,5.550294,0.34951487,1.0377327,0.11096113,1.168884,-1.1024202,0.6598352,-2.050242,-2.7017674,0.13101399,1.7489566,0.3786754,0.7144045,-2.9937413,1.9041445,-1.2228477,2.1527734,0.07296552,0.4064458,0.4462161,-1.3834683,-0.5849954,-2.2770076,-0.0569533,4.7629685,-0.5008884,-0.83040076,1.4057877,0.49956238,0.06695824,0.55490416,-0.9749875,-0.8614214,0.29142252,-1.4419088,-0.56768876,0.68326426,1.1258819,-2.8999941,1.2759578,0.6349048,0.63501453,-0.41513917,1.2402867,-0.2514761,1.03415,1.6368794,1.5211807,1.7428515,-0.06421876,-0.7748685,0.8535792,-2.0566022,-1.8886813,0.753623,-0.8385555,2.8658953,-0.04844381,1.8978672,-2.1509051,0.5426499,-1.9953207,-0.5763835,-0.05883357,0.67451215,1.0835246,0.6306847,0.9927474,-1.2787181,1.8132582,-1.4858207,-4.9721212,0.87307954,-1.7003407,1.4041421,-1.8200759,-1.7423531,0.8369422,0.024584787,0.88681835,-4.2615557,0.90336704,-2.0837743,1.8268251,-2.3910668,-0.28283414,-2.4556758,0.8817382,-4.21157,0.8692348,0.62839395,-3.5011246,-1.205385,-0.7313637,-1.7181696,0.9645483,2.6952472,-1.2435297,0.54594094,0.8471762,-1.9871693,-2.5033865,-1.1908919,2.1289794,-0.3497942,0.035470404,3.2826898,1.1005933,2.8522944,-1.2473743,-0.078112446,-0.89135957,0.7328626,0.598867,0.4156471,0.75571114,2.7844872,0.8772072,1.2682809,1.9251351,0.53629297,-0.9691035,1.0817331,0.96237755,0.34872955,-1.4620471,0.2909402,-1.2409482,1.3201878,-0.06272946,-1.3495793,-4.526951,-2.8080099,-2.8424613,-1.3174142,3.3606064,2.8115106,-1.203427,1.0661308,-4.0611105,1.2118193,3.2067578,-0.52090484,-1.586129,1.2024945,0.17974162,0.108294226,-2.97646,0.3821206,0.1113932,-0.012287879,1.0679854,-1.7859584,0.721503,0.8974391,2.1473987,-1.3551639,-2.0404005,-4.243924,-0.35248572,0.5005344,1.1681008,2.202522,2.6808279,0.09583297,-1.1588585,2.705625,1.5216728,-0.8865733,0.31468067,0.9303846,-0.4533746,-2.4572399,-0.36148143,-1.8499374,-1.9323539,0.4126356,-2.7379062,-0.0157906,-2.0096068,2.215249,1.1353712,-5.182674,-1.7514573,-5.738762,0.11864026,1.1434315,1.8368642,0.5958581,-0.2375796,0.24945584,0.9902261,0.08802531,4.163125,0.91742253,0.9259225,1.2691169,-1.6439024,1.5009067,0.5729092,2.0787575,0.45336705,1.8216693,-0.10848031,-0.49465692,0.43254575,1.8166285,-0.6666178,0.25369525,-1.176496,1.8131435,-0.8472443,1.2601866,0.12817474,-0.5474682,2.7553344,2.1924188,-0.026753383,1.3841026,-1.6222558,1.9298295,3.6029766,-0.85595125,-1.2496347,-1.7141647,0.81123,0.08675761,0.82640004,0.40336153,0.45962122,1.8421377,-1.2311912,1.5715313,-0.45256704,1.2333043,1.007294,-0.42180255,0.49008322,-1.2767962,-1.062685,0.71738225,0.9190166,-1.2551689,1.8316959,1.4231857,-1.6196606,0.0351525,0.35336474,-1.0736334,1.666317,1.5382719,1.8665127,1.3136905,-0.96780145,1.7365077,-0.99272895,-1.691893,-0.48588982,2.5986428,-1.9688257,0.31970763,-0.16954936,-1.1687443,1.000647,2.594772,0.29125702,0.5521271,-0.43294376,-4.1961265,2.2092981,0.5232804,1.6752386,0.49951833,1.3023278,0.20179434,0.350061,1.8427018,1.0737145,3.2046294,-0.3066573,-0.27146828,0.86002105,2.1712072,-0.08264728,0.04026851,-3.1529636,1.0061476,0.1630276,0.91272134,-4.0066857,-2.0569751,1.082541,-0.98889613,-0.2660954,0.46693462,-0.73273015,2.630724,0.22304918,0.54458004,-0.58902806,-0.29131156,1.7478207,-3.1352918,1.148063,0.9937884,-1.0126139,1.228484,-0.10245466,1.6797303,-0.2875892,-0.21153346,0.20292386,0.9403089,0.17085944,1.3057975,-1.6522871,-0.74223226,-2.0542943,-1.1080115,0.24907626,0.8229924,1.1109858,0.35727742,1.1673806,-0.87062156,0.83799356,-2.4595892,-4.4927073,1.3654723,-1.3720161,2.2896678,-1.3338994,-1.6555418,0.7741581,0.23164694,0.96408486,-3.178429,-0.18137956,-3.5735517,1.3646717,-3.8217118,0.054583926,-2.6037621,2.203575,-3.8704553,-0.06715709,0.72282654,-2.5341604,-2.7721374,-0.40338975,-1.7258526,-0.21130759,2.8339713,-0.91990334,0.78895783,-1.9998629,-0.89719605,-2.0339794,-3.3044622,-0.480058,-0.161533,-1.0466449,0.90088767,-0.034851883,-0.03998485,-2.012419,0.7788402,-1.226517,1.3130791,0.96993744,2.8544703,0.25812113,2.8875062,0.6096887,1.0722616,1.6065155,-0.45970902,-0.14733972,1.0444196,0.85870486,0.618286,-2.400869,1.1113355,-2.5995216,2.3569534,-0.5580546,-0.6544392,-3.8929415,-2.1721365,-2.299424,-1.7312195,2.716142,2.4276605,-1.2220881,0.90104437,-4.2149124,1.0313742,3.0759544,0.35441822,-2.0729947,1.6207439,1.1276423,0.538686,-4.4027066,0.9268067,0.045974083,0.44230956,0.8088583,-1.8428859,0.6451237,0.8356151,1.1774142,-2.2045872,-2.3290002,-3.9726787,-0.24904333,0.70581573,0.5990413,1.4327708,-0.5896475,0.1584427,-1.535766,2.3237221,1.3244709,-0.45514727,0.68662506,-0.008186871,0.7538415,-2.817115,-0.5083824,-1.7373811,-2.1748607,0.8175588,-2.8959486,0.07681275,-2.4182312,2.4751465,1.9839607,-4.264167,-1.4354564,-6.375605,0.47919792,-1.2522569,1.7455494,-0.789385,2.4143636,-0.18035114,0.57022446,1.0337685,-3.7612607,-0.84036565,-0.12678951,-0.13657498,0.621204,1.4217986,3.9054341,-0.20363936,1.28272,0.3006174,-1.2790108,-0.04578401,-0.3656984,0.098122954,-0.19749635,4.5179577,0.5796738,0.96359533,0.039696984,0.53537637,-0.64410996,1.9970444,-2.4494958,1.6413661,1.3047224,0.06497924,1.326311,1.1254861,0.9742636,0.021019546,0.5371786,2.0947645,0.85640615,-0.09229662,-2.927414,2.0190396,1.2165322,-0.14623858,1.1063433,0.7446641,-1.2756606,-3.9482863,-0.9246198,-2.5483465,1.2770504,0.4920548,-0.55069506,-1.2220048,-0.20050688,3.595439,-0.40886572,-1.3159641,1.6752468,0.3833859,-1.2874575,0.72758377,-2.814213,0.15914892,-0.38668945,0.47735235,2.7667134,-1.0067223,1.1389434,4.4804425,0.4940638,0.36850554,1.2893349,1.5816523,-0.34753785,1.9244573,-1.7855364,-1.4832234,-0.13640034,-0.5242634,2.2780676,0.36919507,-2.8321912,1.5798718,-1.0141289,-0.2851347,0.123492025,0.15895975,0.66584295,-1.2165393,-0.41863915,-2.3303,0.5519601,3.829125,0.0072986223,-0.23214228,0.35372052,0.5308046,0.1343837,2.6575794,-0.9165931,-0.18691453,-0.26982498,-1.7110109,-3.535319,1.149687,1.5557717,-2.6612148,0.49541083,1.5968783,0.8904529,-1.2634945,1.1807513,0.8268047,1.646243,0.20518689,1.2566483,0.11025817,0.9208111,0.23276249,1.035602,-1.4827112,0.7266331,1.189552,0.33324674,-0.018031543,0.6446441,1.6623179,-1.6399258,2.3228424,1.6592786,-0.5622864,1.7795589,-0.0554079,2.1600826,2.3993964,0.12438435,-1.544221,1.1864924,-1.8353347,-2.333554,-0.99855363,-1.6392299,-2.3049545,-1.2443238,-1.0647498,2.2187042,-1.077285,-0.5489518,0.36590683,1.9207158,-1.1730586,-0.5276414,-0.90366465,0.017248452,-1.3525984,0.8728012,1.0095817,1.6214211,0.6672383,-2.084598,-1.9096057,-2.9245605,0.14890821,2.3751314,1.0921888,2.5803702,0.9126767,3.6961067,-2.4426978,-0.7797918,-0.42683995,2.689004,0.99462926,-0.11368117,-0.013006648,4.2227926,1.7416177,0.20379993,1.3363255,-1.4177253,0.530057,-1.678845,-1.1765007,1.5419137,-2.05947,0.053345338,-0.00214779,1.4031777,1.025398,-1.0307939,-0.30093,-0.17304,-0.92654234,1.678685,-1.5614674,1.7269607,-1.795916,3.0575893,-2.4112039,-1.85398,-1.4291159,-1.8824401,1.6876628,4.3164186,1.2971053,-0.14662878,0.48547402,0.8046359,4.191549,0.063836575,-3.025308,-0.22759385,-2.2283278,-2.2073805,0.8425513,1.2004163,-2.9913852,-0.22842282,-0.18698469,0.879645,-1.9548439,2.5720913,-0.7239079,2.4856029,0.2211982,3.6004293,-2.4046826,-1.1625346,-0.25727358,4.325188,3.4347332,2.9458346,1.0963908,-3.240461,-1.4715252,1.7102252,-2.6850016,0.48608577,3.4531126,0.6232148,-1.283662,-3.2729204,1.204636,-2.5972285,-0.52728564,-1.1043966,0.14996144,0.6545678,0.6036092,4.288988,-1.0804741,-2.0490234,1.4445378,0.43091473,-0.82264453,1.0389655,-0.24011675,1.3076617,-0.24022609,1.1601276,-1.9447365,4.206425,-3.67179,-0.75548846,2.100628,-0.40632582,-1.135297,-0.22560287,-0.10833209,0.12492584,-0.62015307,-2.5893881,-3.105714,-0.22968324,-0.9730498,-2.3835075,1.753723,-0.1067356,0.33640942,-1.6836493,-0.73527753,-1.0614089,-3.034972,1.7934723,2.8301075,-0.8007935,-0.06905134,-0.9830771,-0.4265551,-2.935478,-0.48433885,0.3479562,-0.6791964,0.35107562,-0.99204254,1.1706015,2.5898855,-1.367673,-0.12733589,1.7851963,0.0800267,-0.40625927,-0.8426162,1.1707065,4.54214,1.2288059,-1.1356945,-1.2008239,-0.8878367,-1.8616256,1.4999092,0.602209,0.70748657,-2.4145703,-1.85385,1.4493543,0.18891145,0.2284576,-1.4615805,-0.33624014,-1.5478966,3.637068,0.48025015,4.4638844,-1.8379829,-0.00897837,-0.09216721,0.13756426,0.38240993,-0.6662916,-0.5204296,3.2665856,-0.7293013,0.11744266,-3.7218065,1.8400743,2.7099993,-0.044445347,-2.1188285,-0.21290717,-3.402713,-0.24972582,-0.64473516,2.8943574,1.2325906,-0.80458546,1.0673351,0.59000754,-2.5169778,0.33115128,-0.19885494,-0.45623317,1.0000205,2.2811677,1.225645,-0.90559554,-0.82757246,5.2129107,7.1361294,-2.3453248,-0.6048231,-1.2724305,1.988215,-2.1103134,-0.1230948,-0.5885664,-0.16530085,-0.5052476,-0.5322168,-0.32347646,-5.232096,-0.6847313,-2.0329783,-0.7729028,-0.5967879,0.81734854,-0.32293692,4.444297,-2.6793246,-0.8181216,-5.789418,-1.4562103,0.10838431,-2.617647,2.0248244,-1.792429,1.2589316,-0.15944132,0.6244193,0.293521,-3.184983,0.7052458,-0.7471734,0.7035397,0.85725033,-1.5629412,-0.606955,0.25209734,-1.2478139,2.4143636,-0.77074945,0.8644932,0.7949749,2.7529016,-2.224832,1.2092711,1.2706192,1.2032553,0.21358389,1.914592,1.1057984,-2.2195716,-0.3216325,1.0204976,1.1736945,0.9038076,1.2114846,-3.6369677,0.19028805,1.2385303,-1.8859596,-3.993011,0.38516384,1.7726163,-1.9748384,0.09348177,1.4285705,4.6916738,-0.015968341,3.1371386,-0.015211909,1.1880772,5.5652704,0.7005855,-1.7874522,1.8348063,-2.6102133,1.9103094,-7.402654,1.2525405,-2.1781209,0.4283754,0.6190143,1.5501121,1.2923733,2.9291499,0.5322832,0.6808121,0.72403765,2.4491758,-0.61923903,2.960536,-2.2319446,-0.33005038,-1.0467912,1.1265618,-0.36533156,0.5511379,1.1060799,-1.5077225,0.03297298,0.04915331,-1.6481422,0.15430306,4.076763,-0.55489576,1.0781158,0.912734,1.176161,-0.08389024,-0.009651934,1.9900422,-1.232452,1.0127465,-0.23696552,1.2499084,-2.7592525,0.9041556,0.5311742,-0.39897937,1.6081301,1.6123753,-0.9861222,1.7107531,0.97198504,3.427843,2.042944,-0.28908852,0.14434314,0.9956643,-1.8626138,1.1899726,-3.7203774,-0.3104594,1.2232383,-1.7009436,1.1579449,-2.031986,-0.88404787,-1.1284449,-0.9019515,1.1896448,1.1196507,0.39704925,-0.9328161,-1.2939309,-1.4303635,1.1166013,1.1987675,0.35371834,0.89176935,0.5484847,-0.1507369,2.3896275,0.72416335,-0.84815353,0.19195154,4.2668962,1.7938436,-0.59479576,1.7454714,-0.9277237,0.17052186,-1.1364267,-0.079546556,1.4435034,3.6868331,-0.77420723,1.428549,-0.99085766,-0.13946347,-1.2015841,1.0339283,1.1095886,0.92762727,-2.1114435,1.6197397,-0.6458662,-0.14607513,3.1187334,2.7145653,1.191066,-0.157342,-0.28677964,-0.49535128,2.333395,0.13031468,0.64594376,-2.677075,0.026246198,-1.4351599,2.520127,1.6739477,-0.6279543,0.80325454,-2.4312804,-1.0836056,0.0746103,1.765752,-0.2765101,1.7544787,0.27743423,-0.24750873,0.15525691,2.794526,0.41160774,0.028601691,0.3442218,0.8894123,-0.07112876,0.031316046,-0.34861615,0.208008,0.6681411,0.74053484,0.4600606,-0.19485836,-3.6030824,1.9077086,-1.5232168,-1.9216378,1.0977336,2.3473983,-0.40625048,0.8872758,-0.13150671,0.24537823,1.4753964,3.0033143,1.2662369,1.0429435,1.2066169,-1.6248753,1.7835734,-1.4143933,0.8211832,-1.39439,2.7269135,-0.9252027,0.18837783,2.0422437,0.02023475,2.1663773,-1.1410748,-0.66383505,-0.72683656,1.3255686,0.35944852,1.1441362,-2.8801394,-0.83789015,0.5159321,-0.42299458,-2.0067022,3.7914286,1.7396826,0.08410278,-1.6287308,2.7990804,-1.8636401,2.7587004,-0.49172705,-1.3128617,-1.0452331,0.59843236,1.2416263,-2.481929,0.5618809,0.88776577,0.18973687,-0.48979104,1.4510425,-0.43146002,-0.66000307,1.6027641,0.027349202,-1.2994285,-1.9810181,0.5166462,1.9576435,-0.315645,2.3027694,-0.24246378,1.7136754,0.10885594,4.1849537,0.0918737,0.11551776,1.7325368,-1.0042757,-2.3082955,1.1301715,0.7318047,0.44584408,1.8277383,-2.929978,-2.441895,0.34168455,0.555765,-1.2677128,1.8029301,-0.10063743,-0.6190013,-0.25616524,1.3382221,-0.6386801,-1.350507,2.233333,2.297373,0.8528706,0.31464574,-1.0305942,-2.5088925,0.681463,-0.6907217,0.15839708,0.105586395,4.8868194,0.080439545,2.0552158,-0.23064683,-2.4782593,-0.45553482,-4.987067,1.7217453,-3.7609174,-3.5913713,1.3591214,-6.063955,0.9269435,2.1401892,-2.4474635,3.9670756,0.5375155,1.7391207,0.62684274,0.42431137,-2.276688,0.49299267,-0.15930192,-0.51719034,-1.9290135,1.0918707,0.5220817,0.5263119,-3.3322537,0.8377786,-3.2330153,-1.4859016,1.9435822,0.0875649,-0.9531296,0.055904813,-0.45008826,-0.44401705,2.602824,0.26595336,-0.3748383,-0.3023335,-0.17800407,-3.0133176,0.4797867,-1.6833593,-0.20111577,-1.1573187,0.5953129,0.65310436,-1.6533505,0.554809,0.6613953,0.6316246,-0.26204747,0.28929633,0.97530204,0.70165706,0.6291695,-0.62231916,-1.1323214,-0.37535456,-0.67117065,0.3471334,-2.7966828,-0.22294559,-1.260037,0.64574176,-1.0887823,1.8289665,0.45245212,0.33416608,0.45798662,0.21850976,2.5809054,-0.9887594,-0.9727674,-1.07221,-0.3006556,0.21693088,-0.94739217,0.8634774,0.63153046,0.46083933,3.630906,1.8381544,-0.43339974,-3.4335074,-0.21129203,0.17392038,-1.8311863,1.2934532,-0.3003662,0.530356,0.8745143,-0.58055824,1.2551314,-2.58673,0.45768824,-0.4301646,0.23273322,-0.3963324,-0.38820007,0.58367103,0.21692818,-1.6761254,0.29166132,-3.5709078,0.6270985,0.43122548,1.7959695,0.9068114,0.26484048,0.9200509,1.5027647,-0.15331078,0.6067466,0.66111094,-2.9301078,0.48767847,0.8555309,0.82234704,0.98634624,0.57427484,-4.4692945,-0.02974708,0.70864564,-0.80784804,-3.3357267,0.3182604,-0.111092694,-1.3701699,-0.1037203,0.10397701,4.6595855,0.8217248,0.57293385,-4.0254087,1.4819328,4.63611,1.7257766,-2.193502,-1.45189,-3.9688675,0.9262697,-3.709728,1.059179,-2.8709552,-0.1775882,-1.0883833,1.6021484,0.3998614,-0.3285421,0.12487752,0.574163,0.41159457,3.4151096,-0.14442535,4.3330517,-0.040245026,0.24002625,-1.9872997,0.9677362,0.3692511,-0.15133601,1.5123562,1.3006083,-1.1908233,-0.53450763,-1.7277548,1.3359405,3.4049273,-0.7152013,0.59068817,0.1284967,-0.4699114,-0.43207142,0.12933247,2.1979134,-2.03702,0.09861859,-2.336891,1.4004548,-0.783992,1.1359408,0.6584912,0.93630016,0.7933737,1.6254665,0.41820276,0.6140714,0.43776524,3.7246227,0.8896154,-2.2026236,-0.25962707,1.3878568,-3.8413303,1.1731473,-3.989635,-0.26616487,1.1852801,-0.9330175,0.7946111,-2.9764142,-1.9617395,-1.027021,-0.6928475,0.7624971,0.92249864,0.75410455,-0.39375553,2.2971435,-2.3444316,0.9242492,-2.1036007,0.37152028,-0.9039932,2.8625014,-0.7702731,3.7739928,-0.29678962,-0.12521335,0.7086639,-1.8923434,-0.1177576,-0.72072345,1.24965,1.0707804,2.0550838,3.4924781,4.6598655E-4,1.1874174,0.3145388,-2.4026349,-0.27701303,-0.726914,-0.21430892,-1.4982018,5.1138463,1.1461363,1.404048,-0.2610958,1.7993954,-1.2665144,0.7256703,-2.148093,2.4038644,2.5062907,-0.23550601,-0.2808305,0.9803111,1.7988664,-0.19432935,1.1046067,3.0197163,3.8504934,-0.6173459,-1.9397309,2.1887748,-0.15456843,0.14049707,-0.5981092,0.5350606,-2.1234195,-2.609764,-0.48378205,-1.0038185,0.11271125,0.7873423,-0.800643,0.2985062,-0.29733095,7.117649,0.12681772,-0.6742371,1.023809,0.8222504,-0.7348464,0.64212763,-1.7646643,0.8785572,-0.16776028,0.18258002,2.2764962,-1.0574903,0.5922765,1.994769,1.6285928,0.66807675,-0.50649047,1.5170269,-0.73091316,1.069052,1.149055,-0.63892245,0.12811385,0.03230229,2.3722441,-1.3570335,-2.570284,-0.4685615,-0.3750061,-1.8315773,-0.17858087,-0.63859797,0.7779551,-1.1206402,-0.57321656,-2.8787994,-0.029254718,3.1709936,-0.08361368,0.3818836,0.74820864,0.53533673,-0.75187176,2.6755538,-1.1633105,-0.7263052,-1.6064053,3.2484026,-2.3139112,1.3399757,-0.65564036,-1.555396,-0.06672169,4.5807695,0.35244894,-1.0847917,0.6491842,-0.19497064,2.9025493,-1.059015,2.0297086,0.2919074,-0.17305222,0.29422858,1.6433758,-2.031336,0.8275196,2.975699,-0.23983647,-0.987196,-0.74416465,0.66763043,-0.5511575,2.5300894,-0.9482091,0.85806525,2.119979,0.9511836,2.3219898,-1.1369015,0.39599797,0.019717349,-2.2206786,1.2974334,1.2975309,-0.33485717,0.8045992,-0.25693974,1.9570929,-1.656664,0.117959656,1.9972929,2.1449711,0.38660923,-0.20264196,2.026163,-1.1945572,0.060016453,2.1805422,2.7704902,-0.9907814,1.7269578,-0.6202148,0.99241745,2.4920988,2.3241963,1.2073072,0.039141383,-0.6480275,-1.6715562,-3.9241054,0.15684214,-0.16471568,0.063442804,1.744412,1.8312317,-0.1621094,1.863579,1.3728405,-1.6807122,0.8108967,-0.033129472,3.0064497,-0.53352505,-1.7751472,-4.0443473,2.5137808,-3.0788512,0.8033594,-1.368854,1.3933998,-0.14079462,-1.0420102,-0.3539957,2.028154,0.20420653,0.120579466,1.5400611,0.034198694,-0.08332355,-0.15102406,-0.058239292,-0.4662645,2.1114047,1.8542116,1.3782363,1.8262897,1.3192639,-1.2199668,-1.4602733,0.013943588,-0.36293066,0.86686015,-3.762849,-2.0294926,4.2259984,1.4761608,1.7595459,0.5967853,0.64311665,0.9923956,0.043061458,1.0701859,1.319651,1.0428429,-0.40517175,0.48608205,0.44350934,1.0081095,0.17856897,-2.6464736,1.9329019,0.42855453,0.5756335,-4.454047,-4.7687497,-0.66564083,0.57467407,3.291295,-2.793432,0.87333465,-1.2090431,1.2177584,1.2218462,0.20083064,2.3056903,-0.22144756,-1.4279646,1.2729908,0.19928807,1.9139718,1.5674348,0.2394832,-1.9907598,-1.895425,-1.9612813,2.1460996,0.9896411,2.529649,1.0898384,-0.3321472,2.1492329,-1.9165673,-0.11344405,0.30183437,1.877521,-2.8238957,1.2301607,0.4379695,-1.5849814,0.8373983,0.5960931,-1.9147525,-1.6205672,-1.8185284,-0.34642854,2.260663,2.720671,0.8190409,0.5812171,2.2728,-1.1562891,0.12282341,-1.79626,1.1978444,-1.9768423,2.0080922,3.1244988,-1.7258446,-2.7754297,-1.1484783,0.4986698,-0.18283327,-0.7164963,2.0551553,0.10876387,-0.10631608,0.8873816,-1.3282013,0.81807405,1.6529841,-2.5254734,-0.0707041,-1.3452878,-1.5724765,0.15776542,0.18477875,4.5568576,1.6387898,-2.9151661,-0.23464176,1.5981759,-0.039111547,-1.284009,1.4816054,-3.2728732,0.8530539,-2.8251445,3.4409158,1.5289905,1.6908315,0.79687965,1.9071498,-0.0753369,0.36063662,0.795571,-4.2827883,-2.3808863,-5.497067,3.1017601,-0.30544922,1.0964955,-1.2027828,-1.3799233,-0.83200663,0.92851406,-0.64120406,2.2210913,0.16900276,1.8150536,-1.3213488,-3.9698908,0.2040294,3.1299992,-0.36179203,3.1033075,-0.48145258,1.0637703,-2.146892,-1.7872282,0.7172893,0.25717142,0.4336765,1.6151097,0.6394066,0.14284924,0.38251945,-1.876839,-2.5715425,-1.5574286,0.7268654,0.2871216,-6.57567,-2.4781406,4.5918756,1.266462,0.79889745,-1.4422385,1.5330983,1.0863191,1.7712669,2.145286,0.90812844,0.14118461,0.9585555,3.2430968,-0.6611083,0.0035621428,0.15323591,0.704873,-1.509067,-1.2879697,-3.0411,-1.4329449,-0.052371543,5.877191,1.8659283,-0.2332829,2.8000798,-2.876813,-0.5078865,0.26257217,-0.5203783,2.0416741,-1.6529406,0.64610445,1.7267071,0.7842794,0.82898337,-0.3512833,2.6418912,2.9592652,0.61391795,1.6254462,-1.6568917,-1.8742257,-0.06514129,2.1447716,0.7129808,0.033105507,-0.62287223,-0.80630165,1.6574777,-0.15689279,0.5173379,0.752087,0.90099466,-0.5863874,1.0115125,0.67703885,-0.28575438,-0.7533615,3.084951,-1.9269722,-0.42981777,2.5830786,5.05062,1.3547598,-3.1637175,-1.3862869,-2.5636864,-1.7546372,-7.1221533,0.3784413,-3.2613654,-2.1907463,-2.3134837,-8.107032,-0.36926863,2.573364,-0.7697902,3.3040428,1.9907018,3.9782858,-0.19079386,2.2887216,1.873567,2.763023,-1.1699183,0.15244168,-3.397991,3.5389872,1.8470057,2.5453646,-5.2205105,1.3644998,-6.6649055,3.2450142,0.14400767,-0.42050296,-0.8408275,0.15263908,0.07213315,-0.3740423,0.023357145,0.60070455,-1.6391128,0.92115384,-2.5902627,-6.4818087,2.0544696,1.8372145,-0.46809453,1.2610366,1.636022,1.4188313,-4.2410398,1.1773614,1.2360139,0.39555046,-0.74674195,3.0143094,-0.7185213,2.0517342,-0.46170902,-1.6021376,-5.87103,0.66228896,-0.02273174,1.4402721,-6.5794535,-2.4788508,-1.7742548,1.5584024,0.20811506,1.0501716,0.45904708,2.7661524,1.5148063,-2.1516852,3.2451649,-0.73417693,1.4982623,0.23514704,1.4672675,0.5613918,-0.8159554,1.03673,-0.59143007,2.7949922,0.052170284,0.4098804,0.4862374,-0.89971924,0.10328832,0.36724338,0.6059876,1.7900518,-1.3413726,-0.34678477,1.9333512,2.2800238,-0.2109023,2.4253528,0.8037975,-0.2927638,-0.6704493,-0.18199149,0.6249231,0.049893204,0.6375352,2.7532923,1.35131,0.8152208,1.1559267,1.6947715,2.0037003,1.3332465,-0.37763292,-0.03969022,-0.16817135,-0.5458369,1.5147916,1.9386922,2.2251573,-0.061134093,-0.8099297,1.0370013,0.44320717,0.23561911,3.3332148,-0.31871605,-0.5185517,0.031525776,-0.6576495,1.0066379,0.91081434,-0.7013162,0.62702173,-0.70649356,-3.4166017,2.031395,-0.5820923,-0.35367623,0.63793623,-3.18489,0.05113478,2.238844,-2.1355538,0.37486556,1.9612426,1.8924608,0.3433661,0.47153452,2.3939834,1.7303115,-3.076089,0.18489194,0.2591924,0.9075131,0.07460677,2.675097,-5.696534,0.3987026,-5.8838367,1.5527233,0.6647275,1.7316002,-1.2374642,0.68515354,-0.40525958,0.6589443,-0.9140002,-0.07447188,-0.2868725,2.376499,-0.9963277,-5.14347,-0.37344795,2.7811906,-0.58602995,1.5040258,1.8781239,2.4472337,-1.8785689,1.2606398,1.2036711,2.7161837,-1.4418031,0.5752483,0.7709671,-0.08656318,0.31045875,-0.5037491,-4.858075,0.7480926,-0.55136174,0.8659692,-6.52273,-5.78424,2.7022746,1.9265764,0.33369163,-0.9614782,0.89623964,0.1966749,2.4854164,1.9206636,2.4716804,-0.21463533,0.61763287,1.0745566,0.95070934,0.88426447,0.2578514,1.0257127,-0.49353883,0.034589447,-2.302463,-0.8477112,0.006382316,3.1998398,2.726409,-0.18176596,1.9698712,0.4502018,-0.19267145,1.4081397,1.1534451,1.0144852,2.591928,-1.6841706,0.9835656,2.841226,-1.0577315,-1.9526265,0.85823137,1.3047361,-0.863796,0.65742886,0.076487556,-1.793361,0.6787371,1.4960663,0.8363218,0.13932236,-0.3527683,-1.0557516,0.45590174,-0.3909758,0.8858993,0.43618685,1.04602,1.7854311,-0.088457644,0.8380045,-0.5649775,-1.92654,-1.1321642,-0.6782669,-0.46334115,-2.6973352,3.4883301,0.98308265,1.886978,-0.47265962,-1.8310205,-0.76388884,-3.5206516,1.8331667,-1.0538676,-2.4321542,0.57125723,-2.9268267,0.7975506,0.018403005,-0.18826057,2.9214792,1.9105891,-3.0616298,0.84674335,0.2678243,-0.49362737,0.8988034,0.662927,-0.24995443,-0.25779673,1.0799654,1.5369353,1.1677959,-2.5665755,1.4648614,-3.8801658,-4.795371,-0.091039814,0.1340585,-0.8838868,-1.0922571,0.6059287,-0.28391325,-1.4649953,2.2384362,-0.76458544,-2.070837,-0.82070345,-3.2563214,2.5628345,0.71543235,0.6426382,0.9182397,0.976444,0.53688914,-2.011439,0.33871198,1.4338716,2.32286,0.34864792,-3.3420277,0.66390663,2.023626,-1.9473457,-1.1175674,-1.5657487,-0.2764892,1.2217772,1.2073148,-3.2866254,-2.435591,-0.09761692,0.28123605,0.027914844,1.2877796,0.80055994,1.3042468,0.5876192,0.65133286,-0.099558,0.22780515,0.5015966,-1.4866768,-0.6252762,-1.3886787,-0.20584534,1.3103231,-1.0097766,1.6525798,-1.0476224,1.061696,1.4084394,-0.093087964,1.2097617,-0.8846265,0.6922001,0.80148137,0.11898429,2.360989,0.18689103,-0.7101942,-1.453961,-4.874315,-0.15976426,2.4278967,0.33458212,-0.335421,1.9891998,0.052897725,-0.3987537,-2.43136,0.4650407,-3.2774484,-0.7979452,0.7823906,1.2382954,-0.963855,0.921076,0.9189366,1.4065723,0.77717406,0.5663274,0.7647251,-4.544392,3.0466511,1.2139713,0.24969889,1.205029,-0.77045655,-4.076153,0.2839044,1.2516764,-1.8154218,0.22889763,-0.47868955,-0.0536358,-0.70680916,-0.07654337,0.5770434,3.7786481,0.89578664,0.4075661,-4.632477,0.6827217,2.2620027,1.0498928,-2.7939854,1.0474926,-1.8107003,1.9647353,-6.105406,0.11494602,-1.2632555,-0.25272316,-0.73060274,1.5790187,1.3298193,-0.5232515,0.6653864,0.49690095,-0.14841191,4.720552,-0.29018167,2.7063951,-0.5742159,-0.5474056,-1.2191998,1.82192,-0.44712526,1.7962717,1.3603308,-0.99116236,-0.9332113,0.056223504,-3.0100605,0.8288767,3.409459,-0.31329852,0.5494094,1.8736757,0.4584524,-0.17548378,-1.5849655,0.84959155,-0.9200056,0.20490535,-2.552993,1.4451565,-0.7750311,0.30089974,1.5527428,-1.1215711,0.1590482,2.7107065,1.773211,2.2167602,0.24620615,3.6595664,1.7022518,-3.354493,-0.35856968,0.99890864,-1.4055978,1.0508401,-0.4220333,-1.3674489,-0.6392733,-2.0848806,1.9536175,-1.6019211,-1.6001492,-0.5595384,-1.371658,1.3612413,1.5521784,-0.08590187,-0.80112314,0.0945813,0.9705271,2.232143,-2.3044198,-0.28576106,0.2170833,0.7973452,-1.6875333,-2.805796,1.0338612,-0.6455923,0.25445223,-1.6727288,-0.68920195,0.31285855,1.7857071,2.0628815,-2.4153912,0.70881796,-0.026563192,-1.9866763,-1.2305647,0.6779289,-1.2981663,-1.4723893,-0.41710708,1.8710306,-4.7984037,0.27983144,-2.837235,2.800281,-1.8723774,1.6635097,0.2712219,-1.9026251,-2.092916,0.26831585,-1.0505211,-0.62186986,-2.8879547,-4.4795866,1.4159755,0.07833263,0.08831535,4.648116,-0.517609,-0.059221093,-2.73246,-1.2130939,-1.8277391,-0.056945067,-0.24754485,0.8436318,-2.0459797,-1.9976205,-1.1184175,-0.25431597,0.39474916,2.0250833,2.0996466,2.1945527,-6.233134,-1.907354,-0.28728124,1.1428798,1.1958739,1.665187,0.3165134,-0.5198679,0.68096393,-0.17600401,-0.6392886,1.7371094,0.2489484,-0.637551,0.79595464,-1.3109542,-3.4234324,-0.037995536,-2.8384755,1.177849,-0.629213,-1.9090443,-0.1630169,0.5221088,0.14231764,-3.868761,5.65284,2.1837742,1.0808905,-0.035080403,2.806623,-0.60882384,-1.8831309,-3.25636,-1.0642704,-0.4940589,-2.4775999,1.7932358,0.123782724,-1.472392,0.9758628,-0.43293303,-1.3080523,4.5744176,-2.0723326,1.7275232,-0.19225033,5.1694546,1.6811292,0.23792492,0.85044503,1.8169643,1.0120621,1.821506,1.1551409,-0.052709978,-2.8371868,-0.4201376,-0.11877922,-0.12666568,3.6745038,-1.6177583,0.20133615,-0.8975557,-0.038146198,-2.4084888,1.7530303,0.26429304,1.5815023,0.87868637,-4.4508862,0.22491474,1.2271272,-3.3362086,1.7168982,0.2534651,0.07340096,0.81393075,1.3770087,-1.4297384,1.7382498,0.7979276,-2.8985274,3.1441689,-1.4358014,-1.7398609,0.09455387,-2.2754693,-1.5604573,-0.6545116,-1.55534,1.8716407,-0.24614717,2.0740323,0.10447773,2.17593,-2.036653,2.7870939,-2.1948013,0.24401847,0.52841187,-0.053579148,-2.4750216,2.5234985,0.80952936,-0.85338986,-1.4029372,-1.9369478,-0.41181687,2.7085996,1.4290307,1.3744383,1.20235,2.0074434,-4.056605,-0.4114554,-1.1248358,4.7542396,0.3993039,0.19001946,-1.0690362,2.826622,1.7743417,0.61490744,0.64079046,0.69350845,-1.4036974,-0.27910107,-2.0759988,1.1619586,-2.431411,1.6358669,1.396377,2.1719198,1.751935,-1.9650106,0.7432632,0.68741125,0.3266518,2.8125916,-2.032824,2.7381268,1.1561713,2.2062898,-3.0103903,-0.9999342,-2.3051999,-1.2681448,2.1865208,1.0176443,0.7414479,-1.2044398,0.6618006,0.72749984,5.467637,-0.26124167,0.41569296,-0.07908134,-0.17604104,-3.0081663,0.94568,0.6251292,-4.1462064,0.29031643,-0.18954317,1.2296451,1.7660042,1.7916994,-0.03965971,2.202845,-0.32381743,3.8019853,-2.4081109,-0.5929419,0.376123,4.6964808,1.2831272,2.0789394,1.6263126,0.103796065,-3.6920419,3.9260206,-2.5964112,1.2307186,3.154273,0.05997215,-0.6771844,-2.6380332,2.4011176,-2.867591,0.1781694,-0.19994979,0.4954164,0.03914272,0.71867025,2.2529461,-1.4969058,-0.70977914,2.3226519,2.0815704,0.79755497,-0.2798178,2.7072139,-0.7523966,0.89865106,1.7682288,2.016051,2.2818675,1.2900218,0.3738099,-0.20362122,-1.3697457,0.31978717,1.4833752,-0.7150908,0.60734075,-0.3789607,2.154545,-0.22625653,0.09365186,1.9836483,3.050177,0.76025707,-0.016511898,1.4634368,-0.6514283,0.5244896,1.9244461,1.8131821,-0.9495829,1.545159,0.22558032,0.8768379,1.3951507,1.084493,2.1251729,0.22334775,-0.2835662,-2.1708825,-2.4787364,0.25714186,0.88460296,-1.0682015,1.3235326,0.90470207,-2.1519732,2.0370147,0.34438083,-1.6450105,0.94694465,-2.5560372,1.6585541,0.26757997,-2.1358812,-2.4624975,3.553067,-2.9121983,0.8142421,-1.9828184,1.4250202,1.2468183,-1.0297774,-0.015801389,2.2247982,0.9508921,0.08750193,1.8702906,-2.5719488,-0.86695844,-2.7491977,-2.2957366,0.26281452,2.2207134,0.73837894,0.9407895,1.0953552,1.0270677,-1.4764764,-1.1287205,-0.27302104,0.382194,0.3765088,-4.86792,-2.661419,3.2704165,1.3376862,1.7648157,0.74729747,0.60357267,-0.09664195,-0.7606634,1.4836881,0.5245964,0.45771298,-2.0974636,0.4932085,0.7872116,0.4355749,-0.08563514,-3.1371965,1.4126737,0.8740409,0.7296026,-5.6558113,-6.609564,0.5710515,1.0961915,1.0693794,-2.5682142,2.6376426,-0.7501779,1.3332238,1.3657854,0.31899378,1.255871,-0.26598403,-0.8042338,1.0478175,-0.34231555,1.1623259,1.9606713,0.19762196,-2.2261286,-2.442778,-0.31960094,1.667071,3.5002239,2.8640163,1.5935223,-3.297898,1.3708296,-4.5298743,0.1828453,-0.79968166,0.4813836,1.7238169,1.5256697,0.34733945,-0.6031353,1.4944917,0.26404992,-5.292888,0.22696483,-1.5114716,0.72194177,0.7857223,2.0978935,0.061563898,0.010940191,1.6855791,-5.4594703,0.11695284,-1.1826493,1.5206169,-1.2928782,0.9169084,-1.8041265,3.0520155,-4.922232,-1.1361599,0.07134397,-1.9360882,0.40209642,1.0605503,0.8268458,0.15309875,-1.0154591,-1.7570351,-0.008666297,2.457416,-3.4129736,-0.44772547,0.058176182,1.8786952,-0.758709,1.6078918,4.824471,0.5008527,4.811843,-1.3256625,-1.2810947,1.3151242,0.9699493,1.8288877,-4.8938284,0.17819205,2.3287117,-1.2394242,1.0275474,1.4049058,0.83360493,2.2785177,0.59828234,0.55096203,0.13005374,-2.4246922,0.14952199,-2.3367662,-4.727079,-1.3644636,0.33667615,-2.0333655,-2.61748,-0.48401934,-1.9095434,0.747729,1.4339778,1.0361751,1.5670389,-3.3380678,3.336587,3.0523183,-1.1099792,0.04740643,1.3096364,0.017045068,-0.41957867,-1.8717017,1.9008988,0.24976283,1.4312427,0.2650434,-2.7068367,-0.049763657,0.6772541,0.41468713,-0.52793455,-0.4632111,-5.0941896,0.8426447,0.14120004,1.8935794,3.3113737,3.0036316,-0.88172805,-1.4367095,2.9682698,0.7955136,-0.018428726,-0.5956872,0.75376284,-2.1339536,-1.0671809,-2.9534202,0.5412546,-1.3870895,1.0903976,-1.4698081,0.17051655,-1.8217084,1.8855175,-1.0756845,-1.1500611,-0.30534104,-0.009267457,-0.25706285,1.5835655,0.8086205,0.25899896,-0.3471488,-0.7767823,0.48431763,2.3656383,-2.6454313,2.4678557,1.2473049,-0.009309936,1.0993367,-0.59337395,-1.8513867,1.6699697,-0.0674673,3.4826992,-1.3247104,-3.0470862,1.1470295,0.94643515,1.7758288,0.7736371,0.5571964,-1.6342297,1.2564833,-1.6141887,0.23582304,1.2415353,1.0146905,-0.9836192,1.4672751,1.2084285,-1.0194962,-1.7949748,3.087702,-2.7569015,0.4465231,3.7469141,0.34140584,1.0443317,-1.0734847,-1.9872258,-2.0883753,-2.644981,-3.1787932,0.9610824,-4.4722414,-0.14948791,0.688345,-4.761051,-0.4215373,1.8901476,-1.9577142,2.82883,1.728369,3.4660676,0.6645821,1.9921994,2.0485048,2.3211966,-0.7852619,0.16114317,-2.1885881,2.2625213,1.248706,2.0474193,-6.682432,1.1702408,-6.0915527,2.1240716,1.1127349,0.2824531,-2.080423,-0.1336802,-2.226818,0.34578544,1.7271487,1.9322375,-2.0888913,2.7098062,-1.5611184,-4.6575503,2.34662,1.4391406,-1.6074455,1.0129641,2.6583626,1.5669061,-4.0813355,1.187295,0.5808377,0.8792261,-0.21288139,3.396934,1.1643026,1.228571,2.608066,-1.7882727,-6.1203694,-1.2570119,-0.7642683,1.0091326,-5.932818,-2.8752024,0.6958638,1.2581216,-1.2312672,1.4801217,1.7617291,-0.01852679,1.1244253,1.0767525,1.7748611,-1.6643008,0.4960938,-1.3718599,0.6281827,2.3709912,-1.3252604,0.78464276,-0.60612905,2.1731164,0.5282818,-3.6311066,-1.3468474,2.7280636,1.0577321,-0.22754991,3.2442389,-1.5555128,1.3735192,-0.0014974073,-0.5423377,1.3590484,-2.9751248,0.671467,-0.053854786,2.2484226,-0.5989058,0.5576743,1.7220819,0.357949,0.12723827,4.4812813,-0.8029085,3.470378,0.15118197,0.14444572,-1.5087864,2.3097868,-0.12922773,-0.088665076,-1.905764,1.2431158,0.10917297,1.4031892,2.1553438,-0.6691637,-0.09546876,-0.07469391,-0.0054891543,-0.6746588,4.7540154,-1.0191166,-0.18366748,-1.2122526,6.3114753,0.27886307,-0.66500306,0.65413296,0.54493916,-0.5783759,-7.224331,0.1339009,-2.4985476,-1.2990371,-1.31899,-5.5685573,-1.370077,5.289767,-0.963771,7.3351293,0.06469956,4.188554,0.027707877,2.2091675,1.245219,1.5074109,-2.4786325,0.5551175,-3.2385485,0.6031304,-0.052473854,0.9431936,-3.4468246,1.4214079,-5.0059576,0.9389753,1.9594684,2.8633978,-0.15272763,0.24395663,-0.48866272,0.43037063,-1.8545947,2.2447658,-0.90113586,0.97527397,-0.16715825,-5.3358808,1.6696773,0.71488065,-0.71580213,2.035381,2.9281187,1.0034621,-2.1264477,2.1510072,0.33049935,1.5705357,-1.2342105,1.3049592,-0.45530686,0.54062533,-1.3690301,-1.3655688,-0.89322513,0.5972159,-0.11239497,0.06724484,-5.665077,1.2069256,0.5378013,1.747175,-0.66605896,4.163825,-1.4505563,4.7987123,1.3988587,-1.5718304,2.9328766,-0.37758735,2.491505,1.4282715,1.3314631,0.22799155,-0.11936812,0.083417945,0.072430395,0.5939488,-1.3107177,5.339625,-0.21315138,4.3860254,-0.1648267,-0.7874458,-0.539247,-0.8642564,-0.051039316,-0.8900039,-1.040668,1.2424519,-2.1924322,2.4421146,0.1410207,-2.9760714,-0.47018626,0.43341464,0.3336746,-0.5578139,0.076564945,-0.1877454,1.545928,3.6476445,1.4914744,-0.109607145,-1.5739537,2.4342265,1.416482,-0.26063415,-4.683011,1.4618645,-0.20168544,2.397956,0.110276274,-2.714291,0.30090317,-0.16656469,0.90260845,-0.106031746,1.4814124,0.30106008,1.8369707,-4.720787,2.67707,1.0053807,0.39895183,-2.6672173,1.0344576,-0.1533164,-1.0362872,-1.2176907,0.69566816,0.8295243,-0.8072292,-0.13709441,-1.0796819,6.0813622,0.50381696,3.2605653,-1.3759813,0.6905268,-0.74017394,-0.3546868,2.4390943,1.0264459,-3.5341856,1.5623127,-0.20259197,0.39297056,-0.516296,0.83453107,-2.2432992,-0.8785624,-0.82929516,0.81242996,3.7280827,0.4634487,0.66730374,-0.3607274,0.10124247,1.826577,-4.0167494,-0.53657264,-0.71538734,1.2341431,0.9472443,0.027918277,0.07199468,-1.2249728,-0.36644852,0.61770594,0.57256794,2.2525878,-0.10191021,-0.23886824,0.4552873,0.15198182,-2.0775955,0.75365037,-0.100887574,-1.8663927,-1.0629935,0.2844635,1.2851825,-1.4005597,-0.72090364,0.32724905,-1.3079057,-0.18553045,2.7422106,3.1814344,-0.9497083,0.6494701,-1.0850624,0.76912475,2.1958482,0.8496554,3.8553038,-0.180703,0.22562079,3.0343142,0.29658622,-0.52509934,1.043126,-1.0342749,0.77943724,0.2052411,-1.5939507,4.2234325,-0.34377888,6.495965,-0.4691869,-0.37731782,0.75424117,-0.7217892,1.1871263,-0.94068336,-0.54343945,1.452516,-6.0223427,0.1681226,-0.08041594,-0.8866032,1.9936363,1.8274062,2.9526188,-1.1091092,1.3238897,0.08801318,-0.5846356,1.199217,-0.7869881,-0.20003992,0.9818293,2.6087155,0.49478906,0.026517915,1.7436095,-0.68977547,-0.7048239,2.6640205,-3.0164597,-1.0268785,1.2504196,-0.14026543,0.7379731,1.4546593,3.1648962,0.5156749,0.3768094,3.039946,0.46700233,-0.07950163,-3.7071202,0.84997845,2.3239315,-0.4626003,1.3320414,-0.2596724,-0.18935825,-1.7670149,-1.5674165,-1.2333969,-0.015757244,2.0173223,0.21098106,0.29389653,0.3486286,2.8875422,-1.4021806,-0.01632283,2.558478,1.3154063,-0.8684934,0.79580575,-1.9816341,0.70425326,-1.0662056,0.9637982,1.6131188,-2.263432,1.1128254,6.559085,0.73424804,0.9505429,0.44941956,1.5210506,-0.5146401,1.366317,-2.2132761,-3.1893978,0.24093585,1.3054881,0.79140383,0.6785444,-3.4744186,2.13833,-1.0977077,1.3970435,-0.45724,0.25156328,-0.16658098,-0.81794554,-0.71335936,-2.9546113,0.02120023,5.7866683,-0.5022848,-0.90059537,1.2966555,0.44494507,0.5463186,1.7170371,-1.0036697,-0.77220005,0.029096615,-2.796995,-1.6452632,1.4484314,1.4883593,-0.6993046,1.0069283,2.465668,1.0859851,-0.976194,1.9651568,0.18263043,3.587056,2.0337684,1.5745071,1.5785116,0.23422416,-0.3335719,0.9403979,-2.1546721,-1.3184816,0.52250046,-0.13680056,2.6512113,0.59887034,1.4165148,-2.2046988,1.460125,-0.4517293,-0.8123588,-0.25166234,0.057431825,0.4184892,1.3492445,0.30785903,-1.2283586,1.7108834,-2.1190782,-4.238546,-0.39676896,-1.0413734,0.951052,-1.551164,-1.3890166,1.1343577,-1.2147655,0.5888814,-2.6344833,2.402746,-2.3506825,0.8219783,-2.6179075,-0.5315847,-1.2640135,-0.3477188,-2.6907775,2.416246,0.52054787,-3.2242448,-2.0924377,-0.45555902,-0.26518613,2.1873906,1.2944162,1.5712594,-0.09251392,2.4599252,-2.583273,-2.5059497,-0.98349714,3.878014,-1.0004926,0.9907947,3.0944133,1.6138024,2.897311,-1.7052361,0.44005612,-0.03617081,2.8941035,-0.41961038,-2.667622,0.4942779,1.2686578,1.2541652,0.43583444,1.9064329,0.9237721,-0.6230304,0.35478044,0.35294828,-1.1575025,-0.30715138,-0.22942992,1.2162042,-0.11017266,1.8751166,-1.5632889,-3.6023433,-1.8953991,-3.233567,0.30353776,2.5068562,1.9437683,-0.25728616,0.8159896,-1.1058279,4.2999935,3.0544899,-1.1052679,-1.1321205,-0.35594434,0.2468073,-0.22509094,0.008521611,-0.19009335,-0.5276154,-1.5029501,0.045489155,-0.94871795,1.0833775,0.24216999,2.2590642,0.077231765,1.5404657,-4.1865873,-1.3405136,-0.27524725,4.0499506,4.8625617,4.2592287,0.7921073,-2.821351,2.77749,1.663259,-1.4496895,-0.54027075,2.149747,-1.3082521,-1.9386253,-1.2753221,0.32230368,-3.063636,-0.36295357,-2.1404977,-1.1549057,0.17018202,1.7774242,1.3226483,-3.1843574,-2.8511322,-2.1074612,-0.32339382,0.57345647,1.3340118,0.9341045,-0.4212395,-0.19865964,0.6391504,0.11673012,1.2873101,-0.6327318,0.85557604,1.5301836,-2.3311217,1.5295609,0.45704907,1.8019941,0.19735868,1.5435116,-0.9025607,-1.5562946,0.48593864,1.8409579,-0.009287229,-0.29685438,-1.5643868,1.7030151,-0.97193056,0.56194836,0.55551755,-0.7215087,1.309074,1.6456833,-0.48333776,1.4600335,-1.9797148,2.214383,4.0983357,-0.89790916,-1.8386972,-2.3717284,0.072418705,0.0052286717,-0.14865798,1.3674829,0.068785444,1.8136909,-0.5523832,1.5428483,-0.71367115,-0.27663627,0.74116516,-1.1637243,-0.3789181,-2.2413564,-1.2827123,0.054505825,1.7004746,-3.0764391,1.4490006,2.1294405,-1.7737217,-0.48063955,0.037662145,-1.3680208,0.55777127,1.244537,1.2909399,1.4921813,0.16949156,1.3076671,-0.056009892,-1.6116257,-1.450294,2.0919561,-2.0008235,0.52405655,-0.21811664,-1.5045409,0.10298093,2.0739772,0.073647454,0.18880448,-0.22400384,-4.027578,1.9718128,1.5532149,1.5672915,0.54413915,0.95307535,-0.008800304,0.7719801,2.3123314,0.7802495,2.2673712,-0.033781335,-0.028761027,0.9786954,1.907435,-0.08707877,-0.08182114,-2.1399271,1.4655142,-0.33428752,0.5346229,-3.4805636,-2.6186738,-0.49371088,-1.6984651,-0.1393141,0.7488,-0.59506214,2.207273,-0.15803583,0.7565906,-1.3722152,-0.3288457,1.8792067,-4.0186667,1.2862991,0.8221359,-1.4973874,1.3622502,-0.44355232,1.5659132,-1.4419957,-0.7329458,0.073483765,-0.2642397,0.53978103,-0.09997341,0.1059862,0.3470465,-0.31736532,0.31041658,1.1513882,2.4701362,1.2714728,1.6751326,0.9183538,1.844911,-0.35018972,-0.45049608,0.5273141,0.1874427,0.9036307,2.9252355,0.23511003,1.0950161,0.41436216,1.8192904,1.2918761,2.9720864,-0.25886092,-0.19885994,-0.19365923,-1.1887654,0.93436563,1.2702845,2.9886785,1.3452235,-0.05074138,0.5864126,1.233986,0.076642,2.4726808,-0.034734555,-0.32599026,-2.1595929,-1.1102157,0.6402038,-0.5441407,-0.5868574,1.32282,-0.68813694,-4.2138605,1.1446706,-0.37800327,-2.9214253,-0.72993153,-4.4346924,0.57937706,1.2706081,-2.312744,-1.5008874,0.5564223,0.75546354,-0.18431331,-0.07158959,2.194211,1.9356705,-3.1421607,0.22776829,-0.8782493,1.4256346,0.06286672,2.2252889,-3.9912236,1.1864004,-2.9918566,-0.14292145,0.6518347,1.99687,0.66897863,1.0161083,0.53663385,0.9348407,-3.3259022,-1.412348,-0.4509241,1.5595819,0.7193317,-4.805975,-1.3623513,2.4714055,-0.48217884,1.6793205,2.0250585,1.2230346,-0.2676449,1.4514649,1.7395469,2.3746927,-0.34119433,0.03978594,-0.20531592,-0.006273791,0.20654032,0.20515963,-4.0158715,0.9020517,-0.77533746,1.0565253,-5.666005,-8.89822,-0.65565765,2.083603,0.3255919,-1.9854429,1.3646725,0.18436728,2.016557,0.1078047,1.2120571,0.50848454,0.103705145,0.500871,-0.07659027,0.8556503,0.7846623,0.9111809,-0.064366885,-0.71678275,-2.301559,0.7636114,0.56994563,3.2078314,2.4475198,-0.18593132,1.3245528,-0.52728987,1.534106,-0.7955221,-0.82198435,1.3779724,-5.204745,0.19712128,-0.7460822,-0.003937644,1.9341679,2.9474525,3.4632034,-0.8523714,1.1160084,-1.2081116,-1.3439363,0.7173529,-1.030608,-0.025932934,0.12214524,2.0360155,0.849188,0.7029149,1.2992781,0.37886253,-1.1001976,1.7339914,-2.7319844,-0.6165235,1.9164677,-0.4503216,-0.2095555,2.0380642,2.0412233,0.81411076,0.5667788,2.6765914,2.5451555,-0.5701832,-2.8098483,0.5271496,1.4338868,-0.13257986,1.5471069,-0.14675754,-1.1216496,-2.3291483,-1.2862896,-1.9782548,-0.9165035,0.8677212,0.10564916,0.27223393,-0.020490758,0.9866911,-0.9930182,-0.4214147,2.4574125,1.2018764,-0.50278383,0.98053604,-1.8190424,0.5989927,-0.9059666,0.75845075,2.8246086,-1.937085,0.646535,5.2278824,0.7649701,0.52183884,-0.60413224,1.1939852,-0.24708346,0.7282541,-0.6786757,-2.6515443,0.9786667,1.3016783,1.1939703,-0.7150547,-3.0472643,1.4729356,-0.7470893,0.17644759,-0.90088546,-0.409463,0.14246827,-0.7465782,-0.71994025,-3.2057447,-0.23257239,4.0288625,-0.3665579,-0.5126822,0.83550924,0.28914168,0.60165715,2.4186373,-1.1893439,-1.1701838,-1.1029302,-0.4515526,-1.2313035,1.1362948,0.7632191,-1.156438,0.8383503,5.293575,0.626898,-0.58338195,1.0306251,0.072717115,3.9975295,0.90546757,2.549224,1.3009243,-0.31332684,-0.094346255,0.92071015,-2.2927554,-1.8356668,2.8338652,-0.052287612,1.0565177,0.15908629,