1.4329741,0.28195697,-2.1247437,0.15965834,-5.2664795,-2.5111742,-0.022866204,0.8153736,-4.4803963,-6.019147,-3.1704152,0.37448993,-2.4428275,-0.38465232,-1.7487488,-1.5585374,-0.25775537,-1.8770775,0.06968761,-0.36271986,-2.5804198,-4.238951,-5.564224,-7.4902964,0.05939101,-2.7850513,0.6591518,-4.7328196,-2.5994017,0.39629188,-2.3337967,-4.579341,0.34212184,-2.7881806,0.099909335,-0.34604532,-1.509915,-0.7539346,-3.1058881,-1.105836,-1.0395889,-4.9805746,-0.5108103,-5.215968,-2.592778,-0.40757012,-0.24902919,-4.694176,-3.4168992,-4.7270007,-3.6373854,-0.47545865,-3.5976427,-0.3828277,-1.4364516,-1.2223698,-0.4829618,0.17510355,-0.013863893,-4.135572,-0.7531357,-2.273998,-6.9521747,-4.6359735,3.253287,-3.9818103,-7.742957,-4.650716,-0.47178608,-1.4723271,-2.8998766,-2.4941933,-0.22529942,-0.47257677,-5.0313745,-4.915375,-5.156792,-2.883204,-1.5620816,-0.3643448,-1.7366709,-1.6051707,-4.6895046,-4.1548533,-0.52700454,-1.6271336,-0.20641254,-0.79179037,-4.524151,1.5243239,0.61036104,-4.345737,-3.2913148,-5.5017877,0.17326503,-0.23802838,-5.3278594,-0.021908589,-3.8377655,-7.3772264,-4.2835917,-5.136633,-0.27687997,-3.17006,-7.018379,-0.0023887241,-3.7373838,-1.5101842,-1.0095714,0.6600283,-4.0845475,-0.0890055,-1.3823167,-0.14273454,-5.732056,-2.8939846,-6.3199983,-4.227014,-3.693278,-9.437453,-2.2901745,-4.8223014,-0.947453,0.19204254,-0.124589264,-6.5208726,-0.40599033,-1.5222417,0.41266236,-3.564412,-1.2908059,-2.1968758,-5.293678,-0.08225677,0.21796596,-1.9006368,-3.540666,-0.38728648,-2.4605165,-3.097587,-4.8771257,0.17324379,-2.364572,-1.0977281,-0.18575044,-4.014492,-0.4208868,0.17432907,-2.5249844,-0.22584847,0.42777473,-1.8773117,-0.5720464,0.5144969,-4.762329,-3.9650812,-1.0885007,-1.3650502,-3.6243684,0.81197196,0.19516401,-2.5610685,-3.9167805,-0.47423467,-0.26087004,0.2547308,0.43276298,0.7852806,-0.66968685,0.31368196,-1.0244659,-5.7824183,-0.5063704,-1.6212165,-0.20921543,0.20771658,-0.32890865,0.79241437,0.2235067,-3.14927,0.4233639,-0.443984,-1.5444181,-0.37980384,0.08139683,0.52469325,-4.7874236,-4.658793,-1.7986685,-0.5194131,0.15838122,-4.254874,-5.897031,-5.6264763,-2.3075914,-4.625527,0.751308,-2.5057628,0.22471783,-0.9397932,0.80755246,0.41705817,-0.32647148,-2.7809577,0.67527866,-0.3522812,-0.95816755,-0.5120907,-0.6753522,0.8939523,-0.7314189,-0.056527585,-3.7647316,-0.2845863,-2.3140538,1.7444606,-3.9436598,-0.56539166,-3.1445491,-3.3209882,-3.0619779,-2.4952016,0.65709597,-0.5594817,-0.26491338,-3.5934525,0.4225702,-2.958055,-2.9466755,-0.288186,-1.6989439,0.026994072,-0.7698209,-0.059618503,-2.4123387,0.25834852,-4.07231,-1.5093975,-0.027598973,-1.2429723,-3.4400048,1.3205308,-0.1989227,0.9553589,-2.9094331,-0.077154845,-1.7185992,-0.6238649,-0.13461067,-0.09888621,-0.49000695,0.68561035,-1.9439948,-1.491617,0.23004353,0.113670185,0.33295628,-0.5768362,0.043728106,-0.16529481,-1.9540242,-6.6275043,-2.7882543,-6.5802913,-3.9010055,-0.73370945,0.08429139,-1.7780886,-0.8264522,-4.3043475,-0.2616464,-4.7238345,-8.0938015,-6.840712,-4.0315475,-4.957661,-0.5905739,0.2716341,-3.187687,-2.0964215,-0.8531308,-0.7590078,-1.4402587,0.43763095,0.34281874,-0.96106786,-2.6243072,-2.4544704,-2.452283,-1.3494382,-6.319545,-0.57359046,-0.16933815,-6.4245186,-2.3981838,0.46913162,-0.2956529,-2.2787905,-0.74205136,-0.28295642,-1.3483831,-0.36158526,-4.3628173,-1.8094865,-1.0440814,-2.9522254,0.31826895,-5.169864,-0.18781309,-5.876677,0.32122958,0.2718985,-9.062672,-1.0098397,-1.318702,-3.1136959,-0.022022331,-0.27351177,-4.150784,-0.08061838,-0.87799793,0.7163308,-1.7002505,-0.5187363,0.7891641,2.7585654,-2.1751149,1.236261,1.0259922,0.80765134,-0.35171375,1.2446471,0.5766937,-0.16161971,-0.59339905,-5.7046156,-0.27536547,1.8017291,-0.5269847,-0.14317752,0.5457207,-1.2474968,-1.3031293,1.5465629,-0.23202851,-7.886278,0.41839612,0.6471903,-3.8063054,-1.1798785,0.49012795,-1.3285096,-1.6520431,0.32064918,0.5798662,-0.06917734,-1.0417109,-0.25145388,-4.1105995,-4.4163895,-0.8649194,-2.5261483,-0.15593098,0.9009879,0.2626163,-6.486032,-0.45784444,-1.1726465,1.0648636,2.0244582,-4.7299953,1.0439446,-0.47034582,0.0015071251,-4.881686,-3.4842525,-0.20287517,0.6027451,0.08045214,1.0580436,-5.809345,1.1654031,0.5385679,0.115053505,-0.8511725,0.7439146,-0.17998996,-0.4640479,-3.4739094,-3.787425,0.41885275,-1.4411963,-3.282373,-0.55812657,-7.3190975,0.21666577,-3.100417,-0.055607975,-4.3591886,-0.38371697,-3.4662929,-3.7947397,0.44429964,-1.1356819,0.15810923,-5.466385,0.13540436,-1.536175,0.018459082,1.3446091,0.47208214,-0.43379444,-3.9767,-2.1483352,-1.1172647,-3.561912,-7.2384257,0.9012911,-2.2904286,-0.48646432,-0.5438698,-4.665902,-2.2289355,-4.0192294,-6.1156,-5.440507,0.05070241,-4.6986556,-0.22439623,-3.183572,-0.3318339,-0.16950764,-0.16365027,-3.7875133,-4.180304,-4.4733734,-5.381386,-0.64068073,-4.7913995,-1.8495191,-4.263991,-4.574541,0.099758774,-2.3415403,-3.4340951,0.5371716,-2.4954207,-6.0931225,1.3986831,-1.549102,0.33909854,-0.68018615,-3.4166186,0.16554722,0.3892824,2.302272,-5.815985,-2.8053977,-0.005862206,-0.19988771,-6.0222955,-3.848696,0.8123698,1.8301561,-0.7005476,0.0070114885,-3.7287588,-4.649593,-2.2404313,-0.36779413,0.46317407,-5.089142,-2.5428586,3.7523146,1.8240471,-2.1109896,0.73799133,-1.1182219,-5.541627,0.4663209,0.5389682,-3.9283397,-0.234592,-4.5259852,-2.9852276,-0.20906237,0.27355248,1.1300162,-0.17899236,0.55893344,-2.285509,-0.11502011,-1.6754001,1.5772295,-6.008197,0.23654696,-2.463389,-3.6437688,0.8374231,-5.6727915,0.23303762,-5.199817,0.87317777,0.2727732,-0.009317234,0.3863156,0.2539054,-0.89568746,1.2605636,-2.876496,-0.08966438,-0.18843077,-3.398463,-3.3421936,-4.918717,-0.07851538,0.25499725,-1.6471611,-4.626834,-6.346854,0.22163488,-0.4190364,0.050582312,-4.149395,0.9863339,-5.441833,-5.2373013,-2.9031258,-0.46019885,-2.0644412,-0.075667195,-0.09968279,0.49469513,-0.1640108,-3.3217282,-1.9919537,-2.4839597,0.49495485,-5.057341,0.72476107,-5.084063,0.5348424,-4.1840444,-3.360507,-2.5930617,0.42582402,-3.1057687,-0.5231201,-0.62948245,-0.099427626,-0.8419883,-3.5741305,-0.19547933,0.097688876,-1.9984233,-0.68567145,-0.57220376,-4.557301,-0.0028503302,-0.22945471,-0.4938591,-5.1002574,-2.5231924,-1.501094,-5.2980204,-0.08031798,-2.7360117,-0.50004613,-0.36955518,-6.9281197,-3.385123,0.23305975,-5.4863486,-5.65676,-0.27034584,-0.015658967,-3.9954014,0.26268026,0.1305241,-0.48187935,0.6102988,-0.7701196,-5.4509077,-3.2830448,0.19765979,-3.0094218,-0.031202525,-5.312823,-0.60762393,-0.8537805,0.1906862,0.37807187,-1.1100886,0.31905937,-4.4600244,-1.7802099,-1.012996,0.09162542,-4.4389563,-1.9431039,-4.0721116,-2.8305497,-3.0393252,-0.095338956,0.3401193,-0.17334612,0.82466644,-3.0721037,0.48285323,-1.1369716,-0.20679042,-0.6163181,-0.181656,-0.64393514,-1.5909469,-3.6495054,-0.12905376,-3.9075303,-5.498459,0.3153272,-0.86942184,0.8314965,-0.92037433,-5.8855844,-1.9541236,-3.0139008,0.44220796,0.1725409,-0.23045036,-0.4461095,0.35081664,0.2555564,-0.69719976,-3.1098232,-4.298088,0.1195007,0.37253088,-0.5233229,-4.5377183,-0.042408038,