-2.3356612,-3.024079,-0.84739244,-2.303851,-0.13082074,-2.796246,-2.0781581,-1.9374462,0.29877594,-0.0935085,0.07959041,-2.0236256,0.07125499,-2.3814986,-2.0568979,-3.1474836,0.10095472,-2.176407,-2.732531,0.030015314,-0.1032892,-0.07326507,-3.855975,-0.061349377,0.021819577,-2.9454477,0.5730548,-2.073667,-0.03179662,-0.08466901,-2.9979725,0.024525104,-2.5706456,-2.588888,-2.5376902,-0.087632455,-2.2018392,-2.2951035,-2.883375,-0.004687483,0.06341566,-0.08101201,0.014336877,-2.9734373,-0.1649224,-2.210171,0.08436579,-0.0701079,-0.005886237,-2.753215,-2.4680977,-2.1275082,0.025449645,-2.1283212,-0.17081414,-3.4023454,-0.101185136,-2.1313844,-2.475294,-0.049922716,-0.014147585,-0.20154813,0.060260657,0.026956614,-2.9786344,-0.025019545,-0.05684044,-0.06793953,-0.03367202,-1.9891859,-0.09323866,0.019659866,-0.06905848,0.0012581669,-2.6019032,-2.0014982,-2.4531877,-2.6337035,-0.055201326,-0.087284416,-2.1981099,-3.1670475,0.025315898,0.010225368,-2.1028588,-1.9453359,-0.0785152,-0.08289228,-0.07478226,0.017337738,-2.6236134,-2.4177303,-0.07384767,-0.08983465,-0.20900653,-2.101891,-0.19222088,0.06398476,-0.07170765,-0.40201607,-1.6850914,-2.0304743E-4,-0.28644836,0.032271385,0.01957041,-2.028918,-2.4517245,-0.004152041,0.02057,-2.608726,-2.0608199,-2.945589,-2.2819982,-0.5244973,-0.018387109,-0.01145262,-3.0196307,-2.312739,-2.7183285,-0.0018350441,-0.026491249,-0.0021585422,-0.08578505,-1.8545073,-2.8473835,-1.9502537,-0.098056525,-2.1054907,-1.890503,-2.9389348,-0.7698983,-1.8931471,0.02354058,-2.8012238,-2.0370502,-3.1038113,-0.27837625,-0.053353827,-0.04848927,-2.3375473,-0.04010734,-1.9276271,-2.183471,-3.03042,0.011211785,-2.4139416,-2.731115,-0.025220683,-0.06283361,-0.02919087,-3.6796,-0.0167691,0.053016018,-2.7974417,0.29932633,-2.6484048,-0.036006328,-0.03646253,-2.7937255,-0.31273833,-1.7164242,-2.8717737,-3.333584,0.047230158,-2.2965755,-2.7873936,-2.957888,-0.03636549,0.095498644,-0.030162677,-0.20347804,-2.9967957,-0.08906995,-2.3649602,0.010366016,-0.03676927,-0.048153494,-2.8048027,-3.0722713,-2.5515776,0.03142644,-2.5683405,-0.09883013,-3.1280384,0.01039988,-1.9854916,-2.313449,-0.0012870869,0.0065750116,-0.15325215,0.0032176126,-0.079705104,-3.1068254,-0.011021077,-0.040723093,-0.011166244,0.04508984,-1.9767979,0.019802175,-0.028014256,-0.016393946,-0.056785267,-3.4054375,-2.5675278,-1.4129816,-2.2304091,0.065638244,-0.1521187,-2.4300911,-3.0134964,-0.014692396,-0.2872646,-2.2502143,-1.9254017,-0.037616234,0.030758299,-0.008627855,-0.057418283,-1.9790399,-2.857789,0.04081568,0.071615785,-0.029986791,-2.1278338,0.21006759,0.075899296,0.007343515,-0.37634778,-1.7863616,0.29191214,-0.17230597,-0.022650363,-0.056489352,-1.9792753,-1.8800439,0.08963665,0.008044929,-2.0305176,-1.8787441,-2.8702407,-2.2434978,0.079895906,-0.010294584,-0.032225575,-2.0538273,-2.408352,-2.7733889,0.0970632,-0.026550042,0.021829193,-0.13366008,-2.5457687,-2.739871,-2.2148328,-0.020049999,-2.1234465,-1.984715,-2.978044,-0.7477499,-1.9136826,0.012973311,-2.8054123,-2.0702174,-2.20844,-0.21240371,0.046483632,0.0022705237,-2.1859913,-0.069643475,-2.0035207,-2.0953925,-2.9987514,0.044696197,-2.101274,-2.696429,-0.023819914,0.036089085,-0.056636732,-4.241811,0.098586924,0.05093059,-2.8752043,-0.17880106,-2.941229,0.019241376,-7.577077E-4,-2.8319452,-0.6112017,-1.8125432,-2.600392,-2.4140043,0.027456308,-2.2679894,-2.4134977,-2.932945,-0.0047324747,0.08177487,-0.04327955,0.018497651,-2.8711524,0.011407491,-2.2406073,-0.10322157,0.004175758,0.056718465,-2.7917817,-2.4431942,-2.794183,0.022269428,-2.1525705,-0.06732318,-3.7910335,0.031926595,-2.486923,-2.427862,0.015472337,-0.07795111,-0.40837342,0.045830227,-0.036834225,-3.0520315,-0.0034992807,-0.10232926,0.06823048,-0.07113295,-1.9290836,0.08459354,-0.0020258522,0.023790196,0.059693795,-2.6714559,-2.5201845,-1.5226841,-2.2999997,0.026556142,-0.011957762,-2.6862428,-3.065439,-0.05399889,0.022599598,-2.161902,-2.1434393,0.06321412,0.032563098,0.028633485,0.0029027562,-2.259899,-2.531511,-0.005035019,-0.03276044,-0.23405187,-2.6530735,-0.254844,0.042006165,0.043034762,-0.46832037,-1.788927,-0.48238304,-0.17866157,-0.08515192,-0.20294817,-2.0740058,-1.9954478,0.038497847,-0.08182822,-2.1591206,-2.4379706,-2.8416433,-2.2699707,-0.13112938,-0.043639936,0.019820688,-2.3587909,-2.4373636,-2.7401044,-0.054449994,-0.055679265,0.05646255,-0.17224672,-2.300407,-2.7633252,-2.2436645,0.028941693,-2.0979116,-1.9246417,-2.977672,-0.80438423,-1.9312452,-0.16731767,-3.0596116,-2.118084,-2.0782657,0.12499865,-0.028501159,-0.09928686,-2.0095165,0.011567972,-1.9966758,-2.1631687,-3.2300973,0.06323098,-2.2075365,-2.653592,-0.027755575,-0.015776698,-0.1615762,-4.1533175,-0.04216565,-0.046631075,-2.8369567,0.083914645,-2.6470428,-0.024939029,-0.07409984,-2.769162,-0.35758924,-1.867339,-2.649051,-2.7714593,0.09648277,-2.2109125,-2.4719386,-2.9357438,-0.09196821,0.06951172,0.06651935,0.068445824,-3.1087933,0.025969155,-2.3172474,-0.011825452,0.080244794,-0.05581382,-2.8658965,-2.593571,-2.17592,0.06036741,-2.2660222,-0.066907175,-3.4501846,0.013134982,-2.4648628,-2.3866365,-0.0058748415,0.0042765155,0.0761102,0.082895316,-0.007951979,-3.4726627,0.021364016,-0.07882602,0.016390108,0.046270654,-2.0580645,-0.030522276,-0.014025344,-0.052461144,0.03463976,-2.784943,-2.2287939,-1.4296844,-2.2248347,-0.015063938,-0.049859677,-2.1636603,-3.1212742,-0.031691376,0.099103756,-2.2778323,-2.0940409,0.069220364,0.009072497,0.07639567,0.056163646,-2.1016974,-2.5264626,0.006468541,-0.038054604,-0.14838046,-2.0081894,0.23578598,0.008436821,-0.098838486,-0.28805533,-1.7521273,-0.41960925,0.18276684,0.04360571,-0.11835184,-2.0586812,-1.8805127,0.087445065,-0.014839573,-2.0631266,-1.9651264,-2.8520038,-2.2772014,0.22435816,0.058741298,-0.0028940293,-2.1248863,-2.3922234,-2.7329557,-0.012063786,-0.006818156,0.09185848,-0.058725193,-1.9317007,-2.7050488,-2.2158234,0.053482857,-2.098792,-1.9044429,-3.1229315,-0.8374509,-1.8829163,0.017058754,-2.6918166,-2.7362876,-2.3128881,-0.12466356,0.0019556303,-0.07450839,-2.2507875,-0.014090115,-1.9416009,-2.1890585,-3.0245364,-0.05411409,-2.804223,-2.6677768,-0.011119806,0.009836668,-0.065795474,-3.6624272,-0.049911216,-0.050329417,-2.9406261,-0.26327315,-2.0790443,-0.01731341,-0.039743327,-2.8914113,0.16494362,-1.7400916,-2.6656744,-2.7050316,-0.019590313,-2.849627,-2.5032792,-2.9109683,0.014323213,-0.0021111523,-0.12966725,-0.15844125,-2.9148045,-0.014690694,-2.5022929,0.085136645,-0.009709381,-0.010931293,-2.686182,-2.7382827,-2.2705152,0.06884611,-2.8707802,-0.046510857,-3.1008506,0.09283766,-1.8900732,-2.9900846,-0.0017903339,0.05186342,-0.2914688,0.02293297,-0.04561805,-3.0980086,-0.07343788,-0.09323955,0.078622244,0.009780912,-2.1471138,-0.07353905,0.037279032,-0.005037432,0.021414284,-2.8946939,-2.5346925,-1.7385792,-2.2650557,-0.032424018,-0.12710553,-2.2427301,-3.0729346,-0.022092499,-0.18709438,-2.2736037,-2.601883,0.022555273,0.01160027,-0.001408751,0.022580955,-2.018455,-2.5876791,0.074297056,-0.070879824,-0.08454455,-1.9419571,-0.046426065,-0.088646166,0.0021595869,0.06344173,-2.1613333,-0.26006797,0.16099039,-0.04494965,-0.06855307,-2.6732678,-1.8958757,-0.043137245,-0.056418806,-2.0366614,-1.9034271,-2.916102,-2.4129903,0.23700958,0.0021103984,-0.009669262,-2.035996,-2.552689,-2.6581008,-0.004658609,0.01777824,-0.073273376,0.014307568,-1.9053646,-2.7182412,-2.693966,0.06387756,-2.352217,-1.9861557,-2.968296,-0.8764176,-1.9891278,-0.20595895,-2.741038,-2.1033049,-2.0581274,0.13828287,0.047128584,-0.049093317,-1.9481549,0.0677114,-1.9443502,-2.3282554,-3.0819438,-0.0037957346,-2.0933306,-2.768729,-0.05411382,-0.032536294,-0.061843444,-3.71774,0.09733032,0.015392023,-2.901634,-0.29202753,-2.1529484,0.06947824,0.027390247,-2.9298878,-0.22337024,-1.850935,-2.6713398,-2.4523175,-0.055195678,-2.2762096,-2.392347,-3.02789,0.0750512,-0.0028927687,0.030666985,-0.035021838,-3.1040976,-0.15943934,-2.3292568,-0.026448298,0.030516624,-0.09660535,-2.8697262,-2.5927122,-2.1850781,-0.018522857,-2.2049735,-0.016417133,-3.1124196,-0.04350726,-1.9802579,-2.394526,-0.030547163,0.08505568,-0.48340824,-0.004198621,0.016684001,-2.9274848,-0.10271224,0.010432343,-0.102729894,0.09161914,-2.0375018,0.02503996,-0.013374999,-0.029765233,0.06488536,-2.7633736,-2.2131672,-1.4574661,-2.3702593,0.002129609,-0.11885982,-2.068175,-3.1632667,-7.2434306E-4,0.16382974,-2.2484422,-2.0643377,0.076838575,0.015691342,0.086485334,0.0082078,-2.1057909,-2.4381442,-0.011456116,-0.0018965768,0.020687532,-1.9776245,-0.15351713,0.016804803,0.06176557,0.15852688,-1.7405784,-0.25792092,-0.020687707,0.067170784,-0.110070035,-1.98609,-1.8321645,-0.070537135,0.008962611,-2.1166508,-1.9377338,-2.995718,-2.2712042,0.06020786,0.014982012,-0.099842936,-2.1115947,-2.4027202,-2.8858697,-0.11079245,-0.04740184,-0.015561156,-0.012284202,-1.9599216,-2.8206005,-2.1632524,-0.02743415,-2.1351552,-2.0646925,-2.8517723,-1.1455803,-2.2466476,-0.0024833237,-2.6114175,-2.2507582,-2.0943174,-0.19093706,0.067204356,0.023761226,-2.0328002,-0.057931535,-2.3741276,-2.1831605,-2.8681307,-0.08045518,-2.0975273,-2.6092167,-0.026409835,-0.05514093,-0.16000871,-3.654371,0.02534772,0.01571047,-2.6835501,-0.074235916,-2.1936276,0.010042319,-0.13216938,-2.692597,-0.25679016,-1.934891,-2.8631642,-2.377939,-0.029392974,-2.3760257,-2.7462037,-2.7825027,-0.0638204,0.027849358,-0.06254161,-0.028559031,-2.8196883,-0.15587683,-2.6419349,0.06584531,-0.0731952,-0.024146244,-2.6663756,-2.8022053,-2.2400675,-0.054673932,-2.1612585,-0.036705934,-3.0504856,0.053386904,-1.7369323,-2.4422328,0.007959125,-0.0064409147,-0.092255175,-0.048411727,-0.019553019,-2.9230118,0.0057088127,-0.08203343,-0.1060602,0.02314528,-2.188351,-0.1383324,-0.10546489,-0.06529059,-0.047607396,-2.975298,-2.4023352,-1.5541344,-2.2646036,-0.003493311,-0.0025037413,-2.3163273,-3.044692,0.009549486,-0.24117352,-2.7282093,-2.230827,-0.018679094,-0.0076341312,0.03429535,0.024433294,-2.6110573,-3.0127416,0.031875297,-0.056734957,-0.017176632,-2.1418407,0.1459174,0.007580632,0.027071655,0.43127123,-1.7407706,0.021400703,0.021378083,0.0149755515,-0.13106179,-2.0742083,-2.2861626,-0.0074201617,-0.01774658,-2.4842079,-1.8325686,-2.8122702,-2.4030433,-0.08872515,-0.047139745,-0.057568606,-2.508621,-2.6233153,-2.6841295,0.038472734,0.04886683,0.030418877,-0.0908487,-1.9424329,-2.6747255,-2.090719,-0.0063590202,-2.3384817,-1.9434779,-2.9746919,-0.7335341,-1.9033538,0.13194352,-3.224395,-2.0583184,-2.1371481,-0.18214555,0.045302294,-0.06804907,-2.7915788,-0.036687385,-1.912966,-2.1260583,-3.2405639,0.010727201,-2.2854283,-2.7532508,-0.037150357,0.05295862,-0.050974417,-3.696372,0.010193995,0.018320987,-2.915344,-0.5789774,-2.3821068,-0.030285116,-0.054270536,-2.9084082,-0.5398827,-1.7422676,-2.6242042,-2.6294951,-0.06337798,-2.2509408,-2.377832,-2.920234,-0.0073106852,0.060670275,0.12680915,-0.16694883,-2.9070811,-0.052575495,-2.3197525,-0.007480869,-0.04662734,-0.08937219,-3.2127545,-2.4556544,-2.783066,7.1614864E-5,-2.3550053,-0.08399964,-3.1726341,0.0134405475,-2.3083887,-2.452029,0.011216428,0.017141944,-0.21155515,0.023125889,-0.12285909,-3.3535771,-0.02600281,0.009785515,-0.106018245,-0.008042679,-1.8356694,-0.013154141,-0.009229412,-0.01066273,-0.04354191,-2.6675942,-2.4916782,-1.817704,-2.2797732,-0.013685544,0.103302844,-2.2610524,-3.1652837,-0.029454615,0.098045826,-2.209117,-2.0675287,-0.033384703,-0.035821065,-0.1134943,-0.0668563,-2.0222514,-2.4671004,-0.08803137,-0.07354756,0.27477977,-2.4994202,0.02199426,-0.011431232,-0.0787428,-0.08841563,-2.1226947,0.3462068,0.06251189,0.0028954807,-0.1699541,-1.990783,-1.8622295,0.017685745,0.0045951316,-2.0587108,-2.314924,-2.8975472,-2.2982466,0.36541504,-0.08114273,-0.08406033,-2.082151,-2.3185205,-2.7845933,-0.020965818,0.033178765,-0.09125716,0.032249313,-2.5759716,-2.7759874,-2.784501,0.085135035,-2.0707228,-1.9063977,-3.0195632,-0.79020315,-1.9304987,-0.24099028,-2.760891,-2.1714284,-2.1368449,-0.09823855,-0.049417272,0.08039964,-2.0897622,-0.050144613,-1.9524074,-2.1617682,-3.0224023,5.3969695E-4,-2.2101057,-2.764756,0.024982516,-0.036167014,-0.06334422,-3.7640748,0.078253485,0.005082833,-2.864395,-0.15342265,-2.2165544,-0.014318938,0.03078679,-2.8175113,-0.5411998,-1.791336,-2.6582868,-2.6282203,0.005290528,-2.2793875,-2.4926314,-2.9488585,-0.051257238,0.06502271,-0.11350098,-0.13182838,-3.0213385,0.070068724,-2.3474858,0.084808685,-0.03969512,-0.13049723,-2.8962953,-2.5402136,-2.2495437,-5.6343706E-4,-2.234321,0.003221319,-3.2022507,0.08688739,-1.9408219,-2.404033,-0.081451096,0.105920695,0.16926257,0.07784699,0.052855607,-2.9754903,-0.064148106,-0.0881349,-0.08478074,0.03683968,-2.0677383,-0.15827738,-0.046210896,0.097017854,-0.005365081,-2.7856927,-2.153687,-1.5228219,-2.2995777,-0.041733894,-0.036627524,-2.166926,-3.0466967,-0.019944234,0.1438199,-2.276361,-2.1081598,-0.07117055,0.092349544,-0.04216806,0.079275325,-2.1293263,-2.5011973,-0.0061028786,-0.037827954,-0.14182177,-2.0451944,0.07225073,-0.077348284,0.042368405,-0.4495478,-1.859445,0.26929918,0.19811614,-0.013899529,-0.22922668,-2.1037047,-1.8566041,-0.05352799,0.0037738567,-2.1462374,-1.9569048,-2.8408034,-2.2683802,-0.08388072,-0.014776746,0.030367061,-2.1652513,-2.4266255,-2.7805293,-0.03630513,0.056974985,0.038045842,-0.07151322,-2.040237,-2.8403876,-2.2487128,0.02463187,-2.1280403,-2.0126784,-3.1227221,-0.7685093,-1.8939383,-0.045936592,-2.9737535,-2.232587,-2.1773531,-0.17109665,0.0619439,-0.06893943,-1.9483155,-0.03327962,-1.9413949,-2.1096902,-2.987658,-0.029930433,-2.2703764,-2.7590482,0.021833112,0.022525309,0.039640673,-3.6935792,0.0010451293,-0.034665555,-3.090407,0.08969081,-2.1852489,-0.052613284,0.041887563,-3.0108345,0.14907283,-1.8005085,-2.7026184,-2.6459055,0.036167137,-2.4101312,-2.4775982,-2.9044776,-0.081120975,-0.1823415,-0.033457942,0.10036924,-2.9538674,-0.14061102,-2.2822297,-0.0015644501,0.006051614,0.033338666,-3.2347727,-2.5272837,-2.130449,-0.09831958,-2.678298,0.0085622175,-3.1339855,0.00204828,-2.0533967,-2.459165,0.008125787,-0.07162058,-0.45080164,-0.020337004,-0.06431177,-3.3591359,0.011560443,-0.08497164,-0.0057604024,-0.007046925,-1.9966099,0.01624608,-0.08757179,-0.042398803,-0.087546445,-2.7754714,-2.1102746,-1.687092,-2.2409604,0.03238285,-0.19338869,-2.097123,-3.1685314,-0.03516489,-0.022752538,-2.2502472,-2.0822043,-0.014288984,-0.014304343,-0.05225372,0.0481092,-2.0970573,-2.472922,0.022368288,-0.052034535,-0.31737766,-1.9505299,-0.23283462,0.04314602,-0.0043575973,-0.33922002,-1.9734759,-0.5391771,-0.27677146,-0.036222983,0.17906603,-2.1972554,-1.9031792,0.04728395,-0.08487001,-2.082754,-1.9501176,-2.8731644,-2.2801611,-0.09172595,-0.027965004,0.054557282,-2.0159793,-2.45338,-2.728185,0.022556806,-0.05536574,-0.057461794,-0.14884073,-1.958306,-2.742762,-2.1579697,-0.068875596,-2.1452167,