-0.34058997,0.52401066,-0.68425953,-1.2766532,0.91390806,0.5117421,-4.072087,-1.6292031,0.35365227,0.6495337,0.8449705,-2.3760052,-1.4263208,-1.1190623,0.8615067,1.6112505,-4.0596023,-1.1648829,2.085923,-0.8300301,-1.3421428,0.30575123,1.796258,-3.1912527,0.7710861,0.68300116,-4.534977,0.4954032,0.8821529,1.0630537,-0.988608,2.3423398,-2.0683444,-1.7160498,0.6573776,0.7813187,0.70365405,-3.153654,1.3829609,0.123332426,-3.811677,-4.016015,-0.620671,1.052699,-5.3912354,1.0998274,-4.91549,1.3845458,0.9013932,-1.9244226,-0.29294136,1.4809818,1.9223454,0.40661657,-2.1762364,-4.366345,-0.21488786,0.69109726,-2.943176,-2.555271,-1.9500544,-1.7507787,-0.6884016,-3.213978,-1.0918897,-2.9073007,-0.7114396,-4.023362,-2.150399,-2.4096982,0.85212505,-3.4828131,-0.38242245,-2.5777383,-1.8141477,0.52973855,-3.3942633,0.7665519,-0.18539731,-1.8679634,1.6667913,1.578935,0.9492437,-0.37472504,-5.078023,-3.5716734,-2.3345542,1.4943739,0.8234169,-2.5365992,1.0914247,0.32513216,-3.372248,-0.6853423,2.2403371,-2.340177,1.2180922,0.8047827,-3.5610821,-3.5399537,-3.4391046,1.0024002,-1.3050966,0.82543254,-0.1962389,0.7744623,-5.6307554,-2.8894858,0.93335557,-6.1954956,1.1037706,-1.6922817,-3.1069431,0.9079504,-2.971327,-2.198531,0.38399723,-4.0409155,0.42783383,3.1783247,0.9638364,-2.1804593,2.255806,0.9459323,1.2297566,-0.90052885,-2.3755598,1.4815202,-0.8304089,-2.063704,1.8809812,-0.07383644,1.1590266,0.13408287,-4.696653,-1.9782999,0.3262967,0.5582049,-0.32147607,1.6010734,-0.39066434,1.3370204,-2.737431,-0.5146679,2.189676,-1.1152141,1.4287131,-1.9158822,1.0530083,0.30424526,2.048896,0.6378345,-2.0347703,0.39227125,-4.242225,2.2013261,0.4001894,1.680402,-1.329878,-2.4901352,0.9667803,1.0947679,-0.0034688187,0.117762044,0.41294226,1.1881227,-2.5100658,1.0573114,-3.5682495,-3.9427822,1.0328295,-1.890538,-1.5754348,0.75931543,-4.7282696,-2.0391405,0.7121558,1.2065604,1.8937654,-0.12636697,-0.098880656,0.1145353,1.4749674,-0.8901178,0.46365333,0.42405793,-1.6304755,1.3436514,-0.9455004,-1.7641958,-0.23869875,-0.34485787,1.0156046,0.7202108,0.16595468,-0.25134495,0.8900593,0.6195531,0.46330813,0.74046195,-1.0996165,0.51868534,1.2195178,-2.066965,-1.663283,-2.977152,1.0333754,-3.6605272,0.84664494,1.5788577,-1.2211841,-1.7825394,-1.2971369,0.6216907,-1.9529537,-2.9998949,0.70707697,-1.3171133,1.071517,0.5392017,0.44883776,0.02359241,-0.8536417,-3.34242,-2.3244371,0.535593,-1.2003784,-0.29089805,-0.060012378,0.7445539,-3.702599,0.18815517,0.59029603,0.7458085,-1.3735673,-3.7231488,0.8359194,-2.4612193,1.0590576,-0.9966614,0.67482615,0.5438279,-1.325657,-4.3215475,-0.5079545,0.79742926,0.26505858,-1.3673593,-4.675092,0.46686605,-0.60781854,0.7091896,1.007008,-0.62029904,-2.1636655,-4.7185845,-2.0225775,0.94131607,1.6895353,1.0614285,-2.3339117,0.07648137,0.49836108,0.8242528,0.09526862,-5.751245,-3.6756585,0.19731964,0.620034,0.27608523,0.27085504,-0.20524128,-1.1161321,-3.078637,0.63612896,0.89683634,0.45156702,-3.9683015,-0.73796076,0.9455526,-4.9722977,0.28883454,0.14799751,0.3056626,-5.127394,1.8210825,1.3594195,0.8566582,0.6274598,-2.9068244,0.61790687,-3.4808805,0.86671203,-2.786131,0.22673945,-3.9056792,0.5266589,0.5189712,1.4990618,0.37857404,-1.3700252,0.68233097,0.3569393,1.5733023,-4.7539463,-1.8387394,1.1454365,0.24132647,-1.5042115,0.67697734,-2.612755,0.88046104,0.5435454,-0.48815066,1.3258547,-3.4841287,-1.4821635,1.5798107,0.8097156,0.7763517,0.7196133,-0.2649962,-0.5303317,-2.7084024,1.1845769,0.5807566,1.5402962,-1.1808355,0.52721035,0.50389475,1.842833,1.529402,1.1023442,-3.6259885,1.4889611,0.7809592,-2.5447888,1.8492496,-2.4298713,0.7174528,2.8467793,1.0555393,-1.007745,0.62551075,2.2614925,1.0989476,1.8929192,-2.2222435,0.51284367,-1.8541731,-5.307812,1.7309992,1.0045362,0.26609793,2.4722235,1.5979718,-2.585743,-0.24046974,1.6227922,0.9055734,1.6570953,1.4416656,-0.34114274,1.5519589,2.214366,-1.2117244,1.6685183,-0.051168684,-0.05146779,0.41675517,1.6888602,-0.024972266,-0.7300827,-3.7281318,0.4626271,-7.922421,-0.98331463,0.5585155,-4.4132323,-1.2391915,0.14998285,-4.8189087,-1.0684927,1.0547986,0.24957445,-2.950231,1.3519813,-2.670225,-1.257515,0.21872973,-2.4971535,-4.289332,0.5853825,-1.5177888,-1.2195641,1.3603055,-4.7106643,1.9288197,1.278219,-0.026973573,-1.9346381,0.024279421,-1.729629,1.175646,-3.8224714,0.22736502,1.1699072,1.4029073,0.6892032,0.81842375,-1.3776846,-1.1282688,-1.5140429,-1.106892,-3.404458,2.2236822,1.2300836,0.6159827,-3.535064,-0.34634036,-3.5372362,-4.177279,1.2847031,-2.7663555,-3.2579916,-3.9526625,1.2775962,1.4226792,0.8027871,0.8226322,-1.5065181,1.15304,-3.1623313,0.7572351,1.4322608,0.62345594,-1.5363437,-4.4823055,-3.9857342,-3.7847497,2.1418602,0.4906725,-2.6826332,-5.0664544,-2.4293852,-1.8247293,-2.3060534,1.7557172,-5.1604652,0.45077214,0.41394445,1.6227974,-1.7609972,-6.0950503,0.06074079,0.53804934,-5.360345,0.28539005,-2.1043422,-0.1682642,0.8734226,-0.06440443,1.494394,0.08524587,1.7651458,-2.8970485,2.2096453,0.90446705,0.66263604,1.7572548,-2.2501092,-2.7782152,-0.74578124,-4.554394,-1.3013961,1.5881107,0.5971873,1.5135437,1.349043,0.4965937,-1.1662713,-0.637743,1.1174076,1.6380466,0.71317214,0.7046636,0.6130491,0.67208916,-0.0539934,0.3921806,-0.8623743,-1.6469127,-2.449071,0.8992433,-1.8877662,0.83323026,0.7531655,0.7079649,-1.825643,0.66279185,2.697321,0.94683117,0.73746306,3.0701952,0.19810574,-5.4344153,1.7119311,0.8853321,1.2051107,1.6861207,0.8609485,-1.0252682,0.5282404,0.7428004,-2.9902864,-2.8049474,-0.8717632,0.4401382,0.3188703,1.1956817,0.50346816,0.24874005,-2.4700596,0.31950858,-0.4281404,1.2446778,-1.1892797,0.51585877,-1.1061333,-3.6702435,0.26804566,1.672399,-3.5125766,-1.322399,-2.598136,0.7124255,-1.1882207,0.104607016,0.07927075,-2.4667222,0.29386714,-3.3323724,-4.883467,-4.432513,0.55288005,0.79742986,-4.4665704,-0.28748107,0.9179738,0.46877348,-0.20360515,0.31280765,0.13989173,-0.4424453,-3.1650515,0.7157733,0.19824116,-2.2807932,0.22599553,-1.360521,0.3437556,-0.41521564,-2.3404737,-0.49812183,-0.014837939,1.1426425,0.24331447,-2.8294067,0.38766772,0.43308666,-4.0514355,0.7003775,-2.137334,-3.3156602,1.9103152,1.401474,0.30978337,0.8641298,-4.5190578,1.1300243,-0.9526394,0.22468585,0.682846,1.3036997,0.061452076,0.15961052,0.42194825,-3.0434527,0.96666414,-0.016521135,-2.9231615,0.34543395,-3.0332584,1.1017439,-1.4830197,-2.839054,0.98940474,-0.77969044,1.734958,-1.0922117,-1.8356745,-0.056288477,0.79939604,-3.2085536,0.2791565,-0.9553873,1.3393384,0.18797922,-4.9143653,-4.1924706,0.72415006,-1.5274483,0.8644562,-0.39283776,-1.0027193,-1.6885625,0.7898407,0.6835567,1.0138481,0.4831042,-0.3859046,0.81101817,1.2678804,-0.7208813,0.6103645,-5.9324727,-4.0330167,0.60575515,-1.6070828,1.0683779,0.59257835,0.44681844,0.21413654,0.17693648,1.0798299,0.66705245,1.3570755,1.2284608,0.93402565,-1.396742,