1.0359318,-1.8293587,1.2192385,0.99183446,-2.9225545,1.0533545,-3.9301136,0.5062274,0.7771229,-2.0999446,0.22505832,1.0994846,0.3491391,2.0208642,-0.18087973,0.5831845,0.9789518,-0.3970792,0.10627219,-0.44669092,0.7753458,-3.3796575,-0.28508934,-0.6353553,-2.1311114,0.359959,-3.9860175,1.6246568,-3.2730434,1.0736809,-3.3229945,-1.1731746,1.0950953,-1.5438232,-0.31613657,1.208427,-5.138325,0.5798673,1.55774,-2.7742417,-2.6931882,-1.8924159,-0.02902763,-0.40221047,-2.332735,-4.2287703,-2.8953128,-2.4079804,-0.24876419,0.64490837,0.60472775,0.3667714,0.089940675,-4.4579425,-1.0384494,-2.5356207,1.6316178,1.4684695,1.3012738,0.61062896,-4.777938,-0.3000873,0.7691793,-4.4002395,1.9343135,1.0817876,-1.2470852,0.6221092,0.55329347,1.7595613,1.2640631,-1.4262046,0.43279287,-1.695837,-3.3966753,-2.1853554,0.101450786,-1.3118312,0.7799676,-0.8935991,-2.5604024,-0.74455833,-0.1888525,0.88322014,-0.9963108,0.99856687,-0.028692737,-2.6098032,1.0556536,-1.5933876,1.1195525,-2.160181,1.290257,0.2510279,0.34441376,-1.8305709,-0.14994128,0.63844675,-2.5441973,-0.76411957,1.3131688,-2.3228512,-0.24432272,0.94012105,1.3201281,-2.0665042,0.35352793,-2.1016707,0.9582461,0.8052904,0.4071652,1.2567396,-1.5468606,-1.7284517,-0.88836616,-1.9752562,0.7190689,1.272006,0.5791827,1.129203,-2.3718343,0.36034518,-2.6126087,-2.0840154,0.65824586,-3.226226,-5.0777955,1.1712078,-1.7495255,0.78218645,0.9193236,-0.95020646,1.142226,1.17541,1.2291415,0.22006516,-0.016653793,-1.9340222,1.2292249,-0.0700114,0.5553916,0.8731683,0.44083607,0.15955251,0.5850626,-0.6952887,0.73865974,0.34244245,0.58992004,-3.2825673,-2.6050704,-2.1840353,0.7029633,0.38310182,0.7016938,0.4277773,1.3984379,0.45695385,-2.4473703,1.3824469,-0.21618795,1.0374504,1.2047877,0.9677981,-1.0992785,1.1853781,1.3527272,-1.155295,1.1878752,0.3036096,0.774862,-0.6697754,0.74509037,-0.58037734,-2.122791,1.1412354,0.10075719,0.22400439,0.8427077,0.2948274,-0.6435822,1.5588001,-0.35329118,0.8572012,0.5001282,-2.7392416,0.3711374,0.83266556,-3.3993282,0.108461455,1.0912966,0.8353226,-0.64582527,0.23987207,-0.16429487,-2.615044,0.616823,-2.6400347,0.38206825,0.2159719,-3.9887097,0.45630887,-0.43448585,-2.696128,0.30239397,0.4479217,-0.12940398,-1.3719711,0.6961672,0.7216682,-0.45388576,-2.319277,-1.8821295,0.8429745,1.4095513,1.3961561,-0.7998078,0.5594774,0.32508942,-1.9638224,-1.3870376,0.39450863,-1.1593386,-0.14730988,0.010920554,1.0225232,-1.1772814,0.11024234,1.5388068,0.79291904,0.5637417,-2.8602438,-1.450054,0.48048738,0.39402813,-1.4702619,-1.2331249,-0.450036,1.0566719,0.5129953,0.800356,-0.6060102,-0.48065364,0.4589819,-0.7121708,-0.6274145,-4.3429093,0.67728066,-0.832007,-0.6881668,-2.2076619,0.6534354,0.4062693,0.6645179,-1.0410205,0.44063485,0.44404316,0.8741097,-1.7477145,0.76481956,-0.7525341,-0.39605203,-1.4809256,-0.6639528,0.4419573,0.60360926,0.928858,0.7383386,-5.5395465,-0.3332988,0.7418253,0.5287655,-4.0845156,-0.6048203,0.286961,0.8067712,0.29724747,0.16865508,-1.9947693,-3.6749701,-1.2234794,-4.697929,-0.21531704,-0.41578794,-1.1278882,-2.0886114,0.71799815,0.7396603,-1.0025766,-0.9489418,0.7976198,-0.3691414,-2.584931,-3.1748505,0.49025092,0.8522232,-0.98363197,0.67460257,-5.4959774,0.50543225,-2.0521579,0.94856936,-1.9921374,0.4189578,-1.7402307,0.42274478,-0.7149706,-5.3551855,-2.0342906,-2.152681,0.9168999,0.032744814,0.73713803,0.5373485,1.2361239,-4.615947,0.81977075,0.83298236,0.68031454,-0.8378169,0.6583901,-2.2260888,0.2377932,0.3928458,-0.99284184,-0.25475243,-2.445721,0.48857632,0.30597627,1.0148282,-1.4035454,-0.61382705,0.991487,-2.2824018,-5.297083,0.94191396,0.044044178,0.8034908,0.6671835,-2.7089353,0.2797257,1.0997429,1.2558566,1.2736411,1.3062452,1.1953278,0.59399056,0.51469237,-2.8623428,1.2416191,1.022433,0.41096023,0.44254118,1.2982613,2.0241292,1.3504875,1.7782911,0.36232835,-1.5025665,0.3706648,-0.17273973,0.46479347,0.9636302,-0.38895488,1.6241267,0.83340126,1.3798468,-0.73110604,0.6525273,0.81392026,0.56700075,0.83828473,1.5825003,-3.222508,1.74409,1.4851199,-1.434002,1.9287125,1.1436155,0.6363608,0.7028996,-1.5487293,-1.466962,-0.6451026,1.2829056,-1.7564583,-2.7194004,0.68092346,-2.5035255,-1.2413781,-1.1360976,0.4443645,0.79972136,-4.508235,-1.8193734,1.1046003,-2.3363626,0.7991113,-0.60670197,0.8186918,-2.6993814,0.65862644,0.7972366,0.4162078,0.88588154,-3.7747238,-1.5210335,-1.5618168,1.5358704,-0.42575788,0.41125286,1.1226152,1.2616842,0.8995935,-3.4748733,-4.7792435,-1.2954848,-2.767586,1.311632,-1.2586989,0.42688408,-0.8791858,-2.8827543,-0.28504372,1.6967589,-5.140055,-5.5683327,-1.8550943,1.793499,0.6072837,-2.642067,-1.9939674,0.12150736,0.47617802,0.35373235,0.2411666,1.1462961,-0.038226873,1.0509576,0.15011811,1.5026615,1.722222,1.4095654,-0.6396063,-3.81542,-6.018103,0.21621238,-1.4602591,1.7062141,0.6933863,0.8924795,-0.48413777,1.0352179,0.5798803,0.8857882,-4.2581773,-0.7329392,0.3958622,0.95483595,1.0111606,0.37858307,1.2431909,0.7271548,-2.3268487,0.57590884,-5.077423,0.7297056,0.5867059,-3.3440068,0.4565179,0.0078764595,-4.7672734,-2.9709015,-0.37220722,-0.6512429,0.5848559,1.3491312,-1.7501694,0.69553995,1.1751909,1.17607,1.3045648,0.0036479959,0.65512216,-1.9686701,0.38031375,2.143459,0.6061172,-0.20754422,0.96298134,0.5471538,0.78970534,-1.6962943,-2.83111,-0.42570108,0.9627376,-5.603255,-4.44948,0.835785,-3.7038643,-3.23422,1.3655856,-2.5445526,-0.3021093,-1.0723325,1.4841694,-1.2247131,-3.3355536,0.5160931,0.530626,1.0530578,0.72653127,-3.361888,0.46368024,-1.0045907,0.45848727,1.0406195,0.24449696,-0.22254221,0.6194292,0.49881887,-0.08886246,-4.4844956,-1.7332261,0.17900522,-1.5447433,0.18529396,0.97984785,0.24606933,0.9448325,0.38810167,0.44619104,0.5128516,0.09393145,-1.7016478,0.98993707,-0.7994478,0.828361,0.67843926,0.71110415,-2.1436775,-4.342307,0.32480693,-2.6245055,0.70947933,-1.6437994,-1.9173287,-3.838119,-1.1139548,0.8386641,-1.1511713,0.30337664,-1.4065342,-1.768186,0.14373457,0.54692644,0.103499025,0.705502,0.54769284,-1.056893,0.66447484,0.6088923,0.36336377,0.53680724,0.6960048,0.55272233,0.21421583,-1.8695486,-1.6950923,-2.740905,-1.6232553,0.46711603,0.41628152,0.6774761,-2.2949686,0.5874333,-1.6906099,-0.5196081,1.1427534,0.2323387,-1.8988243,0.4784237,0.0764629,0.08522296,0.36719173,0.5891409,1.2268101,0.38799807,0.5073311,-1.1237996,0.798382,-2.5405502,0.78053164,-0.1627318,-1.6375833,0.72575,0.11884003,1.1529009,1.3224189,0.75297296,-2.1539223,-2.2708178,-3.2674313,-3.2080863,0.3317301,-0.3232447,0.7975621,0.95553553,-0.8182127,-2.5282812,-2.9415069,-0.14110707,0.7988962,-3.1779518,-1.036649,0.7419975,-1.226779,0.8178939,1.0708483,0.92732644,-2.8434494,0.83386785,0.93075264,-2.7684371,-0.08356492,-0.08329588,-1.2291923,-0.1815183,-2.7462401,-2.6445932,1.0399836,-3.197333,1.8563701,-2.944762,-1.5475829,0.31299064,0.6761458,0.6743505,1.0558333,-1.8357825,