0.059873864,-0.6257968,-0.63387525,0.34941074,0.2331413,-0.19106202,-0.05973105,-0.34873214,0.029494282,-2.172885,0.7369149,-0.05858682,0.33646956,0.0,-0.05929426,-0.05932569,0.9344776,0.8089104,1.1052675,-0.25110117,1.3252335,-0.059017487,-0.74613357,-0.059219614,0.0,-0.054951437,0.72487134,-0.042724315,0.94170576,-0.058506478,-0.058300886,-0.9828541,0.0,-0.7022181,-0.053686853,0.7259468,-0.054044876,0.32641172,0.25199232,-0.05902362,-0.25208873,-0.4769128,-0.20858166,-0.031103492,0.12452996,0.5951185,-0.059740018,1.5082991,0.7217531,0.0,-1.5824296,-0.34864992,-0.536309,0.0,0.079887405,0.6080493,0.10952027,-1.7068928,-0.37432495,1.2863877,-0.1707673,-0.05919011,-0.05966635,-1.3407146,-0.059640642,1.1184965,-1.4219396,-0.05135251,0.0,-0.43723983,0.86229396,-0.2283153,1.0810715,-0.21654285,-1.4494985,0.3616124,0.0,-0.15620808,-0.98762524,-0.14960757,0.5203693,-0.803431,0.473962,-1.7468292,-0.4297177,0.99269533,0.104290724,1.4949185,0.8621974,-1.1001104,0.3478688,-0.059299298,-0.059778538,0.0,-0.5727692,0.54830146,0.098370366,0.51351297,0.0,0.0,0.0,0.02312179,0.33782026,-0.868836,-0.61401784,0.0,-0.55935264,0.0048581497,0.59491265,0.81163955,-0.014148689,-0.46405798,0.0,0.3737973,-0.059804805,1.2027643,-0.10323859,0.27627507,-0.3623912,-0.96114767,0.0,0.40356797,-1.3470372,0.9444615,0.10917289,0.75524664,-0.05932118,-1.2743981,